-5.771958455443382263e-02,5.058483779430389404e-02,-4.182090461254119873e-01,3.392627835273742676e-02,1.678608804941177368e-01,-5.057820584625005722e-03,-1.442767530679702759e-01,-4.483603313565254211e-02,6.629055738449096680e-02,-6.571929901838302612e-02,8.865232765674591064e-02,5.134635046124458313e-02,-2.212527841329574585e-01,7.345353811979293823e-02,4.307020828127861023e-02,-7.711610943078994751e-02,1.159264706075191498e-02,3.757644444704055786e-02,-1.421848237514495850e-01,1.667941221967339516e-03,1.197487413883209229e-01,1.005153805017471313e-01,-1.061375439167022705e-01,6.556472182273864746e-02,-1.036073789000511169e-01,3.571761399507522583e-02,3.161325156688690186e-01,5.426825582981109619e-02,-1.181562095880508423e-01,1.524637788534164429e-01,-4.057708010077476501e-02,-1.527797989547252655e-02,-2.202424257993698120e-01,2.457542717456817627e-02,-8.251683413982391357e-02,9.664721786975860596e-02,2.747578620910644531e-01,-2.530164420604705811e-01,-3.385942280292510986e-01,1.097921431064605713e-01,7.807698566466569901e-03,1.717430800199508667e-01,-2.116319909691810608e-02,-1.929974853992462158e-01,1.290688067674636841e-01,4.347441345453262329e-02,1.030340567231178284e-01,-2.699670493602752686e-01,7.022907584905624390e-02,6.788895279169082642e-02,2.625678181648254395e-01,-6.707634776830673218e-02,-1.250588595867156982e-01,1.928899735212326050e-01,-4.808289706707000732e-01,-9.707544930279254913e-03,-2.489792853593826294e-01,1.819253861904144287e-01,-3.124411106109619141e-01,-1.800818252377212048e-03,-4.257513880729675293e-01,-1.899273097515106201e-01,-8.958102017641067505e-02,3.823237121105194092e-02,2.062517702579498291e-01,-1.330771297216415405e-01,1.148244831711053848e-03,-2.471287548542022705e-01,-1.476257890462875366e-01,4.252988472580909729e-02,-3.784219920635223389e-02,-1.634953469038009644e-01,-7.571492809802293777e-03,-3.908006101846694946e-02,3.242083266377449036e-02,2.294448614120483398e-01,-7.816555351018905640e-02,-1.191985458135604858e-01,1.258708387613296509e-01,-3.993142768740653992e-02,-1.243795603513717651e-01,-2.502503395080566406e-01,1.105744317173957825e-01,-4.783220961689949036e-02,-2.250066213309764862e-02,-6.947940587997436523e-02,6.466256827116012573e-02,-1.056734547019004822e-01,-7.573360949754714966e-02,2.327646873891353607e-02,6.975650787353515625e-02,-7.222120463848114014e-02,-1.259700860828161240e-03,-2.689028382301330566e-01,-1.455496996641159058e-01,-2.392617017030715942e-01,7.846701890230178833e-02,-1.835951656103134155e-01,2.138041704893112183e-01,-1.236263066530227661e-01,-7.790444046258926392e-02,6.492812186479568481e-02,1.452891342341899872e-02,2.229584380984306335e-03,1.764683127403259277e-01,-3.082046657800674438e-02,-6.930948495864868164e-01,-8.565156906843185425e-02,-3.117487132549285889e-01,1.347286254167556763e-01,-3.101699054241180420e-01,3.262143582105636597e-02,7.908706367015838623e-02,1.171665564179420471e-01,-2.944104969501495361e-01,9.833846986293792725e-02,-9.449011087417602539e-02,-2.319033890962600708e-01,9.737449884414672852e-02,-3.252949193120002747e-02,-6.077776104211807251e-02,-5.599583685398101807e-02,2.179772555828094482e-01,3.103681206703186035e-01,-4.887877404689788818e-02,-1.719844788312911987e-01,-1.437106728553771973e-01,1.032560840249061584e-01,-5.549009516835212708e-02,1.225046291947364807e-01,9.614432603120803833e-02,-5.032641813158988953e-02,-1.622374653816223145e-01,-2.974060773849487305e-01,9.551070630550384521e-02,-1.108866110444068909e-01,-1.165150701999664307e-01,7.558316737413406372e-02,1.918727010488510132e-01,-1.922429352998733521e-01,-8.510433137416839600e-02,3.616517409682273865e-02,-1.974925696849822998e-01,5.054276436567306519e-02,5.036718770861625671e-02,-1.925624790601432323e-03,1.203419864177703857e-01,-3.112328350543975830e-01,-4.278240501880645752e-01,-2.742741703987121582e-01,-6.236762180924415588e-02,1.553869992494583130e-01,1.828288435935974121e-01,-7.224477082490921021e-02,-1.142429411411285400e-01,9.138310700654983521e-02,8.408498764038085938e-02,-1.473719924688339233e-01,-2.268874645233154297e-01,-2.127604335546493530e-01,1.175268068909645081e-01,1.574759334325790405e-01,2.365017980337142944e-01,-1.939724534749984741e-01,1.970403790473937988e-01,6.598716229200363159e-02,-2.265189401805400848e-02,5.821827054023742676e-02,-1.200054027140140533e-02,-1.944943666458129883e-01,9.620486199855804443e-02,-1.299541741609573364e-01,3.025111928582191467e-02,2.984595000743865967e-01,-1.726028043776750565e-03,-2.309082448482513428e-01,1.018293276429176331e-01,-1.023441478610038757e-01,2.196747660636901855e-01,-2.778618782758712769e-02,-1.002488061785697937e-01,-5.463940277695655823e-02,7.228419184684753418e-02,-2.371123433113098145e-01,-5.969808553345501423e-04,1.643912941217422485e-01,-2.674338221549987793e-01,-4.029890596866607666e-01,2.274636924266815186e-02,-1.097461655735969543e-01,-1.764564216136932373e-01,-1.972105205059051514e-01,3.004307858645915985e-03,-3.895013779401779175e-02,-1.281201839447021484e-01,2.936544418334960938e-01,-1.394715756177902222e-01,-2.983815073966979980e-01,-7.956940680742263794e-02,-2.419842332601547241e-01,-3.360140696167945862e-02,-9.924751520156860352e-02,3.473305702209472656e-01,-4.861709848046302795e-02,-1.875904798507690430e-01,-1.588434539735317230e-02,-2.318790555000305176e-01,-1.588006913661956787e-01,8.938258141279220581e-02,2.031209692358970642e-02,-2.393870204687118530e-01,-7.250456511974334717e-02,1.691228002309799194e-01,-2.170682102441787720e-01,-5.152114201337099075e-03,-1.250893771648406982e-01,1.516982764005661011e-01,1.401527822017669678e-01,2.885943055152893066e-01,-2.095242589712142944e-01,-1.145403012633323669e-01,1.276273094117641449e-02,9.210845082998275757e-02,-6.079742312431335449e-02,-2.101329565048217773e-01,1.393010914325714111e-01,-1.147656352259218693e-03,-1.560487151145935059e-01,-1.503487080335617065e-01,-1.537047177553176880e-01,-1.499853432178497314e-01,-1.566339731216430664e-01,2.543699443340301514e-01,-8.146346360445022583e-02,6.801733374595642090e-02,2.262383103370666504e-01,1.189192235469818115e-01,1.005080193281173706e-01,-1.164891049265861511e-01,-1.374535858631134033e-01,-1.499623060226440430e-01,3.059770725667476654e-02,-2.530666589736938477e-01,6.299999356269836426e-02,-2.052235305309295654e-01,-1.226352527737617493e-01,-8.925199508666992188e-01,-1.015498563647270203e-01,2.803282346576452255e-03,-2.823777310550212860e-02,-5.474776029586791992e-01,-9.172591567039489746e-02,2.688550651073455811e-01,-1.115835458040237427e-01,-5.986768007278442383e-02,2.024905383586883545e-01
-3.219597339630126953e-01,1.397657692432403564e-01,-1.945382207632064819e-01,-3.237182274460792542e-02,9.001514315605163574e-02,1.247864961624145508e-01,5.617807805538177490e-02,-9.059137850999832153e-02,-6.487354636192321777e-02,4.407864063978195190e-03,-1.807569563388824463e-01,6.035019457340240479e-02,1.167262569069862366e-01,-2.114493772387504578e-02,5.502110347151756287e-02,-2.474129945039749146e-02,-2.503522299230098724e-02,-5.002502202987670898e-01,-5.719840154051780701e-02,-1.625715047121047974e-01,9.729526937007904053e-02,-6.202272325754165649e-02,-2.639637589454650879e-01,-2.329270690679550171e-01,7.743125408887863159e-02,5.161961168050765991e-02,5.719122942537069321e-03,-7.902400195598602295e-02,-4.007910192012786865e-01,-1.140329763293266296e-01,-3.064551018178462982e-02,-9.049106389284133911e-02,2.113284617662429810e-01,-4.075349867343902588e-01,1.384521722793579102e-01,-2.034027315676212311e-02,-2.766356617212295532e-02,-2.736569643020629883e-01,-1.895284838974475861e-02,1.764537245035171509e-01,-2.139968052506446838e-02,8.822297677397727966e-03,-2.950636483728885651e-02,-1.173571050167083740e-01,-1.320042163133621216e-01,-3.766834139823913574e-01,6.915513891726732254e-03,-2.978823184967041016e-01,1.726858764886856079e-01,-3.650223612785339355e-01,2.387721687555313110e-01,-1.330804526805877686e-01,2.455373108386993408e-01,5.750495567917823792e-02,5.384747684001922607e-02,1.596728563308715820e-01,-6.551173329353332520e-02,5.713740829378366470e-03,7.791823148727416992e-02,-1.109640002250671387e-01,-4.951460286974906921e-03,1.646902598440647125e-02,2.121227048337459564e-02,4.671624302864074707e-02,8.566758781671524048e-02,-1.386654376983642578e-01,-2.955194413661956787e-01,-2.388124726712703705e-02,-2.515261173248291016e-01,1.628564000129699707e-01,-8.626890927553176880e-02,-2.912708520889282227e-01,-4.860647022724151611e-02,-4.745288193225860596e-01,-1.593913733959197998e-01,-1.401877254247665405e-01,-3.036500513553619385e-01,-1.046646162867546082e-01,-5.169856175780296326e-02,-1.590525507926940918e-01,-2.232960015535354614e-01,1.887123137712478638e-01,-2.356825955212116241e-02,-1.217860281467437744e-01,-2.934173941612243652e-01,2.590708136558532715e-01,-4.260205924510955811e-01,-2.218509912490844727e-01,-9.727256000041961670e-02,9.647444635629653931e-02,-2.569264173507690430e-01,-1.627107262611389160e-01,6.841501593589782715e-02,-7.233210373669862747e-03,8.559456467628479004e-02,-3.687678277492523193e-01,-6.519362330436706543e-01,3.531494140625000000e-01,2.285581678152084351e-01,9.262761101126670837e-03,-1.195998117327690125e-01,3.827660903334617615e-02,1.796894371509552002e-01,-1.943458318710327148e-01,1.172712966799736023e-01,2.941285371780395508e-01,-1.655574887990951538e-01,-1.734761893749237061e-01,-1.773860752582550049e-01,1.929908692836761475e-01,-1.733911335468292236e-01,-9.201489388942718506e-02,2.797954902052879333e-02,-4.119506571441888809e-03,1.447085887193679810e-01,1.435670405626296997e-01,5.273890122771263123e-02,1.372564435005187988e-01,3.740963712334632874e-02,8.273047208786010742e-02,-1.334774196147918701e-01,-1.011407654732465744e-02,2.014085203409194946e-01,2.010155320167541504e-01,-7.095637265592813492e-03,-9.307929873466491699e-02,1.854084432125091553e-01,-5.131011828780174255e-02,-3.022851645946502686e-01,6.874163448810577393e-02,-2.143793106079101562e-01,-2.366861402988433838e-01,2.553628087043762207e-01,6.366687361150979996e-03,1.183342933654785156e-01,2.725321054458618164e-01,2.242418378591537476e-02,-1.327373534440994263e-01,4.404414072632789612e-02,-1.433009505271911621e-01,5.256244912743568420e-02,1.112833768129348755e-01,1.706547588109970093e-01,-2.319051623344421387e-01,-2.739532589912414551e-01,-4.480542838573455811e-01,1.751214116811752319e-01,3.207977712154388428e-01,-2.546643614768981934e-01,-1.349874287843704224e-01,5.819171294569969177e-02,-1.822236478328704834e-01,-2.329917997121810913e-01,-1.735126227140426636e-01,-3.971055895090103149e-02,1.166520640254020691e-01,-3.148075640201568604e-01,2.672014236450195312e-01,1.814274489879608154e-01,1.363536715507507324e-01,1.043403670191764832e-01,1.663041301071643829e-02,-1.135132163763046265e-01,1.573918461799621582e-01,-8.541241288185119629e-02,1.639142781496047974e-01,2.112170914188027382e-03,-1.131968498229980469e-01,-4.054093956947326660e-01,2.634355127811431885e-01,-2.671886235475540161e-02,7.056866586208343506e-02,-1.725541502237319946e-01,7.753478735685348511e-02,8.630390278995037079e-03,-3.012497425079345703e-01,-3.218209743499755859e-01,1.008099410682916641e-02,-6.031938195228576660e-01,-1.741504371166229248e-01,2.185515165328979492e-01,-4.909089505672454834e-01,-1.620898693799972534e-01,-1.462145447731018066e-01,9.882586449384689331e-02,3.088741004467010498e-02,-1.611614078283309937e-01,-3.128879144787788391e-02,-4.500893652439117432e-01,3.355500847101211548e-02,7.109495997428894043e-02,-3.978792130947113037e-01,-7.387464493513107300e-02,1.154617145657539368e-01,9.042312204837799072e-02,-9.489747881889343262e-02,-2.235509008169174194e-01,2.873697876930236816e-01,2.369312793016433716e-01,1.776007562875747681e-01,-6.015302613377571106e-02,2.018341869115829468e-01,2.789416611194610596e-01,-1.431148946285247803e-01,3.168853372335433960e-02,7.994276285171508789e-02,-1.512247044593095779e-02,8.413688838481903076e-02,-5.251666903495788574e-01,1.229456998407840729e-02,-5.967437028884887695e-01,-2.020545005798339844e-01,2.094429284334182739e-01,-2.342776954174041748e-01,-7.277756929397583008e-02,-4.707713797688484192e-02,-3.223550915718078613e-01,-3.789748847484588623e-01,1.893143504858016968e-01,-2.296027988195419312e-01,7.028573751449584961e-02,-3.644855022430419922e-01,-9.976291656494140625e-02,-4.116084277629852295e-01,9.693108499050140381e-03,-1.724282279610633850e-02,-7.913371175527572632e-02,2.494786083698272705e-01,-2.238007821142673492e-02,-7.593929022550582886e-02,-4.770375415682792664e-02,8.355094492435455322e-02,2.859331965446472168e-01,6.108640879392623901e-02,-2.581104449927806854e-02,1.138611733913421631e-01,-1.386194378137588501e-01,1.236912086606025696e-01,1.181399524211883545e-01,7.473862171173095703e-02,2.083091810345649719e-02,-1.684788465499877930e-01,1.636017113924026489e-01,2.991287223994731903e-02,2.623656392097473145e-01,-6.178538128733634949e-02,9.416951239109039307e-02,-2.576823532581329346e-01,4.651998728513717651e-02,2.198156155645847321e-02,-3.577941656112670898e-01,-2.434461191296577454e-02,-5.328758955001831055e-01,-3.092278540134429932e-01,-1.590207666158676147e-01,-2.369288653135299683e-01
3.510725498199462891e-02,2.689948678016662598e-01,-6.790460646152496338e-02,-1.076138913631439209e-01,-2.119553685188293457e-01,-2.860415577888488770e-01,9.072509407997131348e-02,-9.483755379915237427e-02,-4.953422024846076965e-02,2.199721932411193848e-01,1.420398205518722534e-01,-2.341941930353641510e-02,-2.200729399919509888e-01,9.913260489702224731e-02,-5.110438540577888489e-02,-1.217620670795440674e-01,3.669182360172271729e-01,-3.198724687099456787e-01,-8.984851092100143433e-02,5.279906839132308960e-02,-1.364432573318481445e-01,-2.901566922664642334e-01,1.765480190515518188e-01,-1.291765421628952026e-01,3.068634569644927979e-01,1.586898118257522583e-01,-2.020764052867889404e-01,-1.442805584520101547e-02,1.497789174318313599e-01,4.806038364768028259e-02,-2.173085808753967285e-01,5.092674866318702698e-02,8.401297032833099365e-02,-6.331116557121276855e-01,3.860124945640563965e-02,5.719712004065513611e-02,-3.413723409175872803e-02,-5.245976150035858154e-02,-2.648546993732452393e-01,-6.410419195890426636e-02,-9.255434572696685791e-02,-1.346457004547119141e-01,3.080273270606994629e-01,2.074413374066352844e-02,-2.983947284519672394e-02,2.520172670483589172e-02,9.500285238027572632e-02,2.081178575754165649e-01,6.595564540475606918e-03,-8.147644251585006714e-02,-1.460053957998752594e-02,1.919460594654083252e-01,6.072270870208740234e-02,2.879979275166988373e-02,-2.367557138204574585e-01,-4.193360209465026855e-01,-2.115234434604644775e-01,-1.928310692310333252e-01,-3.069633245468139648e-01,-5.125474333763122559e-01,-3.517688810825347900e-01,6.315636634826660156e-02,-4.906149208545684814e-02,-5.741630867123603821e-02,-3.917486667633056641e-01,1.706600636243820190e-01,3.077017664909362793e-01,2.433373332023620605e-01,-2.850992083549499512e-01,2.253257334232330322e-01,-2.230320274829864502e-01,-1.733204536139965057e-02,1.302140057086944580e-01,-5.648452043533325195e-01,5.099753290414810181e-02,-9.416658431291580200e-02,1.227028965950012207e-01,-3.358637392520904541e-01,-1.764283478260040283e-01,2.643332350999116898e-03,-2.768167853355407715e-01,-8.215050697326660156e-01,7.902643084526062012e-02,1.508403569459915161e-01,2.051567733287811279e-01,-3.809337317943572998e-01,2.750647068023681641e-01,-1.194017305970191956e-01,-1.425802856683731079e-01,-1.524433046579360962e-01,-3.440377488732337952e-02,-2.771217823028564453e-01,-1.507674157619476318e-01,-9.645316749811172485e-02,1.694259494543075562e-01,-2.855068631470203400e-02,-3.014795482158660889e-01,2.211502790451049805e-01,-2.337556146085262299e-02,-5.028566122055053711e-01,4.273473843932151794e-02,2.488987594842910767e-01,1.299736797809600830e-01,-4.407820999622344971e-01,1.056604906916618347e-01,4.406666010618209839e-02,-3.255530074238777161e-02,-2.638233006000518799e-01,-4.145206511020660400e-01,-1.958279162645339966e-01,-5.182628631591796875e-01,-1.712086349725723267e-01,-6.041406989097595215e-01,2.303964830935001373e-02,-1.122287474572658539e-02,2.238565236330032349e-01,-4.081383049488067627e-01,-1.224287450313568115e-01,9.998638927936553955e-02,2.304942756891250610e-01,1.216807812452316284e-01,7.180213928222656250e-02,-2.796271443367004395e-01,-1.706079989671707153e-01,-9.623995423316955566e-02,-2.071296423673629761e-01,-1.057029440999031067e-01,3.312035202980041504e-01,-1.271409690380096436e-01,-1.645326465368270874e-01,3.468923568725585938e-01,1.695082895457744598e-02,1.981195807456970215e-01,-2.092700600624084473e-01,1.235834136605262756e-01,1.485282331705093384e-01,1.416698694229125977e-01,7.371830753982067108e-03,1.804685592651367188e-01,-1.750462800264358521e-01,-1.984773278236389160e-01,-3.001124262809753418e-01,5.360913276672363281e-02,2.750233113765716553e-01,-2.139991670846939087e-01,-4.352306202054023743e-02,-1.634745746850967407e-01,-3.947545289993286133e-01,8.596415817737579346e-02,6.896332651376724243e-02,-2.086683064699172974e-01,-2.432713285088539124e-02,-5.460043251514434814e-02,1.845567226409912109e-01,-9.508883208036422729e-02,2.664836347103118896e-01,-1.561420857906341553e-01,-1.768613606691360474e-01,-1.788172125816345215e-01,1.982379704713821411e-01,-7.621574401855468750e-01,5.249849706888198853e-02,-2.641716599464416504e-01,-4.869945812970399857e-03,-1.117281392216682434e-01,-1.094785705208778381e-01,2.112950533628463745e-01,-7.509261369705200195e-02,-3.630125820636749268e-01,-1.453511118888854980e-01,5.203251168131828308e-02,-1.929299086332321167e-01,-1.595691144466400146e-01,-1.386315561830997467e-02,8.093130588531494141e-02,-5.379781126976013184e-02,-6.513153761625289917e-02,-1.638602763414382935e-01,-2.718808054924011230e-01,-4.085485637187957764e-01,-5.375466346740722656e-01,2.475630044937133789e-01,-1.306029856204986572e-01,1.221513748168945312e-01,-2.309445142745971680e-01,4.469437152147293091e-02,-4.646457731723785400e-02,1.189157441258430481e-01,4.721421003341674805e-02,-1.692181080579757690e-02,7.444130629301071167e-02,-3.819362223148345947e-01,1.155064851045608521e-01,9.489870071411132812e-02,1.455541104078292847e-01,2.808217704296112061e-01,-3.432833775877952576e-02,2.277723103761672974e-01,-2.776950895786285400e-01,-7.539346069097518921e-02,7.774050533771514893e-02,-2.172184735536575317e-02,-1.473866403102874756e-01,2.275668531656265259e-01,2.019874006509780884e-01,-1.146959140896797180e-01,2.823168933391571045e-01,-6.785328686237335205e-02,-1.932953447103500366e-01,6.739757210016250610e-02,5.233919247984886169e-03,-9.967953711748123169e-02,2.850622236728668213e-01,-5.356332659721374512e-02,-1.489623188972473145e-01,5.080700665712356567e-02,-3.272289037704467773e-01,-7.089823484420776367e-02,7.234297692775726318e-02,-7.408353686332702637e-02,1.862739324569702148e-01,2.210453897714614868e-01,-6.196125969290733337e-02,-3.286992907524108887e-01,4.877625778317451477e-02,2.963472902774810791e-01,2.950463816523551941e-02,1.832738965749740601e-01,-7.784678786993026733e-02,1.807662397623062134e-01,2.913232147693634033e-02,1.734987050294876099e-01,-6.305819004774093628e-02,1.705984771251678467e-01,7.385194301605224609e-02,-1.193705275654792786e-01,2.071526497602462769e-01,3.424100279808044434e-01,-6.297056376934051514e-02,-2.216053009033203125e-01,-1.051192954182624817e-01,8.187601715326309204e-02,-6.019474472850561142e-03,5.070526897907257080e-02,-3.465340435504913330e-01,-3.584514185786247253e-02,1.927785724401473999e-01,-2.447617202997207642e-01,1.576823145151138306e-01,-1.232715249061584473e-01,2.146134972572326660e-01,7.762282341718673706e-02,-7.234029471874237061e-02,1.988452225923538208e-01,-3.356166183948516846e-02,1.427577137947082520e-01
9.270904958248138428e-02,2.710343301296234131e-01,2.871422767639160156e-01,4.847595840692520142e-02,-8.583379536867141724e-02,-2.497505396604537964e-01,2.239792421460151672e-02,-2.645791172981262207e-01,8.358411490917205811e-02,1.173820123076438904e-01,2.465132325887680054e-01,-8.376418054103851318e-02,1.941895037889480591e-01,-1.097664758563041687e-01,-5.824283510446548462e-02,1.160905882716178894e-01,-6.946844607591629028e-02,-1.516208648681640625e-01,-4.977600648999214172e-02,-3.732882067561149597e-02,-1.508585810661315918e-01,-7.979317009449005127e-02,4.872755110263824463e-01,1.267120987176895142e-01,2.604798078536987305e-01,-4.642337560653686523e-03,-1.851994991302490234e-01,-8.501144498586654663e-02,4.311576858162879944e-02,-2.635241150856018066e-01,1.956541091203689575e-01,1.431290805339813232e-01,2.808627486228942871e-01,-3.725519180297851562e-01,2.959111034870147705e-01,-4.642056010197848082e-04,8.338424563407897949e-02,-1.774006336927413940e-01,2.071768939495086670e-01,-6.198933720588684082e-01,2.957485243678092957e-02,-1.531148105859756470e-01,-1.049590036273002625e-01,9.294211119413375854e-02,-2.392488718032836914e-02,-1.622952520847320557e-01,-2.616137079894542694e-02,3.979242146015167236e-01,-3.497021794319152832e-01,3.232055008411407471e-01,1.016814485192298889e-01,-2.479960471391677856e-01,-1.211954876780509949e-01,3.595563471317291260e-01,-3.288832902908325195e-01,1.086287051439285278e-01,1.153498142957687378e-01,1.216999590396881104e-01,2.489908635616302490e-01,3.074845969676971436e-01,3.944893926382064819e-02,3.303765058517456055e-01,9.878368675708770752e-02,-5.387266278266906738e-01,-1.120396330952644348e-01,-4.616587162017822266e-01,3.098799884319305420e-01,-2.448906004428863525e-01,-1.655910164117813110e-01,3.862522840499877930e-01,-4.766692966222763062e-02,-1.107664480805397034e-01,-9.455832652747631073e-03,-2.361565977334976196e-01,1.560283303260803223e-01,2.485812455415725708e-01,7.552581280469894409e-02,9.189731627702713013e-02,2.514738142490386963e-01,7.454587519168853760e-02,-3.407588899135589600e-01,3.332277536392211914e-01,9.713189303874969482e-02,2.923048436641693115e-01,1.393787860870361328e-01,2.530374825000762939e-01,9.476772695779800415e-02,-6.342009454965591431e-02,-9.096857160329818726e-02,-1.725139468908309937e-02,-1.691909730434417725e-01,-4.661983251571655273e-01,1.415488868951797485e-02,1.119336485862731934e-01,-5.428036674857139587e-02,8.247192203998565674e-02,-2.340358197689056396e-01,-8.483617752790451050e-02,1.568602621555328369e-01,1.988561600446701050e-01,2.622268348932266235e-02,1.163644343614578247e-01,-9.521766006946563721e-02,2.802663445472717285e-01,-2.975977659225463867e-01,-1.836103945970535278e-01,-1.236315742135047913e-01,8.354591578245162964e-02,3.021945953369140625e-01,-2.238217592239379883e-01,-3.004816770553588867e-01,1.973791271448135376e-01,-2.236207425594329834e-01,3.491162061691284180e-01,3.317499458789825439e-01,-1.253974735736846924e-01,-9.123430401086807251e-02,1.537241488695144653e-01,5.037038773298263550e-02,-9.408701211214065552e-02,-1.620805263519287109e-01,-4.526009559631347656e-01,6.593000143766403198e-03,-1.954965852200984955e-02,-5.273168161511421204e-02,-1.676652580499649048e-02,6.354308687150478363e-03,-4.584397375583648682e-02,-6.754617393016815186e-02,1.345278471708297729e-01,-3.272838518023490906e-02,-9.639730304479598999e-02,-3.881024122238159180e-01,4.318188130855560303e-01,1.572634726762771606e-01,-2.293273620307445526e-02,1.321783512830734253e-01,-3.982245922088623047e-02,1.306335628032684326e-01,-3.065704107284545898e-01,-3.373960207682102919e-04,-1.886816578917205334e-03,2.789403796195983887e-01,3.119980096817016602e-01,-1.632934361696243286e-01,1.198364421725273132e-01,3.202012479305267334e-01,-5.919182896614074707e-01,-6.744086742401123047e-01,1.146191954612731934e-01,-2.669334113597869873e-01,5.381064489483833313e-02,-1.450482755899429321e-01,-3.003420829772949219e-01,-1.667461097240447998e-01,2.944978177547454834e-01,-2.000401914119720459e-01,3.256083279848098755e-02,7.102422416210174561e-02,-2.021828293800354004e-01,9.624515473842620850e-02,5.434874072670936584e-02,-3.887073993682861328e-01,2.988421916961669922e-01,-2.217482179403305054e-01,-1.441086083650588989e-01,-2.655521929264068604e-01,5.194237828254699707e-02,1.028487756848335266e-01,-5.993435904383659363e-02,-1.260510683059692383e-01,2.240291982889175415e-01,2.241319268941879272e-01,1.412051320075988770e-01,5.611113458871841431e-02,2.124525755643844604e-01,3.338662981986999512e-01,1.074751541018486023e-01,-4.176819324493408203e-01,1.459782570600509644e-01,-3.607921302318572998e-01,-2.034624367952346802e-01,7.412148267030715942e-02,-3.931836187839508057e-01,1.199291180819272995e-02,-5.405899882316589355e-01,-5.543250963091850281e-02,8.401913195848464966e-02,1.940653771162033081e-01,4.506377968937158585e-03,1.417507827281951904e-01,-3.065237700939178467e-01,1.553248707205057144e-02,-2.680206298828125000e-02,2.358226850628852844e-02,-4.924811422824859619e-01,-1.502740383148193359e-01,-3.779041022062301636e-02,-5.263741686940193176e-02,-8.076830208301544189e-02,-1.710472106933593750e-01,-2.677547372877597809e-02,-2.582676708698272705e-01,-8.017655462026596069e-02,1.119305044412612915e-01,2.759834527969360352e-01,-7.830271869897842407e-02,-6.063945963978767395e-02,9.778934530913829803e-03,1.628097519278526306e-02,2.044582068920135498e-01,-1.661828011274337769e-01,-1.061574667692184448e-01,8.710710704326629639e-02,-2.795825526118278503e-02,-2.490700632333755493e-01,-1.663783788681030273e-01,-2.892670929431915283e-01,2.102140486240386963e-01,-4.069064259529113770e-01,-1.647813767194747925e-01,-8.906290680170059204e-02,2.280976856127381325e-03,3.811748325824737549e-01,3.702257573604583740e-01,1.228190436959266663e-01,-8.889751881361007690e-02,1.951537877321243286e-01,-2.617335915565490723e-01,1.949172168970108032e-01,-9.666910767555236816e-02,4.920512437820434570e-03,3.172011971473693848e-01,2.840948998928070068e-01,-1.919288188219070435e-02,4.112749397754669189e-01,-6.691283732652664185e-02,-5.830120295286178589e-02,-1.139356493949890137e-01,-3.273578360676765442e-03,-6.433444470167160034e-02,-6.496257334947586060e-02,-1.458892524242401123e-01,5.735193938016891479e-02,5.634529516100883484e-04,1.952329725027084351e-01,-1.506094187498092651e-01,8.732538670301437378e-02,2.236763201653957367e-02,-4.652985557913780212e-02,1.075948774814605713e-01,2.493628561496734619e-01,-1.513510793447494507e-01,-1.544836610555648804e-01,-6.967468559741973877e-02,-1.498684287071228027e-01
-1.660054028034210205e-01,-1.510411798954010010e-01,2.865577042102813721e-01,-1.849659085273742676e-01,3.176492750644683838e-01,1.081715896725654602e-01,-1.420068591833114624e-01,-4.838666319847106934e-02,-8.972814679145812988e-02,1.577779650688171387e-01,2.726862020790576935e-02,-8.441907912492752075e-02,1.254167556762695312e-01,7.462986558675765991e-02,-2.809277176856994629e-02,3.813874348998069763e-02,-2.449461072683334351e-01,2.369553744792938232e-01,1.687615364789962769e-02,2.754065096378326416e-01,-3.760078549385070801e-01,-5.944517254829406738e-02,1.481184214353561401e-01,-1.185892224311828613e-01,-2.571909725666046143e-01,3.996417298913002014e-02,-1.414374560117721558e-01,8.121318370103836060e-02,-1.185116078704595566e-02,-2.682825922966003418e-01,1.307103335857391357e-01,-2.134760618209838867e-01,-1.312721520662307739e-01,-2.707026600837707520e-01,2.681236863136291504e-01,3.222738504409790039e-01,1.619211435317993164e-01,-3.039321899414062500e-01,-1.236078888177871704e-01,-6.966793537139892578e-02,-1.442084927111864090e-02,2.485882304608821869e-02,-1.940257661044597626e-02,-1.228692457079887390e-01,7.472815364599227905e-02,9.545955806970596313e-02,-2.887226641178131104e-01,9.808480739593505859e-02,4.217577725648880005e-02,-1.575801670551300049e-01,5.340497940778732300e-02,8.619483560323715210e-02,-3.701746463775634766e-02,-1.199425011873245239e-01,-3.321568667888641357e-01,3.110956549644470215e-01,2.020935863256454468e-01,1.516376137733459473e-01,-3.120243847370147705e-01,-3.928343653678894043e-01,-2.645055055618286133e-01,3.769582808017730713e-01,2.691551810130476952e-03,3.825760260224342346e-02,-3.161865770816802979e-01,4.711076617240905762e-02,-1.869339942932128906e-01,2.102033048868179321e-01,-3.220666944980621338e-01,-3.021623194217681885e-01,-2.169086039066314697e-01,-2.368351966142654419e-01,-9.858116507530212402e-02,-3.999334871768951416e-01,-1.273872852325439453e-01,8.003833889961242676e-02,3.315491601824760437e-02,1.477014124393463135e-01,-1.555084437131881714e-01,7.299131155014038086e-02,-8.467682451009750366e-02,-1.653829216957092285e-02,3.945544958114624023e-01,-1.719499379396438599e-02,1.813300251960754395e-01,-1.059580668807029724e-01,-3.218986093997955322e-02,2.346762120723724365e-01,3.592935204505920410e-02,7.253701239824295044e-02,-4.471607506275177002e-02,-2.541749477386474609e-01,2.616704069077968597e-02,2.511804699897766113e-01,-7.424439489841461182e-02,-3.272318840026855469e-02,-1.679196655750274658e-01,-1.607626676559448242e-01,-3.900136947631835938e-01,1.198789477348327637e-01,-1.319699883460998535e-01,-6.831453181803226471e-03,1.465346813201904297e-01,2.588468194007873535e-01,-1.443559527397155762e-01,4.172793403267860413e-02,-1.927631907165050507e-02,2.890004515647888184e-01,4.731277376413345337e-02,-1.609675139188766479e-01,8.532471954822540283e-02,1.941791921854019165e-01,3.378950357437133789e-01,2.249970138072967529e-01,-2.328171432018280029e-01,1.121678724884986877e-01,-3.050412749871611595e-03,1.461088657379150391e-02,-1.278312653303146362e-01,2.271377108991146088e-02,1.949904114007949829e-01,-4.279196560382843018e-01,1.299221962690353394e-01,-9.563023597002029419e-02,-7.051350921392440796e-02,1.220509931445121765e-01,-9.021851420402526855e-02,-2.503244280815124512e-01,5.129708647727966309e-01,-1.590875685214996338e-01,-6.831949204206466675e-02,1.679406166076660156e-01,8.804755285382270813e-03,-2.655722498893737793e-01,-1.865812460891902447e-03,-6.638769805431365967e-02,8.245801180601119995e-02,-9.795549511909484863e-02,-1.438032686710357666e-01,-4.714148119091987610e-02,2.252186462283134460e-02,2.932855486869812012e-02,-8.279280737042427063e-03,3.148156404495239258e-02,-1.229852065443992615e-01,4.224350675940513611e-02,-1.292912364006042480e-01,-2.564747929573059082e-01,-5.134501457214355469e-01,3.808683156967163086e-02,-6.650996953248977661e-02,7.764770835638046265e-02,-8.284484036266803741e-03,-1.855323314666748047e-01,-3.726503998041152954e-02,4.373479634523391724e-02,-1.009601578116416931e-01,1.499203592538833618e-01,2.542081773281097412e-01,4.703543484210968018e-01,-2.561601102352142334e-01,-6.113480776548385620e-02,4.154713824391365051e-02,-1.269139349460601807e-01,-5.905747786164283752e-02,-4.467540979385375977e-02,3.306420147418975830e-01,-1.931004971265792847e-02,3.223165497183799744e-02,-1.014039739966392517e-01,-6.523631513118743896e-02,2.632217109203338623e-01,1.144606620073318481e-03,4.495100975036621094e-01,-1.241544857621192932e-01,-2.612941665574908257e-03,1.122110560536384583e-01,1.470375712960958481e-02,1.343316305428743362e-02,1.971209049224853516e-01,1.714387387037277222e-01,-4.007141292095184326e-01,-3.279857039451599121e-01,-5.236190184950828552e-02,1.068015769124031067e-02,1.626363545656204224e-01,-2.945097088813781738e-01,1.885060966014862061e-01,-1.509913653135299683e-01,-7.836031168699264526e-02,-2.204506993293762207e-01,-1.312381476163864136e-01,-2.783621251583099365e-01,-2.848554775118827820e-02,-2.001230865716934204e-01,-4.303417354822158813e-02,2.208468466997146606e-01,-3.508361577987670898e-01,-1.289108395576477051e-01,-2.222179472446441650e-01,-1.448086202144622803e-01,6.428492814302444458e-02,-4.496107399463653564e-01,-1.249529770575463772e-03,-4.062443971633911133e-01,1.739261895418167114e-01,1.177053004503250122e-01,4.261299073696136475e-01,9.294177591800689697e-02,3.839780017733573914e-02,5.757435783743858337e-02,9.993666410446166992e-02,2.104992046952247620e-02,-1.362832486629486084e-01,-3.039641380310058594e-01,-1.895256787538528442e-01,8.047641813755035400e-02,1.057225018739700317e-01,3.418542444705963135e-01,-5.173937678337097168e-01,3.485162183642387390e-02,-1.013657376170158386e-01,-7.957870513200759888e-02,5.334592983126640320e-02,2.222493439912796021e-01,2.594765275716781616e-02,-1.325935125350952148e-01,1.871460229158401489e-01,1.188259497284889221e-01,3.828573822975158691e-01,-2.439063936471939087e-01,-2.399393357336521149e-02,4.171034693717956543e-02,-3.186608478426933289e-02,-1.045143157243728638e-01,-3.273528441786766052e-02,-3.395163714885711670e-01,2.482226639986038208e-01,-5.871856585144996643e-02,6.667247414588928223e-02,-6.507711112499237061e-02,9.012921154499053955e-02,3.271844089031219482e-01,2.322802096605300903e-01,9.626743942499160767e-02,7.797576487064361572e-02,-4.520947933197021484e-01,2.217892855405807495e-01,1.168692037463188171e-01,-1.149639785289764404e-01,-1.506402194499969482e-01,-3.192751705646514893e-01,9.252504259347915649e-02,-2.503887983039021492e-03,1.735019497573375702e-02,-2.513250410556793213e-01
-2.010075598955154419e-01,-3.591832518577575684e-02,8.713234215974807739e-02,4.670304358005523682e-01,2.737450301647186279e-01,2.696855366230010986e-01,1.636802107095718384e-01,1.590279042720794678e-01,1.024427730590105057e-02,3.243523836135864258e-02,1.910702139139175415e-01,1.187061984091997147e-02,-2.337200045585632324e-01,2.689241170883178711e-01,-5.791968479752540588e-02,8.283751457929611206e-02,3.030287660658359528e-02,1.298360675573348999e-01,-5.585881695151329041e-02,-3.465234488248825073e-02,-2.727993577718734741e-02,-6.837823987007141113e-01,-1.554664969444274902e-02,-1.544973254203796387e-01,3.077584784477949142e-03,2.754291296005249023e-01,-8.931957185268402100e-02,-8.431771397590637207e-02,-2.767963707447052002e-01,-3.071717321872711182e-01,-1.123008653521537781e-01,-1.953852325677871704e-01,-2.998013198375701904e-01,-4.834635928273200989e-02,2.635670602321624756e-01,-1.513322815299034119e-02,1.518678292632102966e-02,-6.224712356925010681e-02,2.441990673542022705e-01,2.829514443874359131e-01,-1.222540661692619324e-01,-1.158128529787063599e-01,-4.399455785751342773e-01,-6.772430986166000366e-02,-2.346530556678771973e-02,-2.440535426139831543e-01,1.196462363004684448e-01,-9.992200881242752075e-02,3.126275837421417236e-01,1.030787974596023560e-01,-1.295943856239318848e-01,2.013537287712097168e-02,-1.939616799354553223e-01,1.639900505542755127e-01,-4.759079590439796448e-02,-2.961509525775909424e-01,-3.388081490993499756e-02,-5.945088267326354980e-01,-2.341703623533248901e-01,-2.040086984634399414e-01,-1.208558529615402222e-01,-9.700729697942733765e-02,-8.759406208992004395e-02,-3.747925758361816406e-01,-2.252346277236938477e-02,2.015704289078712463e-02,2.027650773525238037e-01,-1.659733206033706665e-01,-5.549862235784530640e-02,-1.131890565156936646e-01,-1.770141161978244781e-02,1.286738365888595581e-01,-5.823144689202308655e-02,1.414094567298889160e-01,-6.537536531686782837e-02,-1.765876412391662598e-01,-8.604251593351364136e-02,1.280919611454010010e-01,5.450467392802238464e-02,6.467089802026748657e-02,-1.790818385779857635e-02,-1.082914397120475769e-01,-2.709127776324748993e-02,-1.080508455634117126e-01,-6.668814271688461304e-02,-5.434713140130043030e-02,-1.720194667577743530e-01,-3.985738754272460938e-01,-7.098407298326492310e-02,-6.076927762478590012e-03,-1.481506507843732834e-02,1.573863327503204346e-01,-7.116128504276275635e-02,2.849606424570083618e-02,-3.240787088871002197e-01,-2.029950767755508423e-01,-3.332254588603973389e-01,-3.733552247285842896e-02,-1.416969746351242065e-01,-1.828737109899520874e-01,-1.134650334715843201e-01,3.819099441170692444e-02,-1.859064996242523193e-01,-6.694728508591651917e-03,6.960088759660720825e-02,1.236719340085983276e-01,-9.523914754390716553e-02,2.691774666309356689e-01,1.356320548802614212e-02,2.577443718910217285e-01,-2.043751999735832214e-02,-1.224422007799148560e-01,1.651462018489837646e-01,-2.689613401889801025e-01,1.346984058618545532e-01,-3.412582352757453918e-02,-5.323764681816101074e-02,-6.941171735525131226e-02,1.384631842374801636e-01,-1.025537028908729553e-01,-2.187093198299407959e-01,-3.431756794452667236e-01,3.842754289507865906e-02,1.191477663815021515e-02,-8.242116868495941162e-02,3.691340386867523193e-01,-9.544023871421813965e-02,-1.458168327808380127e-01,-4.014007747173309326e-02,-7.423534244298934937e-02,-3.699843585491180420e-01,1.010399311780929565e-02,-2.878941129893064499e-03,1.057324036955833435e-01,-6.948101334273815155e-03,-7.431766390800476074e-02,-1.563417613506317139e-01,4.321280866861343384e-02,9.143851697444915771e-02,-4.846564307808876038e-02,8.498814702033996582e-02,3.778136074542999268e-01,-1.418976932764053345e-01,-1.763102263212203979e-01,9.708290547132492065e-02,-4.757011681795120239e-02,1.620667576789855957e-01,-1.700592041015625000e-01,-2.380039542913436890e-01,-4.110870063304901123e-01,-3.280161023139953613e-01,1.486458629369735718e-01,-1.211764812469482422e-01,-2.888534367084503174e-01,-2.530655264854431152e-01,-4.705706960521638393e-04,-3.501971065998077393e-01,1.886514574289321899e-02,1.316424757242202759e-01,-2.220566011965274811e-02,-1.304942816495895386e-01,-1.502196490764617920e-01,1.783717125654220581e-01,6.733962893486022949e-02,7.094339281320571899e-02,-2.701135165989398956e-02,3.349402546882629395e-01,3.033182322978973389e-01,-8.097565174102783203e-02,-1.284932941198348999e-01,-1.749124228954315186e-01,1.720587909221649170e-01,2.406588196754455566e-02,3.600345253944396973e-01,-4.139893129467964172e-02,-3.499231338500976562e-01,4.368411749601364136e-02,1.778806596994400024e-01,1.840280145406723022e-01,1.478713601827621460e-01,6.200439110398292542e-02,6.423773616552352905e-02,-1.313886195421218872e-01,-3.596603870391845703e-02,2.484192103147506714e-01,3.449841737747192383e-01,-4.728557169437408447e-02,1.023158207535743713e-01,-4.380182623863220215e-01,1.504234410822391510e-02,-7.491126656532287598e-02,-1.061557650566101074e+00,-2.332004308700561523e-01,9.658186882734298706e-02,-9.421650320291519165e-02,-5.004059672355651855e-01,-4.983164668083190918e-01,-5.044416189193725586e-01,-1.403180360794067383e-01,5.381574854254722595e-02,2.281160354614257812e-01,-2.997077442705631256e-02,-1.967982202768325806e-02,-1.418814361095428467e-01,-9.875307977199554443e-02,-3.380458950996398926e-01,2.291541919112205505e-02,2.353282123804092407e-01,-1.657672375440597534e-01,-5.798620358109474182e-02,-6.797482818365097046e-02,2.553757429122924805e-01,-3.483881056308746338e-01,-1.777117997407913208e-01,-3.530351817607879639e-02,-2.028412222862243652e-01,6.795440614223480225e-02,8.924347907304763794e-02,-1.713542342185974121e-01,-6.152418851852416992e-01,-2.707805931568145752e-01,-5.015275478363037109e-01,2.495669946074485779e-02,-5.665226653218269348e-02,-1.908990889787673950e-01,-3.581114113330841064e-01,-1.661994159221649170e-01,-5.385702475905418396e-02,-5.790878832340240479e-02,-2.048997282981872559e-01,6.441867351531982422e-02,-3.296665549278259277e-01,-3.866821900010108948e-02,1.109393686056137085e-02,-3.171135485172271729e-02,-6.564163416624069214e-02,-2.382361888885498047e-01,-3.738089278340339661e-02,3.215970471501350403e-02,4.296669960021972656e-01,-9.916014224290847778e-02,1.425246745347976685e-01,-1.362205892801284790e-01,4.754646122455596924e-02,-6.202087551355361938e-02,-3.281569480895996094e-01,-4.290788769721984863e-01,-1.453294157981872559e-01,2.720669209957122803e-01,-3.245590254664421082e-02,1.824504286050796509e-01,-3.183462843298912048e-02,3.543308377265930176e-01,-2.074890732765197754e-01,-1.317246109247207642e-01,4.416544735431671143e-01
-8.261769264936447144e-02,-1.221368163824081421e-01,7.124623656272888184e-02,2.840058878064155579e-02,-1.981998682022094727e-01,-9.568137116730213165e-03,6.379078328609466553e-02,7.235040515661239624e-02,4.717718437314033508e-02,3.413151949644088745e-02,5.173843726515769958e-02,-6.581896543502807617e-02,-2.196653187274932861e-01,-2.524449825286865234e-01,-8.180947601795196533e-02,-9.162516891956329346e-02,-6.967276334762573242e-03,-9.590988606214523315e-02,-3.339091688394546509e-02,9.793441742658615112e-02,-3.917256891727447510e-01,-1.688572466373443604e-01,1.861638277769088745e-01,-2.620579302310943604e-01,-1.042851954698562622e-01,-4.022289812564849854e-02,-1.599099487066268921e-01,-1.172210946679115295e-01,-6.334503740072250366e-02,6.138807907700538635e-02,-1.071206927299499512e-01,-1.189982146024703979e-01,-1.005730926990509033e-01,-1.363967210054397583e-01,-3.610058426856994629e-01,-5.648478865623474121e-02,1.398680657148361206e-01,-5.095342993736267090e-01,-1.921961456537246704e-01,1.393107771873474121e-01,-1.588628590106964111e-01,-2.027683518826961517e-02,-1.864197999238967896e-01,3.607693687081336975e-02,1.618028432130813599e-02,-4.249584376811981201e-01,-7.447380572557449341e-02,-7.804566621780395508e-02,-2.457594424486160278e-01,4.777347669005393982e-03,-4.429272115230560303e-01,9.912586212158203125e-02,-1.536774449050426483e-02,4.164066910743713379e-02,6.468679010868072510e-02,-2.120690494775772095e-01,-1.278425902128219604e-01,-4.446624815464019775e-01,-6.170622110366821289e-01,-3.145135939121246338e-02,6.350167095661163330e-02,-8.814467489719390869e-02,-1.105067282915115356e-01,9.193143993616104126e-02,-1.110962592065334320e-02,-1.598557382822036743e-01,-9.722232073545455933e-02,-8.480481803417205811e-02,-9.906736761331558228e-02,-1.671497225761413574e-01,-2.139675021171569824e-01,-1.901403516530990601e-01,-5.214157328009605408e-02,-7.646281272172927856e-02,-1.278212815523147583e-01,-1.006662622094154358e-01,-2.217826694250106812e-01,-1.182783246040344238e-01,-3.719423711299896240e-01,-2.435572445392608643e-01,9.516459703445434570e-02,-5.774619802832603455e-02,-1.761954426765441895e-01,-1.433436423540115356e-01,-5.778186023235321045e-02,-1.341539472341537476e-01,-3.019635938107967377e-02,2.740342635661363602e-03,-7.075359672307968140e-02,-5.833629518747329712e-02,1.698737591505050659e-01,-5.654995888471603394e-02,-2.277809530496597290e-01,8.365336805582046509e-03,-3.611905872821807861e-02,-4.117499291896820068e-02,-4.582344368100166321e-02,2.030443996191024780e-01,1.320953574031591415e-02,-2.574437260627746582e-01,-1.490420997142791748e-01,3.663490340113639832e-02,8.230195380747318268e-03,-1.495565026998519897e-01,1.560292392969131470e-01,-3.365380316972732544e-02,-3.117763996124267578e-01,-2.463158033788204193e-02,-6.021232530474662781e-02,-8.379881829023361206e-02,5.286393687129020691e-02,-6.464312672615051270e-01,-2.809044718742370605e-01,1.191958561539649963e-01,-2.206821739673614502e-01,4.779199603945016861e-03,-4.297226294875144958e-02,-1.554394513368606567e-01,6.851660460233688354e-02,-1.059450954198837280e-01,-3.911020606756210327e-02,-1.007974427193403244e-02,-7.521938532590866089e-03,1.688572764396667480e-01,4.661748185753822327e-02,-2.905094623565673828e-01,-3.943487256765365601e-02,-5.633910894393920898e-01,-1.619443148374557495e-01,1.566943153738975525e-02,-1.560947299003601074e-02,5.601611733436584473e-02,-2.652545925229787827e-03,3.769680857658386230e-02,-9.009537845849990845e-02,-2.653802037239074707e-01,-2.857858538627624512e-01,-1.098320167511701584e-02,-3.101751953363418579e-02,-4.529933333396911621e-01,-1.577626764774322510e-01,-7.400359213352203369e-02,-9.197209775447845459e-02,-1.416376233100891113e-01,1.639446243643760681e-02,-2.522841095924377441e-02,1.435287995263934135e-03,9.362804144620895386e-02,-2.009913027286529541e-01,7.006912957876920700e-03,-1.360504776239395142e-01,-1.865509664639830589e-03,-1.437798291444778442e-01,-4.493366926908493042e-02,1.022928431630134583e-01,-1.454732716083526611e-01,4.455253854393959045e-02,-1.553948968648910522e-02,-3.358796834945678711e-01,5.005101487040519714e-02,-6.544349342584609985e-02,-2.714816927909851074e-01,1.055879667401313782e-01,-7.796836644411087036e-02,1.076855510473251343e-01,-5.360743030905723572e-02,-9.688872843980789185e-02,8.294063061475753784e-02,2.188130654394626617e-02,2.006718814373016357e-01,-8.814303576946258545e-02,4.068204388022422791e-02,-1.915503591299057007e-01,-7.262407988309860229e-02,6.776956468820571899e-02,1.234503760933876038e-01,-1.062724292278289795e-01,-1.453460101038217545e-02,-6.869907677173614502e-02,-1.200674101710319519e-01,1.295610517263412476e-01,-1.803368330001831055e-01,1.768896728754043579e-02,-7.387895882129669189e-02,-1.476526558399200439e-01,-3.425748050212860107e-01,-5.134690999984741211e-01,1.685315370559692383e-02,-2.486322671175003052e-01,-9.865752607583999634e-02,-4.858369007706642151e-02,-3.109668791294097900e-01,-7.916446775197982788e-02,-1.160668507218360901e-01,-1.688074767589569092e-01,2.021162062883377075e-01,-1.891336739063262939e-01,-6.165029853582382202e-02,2.587977610528469086e-02,1.079773008823394775e-01,-2.240121960639953613e-01,-4.527900516986846924e-01,-1.087342873215675354e-01,-2.020300328731536865e-01,-2.037644237279891968e-01,-2.528466284275054932e-01,-1.938925832509994507e-01,-7.170780748128890991e-02,-8.405863493680953979e-02,-1.684589497745037079e-02,-3.586380779743194580e-01,-3.041832447052001953e-01,-4.741863012313842773e-01,-2.266651988029479980e-01,7.937512546777725220e-02,-1.920717656612396240e-01,-3.098296932876110077e-02,8.181060105562210083e-02,4.899854212999343872e-02,-1.460529565811157227e-01,-6.333348155021667480e-02,-2.096713483333587646e-01,2.511942014098167419e-02,1.762127131223678589e-01,-4.256252199411392212e-02,3.882443066686391830e-03,2.588330395519733429e-02,-3.916254267096519470e-02,5.201150104403495789e-02,2.256263792514801025e-01,4.967028647661209106e-02,-3.015066087245941162e-01,-1.210842356085777283e-01,-8.343113958835601807e-02,3.127518668770790100e-02,-5.069213360548019409e-02,6.364653259515762329e-02,1.215513572096824646e-01,-1.265659630298614502e-01,-7.577930111438035965e-03,-8.470337092876434326e-02,1.020152866840362549e-01,2.260058000683784485e-02,-7.492329180240631104e-02,-1.698483228683471680e-01,4.302706196904182434e-02,5.044339224696159363e-02,5.352954566478729248e-02,-1.290913820266723633e-01,8.761848509311676025e-02,-7.612410187721252441e-02,-3.950844332575798035e-02,-1.738371551036834717e-01,1.091749817132949829e-01,-1.863957941532135010e-01,2.551293373107910156e-01
-2.738818228244781494e-01,-1.006667762994766235e-01,-1.231837868690490723e-01,4.533898457884788513e-02,2.175174206495285034e-01,6.406460702419281006e-02,-1.691720783710479736e-01,1.066023763269186020e-02,2.992500178515911102e-02,3.655229806900024414e-01,2.619705796241760254e-01,1.375527586787939072e-02,-3.593714237213134766e-01,-1.288551241159439087e-01,2.933771908283233643e-02,-6.657610181719064713e-03,-1.616629511117935181e-01,-4.039249718189239502e-01,-2.757648006081581116e-02,-1.278533488512039185e-01,-2.623908519744873047e-01,-7.077936828136444092e-02,-2.395439147949218750e-01,5.441788956522941589e-02,-1.006269156932830811e-01,3.311664983630180359e-02,5.259018391370773315e-02,7.599680870771408081e-02,2.048400938510894775e-01,-1.818039715290069580e-01,-3.211799263954162598e-01,1.605330258607864380e-01,3.494187258183956146e-03,5.039522796869277954e-02,-2.570429630577564240e-02,7.342332601547241211e-02,-5.178212001919746399e-02,1.449350118637084961e-01,1.389246135950088501e-01,-2.501953840255737305e-01,-2.795840986073017120e-02,1.628445386886596680e-01,-2.971771657466888428e-01,-4.244990348815917969e-01,8.172933012247085571e-02,-3.724106028676033020e-02,-3.719055652618408203e-02,-3.327353298664093018e-02,-1.901073157787322998e-01,-1.508211344480514526e-01,7.545049488544464111e-02,4.799972474575042725e-02,-1.275548189878463745e-01,1.269234567880630493e-01,-2.965907454490661621e-01,-9.111119806766510010e-02,-2.987024784088134766e-01,2.206632047891616821e-01,-2.119613587856292725e-01,2.375858277082443237e-01,-1.770339012145996094e-01,-2.856095135211944580e-02,-5.704567581415176392e-02,-1.212163716554641724e-01,1.233988404273986816e-01,2.382336929440498352e-02,1.407468616962432861e-01,-2.136272341012954712e-01,2.407206892967224121e-01,-1.270184963941574097e-01,-4.043245688080787659e-02,-1.488536149263381958e-01,-1.493109017610549927e-01,-2.211447572335600853e-03,-3.610545024275779724e-02,2.229047864675521851e-01,-1.744325645267963409e-02,7.509155571460723877e-02,-6.069608032703399658e-02,-1.429430544376373291e-01,8.278276771306991577e-02,-1.283323913812637329e-01,-7.478467375040054321e-02,8.618757873773574829e-02,2.361663132905960083e-01,-2.192016541957855225e-01,1.322548091411590576e-01,-1.386391520500183105e-01,-5.719525739550590515e-02,-2.073391899466514587e-02,2.494099736213684082e-01,-2.806090936064720154e-02,5.155804008245468140e-02,1.202760040760040283e-01,-2.190424054861068726e-01,-1.568893343210220337e-01,-9.649535268545150757e-02,-3.310437873005867004e-02,-1.205767169594764709e-01,-2.352253347635269165e-01,4.644971340894699097e-03,-2.844865247607231140e-02,7.088538259267807007e-02,5.752277001738548279e-02,-1.074988171458244324e-01,-1.003505364060401917e-01,-1.494080722332000732e-01,2.411726564168930054e-01,8.366467803716659546e-02,-1.922668516635894775e-01,2.634261921048164368e-02,9.728842973709106445e-02,9.813794493675231934e-02,-2.478302642703056335e-02,1.195819973945617676e-01,-1.027907878160476685e-01,1.320208609104156494e-01,-4.558730125427246094e-02,-1.908826231956481934e-01,8.462043479084968567e-03,-2.327180653810501099e-01,-7.253615558147430420e-02,-5.253653228282928467e-02,1.193217858672142029e-01,-1.352007687091827393e-01,-2.789577245712280273e-01,7.717963308095932007e-02,-7.575321942567825317e-02,-2.354756556451320648e-02,-1.625979691743850708e-01,-3.929271176457405090e-02,1.463633477687835693e-01,1.619404852390289307e-01,2.601520344614982605e-02,-1.202158108353614807e-01,-1.931211203336715698e-01,1.569716185331344604e-01,-3.767058625817298889e-02,-8.490789532661437988e-01,-6.408423781394958496e-01,-3.100149333477020264e-02,1.054287850856781006e-01,2.757066674530506134e-02,1.732864789664745331e-02,-1.965130269527435303e-01,-2.827433645725250244e-01,-3.260684385895729065e-02,-2.271687835454940796e-01,-2.674302756786346436e-01,1.480071991682052612e-01,-3.956215679645538330e-01,-1.519675999879837036e-01,1.556533724069595337e-01,-4.519863054156303406e-03,-6.918743997812271118e-02,2.957547903060913086e-01,-6.296942476183176041e-03,-3.658657670021057129e-01,-9.097376465797424316e-02,1.793464869260787964e-01,-6.829646974802017212e-02,1.457508355379104614e-01,1.070920303463935852e-01,-7.409378141164779663e-02,-4.640104249119758606e-03,9.377462416887283325e-02,1.770218163728713989e-01,-2.516076564788818359e-01,-2.757689952850341797e-01,5.213287472724914551e-02,3.197969868779182434e-02,2.810180187225341797e-02,-8.366138488054275513e-02,-1.873569935560226440e-02,-4.770363867282867432e-02,-2.574063539505004883e-01,-6.411154568195343018e-02,3.099973797798156738e-01,2.449330687522888184e-01,3.068568408489227295e-01,4.996437579393386841e-03,-1.624122262001037598e-01,-1.405562609434127808e-01,3.788653993979096413e-04,-2.125457674264907837e-01,3.366000354290008545e-01,3.046232461929321289e-02,-5.116708576679229736e-02,-2.072114795446395874e-01,4.782043024897575378e-02,3.902130573987960815e-02,3.479903191328048706e-02,-2.713698148727416992e-02,-4.332233592867851257e-02,-1.558268722146749496e-02,-2.679306566715240479e-01,-3.302717581391334534e-02,4.750117659568786621e-02,1.745576262474060059e-01,1.790957897901535034e-02,-1.089456155896186829e-01,-2.461508512496948242e-01,-1.280886530876159668e-01,7.512228190898895264e-02,-1.913384534418582916e-02,1.133560687303543091e-01,8.100125193595886230e-02,3.214683234691619873e-01,-1.058447584509849548e-01,-3.226181864738464355e-02,-2.510988414287567139e-01,-2.163073271512985229e-01,-9.999410063028335571e-02,-6.548926979303359985e-02,3.513045236468315125e-02,3.660263959318399429e-03,-5.785033106803894043e-02,-1.329980790615081787e-01,-2.775400280952453613e-01,-4.059879779815673828e-01,-1.792531646788120270e-02,-1.540157645940780640e-01,-8.472408354282379150e-02,-6.132490560412406921e-02,-1.174139082431793213e-01,4.188475757837295532e-02,5.085059627890586853e-02,1.897311806678771973e-01,1.097992360591888428e-01,1.127063333988189697e-01,2.735697329044342041e-01,-8.279869705438613892e-02,-6.799510717391967773e-01,-6.146713718771934509e-02,-4.868791252374649048e-02,-1.402377337217330933e-01,-2.225125730037689209e-01,1.453163195401430130e-02,-1.136305034160614014e-01,-9.383790194988250732e-02,-1.980273053050041199e-02,-3.508648276329040527e-01,-5.137376189231872559e-01,-3.393077850341796875e-01,-2.362684607505798340e-01,-1.609554737806320190e-01,-1.497890800237655640e-02,1.734858565032482147e-02,-1.188185438513755798e-02,1.757408306002616882e-02,1.694136112928390503e-01,-1.004817616194486618e-02,7.747601717710494995e-02,1.152222305536270142e-01,-2.134412229061126709e-01,5.205160006880760193e-02
1.848300099372863770e-01,-5.350223556160926819e-02,1.112810373306274414e-01,7.936943322420120239e-02,-4.145254846662282944e-03,-1.688163280487060547e-01,-1.482841372489929199e-02,-4.912430420517921448e-02,-6.039733067154884338e-02,-5.348201096057891846e-02,-2.503692172467708588e-02,-6.658511608839035034e-02,-1.293702572584152222e-01,3.774067759513854980e-02,-1.315622180700302124e-01,-7.335198670625686646e-02,-4.983273148536682129e-01,-1.394129097461700439e-01,3.262718766927719116e-02,-7.276070117950439453e-02,-1.135137379169464111e-01,-5.365323647856712341e-02,-9.358227998018264771e-02,5.056656152009963989e-02,-6.291867792606353760e-02,-2.939057350158691406e-01,5.539775267243385315e-02,-5.998098105192184448e-02,-4.526033401489257812e-01,-6.434627622365951538e-02,6.506285071372985840e-02,8.799818903207778931e-02,-3.433740139007568359e-01,1.399215161800384521e-01,-3.478817269206047058e-02,-1.118911877274513245e-01,4.562212154269218445e-02,-9.592607617378234863e-02,1.494439840316772461e-01,-1.708973348140716553e-01,1.251676119863986969e-02,1.120885163545608521e-01,-7.951363176107406616e-02,2.848022989928722382e-02,-1.432289332151412964e-01,-1.962377727031707764e-01,-7.867862284183502197e-02,-2.322577387094497681e-01,-1.735419183969497681e-01,-1.695178151130676270e-01,-1.538675650954246521e-02,-4.592970386147499084e-02,-2.909896895289421082e-02,-2.050009518861770630e-01,-4.822283387184143066e-01,1.924037933349609375e-02,-1.853051930665969849e-01,-4.028351604938507080e-02,-3.167022168636322021e-01,-8.790869265794754028e-02,-1.791833490133285522e-01,-6.146758422255516052e-02,-5.474586412310600281e-02,-1.766615360975265503e-02,-1.747992485761642456e-01,1.007200330495834351e-01,-3.795024156570434570e-01,-1.764922738075256348e-01,5.719849094748497009e-02,2.627202123403549194e-02,-1.377528812736272812e-02,-9.877368807792663574e-02,-6.740050762891769409e-02,7.471105456352233887e-02,-2.037559598684310913e-01,-3.607770800590515137e-02,-2.816620171070098877e-01,1.691879332065582275e-01,-1.378570497035980225e-01,-4.713486135005950928e-02,-1.269973814487457275e-01,9.054060280323028564e-02,-9.333417564630508423e-02,4.516603657975792885e-04,-3.421984612941741943e-02,1.058641523122787476e-01,7.888155430555343628e-02,-3.653417825698852539e-01,9.390303865075111389e-03,-9.394603222608566284e-02,-4.649776965379714966e-02,-7.765020709484815598e-03,-3.840740770101547241e-03,-1.078116521239280701e-01,-9.275335073471069336e-02,-1.554107964038848877e-01,-2.102894783020019531e-01,-2.250114679336547852e-01,2.026717364788055420e-01,7.180754095315933228e-02,-6.845413148403167725e-02,2.206344902515411377e-02,4.620467312633991241e-03,7.680101320147514343e-03,-1.599460989236831665e-01,8.988451212644577026e-03,-2.810066044330596924e-01,-1.978723108768463135e-01,8.954240381717681885e-02,1.797249317169189453e-01,-4.024465084075927734e-01,-1.676370739005506039e-03,8.690980821847915649e-02,-3.117576241493225098e-02,-6.593076884746551514e-02,-3.788347914814949036e-02,-3.381069302558898926e-01,-1.627897471189498901e-01,1.453047394752502441e-01,-1.674168705940246582e-01,-1.979226320981979370e-01,6.554440595209598541e-03,-4.819073900580406189e-02,-2.910332381725311279e-01,4.008801281452178955e-02,-4.803558588027954102e-01,-5.524717271327972412e-02,2.122391387820243835e-02,-8.732500672340393066e-02,-1.010205596685409546e-01,-1.996800601482391357e-01,-7.245531678199768066e-02,-1.399299502372741699e-01,-1.295476555824279785e-01,7.961519807577133179e-02,-9.956415742635726929e-02,-7.430654019117355347e-02,-3.760399296879768372e-02,1.824069619178771973e-01,-1.982407569885253906e-01,6.390408426523208618e-02,-4.519024491310119629e-02,6.429850310087203979e-02,-2.455290220677852631e-02,2.149872481822967529e-02,3.527300432324409485e-02,7.484681159257888794e-02,-4.007728993892669678e-01,-1.280041337013244629e-01,-1.216764599084854126e-01,1.514030098915100098e-01,-1.129688099026679993e-01,-1.208102926611900330e-01,1.035257205367088318e-01,-5.860613193362951279e-03,1.998683661222457886e-01,-1.169791296124458313e-01,-4.097168743610382080e-01,-2.526929974555969238e-01,-2.044260688126087189e-02,-1.701513379812240601e-01,-4.211401566863059998e-02,1.153381839394569397e-01,-9.950383007526397705e-02,4.025303944945335388e-02,-1.098424121737480164e-01,1.559769809246063232e-01,5.230255052447319031e-02,2.039408776909112930e-03,1.458320766687393188e-01,-1.354005187749862671e-02,-1.524835973978042603e-01,-8.747246861457824707e-02,-1.503030676394701004e-02,9.666152298450469971e-02,1.168811600655317307e-02,-1.652197092771530151e-01,-9.965429082512855530e-03,-2.495642192661762238e-02,-9.279426187276840210e-02,-9.802413731813430786e-02,-5.069442391395568848e-01,-1.661982387304306030e-01,-1.927897185087203979e-01,-2.612494528293609619e-01,-2.022079192101955414e-02,-1.661098003387451172e-01,-6.903510540723800659e-02,-1.135139316320419312e-01,4.752298817038536072e-02,-1.385964751243591309e-01,3.965802490711212158e-02,-1.076355427503585815e-01,-1.182028055191040039e-01,-6.239536032080650330e-02,-2.516693435609340668e-02,-1.007574573159217834e-01,-1.026645675301551819e-01,-4.895245656371116638e-02,-1.060072556138038635e-01,-3.099009692668914795e-01,-5.475779771804809570e-01,7.924415916204452515e-02,2.269772440195083618e-02,8.671646565198898315e-02,4.369853809475898743e-02,7.164222747087478638e-02,-1.059281304478645325e-01,-3.185148909687995911e-02,-8.009114861488342285e-02,-2.616812661290168762e-02,-9.466746449470520020e-02,-1.223198324441909790e-01,4.428885132074356079e-02,1.048883888870477676e-02,-7.614144682884216309e-02,-5.504672974348068237e-02,-6.103106215596199036e-02,2.574691176414489746e-01,-9.746916592121124268e-02,-3.988380078226327896e-03,-2.062157839536666870e-01,-1.063977852463722229e-01,-3.755538165569305420e-02,8.349941670894622803e-02,3.060971386730670929e-02,-4.568685218691825867e-02,-2.607327997684478760e-01,-2.424532175064086914e-01,-5.353407561779022217e-02,2.058176696300506592e-02,-3.372842445969581604e-02,2.685150504112243652e-01,1.863153725862503052e-01,-6.889724638313055038e-03,8.538243174552917480e-02,-2.311703413724899292e-01,-8.100687712430953979e-02,2.868283726274967194e-02,-1.467949301004409790e-01,-5.409504100680351257e-02,-2.164924442768096924e-01,8.481715619564056396e-02,3.146696835756301880e-02,-6.197676062583923340e-02,-1.601061075925827026e-01,-5.623618364334106445e-01,-2.448102086782455444e-02,-6.692639738321304321e-02,8.367153257131576538e-02,1.313936263322830200e-01,-5.835796147584915161e-02,-2.937414050102233887e-01,-2.610377073287963867e-01,-1.699538975954055786e-01,-8.947229385375976562e-02
5.068430304527282715e-02,2.297626882791519165e-01,-1.702443063259124756e-01,-3.317828774452209473e-01,1.950921267271041870e-01,-3.077441453933715820e-01,1.263813395053148270e-02,-7.284861803054809570e-02,-1.254691276699304581e-02,3.445815294981002808e-02,9.080612659454345703e-02,-9.566597640514373779e-03,6.143336743116378784e-02,-1.484548598527908325e-01,2.125391662120819092e-01,1.605905033648014069e-02,-6.718240678310394287e-02,-9.451783448457717896e-02,-4.095901176333427429e-02,-3.727219253778457642e-02,-4.554884731769561768e-01,-1.100330278277397156e-01,3.079443275928497314e-01,-4.008731245994567871e-02,-2.298040688037872314e-02,-1.850956082344055176e-01,6.478440016508102417e-02,-4.047730937600135803e-02,-1.029812172055244446e-01,-3.061034083366394043e-01,1.796969920396804810e-01,-6.845695525407791138e-02,2.449320703744888306e-01,1.120953783392906189e-01,2.413956224918365479e-01,1.002467423677444458e-01,-4.222919791936874390e-02,-2.248163670301437378e-01,-3.095924295485019684e-02,-6.891839504241943359e-01,2.064895816147327423e-02,1.348325461149215698e-01,2.039724029600620270e-02,-1.468630880117416382e-01,1.000649780035018921e-01,9.717141836881637573e-02,-4.069360196590423584e-01,2.156983464956283569e-01,-4.701598733663558960e-02,1.230432279407978058e-02,-1.164822746068239212e-02,3.610338643193244934e-02,3.836110979318618774e-02,-1.712681651115417480e-01,-4.258806407451629639e-01,9.847702085971832275e-02,7.967785000801086426e-02,-1.077604442834854126e-01,-2.496323436498641968e-01,-8.959078043699264526e-02,7.545255869626998901e-02,-3.472878411412239075e-02,-1.777067780494689941e-03,2.666141279041767120e-02,-9.616879373788833618e-02,-1.177061349153518677e-01,9.720441699028015137e-02,-7.376373559236526489e-02,2.099807858467102051e-01,1.334116160869598389e-01,-8.412191271781921387e-02,5.546708591282367706e-03,1.457759924232959747e-02,-5.802183151245117188e-01,-1.520295292139053345e-01,-1.474278867244720459e-01,-2.948587238788604736e-01,-1.813191026449203491e-01,-8.114610612392425537e-02,-5.125249549746513367e-02,2.281364202499389648e-01,7.959827035665512085e-02,9.251783043146133423e-02,3.387067615985870361e-01,3.666473180055618286e-02,3.609855771064758301e-01,9.076379239559173584e-02,-3.869774052873253822e-03,6.388476490974426270e-02,4.662772268056869507e-02,1.320507228374481201e-01,-9.648393839597702026e-02,1.909369416534900665e-02,2.721316739916801453e-02,8.379194140434265137e-02,6.951226387172937393e-03,1.113826334476470947e-01,-1.150036305189132690e-01,-2.280400544404983521e-01,-3.363974392414093018e-01,2.010563388466835022e-02,-1.552422940731048584e-01,1.349269300699234009e-01,1.779249161481857300e-01,-5.789215862751007080e-02,-1.158898696303367615e-01,-4.420157894492149353e-02,-4.574941843748092651e-02,-1.925499588251113892e-01,-3.368960618972778320e-01,-2.232115119695663452e-01,1.940756291151046753e-01,-4.832842350006103516e-01,-1.772667616605758667e-01,9.362787753343582153e-02,-1.062510237097740173e-01,-2.869341075420379639e-01,-1.732723861932754517e-01,-4.544827342033386230e-02,-4.566783085465431213e-02,-2.607805728912353516e-01,-1.726863682270050049e-01,1.277151852846145630e-01,-4.509448111057281494e-01,1.842862740159034729e-02,-2.321970611810684204e-01,5.368702113628387451e-02,2.196542471647262573e-01,3.036743700504302979e-01,3.993662539869546890e-03,1.692089885473251343e-01,6.624982506036758423e-02,-3.806539773941040039e-01,5.578706413507461548e-02,1.174155026674270630e-01,-3.590412065386772156e-02,-9.666717052459716797e-02,-5.499253049492835999e-02,-9.473370760679244995e-02,-7.698332890868186951e-03,-1.156854405999183655e-01,-5.742784738540649414e-01,8.780054003000259399e-02,-5.718656629323959351e-02,-3.426074981689453125e-02,-3.788534924387931824e-02,1.672695726156234741e-01,-6.825938820838928223e-02,-2.157901227474212646e-01,9.794415533542633057e-02,-2.204291075468063354e-01,-1.131925806403160095e-01,-1.832582801580429077e-01,-4.789220169186592102e-02,1.837314106523990631e-02,7.560140918940305710e-03,-3.784873783588409424e-01,-2.291248589754104614e-01,-5.930996313691139221e-02,3.393285870552062988e-01,-6.413340568542480469e-01,6.113339960575103760e-02,-2.653060257434844971e-01,1.152284350246191025e-02,2.707620151340961456e-02,3.571236878633499146e-02,2.414472103118896484e-01,2.026751935482025146e-01,-2.435234785079956055e-01,9.891386330127716064e-02,1.231733057647943497e-02,1.385312229394912720e-01,-4.035060852766036987e-02,3.606188595294952393e-01,-3.783820196986198425e-02,-2.463841140270233154e-01,2.682033479213714600e-01,-1.439839601516723633e-01,1.815928071737289429e-01,-2.969880998134613037e-01,3.111748695373535156e-01,6.038316339254379272e-02,-1.179285123944282532e-01,-1.875898838043212891e-01,-1.003800854086875916e-01,-2.995502054691314697e-01,-3.549153357744216919e-02,-2.437846735119819641e-02,-3.916497528553009033e-01,-2.634396404027938843e-02,-1.903324127197265625e-01,-5.002737641334533691e-01,1.351476460695266724e-01,-2.167337574064731598e-02,-6.784422695636749268e-02,-3.617316782474517822e-01,7.601980865001678467e-02,1.480090171098709106e-01,1.568990796804428101e-01,4.693043977022171021e-02,-1.159430593252182007e-01,-2.624165713787078857e-01,-2.373764067888259888e-01,6.814242154359817505e-02,-3.535132706165313721e-01,-6.370867788791656494e-02,-1.649898104369640350e-02,-3.428505361080169678e-01,9.167943149805068970e-02,1.076545268297195435e-01,-3.671166598796844482e-01,-1.323011964559555054e-01,-1.126387789845466614e-01,8.374432101845741272e-03,-2.850542366504669189e-01,2.419878393411636353e-01,1.548985242843627930e-01,3.022653423249721527e-02,5.825058370828628540e-02,-8.740913867950439453e-01,-3.158452212810516357e-01,2.241661399602890015e-01,-1.933108270168304443e-02,2.141187712550163269e-02,3.369978368282318115e-01,2.410967051982879639e-01,1.678383164107799530e-02,-2.722896933555603027e-01,-7.996923476457595825e-02,-1.109263021498918533e-02,-1.448125094175338745e-01,7.439367938786745071e-03,-8.939161896705627441e-03,2.436380088329315186e-02,3.279788792133331299e-02,-9.462518617510795593e-03,1.761877350509166718e-02,-4.575224593281745911e-02,-1.738270558416843414e-02,-1.001420319080352783e-01,-4.991542547941207886e-02,2.282031625509262085e-01,-1.876297593116760254e-01,2.059216052293777466e-01,-1.189375966787338257e-01,1.222635209560394287e-01,-5.181046724319458008e-01,-2.287101745605468750e-01,-1.715373098850250244e-01,1.527223852463066578e-03,1.108443588018417358e-01,2.063470333814620972e-01,-2.094430476427078247e-01,9.136892855167388916e-02,3.523876145482063293e-02,1.283601075410842896e-01
-1.343557387590408325e-01,-6.415084749460220337e-02,-8.614687621593475342e-02,-1.973135322332382202e-01,9.295833855867385864e-02,-1.746651530265808105e-01,-1.817702651023864746e-01,-1.469758301973342896e-01,6.025006994605064392e-03,1.363078225404024124e-02,1.714676618576049805e-01,1.250270847231149673e-02,4.658431187272071838e-02,1.438361108303070068e-01,-1.032309308648109436e-01,-1.244932115077972412e-01,-9.366019070148468018e-02,-1.084733158349990845e-01,4.840507730841636658e-02,-1.764521747827529907e-02,-1.659233868122100830e-01,-3.393996357917785645e-01,2.690499275922775269e-02,-7.152778655290603638e-02,1.674669831991195679e-01,9.630610048770904541e-02,-3.177671134471893311e-02,7.846298813819885254e-02,2.032398879528045654e-01,-8.582275360822677612e-03,-9.096883982419967651e-02,-1.490717977285385132e-01,5.983367189764976501e-02,-8.167152106761932373e-02,-1.210696622729301453e-01,2.558389678597450256e-02,-8.250152692198753357e-03,1.655090600252151489e-02,-5.293800681829452515e-02,1.833952218294143677e-02,-1.445174217224121094e-01,5.809731036424636841e-02,5.718966573476791382e-02,-2.136518657207489014e-01,1.496859639883041382e-01,2.355029620230197906e-02,1.324561089277267456e-01,-9.105496108531951904e-02,-1.481454074382781982e-01,-2.479380927979946136e-02,6.515764445066452026e-02,1.375392377376556396e-01,7.298147771507501602e-03,1.762400716543197632e-01,-2.515286803245544434e-01,6.445558369159698486e-02,2.528090961277484894e-03,2.558839023113250732e-01,-1.249149790965020657e-03,-5.091871693730354309e-02,8.019982837140560150e-03,6.587196886539459229e-02,-1.047631278634071350e-01,4.667989537119865417e-02,1.841817945241928101e-01,-1.734156161546707153e-03,2.065493762493133545e-01,4.654776304960250854e-03,-1.464678049087524414e-01,2.080758661031723022e-01,1.547246575355529785e-01,6.118438206613063812e-03,-2.236299067735671997e-01,-8.479499816894531250e-02,-8.610867708921432495e-02,-2.136854380369186401e-01,-1.065770313143730164e-01,3.381086885929107666e-02,-1.961509697139263153e-02,-1.163849756121635437e-01,-8.720587193965911865e-02,-1.803403645753860474e-01,-1.277325302362442017e-02,-1.552720963954925537e-01,-1.118379607796669006e-01,-7.434358447790145874e-02,2.315783798694610596e-01,-1.004075184464454651e-01,2.041137218475341797e-02,2.589875645935535431e-02,4.070212319493293762e-02,9.348398447036743164e-02,-1.282168924808502197e-02,9.537905454635620117e-02,-5.741206929087638855e-03,-1.276474259793758392e-02,-5.295187830924987793e-01,-6.095940247178077698e-02,-7.677684724330902100e-02,-8.788884431123733521e-02,-9.314513951539993286e-02,1.196146905422210693e-01,-2.722378671169281006e-01,-6.732785701751708984e-02,1.527427136898040771e-01,4.243980720639228821e-02,-1.555854082107543945e-02,-2.149223387241363525e-01,-2.407159805297851562e-01,-7.086496800184249878e-02,-4.754835665225982666e-01,7.765291631221771240e-02,7.578332722187042236e-02,-1.630517840385437012e-01,1.144077479839324951e-01,-1.750215440988540649e-01,-1.815073005855083466e-02,2.132206261157989502e-01,-1.216602772474288940e-01,5.664338544011116028e-02,-9.054387360811233521e-02,-2.278330624103546143e-01,-6.457740068435668945e-02,4.227464273571968079e-02,3.007578663527965546e-02,3.228019177913665771e-01,9.764000773429870605e-02,2.115479260683059692e-01,4.680014029145240784e-02,-2.237158827483654022e-02,5.734040215611457825e-02,6.274487078189849854e-02,4.298229515552520752e-02,-3.477530553936958313e-02,2.046180702745914459e-02,2.107931859791278839e-02,-2.653321325778961182e-01,5.179484933614730835e-02,-5.141126923263072968e-03,5.646542832255363464e-02,6.951498985290527344e-02,1.187363173812627792e-02,-3.866623342037200928e-01,-7.692918647080659866e-03,-2.859732508659362793e-01,8.721004426479339600e-02,1.668226160109043121e-02,-2.518994510173797607e-01,-5.444112420082092285e-01,-3.169540762901306152e-01,-1.057441383600234985e-01,-1.464770585298538208e-01,2.473733723163604736e-01,-1.739453077316284180e-01,-1.724487245082855225e-01,-3.950943425297737122e-02,-1.656463891267776489e-01,-2.560303211212158203e-01,-2.684204578399658203e-01,-1.648808717727661133e-01,-1.181858628988265991e-01,-5.239332467317581177e-02,1.128096580505371094e-01,1.112758964300155640e-01,9.795854985713958740e-02,3.311905860900878906e-01,2.126842439174652100e-01,-2.729347348213195801e-01,-5.017757415771484375e-02,2.333491668105125427e-02,1.991202682256698608e-02,-8.552855998277664185e-02,-1.267493665218353271e-01,-7.245060801506042480e-02,4.009254276752471924e-02,3.398545086383819580e-02,1.107100918889045715e-01,-7.560905069112777710e-02,1.128321737051010132e-01,-1.424753814935684204e-01,6.049997732043266296e-02,2.747105658054351807e-01,4.106670990586280823e-02,-1.385777890682220459e-01,-8.835321664810180664e-02,-1.280934270471334457e-02,6.958417594432830811e-02,-2.739744484424591064e-01,5.866029858589172363e-02,-5.428202822804450989e-02,6.187656149268150330e-02,1.077363416552543640e-01,-1.646365970373153687e-01,5.129740759730339050e-02,4.393447190523147583e-02,-2.430713362991809845e-02,-5.504265427589416504e-02,9.536392986774444580e-03,8.644577115774154663e-02,-3.138001309707760811e-03,-2.207671552896499634e-01,1.329268068075180054e-01,7.754564285278320312e-02,4.302511364221572876e-02,-2.419935539364814758e-02,-6.354823708534240723e-02,-4.880171641707420349e-02,-2.429683804512023926e-01,1.022155657410621643e-01,-1.462270226329565048e-02,-1.122014597058296204e-01,-1.629342734813690186e-01,5.197441205382347107e-02,-4.258020967245101929e-02,-6.969396024942398071e-02,1.003727093338966370e-01,1.204136759042739868e-01,-4.908218979835510254e-03,5.602239444851875305e-02,1.768744923174381256e-02,8.119289763271808624e-03,-1.447334438562393188e-01,-1.255075074732303619e-02,-7.778918743133544922e-02,8.149863220751285553e-03,-3.514020889997482300e-02,-8.091051131486892700e-02,1.823348551988601685e-01,1.537292599678039551e-01,-1.180302277207374573e-01,-5.545938387513160706e-02,2.097178250551223755e-03,-1.262481510639190674e-01,-7.907646149396896362e-02,1.223283447325229645e-02,-1.208206042647361755e-01,-1.060998216271400452e-01,5.825293809175491333e-02,-8.943181484937667847e-02,-1.258844695985317230e-02,-3.250456601381301880e-02,-3.456104099750518799e-01,-1.853455603122711182e-01,2.964437706395983696e-03,-1.863813959062099457e-02,-2.381264418363571167e-01,-4.317972064018249512e-01,-5.624254792928695679e-02,2.356049120426177979e-01,5.425750836730003357e-02,-7.369628548622131348e-02,1.913703978061676025e-02,1.881726682186126709e-01,3.246253356337547302e-02,-5.038595572113990784e-02,-2.279228121042251587e-01
3.521036207675933838e-01,-2.327043935656547546e-02,-7.704506069421768188e-02,1.660926640033721924e-01,1.920262724161148071e-01,-2.025776728987693787e-02,1.529770046472549438e-01,-1.885021179914474487e-01,9.505248814821243286e-02,1.214445233345031738e-01,-6.806171685457229614e-02,-4.047224298119544983e-03,-3.831835836172103882e-02,8.562924712896347046e-02,-1.549326181411743164e-01,5.329300090670585632e-02,-3.597328364849090576e-01,-1.783286337740719318e-03,2.319210767745971680e-02,-4.444845765829086304e-02,-2.442353172227740288e-03,7.404602319002151489e-02,-1.854954957962036133e-01,8.970913290977478027e-02,-1.022248864173889160e-01,1.874581873416900635e-01,-1.474839895963668823e-01,4.037547484040260315e-02,-3.678537011146545410e-01,1.739865541458129883e-01,1.346483677625656128e-01,-1.486959308385848999e-02,-3.610522300004959106e-02,5.909660831093788147e-02,-8.713188581168651581e-03,6.916655600070953369e-02,-1.545196324586868286e-01,7.882943749427795410e-02,-1.508687883615493774e-01,3.729663044214248657e-02,-1.662977039813995361e-01,1.846962720155715942e-01,1.734385341405868530e-01,-6.487487256526947021e-02,-3.198074698448181152e-01,1.627137809991836548e-01,7.797797024250030518e-02,3.555206656455993652e-01,-2.309055998921394348e-02,-5.468575283885002136e-02,-5.920435488224029541e-02,4.473819136619567871e-01,-1.066114604473114014e-01,3.575197756290435791e-01,-2.520125806331634521e-01,-1.185536384582519531e-01,-3.413744643330574036e-02,-1.041990611702203751e-02,-6.283049285411834717e-02,2.523071765899658203e-01,-2.247465550899505615e-01,-9.009529836475849152e-03,8.091960102319717407e-02,-4.298051595687866211e-01,-3.726487234234809875e-02,-1.057377383112907410e-01,6.554443854838609695e-03,6.229913979768753052e-02,2.431377470493316650e-01,1.979479938745498657e-01,-5.132103338837623596e-02,-5.164265166968107224e-05,3.032104484736919403e-02,1.052301824092864990e-01,1.102564632892608643e-01,2.113950205966830254e-03,2.035140097141265869e-01,1.276581287384033203e-01,1.684620790183544159e-02,1.146527305245399475e-01,-2.067923098802566528e-01,4.439014010131359100e-03,7.095535099506378174e-02,-1.454568654298782349e-01,2.570506334304809570e-01,2.412665039300918579e-01,-2.664817571640014648e-01,-7.417978346347808838e-02,-3.177972882986068726e-02,-7.666479796171188354e-02,3.080549538135528564e-01,1.079953685402870178e-01,8.579709380865097046e-02,-4.109330009669065475e-03,2.482531033456325531e-02,-1.293319910764694214e-01,1.643398851156234741e-01,1.197826862335205078e-01,1.360555440187454224e-01,2.919628471136093140e-02,6.488280743360519409e-02,-6.789521872997283936e-02,-2.953605353832244873e-01,-1.440255902707576752e-02,2.794248461723327637e-01,7.396747916936874390e-02,3.337459405884146690e-03,3.598401248455047607e-01,6.278858054429292679e-03,3.011789917945861816e-01,-5.536810681223869324e-02,-2.091092020273208618e-01,2.876850962638854980e-02,4.388236999511718750e-02,-2.930754721164703369e-01,-1.032458469271659851e-01,1.315599381923675537e-01,1.070764660835266113e-01,-1.744078993797302246e-01,1.646707653999328613e-01,-3.656482696533203125e-01,-1.100989878177642822e-01,-1.011257618665695190e-01,-4.804411530494689941e-01,-1.753528118133544922e-01,8.691359311342239380e-02,-1.831420809030532837e-01,1.411260515451431274e-01,3.071761876344680786e-02,-2.812342047691345215e-01,-2.276696264743804932e-01,3.294208049774169922e-01,-2.744564712047576904e-01,-1.253035366535186768e-01,9.292647987604141235e-02,-1.207022592425346375e-01,1.887334436178207397e-01,1.333015561103820801e-01,-7.241685688495635986e-02,1.793360523879528046e-02,1.110770776867866516e-01,-2.904966473579406738e-01,-3.897887468338012695e-02,1.950418651103973389e-01,1.935230791568756104e-01,-2.496347129344940186e-01,-7.293336838483810425e-02,-2.568613290786743164e-01,-9.031777828931808472e-02,1.589741110801696777e-01,2.939256429672241211e-01,2.190175503492355347e-01,-1.493033915758132935e-01,1.064193621277809143e-01,7.762788445688784122e-04,1.997458487749099731e-01,-1.052536517381668091e-01,-1.046952232718467712e-01,2.820648252964019775e-01,-8.756383508443832397e-02,-6.333123892545700073e-02,-7.029519677162170410e-01,-6.778979301452636719e-01,2.897717356681823730e-01,-1.470590941607952118e-02,-1.085479408502578735e-01,-8.461827784776687622e-02,3.139015659689903259e-02,8.599346876144409180e-02,4.914360344409942627e-01,1.493594646453857422e-01,1.734351068735122681e-01,-1.630457937717437744e-01,2.555659711360931396e-01,-1.370908915996551514e-01,2.466122359037399292e-01,-1.731956899166107178e-01,2.253687083721160889e-01,1.695072799921035767e-01,-1.525983512401580811e-01,-1.688691824674606323e-01,-1.304475963115692139e-01,1.426849067211151123e-01,-8.665917813777923584e-02,3.839046061038970947e-01,-8.847972005605697632e-02,1.501452326774597168e-01,1.152385547757148743e-01,-4.512947052717208862e-02,-2.231360413134098053e-02,-1.593352705240249634e-01,-4.576670527458190918e-01,2.166970670223236084e-01,-6.695241481065750122e-02,-6.608694791793823242e-02,-2.442904263734817505e-01,-1.245726197957992554e-01,-2.780258059501647949e-01,-2.282960861921310425e-01,-1.390223652124404907e-01,-2.039691656827926636e-01,2.169350832700729370e-01,-7.361021637916564941e-01,-6.916310638189315796e-02,-1.516292989253997803e-01,7.388771325349807739e-02,-2.219599038362503052e-01,-7.304678857326507568e-02,-2.206803858280181885e-01,9.653392434120178223e-02,-2.331516295671463013e-01,-6.095620989799499512e-02,-4.862060546875000000e-01,1.318175643682479858e-01,-1.294144839048385620e-01,-1.205012425780296326e-01,1.301231980323791504e-01,-2.232779562473297119e-01,8.400397747755050659e-02,-7.594609856605529785e-01,-1.768618077039718628e-01,1.540095210075378418e-01,1.383628249168395996e-01,3.239752948284149170e-01,-8.904224634170532227e-02,8.901347965002059937e-02,-7.068043202161788940e-02,2.421297580003738403e-01,2.252675592899322510e-02,-1.222318708896636963e-01,-1.420235168188810349e-02,3.859156370162963867e-02,-2.009748816490173340e-01,-5.874321609735488892e-02,7.937280088663101196e-02,-1.149699017405509949e-01,-4.253833293914794922e-01,3.205383718013763428e-01,-9.378491342067718506e-02,1.782907173037528992e-02,-7.817810028791427612e-02,2.767217457294464111e-01,-4.625021219253540039e-01,-1.996068060398101807e-01,-1.261508557945489883e-02,-4.857709631323814392e-02,-4.757245182991027832e-01,1.638683304190635681e-02,4.887142479419708252e-01,-1.102220639586448669e-02,-1.425189524888992310e-01,-1.408900022506713867e-01,-1.189045310020446777e-01,9.663421660661697388e-02,2.944929599761962891e-01,-2.491897493600845337e-01
1.364953070878982544e-01,9.236604720354080200e-02,-5.290066078305244446e-02,-1.779930442571640015e-01,-1.900843232870101929e-01,-2.897679572924971581e-03,7.510918378829956055e-02,-1.271340064704418182e-02,-1.566529870033264160e-01,2.010067105293273926e-01,-1.650838106870651245e-01,-1.117091551423072815e-01,2.401004433631896973e-01,2.149419300258159637e-02,-1.028532162308692932e-02,-7.573149353265762329e-02,-1.803268864750862122e-02,1.246819421648979187e-01,-1.224286407232284546e-01,-2.640317194163799286e-02,2.185745537281036377e-02,-1.273719072341918945e-01,-7.822189480066299438e-02,1.320527121424674988e-02,-1.431708186864852905e-01,-1.948287785053253174e-01,1.297274678945541382e-01,-7.410620152950286865e-02,-3.877489641308784485e-02,7.043191790580749512e-02,2.249145656824111938e-01,9.881612658500671387e-02,-3.328729271888732910e-01,-9.658810496330261230e-02,-1.358342356979846954e-02,8.365846425294876099e-02,8.894297480583190918e-02,6.715645641088485718e-02,-5.354208871722221375e-02,-1.878502964973449707e-01,-9.983543306589126587e-02,1.795846819877624512e-01,1.780879646539688110e-01,-2.658081650733947754e-01,-7.262700051069259644e-02,2.108793109655380249e-01,1.469181478023529053e-01,3.170511499047279358e-02,-1.924013951793313026e-03,1.386465281248092651e-01,-2.277796566486358643e-01,1.064087897539138794e-01,-1.114081889390945435e-01,-3.930138945579528809e-01,-4.418852329254150391e-01,-2.215411961078643799e-01,-5.830984562635421753e-02,-3.944806456565856934e-01,-4.077019635587930679e-03,-1.065531000494956970e-01,2.669653892517089844e-01,2.795971035957336426e-01,-6.690324842929840088e-02,-4.362285882234573364e-02,9.455927647650241852e-03,-3.673773631453514099e-02,-2.134581655263900757e-01,9.073482453823089600e-02,-1.748166382312774658e-01,1.927207708358764648e-01,-2.748784720897674561e-01,-3.320920839905738831e-02,1.477397978305816650e-01,-3.130718171596527100e-01,-1.179006546735763550e-01,-1.962725222110748291e-01,-1.125948503613471985e-01,-1.467297375202178955e-01,-6.777691841125488281e-02,-2.736968398094177246e-01,-2.297629415988922119e-01,1.634523086249828339e-02,-5.736144259572029114e-02,3.073336482048034668e-01,8.491663634777069092e-02,-4.427719116210937500e-01,3.748922049999237061e-02,-3.270410001277923584e-02,7.565834373235702515e-02,-1.668853014707565308e-01,2.529527842998504639e-01,1.655146293342113495e-02,1.512364745140075684e-01,2.827443554997444153e-02,-1.093162298202514648e-01,3.093442693352699280e-02,-1.997811198234558105e-01,2.222192101180553436e-02,-5.897971242666244507e-02,-5.426472797989845276e-02,1.988815888762474060e-02,4.164253547787666321e-02,-1.289209723472595215e-01,-9.896263480186462402e-02,-6.503230333328247070e-02,-1.367812883108854294e-02,5.934726819396018982e-02,5.633822828531265259e-02,-1.976955533027648926e-01,-2.014165222644805908e-01,-1.118963956832885742e-01,-1.630722433328628540e-01,2.422931343317031860e-01,1.106722578406333923e-01,1.251761466264724731e-01,-3.002246916294097900e-01,3.451629355549812317e-02,2.826080024242401123e-01,4.551450908184051514e-02,-6.915687769651412964e-02,4.514855891466140747e-02,1.129482090473175049e-01,-6.350582838058471680e-02,-1.170666813850402832e-01,-1.409976631402969360e-01,-1.614135503768920898e-01,-3.124417662620544434e-01,-3.513794019818305969e-02,-3.327254951000213623e-01,1.464574038982391357e-02,-5.633697509765625000e-01,4.922527354210615158e-03,2.452651560306549072e-01,-1.846509799361228943e-02,-2.477268129587173462e-01,9.795100241899490356e-02,1.813568323850631714e-01,-1.136577501893043518e-01,-1.374483853578567505e-01,-1.150199398398399353e-02,-3.035813570022583008e-01,-8.788584917783737183e-02,2.202014923095703125e-01,1.195399388670921326e-01,-5.550688132643699646e-02,1.336481124162673950e-01,-2.516281902790069580e-01,2.002628594636917114e-01,-2.840981781482696533e-01,-3.503886163234710693e-01,7.593249436467885971e-03,-4.774496331810951233e-02,7.298821210861206055e-02,3.491505607962608337e-02,2.711054086685180664e-01,-5.879968777298927307e-02,-1.158070489764213562e-01,1.866814941167831421e-01,1.175272539258003235e-01,-5.446022748947143555e-02,1.268168240785598755e-01,-2.002162672579288483e-02,1.915958710014820099e-02,-9.309177845716476440e-02,-5.920683965086936951e-02,-2.699902355670928955e-01,-1.829601451754570007e-02,-1.501563787460327148e-01,3.027546405792236328e-01,-5.688556283712387085e-02,-1.605248153209686279e-01,-2.321860045194625854e-01,-2.188517451286315918e-01,2.306718677282333374e-01,5.673463270068168640e-02,-3.281223401427268982e-02,8.668103069067001343e-02,5.936668440699577332e-02,1.393588483333587646e-01,3.964297771453857422e-01,-6.540476344525814056e-03,2.041214704513549805e-01,-7.534376531839370728e-02,-7.377381622791290283e-02,-5.635523796081542969e-02,2.518792822957038879e-02,-6.522505730390548706e-02,3.807994537055492401e-03,-1.793766394257545471e-02,2.356794476509094238e-02,1.323823332786560059e-01,-4.206755198538303375e-03,-8.351725339889526367e-02,-1.837712377309799194e-01,-1.404621601104736328e-01,3.592564463615417480e-01,-8.831691741943359375e-02,-2.729368209838867188e-01,9.182263165712356567e-02,-8.115901052951812744e-02,-1.444934755563735962e-01,-5.778628215193748474e-02,-1.588927656412124634e-01,2.158935219049453735e-01,5.642044544219970703e-02,-7.293093204498291016e-02,-4.607581719756126404e-02,-7.641448080539703369e-02,-6.066180393099784851e-02,-4.825976490974426270e-02,1.291665434837341309e-01,-2.083451747894287109e-01,-2.462860941886901855e-02,2.142990827560424805e-01,8.231431245803833008e-02,1.009167432785034180e-01,8.397708833217620850e-02,-2.317643910646438599e-01,-7.075025932863354683e-04,-4.036994576454162598e-01,1.425557956099510193e-02,-1.328442096710205078e-01,7.344659417867660522e-02,-4.934780895709991455e-01,-1.903370618820190430e-01,-2.973284199833869934e-02,-1.756039410829544067e-01,-1.459769904613494873e-01,-3.873389065265655518e-01,-5.476709082722663879e-02,1.591466069221496582e-01,2.043950110673904419e-01,1.451483368873596191e-01,1.488950550556182861e-01,7.521476130932569504e-03,-7.225879002362489700e-03,2.080396115779876709e-01,-2.724919915199279785e-01,-1.839437633752822876e-01,-2.727354764938354492e-01,-4.831900075078010559e-02,6.191838998347520828e-03,-8.411838859319686890e-02,1.273118406534194946e-01,-1.015798840671777725e-02,-7.152575999498367310e-02,6.639769673347473145e-02,-1.406906247138977051e-01,-4.884760081768035889e-02,-8.738934062421321869e-03,5.235123448073863983e-03,1.509676575660705566e-01,4.136545360088348389e-01,2.611056715250015259e-02,-3.030174374580383301e-01,-8.993513882160186768e-02
-2.834610342979431152e-01,-4.156129956245422363e-01,-1.130439266562461853e-01,1.790877133607864380e-01,-1.588971465826034546e-01,2.658522725105285645e-01,2.089096307754516602e-01,2.248302251100540161e-01,-2.801305986940860748e-02,-2.428610473871231079e-01,-2.299319356679916382e-01,-8.639905601739883423e-02,-4.051739349961280823e-02,-1.468167454004287720e-01,-3.030855655670166016e-01,3.446439281105995178e-02,-3.773241341114044189e-01,4.058985039591789246e-02,-1.125723943114280701e-01,-1.800656318664550781e-02,-8.273449726402759552e-03,2.739392220973968506e-01,-7.814454287290573120e-02,-2.778622806072235107e-01,-6.097204610705375671e-02,2.019802629947662354e-01,-1.293724775314331055e-01,1.252163667231798172e-02,-1.294557601213455200e-01,1.230420246720314026e-01,1.561179906129837036e-01,1.021173745393753052e-01,-2.023639678955078125e-01,2.930203378200531006e-01,-4.203352630138397217e-01,3.094645440578460693e-01,3.200333118438720703e-01,1.929927468299865723e-01,-1.083195805549621582e-01,2.708645164966583252e-01,2.060588449239730835e-01,-2.006139457225799561e-01,-1.526640504598617554e-01,2.003856450319290161e-01,-3.634467348456382751e-02,2.484937757253646851e-01,-1.605357974767684937e-02,-3.520045578479766846e-01,9.807368367910385132e-02,7.427557557821273804e-02,3.761347234249114990e-01,-2.810359895229339600e-01,-4.566909968852996826e-01,-2.141714394092559814e-01,3.685815632343292236e-01,-3.439348638057708740e-01,6.286988407373428345e-02,-4.722368419170379639e-01,-4.893372356891632080e-01,1.704696118831634521e-01,-4.461652934551239014e-01,1.067424379289150238e-02,-4.856635257601737976e-02,-2.373510450124740601e-01,-3.874490261077880859e-01,-6.133815050125122070e-01,1.247067004442214966e-02,9.037293493747711182e-02,-1.748532950878143311e-01,1.804841160774230957e-01,-2.532405257225036621e-01,3.225525841116905212e-02,7.379639893770217896e-02,-4.894149005413055420e-01,6.396614480763673782e-04,-3.999217972159385681e-02,-2.952905297279357910e-01,-6.530907750129699707e-01,2.166157364845275879e-01,-2.641695439815521240e-01,6.028458103537559509e-02,2.352541238069534302e-01,6.157132983207702637e-02,-4.695018231868743896e-01,-1.188908740878105164e-01,4.197873547673225403e-02,4.869873449206352234e-02,-1.831721365451812744e-01,-7.219105213880538940e-02,9.778042137622833252e-02,-1.143742501735687256e-01,1.416362524032592773e-01,9.594279527664184570e-02,4.154512658715248108e-02,4.218088090419769287e-01,1.318448036909103394e-01,-7.611080408096313477e-01,-3.821195065975189209e-01,-1.125077903270721436e-01,2.941119968891143799e-01,1.475759446620941162e-01,-3.393190801143646240e-01,-2.124119997024536133e-01,-2.013396285474300385e-02,-1.456279456615447998e-01,-1.103228703141212463e-01,-1.432087719440460205e-01,-2.440484315156936646e-01,1.642753183841705322e-01,-2.911592647433280945e-02,-1.731914728879928589e-01,-1.838777065277099609e-01,-2.853761427104473114e-03,1.592690497636795044e-01,2.492589317262172699e-02,1.010802611708641052e-01,6.680607795715332031e-02,-3.951865434646606445e-02,-6.064575910568237305e-02,-5.771931260824203491e-02,-2.314291149377822876e-01,-3.991550505161285400e-01,3.264157474040985107e-01,-1.316972225904464722e-01,4.462551325559616089e-02,-5.219807848334312439e-02,2.260751575231552124e-01,5.207807570695877075e-02,4.016507863998413086e-01,5.448247864842414856e-02,-7.276061177253723145e-02,-2.765739336609840393e-02,-2.113286256790161133e-01,-5.838548541069030762e-01,-3.656198456883430481e-02,-3.152212873101234436e-02,1.995578557252883911e-01,9.721356630325317383e-02,-5.974521394819021225e-03,-1.457621604204177856e-01,-1.867688894271850586e-01,2.124094516038894653e-01,-5.520373955368995667e-02,3.372309505939483643e-01,4.517591595649719238e-01,-2.680897712707519531e-03,2.530836164951324463e-01,-5.636808276176452637e-01,2.011795043945312500e-01,-2.183438539505004883e-01,-1.678544133901596069e-01,-8.294069021940231323e-02,1.035150960087776184e-01,-1.287207603454589844e-01,-1.357232630252838135e-01,8.888112753629684448e-02,-4.014218971133232117e-02,-3.334556818008422852e-01,-7.820251584053039551e-02,-1.040866672992706299e-01,-2.232916355133056641e-01,6.716607511043548584e-02,-3.286622166633605957e-01,-2.517295181751251221e-01,-1.409498304128646851e-01,6.827930361032485962e-02,2.417202144861221313e-01,1.022603735327720642e-02,1.650595963001251221e-01,1.945937722921371460e-01,-1.550711318850517273e-02,1.827134490013122559e-01,-1.967487484216690063e-01,-9.835786372423171997e-02,8.932911790907382965e-03,-1.965454965829849243e-01,-2.814609929919242859e-02,1.360612809658050537e-01,1.146687418222427368e-01,-9.601267427206039429e-02,-1.189474239945411682e-01,2.196578532457351685e-01,-4.447356760501861572e-01,-4.549144208431243896e-02,1.301184445619583130e-01,-2.834380231797695160e-02,2.293613851070404053e-01,-8.407377451658248901e-02,-5.860643982887268066e-01,-9.478316456079483032e-02,-1.870178282260894775e-01,4.698965549468994141e-01,-2.709085643291473389e-01,-1.885280162096023560e-01,-9.353571385145187378e-02,3.102495707571506500e-02,2.210926264524459839e-01,-7.807995378971099854e-02,-5.550816655158996582e-02,2.701519131660461426e-01,4.298005998134613037e-02,2.966735064983367920e-01,2.625356987118721008e-02,-3.598143458366394043e-01,1.363947987556457520e-01,-3.183524012565612793e-01,2.434281855821609497e-01,8.815748244524002075e-02,2.004044353961944580e-01,-2.278514206409454346e-01,-2.385296374559402466e-01,-4.049688875675201416e-01,-4.455674439668655396e-03,3.119184821844100952e-02,6.448581814765930176e-02,5.256408359855413437e-03,-1.844311803579330444e-01,-3.007830120623111725e-02,-4.536429420113563538e-02,1.772773414850234985e-01,-1.277610361576080322e-01,-9.057381749153137207e-02,2.078768238425254822e-02,-7.887604832649230957e-02,7.276599854230880737e-02,3.534893989562988281e-01,-2.603424154222011566e-02,-6.731996685266494751e-02,1.637705042958259583e-02,-1.799401342868804932e-01,-5.729969963431358337e-02,-3.807439208030700684e-01,3.730971366167068481e-02,-3.801469504833221436e-01,7.435658015310764313e-03,3.789924383163452148e-01,-4.042908549308776855e-01,2.392320781946182251e-01,2.699589543044567108e-02,1.743240356445312500e-01,-1.269575059413909912e-01,4.617180302739143372e-02,8.900398015975952148e-02,-3.720650076866149902e-01,-8.890981972217559814e-02,-1.092965081334114075e-01,3.126304224133491516e-02,1.006895154714584351e-01,1.378427296876907349e-01,-1.119476929306983948e-01,1.871186494827270508e-01,1.566273160278797150e-03,-1.380882710218429565e-01,-3.311881795525550842e-02,1.427449434995651245e-01,-1.495688408613204956e-01
-2.411693632602691650e-01,-3.441115021705627441e-01,-1.213145852088928223e-01,1.324879378080368042e-02,-4.277226328849792480e-01,-2.408379167318344116e-01,-3.923225700855255127e-01,3.382811695337295532e-02,-8.455497771501541138e-02,3.406244330108165741e-03,-1.087300553917884827e-01,1.779106678441166878e-03,1.466535478830337524e-01,1.135806925594806671e-02,6.456249207258224487e-02,-4.413679987192153931e-02,1.756585086695849895e-03,-1.693269051611423492e-02,-3.689720854163169861e-02,-7.570014148950576782e-02,-5.585256591439247131e-02,-2.901158668100833893e-02,1.981674432754516602e-01,9.844336658716201782e-02,-1.431962549686431885e-01,1.646206341683864594e-02,-7.124680280685424805e-02,-1.196352019906044006e-01,-6.392978131771087646e-02,-2.677725553512573242e-01,7.458794116973876953e-02,-1.092068254947662354e-01,-1.470689326524734497e-01,-1.986295431852340698e-01,3.409529104828834534e-02,-2.114536315202713013e-01,-7.358559221029281616e-02,1.075940439477562904e-03,1.222561020404100418e-02,1.728630214929580688e-01,-2.135650254786014557e-02,1.600599437952041626e-01,1.657862365245819092e-01,-8.248517662286758423e-02,1.364542823284864426e-02,-3.825740218162536621e-01,-7.486565709114074707e-01,-1.224737614393234253e-01,2.927188761532306671e-02,-1.099556237459182739e-01,-8.280543982982635498e-02,1.305384188890457153e-01,-2.907502092421054840e-02,-2.110666483640670776e-01,1.857523620128631592e-01,-7.404744625091552734e-02,-2.475679479539394379e-02,-9.348424524068832397e-02,1.649919301271438599e-01,-9.319169074296951294e-02,1.375623419880867004e-02,-1.448040902614593506e-01,-6.865374743938446045e-02,-2.112803906202316284e-01,-2.037998288869857788e-01,-9.716512262821197510e-02,-2.339733392000198364e-01,-2.742139622569084167e-02,2.104257345199584961e-01,-2.320110797882080078e-01,-8.055248856544494629e-02,-1.040344536304473877e-01,1.865630000829696655e-01,1.005185768008232117e-01,3.224802017211914062e-02,-8.839831501245498657e-02,1.520461589097976685e-01,8.889924734830856323e-03,2.359341830015182495e-02,1.476300954818725586e-01,6.088076904416084290e-02,1.553510576486587524e-01,3.555047884583473206e-02,8.229271322488784790e-02,9.586370736360549927e-02,1.347740292549133301e-01,1.407221890985965729e-03,5.964024364948272705e-02,-5.879976600408554077e-02,3.900324925780296326e-02,4.070990160107612610e-02,-3.333517611026763916e-01,-6.033418327569961548e-02,-5.247538089752197266e-01,1.393947284668684006e-02,-2.511764504015445709e-02,-3.098602406680583954e-03,-4.067641794681549072e-01,4.253090918064117432e-02,4.570239409804344177e-02,-1.154865249991416931e-01,-6.599730998277664185e-02,1.456640958786010742e-01,7.618555799126625061e-03,-8.277355134487152100e-02,5.099720507860183716e-02,1.028903797268867493e-01,5.872955173254013062e-02,7.637768983840942383e-02,7.532615214586257935e-02,1.408206671476364136e-01,1.654842048883438110e-01,-3.574556112289428711e-01,-7.088632136583328247e-02,1.929949074983596802e-01,-4.878749698400497437e-02,-7.473264634609222412e-02,-2.413761913776397705e-01,-1.314804702997207642e-01,-1.146601065993309021e-01,2.846574485301971436e-01,-6.294118165969848633e-01,1.786248199641704559e-02,-1.726503670215606689e-01,-1.644475162029266357e-01,-2.044473886489868164e-01,7.732412219047546387e-02,-5.929271876811981201e-02,1.089871078729629517e-01,-6.498270630836486816e-01,3.648736178874969482e-01,1.047138571739196777e-01,-4.069992005825042725e-01,1.577158086001873016e-02,-1.093910355120897293e-02,-1.073216795921325684e-01,1.510829776525497437e-01,-6.903923349454998970e-05,2.102073878049850464e-01,-3.087360262870788574e-01,6.679794192314147949e-02,-3.319863677024841309e-01,-2.447950690984725952e-01,-1.055206134915351868e-01,-4.641486704349517822e-02,7.846686244010925293e-02,8.249056339263916016e-02,2.228140830993652344e-01,-2.634139060974121094e-01,-8.740149438381195068e-02,1.707230061292648315e-01,-2.304870039224624634e-01,-1.555135846138000488e-01,-8.283659815788269043e-02,-5.748538970947265625e-01,3.803557157516479492e-02,8.583366870880126953e-02,1.199658885598182678e-01,-3.408571705222129822e-02,1.245925948023796082e-01,4.779949411749839783e-02,-2.011107504367828369e-01,1.473074108362197876e-01,-1.100584194064140320e-01,-8.252497017383575439e-02,-2.250821888446807861e-01,-3.896158188581466675e-02,-1.772829145193099976e-01,3.311993777751922607e-01,-3.335523307323455811e-01,-6.483496725559234619e-02,-1.815424114465713501e-01,7.118454575538635254e-02,-1.928330063819885254e-01,9.570953994989395142e-02,5.185792967677116394e-02,8.526224642992019653e-02,-3.727742731571197510e-01,-2.380142211914062500e-01,-4.686068594455718994e-01,-6.789401918649673462e-02,8.098170161247253418e-02,-8.355659246444702148e-02,1.607028841972351074e-01,1.444390118122100830e-01,-1.963919997215270996e-01,-7.684198021888732910e-02,-2.023867964744567871e-01,-6.775425672531127930e-01,-4.442096874117851257e-02,1.345510482788085938e-01,1.460881531238555908e-01,6.592996418476104736e-02,1.077807247638702393e-01,-1.539411395788192749e-01,-5.136017799377441406e-01,-1.545742601156234741e-01,-2.872678264975547791e-02,1.884678155183792114e-01,-1.600215882062911987e-01,-3.538873791694641113e-01,-1.358800977468490601e-01,2.631709724664688110e-02,-2.433354854583740234e-01,1.282884627580642700e-01,-8.316563069820404053e-02,-1.101717650890350342e-01,1.544973552227020264e-01,-4.755977913737297058e-02,-1.193545833230018616e-01,-1.930139064788818359e-01,-3.442686796188354492e-02,5.200124159455299377e-02,1.544132679700851440e-01,-5.790552496910095215e-01,4.011449217796325684e-02,1.753576546907424927e-01,1.071805879473686218e-01,1.334500461816787720e-01,1.313804090023040771e-01,-2.492121756076812744e-01,-2.752815485000610352e-01,4.253977537155151367e-02,-5.477830767631530762e-02,-1.722522825002670288e-01,-1.191773787140846252e-01,-2.159167975187301636e-01,8.386047184467315674e-02,2.191893756389617920e-02,-3.023582100868225098e-01,1.372012943029403687e-01,7.214100658893585205e-02,5.652111023664474487e-02,4.207504913210868835e-02,-1.441695988178253174e-01,3.750796895474195480e-04,6.373476237058639526e-02,-1.818183809518814087e-01,-4.171256721019744873e-02,-5.406325310468673706e-02,-1.162658929824829102e-01,3.830021247267723083e-02,-2.741844952106475830e-01,-1.847042739391326904e-01,-9.501536190509796143e-02,-6.673010438680648804e-02,-7.162506878376007080e-02,-2.200417071580886841e-01,-1.653825938701629639e-01,5.486165732145309448e-02,9.631694853305816650e-02,-1.556619703769683838e-01,1.518274098634719849e-01,7.736521773040294647e-03,1.332225799560546875e-01,1.180626973509788513e-01
