-3.501560911536216736e-02,-7.297065854072570801e-02,9.675277769565582275e-02,2.195662260055541992e-02,-7.040003780275583267e-03,-2.368772774934768677e-02,-6.427988409996032715e-02,-9.791088849306106567e-02,-6.392485648393630981e-02,4.135912656784057617e-02,4.612806066870689392e-02,9.675439447164535522e-03,-5.268404632806777954e-02,3.920350223779678345e-02,-5.397260934114456177e-02,4.761143028736114502e-02,8.566039032302796841e-04,-3.611719235777854919e-02,-5.576892569661140442e-02,5.951412022113800049e-02,-5.820403248071670532e-02,-9.472588449716567993e-02,-8.611928671598434448e-02,4.685776680707931519e-02,4.836062341928482056e-02,4.154865816235542297e-02,6.979466974735260010e-02,-4.125790670514106750e-02,2.794737927615642548e-02,-7.779110223054885864e-02,-3.931289911270141602e-02,-9.750612825155258179e-02,-7.581520080566406250e-02,-2.847313135862350464e-02,-9.209866076707839966e-02,1.967540383338928223e-02,1.448254287242889404e-02,5.662433803081512451e-03,4.977562278509140015e-02,3.520086780190467834e-02,-6.615956872701644897e-02,3.711199760437011719e-02,-6.625072658061981201e-02,-1.948532462120056152e-02,-1.333747804164886475e-02,-4.424616694450378418e-03,-6.107005476951599121e-02,-6.757497787475585938e-03,-2.451423741877079010e-02,7.232563197612762451e-02,-2.289048954844474792e-02,6.287571787834167480e-02,7.169307768344879150e-02,-1.326372474431991577e-02,-7.377154380083084106e-02,-7.526849210262298584e-02,-8.952540904283523560e-02,3.620805963873863220e-02,-9.844134747982025146e-02,-3.218041500076651573e-03,-6.675273925065994263e-02,5.079262331128120422e-02,-5.859397724270820618e-02,7.973079383373260498e-02,-8.865725994110107422e-02,-2.793769538402557373e-02,-4.039911553263664246e-03,9.036213159561157227e-03,-7.405647635459899902e-02,-7.611861824989318848e-02,6.774194538593292236e-03,-2.869361080229282379e-02,-5.969416350126266479e-02,3.618615120649337769e-02,8.781251311302185059e-02,-4.858440533280372620e-02,-7.972406595945358276e-02,5.327736958861351013e-02,7.876646518707275391e-02,-7.043644040822982788e-02,-2.193973585963249207e-02,-1.540072355419397354e-02,8.035220205783843994e-02,2.023833245038986206e-02,4.337634146213531494e-02,-7.720164209604263306e-02,2.018860355019569397e-02,-2.233569882810115814e-02,1.502388436347246170e-02,-1.400213222950696945e-02,4.319939017295837402e-02,1.585985720157623291e-02,4.099207371473312378e-02,3.124588914215564728e-02,3.798880206886678934e-04,5.544265732169151306e-02,-8.324745297431945801e-02,-4.693077132105827332e-02,6.912487745285034180e-02,9.079840779304504395e-02,7.630993425846099854e-02,8.331240154802799225e-03,-5.788668990135192871e-02,5.234465748071670532e-02,-6.833496689796447754e-02,-2.345395646989345551e-02,9.542838484048843384e-02,4.922998696565628052e-02,-1.967591978609561920e-02,-8.088333159685134888e-02,-2.202758006751537323e-02,-2.258423017337918282e-03,-2.241617441177368164e-02,6.127713620662689209e-02,-7.974633574485778809e-02,3.719352558255195618e-02,-2.146240882575511932e-02,-7.453738898038864136e-02,-3.513708338141441345e-02,-7.132742553949356079e-02,-6.812664121389389038e-02,5.205829069018363953e-02,-8.054711669683456421e-02,-9.219996631145477295e-02,5.327508598566055298e-02,2.002924866974353790e-02,-7.688821852207183838e-02,-9.990292042493820190e-02,1.046714559197425842e-02,-2.598604653030633926e-03,-6.759119033813476562e-02,-5.326049402356147766e-02,-8.830814063549041748e-02,-1.874159276485443115e-02,1.738525927066802979e-02,-5.623109638690948486e-02,1.125985849648714066e-02,7.893793284893035889e-03,-6.309412419795989990e-02,3.644080460071563721e-02,4.711997136473655701e-02,-6.655781180597841740e-04,-8.464096486568450928e-02,9.036447107791900635e-02,6.972063332796096802e-02,-3.039561957120895386e-02,7.968619465827941895e-02,4.205861315131187439e-02,4.034700244665145874e-02,-8.292206376791000366e-02,2.815435826778411865e-02,-6.513407081365585327e-02,-6.322638690471649170e-02,-6.379371043294668198e-03,9.437036514282226562e-02,-7.269039750099182129e-03,7.999559491872787476e-02,-8.828555233776569366e-03,-8.244414627552032471e-02,7.078362256288528442e-02,-4.968881607055664062e-02,-3.326270729303359985e-02,3.936895355582237244e-02,-4.814555495977401733e-02,-5.836409330368041992e-02,1.015315391123294830e-02,-6.356500089168548584e-02,5.008337646722793579e-02,-8.230996876955032349e-02,-6.160906329751014709e-02,7.226391881704330444e-02,8.321241289377212524e-02,-3.570144623517990112e-02,1.440203934907913208e-02,1.428534463047981262e-02,-2.972951531410217285e-02,7.139310240745544434e-02,4.506113380193710327e-02,-3.547545149922370911e-02,-1.175327692180871964e-03,-9.687338024377822876e-02,-7.528293132781982422e-02,5.646005645394325256e-02,4.407503828406333923e-02,7.917941361665725708e-02,-4.329267144203186035e-02,8.664468303322792053e-03,7.167072594165802002e-02,3.191066533327102661e-02,-3.561681881546974182e-02,7.249185442924499512e-02,-3.822474926710128784e-02,-4.353182762861251831e-02,8.231903612613677979e-02,3.446668758988380432e-02,-8.918951265513896942e-03,-3.106823563575744629e-02,-5.368388071656227112e-02,-6.702227145433425903e-02,-8.613207936286926270e-02,-2.655870048329234123e-04,6.774938106536865234e-02,-3.872540220618247986e-02,1.204672269523143768e-02,-9.713917225599288940e-02,-8.350133150815963745e-02,-1.083569973707199097e-02,9.924548864364624023e-02,-2.270860970020294189e-02,5.950776860117912292e-02,-6.713961064815521240e-02,4.708327353000640869e-02,9.917918592691421509e-03,9.428133070468902588e-02,-6.819186359643936157e-02,2.903429791331291199e-02,-4.568250104784965515e-02,8.453425019979476929e-03,-8.336277306079864502e-02,-8.074579387903213501e-02,-1.793364994227886200e-03,1.561851426959037781e-02,5.956412106752395630e-02,-3.077721036970615387e-02,-7.970470190048217773e-02,6.163196638226509094e-02,3.627788648009300232e-02,-4.379332065582275391e-03,-9.568074345588684082e-02,-4.855513945221900940e-02,7.534413039684295654e-02,-5.783509090542793274e-02,-7.131870836019515991e-02,-6.153453513979911804e-02,5.623626336455345154e-02,1.449305471032857895e-02,6.079176068305969238e-02,2.327955327928066254e-02,9.364059567451477051e-02,5.221076309680938721e-02,9.688124060630798340e-03,3.888474777340888977e-02,-5.943536758422851562e-02,8.045391738414764404e-02,-1.624930649995803833e-02,4.340420942753553391e-03,9.388900548219680786e-02,-6.193868443369865417e-02,7.014947384595870972e-02,-4.868917912244796753e-02,-3.756771236658096313e-02,5.463228747248649597e-02,2.601196430623531342e-02,2.506627887487411499e-02,-7.304953783750534058e-02,8.508014678955078125e-02
1.726568490266799927e-02,-2.901458879932761192e-03,8.840506523847579956e-02,3.064987808465957642e-02,1.856095343828201294e-02,2.253730967640876770e-02,8.638080209493637085e-02,-1.119271735660731792e-03,2.942984178662300110e-02,6.790010631084442139e-02,-5.772645398974418640e-02,-1.754156127572059631e-02,8.722399175167083740e-02,6.068080663681030273e-02,7.224440574645996094e-02,-2.156114391982555389e-02,-7.875529676675796509e-02,-1.461631618440151215e-02,7.717254012823104858e-02,3.767541050910949707e-02,-2.699379809200763702e-02,-5.224517360329627991e-02,-1.239123940467834473e-02,-8.432886749505996704e-02,-9.347705170512199402e-03,-5.816098675131797791e-02,9.859443455934524536e-02,3.445222601294517517e-02,2.546787634491920471e-02,9.609321504831314087e-02,7.571121305227279663e-02,-6.862911581993103027e-02,-5.331245716661214828e-03,8.242861926555633545e-02,-5.095392093062400818e-02,5.056443810462951660e-02,5.705931037664413452e-02,2.937429212033748627e-02,6.894168257713317871e-02,-8.547817170619964600e-02,8.774971216917037964e-02,9.296379983425140381e-02,-2.622540853917598724e-02,-8.923904038965702057e-03,-7.755511999130249023e-02,2.894646860659122467e-02,9.364550560712814331e-02,3.212737292051315308e-02,-4.735904559493064880e-02,-1.311831641942262650e-02,-5.014223977923393250e-02,-6.309096934273838997e-04,-2.541429921984672546e-02,2.173793874680995941e-02,1.143976580351591110e-02,1.866119541227817535e-02,7.499206066131591797e-02,5.827214568853378296e-02,-1.308219134807586670e-02,3.586942702531814575e-02,-9.513787925243377686e-03,-1.531994715332984924e-02,-6.098214909434318542e-02,8.840344101190567017e-02,5.957190296612679958e-04,2.564804442226886749e-02,-3.831826895475387573e-02,-3.393327072262763977e-02,-3.934267908334732056e-02,5.168564990162849426e-02,2.188894897699356079e-02,-3.172110067680478096e-03,-2.870850823819637299e-02,-6.432462483644485474e-02,-7.419048249721527100e-02,-4.873425234109163284e-03,1.656954176723957062e-02,5.005166307091712952e-02,4.157989844679832458e-02,2.312166616320610046e-02,-9.112869948148727417e-02,1.718836836516857147e-03,7.295437157154083252e-03,3.438415005803108215e-02,-5.403825640678405762e-02,2.239628881216049194e-02,-6.718178093433380127e-02,-7.518473267555236816e-02,-9.616891853511333466e-03,1.519475225359201431e-02,9.488304704427719116e-02,2.072975970804691315e-02,-5.370398610830307007e-02,6.798368692398071289e-02,6.971859931945800781e-02,5.012757703661918640e-02,-4.421255365014076233e-02,-2.368384040892124176e-02,-1.594310440123081207e-02,5.768592655658721924e-02,-9.350559115409851074e-02,5.735206231474876404e-02,2.862866595387458801e-02,4.090062156319618225e-02,-4.423872008919715881e-02,-6.886400282382965088e-02,6.892881542444229126e-02,-6.714603304862976074e-02,9.215285070240497589e-03,-5.994908511638641357e-02,4.257808253169059753e-02,7.056504546198993921e-05,1.483976840972900391e-03,-5.271805450320243835e-02,-3.897449374198913574e-02,8.292059600353240967e-02,-1.901666820049285889e-02,-5.562344193458557129e-02,-6.931801140308380127e-02,3.377568349242210388e-02,5.536707118153572083e-02,8.637515455484390259e-02,-8.775246143341064453e-02,-3.057658858597278595e-02,6.320113688707351685e-02,-3.476788848638534546e-02,-4.128776490688323975e-02,-3.446210548281669617e-02,-4.093193262815475464e-02,-2.633996121585369110e-02,6.522237509489059448e-02,-6.979567930102348328e-03,5.443903431296348572e-02,2.375460974872112274e-02,-8.575057983398437500e-02,-4.045970737934112549e-02,-6.033751368522644043e-02,-4.818646609783172607e-02,8.217840641736984253e-02,-7.436344865709543228e-03,2.482836879789829254e-02,-8.415202610194683075e-03,1.174107287079095840e-02,8.907128870487213135e-02,-8.785953372716903687e-02,-9.473821520805358887e-02,-3.956425562500953674e-02,4.170351848006248474e-02,-7.639281451702117920e-02,-4.989665001630783081e-03,-2.540713548660278320e-02,7.004401832818984985e-02,-6.843554973602294922e-02,-5.836515873670578003e-02,7.705817371606826782e-02,7.817645370960235596e-02,-2.122049592435359955e-02,-6.627622246742248535e-02,4.430526122450828552e-02,-5.293606221675872803e-02,-1.289203297346830368e-02,6.707116216421127319e-02,-3.172879666090011597e-02,-2.555703977122902870e-03,6.871015764772891998e-03,3.533810004591941833e-02,-5.941607803106307983e-02,7.370259612798690796e-02,4.971768707036972046e-03,1.125783286988735199e-02,-4.907653783448040485e-04,8.357533067464828491e-02,-5.197185650467872620e-02,5.378098413348197937e-02,-3.749371692538261414e-02,-9.008159488439559937e-02,6.677883118391036987e-02,-3.906048834323883057e-02,2.354867570102214813e-02,3.839901182800531387e-03,5.862361285835504532e-03,-8.545202761888504028e-02,7.802141830325126648e-03,-2.590797096490859985e-02,-1.987331546843051910e-02,-2.810773253440856934e-02,-7.345302961766719818e-03,9.046569466590881348e-03,-8.834438771009445190e-02,-7.044806331396102905e-02,-5.648265033960342407e-02,5.457092821598052979e-02,-1.909447833895683289e-02,-2.090423926711082458e-02,-1.429804135113954544e-03,5.180206894874572754e-02,6.972800195217132568e-02,-5.048082768917083740e-02,4.958826676011085510e-02,-5.617820844054222107e-02,-6.603650748729705811e-02,-4.496809467673301697e-02,-6.437161564826965332e-02,5.680145695805549622e-02,1.335337664932012558e-02,1.011968706734478474e-03,7.579350471496582031e-02,1.217965874820947647e-02,-8.768465369939804077e-02,3.664040565490722656e-02,3.183159232139587402e-02,8.298006653785705566e-02,-5.926621705293655396e-02,7.080535590648651123e-02,-7.498175650835037231e-02,7.140137255191802979e-02,6.904073804616928101e-02,-6.388667225837707520e-02,-2.018594928085803986e-02,7.063097506761550903e-02,-6.469917297363281250e-02,-1.564576104283332825e-02,-8.347949385643005371e-02,-7.254685275256633759e-03,-8.855976164340972900e-02,7.740031182765960693e-02,9.864448010921478271e-02,7.359609007835388184e-02,-4.351859912276268005e-02,-5.890723317861557007e-02,-4.303778335452079773e-02,7.739131152629852295e-02,1.434752438217401505e-02,-6.667249649763107300e-02,-6.512832641601562500e-02,1.270272041438147426e-04,4.096361249685287476e-02,6.009638682007789612e-02,7.931423932313919067e-02,-5.117874126881361008e-03,1.193287968635559082e-02,-6.202252209186553955e-02,6.917981058359146118e-02,-2.414705231785774231e-02,-6.921341409906744957e-04,6.452184170484542847e-02,-5.559573695063591003e-02,-1.745675108395516872e-03,6.362689286470413208e-02,-2.465349622070789337e-02,-6.785710155963897705e-02,4.668523371219635010e-02,2.327868342399597168e-02,9.429357945919036865e-02,3.066883794963359833e-02,3.248053416609764099e-02
1.307732891291379929e-02,-9.553536772727966309e-02,-3.083774261176586151e-02,5.660378560423851013e-02,-5.317127704620361328e-02,-9.641756862401962280e-02,-2.963878959417343140e-02,7.993426173925399780e-03,-1.794683933258056641e-02,4.793103784322738647e-02,-4.807069152593612671e-02,3.623407706618309021e-02,6.674732267856597900e-02,9.175756573677062988e-02,-1.991039514541625977e-02,4.118002206087112427e-02,-4.695805907249450684e-02,-7.906128466129302979e-02,-3.541163727641105652e-02,-6.508126854896545410e-02,-1.003470420837402344e-01,7.786706835031509399e-02,-4.622899740934371948e-02,4.389907419681549072e-02,-1.188937388360500336e-02,-9.997775405645370483e-02,-6.246171519160270691e-02,-9.765593707561492920e-02,-5.614282563328742981e-02,-6.558401882648468018e-02,-1.256242021918296814e-02,-4.600821807980537415e-02,-7.706127315759658813e-02,-2.794571220874786377e-02,-2.629852155223488808e-03,8.585552871227264404e-02,8.175434917211532593e-02,2.950609102845191956e-02,1.699777506291866302e-02,3.833630308508872986e-02,3.939368762075901031e-03,-6.877437233924865723e-02,-6.169017404317855835e-02,-4.752805829048156738e-02,-5.063710361719131470e-02,3.278955444693565369e-02,6.672267615795135498e-02,-9.987039864063262939e-02,6.217819824814796448e-02,-7.761579751968383789e-02,5.363931134343147278e-02,5.523285269737243652e-02,8.177810162305831909e-02,-4.193764925003051758e-02,-8.445931971073150635e-02,-7.758487761020660400e-02,5.223454535007476807e-02,1.832150667905807495e-02,-6.197897717356681824e-02,-6.212230771780014038e-02,-5.726284161210060120e-02,6.996361166238784790e-02,8.526030927896499634e-02,2.866607531905174255e-02,5.493758618831634521e-02,-5.306549742817878723e-02,-7.594997435808181763e-02,-8.849640190601348877e-02,-3.054153174161911011e-02,-4.248457029461860657e-02,4.878096282482147217e-02,5.483676120638847351e-02,3.759705647826194763e-02,-3.503115847706794739e-02,-7.650984823703765869e-02,-3.970982972532510757e-03,3.667441010475158691e-02,-7.177699357271194458e-02,2.347172796726226807e-02,8.791848272085189819e-02,-9.367024153470993042e-02,8.016371726989746094e-02,2.191640436649322510e-02,-3.904675319790840149e-02,7.807526737451553345e-02,1.201398437842726707e-03,-3.771041706204414368e-02,-4.555759578943252563e-02,6.986752897500991821e-02,3.453434631228446960e-02,5.697589740157127380e-02,8.652104437351226807e-02,6.134589761495590210e-02,-2.859628293663263321e-03,5.974512174725532532e-02,2.033700607717037201e-02,-7.007076591253280640e-02,8.176409639418125153e-03,-5.610867962241172791e-02,-1.490388717502355576e-02,-7.101128250360488892e-02,-6.001316383481025696e-02,6.066243350505828857e-02,-3.008441999554634094e-02,6.973106414079666138e-02,-8.050607889890670776e-02,3.113372810184955597e-02,1.135900802910327911e-02,-4.857767000794410706e-02,1.514068432152271271e-02,9.570366144180297852e-02,5.858133733272552490e-02,-3.927126526832580566e-03,-6.143390387296676636e-02,4.592573270201683044e-02,-6.853186339139938354e-02,-7.500191684812307358e-03,8.481754362583160400e-02,-7.209642976522445679e-02,1.943605020642280579e-02,-8.292383863590657711e-04,-7.715246465522795916e-05,-2.785473316907882690e-02,-2.916712872684001923e-02,-5.062101874500513077e-03,3.543590009212493896e-02,1.680015400052070618e-02,-5.198936909437179565e-02,7.878703624010086060e-02,-9.313230402767658234e-03,2.067427709698677063e-02,-4.854167997837066650e-02,-8.407921344041824341e-02,-3.539337590336799622e-02,5.947744101285934448e-02,6.672473996877670288e-02,3.576746955513954163e-02,-5.245013535022735596e-02,-7.809930294752120972e-02,-8.509527891874313354e-02,5.455089267343282700e-03,2.941565122455358505e-03,6.492618471384048462e-02,-8.872910402715206146e-03,1.010409370064735413e-02,4.078983888030052185e-02,-3.500842303037643433e-02,-7.906048558652400970e-03,3.702933713793754578e-02,8.504655957221984863e-02,-3.510521026328206062e-03,-8.197904378175735474e-02,-2.736707031726837158e-02,1.955118402838706970e-02,-9.817904978990554810e-02,-1.416636258363723755e-02,7.724969834089279175e-02,3.764613717794418335e-02,1.298955176025629044e-03,5.661572888493537903e-02,-4.529649019241333008e-02,5.989614501595497131e-02,-8.505875617265701294e-02,3.024592762812972069e-03,9.042029269039630890e-03,2.376928366720676422e-02,-5.415293201804161072e-02,-8.425907045602798462e-02,4.424003139138221741e-02,5.790809914469718933e-02,-1.496694516390562057e-02,8.932638913393020630e-03,-9.280773252248764038e-02,1.375262811779975891e-02,-3.902777656912803650e-02,-7.194496574811637402e-04,8.785644918680191040e-02,6.793007254600524902e-02,6.384965498000383377e-03,6.783960014581680298e-02,-9.330997616052627563e-02,-3.793296962976455688e-02,-4.063224047422409058e-02,-6.923390179872512817e-02,1.841958053410053253e-02,8.532554656267166138e-02,9.931327775120735168e-03,-5.527259036898612976e-02,9.375446289777755737e-02,-7.102376967668533325e-02,-1.442223787307739258e-02,9.110055863857269287e-03,-6.694547832012176514e-02,-5.033490061759948730e-02,-2.966643683612346649e-02,-3.033495880663394928e-02,4.886427894234657288e-02,-4.955948889255523682e-02,-9.380950778722763062e-02,-3.868474438786506653e-02,3.252330049872398376e-02,4.669731110334396362e-02,8.965516835451126099e-02,-9.186187386512756348e-02,8.775518834590911865e-02,-7.970485091209411621e-02,9.266681969165802002e-02,1.632789894938468933e-02,4.304804280400276184e-02,7.715088874101638794e-02,5.745328590273857117e-02,4.282995313405990601e-02,1.998884370550513268e-03,3.340885043144226074e-02,1.655302010476589203e-02,3.594756871461868286e-02,2.989084273576736450e-02,8.329733274877071381e-03,-9.855218231678009033e-02,7.342626806348562241e-03,1.160877570509910583e-02,-1.455926243215799332e-02,-4.559312015771865845e-02,-4.374279454350471497e-02,2.787962742149829865e-02,-1.884276419878005981e-02,-4.842810332775115967e-02,7.983833551406860352e-02,5.749684572219848633e-02,-7.180612534284591675e-03,-8.583512157201766968e-02,-1.186585891991853714e-02,7.006525993347167969e-02,3.482488170266151428e-02,4.820325970649719238e-02,1.935065374709665775e-03,5.488432478159666061e-03,6.235251203179359436e-02,1.801925338804721832e-02,-1.005555167794227600e-01,-1.620683073997497559e-02,-1.003727465867996216e-01,7.446233928203582764e-02,-5.433563143014907837e-02,3.636065172031521797e-03,3.103029355406761169e-02,9.863708168268203735e-02,-7.420827168971300125e-03,-6.381423026323318481e-02,4.798228293657302856e-02,1.784197054803371429e-02,5.445723608136177063e-02,-2.547568827867507935e-02,-5.711684376001358032e-02,-4.231613501906394958e-02,3.807976469397544861e-02
2.501235343515872955e-02,-1.258332375437021255e-02,-6.057807803153991699e-02,-7.826080173254013062e-02,-4.758017510175704956e-02,9.078578650951385498e-02,-1.688758656382560730e-02,4.725376144051551819e-02,-7.768127322196960449e-02,-8.028149604797363281e-03,-1.711689680814743042e-02,5.655784159898757935e-02,7.451675832271575928e-02,-2.948374114930629730e-02,5.996211245656013489e-02,4.276110231876373291e-02,-1.110498793423175812e-03,-2.525233663618564606e-02,4.670121148228645325e-02,4.886590689420700073e-02,-1.506449561566114426e-02,-2.797622047364711761e-02,3.359365090727806091e-02,-2.783175557851791382e-02,-8.529628813266754150e-02,4.883185494691133499e-03,-3.436734154820442200e-02,7.696507871150970459e-02,4.054745659232139587e-03,7.671494968235492706e-03,-2.493705973029136658e-02,1.547022629529237747e-02,-5.015514791011810303e-02,-2.860981225967407227e-02,5.492770299315452576e-02,-6.377993151545524597e-03,-1.525701582431793213e-02,7.315703481435775757e-02,-9.406724572181701660e-02,-2.146459929645061493e-02,3.228903515264391899e-04,-4.152037203311920166e-02,6.474053859710693359e-02,-8.768001198768615723e-02,-5.151918157935142517e-02,6.720684468746185303e-03,3.778592869639396667e-02,5.852914229035377502e-02,2.975854463875293732e-02,6.034955754876136780e-02,-2.841052599251270294e-02,-4.842819646000862122e-02,2.530340477824211121e-02,-5.918049067258834839e-02,-5.266532301902770996e-02,-7.595958560705184937e-02,5.672735720872879028e-02,5.917719751596450806e-02,-7.073662430047988892e-02,-7.707307487726211548e-02,-7.985337078571319580e-02,-5.910331010818481445e-02,-3.805765882134437561e-02,-9.963251650333404541e-02,-2.731505967676639557e-02,5.395921692252159119e-02,6.407608743757009506e-04,6.722952425479888916e-02,4.937480390071868896e-02,6.839109212160110474e-02,5.545872449874877930e-02,6.866627931594848633e-02,-2.932287752628326416e-02,-6.490861624479293823e-02,4.738329444080591202e-03,-8.234293758869171143e-02,9.009794890880584717e-02,6.065274402499198914e-02,2.271346189081668854e-02,8.920667320489883423e-02,-9.308562427759170532e-02,-8.074501901865005493e-02,-8.445248007774353027e-02,-3.403493762016296387e-02,5.091027915477752686e-02,4.879723861813545227e-02,-6.536111235618591309e-02,3.841760382056236267e-02,-4.255205765366554260e-02,8.474797010421752930e-02,-7.734823226928710938e-02,-2.445649728178977966e-02,-4.792684689164161682e-02,-1.033204980194568634e-02,-3.162058070302009583e-02,4.731031879782676697e-02,-3.900586441159248352e-02,-5.140958353877067566e-02,-6.607829034328460693e-02,8.698666095733642578e-02,8.493681252002716064e-02,4.015059396624565125e-02,1.251789368689060211e-02,-1.725673303008079529e-02,3.327854443341493607e-03,2.190860733389854431e-02,6.930604577064514160e-02,9.916859865188598633e-02,7.131278514862060547e-02,-5.113436654210090637e-02,6.760181486606597900e-02,3.877839446067810059e-02,5.443960428237915039e-03,5.065669119358062744e-02,7.909075170755386353e-02,-8.639742434024810791e-02,3.035666979849338531e-02,5.094494298100471497e-02,-5.308502167463302612e-02,1.400294899940490723e-02,-6.280044093728065491e-03,4.447817429900169373e-02,5.334320664405822754e-02,3.530832007527351379e-02,7.523996382951736450e-02,-4.639189317822456360e-02,-7.144857943058013916e-02,-4.268758371472358704e-02,1.269430294632911682e-02,-3.989909216761589050e-02,8.203022927045822144e-02,-9.703432023525238037e-02,6.014066189527511597e-02,5.737920477986335754e-02,-6.675663590431213379e-02,6.904330104589462280e-02,4.102523252367973328e-02,1.245032250881195068e-02,-5.396759510040283203e-02,-8.396400371566414833e-04,7.640012353658676147e-02,-4.763875901699066162e-02,8.243378996849060059e-02,-2.751029469072818756e-02,-7.887553423643112183e-02,-8.729079365730285645e-02,-8.853770792484283447e-02,-5.283778160810470581e-02,6.483601033687591553e-02,9.312973171472549438e-02,5.649039894342422485e-02,-2.748111821711063385e-02,1.196903735399246216e-02,-5.078575015068054199e-02,7.734639942646026611e-02,2.500047534704208374e-02,-3.104727528989315033e-02,-7.126323878765106201e-02,-8.724376559257507324e-02,7.661800831556320190e-02,6.914265453815460205e-03,-5.925592035055160522e-03,-7.249261438846588135e-02,5.359682068228721619e-02,-7.972538471221923828e-02,-7.962572574615478516e-02,7.132557034492492676e-02,8.727854490280151367e-02,9.334262460470199585e-02,5.176311358809471130e-02,4.917416721582412720e-02,-8.083005249500274658e-02,-4.227971285581588745e-02,-6.147624924778938293e-02,1.715311221778392792e-02,8.325272053480148315e-02,-7.675506174564361572e-02,2.157080359756946564e-02,-8.019678294658660889e-02,-6.920786201953887939e-02,-1.191093586385250092e-02,3.739850968122482300e-02,7.261691242456436157e-02,-3.550014644861221313e-02,-1.741142012178897858e-02,1.785557344555854797e-02,-6.742194294929504395e-02,2.774583734571933746e-02,-2.767725847661495209e-02,-3.372661024332046509e-02,-8.750320225954055786e-02,-6.781694293022155762e-02,-7.746341079473495483e-02,-2.968166954815387726e-02,2.591083943843841553e-02,3.125573694705963135e-02,-3.044323064386844635e-02,-3.316990658640861511e-02,6.005497276782989502e-02,7.031277567148208618e-02,-3.445886448025703430e-02,9.425360709428787231e-03,-6.989002972841262817e-02,5.566613003611564636e-02,2.975036576390266418e-02,4.910228401422500610e-02,-3.974217176437377930e-02,3.116298001259565353e-03,3.925181925296783447e-02,1.035780739039182663e-02,1.330266147851943970e-02,3.385663032531738281e-02,-3.357945010066032410e-02,7.461558282375335693e-02,2.982786623761057854e-03,6.292120367288589478e-02,3.993664309382438660e-02,3.980854898691177368e-02,4.618714749813079834e-02,4.323225095868110657e-02,-8.915177732706069946e-02,6.085399910807609558e-02,-3.893651440739631653e-02,8.320662379264831543e-02,-8.053947985172271729e-02,6.693997979164123535e-02,1.439701393246650696e-02,-8.279941976070404053e-02,7.566436380147933960e-02,3.796737268567085266e-02,-3.838264197111129761e-02,-3.089880011975765228e-02,-1.560158468782901764e-02,-3.587749227881431580e-02,7.835550606250762939e-02,-7.931659929454326630e-03,7.885821163654327393e-02,-4.149382188916206360e-02,3.928234800696372986e-02,-8.521012216806411743e-02,-8.595573157072067261e-02,7.478136569261550903e-02,2.606184780597686768e-02,2.880528569221496582e-02,-7.758031785488128662e-02,2.468799706548452377e-03,-2.686031162738800049e-02,2.993251942098140717e-02,7.180044800043106079e-02,-3.415826242417097092e-03,-1.277799904346466064e-02,5.793805047869682312e-02,1.450838148593902588e-02,6.682367622852325439e-02,-7.027687877416610718e-02,-2.462444640696048737e-02
-4.056446254253387451e-02,9.248424321413040161e-03,9.933864325284957886e-02,-6.700048106722533703e-04,3.385635092854499817e-02,-2.897024527192115784e-02,-4.503455013036727905e-02,1.780826039612293243e-02,8.402502536773681641e-02,-1.506496220827102661e-02,7.734079379588365555e-03,7.635631412267684937e-02,3.220489481464028358e-03,1.383739523589611053e-02,-4.302709549665451050e-02,4.232776910066604614e-02,1.510259788483381271e-02,-1.043386571109294891e-02,4.802497569471597672e-03,-8.953859657049179077e-02,3.277957811951637268e-02,5.718968436121940613e-02,-8.855184167623519897e-02,-1.051661092787981033e-03,7.706963270902633667e-02,-6.775083392858505249e-02,-2.242608182132244110e-02,-5.773659795522689819e-03,-1.796524971723556519e-02,-4.388738051056861877e-02,7.507067918777465820e-02,4.493461176753044128e-02,8.163703233003616333e-02,-3.320076689124107361e-02,-6.913763470947742462e-03,-7.993290573358535767e-02,-3.309898823499679565e-02,-1.591335632838308811e-03,-9.410753101110458374e-02,-1.598976925015449524e-02,2.958189137279987335e-02,1.344883255660533905e-02,-8.373861014842987061e-02,-2.088019158691167831e-03,6.654927134513854980e-02,1.302904821932315826e-02,4.119292832911014557e-03,-4.689334332942962646e-02,-7.671985030174255371e-02,1.005487665534019470e-01,6.774856150150299072e-02,-5.302126705646514893e-02,3.178823366761207581e-02,3.016013652086257935e-02,-6.992204487323760986e-02,-6.493091583251953125e-02,3.704504668712615967e-02,4.109509661793708801e-02,-6.068538129329681396e-02,-7.375147938728332520e-02,-5.381156876683235168e-02,-4.912414401769638062e-02,-7.817677408456802368e-02,7.531451433897018433e-02,1.420970167964696884e-02,3.372697532176971436e-02,1.499266922473907471e-02,-5.098683014512062073e-02,4.385797679424285889e-02,1.229859702289104462e-02,-8.475092798471450806e-02,-3.819411247968673706e-02,-2.673338912427425385e-02,-3.942764550447463989e-02,-3.239631280303001404e-02,5.724462494254112244e-02,8.565565198659896851e-02,7.618380337953567505e-02,7.693970203399658203e-02,-6.912186741828918457e-02,6.727340072393417358e-02,3.890459612011909485e-02,-3.240642696619033813e-02,6.853090133517980576e-03,4.375466331839561462e-02,1.449364889413118362e-02,4.570375010371208191e-02,-2.184752933681011200e-02,-3.913982585072517395e-02,-3.695529187098145485e-03,-5.454737320542335510e-02,7.178096566349267960e-03,-8.907278627157211304e-02,4.089537262916564941e-02,7.796742767095565796e-02,4.575754329562187195e-02,7.304541021585464478e-02,-5.909990146756172180e-02,9.711161255836486816e-02,4.417741671204566956e-03,8.588289842009544373e-03,9.272672981023788452e-02,-1.890564151108264923e-02,-7.523963693529367447e-03,-2.038268744945526123e-02,-7.057683914899826050e-02,-3.582101315259933472e-02,1.584891602396965027e-02,-8.307022601366043091e-02,9.471362084150314331e-02,3.391700983047485352e-02,7.201240077847614884e-05,3.964735567569732666e-02,-8.812031894922256470e-02,-3.968664631247520447e-02,8.112725615501403809e-02,7.542888633906841278e-03,3.782226145267486572e-02,2.657276391983032227e-02,4.731510579586029053e-02,9.363119304180145264e-02,-8.863889425992965698e-02,2.613869309425354004e-02,-8.842429518699645996e-02,4.456230252981185913e-02,1.508563663810491562e-02,-4.392354190349578857e-02,7.843931019306182861e-02,-7.462922483682632446e-02,1.869640126824378967e-02,4.186642169952392578e-02,-3.015997260808944702e-02,1.579161547124385834e-02,-8.017742633819580078e-02,8.174998313188552856e-02,2.895951503887772560e-03,-6.038629636168479919e-02,-5.665308609604835510e-02,1.347058732062578201e-02,6.462151557207107544e-02,8.048749715089797974e-02,2.109633944928646088e-02,8.071906119585037231e-02,3.172554448246955872e-02,-1.583293825387954712e-02,9.397571906447410583e-03,-4.727687314152717590e-02,5.255146417766809464e-03,6.049609556794166565e-02,-9.676562249660491943e-02,7.779748737812042236e-02,8.226300030946731567e-02,-3.210757672786712646e-02,6.743496656417846680e-02,1.262379251420497894e-02,9.346596896648406982e-02,6.459331605583429337e-03,-3.718532994389533997e-02,-6.016964465379714966e-02,-7.030598074197769165e-02,-1.111158519051969051e-03,6.477614492177963257e-02,-1.674156077206134796e-02,-5.611820518970489502e-02,5.198400840163230896e-02,4.765388742089271545e-02,-6.209501251578330994e-02,-7.370044291019439697e-02,2.219175733625888824e-02,2.082421630620956421e-02,-4.842487629503011703e-03,-5.256563425064086914e-02,1.676010340452194214e-02,7.138194888830184937e-02,-9.466625005006790161e-02,-3.455181792378425598e-02,6.994962692260742188e-02,5.745536461472511292e-02,7.656247168779373169e-02,-9.217889979481697083e-03,-5.995919555425643921e-02,-1.002653092145919800e-01,-2.926461212337017059e-02,-7.311755418777465820e-02,6.016801670193672180e-02,5.771377682685852051e-02,-9.542980790138244629e-02,-6.339117884635925293e-02,-2.131505869328975677e-02,-5.958670377731323242e-02,-6.610379368066787720e-02,-9.585221111774444580e-02,5.387495458126068115e-02,-6.969321519136428833e-02,4.368472099304199219e-02,-4.802938550710678101e-03,6.846334040164947510e-02,-8.222035318613052368e-02,-6.185345351696014404e-02,-1.911471830680966377e-03,-2.269533462822437286e-02,-3.164888918399810791e-02,-6.226851791143417358e-02,1.369593478739261627e-02,4.887460730969905853e-03,-6.659999955445528030e-03,4.231078922748565674e-02,-4.032671451568603516e-02,-9.081538766622543335e-02,-7.921189069747924805e-02,-5.252896249294281006e-02,-3.775760158896446228e-02,-7.670273631811141968e-02,1.765580475330352783e-02,-4.616030305624008179e-02,-6.694557517766952515e-02,7.679096609354019165e-02,7.094134390354156494e-02,2.306502684950828552e-02,-1.870691217482089996e-02,5.864570662379264832e-02,-6.460250914096832275e-02,7.920941337943077087e-03,6.263178773224353790e-03,2.479790709912776947e-03,7.626689970493316650e-02,-2.326789125800132751e-02,-4.662941396236419678e-02,-9.588996320962905884e-02,-7.785406708717346191e-02,6.550984084606170654e-02,-5.700748786330223083e-02,3.514087200164794922e-02,4.112879931926727295e-02,-6.542325764894485474e-02,-7.777291536331176758e-02,-1.474672369658946991e-02,-9.259632229804992676e-02,-5.246881395578384399e-02,1.502771303057670593e-02,-4.525403305888175964e-02,-5.334844067692756653e-02,-8.282461762428283691e-02,6.677608937025070190e-02,-2.084772847592830658e-02,-3.083833120763301849e-02,9.903024137020111084e-02,6.459419429302215576e-02,-7.488767802715301514e-02,-8.147367089986801147e-02,3.092936426401138306e-02,-8.916629850864410400e-02,-5.962428078055381775e-02,1.503311097621917725e-02,7.220370462164282799e-04,4.050808399915695190e-02
5.229324102401733398e-02,3.778424113988876343e-02,8.851231634616851807e-02,-8.877940475940704346e-02,-7.197937369346618652e-02,-7.431865483522415161e-02,3.495433926582336426e-02,4.523505270481109619e-02,6.475718319416046143e-02,-3.403825685381889343e-02,-5.452443286776542664e-02,-8.066369593143463135e-02,2.882998436689376831e-03,7.035030424594879150e-02,-6.806101649999618530e-02,5.373440682888031006e-02,3.728199750185012817e-02,-6.519275158643722534e-02,-4.442505538463592529e-02,4.575556889176368713e-02,-3.333439677953720093e-02,-1.111822575330734253e-02,-3.443037159740924835e-03,7.631191611289978027e-02,1.783939078450202942e-02,8.430021256208419800e-02,9.239843487739562988e-02,3.819904476404190063e-02,2.213659323751926422e-02,9.899705648422241211e-02,-9.057257324457168579e-02,4.327489063143730164e-03,-5.473075900226831436e-03,-7.026071846485137939e-02,-4.592751339077949524e-02,2.793034166097640991e-02,-2.581634372472763062e-02,-7.041922211647033691e-02,-5.278325453400611877e-02,-1.008590776473283768e-02,-5.129102617502212524e-02,-8.346187323331832886e-02,-6.795012205839157104e-02,1.602591015398502350e-02,-2.261204645037651062e-03,2.499252930283546448e-02,-7.397460192441940308e-02,5.480886995792388916e-02,3.762969374656677246e-02,-2.030753158032894135e-02,-5.153072252869606018e-02,-7.974529266357421875e-02,7.351342588663101196e-02,9.601646661758422852e-02,7.594908028841018677e-02,6.034249439835548401e-02,1.373589877039194107e-02,-4.685103893280029297e-02,-1.686603948473930359e-02,1.938303373754024506e-02,-7.321830093860626221e-02,5.509068258106708527e-03,8.766103535890579224e-02,-2.249306626617908478e-02,-5.424830690026283264e-02,1.915388857014477253e-03,8.220430463552474976e-02,-1.537144184112548828e-03,-3.208764642477035522e-02,-2.243605256080627441e-02,-5.691644176840782166e-02,-5.623392760753631592e-02,-8.541588485240936279e-02,4.855726286768913269e-02,-4.675950855016708374e-02,8.045768737792968750e-02,-7.803187519311904907e-02,-3.679352998733520508e-02,-7.647535204887390137e-02,-6.047753989696502686e-02,-6.143893301486968994e-02,4.281906783580780029e-02,-3.766223788261413574e-03,2.336134202778339386e-02,-5.953358858823776245e-02,-2.562111616134643555e-02,2.600258961319923401e-02,-5.714514106512069702e-02,-4.940340667963027954e-02,-6.964434683322906494e-02,6.774073094129562378e-02,-7.375225890427827835e-03,6.737410277128219604e-02,-4.729527607560157776e-02,3.154040127992630005e-02,2.855810150504112244e-02,3.563975170254707336e-02,-6.366851273924112320e-03,-2.344343066215515137e-02,9.956603497266769409e-02,3.801454231142997742e-02,-9.012529626488685608e-03,9.261808544397354126e-02,6.745856255292892456e-02,3.342641517519950867e-02,4.696722701191902161e-02,-2.681556344032287598e-02,-6.406336277723312378e-02,-3.032997995615005493e-02,8.505528420209884644e-02,6.790229817852377892e-04,6.618028134107589722e-02,-5.294353514909744263e-02,-6.042186170816421509e-02,2.385989390313625336e-02,7.709445059299468994e-02,-4.734192043542861938e-02,-5.804704502224922180e-02,6.617485731840133667e-02,7.291625440120697021e-02,6.783469021320343018e-02,2.371534146368503571e-02,2.568666636943817139e-02,-4.970727488398551941e-02,8.813833817839622498e-03,2.029702067375183105e-02,-1.529277022927999496e-02,-9.427335858345031738e-02,8.735670708119869232e-03,-4.126049205660820007e-02,8.400881290435791016e-02,-8.738977462053298950e-02,3.167129680514335632e-02,7.872924208641052246e-02,1.842536777257919312e-02,7.647758722305297852e-02,2.468527108430862427e-02,4.893018305301666260e-02,-8.236023783683776855e-02,5.585261806845664978e-02,-1.184729952365159988e-02,4.509563371539115906e-02,-4.456873238086700439e-02,7.950505614280700684e-02,-7.679101079702377319e-02,3.151218593120574951e-02,2.794986218214035034e-02,3.336834162473678589e-02,-7.146463543176651001e-02,5.963683873414993286e-02,-2.838055975735187531e-02,-1.880858466029167175e-02,4.043185710906982422e-02,-8.182665333151817322e-04,1.635033823549747467e-02,-3.493781015276908875e-02,-7.856271415948867798e-02,7.139108330011367798e-02,-8.274957537651062012e-02,6.958345323801040649e-02,-4.792672407347708941e-04,-5.761148035526275635e-02,-2.490614168345928192e-02,9.574903547763824463e-02,-7.485583424568176270e-02,-6.137503683567047119e-02,-3.296625986695289612e-02,-8.294937759637832642e-02,4.099500551819801331e-02,8.450783044099807739e-02,3.632819652557373047e-02,6.239440664649009705e-02,2.906918711960315704e-02,-8.333434909582138062e-02,2.211729250848293304e-02,-1.002514213323593140e-01,6.026965752243995667e-02,2.043804526329040527e-02,8.750147372484207153e-02,1.232864707708358765e-02,-6.015256419777870178e-02,1.211669016629457474e-02,-3.147686272859573364e-02,-8.252967149019241333e-02,4.186410084366798401e-02,1.613081805408000946e-02,-2.640123246237635612e-03,-2.918791957199573517e-03,9.610242396593093872e-02,-8.489536494016647339e-02,-5.393091589212417603e-03,7.448659092187881470e-02,-2.206708304584026337e-02,4.228017479181289673e-02,-2.091871108859777451e-03,5.555210635066032410e-02,8.828851394355297089e-03,1.475047506392002106e-02,-3.180143982172012329e-02,-9.085096418857574463e-03,5.182896926999092102e-02,6.169072166085243225e-02,-2.447898732498288155e-03,-8.282291889190673828e-02,2.999542513862252235e-03,-8.468635380268096924e-02,-6.616175174713134766e-02,8.688330650329589844e-02,7.698740810155868530e-02,5.724337417632341385e-03,5.280087515711784363e-02,-1.593002380104735494e-04,-6.060860678553581238e-02,2.082407474517822266e-03,1.168463751673698425e-02,-1.512411795556545258e-02,2.411489188671112061e-02,-6.487150490283966064e-02,-1.804608292877674103e-02,-9.409890323877334595e-02,-5.486154556274414062e-02,3.197484835982322693e-02,2.524301409721374512e-02,-7.370962947607040405e-02,6.678903847932815552e-02,-4.333003610372543335e-02,4.535724595189094543e-02,-2.295420318841934204e-02,2.474886178970336914e-02,6.141195818781852722e-02,-2.932436019182205200e-02,8.990122377872467041e-02,-7.421315647661685944e-03,-5.549984797835350037e-02,3.814277797937393188e-02,7.559955120086669922e-02,-1.363442093133926392e-02,8.139441907405853271e-02,2.258134260773658752e-02,-4.033632576465606689e-02,-6.288105249404907227e-02,-3.286230610683560371e-03,-3.301451727747917175e-02,1.024437323212623596e-02,-1.996701024472713470e-02,-6.243326142430305481e-02,8.811800926923751831e-02,6.000977382063865662e-02,8.356355875730514526e-02,-3.329402208328247070e-02,3.616061294451355934e-03,-1.723930425941944122e-02,-8.648398518562316895e-02,1.834464073181152344e-02,-4.603114351630210876e-02,-7.156860549002885818e-03
7.882960140705108643e-02,-4.884460475295782089e-03,8.955509960651397705e-02,2.100785076618194580e-02,2.390267327427864075e-02,4.348896443843841553e-02,-5.508915986865758896e-03,5.592355504631996155e-02,-3.948454558849334717e-02,3.466472029685974121e-02,-1.777883805334568024e-02,4.680276662111282349e-02,-6.178331375122070312e-02,2.499637380242347717e-02,3.013547323644161224e-02,-8.487454801797866821e-02,-2.304791286587715149e-02,-3.850605338811874390e-02,-6.845162063837051392e-02,-7.413294166326522827e-02,-3.950585424900054932e-02,-7.998126000165939331e-02,5.845933035016059875e-02,3.178750630468130112e-03,-4.568256437778472900e-02,5.204652622342109680e-02,-8.616430684924125671e-03,-6.772457063198089600e-02,8.205258846282958984e-02,8.806534111499786377e-02,-2.735454030334949493e-02,3.825666755437850952e-02,-8.512223511934280396e-02,2.049076557159423828e-02,-8.585003018379211426e-02,6.667345762252807617e-02,-1.130110025405883789e-02,-1.804231107234954834e-02,3.089939430356025696e-02,-2.571459114551544189e-02,1.615049876272678375e-02,-6.461186707019805908e-02,6.549169868230819702e-02,4.417619481682777405e-02,-3.519370779395103455e-02,1.965933293104171753e-02,-1.780634745955467224e-02,7.151044905185699463e-02,8.389881998300552368e-02,-4.242397844791412354e-02,-4.615325853228569031e-02,8.540759980678558350e-02,1.765395328402519226e-02,-5.543475970625877380e-02,4.924935474991798401e-02,8.779992908239364624e-02,-7.110120356082916260e-02,-8.752151578664779663e-02,7.782832533121109009e-02,6.902973353862762451e-02,-8.080953359603881836e-02,-4.656997043639421463e-04,1.950381323695182800e-02,-9.882616996765136719e-02,-8.296673744916915894e-02,2.588540129363536835e-02,-5.670592188835144043e-02,1.270174980163574219e-03,-4.679411649703979492e-02,2.713012695312500000e-02,4.998689889907836914e-02,-5.688840150833129883e-02,-2.645980380475521088e-02,5.206654220819473267e-02,9.681799262762069702e-02,-8.441757410764694214e-02,9.446612000465393066e-02,9.206171333789825439e-02,-4.026756063103675842e-02,-5.540967360138893127e-02,-9.999869018793106079e-02,-7.396213710308074951e-02,9.271468222141265869e-02,6.225236877799034119e-02,2.641124278306961060e-02,2.486111596226692200e-02,-4.817282408475875854e-02,-1.670124195516109467e-02,-4.899321869015693665e-02,-7.721173018217086792e-02,9.682396799325942993e-02,-2.577720768749713898e-02,-6.701414287090301514e-02,3.566166758537292480e-02,5.571096017956733704e-02,3.814685344696044922e-02,-8.366814255714416504e-02,7.095498591661453247e-02,2.103592455387115479e-02,-1.254343613982200623e-02,5.053310841321945190e-02,5.914987251162528992e-02,-4.943406954407691956e-02,7.635036110877990723e-02,-2.726831659674644470e-02,6.903019547462463379e-02,-4.497465491294860840e-02,8.084169588983058929e-03,-3.674349188804626465e-02,-9.419208508916199207e-04,6.154921650886535645e-02,-7.454999536275863647e-02,-5.664457008242607117e-02,8.046850562095642090e-02,7.708907872438430786e-02,-4.111181199550628662e-02,6.148903816938400269e-02,-1.593758352100849152e-02,2.077612653374671936e-02,-7.917390018701553345e-02,1.913682743906974792e-02,4.515903443098068237e-02,6.290574371814727783e-02,4.197268560528755188e-02,2.764704264700412750e-02,2.237070724368095398e-02,-8.164329081773757935e-02,8.787074685096740723e-02,2.276747673749923706e-02,8.761686831712722778e-02,-2.351913787424564362e-02,-8.129467815160751343e-02,8.905504643917083740e-02,9.918467141687870026e-03,7.344833761453628540e-02,8.228251338005065918e-02,5.213174223899841309e-02,8.573459088802337646e-02,-1.364249829202890396e-02,7.552273571491241455e-02,1.515766489319503307e-03,-1.002139821648597717e-01,7.208926230669021606e-02,7.100073993206024170e-02,-7.798001915216445923e-02,-1.430645352229475975e-03,9.322911500930786133e-02,-8.115163445472717285e-02,1.534647960215806961e-02,-4.463378340005874634e-03,-2.168045379221439362e-02,-7.928603887557983398e-02,-5.337857455015182495e-02,-3.882668213918805122e-03,-8.019419014453887939e-02,-9.389467537403106689e-02,2.648663707077503204e-02,-8.103802055120468140e-02,-9.300238639116287231e-02,2.698092535138130188e-02,4.149717092514038086e-02,5.658699572086334229e-02,-6.931601464748382568e-02,-7.786167412996292114e-02,3.878039121627807617e-02,7.209695409983396530e-03,5.296581983566284180e-02,4.503507167100906372e-02,9.878568351268768311e-02,-5.098495259881019592e-02,8.866360038518905640e-02,-5.241968482732772827e-02,-8.159750699996948242e-02,-8.624179661273956299e-02,-6.159146875143051147e-02,-1.210248563438653946e-02,-1.841618865728378296e-02,8.336510509252548218e-02,-9.809143841266632080e-02,1.719836611300706863e-03,-2.878501452505588531e-02,3.614881262183189392e-02,-5.219972506165504456e-02,7.074681669473648071e-02,1.206304877996444702e-02,6.886471062898635864e-02,-7.526617497205734253e-02,4.295937344431877136e-02,-4.628049209713935852e-02,-2.898561395704746246e-02,8.457968384027481079e-02,2.579815499484539032e-02,-2.154290117323398590e-02,-3.930185735225677490e-02,1.386453770101070404e-02,-3.842692589387297630e-03,-2.618178911507129669e-02,-2.907517366111278534e-02,-5.697665736079216003e-02,4.291862249374389648e-02,-4.604778811335563660e-02,-2.438874170184135437e-02,2.817385271191596985e-02,2.016839198768138885e-02,-2.103962376713752747e-02,4.915731400251388550e-02,-9.049755334854125977e-02,1.891914941370487213e-02,-4.930477961897850037e-02,-3.775560110807418823e-02,-5.884028971195220947e-02,6.387918442487716675e-02,-8.361453562974929810e-02,-4.041494056582450867e-02,-6.971904635429382324e-02,-6.276531517505645752e-02,-6.263865530490875244e-02,5.359820649027824402e-02,-3.354626893997192383e-02,-5.472242832183837891e-03,3.889516368508338928e-02,-5.934438109397888184e-02,-6.762118637561798096e-02,-1.086697913706302643e-02,4.695249255746603012e-03,8.233837783336639404e-02,1.119844336062669754e-02,2.865109592676162720e-02,-1.003810577094554901e-02,-3.394905105233192444e-02,-7.481214404106140137e-02,4.757351242005825043e-03,7.248988002538681030e-02,8.074861764907836914e-02,-4.521139338612556458e-02,-5.943038314580917358e-02,4.674848914146423340e-02,2.929542586207389832e-02,9.858445078134536743e-02,7.576093077659606934e-02,7.321824133396148682e-02,-4.584725946187973022e-02,7.250838726758956909e-02,9.850537031888961792e-02,-4.210424050688743591e-02,-3.726147115230560303e-02,5.136219784617424011e-02,8.202540688216686249e-03,-1.795838959515094757e-02,-3.454830870032310486e-02,-9.401398897171020508e-02,-2.996491640806198120e-02,-5.638631805777549744e-02,1.558345556259155273e-02,-6.495945900678634644e-02,2.188503183424472809e-02
4.665529355406761169e-02,1.387929730117321014e-02,-3.664115816354751587e-02,6.571751087903976440e-02,-4.611680656671524048e-02,-9.521940350532531738e-02,5.171351507306098938e-02,-3.254079818725585938e-02,-6.801063660532236099e-03,-9.804766625165939331e-02,-3.849120810627937317e-02,2.177058905363082886e-02,8.669348806142807007e-02,7.056565489619970322e-03,-3.631534799933433533e-02,6.354574114084243774e-02,-7.910133153200149536e-02,2.920959331095218658e-02,-9.587802737951278687e-02,-7.617167383432388306e-02,4.794615879654884338e-02,3.534026071429252625e-02,6.574002653360366821e-02,-2.812977693974971771e-02,-3.595428541302680969e-02,-2.451194822788238525e-02,1.005096063017845154e-01,-6.090503185987472534e-02,8.462834358215332031e-02,-3.989859297871589661e-02,3.331179916858673096e-02,3.488604351878166199e-02,5.523684434592723846e-03,3.730995580554008484e-02,-6.195820868015289307e-02,4.374068602919578552e-02,3.281354159116744995e-02,3.501980379223823547e-02,1.034686062484979630e-02,-5.794611200690269470e-02,7.039007265120744705e-03,-6.744427978992462158e-02,4.641041904687881470e-02,3.399831056594848633e-02,2.556671854108572006e-03,-2.548406831920146942e-02,7.969119399785995483e-02,-5.051236599683761597e-02,-8.440000563859939575e-02,-2.598237805068492889e-02,5.771163478493690491e-02,-3.495783545076847076e-03,6.790476292371749878e-02,6.437461078166961670e-02,6.477303337305784225e-03,-2.409704029560089111e-02,8.813983201980590820e-02,7.933308184146881104e-02,-1.157790794968605042e-02,4.127002507448196411e-02,3.054509498178958893e-02,4.660364612936973572e-02,-4.798696190118789673e-02,5.650564655661582947e-02,7.938849739730358124e-03,3.012407012283802032e-02,8.585403114557266235e-02,5.837728083133697510e-02,1.682461798191070557e-02,1.389484945684671402e-02,8.460344374179840088e-02,-5.752942338585853577e-02,3.065974079072475433e-02,4.078100249171257019e-02,-7.671501021832227707e-03,-3.902215510606765747e-02,-5.824434570968151093e-03,5.953523889183998108e-02,6.039853766560554504e-02,-8.143872022628784180e-02,7.271394878625869751e-02,7.518508285284042358e-02,9.721271693706512451e-03,5.102225020527839661e-02,4.724268242716789246e-02,-3.751200065016746521e-02,8.148995786905288696e-02,2.648698724806308746e-02,-3.542881831526756287e-02,-8.427661657333374023e-02,7.912359386682510376e-02,-2.935118228197097778e-02,-4.226596094667911530e-03,-2.708357945084571838e-02,-4.373969882726669312e-02,7.811377197504043579e-02,6.515468657016754150e-02,4.418380185961723328e-02,-1.540696807205677032e-02,-3.895346075296401978e-02,4.365625604987144470e-02,-4.420734196901321411e-02,-7.971662282943725586e-02,-3.175692632794380188e-02,-3.125566244125366211e-02,-1.950886659324169159e-02,-1.280869939364492893e-03,9.564201533794403076e-02,9.101414680480957031e-02,-3.405836969614028931e-02,-2.139563113451004028e-02,3.714094310998916626e-02,4.912988841533660889e-02,1.788063347339630127e-02,-1.096699386835098267e-02,4.205702617764472961e-02,-4.589891061186790466e-02,-8.520186692476272583e-02,2.351522073149681091e-02,7.679262757301330566e-02,-7.488948851823806763e-02,-9.933876805007457733e-03,4.586942493915557861e-03,-6.770565360784530640e-02,8.761738985776901245e-02,6.435430794954299927e-02,-2.705637738108634949e-02,-6.318461894989013672e-02,-8.874623477458953857e-02,5.987336114048957825e-02,8.904593065381050110e-03,7.235439121723175049e-02,7.398694753646850586e-02,-5.497518554329872131e-02,3.499338030815124512e-02,5.416777729988098145e-02,8.658203296363353729e-03,-8.542090654373168945e-03,8.415564894676208496e-03,5.912642925977706909e-02,9.449815005064010620e-02,6.921055912971496582e-02,-8.613475412130355835e-02,4.385504126548767090e-02,5.020046606659889221e-02,1.411259081214666367e-02,-7.515367865562438965e-02,1.486508455127477646e-02,4.956379160284996033e-02,-7.926853001117706299e-02,6.918671727180480957e-02,2.778927423059940338e-02,1.501743495464324951e-02,5.876228213310241699e-02,4.407941550016403198e-02,-3.531712666153907776e-02,-4.131105169653892517e-02,-8.999935537576675415e-02,-7.176461070775985718e-02,1.098692510277032852e-02,-7.165976613759994507e-02,-5.481534451246261597e-02,-4.478851333260536194e-02,-7.887838780879974365e-02,-4.966124519705772400e-02,-3.821771591901779175e-02,4.839161038398742676e-02,2.082420699298381805e-02,-2.409247867763042450e-02,6.455864757299423218e-02,2.077587693929672241e-02,-2.258521690964698792e-02,6.460673362016677856e-02,4.212346300482749939e-02,-6.997212767601013184e-02,-9.883803315460681915e-03,8.211424946784973145e-02,9.033057093620300293e-02,6.735412031412124634e-02,-8.239053934812545776e-02,-6.830437481403350830e-02,4.070242866873741150e-02,-8.272824436426162720e-02,-2.416470646858215332e-02,6.841879338026046753e-02,-1.194431819021701813e-02,6.513760238885879517e-02,-6.394300609827041626e-02,3.120681084692478180e-02,-2.884615212678909302e-02,8.017391711473464966e-02,6.730858236551284790e-02,1.288537867367267609e-02,-6.701447814702987671e-02,-3.523303568363189697e-02,2.244485169649124146e-02,-3.508758917450904846e-02,8.411488682031631470e-02,5.112713947892189026e-02,5.925482604652643204e-03,8.847217075526714325e-03,-1.653092540800571442e-02,6.420355290174484253e-02,8.352063596248626709e-02,7.249087095260620117e-02,9.966329485177993774e-02,5.662649869918823242e-02,-2.181981876492500305e-02,-2.243480272591114044e-02,-3.845934942364692688e-02,5.682621896266937256e-02,-3.006476908922195435e-02,9.016456454992294312e-02,-4.080440104007720947e-02,7.533803582191467285e-02,3.704722598195075989e-02,-7.492676377296447754e-02,8.776511996984481812e-02,-2.409692667424678802e-02,-5.601704493165016174e-02,5.762334913015365601e-02,1.451185159385204315e-02,-8.999539911746978760e-02,1.456741895526647568e-02,-9.921322576701641083e-03,7.018898427486419678e-02,3.002054616808891296e-02,6.995216012001037598e-02,-1.850844360888004303e-02,-3.411364555358886719e-02,-4.587132018059492111e-03,7.245197892189025879e-02,-7.409566640853881836e-02,-3.554011136293411255e-02,8.030080795288085938e-02,1.384640205651521683e-02,1.794975437223911285e-02,-7.408420206047594547e-04,5.023337528109550476e-02,-1.890973001718521118e-02,-2.462068945169448853e-02,-6.590309739112854004e-02,2.702012844383716583e-02,1.905640214681625366e-02,6.442600395530462265e-03,-8.267204463481903076e-02,-2.611571550369262695e-02,3.141739591956138611e-02,2.181101404130458832e-02,-4.683768749237060547e-02,-6.555950641632080078e-02,-5.824707075953483582e-02,-6.452840566635131836e-02,-1.899471879005432129e-02,8.608117699623107910e-02,5.978766828775405884e-02
2.610046789050102234e-02,-5.107119306921958923e-02,1.972611621022224426e-02,-7.265660166740417480e-02,-6.156992539763450623e-02,5.897959694266319275e-02,7.097185403108596802e-02,4.090312123298645020e-02,-1.469424273818731308e-02,7.148981094360351562e-02,6.614314019680023193e-02,-3.913826867938041687e-02,-4.960842430591583252e-02,-7.258616387844085693e-02,2.344852499663829803e-02,-3.470129892230033875e-02,3.756891936063766479e-02,8.579665422439575195e-02,1.220611669123172760e-02,4.323333501815795898e-02,-3.853547573089599609e-02,3.812450915575027466e-02,-5.310098454356193542e-02,4.389319568872451782e-02,8.814581483602523804e-02,-6.164557859301567078e-02,-7.864206098020076752e-03,8.640155941247940063e-02,3.002430684864521027e-02,5.217022821307182312e-02,8.451396971940994263e-02,-3.828136622905731201e-02,-3.200552985072135925e-02,-5.815432965755462646e-02,7.735673338174819946e-02,-3.263716772198677063e-02,5.557451769709587097e-02,-4.507426172494888306e-02,4.288937151432037354e-02,2.548749372363090515e-02,5.994382128119468689e-02,-8.723291568458080292e-03,-2.349289879202842712e-02,-3.514181450009346008e-02,-3.965204209089279175e-02,1.093076728284358978e-02,-2.255239523947238922e-02,3.082335740327835083e-02,6.642729789018630981e-02,-5.405883118510246277e-02,-7.932777702808380127e-02,2.701932005584239960e-02,6.936139613389968872e-02,-3.503798507153987885e-03,8.942718058824539185e-02,-5.919670313596725464e-02,-6.238850951194763184e-02,5.393243953585624695e-02,8.196601644158363342e-03,-6.317908316850662231e-02,5.439546704292297363e-02,9.923081233864650130e-05,8.934866636991500854e-02,-2.070210315287113190e-02,-5.279374495148658752e-02,-3.974317386746406555e-02,5.167225748300552368e-02,7.699243724346160889e-03,8.397072553634643555e-03,9.784611873328685760e-03,-7.592634856700897217e-02,3.207913413643836975e-02,-3.125049546360969543e-02,-9.631492942571640015e-02,1.964739756658673286e-03,-4.402359772939234972e-04,3.214010596275329590e-02,8.989449590444564819e-02,8.979666978120803833e-02,-1.140030194073915482e-02,6.820783764123916626e-02,-2.141894027590751648e-02,1.378168910741806030e-02,-9.555382654070854187e-03,6.328278779983520508e-02,8.758775144815444946e-02,-4.423885140568017960e-03,-7.053493708372116089e-02,3.884305432438850403e-02,8.411638438701629639e-02,-3.602454904466867447e-03,-5.997678264975547791e-02,4.160000756382942200e-02,7.459095120429992676e-02,-2.961896918714046478e-02,-5.358616635203361511e-02,7.209411263465881348e-02,6.110382825136184692e-02,-8.324096351861953735e-02,2.765812166035175323e-02,-7.396242022514343262e-02,-8.319813758134841919e-02,-7.057278603315353394e-02,8.844112604856491089e-02,2.021197788417339325e-02,5.603254213929176331e-02,8.750762045383453369e-02,-1.288603153079748154e-02,2.449486590921878815e-02,8.724429458379745483e-02,2.053266577422618866e-02,-5.643828772008419037e-03,9.312036633491516113e-02,5.539494752883911133e-02,5.471400544047355652e-02,-3.568280115723609924e-02,-8.088571578264236450e-02,-6.246513873338699341e-02,8.448649197816848755e-02,6.803676486015319824e-02,-5.169577896595001221e-02,1.727831922471523285e-02,-4.739204421639442444e-02,-3.568548336625099182e-02,2.572179026901721954e-02,2.225474268198013306e-02,1.530249789357185364e-02,-3.742832457646727562e-03,5.914764106273651123e-02,-1.293916348367929459e-02,-2.212072908878326416e-02,3.330683335661888123e-02,3.987723961472511292e-02,-1.672167703509330750e-02,8.477088809013366699e-02,4.023057594895362854e-02,2.158137597143650055e-02,9.150914847850799561e-02,-1.633598841726779938e-02,-8.903565257787704468e-02,-6.821409612894058228e-02,6.305287033319473267e-02,-8.584396541118621826e-02,8.946263790130615234e-02,-3.696778789162635803e-02,-6.391301751136779785e-02,1.178982853889465332e-02,-5.999930948019027710e-02,4.672549292445182800e-02,6.803221255540847778e-02,8.546139299869537354e-02,-4.522607102990150452e-02,4.265327751636505127e-02,-9.413560479879379272e-02,-6.487269699573516846e-02,-8.523196727037429810e-02,-9.148412942886352539e-02,-4.093668609857559204e-02,-1.377823110669851303e-02,6.724124401807785034e-02,-4.363859072327613831e-02,3.928034007549285889e-02,3.728413488715887070e-03,-5.518792569637298584e-02,-3.886853903532028198e-02,6.283586379140615463e-03,-1.230659335851669312e-02,1.170839741826057434e-02,-6.599301937967538834e-03,4.207293968647718430e-03,3.813045099377632141e-02,8.805478364229202271e-02,-1.966433785855770111e-02,-3.305284678936004639e-02,5.844267830252647400e-02,-5.576523765921592712e-02,-5.977970361709594727e-02,-1.064715534448623657e-02,-1.749156415462493896e-02,-8.618164807558059692e-02,7.764089107513427734e-02,-2.722736448049545288e-02,1.166239053418394178e-05,-7.267881184816360474e-02,-3.601919859647750854e-02,7.181926816701889038e-02,-7.345470041036605835e-02,-7.055487483739852905e-02,5.620854347944259644e-02,4.799561202526092529e-02,6.063668057322502136e-02,-9.618048369884490967e-02,-1.800553314387798309e-02,4.639330878853797913e-02,4.585783556103706360e-02,-3.292098268866539001e-02,2.389333769679069519e-02,-9.828095883131027222e-02,2.074171043932437897e-02,-3.792763128876686096e-02,7.196874171495437622e-02,-3.564488515257835388e-02,6.345269829034805298e-02,-5.272063612937927246e-02,-1.682482287287712097e-02,3.698413446545600891e-02,5.252934992313385010e-02,-4.000177979469299316e-02,3.704940527677536011e-02,-8.177185803651809692e-02,3.118715714663267136e-03,-5.999168381094932556e-02,8.769420674070715904e-04,-4.546763002872467041e-02,6.517735868692398071e-02,-5.346255749464035034e-02,6.730929762125015259e-02,-1.430372428148984909e-02,2.287960611283779144e-02,8.393918722867965698e-02,7.924263179302215576e-02,1.759651862084865570e-02,4.579707980155944824e-02,6.969296187162399292e-02,-7.484403252601623535e-02,6.288568675518035889e-02,-5.823693796992301941e-02,-1.123600453138351440e-02,-6.094854325056076050e-02,4.419208690524101257e-02,2.469466812908649445e-02,-7.202155888080596924e-02,-7.976173609495162964e-02,6.118829548358917236e-02,-5.732264369726181030e-02,1.299014128744602203e-02,-9.158470481634140015e-02,-1.924712955951690674e-02,-2.023693360388278961e-02,-1.383759267628192902e-02,-9.185764193534851074e-02,6.118423491716384888e-02,-8.547180145978927612e-02,1.075113192200660706e-02,-2.941160090267658234e-02,-5.941138416528701782e-02,-2.708775922656059265e-03,-3.883217275142669678e-02,-5.584746599197387695e-02,-4.557501524686813354e-02,-2.839882113039493561e-02,5.197521299123764038e-02,3.297683969140052795e-02,-1.533311605453491211e-02,-6.294463574886322021e-02,3.328736871480941772e-02
-3.995427861809730530e-02,-9.938386082649230957e-02,-5.869294330477714539e-02,-6.133964285254478455e-02,5.264222249388694763e-02,4.484064877033233643e-03,7.508808746933937073e-03,-2.037017419934272766e-02,-8.748344331979751587e-02,-2.302180975675582886e-02,-7.883259654045104980e-02,7.148805260658264160e-02,8.741717785596847534e-02,-5.345276743173599243e-02,7.205576449632644653e-02,-3.389772772789001465e-02,7.902098447084426880e-02,-7.294064760208129883e-02,4.452568665146827698e-02,-5.193308740854263306e-02,3.970853611826896667e-02,-3.115250729024410248e-02,-4.429649561643600464e-02,5.934225395321846008e-02,2.314051613211631775e-03,-6.457180529832839966e-02,-3.198384493589401245e-02,4.340177774429321289e-02,1.180139929056167603e-02,2.573162317276000977e-02,1.040050946176052094e-02,-2.980580180883407593e-02,5.331248044967651367e-02,3.659845888614654541e-02,1.498252153396606445e-02,7.501973956823348999e-02,1.638232916593551636e-02,6.257884949445724487e-02,-1.467987149953842163e-02,7.842602580785751343e-02,-3.322676941752433777e-02,8.166834712028503418e-02,-2.246343903243541718e-02,2.205726690590381622e-02,7.141875475645065308e-02,9.020037949085235596e-03,-8.831947296857833862e-02,-7.277254015207290649e-02,-7.930773496627807617e-02,-7.287545502185821533e-02,6.002147495746612549e-02,7.428038120269775391e-02,-7.092662900686264038e-02,-4.398706555366516113e-02,-2.073122188448905945e-02,5.195869877934455872e-02,-3.522228822112083435e-02,-8.267309516668319702e-02,1.725495979189872742e-02,2.647919207811355591e-02,1.332807727158069611e-02,8.108602464199066162e-02,7.573220878839492798e-02,-3.234628960490226746e-02,6.022338056936860085e-04,3.645321354269981384e-02,-1.329648774117231369e-02,5.069267749786376953e-02,7.182624936103820801e-02,6.491210311651229858e-02,-1.330900937318801880e-02,8.756902813911437988e-02,-2.935010008513927460e-02,-4.375675693154335022e-02,9.089004993438720703e-02,-3.967365995049476624e-02,9.966986626386642456e-02,-7.160656899213790894e-02,-1.265934947878122330e-02,-4.826690535992383957e-03,8.525271713733673096e-02,-1.650283858180046082e-02,-1.288574188947677612e-02,4.873022064566612244e-02,-3.861778229475021362e-02,-4.041455686092376709e-02,-1.734094135463237762e-02,-6.716013699769973755e-02,1.867628470063209534e-02,-7.517333328723907471e-02,-3.066063486039638519e-02,2.045800350606441498e-02,1.111931726336479187e-02,-2.504743449389934540e-02,1.306230854243040085e-02,1.939517818391323090e-02,8.457798510789871216e-02,-3.222830221056938171e-02,-5.933866649866104126e-02,8.819988369941711426e-02,-5.486421287059783936e-03,5.014346167445182800e-02,-4.425017908215522766e-02,-5.844127759337425232e-02,-2.087535336613655090e-02,-1.531774061731994152e-03,3.840366750955581665e-02,2.050323598086833954e-02,9.572941809892654419e-02,-4.162219911813735962e-02,-6.551875174045562744e-02,7.526890188455581665e-02,-2.264785021543502808e-02,-1.977402716875076294e-02,-1.730466447770595551e-02,2.467812411487102509e-02,-2.777174301445484161e-02,-5.264762043952941895e-02,6.109205633401870728e-02,-4.539199173450469971e-03,3.525716811418533325e-02,4.600710794329643250e-02,-2.241913229227066040e-02,-5.548361223191022873e-03,-2.031080983579158783e-02,-6.305225938558578491e-02,-6.335114687681198120e-02,7.467554509639739990e-02,5.956187099218368530e-02,6.077516451478004456e-02,1.068783085793256760e-02,-9.406054764986038208e-02,2.511610835790634155e-02,-7.164163142442703247e-02,3.101038374006748199e-02,-6.453318893909454346e-02,-7.258322089910507202e-02,-2.706618607044219971e-02,4.300528392195701599e-02,-1.822816953063011169e-02,4.607687518000602722e-02,-4.025058355182409286e-03,-3.053337521851062775e-02,-1.932055316865444183e-02,-7.598928362131118774e-02,7.612227927893400192e-03,3.613662719726562500e-02,-1.599291898310184479e-02,7.306291162967681885e-02,-6.811396032571792603e-02,-6.688942015171051025e-02,-5.375444516539573669e-02,9.466919302940368652e-02,2.358663082122802734e-02,5.136682093143463135e-02,-4.365752637386322021e-02,-5.960334464907646179e-02,6.839426606893539429e-02,-4.913673177361488342e-02,-4.497163742780685425e-02,1.329953968524932861e-02,-3.969098255038261414e-02,-2.361327409744262695e-03,6.304584443569183350e-02,-1.006617397069931030e-01,2.589762955904006958e-02,-5.334910750389099121e-02,5.892831087112426758e-02,-2.310827746987342834e-02,-5.587550625205039978e-02,-7.645423524081707001e-03,1.512165617896243930e-04,-5.323690129444003105e-04,-8.583941310644149780e-02,8.777246624231338501e-02,7.343776524066925049e-02,7.905539870262145996e-02,5.490419641137123108e-02,9.367598220705986023e-03,3.979644179344177246e-02,-7.146394252777099609e-02,4.305136203765869141e-02,-7.281283289194107056e-02,4.461194574832916260e-02,-6.770398467779159546e-02,6.913297623395919800e-02,-8.024823665618896484e-02,-8.600696176290512085e-02,5.750751495361328125e-02,-9.183056652545928955e-02,2.700864523649215698e-02,3.511778777465224266e-03,-3.562900424003601074e-02,8.459174074232578278e-03,-8.180774748325347900e-02,-6.349994987249374390e-02,-8.097055554389953613e-02,-8.212006092071533203e-02,-3.177180141210556030e-02,5.119319260120391846e-02,3.447769582271575928e-02,-1.659156754612922668e-02,3.224219381809234619e-02,-2.761810459196567535e-02,-5.027419701218605042e-02,-6.299535930156707764e-02,5.946798622608184814e-02,-8.083997666835784912e-02,8.662219345569610596e-02,-7.794434577226638794e-02,-7.269971072673797607e-02,8.619458228349685669e-02,6.438913941383361816e-02,-7.919647544622421265e-02,7.842148095369338989e-02,-5.344974994659423828e-02,-1.715182512998580933e-02,-5.252940114587545395e-03,-9.346788376569747925e-02,-2.978496626019477844e-02,3.465031832456588745e-02,-9.059308096766471863e-03,-7.655928283929824829e-02,8.559545874595642090e-02,9.084434807300567627e-02,2.089404314756393433e-02,-8.579531311988830566e-02,-8.552752435207366943e-03,7.136189937591552734e-02,8.847814798355102539e-02,8.834537863731384277e-02,2.203083969652652740e-02,-6.681955605745315552e-02,-3.252918366342782974e-03,1.118586212396621704e-02,4.943118619848974049e-05,-3.720351308584213257e-02,3.678460791707038879e-02,-6.859061121940612793e-02,4.051279649138450623e-02,-8.220833539962768555e-02,1.732385717332363129e-02,6.624985020607709885e-03,6.164125353097915649e-02,7.061854004859924316e-02,1.772542018443346024e-03,-2.041866630315780640e-02,3.920420631766319275e-02,4.221055191010236740e-03,-2.141447551548480988e-02,5.447285622358322144e-02,7.075972855091094971e-02,-7.797029614448547363e-02,-7.958790659904479980e-02,-3.095514327287673950e-02,-7.534649223089218140e-02
-8.642869442701339722e-02,2.633157186210155487e-02,-9.299362078309059143e-03,2.295892871916294098e-02,1.954556256532669067e-02,-1.251453906297683716e-02,2.723301015794277191e-02,1.578457467257976532e-02,2.673651836812496185e-02,-5.277910456061363220e-02,-6.319527328014373779e-02,-2.953276969492435455e-03,1.416538562625646591e-02,-2.399275836069136858e-04,-1.132182776927947998e-02,4.224018007516860962e-02,7.209800928831100464e-02,-4.569575563073158264e-02,6.655424088239669800e-02,2.559887012466788292e-03,7.705079857259988785e-03,5.088634416460990906e-02,-2.865315414965152740e-02,1.922700181603431702e-02,5.964724719524383545e-02,2.099595218896865845e-02,-4.922670125961303711e-02,-2.658800967037677765e-02,2.891258336603641510e-02,-5.619408190250396729e-02,1.665261760354042053e-02,5.489477142691612244e-02,-6.333798915147781372e-02,7.686528842896223068e-03,7.423929125070571899e-02,1.962905284017324448e-03,3.280656039714813232e-02,-2.847952209413051605e-02,-8.451304584741592407e-02,7.060457573970779777e-05,-3.817955031991004944e-02,6.256526708602905273e-02,3.743972862139344215e-03,-2.483199641574174166e-04,1.455796998925507069e-03,7.157580554485321045e-02,1.204437855631113052e-02,-4.441749677062034607e-02,3.659510985016822815e-02,-8.730021864175796509e-02,-7.222580257803201675e-03,-6.604122370481491089e-02,-8.895135484635829926e-03,-2.052551507949829102e-02,8.439249545335769653e-02,-3.463670378550887108e-03,-9.119297377765178680e-03,-4.493793845176696777e-02,6.358200311660766602e-02,-9.686267003417015076e-03,1.867130585014820099e-02,6.044938787817955017e-02,-6.982134189456701279e-03,8.586864918470382690e-02,4.051944240927696228e-02,9.669306129217147827e-02,3.586643189191818237e-02,6.338515877723693848e-02,6.575907766819000244e-02,-4.941799491643905640e-02,-5.440437793731689453e-02,-4.970444738864898682e-02,-6.106892228126525879e-02,-4.476368799805641174e-02,2.707043662667274475e-02,7.846416532993316650e-02,-5.127896368503570557e-02,-2.872241288423538208e-02,5.326746404170989990e-02,-7.045014202594757080e-02,-6.212841346859931946e-02,2.621307224035263062e-02,8.069385588169097900e-02,7.783998548984527588e-02,3.070243634283542633e-02,-1.317221578210592270e-02,-1.097168680280447006e-02,2.383236028254032135e-02,-3.190448880195617676e-02,-7.412710785865783691e-02,-7.140051573514938354e-02,-3.040417656302452087e-02,-1.521574053913354874e-02,4.393724724650382996e-03,-4.138967022299766541e-02,-7.268836721777915955e-03,-4.295772686600685120e-02,-4.763113707304000854e-02,-8.158444426953792572e-03,-3.907410055398941040e-02,-3.192496299743652344e-02,-8.065338432788848877e-02,-4.936543479561805725e-02,9.939473820850253105e-04,2.835377864539623260e-02,6.155032664537429810e-02,-4.975856840610504150e-02,-5.236726626753807068e-02,-1.449776464141905308e-03,1.583823375403881073e-02,5.459630861878395081e-02,4.591835290193557739e-02,-5.473886057734489441e-02,5.006574094295501709e-03,1.754163205623626709e-02,-8.244875818490982056e-02,3.867780044674873352e-02,-1.393369399011135101e-02,-7.728255540132522583e-02,2.222777716815471649e-02,2.070023305714130402e-02,7.704705931246280670e-04,-4.331969469785690308e-02,-2.732921577990055084e-02,4.817595332860946655e-02,1.285602059215307236e-02,-6.002647429704666138e-02,-5.777222663164138794e-02,6.157214567065238953e-02,2.344334498047828674e-03,6.669903546571731567e-02,-4.977387562394142151e-02,8.292828500270843506e-02,5.803755298256874084e-02,8.585923351347446442e-03,5.906389653682708740e-02,-2.243343740701675415e-02,-5.956862121820449829e-02,-7.563389837741851807e-02,-1.308827474713325500e-02,-1.205151993781328201e-02,-5.275366455316543579e-02,-6.277739256620407104e-02,-6.965843588113784790e-02,4.855963960289955139e-02,-1.010268460959196091e-02,-4.703975468873977661e-02,-8.680123835802078247e-02,3.138751909136772156e-02,-4.303819034248590469e-03,-5.870473384857177734e-02,-2.365490235388278961e-02,1.177565753459930420e-02,-1.411437522619962692e-02,-7.640219479799270630e-02,5.820854008197784424e-02,-1.329015102237462997e-02,-3.882824629545211792e-02,-1.108084060251712799e-02,-6.875047832727432251e-02,-6.427737325429916382e-02,6.263619661331176758e-02,9.988298639655113220e-03,3.873674198985099792e-02,4.391279816627502441e-02,5.218619015067815781e-03,8.154182136058807373e-02,2.978491596877574921e-02,-6.702022999525070190e-02,-3.694377839565277100e-02,6.470288336277008057e-02,-4.740320518612861633e-02,6.265229731798171997e-02,-6.677944958209991455e-02,6.161366775631904602e-02,5.676474794745445251e-02,3.870448097586631775e-03,-4.581684246659278870e-03,-3.483026102185249329e-02,-8.057051151990890503e-02,-5.023304745554924011e-02,-7.001224905252456665e-02,4.588519781827926636e-02,-1.305020041763782501e-02,5.829837545752525330e-02,-4.599443450570106506e-02,1.285134628415107727e-02,-7.343551144003868103e-03,3.318887948989868164e-02,-7.372035086154937744e-02,-8.401363343000411987e-02,3.211181238293647766e-02,3.949141129851341248e-02,8.534175902605056763e-02,-1.813502237200737000e-02,8.074697107076644897e-02,-9.031548164784908295e-03,9.088465012609958649e-03,4.647116735577583313e-02,8.489492535591125488e-02,-2.482485212385654449e-02,1.309438701719045639e-02,-6.835010834038257599e-03,1.974798552691936493e-02,-6.084814667701721191e-02,5.498947203159332275e-02,1.686601340770721436e-02,-4.255520179867744446e-02,7.477737218141555786e-02,8.459375798702239990e-02,5.866206064820289612e-02,-2.010931074619293213e-02,2.644972130656242371e-02,3.591352701187133789e-02,8.500316739082336426e-02,-1.566672464832663536e-03,2.936095744371414185e-02,4.499242827296257019e-02,5.260175466537475586e-02,8.415328338742256165e-04,-4.281223937869071960e-02,-1.425556279718875885e-02,-7.934895902872085571e-02,-6.013172492384910583e-02,6.104591302573680878e-03,-8.251834660768508911e-03,-2.156346663832664490e-02,4.829438030719757080e-02,-3.775825724005699158e-02,5.029577389359474182e-02,-4.331895336508750916e-02,5.845927819609642029e-02,-2.331593818962574005e-02,4.251911863684654236e-02,6.390647590160369873e-02,8.842381834983825684e-02,5.156775936484336853e-03,-9.235507994890213013e-02,6.647307425737380981e-02,8.787532895803451538e-02,-9.631089866161346436e-03,3.685825690627098083e-02,-1.513696368783712387e-02,-4.422875493764877319e-02,4.166665021330118179e-03,1.972428523004055023e-02,-4.294633865356445312e-02,5.816603079438209534e-02,6.814355403184890747e-02,7.867198437452316284e-02,6.463006883859634399e-02,1.403654366731643677e-02,3.494987264275550842e-02,-1.239141821861267090e-02,4.271857440471649170e-03,8.846900612115859985e-02
-4.053029790520668030e-02,-3.699279576539993286e-02,-7.249546796083450317e-02,4.734688624739646912e-02,4.534242674708366394e-02,2.337990514934062958e-02,2.679003961384296417e-02,-3.294996544718742371e-02,9.731283038854598999e-02,-3.379357606172561646e-02,5.156219005584716797e-02,5.010004714131355286e-02,-4.561993107199668884e-02,-4.881416261196136475e-02,4.282816499471664429e-02,-2.882083319127559662e-02,6.585564464330673218e-02,1.836983859539031982e-02,-2.337928302586078644e-02,4.246456921100616455e-02,-3.233746159821748734e-03,8.067750185728073120e-02,-5.863626673817634583e-02,-6.536221504211425781e-02,7.756117731332778931e-02,4.692216962575912476e-02,4.622184112668037415e-02,-2.775340899825096130e-02,-5.283913016319274902e-02,6.694491207599639893e-02,7.356408983469009399e-02,-9.136963635683059692e-02,3.211117163300514221e-02,5.027467012405395508e-02,-7.096856832504272461e-02,-4.558773338794708252e-02,1.046700403094291687e-02,-8.009766042232513428e-02,-3.116427175700664520e-02,4.087218642234802246e-02,-7.192615419626235962e-02,9.242890030145645142e-02,-2.649107016623020172e-02,5.484446510672569275e-02,-7.037776708602905273e-02,7.697727531194686890e-02,-2.924288064241409302e-02,-2.292846888303756714e-02,-5.734268203377723694e-02,-7.743123918771743774e-02,-4.344983771443367004e-02,-4.855493083596229553e-02,2.475905045866966248e-02,6.157281808555126190e-03,-8.395220339298248291e-02,7.615189533680677414e-03,1.496443711221218109e-02,-1.319797430187463760e-02,-2.237653592601418495e-03,-9.200917929410934448e-02,-8.262036368250846863e-03,-4.709862545132637024e-02,-8.474671840667724609e-02,-1.106832735240459442e-02,-5.448605865240097046e-02,8.542063087224960327e-02,3.459002450108528137e-02,-1.002096384763717651e-02,-4.099221900105476379e-02,-8.573356270790100098e-02,-1.900125294923782349e-02,7.401908189058303833e-02,4.753671213984489441e-02,-5.796895921230316162e-02,6.050290167331695557e-02,-6.309372931718826294e-02,3.999684751033782959e-02,1.424154452979564667e-02,1.643137820065021515e-02,-5.180913209915161133e-02,-3.952204249799251556e-03,2.012057788670063019e-02,-8.986534923315048218e-02,-3.139423951506614685e-02,-1.245544757694005966e-02,9.584549814462661743e-02,5.933414213359355927e-03,-3.252768889069557190e-02,1.785327680408954620e-02,1.828111894428730011e-02,2.189051825553178787e-03,5.186884477734565735e-02,-4.801005497574806213e-02,-2.108684368431568146e-02,9.095564484596252441e-02,-2.456758404150605202e-03,-3.620243514887988567e-04,-5.691976845264434814e-02,3.841834142804145813e-02,2.454266138374805450e-02,-3.905750811100006104e-02,-2.175551094114780426e-02,-3.617999702692031860e-02,-4.614357650279998779e-02,1.060302183032035828e-02,-8.489723317325115204e-03,8.421957492828369141e-02,9.614493697881698608e-02,2.301733940839767456e-02,5.180799961090087891e-02,4.914217814803123474e-02,8.615557104349136353e-02,-2.979508042335510254e-02,-2.141378074884414673e-02,7.692226022481918335e-02,-3.338187560439109802e-02,3.534856066107749939e-02,-7.941859960556030273e-02,-8.712927252054214478e-02,5.508738011121749878e-02,-5.220050737261772156e-02,-5.884006991982460022e-02,7.640413939952850342e-02,-9.837393462657928467e-02,-1.003611683845520020e-01,1.451239339075982571e-03,2.261312678456306458e-02,3.874089941382408142e-02,5.394776165485382080e-02,3.778495267033576965e-02,8.483725786209106445e-02,-2.152564562857151031e-02,9.770566970109939575e-02,2.052061632275581360e-02,8.614601194858551025e-02,2.983364462852478027e-02,-2.438421174883842468e-02,5.216585099697113037e-02,-3.400093689560890198e-02,-3.781260922551155090e-02,5.379724130034446716e-02,-8.699361234903335571e-02,-5.562654510140419006e-02,5.667524412274360657e-02,-8.436568081378936768e-02,-2.817358262836933136e-02,1.637639105319976807e-02,8.449906855821609497e-02,-9.795369207859039307e-02,3.259614482522010803e-02,8.575756102800369263e-02,8.405080065131187439e-03,-8.398205786943435669e-02,7.131493836641311646e-02,-1.909731887280941010e-02,-4.266676679253578186e-02,-5.902793258428573608e-02,-1.213191449642181396e-02,3.907975740730762482e-03,3.323230519890785217e-02,1.511991675943136215e-02,-4.056970402598381042e-02,-7.404766976833343506e-02,-5.994486436247825623e-02,-5.630919337272644043e-02,-5.811226740479469299e-02,-7.832642644643783569e-02,-6.363690644502639771e-02,8.617514371871948242e-02,2.521003596484661102e-02,-1.671532727777957916e-02,3.019172884523868561e-02,-2.561112632974982262e-03,4.375720396637916565e-03,-9.178331494331359863e-02,-1.332049351185560226e-02,-8.426938205957412720e-02,-3.388400375843048096e-02,-8.351846784353256226e-02,-4.436721280217170715e-02,2.361696213483810425e-02,-9.034880995750427246e-02,-5.532068759202957153e-02,7.671424001455307007e-02,7.067277282476425171e-02,-2.541942335665225983e-02,-7.787881791591644287e-02,8.782836049795150757e-02,-7.163602858781814575e-02,-2.715159207582473755e-02,2.899025380611419678e-02,-3.554850816726684570e-02,3.529469296336174011e-02,-1.362892705947160721e-02,-5.799921229481697083e-02,4.908687993884086609e-02,4.474540054798126221e-02,7.384058088064193726e-02,4.909024760127067566e-02,-1.693884097039699554e-02,-6.595335900783538818e-02,-2.119578048586845398e-02,2.124834572896361351e-03,-8.417588472366333008e-02,-7.111017405986785889e-02,-4.938846826553344727e-02,-5.988028645515441895e-02,-5.437256023287773132e-02,-3.480272600427269936e-03,4.132575169205665588e-02,6.955228745937347412e-03,-9.693739563226699829e-02,3.963460028171539307e-02,-5.247412994503974915e-02,3.747957572340965271e-02,-4.661937057971954346e-02,-2.178528904914855957e-02,-3.855470195412635803e-02,1.710512302815914154e-02,-7.741937041282653809e-02,2.974550984799861908e-02,6.866456568241119385e-02,2.866732515394687653e-02,-1.864214614033699036e-02,-8.984823711216449738e-03,-2.478701993823051453e-02,8.065398037433624268e-02,-1.207561790943145752e-02,4.045011103153228760e-02,2.083955518901348114e-02,-6.553841382265090942e-02,-1.588677428662776947e-02,4.082168266177177429e-02,-6.741035729646682739e-02,6.734028458595275879e-02,4.644376412034034729e-02,-1.402647234499454498e-02,-3.668496012687683105e-02,-4.189408197999000549e-02,-7.098770886659622192e-02,-5.620313808321952820e-02,1.352646015584468842e-02,-6.996495276689529419e-02,-5.642549321055412292e-02,-1.872338168323040009e-02,5.698365718126296997e-02,8.640972524881362915e-02,-8.039660006761550903e-02,4.724023491144180298e-02,1.087486743927001953e-02,8.722767978906631470e-02,-2.517571439966559410e-03,2.132815681397914886e-02,-4.099303111433982849e-02,-8.720436692237854004e-02,7.332002371549606323e-02
-6.299549341201782227e-02,-4.447212442755699158e-02,-5.725272931158542633e-03,3.602182865142822266e-02,5.948074162006378174e-02,1.917656324803829193e-02,-2.396004274487495422e-03,3.645601123571395874e-02,8.834257721900939941e-03,8.834414184093475342e-03,3.051355713978409767e-03,2.736641280353069305e-02,-4.359797015786170959e-02,5.140821263194084167e-02,6.013453006744384766e-02,-7.510622963309288025e-03,-4.734851792454719543e-02,-4.199255723506212234e-03,1.944515295326709747e-02,3.483847528696060181e-02,1.668211445212364197e-02,4.415827337652444839e-03,-3.841120284050703049e-03,-6.762111932039260864e-02,-6.153551489114761353e-02,-1.169778592884540558e-02,6.384744495153427124e-02,-3.312904760241508484e-02,3.184530884027481079e-03,4.643223434686660767e-02,7.678284496068954468e-02,-9.326121956110000610e-02,-7.236067950725555420e-02,-7.986139506101608276e-02,8.315810561180114746e-02,8.782289177179336548e-02,-4.597308114171028137e-02,3.340414166450500488e-02,1.246693171560764313e-02,6.561256200075149536e-02,-1.525875087827444077e-02,-2.756591513752937317e-02,-6.307902187108993530e-02,5.693091452121734619e-02,-4.683447256684303284e-02,6.019560992717742920e-02,-6.742199882864952087e-03,-5.633134394884109497e-02,-3.666068241000175476e-02,-5.626405472867190838e-04,1.776643469929695129e-02,5.846612155437469482e-02,1.075698807835578918e-02,6.021460145711898804e-02,-3.170106187462806702e-02,4.795152693986892700e-02,-7.603638619184494019e-02,8.076442033052444458e-02,-8.341059833765029907e-02,6.286649405956268311e-02,2.664983831346035004e-02,7.998866587877273560e-02,-2.573589608073234558e-02,6.403788924217224121e-02,7.621414959430694580e-02,-2.593534439802169800e-02,-1.044543739408254623e-02,-6.345559656620025635e-02,6.249025464057922363e-03,-8.006624132394790649e-02,1.692339032888412476e-02,1.162389200180768967e-02,-2.471677400171756744e-02,1.716038025915622711e-02,6.167604029178619385e-02,7.053555548191070557e-02,7.676611095666885376e-02,8.010788261890411377e-02,9.876135736703872681e-02,-1.270831283181905746e-02,-4.353237524628639221e-02,7.033402472734451294e-02,-2.927015721797943115e-02,3.674067556858062744e-02,-5.395541712641716003e-02,-3.519967198371887207e-02,-7.611294090747833252e-02,2.909463131800293922e-03,7.797131687402725220e-02,-2.553953230381011963e-02,-5.255138128995895386e-02,4.836256057024002075e-02,-1.482778601348400116e-02,-2.318857051432132721e-02,-8.200392872095108032e-02,-1.518331654369831085e-02,-1.006701588630676270e-01,-2.781959623098373413e-02,-3.671960905194282532e-02,-5.571535602211952209e-02,-8.423181623220443726e-02,-3.250168636441230774e-02,7.441584765911102295e-02,2.087997086346149445e-02,7.360681891441345215e-02,9.272365272045135498e-02,1.434289012104272842e-02,7.167275995016098022e-02,3.356114029884338379e-02,2.780565433204174042e-02,-6.885116547346115112e-02,6.560655683279037476e-02,1.261949539184570312e-03,2.043040841817855835e-02,6.311807781457901001e-02,-8.735751360654830933e-02,7.114432007074356079e-02,-2.774024195969104767e-02,3.664004802703857422e-02,-5.686702206730842590e-02,2.637997083365917206e-02,3.493174538016319275e-02,1.257211714982986450e-02,-6.551939249038696289e-02,3.048639185726642609e-02,-5.597539246082305908e-03,-5.609440430998802185e-02,-8.317889645695686340e-03,4.740183055400848389e-02,4.365283623337745667e-02,-5.796438083052635193e-02,5.619319155812263489e-02,4.442634806036949158e-02,-8.655203878879547119e-02,-5.864860117435455322e-02,8.067273348569869995e-02,7.693023234605789185e-02,1.183338463306427002e-03,-5.966873466968536377e-02,-6.847301870584487915e-02,-6.675711274147033691e-02,-6.796800345182418823e-02,-5.080396682024002075e-02,8.789554238319396973e-02,-3.411301970481872559e-02,-7.010379433631896973e-02,-1.078105717897415161e-02,1.557490043342113495e-02,5.374972149729728699e-02,-5.605816468596458435e-02,-1.021834928542375565e-02,-5.504230037331581116e-02,-6.106536835432052612e-02,5.875045433640480042e-02,4.094383120536804199e-02,6.337024271488189697e-02,7.420720066875219345e-03,-7.732135057449340820e-02,2.663115784525871277e-02,4.726159200072288513e-02,-1.718758046627044678e-02,8.082691580057144165e-02,-5.575396493077278137e-02,-6.925038248300552368e-02,3.278932347893714905e-02,-7.868226617574691772e-03,-7.161025702953338623e-02,-5.235177278518676758e-02,-7.934611290693283081e-02,2.741491654887795448e-03,-8.678647130727767944e-02,3.207425028085708618e-02,3.948554024100303650e-02,6.288036704063415527e-02,-2.773154340684413910e-02,1.315297838300466537e-02,-7.013300806283950806e-02,-6.274709850549697876e-02,-6.870126724243164062e-02,1.688089407980442047e-02,-6.047244649380445480e-03,4.740363731980323792e-02,8.808128535747528076e-02,-3.585250675678253174e-02,-9.970879554748535156e-02,-5.351154133677482605e-02,-1.758846268057823181e-02,7.298035174608230591e-02,-4.713639151304960251e-03,4.040626809000968933e-02,-8.017519861459732056e-02,6.523776054382324219e-02,-6.245213374495506287e-02,-2.887495979666709900e-02,8.731765300035476685e-02,-7.679751515388488770e-02,6.735217571258544922e-02,-8.070798963308334351e-02,-1.426395587623119354e-02,-2.917509526014328003e-03,-6.956242024898529053e-03,-7.436911016702651978e-02,7.856493443250656128e-02,1.391448825597763062e-02,-1.837741211056709290e-02,4.512993618845939636e-02,-3.295959532260894775e-02,-6.697880569845438004e-03,1.233385875821113586e-02,6.126183550804853439e-03,-7.604765892028808594e-02,-5.544204637408256531e-02,2.737803012132644653e-02,-7.952707260847091675e-02,5.187209323048591614e-02,-1.076142024248838425e-02,-4.641848802566528320e-02,8.631834760308265686e-03,-9.509821236133575439e-02,-8.991798013448715210e-02,-5.614347010850906372e-02,3.842408582568168640e-02,-3.885081037878990173e-02,1.455823425203561783e-02,8.316780626773834229e-02,-8.942306041717529297e-02,-2.731115370988845825e-02,-2.097399532794952393e-02,8.478485792875289917e-02,1.820237375795841217e-02,2.693059481680393219e-02,-4.588660225272178650e-02,2.460346091538667679e-03,-9.171646833419799805e-02,2.697917819023132324e-02,6.451609730720520020e-02,8.307787775993347168e-02,-9.790945798158645630e-03,5.168329179286956787e-02,-6.535586714744567871e-02,2.585301548242568970e-02,-2.589592896401882172e-02,6.947235763072967529e-02,-4.083739593625068665e-02,1.871902681887149811e-02,-8.376596868038177490e-02,6.635658442974090576e-02,-7.873652875423431396e-02,1.900702901184558868e-02,-5.155019462108612061e-02,5.446306243538856506e-02,2.185043320059776306e-02,-6.124840304255485535e-02,1.103691011667251587e-02,1.680027577094733715e-03,3.286541998386383057e-02
-1.511401589959859848e-02,2.494198083877563477e-02,-5.673974519595503807e-04,7.317716628313064575e-02,-3.720474615693092346e-02,8.517205715179443359e-02,-1.257997192442417145e-02,5.358967930078506470e-02,3.126619011163711548e-02,-1.059047970920801163e-02,-3.972344100475311279e-02,4.163003340363502502e-02,2.191119641065597534e-02,1.172039192169904709e-02,-2.592452242970466614e-02,-6.128190830349922180e-02,3.820072486996650696e-02,7.455937564373016357e-02,4.566251114010810852e-02,-7.807415723800659180e-02,8.209649473428726196e-02,5.641555413603782654e-02,-5.180519074201583862e-02,-6.296834349632263184e-02,7.667870819568634033e-02,-3.675479441881179810e-02,6.923609226942062378e-02,7.007578760385513306e-02,-2.936786413192749023e-02,4.711554571986198425e-02,-3.842025622725486755e-02,7.182198762893676758e-02,2.192021906375885010e-02,-8.396175503730773926e-02,-2.397517301142215729e-02,7.680580019950866699e-02,-2.174276672303676605e-02,1.704217516817152500e-03,4.234800860285758972e-02,2.529558539390563965e-02,-1.418697927147150040e-02,-3.060942888259887695e-02,8.848373591899871826e-02,6.490395218133926392e-02,7.238501310348510742e-02,8.011785149574279785e-02,-2.458399347960948944e-02,-5.651713535189628601e-02,-4.598253220319747925e-02,6.051881983876228333e-02,-1.762054115533828735e-02,5.916588380932807922e-02,-6.258422881364822388e-02,9.230535477399826050e-02,4.867425188422203064e-02,-6.816772744059562683e-03,5.166609212756156921e-02,1.559900678694248199e-02,-2.929748035967350006e-02,-3.561406582593917847e-02,9.750510752201080322e-02,-6.417310237884521484e-02,7.339768856763839722e-02,-9.236048907041549683e-02,8.501012809574604034e-03,5.098151043057441711e-02,2.214404987171292305e-03,5.894981324672698975e-02,4.287517070770263672e-02,-9.492745250463485718e-02,8.676186203956604004e-02,-4.621367529034614563e-02,3.666210919618606567e-02,-4.127817228436470032e-02,-8.388795703649520874e-02,-4.099457338452339172e-02,6.106687337160110474e-02,6.281928718090057373e-02,-1.790580712258815765e-02,-8.169164508581161499e-02,-2.468036301434040070e-02,-4.932827875018119812e-02,-7.642277330160140991e-02,7.944048382341861725e-03,-1.004877686500549316e-01,-5.745452269911766052e-02,-3.602595999836921692e-02,-6.426376104354858398e-02,8.561354875564575195e-02,-8.219884335994720459e-02,-5.522633343935012817e-02,-1.776563748717308044e-02,6.866423785686492920e-02,-4.329917579889297485e-02,8.702605217695236206e-02,-1.281783916056156158e-03,-2.965601906180381775e-02,-5.264365300536155701e-02,-1.694278977811336517e-02,6.074005365371704102e-02,3.007259964942932129e-02,5.510567128658294678e-02,-4.492520168423652649e-02,8.533864468336105347e-02,3.128939867019653320e-02,-6.845575757324695587e-03,2.164919115602970123e-02,-1.445605419576168060e-02,9.238511323928833008e-02,6.206942722201347351e-02,8.756867051124572754e-02,-1.790677756071090698e-02,5.336345732212066650e-02,-8.139854669570922852e-02,8.798135071992874146e-02,4.099333658814430237e-03,-8.835775405168533325e-02,1.871847547590732574e-02,-8.133021742105484009e-02,8.421044051647186279e-02,-1.758873811922967434e-03,-1.338963676244020462e-02,8.237572014331817627e-02,-5.116393417119979858e-02,8.208602666854858398e-02,1.664186082780361176e-02,8.824975788593292236e-02,-9.455525875091552734e-02,-7.782117463648319244e-04,-8.463726937770843506e-02,-3.570396220311522484e-03,-1.135392952710390091e-02,6.459482014179229736e-02,6.716874241828918457e-02,6.339946389198303223e-02,5.912246648222208023e-03,8.469584584236145020e-02,4.830138385295867920e-02,-1.361442171037197113e-02,-4.975281190127134323e-03,-8.233348280191421509e-02,-8.060640841722488403e-02,-2.558299526572227478e-02,-2.720989845693111420e-02,-9.469254873692989349e-04,7.499030232429504395e-02,-6.532817333936691284e-02,3.758191689848899841e-02,-3.052190504968166351e-02,-1.716418005526065826e-02,-8.703041076660156250e-02,-6.011648848652839661e-02,-3.747929632663726807e-02,-6.903831660747528076e-02,-9.696944802999496460e-02,2.165552973747253418e-02,4.480526968836784363e-02,-8.064022660255432129e-02,-5.960097536444664001e-02,4.820878431200981140e-02,4.063399881124496460e-02,7.925637811422348022e-02,-9.969774633646011353e-02,1.867150515317916870e-02,-5.689240619540214539e-02,-8.419017493724822998e-02,1.311003416776657104e-02,5.257915705442428589e-03,-4.584009200334548950e-02,-8.545312285423278809e-02,5.726224184036254883e-02,7.227841764688491821e-02,3.857651725411415100e-02,6.752844154834747314e-02,5.022440478205680847e-02,-3.779328614473342896e-02,-4.188169166445732117e-02,8.266685903072357178e-02,4.641174897551536560e-02,3.627755865454673767e-02,2.865571156144142151e-02,2.938507497310638428e-02,-7.616237550973892212e-02,5.904082581400871277e-02,8.202441036701202393e-03,-2.201645076274871826e-02,5.472645163536071777e-02,-3.776532784104347229e-02,4.556607082486152649e-02,-5.199502408504486084e-02,4.883688688278198242e-02,3.448703885078430176e-02,2.439422532916069031e-02,2.447752747684717178e-03,-6.484239548444747925e-02,-8.250170201063156128e-02,-1.429431792348623276e-02,-4.174658283591270447e-02,5.366916209459304810e-02,-2.528940094634890556e-03,-2.001809887588024139e-02,-4.026666749268770218e-03,-7.141821831464767456e-02,-3.428832069039344788e-02,-4.213598743081092834e-02,-4.545770213007926941e-02,-3.126129508018493652e-03,7.479518651962280273e-02,-3.834248334169387817e-02,2.717653848230838776e-02,-7.474596053361892700e-02,1.494874618947505951e-02,9.009519964456558228e-02,-7.428984344005584717e-02,3.899576514959335327e-02,-8.689116686582565308e-02,8.666918426752090454e-02,-2.688034810125827789e-02,6.058506667613983154e-02,5.954514071345329285e-02,-2.527049928903579712e-02,2.295211516320705414e-02,1.285979058593511581e-02,-7.993447780609130859e-02,6.264811754226684570e-02,-8.068008720874786377e-02,9.415102750062942505e-02,-7.083436101675033569e-02,5.604731850326061249e-03,4.067653790116310120e-02,6.353691965341567993e-02,7.009977102279663086e-02,8.948505274020135403e-04,-6.161325424909591675e-02,-6.541333347558975220e-02,8.756702393293380737e-02,3.704895824193954468e-02,6.748495995998382568e-02,1.823345758020877838e-02,4.718754440546035767e-03,-8.880465477705001831e-02,5.366816744208335876e-02,4.331654682755470276e-02,-1.660405285656452179e-02,3.345901146531105042e-02,-3.797248750925064087e-02,-1.943617872893810272e-02,-7.344783842563629150e-02,-7.084698299877345562e-04,2.910055033862590790e-02,3.266107663512229919e-02,-3.110875934362411499e-02,-7.178793847560882568e-02,6.318683922290802002e-02,-4.392443969845771790e-02,-7.325293868780136108e-02
-7.621090114116668701e-02,-3.859731927514076233e-02,3.021883592009544373e-02,-4.650068655610084534e-02,-2.684861421585083008e-02,6.645385921001434326e-02,-6.254646182060241699e-02,-1.538087613880634308e-02,-4.986047744750976562e-02,5.642027407884597778e-02,4.791912063956260681e-02,4.067356511950492859e-02,-1.730655692517757416e-02,-2.110577747225761414e-02,7.050083577632904053e-02,-5.277187004685401917e-02,-6.628470867872238159e-02,-5.069057270884513855e-02,4.655100777745246887e-02,5.218641832470893860e-02,2.377247065305709839e-02,-9.730283170938491821e-02,-6.813883036375045776e-02,3.290042281150817871e-02,-3.750128298997879028e-02,8.773815934546291828e-04,4.387165606021881104e-02,-9.671269357204437256e-02,-6.434474885463714600e-02,-6.301790475845336914e-02,1.670143380761146545e-02,7.098738104104995728e-02,-7.013928145170211792e-02,-9.463065862655639648e-02,1.598872430622577667e-02,6.637112796306610107e-02,-3.189151734113693237e-02,5.670166760683059692e-02,1.689774170517921448e-02,-2.105917781591415405e-03,-2.067389665171504021e-03,9.075377136468887329e-02,-4.181688278913497925e-02,-2.424663677811622620e-02,1.995141385123133659e-03,-2.995985187590122223e-02,-3.570865467190742493e-02,8.439596742391586304e-02,2.621975541114807129e-02,-3.912567719817161560e-02,9.392070025205612183e-02,-8.522176742553710938e-02,9.408160299062728882e-02,5.038460344076156616e-02,-8.230858482420444489e-03,-3.710775449872016907e-02,1.763425394892692566e-02,8.043930679559707642e-02,2.101797051727771759e-02,4.060349240899085999e-02,-6.395836174488067627e-02,4.462838545441627502e-02,4.109739512205123901e-02,7.483517378568649292e-02,3.098155371844768524e-02,9.729405865073204041e-04,2.868083305656909943e-02,-1.969116926193237305e-02,-6.249611079692840576e-02,2.451852429658174515e-03,8.785039186477661133e-02,1.417211256921291351e-02,8.581283688545227051e-02,-9.351989626884460449e-02,3.406421467661857605e-02,-2.943003736436367035e-02,9.305310994386672974e-02,9.381685405969619751e-02,-4.498275369405746460e-02,-1.218295563012361526e-02,7.624728232622146606e-02,-1.867209747433662415e-02,-8.971998840570449829e-02,5.777014046907424927e-02,-7.889788597822189331e-03,-8.076582103967666626e-02,4.642859473824501038e-02,1.524838007753714919e-04,1.604156568646430969e-02,8.787304162979125977e-02,6.171351298689842224e-02,3.338859602808952332e-02,8.216593414545059204e-02,-2.819090895354747772e-02,4.829043522477149963e-02,4.685631021857261658e-02,3.760344162583351135e-02,-2.422315813601016998e-02,-3.643012419342994690e-02,-6.758662872016429901e-03,4.698091372847557068e-02,5.025602504611015320e-02,-3.421497717499732971e-02,-1.131982542574405670e-02,2.289520762860774994e-02,-6.913574039936065674e-02,-2.779665961861610413e-02,6.042473763227462769e-02,3.271174058318138123e-02,-8.087698370218276978e-02,5.783537030220031738e-02,7.694644480943679810e-02,-4.411332309246063232e-03,1.557242870330810547e-02,5.207024142146110535e-02,8.235251158475875854e-02,-4.524297639727592468e-02,-6.189979985356330872e-02,4.492224380373954773e-02,-5.911405012011528015e-02,8.150316029787063599e-02,-6.616149097681045532e-02,-8.966255187988281250e-02,5.385527387261390686e-02,8.490572124719619751e-02,-5.901946872472763062e-02,-1.955118216574192047e-02,8.640965819358825684e-02,-4.367307946085929871e-02,9.829919040203094482e-02,-2.994905039668083191e-02,3.814045712351799011e-02,2.694102376699447632e-02,-9.822092205286026001e-02,-6.135800480842590332e-02,-2.104713767766952515e-02,-4.054234549403190613e-02,-1.070071011781692505e-02,-9.634700417518615723e-02,-4.854009672999382019e-02,5.435090884566307068e-02,3.502533654682338238e-04,9.194042533636093140e-02,1.720117963850498199e-02,2.012265659868717194e-02,-1.285497099161148071e-02,-2.255543321371078491e-02,8.696553995832800865e-04,8.716796338558197021e-02,-5.492092296481132507e-02,7.209413498640060425e-02,8.275889605283737183e-02,-3.497159108519554138e-02,3.423597291111946106e-02,1.162387989461421967e-02,8.282859623432159424e-02,-9.336899966001510620e-02,-4.436473920941352844e-02,-6.983004510402679443e-02,8.855930715799331665e-02,-8.277340978384017944e-02,9.487864561378955841e-03,-6.140996143221855164e-02,-5.303965136408805847e-02,-4.769599437713623047e-02,-3.879763558506965637e-02,-5.825108289718627930e-02,-7.628779858350753784e-02,1.313928165473043919e-03,-5.266030505299568176e-02,-7.874742150306701660e-02,-7.756844907999038696e-02,-9.305877238512039185e-02,-6.002877125865779817e-05,-8.796105533838272095e-02,2.216737531125545502e-02,-5.629575625061988831e-02,-1.271301228553056717e-02,-3.085689432919025421e-02,-3.566924482583999634e-02,-8.068775385618209839e-02,8.298227936029434204e-02,3.568082675337791443e-02,2.913235872983932495e-02,-5.446639284491539001e-02,1.149087585508823395e-02,-3.740283846855163574e-02,3.969803079962730408e-02,3.452214598655700684e-02,-9.821570664644241333e-02,-7.423565536737442017e-02,-2.906732074916362762e-02,2.364838123321533203e-02,-3.877437859773635864e-02,3.937302902340888977e-02,-8.568593114614486694e-02,-4.291943088173866272e-02,8.785266429185867310e-02,3.959635272622108459e-02,-4.511043429374694824e-02,-3.559852764010429382e-02,-1.520712394267320633e-02,-2.040270529687404633e-02,-4.573724791407585144e-02,7.051119208335876465e-02,2.309091389179229736e-02,-4.762774333357810974e-02,-1.960991509258747101e-02,-6.460220366716384888e-02,-7.948901504278182983e-03,6.071831658482551575e-02,-9.095658361911773682e-02,5.316806212067604065e-02,-6.183739751577377319e-02,-8.009409904479980469e-02,-5.759061127901077271e-02,3.313409164547920227e-03,6.513971090316772461e-02,-3.134274482727050781e-02,-8.879037201404571533e-02,-3.200122341513633728e-02,-4.567693918943405151e-02,-1.486954279243946075e-03,1.710246317088603973e-02,9.857939928770065308e-02,5.448624864220619202e-02,-4.401280730962753296e-02,-5.681923404335975647e-02,-3.042539954185485840e-02,-5.041614174842834473e-02,-6.415530294179916382e-02,9.039729833602905273e-02,4.435539245605468750e-02,-6.686085462570190430e-02,-2.441201731562614441e-02,5.968154594302177429e-02,-5.075695738196372986e-02,5.223056301474571228e-02,-7.862070947885513306e-02,2.792868949472904205e-02,7.797572016716003418e-02,-9.227275848388671875e-02,3.928598016500473022e-02,2.333185449242591858e-02,-2.776422537863254547e-03,-8.195367455482482910e-02,8.865711838006973267e-02,-4.235698655247688293e-02,5.518231913447380066e-02,4.672598093748092651e-02,-8.152902871370315552e-02,-2.619072422385215759e-02,-6.534086167812347412e-02,9.441484510898590088e-02,-6.136010214686393738e-02,1.900954917073249817e-02
