-4.755309224128723145e-02
-2.492262870073318481e-01
-3.399772942066192627e-02
-1.169551759958267212e-01
-9.970717132091522217e-02
-2.025867700576782227e-01
5.773655604571104050e-03
3.043007552623748779e-01
-1.439938843250274658e-01
2.086044102907180786e-01
-1.035315170884132385e-01
-1.660506278276443481e-01
2.323950268328189850e-02
-7.809420675039291382e-02
-8.688033558428287506e-04
-5.754886940121650696e-02
-1.962577998638153076e-01
-2.089120596647262573e-01
6.305730901658535004e-03
-8.550344407558441162e-02
-4.736031591892242432e-02
1.153050065040588379e-01
-1.104343011975288391e-01
-1.531331837177276611e-01
4.586194641888141632e-03
9.687512367963790894e-02
-1.816367208957672119e-01
-8.313008397817611694e-02
3.346354663372039795e-01
-1.239203885197639465e-01
-2.025796622037887573e-01
-8.490729331970214844e-02
-5.735925957560539246e-02
-1.860411912202835083e-01
-3.209540247917175293e-01
-1.841627955436706543e-01
-2.037705034017562866e-01
-1.697467267513275146e-02
-2.624019086360931396e-01
-1.416393518447875977e-01
-1.277341097593307495e-01
1.821429580450057983e-01
-7.509165257215499878e-02
-1.555996835231781006e-01
-2.006562054157257080e-01
-1.235071644186973572e-01
-1.399513483047485352e-01
2.047308348119258881e-02
-8.826112002134323120e-02
-3.572144806385040283e-01
-1.480604559183120728e-01
2.309236675500869751e-02
-1.688861995935440063e-01
6.518419086933135986e-02
-4.147110879421234131e-02
-1.337727010250091553e-01
-1.131524220108985901e-01
-1.710397452116012573e-01
-1.744187772274017334e-01
-9.985214471817016602e-02
-2.441604584455490112e-01
-1.004795581102371216e-01
-7.295589148998260498e-02
-9.661313146352767944e-02
-2.410078793764114380e-01
-1.305823475122451782e-01
7.898242771625518799e-02
-2.489650845527648926e-01
-9.058257937431335449e-02
-7.133865356445312500e-02
-1.176843121647834778e-01
-1.432939916849136353e-01
-1.101209670305252075e-01
-2.038648426532745361e-01
-1.448523253202438354e-01
2.447097152471542358e-01
-9.602897614240646362e-02
-2.362833172082901001e-02
-1.148583441972732544e-01
2.903002128005027771e-02
-1.518110036849975586e-01
-8.009973168373107910e-02
-1.740690469741821289e-01
-1.275775879621505737e-01
-1.011977717280387878e-01
2.884499728679656982e-01
-1.356872171163558960e-01
1.470592897385358810e-02
-1.753383874893188477e-01
-1.468106508255004883e-01
-3.422134220600128174e-01
-2.044389545917510986e-01
-1.697417944669723511e-01
-3.466980457305908203e-01
-3.068847060203552246e-01
-1.848086863756179810e-01
-1.453188657760620117e-01
-7.415455579757690430e-02
2.076113820075988770e-01
-1.873689144849777222e-01
2.880352139472961426e-01
2.687995694577693939e-02
1.129801869392395020e-01
2.013389319181442261e-01
-1.372324228286743164e-01
-5.256674438714981079e-02
-2.421467006206512451e-01
-6.571649760007858276e-02
-2.001314163208007812e-01
-1.171032711863517761e-01
-9.710613638162612915e-03
-1.677882671356201172e-01
-8.894970268011093140e-02
-2.117744386196136475e-01
-1.859393268823623657e-01
-1.076313480734825134e-01
-1.469072401523590088e-01
3.361877799034118652e-01
-9.796310961246490479e-02
-2.060727924108505249e-01
8.768526464700698853e-02
-2.460611164569854736e-01
-2.238435894250869751e-01
-7.594110816717147827e-02
5.514088273048400879e-02
-4.634117707610130310e-02
-2.154131084680557251e-01
1.701598763465881348e-01
-2.530795633792877197e-01
2.136251926422119141e-01
-1.178375035524368286e-01
2.194468677043914795e-01
7.865750789642333984e-02
7.999388873577117920e-02
-1.201510056853294373e-01
-5.226483568549156189e-03
9.341059327125549316e-01
-1.566542088985443115e-01
-2.930515632033348083e-02
4.499613642692565918e-01
-3.068405687808990479e-01
-9.443986415863037109e-02
-1.663390100002288818e-01
-1.619247645139694214e-01
-2.895459532737731934e-01
2.833266854286193848e-01
-1.282681971788406372e-01
-8.831867575645446777e-02
-1.291729211807250977e-01
-7.984422892332077026e-02
-2.815993130207061768e-02
-2.473278939723968506e-01
-1.095967739820480347e-01
-1.133650690317153931e-01
-2.190010398626327515e-01
-2.749695628881454468e-02
-8.891236782073974609e-02
-1.712936162948608398e-01
-1.664872616529464722e-01
9.342072159051895142e-02
4.287851750850677490e-01
-1.533685345202684402e-02
-2.587046660482883453e-02
-8.945021033287048340e-02
-5.459329485893249512e-02
3.252848088741302490e-01
-1.223997995257377625e-01
4.880978667642921209e-04
-5.203785747289657593e-02
-2.379573285579681396e-01
-1.034431755542755127e-01
1.327108740806579590e-01
-1.806921511888504028e-01
-7.081206142902374268e-02
8.025189489126205444e-02
-1.259423941373825073e-01
-9.389993548393249512e-02
-9.481176733970642090e-03
-2.236843556165695190e-01
-3.178989514708518982e-02
-8.732333779335021973e-02
3.110322356224060059e-01
1.239983364939689636e-02
-9.361669421195983887e-02
-8.958815783262252808e-02
9.326232224702835083e-02
1.741642653942108154e-01
1.119720563292503357e-02
2.026442624628543854e-02
-6.381378322839736938e-02
3.702605962753295898e-01
-3.136445581912994385e-02
4.817004129290580750e-02
-3.775277137756347656e-01
3.780057188123464584e-03
-2.737739309668540955e-02
3.593938797712326050e-02
-1.276643425226211548e-01
-2.121247798204421997e-01
-2.038694173097610474e-01
1.177681684494018555e-01
-3.189277052879333496e-01
-1.490812748670578003e-01
-1.819366216659545898e-01
-1.980563700199127197e-01
-1.021594107151031494e-01
-6.774633377790451050e-02
-1.177489310503005981e-01
-1.019810289144515991e-01
-2.660215497016906738e-01
-1.841163076460361481e-02
-3.346746787428855896e-02
3.854641020298004150e-01
2.622100114822387695e-01
-1.232095584273338318e-01
-1.254782080650329590e-01
-6.524933129549026489e-02
-3.667113482952117920e-01
1.075229048728942871e-01
-1.162639558315277100e-01
1.467084586620330811e-01
-1.390944421291351318e-01
-7.806026935577392578e-02
-5.784381553530693054e-02
-4.620661959052085876e-02
1.329183727502822876e-01
-1.857317537069320679e-01
-9.970929473638534546e-02
-1.552716493606567383e-01
-1.497357189655303955e-01
-1.112496480345726013e-01
-2.764347791671752930e-01
-3.600175082683563232e-01
-1.013913676142692566e-01
4.168541729450225830e-01
3.765845894813537598e-01
-2.381449937820434570e-01
6.919870525598526001e-02
-3.412358928471803665e-03
2.831966876983642578e-01
-1.087677925825119019e-01
-1.229319907724857330e-02
-3.549631536006927490e-01
-3.398910462856292725e-01
-2.804571092128753662e-01
-4.463431984186172485e-02
-2.465881407260894775e-01
-2.545174397528171539e-02
-2.230165898799896240e-01
2.329702377319335938e-01
-1.154290214180946350e-01
-2.444018125534057617e-01
-3.455940261483192444e-02
-2.728409469127655029e-01
-2.532385587692260742e-01
-1.034736558794975281e-01
