-7.870621979236602783e-02
-7.133965492248535156e-01
-2.350498689338564873e-03
-1.941800862550735474e-01
7.595743052661418915e-03
3.870705962181091309e-01
-5.279202461242675781e-01
3.781356215476989746e-01
3.812921345233917236e-01
-1.451747268438339233e-01
-5.138206481933593750e-02
2.506552338600158691e-01
2.316612191498279572e-02
-1.560985743999481201e-01
-3.513269126415252686e-01
-3.676106780767440796e-02
2.507700920104980469e-01
-6.615717895328998566e-03
-6.808515787124633789e-01
1.796772927045822144e-01
-2.308908104896545410e-01
-3.854813873767852783e-01
-7.855529338121414185e-02
4.121382907032966614e-02
3.706806898117065430e-01
-7.379329949617385864e-02
-6.922209858894348145e-01
-2.793763577938079834e-01
2.099147588014602661e-01
-3.222852349281311035e-01
-1.802425384521484375e-01
-7.047656178474426270e-02
-3.317396342754364014e-01
2.814137935638427734e-01
1.509373188018798828e-01
-8.296228051185607910e-01
3.695354163646697998e-01
-1.806543581187725067e-02
-3.465073108673095703e-01
-8.290790766477584839e-02
2.943916805088520050e-02
6.122055649757385254e-02
-2.445086538791656494e-01
-1.756150275468826294e-02
1.621605269610881805e-02
-1.837158054113388062e-01
-1.860131621360778809e-01
1.063616797327995300e-01
-1.670756377279758453e-02
-9.666880220174789429e-02
-5.525406002998352051e-01
-3.373141586780548096e-01
-6.346426159143447876e-02
-1.230993643403053284e-01
1.880053058266639709e-02
-2.250461131334304810e-01
3.340322077274322510e-01
-2.317928820848464966e-01
5.466208979487419128e-02
2.239865809679031372e-01
2.459651976823806763e-02
2.713414132595062256e-01
-1.700071245431900024e-01
1.720652431249618530e-01
-1.168606132268905640e-01
-2.119675725698471069e-01
-2.847113013267517090e-01
2.380212843418121338e-01
2.026440501213073730e-01
3.178652375936508179e-02
-1.266600191593170166e-01
-2.833372950553894043e-01
2.825599610805511475e-01
6.596734374761581421e-02
2.553846240043640137e-01
-3.084790408611297607e-01
-4.147091507911682129e-02
1.787018030881881714e-02
3.837646543979644775e-01
-1.670131683349609375e-01
2.359278500080108643e-01
-9.550904482603073120e-02
1.391905695199966431e-01
1.869634352624416351e-02
7.929082959890365601e-02
-9.193286299705505371e-02
-3.757869899272918701e-01
1.350619792938232422e-01
-1.721466630697250366e-01
-2.036457955837249756e-01
-1.348834395408630371e+00
3.683485090732574463e-01
6.648581475019454956e-02
1.816236525774002075e-01
4.261295497417449951e-01
-2.402801513671875000e-01
-5.824528336524963379e-01
-3.693382441997528076e-02
-2.856013476848602295e-01
1.681186258792877197e-01
1.569689363241195679e-01
4.548881202936172485e-02
-2.291972041130065918e-01
-8.917758613824844360e-02
1.321419477462768555e-01
-2.216729372739791870e-01
-2.239249348640441895e-01
-1.316207349300384521e-01
-4.205018281936645508e-01
-1.109418720006942749e-01
1.855968683958053589e-01
-1.770835667848587036e-01
-3.991190791130065918e-01
-4.144747182726860046e-02
2.157369852066040039e-01
1.992985755205154419e-01
-4.917144775390625000e-02
-1.844198107719421387e-01
9.619186818599700928e-02
3.795446828007698059e-02
-1.817620396614074707e-01
3.899344801902770996e-01
-2.380255609750747681e-01
-4.815651476383209229e-01
1.094200611114501953e-01
1.390578448772430420e-01
3.425911962985992432e-01
9.227176010608673096e-02
3.308295309543609619e-01
1.877433955669403076e-01
-3.363660275936126709e-01
1.360343396663665771e-02
-5.569286271929740906e-02
-8.815703392028808594e-01
1.952172368764877319e-01
-4.627658799290657043e-02
-2.935961186885833740e-01
2.876961231231689453e-01
5.048753321170806885e-02
5.538104102015495300e-02
1.810327321290969849e-01
3.339417874813079834e-01
-1.998950690031051636e-01
5.575221776962280273e-02
-8.278130739927291870e-02
6.285896152257919312e-02
8.656948059797286987e-02
-5.036726221442222595e-02
-2.983960211277008057e-01
-1.308773905038833618e-01
-1.961541920900344849e-01
-2.411496490240097046e-01
-3.154496848583221436e-02
1.726584285497665405e-01
-8.658610284328460693e-02
-2.623760998249053955e-01
-4.925568774342536926e-02
-3.278200328350067139e-01
-2.310182005167007446e-01
1.697861552238464355e-01
-3.585597276687622070e-01
-3.113467395305633545e-01
-3.361556306481361389e-02
-2.807963639497756958e-02
5.816643312573432922e-02
-5.148804560303688049e-02
-2.594006359577178955e-01
3.376560211181640625e-01
-1.711265742778778076e-01
4.156193137168884277e-01
-3.340120017528533936e-01
-2.534031271934509277e-01
-7.614553570747375488e-01
-7.860958576202392578e-03
-1.205754280090332031e-01
5.258079245686531067e-02
-4.736220538616180420e-01
1.246662065386772156e-01
-1.568015068769454956e-01
8.039444088935852051e-01
-6.477437615394592285e-01
-2.488490790128707886e-01
-2.004496157169342041e-01
2.377393841743469238e-01
-3.055410385131835938e-01
1.482364982366561890e-01
-2.110656201839447021e-01
-4.824614822864532471e-01
-1.229949854314327240e-02
-1.872504204511642456e-01
-1.743081510066986084e-01
2.910998463630676270e-01
1.446421444416046143e-01
7.642682641744613647e-02
-1.194052472710609436e-01
-1.100121811032295227e-02
1.032151803374290466e-01
-1.699005961418151855e-01
-9.555161744356155396e-02
-2.959078252315521240e-01
-8.529940247535705566e-01
4.617540836334228516e-01
-3.014727234840393066e-01
-4.729149490594863892e-02
3.608272373676300049e-01
6.663073599338531494e-02
1.226040124893188477e-01
-9.244326502084732056e-02
6.201982498168945312e-01
-2.436441779136657715e-01
2.589197158813476562e-01
2.546426355838775635e-01
3.835541605949401855e-01
-3.130417168140411377e-01
-3.030484914779663086e-01
7.766553759574890137e-02
-1.842965744435787201e-02
1.267075836658477783e-01
1.089123860001564026e-01
-2.523529231548309326e-01
-2.741419970989227295e-01
-1.019114255905151367e+00
6.857952475547790527e-02
-3.198688924312591553e-01
8.581451326608657837e-02
-1.175026297569274902e-01
-6.004884243011474609e-01
-1.610338091850280762e-01
-1.318497210741043091e-01
2.637534439563751221e-01
9.904481470584869385e-02
-1.588743478059768677e-01
-2.063362598419189453e-01
-1.084788069128990173e-01
2.184074819087982178e-01
-4.681733995676040649e-02
1.850313991308212280e-01
-1.155370622873306274e-01
-7.272998243570327759e-02
-1.289590597152709961e-01
-2.361731231212615967e-01
-6.010019779205322266e-01
2.045126259326934814e-01
-9.499293565750122070e-01
-1.857544481754302979e-01
9.731373190879821777e-02
-3.691651299595832825e-02
4.675419535487890244e-03
3.153494792059063911e-03
-3.576575815677642822e-01
2.382666058838367462e-02
-2.093835324048995972e-01
1.625791788101196289e-01
-3.603024482727050781e-01
-1.031021624803543091e-01
3.620540499687194824e-01
