-1.196953654289245605e-01
-1.892039030790328979e-01
-7.381900399923324585e-02
-2.580780386924743652e-01
-4.280046001076698303e-02
-8.307918906211853027e-02
-1.181720755994319916e-02
4.933992922306060791e-01
-3.595088608562946320e-03
4.633756726980209351e-02
7.665846496820449829e-04
2.309217303991317749e-01
-4.295655339956283569e-02
-2.712166123092174530e-02
1.157691925764083862e-01
-5.781916975975036621e-01
-1.295899450778961182e-01
-8.996884571388363838e-04
-8.042261004447937012e-02
1.395599171519279480e-02
-1.994547247886657715e-02
-6.440651416778564453e-02
-1.875810325145721436e-01
-6.327305734157562256e-02
6.904923915863037109e-02
-8.900142274796962738e-03
4.703945666551589966e-02
-8.458759635686874390e-02
-5.821312665939331055e-01
-2.090919017791748047e-02
-1.606096141040325165e-02
-7.927449792623519897e-02
-1.482042968273162842e-01
-4.851597547531127930e-02
-1.371980905532836914e-01
7.558199577033519745e-03
2.954494953155517578e-01
-7.349812984466552734e-02
3.203660845756530762e-01
-1.754978448152542114e-01
-1.113179847598075867e-01
-6.245739012956619263e-02
-1.111524477601051331e-01
-9.100189805030822754e-02
3.521558362990617752e-03
-3.126940131187438965e-02
-3.129191324114799500e-02
-2.224288135766983032e-02
-9.800408780574798584e-02
2.803724110126495361e-01
-9.439332038164138794e-02
-1.390581130981445312e-01
-4.623389616608619690e-02
3.502752631902694702e-02
2.550584375858306885e-01
-9.805919229984283447e-02
1.499027460813522339e-01
-2.390442416071891785e-02
-1.675216555595397949e-01
2.009985148906707764e-01
-6.511706858873367310e-02
-4.188172519207000732e-02
7.852419279515743256e-03
-2.153166383504867554e-01
-1.205801516771316528e-01
-5.944646522402763367e-02
5.208325982093811035e-01
-1.312831342220306396e-01
-3.267250955104827881e-02
1.386224180459976196e-01
-7.586442232131958008e-01
-2.882368862628936768e-01
-2.503927052021026611e-02
-2.029744088649749756e-01
-9.326228499412536621e-02
4.636338651180267334e-01
-8.851023018360137939e-02
-6.090706214308738708e-02
2.853528223931789398e-02
5.047315359115600586e-01
-1.398836821317672729e-01
-1.219564676284790039e-01
-1.427331659942865372e-02
-6.713706254959106445e-02
-1.286324579268693924e-02
3.881344795227050781e-01
-5.076357722282409668e-02
9.065102040767669678e-02
5.904835462570190430e-02
-3.010356798768043518e-03
-2.665527537465095520e-02
-6.587767601013183594e-02
-4.592549428343772888e-02
-4.135716333985328674e-02
-5.568709596991539001e-02
-2.501569092273712158e-01
-5.389336943626403809e-01
-6.704322248697280884e-02
-4.623351246118545532e-02
-1.732919663190841675e-01
-1.402321159839630127e-01
-1.251720488071441650e-01
-4.350455477833747864e-02
2.872744500637054443e-01
-9.869169443845748901e-04
-6.315582245588302612e-02
1.095603704452514648e-01
-8.221043646335601807e-02
-4.380498081445693970e-02
-4.311002045869827271e-02
-1.417392194271087646e-01
-2.589699439704418182e-02
-4.017890244722366333e-02
-8.231226354837417603e-02
-6.690227389335632324e-01
-2.162792384624481201e-01
-4.052610397338867188e-01
-3.883395716547966003e-02
-1.776511818170547485e-01
-5.713101848959922791e-02
-2.432659640908241272e-02
-6.238538771867752075e-03
8.314888179302215576e-02
-2.144444733858108521e-01
-1.169590838253498077e-02
-1.101446971297264099e-01
-1.894287467002868652e-01
1.142590716481208801e-01
6.021301448345184326e-02
-2.377619966864585876e-02
4.059071540832519531e-01
-6.261999905109405518e-02
-3.704982995986938477e-02
1.881255954504013062e-01
-4.391686618328094482e-02
1.186893321573734283e-03
-6.726986914873123169e-02
-8.910617977380752563e-02
-2.479953877627849579e-02
-5.974931642413139343e-02
1.689638346433639526e-01
-4.162549600005149841e-02
4.913493990898132324e-02
-5.858515575528144836e-02
-2.365292422473430634e-02
-1.289788782596588135e-01
-4.803666099905967712e-02
3.567289561033248901e-02
-4.378793761134147644e-02
-1.266800463199615479e-01
-7.177426666021347046e-02
-8.667682856321334839e-02
-9.803485125303268433e-02
-3.175707161426544189e-02
-1.365164667367935181e-01
4.286380484700202942e-02
1.056847274303436279e-01
-9.160831570625305176e-02
-7.532400637865066528e-02
4.343929514288902283e-02
-1.051381826400756836e-01
-3.633198142051696777e-02
-1.087050959467887878e-01
-1.562257260084152222e-01
-1.013970300555229187e-01
-2.361575216054916382e-01
-7.271116971969604492e-02
2.136170491576194763e-02
-4.561468213796615601e-02
-5.037459731101989746e-02
-1.603456288576126099e-01
1.652850210666656494e-01
-6.745644658803939819e-02
5.291185975074768066e-01
-4.624171182513237000e-02
-4.616703093051910400e-02
-3.776771202683448792e-02
-6.668862700462341309e-02
7.441277150064706802e-03
-1.665640026330947876e-01
-4.859028011560440063e-02
-7.306403666734695435e-02
1.756359040737152100e-01
9.962403029203414917e-02
-3.890054225921630859e-01
-1.460979785770177841e-02
-1.492885351181030273e-01
-5.803672224283218384e-02
-5.983356013894081116e-02
8.105808496475219727e-02
1.840691640973091125e-02
-1.246560588479042053e-01
2.041193842887878418e-02
-7.907704263925552368e-02
-1.624015346169471741e-02
4.764715954661369324e-02
9.117490798234939575e-02
-5.220024585723876953e-01
-4.689209163188934326e-02
-7.589028775691986084e-02
-1.344730257987976074e-01
-5.048634484410285950e-03
1.408298164606094360e-01
-5.037194490432739258e-02
-1.077592894434928894e-01
-4.536596126854419708e-03
-1.002394827082753181e-03
6.605409085750579834e-02
-4.982228577136993408e-02
-1.148581281304359436e-01
-2.153232991695404053e-01
-3.525564670562744141e-01
1.952147185802459717e-01
4.084721580147743225e-02
-4.412384331226348877e-02
-1.853192448616027832e-01
-1.381016243249177933e-02
-1.230207383632659912e-01
-1.543720215559005737e-01
2.977448515594005585e-02
-1.304217576980590820e-01
-1.965243220329284668e-01
4.549895972013473511e-02
-6.015623211860656738e-01
1.222324278205633163e-02
-5.692246556282043457e-01
4.472019076347351074e-01
-5.347885936498641968e-02
-2.178286612033843994e-01
4.174315556883811951e-02
-1.322420090436935425e-01
-1.299872994422912598e-01
1.551117449998855591e-01
-1.116078272461891174e-01
-7.582049816846847534e-02
1.969101428985595703e-01
5.758989453315734863e-01
4.681817442178726196e-02
7.784399203956127167e-03
3.911596536636352539e-01
9.222619980573654175e-02
-1.127884685993194580e-01
-1.506717875599861145e-02
5.724939107894897461e-01
-9.665901958942413330e-02
-2.048506736755371094e-01
-1.954387426376342773e-01
-2.879003621637821198e-02
-1.971178315579891205e-02
-1.442283838987350464e-01
-1.187500730156898499e-02
1.117809265851974487e-01
-6.484103947877883911e-02
6.365047302097082138e-03
-8.154389262199401855e-02
1.603002250194549561e-01
