-1.704841852188110352e-01,1.115332264453172684e-02,-6.423301249742507935e-02,1.087516024708747864e-01,-5.410189554095268250e-02,2.694438770413398743e-02,4.828277602791786194e-02,-9.565937519073486328e-02,-2.241493612527847290e-01,2.810682915151119232e-02,-1.253725588321685791e-01,-1.140318661928176880e-01,3.816148266196250916e-02,-3.179080039262771606e-02,-6.335190683603286743e-02,6.647353619337081909e-02,-9.561688452959060669e-02,1.637355983257293701e-02,-5.017962679266929626e-02,6.420177221298217773e-02,-6.367869675159454346e-02,6.146090477705001831e-02,1.058900728821754456e-01,-1.218405961990356445e-01,-7.318679243326187134e-02,-7.336963713169097900e-02,-1.163246929645538330e-01,1.874638162553310394e-02,4.653711989521980286e-02,-1.023568212985992432e-01,2.423450723290443420e-02,3.965616226196289062e-02,1.502146478742361069e-02,3.928473591804504395e-02,-5.491847917437553406e-02,1.130468118935823441e-02,-1.659512333571910858e-02,3.645106777548789978e-02,1.202341318130493164e-01,7.548439502716064453e-02,-4.531307891011238098e-02,-4.751109331846237183e-02,-2.499875426292419434e-01,1.721949130296707153e-02,-1.239133328199386597e-01,-9.057882428169250488e-02,-9.444497525691986084e-02,3.786590322852134705e-02,-1.803103089332580566e-01,7.591766770929098129e-03,-2.451444230973720551e-02,-5.933211743831634521e-02,3.407621011137962341e-02,-1.048920005559921265e-01,-4.674901254475116730e-03,-1.367194298654794693e-02,9.796179085969924927e-02,-7.121375203132629395e-02,6.659357249736785889e-02,-8.830755203962326050e-02,-8.021356910467147827e-02,9.163953363895416260e-02,-3.723344299942255020e-03,2.143479324877262115e-02,-9.712422266602516174e-03,5.052345991134643555e-02,-1.306963860988616943e-01,-1.343438625335693359e-01,-9.343182295560836792e-02,7.972968369722366333e-02,-7.903532683849334717e-02,3.588789701461791992e-02,-6.862176954746246338e-02,-1.134559065103530884e-01,-9.065276011824607849e-03,-7.835406810045242310e-02,-1.266567260026931763e-01,-3.976012393832206726e-02,1.407107803970575333e-02,-5.068920180201530457e-02,-2.758426219224929810e-02,-1.181502491235733032e-01,-1.007351130247116089e-01,-2.285075001418590546e-02,-3.770545870065689087e-02,2.157580666244029999e-02,-4.250822123140096664e-03,7.671270519495010376e-02,6.761819124221801758e-02,5.740548297762870789e-02,-6.920471042394638062e-02,1.677323691546916962e-02,-1.291863340884447098e-02,2.456135861575603485e-02,-8.193147182464599609e-02,1.046581491827964783e-01,2.694574743509292603e-02,1.239546295255422592e-02,8.734190464019775391e-02,-1.652510166168212891e-01,1.923148520290851593e-02,1.042188629508018494e-01,-6.714693456888198853e-02,-1.708228141069412231e-03,-1.252799779176712036e-01,-1.255338359624147415e-02,-2.592268632724881172e-03,-3.731171367689967155e-03,3.766670450568199158e-02,5.414073169231414795e-02,-5.179638974368572235e-03,-7.897698134183883667e-02,-7.088788598775863647e-02,-4.810255393385887146e-02,3.008862771093845367e-02,-9.155832231044769287e-02,-1.683480106294155121e-02,2.304290980100631714e-02,-8.640006929636001587e-02,8.184634149074554443e-03,-8.689564466476440430e-02,-5.250424519181251526e-02,-1.142828166484832764e-01,-8.520007878541946411e-02,-2.017021551728248596e-02,3.175218030810356140e-02,2.071996964514255524e-02,2.930105477571487427e-02,-3.736719489097595215e-02,2.299254387617111206e-02,-6.577059626579284668e-02,-3.501070663332939148e-02,8.206267654895782471e-02,-5.210148636251688004e-03,8.153997361660003662e-03,5.483895167708396912e-02,-7.051546126604080200e-02,4.892344772815704346e-02,6.189293786883354187e-02,4.382550343871116638e-02,-3.054396621882915497e-02,-2.758322097361087799e-02,8.461362123489379883e-02,5.090562626719474792e-02,5.473346263170242310e-02,-4.549084976315498352e-02,3.704557940363883972e-02,2.985344454646110535e-02,-4.326801002025604248e-02,-5.008976906538009644e-03,7.339493185281753540e-02,-1.091068983078002930e-01,1.252195984125137329e-01,-1.013212949037551880e-01,9.543291479349136353e-02,1.287273913621902466e-01,1.290880143642425537e-02,-1.101584285497665405e-01,-7.256840169429779053e-02,-9.354597330093383789e-02,-5.129063501954078674e-02,-7.173077762126922607e-02,-6.339347362518310547e-02,-1.337804943323135376e-01,-5.785152688622474670e-02,-1.106879562139511108e-01,-1.782246232032775879e-01,-7.090595900081098080e-04,-1.027133986353874207e-01,6.583188474178314209e-02,-7.261805981397628784e-02,-5.457216128706932068e-02,-6.044591963291168213e-02,2.357859909534454346e-02,-8.471192419528961182e-02,-6.350480765104293823e-02,4.871993139386177063e-02,-3.531252499669790268e-03,2.859535440802574158e-02,3.663457930088043213e-02,-1.067144572734832764e-01,-4.461774230003356934e-02,6.799944490194320679e-02,-3.783148527145385742e-02,-8.693320304155349731e-02,3.178971633315086365e-02,-8.991128206253051758e-02,1.911980286240577698e-02,5.766680091619491577e-02,-8.453025668859481812e-02,-1.441544890403747559e-01,2.517880313098430634e-02,2.192451804876327515e-02,-1.879921928048133850e-02,-1.088119074702262878e-01,6.979136168956756592e-02,-1.301444619894027710e-01,-3.038351051509380341e-02,6.260231137275695801e-02,-6.882421672344207764e-03,8.782733231782913208e-03,-1.019071508198976517e-02,4.118086770176887512e-02,9.744344279170036316e-03,3.277204232290387154e-03,-4.512180760502815247e-02,7.052040100097656250e-02,1.768968813121318817e-02,-7.730677025392651558e-04,-4.303627833724021912e-02,-5.564461275935173035e-02,-6.923821568489074707e-02,1.093750521540641785e-01,-6.072910130023956299e-02,7.521444559097290039e-02,-5.096799507737159729e-02,-8.481924980878829956e-02,6.515230983495712280e-02,-2.211694791913032532e-02,6.610894203186035156e-02,6.290388852357864380e-02,-7.557265460491180420e-03,-1.208662614226341248e-01,1.040551140904426575e-01,5.567161366343498230e-02,-4.414347559213638306e-02,-1.059863902628421783e-02,-1.054358184337615967e-01,4.409167915582656860e-02,7.204527407884597778e-02,2.622656524181365967e-02,-4.232017695903778076e-02,-3.744904324412345886e-02,-1.199581399559974670e-01,-2.634953707456588745e-02,-1.518408656120300293e-01,-6.849873065948486328e-02,2.494165487587451935e-02,5.869545415043830872e-02,-6.123468279838562012e-02,1.836177520453929901e-02,6.343270093202590942e-02,9.417480230331420898e-02,7.921895384788513184e-02,9.780512191355228424e-03,-8.069326728582382202e-02,6.071417406201362610e-02,-4.563375562429428101e-02,1.322170346975326538e-01,-8.775938302278518677e-02,4.315027594566345215e-02,-1.032209843397140503e-01,-5.202342197299003601e-02,-7.235527783632278442e-02,-6.985154002904891968e-02,-1.189625561237335205e-01
1.062430515885353088e-01,5.022825300693511963e-02,-5.232929065823554993e-02,-1.049046292901039124e-01,6.992080714553594589e-03,-5.256893485784530640e-02,-6.973041594028472900e-02,-1.109950169920921326e-01,3.167731454595923424e-03,-2.158519439399242401e-02,-4.756026715040206909e-02,-1.204677275381982327e-03,-7.109644263982772827e-02,-5.954133719205856323e-02,2.854082360863685608e-02,-4.090547934174537659e-02,2.480002306401729584e-02,-3.558428585529327393e-02,-2.288145944476127625e-02,-5.627688486129045486e-03,-3.789445012807846069e-02,3.364401683211326599e-02,8.649371564388275146e-02,8.985775522887706757e-03,2.675677835941314697e-02,8.834613114595413208e-02,-1.035313457250595093e-01,-6.977427005767822266e-02,1.761289499700069427e-02,6.413263082504272461e-02,-1.462099514901638031e-02,9.537572041153907776e-03,-1.359519213438034058e-01,-3.483150899410247803e-02,4.449419677257537842e-02,-9.674288332462310791e-02,9.994789958000183105e-02,-1.547199040651321411e-01,-9.731797873973846436e-02,6.489884108304977417e-02,7.909879088401794434e-02,8.585391193628311157e-02,1.243230537511408329e-03,-5.976947490125894547e-03,-9.838674962520599365e-02,-1.442346721887588501e-02,4.276340361684560776e-03,-3.660184517502784729e-02,1.301545202732086182e-01,6.918894499540328979e-02,6.569948792457580566e-02,9.860304743051528931e-02,1.008316595107316971e-02,-1.279903203248977661e-01,-6.399310380220413208e-02,-3.002640418708324432e-02,6.649521738290786743e-02,-2.995756268501281738e-02,-1.193822026252746582e-01,-1.291336715221405029e-01,6.568876653909683228e-02,-9.609672427177429199e-02,-6.616327166557312012e-02,-2.078613825142383575e-02,1.180093642324209213e-02,-1.050661578774452209e-01,2.480654977262020111e-02,2.432980015873908997e-02,-1.068213507533073425e-01,-3.089052438735961914e-02,6.059490889310836792e-02,3.261962672695517540e-03,2.077443525195121765e-03,-9.233243763446807861e-02,6.582356244325637817e-02,4.667593911290168762e-02,-7.667717337608337402e-02,-3.960609808564186096e-02,-1.079833805561065674e-01,-1.714819855988025665e-02,1.161815319210290909e-02,-4.463601112365722656e-02,-5.257271602749824524e-02,-1.211558207869529724e-01,-3.327734395861625671e-02,3.080880083143711090e-02,2.251637354493141174e-02,-5.743005499243736267e-02,-4.780124500393867493e-02,-3.326333593577146530e-03,8.594749867916107178e-02,-9.235201776027679443e-02,-2.521743811666965485e-02,-8.625881746411323547e-03,-1.423847209662199020e-02,-9.097999334335327148e-02,-5.209861323237419128e-02,5.260730534791946411e-02,-1.184879541397094727e-01,-3.448919579386711121e-02,4.390245769172906876e-03,5.318071320652961731e-02,4.772807657718658447e-02,1.507885102182626724e-02,-7.810775190591812134e-02,-1.498865336179733276e-02,-1.919466443359851837e-02,-8.544550836086273193e-02,-6.931667029857635498e-02,3.854947164654731750e-02,-4.068051278591156006e-02,-1.197832450270652771e-01,-1.020439937710762024e-01,3.742589429020881653e-02,-1.283076852560043335e-01,-2.941716834902763367e-02,-3.223146125674247742e-02,4.530623927712440491e-02,5.653620138764381409e-02,-8.530899137258529663e-02,-6.351907737553119659e-03,-1.364045143127441406e-01,-5.776534974575042725e-02,3.372032940387725830e-02,-5.965447798371315002e-02,1.706654950976371765e-02,9.163026511669158936e-02,8.430714160203933716e-02,1.643318124115467072e-02,-3.651148453354835510e-02,4.566371440887451172e-02,-6.892461329698562622e-02,1.242886856198310852e-02,-7.597202807664871216e-02,-9.697314351797103882e-02,-8.905329555273056030e-02,2.817054651677608490e-02,1.055313795804977417e-01,-7.601331919431686401e-02,2.777148596942424774e-02,-2.044243738055229187e-02,5.454850569367408752e-02,-4.145250469446182251e-02,-5.941636115312576294e-02,-3.059129603207111359e-02,3.762822970747947693e-02,3.003020770847797394e-02,-2.808267436921596527e-02,-2.036891179159283638e-03,-1.355441361665725708e-01,-2.832158282399177551e-02,6.843690574169158936e-02,4.926195740699768066e-02,-9.772513806819915771e-02,-1.126417815685272217e-01,-3.102564252912998199e-02,-8.933302760124206543e-02,-6.382588297128677368e-02,-1.166700348258018494e-01,-1.265262365341186523e-01,2.967671118676662445e-02,-2.839687652885913849e-02,2.102452330291271210e-02,1.105812750756740570e-02,-1.495518386363983154e-01,-6.626022607088088989e-02,3.203473612666130066e-02,6.518061459064483643e-02,-1.129511967301368713e-01,-1.419842988252639771e-01,-5.300192534923553467e-02,1.093158312141895294e-02,4.921838268637657166e-02,-5.901755299419164658e-03,-5.308436448103748262e-05,8.527546306140720844e-04,-2.303375303745269775e-02,-8.975282980827614665e-05,-1.099162399768829346e-01,-1.320015937089920044e-01,-9.353203326463699341e-02,-3.624116629362106323e-02,-4.926601052284240723e-02,7.558788359165191650e-02,-5.014242231845855713e-02,2.394364774227142334e-02,5.966017022728919983e-02,-9.714008867740631104e-02,-2.389575354754924774e-02,7.149032503366470337e-02,-1.673058047890663147e-02,-6.172152608633041382e-02,-7.847346365451812744e-03,-2.068769931793212891e-02,-7.831118069589138031e-03,7.974902540445327759e-02,-3.379737585783004761e-02,-6.674088537693023682e-03,2.017811313271522522e-02,-1.046901866793632507e-01,5.689280852675437927e-02,-1.432391852140426636e-01,-9.967831522226333618e-02,-2.887805178761482239e-02,-1.938541606068611145e-02,1.334556564688682556e-02,-1.339096575975418091e-01,-7.501330971717834473e-02,-9.546306915581226349e-03,3.988150507211685181e-02,-3.797129169106483459e-02,-1.013285368680953979e-01,-6.274669617414474487e-02,-5.903900414705276489e-02,-3.626293689012527466e-02,6.875941157341003418e-02,-5.198390409350395203e-02,-1.118611767888069153e-01,-1.088432520627975464e-01,-8.896730095148086548e-02,-4.439084231853485107e-02,-8.480977267026901245e-02,-9.230174124240875244e-03,-1.236087083816528320e-01,-1.020733863115310669e-01,-5.110554397106170654e-02,-3.464302048087120056e-02,4.202954843640327454e-02,-2.521684765815734863e-02,7.189098000526428223e-02,-8.068194729276001453e-04,-1.718606799840927124e-02,7.170099765062332153e-02,9.805930405855178833e-02,-5.477636586874723434e-03,-1.007294729351997375e-01,5.506994202733039856e-02,-1.049760282039642334e-01,9.329520910978317261e-02,-1.107218861579895020e-01,9.076973795890808105e-02,-1.187756732106208801e-01,-1.628143489360809326e-01,-8.041179738938808441e-03,3.181048855185508728e-02,-5.560103431344032288e-02,8.401952683925628662e-02,-9.751154482364654541e-02,-5.068530514836311340e-02,-8.566714823246002197e-02,4.045927897095680237e-03,-5.558098107576370239e-02,2.582234144210815430e-02,-1.229821443557739258e-01,-8.059604465961456299e-02,4.989216569811105728e-03
-9.174823015928268433e-02,-7.339613884687423706e-02,6.095611304044723511e-02,-3.266301378607749939e-02,5.156210064888000488e-02,-2.888360992074012756e-02,-1.069759298115968704e-02,-1.119097024202346802e-01,-6.572593003511428833e-02,4.320580512285232544e-02,5.866654962301254272e-02,1.535891182720661163e-02,-2.060477249324321747e-02,-7.147602736949920654e-02,1.082478836178779602e-01,-2.822539396584033966e-02,-1.177399046719074249e-02,6.453574448823928833e-02,-1.081674359738826752e-02,4.001651890575885773e-03,1.654326543211936951e-02,5.711372196674346924e-02,-1.071264594793319702e-01,3.132626041769981384e-02,4.366521164774894714e-02,-7.827240973711013794e-02,8.244208991527557373e-03,-9.723771363496780396e-02,2.516269125044345856e-02,5.887941643595695496e-02,6.179972738027572632e-02,9.736950695514678955e-02,-5.167022813111543655e-03,-8.135435730218887329e-02,-7.431787252426147461e-02,9.644031524658203125e-02,3.980616107583045959e-02,1.428167801350355148e-02,-6.693266332149505615e-02,-8.853938779793679714e-04,-1.729983463883399963e-02,5.823396146297454834e-02,1.644011437892913818e-01,-8.388334512710571289e-02,-3.366148844361305237e-02,-5.172954872250556946e-02,6.557249277830123901e-02,3.884588927030563354e-02,2.147294580936431885e-01,9.190510958433151245e-02,8.157778531312942505e-02,2.979894541203975677e-02,3.089019842445850372e-02,-4.129891842603683472e-02,4.591419920325279236e-02,-5.127958580851554871e-02,-8.058796823024749756e-02,2.183503657579421997e-02,6.005892902612686157e-02,-2.711398713290691376e-02,1.308490801602602005e-02,-9.834381937980651855e-02,6.623765826225280762e-02,-9.882948547601699829e-02,2.225928381085395813e-02,-4.730409011244773865e-02,-8.910005539655685425e-02,1.357379928231239319e-02,4.368799924850463867e-02,-8.664821088314056396e-02,8.237723261117935181e-02,1.367895603179931641e-01,-1.393366008996963501e-01,-1.357076019048690796e-01,5.786262452602386475e-03,-7.361872494220733643e-02,5.370406433939933777e-02,-6.769631523638963699e-03,6.143474578857421875e-02,7.025887072086334229e-02,2.810202538967132568e-02,-9.391999244689941406e-02,-9.878530353307723999e-02,6.627204269170761108e-02,4.617884010076522827e-02,1.042815372347831726e-01,-1.677341945469379425e-02,-3.864885121583938599e-02,6.584863644093275070e-03,-2.768732234835624695e-02,9.833960793912410736e-04,-1.163892224431037903e-01,-1.392642110586166382e-01,-4.043746367096900940e-02,-7.382155954837799072e-02,9.106419235467910767e-02,-3.118815645575523376e-02,-4.249497130513191223e-02,2.769123204052448273e-02,7.053924351930618286e-02,3.681678697466850281e-02,1.272509247064590454e-01,6.064795888960361481e-03,-6.230631470680236816e-02,-6.749967485666275024e-02,1.221811398863792419e-02,-1.412553042173385620e-01,-7.001912593841552734e-02,-5.710213445127010345e-03,-1.611185371875762939e-01,-6.521717458963394165e-02,-3.781847655773162842e-02,-4.446198046207427979e-02,-1.655541509389877319e-01,-8.838558942079544067e-02,1.445023808628320694e-02,-9.829169511795043945e-02,7.038035243749618530e-02,6.989649683237075806e-02,-1.115457192063331604e-01,6.110159307718276978e-02,1.112467981874942780e-02,-4.727973416447639465e-02,6.195211317390203476e-03,-1.247684061527252197e-01,4.379802569746971130e-02,5.423556547611951828e-03,5.451483279466629028e-02,7.382722105830907822e-03,-9.983439743518829346e-02,-9.953892789781093597e-03,3.377342596650123596e-03,8.342899382114410400e-02,-4.567468911409378052e-02,2.441417984664440155e-02,-8.728298544883728027e-02,2.629921771585941315e-02,-7.380899786949157715e-02,2.457828260958194733e-02,1.072549223899841309e-01,-2.439386770129203796e-02,-4.179917648434638977e-02,-4.801505059003829956e-02,1.063561998307704926e-02,8.154579997062683105e-02,6.226757913827896118e-02,-6.180409342050552368e-02,-1.136757731437683105e-01,1.587372459471225739e-02,9.124331176280975342e-02,-4.210213571786880493e-02,-1.822908073663711548e-01,-9.740754216909408569e-02,-7.541887462139129639e-02,1.006584912538528442e-01,1.026759520173072815e-01,-8.720663934946060181e-02,6.539898365736007690e-02,-4.224196448922157288e-02,1.148936152458190918e-01,-6.349548697471618652e-02,-1.634767055511474609e-01,-7.224091887474060059e-02,3.939192369580268860e-02,-1.029542982578277588e-01,5.581570789217948914e-02,-4.077123012393712997e-04,-3.509312868118286133e-02,-8.579027652740478516e-02,-9.094012528657913208e-02,-1.598001108504831791e-03,6.010540574789047241e-02,-8.946340531110763550e-02,1.429232209920883179e-02,-6.715847551822662354e-02,1.171821802854537964e-01,3.471159189939498901e-02,2.030053548514842987e-02,7.938658446073532104e-02,-2.139632031321525574e-02,-1.356755383312702179e-02,6.951880455017089844e-02,-9.033836424350738525e-02,1.208538934588432312e-02,-2.411820180714130402e-02,-9.211424738168716431e-02,-4.217510297894477844e-02,-8.097542822360992432e-02,-7.050012797117233276e-02,6.689084321260452271e-02,-1.215142682194709778e-01,-1.057176589965820312e-01,-6.442770361900329590e-02,1.824180595576763153e-02,2.435855753719806671e-02,-5.527966469526290894e-02,-9.815970808267593384e-02,-4.140932112932205200e-02,8.519022725522518158e-03,-1.240572333335876465e-02,3.440495813265442848e-03,1.602940075099468231e-02,9.590957313776016235e-02,7.937625050544738770e-02,-7.932534813880920410e-02,5.390987917780876160e-02,-3.128908202052116394e-02,-9.196766465902328491e-02,4.113757610321044922e-02,3.807425871491432190e-02,-8.125961758196353912e-03,7.215523719787597656e-02,5.002041533589363098e-02,4.244800657033920288e-02,6.300023943185806274e-02,-9.197478741407394409e-02,4.650789499282836914e-02,-1.199157014489173889e-01,-5.872307810932397842e-03,-1.413464918732643127e-02,-1.063340753316879272e-01,-3.159800171852111816e-02,5.780686065554618835e-02,-3.894894942641258240e-02,-2.509768120944499969e-02,-3.853936912491917610e-03,-1.909945607185363770e-01,-1.127704232931137085e-01,-7.120229303836822510e-02,8.132670074701309204e-02,6.888666749000549316e-02,-6.861883401870727539e-02,1.508416980504989624e-02,-4.869875684380531311e-02,-4.465622827410697937e-02,-7.248464226722717285e-02,-3.008247166872024536e-02,2.491616271436214447e-02,-1.027635037899017334e-01,3.758532926440238953e-02,5.421296134591102600e-02,-1.472985595464706421e-01,5.669024214148521423e-02,-1.016356870532035828e-01,-5.065697804093360901e-02,1.856106705963611603e-02,5.650709941983222961e-02,3.291302546858787537e-02,-1.074578147381544113e-02,3.445865958929061890e-02,-9.998015314340591431e-02,2.699387259781360626e-02,-1.024340838193893433e-01,4.700162261724472046e-02,6.673569232225418091e-02,-1.423444896936416626e-01
-2.474100561812520027e-03,-9.880244731903076172e-02,6.690864264965057373e-02,-6.300962716341018677e-02,6.227174308151006699e-03,1.938874460756778717e-02,-7.136537134647369385e-02,5.857622250914573669e-02,-6.779555231332778931e-02,8.854524791240692139e-02,7.386712729930877686e-02,-6.634333729743957520e-02,-1.159066036343574524e-01,-3.765821456909179688e-03,-1.212645396590232849e-01,1.214883849024772644e-02,8.312124013900756836e-02,-1.036027893424034119e-01,-4.658681899309158325e-02,-1.464534364640712738e-02,4.626575857400894165e-02,-3.741553798317909241e-02,8.438237756490707397e-02,-1.002323850989341736e-01,7.488405331969261169e-03,-9.096497669816017151e-03,-2.000198327004909515e-02,4.646289721131324768e-02,-8.635356277227401733e-02,-8.099500089883804321e-02,-2.703915908932685852e-02,-1.084392741322517395e-01,-4.765921458601951599e-02,6.874950975179672241e-02,-2.178750373423099518e-02,-2.768439427018165588e-02,-5.997124314308166504e-02,-8.790355175733566284e-02,1.638071984052658081e-02,-9.121573530137538910e-03,-1.624040156602859497e-01,3.213938698172569275e-02,-4.069994762539863586e-02,7.721415907144546509e-02,-5.767577141523361206e-02,-9.277177602052688599e-02,5.196112021803855896e-02,-1.432561874389648438e-01,-4.589258506894111633e-02,2.708378061652183533e-02,-1.240754872560501099e-01,1.059504225850105286e-01,-4.583933949470520020e-02,-9.812758117914199829e-02,-6.546737253665924072e-02,2.261508628726005554e-02,1.275560352951288223e-02,-9.678847342729568481e-02,-3.321391716599464417e-02,-1.136927902698516846e-01,-1.034491285681724548e-01,-1.172921210527420044e-01,-5.513877794146537781e-02,5.116266757249832153e-02,-7.416876405477523804e-02,-1.346205025911331177e-01,-1.758585684001445770e-02,4.139568284153938293e-02,2.096285484731197357e-02,3.642042726278305054e-02,-7.305505871772766113e-02,-2.084103412926197052e-02,-1.333493832498788834e-02,-1.183831244707107544e-01,-1.003393828868865967e-01,-3.042481467127799988e-02,-7.437849789857864380e-02,4.995519667863845825e-02,-1.230348795652389526e-01,-6.496435403823852539e-02,-7.464102655649185181e-02,7.103290408849716187e-02,7.706314325332641602e-02,3.310222551226615906e-02,-1.033133268356323242e-01,-1.449872553348541260e-01,-5.447286739945411682e-02,6.662054359912872314e-02,-1.039283275604248047e-01,9.960798174142837524e-02,1.400829199701547623e-02,7.294801762327551842e-04,-1.091467812657356262e-01,-1.424044091254472733e-02,-8.135037869215011597e-02,-8.838155306875705719e-03,7.102838903665542603e-02,-2.350365370512008667e-02,-1.042057499289512634e-01,-2.576867118477821350e-02,-6.075520068407058716e-02,-1.068773213773965836e-02,-6.804560869932174683e-02,3.023920953273773193e-02,-1.218182668089866638e-01,8.231579512357711792e-02,1.711139269173145294e-02,-4.389218613505363464e-02,-2.853359468281269073e-02,9.927226603031158447e-02,-7.254852354526519775e-02,-1.272151898592710495e-02,-8.405429869890213013e-02,3.336859121918678284e-02,-5.551867187023162842e-02,-1.024085581302642822e-01,3.257721895352005959e-03,3.320202976465225220e-02,-8.389091491699218750e-02,5.268521979451179504e-02,-1.359685659408569336e-01,-6.527376174926757812e-02,2.956201508641242981e-02,-1.092530936002731323e-01,1.046905945986509323e-02,-1.312902271747589111e-01,-1.184438467025756836e-01,-3.149263560771942139e-03,5.882016941905021667e-02,-1.112154498696327209e-01,-2.271576225757598877e-02,-7.603313773870468140e-02,7.970400154590606689e-02,-9.579104930162429810e-02,7.733958307653665543e-03,6.656381487846374512e-02,2.338341623544692993e-02,-2.977027930319309235e-02,-7.436401676386594772e-03,-5.576921161264181137e-03,-1.004771664738655090e-01,-1.406901329755783081e-02,-3.414655104279518127e-02,-1.322261840105056763e-01,-4.024301096796989441e-02,-1.511531472206115723e-01,5.094494670629501343e-02,-1.301777809858322144e-01,4.778714478015899658e-02,4.298707470297813416e-02,6.728113442659378052e-02,-1.838850975036621094e-01,-3.927558660507202148e-02,-4.584025219082832336e-02,4.409747198224067688e-02,-7.611637562513351440e-02,-1.312217116355895996e-02,-1.104545593261718750e-01,8.446002006530761719e-02,-9.678241610527038574e-02,7.718548178672790527e-02,6.145108025521039963e-03,6.063740700483322144e-02,-4.774539917707443237e-02,7.049548625946044922e-02,6.850499659776687622e-02,2.305139787495136261e-02,7.403894327580928802e-03,-1.434970460832118988e-02,-6.169152632355690002e-02,-1.175867766141891479e-01,3.883157297968864441e-02,6.929375976324081421e-02,1.426481306552886963e-01,6.627273559570312500e-02,-7.024528086185455322e-02,8.639580570161342621e-03,7.545761018991470337e-02,4.007849469780921936e-02,-4.834051430225372314e-02,-2.996917255222797394e-02,-1.143079623579978943e-01,8.003722876310348511e-02,-1.106958743184804916e-02,2.014096453785896301e-02,-4.609847068786621094e-02,1.227581575512886047e-01,-5.534769967198371887e-02,-2.103224955499172211e-02,-1.060224100947380066e-01,-1.395246982574462891e-01,-8.297199010848999023e-02,1.715505868196487427e-02,3.128938749432563782e-02,-1.711477711796760559e-02,1.004558131098747253e-01,3.015466965734958649e-02,6.038018502295017242e-03,9.051511436700820923e-02,4.058981686830520630e-02,-1.293230056762695312e-01,3.998281061649322510e-02,-2.763687260448932648e-02,6.071222200989723206e-02,-2.299916371703147888e-02,-3.810251131653785706e-02,-6.725777685642242432e-02,-2.213020063936710358e-02,-7.733030617237091064e-02,-7.709688693284988403e-02,-1.172942854464054108e-02,-1.080630123615264893e-01,-2.285830676555633545e-03,1.032973676919937134e-01,-3.730363771319389343e-02,-6.324201077222824097e-02,-5.685847997665405273e-02,-1.012566834688186646e-01,-7.427020370960235596e-02,1.007634215056896210e-02,-9.090137481689453125e-02,-8.292473852634429932e-02,6.244254112243652344e-02,1.610617637634277344e-01,5.742345750331878662e-02,9.245686233043670654e-03,5.811739340424537659e-02,6.724566966295242310e-02,3.407243639230728149e-02,5.275079980492591858e-02,-5.239326879382133484e-02,-1.367590874433517456e-01,9.254514425992965698e-02,-5.976978316903114319e-02,6.376932375133037567e-03,-1.588525772094726562e-01,1.542264968156814575e-02,6.432382762432098389e-02,-7.069692760705947876e-02,4.216255620121955872e-02,-3.364465385675430298e-02,-3.386836871504783630e-02,4.338308423757553101e-02,-6.733838003128767014e-03,-4.065751656889915466e-02,8.540636627003550529e-04,8.964615873992443085e-03,5.421752855181694031e-02,1.300129890441894531e-01,-8.892674744129180908e-02,-1.287361234426498413e-02,8.970778435468673706e-02,-1.558489501476287842e-01,-8.857417106628417969e-02,4.981292411684989929e-02,-1.201084628701210022e-01
7.151857018470764160e-02,-4.001766443252563477e-02,-3.348879888653755188e-02,4.384258762001991272e-02,3.117050044238567352e-02,-4.504552111029624939e-02,-7.931162253953516483e-04,-7.799750566482543945e-02,4.273148719221353531e-03,-2.406084723770618439e-02,-4.172087088227272034e-02,3.480899147689342499e-03,6.204154342412948608e-02,-8.805470168590545654e-02,-9.135747700929641724e-02,-9.774278849363327026e-02,5.562771111726760864e-02,-3.538176789879798889e-02,9.732484817504882812e-02,2.394910901784896851e-02,2.211109967902302742e-03,8.652751892805099487e-02,-8.059138432145118713e-03,-5.267227068543434143e-02,-7.031169533729553223e-02,-2.925383672118186951e-02,-1.146552711725234985e-01,6.035818904638290405e-02,-1.164757832884788513e-01,3.521790355443954468e-02,-9.196587651968002319e-02,3.937382996082305908e-02,6.861127912998199463e-02,9.457042813301086426e-02,-1.173586100339889526e-01,-4.582004621624946594e-02,-5.615226551890373230e-02,1.574655994772911072e-03,-1.305496245622634888e-01,1.245094835758209229e-02,4.545723646879196167e-02,-5.284169223159551620e-03,7.649344205856323242e-02,-4.881881549954414368e-02,-4.398285970091819763e-02,2.710799872875213623e-02,6.709219887852668762e-03,-1.534878555685281754e-02,1.267419606447219849e-01,3.376539424061775208e-02,-5.757703259587287903e-02,4.133095219731330872e-02,-4.054873436689376831e-02,2.674577198922634125e-02,-8.119942992925643921e-02,-3.780170902609825134e-02,-5.072023347020149231e-02,2.963283658027648926e-02,4.030001163482666016e-02,4.627748421626165509e-05,-3.725685179233551025e-02,6.640202552080154419e-02,-6.498388946056365967e-02,1.485729962587356567e-02,-1.818181131966412067e-03,3.067694418132305145e-02,1.961951889097690582e-02,-5.010462366044521332e-03,5.192161351442337036e-02,8.122727274894714355e-02,-1.046309471130371094e-01,-1.307537853717803955e-01,1.557075604796409607e-02,1.011262089014053345e-02,6.151365861296653748e-02,-5.491803213953971863e-02,-1.293507963418960571e-01,6.421729922294616699e-02,2.349877497181296349e-03,8.793202042579650879e-02,-1.231982782483100891e-01,-1.966639980673789978e-02,1.151945162564516068e-02,-5.471649765968322754e-02,-4.833788424730300903e-02,-1.027355790138244629e-01,2.207971364259719849e-02,6.059199571609497070e-02,6.071612983942031860e-02,9.832080453634262085e-02,-7.933322340250015259e-02,7.311610132455825806e-02,-6.856472045183181763e-02,-2.663769200444221497e-02,-7.807049155235290527e-02,2.278230339288711548e-02,-3.261073306202888489e-02,-2.566307038068771362e-02,-1.560755372047424316e-01,-9.138193726539611816e-02,3.145727887749671936e-02,-7.504206150770187378e-02,-3.915730863809585571e-02,-1.481979042291641235e-01,-7.362787425518035889e-02,-5.816239491105079651e-02,-1.174391359090805054e-01,-3.265178576111793518e-02,-9.227029234170913696e-02,-4.169028997421264648e-02,-1.471452713012695312e-01,6.436883471906185150e-03,7.326608151197433472e-02,5.871370434761047363e-03,-1.217431053519248962e-01,-1.222065463662147522e-01,-1.114824861288070679e-01,-4.198406264185905457e-02,-5.527715012431144714e-02,2.225009538233280182e-02,1.133826822042465210e-01,-1.221534907817840576e-01,-2.149621769785881042e-02,2.148762531578540802e-02,-1.030609011650085449e-01,-1.154289394617080688e-01,-1.170083284378051758e-01,-9.421286731958389282e-02,-2.444051578640937805e-02,-9.292353689670562744e-02,2.036925777792930603e-02,2.726516686379909515e-02,-2.292694896459579468e-02,8.919904939830303192e-03,-3.174816817045211792e-02,5.698437988758087158e-02,2.428250573575496674e-02,1.356498748064041138e-01,8.645547926425933838e-02,-1.837780512869358063e-02,7.639523595571517944e-02,1.380079519003629684e-02,-1.329810079187154770e-02,8.991689980030059814e-02,-1.225972622632980347e-01,-1.513826549053192139e-01,1.717364788055419922e-02,-2.797428332269191742e-02,-1.251179575920104980e-01,-2.371253632009029388e-02,-9.019045531749725342e-02,-9.203119407175108790e-05,4.645162820816040039e-02,-9.491578489542007446e-02,-1.277086976915597916e-02,-1.143940165638923645e-01,-1.010520383715629578e-01,6.708234548568725586e-02,-8.000351488590240479e-02,3.993496298789978027e-02,-3.204699978232383728e-02,3.601083159446716309e-02,3.634849563241004944e-02,5.352026596665382385e-02,-2.463502623140811920e-02,-5.719705671072006226e-02,4.808780550956726074e-02,1.206153444945812225e-02,-1.051883101463317871e-01,-3.486133739352226257e-02,-4.506730288267135620e-02,-5.802898108959197998e-02,-8.435687422752380371e-02,-3.095544502139091492e-02,6.496875733137130737e-02,-7.175552845001220703e-02,-7.504573464393615723e-02,6.863656640052795410e-02,1.979544945061206818e-02,-1.256847381591796875e-01,-3.613315895199775696e-02,-5.974229052662849426e-02,5.577619746327400208e-02,5.235764384269714355e-02,2.830372890457510948e-03,-6.828174740076065063e-02,-1.632886938750743866e-02,-4.884655773639678955e-02,-1.244210754521191120e-03,-5.296380072832107544e-02,1.047846451401710510e-01,1.262651663273572922e-02,7.019182294607162476e-02,-5.868342518806457520e-02,-7.787793874740600586e-02,-1.960903219878673553e-02,8.138418942689895630e-02,-2.278987132012844086e-02,2.352321334183216095e-02,9.006000310182571411e-02,-1.035577282309532166e-01,-1.177682913839817047e-02,-1.014630720019340515e-01,4.522127658128738403e-02,-3.798371925950050354e-02,3.797783330082893372e-02,-3.089422546327114105e-02,-2.854026854038238525e-02,-3.120639733970165253e-02,4.382336884737014771e-02,-1.090827807784080505e-01,-6.859207898378372192e-02,9.552829712629318237e-02,7.785398513078689575e-02,-7.419443875551223755e-02,9.050808101892471313e-02,-7.326249033212661743e-02,-1.151223480701446533e-01,-6.558434665203094482e-02,-8.723221719264984131e-02,-7.062638550996780396e-02,1.371287927031517029e-02,4.996851086616516113e-03,-2.552376314997673035e-02,-9.499961137771606445e-02,7.448159158229827881e-02,-2.980115124955773354e-03,-9.289439022541046143e-02,-9.953288733959197998e-02,-1.287006288766860962e-01,6.272714585065841675e-02,-7.039926946163177490e-02,-1.991344057023525238e-02,-1.580331288278102875e-02,-1.149951200932264328e-02,-1.098334640264511108e-01,2.292092517018318176e-02,2.368133142590522766e-02,6.445594877004623413e-02,-9.956418722867965698e-02,-8.359491080045700073e-02,5.754960700869560242e-02,-8.707617968320846558e-02,-3.020628914237022400e-02,-9.307852014899253845e-03,3.050656244158744812e-02,5.124555900692939758e-02,7.070673257112503052e-02,-1.355803608894348145e-01,2.673737518489360809e-02,-1.279714256525039673e-01,-4.580692574381828308e-02,-1.175044625997543335e-01,2.960880659520626068e-02,-1.219702512025833130e-01,1.361365523189306259e-02
-1.547052562236785889e-01,5.869958549737930298e-02,-7.817392796277999878e-02,-1.529257651418447495e-02,-3.531961888074874878e-02,-1.124350503087043762e-01,-3.900573402643203735e-02,-1.726338267326354980e-01,2.013034187257289886e-02,6.456846743822097778e-02,-8.089173585176467896e-02,-1.209885552525520325e-01,-4.284819588065147400e-03,-7.000331580638885498e-02,1.216204687952995300e-01,-5.096436664462089539e-02,8.763728290796279907e-02,-4.060942679643630981e-02,4.879669845104217529e-02,1.235941657796502113e-03,-2.827676571905612946e-02,1.855077408254146576e-02,-1.333558186888694763e-02,2.121256850659847260e-02,7.070580963045358658e-03,1.190457306802272797e-02,5.191367119550704956e-02,-4.860937595367431641e-02,3.003536723554134369e-02,-7.676652818918228149e-02,-6.475895643234252930e-04,8.866736292839050293e-02,1.085984893143177032e-02,4.909115284681320190e-02,4.624360427260398865e-02,3.407125174999237061e-02,-1.258766353130340576e-01,-8.996897935867309570e-02,-3.831718116998672485e-02,-3.838364034891128540e-02,-1.297952979803085327e-01,-4.426106438040733337e-02,8.134066313505172729e-02,-4.212057217955589294e-02,4.026561602950096130e-02,-1.167089641094207764e-01,2.678885310888290405e-02,-3.332763910293579102e-02,1.245085597038269043e-01,2.518394775688648224e-02,9.182737767696380615e-02,-9.321752935647964478e-02,3.411052003502845764e-02,5.006451532244682312e-02,-1.095942556858062744e-01,-8.267036080360412598e-02,-7.521497458219528198e-02,-8.460532128810882568e-02,8.250700682401657104e-02,7.035801187157630920e-03,8.708043396472930908e-02,-5.905846133828163147e-03,-1.415726840496063232e-01,-3.582768142223358154e-02,1.803458854556083679e-02,-9.366290271282196045e-02,-9.445165842771530151e-02,5.355483666062355042e-02,-4.222006723284721375e-02,-4.188911523669958115e-03,-1.101152300834655762e-01,-6.538564711809158325e-02,6.898249685764312744e-02,4.488822538405656815e-03,-2.920685522258281708e-02,-4.108288558200001717e-04,6.157270073890686035e-02,5.133162438869476318e-02,1.190505996346473694e-01,3.783896937966346741e-02,-9.881401807069778442e-02,-2.678589895367622375e-02,-8.746871352195739746e-02,-8.627507090568542480e-02,-1.142397820949554443e-01,-5.252724140882492065e-02,1.949660480022430420e-02,-1.164504215121269226e-01,2.080966159701347351e-02,-1.142776235938072205e-01,-3.988835215568542480e-02,-6.888789683580398560e-02,-1.064544618129730225e-01,4.161228612065315247e-02,2.033541537821292877e-02,-9.489113837480545044e-02,-5.919539555907249451e-02,2.536372095346450806e-02,6.240975577384233475e-03,-2.254569157958030701e-02,3.937366418540477753e-03,1.399222612380981445e-01,6.467678584158420563e-03,-1.444489210844039917e-01,4.380618035793304443e-02,-1.234859824180603027e-01,4.159674793481826782e-02,-2.523316629230976105e-02,-1.118621602654457092e-01,2.147661149501800537e-02,-2.209977060556411743e-02,-6.328918784856796265e-02,-1.052406057715415955e-01,-5.811499804258346558e-02,-4.576741904020309448e-02,-8.039525896310806274e-02,3.888085857033729553e-02,-7.629108428955078125e-02,-5.436365306377410889e-02,-1.654969714581966400e-02,3.308464586734771729e-02,7.032593339681625366e-02,3.504837676882743835e-02,2.898409403860569000e-02,-1.259857416152954102e-01,-3.394360467791557312e-02,5.333649367094039917e-02,9.916155785322189331e-02,-1.906618010252714157e-03,6.812901049852371216e-02,-9.434638917446136475e-02,1.060485281050205231e-02,-1.411556303501129150e-01,-1.171026006340980530e-01,-8.734878152608871460e-02,-6.896479427814483643e-02,-6.113771349191665649e-03,-8.286520093679428101e-02,-5.161960422992706299e-02,-1.047654896974563599e-01,-6.416644901037216187e-02,-8.498126640915870667e-03,-9.239409863948822021e-02,4.548276960849761963e-02,-2.934427931904792786e-02,-5.940866842865943909e-02,3.775417432188987732e-02,5.345818400382995605e-02,-4.165796935558319092e-02,-1.043017432093620300e-01,2.305427007377147675e-02,-3.363389670848846436e-01,6.211170181632041931e-02,-8.346382528543472290e-02,-8.123496919870376587e-02,-8.235310018062591553e-02,9.245415776968002319e-02,1.931898854672908783e-02,-3.484260290861129761e-02,1.323237121105194092e-01,-2.941775321960449219e-02,-4.385473206639289856e-02,-8.464151178486645222e-04,-3.869001567363739014e-02,-1.070730984210968018e-01,-1.206456050276756287e-01,-1.202262490987777710e-01,4.623420909047126770e-02,1.502378135919570923e-01,1.552135962992906570e-02,2.494608424603939056e-02,2.051881514489650726e-02,8.033516816794872284e-03,-6.629342585802078247e-02,7.598450034856796265e-02,-2.555138198658823967e-03,-2.108807116746902466e-02,-2.377938665449619293e-02,-8.445696532726287842e-02,6.433964520692825317e-02,-9.590448439121246338e-02,7.117442786693572998e-02,1.862464845180511475e-02,5.736926943063735962e-02,-9.402399510145187378e-02,5.834908410906791687e-02,6.244988739490509033e-02,4.651234298944473267e-02,-2.870863862335681915e-02,4.061936587095260620e-02,-1.251176446676254272e-01,-7.832739502191543579e-02,9.995434433221817017e-02,5.801163613796234131e-02,-1.589972972869873047e-01,-9.961774945259094238e-02,-5.156958848237991333e-02,1.829033903777599335e-02,1.307655498385429382e-02,-2.291538193821907043e-02,8.552611619234085083e-02,-2.779462840408086777e-03,8.480940759181976318e-02,8.575809746980667114e-02,-1.131092011928558350e-02,-1.303111612796783447e-01,2.011385001242160797e-02,7.591752707958221436e-02,-1.016158834099769592e-01,-9.163705259561538696e-02,5.063062533736228943e-02,8.030047267675399780e-02,4.639992862939834595e-02,5.699767917394638062e-02,-4.438529908657073975e-02,1.722563989460468292e-02,8.536183834075927734e-02,-4.239380732178688049e-02,-4.667371138930320740e-02,1.061168126761913300e-02,-6.248682364821434021e-02,4.011556133627891541e-02,-1.137315258383750916e-01,-1.301046274602413177e-02,-5.864624306559562683e-02,-1.009492576122283936e-01,-5.771900713443756104e-02,-4.941301420331001282e-02,-1.290329694747924805e-01,-3.748319670557975769e-02,-7.531959563493728638e-02,4.463071748614311218e-02,1.433250028640031815e-03,1.285046786069869995e-01,-3.904610499739646912e-02,-2.885313518345355988e-02,3.525679185986518860e-02,-2.648123167455196381e-02,-5.537684634327888489e-02,-7.477712631225585938e-02,6.972581148147583008e-02,-1.266392618417739868e-01,-2.729987725615501404e-02,3.060199134051799774e-02,4.625140503048896790e-02,-8.432579785585403442e-02,-5.358895659446716309e-02,2.158159762620925903e-02,8.476114273071289062e-02,7.516046613454818726e-02,-2.015535905957221985e-02,6.402950733900070190e-02,-7.254901528358459473e-02,4.249350354075431824e-02,6.242053210735321045e-02,-5.506988987326622009e-02
-5.528178811073303223e-02,-5.653123557567596436e-02,2.969264611601829529e-02,-1.075112372636795044e-01,-5.798310041427612305e-02,-9.138285368680953979e-02,8.990450203418731689e-02,-7.568044960498809814e-02,-4.006975889205932617e-02,9.964385628700256348e-02,4.020367562770843506e-02,5.028771609067916870e-02,-9.421379305422306061e-03,-6.742729991674423218e-02,-1.412286073900759220e-03,-4.209597781300544739e-02,-9.884370118379592896e-02,2.421854622662067413e-02,4.373929277062416077e-02,8.346212655305862427e-02,2.464645775035023689e-03,5.400769785046577454e-02,7.164204865694046021e-02,-5.406273156404495239e-02,8.230806328356266022e-03,7.480832189321517944e-02,-7.955339550971984863e-02,3.774890676140785217e-02,-8.435847610235214233e-02,5.603777244687080383e-02,1.900470629334449768e-02,-7.357848226092755795e-04,-6.394334137439727783e-02,5.632175877690315247e-02,-9.103388339281082153e-02,-7.288829237222671509e-02,-1.124968528747558594e-01,-8.107762038707733154e-02,7.040406763553619385e-02,-1.822808757424354553e-02,-1.364242844283580780e-02,8.362641930580139160e-02,1.683866605162620544e-02,6.412250548601150513e-02,6.920397281646728516e-02,-5.862924084067344666e-02,4.545369371771812439e-02,-9.310519695281982422e-02,-1.160285174846649170e-01,-8.766160160303115845e-02,-1.058069691061973572e-01,-1.045577302575111389e-01,8.760947734117507935e-03,-1.232576072216033936e-01,-5.505680292844772339e-02,-5.263524129986763000e-02,6.306781619787216187e-02,-1.181257143616676331e-01,6.787673383951187134e-02,-1.201330870389938354e-01,-1.339997202157974243e-01,6.229310110211372375e-02,9.614948928356170654e-02,8.012544363737106323e-02,-2.821945957839488983e-02,-1.117956936359405518e-01,-2.429035119712352753e-02,8.354328572750091553e-02,-4.496989771723747253e-02,2.062352746725082397e-02,1.384980231523513794e-02,-2.261321805417537689e-02,-8.240671828389167786e-03,-4.619198665022850037e-02,-4.290775582194328308e-02,9.276061505079269409e-02,6.477894634008407593e-02,-2.956759184598922729e-02,-8.280554413795471191e-02,-2.493664063513278961e-02,-1.623039692640304565e-02,4.140764102339744568e-02,-2.921299822628498077e-02,1.690444163978099823e-02,-8.430775254964828491e-02,-1.508383005857467651e-01,-3.371889889240264893e-02,-3.907610848546028137e-02,7.664771378040313721e-02,-6.777202337980270386e-02,-3.482990711927413940e-02,-7.121344655752182007e-02,3.684854507446289062e-02,3.902075439691543579e-02,7.418020069599151611e-02,1.352915726602077484e-02,3.732650727033615112e-02,6.977643072605133057e-02,9.369343519210815430e-02,-1.163199916481971741e-01,2.000801265239715576e-02,7.373985648155212402e-02,-7.570448517799377441e-02,-5.058004707098007202e-02,-9.829433262348175049e-02,-9.997083246707916260e-02,-3.944003954529762268e-02,2.987920120358467102e-02,-9.815614670515060425e-02,-1.223807632923126221e-01,-3.457664325833320618e-02,3.675357624888420105e-02,-1.257379353046417236e-01,7.696275133639574051e-03,-5.760050565004348755e-02,-8.942166715860366821e-02,9.058997780084609985e-02,1.196176558732986450e-02,-2.082142606377601624e-02,6.543015688657760620e-02,-3.258236870169639587e-02,-6.544825434684753418e-02,1.213292498141527176e-02,-5.378610268235206604e-02,3.870287910103797913e-02,-5.319747142493724823e-03,-6.296645104885101318e-02,4.148048534989356995e-02,-1.961018890142440796e-02,-7.193048298358917236e-02,-1.550377812236547470e-02,-5.784239619970321655e-02,7.261814922094345093e-02,-9.346555918455123901e-02,-7.579033263027667999e-03,-9.580631554126739502e-02,9.836901910603046417e-03,-2.319841273128986359e-02,-8.733288198709487915e-02,4.226683522574603558e-04,-2.720534568652510643e-03,-2.925410168245434761e-03,5.472878366708755493e-02,2.589842304587364197e-02,-1.328120231628417969e-01,-1.466966569423675537e-01,-1.699708402156829834e-02,-1.286488324403762817e-01,-2.064933441579341888e-02,2.260344848036766052e-02,-8.291442692279815674e-02,-1.161247044801712036e-01,6.270729470998048782e-03,2.155221998691558838e-02,-1.068709343671798706e-01,-3.200433638994581997e-05,-3.770932555198669434e-02,8.479718118906021118e-02,6.084126420319080353e-03,-5.709286779165267944e-03,-1.184537261724472046e-01,2.789774909615516663e-02,8.637567609548568726e-02,-1.229134574532508850e-02,-9.811354428529739380e-02,-3.843788802623748779e-02,-7.711990922689437866e-02,-1.182541623711585999e-01,-9.480431675910949707e-02,3.538394346833229065e-02,-1.388938575983047485e-01,5.375254526734352112e-02,4.109374806284904480e-02,9.269464761018753052e-02,-1.982081681489944458e-02,6.096691638231277466e-02,1.116701215505599976e-02,1.059280559420585632e-01,3.268394246697425842e-02,-1.072513312101364136e-02,5.413416773080825806e-02,-1.602217368781566620e-02,1.878320239484310150e-02,-1.149437129497528076e-01,-1.115697696805000305e-01,-5.037729069590568542e-02,8.317868411540985107e-02,-5.834462121129035950e-03,5.945348367094993591e-02,6.969492882490158081e-02,-7.149172574281692505e-02,-1.012955680489540100e-01,-2.756392955780029297e-02,-3.283327072858810425e-02,7.262037694454193115e-02,-7.205358147621154785e-02,-9.184288233518600464e-02,-6.870088726282119751e-02,-9.261221438646316528e-02,-3.894793987274169922e-02,5.109214410185813904e-02,2.686269395053386688e-02,-6.365243345499038696e-02,1.696610078215599060e-02,6.703352928161621094e-02,4.711617901921272278e-02,8.551828563213348389e-02,-1.371563784778118134e-02,9.023061394691467285e-02,-1.181257292628288269e-01,-5.519050359725952148e-02,7.685177028179168701e-02,-3.204536437988281250e-02,-1.777824200689792633e-02,-5.930548906326293945e-02,-9.482095949351787567e-03,9.838494658470153809e-02,-1.268182098865509033e-01,-7.660441100597381592e-02,1.113144010305404663e-01,-1.134870052337646484e-01,-4.845054447650909424e-02,8.495344966650009155e-02,2.288261428475379944e-02,4.804285615682601929e-02,7.898013293743133545e-02,6.753277033567428589e-02,-9.361745417118072510e-02,-7.172726094722747803e-02,-4.430374875664710999e-02,1.041727606207132339e-02,-1.055695563554763794e-01,-1.354888379573822021e-01,5.841948091983795166e-02,8.632249385118484497e-02,-3.605482727289199829e-02,-4.022880643606185913e-02,-5.345830321311950684e-02,-1.305670142173767090e-01,-1.540880370885133743e-02,6.526184082031250000e-02,-1.003092899918556213e-01,1.171137765049934387e-01,1.634743995964527130e-02,-8.567788451910018921e-02,-1.181457340717315674e-01,-5.685164034366607666e-02,-5.096548423171043396e-02,9.233155101537704468e-02,-4.467409476637840271e-02,8.532569557428359985e-02,7.647638767957687378e-02,-8.316245675086975098e-02,-6.754384189844131470e-02,-5.547767505049705505e-02,1.977871730923652649e-02
-9.309007227420806885e-02,-4.078425839543342590e-02,-5.046437680721282959e-02,7.336540520191192627e-02,-1.069522947072982788e-01,-1.292431503534317017e-01,8.149311691522598267e-02,3.094711154699325562e-02,8.588613010942935944e-03,4.551213234663009644e-02,-3.517632558941841125e-02,-1.040937453508377075e-01,-7.777082175016403198e-02,-2.379133552312850952e-02,-5.286172498017549515e-03,-1.041751131415367126e-01,-2.559134177863597870e-02,-6.923214346170425415e-02,-8.162624388933181763e-02,-1.273986548185348511e-01,-8.420800417661666870e-02,2.139700390398502350e-02,-8.410413563251495361e-02,1.332854619249701500e-03,-4.222945496439933777e-02,-4.591068625450134277e-02,-3.724748967215418816e-03,2.816670015454292297e-02,-7.743902504444122314e-02,1.263287477195262909e-02,-9.000352770090103149e-02,1.362007558345794678e-01,-9.615581482648849487e-03,7.239947468042373657e-02,4.305445030331611633e-02,-5.018762126564979553e-02,1.086544319987297058e-01,-1.200560182332992554e-01,-1.211473420262336731e-01,4.939587786793708801e-02,-4.931797459721565247e-02,-1.279207319021224976e-01,-2.310290932655334473e-02,-3.407328622415661812e-03,3.244564170017838478e-03,8.656484074890613556e-03,6.022726744413375854e-02,5.943893268704414368e-02,9.295220673084259033e-02,-1.237330064177513123e-01,8.628613501787185669e-02,-1.225622296333312988e-01,-1.865227241069078445e-03,8.923581987619400024e-02,9.060672484338283539e-03,-6.123193539679050446e-03,-5.858695507049560547e-02,-1.405441313982009888e-01,-5.922504141926765442e-02,3.567024692893028259e-02,2.001248672604560852e-02,6.293786689639091492e-03,-7.937277108430862427e-02,-5.997902527451515198e-02,5.289264023303985596e-03,-1.703861169517040253e-02,-1.453527715057134628e-02,-8.806785941123962402e-02,-6.526426970958709717e-02,-1.166905909776687622e-01,2.975862473249435425e-02,-1.519577950239181519e-01,7.258187234401702881e-02,-1.870256150141358376e-03,-1.472117453813552856e-01,-4.472675174474716187e-02,-1.338793635368347168e-01,-1.911081559956073761e-02,-9.405014663934707642e-02,-6.451602280139923096e-02,7.905910164117813110e-02,-1.438441313803195953e-02,-1.002807244658470154e-01,-9.575977921485900879e-02,1.048256233334541321e-01,3.525232151150703430e-02,-7.665514945983886719e-02,-1.238387748599052429e-01,4.466719552874565125e-02,-4.749534651637077332e-02,5.898666009306907654e-02,4.823597520589828491e-02,-1.309377849102020264e-01,-1.617722772061824799e-02,9.051796793937683105e-02,1.973198261111974716e-03,1.899033412337303162e-02,-1.418718695640563965e-01,-4.374936223030090332e-02,2.316240407526493073e-02,8.036000281572341919e-02,6.636720150709152222e-02,-4.126446694135665894e-02,-5.211267247796058655e-02,7.430958002805709839e-02,2.093739062547683716e-02,-7.362633198499679565e-02,-1.249531060457229614e-01,-1.161538586020469666e-01,-1.250365823507308960e-01,-8.043313771486282349e-02,4.271160811185836792e-02,-1.123801767826080322e-01,-1.689068675041198730e-01,-3.392096981406211853e-02,-2.992583811283111572e-02,-4.324365779757499695e-02,3.713524714112281799e-02,6.399318575859069824e-02,4.509327560663223267e-02,7.840987294912338257e-02,-4.723316803574562073e-02,-1.137105077505111694e-01,-4.592082276940345764e-02,-1.902441307902336121e-02,8.720626123249530792e-03,3.235837072134017944e-02,-7.879636436700820923e-02,-2.441352047026157379e-02,5.489780753850936890e-02,-3.714689984917640686e-02,-1.647078990936279297e-02,-6.746388226747512817e-02,1.414787955582141876e-02,-1.153118461370468140e-01,-9.055814146995544434e-02,-8.438475430011749268e-02,-1.942292787134647369e-02,9.636694937944412231e-02,-4.420638084411621094e-02,-9.461147338151931763e-02,5.086410790681838989e-02,3.818008676171302795e-02,2.617220021784305573e-02,-6.872709840536117554e-02,-1.378040015697479248e-01,-2.723783627152442932e-02,8.236149325966835022e-03,8.465853333473205566e-02,3.255913779139518738e-02,-1.175511255860328674e-01,-1.206837147474288940e-01,-6.572700291872024536e-02,-9.058030694723129272e-02,4.852499067783355713e-02,9.541850537061691284e-02,7.680012285709381104e-02,1.282142009586095810e-02,-6.764303427189588547e-03,-1.771645806729793549e-02,-7.555585354566574097e-02,6.707043200731277466e-02,-7.097182422876358032e-02,-1.055960133671760559e-01,-4.307711869478225708e-02,-7.036901265382766724e-02,9.836864471435546875e-02,6.374158710241317749e-02,3.395020961761474609e-02,-1.184949185699224472e-03,-7.256609946489334106e-02,5.841078236699104309e-03,4.142822325229644775e-02,-9.928853809833526611e-02,-3.890497609972953796e-02,-1.078324019908905029e-01,-1.106751114130020142e-01,-1.577285528182983398e-01,-6.184727326035499573e-02,-1.531642023473978043e-02,-1.412892043590545654e-01,2.392666786909103394e-02,-1.137697994709014893e-01,6.678546220064163208e-02,-5.155772343277931213e-02,4.866306111216545105e-02,-1.784197241067886353e-02,4.696086049079895020e-02,-1.146400719881057739e-01,-1.453012228012084961e-01,-8.002422749996185303e-02,4.636694863438606262e-02,-3.860314190387725830e-02,-9.069114923477172852e-02,9.056828171014785767e-02,8.319220691919326782e-02,-1.028000265359878540e-01,6.522816419601440430e-02,5.990557745099067688e-02,4.362309351563453674e-02,-1.153669785708189011e-02,-1.439197957515716553e-01,-1.764380931854248047e-02,1.847573742270469666e-02,-7.931667380034923553e-03,-6.516878306865692139e-02,5.092604458332061768e-02,-7.294448465108871460e-02,-2.114140801131725311e-02,-1.690717786550521851e-02,7.759744673967361450e-02,-1.108392328023910522e-01,6.615447998046875000e-02,-1.371821574866771698e-02,-9.761358797550201416e-02,1.019109860062599182e-01,1.637983694672584534e-02,-1.246323660016059875e-01,-3.791031613945960999e-02,2.056089788675308228e-02,6.998594105243682861e-02,-8.508418686687946320e-03,-5.914476141333580017e-02,-7.200046628713607788e-02,-8.554158359766006470e-02,8.930591866374015808e-03,-1.560349762439727783e-01,5.756430327892303467e-02,-7.708355784416198730e-02,2.512844838201999664e-02,-3.058821195736527443e-03,-7.546067237854003906e-02,2.687197551131248474e-02,8.238528668880462646e-02,6.250301003456115723e-02,-8.509796112775802612e-02,1.579815894365310669e-02,-8.334428817033767700e-02,2.097480371594429016e-02,-9.521054476499557495e-02,-3.780610859394073486e-02,-9.328810870647430420e-02,-7.658886909484863281e-02,1.037364080548286438e-02,-1.180725619196891785e-01,4.401121288537979126e-02,1.090378612279891968e-01,-1.858644932508468628e-02,-8.971326798200607300e-02,-6.393474340438842773e-02,-1.001345440745353699e-01,4.798041656613349915e-02,-7.416347414255142212e-02,-3.124188166111707687e-03,6.186070293188095093e-02,-2.615488879382610321e-02
1.378878951072692871e-02,1.544743217527866364e-02,1.160861924290657043e-01,3.066757880151271820e-02,4.336503520607948303e-02,1.775012724101543427e-02,-1.205325871706008911e-01,5.114449188113212585e-03,-6.197752431035041809e-02,-7.393018901348114014e-02,-8.509015291929244995e-02,-1.897637918591499329e-02,-7.652678340673446655e-02,-6.614911556243896484e-02,-1.073861611075699329e-03,-4.772347398102283478e-03,-1.062853038311004639e-01,2.014818973839282990e-02,-8.492314070463180542e-02,5.899351462721824646e-02,-3.362513706088066101e-02,5.930190533399581909e-02,-1.920347474515438080e-02,6.162769347429275513e-02,-4.250554367899894714e-02,5.626935511827468872e-02,8.739571273326873779e-02,-9.217201918363571167e-02,-1.076088994741439819e-01,-1.317864935845136642e-02,-7.584021985530853271e-02,-3.412302758079022169e-04,-3.521488234400749207e-02,1.024076938629150391e-01,2.112772315740585327e-03,-4.327189177274703979e-02,-3.639939427375793457e-02,8.461237885057926178e-03,-3.823138400912284851e-02,7.843728363513946533e-02,-1.106464117765426636e-01,-1.529411226511001587e-01,-3.171491622924804688e-02,-4.239554703235626221e-02,5.004639551043510437e-02,-8.402717113494873047e-02,1.190939731895923615e-02,1.447047758847475052e-02,5.847610533237457275e-02,-9.438141435384750366e-02,-3.196308389306068420e-02,-7.481359690427780151e-02,-1.103951185941696167e-01,-1.342257261276245117e-01,-1.143989413976669312e-01,6.917528808116912842e-02,1.171472854912281036e-02,-1.712663657963275909e-02,3.538768738508224487e-02,-2.669399417936801910e-02,-5.876761302351951599e-02,-8.248700946569442749e-02,-1.137041114270687103e-02,-6.548541598021984100e-03,1.841505989432334900e-02,7.332106679677963257e-02,-1.232933476567268372e-01,-7.856562733650207520e-02,5.739150941371917725e-02,-1.384250074625015259e-01,-8.463650941848754883e-03,1.142620146274566650e-01,-8.288642019033432007e-02,-2.429749071598052979e-02,-1.089149042963981628e-01,6.444248557090759277e-02,8.628535084426403046e-03,8.876225352287292480e-02,3.578365966677665710e-02,-9.424988180398941040e-02,-5.927151069045066833e-02,7.243024650961160660e-03,-2.920138835906982422e-02,-5.834161490201950073e-02,-7.212480157613754272e-02,-4.088719561696052551e-02,5.632741749286651611e-02,-1.164353936910629272e-01,9.428327530622482300e-02,4.900828935205936432e-03,-5.428896471858024597e-02,-8.467505872249603271e-02,3.013174980878829956e-02,-5.088810250163078308e-02,-1.254391819238662720e-01,-5.186072736978530884e-02,-2.847598493099212646e-02,-1.335463766008615494e-02,3.000623360276222229e-02,1.049287170171737671e-01,-1.637029945850372314e-01,-6.685829907655715942e-02,-6.398181617259979248e-02,-8.420165628194808960e-02,1.694126427173614502e-02,6.417067348957061768e-02,-9.329121559858322144e-03,-1.183445379137992859e-01,-8.430842310190200806e-02,5.658259615302085876e-02,3.690732270479202271e-02,-1.102415099740028381e-01,3.408840298652648926e-02,7.179201394319534302e-02,-2.316608838737010956e-02,-5.815361160784959793e-03,5.129197239875793457e-02,-4.408890381455421448e-02,1.019539237022399902e-01,-1.129756961017847061e-02,-1.233587786555290222e-01,4.206521809101104736e-02,1.235305070877075195e-01,-2.136652916669845581e-02,-1.372620910406112671e-01,7.931308448314666748e-02,-1.221010163426399231e-01,6.165647506713867188e-02,-5.556678399443626404e-03,-1.278161555528640747e-01,-1.047487482428550720e-01,-1.455514878034591675e-02,-1.159931942820549011e-01,-8.268504589796066284e-02,-1.025984138250350952e-01,1.140926033258438110e-01,-2.982261963188648224e-02,-1.330334395170211792e-01,-6.309709697961807251e-02,-1.013556793332099915e-01,-6.586311012506484985e-02,-1.123467236757278442e-01,-1.101183667778968811e-01,-2.945800125598907471e-02,-4.478131607174873352e-02,4.242461174726486206e-03,5.977390706539154053e-02,-8.312484622001647949e-02,-1.023517325520515442e-01,-1.718213036656379700e-02,-6.664223223924636841e-02,-3.578649163246154785e-01,-5.606927722692489624e-02,-4.295288026332855225e-02,-9.750110097229480743e-03,-2.623045630753040314e-02,-4.178250953555107117e-02,4.284353554248809814e-02,4.473555833101272583e-03,7.041561603546142578e-02,7.328840345144271851e-02,2.495064400136470795e-02,-6.463336758315563202e-04,6.389864534139633179e-02,-5.259019508957862854e-02,-7.453788816928863525e-02,-1.152170123532414436e-03,-4.743062332272529602e-02,-2.590155787765979767e-02,-7.288758456707000732e-02,-8.946225047111511230e-02,2.212646417319774628e-02,3.260115161538124084e-02,4.982817173004150391e-02,9.569416753947734833e-03,3.976106271147727966e-02,-4.690226912498474121e-02,1.028402596712112427e-01,-8.178483694791793823e-03,-1.212309822440147400e-01,-7.685157656669616699e-02,-1.213646903634071350e-01,-1.427603214979171753e-01,-1.222559213638305664e-01,-7.595498580485582352e-03,9.016654454171657562e-03,-6.075283885002136230e-02,5.906370468437671661e-03,-6.315675377845764160e-02,1.523528620600700378e-02,-9.542317688465118408e-02,-1.135120075196027756e-02,-6.932698190212249756e-02,-9.186173230409622192e-02,-1.402317285537719727e-01,-2.722800895571708679e-02,-7.714405655860900879e-02,-8.163012564182281494e-02,2.494464255869388580e-02,-8.244423568248748779e-02,2.138081379234790802e-02,1.833616942167282104e-02,-7.474441081285476685e-02,-8.668556064367294312e-02,-1.222766116261482239e-01,-7.651959359645843506e-02,1.389044523239135742e-01,-2.019505947828292847e-02,-4.634981229901313782e-02,-6.312626600265502930e-02,-4.520174488425254822e-02,-1.186799630522727966e-01,3.595482790842652321e-03,-7.982681691646575928e-02,-2.008058317005634308e-02,3.844260796904563904e-02,-3.924719244241714478e-02,2.778432331979274750e-02,-9.810353070497512817e-02,-2.114041522145271301e-02,1.074365340173244476e-02,-1.537958085536956787e-01,-8.320323377847671509e-02,1.272496134042739868e-01,2.279272861778736115e-02,-7.228080183267593384e-02,3.523316979408264160e-02,-1.226835995912551880e-01,4.918166901916265488e-03,-8.897197246551513672e-02,-1.408786028623580933e-01,8.442210964858531952e-03,-1.211364939808845520e-01,1.723732426762580872e-02,-4.732820391654968262e-02,-4.875760897994041443e-02,4.844247549772262573e-02,-7.182484120130538940e-02,6.025967001914978027e-02,-6.920448690652847290e-02,4.799437150359153748e-02,-6.644129753112792969e-02,-8.469313383102416992e-02,6.099008768796920776e-02,-1.216363832354545593e-01,4.409179836511611938e-02,-2.640611864626407623e-02,9.606661647558212280e-02,8.476454019546508789e-02,-3.904925286769866943e-02,1.591768674552440643e-02,-3.878859058022499084e-02,2.318148687481880188e-02,-1.014273166656494141e-01,-6.768617779016494751e-02,1.643091440200805664e-02
-1.041099801659584045e-02,-1.718318276107311249e-02,1.013479977846145630e-01,7.517480105161666870e-02,3.524326160550117493e-02,3.698137030005455017e-02,1.046668179333209991e-02,-3.641976788640022278e-02,-3.543281182646751404e-02,-1.742679812014102936e-02,-7.590763736516237259e-03,4.008846357464790344e-02,1.606509089469909668e-02,7.573688030242919922e-02,-1.340989321470260620e-01,-5.547518283128738403e-02,-9.619943052530288696e-02,4.478961229324340820e-02,-9.656518697738647461e-02,1.628131233155727386e-02,-1.165994405746459961e-01,3.264470770955085754e-02,9.387514740228652954e-02,-4.054332152009010315e-02,-8.238429576158523560e-02,-6.272017955780029297e-02,5.740179494023323059e-02,4.248943552374839783e-02,-1.047039702534675598e-01,-7.662173360586166382e-02,-4.698814451694488525e-02,-3.209494799375534058e-02,3.407835215330123901e-02,-1.581330038607120514e-02,-9.508188813924789429e-02,9.317120164632797241e-02,-6.185733247548341751e-03,6.600902229547500610e-02,7.976893335580825806e-02,-1.187913492321968079e-01,-7.376236841082572937e-03,-8.401557058095932007e-02,-1.618259400129318237e-01,1.108874678611755371e-01,2.283978834748268127e-02,-6.845913827419281006e-02,-2.977048978209495544e-03,3.905890882015228271e-02,-1.430631428956985474e-01,1.946643181145191193e-02,-1.921088546514511108e-01,6.491535343229770660e-03,8.795794844627380371e-02,5.230590701103210449e-02,1.056670024991035461e-02,5.957831069827079773e-02,-1.022882387042045593e-01,9.768275916576385498e-02,6.406954675912857056e-02,-1.228299085050821304e-02,5.005605053156614304e-03,5.910115316510200500e-02,-7.926423847675323486e-02,4.784712940454483032e-02,-3.443538025021553040e-02,-4.876357689499855042e-02,-6.422149017453193665e-03,1.765759289264678955e-02,1.431213133037090302e-02,1.877015084028244019e-02,-7.774156332015991211e-02,-3.481561690568923950e-02,9.331070818006992340e-03,1.718636602163314819e-02,5.942752584815025330e-02,-7.930032163858413696e-02,-1.276987642049789429e-01,1.785518229007720947e-02,-1.240475848317146301e-01,-2.574585936963558197e-02,3.709514066576957703e-02,-2.239983156323432922e-02,-1.161878854036331177e-01,-1.041601002216339111e-01,-5.998949706554412842e-02,-1.002355366945266724e-01,2.218921668827533722e-02,7.908608764410018921e-02,4.485660791397094727e-02,9.812819957733154297e-02,-1.284155398607254028e-01,-1.081630289554595947e-01,-4.157200828194618225e-02,-1.656453683972358704e-02,-6.036984175443649292e-02,4.963460192084312439e-02,8.286549896001815796e-02,6.385859567672014236e-03,-3.987119719386100769e-02,-1.148082017898559570e-01,2.403773367404937744e-02,-4.736281931400299072e-02,7.231729477643966675e-02,9.252639859914779663e-02,2.254771627485752106e-02,7.777332514524459839e-02,6.195388734340667725e-02,-9.498890489339828491e-02,4.920665547251701355e-02,-4.628900811076164246e-02,5.997287482023239136e-02,-1.042153835296630859e-01,2.297781594097614288e-02,-1.447734534740447998e-01,-7.943373918533325195e-02,7.044618576765060425e-02,6.064148619771003723e-02,5.164129287004470825e-02,5.283178389072418213e-02,-1.163802891969680786e-01,-9.301454573869705200e-02,5.066072102636098862e-03,-1.248427480459213257e-01,-6.387626286596059799e-03,-6.005327776074409485e-02,-8.235651999711990356e-02,-1.081684678792953491e-01,-9.511875361204147339e-02,1.746096462011337280e-02,9.994008392095565796e-02,4.824119061231613159e-02,7.931491732597351074e-02,-1.372236311435699463e-01,9.849279373884201050e-02,6.704210489988327026e-02,9.142194688320159912e-02,5.890514329075813293e-02,8.907563239336013794e-02,-1.161460652947425842e-01,-5.175211653113365173e-02,-6.180038303136825562e-02,-8.831200748682022095e-02,3.692767024040222168e-02,-7.644676417112350464e-02,3.731563314795494080e-02,-5.903698503971099854e-02,1.038725003600120544e-01,-1.688120365142822266e-01,-1.691301725804805756e-02,-5.682177096605300903e-02,-8.497435599565505981e-02,-1.665712594985961914e-01,9.713007509708404541e-02,-6.107708066701889038e-02,6.827104091644287109e-02,5.966955795884132385e-02,-8.936778455972671509e-02,9.073381870985031128e-02,-7.974051684141159058e-02,-5.274844355881214142e-03,4.812803864479064941e-02,2.884292602539062500e-02,2.578721195459365845e-02,-6.753491610288619995e-02,8.241213113069534302e-02,-7.389160990715026855e-02,-6.988482177257537842e-02,3.170856460928916931e-02,-1.102439835667610168e-01,6.505309045314788818e-02,6.201189011335372925e-02,-7.883767783641815186e-02,7.539516780525445938e-03,-3.139167651534080505e-02,6.767603009939193726e-02,2.273608185350894928e-02,-2.239341661334037781e-02,-5.725555121898651123e-02,8.372643589973449707e-02,-5.479691922664642334e-02,-2.609014324843883514e-02,-4.836956411600112915e-02,-1.732966117560863495e-02,-1.546225547790527344e-01,-3.766608238220214844e-02,-1.538289338350296021e-01,-3.513198345899581909e-02,7.199410349130630493e-02,1.492891367524862289e-02,7.223788648843765259e-02,-1.160297244787216187e-01,7.197394967079162598e-02,-1.014980971813201904e-01,-1.466064006090164185e-01,-9.553562849760055542e-02,-4.670381546020507812e-02,-1.041653379797935486e-01,-4.587138816714286804e-02,6.677918136119842529e-03,-7.820183783769607544e-02,-8.447375893592834473e-02,-4.014230147004127502e-02,-1.255441308021545410e-01,-7.118604332208633423e-02,-1.912419334985315800e-03,-4.774319753050804138e-02,5.684357509016990662e-02,-7.362850755453109741e-02,2.295622602105140686e-02,-9.863678365945816040e-02,-5.346452072262763977e-02,-5.046443082392215729e-03,-1.057666540145874023e-01,1.190285664051771164e-03,-7.937900722026824951e-02,-1.157462969422340393e-01,-1.072687879204750061e-01,-1.104817911982536316e-01,9.683021157979965210e-02,-5.014711618423461914e-02,-9.883055090904235840e-02,-3.752940893173217773e-02,9.593091905117034912e-03,1.370464265346527100e-01,7.408532500267028809e-02,7.287688553333282471e-02,-9.255469590425491333e-02,6.781812757253646851e-02,-4.949746280908584595e-02,-8.351244777441024780e-02,-1.135149300098419189e-01,1.308356504887342453e-02,-5.171347036957740784e-02,-5.502958968281745911e-02,-6.793808192014694214e-02,-1.520097553730010986e-01,9.988734871149063110e-02,8.147333748638629913e-03,1.148318219929933548e-02,-3.965745493769645691e-02,2.087966352701187134e-02,3.937798738479614258e-02,-1.849919743835926056e-02,2.545928582549095154e-02,2.059955522418022156e-02,-5.751259624958038330e-02,-4.763851687312126160e-02,4.814770072698593140e-03,6.732854992151260376e-02,2.742468379437923431e-02,-3.104109130799770355e-02,3.547756001353263855e-02,-1.407103687524795532e-01,3.898702189326286316e-02,-4.405162110924720764e-02,-9.256918728351593018e-02
4.598646610975265503e-02,-5.248948186635971069e-02,-9.763696789741516113e-02,6.560499966144561768e-02,4.714539274573326111e-02,5.337288975715637207e-02,7.736381888389587402e-02,-1.469715833663940430e-01,-4.725475609302520752e-02,1.264202781021595001e-02,-6.267600227147340775e-03,8.488085120916366577e-02,-1.511650811880826950e-02,-1.372071802616119385e-01,6.539716571569442749e-02,-1.550520583987236023e-02,8.690695278346538544e-03,6.366447359323501587e-02,-7.898890227079391479e-02,9.984191507101058960e-03,3.874326124787330627e-02,-1.245418637990951538e-01,-5.836455966345965862e-04,-1.012211516499519348e-01,-3.854792565107345581e-02,6.151902675628662109e-02,-8.991609513759613037e-02,2.786904759705066681e-02,4.559606779366731644e-03,-4.943864047527313232e-02,-8.588291704654693604e-02,3.348683938384056091e-02,5.696066841483116150e-02,-2.185747399926185608e-02,9.590055793523788452e-02,-2.621131949126720428e-02,-9.426023066043853760e-02,2.437145262956619263e-02,-1.440305709838867188e-01,1.018300056457519531e-01,5.388427898287773132e-02,-1.521054003387689590e-02,6.111052632331848145e-02,-3.162706643342971802e-02,1.920318789780139923e-02,4.377217218279838562e-02,-4.765869304537773132e-02,-7.910361886024475098e-02,3.083129413425922394e-02,9.181635081768035889e-02,2.092667855322360992e-03,-1.084766015410423279e-01,1.209582854062318802e-02,6.970973312854766846e-02,-7.367779314517974854e-02,-2.303654514253139496e-02,-5.497833713889122009e-02,-6.642300635576248169e-02,-7.025811076164245605e-02,-9.448258578777313232e-02,2.876106009352952242e-04,-6.437414884567260742e-02,-1.028839126229286194e-02,8.009175769984722137e-03,-7.917705178260803223e-02,-6.274992227554321289e-02,4.350814595818519592e-02,-6.098876893520355225e-02,-1.814187876880168915e-02,4.105059430003166199e-02,-1.531665027141571045e-02,-1.077327132225036621e-01,3.092694655060768127e-02,-7.295145839452743530e-02,-1.224450990557670593e-01,1.129004824906587601e-02,-2.815067209303379059e-02,-2.152512967586517334e-02,1.445137802511453629e-02,-2.456169342622160912e-03,9.555518627166748047e-02,1.203257590532302856e-02,-2.101808320730924606e-03,3.521674871444702148e-02,1.082697231322526932e-02,-1.136063504964113235e-02,7.551295310258865356e-02,-6.770968437194824219e-02,-4.838336631655693054e-02,-3.886473923921585083e-02,6.680419296026229858e-02,6.967631727457046509e-02,-7.408210635185241699e-02,-7.256694138050079346e-02,8.553736656904220581e-02,4.523840919137001038e-02,-1.056833043694496155e-01,-3.988250344991683960e-02,-3.572100400924682617e-02,8.845555782318115234e-02,9.357111155986785889e-02,1.940244808793067932e-02,9.327321499586105347e-02,-3.011351078748703003e-02,-2.297631278634071350e-02,4.843428265303373337e-03,9.013172984123229980e-02,1.817540451884269714e-02,1.382324844598770142e-02,3.407770395278930664e-02,-1.009954735636711121e-01,-1.003149896860122681e-01,-1.730600604787468910e-03,-5.153663828969001770e-02,8.898720145225524902e-03,9.907145798206329346e-02,4.594530537724494934e-02,3.948067780584096909e-03,-5.069988779723644257e-03,1.162759363651275635e-01,5.138121917843818665e-02,4.546297341585159302e-02,-3.472030535340309143e-02,1.619780994951725006e-02,-1.480584144592285156e-01,-1.398732960224151611e-01,1.707989908754825592e-02,2.519551664590835571e-02,6.194892153143882751e-02,7.304241508245468140e-02,-9.192739613354206085e-03,1.812641881406307220e-02,1.219957172870635986e-01,4.302093386650085449e-02,-7.040745019912719727e-02,-8.158988202922046185e-04,-8.331566303968429565e-02,8.318901807069778442e-02,7.071574032306671143e-02,5.591607093811035156e-02,6.863275170326232910e-02,-3.931263089179992676e-02,7.644154131412506104e-02,-1.117543950676918030e-01,-6.712258607149124146e-02,-1.020946875214576721e-01,-1.266036331653594971e-01,1.055179834365844727e-01,-4.530024155974388123e-02,3.336660936474800110e-02,-6.613119691610336304e-02,1.529351901262998581e-02,-6.125275418162345886e-02,-1.163707450032234192e-01,-2.403740398585796356e-02,6.297668069601058960e-02,3.785718232393264771e-02,7.854430377483367920e-02,7.999904453754425049e-02,1.152460277080535889e-02,1.034343894571065903e-02,-1.442520767450332642e-01,-6.909848004579544067e-02,-1.384888738393783569e-01,6.795226782560348511e-02,1.086140703409910202e-02,6.403753161430358887e-02,3.056152258068323135e-03,8.018168737180531025e-04,-4.555150121450424194e-02,1.662642695009708405e-02,5.292392894625663757e-02,-3.674714267253875732e-02,-8.180581778287887573e-02,-1.076194345951080322e-01,-4.541664943099021912e-02,-8.342649787664413452e-02,-9.626306593418121338e-02,3.844914957880973816e-02,-1.379095599986612797e-03,-6.303180009126663208e-02,2.354978024959564209e-02,-1.085965037345886230e-01,-7.631655037403106689e-02,1.502872630953788757e-02,4.743686690926551819e-02,-3.920767456293106079e-02,-4.658455029129981995e-02,4.773126170039176941e-02,-1.339887976646423340e-01,-1.230499893426895142e-01,2.457551844418048859e-02,1.540134102106094360e-02,2.650337480008602142e-02,-1.032222732901573181e-01,-2.579306438565254211e-02,-2.477593719959259033e-02,5.492082238197326660e-02,-2.450262941420078278e-02,3.367761150002479553e-02,-7.733376324176788330e-02,-1.498105973005294800e-01,6.582727283239364624e-02,6.227203458547592163e-02,5.182384699583053589e-02,-1.631670258939266205e-02,6.546530872583389282e-02,-2.234593033790588379e-02,6.191290169954299927e-02,9.899817407131195068e-02,8.179552853107452393e-03,-5.569621548056602478e-02,3.432149067521095276e-02,6.223857030272483826e-02,-7.706870138645172119e-02,8.964436501264572144e-02,6.266972422599792480e-02,-9.045942127704620361e-02,-1.063907071948051453e-01,-1.425328403711318970e-01,3.389554098248481750e-02,4.781598597764968872e-02,2.011177316308021545e-02,-1.889668256044387817e-01,1.453849952667951584e-02,-7.598167657852172852e-02,4.806377738714218140e-02,8.895725756883621216e-02,6.985696405172348022e-02,-2.789372391998767853e-02,-4.885704256594181061e-03,5.079107359051704407e-03,4.152560979127883911e-02,-8.120599389076232910e-02,-9.111003577709197998e-02,1.174960285425186157e-02,-1.435564607381820679e-01,-5.116057116538286209e-03,-9.727135300636291504e-02,4.847943410277366638e-02,1.132996752858161926e-02,7.207912951707839966e-02,-1.001948118209838867e-01,2.750784903764724731e-02,5.659627914428710938e-02,5.634056031703948975e-02,3.501988202333450317e-02,-7.746958732604980469e-02,-1.076663061976432800e-01,4.811864718794822693e-02,-1.205285117030143738e-01,8.221190422773361206e-02,-5.030415952205657959e-02,-1.249069422483444214e-01,7.516261190176010132e-02,1.223635822534561157e-01
-1.038445606827735901e-01,5.497575551271438599e-02,-5.474577471613883972e-02,1.602586731314659119e-02,2.895149867981672287e-03,-3.107609599828720093e-02,-2.826549485325813293e-02,4.743282869458198547e-02,3.506474196910858154e-03,-1.864874735474586487e-02,9.974944591522216797e-02,-1.405831873416900635e-01,-6.552263349294662476e-02,5.782645568251609802e-02,1.098771393299102783e-01,-9.976734966039657593e-02,6.409530062228441238e-03,-1.262970082461833954e-02,1.425073761492967606e-02,3.922327607870101929e-02,-2.538118278607726097e-03,-7.309705018997192383e-02,1.997200399637222290e-02,9.176351130008697510e-02,-9.511257708072662354e-02,-5.751863867044448853e-02,-4.682986810803413391e-02,7.996125519275665283e-02,1.292988657951354980e-02,-2.894085645675659180e-02,1.099277753382921219e-02,6.141775101423263550e-02,-5.783966556191444397e-02,-2.481194958090782166e-02,-1.415297985076904297e-01,7.912603020668029785e-02,-9.085272252559661865e-02,-1.924232766032218933e-02,-7.047688215970993042e-02,9.392876923084259033e-02,-7.671689242124557495e-02,-9.208341687917709351e-02,1.097540110349655151e-01,-3.778195381164550781e-02,-1.673566177487373352e-02,-3.783605620265007019e-02,3.331776335835456848e-02,3.684028517454862595e-03,8.575496077537536621e-02,-5.773536115884780884e-02,-4.438045993447303772e-02,9.189155884087085724e-03,-1.571628451347351074e-02,2.033007889986038208e-02,-6.851239502429962158e-02,-2.104584127664566040e-02,-2.609184756875038147e-02,-1.022598985582590103e-02,-8.203656226396560669e-02,-3.046375699341297150e-02,5.571951344609260559e-02,-1.288185864686965942e-01,5.151464045047760010e-02,-5.721784010529518127e-02,8.028178662061691284e-02,-7.571244984865188599e-02,-1.382670253515243530e-01,2.467028237879276276e-02,2.867234870791435242e-02,5.924528464674949646e-02,-8.875340223312377930e-02,3.579097613692283630e-02,1.466977503150701523e-02,-4.099070560187101364e-03,4.316821321845054626e-02,3.118260204792022705e-02,-9.634028375148773193e-02,2.107074670493602753e-02,9.873688966035842896e-02,4.064913094043731689e-02,4.104019701480865479e-02,7.800095528364181519e-02,-1.269879639148712158e-01,5.621118098497390747e-02,6.557005643844604492e-02,-8.701303601264953613e-02,6.014913693070411682e-02,-1.025012433528900146e-01,-2.942336909472942352e-02,3.362194076180458069e-02,-1.569074988365173340e-01,-7.347468286752700806e-02,-1.067168265581130981e-01,-1.228531524538993835e-01,-1.245677471160888672e-01,7.522775232791900635e-02,-5.657349154353141785e-02,-7.489544898271560669e-02,4.888554289937019348e-02,8.943159878253936768e-02,-2.785011893138289452e-04,-1.164655685424804688e-01,-8.287112414836883545e-02,-1.145959421992301941e-01,-1.099700406193733215e-01,4.826476215384900570e-04,6.027024611830711365e-02,7.160527259111404419e-02,-1.039368361234664917e-01,1.825054734945297241e-02,4.740456864237785339e-02,-5.521459039300680161e-03,2.092231251299381256e-02,-1.095399260520935059e-01,-7.803349941968917847e-02,-4.960870370268821716e-03,-7.666435092687606812e-02,-7.846131920814514160e-02,-7.403162121772766113e-02,-2.251110412180423737e-02,-1.343778520822525024e-01,1.430451963096857071e-02,-1.389285316690802574e-03,-2.142321318387985229e-02,-2.067207358777523041e-02,1.860878616571426392e-02,-3.353798016905784607e-02,-5.550510808825492859e-02,-8.503171801567077637e-02,-8.353492617607116699e-02,-1.477068960666656494e-01,8.130404166877269745e-03,4.392122849822044373e-02,5.797176435589790344e-02,9.090303629636764526e-02,8.969078958034515381e-02,1.524371467530727386e-02,-1.372264921665191650e-01,-1.130834221839904785e-01,9.403608739376068115e-02,-4.184240102767944336e-02,-3.748104348778724670e-02,4.841655120253562927e-02,1.894065737724304199e-02,9.348577819764614105e-03,-1.253334730863571167e-01,-1.387258917093276978e-01,-7.658835500478744507e-02,-4.065667092800140381e-02,7.489082962274551392e-02,-1.147834882140159607e-01,-3.605469465255737305e-01,-8.662967383861541748e-02,-4.949098825454711914e-02,3.304678201675415039e-02,-1.405550399795174599e-03,4.152577742934226990e-02,-1.298125684261322021e-01,2.414981462061405182e-02,6.991460174322128296e-02,-5.316375754773616791e-03,-6.857951730489730835e-02,-2.667787671089172363e-02,3.543804213404655457e-02,8.073380589485168457e-02,5.999583750963211060e-02,2.318263240158557892e-02,-5.444034561514854431e-02,3.926181420683860779e-02,-2.398380776867270470e-03,-5.943907052278518677e-02,3.602458164095878601e-02,7.026699930429458618e-02,-6.625783443450927734e-02,9.798638522624969482e-03,-4.734734073281288147e-02,-1.093438640236854553e-02,-1.752024888992309570e-01,6.685026735067367554e-02,-9.593641757965087891e-02,4.052051529288291931e-02,-2.402564883232116699e-02,2.854465693235397339e-02,9.615468978881835938e-02,4.289995878934860229e-02,7.106752693653106689e-02,-8.822413533926010132e-02,-1.049451753497123718e-01,6.111376360058784485e-02,3.387703746557235718e-02,-3.860470280051231384e-02,1.345414109528064728e-02,-3.442389518022537231e-02,-3.000560775399208069e-02,-1.222643479704856873e-01,-1.729432046413421631e-01,-7.760690152645111084e-02,-1.261569187045097351e-02,-2.539087086915969849e-02,-1.029844805598258972e-01,9.308275580406188965e-02,-1.749189570546150208e-02,-8.646936714649200439e-02,5.481331050395965576e-02,-5.306768696755170822e-03,-3.541256114840507507e-02,3.074122779071331024e-02,-1.189637742936611176e-02,-4.065671935677528381e-02,-3.401582315564155579e-02,-7.991969585418701172e-02,-3.673137724399566650e-02,-6.574449595063924789e-03,7.690059393644332886e-02,-5.471347644925117493e-02,6.548728793859481812e-02,-8.399063348770141602e-02,-6.458820402622222900e-02,-1.141988858580589294e-01,3.276470303535461426e-02,5.140078440308570862e-02,-1.007167547941207886e-01,-7.686730474233627319e-02,-1.034372448921203613e-01,-7.909710705280303955e-02,-6.316833943128585815e-02,1.868598535656929016e-02,2.730426751077175140e-02,2.927120029926300049e-02,-8.858840167522430420e-02,-2.609333395957946777e-02,-8.079238235950469971e-03,-1.164273768663406372e-01,5.426039919257164001e-02,-1.129138916730880737e-01,7.799188606441020966e-03,2.463604556396603584e-03,-1.147113665938377380e-01,-6.827408820390701294e-02,-7.765486836433410645e-02,-2.953957999125123024e-03,3.483956307172775269e-02,3.518604114651679993e-02,6.543266773223876953e-02,-5.597333889454603195e-03,5.554968491196632385e-02,-3.797407075762748718e-02,-1.500445324927568436e-02,-1.121679395437240601e-01,-6.606655195355415344e-03,-1.524099409580230713e-01,2.409504167735576630e-02,-2.459496408700942993e-01,8.357805013656616211e-02,-8.927080780267715454e-02,-7.497110962867736816e-02
-1.031805723905563354e-01,-7.242024689912796021e-02,-3.038460575044155121e-02,-1.267515718936920166e-01,5.367157608270645142e-02,-1.012489050626754761e-01,4.562284424901008606e-02,-2.437955141067504883e-02,-1.223735883831977844e-01,-1.131835803389549255e-01,2.663841471076011658e-02,-3.799378499388694763e-02,5.871420726180076599e-02,3.697847574949264526e-02,-2.314910739660263062e-01,-8.805929124355316162e-02,-5.663216114044189453e-02,-6.030571460723876953e-02,-1.069158464670181274e-01,4.819569364190101624e-02,6.796631962060928345e-02,1.107239350676536560e-02,-9.917240589857101440e-02,-3.397635370492935181e-02,-1.320579797029495239e-01,1.399136520922183990e-02,-9.202623367309570312e-02,-2.682383731007575989e-02,-1.068569570779800415e-01,-1.184489950537681580e-01,1.096680834889411926e-01,7.863575220108032227e-02,-1.141344234347343445e-01,-1.084555089473724365e-01,-2.559504844248294830e-02,1.363739487715065479e-03,-8.499204367399215698e-02,-5.659441277384757996e-02,2.024459540843963623e-01,-6.256145983934402466e-02,-1.205093860626220703e-01,-2.228657305240631104e-01,-1.418668031692504883e-01,1.004257053136825562e-02,5.964469537138938904e-02,2.697091549634933472e-02,-4.263955354690551758e-02,1.036263536661863327e-02,-6.873579323291778564e-02,5.528467148542404175e-02,-6.546032428741455078e-02,-2.823692560195922852e-02,7.599298655986785889e-02,1.986058056354522705e-02,-9.559080749750137329e-02,8.474522829055786133e-02,5.150766670703887939e-02,-7.591272890567779541e-02,-8.103181421756744385e-02,-6.550735235214233398e-02,-8.192067593336105347e-02,8.024720102548599243e-02,-7.459403574466705322e-02,4.343923553824424744e-02,-1.004137247800827026e-01,-6.023000553250312805e-02,-6.332593411207199097e-02,5.607978254556655884e-02,-1.325205415487289429e-01,7.394415140151977539e-02,-4.488543421030044556e-02,-1.106150168925523758e-02,4.835720732808113098e-02,2.442510798573493958e-02,-8.560387045145034790e-02,-2.141564898192882538e-02,-1.063107233494520187e-02,1.576557988300919533e-03,-7.808874547481536865e-02,-6.281696259975433350e-02,-1.872173137962818146e-02,-1.090653939172625542e-03,-6.207149475812911987e-02,-9.816441684961318970e-02,-2.162665128707885742e-02,3.317385539412498474e-02,-1.089677773416042328e-02,3.362704068422317505e-02,3.321648761630058289e-02,1.078348793089389801e-02,1.261602044105529785e-01,2.803737530484795570e-03,4.191535711288452148e-02,5.662677437067031860e-02,-3.299941122531890869e-02,-5.555870756506919861e-02,-1.022257506847381592e-01,-4.435862414538860321e-03,-2.927351742982864380e-02,3.197409957647323608e-02,5.262347683310508728e-02,-6.246770173311233521e-02,-1.723317056894302368e-02,-9.661420434713363647e-02,4.922117665410041809e-02,-5.151176080107688904e-02,7.818821817636489868e-02,-1.527986675500869751e-01,-8.561359345912933350e-02,-9.166717529296875000e-03,1.951608248054981232e-02,8.660232275724411011e-02,-5.900883674621582031e-02,-1.178090572357177734e-01,-6.494124419987201691e-03,-4.920947179198265076e-02,-1.681046634912490845e-01,-8.649925142526626587e-02,-1.397819817066192627e-01,-1.057857945561408997e-01,-6.525274831801652908e-03,9.429749101400375366e-02,-3.474247828125953674e-02,5.433880537748336792e-02,7.225329428911209106e-02,4.780184105038642883e-02,-1.162060573697090149e-01,8.453245460987091064e-02,-7.148156315088272095e-02,-2.253499999642372131e-02,-2.105881720781326294e-01,9.575877338647842407e-02,5.980694293975830078e-02,-5.793468281626701355e-02,7.606520503759384155e-02,8.866823464632034302e-02,-7.063247263431549072e-02,-1.701182872056961060e-01,-2.477546967566013336e-02,5.381204560399055481e-02,4.834785312414169312e-02,3.567912429571151733e-02,-2.798508852720260620e-02,-4.740175232291221619e-02,6.756196171045303345e-02,-1.418325155973434448e-01,3.804843872785568237e-02,3.002926893532276154e-02,-2.137342467904090881e-02,-1.801499980501830578e-03,-7.079554349184036255e-02,-1.927191466093063354e-01,-8.114889264106750488e-02,-6.170665100216865540e-02,-6.834142655134201050e-02,-2.322631143033504486e-02,-8.338373899459838867e-02,1.109056994318962097e-01,-6.361396517604589462e-03,-3.464985871687531471e-03,-4.675267264246940613e-02,-6.462173163890838623e-02,7.057575136423110962e-02,1.772247999906539917e-02,5.166245251893997192e-02,-1.037400066852569580e-01,2.296074666082859039e-02,9.920771233737468719e-03,1.487477310001850128e-02,-6.573638413101434708e-03,2.558621764183044434e-02,7.051705569028854370e-02,-5.656644701957702637e-02,-8.305368572473526001e-02,7.146050781011581421e-02,5.098126083612442017e-02,7.078170776367187500e-02,9.777018427848815918e-02,-1.114816442131996155e-01,-1.592289209365844727e-01,-5.511092022061347961e-03,1.067630276083946228e-01,-1.099046096205711365e-01,-6.565825641155242920e-02,7.657623291015625000e-02,3.830716945230960846e-03,4.448698833584785461e-02,-2.565379440784454346e-02,5.885449238121509552e-03,4.707415401935577393e-02,8.305425196886062622e-02,-1.009142473340034485e-01,-5.068293213844299316e-02,1.582667604088783264e-02,-4.681956395506858826e-02,2.651754021644592285e-02,-1.287146955728530884e-01,-2.545080380514264107e-03,-6.302107870578765869e-02,5.419579893350601196e-02,-6.062970310449600220e-02,-2.714889682829380035e-02,-3.632293641567230225e-02,4.079402610659599304e-02,8.254141360521316528e-02,-1.378503977321088314e-03,-7.799934595823287964e-02,-1.176589652895927429e-01,-4.541987180709838867e-02,3.377673402428627014e-02,-8.783432841300964355e-02,-4.559982568025588989e-02,9.148275107145309448e-02,3.473731875419616699e-02,-4.363330081105232239e-02,-1.862272173166275024e-01,-1.319537460803985596e-01,4.368351027369499207e-02,4.536362737417221069e-02,-8.260530419647693634e-03,1.061563938856124878e-02,5.466901883482933044e-02,6.277296692132949829e-02,-3.770052921026945114e-03,-5.359085276722908020e-02,8.839695900678634644e-02,-1.479635089635848999e-01,-6.549642235040664673e-02,2.058612555265426636e-02,-7.969160377979278564e-02,-1.229893788695335388e-01,-1.346443295478820801e-01,6.389937549829483032e-02,-4.746365919709205627e-02,-9.514183551073074341e-02,-7.117697596549987793e-02,2.870372682809829712e-02,-1.015939563512802124e-01,-6.312850117683410645e-02,-2.247418090701103210e-02,-1.198273673653602600e-01,2.394018508493900299e-02,-6.444944534450769424e-03,-4.240914434194564819e-02,-1.127959638833999634e-01,6.437252461910247803e-02,1.633642800152301788e-02,4.643695428967475891e-02,-9.416218101978302002e-02,-7.565461099147796631e-02,-2.595992386341094971e-02,-4.921056330204010010e-02,-1.608382910490036011e-01,-1.342390775680541992e-01,-1.187356039881706238e-01,-4.122100397944450378e-02
-1.854357868432998657e-02,-6.524696946144104004e-02,-1.629325188696384430e-02,2.108355984091758728e-02,-1.422883421182632446e-01,-1.439962834119796753e-01,-2.494054380804300308e-03,-9.274373203516006470e-02,1.285135466605424881e-02,-1.001571025699377060e-02,-2.100737206637859344e-02,-2.300306409597396851e-02,5.286418646574020386e-02,2.150202728807926178e-02,-1.203392297029495239e-01,-8.699994534254074097e-02,-7.035142183303833008e-02,-1.571920216083526611e-01,-8.986035734415054321e-02,3.612709790468215942e-02,-7.513267546892166138e-02,1.679712347686290741e-02,-7.831350900232791901e-03,-1.311613917350769043e-01,-1.342671513557434082e-01,-6.885322183370590210e-02,-1.096535325050354004e-01,-3.642719611525535583e-02,-5.923762917518615723e-02,5.757621303200721741e-02,6.079953163862228394e-02,-1.634354591369628906e-01,-7.561441510915756226e-02,5.497134849429130554e-02,8.180805295705795288e-02,2.303592674434185028e-02,3.275084123015403748e-02,3.126117214560508728e-02,-1.065237745642662048e-01,8.437887579202651978e-02,6.316922605037689209e-02,-5.675584077835083008e-02,-5.120281502604484558e-02,8.732683956623077393e-02,-4.661106690764427185e-02,1.975055597722530365e-02,-1.266919821500778198e-01,-3.752019256353378296e-02,-1.742681562900543213e-01,4.303879290819168091e-02,6.367137283086776733e-02,6.717605143785476685e-02,2.113233879208564758e-02,-1.029165089130401611e-01,-2.985336817800998688e-02,-5.802921950817108154e-02,3.103338554501533508e-02,6.527020782232284546e-02,1.739199832081794739e-02,-1.213028877973556519e-01,-1.188844963908195496e-01,-4.396146908402442932e-02,1.143820118159055710e-03,-1.116572991013526917e-01,1.761290803551673889e-02,-1.514906156808137894e-02,7.775966078042984009e-02,-6.487200409173965454e-02,1.323866285383701324e-02,-8.579760044813156128e-02,-4.604329913854598999e-02,9.890139847993850708e-02,-3.372275829315185547e-02,4.594084993004798889e-02,-5.248698219656944275e-02,-3.883814811706542969e-02,-9.438025206327438354e-02,-1.526470202952623367e-02,-2.039197981357574463e-01,-1.810877025127410889e-02,1.845445856451988220e-02,-6.063702749088406563e-04,-4.491704516112804413e-03,7.445190846920013428e-02,-2.955836988985538483e-02,-1.127173602581024170e-01,7.954625040292739868e-02,-8.529144525527954102e-02,-7.893966883420944214e-02,-8.630606345832347870e-03,-9.412696957588195801e-02,-1.245492324233055115e-01,1.239771209657192230e-02,-1.026918962597846985e-01,-8.588895946741104126e-02,-5.088119581341743469e-02,8.419595658779144287e-03,-1.019426062703132629e-01,5.718967691063880920e-02,-1.299452036619186401e-02,2.266054786741733551e-02,-1.053161472082138062e-01,-1.397294178605079651e-02,2.286144299432635307e-03,1.030610352754592896e-01,-5.299137532711029053e-02,-9.224443137645721436e-02,-8.738815039396286011e-02,-1.364756375551223755e-01,-4.986966773867607117e-02,-5.654159560799598694e-02,3.745084255933761597e-02,-6.844931095838546753e-02,-7.271148264408111572e-02,-4.930216446518898010e-02,7.138881087303161621e-02,-6.045498698949813843e-02,-7.377546280622482300e-02,1.220904365181922913e-01,-3.717861697077751160e-02,-5.454306304454803467e-02,-6.309228390455245972e-02,1.504704356193542480e-02,3.426592051982879639e-02,3.796743229031562805e-02,-9.516498446464538574e-02,5.543590337038040161e-02,-1.117850989103317261e-01,-3.972938656806945801e-02,5.268578603863716125e-02,-3.365599736571311951e-02,1.117507517337799072e-01,5.146936327219009399e-02,7.194898277521133423e-02,7.728379964828491211e-02,-9.330926835536956787e-02,-2.631183341145515442e-02,1.135470345616340637e-01,-7.775697112083435059e-02,6.701601296663284302e-02,8.809576928615570068e-02,3.152561560273170471e-02,-7.953099161386489868e-02,-7.010834664106369019e-02,-9.623555839061737061e-02,-3.237752988934516907e-02,-6.339757889509201050e-02,2.471132576465606689e-02,-7.743411511182785034e-02,-4.358678683638572693e-02,-8.266533166170120239e-02,7.862012833356857300e-02,-4.903060570359230042e-02,-4.413918778300285339e-02,-1.124252751469612122e-01,-1.071478202939033508e-01,9.512101858854293823e-02,1.707040332257747650e-02,8.231161534786224365e-02,-5.679382383823394775e-02,6.959471106529235840e-02,-4.409317672252655029e-02,1.000491157174110413e-01,-2.410122379660606384e-02,-1.518141850829124451e-02,9.892415255308151245e-03,-7.784007489681243896e-02,-1.093382537364959717e-01,-9.026142954826354980e-02,7.440285384654998779e-02,-1.457029879093170166e-01,6.946069002151489258e-02,8.687127381563186646e-02,-3.131828084588050842e-02,-7.247411459684371948e-02,-2.436320669949054718e-02,8.437824994325637817e-02,-1.283683031797409058e-01,-1.975673809647560120e-02,-5.644536018371582031e-02,-5.373876541852951050e-03,-1.332339495420455933e-01,5.556633695960044861e-03,1.255581807345151901e-02,-2.959236130118370056e-02,6.505106389522552490e-02,-1.376217901706695557e-01,7.195178419351577759e-02,-4.078476876020431519e-02,-2.192243188619613647e-02,-2.913632802665233612e-02,-7.432333379983901978e-02,4.427718371152877808e-02,-1.018123254179954529e-01,-5.308927223086357117e-02,-1.611553281545639038e-01,9.869521483778953552e-03,1.187046393752098083e-01,3.970923647284507751e-02,-1.014735773205757141e-01,2.942359261214733124e-02,-2.654126612469553947e-03,-2.712815627455711365e-02,-4.548249766230583191e-02,9.189064055681228638e-02,-8.322761207818984985e-02,5.927546694874763489e-02,2.348467335104942322e-02,-3.130340576171875000e-02,-1.068593859672546387e-01,1.818118616938591003e-02,1.029274426400661469e-02,1.001437380909919739e-01,2.054500952363014221e-02,-5.441855639219284058e-02,1.459152102470397949e-01,-9.900295734405517578e-02,1.026742625981569290e-02,-1.598629727959632874e-02,4.667770862579345703e-02,5.149236321449279785e-02,-1.516862511634826660e-01,-6.289036571979522705e-02,8.638139814138412476e-02,-9.258532524108886719e-02,-8.799662441015243530e-02,-1.093980297446250916e-01,-9.006442874670028687e-02,-4.999465122818946838e-02,5.348397418856620789e-02,5.028191022574901581e-03,-7.491733133792877197e-02,2.601549029350280762e-02,6.572233140468597412e-02,-1.042409539222717285e-01,-8.939661085605621338e-02,-4.025202989578247070e-02,-7.879327982664108276e-02,-1.559306234121322632e-01,-1.110918261110782623e-02,-3.789668157696723938e-02,-9.031908959150314331e-02,8.121567219495773315e-02,-8.620885014533996582e-02,1.672812364995479584e-02,-8.820346742868423462e-02,1.100133825093507767e-02,2.091056667268276215e-02,-1.423640847206115723e-01,-1.147622242569923401e-02,6.600399315357208252e-02,-8.940841257572174072e-02,-2.378398776054382324e-01,2.326004579663276672e-02,-1.355158537626266479e-01,-7.812140882015228271e-02
9.951822459697723389e-02,3.600220754742622375e-02,4.459890350699424744e-02,-8.266102522611618042e-02,-8.855789899826049805e-02,-1.099761575460433960e-01,-1.022483929991722107e-01,5.637108534574508667e-02,7.476251572370529175e-02,-1.040431931614875793e-01,2.898680418729782104e-02,3.452794253826141357e-02,-1.054667830467224121e-01,9.351455420255661011e-02,-4.289037734270095825e-02,-8.634589612483978271e-02,-1.374120712280273438e-01,1.419550459831953049e-02,-1.572811417281627655e-02,8.236325532197952271e-02,-1.421202439814805984e-02,-9.558585286140441895e-02,-2.213782072067260742e-02,6.961840391159057617e-02,-1.169213801622390747e-01,-1.093983128666877747e-01,2.548221126198768616e-02,-6.760000437498092651e-02,-4.253419116139411926e-02,-1.888800412416458130e-03,7.709839940071105957e-02,1.637853831052780151e-01,-3.231959417462348938e-02,-1.340482942759990692e-02,-4.903304576873779297e-02,-6.139329075813293457e-02,-1.188834086060523987e-01,8.376839756965637207e-02,1.150258406996726990e-01,-7.525282353162765503e-02,-9.220268577337265015e-02,3.149830549955368042e-02,1.233102902770042419e-01,-2.511851117014884949e-02,2.642505429685115814e-02,2.908452227711677551e-02,-4.856691136956214905e-02,4.055670648813247681e-02,2.380607277154922485e-02,5.339251458644866943e-02,-2.433139383792877197e-01,-1.195657029747962952e-01,-7.918426394462585449e-02,5.245006084442138672e-02,-1.277576684951782227e-01,1.862977817654609680e-02,4.615689441561698914e-02,8.066230267286300659e-02,2.833777666091918945e-02,-1.573377847671508789e-02,-8.580230921506881714e-02,3.760912641882896423e-02,-3.565086517482995987e-03,4.551853518933057785e-03,-1.232795566320419312e-01,-2.498944289982318878e-02,-6.636823713779449463e-02,1.059165224432945251e-01,-4.648825153708457947e-02,-1.060720384120941162e-01,1.935618370771408081e-02,-9.459880739450454712e-02,4.729766398668289185e-02,1.175384689122438431e-02,3.389416635036468506e-02,-3.150711208581924438e-02,-7.209178060293197632e-02,-2.076178602874279022e-02,-1.038120407611131668e-02,6.427832413464784622e-03,1.282422803342342377e-02,3.502175444737076759e-03,7.521034032106399536e-02,-1.565769761800765991e-01,4.260690510272979736e-02,4.140887781977653503e-02,-6.413065642118453979e-02,-1.305721849203109741e-01,-9.412922896444797516e-03,9.855858236551284790e-02,3.716370835900306702e-02,-7.736304402351379395e-02,4.370373790152370930e-04,1.753199845552444458e-02,2.289037592709064484e-02,5.669547244906425476e-03,-6.125925481319427490e-02,-7.401087135076522827e-02,-1.273528486490249634e-01,-6.187711656093597412e-02,-1.268228739500045776e-01,7.306774705648422241e-02,-2.207731828093528748e-03,-6.640306115150451660e-02,-1.203008070588111877e-01,-7.816744595766067505e-02,-1.113642845302820206e-02,3.498440235853195190e-02,5.923264846205711365e-02,-3.152425587177276611e-02,-5.007679760456085205e-02,-9.990780055522918701e-02,-4.334361106157302856e-02,-3.503774479031562805e-02,4.988364130258560181e-02,-6.610149145126342773e-02,-7.314392924308776855e-02,-1.046250537037849426e-01,-1.883571743965148926e-01,1.059684082865715027e-01,-1.047720685601234436e-01,5.403634905815124512e-02,1.768783293664455414e-02,5.621131137013435364e-02,1.035064226016402245e-03,6.709916889667510986e-02,5.974646657705307007e-02,5.343106109648942947e-03,3.040121495723724365e-02,4.781409353017807007e-02,-2.917346954345703125e-01,3.328707069158554077e-03,-7.270467281341552734e-02,3.389484249055385590e-03,-4.466620273888111115e-03,6.077335029840469360e-02,3.715851530432701111e-02,-4.618354141712188721e-02,3.525722026824951172e-02,-1.042079627513885498e-01,4.121413826942443848e-02,8.691628277301788330e-02,-4.273910075426101685e-02,-6.105071678757667542e-02,-1.189966425299644470e-01,-1.054183542728424072e-01,-8.015836775302886963e-02,-4.026136174798011780e-02,-1.128346994519233704e-01,-8.308166638016700745e-03,-8.985444158315658569e-02,4.980156663805246353e-03,-5.521298199892044067e-02,-1.100254058837890625e-01,-1.112695708870887756e-01,-7.418248802423477173e-02,1.075978949666023254e-02,6.472594290971755981e-02,1.875058375298976898e-02,1.367580592632293701e-01,4.571923613548278809e-02,-6.191245466470718384e-02,-2.814791351556777954e-02,-2.740235999226570129e-02,3.892320767045021057e-02,9.975986927747726440e-02,-1.341978013515472412e-01,-7.027504593133926392e-02,9.089618688449263573e-04,4.351558163762092590e-02,-4.131639748811721802e-02,-1.783902384340763092e-02,-1.873183809220790863e-02,-6.385728716850280762e-02,3.881050273776054382e-02,-5.896676331758499146e-03,-4.408742487430572510e-02,6.986226141452789307e-02,-7.558373361825942993e-02,5.981056392192840576e-02,-4.926077276468276978e-02,5.742810666561126709e-02,6.079904362559318542e-02,-4.235256090760231018e-02,5.925070494413375854e-02,-9.687202423810958862e-02,8.321346342563629150e-02,-6.206602603197097778e-02,-6.205680221319198608e-02,-8.835739642381668091e-02,-1.612024456262588501e-01,7.570407539606094360e-02,-1.167200505733489990e-02,4.522387683391571045e-02,-8.660884201526641846e-02,-2.929513528943061829e-02,-1.103629618883132935e-01,-9.128873795270919800e-02,-1.070628222078084946e-02,7.127177715301513672e-02,-2.548254840075969696e-02,4.065306857228279114e-02,5.232420191168785095e-02,9.074768982827663422e-03,8.748751133680343628e-02,-7.103757560253143311e-02,3.670337423682212830e-02,-4.705050215125083923e-02,-1.129039600491523743e-01,-2.455321103334426880e-01,8.111742883920669556e-02,-8.186987042427062988e-02,-4.795390740036964417e-02,4.813481494784355164e-02,-7.273117452859878540e-02,-3.560599088668823242e-01,-1.327749937772750854e-01,1.318686306476593018e-01,-1.229389756917953491e-01,-2.571490406990051270e-02,4.055674374103546143e-02,-2.270531281828880310e-02,-2.443579956889152527e-03,-1.006641760468482971e-01,-7.282753288745880127e-02,5.691690742969512939e-02,1.036749705672264099e-01,8.682564646005630493e-02,-3.724490851163864136e-02,4.070295765995979309e-02,-1.193856447935104370e-01,-1.021580323576927185e-01,-1.523372679948806763e-01,1.197874080389738083e-02,-2.037754096090793610e-02,-4.747814685106277466e-02,-1.317401379346847534e-01,4.194495454430580139e-02,-1.246490180492401123e-01,3.039256110787391663e-02,5.378019064664840698e-02,-2.463538385927677155e-02,-1.085090786218643188e-01,1.084408257156610489e-02,-3.704744949936866760e-02,-1.156844049692153931e-01,-5.922567471861839294e-02,-1.242211088538169861e-02,-1.120346933603286743e-01,7.261985540390014648e-02,2.529560588300228119e-02,-1.181050911545753479e-01,2.174779474735260010e-01,-1.301494091749191284e-01,1.360852867364883423e-01,-1.480059325695037842e-01
