1.260893302969634533e-03
6.433725822716951370e-03
4.552296828478574753e-03
-5.754282465204596519e-04
-7.905694656074047089e-03
1.287550199776887894e-02
-5.626819096505641937e-03
0.000000000000000000e+00
6.918737664818763733e-03
-7.526841945946216583e-03
-8.737751282751560211e-03
-9.110133396461606026e-04
4.673797637224197388e-03
-1.267897151410579681e-02
-3.858509473502635956e-03
-1.260403636842966080e-02
-1.014127489179372787e-02
1.811277121305465698e-02
8.602380752563476562e-03
3.348207799717783928e-03
-1.736633852124214172e-02
2.922496525570750237e-03
-5.913281347602605820e-03
5.716229323297739029e-03
9.997567161917686462e-03
8.271706290543079376e-03
-7.942082360386848450e-03
1.580097153782844543e-02
8.893027901649475098e-03
-5.534377414733171463e-03
1.673906459473073483e-03
6.986628752201795578e-03
0.000000000000000000e+00
8.353231474757194519e-03
0.000000000000000000e+00
-8.264436619356274605e-04
-1.063441112637519836e-02
-1.365122944116592407e-02
-9.461748413741588593e-03
-8.243785239756107330e-03
-1.229043304920196533e-02
6.510856910608708858e-04
6.930876988917589188e-03
8.394582197070121765e-03
0.000000000000000000e+00
-7.490490097552537918e-03
7.767219562083482742e-03
-1.325367297977209091e-02
6.491152103990316391e-03
-1.372206956148147583e-02
5.943052470684051514e-03
-1.441188273020088673e-03
5.894069559872150421e-03
-3.550768597051501274e-03
2.423611283302307129e-02
-2.174068940803408623e-03
-6.211494561284780502e-03
-4.638415295630693436e-03
-1.471605803817510605e-02
5.098163150250911713e-03
0.000000000000000000e+00
1.267152559012174606e-02
-2.288939140271395445e-04
1.351211103610694408e-03
0.000000000000000000e+00
-1.983691938221454620e-02
3.050134051591157913e-03
-7.790562231093645096e-04
0.000000000000000000e+00
-2.617311663925647736e-03
3.000126453116536140e-03
1.087122689932584763e-02
-6.106020417064428329e-03
-2.855910453945398331e-03
-1.508995238691568375e-02
-9.475479833781719208e-03
-5.695802159607410431e-03
-1.574446680024266243e-03
7.721504662185907364e-03
0.000000000000000000e+00
-1.009500492364168167e-02
-8.265947923064231873e-03
7.650098297744989395e-03
-1.166529604233801365e-03
0.000000000000000000e+00
-6.914294790476560593e-03
6.617145845666527748e-04
0.000000000000000000e+00
5.932933185249567032e-03
-8.713035844266414642e-03
-7.752476260066032410e-03
-9.576981887221336365e-03
-5.985034164041280746e-03
-7.048761937767267227e-03
-1.574121415615081787e-02
-1.551171112805604935e-02
2.346434444189071655e-02
-3.444543574005365372e-03
-1.253778580576181412e-02
6.546052638441324234e-03
4.483356606215238571e-03
-9.662429802119731903e-03
4.549010191112756729e-03
8.704476989805698395e-03
-1.934049651026725769e-02
-3.889696905389428139e-03
-4.676267504692077637e-03
-7.598639000207185745e-03
1.150511112064123154e-02
1.372409798204898834e-02
-2.227346599102020264e-02
-4.699246026575565338e-03
-1.967644086107611656e-03
0.000000000000000000e+00
-8.433724753558635712e-03
0.000000000000000000e+00
-8.271980099380016327e-03
-1.010801550000905991e-02
4.769480787217617035e-03
-8.874669671058654785e-03
-9.626272949390113354e-04
3.846317064017057419e-03
5.288720130920410156e-03
1.190724200569093227e-03
8.266482502222061157e-03
-6.587670650333166122e-03
1.190486736595630646e-02
0.000000000000000000e+00
5.499739665538072586e-03
-1.773165422491729259e-06
2.716166432946920395e-03
0.000000000000000000e+00
-1.950683887116611004e-03
-8.184853009879589081e-03
-1.534753944724798203e-03
0.000000000000000000e+00
1.064008567482233047e-02
6.563651375472545624e-03
5.900061223655939102e-03
-5.066278390586376190e-03
-6.208274979144334793e-03
-1.033140067011117935e-02
4.774890374392271042e-03
-1.106268726289272308e-02
0.000000000000000000e+00
4.590457247104495764e-04
-5.266592837870121002e-03
-5.986194591969251633e-03
9.137067012488842010e-03
2.700353041291236877e-03
-1.444781105965375900e-02
-9.350476786494255066e-03
-1.165017671883106232e-02
-2.303649904206395149e-03
4.281909205019474030e-03
-6.144645158201456070e-03
0.000000000000000000e+00
-1.268481649458408356e-02
-5.414243787527084351e-03
2.867863746359944344e-03
4.600272979587316513e-03
-5.143933929502964020e-03
-1.011772919446229935e-02
-7.381348405033349991e-03
-4.556062165647745132e-03
7.081985007971525192e-03
-2.842783927917480469e-03
0.000000000000000000e+00
-1.973008504137396812e-03
2.489844919182360172e-04
-7.775767240673303604e-03
1.494788681156933308e-03
-2.101904945448040962e-03
-2.779612317681312561e-03
-1.286149304360151291e-02
-1.927033765241503716e-03
-7.389378151856362820e-04
-8.970488794147968292e-03
2.463932381942868233e-03
-2.025329275056719780e-03
2.834379673004150391e-02
-1.416997797787189484e-02
3.055320819839835167e-03
-5.101507529616355896e-03
-7.749070879071950912e-03
-1.649145968258380890e-02
0.000000000000000000e+00
-9.370882064104080200e-03
-8.079628460109233856e-03
-1.969560515135526657e-03
2.467000158503651619e-03
1.495175808668136597e-02
-5.226766690611839294e-03
-1.645069755613803864e-02
5.573787260800600052e-03
-7.646916899830102921e-03
-5.179665517061948776e-03
5.522415041923522949e-03
-8.964070118963718414e-03
-3.672360675409436226e-03
0.000000000000000000e+00
0.000000000000000000e+00
-1.986532006412744522e-03
2.943268977105617523e-02
-7.458432577550411224e-03
0.000000000000000000e+00
3.045491641387343407e-03
-6.135348696261644363e-03
1.247421745210886002e-02
-4.835111089050769806e-03
1.927526667714118958e-03
6.935605779290199280e-03
6.034886464476585388e-03
-2.661549020558595657e-03
-1.562931388616561890e-02
7.936809211969375610e-03
2.082899771630764008e-02
-8.389024995267391205e-03
-1.142981648445129395e-02
5.576918832957744598e-03
0.000000000000000000e+00
-7.313931826502084732e-03
1.526997238397598267e-02
1.422086358070373535e-02
0.000000000000000000e+00
3.920831251889467239e-03
4.909507697448134422e-04
-4.841559100896120071e-03
-7.075681351125240326e-03
9.155546315014362335e-03
1.368626672774553299e-02
-5.671741440892219543e-03
3.785290988162159920e-03
2.957244869321584702e-03
3.292847541160881519e-04
3.476321231573820114e-03
-1.311303488910198212e-02
-8.494524285197257996e-03
-3.667086828500032425e-03
0.000000000000000000e+00
1.233338564634323120e-02
1.861215569078922272e-02
-6.782472599297761917e-03
0.000000000000000000e+00
4.124145954847335815e-03
-8.733291178941726685e-04
-1.392378588207066059e-03
-5.145127419382333755e-03
-1.225171331316232681e-02
-1.040836144238710403e-02
-1.312892884016036987e-03
-1.187151996418833733e-03
-3.288876963779330254e-03
-1.768208667635917664e-02
-1.137084886431694031e-02
9.063442237675189972e-03
