-1.521519720554351807e-01
8.628252893686294556e-02
-5.188899859786033630e-02
-4.289574548602104187e-02
5.099051445722579956e-02
3.355090320110321045e-01
-1.724487543106079102e-01
7.999406009912490845e-02
-7.181537803262472153e-03
-1.677125506103038788e-02
-1.038926746696233749e-02
-2.210095375776290894e-01
7.437008619308471680e-02
-3.707686811685562134e-02
-7.028330862522125244e-02
-4.773982986807823181e-02
4.305238649249076843e-02
-1.868745535612106323e-01
-1.216654852032661438e-01
-3.024648874998092651e-02
5.131198763847351074e-01
5.140458419919013977e-02
-1.914103478193283081e-01
9.847600944340229034e-03
-1.930267959833145142e-01
-7.488065958023071289e-02
-5.295848101377487183e-02
1.068434715270996094e-01
-2.368164435029029846e-02
-1.315654837526381016e-03
1.878330558538436890e-01
-1.826494187116622925e-01
-1.724448204040527344e-01
1.177951917052268982e-01
-8.172573894262313843e-02
-1.556760966777801514e-01
1.997951269149780273e-01
4.826960712671279907e-02
4.901257902383804321e-02
-2.968388376757502556e-03
-4.554491490125656128e-02
-1.514488756656646729e-01
-1.776223033666610718e-01
-5.513500422239303589e-02
-9.224867075681686401e-02
-2.771426551043987274e-02
-3.674010559916496277e-02
-2.371365278959274292e-01
-3.799393773078918457e-02
-5.386138707399368286e-02
-3.048034757375717163e-02
-6.168339774012565613e-02
-1.158601343631744385e-01
-1.079901233315467834e-01
8.182407915592193604e-02
-1.098415106534957886e-01
-6.143041327595710754e-02
-1.499615609645843506e-01
-1.391794979572296143e-01
1.669459789991378784e-02
-7.176877558231353760e-02
-5.216671526432037354e-02
-2.118833065032958984e-01
-2.627244777977466583e-02
-4.777542501688003540e-02
-1.501516848802566528e-01
-6.236266344785690308e-02
-1.336741596460342407e-01
-1.209810748696327209e-01
-1.334983706474304199e-01
1.600803993642330170e-02
-6.970112677663564682e-03
5.186811462044715881e-02
1.613224484026432037e-02
4.982823133468627930e-01
6.104484200477600098e-02
-1.269582062959671021e-01
-1.316612064838409424e-01
0.000000000000000000e+00
-7.023201882839202881e-02
-2.252152562141418457e-02
-7.574667036533355713e-02
-2.114799916744232178e-01
8.587054163217544556e-02
-2.970258593559265137e-01
7.312885136343538761e-04
-2.357737161219120026e-02
7.808239758014678955e-02
-1.232339218258857727e-01
-3.020418584346771240e-01
-1.009210050106048584e-01
-4.651212692260742188e-02
-2.144403010606765747e-02
-5.886896699666976929e-02
-5.952277779579162598e-02
-7.654285430908203125e-02
-1.135558113455772400e-01
-2.539888583123683929e-02
-5.840826034545898438e-02
-1.093795746564865112e-01
2.017945051193237305e-01
2.116780914366245270e-02
2.580487355589866638e-02
1.589420139789581299e-01
-8.046421408653259277e-02
6.029524281620979309e-02
-2.184957079589366913e-02
-9.141646325588226318e-02
-1.393644660711288452e-01
3.484300151467323303e-02
-3.039114363491535187e-02
9.648730605840682983e-02
3.012507222592830658e-02
-2.158585004508495331e-02
-2.465919591486454010e-02
8.306924253702163696e-02
-2.237103432416915894e-01
1.043727062642574310e-02
1.022421568632125854e-01
-1.040886193513870239e-01
-1.102709993720054626e-01
-1.271480768918991089e-01
-2.888694033026695251e-02
-1.604967713356018066e-01
-1.739675849676132202e-01
7.680302113294601440e-02
-1.148764416575431824e-02
-3.495584800839424133e-02
-7.054566591978073120e-02
-6.605996936559677124e-02
-2.737288735806941986e-02
-1.923959255218505859e-01
8.099980652332305908e-02
-1.604607850313186646e-01
-5.099315568804740906e-02
-9.501047432422637939e-02
6.581673771142959595e-02
-2.091997861862182617e-02
-9.520897874608635902e-04
-1.121305525302886963e-01
-1.452900171279907227e-01
-1.763519048690795898e-01
9.224458597600460052e-03
-4.333671927452087402e-02
3.987459838390350342e-02
7.497423142194747925e-02
-7.573349773883819580e-02
1.401281915605068207e-02
1.056044269353151321e-02
-6.023446563631296158e-03
-2.500715851783752441e-01
-2.188978940248489380e-01
-7.199204526841640472e-03
1.180888339877128601e-02
1.574018038809299469e-02
1.217213086783885956e-02
-1.599377952516078949e-02
1.272713392972946167e-01
-1.054194420576095581e-01
-1.993263959884643555e-01
3.283822163939476013e-02
-3.178993612527847290e-02
-1.323225498199462891e-01
8.290559053421020508e-02
-9.200651198625564575e-02
-3.123002126812934875e-02
-2.146621197462081909e-01
2.161698490381240845e-01
-1.376752555370330811e-01
-2.102448344230651855e-01
-1.877159178256988525e-01
3.309210836887359619e-01
-5.827511101961135864e-02
2.815006859600543976e-02
6.848983466625213623e-02
-6.392601877450942993e-02
-5.495193228125572205e-02
-9.678332507610321045e-02
-2.739134058356285095e-02
1.543087325990200043e-02
3.427550941705703735e-02
-8.401629328727722168e-02
1.326610706746578217e-02
-1.871475018560886383e-02
-2.155963629484176636e-01
-1.069660484790802002e-01
-1.100381165742874146e-01
1.320464350283145905e-02
-1.030276436358690262e-02
-3.733482584357261658e-02
1.127348840236663818e-02
-1.059278771281242371e-01
-7.916218042373657227e-02
-1.318782567977905273e-01
-6.290567666292190552e-02
1.854630112648010254e-01
3.035243451595306396e-01
-7.917141914367675781e-02
-9.849632158875465393e-03
-4.180143773555755615e-02
-1.180519163608551025e-01
-6.604367494583129883e-02
4.992420226335525513e-02
-3.157132118940353394e-02
1.746637374162673950e-02
-2.195484787225723267e-01
-7.855846732854843140e-02
-1.560727953910827637e-01
-1.576078236103057861e-01
-3.369462862610816956e-02
-1.802042275667190552e-01
-7.059223949909210205e-02
3.279610872268676758e-01
-2.971244789659976959e-02
-3.126498460769653320e-01
-1.002895459532737732e-01
-5.689271539449691772e-02
-7.182181626558303833e-02
-6.270131468772888184e-02
1.046345680952072144e-01
-2.051675021648406982e-01
-2.157333791255950928e-01
5.757940933108329773e-02
-7.765712589025497437e-02
-8.168103545904159546e-02
-5.744390562176704407e-02
9.721371531486511230e-02
-7.461947947740554810e-02
-9.602999314665794373e-03
-1.214132905006408691e-01
-2.547195255756378174e-01
-1.054774001240730286e-01
-1.096303015947341919e-01
-1.426041591912508011e-02
-2.331585288047790527e-01
3.189472481608390808e-02
-3.134220540523529053e-01
7.794610224664211273e-03
-1.061710417270660400e-01
4.177124425768852234e-02
-1.019538938999176025e-01
-1.579212248325347900e-01
4.213572666049003601e-02
-4.622926190495491028e-02
2.429647184908390045e-02
3.766798973083496094e-02
-1.481921970844268799e-01
8.021647110581398010e-03
-1.979981958866119385e-01
2.364123016595840454e-01
-1.621362417936325073e-01
-4.515290632843971252e-02
-6.288196146488189697e-02
7.824102789163589478e-02
-2.236269563436508179e-01
-9.167590737342834473e-02
