-8.680570870637893677e-02
-2.644666470587253571e-03
-5.071540176868438721e-02
-2.970962971448898315e-02
-1.093276664614677429e-01
2.592413723468780518e-01
7.083238661289215088e-02
2.165829017758369446e-02
-3.444951027631759644e-02
-5.680676549673080444e-02
-3.231910243630409241e-02
-6.522534042596817017e-02
-1.137235537171363831e-01
1.083992049098014832e-02
6.605330854654312134e-02
2.063891291618347168e-01
-3.227240592241287231e-02
-1.967370808124542236e-01
9.042014181613922119e-02
5.130736529827117920e-02
-1.694723665714263916e-01
6.210283935070037842e-02
6.767417490482330322e-02
7.224369049072265625e-02
-6.037076562643051147e-02
-2.030132710933685303e-01
-1.194793581962585449e-01
-1.964154243469238281e-01
1.463452074676752090e-02
-1.346651762723922729e-01
5.658176168799400330e-02
1.623292714357376099e-01
1.288236677646636963e-01
-1.175766438245773315e-01
4.711050912737846375e-02
-1.452975720167160034e-01
-1.012336537241935730e-01
-1.207140535116195679e-01
-6.869886815547943115e-02
-3.754067048430442810e-02
-1.262983679771423340e-02
-5.629222467541694641e-02
-1.507970094680786133e-01
-2.278646528720855713e-01
-1.982980519533157349e-01
-1.716651618480682373e-01
1.312130689620971680e-01
8.077621459960937500e-02
-1.602969020605087280e-01
3.972770646214485168e-02
-1.604577898979187012e-01
-4.323551431298255920e-02
2.773002982139587402e-01
9.654287993907928467e-02
1.137342303991317749e-01
-1.657493710517883301e-01
-7.737557590007781982e-02
-3.661202639341354370e-02
2.130945324897766113e-01
-7.474762946367263794e-02
5.949778109788894653e-02
-1.228021532297134399e-01
5.507612973451614380e-02
1.233297511935234070e-01
-8.267106860876083374e-02
1.761204749345779419e-01
6.331704207696020603e-05
-6.839735805988311768e-02
2.756692767143249512e-01
-1.080267652869224548e-01
5.765257030725479126e-02
-7.434666156768798828e-02
-4.868302866816520691e-02
2.419199422001838684e-02
-7.448709756135940552e-02
1.938077658414840698e-01
1.677308231592178345e-01
4.668079689145088196e-02
1.010417044162750244e-01
2.024145424365997314e-01
-6.966953724622726440e-02
4.147795215249061584e-02
1.490953415632247925e-01
1.118526142090559006e-02
-1.484296619892120361e-01
-1.360892355442047119e-01
-5.965840071439743042e-03
-9.293489158153533936e-02
2.173573821783065796e-01
-1.696890890598297119e-01
1.786185652017593384e-01
-2.172621190547943115e-01
2.777794897556304932e-01
-3.716230019927024841e-02
-6.153267808258533478e-03
-6.116823479533195496e-02
7.192417979240417480e-02
-1.691523939371109009e-03
-8.698920160531997681e-02
-2.471290081739425659e-01
1.062090136110782623e-02
-1.706531643867492676e-01
-1.102897822856903076e-01
-1.407496929168701172e-01
5.366105213761329651e-02
-2.973900362849235535e-02
-3.728353679180145264e-01
-6.294012814760208130e-02
-1.459986418485641479e-01
1.623676568269729614e-01
-5.604018806479871273e-04
-1.676689386367797852e-01
-1.335564106702804565e-01
8.434761315584182739e-02
-1.937049478292465210e-01
-8.199332654476165771e-02
4.792096838355064392e-02
-1.171142160892486572e-01
2.011321671307086945e-02
-5.144216120243072510e-02
-5.868666619062423706e-02
5.536980181932449341e-02
-2.200241833925247192e-01
1.245523057878017426e-02
-1.023971810936927795e-01
-1.791738271713256836e-01
1.420275419950485229e-01
-6.504617631435394287e-02
8.553456515073776245e-02
-1.916992515325546265e-01
2.629994414746761322e-02
-1.978875137865543365e-03
7.987001538276672363e-02
4.284382238984107971e-02
1.528985053300857544e-01
-7.353185862302780151e-02
-1.553359925746917725e-01
5.145713686943054199e-02
1.157604306936264038e-01
-9.139771014451980591e-02
2.160702347755432129e-01
-1.779091358184814453e-01
1.129443049430847168e-01
1.332203745841979980e-01
1.576626747846603394e-01
1.253582984209060669e-01
1.488507241010665894e-01
6.701833754777908325e-02
-1.940777450799942017e-01
1.168139949440956116e-01
-1.358828097581863403e-01
5.945114791393280029e-02
1.384154800325632095e-02
-8.167750388383865356e-02
-3.575449064373970032e-02
1.766496747732162476e-01
-4.689048230648040771e-02
3.564444836229085922e-03
-2.458071522414684296e-02
-1.959900408983230591e-01
7.969377189874649048e-02
1.333686113357543945e-01
-2.241093069314956665e-01
1.005560979247093201e-01
1.446828693151473999e-01
-5.333191156387329102e-02
-2.328960923478007317e-03
-1.192976720631122589e-02
2.139705233275890350e-02
-2.770572006702423096e-01
-3.523515164852142334e-01
-1.150150820612907410e-01
1.739439070224761963e-01
-4.427196830511093140e-02
2.157174199819564819e-01
7.370533794164657593e-02
1.232674811035394669e-02
-1.431755423545837402e-01
5.858306586742401123e-02
-1.317398399114608765e-01
-4.429636523127555847e-02
-4.060907289385795593e-02
-1.584180146455764771e-01
-8.280742913484573364e-02
2.096682228147983551e-02
6.415825337171554565e-02
-8.448924124240875244e-02
-1.569427549839019775e-01
1.213370859622955322e-01
1.203763764351606369e-03
4.054301604628562927e-02
-2.022390067577362061e-02
-1.238256245851516724e-01
-1.260789930820465088e-01
-1.842747926712036133e-01
-8.918350934982299805e-02
8.112062700092792511e-03
1.062777787446975708e-01
-5.732036381959915161e-02
2.023768611252307892e-02
-3.231977224349975586e-01
-1.601079013198614120e-03
-2.779811434447765350e-02
0.000000000000000000e+00
2.268319725990295410e-01
3.513225167989730835e-02
1.032837480306625366e-02
2.015544623136520386e-01
-7.378371804952621460e-02
-1.584129780530929565e-01
2.506720721721649170e-01
3.069401718676090240e-02
-7.870226353406906128e-02
1.851144134998321533e-01
-2.861825525760650635e-01
4.474901035428047180e-02
-1.625396013259887695e-01
-8.369966596364974976e-02
1.921729445457458496e-01
2.105440199375152588e-01
4.645968787372112274e-03
-2.860035002231597900e-01
-4.184621199965476990e-02
4.366039857268333435e-02
-1.611278802156448364e-01
-1.013789549469947815e-01
-7.529650628566741943e-02
-1.577484011650085449e-01
-1.271709501743316650e-01
7.066803425550460815e-02
-9.568383544683456421e-02
-8.993178606033325195e-02
-1.251788735389709473e-01
5.444685742259025574e-02
-2.484749443829059601e-02
-7.639329880475997925e-02
-2.945174276828765869e-01
2.137656360864639282e-01
-2.353144995868206024e-02
5.042318254709243774e-02
4.551752284169197083e-02
-2.827994525432586670e-01
1.379112601280212402e-01
2.365733236074447632e-01
-2.901863753795623779e-01
-2.448627352714538574e-02
1.036661863327026367e-01
-1.002170741558074951e-01
-1.884452402591705322e-01
1.723774075508117676e-01
-3.327694535255432129e-02
1.638894528150558472e-01
1.810159981250762939e-01
3.764442354440689087e-02
1.533814221620559692e-01
6.089856475591659546e-02
