1.128785908222198486e-01
1.103112474083900452e-02
8.829815313220024109e-03
-1.031486615538597107e-01
2.851220779120922089e-02
-1.563698612153530121e-02
-1.034521162509918213e-01
-2.147705703973770142e-01
-6.572255492210388184e-02
-1.292175501585006714e-01
-2.531181275844573975e-01
-1.267902646213769913e-02
-2.915122918784618378e-02
-9.022397547960281372e-02
9.691570699214935303e-02
1.871607825160026550e-02
-1.939240992069244385e-01
-7.225927710533142090e-02
2.083601802587509155e-01
-1.395648624747991562e-02
-1.182806715369224548e-01
-3.144123184029012918e-04
1.192564219236373901e-01
-1.990317553281784058e-01
-2.012891881167888641e-02
-9.609047323465347290e-03
-5.139215663075447083e-02
-9.246204793453216553e-02
-1.640878468751907349e-01
-2.266853675246238708e-02
-1.335133761167526245e-01
-9.410199522972106934e-02
-1.021708026528358459e-01
-4.345226287841796875e-02
-1.150680258870124817e-01
3.878212347626686096e-02
-2.275680899620056152e-01
5.281757563352584839e-02
-1.362811326980590820e-01
-6.669025868177413940e-02
-4.680478572845458984e-02
-3.991779088973999023e-01
-1.078968867659568787e-01
1.276510208845138550e-01
-1.421555578708648682e-01
-6.739644333720207214e-03
-2.030765414237976074e-01
-6.874709576368331909e-02
-1.669693589210510254e-01
-1.580708324909210205e-01
-1.049053892493247986e-01
-9.527523815631866455e-02
9.407582134008407593e-02
-2.758513437584042549e-03
-8.352404087781906128e-02
-1.309718042612075806e-01
-5.467405915260314941e-02
-4.853251948952674866e-02
1.313981860876083374e-01
8.408677577972412109e-02
-2.670609951019287109e-02
7.904591411352157593e-02
3.463730216026306152e-02
-4.758695513010025024e-02
-3.770621493458747864e-02
-2.585853338241577148e-01
-1.667077839374542236e-01
1.236687228083610535e-01
-1.743045449256896973e-01
-1.407696008682250977e-01
-4.195245355367660522e-02
-3.868996724486351013e-02
-1.171883419156074524e-01
-3.360398411750793457e-01
1.683079637587070465e-02
6.097801774740219116e-02
-4.562163725495338440e-02
2.696079015731811523e-01
1.270326822996139526e-01
-3.215748444199562073e-02
5.701578035950660706e-02
6.512380391359329224e-02
-1.060598492622375488e-01
4.212461411952972412e-03
-3.852515667676925659e-02
-2.142431400716304779e-02
-5.732877179980278015e-02
8.158835768699645996e-02
3.360100835561752319e-02
1.095704659819602966e-01
2.271881327033042908e-02
-1.896928399801254272e-01
8.870177716016769409e-02
-3.982442244887351990e-02
-8.202031254768371582e-02
-2.206088975071907043e-02
1.636070013046264648e-01
-5.759519524872303009e-03
1.389339864253997803e-01
-4.227989539504051208e-02
8.899891749024391174e-03
1.024985685944557190e-02
-7.776285056024789810e-04
-1.838954165577888489e-02
-9.065689891576766968e-02
2.182840742170810699e-02
-5.065091699361801147e-02
-6.955242156982421875e-02
1.170878931879997253e-01
-1.974578201770782471e-02
-9.949979931116104126e-02
-9.423062950372695923e-02
-1.040774136781692505e-01
1.054568141698837280e-01
-3.229712843894958496e-01
-4.312419146299362183e-02
-1.300515383481979370e-01
-1.587391942739486694e-01
-1.944160312414169312e-01
-1.626489609479904175e-01
2.439342141151428223e-01
-1.993729323148727417e-01
-5.111173540353775024e-02
-9.028996527194976807e-02
-3.266441449522972107e-02
-8.912096172571182251e-02
8.469300717115402222e-02
-2.943674474954605103e-02
-3.445202857255935669e-02
-1.081315707415342331e-02
-3.266785293817520142e-02
-1.695222109556198120e-01
-1.081454008817672729e-01
9.567895531654357910e-02
9.245929121971130371e-02
-1.453284919261932373e-01
2.270948141813278198e-02
-9.215480089187622070e-02
3.463500738143920898e-02
-1.432197839021682739e-01
-5.517993122339248657e-02
5.063737928867340088e-02
-1.602392494678497314e-01
1.862748712301254272e-02
-3.166143894195556641e-01
6.281024962663650513e-02
-1.329376995563507080e-01
7.298936694860458374e-02
5.292881280183792114e-02
-1.517644077539443970e-01
4.202713444828987122e-02
-1.613767445087432861e-02
1.558128595352172852e-01
3.471240401268005371e-02
-3.899170458316802979e-01
-1.045816168189048767e-01
-1.295588314533233643e-01
-1.499645709991455078e-01
8.086984604597091675e-02
-5.053520947694778442e-02
-4.780394956469535828e-02
-1.286624465137720108e-03
7.006679475307464600e-02
9.994755499064922333e-03
-5.090505257248878479e-02
-1.528054624795913696e-01
-1.316612064838409424e-01
-1.859237253665924072e-01
-3.305855765938758850e-02
-5.187758803367614746e-02
-2.918593026697635651e-02
-5.715815816074609756e-03
3.295231843367218971e-03
-1.277462393045425415e-01
-2.041971981525421143e-01
-1.040146574378013611e-01
-2.048466801643371582e-01
3.714440390467643738e-02
-2.027002424001693726e-01
6.548412144184112549e-02
-1.075836569070816040e-01
6.862754002213478088e-03
-1.580737531185150146e-01
6.863830238580703735e-02
1.027837246656417847e-01
-4.435564205050468445e-02
3.948840312659740448e-03
-5.192935094237327576e-02
0.000000000000000000e+00
-8.194676600396633148e-03
-8.433482795953750610e-02
-8.627767860889434814e-02
-4.585574194788932800e-02
-3.457402065396308899e-02
-6.183134391903877258e-02
-4.554713144898414612e-02
5.197895318269729614e-02
-1.657843589782714844e-01
-1.173131093382835388e-01
1.835843734443187714e-02
-1.375339180231094360e-01
-5.772396922111511230e-02
6.950321048498153687e-02
-1.318555884063243866e-02
-1.743773072957992554e-01
5.328310281038284302e-02
-6.378556787967681885e-02
-6.793605536222457886e-02
-2.351929247379302979e-01
1.638973504304885864e-01
-2.866821587085723877e-01
-8.176780492067337036e-02
-1.147696375846862793e-01
-1.079930886626243591e-01
-5.938131734728813171e-02
3.047673106193542480e-01
7.669292390346527100e-02
6.819080561399459839e-03
-7.629914581775665283e-02
4.788859933614730835e-02
-7.049094140529632568e-02
0.000000000000000000e+00
-4.492417350411415100e-02
1.400945987552404404e-02
-2.655069902539253235e-02
-1.098571345210075378e-01
4.326479509472846985e-02
8.822887390851974487e-02
-5.894683673977851868e-02
2.110635638236999512e-01
-2.546321749687194824e-01
-2.007802277803421021e-01
-7.499703764915466309e-02
-1.553902029991149902e-01
-6.550707668066024780e-02
1.461903452873229980e-01
-1.860735751688480377e-02
5.450817570090293884e-02
-7.193447649478912354e-02
-8.435351401567459106e-02
1.973371254280209541e-03
-9.112888574600219727e-02
-3.548537194728851318e-01
1.020435914397239685e-01
1.458957046270370483e-02
-2.305993577465415001e-03
2.489743381738662720e-01
1.244406178593635559e-01
-5.736668780446052551e-02
-1.010880768299102783e-01
6.556555163115262985e-03
-8.399419486522674561e-02
-2.159744203090667725e-01
4.294009879231452942e-03
-1.765643805265426636e-01
1.025224803015589714e-03
