7.336486130952835083e-02
5.634328350424766541e-02
5.955331400036811829e-02
-1.628204435110092163e-01
2.863568812608718872e-02
2.191810309886932373e-02
7.807351648807525635e-02
-5.475414171814918518e-02
-7.917282171547412872e-03
8.404071629047393799e-02
9.503243863582611084e-02
1.821715086698532104e-01
-1.110525950789451599e-01
-6.815176457166671753e-02
-1.803122609853744507e-01
3.371906653046607971e-02
-1.618415117263793945e-01
-2.081455141305923462e-01
-2.337064594030380249e-01
-9.056153893470764160e-02
8.636127226054668427e-03
2.042975742369890213e-03
2.665247023105621338e-02
3.589823842048645020e-02
-1.686161756515502930e-01
-1.057523535564541817e-03
1.353153884410858154e-01
2.261838875710964203e-02
2.391112782061100006e-02
-1.281599700450897217e-01
-1.559732668101787567e-02
1.162563189864158630e-01
8.964803069829940796e-02
-1.585768312215805054e-01
-4.907742142677307129e-02
1.306466013193130493e-01
-2.828666269779205322e-01
2.171122282743453979e-01
9.885732829570770264e-02
6.884559243917465210e-02
1.346550583839416504e-01
-3.937573134899139404e-01
-1.639108955860137939e-01
1.428903639316558838e-01
9.980868548154830933e-02
-7.821942679584026337e-03
-1.666047424077987671e-01
-1.279117912054061890e-01
1.767592430114746094e-01
5.934682488441467285e-02
1.110535487532615662e-01
-8.722413331270217896e-02
-4.059823974967002869e-02
5.838446691632270813e-02
-1.804582178592681885e-01
1.481152698397636414e-02
-4.975726455450057983e-02
-3.958325088024139404e-02
-1.926631107926368713e-02
-1.352524012327194214e-01
1.291477959603071213e-02
2.206492051482200623e-02
-5.287713184952735901e-02
8.879202604293823242e-02
-5.231444910168647766e-02
-1.801566220819950104e-02
9.938173741102218628e-02
-1.080710217356681824e-01
8.571083098649978638e-02
-5.201871320605278015e-02
-1.122087165713310242e-01
7.747476547956466675e-02
1.815006881952285767e-02
9.255336225032806396e-02
-2.862175740301609039e-02
-1.644986122846603394e-02
-6.621985882520675659e-02
-1.284819990396499634e-01
-2.212949842214584351e-01
-3.648009300231933594e-01
4.016528651118278503e-02
1.124396920204162598e-01
-1.448581367731094360e-02
-1.886508613824844360e-01
-5.374117195606231689e-02
-6.928130984306335449e-02
-1.561651378870010376e-01
-1.429374050348997116e-02
-1.976857930421829224e-01
-5.422910209745168686e-03
-6.168217584490776062e-02
1.592868864536285400e-01
-4.855510592460632324e-02
-1.298951208591461182e-01
-2.472037822008132935e-01
9.776430577039718628e-02
9.292901307344436646e-02
1.295078694820404053e-01
7.000914216041564941e-02
2.386670792475342751e-03
2.675294578075408936e-01
-1.997619122266769409e-01
5.022263526916503906e-02
1.396519877016544342e-02
-1.169520691037178040e-01
-1.453185826539993286e-01
-1.775743067264556885e-01
-8.247078396379947662e-03
-2.652136422693729401e-02
1.156468968838453293e-02
1.124850586056709290e-01
-9.798274189233779907e-02
-1.769331097602844238e-01
2.137981057167053223e-01
-1.388174016028642654e-02
-7.988528907299041748e-02
-5.300762504339218140e-02
-1.950773745775222778e-01
-9.909489750862121582e-02
-6.633095443248748779e-02
3.354555666446685791e-01
-1.520165055990219116e-01
-9.924146533012390137e-02
5.180555209517478943e-02
1.086613759398460388e-01
-6.085091084241867065e-02
-2.024267464876174927e-01
1.639018654823303223e-01
1.135622262954711914e-01
1.160596497356891632e-02
1.365088485181331635e-02
-6.240117549896240234e-02
-5.474163219332695007e-03
-3.963576555252075195e-01
1.112581323832273483e-02
1.151036694645881653e-01
-7.852360606193542480e-02
1.078357473015785217e-01
-9.595742449164390564e-03
1.052513197064399719e-01
7.868688553571701050e-02
-2.630942165851593018e-01
9.174446761608123779e-02
-2.314986102283000946e-02
1.241969317197799683e-01
6.913902610540390015e-02
-9.197815507650375366e-02
1.185667589306831360e-01
9.056472778320312500e-02
-1.098798438906669617e-01
2.373465895652770996e-02
-2.214379757642745972e-01
-1.250795833766460419e-02
-8.117004483938217163e-02
-9.243469685316085815e-02
-9.186340123414993286e-02
1.987209729850292206e-02
1.844401098787784576e-02
-6.296839565038681030e-02
-8.412070572376251221e-02
1.560727953910827637e-01
4.627729579806327820e-02
1.179579868912696838e-01
5.114262457937002182e-03
-2.021691203117370605e-02
5.013711377978324890e-02
-8.407463133335113525e-02
-3.366959691047668457e-01
1.044031232595443726e-01
-1.196988895535469055e-01
7.458911836147308350e-02
-1.927596777677536011e-01
2.082957923412322998e-01
1.614302247762680054e-01
1.217540353536605835e-01
-4.587049409747123718e-02
5.727094039320945740e-02
-1.470721960067749023e-01
-1.584230661392211914e-01
-4.215442761778831482e-02
3.435660898685455322e-02
1.239577084779739380e-01
1.504944413900375366e-01
-1.529569476842880249e-01
-2.064333483576774597e-02
-1.206213608384132385e-01
-6.989000737667083740e-02
3.895576298236846924e-02
-3.434408456087112427e-02
-1.366613954305648804e-01
-6.697123497724533081e-02
-2.562714926898479462e-02
-3.853847831487655640e-02
1.230020672082901001e-01
-1.917675733566284180e-01
9.169673174619674683e-02
-1.175903975963592529e-01
-6.259544193744659424e-02
6.297349929809570312e-02
1.499676555395126343e-01
1.532985456287860870e-02
1.891068927943706512e-02
-2.894948422908782959e-02
8.890508115291595459e-02
-9.611343592405319214e-02
9.430126845836639404e-02
-3.007689863443374634e-02
1.136038079857826233e-01
1.922830939292907715e-02
-7.782442122697830200e-02
-1.485318504273891449e-02
2.062316983938217163e-03
-4.408533126115798950e-02
-2.643409185111522675e-02
-2.692326307296752930e-01
-2.804203033447265625e-01
6.781373172998428345e-02
8.897732943296432495e-02
-1.693585962057113647e-01
-1.903200596570968628e-01
7.154069095849990845e-02
8.622099459171295166e-02
7.129096239805221558e-02
-9.700854867696762085e-02
-2.647988498210906982e-02
-1.274302750825881958e-01
1.199317201972007751e-01
2.969520986080169678e-01
-1.407228112220764160e-01
7.951286435127258301e-02
-2.957525104284286499e-02
8.960463106632232666e-03
1.737053096294403076e-01
-6.424741446971893311e-02
-9.121920168399810791e-02
-2.313820086419582367e-02
7.031659036874771118e-02
-8.249370008707046509e-02
2.788236364722251892e-02
7.730305194854736328e-02
1.240927875041961670e-01
1.341212242841720581e-01
-1.149772405624389648e-01
5.546553060412406921e-02
-3.802019730210304260e-02
-1.330754719674587250e-02
1.450105337426066399e-03
2.331170886754989624e-01
-7.680172473192214966e-02
-2.720986604690551758e-01
1.089577749371528625e-01
-6.753316521644592285e-02
-2.010193318128585815e-01
-2.112607657909393311e-01
-1.067908182740211487e-01
-9.341938793659210205e-02
