-1.947248280048370361e-01,3.949186950922012329e-02,-2.157071381807327271e-01,1.146866902709007263e-01,-8.711883425712585449e-02,-1.187277957797050476e-01,-1.189751327037811279e-01,-1.796048283576965332e-01,-7.807273417711257935e-02,-2.575408853590488434e-02,3.620151430368423462e-02,4.183584079146385193e-02,-1.077112033963203430e-01,4.567373171448707581e-02,-1.498385816812515259e-01,1.653181947767734528e-02,-4.202854819595813751e-03,-2.299674004316329956e-01,-2.112726718187332153e-01,-1.268635243177413940e-01,1.837366260588169098e-02,-2.620117962360382080e-01,-2.092660218477249146e-01,-1.912400722503662109e-01,-1.439380198717117310e-01,-9.279792010784149170e-02,-1.201486364006996155e-01,-1.981150358915328979e-01,-1.932058110833168030e-02,2.722105011343955994e-02,-1.281473040580749512e-01,-1.104402542114257812e-01,-8.319612592458724976e-02,-6.084807217121124268e-03,-1.723032891750335693e-01,-2.582168579101562500e-01,2.528582885861396790e-02,8.357304148375988007e-03,-1.878497749567031860e-02,-2.069543153047561646e-01,3.717292472720146179e-02,-6.928104162216186523e-02,-1.656542271375656128e-01,-6.358693540096282959e-02,-2.293878346681594849e-01,4.802519083023071289e-02,1.868977770209312439e-02,2.586863189935684204e-02,-9.737193584442138672e-02,-6.773458793759346008e-03,-6.008039042353630066e-02,-1.687674671411514282e-01,1.635783910751342773e-02,5.665337294340133667e-02,-1.279400102794170380e-02,-7.956601679325103760e-03,-8.742853067815303802e-03,-9.712640941143035889e-02,-6.438288092613220215e-02,4.075696226209402084e-03,2.455327287316322327e-02,2.356555499136447906e-02,3.538479283452033997e-02,-5.351360514760017395e-02,-8.558902144432067871e-02,1.944725029170513153e-02,-2.536090910434722900e-01,-7.656139880418777466e-02,-1.085779294371604919e-01,-2.397541850805282593e-01,-3.107710275799036026e-03,1.016669347882270813e-02,-1.350914388895034790e-01,3.927849605679512024e-02,-1.079182252287864685e-01,-8.430726826190948486e-03,1.149911135435104370e-01,-5.922964960336685181e-02,-9.472903609275817871e-02,-4.931841790676116943e-02,-9.910441935062408447e-02,-1.416061669588088989e-01,-1.591865271329879761e-01,-5.912851914763450623e-02,1.654796451330184937e-01,-3.353166952729225159e-02,-1.340235173702239990e-01,1.170102506875991821e-02,-6.820409325882792473e-04,-1.415202170610427856e-01,-8.138367533683776855e-02,-1.213987767696380615e-01,3.553369641304016113e-02,3.561222925782203674e-03,-9.849019348621368408e-03,6.582340598106384277e-02,-5.835226178169250488e-02,-2.648852169513702393e-01,-1.061341762542724609e-01,-1.038538515567779541e-01,-1.309615075588226318e-01,-7.604239135980606079e-02,-9.197357296943664551e-02,-1.505706012248992920e-01,-2.222518622875213623e-02,-2.549937460571527481e-03,-1.268773339688777924e-02,-8.653197437524795532e-02,-7.300601899623870850e-02,-2.966086268424987793e-01,-2.455781400203704834e-01,-4.165115952491760254e-02,-2.649591676890850067e-02,-1.280771493911743164e-01,-6.393923610448837280e-02,-3.448073938488960266e-02,3.336417675018310547e-02,-1.348366737365722656e-01,-1.831464469432830811e-01,-1.900437772274017334e-01,-5.331035330891609192e-02,-3.090845234692096710e-02,-1.450125426054000854e-01,3.355489671230316162e-02,-3.245782256126403809e-01,-1.462164819240570068e-01,-6.610948592424392700e-02,-8.953730016946792603e-02,-1.153863519430160522e-01,9.156715124845504761e-02,5.994299892336130142e-03,-1.109047606587409973e-01,-1.680355966091156006e-01,-5.277977511286735535e-02,-2.018358409404754639e-01,-1.878164261579513550e-01,-1.663353294134140015e-01,-2.177843749523162842e-01,5.634156614542007446e-02,-3.487884625792503357e-02,-1.678950488567352295e-01,-8.608285337686538696e-03,-2.229238450527191162e-01,1.102811172604560852e-01,-4.249027743935585022e-02,1.646720990538597107e-02,-7.111606001853942871e-02,5.299540609121322632e-02,-2.475007325410842896e-01,4.542933776974678040e-02,-1.006075665354728699e-01,1.671685650944709778e-02,-1.370442956686019897e-01,7.494062185287475586e-02,-1.952475756406784058e-01,-8.372646570205688477e-02,-3.809025883674621582e-02,-3.696320578455924988e-02,1.717572361230850220e-01,-5.613233894109725952e-02,-8.028432726860046387e-02,-1.372261438518762589e-02,-1.008985936641693115e-02,-1.049048081040382385e-01,-1.412437707185745239e-01,-1.502978354692459106e-01,-6.046988815069198608e-02,-1.396133452653884888e-01,-2.403651326894760132e-01,-8.176904916763305664e-02,-1.505778729915618896e-02,-7.329977303743362427e-02,-1.165733411908149719e-01,-1.074052080512046814e-01,-9.390474855899810791e-02,-3.906339406967163086e-02,-4.143786057829856873e-02,5.316892173141241074e-03,-1.003472879528999329e-01,-1.450177561491727829e-02,-9.654983878135681152e-02,-1.131040379405021667e-01,-1.121628433465957642e-01,1.623815856873989105e-02,-4.891652613878250122e-02,-3.897278383374214172e-02,-3.435261845588684082e-01,-9.442347288131713867e-02,-1.293013151735067368e-02,-8.524679392576217651e-02,-1.842127442359924316e-01,-1.926180324517190456e-03,9.008265286684036255e-02,-4.582199081778526306e-02,-1.493398249149322510e-01,-8.134101331233978271e-02,-2.135756798088550568e-02,-1.231314316391944885e-01,-1.775958091020584106e-01,-1.043231710791587830e-01,-1.643356382846832275e-01,-7.766484469175338745e-02,-2.014402151107788086e-01,-1.514523029327392578e-01,-7.302862405776977539e-02,-2.202583104372024536e-01,-1.146892458200454712e-01,-2.251673936843872070e-01,-9.933703392744064331e-02,-2.350592464208602905e-01,-1.077943593263626099e-01,-1.499922871589660645e-01,-1.933549046516418457e-01,-1.007774397730827332e-01,-4.164277762174606323e-02,-1.603344641625881195e-02,-1.923828721046447754e-01,-7.342672348022460938e-02,-7.890148460865020752e-02,-6.607955694198608398e-02,-2.202785909175872803e-01,4.807956516742706299e-02,-2.260387241840362549e-01,-1.916319690644741058e-02,4.094913601875305176e-02,-4.651910066604614258e-02,-8.425398916006088257e-02,-1.298000812530517578e-01,3.337763622403144836e-02,-7.625450938940048218e-02,-1.609914153814315796e-01,6.989601999521255493e-02,3.839670494198799133e-02,4.244571551680564880e-03,-6.606957316398620605e-02,-1.863107532262802124e-01,-1.923048198223114014e-01,-5.753071233630180359e-02,-7.862756401300430298e-02,1.963588148355484009e-01,-4.379377514123916626e-02,-9.744997322559356689e-02,1.441882699728012085e-01,-2.379478886723518372e-02,3.004813566803932190e-02,-7.610811293125152588e-02,-1.095031574368476868e-02,-1.015659943222999573e-01,-2.082108259201049805e-01,-1.212586015462875366e-01,-1.516345441341400146e-01,-3.115088865160942078e-02,1.172744780778884888e-01,-1.995305269956588745e-01,-7.186613976955413818e-02,-9.123768657445907593e-02
1.075441986322402954e-01,-6.216171011328697205e-02,-1.901904195547103882e-01,-1.920183897018432617e-01,-6.554684601724147797e-03,1.857793144881725311e-02,1.560885738581418991e-02,-1.251440681517124176e-02,3.833378478884696960e-02,-1.061575673520565033e-02,-8.881079847924411297e-04,-2.986868470907211304e-02,-8.636301755905151367e-02,2.124381624162197113e-02,2.990083023905754089e-02,1.945201493799686432e-02,-1.365282833576202393e-01,6.862613372504711151e-03,-2.972855567932128906e-01,-1.229182407259941101e-01,-2.145954817533493042e-01,-1.458750218152999878e-01,7.635239511728286743e-02,-1.819227933883666992e-01,-2.282097041606903076e-01,-5.960949882864952087e-02,-1.899825930595397949e-01,-1.867415755987167358e-01,-5.664084851741790771e-02,-1.453089565038681030e-01,-3.392323255538940430e-01,5.435300990939140320e-02,-1.306072715669870377e-02,-7.670379430055618286e-02,-6.118151824921369553e-03,-3.590309619903564453e-02,-3.103253990411758423e-02,6.070352718234062195e-02,-4.804068244993686676e-03,1.491684094071388245e-02,-5.345838144421577454e-02,-1.722213625907897949e-01,-1.141344103962182999e-02,7.220619916915893555e-02,1.139689162373542786e-01,-1.015698835253715515e-01,-9.635154902935028076e-02,2.576224319636821747e-02,-4.557102546095848083e-02,-1.729261428117752075e-01,7.889442145824432373e-02,7.983374595642089844e-02,-2.126170843839645386e-01,-6.441539525985717773e-02,1.492267660796642303e-02,3.844402730464935303e-02,4.201511666178703308e-02,-2.766652405261993408e-01,-4.064902365207672119e-01,-7.495025545358657837e-02,-1.241948306560516357e-01,-4.011004045605659485e-02,-3.792714700102806091e-02,-5.369513854384422302e-02,3.456411510705947876e-02,-1.368733793497085571e-01,-1.457267850637435913e-01,8.989297784864902496e-03,-1.274966001510620117e-01,-1.304794847965240479e-01,-2.152266949415206909e-01,-1.192355602979660034e-01,4.613106325268745422e-02,-1.804229915142059326e-01,1.460048258304595947e-01,2.776722908020019531e-01,-3.708308935165405273e-01,6.843973533250391483e-04,-2.628871425986289978e-02,1.542510986328125000e-01,-1.100414767861366272e-01,-2.072256505489349365e-01,-1.724469363689422607e-01,-1.957724541425704956e-01,-6.897861603647470474e-03,-2.584211826324462891e-01,4.328377544879913330e-02,-1.321811974048614502e-01,-5.681404471397399902e-02,-4.280175268650054932e-02,-1.000326797366142273e-01,-4.129571467638015747e-02,-3.542239964008331299e-02,1.718103438615798950e-01,5.203479528427124023e-02,-7.343778014183044434e-02,-4.731902182102203369e-01,-2.483753114938735962e-01,-3.411940764635801315e-03,1.028458587825298309e-02,1.372504699975252151e-02,-1.827887296676635742e-01,-9.624014608561992645e-03,-1.966919898986816406e-01,-9.274072200059890747e-02,-5.366368964314460754e-02,-1.821614988148212433e-02,-5.129133537411689758e-02,-1.472530514001846313e-01,2.469402924180030823e-02,1.045039272867143154e-03,4.929838236421346664e-03,-2.928076088428497314e-01,-1.010746061801910400e-01,1.399261802434921265e-01,-8.495303988456726074e-02,-1.012380607426166534e-02,-6.247182190418243408e-02,-1.464214026927947998e-01,5.724224448204040527e-02,-6.970702204853296280e-03,6.621161848306655884e-02,-4.506028592586517334e-01,-2.023213356733322144e-01,1.297713369131088257e-01,-3.004267215728759766e-01,2.052523195743560791e-02,-9.596099704504013062e-02,-9.298453480005264282e-02,4.835950210690498352e-03,-5.526197701692581177e-02,-4.039250686764717102e-02,-3.086196780204772949e-01,-4.402926191687583923e-02,6.035713478922843933e-02,6.246262043714523315e-02,-2.010676264762878418e-01,-7.621242105960845947e-02,-7.187381386756896973e-02,-2.652580738067626953e-01,-1.382116079330444336e-01,-1.513394434005022049e-02,-1.888712197542190552e-01,1.249511092901229858e-01,-4.471881091594696045e-01,-9.822928160429000854e-02,-2.309664487838745117e-01,-4.092523828148841858e-02,9.321711957454681396e-02,-6.832020729780197144e-02,-4.395213350653648376e-02,-9.981740266084671021e-02,-6.191833019256591797e-01,-5.874396767467260361e-03,3.497519344091415405e-02,2.607207596302032471e-01,-3.109659850597381592e-01,7.865329086780548096e-02,8.485405892133712769e-02,-9.268211573362350464e-02,-2.355916649103164673e-01,1.325474977493286133e-01,4.069408401846885681e-02,1.290460377931594849e-01,1.321637630462646484e-02,-3.562234044075012207e-01,1.202749740332365036e-02,-3.298854231834411621e-01,-2.382241189479827881e-01,-8.527742326259613037e-02,-7.847853749990463257e-02,-1.753396838903427124e-01,-9.476454555988311768e-02,-2.695610821247100830e-01,2.831058390438556671e-02,1.378360539674758911e-01,-9.453588724136352539e-02,7.549465447664260864e-02,-1.121489852666854858e-01,3.853398142382502556e-03,8.719974756240844727e-02,1.047163531184196472e-01,1.232347786426544189e-01,7.336000353097915649e-02,-1.078277081251144409e-02,-9.046239405870437622e-02,4.665987193584442139e-02,-1.153268963098526001e-01,-1.507690697908401489e-01,-5.313614010810852051e-02,-3.412782549858093262e-01,-3.704993799328804016e-02,-4.775441437959671021e-02,-1.129916384816169739e-01,-1.110561415553092957e-01,-2.990538813173770905e-02,-5.831224098801612854e-02,-6.864308714866638184e-01,-2.055339813232421875e-01,1.876308396458625793e-02,-2.165048569440841675e-01,-2.256881147623062134e-01,3.507469780743122101e-03,-1.332493126392364502e-02,-1.605819910764694214e-02,-2.095745503902435303e-01,-2.451427727937698364e-01,-1.361599266529083252e-01,-1.221801862120628357e-01,-2.767729461193084717e-01,5.415518209338188171e-02,8.258301019668579102e-02,2.031413093209266663e-02,-1.880460977554321289e-01,-7.215917110443115234e-02,1.067651361227035522e-01,4.073353856801986694e-02,-1.350480131804943085e-02,-4.286910891532897949e-01,-7.767716050148010254e-02,-5.484528467059135437e-02,-1.013681367039680481e-01,-1.323136091232299805e-01,1.980713941156864166e-02,-3.205060660839080811e-01,3.635812178254127502e-02,-1.456839889287948608e-01,-7.240610569715499878e-02,-1.979218125343322754e-01,-4.425235465168952942e-02,1.403204798698425293e-01,-2.993472851812839508e-02,-1.824324429035186768e-01,8.082853257656097412e-02,-8.783864229917526245e-02,-5.515064671635627747e-02,-5.399688333272933960e-02,-1.226494014263153076e-01,-8.401825278997421265e-02,-5.814010277390480042e-02,5.295554641634225845e-03,-3.105150163173675537e-02,1.353522539138793945e-01,-9.397205896675586700e-03,-6.349167227745056152e-02,6.401485204696655273e-02,-1.706047952175140381e-01,6.634148210287094116e-02,-3.006386458873748779e-01,-1.750253289937973022e-01,-1.563396304845809937e-01,-9.352964162826538086e-02,-2.064641416072845459e-01,-6.326268613338470459e-02,-8.182191848754882812e-02,-1.799100488424301147e-01
-2.981777768582105637e-03,-8.010325953364372253e-03,-2.547569870948791504e-01,1.134317601099610329e-03,-5.684379115700721741e-02,-1.147593781352043152e-01,3.715480491518974304e-02,-2.418755739927291870e-01,-9.083406627178192139e-02,-1.133095920085906982e-01,-6.459670513868331909e-02,-1.720310449600219727e-01,1.875677146017551422e-02,-3.809975087642669678e-01,-9.384248405694961548e-03,-9.865219704806804657e-03,-5.941588059067726135e-02,-7.828598469495773315e-02,-2.177424496039748192e-03,-1.780134886503219604e-01,-4.208837822079658508e-02,-3.435956779867410660e-03,-6.527409702539443970e-02,-1.759567409753799438e-01,-5.783856660127639771e-02,-6.679826974868774414e-02,-2.177982032299041748e-01,1.050743088126182556e-01,-2.768764197826385498e-01,-4.445007070899009705e-02,-2.834103405475616455e-01,1.799449510872364044e-02,4.655814543366432190e-02,-5.571861565113067627e-02,-2.550553902983665466e-02,1.667296141386032104e-02,-9.725043922662734985e-02,-1.096583902835845947e-01,-1.962609402835369110e-02,2.177962474524974823e-02,-5.233637988567352295e-02,6.191089004278182983e-02,-2.639792859554290771e-01,-3.393945693969726562e-01,-2.212733775377273560e-01,1.921109855175018311e-01,-7.391584664583206177e-02,-4.037489295005798340e-01,-2.624884806573390961e-02,-8.580928668379783630e-03,-2.152174711227416992e-02,-1.760321408510208130e-01,9.446601569652557373e-02,-2.271926701068878174e-01,7.316798716783523560e-02,-8.521275967359542847e-02,-1.836202889680862427e-01,-2.750285863876342773e-01,-1.644720584154129028e-01,-2.543766796588897705e-01,1.196014881134033203e-01,-1.397304534912109375e-01,1.028281524777412415e-01,2.641990035772323608e-02,-2.693461477756500244e-01,-9.581396728754043579e-02,-6.724510341882705688e-02,8.571912348270416260e-02,1.360767614096403122e-02,-1.584821380674839020e-02,-2.027885019779205322e-01,-1.198765560984611511e-01,-1.242874786257743835e-01,-5.429816618561744690e-02,-3.469930589199066162e-01,-2.035368084907531738e-01,-2.821281254291534424e-01,-7.607205957174301147e-02,-5.529573932290077209e-02,-6.255070865154266357e-02,-2.760486900806427002e-01,3.350717574357986450e-02,3.052512556314468384e-02,-8.072403073310852051e-02,-1.388583034276962280e-01,-1.082602515816688538e-01,5.251739919185638428e-02,3.464725986123085022e-02,-8.567653596401214600e-02,-2.422146797180175781e-01,-5.025144200772047043e-03,4.197024554014205933e-02,1.502215955406427383e-02,-6.047103554010391235e-02,-3.025191128253936768e-01,-6.628258526325225830e-02,-1.620896905660629272e-01,-4.943795967847108841e-03,-6.092486158013343811e-02,-1.388544887304306030e-01,-1.446645110845565796e-01,-1.536378078162670135e-02,6.113299727439880371e-02,1.368340197950601578e-02,2.757516875863075256e-02,4.815656319260597229e-02,4.099105298519134521e-02,-9.714969247579574585e-02,-1.523964107036590576e-01,-1.551731675863265991e-02,4.730757698416709900e-02,-3.271726146340370178e-02,-5.116552859544754028e-02,-1.432078133802860975e-04,-2.075908333063125610e-01,-1.229440048336982727e-01,-1.059270203113555908e-01,-2.043691277503967285e-01,-3.721307814121246338e-01,-1.595244556665420532e-01,-9.449093043804168701e-02,-2.002548426389694214e-02,2.008010596036911011e-01,-8.828656375408172607e-02,-3.132754266262054443e-01,-3.241785466670989990e-01,-4.248116910457611084e-02,-8.437683433294296265e-02,-1.242821221239864826e-03,-2.775791585445404053e-01,-3.369408845901489258e-02,4.939936567097902298e-03,-2.114877104759216309e-01,-1.891970075666904449e-02,-1.280568093061447144e-01,1.409971863031387329e-01,-8.406740427017211914e-02,1.269214134663343430e-02,-1.472848504781723022e-01,-4.677544906735420227e-02,6.771664321422576904e-02,-1.309711486101150513e-01,-1.004078239202499390e-01,-2.660483717918395996e-01,3.451360389590263367e-02,3.137646615505218506e-02,9.197759442031383514e-03,-7.788815349340438843e-02,-1.027870178222656250e-01,1.443712692707777023e-02,-6.770632416009902954e-02,-1.349645555019378662e-01,-4.237722456455230713e-01,3.197637153789401054e-03,1.264139711856842041e-01,-7.589506451040506363e-03,1.607169508934020996e-01,-5.605405196547508240e-02,-1.356039643287658691e-01,-1.182352155447006226e-01,-2.164543271064758301e-01,-2.906563878059387207e-01,-8.451458998024463654e-03,8.473248779773712158e-02,-2.313932031393051147e-01,-3.514856398105621338e-01,-1.411465089768171310e-02,-3.469229936599731445e-01,-8.242651075124740601e-02,-2.264846265316009521e-01,4.704012721776962280e-02,1.157026290893554688e-01,-5.069198459386825562e-02,-1.662757098674774170e-01,1.143728792667388916e-01,-4.675090014934539795e-01,1.498240530490875244e-01,-1.689321696758270264e-01,8.193029090762138367e-03,9.974540024995803833e-02,-4.738675057888031006e-01,-1.047843601554632187e-02,9.636782109737396240e-02,-3.224903717637062073e-03,2.095882445573806763e-01,-1.783295720815658569e-01,4.935048148036003113e-02,-1.951645612716674805e-01,-1.626456677913665771e-01,-3.287380337715148926e-01,6.132265552878379822e-02,-2.279068231582641602e-01,-4.543683491647243500e-03,2.998195774853229523e-02,-4.122346267104148865e-02,-4.097503423690795898e-01,-1.563761755824089050e-02,2.350024729967117310e-01,-1.180726066231727600e-01,-2.615175954997539520e-02,-9.407620877027511597e-02,-3.622258901596069336e-01,-1.307285726070404053e-01,3.078362904489040375e-02,-2.695245742797851562e-01,1.250473596155643463e-02,-3.716655541211366653e-03,-4.122080206871032715e-01,-2.557247877120971680e-01,-5.592434480786323547e-02,-9.655269235372543335e-02,1.156370863318443298e-01,4.849936440587043762e-02,1.090501025319099426e-01,-4.793280363082885742e-02,-7.497444003820419312e-02,-1.210973709821701050e-01,-1.844881623983383179e-01,-1.080425828695297241e-01,3.931720927357673645e-02,-3.229468464851379395e-01,-7.481879740953445435e-02,-1.447695195674896240e-01,-1.346227247267961502e-02,-2.715821266174316406e-01,-1.804293096065521240e-01,-1.099627017974853516e-01,8.617074042558670044e-02,-1.134738046675920486e-02,1.082203537225723267e-01,-1.431225091218948364e-01,-3.034568428993225098e-01,-6.583142676390707493e-04,5.050054192543029785e-02,-7.909283787012100220e-02,-2.417251653969287872e-02,-5.485585331916809082e-02,-1.983716338872909546e-01,1.301078498363494873e-01,6.397796422243118286e-02,3.841435909271240234e-02,2.502789488062262535e-03,-3.857657685875892639e-02,-8.426883071660995483e-02,-1.470656245946884155e-01,-4.279244840145111084e-01,-8.150454610586166382e-02,-1.142491251230239868e-01,2.730427309870719910e-02,-2.454712241888046265e-02,5.918465927243232727e-02,1.909700967371463776e-02,1.285428088158369064e-02,3.304310142993927002e-02,2.650354802608489990e-02,9.632329642772674561e-02
-2.525404691696166992e-01,-1.387667953968048096e-01,-8.928312361240386963e-02,-1.893558166921138763e-02,-3.822997957468032837e-02,-1.022336166352033615e-02,-1.027602180838584900e-01,-1.383534669876098633e-01,1.784352026879787445e-02,1.283428519964218140e-01,6.112829968333244324e-02,4.839982092380523682e-02,-8.048190921545028687e-02,-2.305016666650772095e-01,-7.672493904829025269e-02,4.512052517384290695e-03,-3.723934665322303772e-02,-9.890181571245193481e-02,1.046293973922729492e-02,7.317892462015151978e-02,-7.365500181913375854e-02,-2.672391533851623535e-01,2.370454557240009308e-02,-5.527361854910850525e-02,-5.035631358623504639e-02,3.307676315307617188e-02,1.170564219355583191e-01,5.348010919988155365e-03,-3.611155971884727478e-02,2.306458540260791779e-02,-2.154387533664703369e-01,-7.153115421533584595e-02,-2.236548066139221191e-01,-2.767967246472835541e-02,-3.556829318404197693e-02,-3.105712234973907471e-01,2.516728080809116364e-02,-2.119522988796234131e-01,-1.243373230099678040e-01,-7.150137424468994141e-02,-3.302838280797004700e-02,-4.648517444729804993e-02,8.359066396951675415e-02,-6.849339604377746582e-02,-1.896624863147735596e-01,-7.032178342342376709e-02,-5.674681067466735840e-02,-2.220128923654556274e-01,-1.277854889631271362e-01,6.164796650409698486e-03,-2.351665347814559937e-01,-1.556562781333923340e-01,-1.970113217830657959e-01,-1.660621017217636108e-01,-3.183377534151077271e-02,-9.288892149925231934e-02,1.115968637168407440e-02,-1.357053518295288086e-01,-7.369317859411239624e-02,-1.466612517833709717e-01,-1.561071276664733887e-01,-7.178208231925964355e-02,-2.908562868833541870e-02,-1.794633120298385620e-01,-7.070788741111755371e-02,-1.354564279317855835e-01,-2.874724753201007843e-02,-1.628244221210479736e-01,-2.144215703010559082e-01,-6.013556942343711853e-02,8.278366178274154663e-02,-1.483679860830307007e-01,-1.827906630933284760e-02,-3.477325662970542908e-02,-8.623279631137847900e-02,-1.069143861532211304e-01,5.339917168021202087e-02,-1.608548313379287720e-01,-6.511349976062774658e-02,-1.250896155834197998e-01,-1.652489006519317627e-01,-1.741816401481628418e-01,-1.407004594802856445e-01,2.416501753032207489e-02,-9.125148877501487732e-03,3.740106150507926941e-02,-2.418277114629745483e-01,-2.287789992988109589e-02,8.041512221097946167e-02,6.213587895035743713e-02,-3.527143225073814392e-02,-1.000717207789421082e-01,1.555188894271850586e-01,-7.123342901468276978e-02,-2.213642895221710205e-01,1.293227635324001312e-02,-1.377445012331008911e-01,-2.287304699420928955e-01,7.926172018051147461e-02,1.204965543001890182e-02,4.219697043299674988e-02,-5.266083776950836182e-02,2.864315547049045563e-02,-3.296846523880958557e-02,-3.750910982489585876e-02,7.804580964148044586e-04,-1.379078906029462814e-02,7.198410481214523315e-02,-3.509765863418579102e-02,-5.309820175170898438e-01,-4.261184111237525940e-02,-8.741544187068939209e-02,-1.025850921869277954e-01,1.024116352200508118e-01,-1.319252233952283859e-02,-1.325280070304870605e-01,-8.050494641065597534e-02,-2.852898538112640381e-01,-1.628108471632003784e-01,-1.758569665253162384e-02,-9.540970437228679657e-03,-1.513789445161819458e-01,-9.737990796566009521e-02,1.666391938924789429e-01,-3.188550770282745361e-01,-2.237960845232009888e-01,-9.694749861955642700e-02,-1.926793158054351807e-01,-1.546862125396728516e-01,7.215739041566848755e-02,5.365724861621856689e-02,-1.512450277805328369e-01,-2.933106124401092529e-01,-4.792492836713790894e-03,-2.677321620285511017e-02,-2.099014818668365479e-01,-1.759964227676391602e-01,-3.037668764591217041e-01,7.505588233470916748e-02,8.877414278686046600e-03,-1.761758178472518921e-01,1.384962722659111023e-02,-1.237534657120704651e-01,1.265486925840377808e-01,-1.575699895620346069e-01,-5.749753862619400024e-02,-2.750887908041477203e-02,5.510430410504341125e-02,-1.095984429121017456e-01,-2.171415984630584717e-01,-1.580892056226730347e-01,5.198886618018150330e-02,-2.550363540649414062e-01,9.110310673713684082e-02,2.152007631957530975e-02,6.762595474720001221e-02,-5.282641947269439697e-02,-2.181172557175159454e-02,1.680443733930587769e-01,-1.716586798429489136e-01,-2.295677922666072845e-02,-1.989628821611404419e-01,-5.416455119848251343e-02,-1.138795390725135803e-01,-1.941220015287399292e-01,-3.059499338269233704e-02,-1.544963121414184570e-01,-1.382554173469543457e-01,-7.870662957429885864e-02,-4.064745083451271057e-02,3.555326256901025772e-03,-5.324561893939971924e-02,6.638542562723159790e-02,-1.167922392487525940e-01,-1.387251317501068115e-01,-2.289630472660064697e-01,-8.528230339288711548e-02,5.528426170349121094e-02,5.645453929901123047e-02,-1.166701540350914001e-01,-8.714423328638076782e-02,-4.035748168826103210e-02,-3.737206012010574341e-02,-6.370978429913520813e-03,-8.728272467851638794e-02,-1.555662136524915695e-02,-4.783029556274414062e-01,-1.598772257566452026e-01,-1.757560074329376221e-01,-2.014458626508712769e-01,-2.314040660858154297e-01,-2.023229151964187622e-01,3.745276480913162231e-02,1.787525415420532227e-01,-1.259602010250091553e-01,-3.989269584417343140e-02,3.595466166734695435e-02,-3.946439921855926514e-02,3.772694384679198265e-03,5.839222669601440430e-02,-1.752257794141769409e-01,8.098211139440536499e-02,4.282866045832633972e-02,1.232539117336273193e-01,-6.307876110076904297e-02,-1.446983963251113892e-01,4.929622635245323181e-02,-1.926602050662040710e-02,6.790906190872192383e-02,-1.684551499783992767e-02,-4.542919248342514038e-02,-1.730443537235260010e-01,-1.795076131820678711e-01,-1.362868845462799072e-01,2.016169764101505280e-02,-8.497737348079681396e-03,-1.647521555423736572e-01,-1.968132406473159790e-01,-1.883126646280288696e-01,1.578337140381336212e-02,-5.656105652451515198e-02,1.328331083059310913e-01,-1.810349822044372559e-01,5.794936791062355042e-02,7.026100903749465942e-02,-5.269117280840873718e-02,-1.639060676097869873e-01,-2.166771292686462402e-01,-1.211855113506317139e-01,-9.502443671226501465e-02,-1.540396362543106079e-01,-1.939696222543716431e-01,8.436572737991809845e-03,-1.927760094404220581e-01,-1.275799795985221863e-02,-2.672198042273521423e-02,-2.155103236436843872e-01,8.750501275062561035e-02,-5.380682647228240967e-03,1.548706144094467163e-01,-2.903114259243011475e-02,-5.958360806107521057e-02,1.116527915000915527e-01,-3.931706398725509644e-02,-1.795005351305007935e-01,-1.070054322481155396e-01,-1.211644783616065979e-01,1.157210990786552429e-01,-9.356554597616195679e-02,-9.510020166635513306e-02,-2.753024920821189880e-02,2.032461389899253845e-02,1.102876737713813782e-01,-5.974418669939041138e-02,-9.576276689767837524e-02,-5.821826681494712830e-02
9.637414664030075073e-02,-7.033623754978179932e-02,-1.531270742416381836e-01,-2.828889489173889160e-01,-5.853482335805892944e-02,-8.594260364770889282e-02,-5.307729914784431458e-02,-9.171596169471740723e-02,-6.500899791717529297e-02,-3.025780022144317627e-01,7.141093909740447998e-02,8.176369220018386841e-02,1.052066162228584290e-01,3.276659548282623291e-02,3.089759126305580139e-02,-4.404712095856666565e-02,-2.727027982473373413e-02,6.635703891515731812e-02,-3.591965138912200928e-01,-1.186887547373771667e-01,-7.587205618619918823e-02,-1.592258065938949585e-01,-5.906566977500915527e-02,2.464994639158248901e-01,-5.001448094844818115e-02,-2.610026001930236816e-01,4.006416350603103638e-02,-2.148501574993133545e-01,-1.340302079916000366e-01,-2.063887119293212891e-01,-1.114188507199287415e-01,-1.259717494249343872e-01,6.404490768909454346e-02,-1.974131762981414795e-01,7.528366893529891968e-02,-2.806109748780727386e-02,1.287059765309095383e-02,-9.859745204448699951e-02,-6.276948004961013794e-02,-1.026981920003890991e-01,-2.624099254608154297e-01,-1.680327057838439941e-01,-5.802126973867416382e-02,-3.288447158411145210e-03,2.465618588030338287e-02,-4.410345554351806641e-01,-1.500196456909179688e-01,-7.598271965980529785e-02,2.056099474430084229e-02,2.199481055140495300e-02,1.992308944463729858e-01,-1.412942856550216675e-01,-8.319153636693954468e-02,-6.087546795606613159e-02,-1.889690458774566650e-01,-1.394901871681213379e-01,1.647074334323406219e-02,-1.083097830414772034e-01,-2.129590660333633423e-01,-1.482007205486297607e-01,-1.608685404062271118e-01,3.160474821925163269e-02,9.982755780220031738e-02,1.376818027347326279e-02,-3.281459808349609375e-01,6.018355488777160645e-03,1.052117198705673218e-01,-3.254818618297576904e-01,-9.746936708688735962e-02,9.050597250461578369e-02,-3.188503161072731018e-02,1.715823076665401459e-02,3.894722089171409607e-02,-2.787547884508967400e-03,-1.040691882371902466e-01,-2.726591527462005615e-01,-1.464023739099502563e-01,-1.667265966534614563e-02,5.376079585403203964e-03,6.975673884153366089e-02,-4.535082280635833740e-01,-1.220427900552749634e-01,-8.117915689945220947e-02,-5.205793306231498718e-02,-3.593847155570983887e-01,-1.818698197603225708e-01,6.292725913226604462e-03,-5.740561988204717636e-03,-1.888107210397720337e-01,-1.083613485097885132e-01,4.578721895813941956e-02,-3.966217860579490662e-02,-3.523119166493415833e-02,4.947632178664207458e-02,-1.666561812162399292e-01,-8.619569242000579834e-02,-5.042766332626342773e-01,-6.796685606241226196e-02,-4.858373850584030151e-02,-1.107178181409835815e-01,-1.793194934725761414e-02,-1.566257178783416748e-01,-1.973367333412170410e-01,-1.654381304979324341e-01,-7.139894179999828339e-03,-6.458998471498489380e-02,-2.420247495174407959e-01,7.413288205862045288e-02,-1.165844202041625977e-01,1.471034735441207886e-01,-1.174096986651420593e-01,3.422430902719497681e-02,-3.259221613407135010e-01,6.852804869413375854e-02,-8.210640549659729004e-01,-1.598232537508010864e-01,-1.348619461059570312e-01,1.320505589246749878e-01,-1.912763118743896484e-01,7.321272045373916626e-02,2.714805118739604950e-02,-2.089685760438442230e-02,9.056729078292846680e-02,-3.798432946205139160e-01,4.542581737041473389e-03,-2.448924630880355835e-01,-1.684452295303344727e-01,-2.692757360637187958e-02,-3.756032884120941162e-02,-1.339351087808609009e-01,-9.915906190872192383e-02,-9.915218502283096313e-02,1.630182266235351562e-01,9.632326662540435791e-02,1.495643611997365952e-02,7.326358463615179062e-03,-6.650927010923624039e-03,1.057931259274482727e-01,4.171362519264221191e-02,-3.979480266571044922e-01,1.020044535398483276e-01,9.936471283435821533e-02,-2.962927520275115967e-01,-1.710236370563507080e-01,1.301693022251129150e-01,-2.021713107824325562e-01,-1.723596453666687012e-01,-1.415849626064300537e-01,1.496615409851074219e-01,-5.507972836494445801e-02,-2.239645086228847504e-02,-1.030883640050888062e-01,2.186684012413024902e-01,-3.464955091476440430e-02,1.058812439441680908e-01,-4.595144465565681458e-02,-2.088093757629394531e-01,-1.906450837850570679e-02,-7.596447318792343140e-02,-1.663439720869064331e-01,3.237645328044891357e-02,1.917836070060729980e-01,-1.193930059671401978e-01,-9.679131209850311279e-02,-1.258780509233474731e-01,-3.001932501792907715e-01,-4.610756784677505493e-02,-9.381681680679321289e-02,-9.738704562187194824e-02,-5.122677683830261230e-01,-3.460804224014282227e-01,-1.103953942656517029e-01,-1.752934604883193970e-01,1.064749360084533691e-01,-7.726982980966567993e-02,-1.673505604267120361e-01,-2.275942824780941010e-02,6.904932856559753418e-02,-1.351696699857711792e-01,-9.687942266464233398e-02,-2.191023081541061401e-01,-1.885856091976165771e-01,-4.143747985363006592e-01,-3.936300799250602722e-02,1.922271698713302612e-01,-4.404866099357604980e-01,-3.141105175018310547e-02,-1.966903209686279297e-01,-9.817741811275482178e-02,-2.477727644145488739e-02,-1.225263103842735291e-01,2.335086278617382050e-02,-4.020794108510017395e-02,7.088699378073215485e-03,1.191753074526786804e-01,-3.655232954770326614e-03,-1.937726885080337524e-01,-1.158753037452697754e+00,-3.981821611523628235e-02,-6.109920516610145569e-02,-2.836942374706268311e-01,-1.224295571446418762e-01,4.006432741880416870e-02,-5.669220164418220520e-02,-2.708579786121845245e-02,9.887903928756713867e-02,-2.534459531307220459e-01,-6.586545612663030624e-03,-1.253109723329544067e-01,-3.083526492118835449e-01,-2.657737135887145996e-01,7.447398733347654343e-03,-2.513114809989929199e-01,8.277190476655960083e-02,-9.888363629579544067e-02,7.213520258665084839e-02,6.312555074691772461e-02,-2.375557087361812592e-02,-3.999421596527099609e-01,8.321490883827209473e-02,-4.176392257213592529e-01,-1.224039793014526367e-01,-1.733846813440322876e-01,-1.270653028041124344e-02,5.256578791886568069e-03,-1.440186649560928345e-01,-2.189978957176208496e-02,2.787933349609375000e-01,-7.394046336412429810e-02,1.048912554979324341e-01,4.183669760823249817e-02,-1.540387272834777832e-01,-1.273753792047500610e-01,-7.368055731058120728e-02,-3.858161717653274536e-02,1.014708280563354492e-01,-6.179310753941535950e-02,-2.869100868701934814e-01,-3.819693624973297119e-02,4.134393855929374695e-02,-6.510783731937408447e-02,1.356768012046813965e-01,-6.002638489007949829e-02,3.726705163717269897e-02,-1.334057897329330444e-01,-5.460818111896514893e-02,-1.690714061260223389e-01,3.794180974364280701e-02,-2.216311730444431305e-02,-9.543851763010025024e-02,8.824367821216583252e-02,3.389941528439521790e-02,1.069911047816276550e-01,-2.883948199450969696e-02,-1.941319257020950317e-01,-3.293449580669403076e-01
2.728045731782913208e-02,2.326899766921997070e-02,-2.744156718254089355e-01,-8.840467035770416260e-02,-4.485809057950973511e-02,-4.782259464263916016e-02,9.964566677808761597e-03,-1.937135010957717896e-01,-3.188385441899299622e-02,5.049711093306541443e-02,-6.635352037847042084e-03,-5.547071341425180435e-03,2.755026519298553467e-02,-6.203317642211914062e-02,-1.072826515883207321e-02,-8.027672767639160156e-02,1.056908741593360901e-01,-2.353224605321884155e-01,-1.023323982954025269e-01,-8.377569727599620819e-03,-1.312665641307830811e-01,1.067708954215049744e-01,-1.316226571798324585e-01,-6.493151932954788208e-02,-2.061814814805984497e-01,2.023065537214279175e-01,8.089180290699005127e-02,-9.576655924320220947e-02,-1.795504242181777954e-01,-1.192312985658645630e-01,-2.093871980905532837e-01,-2.239812165498733521e-02,-1.363075077533721924e-01,8.247803896665573120e-02,-1.153568085283041000e-02,-1.676992280408740044e-03,-6.422179937362670898e-02,2.237073704600334167e-02,1.395368762314319611e-02,3.168099746108055115e-02,3.591649234294891357e-02,-3.111770153045654297e-01,-8.338638395071029663e-02,-4.559120833873748779e-01,7.696776092052459717e-02,-2.048620581626892090e-01,-2.774447575211524963e-02,1.995881646871566772e-01,-1.672435738146305084e-02,-1.670585125684738159e-01,2.198985777795314789e-02,3.715136321261525154e-03,-2.819303609430789948e-02,1.356023699045181274e-01,-1.508357822895050049e-01,-1.790843904018402100e-02,-4.509714245796203613e-02,-2.107172012329101562e-01,2.480238676071166992e-01,-1.980029493570327759e-01,-1.610665172338485718e-01,-2.439042180776596069e-01,1.017043925821781158e-02,-3.317652642726898193e-01,-4.816336631774902344e-01,-1.033418625593185425e-01,-1.080565452575683594e-01,-7.101449370384216309e-02,-5.469544604420661926e-02,1.776649616658687592e-02,-2.855090424418449402e-02,-1.474072933197021484e-01,2.852900139987468719e-02,8.604214340448379517e-02,-1.509364098310470581e-01,-3.386984467506408691e-01,-8.557382225990295410e-02,-2.024165820330381393e-03,-1.090967506170272827e-01,1.141166016459465027e-01,2.434491515159606934e-01,-2.729643695056438446e-02,1.814683899283409119e-02,1.638123206794261932e-02,-1.474515348672866821e-01,-1.762040853500366211e-01,-2.745811827480792999e-02,1.216420251876115799e-02,-1.819415986537933350e-01,-7.634178996086120605e-01,-9.594491124153137207e-02,-1.606973260641098022e-01,1.261738836765289307e-01,1.672427654266357422e-01,-2.658606506884098053e-02,-5.797996371984481812e-02,3.523178771138191223e-02,2.116679847240447998e-01,-1.819244213402271271e-02,-1.970184594392776489e-01,3.348983125761151314e-03,-4.313041269779205322e-02,-5.071069672703742981e-02,3.026571124792098999e-02,8.450280874967575073e-03,-5.181192606687545776e-02,-2.686049938201904297e-01,-7.891505211591720581e-02,-2.224714867770671844e-02,-2.572641521692276001e-02,-3.010697364807128906e-01,-6.004647910594940186e-02,-7.630826532840728760e-02,-4.721786677837371826e-01,1.830834299325942993e-01,-1.172978505492210388e-01,-1.355164498090744019e-01,-9.978934191167354584e-03,-2.773617580533027649e-02,-6.709226965904235840e-02,4.692569002509117126e-02,-1.451679170131683350e-01,1.556907873600721359e-02,-4.915243983268737793e-01,1.387425065040588379e-01,-7.854954600334167480e-01,-1.411617249250411987e-01,3.705913666635751724e-03,-2.283111587166786194e-02,-3.366519212722778320e-01,-2.448319345712661743e-01,5.576997250318527222e-02,6.775775551795959473e-02,-3.891451656818389893e-02,3.130168095231056213e-02,-2.397142536938190460e-02,-6.399826705455780029e-02,2.665003575384616852e-02,-1.676889359951019287e-01,1.538631916046142578e-01,-6.447082012891769409e-02,-1.989853233098983765e-01,1.046440154314041138e-01,-1.126227006316184998e-01,7.863646000623703003e-02,-2.843315899372100830e-01,1.207593828439712524e-01,-8.148078620433807373e-02,-2.701403200626373291e-01,2.436823444440960884e-03,-2.932408265769481659e-02,1.689385063946247101e-02,7.739061862230300903e-02,6.468000821769237518e-03,-6.682514548301696777e-01,-5.709514021873474121e-02,-6.424318999052047729e-02,-4.916425421833992004e-02,-1.041933447122573853e-01,3.347866237163543701e-02,2.235991507768630981e-02,-3.592284047044813633e-04,-1.169359218329191208e-02,-4.172700643539428711e-01,-3.136833608150482178e-01,-1.822466105222702026e-01,-6.783314049243927002e-02,-4.347484111785888672e-01,-1.007380187511444092e-01,1.188562437891960144e-01,-1.494934409856796265e-01,2.969661913812160492e-02,-2.947539836168289185e-02,-2.557061240077018738e-02,-1.416203975677490234e-01,4.427610430866479874e-03,-1.004493683576583862e-01,-1.148533634841442108e-02,-3.638663887977600098e-02,-5.822991952300071716e-02,1.532573848962783813e-01,-1.676564849913120270e-02,-3.666507303714752197e-01,-1.426465213298797607e-01,-1.457786858081817627e-01,9.306088089942932129e-02,6.927695591002702713e-03,-2.973067387938499451e-02,-8.086967468261718750e-02,-2.828430384397506714e-02,1.470815539360046387e-01,-1.194507232867181301e-03,-9.953433275222778320e-02,7.006777822971343994e-02,7.644467055797576904e-02,-2.288621217012405396e-01,-1.163240969181060791e-01,5.677907913923263550e-02,3.822882100939750671e-02,-3.695236146450042725e-01,-3.546290099620819092e-02,1.056450754404067993e-01,-2.934847474098205566e-01,-1.240608990192413330e-01,-4.576691240072250366e-02,1.553324796259403229e-02,-8.731344342231750488e-02,-3.672776371240615845e-02,1.197794228792190552e-01,1.434353590011596680e-01,-2.685075439512729645e-02,-1.903185993432998657e-02,-3.639154881238937378e-02,-4.506534934043884277e-01,3.625983744859695435e-02,-4.072379171848297119e-01,-9.442028403282165527e-02,7.844641059637069702e-02,-7.276115566492080688e-02,7.636693771928548813e-03,-2.071040496230125427e-02,-9.744845330715179443e-02,8.982697874307632446e-02,1.541232410818338394e-02,-3.334163725376129150e-01,-2.414556592702865601e-02,7.582641392946243286e-02,-5.316509604454040527e-01,1.199251692742109299e-02,5.335295572876930237e-02,-9.047281742095947266e-02,-2.784814871847629547e-02,5.202698335051536560e-02,-1.825729571282863617e-02,-6.733211129903793335e-02,5.241312459111213684e-02,-8.765000849962234497e-02,7.575039565563201904e-02,-3.251133859157562256e-01,-2.321048267185688019e-02,4.997428506612777710e-03,1.668957807123661041e-02,-2.084528282284736633e-02,-3.227178379893302917e-02,-8.258426189422607422e-02,1.388644278049468994e-01,-1.059981957077980042e-01,-5.777430720627307892e-03,9.300154447555541992e-02,3.874463215470314026e-02,-1.164940446615219116e-01,-1.049534752964973450e-01,-1.046011876314878464e-02,-4.935000464320182800e-02,5.897133145481348038e-03,-2.806622385978698730e-01
-1.604085564613342285e-01,-1.780415475368499756e-01,-2.605345472693443298e-02,-1.705105453729629517e-01,-1.143706589937210083e-01,-7.380205392837524414e-02,-1.269347071647644043e-01,-5.583335645496845245e-03,-1.124934628605842590e-01,-1.184756159782409668e-01,-2.301458641886711121e-02,-9.878327697515487671e-02,1.019039377570152283e-01,5.069765821099281311e-02,-1.287239491939544678e-01,-2.202183473855257034e-03,-1.368120014667510986e-01,-2.026428878307342529e-01,-5.248060822486877441e-02,-6.745420396327972412e-02,-1.341084092855453491e-01,-7.794664800167083740e-02,3.887160494923591614e-02,-1.164177730679512024e-01,1.178708858788013458e-02,-1.232523992657661438e-01,-7.985110580921173096e-02,-2.519655525684356689e-01,-1.448450535535812378e-01,-3.665033262223005295e-03,-2.833431959152221680e-01,-1.939572989940643311e-01,-4.016372375190258026e-03,-1.463304162025451660e-01,3.724928200244903564e-02,-1.953520923852920532e-01,-3.290579840540885925e-02,1.829179562628269196e-02,-2.356124222278594971e-01,-6.421109288930892944e-02,-1.404052507132291794e-02,-8.430620282888412476e-02,-4.105809703469276428e-02,-1.244378760457038879e-01,-9.639896452426910400e-02,-2.170550823211669922e-01,-1.009394749999046326e-01,-1.802662461996078491e-01,-2.617478072643280029e-01,-2.744451398029923439e-03,-2.465031147003173828e-01,2.350213006138801575e-02,-8.603956550359725952e-02,5.012009292840957642e-02,-8.128851652145385742e-02,-1.363202780485153198e-01,-1.293242275714874268e-01,-1.326122730970382690e-01,3.641105815768241882e-02,-1.080388948321342468e-01,-1.986260116100311279e-01,-4.101462662220001221e-02,-1.747446358203887939e-01,-1.694491803646087646e-01,1.976846754550933838e-01,-2.835113555192947388e-02,-6.423988193273544312e-02,-2.344815731048583984e-01,-8.242011815309524536e-02,-4.268944635987281799e-02,9.816627949476242065e-02,-6.820373982191085815e-02,-4.548864439129829407e-02,-9.405630081892013550e-02,-1.740137636661529541e-01,1.429306715726852417e-01,-6.202939152717590332e-02,-6.126173213124275208e-02,-1.035144105553627014e-01,-1.150460839271545410e-01,-1.394951343536376953e-01,5.171242356300354004e-02,-1.008184328675270081e-01,-7.349227368831634521e-02,-1.801006682217121124e-02,1.475058961659669876e-02,-1.282132565975189209e-01,-7.430787384510040283e-02,3.699735552072525024e-02,-4.497013241052627563e-02,-2.042176723480224609e-01,-1.986989527940750122e-01,9.784192591905593872e-02,-1.281376928091049194e-01,-1.207620799541473389e-01,-2.138972468674182892e-02,-1.333536803722381592e-01,-9.955402463674545288e-02,-8.898804336786270142e-02,-2.177723050117492676e-01,-8.792573213577270508e-02,1.338866190053522587e-03,-1.582798212766647339e-01,-1.593310087919235229e-01,-9.353812038898468018e-02,1.985857822000980377e-02,-7.588157430291175842e-03,-1.178894713521003723e-01,5.660815164446830750e-02,-2.628988325595855713e-01,-2.739701569080352783e-01,-2.628743834793567657e-02,4.369581863284111023e-02,9.077257663011550903e-02,-1.813026666641235352e-01,-1.605517566204071045e-01,-6.880737096071243286e-02,1.854372769594192505e-02,-1.058015003800392151e-01,-7.589469105005264282e-02,-7.019503414630889893e-02,-3.910669684410095215e-02,-1.673422940075397491e-02,-1.321714930236339569e-02,-1.034167930483818054e-01,-2.079956680536270142e-01,3.604837134480476379e-02,6.609644740819931030e-02,-1.026330962777137756e-01,7.104007154703140259e-02,-7.110486738383769989e-03,-1.397736072540283203e-01,-1.828470230102539062e-01,-4.210575670003890991e-02,-8.381963521242141724e-02,-2.571091353893280029e-01,-3.774765133857727051e-02,-1.776908338069915771e-01,8.087413012981414795e-02,-2.765320241451263428e-03,4.504406359046697617e-03,-3.027242608368396759e-03,-4.919193685054779053e-02,7.566104084253311157e-02,-2.283884584903717041e-02,-5.425196513533592224e-02,-1.547663472592830658e-02,-1.320026814937591553e-01,-1.585903465747833252e-01,-7.469137758016586304e-02,-1.248068138957023621e-01,-1.459522247314453125e-01,-2.474886476993560791e-01,-1.276158690452575684e-01,-1.080168113112449646e-01,-7.055906951427459717e-02,-1.453584879636764526e-01,-3.859170526266098022e-02,1.778607517480850220e-01,-2.208549678325653076e-01,4.748519510030746460e-02,1.014356464147567749e-01,1.515992283821105957e-01,-8.526910096406936646e-02,-1.028919965028762817e-01,8.616065233945846558e-02,-5.648981779813766479e-03,3.998840600252151489e-02,6.545523554086685181e-02,9.508627653121948242e-02,-8.957547694444656372e-02,-1.323906145989894867e-02,7.849141955375671387e-02,-2.349190711975097656e-01,5.204673111438751221e-02,-5.817029625177383423e-02,2.638772875070571899e-02,-1.765700727701187134e-01,-1.625981777906417847e-01,-3.344378992915153503e-02,2.972092479467391968e-02,-1.056244894862174988e-01,-3.299080953001976013e-02,2.547008916735649109e-02,-1.094147861003875732e-01,1.658703088760375977e-01,-3.491680920124053955e-01,7.732919603586196899e-02,-5.081311240792274475e-02,-1.463118791580200195e-01,-3.697851672768592834e-02,6.194293498992919922e-02,-1.228780671954154968e-01,9.611340612173080444e-02,5.326694622635841370e-02,-1.156995892524719238e-01,8.318189531564712524e-02,-1.521418094635009766e-01,-1.217566430568695068e-02,4.595187678933143616e-02,-2.830986492335796356e-02,-4.129848629236221313e-02,-2.063716948032379150e-01,-1.465258598327636719e-01,1.300782896578311920e-02,-4.388549923896789551e-02,1.216073036193847656e-01,-1.749717146158218384e-01,-3.545464947819709778e-02,-1.337253451347351074e-01,6.335084140300750732e-02,1.263710577040910721e-02,3.830048441886901855e-02,-2.413843125104904175e-01,8.440808206796646118e-02,-1.788103729486465454e-01,7.605411112308502197e-02,-3.832919523119926453e-03,9.820128977298736572e-02,-1.867902427911758423e-01,-5.071995407342910767e-02,5.531616508960723877e-02,-1.074069924652576447e-02,-1.259177923202514648e-01,1.558739244937896729e-01,-1.550172567367553711e-01,-1.605459153652191162e-01,-2.599242627620697021e-01,5.191668868064880371e-02,-1.008962839841842651e-01,-2.464660257101058960e-01,-1.215932220220565796e-01,-1.589135080575942993e-01,-1.385881006717681885e-01,-3.795689716935157776e-02,-3.573509678244590759e-02,-1.401436626911163330e-01,5.713937804102897644e-02,-1.163558736443519592e-01,2.390580326318740845e-01,6.806156784296035767e-02,-9.755581617355346680e-03,2.195036709308624268e-01,-1.181978918612003326e-02,-1.111152470111846924e-01,-3.545971959829330444e-02,9.005131572484970093e-02,9.280398488044738770e-02,-1.905173510313034058e-01,-2.039434155449271202e-03,5.726997181773185730e-02,-1.537839174270629883e-01,5.897956714034080505e-02,-3.190601617097854614e-02,-1.481012552976608276e-01,4.402897879481315613e-02
1.279330439865589142e-02,-1.531305760145187378e-01,-3.208375573158264160e-01,-3.251092508435249329e-02,-1.208583787083625793e-01,-7.924290746450424194e-02,-1.581008583307266235e-01,-2.607738375663757324e-01,-1.406761407852172852e-01,-1.056396216154098511e-01,-1.215130314230918884e-01,-6.171493232250213623e-02,-1.640314608812332153e-01,-7.978697866201400757e-02,-1.322062909603118896e-01,-3.086424060165882111e-02,-1.880114078521728516e-01,-2.586218714714050293e-02,1.661901175975799561e-01,1.241040229797363281e-01,-1.435381174087524414e-01,-1.164269894361495972e-01,-1.496153473854064941e-01,-1.496547758579254150e-01,-3.478668630123138428e-02,-1.186375543475151062e-01,9.483519941568374634e-02,2.434448003768920898e-01,-2.677473723888397217e-01,-1.191829219460487366e-01,-6.358765810728073120e-02,2.162850797176361084e-01,-1.513283252716064453e-01,1.753552444279193878e-02,6.545413285493850708e-02,-1.818538829684257507e-02,2.216016054153442383e-01,-5.183797795325517654e-03,-1.862771809101104736e-02,-1.468720436096191406e-01,-2.968109846115112305e-01,-1.218357011675834656e-01,-1.859987676143646240e-01,-1.379805207252502441e-01,-4.297856986522674561e-01,-4.670911282300949097e-02,-1.867018938064575195e-01,-1.105832010507583618e-01,1.252710819244384766e-01,-6.216302886605262756e-02,4.802886024117469788e-02,5.758988484740257263e-02,6.981300562620162964e-02,-1.918327361345291138e-01,-2.390256971120834351e-01,9.315589070320129395e-02,7.428580522537231445e-02,-9.834560751914978027e-02,3.640863299369812012e-02,1.948471665382385254e-01,3.488241508603096008e-02,-2.327872663736343384e-01,-1.907528936862945557e-02,1.524328137747943401e-03,-5.948150530457496643e-02,7.099802605807781219e-03,2.215110324323177338e-02,-4.086847901344299316e-01,-1.390217095613479614e-01,5.599854514002799988e-02,-5.428899079561233521e-02,-9.752710163593292236e-02,-1.152223721146583557e-01,-1.898838132619857788e-01,-7.347475737333297729e-02,-3.491265177726745605e-01,-6.719098091125488281e-01,-9.378793090581893921e-02,-4.326900467276573181e-02,-2.338019609451293945e-01,1.963620074093341827e-02,-2.214309126138687134e-01,7.537541538476943970e-02,-4.911509528756141663e-02,1.100446358323097229e-01,-1.414847075939178467e-01,-1.174461022019386292e-01,-1.338916271924972534e-01,-5.172178521752357483e-02,-2.395575493574142456e-01,-1.622728556394577026e-01,-1.160020977258682251e-01,4.225412756204605103e-02,-2.224468737840652466e-01,-6.042710319161415100e-02,7.482206821441650391e-02,-3.380928635597229004e-01,-1.463056653738021851e-01,-4.818539321422576904e-02,4.126850143074989319e-02,-8.496528863906860352e-02,-7.347635924816131592e-02,-5.827434733510017395e-02,-3.575596585869789124e-02,-2.477549314498901367e-01,-1.122861430048942566e-01,-7.678315974771976471e-03,7.404624670743942261e-02,1.238243654370307922e-02,-9.084498137235641479e-02,-1.647847890853881836e-02,-8.199026435613632202e-02,-3.436012864112854004e-01,7.108095288276672363e-02,-3.870008885860443115e-01,9.187640994787216187e-02,-5.131023470312356949e-03,-1.285421401262283325e-01,8.805857598781585693e-02,-6.491171568632125854e-02,-8.458834886550903320e-02,-9.297472983598709106e-02,-5.003471374511718750e-01,3.108807802200317383e-01,6.878359615802764893e-02,-8.609695732593536377e-02,-1.265472471714019775e-01,-1.957545280456542969e-01,1.398021355271339417e-02,7.017302513122558594e-02,4.261566698551177979e-02,-1.626516431570053101e-01,-2.843288183212280273e-01,-2.124659121036529541e-01,-4.254198446869850159e-02,2.095375955104827881e-01,-2.268985956907272339e-01,2.754964865744113922e-02,-1.654349267482757568e-01,-2.287610769271850586e-01,-2.682782337069511414e-02,8.772884309291839600e-02,-4.486186206340789795e-01,-2.625451982021331787e-01,-1.503242403268814087e-01,-4.913070239126682281e-03,-4.329542219638824463e-01,-1.012979373335838318e-01,1.367228180170059204e-01,-2.060508131980895996e-01,-4.637011513113975525e-02,-1.251750290393829346e-01,1.684603989124298096e-01,5.328247323632240295e-02,-2.038429491221904755e-02,-2.854096591472625732e-01,-2.689857780933380127e-01,1.923053897917270660e-02,2.760897576808929443e-02,-1.592202037572860718e-01,-1.842721737921237946e-02,-3.988547623157501221e-01,-9.897171705961227417e-02,-1.755391210317611694e-01,-6.263428926467895508e-02,9.630087018013000488e-02,7.276172190904617310e-02,-5.433816313743591309e-01,-2.067055404186248779e-01,-5.665778517723083496e-01,-8.147011995315551758e-01,8.471722900867462158e-02,-1.286370866000652313e-02,3.661438450217247009e-02,-2.418181598186492920e-01,-8.263697475194931030e-02,-1.127051487565040588e-01,-1.776627898216247559e-01,-1.120300665497779846e-01,-4.113791137933731079e-02,-2.199589759111404419e-01,4.755481705069541931e-02,-2.857592999935150146e-01,-1.266954988241195679e-01,5.477967113256454468e-02,-1.907523125410079956e-01,-8.012102544307708740e-02,-1.731547713279724121e-01,-8.568191528320312500e-02,5.534433200955390930e-02,1.076674982905387878e-01,6.369526684284210205e-02,-1.787481755018234253e-01,7.364203035831451416e-02,7.816670835018157959e-02,-4.603334888815879822e-02,-3.092544339597225189e-02,-8.080004453659057617e-01,-9.433057159185409546e-02,-1.946763843297958374e-01,-4.266557097434997559e-01,-1.630716919898986816e-01,4.014066234230995178e-02,-6.742659211158752441e-02,-2.510501742362976074e-01,5.624834075570106506e-02,7.761018723249435425e-02,2.012384980916976929e-01,-1.676814854145050049e-01,-3.972120583057403564e-01,4.248617216944694519e-02,2.851401641964912415e-02,-1.339692771434783936e-01,-1.442214846611022949e-01,-7.712733000516891479e-02,-7.479874789714813232e-02,-1.189971342682838440e-01,-2.755012810230255127e-01,-2.476815432310104370e-01,1.705326437950134277e-01,1.661600321531295776e-01,2.994874119758605957e-02,8.295143023133277893e-03,-4.395337402820587158e-02,-1.223997492343187332e-02,-1.313558518886566162e-01,5.455037951469421387e-02,-1.519892364740371704e-01,7.187423110008239746e-02,-7.448092848062515259e-02,1.696400693617761135e-03,-1.594687104225158691e-01,-1.635270118713378906e-01,-2.476344071328639984e-02,-4.428471904247999191e-03,-1.163221374154090881e-01,-3.423956036567687988e-02,-8.404652774333953857e-02,-4.386604577302932739e-02,-4.358455538749694824e-02,8.215651661157608032e-02,-1.519696861505508423e-01,2.071520127356052399e-02,-1.075349077582359314e-01,-2.561377882957458496e-01,-2.006614655256271362e-01,-1.159438267350196838e-01,2.143694832921028137e-02,-2.266133278608322144e-01,-1.296013295650482178e-01,-1.482770293951034546e-01,-1.840769350528717041e-01,-2.497062087059020996e-01,5.056194029748439789e-03,-1.237113624811172485e-01,-2.992267012596130371e-01
4.785314202308654785e-02,4.587693139910697937e-02,3.374376520514488220e-02,1.454381495714187622e-01,1.918545067310333252e-01,-8.986101299524307251e-02,-8.988206833600997925e-02,1.898714601993560791e-01,-1.248528361320495605e-01,-3.505392074584960938e-01,-9.343583136796951294e-03,-6.965373456478118896e-02,3.899821639060974121e-02,6.240834668278694153e-02,-8.187042921781539917e-02,7.506003975868225098e-02,-2.990062534809112549e-01,-1.119719669222831726e-01,1.594613790512084961e-01,-1.763154417276382446e-01,-1.403142511844635010e-01,3.039576485753059387e-02,1.770046204328536987e-01,-1.519715934991836548e-01,-1.319134682416915894e-01,-9.918456673622131348e-01,-1.355630159378051758e-01,-1.479194778949022293e-02,-1.063128411769866943e-01,6.039870902895927429e-03,9.583343751728534698e-03,1.073727291077375412e-02,-5.864575505256652832e-03,5.259127914905548096e-02,-7.469405233860015869e-02,6.437605619430541992e-02,1.337832063436508179e-01,-1.046506315469741821e-01,-2.101915515959262848e-02,2.791979536414146423e-02,-7.671511918306350708e-02,2.089423239231109619e-01,4.603445902466773987e-02,-4.659881293773651123e-01,3.831764310598373413e-02,5.848950147628784180e-02,-4.747023433446884155e-02,5.476888269186019897e-02,6.062173843383789062e-02,-1.312825977802276611e-01,-1.021243706345558167e-01,-2.517615258693695068e-01,-3.557733297348022461e-01,-1.556092798709869385e-01,8.124529384076595306e-03,-2.602270841598510742e-01,-3.117720782756805420e-01,6.358081102371215820e-02,-5.275223776698112488e-02,9.918210655450820923e-02,-4.515719115734100342e-01,-2.091580927371978760e-01,-2.230925485491752625e-02,-2.022870779037475586e-01,-1.357376873493194580e-01,-7.162388879805803299e-03,-7.036197185516357422e-02,-2.800971642136573792e-02,8.693263679742813110e-02,-1.001242641359567642e-02,-1.453011333942413330e-01,-9.515172988176345825e-02,1.771979965269565582e-02,-2.845880389213562012e-01,-1.155659556388854980e-01,4.416432604193687439e-02,-1.922718584537506104e-01,-5.993446800857782364e-03,-1.411590129137039185e-01,-2.816179096698760986e-01,-5.492745712399482727e-02,-2.134083304554224014e-03,1.163687463849782944e-02,-1.443862468004226685e-01,-2.239182591438293457e-01,-1.111943870782852173e-01,7.346478104591369629e-02,1.733774435706436634e-03,1.633631810545921326e-02,1.116466522216796875e-01,2.959689125418663025e-02,7.996126078069210052e-03,-7.882879674434661865e-02,2.740234695374965668e-02,1.619439125061035156e-01,-6.935390084981918335e-02,-1.682426780462265015e-01,5.496908351778984070e-02,-8.434897661209106445e-02,-9.438570588827133179e-02,-1.599134411662817001e-03,-4.464927688241004944e-02,-9.684418141841888428e-02,-1.283793896436691284e-01,-2.737419307231903076e-01,3.737049549818038940e-02,-1.122235357761383057e-01,-5.465402454137802124e-02,2.664783969521522522e-02,9.233367443084716797e-02,-4.037154912948608398e-01,-5.812854971736669540e-03,-1.124232411384582520e-01,-1.440812200307846069e-01,5.877379328012466431e-02,-2.932620234787464142e-03,-9.290510416030883789e-02,-1.803985238075256348e-02,-3.001191318035125732e-01,-2.460818737745285034e-02,-2.781546860933303833e-02,-8.105970174074172974e-02,1.079308858606964350e-04,-1.838401108980178833e-01,-4.460878372192382812e-01,-8.239736407995223999e-02,-5.386002734303474426e-02,1.568101532757282257e-02,2.384696714580059052e-02,-3.085655570030212402e-01,6.582623720169067383e-02,-1.325960922986268997e-02,-7.318814992904663086e-01,-1.183322370052337646e-01,7.546197623014450073e-02,7.703097909688949585e-02,5.730350315570831299e-02,8.135069906711578369e-02,-2.038930170238018036e-02,-1.075934693217277527e-01,-1.340766996145248413e-01,-1.934299916028976440e-01,9.311051107943058014e-03,-3.224376738071441650e-01,-7.523604482412338257e-02,-5.904737710952758789e-01,-3.730988800525665283e-01,-2.286242879927158356e-02,6.709899753332138062e-02,-5.164135619997978210e-02,-3.840464400127530098e-03,-5.553561449050903320e-02,6.796172354370355606e-03,-1.694643348455429077e-01,-3.991338610649108887e-01,-6.287249922752380371e-02,-1.397002190351486206e-01,-3.376030176877975464e-02,8.160188049077987671e-02,-1.383285410702228546e-02,-6.174241192638874054e-03,-3.994682058691978455e-02,3.958488255739212036e-02,1.325068622827529907e-01,2.252088487148284912e-01,3.500951454043388367e-02,1.799761503934860229e-02,1.903734952211380005e-01,3.617016598582267761e-02,-3.642719611525535583e-02,2.422111630439758301e-01,-3.536626929417252541e-03,-1.032569855451583862e-01,1.474597770720720291e-02,-4.632972478866577148e-01,-2.644002735614776611e-01,-3.958399295806884766e-01,6.892149150371551514e-02,-3.810068592429161072e-02,-1.459504961967468262e-01,7.255156338214874268e-02,-5.869668722152709961e-02,-2.709975242614746094e-01,-4.691679030656814575e-02,-5.826520919799804688e-01,-3.070444464683532715e-01,1.143717989325523376e-01,4.775239527225494385e-02,-1.049212589859962463e-01,-2.589947730302810669e-02,8.447331190109252930e-02,4.043183103203773499e-02,-1.025625541806221008e-01,3.983470052480697632e-02,-3.036498129367828369e-01,2.302957326173782349e-01,6.465335190296173096e-02,8.335322141647338867e-02,-1.242648512125015259e-01,7.429114729166030884e-02,2.363967001438140869e-01,-2.717810571193695068e-01,6.383851915597915649e-02,-9.525074809789657593e-02,-7.004527449607849121e-01,-2.498486489057540894e-01,-2.306168377399444580e-01,-2.247282564640045166e-01,-6.774201989173889160e-02,1.305591911077499390e-01,-2.807359993457794189e-01,-2.899243310093879700e-02,-6.042201444506645203e-02,8.639031648635864258e-02,-4.196124151349067688e-02,-4.684592485427856445e-01,-4.546900093555450439e-02,-1.942157596349716187e-01,-1.534605305641889572e-02,-2.214790582656860352e-01,-9.255219697952270508e-01,-4.480662941932678223e-02,-2.680445462465286255e-02,-1.392289400100708008e-01,1.256248950958251953e-01,-1.005953997373580933e-01,-1.087836921215057373e-01,-2.677777707576751709e-01,1.973150856792926788e-02,1.230779569596052170e-02,-7.158718109130859375e-01,-1.026288047432899475e-01,-1.415265798568725586e-01,9.284736961126327515e-02,7.752151694148778915e-03,2.810616977512836456e-02,5.972965061664581299e-02,-8.302329480648040771e-02,1.191761717200279236e-02,5.945124477148056030e-02,-4.634930938482284546e-02,-2.463910169899463654e-02,-1.420114785432815552e-01,-1.159132868051528931e-01,5.737150460481643677e-02,-3.244274258613586426e-01,1.240702718496322632e-01,-1.444588694721460342e-02,6.454447656869888306e-02,2.142960578203201294e-02,-4.795912280678749084e-02,4.143276810646057129e-02,-2.697104215621948242e-01,-3.150374591350555420e-01,-5.042807012796401978e-02,-2.804843783378601074e-01
-1.071374714374542236e-01,6.229988113045692444e-02,-1.830017119646072388e-01,-9.462714195251464844e-03,-6.530073285102844238e-02,-1.300590932369232178e-01,7.764223497360944748e-03,-6.093888077884912491e-03,-1.329093724489212036e-01,7.742805778980255127e-02,-8.787243068218231201e-02,-1.610814034938812256e-01,1.348019242286682129e-01,-2.400839002802968025e-03,-2.050513774156570435e-01,-9.288154542446136475e-02,-1.802270114421844482e-01,-1.149062588810920715e-01,-2.503937184810638428e-01,-4.603847116231918335e-02,1.925491355359554291e-02,-2.677961289882659912e-01,-1.962789446115493774e-01,-2.147323489189147949e-01,-1.648800373077392578e-01,7.470219582319259644e-02,4.878204315900802612e-03,-2.172779142856597900e-01,-2.844728231430053711e-01,1.986201480031013489e-02,-4.828114435076713562e-02,5.399224907159805298e-02,-6.413790583610534668e-02,-8.910419046878814697e-02,-1.908412575721740723e-01,-3.371414244174957275e-01,5.840728431940078735e-02,-5.481838062405586243e-02,-8.315403759479522705e-02,5.349569395184516907e-02,-4.784769378602504730e-03,-4.870587587356567383e-02,-1.686403341591358185e-02,-2.575984783470630646e-02,-1.812049597501754761e-01,1.412213500589132309e-02,-9.575861692428588867e-02,-3.437456116080284119e-02,-1.666424572467803955e-01,-3.490317985415458679e-02,-1.094295978546142578e-01,-1.990134567022323608e-01,-5.914471298456192017e-02,4.083633795380592346e-02,-9.318161755800247192e-02,-2.087568342685699463e-01,-1.613006442785263062e-01,-1.353363245725631714e-01,7.192465662956237793e-02,-1.563241519033908844e-02,-1.638061851263046265e-01,-1.199443340301513672e-01,-1.211035251617431641e-01,-7.479510456323623657e-02,1.074650585651397705e-01,-1.042239964008331299e-01,-5.595963913947343826e-03,-1.201154142618179321e-01,-2.869632467627525330e-02,-1.543949078768491745e-02,5.380795523524284363e-02,-1.800959408283233643e-01,-1.799943745136260986e-01,-1.479451358318328857e-01,5.670470744371414185e-02,1.952023431658744812e-02,-1.503716558218002319e-01,-4.098080843687057495e-02,-3.413258865475654602e-02,4.430969804525375366e-02,-1.857738643884658813e-01,-9.886275231838226318e-02,3.311914578080177307e-02,-1.471943110227584839e-01,-5.448305979371070862e-02,-1.403842866420745850e-01,-3.959900513291358948e-02,-3.900868445634841919e-02,-1.500063668936491013e-02,-1.489323824644088745e-01,-9.579747170209884644e-02,-1.398218423128128052e-01,1.547170579433441162e-01,5.301188305020332336e-02,-2.434944659471511841e-01,-1.417395919561386108e-01,-1.519545074552297592e-02,-2.630203664302825928e-01,-1.505845040082931519e-02,-5.182457342743873596e-02,-1.451967507600784302e-01,-1.211798936128616333e-01,-1.645454466342926025e-01,-2.066299319267272949e-01,-2.376958578824996948e-01,2.691677212715148926e-02,-1.598861217498779297e-01,-1.395571827888488770e-01,-1.132019832730293274e-01,-2.828299999237060547e-01,-1.474722921848297119e-01,-1.660828441381454468e-01,-1.276891082525253296e-01,2.854218147695064545e-02,-7.709731161594390869e-02,-9.345019608736038208e-02,-2.325527602806687355e-03,-8.938552439212799072e-02,-1.143605113029479980e-01,-3.930995240807533264e-02,-5.453167855739593506e-02,2.767942473292350769e-02,-1.517344079911708832e-02,-5.629899445921182632e-03,-3.063642084598541260e-01,-8.500404655933380127e-04,4.029986914247274399e-03,-1.894252747297286987e-01,-1.950793564319610596e-01,-1.356442123651504517e-01,1.491330657154321671e-02,-1.489375233650207520e-01,-1.469139754772186279e-01,-4.695157334208488464e-02,-1.318610906600952148e-01,-8.330439031124114990e-02,-5.919321998953819275e-02,-9.583918005228042603e-02,-9.590362198650836945e-03,7.893410511314868927e-03,-7.445579022169113159e-02,-4.835941269993782043e-02,-2.884832210838794708e-03,1.074128672480583191e-01,-8.956898003816604614e-02,-2.159862369298934937e-01,-9.533324092626571655e-02,-1.604701578617095947e-01,-8.063342422246932983e-02,-3.408651053905487061e-02,8.820219337940216064e-02,3.278977796435356140e-02,-4.714596550911664963e-03,4.735740274190902710e-02,-2.366943508386611938e-01,1.001379452645778656e-02,-1.576672345399856567e-01,3.904166445136070251e-02,1.592975258827209473e-01,-1.939439475536346436e-01,-1.837667524814605713e-01,-1.293298602104187012e-01,1.495654433965682983e-01,-1.400538533926010132e-01,-2.224688827991485596e-01,5.561719834804534912e-02,-1.184539049863815308e-01,-5.791109427809715271e-02,-3.485026583075523376e-02,-2.051934786140918732e-02,-1.513779461383819580e-01,-1.425690650939941406e-01,-6.133359670639038086e-02,-5.440759123302996159e-04,-4.206627979874610901e-02,-6.366101652383804321e-02,-1.162459477782249451e-01,-7.456679642200469971e-02,-1.410751789808273315e-01,5.271368101239204407e-02,-2.516723871231079102e-01,-4.987202212214469910e-02,-2.306171506643295288e-01,-1.501797288656234741e-01,-1.833929866552352905e-01,5.448389425873756409e-02,-1.982146203517913818e-01,-1.258502155542373657e-01,-6.006271112710237503e-03,-6.193775311112403870e-02,-2.284800857305526733e-01,-1.466259509325027466e-01,8.244805783033370972e-02,9.919599443674087524e-02,-8.287348598241806030e-02,1.532151829451322556e-02,-1.591877788305282593e-01,3.468778915703296661e-03,-1.367334183305501938e-02,-6.915329396724700928e-02,-1.988857686519622803e-01,-6.653156876564025879e-02,-2.876297198235988617e-02,-1.049832627177238464e-01,-1.398336142301559448e-01,-2.256676703691482544e-01,-8.992449939250946045e-02,-2.134639024734497070e-01,-2.516075503081083298e-03,-1.538402307778596878e-02,-2.168275043368339539e-02,-1.380854099988937378e-01,1.300429459661245346e-02,-1.917196437716484070e-02,-1.421011388301849365e-01,-1.776654124259948730e-01,5.451795831322669983e-02,-4.370679333806037903e-02,-5.580389872193336487e-02,6.994153559207916260e-02,8.343380875885486603e-03,8.322252333164215088e-02,-1.998340636491775513e-01,5.056465044617652893e-03,8.681268244981765747e-02,-1.750375926494598389e-01,2.590257674455642700e-03,-1.531099230051040649e-01,-5.615743994712829590e-02,-1.714953333139419556e-01,-2.637814879417419434e-01,-8.543517440557479858e-02,-1.995438337326049805e-01,-1.273566782474517822e-01,-2.828555367887020111e-02,-6.192068010568618774e-02,-1.572386026382446289e-01,3.386271744966506958e-02,-1.391741484403610229e-01,2.042991816997528076e-01,-4.144665971398353577e-02,-2.314767837524414062e-01,1.392869055271148682e-01,1.143000870943069458e-01,2.141881734132766724e-02,8.280588686466217041e-02,6.558656692504882812e-02,1.592222899198532104e-01,-3.476068750023841858e-02,3.290869295597076416e-02,-1.854191571474075317e-01,5.477776378393173218e-02,-1.350452154874801636e-01,-1.041785553097724915e-01,7.533462345600128174e-02,1.019099950790405273e-01
-1.670123934745788574e-01,3.725591674447059631e-02,-1.783057451248168945e-01,-4.730759188532829285e-02,-1.391572803258895874e-01,-1.976784132421016693e-02,-3.352313535287976265e-03,-2.432130426168441772e-01,-1.695386022329330444e-01,2.255734242498874664e-02,7.741868030279874802e-03,-1.492311507463455200e-01,-1.498891711235046387e-01,-1.675360947847366333e-01,-1.022404432296752930e-01,-7.534167263656854630e-03,1.225394532084465027e-01,1.424707751721143723e-02,1.361210048198699951e-01,-8.680858463048934937e-02,5.417642369866371155e-02,-1.000051386654376984e-02,-2.168989479541778564e-01,-6.564715504646301270e-02,-2.428010702133178711e-01,-4.398740455508232117e-02,1.082722619175910950e-01,-2.787678241729736328e-01,1.293394342064857483e-02,5.516761168837547302e-02,-1.736419796943664551e-01,-2.121645770967006683e-02,1.003290265798568726e-01,-1.296597123146057129e-01,-1.288054287433624268e-01,2.010482400655746460e-01,-5.083286762237548828e-01,-9.654728323221206665e-02,1.543801650404930115e-02,-1.733952313661575317e-01,-2.687536478042602539e-01,-2.681735754013061523e-01,-1.310448944568634033e-01,8.402414619922637939e-02,-1.678597331047058105e-01,-2.110772579908370972e-01,-3.002692572772502899e-02,6.453163176774978638e-02,8.511143177747726440e-02,-1.605781167745590210e-01,-3.395187109708786011e-02,-5.611003562808036804e-02,-1.642305552959442139e-01,1.321148127317428589e-01,-8.354081958532333374e-02,6.802737712860107422e-02,-1.916269212961196899e-01,-3.254048824310302734e-01,-2.495486587285995483e-01,7.922701537609100342e-02,5.096160992980003357e-02,-1.465716958045959473e-01,-5.163238942623138428e-02,4.229613766074180603e-02,2.241669967770576477e-02,-1.467196387238800526e-03,-4.408235475420951843e-02,-2.066850364208221436e-01,1.118666827678680420e-01,2.224727533757686615e-02,9.929944761097431183e-03,4.758879542350769043e-03,-8.880499750375747681e-02,-5.660906806588172913e-02,-1.893883105367422104e-03,-1.438887417316436768e-01,-6.761766672134399414e-01,-1.473309546709060669e-01,-8.348033577203750610e-02,-2.225896716117858887e-01,-6.565176695585250854e-02,5.938990414142608643e-02,-9.495119750499725342e-02,3.061343543231487274e-02,-2.661322951316833496e-01,-8.699016273021697998e-02,-1.784194707870483398e-01,-1.793891936540603638e-01,-8.168928325176239014e-02,6.854360923171043396e-03,-3.065783903002738953e-02,7.091964781284332275e-02,5.254077166318893433e-02,-1.393268853425979614e-01,3.776010125875473022e-02,-7.200715690851211548e-02,8.203820139169692993e-02,-2.422569878399372101e-02,3.376886621117591858e-02,1.073537990450859070e-01,7.348232716321945190e-02,-9.645751863718032837e-02,5.354163050651550293e-02,-2.032548785209655762e-01,-4.927524551749229431e-02,-2.682699859142303467e-01,-2.651110291481018066e-01,-4.330899193882942200e-02,-3.970945999026298523e-02,-7.602244615554809570e-02,2.426439374685287476e-01,-2.716438658535480499e-02,-4.394154846668243408e-01,-2.904086709022521973e-01,-2.092474848031997681e-01,-1.221010833978652954e-01,-9.595801681280136108e-02,1.619927585124969482e-01,-4.527812451124191284e-02,2.582776919007301331e-02,-1.562849432229995728e-01,-1.591576188802719116e-01,-4.265088737010955811e-01,-4.389129206538200378e-02,-1.996425166726112366e-02,-9.478779882192611694e-02,-1.658433377742767334e-01,-3.378738090395927429e-02,-8.076958358287811279e-02,7.066645473241806030e-02,-3.566758334636688232e-02,-4.742987453937530518e-02,2.012787163257598877e-01,-1.055475175380706787e-01,-1.707053780555725098e-01,-3.775026202201843262e-01,-1.705432869493961334e-02,-1.134035885334014893e-01,9.535738825798034668e-02,-1.935693174600601196e-01,4.516405239701271057e-02,1.731167547404766083e-02,-1.986323893070220947e-01,-9.437979757785797119e-02,-1.146727949380874634e-01,5.718101561069488525e-02,8.197061717510223389e-02,5.434201098978519440e-03,-2.874733209609985352e-01,2.672125957906246185e-02,-6.531723588705062866e-02,-1.615874767303466797e-01,7.809002697467803955e-02,-1.306731104850769043e-01,1.616126298904418945e-01,-2.040683627128601074e-01,-8.497557044029235840e-02,-4.786453396081924438e-02,-1.164082661271095276e-01,1.009605303406715393e-01,-8.361430466175079346e-02,1.405038833618164062e-01,-2.431851997971534729e-02,1.413499843329191208e-02,9.391075372695922852e-02,-3.837293386459350586e-02,-3.443574905395507812e-02,-3.240955471992492676e-01,6.359243392944335938e-02,-5.715215206146240234e-01,-1.035498082637786865e-02,-1.116333603858947754e-01,-1.619223207235336304e-01,-3.329249322414398193e-01,9.902594238519668579e-02,4.391998052597045898e-02,-9.162622690200805664e-02,-1.970833539962768555e-01,-3.232328966259956360e-02,-4.206852614879608154e-02,-6.015979126095771790e-02,-6.388881802558898926e-02,-1.261720806360244751e-01,-2.258599400520324707e-01,-1.169766634702682495e-01,-1.842699497938156128e-01,7.550060749053955078e-02,-1.640915721654891968e-01,-1.263411492109298706e-01,-7.135064154863357544e-02,-4.563726186752319336e-01,-4.074088111519813538e-02,1.486641075462102890e-02,-7.451909780502319336e-02,-5.847955495119094849e-02,-1.931109279394149780e-01,-1.123656481504440308e-01,-3.254798054695129395e-01,2.452068589627742767e-02,4.505204036831855774e-02,-5.714575052261352539e-01,-1.990451812744140625e-01,-6.300842761993408203e-02,-5.333842709660530090e-02,-2.354498803615570068e-01,1.980111002922058105e-02,-2.376324087381362915e-01,1.297386176884174347e-02,3.092879801988601685e-02,1.816904991865158081e-01,1.063252240419387817e-01,-1.935787647962570190e-01,-1.242740824818611145e-01,1.098929196596145630e-01,3.649549558758735657e-02,-1.969342529773712158e-01,-2.035254091024398804e-01,-2.927357852458953857e-01,-6.243367195129394531e-01,-5.278272032737731934e-01,-1.078161075711250305e-01,-1.267751604318618774e-01,-4.236675426363945007e-02,-5.395630002021789551e-02,-2.340448796749114990e-01,-3.207713738083839417e-02,-7.462619245052337646e-02,-3.047780096530914307e-01,2.937407977879047394e-02,-1.820790395140647888e-02,-8.885115385055541992e-02,3.297033952549099922e-03,-3.605459630489349365e-02,-5.021417513489723206e-02,-1.989412307739257812e-02,7.885453850030899048e-02,4.154465720057487488e-02,4.592601582407951355e-02,-2.954222857952117920e-01,-1.080551650375127792e-02,-1.652766913175582886e-01,-8.336012065410614014e-02,1.406300812959671021e-01,-3.840084001421928406e-02,-7.650513201951980591e-02,2.318946272134780884e-02,-1.410686224699020386e-01,-1.653539203107357025e-02,-5.236499011516571045e-02,-1.302609741687774658e-01,7.731054723262786865e-02,-1.926754415035247803e-01,-3.913881257176399231e-02,-4.751374945044517517e-02,7.453513145446777344e-02,-6.249524280428886414e-02
-5.754224956035614014e-02,-9.658154845237731934e-02,8.228965103626251221e-02,-8.283986896276473999e-02,-2.864231169223785400e-01,3.909897431731224060e-02,-7.392352446913719177e-03,1.151215061545372009e-01,-5.674836412072181702e-02,-7.496184110641479492e-02,-9.617137908935546875e-02,-4.439435303211212158e-01,-1.188091635704040527e-01,5.166386067867279053e-02,9.486057795584201813e-03,-1.308075785636901855e-01,-1.972694098949432373e-01,-2.922124043107032776e-02,-1.163103058934211731e-01,-1.429533958435058594e-01,2.773996442556381226e-02,5.973640084266662598e-02,2.712127007544040680e-02,4.165033623576164246e-02,-4.536600783467292786e-02,-2.546955347061157227e-01,-5.758476257324218750e-02,3.909322898834943771e-03,-6.376254372298717499e-03,-8.092866837978363037e-02,1.123392023146152496e-02,-1.357853785157203674e-02,-6.769873946905136108e-02,-4.626825451850891113e-02,3.391332179307937622e-02,3.016013465821743011e-02,-5.565799474716186523e-01,-3.174873813986778259e-02,-6.268936395645141602e-02,-7.531380653381347656e-02,-1.262289583683013916e-01,-2.510877251625061035e-01,5.874461308121681213e-02,-6.533725559711456299e-02,-3.284010663628578186e-02,-4.630624353885650635e-01,-2.878494001924991608e-02,2.214333973824977875e-02,-5.987328011542558670e-03,4.521421622484922409e-03,-7.617364823818206787e-02,-1.019760295748710632e-01,1.604942604899406433e-02,8.366591297090053558e-03,-7.127436250448226929e-02,-3.106327168643474579e-02,6.086580827832221985e-02,5.557472258806228638e-02,-3.440198302268981934e-01,4.910546913743019104e-02,-8.118595927953720093e-02,-8.434764295816421509e-02,-3.421064913272857666e-01,-3.101283609867095947e-01,-5.112975835800170898e-02,-1.212403476238250732e-01,-2.414179407060146332e-02,-1.337622702121734619e-01,-6.094650924205780029e-02,1.285819709300994873e-02,-1.059023290872573853e-01,-1.237477585673332214e-01,-4.942252114415168762e-02,-5.291544273495674133e-02,-7.728135585784912109e-02,3.165030851960182190e-02,4.130901396274566650e-02,-8.652283251285552979e-02,7.457821816205978394e-02,-1.800433546304702759e-01,-2.704486548900604248e-01,-8.951282501220703125e-02,-1.243868395686149597e-01,-4.807529225945472717e-02,-1.015726923942565918e-01,-7.481701672077178955e-02,7.677157223224639893e-02,1.356923114508390427e-02,3.128005424514412880e-03,2.055362239480018616e-02,2.148285880684852600e-02,-1.695322692394256592e-01,-8.215167559683322906e-03,-5.712098255753517151e-02,-1.712877899408340454e-01,-2.002014368772506714e-01,-1.561742275953292847e-01,-2.305194921791553497e-02,-1.346558481454849243e-01,-1.369832307100296021e-01,2.723280154168605804e-02,-1.489041596651077271e-01,-7.833785563707351685e-02,3.377233073115348816e-02,-3.526286184787750244e-01,-2.214573472738265991e-01,-2.691812068223953247e-02,4.934659227728843689e-02,4.234234988689422607e-02,8.292942494153976440e-02,-1.676561832427978516e-01,5.033456161618232727e-02,6.342522799968719482e-02,-4.847017228603363037e-01,-4.350711405277252197e-02,-9.639938175678253174e-02,1.082027554512023926e-01,-7.485160976648330688e-02,-2.544803321361541748e-01,1.346996128559112549e-01,-1.087305396795272827e-01,-8.203147351741790771e-02,2.549274452030658722e-02,-2.059929072856903076e-01,8.138099312782287598e-02,8.130569010972976685e-02,1.296225748956203461e-02,5.974284932017326355e-02,-5.725635960698127747e-02,-3.783863186836242676e-01,-2.493368983268737793e-01,6.564178317785263062e-02,-4.634730517864227295e-01,-1.904593780636787415e-02,-1.189343631267547607e-01,6.875606626272201538e-02,5.836600810289382935e-02,2.055145986378192902e-02,1.589414291083812714e-02,-4.493138194084167480e-02,-4.049919173121452332e-02,-2.212674021720886230e-01,-2.669500112533569336e-01,-1.178123708814382553e-02,8.294878154993057251e-02,-1.137808710336685181e-01,2.593329548835754395e-02,-4.602184146642684937e-02,-2.008767724037170410e-01,-1.397693753242492676e-01,-8.028727769851684570e-02,-5.637625604867935181e-02,-1.271408349275588989e-01,-2.477154582738876343e-01,-1.162887692451477051e+00,-7.449477910995483398e-02,3.166187554597854614e-02,-1.416785866022109985e-01,9.326810948550701141e-03,8.339316584169864655e-03,3.112208331003785133e-03,-1.309697283431887627e-03,-1.920040138065814972e-02,6.765900552272796631e-02,1.135850921273231506e-01,-3.976427018642425537e-01,-5.635017901659011841e-02,1.711544543504714966e-01,1.895022094249725342e-01,-9.595657885074615479e-02,-4.279291257262229919e-02,-8.668206632137298584e-02,-9.434993565082550049e-02,-8.275856822729110718e-02,-5.988964810967445374e-02,1.077560111880302429e-01,-3.597359061241149902e-01,6.237672641873359680e-02,8.816099166870117188e-02,-4.065908864140510559e-02,-2.951369881629943848e-01,-3.942021355032920837e-02,-3.023953139781951904e-01,-2.424460202455520630e-01,-1.453489363193511963e-01,-1.884998530149459839e-01,-1.806695461273193359e-01,5.846938118338584900e-03,2.328664995729923248e-02,-2.693940997123718262e-01,-3.655121624469757080e-01,-7.109679281711578369e-02,-2.855874784290790558e-02,4.803083091974258423e-02,-1.903212070465087891e-01,-2.080199718475341797e-01,-3.847141563892364502e-02,-2.475668489933013916e-01,5.479861050844192505e-02,1.144042611122131348e-01,1.286940574645996094e-01,-9.123043157160282135e-03,-2.686426639556884766e-01,-3.288391977548599243e-02,-8.889853209257125854e-02,4.975466802716255188e-02,8.314476907253265381e-02,-1.476857662200927734e-01,-3.242677748203277588e-01,-6.994783133268356323e-02,-2.611464448273181915e-02,-5.982304364442825317e-02,-1.341375112533569336e-01,-4.642216861248016357e-01,-1.613527685403823853e-01,-1.397556662559509277e-01,2.302172966301441193e-02,6.095892190933227539e-02,1.096195653080940247e-01,-2.183983176946640015e-01,-1.291904300451278687e-01,-1.581960618495941162e-01,-3.897206485271453857e-02,-1.804520785808563232e-01,-1.069921478629112244e-01,5.066120252013206482e-02,-2.809013053774833679e-02,-6.027016043663024902e-01,-1.138840243220329285e-01,-6.574444472789764404e-02,1.950811594724655151e-01,-1.531028095632791519e-02,-9.107922017574310303e-02,-8.581996709108352661e-02,-2.259395271539688110e-01,5.505662411451339722e-02,-2.027704864740371704e-01,-1.845787018537521362e-01,-2.391796708106994629e-01,-1.906200312077999115e-02,-7.122698426246643066e-02,8.542138338088989258e-02,2.572564780712127686e-02,-3.714009001851081848e-02,-8.103290200233459473e-02,-3.120380342006683350e-01,-2.455366402864456177e-01,9.587305597960948944e-03,-2.672043740749359131e-01,8.595873601734638214e-03,5.901282280683517456e-02,-4.365571588277816772e-02,-1.169036328792572021e-01,5.792113021016120911e-02,-1.043262258172035217e-01,-7.055010646581649780e-02
-1.429812908172607422e-01,2.563471160829067230e-02,-1.904438436031341553e-02,1.928501948714256287e-02,-3.908856958150863647e-02,5.328498035669326782e-02,-4.774216935038566589e-02,2.501124050468206406e-03,-2.016224525868892670e-02,-9.701620787382125854e-02,5.071539431810379028e-02,-8.410636335611343384e-02,-3.277077525854110718e-02,-1.896603256464004517e-01,-1.546794623136520386e-01,1.926673389971256256e-02,-2.085484862327575684e-01,1.040306594222784042e-02,-2.220131903886795044e-01,-1.586287021636962891e-01,3.510341048240661621e-02,-2.525186240673065186e-01,1.726686023175716400e-02,-1.182834953069686890e-01,-1.384373903274536133e-01,9.176898747682571411e-02,-1.179816275835037231e-01,-1.567687392234802246e-01,-1.713557988405227661e-01,-7.299845572561025620e-03,-1.627916693687438965e-01,-2.052407860755920410e-01,3.690418973565101624e-02,5.490130558609962463e-02,-2.215313017368316650e-01,-3.250040411949157715e-01,1.981412619352340698e-01,-4.970060661435127258e-02,-4.608535021543502808e-02,-1.786226779222488403e-01,-1.198538169264793396e-01,4.008363559842109680e-02,-7.895970344543457031e-02,-7.129244506359100342e-02,5.131027661263942719e-03,-2.330192178487777710e-01,-9.411201626062393188e-02,-1.757560223340988159e-01,-5.997432768344879150e-02,-1.772450655698776245e-01,-1.727818846702575684e-01,-1.660752445459365845e-01,-1.859759539365768433e-01,-1.038506180047988892e-01,-2.292863093316555023e-03,-2.378154695034027100e-01,-1.131501868367195129e-01,4.133138060569763184e-02,4.456013813614845276e-02,-5.824621766805648804e-02,4.906056076288223267e-02,5.069551244378089905e-02,-1.288859844207763672e-01,-1.686392277479171753e-01,1.803943887352943420e-03,7.483074814081192017e-02,-5.072749033570289612e-02,-9.525716886855661869e-04,-8.744655549526214600e-02,1.066682115197181702e-02,7.370229065418243408e-02,-6.039687991142272949e-02,-7.045835256576538086e-02,-2.217165380716323853e-01,-6.501609832048416138e-02,-5.397588014602661133e-02,-1.446741372346878052e-01,-5.250754952430725098e-02,-6.076727062463760376e-02,-8.037967979907989502e-02,-7.251177728176116943e-02,-1.805843710899353027e-01,-4.853673744946718216e-04,-1.739778518676757812e-01,1.155517175793647766e-01,-2.067837417125701904e-01,-2.757209539413452148e-02,-2.305664122104644775e-01,-1.833120286464691162e-01,-1.128312498331069946e-01,-1.067677587270736694e-01,-9.181610494852066040e-02,1.392837520688772202e-02,-1.468697041273117065e-01,-2.162020206451416016e-01,4.445219039916992188e-02,-1.441615074872970581e-01,-2.759199440479278564e-01,5.224952101707458496e-02,-1.597696691751480103e-01,-1.360933035612106323e-01,-9.522223472595214844e-02,-3.537683282047510147e-03,-2.173509001731872559e-01,-2.404920607805252075e-01,5.131349340081214905e-02,-1.811648458242416382e-01,-1.192925125360488892e-01,-1.297617554664611816e-01,-3.154316544532775879e-01,-2.714759409427642822e-01,-1.265088319778442383e-01,-4.974272102117538452e-03,-6.035475805401802063e-02,-1.876478493213653564e-01,3.748975321650505066e-02,-1.078832820057868958e-01,-8.092700690031051636e-02,-3.306507691740989685e-02,-5.292350053787231445e-02,-2.721692249178886414e-02,4.175972938537597656e-02,-1.744372099637985229e-01,-1.506280452013015747e-01,-3.235068321228027344e-01,-2.775455713272094727e-01,-6.142649427056312561e-02,5.831527709960937500e-02,-5.321474745869636536e-02,1.147391274571418762e-02,-3.777566924691200256e-02,-6.790169049054384232e-03,-2.533127069473266602e-01,4.875111207365989685e-02,-1.736150532960891724e-01,-1.087946295738220215e-01,7.888273149728775024e-02,-1.465329993516206741e-02,-6.762892752885818481e-02,-3.693659231066703796e-02,-5.885284766554832458e-02,-1.223189979791641235e-01,-1.212015673518180847e-01,6.512464582920074463e-02,-1.232561171054840088e-01,-6.126388534903526306e-02,-9.007900953292846680e-02,6.159669533371925354e-02,-1.931453943252563477e-01,5.430577695369720459e-02,9.286945313215255737e-02,-6.079990416765213013e-02,-1.406525075435638428e-02,-5.143520608544349670e-02,-1.671511381864547729e-01,2.869581989943981171e-02,-7.817476242780685425e-02,-1.797611117362976074e-01,7.893713563680648804e-02,-6.766882538795471191e-02,4.561170935630798340e-03,-3.399180993437767029e-02,-9.748075902462005615e-02,-1.235570907592773438e-01,-1.660713106393814087e-01,9.358674287796020508e-02,-8.452178537845611572e-02,3.790458291769027710e-02,-3.437465429306030273e-02,4.616028815507888794e-02,-9.756434708833694458e-02,-2.314526438713073730e-01,1.162111386656761169e-02,-9.711492806673049927e-02,1.167887002229690552e-01,-2.099597752094268799e-01,-7.397222518920898438e-02,-2.000732421875000000e-01,-1.038817465305328369e-01,-1.049802824854850769e-01,-4.129546135663986206e-02,-5.078247934579849243e-02,-1.687640994787216187e-01,-1.816323399543762207e-01,-2.223355621099472046e-01,8.488935977220535278e-02,-3.673309981822967529e-01,-3.651347383856773376e-02,-8.377798832952976227e-03,-5.490879528224468231e-03,-1.349626034498214722e-01,-1.087830960750579834e-01,-7.432422786951065063e-02,1.660743653774261475e-01,-1.652166992425918579e-01,-7.995674014091491699e-02,-7.151361554861068726e-02,-2.424716576933860779e-02,8.404847979545593262e-02,-1.358834952116012573e-01,-1.286931633949279785e-01,-9.390167146921157837e-02,-8.250325173139572144e-02,-1.524925827980041504e-01,-4.038550704717636108e-02,-2.410729378461837769e-01,4.766219481825828552e-02,-1.772998869419097900e-01,-1.119585484266281128e-01,-2.264874614775180817e-02,5.009253695607185364e-02,-3.250153362751007080e-02,-1.146351844072341919e-01,-1.578419953584671021e-01,-1.490572094917297363e-01,-1.179524585604667664e-01,6.454903166741132736e-03,-5.345902964472770691e-02,-4.677261039614677429e-02,-2.106435745954513550e-01,-9.483231231570243835e-03,-1.328076869249343872e-01,3.538576886057853699e-03,-6.656990200281143188e-02,4.571462422609329224e-02,-7.964503765106201172e-02,2.764044702053070068e-02,-9.592195600271224976e-02,5.043690651655197144e-02,-1.901018917560577393e-01,-2.100641578435897827e-01,-1.063003018498420715e-01,-1.291038095951080322e-01,-1.514759957790374756e-01,-1.941177248954772949e-02,-8.123691380023956299e-02,-1.971563547849655151e-01,2.209009416401386261e-02,-1.804312765598297119e-01,2.225891798734664917e-01,-1.549580842256546021e-01,-1.296710409224033356e-02,1.512524634599685669e-01,-5.855912342667579651e-02,8.750964887440204620e-03,-6.219679117202758789e-02,6.319690495729446411e-02,1.564016938209533691e-01,-6.639072299003601074e-02,-2.296674251556396484e-01,-1.171513795852661133e-01,-4.362603649497032166e-02,-1.595967859029769897e-01,-2.160759121179580688e-01,-1.158246621489524841e-01,9.417553246021270752e-02
-1.347532123327255249e-01,-1.022531688213348389e-01,-1.673078089952468872e-01,-3.953430801630020142e-02,2.376562915742397308e-03,6.684841215610504150e-02,-2.012460380792617798e-01,1.458154171705245972e-01,8.496868610382080078e-02,-5.742142442613840103e-03,-1.913373768329620361e-01,1.084138751029968262e-01,9.916254132986068726e-02,-4.438494443893432617e-01,1.696699112653732300e-02,-1.499199122190475464e-02,2.938539907336235046e-02,-1.672445833683013916e-01,-4.431840777397155762e-01,-9.022856503725051880e-02,-2.260567247867584229e-01,-1.659415215253829956e-01,-2.326901257038116455e-01,2.340531349182128906e-01,2.681956626474857330e-02,2.269700765609741211e-01,-8.255199342966079712e-02,9.520613402128219604e-02,-2.539764344692230225e-01,-1.336483359336853027e-01,-3.766578137874603271e-01,-1.347908675670623779e-01,4.489660635590553284e-02,-1.070849448442459106e-01,7.378380000591278076e-02,2.777628600597381592e-01,-4.573670327663421631e-01,-1.582273654639720917e-02,-4.176408052444458008e-03,7.973413169384002686e-02,1.452509015798568726e-01,-2.117551714181900024e-01,-1.160388439893722534e-01,-7.135608792304992676e-01,1.562974601984024048e-02,-3.290004432201385498e-01,-1.518764495849609375e-01,-1.036549955606460571e-01,-1.044333204627037048e-01,-1.693977862596511841e-01,-2.896448373794555664e-01,-3.689375817775726318e-01,3.401410952210426331e-02,-1.331508159637451172e-01,-2.600418403744697571e-02,2.401184104382991791e-02,-1.127490326762199402e-01,-2.917540073394775391e-01,-4.920441508293151855e-01,-2.332588285207748413e-01,-6.068563461303710938e-02,-1.682950556278228760e-01,-9.395107626914978027e-02,-7.889983803033828735e-02,-1.233219727873802185e-01,-3.039470501244068146e-02,1.334695070981979370e-01,-4.111878871917724609e-01,-1.196209490299224854e-01,-6.274528056383132935e-02,-4.479006305336952209e-02,3.918850049376487732e-02,4.007239639759063721e-02,-1.058213561773300171e-01,7.836180180311203003e-02,-2.319000214338302612e-01,-6.133379936218261719e-01,5.275750160217285156e-02,-6.840094458311796188e-03,8.471331745386123657e-02,-2.983682155609130859e-01,1.712478995323181152e-01,5.054469779133796692e-02,-7.301683723926544189e-02,-4.764022529125213623e-01,9.043991565704345703e-02,2.057458162307739258e-01,4.648455977439880371e-02,-1.555693745613098145e-01,-8.863697201013565063e-02,-2.443353086709976196e-02,-1.195609476417303085e-02,-5.844451114535331726e-02,-1.153291538357734680e-01,5.129130184650421143e-02,5.875573307275772095e-02,3.595396578311920166e-01,2.262966707348823547e-02,-1.750753372907638550e-01,-1.200283840298652649e-01,6.884416099637746811e-03,1.678186655044555664e-02,-6.620255857706069946e-02,-1.388422250747680664e-01,-2.737068235874176025e-01,-3.053755499422550201e-02,-1.833721995353698730e-01,-1.011264696717262268e-01,6.982713937759399414e-02,6.138710305094718933e-02,-1.475900113582611084e-01,-7.140428759157657623e-03,-3.727762401103973389e-01,-1.121891289949417114e-01,2.619723975658416748e-01,-9.032721817493438721e-02,-9.147973358631134033e-02,4.864684864878654480e-02,7.498317956924438477e-02,-2.076872736215591431e-01,4.858370125293731689e-02,-8.940289728343486786e-03,-3.584045171737670898e-01,2.346466183662414551e-01,-9.585742652416229248e-02,-1.932685077190399170e-01,-1.923903226852416992e-01,-1.247977986931800842e-01,1.048598159104585648e-02,-2.108839340507984161e-02,-8.950400352478027344e-02,-6.671325862407684326e-02,-1.256100740283727646e-02,4.424158483743667603e-02,3.185120970010757446e-02,-2.189904898405075073e-01,-6.883420795202255249e-02,6.030092015862464905e-02,-1.999451667070388794e-01,4.658067971467971802e-02,-1.099574640393257141e-01,-2.928777635097503662e-01,-2.364665828645229340e-02,-2.185118496417999268e-01,-2.148244082927703857e-01,-1.174031868577003479e-01,-4.737555980682373047e-01,-7.319860160350799561e-02,-2.355977147817611694e-01,-4.402141645550727844e-02,-9.128150530159473419e-03,-1.300334036350250244e-01,-2.874048948287963867e-01,-1.702019423246383667e-01,-1.889470219612121582e-01,-2.006600797176361084e-01,-2.990164458751678467e-01,-9.660862386226654053e-02,2.585911378264427185e-02,5.018387734889984131e-02,-3.760128095746040344e-02,-2.158158868551254272e-01,-5.940032377839088440e-02,-1.644033789634704590e-01,-6.164558976888656616e-02,8.323881030082702637e-02,6.324854493141174316e-02,-2.646684646606445312e-01,-1.876545101404190063e-01,-5.834422111511230469e-01,-2.054197341203689575e-01,-6.648985296487808228e-02,6.316491961479187012e-02,-1.169934868812561035e-01,-1.661164462566375732e-01,6.217738986015319824e-02,-6.496273726224899292e-02,5.252885445952415466e-02,-1.470314264297485352e-01,-1.162928938865661621e-01,-1.164385601878166199e-01,-1.362715475261211395e-02,7.300114631652832031e-02,-2.242387272417545319e-02,-1.407966017723083496e-01,7.177557796239852905e-02,1.037237718701362610e-01,-1.307461112737655640e-01,3.252323716878890991e-02,3.578461706638336182e-02,-3.159374296665191650e-01,-1.280618458986282349e-01,-4.334181919693946838e-02,5.984975397586822510e-02,-8.109511435031890869e-02,-2.170219272375106812e-01,-8.510084450244903564e-02,-1.590865105390548706e-01,1.330920681357383728e-02,-2.149325460195541382e-01,-1.811719089746475220e-01,-8.672271668910980225e-02,4.243493452668190002e-02,-8.334065228700637817e-02,-2.119483053684234619e-01,-7.133795320987701416e-02,1.043028756976127625e-01,-3.212239593267440796e-03,1.018631309270858765e-01,1.365457922220230103e-01,-2.571579255163669586e-02,-1.310770958662033081e-01,-1.348370909690856934e-01,-1.055308524519205093e-02,1.018253061920404434e-02,-2.016083598136901855e-01,-4.596843942999839783e-02,1.332652568817138672e-01,-3.382560312747955322e-01,-3.514589741826057434e-02,-1.018585786223411560e-01,-5.340077355504035950e-02,-1.747649163007736206e-02,3.638282790780067444e-02,-2.348625808954238892e-01,-1.584063321352005005e-01,-8.414032310247421265e-02,-1.448782384395599365e-01,-6.904765218496322632e-02,-2.194054126739501953e-01,7.016031537204980850e-03,1.666025817394256592e-01,-2.195958793163299561e-01,-2.001652568578720093e-01,-1.842857301235198975e-01,-2.045952975749969482e-01,5.952894687652587891e-02,-1.691326797008514404e-01,-3.651733696460723877e-01,6.047932803630828857e-02,-2.943524718284606934e-02,3.098015300929546356e-02,-1.135464310646057129e-01,-1.350736245512962341e-02,4.519505891948938370e-03,-1.421118527650833130e-01,-9.727059304714202881e-02,-1.543263792991638184e-01,-2.990483343601226807e-01,-6.170118600130081177e-02,-1.434971988201141357e-01,5.188154987990856171e-03,9.887634217739105225e-02,-5.290136486291885376e-02,-1.793200522661209106e-01,-2.672422826290130615e-01
1.911324076354503632e-02,-6.570188701152801514e-02,-3.405779600143432617e-02,-3.860378265380859375e-01,-2.930070757865905762e-01,-2.256535179913043976e-02,-4.431797564029693604e-02,-3.036347404122352600e-02,1.992881856858730316e-02,1.294676214456558228e-01,-1.024146676063537598e-01,-6.798987090587615967e-02,-1.317731570452451706e-02,6.554449349641799927e-02,-1.645296066999435425e-01,-1.372695118188858032e-01,1.789019107818603516e-01,-7.042411714792251587e-02,1.115048304200172424e-01,1.573065482079982758e-02,-1.052108108997344971e-01,-4.635166376829147339e-02,-6.853324770927429199e-01,9.835849050432443619e-04,3.384809195995330811e-02,-1.128167659044265747e-02,-1.044674366712570190e-01,6.644596159458160400e-02,-9.125408716499805450e-03,-1.243944168090820312e-01,6.817533168941736221e-03,-3.097880817949771881e-02,-2.743081748485565186e-01,-1.232177838683128357e-01,2.436958253383636475e-02,1.593317650258541107e-02,-1.301857084035873413e-01,9.710998088121414185e-02,2.992781065404415131e-02,-1.340868882834911346e-02,-6.452362984418869019e-03,-1.608529686927795410e-01,-5.359945818781852722e-02,2.195143401622772217e-01,-4.405134320259094238e-01,-1.157541014254093170e-02,7.004967331886291504e-02,-3.905420005321502686e-02,-1.068304404616355896e-01,4.526460077613592148e-03,1.409828569740056992e-02,2.518886923789978027e-01,-1.026909947395324707e-01,-1.450484246015548706e-01,-5.015883967280387878e-02,-7.626504451036453247e-02,1.022957265377044678e-01,2.903120964765548706e-02,-8.372130244970321655e-02,1.865447498857975006e-03,1.474204957485198975e-01,-5.107824690639972687e-03,-5.641887709498405457e-02,2.256379276514053345e-01,-4.967302381992340088e-01,7.731318473815917969e-02,1.701378077268600464e-02,-4.532920941710472107e-02,4.391349479556083679e-02,-4.448372498154640198e-02,-1.220111548900604248e-01,-8.829124271869659424e-03,6.281411275267601013e-03,5.588504672050476074e-02,2.280103228986263275e-02,-1.522276457399129868e-02,1.847548410296440125e-02,2.311592176556587219e-02,-9.263882040977478027e-02,-1.508940011262893677e-01,1.987337768077850342e-01,-6.039105355739593506e-03,-7.197705097496509552e-03,7.487583160400390625e-02,1.817818582057952881e-01,6.058175582438707352e-03,3.403483703732490540e-02,-1.537075340747833252e-01,-2.767410688102245331e-02,4.655213654041290283e-02,9.066705405712127686e-02,8.580932766199111938e-02,-1.014504730701446533e-01,-1.517993211746215820e-01,-6.511952280998229980e-01,-5.480974540114402771e-02,1.769858002662658691e-01,1.493524163961410522e-01,-2.064361702650785446e-03,6.311041861772537231e-02,-1.583074033260345459e-01,2.097472082823514938e-03,2.327609807252883911e-02,8.659323304891586304e-02,-4.691226482391357422e-01,-1.814757287502288818e-01,4.283947870135307312e-02,-7.219445891678333282e-03,-7.820995897054672241e-02,-2.472150027751922607e-01,-1.718431264162063599e-01,4.184745624661445618e-02,1.013214290142059326e-01,-4.627859592437744141e-01,1.399737894535064697e-01,-1.336742192506790161e-01,-7.454537600278854370e-02,-1.078165601938962936e-02,-1.277497857809066772e-01,-2.881907485425472260e-02,-8.025229722261428833e-02,5.368397757411003113e-02,-2.208983004093170166e-01,-8.822572231292724609e-02,3.046119399368762970e-02,-4.072356522083282471e-01,-1.030941773205995560e-02,-8.795677125453948975e-02,4.654346778988838196e-02,-2.915508486330509186e-02,-9.015350788831710815e-02,-1.958822607994079590e-01,1.997543126344680786e-02,-1.977711170911788940e-02,-6.250058859586715698e-02,-1.468498855829238892e-01,-3.620801493525505066e-02,2.825676836073398590e-02,-1.368940770626068115e-01,-3.763446118682622910e-03,-1.426941156387329102e-01,-6.763771176338195801e-02,-4.481973871588706970e-02,-3.625343441963195801e-01,-1.437603682279586792e-01,-2.681033015251159668e-01,-7.919985055923461914e-01,-5.587046965956687927e-02,-7.839184999465942383e-02,-9.357287548482418060e-03,1.289000152610242367e-03,-1.370562463998794556e-01,2.095367945730686188e-02,-6.771662235260009766e-01,9.787514805793762207e-02,-1.010609939694404602e-01,5.477744713425636292e-02,-6.410031765699386597e-02,1.837510988116264343e-02,-2.444654703140258789e-02,-7.489598542451858521e-02,-4.436021447181701660e-01,-1.977478340268135071e-02,-2.441413849592208862e-01,-3.163919225335121155e-02,1.110941618680953979e-01,8.187798410654067993e-02,-2.909061126410961151e-02,-2.096449583768844604e-01,-4.243935346603393555e-01,-1.134054511785507202e-01,-3.250880166888237000e-02,-9.679289907217025757e-02,6.277644634246826172e-02,-2.094893604516983032e-01,-1.035118475556373596e-01,3.531474992632865906e-02,-1.106711626052856445e-01,-9.362893551588058472e-02,-1.152828186750411987e-01,-3.344440460205078125e-01,-9.782195836305618286e-02,-1.601300835609436035e-01,-6.404968351125717163e-02,-1.028989478945732117e-01,1.547579765319824219e-01,1.416732072830200195e-01,-1.543490439653396606e-01,4.897718131542205811e-02,4.715655744075775146e-02,-1.930979639291763306e-01,-1.510515362024307251e-01,-7.469697855412960052e-03,2.580797066912055016e-03,1.490898281335830688e-01,7.067320495843887329e-02,-2.192495390772819519e-02,2.494309842586517334e-02,-4.596269130706787109e-02,-3.581160306930541992e-01,9.365706704556941986e-03,-2.738741040229797363e-01,-2.126467972993850708e-01,-1.260180622339248657e-01,8.212901651859283447e-02,5.876470357179641724e-02,-8.217371255159378052e-02,-3.921410534530878067e-03,-3.544130921363830566e-01,-1.460857093334197998e-01,-1.422983556985855103e-01,-4.073434174060821533e-01,-1.953540295362472534e-01,-3.160924315452575684e-01,-1.102291271090507507e-01,-2.672709226608276367e-01,-4.776236414909362793e-02,8.255496621131896973e-02,1.262298668734729290e-03,2.280392348766326904e-01,-2.524326145648956299e-01,-1.267496198415756226e-01,-3.727069497108459473e-02,-3.935790434479713440e-02,-3.825387656688690186e-01,-1.487436741590499878e-01,4.137617070227861404e-03,-1.099557429552078247e-01,-1.309690624475479126e-01,-1.016604527831077576e-01,-1.973766535520553589e-01,-1.340246349573135376e-01,7.753369212150573730e-02,-2.670457959175109863e-02,-2.357709854841232300e-01,-1.590065807104110718e-01,-1.002377569675445557e-01,-2.280270457267761230e-01,2.316046804189682007e-01,4.597283899784088135e-02,-1.060070767998695374e-01,-7.755942642688751221e-02,-3.231726586818695068e-02,-5.940937250852584839e-02,-7.983998209238052368e-02,7.580292224884033203e-02,5.616338923573493958e-02,-4.049300029873847961e-02,-3.257604315876960754e-02,-6.059291958808898926e-02,-9.372886270284652710e-02,-1.330520361661911011e-01,-1.257156878709793091e-01,1.137819662690162659e-01,4.314348101615905762e-02,8.021964877843856812e-02
