-4.296572208404541016e-01
-2.098644711077213287e-02
-2.876800894737243652e-01
-6.906294822692871094e-02
-2.317897230386734009e-01
-2.896029055118560791e-01
5.637665092945098877e-02
-1.840862073004245758e-02
7.254000753164291382e-02
1.999279111623764038e-01
-2.225207090377807617e-01
1.071581915020942688e-01
-1.477241069078445435e-01
1.628444939851760864e-01
-5.045248940587043762e-02
-1.222551837563514709e-01
-1.424013227224349976e-01
-1.517436057329177856e-01
-4.365846514701843262e-01
-3.004070743918418884e-02
8.806674927473068237e-02
1.349877007305622101e-02
-2.922132909297943115e-01
3.241898119449615479e-01
-2.363052368164062500e-01
-2.142313122749328613e-01
-3.201641738414764404e-01
1.378537416458129883e-01
-3.010932207107543945e-01
1.366400159895420074e-02
-1.323340684175491333e-01
-1.028865277767181396e-01
-3.486807346343994141e-01
1.491119619458913803e-02
5.594393238425254822e-02
-1.174158183857798576e-03
-4.749184474349021912e-02
4.029919207096099854e-02
1.736143678426742554e-01
-1.543756425380706787e-01
8.616188913583755493e-02
2.989283017814159393e-02
-2.394197732210159302e-01
-1.329471468925476074e-01
-6.335310637950897217e-02
-1.345572769641876221e-01
-1.051207557320594788e-01
-2.413780540227890015e-01
2.841645665466785431e-02
-2.057729363441467285e-01
-2.559877038002014160e-01
1.722301095724105835e-01
6.545490771532058716e-02
1.079537421464920044e-01
-3.273783624172210693e-02
3.902669250965118408e-01
1.088499724864959717e-01
-1.586462408304214478e-01
-7.037585228681564331e-02
-1.174332760274410248e-02
-2.053217440843582153e-01
-7.337500900030136108e-02
1.597668975591659546e-01
-7.340926676988601685e-02
2.354015111923217773e-01
-3.155468776822090149e-02
-2.947362363338470459e-01
-2.214658409357070923e-01
-2.447235137224197388e-01
-1.820979714393615723e-01
-4.287287890911102295e-01
-1.893543601036071777e-01
-2.022510766983032227e-01
-4.130129516124725342e-02
8.032210916280746460e-02
5.931351706385612488e-02
9.090077131986618042e-02
3.418599069118499756e-02
-3.115122206509113312e-02
-1.233808770775794983e-01
-2.894203066825866699e-01
-1.304548829793930054e-01
3.478370606899261475e-01
-2.517188787460327148e-01
-2.125971168279647827e-01
-7.859963923692703247e-03
1.976905167102813721e-01
-1.050040721893310547e-01
2.145904451608657837e-01
-1.347477361559867859e-02
-1.426444500684738159e-01
-1.156175807118415833e-01
-9.034591913223266602e-02
3.922823369503021240e-01
-3.225997984409332275e-01
-3.706562817096710205e-01
-1.339644789695739746e-01
-9.587812423706054688e-02
1.334155909717082977e-02
6.018379330635070801e-02
4.369999170303344727e-01
4.313835203647613525e-01
1.027538627386093140e-02
2.357985526323318481e-01
-1.589164286851882935e-01
5.514399707317352295e-02
3.942047953605651855e-01
8.824418485164642334e-02
-2.431348115205764771e-01
-3.520910143852233887e-01
-4.183546900749206543e-01
3.731942772865295410e-01
4.606632050126791000e-03
3.569353744387626648e-02
-3.455373942852020264e-01
-7.436955720186233521e-02
3.985600173473358154e-01
1.101645454764366150e-01
8.171372860670089722e-02
-2.120577543973922729e-01
-1.270846128463745117e-01
1.665474288165569305e-02
3.483860790729522705e-01
-4.157160222530364990e-02
-2.378485947847366333e-01
-2.198822200298309326e-01
1.281422972679138184e-01
1.104005202651023865e-01
-3.207635134458541870e-02
1.956747770309448242e-01
-1.567611098289489746e-01
3.051372766494750977e-01
-5.582756176590919495e-02
6.750065833330154419e-02
-2.684515118598937988e-01
-1.966237723827362061e-01
1.374474018812179565e-01
8.780104108154773712e-03
2.890892028808593750e-01
-2.657766640186309814e-01
-6.632356438785791397e-03
-1.539090871810913086e-01
-1.022539958357810974e-01
-1.846747938543558121e-03
6.156995892524719238e-01
1.365378499031066895e-01
-1.537350863218307495e-01
-7.351414114236831665e-02
5.821734294295310974e-02
-1.646039448678493500e-02
-1.979231685400009155e-01
-2.780894637107849121e-01
-2.374071627855300903e-01
4.517745971679687500e-02
-3.141742050647735596e-01
-3.540871664881706238e-02
6.762399524450302124e-02
7.714755833148956299e-03
-1.349935680627822876e-01
0.000000000000000000e+00
3.307226002216339111e-01
-2.599178627133369446e-02
3.035462796688079834e-01
3.035117127001285553e-02
1.782502532005310059e-01
-1.702922210097312927e-02
-2.515394389629364014e-01
-3.992917239665985107e-01
-1.908215880393981934e-01
-3.042678236961364746e-01
9.738192707300186157e-02
-2.367319315671920776e-01
-2.994158267974853516e-01
-2.587844431400299072e-01
5.657447874546051025e-02
7.249410152435302734e-01
-3.435562551021575928e-01
-4.494285210967063904e-02
-1.311230957508087158e-01
2.556660771369934082e-01
4.016335122287273407e-03
-2.189736664295196533e-01
-1.004269905388355255e-02
1.382252573966979980e-01
-2.665572166442871094e-01
-2.649337053298950195e-01
1.025076024234294891e-02
1.037541627883911133e+00
7.739340513944625854e-02
-1.256883144378662109e-03
-3.502254933118820190e-02
1.076610609889030457e-01
3.664042353630065918e-01
-1.937183588743209839e-01
-3.503781259059906006e-01
1.423127204179763794e-01
-4.703831672668457031e-02
-3.645665645599365234e-01
-1.061986163258552551e-01
-3.143947124481201172e-01
2.930592000484466553e-01
-2.339963614940643311e-01
-2.119336426258087158e-01
-4.082221165299415588e-02
1.447317898273468018e-01
5.556972697377204895e-02
-4.919618740677833557e-02
2.115531116724014282e-01
1.412506550550460815e-01
1.665172353386878967e-02
-1.693569272756576538e-01
-1.082220487296581268e-02
-6.128964200615882874e-02
-5.935534834861755371e-02
-8.715680241584777832e-02
-6.490708887577056885e-02
-2.392009049654006958e-01
7.421421259641647339e-02
-1.447787135839462280e-01
9.428890049457550049e-02
1.449141353368759155e-01
2.917572483420372009e-02
-2.483106106519699097e-01
-2.752879261970520020e-01
-4.421707987785339355e-02
-1.309601366519927979e-01
8.923289179801940918e-02
-1.609194129705429077e-01
4.552764892578125000e-01
-1.386538743972778320e-01
-4.997661709785461426e-02
-6.850211322307586670e-02
-6.805845350027084351e-02
-1.494910847395658493e-02
-8.497806265950202942e-03
4.738675802946090698e-02
-3.167418017983436584e-02
-1.947110593318939209e-01
1.123255267739295959e-01
-5.562043935060501099e-02
-3.703424036502838135e-01
1.590535938739776611e-01
-7.500477880239486694e-02
4.955637082457542419e-02
-1.467294842004776001e-01
-1.250893436372280121e-02
-5.272155255079269409e-02
-3.447475433349609375e-01
-2.659196853637695312e-01
1.062299236655235291e-01
-2.324167788028717041e-01
-3.136717379093170166e-01
2.310750074684619904e-02
-2.007563710212707520e-01
-3.785808384418487549e-01
6.692643463611602783e-02
