-1.745898392982780933e-03
1.842499128542840481e-03
3.033626824617385864e-03
-3.446947783231735229e-02
-3.125208243727684021e-02
-4.086859989911317825e-03
-4.455597326159477234e-02
7.708746194839477539e-02
-5.733021721243858337e-02
-3.922663629055023193e-02
3.733782842755317688e-02
-3.713582828640937805e-02
-5.641200765967369080e-02
-1.034079771488904953e-02
-8.155654370784759521e-02
-4.835908487439155579e-02
-4.790562670677900314e-03
-2.017180249094963074e-02
-1.410694420337677002e-02
2.588017378002405167e-03
-1.711156219244003296e-02
2.487766928970813751e-02
7.000565063208341599e-03
2.454829774796962738e-02
-2.050710655748844147e-02
3.146667033433914185e-02
-1.537087932229042053e-02
4.415427800267934799e-03
-8.598263561725616455e-02
9.428389370441436768e-03
5.624747427646070719e-05
-3.345847362652420998e-03
-4.203543812036514282e-02
2.821439178660511971e-03
-1.771997846662998199e-02
5.462215747684240341e-03
-5.337963998317718506e-02
-2.688711509108543396e-02
1.568058622069656849e-03
3.866802901029586792e-02
-1.670978590846061707e-02
2.939544059336185455e-02
-2.973635867238044739e-02
9.740145877003669739e-03
-1.298266276717185974e-02
3.601050120778381824e-04
4.326317086815834045e-02
-1.419494277797639370e-03
2.269469201564788818e-03
-1.442171633243560791e-02
-5.433432757854461670e-02
-1.405655033886432648e-02
2.543378435075283051e-02
-5.144610069692134857e-03
-4.456979036331176758e-02
-4.707029089331626892e-03
1.172417658381164074e-03
-2.749838866293430328e-03
-1.331031136214733124e-02
1.749578118324279785e-02
0.000000000000000000e+00
1.250016223639249802e-02
-7.576350122690200806e-03
-5.655746161937713623e-02
-4.072699695825576782e-02
-1.253155060112476349e-02
-2.815747633576393127e-02
-3.769016265869140625e-02
-4.038241226226091385e-03
-3.422430250793695450e-03
2.463605068624019623e-02
-1.325535774230957031e-02
1.654433459043502808e-02
-5.728676170110702515e-02
-1.567437313497066498e-02
3.496935963630676270e-02
-1.760220853611826897e-03
4.456253349781036377e-02
1.698252186179161072e-02
4.529003053903579712e-04
-3.666807338595390320e-02
-4.881283268332481384e-02
8.719381876289844513e-03
2.682221680879592896e-02
-2.619820088148117065e-02
-8.374864235520362854e-03
1.963683462236076593e-05
-2.144372090697288513e-02
-2.382399700582027435e-02
-5.122311413288116455e-02
7.291117799468338490e-05
-2.444095211103558540e-03
1.381341367959976196e-03
7.997052371501922607e-02
-2.435140870511531830e-02
8.109042793512344360e-02
5.617382936179637909e-03
6.759003549814224243e-02
-3.753470629453659058e-02
-2.281751483678817749e-02
-2.606886997818946838e-02
-3.976565226912498474e-02
-2.482233382761478424e-02
0.000000000000000000e+00
-4.983891919255256653e-02
-1.344694495201110840e-01
4.437537118792533875e-02
1.316192094236612320e-02
-1.169080752879381180e-02
7.766128401271998882e-04
-2.347313798964023590e-02
7.565615326166152954e-02
-3.309740126132965088e-02
8.220444433391094208e-03
-4.501137882471084595e-02
-3.828395903110504150e-02
-5.073481053113937378e-02
-5.563829094171524048e-02
3.400580491870641708e-03
-2.296872064471244812e-02
-4.295855760574340820e-02
1.097365748137235641e-02
-3.002860024571418762e-02
-1.768438704311847687e-02
-9.521424770355224609e-03
-2.416163310408592224e-02
7.018078584223985672e-03
3.079608082771301270e-02
-1.987943984568119049e-02
-8.626797050237655640e-02
-1.126926392316818237e-02
-6.035531405359506607e-03
-7.627848535776138306e-03
-8.286144584417343140e-03
2.611489966511726379e-02
-1.104241758584976196e-01
7.352859526872634888e-02
-3.519601374864578247e-02
-4.140915349125862122e-02
4.529951885342597961e-02
4.447581991553306580e-02
-2.652593329548835754e-02
4.833346605300903320e-02
-2.850812487304210663e-02
3.980291262269020081e-02
-7.625769078731536865e-02
1.762907207012176514e-02
-2.596783265471458435e-02
8.451180532574653625e-03
-4.894762299954891205e-03
-6.995870172977447510e-02
1.869747415184974670e-02
-6.917433929629623890e-04
-2.278015762567520142e-02
-6.546758115291595459e-02
-1.226438675075769424e-02
3.924172371625900269e-02
-2.342255413532257080e-02
-1.943593658506870270e-02
9.065840393304824829e-03
-1.258849352598190308e-02
2.571858279407024384e-02
-1.693162880837917328e-02
-5.695613846182823181e-02
-3.146019950509071350e-02
5.053575709462165833e-02
-2.149984799325466156e-02
4.552286583930253983e-03
8.091904222965240479e-03
3.430300951004028320e-02
3.660326078534126282e-02
-3.413111902773380280e-03
-4.346548393368721008e-02
-1.639864034950733185e-02
3.019987605512142181e-02
-1.018454972654581070e-02
-1.651129126548767090e-02
2.585460059344768524e-02
-2.452405868098139763e-03
-4.970451816916465759e-03
2.081064879894256592e-02
-3.322800854220986366e-03
-3.222805261611938477e-02
-2.533026970922946930e-03
1.742052659392356873e-02
-5.267536267638206482e-02
-2.804622426629066467e-02
1.205039490014314651e-02
1.574560813605785370e-02
5.484870821237564087e-02
-3.292083507403731346e-03
1.573691330850124359e-02
-4.642796888947486877e-02
1.042945086956024170e-01
-1.515136472880840302e-02
-4.963544756174087524e-02
1.831557415425777435e-02
-6.787783652544021606e-02
7.056553382426500320e-03
1.027263924479484558e-01
-1.960963197052478790e-02
2.388445101678371429e-02
-4.860125109553337097e-02
2.184946497436612844e-04
1.011260412633419037e-02
-1.456118654459714890e-03
2.209162712097167969e-02
-4.643843322992324829e-02
8.379315026104450226e-03
3.634609747678041458e-03
1.658974215388298035e-02
-8.000886999070644379e-03
-3.826723247766494751e-02
1.758533064275979996e-03
2.230556309223175049e-02
8.967415429651737213e-03
-4.913961887359619141e-02
-5.947276204824447632e-02
-2.175844646990299225e-02
-1.361496979370713234e-04
-7.767035812139511108e-02
0.000000000000000000e+00
1.225045695900917053e-02
2.371576242148876190e-02
-3.495550481602549553e-03
-1.726954802870750427e-02
2.192707359790802002e-02
-2.095206826925277710e-02
-1.505839545279741287e-02
1.128041557967662811e-02
-8.210548199713230133e-03
-2.785895578563213348e-02
6.310153752565383911e-02
-3.249287139624357224e-03
-1.259506121277809143e-02
-2.197617664933204651e-02
-2.371218986809253693e-03
-2.420563437044620514e-02
4.107150807976722717e-02
-1.795272156596183777e-02
7.299662381410598755e-02
-1.477435580454766750e-03
-3.483773395419120789e-02
9.703149646520614624e-02
8.478887379169464111e-03
1.064257812686264515e-04
-9.632059372961521149e-04
-4.129026550799608231e-03
3.446884825825691223e-02
-4.193050041794776917e-02
-2.317921631038188934e-02
-2.831108495593070984e-02
-6.699867080897092819e-03
-1.660341862589120865e-03
-6.211184430867433548e-03
9.039258211851119995e-02
