1.642622053623199463e-01,1.893275231122970581e-01,3.144673705101013184e-01,4.306928440928459167e-02,2.181666344404220581e-02,1.325377225875854492e-01,2.637478113174438477e-01,5.657924711704254150e-02,-8.161005377769470215e-02,4.720616340637207031e-02,-1.408264040946960449e-01,4.038534462451934814e-01,-1.950493454933166504e-02,3.820618614554405212e-02,2.108002603054046631e-01,-2.550401985645294189e-01,1.257324367761611938e-01,-1.811228245496749878e-01,6.310427933931350708e-02,1.299516856670379639e-01,1.819307208061218262e-01,1.393519937992095947e-01,-6.687180697917938232e-02,-8.648807555437088013e-02,3.349178656935691833e-02,1.365429908037185669e-01,8.765994757413864136e-02,1.382846087217330933e-01,-2.395122647285461426e-01,-2.382966876029968262e-01,-1.246029697358608246e-02,-1.838758820667862892e-03,1.305496692657470703e-01,2.451360598206520081e-02,-1.102329045534133911e-01,7.260788977146148682e-02,-1.494492441415786743e-01,-2.928452799096703529e-03,-4.080949425697326660e-01,1.401508003473281860e-01,-1.365418136119842529e-01,2.401456832885742188e-01,-6.691115349531173706e-02,-5.554034188389778137e-02,7.872939109802246094e-02,-3.733191490173339844e-01,4.897735640406608582e-02,-5.603887438774108887e-01,2.228216379880905151e-01,-8.937212824821472168e-02,1.475367099046707153e-01,-1.133277341723442078e-01,-3.058476150035858154e-01,2.632698416709899902e-02,-2.963744699954986572e-01,1.080673784017562866e-01,3.193658962845802307e-02,8.059728890657424927e-02,-2.175228437408804893e-03,-1.912205480039119720e-02,-4.874347895383834839e-02,-2.102170884609222412e-01,-8.592598140239715576e-02,-7.667458802461624146e-02,1.263039857149124146e-01,-3.689621686935424805e-01,5.632692482322454453e-03,2.775155939161777496e-02,6.915210932493209839e-02,-1.430092006921768188e-01,8.250513672828674316e-02,-2.651362419128417969e-01,7.305751740932464600e-02,7.249528169631958008e-02,-2.250535599887371063e-02,1.531226634979248047e-01,1.439124196767807007e-01,1.969285458326339722e-01,3.422580659389495850e-02,-1.746391355991363525e-01,-6.701441854238510132e-02,-2.845244705677032471e-01,5.854520946741104126e-02,-5.222438648343086243e-02,1.266472786664962769e-01,-3.732589771971106529e-03,-6.854905933141708374e-02,9.694208949804306030e-02,-3.403224050998687744e-02,-1.432073712348937988e-01,2.058992385864257812e-01,1.288099735975265503e-01,1.030303463339805603e-01,7.085262238979339600e-02,2.741410434246063232e-01,4.627781510353088379e-01,-1.128916814923286438e-01,-1.552668120712041855e-02,4.107513427734375000e-01,2.319646328687667847e-01,-1.575457677245140076e-02,-1.444003451615571976e-02,-7.192846387624740601e-02,1.161522120237350464e-01,-3.101715072989463806e-02,2.654683291912078857e-01,1.394932419061660767e-01,-1.422407627105712891e-01,-6.535037606954574585e-02,1.008063107728958130e-01,-3.147137761116027832e-01,2.408808283507823944e-02,8.626594394445419312e-02,-4.546697810292243958e-02,-6.320162862539291382e-02,-1.406953036785125732e-01,7.863471657037734985e-02,-2.796083390712738037e-01,4.396489262580871582e-02,-3.570244312286376953e-01,-3.680737316608428955e-01,-3.571277856826782227e-01,1.173199266195297241e-01,-1.424233317375183105e-01,2.505075037479400635e-01,-1.944760382175445557e-01,-1.788672506809234619e-01,3.214426040649414062e-01,3.163906335830688477e-01,-1.649001240730285645e-01,-1.474138945341110229e-01,9.376192837953567505e-02,2.226992137730121613e-02,1.036691293120384216e-01,3.684634715318679810e-02,-1.229997202754020691e-01,-2.371572256088256836e-01,-6.601527929306030273e-01,-1.623426526784896851e-01,-1.735282987356185913e-01,-9.141387045383453369e-02,1.734874211251735687e-02,-4.840889275074005127e-01,3.413916565477848053e-03,3.779131174087524414e-01,-2.011545300483703613e-01,2.063867077231407166e-02,3.565790504217147827e-02,1.193898990750312805e-01,5.099977832287549973e-03,7.075837254524230957e-02,2.567143179476261139e-02,-3.659970462322235107e-01,4.904886484146118164e-01,1.739729009568691254e-02,-1.614643633365631104e-01,-1.260346621274948120e-01,6.265874952077865601e-02,-4.846952855587005615e-02,4.335882961750030518e-01,1.917061209678649902e-01,6.076186522841453552e-02,-9.351094253361225128e-03,-1.332073658704757690e-01,-1.758537441492080688e-02,5.094053596258163452e-02,-1.272083222866058350e-01,-9.086266160011291504e-03,2.146020531654357910e-01,3.408105671405792236e-01,5.450417101383209229e-02,-3.731441870331764221e-02,-1.927289925515651703e-02,4.696358367800712585e-02,1.492758095264434814e-01,-8.038669079542160034e-02,-2.921340763568878174e-01,3.890728652477264404e-01,-3.248184174299240112e-02,6.377434730529785156e-02,-6.782561540603637695e-04,-3.517666831612586975e-02,4.439335688948631287e-02,-2.851836010813713074e-02,-7.950583100318908691e-02,1.754945516586303711e-01,1.242849975824356079e-02,1.211862713098526001e-01,5.818005651235580444e-02,4.611155092716217041e-01,-2.546299099922180176e-01,-4.253759384155273438e-01,-2.582937777042388916e-01,9.322016239166259766e-01,2.126802802085876465e-01,-8.364134281873703003e-02,-9.192721918225288391e-03,-3.247747421264648438e-01,3.180431947112083435e-02,1.062350749969482422e+00,1.879767626523971558e-01,-4.006530940532684326e-01,-2.575699090957641602e-01,-1.712476313114166260e-01,-8.772085607051849365e-02,-2.369275987148284912e-01,1.046314537525177002e-01,-8.330139517784118652e-02,-3.202726542949676514e-01,-8.752869069576263428e-02,1.159712746739387512e-01,3.173044323921203613e-02,4.168350622057914734e-02,6.034673377871513367e-02,-2.014324367046356201e-01,-1.472627073526382446e-01,-9.345845133066177368e-02,2.526803500950336456e-02,-1.211632713675498962e-01,5.905352160334587097e-02,-5.810623764991760254e-01,-9.622932970523834229e-02,1.593307256698608398e-01,-7.075043767690658569e-02,-1.163553074002265930e-01,-1.177024021744728088e-01,5.472716093063354492e-01,2.815285623073577881e-01,-7.769208401441574097e-02,-4.315948486328125000e-02,-7.815593481063842773e-02,4.779358208179473877e-02,-2.018799036741256714e-01,-1.022965162992477417e-01,-2.143744379281997681e-02,-1.050931774079799652e-02,-3.062591701745986938e-02,7.272445410490036011e-02,-7.963091135025024414e-02,2.100007832050323486e-01,3.267591595649719238e-01,-1.874859184026718140e-01,2.614924311637878418e-02,3.346827328205108643e-01,2.934617400169372559e-01,6.427048146724700928e-02,1.245934888720512390e-01,3.533165529370307922e-02,-3.297847509384155273e-01,-6.175260245800018311e-02,1.229324936866760254e-01,5.244344845414161682e-02,1.774595081806182861e-01,9.893181920051574707e-02,-2.538122832775115967e-01,-2.083990424871444702e-01
1.835492998361587524e-01,7.494700700044631958e-02,-2.037563733756542206e-02,-1.099273040890693665e-01,-1.291253715753555298e-01,3.127164393663406372e-02,-1.181655749678611755e-01,1.659305691719055176e-01,-9.679722785949707031e-02,-1.909104138612747192e-01,1.232957020401954651e-01,-6.298594921827316284e-02,2.205761820077896118e-01,3.801511600613594055e-02,1.060807332396507263e-01,-5.771556496620178223e-02,1.252622008323669434e-01,-1.501514464616775513e-01,-1.026585251092910767e-01,7.973410934209823608e-02,-1.671878993511199951e-01,-1.048300117254257202e-01,5.201707407832145691e-02,-2.248927652835845947e-01,1.220198273658752441e-01,-2.184775173664093018e-01,-6.340148299932479858e-02,8.231949061155319214e-03,5.330907553434371948e-02,-1.956514269113540649e-01,3.255848586559295654e-02,4.385011270642280579e-02,1.527630724012851715e-02,-2.434947295114398003e-03,4.068195074796676636e-02,-1.062924265861511230e-01,8.535026013851165771e-02,6.339454557746648788e-03,6.285295635461807251e-02,-1.020601391792297363e-01,-4.757762700319290161e-02,-1.008274927735328674e-01,-9.368085861206054688e-02,1.726515144109725952e-01,-1.395022720098495483e-01,-9.216661006212234497e-02,9.862619638442993164e-02,8.124510198831558228e-02,-4.563528299331665039e-02,6.881744414567947388e-02,-1.764948517084121704e-01,-1.143910661339759827e-01,1.473611146211624146e-01,1.339905261993408203e-01,-2.504292130470275879e-01,-1.779445819556713104e-02,1.630845069885253906e-01,-1.236076205968856812e-01,-6.763482838869094849e-02,1.027289032936096191e-01,-6.345017254352569580e-02,-2.436551265418529510e-03,1.643686592578887939e-01,1.941708102822303772e-02,7.943584769964218140e-02,-1.148014143109321594e-02,-1.541811227798461914e-01,-4.595500603318214417e-02,-4.981158673763275146e-02,1.159281656146049500e-01,1.945499777793884277e-01,-6.599454581737518311e-02,-5.064281076192855835e-02,-7.312539219856262207e-02,-1.344227641820907593e-01,2.233337145298719406e-03,1.270183473825454712e-01,-1.038571670651435852e-01,-2.976741790771484375e-01,7.990523427724838257e-02,7.092842459678649902e-02,3.705475479364395142e-02,1.545887291431427002e-01,3.956326097249984741e-02,-1.643247157335281372e-01,8.119195699691772461e-03,-7.580561190843582153e-02,-2.707296796143054962e-02,3.105809539556503296e-02,-4.677725024521350861e-03,-1.506551802158355713e-01,3.135206550359725952e-02,1.106695234775543213e-01,-2.082300484180450439e-01,2.860039100050926208e-02,-9.723794460296630859e-02,-9.180185198783874512e-02,-2.984875254333019257e-02,-1.620820909738540649e-01,-6.841426342725753784e-02,-2.295500040054321289e-02,6.668195873498916626e-02,1.855908706784248352e-02,-2.245625108480453491e-02,7.213816512376070023e-03,1.258882433176040649e-01,-7.385955005884170532e-02,-7.632860541343688965e-02,7.645221799612045288e-02,1.193534806370735168e-01,7.941304147243499756e-02,-2.103418260812759399e-01,-1.494079828262329102e-01,3.979065641760826111e-02,-8.146179839968681335e-03,1.277715712785720825e-01,2.474792115390300751e-02,9.373483061790466309e-02,1.642823070287704468e-01,4.317668080329895020e-02,-1.651506423950195312e-01,2.149478793144226074e-01,9.194267541170120239e-02,-1.626798510551452637e-01,-3.547098487615585327e-02,-2.821261882781982422e-01,-6.694332510232925415e-02,-3.534576296806335449e-02,-9.416802786290645599e-03,2.378680557012557983e-01,-5.510105192661285400e-02,-3.461432456970214844e-02,-1.018168330192565918e-01,3.185970708727836609e-02,-1.216540932655334473e-01,1.117648184299468994e-01,-1.625310443341732025e-02,-1.998205929994583130e-01,3.422691300511360168e-02,-1.072479188442230225e-01,2.680773474276065826e-02,-8.193485438823699951e-02,-4.839098751544952393e-01,2.794959582388401031e-03,1.275099366903305054e-01,2.045094817876815796e-01,-7.517860829830169678e-02,8.223440498113632202e-02,1.295555680990219116e-01,1.188810765743255615e-01,2.011045254766941071e-02,2.363648116588592529e-01,-1.950744390487670898e-01,-5.555700510740280151e-02,-2.026122510433197021e-01,-9.002804011106491089e-02,-1.069751009345054626e-01,-4.919450357556343079e-02,6.074851751327514648e-02,4.390959814190864563e-02,6.339679658412933350e-02,1.515073180198669434e-01,-1.642673164606094360e-01,9.807185828685760498e-02,-1.734897047281265259e-01,1.271030455827713013e-01,-1.606081277132034302e-01,1.577662676572799683e-01,1.694227308034896851e-01,9.269607812166213989e-02,8.285894989967346191e-02,-1.511888504028320312e-01,-5.839383974671363831e-02,-9.285362809896469116e-02,-1.645792424678802490e-01,-5.137906596064567566e-02,9.245675802230834961e-02,-5.228977650403976440e-03,1.209796443581581116e-01,1.143614277243614197e-01,3.552568331360816956e-02,-1.424613893032073975e-01,-4.785516858100891113e-02,1.649508019909262657e-03,1.749317198991775513e-01,7.845612615346908569e-02,1.031988784670829773e-01,-1.049543619155883789e-01,-1.407802104949951172e-01,-9.340998716652393341e-03,-4.730075225234031677e-02,-1.374207139015197754e-01,-5.638874694705009460e-02,1.565793007612228394e-01,9.659804403781890869e-03,-1.845678687095642090e-01,-1.827459484338760376e-01,8.106060326099395752e-02,9.088161587715148926e-02,4.795696586370468140e-02,9.285323321819305420e-02,-1.528494060039520264e-01,-6.935935933142900467e-03,-1.324944496154785156e-01,9.029915183782577515e-02,6.219854578375816345e-03,-1.905647069215774536e-01,-8.789920806884765625e-02,-1.232241243124008179e-01,-3.853536397218704224e-02,1.906969100236892700e-01,5.060701817274093628e-02,-3.800202906131744385e-02,-1.818939149379730225e-01,-1.010416820645332336e-01,-1.500750780105590820e-01,1.661938577890396118e-01,-1.075723245739936829e-01,-1.039164513349533081e-01,-1.493826061487197876e-01,1.825869828462600708e-01,-5.827271938323974609e-02,3.619961813092231750e-02,-8.535221964120864868e-02,-3.774686530232429504e-02,-7.839673757553100586e-02,8.972226828336715698e-02,4.798487201333045959e-02,1.316587626934051514e-01,-3.523189574480056763e-02,2.601630426943302155e-02,-5.628912523388862610e-02,3.345246985554695129e-02,6.662498414516448975e-02,1.814919859170913696e-01,8.238228410482406616e-02,-1.054061874747276306e-01,1.263497620820999146e-01,1.122061535716056824e-01,-3.367536365985870361e-01,-2.434860765933990479e-01,-7.614877074956893921e-02,-1.299258172512054443e-01,7.627037167549133301e-02,1.036961972713470459e-01,5.270763114094734192e-02,1.198880895972251892e-01,-4.342963546514511108e-02,-4.943224787712097168e-01,-1.121038645505905151e-01,1.725309342145919800e-01,-1.487684100866317749e-01,-2.004658281803131104e-01,-1.133365407586097717e-01,-5.343763530254364014e-02,9.194467961788177490e-02
9.898979216814041138e-02,-2.854603528976440430e-02,-1.734922081232070923e-01,-1.018332391977310181e-01,7.051154226064682007e-02,8.119802922010421753e-02,-3.510474413633346558e-02,-1.497711837291717529e-01,-1.305424720048904419e-01,1.497068256139755249e-02,-1.288709789514541626e-01,2.698450116440653801e-03,3.053076751530170441e-02,-4.469034075736999512e-02,1.701514124870300293e-01,-5.270645022392272949e-02,1.434679627418518066e-01,-2.262140251696109772e-02,-7.883245497941970825e-02,7.233607023954391479e-02,-1.535228192806243896e-01,9.766536951065063477e-02,9.634379297494888306e-02,-5.302983522415161133e-02,-1.500828564167022705e-01,-3.259272873401641846e-02,-4.095463082194328308e-02,1.236655116081237793e-01,-7.683656364679336548e-02,-7.788892835378646851e-02,8.481606841087341309e-02,9.532956033945083618e-02,2.744255773723125458e-02,7.973790913820266724e-02,-1.395745435729622841e-03,4.523775726556777954e-02,-2.685331040993332863e-03,-1.523239612579345703e-01,3.691090270876884460e-02,-9.430380910634994507e-02,1.300987154245376587e-01,1.870990544557571411e-01,-2.044574357569217682e-02,-3.113458678126335144e-02,4.183723777532577515e-02,8.531952649354934692e-02,-5.964294821023941040e-02,4.100482910871505737e-02,3.668689355254173279e-02,-8.062649518251419067e-02,-3.064760938286781311e-02,-1.421504020690917969e-01,-1.643338054418563843e-01,4.688751697540283203e-02,-4.328510165214538574e-02,3.998819738626480103e-03,-1.900064572691917419e-02,1.198986321687698364e-01,8.463311195373535156e-02,1.234871223568916321e-01,-8.070742338895797729e-02,-9.093238413333892822e-02,-5.256489664316177368e-02,-1.052499469369649887e-02,-1.008332371711730957e-01,-1.904129087924957275e-01,5.308094993233680725e-02,8.993943780660629272e-02,5.906150490045547485e-02,-3.577721491456031799e-02,-1.287365555763244629e-01,1.103333756327629089e-01,6.023188307881355286e-02,4.537710174918174744e-02,9.371904283761978149e-02,-1.950673013925552368e-01,8.806025981903076172e-02,-2.570801600813865662e-02,1.144340783357620239e-01,9.911134093999862671e-02,-1.831136792898178101e-01,6.937201321125030518e-02,4.715335369110107422e-02,5.889600887894630432e-02,1.491327770054340363e-02,-2.258254215121269226e-02,2.976970002055168152e-02,1.318236291408538818e-01,5.246341973543167114e-02,8.326812088489532471e-02,3.884565085172653198e-02,7.864208519458770752e-02,6.435887515544891357e-02,-3.908068835735321045e-01,2.176415361464023590e-02,1.827340424060821533e-01,-1.403707265853881836e-01,-1.773015111684799194e-01,-9.590135514736175537e-02,-9.052616357803344727e-02,4.718447849154472351e-02,1.014726683497428894e-01,6.888714432716369629e-02,-7.545341551303863525e-02,2.727306261658668518e-02,8.167648315429687500e-02,-1.683405339717864990e-01,-8.176074177026748657e-02,1.284275501966476440e-01,-1.170887202024459839e-01,2.697706804610788822e-04,-9.661633521318435669e-02,-2.111606448888778687e-01,-5.570228397846221924e-02,-1.749483309686183929e-02,1.763504557311534882e-02,1.052596606314182281e-03,-2.540316283702850342e-01,-1.060869172215461731e-01,-2.105485834181308746e-02,-1.223778948187828064e-01,-1.827472820878028870e-02,3.168487176299095154e-02,-1.617511808872222900e-01,2.876943908631801605e-02,3.235192969441413879e-02,8.207496255636215210e-02,8.584471791982650757e-02,-1.382161676883697510e-01,-1.124811619520187378e-01,-9.239353239536285400e-02,-3.693379089236259460e-02,-2.655607461929321289e-01,-3.211287036538124084e-02,-5.888772010803222656e-02,-1.818035729229450226e-02,-2.381740361452102661e-01,-2.689909934997558594e-01,-6.358110113069415092e-05,6.135876104235649109e-02,-6.874652951955795288e-02,8.468347042798995972e-02,-7.194237411022186279e-02,1.047043427824974060e-01,1.487419307231903076e-01,-2.120809555053710938e-01,-4.235975909978151321e-03,6.260455399751663208e-02,-1.019432470202445984e-01,8.696220070123672485e-02,-7.951521873474121094e-02,-6.072866264730691910e-03,-2.163672000169754028e-01,-2.448082529008388519e-02,-1.748034507036209106e-01,1.261515021324157715e-01,-8.852320164442062378e-02,-1.146224588155746460e-01,2.638154104351997375e-02,-1.268932223320007324e-01,4.730219393968582153e-02,-2.052615396678447723e-02,1.064050197601318359e-01,-9.731776267290115356e-02,-2.770875208079814911e-02,3.577423468232154846e-02,-1.218615844845771790e-01,2.433949150145053864e-02,-8.582003414630889893e-02,-1.001439988613128662e-01,1.331374645233154297e-01,-2.594289183616638184e-01,-2.404296398162841797e-02,-5.750782787799835205e-02,1.063252538442611694e-01,-8.476810157299041748e-02,5.791509523987770081e-03,-2.475996315479278564e-02,-5.668082833290100098e-02,1.273336857557296753e-01,-1.959208995103836060e-01,1.111815422773361206e-01,8.165604621171951294e-02,1.579621620476245880e-02,-1.284598410129547119e-01,-6.302412599325180054e-02,-1.656897664070129395e-01,1.514659374952316284e-01,-2.761487476527690887e-02,-4.204448312520980835e-02,1.180354207754135132e-01,-1.672601848840713501e-01,4.643299430608749390e-02,-1.232453510165214539e-01,9.819159656763076782e-02,1.306251436471939087e-01,-6.616351753473281860e-02,-1.789124333299696445e-03,-6.151810288429260254e-02,-8.611326664686203003e-02,1.180484965443611145e-01,-1.866729557514190674e-01,-6.256468594074249268e-02,9.239891916513442993e-02,-1.145557016134262085e-01,-1.223170161247253418e-01,-4.616813734173774719e-02,-9.064231067895889282e-02,1.182159259915351868e-01,1.228147000074386597e-01,-7.881651073694229126e-02,1.197591349482536316e-01,-7.928311824798583984e-02,-1.714197844266891479e-01,1.537820547819137573e-01,-3.779707103967666626e-02,-2.006004750728607178e-01,-1.983140856027603149e-01,4.967412352561950684e-02,6.752086430788040161e-02,-2.072019577026367188e-01,-3.654543310403823853e-02,2.299412712454795837e-02,-2.380295284092426300e-02,-1.527023911476135254e-01,-1.003372967243194580e-01,-8.400846272706985474e-03,2.573670819401741028e-02,-1.188238337635993958e-01,-1.919459253549575806e-01,5.593192577362060547e-02,-4.912420734763145447e-02,3.276584437116980553e-03,1.056257784366607666e-01,-1.468375176191329956e-01,-4.107859730720520020e-02,1.959170447662472725e-03,7.345769554376602173e-02,-2.217715531587600708e-01,-5.736045911908149719e-02,1.233989596366882324e-01,-1.943272948265075684e-01,-5.063104256987571716e-02,8.376835845410823822e-03,-9.442682564258575439e-02,7.009361684322357178e-02,-1.328733861446380615e-01,-1.770892739295959473e-02,1.962709873914718628e-01,7.953623682260513306e-02,-5.256488453596830368e-03,-1.042081564664840698e-01,-6.799478083848953247e-02,-9.836327284574508667e-03,6.907066702842712402e-02,7.615187764167785645e-02
-2.350230216979980469e-01,8.613096550107002258e-03,-1.269867569208145142e-01,2.107875607907772064e-02,-3.513078019022941589e-02,1.254197955131530762e-01,4.942055046558380127e-02,-4.721060022711753845e-02,2.077127248048782349e-01,8.173038065433502197e-02,-4.519679397344589233e-02,6.981490552425384521e-02,-2.630463987588882446e-02,-1.270332932472229004e-02,5.318549275398254395e-02,-1.474312841892242432e-01,-7.300459593534469604e-02,-6.127978488802909851e-02,-5.036651343107223511e-02,9.369187057018280029e-02,8.248204737901687622e-02,-1.635450720787048340e-01,-1.833867579698562622e-01,-3.537890687584877014e-02,-3.496682941913604736e-01,-1.822932958602905273e-01,-2.302308753132820129e-02,1.494624465703964233e-01,1.722107641398906708e-02,4.504445567727088928e-02,-1.761466264724731445e-01,-1.886024256236851215e-03,1.603046208620071411e-01,-7.433882355690002441e-02,-1.684238314628601074e-01,1.126653105020523071e-01,-3.728151787072420120e-03,1.704062521457672119e-01,9.439714998006820679e-02,6.487476639449596405e-03,2.132880389690399170e-01,1.905479431152343750e-01,3.605161607265472412e-02,5.974877625703811646e-02,-4.337470978498458862e-02,-7.072385400533676147e-02,-3.782394528388977051e-01,-2.051871716976165771e-01,-1.368269920349121094e-01,-1.124605536460876465e-02,2.166600711643695831e-02,5.689568817615509033e-02,-6.226489692926406860e-02,7.652555406093597412e-02,-3.715638816356658936e-02,2.081308327615261078e-02,3.939232323318719864e-03,-1.249052025377750397e-02,4.351380281150341034e-03,2.110809087753295898e-03,-1.443271636962890625e-01,-2.146362960338592529e-01,1.650295257568359375e-01,7.122202962636947632e-02,2.097502350807189941e-02,-3.298603594303131104e-01,-6.083254516124725342e-02,-1.608757674694061279e-01,-1.643295884132385254e-01,-4.677651077508926392e-02,-5.238373205065727234e-02,2.589370906352996826e-01,1.730657517910003662e-01,3.450716659426689148e-02,-3.438716754317283630e-02,-1.983298063278198242e-01,6.554221361875534058e-02,-7.399819046258926392e-02,-1.320361047983169556e-01,1.665593534708023071e-01,2.531635574996471405e-02,-2.509335577487945557e-01,-1.526445448398590088e-01,-2.415590733289718628e-01,-2.245212793350219727e-01,1.569136381149291992e-01,1.465611159801483154e-01,-2.223128378391265869e-01,2.903668880462646484e-01,-1.442018747329711914e-01,-2.615419030189514160e-01,4.546578601002693176e-02,-9.054929018020629883e-02,2.318543195724487305e-01,-4.943719506263732910e-02,1.064115464687347412e-01,1.334910243749618530e-01,1.570030152797698975e-01,-3.242420852184295654e-01,1.714266464114189148e-02,-2.170997299253940582e-02,-3.390843793749809265e-02,3.173232078552246094e-01,1.933044195175170898e-02,4.214730858802795410e-02,5.576192587614059448e-02,2.207602709531784058e-01,-4.036587104201316833e-02,5.582623183727264404e-02,-1.733745187520980835e-01,-1.720935106277465820e-01,-3.861865401268005371e-02,-5.661847591400146484e-01,-4.277899116277694702e-02,1.520477980375289917e-02,-1.004610434174537659e-01,-9.198715537786483765e-02,7.684862613677978516e-02,8.775907754898071289e-02,-1.588604152202606201e-01,5.960628017783164978e-02,-2.843711376190185547e-01,1.178180724382400513e-01,-5.576983690261840820e-01,2.219557948410511017e-02,-2.489620894193649292e-01,-3.705250844359397888e-02,3.680517897009849548e-02,-8.744353055953979492e-02,1.277093589305877686e-01,3.802733495831489563e-02,-1.743985712528228760e-01,-1.143635511398315430e-01,-4.602783545851707458e-02,-1.008677855134010315e-02,1.580116748809814453e-01,-1.396600008010864258e-01,1.654171347618103027e-01,1.284459680318832397e-01,1.482061594724655151e-01,-1.047404035925865173e-01,1.514129340648651123e-01,1.377349197864532471e-01,3.173685446381568909e-02,2.410273849964141846e-01,3.370198309421539307e-01,1.187887322157621384e-02,-1.435268521308898926e-01,1.067024748772382736e-02,5.216694250702857971e-02,1.022607237100601196e-01,2.368326485157012939e-01,-7.644416391849517822e-02,-9.575381875038146973e-02,2.185081364586949348e-03,-6.445503979921340942e-02,-2.595959305763244629e-01,3.197861909866333008e-01,2.000810019671916962e-02,-1.103393509984016418e-01,6.656702607870101929e-02,2.905743718147277832e-01,6.711517274379730225e-02,-1.045796740800142288e-02,2.061431854963302612e-01,-3.203536272048950195e-01,7.372839748859405518e-02,-8.406382799148559570e-02,-1.923300623893737793e-01,5.879809707403182983e-02,-3.335360065102577209e-02,-1.189820468425750732e-01,1.547727137804031372e-01,1.091075241565704346e-01,1.081893518567085266e-01,1.375413686037063599e-01,-3.386798501014709473e-01,-2.898072302341461182e-01,-9.689036011695861816e-02,-1.506934016942977905e-01,1.030432283878326416e-01,-8.286815881729125977e-02,3.940549492835998535e-02,-2.316595017910003662e-01,-3.467338532209396362e-02,-1.960572786629199982e-02,-8.472894132137298584e-02,-6.303688883781433105e-02,-3.858735412359237671e-02,4.311839863657951355e-02,-3.991396725177764893e-02,-1.402666419744491577e-01,-2.788170985877513885e-02,8.321368694305419922e-02,-3.334472700953483582e-02,-3.723492324352264404e-01,-2.784631028771400452e-02,-1.173868961632251740e-02,2.691003680229187012e-01,4.441483616828918457e-01,-1.323983520269393921e-01,2.686832249164581299e-01,-1.362797021865844727e-01,9.019144624471664429e-02,2.898870110511779785e-01,2.204504162073135376e-01,-2.258366197347640991e-01,2.792236506938934326e-01,-4.917979240417480469e-01,-6.780332885682582855e-03,-3.496419265866279602e-02,1.012444496154785156e-01,-1.660182625055313110e-01,2.011875957250595093e-01,1.214656978845596313e-01,3.341370960697531700e-03,3.833701834082603455e-02,6.360778957605361938e-02,3.400165215134620667e-02,-7.359907031059265137e-02,4.006305038928985596e-01,3.311115503311157227e-02,-9.484606236219406128e-02,-6.970294564962387085e-02,2.573829144239425659e-02,-1.583607345819473267e-01,4.697384238243103027e-01,-4.445181041955947876e-02,1.942039281129837036e-02,-1.771402917802333832e-02,1.134799420833587646e-01,3.520134091377258301e-02,4.558099899441003799e-03,3.308491408824920654e-02,-1.896387189626693726e-01,-5.817688256502151489e-02,9.416002780199050903e-02,-1.133088618516921997e-01,7.347724437713623047e-01,3.203893005847930908e-01,1.002931147813796997e-01,1.230899943038821220e-03,1.094191223382949829e-01,-1.857354193925857544e-01,1.007599160075187683e-01,1.492845267057418823e-01,7.173460721969604492e-02,1.023463904857635498e-01,-3.427377343177795410e-01,4.977329820394515991e-02,9.073469787836074829e-02,-6.594159454107284546e-02,3.965187370777130127e-01,1.269075572490692139e-01,-8.274091780185699463e-02,3.904779553413391113e-01
-7.597906515002250671e-03,-1.450710594654083252e-01,1.936348229646682739e-01,-9.516736119985580444e-02,-6.509543955326080322e-02,1.404464989900588989e-01,-1.682067811489105225e-01,-6.008455157279968262e-02,-1.970739513635635376e-01,1.871297508478164673e-01,-1.404062658548355103e-01,-2.926055490970611572e-01,-1.640246957540512085e-01,4.679213091731071472e-02,-2.707450985908508301e-01,-8.426523953676223755e-02,5.838311836123466492e-02,-2.077154256403446198e-02,6.660473346710205078e-02,9.265115857124328613e-02,-1.254765689373016357e-01,-7.759888470172882080e-02,1.353851258754730225e-01,9.703543037176132202e-02,1.224874183535575867e-01,-7.688407320529222488e-03,-6.641305983066558838e-02,-7.795823365449905396e-02,-1.261349469423294067e-01,-5.405483394861221313e-02,-4.145994409918785095e-02,-9.672161936759948730e-02,-1.208814680576324463e-01,-8.273249864578247070e-02,4.496659338474273682e-02,1.458786725997924805e-01,3.268466796725988388e-03,-1.285296399146318436e-02,8.739761263132095337e-02,6.021843105554580688e-02,-1.269746124744415283e-01,5.102041736245155334e-02,1.095289364457130432e-01,-9.352244436740875244e-02,-4.151819273829460144e-02,1.189013868570327759e-01,-1.017954275012016296e-01,-1.634074151515960693e-01,5.106608197093009949e-02,-6.271572411060333252e-02,-4.794391393661499023e-01,5.423681065440177917e-02,-2.020076103508472443e-02,5.212836712598800659e-02,-3.445071354508399963e-02,-4.196630418300628662e-02,-3.024074248969554901e-02,2.902649156749248505e-02,-6.456929445266723633e-02,-1.239215731620788574e-01,-1.194339394569396973e-01,1.030902415513992310e-01,-3.342887759208679199e-02,-3.025848418474197388e-02,5.445431172847747803e-02,2.066252231597900391e-01,4.352761432528495789e-02,-4.131659865379333496e-02,7.142031565308570862e-03,-1.752946078777313232e-01,-1.928578875958919525e-02,3.527563065290451050e-02,1.519475132226943970e-01,-2.534327656030654907e-02,3.785439953207969666e-02,-2.544264867901802063e-02,4.503279551863670349e-02,-1.961090369150042534e-03,3.840031800791621208e-03,1.385125704109668732e-02,1.147001162171363831e-01,-6.797625869512557983e-02,1.005591824650764465e-03,8.702193945646286011e-02,-4.510821774601936340e-02,-1.344775110483169556e-01,1.422531902790069580e-01,-1.636414229869842529e-01,-1.066885069012641907e-01,6.493598967790603638e-02,-2.803880907595157623e-02,1.397086083889007568e-01,-1.352916210889816284e-01,8.645144850015640259e-02,1.292564123868942261e-01,9.844274073839187622e-02,-1.964984685182571411e-01,-1.479972600936889648e-01,-9.579898416996002197e-02,1.262843161821365356e-01,5.902133882045745850e-02,9.386330842971801758e-02,-2.490223646163940430e-01,4.869301617145538330e-02,6.558698415756225586e-02,5.194530636072158813e-02,1.610909998416900635e-01,2.091562561690807343e-02,1.289393454790115356e-01,-1.107477620244026184e-01,8.293067663908004761e-02,1.994986981153488159e-01,1.112341955304145813e-01,1.879533678293228149e-01,6.810995191335678101e-02,-1.695760637521743774e-01,7.942994683980941772e-02,-2.156925499439239502e-01,-3.389873355627059937e-02,-1.381650567054748535e-01,2.733328938484191895e-02,7.659640908241271973e-02,-1.409806013107299805e-01,-3.920713961124420166e-01,-1.682428121566772461e-01,1.942836642265319824e-01,4.663434997200965881e-02,5.702288821339607239e-02,4.209990054368972778e-02,3.092718124389648438e-02,-9.109552775043994188e-05,3.327669575810432434e-02,1.098827868700027466e-01,-2.904311008751392365e-02,-6.521122902631759644e-02,-2.942343652248382568e-01,1.917171329259872437e-01,1.019862145185470581e-01,-2.300130873918533325e-01,-2.928666584193706512e-02,-1.242555826902389526e-01,-1.052998155355453491e-01,-1.096305325627326965e-01,9.534026682376861572e-02,3.704264387488365173e-02,1.350366920232772827e-01,-1.271978616714477539e-01,-2.768067456781864166e-02,2.470345981419086456e-02,-1.021594833582639694e-02,-3.300764597952365875e-03,6.055514514446258545e-02,-2.401429116725921631e-01,1.029102224856615067e-02,-9.796271473169326782e-02,-1.836039684712886810e-02,-1.424968093633651733e-01,7.486280053853988647e-02,-1.159831881523132324e-01,-1.296518296003341675e-01,-5.782031267881393433e-02,-9.913036227226257324e-02,-1.110163182020187378e-01,-9.089583158493041992e-02,2.323166932910680771e-03,1.163208507932722569e-03,-1.630944013595581055e-01,-9.742124378681182861e-02,1.816554553806781769e-02,-2.253251820802688599e-01,-1.739102452993392944e-01,8.640062063932418823e-02,2.602798677980899811e-02,8.927146345376968384e-02,4.037136584520339966e-02,-1.389010697603225708e-01,-9.686353802680969238e-02,-9.513959288597106934e-02,-7.255513221025466919e-02,-6.519185006618499756e-02,-1.239663809537887573e-01,-3.615495935082435608e-02,9.165932983160018921e-02,-7.128642499446868896e-02,1.436076760292053223e-01,-1.401820778846740723e-01,-2.278396934270858765e-01,-9.227161109447479248e-02,-2.495952248573303223e-01,3.973799757659435272e-03,7.133432477712631226e-02,8.036297559738159180e-02,-4.222055524587631226e-02,-2.757089212536811829e-02,1.608067192137241364e-02,6.768232583999633789e-02,-2.621340379118919373e-02,1.068627312779426575e-01,1.501056253910064697e-01,1.544996201992034912e-01,-7.914256304502487183e-02,8.528515696525573730e-02,-3.847004473209381104e-02,-5.591455847024917603e-03,-2.685799002647399902e-01,-6.210568174719810486e-02,2.672708593308925629e-02,6.768503785133361816e-02,-2.816285192966461182e-01,-7.053162157535552979e-02,9.913990646600723267e-02,-8.802966773509979248e-02,7.533617317676544189e-02,-1.945374719798564911e-02,-1.600480675697326660e-01,-1.974166929721832275e-01,1.633211672306060791e-01,-1.384566277265548706e-01,7.889010757207870483e-02,-1.123131066560745239e-01,8.351516723632812500e-02,4.776111245155334473e-02,-8.627349883317947388e-02,-7.144217193126678467e-02,1.282213479280471802e-01,9.988193213939666748e-02,-2.988599985837936401e-02,3.308711946010589600e-02,-9.333777427673339844e-02,7.894926704466342926e-03,-4.595068469643592834e-02,-1.190358027815818787e-01,-6.172211840748786926e-02,9.629277884960174561e-02,-1.438641697168350220e-01,5.869317799806594849e-02,1.443572789430618286e-01,-9.543444961309432983e-02,-2.617554068565368652e-01,1.352699548006057739e-01,1.319718658924102783e-01,-1.198698654770851135e-01,-1.710956990718841553e-01,-1.100644394755363464e-01,6.474234163761138916e-02,8.830215781927108765e-02,8.805231004953384399e-02,1.110950261354446411e-01,3.131227800622582436e-03,8.593940734863281250e-02,4.226169735193252563e-02,9.338379651308059692e-02,-1.959356963634490967e-01,-4.131417721509933472e-02,1.496631801128387451e-01,1.553222537040710449e-01
-1.992356777191162109e-01,5.347842723131179810e-02,6.919577717781066895e-03,-2.776330709457397461e-02,2.207730151712894440e-02,1.208240166306495667e-01,-5.410015955567359924e-02,-7.026197016239166260e-02,-1.691732704639434814e-01,-1.326504945755004883e-01,-2.289352267980575562e-01,1.032183542847633362e-01,-3.631328791379928589e-02,2.021161839365959167e-02,-1.207755804061889648e-01,-3.424639254808425903e-02,-7.102625444531440735e-03,-1.372494548559188843e-01,1.053461525589227676e-02,-1.105073466897010803e-01,-2.419561147689819336e-02,1.347423624247312546e-02,-5.824944376945495605e-02,8.432851731777191162e-02,1.072206571698188782e-01,-1.148393824696540833e-01,7.567347586154937744e-02,4.555126279592514038e-02,-1.466421633958816528e-01,9.622643887996673584e-02,-1.025359630584716797e-01,-1.353985816240310669e-01,-1.731061786413192749e-01,-2.048130631446838379e-01,1.240356639027595520e-01,6.945658475160598755e-02,-3.521484090015292168e-03,-7.913453131914138794e-02,-1.132698580622673035e-01,5.217832699418067932e-02,-9.471235796809196472e-03,-1.270949840545654297e-01,-1.192286517471075058e-02,-2.267531864345073700e-02,-5.874111782759428024e-03,-5.777949094772338867e-02,-2.804604470729827881e-01,-1.247019842267036438e-01,-3.801875049248337746e-03,-1.354862898588180542e-01,-8.391674607992172241e-02,-3.107384406030178070e-02,6.791378557682037354e-02,5.154154822230339050e-02,3.626333177089691162e-02,8.095329254865646362e-02,6.979189068078994751e-02,9.578518569469451904e-02,-6.517232861369848251e-03,1.357105523347854614e-01,-1.110335066914558411e-01,-1.690080165863037109e-01,-1.521605765447020531e-03,-9.742117673158645630e-02,1.227287016808986664e-02,-1.717033386230468750e-01,1.636992543935775757e-01,-3.855562210083007812e-02,-1.323270499706268311e-01,1.405430138111114502e-01,8.469440042972564697e-03,9.367906302213668823e-02,-9.786235541105270386e-02,4.785592481493949890e-02,7.344993948936462402e-02,2.500516176223754883e-02,3.015713393688201904e-02,-1.166560649871826172e-01,-1.976350396871566772e-01,1.349062323570251465e-01,-1.547143757343292236e-01,-6.047041341662406921e-02,-6.819792091846466064e-02,-7.473184913396835327e-02,-6.803008913993835449e-02,1.331085711717605591e-01,-2.201215550303459167e-02,9.832986444234848022e-02,-2.602128498256206512e-02,9.336552023887634277e-02,5.524962767958641052e-02,-8.028627932071685791e-02,1.128730252385139465e-01,-9.619360789656639099e-03,-1.480419486761093140e-01,-1.363657861948013306e-01,1.336402818560600281e-02,1.582762151956558228e-01,-4.243662655353546143e-01,9.862080961465835571e-02,6.776987761259078979e-02,9.792188555002212524e-02,-1.562972515821456909e-01,-2.009266614913940430e-02,-4.990066215395927429e-02,-5.203448235988616943e-02,-8.377677202224731445e-02,1.202584952116012573e-01,-9.767780452966690063e-02,-6.071453541517257690e-02,-1.346211433410644531e-01,-7.148741185665130615e-02,-1.374584883451461792e-01,2.876616548746824265e-03,4.429593309760093689e-02,1.097465902566909790e-01,-7.824861444532871246e-03,-1.409645825624465942e-01,-4.509050399065017700e-02,8.836504817008972168e-02,5.712481215596199036e-02,-4.966904222965240479e-01,-3.410117328166961670e-02,-6.110719591379165649e-02,-1.415542513132095337e-01,-6.068002432584762573e-02,-7.299662381410598755e-02,-1.691899821162223816e-02,5.214623361825942993e-02,-7.268582005053758621e-03,-1.939640939235687256e-02,-1.880669221282005310e-02,-9.922830760478973389e-02,1.122254952788352966e-01,1.220014318823814392e-01,-4.626136273145675659e-02,-1.030549854040145874e-01,3.063047304749488831e-02,8.775016292929649353e-03,9.420321136713027954e-02,1.249754130840301514e-01,7.013408094644546509e-02,1.815061122179031372e-01,1.096355766057968140e-01,-1.046434938907623291e-01,2.308492735028266907e-02,4.621516168117523193e-02,8.372196555137634277e-02,2.048526331782341003e-02,-3.268068283796310425e-02,6.344175338745117188e-02,-1.054167598485946655e-01,1.314131021499633789e-01,1.188083440065383911e-01,1.521815061569213867e-01,7.761660497635602951e-03,5.449255183339118958e-02,7.091484963893890381e-02,-6.339465081691741943e-02,-6.993015855550765991e-02,-5.400336161255836487e-02,1.683126948773860931e-02,8.373075723648071289e-02,2.534230006858706474e-03,1.676646023988723755e-01,-5.583703517913818359e-02,-1.401656419038772583e-01,-1.612605452537536621e-01,6.742982566356658936e-02,6.249685306102037430e-03,-9.610678255558013916e-02,2.958547510206699371e-02,1.330894883722066879e-02,1.216888949275016785e-01,-1.306262463331222534e-01,2.892854809761047363e-02,-4.041700065135955811e-02,1.015550121665000916e-01,-1.943733170628547668e-02,3.833076730370521545e-02,-3.927058279514312744e-01,7.194217294454574585e-02,1.783510670065879822e-02,-1.127312984317541122e-02,-6.913293898105621338e-02,-8.923170715570449829e-02,4.854343831539154053e-02,1.257197707891464233e-01,5.759546998888254166e-03,3.975121304392814636e-02,-7.214377820491790771e-02,-4.703865945339202881e-02,1.266115158796310425e-01,9.509464353322982788e-02,-8.341725170612335205e-02,-1.441423743963241577e-01,4.317716509103775024e-02,-9.234192967414855957e-02,-9.235200285911560059e-02,-4.251841083168983459e-02,-1.128414422273635864e-01,-9.421974420547485352e-02,9.493514895439147949e-03,-1.107498034834861755e-01,-1.211338788270950317e-01,8.586616069078445435e-02,4.825926199555397034e-02,2.679387293756008148e-02,-1.335031986236572266e-01,-3.360703960061073303e-02,-1.195207424461841583e-02,1.279003620147705078e-01,6.005016714334487915e-02,-4.825628101825714111e-01,1.507208496332168579e-01,3.965725749731063843e-02,-1.550785303115844727e-01,-2.524679601192474365e-01,2.469663321971893311e-02,1.150178834795951843e-01,-1.512186825275421143e-01,-4.935281723737716675e-02,1.153623089194297791e-01,-2.449332550168037415e-02,7.951604574918746948e-02,5.061615630984306335e-02,1.130251621361821890e-04,-2.458889223635196686e-02,-7.534413784742355347e-02,6.543419510126113892e-02,1.222478747367858887e-01,-1.131011098623275757e-01,-1.163269858807325363e-02,-2.892979420721530914e-02,1.675842888653278351e-02,1.118878200650215149e-01,7.369975000619888306e-02,-9.498792141675949097e-02,8.710342645645141602e-02,-1.518741697072982788e-01,-5.505601316690444946e-02,-1.464364230632781982e-01,-6.408189237117767334e-02,-2.358426898717880249e-01,3.057539835572242737e-02,-4.367486760020256042e-02,7.160337269306182861e-02,3.041668981313705444e-02,-2.041575908660888672e-01,-4.639442265033721924e-02,-5.105954036116600037e-02,-2.983310073614120483e-02,-7.458988577127456665e-02,1.191101074218750000e-01,1.009573489427566528e-01,-2.133171856403350830e-01
-2.007317990064620972e-01,1.187017112970352173e-01,5.332969501614570618e-02,-4.259539768099784851e-02,3.994303569197654724e-02,-2.989492565393447876e-02,-2.405196726322174072e-01,7.987548410892486572e-02,4.103385508060455322e-01,3.204554915428161621e-01,8.942352235317230225e-02,-2.494460195302963257e-01,1.703343689441680908e-01,-9.094559401273727417e-02,-1.544372290372848511e-01,-8.182785660028457642e-02,6.887967139482498169e-02,-1.433251947164535522e-01,-1.347470134496688843e-01,2.247534692287445068e-02,4.619145989418029785e-01,4.388816356658935547e-01,-1.345088928937911987e-01,-1.591692864894866943e-02,2.389192730188369751e-01,-5.830271840095520020e-01,-4.799618944525718689e-02,1.149126440286636353e-01,-1.439502388238906860e-01,3.303073942661285400e-01,2.087418138980865479e-01,1.108838915824890137e-01,-1.096121743321418762e-01,6.543806195259094238e-02,2.319818288087844849e-01,1.898527294397354126e-01,7.331964373588562012e-02,-2.229239642620086670e-01,-9.809713810682296753e-02,-1.493927184492349625e-02,5.561847984790802002e-02,-2.656037211418151855e-01,-6.225279346108436584e-02,4.556197524070739746e-01,-6.658924371004104614e-02,-2.904477715492248535e-01,-3.505359217524528503e-02,-1.511714160442352295e-01,2.153384964913129807e-03,-1.164569184184074402e-01,-4.635746777057647705e-01,-1.552250236272811890e-01,6.669253855943679810e-02,-1.451089084148406982e-01,-3.224034309387207031e-01,1.266499906778335571e-01,2.412925846874713898e-02,1.555800996720790863e-02,2.617014106363058090e-03,8.434617519378662109e-02,1.123598217964172363e-02,-1.381614804267883301e-01,-3.127786517143249512e-01,-1.590235531330108643e-01,-1.352868527173995972e-01,9.387222677469253540e-02,5.843951106071472168e-01,-8.831835538148880005e-02,3.979072347283363342e-02,1.413683593273162842e-01,-1.403498798608779907e-01,1.168722566217184067e-02,1.878420710563659668e-01,6.392428278923034668e-02,-1.624006032943725586e-01,3.940534219145774841e-02,1.438219547271728516e-01,-5.352418124675750732e-02,7.527964562177658081e-02,8.671327680349349976e-02,5.771607160568237305e-02,-6.885824725031852722e-03,-2.967631220817565918e-01,6.810163613408803940e-03,1.470981538295745850e-01,6.683083623647689819e-02,-1.140878275036811829e-01,-1.164532825350761414e-01,6.215329840779304504e-02,-1.338406950235366821e-01,4.724381268024444580e-01,6.307317316532135010e-02,5.961968749761581421e-02,3.178608417510986328e-01,-1.186739653348922729e-01,-1.800691485404968262e-01,-8.891203254461288452e-02,1.903316378593444824e-02,1.064563751220703125e+00,-1.409584581851959229e-01,1.634539067745208740e-01,-2.301097512245178223e-01,-9.421221166849136353e-02,-4.256308078765869141e-03,1.925983875989913940e-01,2.430046796798706055e-01,1.130216661840677261e-02,4.829521477222442627e-02,-7.935795187950134277e-02,-8.911649137735366821e-02,-1.664521731436252594e-02,-9.061677008867263794e-02,1.121959164738655090e-01,2.806907892227172852e-01,-2.119247764348983765e-01,-3.932214379310607910e-01,7.273665815591812134e-02,-3.583526611328125000e-02,-9.705579280853271484e-02,3.484064340591430664e-01,1.954518854618072510e-01,-1.108897551894187927e-01,7.297796010971069336e-02,-3.573568165302276611e-01,-1.469217985868453979e-01,-8.641573786735534668e-02,-5.033760890364646912e-02,3.907427936792373657e-02,4.234854876995086670e-02,-1.872504502534866333e-01,2.081718295812606812e-01,1.785814017057418823e-02,9.657716751098632812e-02,2.130415663123130798e-02,-2.558369934558868408e-01,-1.079057529568672180e-01,-1.009739041328430176e-01,-1.511867046356201172e-01,3.094253838062286377e-01,-2.139823287725448608e-01,-9.490464627742767334e-02,1.181395351886749268e-01,3.304547071456909180e-01,1.899106986820697784e-02,-1.543129533529281616e-01,4.690897837281227112e-02,7.522407174110412598e-02,-1.057717055082321167e-01,-1.269509736448526382e-02,3.098155604675412178e-03,-9.063327312469482422e-02,4.232669174671173096e-01,6.302652508020401001e-02,-5.866445228457450867e-02,-1.397916376590728760e-01,-1.280122343450784683e-02,-2.678740322589874268e-01,-1.153922230005264282e-01,7.859637588262557983e-02,4.224710762500762939e-01,-1.773096174001693726e-01,6.135221198201179504e-02,-2.821686565876007080e-01,3.217266798019409180e-01,-6.651515513658523560e-02,2.136117666959762573e-01,-6.731521338224411011e-02,-2.619756944477558136e-02,-1.795872747898101807e-01,1.018240898847579956e-01,-1.085200011730194092e-01,1.082744263112545013e-02,-3.328862367197871208e-03,2.560707973316311836e-03,-2.340943366289138794e-02,4.139442741870880127e-02,2.016287297010421753e-02,-6.357387304306030273e-01,5.484813824295997620e-02,1.536846347153186798e-02,1.343993991613388062e-01,-5.852946266531944275e-02,2.550303936004638672e-01,-9.330421686172485352e-02,2.392869889736175537e-01,-1.504501402378082275e-01,-3.517487272620201111e-02,7.312298566102981567e-02,7.937881350517272949e-02,-8.622162789106369019e-02,6.505907326936721802e-02,-8.349656313657760620e-02,-1.868234388530254364e-02,6.551330089569091797e-01,1.551690790802240372e-02,-3.317593634128570557e-01,-1.292017996311187744e-01,1.923396624624729156e-02,1.415787730365991592e-02,1.163928136229515076e-01,-5.385478958487510681e-02,5.873613059520721436e-02,3.224987387657165527e-01,1.801586598157882690e-01,-8.921392261981964111e-02,3.326879143714904785e-01,2.881087362766265869e-01,-3.900510966777801514e-01,3.012335002422332764e-01,2.117059975862503052e-01,-4.874020814895629883e-02,6.471191346645355225e-02,-2.663599848747253418e-01,3.207262977957725525e-02,3.896573930978775024e-02,5.971227884292602539e-01,-2.149620354175567627e-01,1.198235154151916504e+00,-3.881388008594512939e-01,-1.147185191512107849e-01,-4.556397795677185059e-01,-4.909658432006835938e-02,-6.790290027856826782e-02,1.103770062327384949e-01,-7.728958874940872192e-02,6.310013681650161743e-02,-2.526536285877227783e-01,1.447176039218902588e-01,-2.606183886528015137e-01,3.118723928928375244e-01,-6.178060173988342285e-02,-5.024745315313339233e-02,4.251542389392852783e-01,7.670144550502300262e-03,8.252616226673126221e-02,-2.947025597095489502e-01,-1.653170287609100342e-01,-9.209442883729934692e-03,4.449660778045654297e-01,-1.087934374809265137e-01,-1.877248585224151611e-01,2.596312463283538818e-01,-1.344505399465560913e-01,-8.077883720397949219e-02,1.105839088559150696e-01,6.053663045167922974e-02,-6.831876933574676514e-02,7.891724258661270142e-02,5.226569771766662598e-01,8.415845781564712524e-02,-7.192174345254898071e-02,-4.822760820388793945e-02,3.132575452327728271e-01,-5.289376899600028992e-02,3.061676770448684692e-02,-2.362114489078521729e-01
5.544799938797950745e-02,-3.533699363470077515e-02,-1.383179705590009689e-02,7.104448974132537842e-02,-8.756881207227706909e-02,-8.437151089310646057e-03,-1.321290880441665649e-01,-1.137875393033027649e-01,8.891296386718750000e-02,2.182974368333816528e-01,-2.533508241176605225e-01,-2.425823360681533813e-02,-1.439299881458282471e-01,2.476767636835575104e-02,1.972449943423271179e-02,1.047740280628204346e-01,7.143536210060119629e-02,5.537454411387443542e-02,6.309542059898376465e-02,1.063717231154441833e-01,-8.956342935562133789e-03,-8.827667683362960815e-02,-2.758061047643423080e-03,2.589438259601593018e-01,4.269693419337272644e-02,2.008192054927349091e-02,-2.634166739881038666e-03,-7.307449728250503540e-02,1.658145636320114136e-01,-8.964260108768939972e-03,-6.681241095066070557e-02,5.503900349140167236e-02,3.372814878821372986e-02,-2.429549396038055420e-01,1.445194333791732788e-01,-7.043028622865676880e-02,-4.795064404606819153e-02,1.461922675371170044e-01,3.783289343118667603e-02,7.930833101272583008e-02,8.231642842292785645e-02,-1.500166803598403931e-01,-4.509662836790084839e-02,6.502052396535873413e-02,-1.806199434213340282e-03,1.085755899548530579e-01,-4.964771866798400879e-02,-1.112929880619049072e-01,7.150948792695999146e-02,-1.893805898725986481e-02,4.281844571232795715e-02,4.759972169995307922e-02,-6.704788655042648315e-02,1.059403792023658752e-01,-1.816269606351852417e-01,-4.697769135236740112e-02,-1.603763252496719360e-01,-6.949220597743988037e-02,-7.504193484783172607e-02,-1.581371016800403595e-02,9.967018663883209229e-02,1.639906913042068481e-01,1.750246286392211914e-01,4.258818924427032471e-02,1.268326956778764725e-02,-2.017439454793930054e-01,-7.784767448902130127e-02,-1.631293892860412598e-01,3.117048926651477814e-02,-1.269954144954681396e-01,-9.085737913846969604e-02,8.120361715555191040e-02,3.319863975048065186e-02,-1.021232903003692627e-01,-8.975472301244735718e-02,-1.013655886054039001e-01,4.548740014433860779e-02,1.215327531099319458e-01,-9.814383089542388916e-02,1.001458913087844849e-01,-3.111159242689609528e-02,-1.241595596075057983e-01,1.089126989245414734e-01,3.404363989830017090e-02,1.382353752851486206e-01,3.552504256367683411e-02,-5.363336205482482910e-02,-1.490421779453754425e-02,-1.252799183130264282e-01,-5.612780898809432983e-02,-2.945300638675689697e-01,6.923705339431762695e-02,1.055341735482215881e-01,1.541128456592559814e-01,1.110857352614402771e-02,-8.496636152267456055e-02,-3.075842857360839844e-01,9.271971136331558228e-02,4.931490868330001831e-03,-2.583650685846805573e-02,-8.175325579941272736e-03,-1.040528938174247742e-01,7.389594614505767822e-02,1.664784550666809082e-02,-1.475297510623931885e-01,2.076735906302928925e-02,-5.909134820103645325e-02,2.809135429561138153e-02,7.939647883176803589e-02,2.064619362354278564e-01,-8.316493034362792969e-02,-5.731849744915962219e-02,-3.197137266397476196e-02,-8.711302280426025391e-02,-7.182548753917217255e-03,-1.920275688171386719e-01,-1.562864631414413452e-01,3.059692122042179108e-02,7.853296399116516113e-02,-1.150881797075271606e-01,-6.348067522048950195e-02,-9.030261635780334473e-02,-1.393522024154663086e-01,4.593857750296592712e-02,4.060899093747138977e-02,-1.953293979167938232e-01,-1.022540107369422913e-01,-2.447782009840011597e-01,7.646596524864435196e-03,4.190721362829208374e-02,2.348431944847106934e-01,9.573464840650558472e-02,-1.899391040205955505e-02,8.675775676965713501e-02,7.751289010047912598e-02,-1.400495320558547974e-01,1.666139960289001465e-01,7.947858422994613647e-03,1.907124370336532593e-01,2.010117173194885254e-01,5.791471153497695923e-02,-5.647094920277595520e-02,-3.787748515605926514e-02,-1.158148422837257385e-01,-1.819134354591369629e-01,-4.494390264153480530e-02,4.404351115226745605e-02,-1.118147373199462891e-02,1.589052528142929077e-01,1.528208553791046143e-01,-1.184883862733840942e-01,-8.403456956148147583e-02,9.311325848102569580e-02,-1.019313707947731018e-01,-6.013634800910949707e-02,8.913657627999782562e-03,6.252719461917877197e-02,6.561475247144699097e-02,1.469772905111312866e-01,-2.318201661109924316e-01,-1.197775006294250488e-01,-2.676468901336193085e-02,7.819220423698425293e-02,2.083435654640197754e-01,-1.570359468460083008e-01,1.050330922007560730e-01,-1.120368987321853638e-01,-4.450009390711784363e-02,-1.563560813665390015e-01,-5.785993486642837524e-02,-1.104576438665390015e-01,9.263692796230316162e-02,-1.792849041521549225e-02,2.259830571711063385e-02,-5.552929639816284180e-02,7.445274852216243744e-03,-1.175602152943611145e-01,1.567577421665191650e-01,-1.192328333854675293e-02,5.589562281966209412e-02,6.949230283498764038e-02,-5.108106136322021484e-02,-2.268979251384735107e-01,1.322106122970581055e-01,-4.087462276220321655e-02,-8.991621434688568115e-02,2.376267686486244202e-02,-1.233274303376674652e-02,6.247090548276901245e-02,-9.345011413097381592e-02,-1.816296763718128204e-02,-7.578130066394805908e-02,7.925884425640106201e-02,-8.532857149839401245e-02,-1.011241376399993896e-01,3.064879216253757477e-02,-1.391463428735733032e-01,-1.517187710851430893e-02,-3.594851493835449219e-02,-1.307460814714431763e-01,5.457448214292526245e-02,1.356275528669357300e-01,-2.223414778709411621e-01,9.825278539210557938e-04,1.197838634252548218e-01,3.084692917764186859e-02,-5.198388919234275818e-02,-8.006972819566726685e-02,1.024407446384429932e-01,-1.917451433837413788e-02,1.573761999607086182e-01,-1.512580066919326782e-01,-8.762882091104984283e-03,-2.344217747449874878e-01,-1.235157474875450134e-01,-8.245571702718734741e-02,9.974233806133270264e-02,-1.079164072871208191e-01,-2.539552152156829834e-01,-1.937114074826240540e-02,-4.898581653833389282e-02,-1.091969385743141174e-01,-7.132927328348159790e-02,7.344285398721694946e-02,2.322861552238464355e-02,-5.579705908894538879e-02,-3.038318641483783722e-02,-1.298516988754272461e-01,2.844883594661951065e-03,1.384209245443344116e-01,-6.373100727796554565e-02,-9.902524203062057495e-02,-6.581943482160568237e-02,7.089745998382568359e-02,-1.020912379026412964e-01,1.254600882530212402e-01,-1.387739926576614380e-02,-5.875106155872344971e-02,5.924664437770843506e-02,8.853867650032043457e-02,-8.130913227796554565e-02,1.522081047296524048e-01,7.229106128215789795e-02,1.130100414156913757e-01,1.650778353214263916e-01,7.737894356250762939e-02,4.153498914092779160e-03,8.019772917032241821e-02,-5.823552235960960388e-02,1.315019745379686356e-02,1.255718234460800886e-04,-2.556306682527065277e-02,-2.411335259675979614e-01,-5.533750355243682861e-02,1.069576828740537167e-04,-3.428040742874145508e-01
-8.959905058145523071e-02,1.153867021203041077e-01,8.261965587735176086e-03,9.060083888471126556e-03,-1.506359577178955078e-01,1.314676702022552490e-01,6.830927450209856033e-04,5.223730579018592834e-02,1.045115068554878235e-01,-7.941406965255737305e-02,1.235068812966346741e-01,-2.223135977983474731e-01,-5.695059150457382202e-02,8.450541645288467407e-03,-2.233182080090045929e-02,6.505424529314041138e-02,6.994827091693878174e-02,4.140506684780120850e-02,-8.951076306402683258e-03,-6.797356903553009033e-02,1.501142680644989014e-01,-7.570718228816986084e-02,-8.964281529188156128e-03,-1.060216128826141357e-01,-4.657671973109245300e-02,-1.628230139613151550e-02,1.195301637053489685e-01,-1.029632911086082458e-01,-6.896210461854934692e-02,1.003933846950531006e-01,6.047125533223152161e-02,-1.939402148127555847e-02,1.734236814081668854e-02,7.409796118736267090e-02,-1.263303905725479126e-01,-6.519840657711029053e-02,-9.782056510448455811e-02,1.336221024394035339e-02,1.309708952903747559e-01,5.743544548749923706e-02,-7.962508127093315125e-03,-6.846527755260467529e-02,-1.246478781104087830e-01,-1.028461605310440063e-01,-7.664904743432998657e-02,3.591019287705421448e-02,1.625195443630218506e-01,-9.200335294008255005e-02,8.535055816173553467e-02,-5.202189087867736816e-02,8.476558327674865723e-02,8.679761737585067749e-02,4.593053832650184631e-02,-8.144832402467727661e-02,-4.652564227581024170e-02,1.263384819030761719e-01,1.576869934797286987e-02,3.135267272591590881e-02,1.213681623339653015e-01,-1.410064008086919785e-02,-1.306605488061904907e-01,-5.852846428751945496e-02,-7.326227426528930664e-02,7.272205501794815063e-02,5.425304919481277466e-02,8.360426872968673706e-02,-1.311078816652297974e-01,-9.461510926485061646e-02,1.059705913066864014e-01,-2.893406152725219727e-02,-2.615059614181518555e-01,1.051093786954879761e-01,1.278370618820190430e-01,-2.859054133296012878e-02,7.449774444103240967e-02,-9.298199415206909180e-02,1.069668754935264587e-01,-6.864035874605178833e-02,7.501394301652908325e-02,7.524760812520980835e-02,9.447762370109558105e-02,5.620427057147026062e-02,-5.169276148080825806e-02,2.143757883459329605e-03,-2.032545953989028931e-01,7.147490233182907104e-02,6.777144223451614380e-02,-7.854171842336654663e-02,1.311969310045242310e-01,6.526251882314682007e-02,-2.315277419984340668e-02,-4.435533285140991211e-02,-5.758437141776084900e-02,-1.162245273590087891e-01,-1.254457533359527588e-01,-2.328943461179733276e-01,-5.247534252703189850e-03,4.160309210419654846e-03,5.861896649003028870e-02,2.800644375383853912e-02,7.555627264082431793e-03,-4.180599376559257507e-02,-2.915816940367221832e-02,-5.402589589357376099e-02,-1.090218871831893921e-01,-2.007682323455810547e-01,7.490555197000503540e-02,8.413191884756088257e-02,1.214127317070960999e-01,7.197931408882141113e-02,5.024369806051254272e-02,-2.860138565301895142e-02,1.754303127527236938e-01,-2.302767522633075714e-02,5.062586069107055664e-02,-1.507992744445800781e-01,9.280699305236339569e-03,-3.899363800883293152e-02,-2.618583291769027710e-02,9.562081843614578247e-02,-1.861298531293869019e-01,-2.607913911342620850e-01,-2.897071093320846558e-02,-1.001263782382011414e-02,1.216547489166259766e-01,-1.901683956384658813e-01,1.033442392945289612e-01,-1.028751134872436523e-01,-1.954296678304672241e-01,5.715247243642807007e-03,3.044580295681953430e-02,4.002907499670982361e-02,6.265021860599517822e-02,2.753369323909282684e-02,3.358474001288414001e-02,-1.014282107353210449e-01,3.405120968818664551e-02,1.046957820653915405e-01,7.504382729530334473e-02,-1.467454880475997925e-01,-4.402265697717666626e-02,1.133676469326019287e-01,-3.934589624404907227e-01,9.763222187757492065e-02,-1.143323406577110291e-01,-1.239114627242088318e-01,-3.267212212085723877e-02,6.863487511873245239e-02,-4.632845148444175720e-02,-1.434697359800338745e-01,-4.503499076236039400e-05,9.605403244495391846e-02,-3.804390877485275269e-02,-1.091315522789955139e-01,-1.244249418377876282e-01,4.551890119910240173e-02,-1.012025326490402222e-01,-1.238408610224723816e-01,9.428418427705764771e-02,-4.169706627726554871e-02,9.981566667556762695e-02,-4.467693343758583069e-02,-9.918598830699920654e-02,6.152985617518424988e-02,3.078545443713665009e-02,1.438126340508460999e-02,8.766198158264160156e-02,-1.271673757582902908e-02,-3.010769374668598175e-02,-9.684886038303375244e-02,8.243685215711593628e-02,4.884536564350128174e-02,1.824011653661727905e-02,9.084593504667282104e-02,-5.335139483213424683e-02,-6.131695583462715149e-02,9.335094690322875977e-02,-1.139231841079890728e-03,7.490391284227371216e-02,1.224374622106552124e-01,-4.027599096298217773e-01,1.329775061458349228e-02,6.590279936790466309e-02,-1.512880474328994751e-01,-1.576182805001735687e-02,2.038730867207050323e-02,6.791011989116668701e-02,4.693710431456565857e-02,1.704882830381393433e-01,-2.850480377674102783e-02,5.930849909782409668e-02,1.011732667684555054e-01,-3.631370887160301208e-02,-1.954743117094039917e-01,-1.037835404276847839e-01,-5.563267692923545837e-02,7.236754149198532104e-02,-5.244524404406547546e-02,5.781190097332000732e-02,-1.412416398525238037e-01,1.188045591115951538e-01,9.908086806535720825e-02,2.424547076225280762e-02,-3.132600337266921997e-02,-2.691644728183746338e-01,-1.558637917041778564e-01,3.373828716576099396e-03,-1.349237561225891113e-01,-3.889279067516326904e-02,-1.668845303356647491e-02,-6.137673556804656982e-02,1.097160577774047852e-01,-5.742860957980155945e-02,1.379825174808502197e-01,-7.222356647253036499e-02,1.699898838996887207e-01,2.007802575826644897e-02,3.786630183458328247e-02,5.285131186246871948e-02,1.421868652105331421e-01,-1.358709484338760376e-01,-1.180035695433616638e-01,1.176379695534706116e-01,-5.317470803856849670e-02,3.152469918131828308e-02,8.832658082246780396e-02,-1.043340489268302917e-01,3.709601610898971558e-02,3.749205032363533974e-03,-4.519610200077295303e-03,1.186807453632354736e-01,-1.217276155948638916e-01,-1.603756248950958252e-01,2.412717975676059723e-02,-8.730833977460861206e-02,-3.811175376176834106e-02,7.425317168235778809e-02,6.480265408754348755e-02,-1.007645800709724426e-01,7.529095746576786041e-03,-1.229455843567848206e-01,-4.001162014901638031e-03,-9.112816303968429565e-02,-4.451110661029815674e-01,1.493974179029464722e-01,-8.844472467899322510e-02,9.920245409011840820e-02,1.293269842863082886e-01,-1.967314928770065308e-01,5.493877083063125610e-02,2.056467346847057343e-02,5.802381411194801331e-02,9.454991668462753296e-02,9.113159775733947754e-02,-7.067415118217468262e-02,2.576640807092189789e-02
3.242501914501190186e-01,4.173804447054862976e-02,-3.013616502285003662e-01,6.599981337785720825e-02,1.448145210742950439e-01,-1.246279552578926086e-01,5.947227776050567627e-02,2.382345646619796753e-01,-1.914766281843185425e-01,1.015864759683609009e-01,-1.247356683015823364e-01,-1.306079030036926270e-01,1.262345463037490845e-01,-6.827097386121749878e-02,-2.740670144557952881e-01,-1.945221424102783203e-01,-7.708568871021270752e-02,-4.795616492629051208e-02,-9.705110453069210052e-03,-1.103112623095512390e-01,-4.646364599466323853e-02,3.342548310756683350e-01,-6.570710986852645874e-02,4.142442643642425537e-01,-7.662549614906311035e-03,1.426758170127868652e-01,1.136448234319686890e-01,9.201943874359130859e-02,6.341755390167236328e-02,1.312865465879440308e-01,-1.257718354463577271e-01,-9.753983467817306519e-03,2.287787199020385742e-01,-9.557366371154785156e-03,1.156291514635086060e-01,-1.094466745853424072e-01,-2.399601973593235016e-02,1.301199495792388916e-01,1.676695346832275391e-01,6.699161976575851440e-02,1.359672397375106812e-01,7.199602723121643066e-01,2.006590962409973145e-01,-1.345370411872863770e-01,5.115623585879802704e-03,1.926590204238891602e-01,-3.681713044643402100e-01,-3.989112377166748047e-01,-2.762855589389801025e-01,6.898652017116546631e-02,4.816304445266723633e-01,2.910278439521789551e-01,1.499767005443572998e-01,1.518316417932510376e-01,7.398212701082229614e-02,4.830150678753852844e-02,9.654353559017181396e-02,-4.908379912376403809e-02,1.009673476219177246e-01,-2.381124198436737061e-01,-3.441885113716125488e-03,3.846377730369567871e-01,-7.572028040885925293e-02,-8.468690514564514160e-02,-1.533433049917221069e-01,5.991577729582786560e-02,1.471955478191375732e-01,-2.203226685523986816e-01,-5.581928417086601257e-02,-5.755730867385864258e-01,4.709765315055847168e-02,9.662926942110061646e-02,-3.038422167301177979e-01,-7.212395966053009033e-02,3.477449715137481689e-01,-4.213305711746215820e-01,1.286959461867809296e-02,4.512908682227134705e-02,-2.140826731920242310e-02,-2.682560309767723083e-02,-1.178881712257862091e-02,6.730687618255615234e-02,-1.827096566557884216e-02,2.802426815032958984e-01,-3.954593837261199951e-01,1.239566355943679810e-01,-1.232959628105163574e-01,9.730675071477890015e-02,1.615371108055114746e-01,1.094555631279945374e-01,9.581280499696731567e-02,8.510362356901168823e-02,7.880971580743789673e-02,7.973825931549072266e-02,-3.097158297896385193e-02,1.066243723034858704e-01,1.732759624719619751e-01,-3.346382081508636475e-01,4.277427792549133301e-01,-4.391191005706787109e-01,-1.555830687284469604e-01,4.672830104827880859e-01,-2.258463352918624878e-01,-9.637083113193511963e-02,2.364124059677124023e-01,-1.428876519203186035e-01,-1.345061063766479492e-01,3.891217336058616638e-02,-3.480690717697143555e-02,2.153160274028778076e-01,-3.419021964073181152e-01,2.549664378166198730e-01,-4.651800394058227539e-01,-1.361954659223556519e-01,2.934517897665500641e-02,-4.317324757575988770e-01,-6.886372715234756470e-02,3.930924534797668457e-01,8.813990652561187744e-02,1.048716753721237183e-01,4.370791018009185791e-01,-2.607201635837554932e-01,5.153286457061767578e-02,1.304183602333068848e-01,2.146382033824920654e-01,4.558299854397773743e-02,-1.978804767131805420e-01,2.820591628551483154e-02,-7.733627408742904663e-02,1.492028534412384033e-01,5.195214152336120605e-01,-8.694594353437423706e-02,1.631750613451004028e-01,-4.950051009654998779e-02,-1.242845579981803894e-01,2.271878719329833984e-01,3.844877481460571289e-01,-8.062758445739746094e-01,-1.966625899076461792e-01,9.830521047115325928e-02,-1.302572488784790039e-01,1.802306026220321655e-01,2.567464411258697510e-01,1.919656544923782349e-01,4.940810054540634155e-02,5.055509880185127258e-02,-4.796276614069938660e-02,-3.690600395202636719e-01,-6.681001186370849609e-02,-2.753119468688964844e-01,-1.415666639804840088e-01,-2.557559311389923096e-01,-3.827787041664123535e-01,1.618924587965011597e-01,5.090822279453277588e-02,1.932306401431560516e-02,5.097477883100509644e-02,-1.413837424479424953e-03,-9.264056384563446045e-02,-2.021943628787994385e-01,9.286669641733169556e-02,1.000414267182350159e-01,-1.120440140366554260e-01,8.938917517662048340e-02,-6.990244984626770020e-01,1.503773331642150879e-01,-1.201349422335624695e-01,-1.194620504975318909e-01,1.344484984874725342e-01,-3.238696753978729248e-01,-4.244630038738250732e-01,-7.291098125278949738e-03,-8.245477080345153809e-02,-6.173577532172203064e-02,-6.218253970146179199e-01,-7.083635032176971436e-02,-1.281964331865310669e-01,-2.810471355915069580e-01,1.787849366664886475e-01,1.577095389366149902e-01,-2.284392714500427246e-02,-8.673629909753799438e-02,-4.727041721343994141e-01,-2.241163551807403564e-01,2.860413789749145508e-01,2.560998201370239258e-01,4.250987470149993896e-01,-2.118690609931945801e-01,2.474055625498294830e-02,3.546153903007507324e-01,1.135086566209793091e-01,-1.641701757907867432e-01,2.727810442447662354e-01,5.954266339540481567e-02,4.588401317596435547e-01,-5.631829500198364258e-01,-1.312429755926132202e-01,1.527142524719238281e-01,-8.358628302812576294e-02,1.697385758161544800e-01,-6.713077425956726074e-02,1.982277780771255493e-01,-8.657155558466911316e-03,1.941235661506652832e-01,-9.532186388969421387e-02,1.378937065601348877e-01,5.149101018905639648e-01,1.281053125858306885e-01,9.855215996503829956e-02,3.011174499988555908e-01,2.861734479665756226e-02,5.984419956803321838e-02,-9.212619066238403320e-02,6.914016604423522949e-02,1.209207400679588318e-01,8.140608668327331543e-01,6.026547551155090332e-01,-4.787145853042602539e-01,-6.303473114967346191e-01,-3.081251680850982666e-01,-1.530974209308624268e-01,-4.045266658067703247e-02,-2.442408502101898193e-01,8.625654876232147217e-02,1.787203364074230194e-02,6.625248491764068604e-02,-3.300161063671112061e-01,-1.011852920055389404e-01,3.851691633462905884e-02,2.419523298740386963e-01,-1.282155662775039673e-01,-2.953197062015533447e-02,7.774486541748046875e-01,-1.857754588127136230e-02,1.456209719181060791e-01,-7.049403339624404907e-02,2.161101549863815308e-01,1.806443631649017334e-01,6.844417005777359009e-02,-2.948776446282863617e-02,-5.596191436052322388e-02,-3.418761193752288818e-01,-9.814200550317764282e-02,-3.411718830466270447e-02,-1.119183599948883057e-01,-3.366153687238693237e-02,-7.929207757115364075e-03,-5.726685374975204468e-02,1.064196377992630005e-01,3.343553096055984497e-02,3.772553205490112305e-01,1.032090112566947937e-01,-4.263694956898689270e-02,1.683886051177978516e-01,6.341839581727981567e-02,9.661943316459655762e-01
-1.382703781127929688e-01,6.938403099775314331e-02,-1.411656141281127930e-01,9.739232063293457031e-02,-4.269571974873542786e-02,6.253073364496231079e-02,3.838535631075501442e-03,-2.782949991524219513e-02,-1.525295227766036987e-01,-2.180439233779907227e-02,1.791803687810897827e-01,1.656691581010818481e-01,-5.113933980464935303e-02,2.216155268251895905e-02,-1.282496452331542969e-01,-8.115740865468978882e-02,-1.234088316559791565e-01,5.543586798012256622e-03,9.533012658357620239e-02,1.452453285455703735e-01,-2.066045105457305908e-01,7.404801249504089355e-02,-2.118466654792428017e-03,-1.783217787742614746e-01,-9.472861886024475098e-02,-1.173620391637086868e-02,1.111169606447219849e-01,-5.518322065472602844e-02,-2.971718609333038330e-01,8.394108712673187256e-02,1.276228427886962891e-01,3.238038346171379089e-02,-9.587474167346954346e-02,-2.013840377330780029e-01,-6.249283254146575928e-02,-3.569636121392250061e-02,1.157529372721910477e-02,1.646922715008258820e-02,-4.750311747193336487e-02,-7.828928530216217041e-03,1.312855780124664307e-01,-9.398242086172103882e-02,1.616125702857971191e-01,-2.615743875503540039e-01,1.122090145945549011e-01,2.428629435598850250e-02,9.070888161659240723e-02,8.085611462593078613e-02,-2.091961505357176065e-04,1.143522444181144238e-03,-1.241292804479598999e-01,-1.706636399030685425e-01,-8.036387711763381958e-02,-1.158440411090850830e-01,1.610187739133834839e-01,6.089561432600021362e-02,-4.473797231912612915e-02,3.004012629389762878e-02,-1.585697829723358154e-01,-1.755366660654544830e-02,-1.049989983439445496e-01,-5.199587717652320862e-02,-2.022736519575119019e-01,4.040605202317237854e-02,-1.633595377206802368e-01,-1.062104701995849609e-01,-7.153780758380889893e-02,2.532067010179162025e-03,8.226872235536575317e-02,8.179739117622375488e-02,-1.105852499604225159e-01,3.673708438873291016e-02,1.504881307482719421e-02,-7.483997195959091187e-02,2.245287969708442688e-02,-8.473052084445953369e-02,8.209342509508132935e-02,1.276713162660598755e-01,-2.924003005027770996e-01,-4.763537272810935974e-02,-4.271187819540500641e-03,-3.049134090542793274e-02,1.846816949546337128e-02,3.169842436909675598e-02,3.701144829392433167e-02,3.356771916151046753e-02,2.289316616952419281e-02,7.797612994909286499e-02,-1.178741827607154846e-01,8.403004705905914307e-02,5.113635212182998657e-02,7.802985608577728271e-02,1.158388182520866394e-01,-7.776362821459770203e-03,-4.222629591822624207e-02,-3.005196340382099152e-02,-2.894990742206573486e-01,1.412481218576431274e-01,-3.820877373218536377e-01,-4.561948031187057495e-02,-9.077647328376770020e-02,-1.688816845417022705e-01,8.479152619838714600e-02,-1.293592453002929688e-01,3.660196438431739807e-02,1.170565858483314514e-01,1.591189205646514893e-01,1.376154571771621704e-01,5.067323520779609680e-02,-1.666938364505767822e-01,-1.936179250478744507e-01,-5.536495894193649292e-02,2.666786313056945801e-02,-7.480231579393148422e-03,2.353915385901927948e-02,1.550826802849769592e-02,-1.898092962801456451e-02,1.247218996286392212e-01,8.517155796289443970e-02,-8.781908452510833740e-02,-7.492177188396453857e-02,-2.236041873693466187e-01,-6.825597584247589111e-02,1.431125998497009277e-01,-1.580927968025207520e-01,1.857982128858566284e-01,-1.554832458496093750e-01,-1.370912510901689529e-02,1.604163199663162231e-01,-1.843211501836776733e-01,-9.417251497507095337e-02,6.320987641811370850e-02,-1.506974399089813232e-01,1.049830392003059387e-01,-8.961176872253417969e-02,6.068873405456542969e-02,-1.753232926130294800e-01,-1.411432493478059769e-02,-1.122131794691085815e-01,-3.100577555596828461e-02,-1.469135731458663940e-01,2.487422153353691101e-02,6.468334794044494629e-02,1.139513030648231506e-01,-1.022290363907814026e-01,1.752343475818634033e-01,5.299612507224082947e-02,2.134883590042591095e-02,1.151895895600318909e-01,5.427502095699310303e-02,6.975349038839340210e-02,7.086642831563949585e-02,1.482946574687957764e-01,1.208289563655853271e-01,2.837841957807540894e-02,5.838985368609428406e-02,1.679069399833679199e-01,-1.956315189599990845e-01,1.065079588443040848e-03,1.824127435684204102e-01,-1.656611263751983643e-01,6.303454935550689697e-02,-3.344636783003807068e-02,1.415910273790359497e-01,-3.654974699020385742e-01,2.535133622586727142e-02,-1.392872482538223267e-01,1.189618259668350220e-01,5.795421451330184937e-02,2.068734467029571533e-01,8.642543107271194458e-02,-1.610673069953918457e-01,-1.542801707983016968e-01,1.023261919617652893e-01,-7.396701723337173462e-02,2.199059724807739258e-02,-8.914061635732650757e-02,-2.648844011127948761e-02,1.120919287204742432e-01,7.730312645435333252e-02,-4.724556505680084229e-01,4.203413799405097961e-02,7.575178891420364380e-02,-3.574444353580474854e-02,-1.325722201727330685e-03,1.008777767419815063e-01,-1.937669813632965088e-01,-3.915507346391677856e-02,-4.551143199205398560e-02,1.978136599063873291e-01,-1.100220009684562683e-01,-4.623416438698768616e-02,-1.278363317251205444e-01,1.262280046939849854e-01,9.067196398973464966e-02,-1.492938101291656494e-01,3.956931829452514648e-02,1.021787002682685852e-01,-1.491477191448211670e-01,1.103539913892745972e-01,1.127537339925765991e-01,-4.303042218089103699e-02,-2.524419724941253662e-01,2.193130366504192352e-02,8.665733039379119873e-02,8.438402414321899414e-02,-2.380442619323730469e-01,-1.242738962173461914e-01,8.586511015892028809e-02,-1.022957563400268555e-01,1.465075314044952393e-01,-1.184406504034996033e-02,-2.161323279142379761e-02,-6.785252690315246582e-02,1.720584370195865631e-02,-1.336020231246948242e-01,-7.536212354898452759e-02,-8.416973054409027100e-03,-4.250618442893028259e-02,-6.185235455632209778e-02,5.686342343688011169e-02,-2.950187772512435913e-02,-3.608357906341552734e-02,-6.757905334234237671e-02,2.555988170206546783e-02,1.244467273354530334e-01,9.111467748880386353e-02,-1.015780344605445862e-01,1.607419699430465698e-01,-3.830838575959205627e-02,-1.170203685760498047e-01,-9.988033026456832886e-02,-3.197345435619354248e-01,-6.637697666883468628e-02,-7.947448641061782837e-02,-1.166919544339179993e-01,9.146238118410110474e-02,1.251064389944076538e-01,7.510398328304290771e-02,2.097007483243942261e-01,1.635009944438934326e-01,-1.269666701555252075e-01,-8.053695410490036011e-02,7.438757270574569702e-02,-1.312503516674041748e-01,-7.764882594347000122e-02,1.455347687005996704e-01,-5.808060988783836365e-02,3.978618979454040527e-02,-1.272962242364883423e-01,-4.429743811488151550e-02,-1.143063381314277649e-01,1.349498778581619263e-01,7.695460226386785507e-03,-7.434780709445476532e-03,-8.249053731560707092e-03
9.549969807267189026e-03,-1.278224289417266846e-01,4.517971072345972061e-03,4.462501034140586853e-02,2.670762315392494202e-02,6.863407790660858154e-02,7.685399800539016724e-02,-3.462643325328826904e-01,1.069313734769821167e-01,-2.832436375319957733e-02,-6.691819429397583008e-02,-3.307500481605529785e-02,-1.999753415584564209e-01,1.020239964127540588e-01,-5.016263574361801147e-02,8.526266366243362427e-02,9.326049685478210449e-02,1.299714893102645874e-01,2.832590229809284210e-02,1.071213632822036743e-01,4.415331408381462097e-02,-1.148371994495391846e-01,1.561346650123596191e-01,-3.869874775409698486e-01,-1.408727318048477173e-01,9.171916544437408447e-02,-3.074805065989494324e-02,1.249765157699584961e-01,5.191973969340324402e-02,-1.330633014440536499e-01,-1.605227775871753693e-02,3.178092837333679199e-02,1.699048653244972229e-02,-1.058973148465156555e-01,9.306473657488822937e-03,1.392728239297866821e-01,5.395325366407632828e-03,3.071456402540206909e-02,1.508711092174053192e-02,-1.041299775242805481e-01,6.020137108862400055e-03,-5.630691349506378174e-02,-1.798848062753677368e-01,-1.998907774686813354e-01,1.038178876042366028e-01,-1.307790130376815796e-01,-1.178264431655406952e-02,-1.660844385623931885e-01,1.138541847467422485e-02,2.136257477104663849e-02,6.285435706377029419e-02,1.166095659136772156e-01,8.667294681072235107e-02,1.292006075382232666e-01,1.243725046515464783e-02,1.347441971302032471e-01,-6.782884895801544189e-02,1.141673326492309570e-01,8.247716724872589111e-02,-9.717504680156707764e-02,-8.822556585073471069e-02,-1.280749887228012085e-01,-8.808445185422897339e-02,-1.656870990991592407e-01,-7.028844952583312988e-02,-1.503949519246816635e-03,-4.204082787036895752e-01,3.113930486142635345e-02,8.147268742322921753e-02,4.449119046330451965e-02,9.474896825850009918e-03,-1.522339135408401489e-01,5.021374300122261047e-02,-1.464588046073913574e-01,-9.866814315319061279e-02,-2.378836739808320999e-03,1.334445178508758545e-01,3.843629732728004456e-02,-7.222037017345428467e-02,3.118004649877548218e-02,6.341368705034255981e-02,9.055355936288833618e-02,-3.777454420924186707e-02,6.083586812019348145e-02,1.081515327095985413e-01,2.001065528020262718e-03,2.793345600366592407e-02,-5.782925337553024292e-02,-2.539934813976287842e-01,6.654425710439682007e-02,-1.236940324306488037e-01,1.099658608436584473e-01,7.120630145072937012e-02,-7.951923459768295288e-02,1.849052309989929199e-02,-1.897660046815872192e-01,-3.897026553750038147e-02,-5.458861589431762695e-02,8.012515306472778320e-02,-1.788030713796615601e-01,7.184810191392898560e-02,-2.115217968821525574e-02,-3.772203996777534485e-02,-9.299227595329284668e-02,-1.122711151838302612e-01,7.234149426221847534e-02,-1.511021256446838379e-01,5.269140470772981644e-03,2.863092906773090363e-02,1.367475092411041260e-01,-8.457367867231369019e-02,6.270142644643783569e-02,1.456763129681348801e-02,8.360546082258224487e-02,-2.687809057533740997e-02,9.459396451711654663e-02,6.875736266374588013e-02,-1.628423184156417847e-01,8.852891623973846436e-02,-2.571390010416507721e-02,1.068699136376380920e-01,-7.465361058712005615e-02,-1.238279491662979126e-01,-9.476407617330551147e-02,-5.511605646461248398e-03,-1.035759970545768738e-01,1.309548020362854004e-01,-2.090085893869400024e-01,3.961181640625000000e-02,-6.528307497501373291e-02,-2.200726419687271118e-01,-1.165393460541963577e-02,-2.446566475555300713e-03,-1.009881123900413513e-01,-7.529889047145843506e-02,-9.002395905554294586e-03,-1.994808018207550049e-02,-3.676243871450424194e-02,-8.185661584138870239e-02,-4.709189292043447495e-03,-1.082919090986251831e-01,-1.000954490154981613e-02,1.381377317011356354e-02,-9.979691356420516968e-02,-9.552693367004394531e-02,-7.396961748600006104e-02,1.254000067710876465e-01,-2.664956450462341309e-02,-6.681474298238754272e-02,8.816459774971008301e-02,3.331888467073440552e-02,-1.469115316867828369e-01,-5.864147469401359558e-02,-4.366920515894889832e-02,8.773762732744216919e-02,-1.568908393383026123e-01,-2.551620006561279297e-01,1.174384504556655884e-01,1.189896464347839355e-01,4.012764617800712585e-02,-8.974514901638031006e-02,-1.491800099611282349e-01,-6.828885525465011597e-03,-1.723802536725997925e-01,-3.759169206023216248e-02,-1.555807292461395264e-01,-4.328210279345512390e-02,-2.498528547585010529e-02,7.108975201845169067e-02,4.136780276894569397e-02,-1.151735261082649231e-01,-7.408883888274431229e-03,6.812688079662621021e-04,7.694103568792343140e-02,1.502403318881988525e-01,-1.249276846647262573e-01,1.406294703483581543e-01,-1.567833870649337769e-01,6.321110576391220093e-02,-1.195395290851593018e-01,1.133602336049079895e-01,9.295511990785598755e-02,-1.101234555244445801e-01,9.330760687589645386e-02,1.355886161327362061e-01,7.403527200222015381e-02,3.171350061893463135e-02,-6.086944416165351868e-02,-8.757234364748001099e-02,7.032050937414169312e-02,1.915854215621948242e-02,-1.668290793895721436e-01,3.766325861215591431e-02,1.240088231861591339e-02,2.462321706116199493e-02,5.646762996912002563e-02,3.725443407893180847e-02,-1.167676001787185669e-01,1.882247813045978546e-02,2.217731811106204987e-02,-1.270263493061065674e-01,-7.299340516328811646e-02,-6.153025105595588684e-02,7.690529525279998779e-02,1.291682422161102295e-01,1.256037205457687378e-01,7.826004177331924438e-02,-1.214285343885421753e-01,-2.305490076541900635e-01,-6.096535176038742065e-02,1.047928631305694580e-01,4.135194420814514160e-02,9.184850752353668213e-02,-3.111804649233818054e-02,1.072598993778228760e-01,-2.156949490308761597e-01,-3.839547559618949890e-02,-2.424659393727779388e-02,-1.329335756599903107e-02,2.408707700669765472e-02,2.909601852297782898e-02,-7.531452178955078125e-02,-3.361965343356132507e-02,-1.744740270078182220e-02,6.030301377177238464e-02,-1.646546274423599243e-01,-1.017371863126754761e-01,4.580436274409294128e-02,1.148505732417106628e-01,8.264781534671783447e-02,-3.217285871505737305e-02,5.474366992712020874e-02,1.124908179044723511e-01,4.987874999642372131e-02,-2.965714037418365479e-02,7.724307477474212646e-02,6.141155585646629333e-02,9.101071208715438843e-02,8.080966770648956299e-02,-1.533384025096893311e-01,-1.033120080828666687e-01,8.622296154499053955e-02,4.318995028734207153e-02,-1.712099760770797729e-01,-1.295212507247924805e-01,5.508591607213020325e-02,1.282093226909637451e-01,1.302586793899536133e-01,-2.461470216512680054e-01,7.765709422528743744e-03,-1.845061331987380981e-01,1.109147071838378906e-02,-8.855558186769485474e-02,7.849333435297012329e-02,-2.770017981529235840e-01,2.004882693290710449e-02
-2.248709462583065033e-02,2.891046553850173950e-02,1.032237801700830460e-02,1.857730150222778320e-01,-2.564345300197601318e-01,-1.965884491801261902e-02,1.934550255537033081e-01,-1.230535935610532761e-02,1.458520293235778809e-01,-5.093903280794620514e-03,-7.862389832735061646e-02,9.200263768434524536e-02,1.750063747167587280e-01,-1.022285297513008118e-01,2.781663537025451660e-01,2.304031103849411011e-01,-1.188398450613021851e-01,8.466207981109619141e-02,-8.512555807828903198e-02,1.216745674610137939e-01,1.312268227338790894e-01,3.740937635302543640e-02,-2.775149792432785034e-02,-2.122476696968078613e-03,3.365610837936401367e-01,-2.491131275892257690e-01,4.742489382624626160e-02,-2.327793836593627930e-01,4.735738337039947510e-01,3.784559965133666992e-01,-4.665382578969001770e-02,3.204782679677009583e-02,-8.252716809511184692e-02,8.890531957149505615e-02,1.378441601991653442e-01,1.262645870447158813e-01,-1.371124833822250366e-01,1.542568765580654144e-02,-5.943252518773078918e-02,-1.487500518560409546e-01,-2.918828129768371582e-01,-2.633657455444335938e-01,2.203889936208724976e-01,-2.223088443279266357e-01,-7.933560758829116821e-02,3.909196238964796066e-04,5.493098869919776917e-02,-3.119521737098693848e-01,6.431122869253158569e-02,7.056695222854614258e-02,1.132418960332870483e-02,2.293993085622787476e-01,7.169346511363983154e-02,2.453992515802383423e-02,-6.307322066277265549e-03,7.090284675359725952e-02,5.857957899570465088e-02,7.157316058874130249e-02,-1.301652565598487854e-02,1.563092768192291260e-01,-5.503728985786437988e-02,4.068203270435333252e-02,3.147051334381103516e-01,4.068780317902565002e-02,7.061744481325149536e-02,-2.741197347640991211e-01,-1.350453644990921021e-01,2.082767151296138763e-02,2.357869222760200500e-02,3.192864954471588135e-01,4.752596467733383179e-02,-2.943246066570281982e-01,1.310523301362991333e-01,5.982879921793937683e-02,-6.188270170241594315e-03,2.141917943954467773e-01,-7.450137287378311157e-02,3.843012964352965355e-03,-4.457705616950988770e-01,5.877067148685455322e-02,-1.887123584747314453e-01,-1.129121631383895874e-01,1.435334682464599609e-01,2.997162938117980957e-01,-2.034105062484741211e-01,1.983722746372222900e-01,9.144119918346405029e-02,9.369568526744842529e-02,-1.407234668731689453e-01,2.558988519012928009e-02,-2.021011263132095337e-01,-1.495233029127120972e-01,4.844611138105392456e-02,-6.486330181360244751e-02,-7.511618733406066895e-02,-1.317623555660247803e-01,-1.084909662604331970e-01,9.413599967956542969e-02,2.357737123966217041e-01,3.908470645546913147e-02,-5.385568365454673767e-02,-1.135041937232017517e-01,1.752929538488388062e-01,7.543727755546569824e-03,-7.578714936971664429e-02,3.295392692089080811e-01,3.871122598648071289e-01,-1.724241971969604492e-01,1.929620467126369476e-02,-1.342615336179733276e-01,-3.457525670528411865e-01,3.398762941360473633e-01,-5.646305531263351440e-02,-7.363430410623550415e-02,8.285952359437942505e-02,8.049205690622329712e-02,-1.505817025899887085e-01,-7.725691795349121094e-02,4.241231828927993774e-02,-2.378587275743484497e-01,-3.428537547588348389e-01,-3.514533042907714844e-01,1.148773878812789917e-01,-2.990634143352508545e-01,-4.438744485378265381e-02,1.445812880992889404e-01,4.067856818437576294e-02,-2.152968794107437134e-01,4.638935923576354980e-01,6.492640972137451172e-01,-1.703054755926132202e-01,3.088678792119026184e-02,1.906136274337768555e-01,6.936249881982803345e-02,3.195394203066825867e-02,-9.221059083938598633e-02,3.830704987049102783e-01,7.929497212171554565e-02,9.497839957475662231e-02,-4.796289205551147461e-01,-1.219403445720672607e-01,7.993899285793304443e-02,1.469938457012176514e-02,-1.023011505603790283e-01,-2.337466329336166382e-01,2.862778902053833008e-01,-4.878988116979598999e-02,2.504789642989635468e-02,1.655812561511993408e-01,-1.455111056566238403e-01,-4.336410015821456909e-02,2.025005370378494263e-01,-1.540040820837020874e-01,-1.204730421304702759e-01,-1.844774335622787476e-01,4.614878911525011063e-03,2.935210466384887695e-01,-2.184048593044281006e-01,-8.212082087993621826e-03,7.256905436515808105e-01,1.557191461324691772e-01,5.745269358158111572e-03,1.257783323526382446e-01,-3.109516203403472900e-01,2.782266959547996521e-02,-6.903420388698577881e-02,9.479388594627380371e-02,7.777869701385498047e-02,4.267447441816329956e-02,-2.640075236558914185e-02,1.130562573671340942e-01,4.396895468235015869e-01,1.504024416208267212e-01,-5.957489460706710815e-02,-8.806831389665603638e-02,1.188900619745254517e-01,1.106146201491355896e-01,2.937684953212738037e-01,-5.392722412943840027e-02,4.621148854494094849e-02,1.053374558687210083e-01,-9.334377944469451904e-02,3.306265473365783691e-01,2.491236180067062378e-01,-3.921796679496765137e-01,-2.204073816537857056e-01,-3.661955296993255615e-01,3.036426007747650146e-01,2.976869940757751465e-01,-3.481491655111312866e-02,-1.111575067043304443e-01,-3.040952980518341064e-01,-1.305105984210968018e-01,3.065671324729919434e-01,-1.768798530101776123e-01,1.414624601602554321e-01,2.050889581441879272e-01,-8.650855720043182373e-02,2.386352270841598511e-01,5.122627019882202148e-01,1.389277875423431396e-01,-8.017516136169433594e-02,6.760768294334411621e-01,-1.659635007381439209e-01,1.488803923130035400e-01,1.466799527406692505e-01,-1.206758320331573486e-01,-1.877313107252120972e-01,4.424286484718322754e-01,-2.604792416095733643e-01,4.836896806955337524e-02,-1.427602469921112061e-01,1.515380665659904480e-02,7.107269167900085449e-01,6.227060221135616302e-03,-3.038254678249359131e-01,3.098636865615844727e-01,2.873937785625457764e-01,1.193108782172203064e-01,8.820298314094543457e-02,-2.292934805154800415e-01,1.010919064283370972e-01,1.170142292976379395e-01,1.439584195613861084e-01,2.645805478096008301e-02,-5.480005219578742981e-02,2.709436714649200439e-01,-1.167393550276756287e-01,-3.582767248153686523e-01,-6.706835329532623291e-02,4.363143816590309143e-02,9.838692843914031982e-02,1.242992584593594074e-03,-1.623905599117279053e-01,-9.438403695821762085e-02,-2.076295614242553711e-01,-8.003634959459304810e-02,-9.010928124189376831e-02,3.139269053936004639e-01,-8.907739073038101196e-02,-3.465968370437622070e-01,3.734064102172851562e-01,-2.713498426601290703e-03,4.810144752264022827e-02,-3.069207668304443359e-01,3.549435362219810486e-02,1.795070245862007141e-02,1.175405085086822510e-01,2.239790260791778564e-01,7.135388907045125961e-03,-9.014737792313098907e-03,3.119796700775623322e-02,5.567746162414550781e-01,1.542490720748901367e-01,2.522636055946350098e-01,-1.543515622615814209e-01
-2.888762578368186951e-02,-6.697621941566467285e-02,-2.332975119352340698e-01,3.345288708806037903e-02,6.780932098627090454e-02,7.054343819618225098e-02,-1.350534707307815552e-01,-1.099685281515121460e-01,1.882550418376922607e-01,2.195342816412448883e-02,1.316437730565667152e-03,4.827767983078956604e-02,-4.369483515620231628e-02,8.224216103553771973e-02,1.109066158533096313e-01,-8.179998397827148438e-02,-1.132628172636032104e-01,1.007165107876062393e-02,2.330804429948329926e-02,-1.034350134432315826e-02,5.498276650905609131e-02,9.802075475454330444e-02,5.112960189580917358e-02,1.176655590534210205e-01,2.684838324785232544e-02,-8.471645414829254150e-02,7.750052213668823242e-02,1.285295486450195312e-01,-1.679710461758077145e-03,-2.268638834357261658e-02,-5.755443871021270752e-02,-2.237009257078170776e-02,5.733060836791992188e-02,1.338007450103759766e-01,1.251318454742431641e-01,-1.348137110471725464e-01,-8.055885136127471924e-02,2.262923493981361389e-02,1.722023077309131622e-02,1.103357225656509399e-01,8.116418868303298950e-02,3.080744855105876923e-02,-1.317797154188156128e-01,-3.557828366756439209e-01,6.566459685564041138e-02,-7.970084249973297119e-02,-4.935301095247268677e-02,1.042878031730651855e-01,1.009841710329055786e-01,-3.367806971073150635e-02,-6.585922092199325562e-02,1.219387203454971313e-01,9.544092416763305664e-02,7.711544632911682129e-02,-2.997309863567352295e-01,1.062425374984741211e-01,2.560971118509769440e-02,7.666885852813720703e-02,-3.480622917413711548e-02,8.603813499212265015e-02,-3.182571381330490112e-02,-1.203992888331413269e-01,-4.070703685283660889e-02,-4.959429614245891571e-03,6.107592955231666565e-02,-7.166010141372680664e-02,3.544282540678977966e-02,-8.921241387724876404e-03,-8.368784934282302856e-02,-2.607293799519538879e-02,-2.271984070539474487e-01,-1.395201236009597778e-01,1.288559585809707642e-01,2.535647712647914886e-02,-8.044464141130447388e-02,-6.570050958544015884e-03,-1.331956535577774048e-01,1.019489467144012451e-01,-6.429419666528701782e-02,1.026746481657028198e-01,3.181155025959014893e-02,7.992120832204818726e-02,-1.087601035833358765e-01,-1.295147389173507690e-01,6.107535958290100098e-02,-1.307353973388671875e-01,-2.980327466502785683e-03,-4.622832313179969788e-02,-4.037921503186225891e-02,3.666530596092343330e-03,-1.291923131793737411e-02,1.624286733567714691e-02,-1.560866534709930420e-01,-2.705063521862030029e-01,-1.274734437465667725e-01,2.295007556676864624e-01,-3.232468962669372559e-01,-1.159995570778846741e-01,-7.240789011120796204e-03,1.585551165044307709e-02,3.831015899777412415e-03,5.044209957122802734e-02,3.136349841952323914e-02,-9.927250444889068604e-02,6.274572014808654785e-02,-2.906387448310852051e-01,5.683579295873641968e-02,7.449555397033691406e-02,-8.961202949285507202e-02,1.211274601519107819e-02,-1.404980123043060303e-01,-2.571112215518951416e-01,-7.355569303035736084e-02,-6.438070535659790039e-02,-1.366426199674606323e-01,6.164848431944847107e-02,-1.068533733487129211e-01,2.159901559352874756e-01,-5.897095426917076111e-02,-1.443862821906805038e-02,-1.816737651824951172e-01,-9.814710170030593872e-02,-5.427799373865127563e-02,1.184016242623329163e-01,9.405346587300300598e-03,2.713536843657493591e-02,1.216535493731498718e-01,1.084089353680610657e-01,-2.076819539070129395e-01,-1.416728794574737549e-01,4.564860835671424866e-02,7.289738953113555908e-02,1.747318357229232788e-02,5.678787082433700562e-02,1.503046751022338867e-01,9.676206856966018677e-02,-3.437371924519538879e-02,2.103744894266128540e-01,-2.104547172784805298e-01,-7.686547935009002686e-03,5.101680755615234375e-02,-5.093756318092346191e-02,3.395274281501770020e-02,1.645831577479839325e-02,6.041686050593852997e-03,-6.769914925098419189e-02,1.432462781667709351e-01,-5.875074490904808044e-02,6.737346202135086060e-02,-7.196953892707824707e-02,2.022902853786945343e-02,-3.987093269824981689e-02,-2.303136736154556274e-01,-9.820945560932159424e-02,-2.072605639696121216e-01,-7.617121189832687378e-02,1.591297388076782227e-01,-1.436111330986022949e-01,-8.087877184152603149e-02,-1.312208175659179688e-01,8.442869782447814941e-02,4.025324713438749313e-03,4.800224304199218750e-02,3.089455701410770416e-02,9.808474034070968628e-02,1.253691017627716064e-01,-6.808055192232131958e-02,-9.005854278802871704e-02,9.094435721635818481e-02,-9.219060093164443970e-02,7.712554186582565308e-02,-1.583867371082305908e-01,4.665967449545860291e-02,-5.896971002221107483e-02,2.144287107512354851e-03,-1.421692967414855957e-01,-1.326306611299514771e-01,-4.692958295345306396e-02,1.151959896087646484e-01,5.777558684349060059e-02,-1.892527937889099121e-01,1.211705654859542847e-01,1.971040479838848114e-02,8.681686967611312866e-02,4.509570449590682983e-02,-9.834246337413787842e-02,-6.642389297485351562e-02,-1.143119707703590393e-01,8.192325383424758911e-02,8.826192468404769897e-02,8.545859158039093018e-02,2.696217894554138184e-01,1.196640823036432266e-02,8.861524611711502075e-02,-2.843254059553146362e-02,2.868301607668399811e-02,-2.224303409457206726e-02,8.343075960874557495e-02,4.384330660104751587e-02,-1.460097432136535645e-01,9.154731780290603638e-02,-8.230566233396530151e-02,2.118348479270935059e-01,1.940499991178512573e-02,-1.551299393177032471e-01,1.092165522277355194e-02,-1.826606392860412598e-01,1.489666551351547241e-01,1.980932652950286865e-01,1.399478316307067871e-01,7.457117736339569092e-02,1.145039647817611694e-01,1.230824813246726990e-01,4.935586825013160706e-02,8.896458894014358521e-02,1.009358372539281845e-02,-2.376117557287216187e-02,1.450525969266891479e-01,1.324722263962030411e-02,-6.031851842999458313e-02,1.291764527559280396e-01,-6.199607998132705688e-02,6.825240328907966614e-03,-3.170187175273895264e-01,-4.155382141470909119e-02,1.429921984672546387e-01,-6.576958298683166504e-02,-2.608866617083549500e-02,2.662430889904499054e-02,7.843760401010513306e-02,-7.556130737066268921e-02,-7.794746011495590210e-02,1.754791662096977234e-02,-3.748470172286033630e-02,1.619348973035812378e-01,-1.402334216982126236e-02,1.166984718292951584e-02,-1.386902928352355957e-01,1.178698539733886719e-01,-5.365332588553428650e-02,9.094978123903274536e-02,4.117785394191741943e-02,-1.171414852142333984e-01,8.662777394056320190e-02,-8.220150321722030640e-02,1.095864735543727875e-02,5.624859128147363663e-03,7.683792617172002792e-03,-4.235306289047002792e-03,-1.009893864393234253e-01,1.883256584405899048e-01,-1.435852050781250000e-01,4.845602810382843018e-02,-7.924934476613998413e-02,-1.479302048683166504e-01,-2.449320554733276367e-01
7.588803023099899292e-02,1.227264180779457092e-01,1.240297183394432068e-01,9.131812304258346558e-02,4.215771798044443130e-03,2.707734704017639160e-02,-1.443687677383422852e-01,1.655520126223564148e-02,3.109977208077907562e-02,3.353774920105934143e-02,-2.508065998554229736e-01,-3.626428917050361633e-02,-8.088283985853195190e-02,-9.031840413808822632e-02,-5.459060892462730408e-02,2.829792350530624390e-02,8.056297153234481812e-02,9.845520555973052979e-02,7.904437184333801270e-02,1.106682345271110535e-01,-3.709011152386665344e-02,9.263218194246292114e-02,-8.576472848653793335e-02,-2.741706967353820801e-01,6.948066502809524536e-02,9.811411052942276001e-02,3.168392553925514221e-02,1.129364669322967529e-01,-3.502170369029045105e-02,-2.869781572371721268e-03,3.507699444890022278e-02,1.019580140709877014e-01,1.091534346342086792e-01,-1.124879121780395508e-01,7.968623191118240356e-02,5.139450728893280029e-02,4.564322158694267273e-02,-1.218377351760864258e-01,-8.635897189378738403e-02,1.343218833208084106e-01,-9.915417432785034180e-02,2.534863539040088654e-02,9.118975698947906494e-02,1.157973706722259521e-01,1.223977468907833099e-02,2.685731463134288788e-02,-3.691551834344863892e-02,1.746455729007720947e-01,-9.852434694766998291e-02,-1.214476004242897034e-01,6.460070610046386719e-02,-1.220767274498939514e-01,-6.432873755693435669e-02,1.021268293261528015e-01,7.753491401672363281e-02,3.009815700352191925e-02,1.401454359292984009e-01,1.382618560455739498e-03,1.227732449769973755e-01,-4.253438860177993774e-02,2.366423606872558594e-02,-3.011053055524826050e-02,-2.310168296098709106e-01,-4.071543738245964050e-02,4.177736118435859680e-02,7.418177276849746704e-02,-6.571002304553985596e-02,4.009397327899932861e-02,-3.896544501185417175e-02,-1.633197367191314697e-01,5.539869423955678940e-03,-4.968401044607162476e-02,-1.393246948719024658e-01,3.705078363418579102e-02,-7.971589267253875732e-02,1.269873529672622681e-01,-7.252827286720275879e-02,-1.119134873151779175e-01,-1.940220296382904053e-01,-1.163139343261718750e-01,-2.298329025506973267e-02,-5.730621889233589172e-02,8.428870886564254761e-02,-1.100740879774093628e-01,7.171868532896041870e-02,-8.419002592563629150e-02,4.325988143682479858e-02,-4.128742590546607971e-02,-1.438735723495483398e-01,-3.507068753242492676e-02,7.295527309179306030e-02,1.349412137642502785e-03,-1.083759218454360962e-01,1.209723129868507385e-01,9.512034058570861816e-02,1.924821734428405762e-02,1.126328706741333008e-01,-1.138386502861976624e-01,4.189337790012359619e-02,-7.810221053659915924e-03,-5.359565466642379761e-02,-8.109287917613983154e-02,7.827027887105941772e-02,-4.911178350448608398e-02,1.279034465551376343e-01,-1.506140083074569702e-01,1.250109970569610596e-01,9.388372302055358887e-02,6.745911389589309692e-02,-5.134786665439605713e-02,6.684291362762451172e-02,-9.255964308977127075e-02,-6.297084689140319824e-02,1.617479696869850159e-02,4.328077193349599838e-03,-9.256184846162796021e-02,-5.132225155830383301e-02,-1.844603195786476135e-02,7.002875953912734985e-02,-7.370600104331970215e-02,9.832768887281417847e-02,1.393398940563201904e-01,-1.278077960014343262e-01,1.141782179474830627e-01,1.476481407880783081e-01,-7.770212739706039429e-02,-3.537754341959953308e-02,-9.483341872692108154e-02,-3.744333982467651367e-03,2.855066023766994476e-02,-6.884215772151947021e-02,7.559733837842941284e-02,-1.522583365440368652e-01,2.490059286355972290e-02,1.281952559947967529e-01,5.695306137204170227e-02,-1.197265312075614929e-01,-1.218849420547485352e-01,-1.459897402673959732e-02,-2.610277384519577026e-02,-3.437013328075408936e-01,5.306416749954223633e-02,-1.144941002130508423e-01,-3.476896882057189941e-02,-6.220722198486328125e-02,-8.641312271356582642e-02,-8.304846286773681641e-02,-1.735945343971252441e-01,9.060948342084884644e-02,5.641310662031173706e-02,4.875488951802253723e-02,-1.240692138671875000e-01,1.704060286283493042e-02,-8.198906667530536652e-03,-1.970581561326980591e-01,1.379389464855194092e-01,-1.004118286073207855e-02,9.232956916093826294e-02,-7.680206745862960815e-02,5.505111441016197205e-02,1.133865639567375183e-01,1.358184516429901123e-01,7.554452866315841675e-02,-2.693893015384674072e-01,-1.374503374099731445e-01,-5.823222175240516663e-02,-9.877773374319076538e-02,1.324353367090225220e-01,-8.505755104124546051e-03,8.772283047437667847e-02,-1.147656291723251343e-01,3.373531624674797058e-02,1.026297658681869507e-01,4.132314771413803101e-02,-1.195143312215805054e-01,-1.524301711469888687e-02,-1.207837909460067749e-01,-7.556468993425369263e-02,9.145789593458175659e-02,5.655626952648162842e-02,-8.100039511919021606e-02,-4.983347654342651367e-02,-1.914674788713455200e-01,-9.885653853416442871e-02,-5.902943667024374008e-03,7.439667731523513794e-02,-5.828964337706565857e-02,-1.065272316336631775e-01,-9.008463472127914429e-02,-2.257257699966430664e-01,-6.298667937517166138e-02,-1.706135272979736328e-02,-1.311226040124893188e-01,-2.513467371463775635e-01,-1.143136993050575256e-01,-5.987827479839324951e-02,1.308129727840423584e-02,1.089969351887702942e-01,9.838915616273880005e-02,-1.953146308660507202e-01,2.264191396534442902e-02,-2.848608791828155518e-02,4.014347866177558899e-02,1.195695251226425171e-03,-1.921281069517135620e-01,-8.992230519652366638e-03,-4.905680939555168152e-02,1.356040835380554199e-01,-9.527349472045898438e-02,4.649307578802108765e-02,4.604173079133033752e-02,-1.304787397384643555e-01,-4.447434097528457642e-02,2.380298264324665070e-02,-9.467302262783050537e-02,-6.153906136751174927e-02,-4.603609070181846619e-02,1.261058598756790161e-01,-2.497845888137817383e-02,-1.719530820846557617e-01,-3.368434682488441467e-02,8.896946907043457031e-03,-2.384604513645172119e-02,1.501362621784210205e-01,-1.194400340318679810e-01,1.176148876547813416e-01,1.670666337013244629e-01,3.289137408137321472e-02,3.490301221609115601e-02,-3.229492902755737305e-02,3.494191542267799377e-02,-6.323085725307464600e-02,-9.319458901882171631e-02,3.882289305329322815e-02,-1.324796378612518311e-01,-7.461730390787124634e-02,-1.363443136215209961e-01,-4.607211053371429443e-02,-2.306659370660781860e-01,-1.090376451611518860e-02,-7.494426518678665161e-02,1.147587150335311890e-01,-6.805998086929321289e-02,1.496473401784896851e-01,-3.811639174818992615e-02,1.182049214839935303e-01,6.509898602962493896e-02,-3.629959374666213989e-02,-1.770561560988426208e-02,1.862620934844017029e-02,-2.273011766374111176e-02,5.808579549193382263e-02,5.215858295559883118e-02,8.768464624881744385e-02,-4.142931103706359863e-02,-4.327080771327018738e-02
