
/* Trace */

/**
 *  updated on 07/20/2023 01:11:52
 */

#ifndef __W_NVME0N1_64_H
#define __W_NVME0N1_64_H

char name_nvme0n1_64[] = "Trace/nvme0n1";

long weight_0_T_nvme0n1_64[256*220] = {
-170,106,-92,-2,72,-155,-55,-93,14,-10,46,-104,-103,-19,100,95,46,87,78,-168,76,13,5,15,46,-100,-29,44,-134,-85,30,7,-36,69,-143,-172,-4,-73,3,52,-11,-70,-83,-173,-125,-68,-118,-91,-39,-127,-115,-76,-156,-34,-106,-77,-226,14,-87,-59,31,-96,-153,-43,-40,25,7,25,-119,59,-190,-139,-7,-39,14,71,-116,10,78,-16,-7,-59,-173,-35,-86,-213,-39,-103,-91,61,-15,-71,29,65,-57,-9,52,-91,26,79,-191,-21,-26,-59,-100,-1,-163,62,-137,-97,-27,2,-36,-66,-2,-97,-88,-110,-103,40,-92,69,-88,5,-5,51,47,-107,-112,-144,9,-106,15,59,-52,-10,-25,67,-76,-79,153,-118,-101,-53,-84,-29,35,-53,-22,13,-66,-80,28,-17,88,100,-3,-81,-32,-196,60,-142,-66,121,-39,-173,85,-77,-110,64,-66,-177,106,22,-106,96,-36,-126,4,75,-200,7,-38,-204,-89,24,-195,94,-93,-198,-1,-34,-193,-58,-56,-106,76,-105,-181,92,-144,-3,-63,-134,-80,-6,-97,8,-121,-76,62,-54,-53,121,-24,-62,182,71,123,86
,11,50,-73,-99,-40,59,-57,-41,15,-17,-52,55,-72,-65,36,3,87,-63,41,9,-90,-106,-114,-77,-111,79,79,9,-120,-15,28,12,-33,-50,76,-19,0,0,51,50,80,12,-20,-84,32,16,-1,26,31,-3,-121,-86,94,86,-27,17,-79,-32,-118,28,-95,-70,-38,-129,44,-18,-11,21,-112,46,54,25,-84,-78,-8,37,-68,36,23,72,75,-22,82,-61,37,-15,-51,-109,-82,-78,-90,-79,51,-29,-84,69,-100,28,37,36,-86,-32,49,56,69,-110,-91,1,-43,50,-98,-34,-125,-62,-62,85,71,-135,44,91,49,47,-90,-89,24,38,-94,-66,35,-74,-31,-113,-26,-72,-1,64,5,-69,71,-67,-108,-59,62,47,-50,-113,19,-31,-82,11,69,51,-67,-50,-32,-35,-69,-23,-32,-29,-16,72,-103,14,-87,-7,69,-63,-82,22,1,-113,-50,-60,-47,-56,68,99,-60,31,-34,29,-121,-7,34,-45,-63,-42,73,59,50,26,-2,-93,-78,-67,-32,59,-39,-87,-58,100,-125,34,-58,-86,10,-53,-48,0,-32,-28,-104,26,11,-54,-106,29,49,71
,-64,-52,61,67,-33,-78,30,-50,116,101,-98,-55,-30,-16,45,-64,88,50,74,-50,-32,-7,48,-95,-27,-81,-55,-51,-36,-2,-67,47,-60,42,-73,60,-79,26,-36,-17,64,-57,49,18,13,19,-111,-31,115,-31,-32,64,86,-132,-76,7,27,-34,-71,-8,78,7,21,-116,83,-110,-97,-104,52,56,-16,41,73,53,-39,8,-78,-91,-13,-71,-116,73,1,36,-93,67,-51,21,10,-62,-50,-29,-45,90,4,-49,-98,-33,87,-110,-58,67,50,71,-51,7,41,-109,-100,-102,-11,47,-71,25,90,-74,-92,103,-63,-21,107,-8,-134,-83,44,39,-34,-86,98,-50,38,101,-72,94,20,-26,-103,-5,55,63,-7,30,-115,52,78,73,26,-76,-56,17,-71,-117,-10,-26,-131,6,46,6,-68,75,80,30,107,-77,-93,101,-22,-117,-47,80,52,-107,-19,95,28,41,-104,-87,24,-79,20,28,-92,12,62,-32,-2,79,-9,-2,86,67,18,-99,77,30,68,26,-88,-64,-88,125,96,48,-75,-68,-27,108,-25,50,5,-2,-77,-136,67,-77,-92,84,113,-78
,109,-105,-33,-63,44,-15,-108,73,31,75,66,16,-127,21,-83,-57,-104,-50,-99,-91,-119,-12,-108,30,39,-108,-60,-113,-62,86,68,80,-106,-52,-125,-119,66,27,-50,-74,-131,-36,-85,41,-59,-37,48,-57,32,18,-24,-114,-47,-133,-116,71,10,43,-58,11,-110,59,-122,-119,-82,103,-100,38,89,-108,-33,51,-67,15,92,-45,-109,-128,19,-30,26,-49,-66,-99,70,-86,91,-93,60,-33,35,-21,-103,-66,-52,-132,-100,-83,-79,-72,-83,62,56,-98,-86,38,-58,-8,45,-49,-10,-111,-97,-29,9,-11,-95,-43,47,-108,-76,33,-93,-112,-96,68,14,-69,9,-40,81,-33,-39,81,-99,-88,-43,56,103,-119,-117,-28,-122,-99,11,68,-36,32,-52,-58,13,93,-51,-42,-98,-114,71,3,11,-65,-98,60,-96,-6,12,-5,-103,-16,56,-28,23,-110,-50,37,-71,-34,-11,11,25,34,-85,-76,-144,-1,-95,-19,-100,-66,-82,-97,-44,27,-62,-66,-7,-36,-87,65,75,-120,-85,-14,81,80,-61,-77,-72,-82,-71,-50,-35,-12,-52,112,-100,-7,95,-44,70,38
,-54,7,52,6,31,-35,-58,-107,43,35,47,3,54,-142,-89,9,32,-37,-17,9,-46,-51,-153,10,-73,54,-82,60,4,30,16,-142,11,-121,40,14,-9,-39,-56,-20,-87,-149,-14,26,8,-2,-117,-39,64,60,-75,-4,60,-37,30,46,-10,-97,-32,-121,-45,-62,68,-41,-153,-21,7,-68,18,46,53,6,1,-23,14,62,-121,-42,-83,-51,-160,-47,-122,9,-20,-133,-7,-46,43,10,71,-147,-107,2,48,36,-19,40,-11,16,-114,39,27,15,-114,-66,-70,24,16,-44,27,-19,-115,-70,-15,52,-88,-17,-122,54,-137,-3,-13,-59,-135,-10,-103,-70,-85,-73,-55,-34,50,-103,-4,19,-32,29,-20,43,-139,14,-4,41,-26,-122,47,24,69,-51,-1,-68,-28,40,-80,-17,-1,-151,2,-79,-20,-99,-121,-49,44,29,-56,-120,-89,-137,-49,27,-124,-56,16,-89,-91,-92,-95,-58,75,-84,52,-53,-115,26,2,-132,-118,-11,52,-102,-25,-86,-31,-45,-66,-40,-96,-148,-118,-88,12,39,-35,-69,-102,12,38,-24,-15,-155,88,-57,66,-105,-64,-19,-108,-20
,27,-53,-29,19,-45,-112,-91,-129,18,37,53,-31,-101,-144,-110,-112,29,-56,38,6,-128,-129,37,-102,-76,11,42,-138,-125,-22,-10,-53,10,-86,-68,-97,-60,-73,40,26,-119,-79,14,-91,-64,-49,-22,-129,-48,42,-58,3,14,15,-89,-128,-6,47,-96,12,-106,-38,-64,54,47,-64,13,24,-7,-60,-14,88,-56,-107,-101,-2,-84,-118,44,38,9,14,5,65,14,-5,-107,46,33,-33,-119,-133,49,-60,76,-111,-8,-43,11,-139,65,-54,-60,14,17,-84,-22,-81,-147,-67,-21,-120,-52,-130,-127,44,-21,-119,-33,18,34,72,-13,-109,-41,-36,-25,-65,50,-161,-118,-36,30,81,64,13,-123,23,-119,84,-85,-111,-114,-144,-24,-15,-44,-115,-82,30,-7,7,-85,-93,-68,78,38,23,-66,32,64,51,-50,40,-99,73,24,-58,-77,-24,-28,-76,41,-90,-45,-79,53,14,38,7,-98,-85,-20,-54,-19,48,39,-27,46,-45,-117,18,-20,-105,-77,20,-107,-70,25,64,-88,-31,58,-53,31,-77,-76,-103,46,-25,-91,-137,18,55,59,-45,-56,-54,65,-48
,48,-70,-11,-71,-1,-39,90,81,-121,10,77,-28,46,-2,-102,-115,74,-114,-163,37,81,-58,-29,61,10,24,89,62,48,-60,-60,24,-132,-46,0,55,-7,-84,-23,-106,79,-75,-24,-113,-75,67,68,-118,20,-140,-146,-85,-10,-52,71,-65,-68,-4,-112,73,-85,82,1,35,-13,-111,66,-22,-116,-125,73,13,-21,95,24,20,23,32,-117,42,25,53,50,-87,86,-47,77,-107,-44,-17,81,-137,-2,-85,-137,-67,77,-66,46,61,-144,-112,38,-77,-38,105,-56,-74,-76,-50,-18,-18,81,-31,109,7,30,96,86,50,-9,-6,85,93,-119,68,-99,26,-29,20,79,100,26,-13,-42,5,-11,57,41,27,61,29,-68,-133,-88,73,42,69,68,14,-80,-24,-50,-29,-66,-33,-94,75,55,69,-118,17,89,-128,21,15,-49,-82,-9,90,-7,-51,-86,-111,-71,87,-14,-89,-37,-35,27,-126,-36,96,-87,44,-40,57,95,108,-71,2,-4,-80,-62,68,-90,-82,21,-25,51,20,-31,-59,53,121,-60,87,-81,69,-108,-4,-57,47,-40,-59,77,19,-58,31
,-96,-111,-112,59,-78,-173,-76,31,5,-36,-147,47,-24,-93,56,-47,-90,88,59,-134,156,10,-161,-30,60,-6,69,-64,48,-37,-138,-26,-107,86,-126,-105,-118,-1,65,-65,-39,33,57,-17,5,-48,-71,-93,-27,52,-91,-145,-25,-117,19,-144,-57,28,52,5,27,-77,-127,-65,80,-124,-157,10,-102,-124,34,-12,46,-24,-65,31,-26,-28,-121,-115,-27,-147,-99,-28,-91,-25,-126,19,-2,-120,43,41,59,-88,-81,62,42,-11,76,-37,-107,-102,21,-45,-35,-48,-23,49,-95,-85,63,-159,-139,4,39,-1,-84,60,-128,-59,58,-20,-100,-145,1,11,-124,50,-25,-139,-30,-28,-112,7,-25,-4,-57,-20,-139,-47,-141,-143,-150,-26,-1,47,58,-111,-135,116,64,-11,31,-117,12,70,-78,52,-118,51,-149,-102,-144,71,-12,-140,-20,-14,-117,35,-105,-35,-150,-124,84,-134,-66,-102,-161,-84,-35,-5,-34,43,-39,13,-40,-41,42,-21,6,-78,-32,-145,28,79,-81,-20,-124,-71,-46,-111,-13,-70,8,-6,20,10,-170,57,-58,-62,-88,-70,-114,-63,88,1,94,-87
,-224,3,-66,-68,4,20,-40,9,-62,-35,-47,4,-122,13,75,-93,53,71,-9,64,-80,-138,-114,-105,-103,41,-199,-67,-124,-84,-85,-70,-32,-178,-113,57,-59,-17,72,-23,31,-57,-40,66,-1,-167,-18,0,-57,-23,54,-123,-15,-56,-97,-27,-138,-1,34,150,-72,-62,77,-77,76,-22,-34,-3,-212,-82,-37,-225,-84,111,-142,26,19,-143,-119,82,-179,-40,115,-102,-91,-6,-218,9,-71,-287,-70,-11,42,-69,44,198,-118,27,128,-171,-128,111,-118,-13,127,-40,-28,-23,-159,-18,-353,-156,-8,-310,-104,98,-305,-158,5,-85,-37,-109,-265,-79,66,59,-169,65,-27,2,66,-168,17,-36,-78,-82,34,-118,11,-17,-2,-89,-104,-98,1,73,-57,-129,-87,-61,16,-98,8,-190,62,106,-56,-62,4,-42,7,45,-137,-12,7,-101,71,-186,-21,-48,2,-113,34,-256,-95,-71,80,20,-178,76,-78,-46,127,-92,51,8,-26,72,-315,-160,-15,-264,-54,25,-203,-17,-33,-26,1,-11,-131,-137,-32,-234,162,75,174,131,75,-105,91,-73,2,38,-128,-36,75,-117,-53,-95
,28,-22,43,89,-24,65,100,46,-74,-17,13,-19,-113,-10,-104,-1,35,-94,-156,-25,-115,-47,31,25,34,17,-5,-125,68,-86,7,-49,93,-165,57,53,-150,31,-61,-2,17,-138,-171,81,58,-35,13,-13,1,36,-105,-40,-115,48,-137,56,48,-67,-106,-84,-107,-18,-19,-162,-127,-66,-62,-45,-91,32,7,-5,-91,33,-51,-46,3,2,38,-103,-104,-20,18,56,-73,-102,88,34,-6,-41,-2,-12,42,-97,-71,-19,3,43,-34,5,-66,-55,-85,-63,65,-127,-17,70,45,-59,-74,-66,-147,-89,-24,25,77,53,-111,-1,-14,-20,-16,-39,52,37,7,39,23,-17,70,7,-8,-81,24,41,-36,6,34,-11,-56,22,-33,-132,-67,16,-73,-67,-78,-83,12,-38,51,34,-47,-57,52,-106,-1,65,-43,-115,-36,58,-64,53,-32,-77,43,-89,-92,64,-24,8,-52,-57,-107,32,-128,21,-19,52,-112,6,-125,21,83,-5,-149,-45,-49,-106,-54,-22,-107,48,34,-17,-80,-59,-22,47,-53,66,204,75,162,-31,-34,82,73,-13,114,-3,93,91,-124,-105,1,75
,-125,-48,59,74,-42,-81,40,-35,-85,-8,-6,100,27,-21,29,-57,-11,43,-72,-63,-122,50,-30,80,-108,38,-30,-30,-117,-114,-5,-94,-1,-18,-51,-7,-26,58,-91,-33,14,-30,-60,-129,-24,80,33,-77,52,-18,76,-102,3,67,3,-88,5,69,-78,-17,-96,43,-8,86,-85,80,37,-86,28,44,-7,-78,-23,-30,-107,-135,-106,-79,-29,66,-30,40,2,-85,-129,65,17,71,-61,-95,-93,-94,-66,25,69,42,56,56,-27,-55,10,25,-69,84,72,-57,34,-22,-90,84,-16,11,41,-122,73,60,54,-20,-111,-82,-38,-114,81,92,33,-38,-114,5,86,-87,81,68,-66,-67,85,-13,-17,-63,-108,-26,-43,-51,9,34,59,-94,50,83,-9,-1,-76,-66,58,-7,54,18,-60,-9,7,-21,-76,-72,-126,58,-60,47,82,-119,-13,30,-24,72,10,-140,-57,-39,70,-63,-14,67,-42,-69,-101,54,-53,-80,77,-72,27,-3,37,-91,-37,85,-13,5,56,-137,-108,55,115,-72,-58,59,-83,56,-27,-3,-79,86,-25,22,-105,-59,-6,-125,139,103,120,-42
,-114,-1,15,-66,3,-121,50,-104,-19,40,85,-141,-38,-23,35,-37,-122,13,39,-16,-55,55,-107,-16,-75,4,-47,43,70,-37,36,6,-115,-111,-137,-25,-9,-14,-95,-47,-37,-115,44,-83,-68,24,39,-114,45,-129,92,31,81,76,56,-9,-92,-63,1,-9,-23,-108,-99,-82,-90,-9,31,33,-74,55,30,31,2,84,44,-77,-100,-108,-13,86,36,-118,-129,67,-89,-32,-48,-98,33,57,-44,-52,76,27,-46,-63,-105,-109,65,-42,74,35,33,76,-94,81,-53,21,28,-56,-116,96,81,27,27,-84,-28,-80,-2,-100,-11,49,-45,7,-24,21,-124,-41,49,31,-34,-120,63,-2,-94,12,73,-118,-127,28,35,-78,67,-21,-30,-97,-26,-108,35,67,4,69,-116,-130,-22,-77,-5,-117,-91,-63,-41,-7,68,-9,-44,57,-26,65,-135,-64,32,-154,-117,-67,47,-75,42,-25,-111,-112,-34,47,59,30,-77,26,43,-121,-113,14,2,-73,-146,-60,66,-40,-67,44,-77,54,-132,37,70,-92,61,-89,-44,-88,37,19,63,44,-33,-104,5,25,88,104,-83,-36
,38,-71,-21,-116,62,-4,-9,-78,-77,16,-15,-66,59,53,-105,68,-38,34,-58,58,-50,19,-102,41,-113,-54,-23,40,-1,-11,4,-104,-43,-128,16,-82,-94,-83,-124,-144,-52,32,62,-130,-142,10,-91,22,32,-73,-3,-115,-27,-150,-21,-51,-30,-88,-85,-123,-134,11,29,-118,19,44,25,42,-39,66,-53,99,28,-47,-79,61,-107,15,-125,-27,6,-132,-100,-60,6,-97,33,-145,-93,-41,-1,-109,-29,8,8,-96,34,-33,-31,-48,-19,-75,-20,-1,-89,23,-40,28,-140,67,-124,-51,-137,13,-102,-101,-95,-34,-40,-2,-45,-26,-117,-23,35,-140,-46,52,-91,-85,-135,-114,49,-86,-36,69,-16,-77,5,20,-134,-137,-147,-106,66,-34,12,-129,25,62,47,-90,3,49,-85,-58,20,-59,-14,47,-41,-46,-88,-47,-45,-147,82,-36,-80,-35,14,-15,79,-43,63,66,71,-30,-49,-97,45,-93,-12,5,1,68,-135,-34,-69,74,97,-63,64,-107,-127,-150,6,-46,-87,21,-49,96,-83,11,0,40,-99,-40,-80,30,13,73,-103,-14,92,-21,-34,78,20,-104
,-32,-60,-71,-4,-88,-70,-67,-24,-66,76,-137,58,37,22,94,-56,-136,21,74,12,76,54,-125,37,-16,50,-49,41,34,-71,-100,22,84,34,-11,-81,95,-127,14,40,62,-127,-62,-45,-67,53,-1,-102,37,-112,-118,91,-81,21,17,-129,-110,-66,7,-97,-34,-127,-68,99,-7,69,30,83,39,-12,42,34,-78,-75,27,63,-120,-2,47,26,81,-41,-93,-92,-61,-69,-101,-70,-21,112,-34,-10,-46,1,-73,-90,0,-85,9,-46,-28,-125,-1,-116,-125,-97,-98,-66,-96,12,33,-60,-121,35,58,55,-49,-24,40,-81,-76,-43,49,49,-137,50,90,56,51,80,-131,26,38,-38,32,-97,84,-119,-28,8,-87,-107,1,13,81,-72,-77,-92,48,-93,53,-87,29,26,-59,-44,-81,63,61,-102,-117,-63,-104,-74,-134,-2,-45,-87,-91,-120,-83,-97,53,63,-25,-102,48,-98,-76,13,-86,-93,-1,-72,-54,-61,-62,-87,-13,-88,-44,-124,-73,-94,-28,-75,71,-24,-31,-39,46,8,-27,-104,-89,-107,-101,-88,102,-66,83,-38,44,-54,83,-115,14,83,43,4
,-63,29,108,-121,-91,122,-1,-5,-1,-134,65,110,-231,-120,-43,-291,60,-99,-147,55,10,-48,-101,5,-116,-125,-42,-201,-14,-117,-75,-59,7,-229,55,9,-248,42,-55,-135,-134,-145,-102,28,-134,-26,-150,43,-98,-71,-115,-152,-81,-28,-135,48,-141,-230,-139,-173,-187,40,33,-55,-88,-132,-44,-158,-100,-77,62,53,-81,-98,32,-150,-46,-187,-265,-32,-58,-139,59,-15,-86,-157,98,-77,7,-54,-45,56,168,-218,-82,120,-52,37,98,-163,-63,22,-159,-16,92,-69,-6,-29,-80,-99,-41,-78,26,71,-125,-21,85,-203,-13,0,-201,-53,38,-60,-53,49,-84,71,-116,-144,-85,-117,-145,-125,-65,-161,78,-91,-64,-114,46,-152,-20,-90,-166,-101,-121,-116,22,-94,16,-121,-105,-82,-23,36,-127,-66,11,-90,84,-36,-70,86,97,-126,64,-108,-54,-117,-89,-154,69,12,-175,-82,-76,-46,-40,108,-14,-64,142,15,-60,125,-52,-108,64,27,-112,94,-137,75,37,-76,-82,168,-7,83,82,5,57,-95,-123,-152,-125,5,91,89,-74,6,-20,-52,75,-15,-47,-53,82,57
,66,-41,-28,12,-98,-51,-42,-104,-5,-55,-16,-100,-88,-87,-86,-70,51,40,-21,-62,95,-115,30,-80,14,-151,-71,-85,-139,-191,-35,18,-142,34,-89,58,11,-70,-108,-137,-93,-23,-81,-19,0,-9,-147,-86,-141,-39,-49,26,55,-171,14,52,20,-8,26,-170,-151,22,-22,-131,-160,-20,30,-25,-13,42,37,88,-164,56,-34,-57,-38,44,-99,-88,-12,-140,-45,12,-106,-42,-23,-32,53,70,-100,-69,22,2,-18,148,-43,-143,139,-29,-116,-7,-140,-11,-12,-136,-78,-2,-156,6,-38,-139,-70,23,-23,-88,-93,-14,83,-41,-84,78,-38,-90,31,-148,-88,36,2,-107,86,68,-6,63,12,-129,-71,91,5,-143,116,-101,51,-38,13,30,154,-16,-14,80,70,-20,58,-25,10,85,-89,-80,99,85,-85,-169,64,-28,-56,8,-79,-100,63,-34,18,-78,-54,-29,77,-39,-56,46,63,-62,69,-2,-194,-23,-62,7,-64,-33,-3,-10,6,70,34,-98,-101,31,54,-87,44,-54,-114,67,-28,79,67,-86,25,65,-31,-23,-116,-54,58,2,-65,3,-96,3,-126,58
,-96,25,-12,83,56,88,-99,-26,-106,-96,9,6,-57,-70,-137,-143,-27,22,22,-34,-87,-135,58,-10,-93,89,32,-128,-58,33,68,-91,-100,-126,-89,-61,-80,69,-58,36,80,-107,88,-119,-55,79,-9,-130,-39,23,63,52,40,-37,-46,-59,-56,80,-70,64,23,71,62,-129,76,-107,-18,-18,93,24,37,-26,-83,-107,-29,3,20,66,-139,68,24,61,72,69,-110,12,45,-54,-99,26,-92,-66,-68,22,-111,10,-9,-36,27,1,73,10,-142,-24,12,-30,-85,56,-55,-74,-6,-91,-93,-49,-81,68,104,-69,-99,16,15,-25,94,-121,-27,-92,-134,63,61,-144,-109,-77,-56,-119,-133,-86,60,-167,35,64,38,-61,-22,-144,-121,-108,1,67,-8,-13,-47,-76,18,28,-121,-133,-79,-116,-76,-119,-82,24,-106,68,58,-109,106,-40,35,-63,-61,-86,-61,-169,-21,-80,37,-39,82,-105,53,-62,9,-119,-42,39,83,90,-20,45,80,23,-57,-48,61,-34,-69,-49,-47,16,54,37,-9,-4,79,31,86,106,-19,25,51,-4,-34,100,147,158,13,123,14,127
,16,-36,65,-104,-35,-41,24,-69,20,45,64,-13,-60,-157,14,58,-36,-119,4,-96,-27,50,-113,-17,-26,-64,32,60,-136,-101,-103,-80,14,-113,37,-139,47,-157,-73,-19,-75,71,-66,-143,-69,-57,-92,-81,27,-42,-33,-69,-90,-77,35,-69,-19,90,-21,-55,-29,-39,-98,62,-33,-100,40,-73,-80,34,-40,19,57,-15,-140,-25,-13,-95,56,-25,12,-81,-67,-97,-85,-55,-74,-93,-46,-22,-112,-66,-5,6,0,-56,-61,-62,-4,41,-126,59,102,-146,-46,27,12,-30,-50,-63,-152,-108,-35,-29,76,-63,-138,4,-100,19,-71,63,63,47,-80,-99,53,-112,53,35,-59,53,-19,-116,-112,-93,10,17,105,-1,-126,9,52,-20,29,-35,-7,-104,0,10,-62,52,32,-2,-32,30,25,-151,-64,-73,-17,0,9,-55,-32,-91,-159,12,46,57,19,-50,-68,-46,-37,-78,34,36,-126,2,1,-98,-38,-121,-100,-13,-108,-10,-52,-120,-148,-113,3,-51,-78,17,-70,-23,-110,-29,-44,11,-78,43,84,-109,-89,66,51,44,-87,-145,-65,52,-44,-21,-97,23,76,-140
,-50,-23,-11,-47,97,49,44,-82,-85,-97,-79,14,-107,-90,-16,-71,14,95,-115,-80,-74,12,77,36,-23,-35,-27,-82,101,-31,-88,52,-45,-9,-11,18,-57,19,-24,35,43,-74,-62,111,33,-59,12,54,-103,29,-91,44,72,49,-87,-118,-100,-39,-124,46,-80,-53,-18,55,-118,-18,-20,71,-15,-125,13,35,-36,46,-21,-125,-73,28,1,41,14,12,-57,48,58,-128,103,-124,-103,20,-2,71,-64,-14,-74,-86,-59,-108,-133,-129,37,-13,9,48,-34,-87,-30,-75,-50,-28,-107,69,-104,-57,48,-59,-22,-116,21,83,-88,-46,134,76,8,22,-31,-125,-52,44,97,-124,-112,40,3,-10,-104,-49,87,91,57,-12,-97,33,-11,93,18,72,-30,44,-5,-48,78,76,-25,-44,45,-77,30,-128,-44,-3,11,-89,-34,22,43,65,-27,-56,-31,-4,29,5,-79,-70,-46,58,-86,44,-9,75,-53,30,23,-9,-55,-41,-107,66,-54,56,4,-28,0,-39,-34,-77,-95,20,-70,-106,56,133,-101,33,-78,-127,71,80,8,-92,-70,-68,-16,-81,-49,35,21,-83
,64,-6,4,-15,24,1,83,-127,59,16,10,39,48,36,82,-56,43,-98,-105,-16,-32,-108,-13,88,20,-22,-89,-20,-44,-43,57,-55,-80,-66,-30,63,-46,84,32,-124,55,-102,-23,-85,-32,-149,-69,-54,-145,-75,-31,-30,-7,-57,-139,-83,67,-47,10,31,-155,-92,79,55,-19,31,-104,18,76,-9,-60,-52,-35,-41,87,-36,-90,-23,-112,-102,14,65,-59,-59,-140,-111,34,-25,67,-47,-151,-4,-37,-115,38,29,-148,-60,-30,-20,-49,-41,-115,35,-60,-66,51,-37,-125,-85,-8,74,-113,13,-76,75,31,-131,24,-97,-118,-125,-33,-139,47,64,-66,-82,60,-65,8,-108,-90,-116,-86,-73,31,86,-4,39,-20,64,36,77,45,-64,33,56,-108,79,-13,1,68,-151,-47,-39,18,-34,70,-33,-105,-56,14,-100,-96,40,-27,106,44,-51,86,-48,-66,5,-86,66,-19,-11,-28,-97,-107,-112,-21,24,-97,-127,-13,13,-54,-90,-84,45,-139,-63,22,-9,-92,-129,-24,81,-139,-13,-61,-77,-8,-115,-35,-105,-37,-45,46,-76,72,-99,-83,-87,-40,74,-127,-9
,-64,-38,17,46,2,-28,2,-84,-34,-117,39,-3,68,-75,-14,-28,70,-84,13,-78,88,14,-83,-182,40,32,-45,-36,16,-108,35,11,-8,16,-100,-80,-94,-139,-38,-30,-139,-149,-43,-75,-28,-19,40,13,-126,-64,-70,-101,-63,-14,-81,41,71,30,39,-9,71,49,-65,-31,61,-34,-121,23,39,-114,-107,3,-39,-69,-134,45,-92,-99,-26,9,-108,-45,-62,37,-3,-7,21,-169,-121,-15,-27,-117,11,-112,-119,-36,-170,-87,-89,-67,-113,-74,-49,43,-93,-56,53,-110,-137,56,-148,0,-9,-14,-66,-136,-99,-164,-51,-21,-86,33,-189,-120,-21,-190,6,24,-128,-84,-27,-58,28,-136,-113,-178,5,8,-139,25,-31,-68,-10,10,-175,-35,33,-56,67,14,-124,-101,4,40,-119,5,-133,-20,67,-149,2,-85,-5,10,42,-119,25,73,-138,-17,-76,-131,-45,-44,-142,48,17,-47,-2,-2,-137,88,-21,11,73,60,58,40,-43,-37,51,86,-55,-100,-105,-51,-93,-125,28,41,-8,-45,59,-51,-42,-12,-1,-85,81,130,37,38,-109,-84,17,-30,58,-8,-157,-42
,61,34,57,-37,87,19,54,21,59,33,-125,-73,11,17,-96,51,13,-35,-117,-75,68,53,-67,68,-54,-5,-64,4,-54,11,68,80,65,-44,-35,-107,-97,-125,-59,-32,27,47,-121,-112,4,33,-88,34,10,-9,28,-128,-101,-53,-53,-122,-41,-96,85,-37,60,-44,42,-110,-110,-50,-107,-25,20,-67,82,18,-14,-37,75,61,14,-68,-20,33,-125,-49,-6,-32,-9,-99,60,-86,71,52,-70,45,-83,35,80,34,26,35,-110,-84,-28,-83,9,49,-25,63,38,26,84,19,-100,-13,17,-84,-83,103,-31,-51,-65,-63,2,-88,11,-101,-16,-11,91,-9,-102,-118,-52,-49,67,71,47,-70,-32,-98,62,-56,-64,34,31,32,50,51,41,13,30,17,-88,-39,83,-26,-96,-124,-38,-71,-27,-41,-56,-1,49,-89,-123,17,-88,-26,-30,76,27,-59,61,-12,-100,-4,116,-60,55,-80,-92,23,97,67,14,-125,-7,72,22,93,18,-89,72,10,-102,-39,-8,-93,-119,-113,70,82,14,77,56,-54,-18,-13,-88,41,-106,-79,3,22,-93,-95,-64,-63,133,-30
,106,86,-107,84,-8,-13,72,-84,-19,94,-1,20,-99,-8,-22,-16,-83,-14,11,94,86,-67,-6,69,-8,-56,-6,-92,-90,-8,-90,-16,33,-33,82,-51,43,-101,-96,88,74,1,-7,-39,-67,-8,3,-49,83,20,41,-41,5,22,7,-28,-64,-43,-32,-60,-111,-67,-73,1,-11,5,-29,85,53,84,-89,-118,82,43,-100,3,-12,-115,50,-89,89,-59,-93,20,-5,-79,75,-106,95,95,-39,-63,-17,12,-55,-43,-22,16,-70,-81,22,35,-28,-96,31,81,-37,-10,30,-12,85,-92,-15,78,82,-113,61,-52,47,53,42,-1,-26,103,-44,-76,-4,37,-75,-7,-56,51,-60,-77,-27,-106,-40,-80,-13,-89,46,78,-69,-95,39,-7,-63,-25,-90,30,-47,6,-24,-105,20,-3,-35,-80,-8,5,-94,-41,-74,15,-66,37,-70,-28,-6,49,5,62,35,87,-15,-20,-38,-101,-92,-67,80,-75,37,-29,48,-13,-76,102,15,-109,26,-38,-14,-31,70,112,25,-48,38,-65,-40,-30,20,54,9,51,-18,103,-101,51,-11,-87,-3,12,-60,43,16,-72,-48,-69
,-122,9,31,-100,-53,21,-54,1,62,-41,-101,92,-34,-131,70,-25,29,-55,-115,-64,-25,-25,-50,19,1,40,-73,-16,10,-142,-121,-82,-87,34,100,1,92,24,-94,-30,13,47,-83,49,-91,-107,-42,-19,-59,-57,69,-82,-6,-38,84,66,7,-10,-89,72,49,-90,67,49,-92,6,-45,-48,10,-75,-72,40,-32,55,-97,-120,78,79,105,-113,-131,-59,2,-56,33,-82,56,29,-3,76,-99,62,-149,-66,-14,-85,-19,-3,20,-71,-107,43,-56,2,83,77,-90,-30,-9,23,-7,80,-111,50,-101,49,-41,-57,-12,-32,-53,19,-93,10,52,-51,-120,-85,-111,-41,68,-101,-39,-26,61,-48,-78,-2,12,52,-74,-108,-55,-64,-111,54,30,80,92,-31,-106,50,-65,-24,-84,0,59,-98,-75,-78,-77,86,65,0,15,-1,75,-6,-56,74,0,-74,-21,73,37,-21,10,-52,73,-96,17,38,-1,-110,-47,-13,-137,-62,118,1,-84,-13,-68,-2,-85,13,6,-122,-14,22,-65,-136,-38,-10,30,26,29,-143,-49,155,-58,-101,63,75,-54,-131,76,70,38,-85
,-73,27,44,7,-70,7,8,-42,-43,-82,-39,-95,-132,-134,-117,5,24,1,28,62,78,-134,-135,97,51,-46,-7,51,71,-33,-27,-134,57,-156,52,-80,24,-101,-93,-68,36,62,36,-64,-46,-99,-43,58,-32,27,57,-34,-110,18,-138,-130,-67,-2,-127,102,48,46,-54,-8,-3,63,-141,-67,39,8,-90,-82,-6,18,-28,-24,-129,18,-21,-81,-142,-22,-6,-112,25,43,-99,-15,-122,75,-42,-47,26,-52,-95,6,19,1,-67,-86,-90,46,72,23,-115,-135,-59,-5,8,6,11,80,72,44,-119,-53,-31,-88,65,-16,-17,56,-84,-24,-126,-76,83,-48,-23,-3,76,61,-26,-77,-94,-53,-129,-138,-13,13,-74,-66,74,-79,-32,55,-98,-80,-19,43,27,-118,-13,68,-6,-46,-32,43,-111,-66,-91,-64,-18,76,-37,90,-137,76,-4,22,86,-101,-135,-34,-67,-134,18,79,4,50,-129,-65,-117,-9,61,23,-77,-95,26,55,-123,8,60,-39,32,-24,71,-96,50,61,-45,29,-116,-49,-39,-43,-103,25,46,-36,-6,-83,51,59,-21,42,-96,52,100,93
,-73,88,-78,-9,-29,12,75,-46,56,-63,62,-58,14,-69,-109,2,26,-117,29,-95,-72,79,58,101,-61,-52,64,-38,-29,-46,79,58,-73,-8,77,107,-40,40,-8,13,31,-104,-50,-44,95,30,-53,-85,15,22,-129,115,-37,-58,119,54,-65,-74,-83,3,63,87,-150,29,-12,-101,-74,75,76,38,24,-15,-97,-61,-29,-27,-11,-65,60,-124,-14,-103,-69,-37,17,-127,-39,44,-9,-56,-30,-98,-12,-44,2,63,34,49,52,-64,78,-107,-54,-115,51,-93,82,-57,-50,5,-6,-103,63,-124,14,-128,-57,-30,9,-52,100,-40,-133,57,-14,47,118,-53,-19,-5,54,33,-50,-15,-41,70,-18,86,120,-85,87,-56,17,-60,38,-44,-99,-2,93,-54,82,-4,-71,-36,-123,-108,-87,-70,20,-108,-41,31,-22,-18,-39,8,-27,-48,-89,51,-97,0,-86,-13,84,-105,-100,-105,-102,-6,45,79,24,-31,-126,5,71,86,61,-18,-29,-95,-67,-113,70,-9,19,-10,-101,78,-85,20,-71,-116,41,25,-24,72,-90,60,-95,33,99,-12,43,-94,-3,-96,0,-63
,-116,-104,8,-20,-115,52,-80,-4,87,57,-90,-47,-92,-110,25,14,-137,22,-120,6,2,63,70,61,-7,-86,-69,-31,-134,11,-32,-72,-167,-95,44,-88,-136,17,-14,-136,-153,26,-84,7,44,-127,-11,-139,59,-16,18,41,27,-10,-132,11,-104,-127,-23,-107,-116,-113,-18,-84,-24,-45,-158,-37,-69,-22,-42,38,-111,-20,-78,-31,64,9,10,-46,-116,11,-29,51,-78,-7,-50,12,37,-51,-62,19,18,-54,-153,31,-22,40,50,-48,-71,-20,-57,-112,-41,-79,-15,-43,-108,-38,-93,-55,9,54,-73,51,-43,-144,-8,-79,23,-124,-8,-47,-101,-136,-153,-121,25,57,52,8,-55,59,-79,29,67,-52,67,12,-128,36,3,1,-121,-127,-16,32,-27,10,24,51,38,-38,-122,47,-91,6,46,-13,-10,-61,-11,32,-132,44,-132,80,-127,-146,29,-104,60,54,92,34,-56,96,-36,-15,27,55,-139,61,-83,72,59,-96,-21,-56,-34,96,-43,47,-16,69,-123,99,60,24,44,101,-74,84,-19,103,104,60,-53,-102,-128,-11,-69,-92,-69,37,44,54,125,-54
,19,-70,-97,46,60,-49,38,28,-92,42,28,80,-27,-36,-68,-30,30,-127,8,-91,100,-3,2,-97,33,-99,73,46,78,85,-102,14,29,39,64,-118,-58,9,-110,-49,-16,-72,-17,-109,-72,-41,-111,-74,-82,68,89,-79,-44,2,-39,44,-23,-105,-2,-76,-43,-29,45,-110,-39,-76,-69,83,-87,-73,99,-45,41,-71,39,13,-61,-76,-101,-60,-49,-20,14,-32,-93,-39,-96,-6,0,13,86,-32,70,-121,-88,77,-120,25,84,-26,49,96,69,-103,-8,8,-21,-37,14,80,-18,-93,-88,-96,-83,-46,-47,-24,-114,45,55,-18,-103,-132,-67,-19,-72,70,-82,-88,-72,-99,9,-110,90,-48,9,53,-40,2,-118,-15,81,-49,64,90,-25,-58,-36,32,-6,93,49,-7,-119,-103,-97,-99,-55,92,29,6,62,77,70,17,-44,-64,-89,-83,-42,66,-74,-33,-114,53,46,-80,-95,-83,-111,23,94,-10,1,95,14,54,92,43,-1,91,97,-94,-124,55,-40,96,50,44,64,-65,79,13,86,5,-74,-104,37,67,-52,-84,-25,-4,9,78,65,-131,58,62
,47,18,25,-86,-116,30,-84,-77,-108,-105,5,13,-107,-59,-43,-107,63,30,91,60,37,36,87,-15,-74,-109,23,-19,-98,40,-2,58,10,-89,-45,-7,90,5,-31,-107,55,-112,31,-80,-105,-44,36,4,92,39,-54,-99,-46,0,86,5,-101,-7,-73,37,-103,30,-20,94,44,90,36,-69,-2,-97,43,-50,-80,-2,-80,46,-25,-28,56,-113,-14,-55,39,-39,31,-113,23,7,9,76,-25,-102,-49,-115,9,16,-9,73,-28,97,-38,41,-19,-100,-91,-18,95,9,-84,-31,103,-37,38,-77,-9,-70,31,89,-113,92,-83,-63,50,38,-118,31,-42,-28,24,5,96,-36,-90,-112,26,-5,62,-78,-24,-57,-118,-7,85,61,-6,59,-57,-69,74,-43,-56,-84,5,-100,-110,64,-76,-77,10,76,-36,36,22,26,64,-86,99,-53,-2,7,-92,-109,-78,-6,62,-20,-46,92,76,62,-53,10,-30,-70,4,-71,-86,84,31,-96,-77,-38,61,-83,-108,62,-93,18,-72,29,99,27,-113,17,-78,-32,61,2,-37,38,-98,-31,89,35,30,13,-91,-81,8,-61
,-102,64,59,-81,35,-77,56,13,-13,-77,-49,-29,-118,58,-2,-54,-116,64,96,29,-38,-138,-42,-2,-24,-94,-152,-95,-66,-97,-113,-22,20,-141,9,-88,12,-8,46,-162,-77,54,-53,-106,-20,-75,-75,-95,-54,48,-54,-181,-9,-68,-86,-87,101,-33,-129,47,-98,-115,72,-125,-2,124,-59,-107,-59,-17,67,85,2,-60,83,-180,3,92,-102,63,-53,-144,-136,-55,-168,-68,11,13,37,15,-140,10,92,-77,-52,-46,49,50,-26,29,-155,-138,-8,-36,-114,-46,-10,-136,-63,73,-57,17,37,-4,-169,-63,-21,22,70,-98,-76,2,-71,-4,64,-97,-180,-30,-38,-169,58,-83,-63,-114,6,-137,-30,-44,-55,24,26,-103,-2,-68,-169,-58,54,-111,-67,17,41,-109,58,24,46,27,-99,-21,-30,-56,-3,-58,-117,-82,69,-132,-82,-96,-21,-132,-129,61,32,-14,-56,80,95,-11,-58,61,-111,-104,-64,-18,3,17,-23,-87,121,32,72,-61,-7,-60,-130,-114,-68,-61,69,-19,50,-41,17,-63,61,63,108,-61,-52,69,29,96,154,21,-6,-25,87,-25,-45,39
,24,-15,62,-27,-92,-1,19,-90,-76,-47,-86,11,110,61,77,110,-114,15,52,-88,-112,48,26,-64,52,-104,-81,-14,-16,-42,29,66,91,104,100,97,-6,71,-9,-88,-8,-81,21,76,15,-85,89,-36,73,53,-47,62,-74,-98,61,-89,-13,54,20,-34,-28,-62,12,-34,-95,-3,-14,74,-98,-16,-33,64,-33,85,35,24,-99,-45,-4,4,3,78,-67,88,70,-2,71,-73,-102,-36,39,-108,-83,45,-40,-80,-72,-54,14,-72,64,75,45,-113,-77,-18,83,52,-74,-18,-32,-47,47,-28,71,-5,-45,-70,16,-103,25,-32,-61,-107,-72,87,-22,103,-71,-103,-40,42,43,65,52,-46,-54,-34,80,99,1,88,85,-105,76,31,-11,22,-104,-23,-57,-78,-38,-15,86,-87,65,73,94,45,-20,-107,89,94,58,38,73,18,-103,40,-47,59,-90,-28,34,-90,-79,-107,17,103,-75,-109,61,35,-4,-110,25,98,-87,78,45,38,-106,-106,-106,-91,-32,55,-55,-28,27,-116,-94,25,22,-26,100,-66,-91,93,17,-84,-85,-38,-70,-112,14,-14,94,-18
,40,10,97,-108,39,89,-1,136,0,-32,33,61,79,-163,164,68,-249,123,-33,-243,-11,-9,-205,-59,55,-118,-155,-59,-219,-107,-120,-86,1,-96,-65,-62,-36,-102,-201,-150,-137,-191,-75,67,-58,-109,73,-177,-114,18,-102,1,-47,-202,-83,-74,-296,-142,67,-169,5,10,-184,-7,-20,-133,-130,52,-131,-188,65,26,-96,-78,12,1,-19,-56,-96,55,112,-139,-81,75,-111,-24,50,-158,24,193,-163,-44,36,-150,-47,88,-113,13,161,-120,-90,46,-23,32,49,-136,65,15,-165,84,-26,13,-36,101,17,42,82,-31,-69,-18,41,-15,41,-158,17,85,45,2,-46,-61,97,82,-148,45,-12,-7,37,87,-9,-32,133,-88,-38,200,-79,-57,35,-78,-125,-61,-113,-35,-75,-8,71,-163,-26,-28,-95,-52,24,-270,-52,30,-230,26,-106,-293,-121,59,-206,78,-31,-156,9,-43,15,-62,39,-54,-38,-35,29,-91,-2,197,-12,-54,151,40,70,-128,-136,64,45,-65,58,70,-153,27,-7,-152,101,86,-78,28,-4,-77,-10,-154,-175,5,-62,-22,-12,140,-173,-38,-50,159
,15,-136,-5,-48,69,11,-64,-10,-35,34,57,-58,-114,-76,-32,-150,45,89,-16,-17,-24,30,-88,-76,5,-43,-101,10,-2,29,-101,-71,-16,-81,-7,-73,5,-12,-40,-76,53,27,-72,87,-85,-88,-65,-27,48,-78,-28,27,55,-144,59,-75,99,54,15,-19,-94,-117,27,50,-37,11,79,18,61,70,-65,56,-29,-69,72,21,-95,-71,4,-39,69,67,-102,-166,0,-12,28,-131,-77,-7,-133,-50,52,-104,15,-160,-72,0,-113,-119,4,-14,26,-4,14,3,58,-20,-32,-72,-55,-47,-146,51,-91,-139,75,17,-46,-84,45,41,-53,12,43,-73,72,13,-128,43,31,44,-16,-96,-2,84,61,43,-44,58,-110,-131,-7,-5,-50,-51,23,-64,46,-62,74,-123,8,-131,-113,13,-88,-17,-24,-45,30,47,-136,-7,-78,25,-125,76,-131,-139,66,-12,33,3,11,68,0,-94,-117,87,-116,54,-55,63,38,-109,8,64,-93,68,-102,79,-146,29,-15,-66,8,22,-47,-113,84,-4,21,-39,-73,46,-26,0,-21,29,-8,40,-35,20,-1,13,-75,-26,11,-140
,39,-35,-81,69,95,49,56,72,102,-16,-22,-25,-108,55,-13,-99,-98,-60,-60,52,-130,-23,-105,-122,30,85,-97,50,64,-14,-113,65,-45,84,33,40,-71,54,-103,69,-90,-108,-66,18,11,-6,-89,-75,38,27,-43,15,-30,-106,-26,-118,-89,-63,80,-94,42,-100,-107,-63,-73,-88,79,-127,24,93,82,-74,-72,-111,47,-69,15,-44,-38,100,99,68,-62,90,-39,10,-63,-61,-96,-26,6,-82,-91,14,32,-12,-79,25,-35,-130,-111,14,-141,4,-58,-82,27,32,71,32,70,-74,75,-1,-71,107,-66,-121,102,-28,-57,-59,-77,40,1,-16,30,96,-6,-84,-54,25,-37,30,-37,-12,56,21,15,-41,-75,40,47,102,-91,-19,-74,59,-76,-109,36,79,30,84,67,-44,47,-46,-107,-31,-83,-88,8,19,-57,11,108,-53,-37,58,-56,-64,39,63,23,20,26,-94,-4,-53,-111,-17,-72,-58,112,68,-63,-22,-44,67,-6,-7,82,-103,-54,-30,-37,-106,65,36,55,24,-95,-27,28,-11,-56,64,8,54,81,100,-87,-31,31,-84,55,29,-9,-21
,-55,44,-74,-22,-117,46,-91,43,2,-95,96,-142,-26,82,-49,-107,20,102,75,-12,-33,-144,-37,100,10,-117,41,-93,-78,-108,-104,5,-132,-20,28,33,-18,55,-28,-12,68,-25,-101,-70,22,56,-35,-99,40,-126,-66,-2,33,-112,-19,-38,67,-112,-75,-123,-40,85,-81,-87,11,9,-12,16,-16,6,44,-106,-16,-114,69,-24,-126,-10,47,31,-18,-35,6,-83,17,35,23,31,-18,74,-49,-57,12,-121,37,-12,-86,18,-110,-95,-55,-96,40,55,55,21,15,99,2,-79,-89,31,70,-65,5,68,12,52,-59,48,-122,79,24,55,66,-132,35,-67,3,69,-65,-94,80,13,-39,56,-21,1,18,-116,-20,-74,6,-108,14,-123,-80,-54,-48,-81,-6,54,-31,-23,6,37,39,45,-113,-65,83,51,-110,-42,16,26,11,-73,29,-111,-9,-114,70,-98,96,29,28,-96,-5,85,-76,-123,-35,51,67,36,103,-103,63,91,-60,81,-93,-76,3,-68,-72,-136,-33,66,3,18,-6,47,51,0,126,92,75,52,-91,33,39,-73,-125,-110,-8,-40,12,57
,11,-97,96,-28,-46,34,-73,-50,-43,93,-26,79,1,23,-61,-87,-50,-66,30,-7,-175,-82,-126,-131,-59,-75,-71,64,-130,-120,-8,-108,7,-2,50,-76,-32,-130,-36,67,59,-51,-58,25,27,-84,-71,77,-7,-17,115,-111,-13,22,-58,-139,28,-89,-112,-26,45,-82,37,-114,-90,-35,64,43,-73,75,2,-1,15,-23,-137,10,-100,-94,-137,22,-107,-88,-98,42,-112,-115,-71,54,38,-53,-53,38,-3,86,38,61,-71,-92,-83,-8,36,5,-39,-29,-127,63,83,-30,24,4,67,-73,-82,-62,69,-6,-24,45,-125,-34,20,-16,31,3,79,-69,1,-16,77,-39,-9,-33,4,-129,18,37,-88,-94,54,71,-103,-54,-131,-54,-54,-108,67,-95,-79,12,-72,-94,-1,33,-94,75,-55,4,14,27,-26,-87,-62,-59,-56,-56,68,78,75,-143,128,16,-167,75,13,-41,78,140,-137,98,42,13,50,-4,23,43,59,-95,11,-9,37,-152,93,-141,-23,117,16,106,37,82,57,-17,4,-44,162,98,78,57,115,104,46,17,34,-90,-59,-64,13,44,64,21
,-17,100,40,-60,-56,-126,-112,109,-36,-6,-94,-91,-85,33,-119,-152,16,12,44,-38,68,-178,-25,-119,35,50,-136,34,-134,-93,-113,-92,-38,-138,-6,-102,-158,-24,-80,-167,25,-92,-163,32,-217,-168,50,-182,-105,35,-31,-175,73,-47,-7,-112,-76,-111,-39,-87,-118,-30,-180,47,-138,8,-151,25,65,-50,20,-67,30,-6,81,-123,20,-88,-186,35,60,-103,90,85,-62,-36,9,-127,75,5,14,-47,52,19,-113,103,-31,-129,122,-57,52,-44,-76,-21,42,-49,52,37,-98,-53,55,-104,6,-39,-127,-124,-62,-90,29,61,-123,6,-50,33,-13,-87,-78,10,57,-91,-46,40,-79,-97,57,-103,-51,-123,-25,88,-5,-142,65,-70,-154,-96,-48,66,83,-18,64,-75,2,-95,-2,-55,-3,71,-45,-70,-128,15,-93,88,9,-162,12,53,46,-36,-13,-1,-73,26,-132,-28,111,-74,-108,-57,-148,-10,-60,-63,-10,71,-159,47,-135,-32,64,7,-116,-8,43,-118,91,-22,-153,19,-127,-138,-61,-38,-54,-34,-12,-34,111,-24,-33,19,9,-77,93,-27,70,43,-89,-24
,36,-155,14,-88,2,-90,-81,-120,8,66,24,-19,-57,31,84,-20,-32,-51,100,73,-104,96,95,29,-72,-101,-120,23,-50,-60,10,-34,-35,-96,-98,-153,-94,-13,-115,9,-48,0,6,-70,-5,-23,19,38,-69,-49,74,59,-9,2,41,2,118,-35,34,20,-22,74,12,9,-95,92,14,42,160,51,-50,160,55,6,106,-77,90,21,-162,84,80,32,35,82,-28,-124,79,-97,-86,-80,-124,65,-84,-73,83,-113,33,-127,-79,18,96,-127,-172,4,-61,9,77,-40,14,70,-101,22,-8,-71,-89,66,-118,-119,-48,-128,-27,39,-138,17,-52,-146,-74,29,-21,-139,-20,-10,-138,-86,58,-11,-77,-90,25,-146,90,6,-3,-93,69,-155,14,-77,-52,36,-56,-97,-74,-5,30,-55,-26,-21,-104,-100,-41,48,-77,-125,-160,-92,-40,-3,44,31,-97,69,61,-28,64,-89,-52,-37,-15,-7,29,-34,64,-53,-83,43,78,-119,-5,78,16,-31,-55,31,31,-116,31,-19,76,29,75,-96,-156,24,-51,17,-37,0,40,-32,-11,3,-17,-118,-88,-76,119,-5,4,61
,120,-97,-67,16,-131,-38,70,-121,-38,80,-144,-70,202,-107,115,163,30,42,146,40,78,56,28,-72,-2,62,-117,86,-90,95,153,-38,-43,50,-43,-112,28,78,46,130,-11,2,33,-87,124,-63,-54,38,83,37,-69,68,86,-93,50,60,-23,-40,-24,40,32,9,26,-32,-81,3,35,45,112,52,-124,-96,-46,-74,26,22,-94,-38,74,-114,48,-43,-1,99,100,-18,54,-14,55,-133,4,23,23,81,59,-5,-20,73,26,110,63,-102,96,-93,-123,98,2,-157,79,-85,-33,9,-127,41,73,59,12,88,-12,17,-37,-93,57,100,5,119,15,33,-115,49,6,86,-69,-41,40,7,-55,6,45,-109,-22,-43,-155,17,59,-70,38,147,-96,-63,144,-144,-39,14,-114,-54,142,-111,-25,101,42,139,21,-91,-43,-62,-161,-118,100,-129,-101,-48,-123,-22,78,21,50,66,-18,105,28,-22,88,30,2,-117,-31,-141,-61,53,-100,47,32,-88,-100,90,-145,-119,-9,-59,2,137,-158,-1,-91,60,-84,14,77,-66,79,58,18,-62,46,-82,-32,-17,49,-40
,75,65,-1,-9,12,-38,-18,49,78,-119,102,94,-63,84,-75,-53,-23,94,-60,-35,-90,-36,92,-103,-29,-35,41,33,-101,57,-28,64,-90,30,73,-79,-5,95,-222,-35,94,-74,92,-44,-33,27,-72,-163,-1,37,48,111,52,30,93,63,-74,23,-52,-118,-84,-95,75,97,-14,54,58,-10,-59,71,-107,-65,80,-32,-87,-109,64,5,-25,-137,50,-120,-1,79,-114,-129,-94,-53,-124,30,91,-46,6,-76,-93,-104,50,-67,-8,94,-62,-129,13,-116,-45,112,-48,-86,-69,-110,-75,6,-39,21,16,19,79,11,-18,-70,13,40,-91,-114,-59,-29,-123,-100,132,-16,67,59,-66,-66,-72,9,-118,109,12,0,95,-20,99,-19,13,-94,71,-106,88,-96,83,7,-7,77,-87,53,-31,24,-37,-65,-49,22,-37,111,-113,-127,59,-90,46,-96,-168,53,51,-50,86,-52,-75,68,84,-136,-95,-86,-198,60,26,-125,51,62,-43,-57,-103,-139,18,68,5,98,-24,-79,-17,-63,-74,-80,-10,-40,79,138,175,-26,95,104,111,90,-109,66,-39,-134,110,81,20,81
,-45,79,-17,-162,45,-130,-14,-49,-111,-7,54,-77,-121,63,-92,22,-90,-4,-9,58,41,-30,84,-105,-123,-88,-50,67,-1,76,-128,-102,-72,49,30,-76,0,-80,-117,5,-2,-58,-154,-23,-151,-54,4,-204,12,83,-61,-38,-90,8,3,8,-46,-80,-115,-7,-23,-26,142,45,-103,50,-99,18,56,46,82,42,-64,14,-8,-58,94,-145,-36,59,-171,47,64,-119,-122,78,52,6,-73,-93,47,38,-45,-6,6,65,54,32,-104,51,61,-63,-109,31,-150,-47,-63,-99,26,-48,-108,-112,97,59,-120,-49,-11,40,74,67,-16,-57,-64,45,46,-19,40,44,-91,-65,-26,-74,-42,98,-47,-119,40,84,-118,-71,63,-92,-121,-19,-36,-126,-24,54,63,-91,-8,62,73,-115,-14,-135,-83,-41,-136,-27,-60,-8,-47,77,-46,6,-89,-41,-141,58,-70,-97,41,-148,-89,73,-51,3,11,10,-33,-120,12,-103,-65,-110,-9,25,41,-83,40,34,-75,54,-77,-46,-60,-150,-108,24,-24,-10,58,-110,50,-18,-107,-149,-38,-80,45,-52,-32,-98,65,-153,31,-30,-88,-141
,-48,86,58,32,-5,-44,84,-128,-153,-84,-15,-92,-223,-57,31,-59,-13,-110,-49,-4,-124,-103,-12,-113,-232,80,27,-235,17,88,-195,-66,-114,-135,-69,-156,-97,56,12,-35,-66,-149,-140,26,31,-101,-91,-119,-126,-142,-134,-24,-118,95,1,-83,-109,-53,23,-106,-103,-21,-132,21,24,-90,-44,-150,38,-46,-30,13,-61,-139,-60,-187,-26,-165,-151,-83,-26,-63,-117,-57,-139,-13,-96,-107,-82,34,-160,17,-54,-90,4,-40,-58,55,-22,-111,18,-85,39,54,48,64,52,9,55,-43,26,-133,-114,17,-27,-2,54,-52,-141,-29,-3,-36,-28,54,8,-11,-16,-114,102,-103,27,71,-100,-131,-49,-21,63,50,-111,-37,8,36,-48,-96,-65,14,39,55,22,-125,-5,-20,-148,-5,40,-93,-58,-103,70,-115,49,-39,72,-21,58,-22,33,67,71,35,80,7,-95,-46,29,43,133,-40,41,-71,-34,-49,-13,7,-53,31,14,28,-53,83,-63,-25,-70,31,-126,-11,41,14,1,33,34,72,51,3,-40,61,18,77,-118,-10,61,-5,29,-131,-137,87,21,-19,31,-118
,-250,1,164,-41,76,81,17,-23,-32,-162,61,110,-142,-51,123,-146,-51,-106,30,59,44,-33,22,113,-172,0,-70,-17,95,-9,-85,-59,27,-108,-88,-32,-99,2,-195,-12,-69,-110,29,41,43,11,8,-139,-185,49,-55,-132,41,-117,-191,90,-8,-83,-59,-81,-73,-109,81,-169,-26,-94,7,-58,-146,-15,-20,-96,-152,-10,67,-170,3,22,-194,-53,20,-195,-7,49,-137,-140,52,32,-85,-15,-77,-13,-90,-154,-90,16,-123,2,-63,-67,32,4,-62,31,-193,-74,-27,-46,-164,-28,-201,-196,-141,-151,15,0,-225,-212,-118,-183,-36,1,-188,-144,-108,-32,-98,63,-86,-159,85,-89,-185,84,-104,-81,-127,-108,-245,-110,-18,-138,-4,-95,-44,-26,-73,-224,-133,-153,-21,-95,-112,-222,-121,-14,-194,84,37,-166,30,-140,-196,39,-73,-92,-52,9,-181,-59,-33,-117,0,48,-176,3,-87,-137,-3,19,4,-43,-19,-128,-88,117,-209,-54,152,-153,81,83,-70,68,158,-56,60,77,-107,38,168,-156,84,-13,43,-38,-113,67,21,-48,-78,87,147,80,-11,62,82,107,37,1
,17,-6,-84,77,-49,-42,64,-3,-42,111,-32,-38,10,87,-25,14,-103,66,79,12,5,-7,-108,-47,81,-11,27,-93,33,-53,46,-102,23,61,-19,-25,32,22,-82,-87,-26,20,-34,6,0,54,-85,-102,77,81,-95,-4,-78,-89,47,94,7,-76,27,68,111,-3,-17,-24,35,-103,62,3,13,4,12,36,62,56,-67,87,-67,-99,19,-62,-35,-76,-116,-66,84,-49,18,-51,53,-39,-56,-83,23,46,13,-80,112,27,94,59,-47,18,104,67,22,-82,-27,0,-54,49,-83,-29,74,-8,82,-83,-104,-73,47,3,91,-73,56,-46,69,-17,55,-4,10,-65,-50,28,25,-54,35,48,-73,-98,-43,-104,-92,-46,-36,-1,-64,-39,56,9,-39,-63,-60,-49,-69,-46,45,-35,42,-52,-29,-72,106,-109,-23,-108,80,-6,-78,-98,-50,-71,-79,64,47,6,-83,-11,-90,35,69,93,-38,98,-108,9,64,-100,10,101,27,39,-39,14,-61,-89,92,-85,-112,108,6,43,0,-42,-22,60,-51,62,91,-58,21,40,63,-4,95,54,82,-85,4,79,59,-4
,-124,-98,-34,-58,-44,40,69,3,50,23,19,-17,60,-47,26,4,57,58,54,-70,-43,-54,-4,-63,5,52,-7,43,-21,43,-83,49,5,48,54,70,-48,37,6,58,28,-47,-99,-55,14,-46,-30,-61,78,14,29,14,-55,-35,-91,21,-44,21,56,56,-5,-76,41,-84,91,0,-44,14,-57,47,-66,-63,-153,52,-56,-42,-32,0,-93,34,60,-180,-54,60,-165,-87,22,-180,30,-96,29,-62,96,-80,-62,-53,-91,-50,1,-49,-10,35,-112,76,-96,-58,-65,-40,-45,-14,-24,-147,-2,-16,-140,36,-50,-154,-89,-135,-109,-112,-105,-73,60,-40,-42,29,-28,-123,-13,-40,-160,-12,9,6,-53,-69,-138,-27,-100,68,4,81,-149,-101,-21,-137,17,36,-80,-81,-33,-30,-35,-30,-70,-99,3,34,26,8,17,-34,-119,-112,-36,50,-71,-73,-15,10,18,-125,-106,20,-14,85,41,-83,11,-131,50,-80,-25,-69,49,-48,36,16,-95,-102,56,60,-16,42,-62,26,43,91,-99,7,3,27,-110,11,6,-50,-50,-132,-121,36,-123,-115,-1,68,-101,108,-101,97
,-91,-14,-52,-93,27,-117,-59,9,-84,-68,44,-38,27,20,29,-32,-2,-21,-42,-107,-94,22,-23,-40,-53,10,-30,24,-10,40,-47,45,-11,52,-79,90,-17,63,-76,-65,27,-96,-112,-66,30,-23,-1,25,10,-47,-66,32,-59,15,-63,52,43,-109,-63,-69,105,2,-19,-71,-54,-124,-36,-68,-131,60,7,-85,-47,72,-43,28,-76,-120,71,79,-70,-64,30,-82,-105,-20,-76,53,24,-18,-44,-86,86,65,-130,-44,-68,34,-40,-51,-25,15,43,5,-53,-32,-58,-99,-19,25,-35,-44,-115,-74,43,-123,-97,71,-70,-110,0,-51,-4,-63,-49,20,-25,71,-84,64,-87,76,94,64,-47,-27,-40,7,58,-18,9,2,51,-56,-60,61,-106,-1,-93,-33,-77,-66,-73,7,47,-13,-3,81,72,38,-12,-99,89,-95,-108,-38,-13,-41,-80,-132,90,-17,11,-114,74,11,-51,-13,-64,-5,-23,59,-110,91,-87,48,53,30,-132,42,-87,54,37,-95,68,-17,-121,-110,-19,-11,-130,-55,39,73,47,-81,42,-39,55,-4,75,-19,-27,40,-112,71,110,89,-91,6
,-94,4,66,52,7,27,45,60,12,-3,-48,33,-43,-127,-49,24,82,50,-113,21,63,-36,38,-85,-93,19,-84,-34,55,-68,76,-6,-7,23,0,19,-16,-50,-63,-101,74,-114,-93,-80,-66,92,-12,-57,-85,2,68,87,-102,66,-77,11,-15,-111,-57,-103,-81,-14,4,-96,-20,-23,25,-117,12,-107,18,99,-71,66,-57,15,71,-108,-106,-27,-125,80,-38,64,89,-30,-34,28,-30,-69,72,52,28,-5,-94,-51,94,36,37,60,37,-109,-102,-135,-11,-43,34,-30,-19,-62,68,-5,9,36,-76,31,-31,-28,-23,-102,-59,5,-107,84,-32,-65,-45,65,67,-122,-106,-59,-67,-120,78,-106,50,-116,14,63,-116,-63,-30,-60,-94,37,-9,-53,22,73,23,-128,37,-123,-54,66,40,49,-35,-8,-114,17,-120,55,56,-73,2,95,35,-42,-62,-54,33,25,-2,16,69,61,69,-113,-62,-65,-13,-75,33,-3,-87,-73,-66,-146,-43,67,51,-63,-119,48,-91,-126,34,-26,-21,23,-78,-114,-111,87,48,-96,46,-39,56,-25,-51,39,89,-131,-91,92,61,-112
,38,-37,39,-143,-15,-33,-93,59,14,39,-79,4,10,-38,41,19,-51,14,-78,9,-45,-78,68,-74,33,52,-46,-34,26,-111,98,-63,-52,-18,30,-41,-91,-121,-22,-20,39,-50,-83,22,-116,-60,-3,-15,-109,-71,99,86,-16,7,-33,-26,78,61,-152,-51,26,44,-25,-6,72,-26,-7,4,-69,32,17,-137,-54,39,-141,-85,-20,27,-66,68,0,-17,82,-16,-93,-94,1,66,-38,55,38,41,4,-30,-87,-42,-78,-45,-76,-115,-39,-62,-30,-85,127,7,-75,28,54,-102,-42,99,-11,-79,-23,84,74,13,-25,-96,25,85,-88,22,-89,105,-54,-75,-50,-118,-91,69,-50,80,93,-126,70,74,-111,71,-85,-124,0,-81,21,32,-1,-74,83,-36,-116,-44,-103,-38,37,-86,-36,-80,-50,-90,-96,-52,11,15,-84,60,49,66,27,-9,-63,-163,-101,-85,-100,25,56,-56,63,-74,-117,-14,39,-129,-96,-64,-144,-106,0,-46,17,-48,47,-8,61,13,-23,59,-8,33,-163,9,-18,-94,99,41,-15,76,-16,-112,-98,27,82,-76,-79,-73,-7,59,-49,81
,-180,130,215,-46,127,125,-116,93,58,-143,31,86,-69,-174,24,-142,-74,77,-102,-150,79,-122,14,34,21,-32,7,-30,-62,-74,-102,-200,-59,-145,-104,46,-100,-8,-38,-70,-144,99,-143,-197,-31,-156,-165,28,-68,-125,-158,-222,-151,-5,-72,-190,116,-66,-53,73,-42,-41,-13,-133,-117,85,-156,-43,63,-194,-5,145,-94,-170,-24,-88,-85,-140,-172,4,-198,-168,15,-21,-33,39,-144,-36,-128,-232,-70,96,-264,-145,101,-142,-186,-80,-315,-194,-147,-327,-241,110,-184,-171,74,-173,-107,-63,-219,-118,89,-240,-14,-90,-383,-195,111,-261,-152,36,-145,-160,-19,-288,-163,-4,-275,-321,131,-177,-330,110,-78,-315,12,-67,-319,115,12,-293,65,106,-314,82,9,-229,58,61,-260,-47,114,-159,61,173,-97,108,93,-298,144,96,-141,154,157,-302,84,19,-122,43,-126,-112,-16,-7,-13,39,-99,-144,105,123,-75,-42,70,-147,27,126,-154,122,40,-28,-22,22,-150,5,55,-219,85,22,-8,14,52,-109,-55,172,-52,-174,-72,91,-190,-130,-87,83,46,94,69,189,-199,-81,-177,79
,8,69,92,27,34,25,-88,-124,-94,19,92,-58,55,43,53,59,-39,-40,54,43,-82,-43,-10,-13,-38,-40,-92,3,-101,-22,-92,23,-57,-66,39,-18,55,10,-163,-23,-5,-90,72,-143,42,-59,71,23,19,-133,-5,70,67,42,-50,31,77,-6,-119,-35,27,-100,12,-31,-40,-68,44,-22,98,-42,-76,22,60,27,-41,-22,-82,-129,-73,-143,-29,-59,70,-5,46,-123,78,39,-110,-112,-88,45,-104,-11,-7,29,1,42,38,99,17,-109,30,-104,-7,27,-77,-91,-27,-79,-31,68,-42,-77,9,-127,-87,13,32,-22,103,-26,-103,-45,-81,-5,98,-103,-63,15,-91,-93,116,-41,81,84,-19,31,-11,-73,-107,30,67,-9,66,57,-75,34,-10,-49,77,25,-83,-24,-102,56,14,-130,-35,15,-145,39,-36,-61,12,-99,-14,61,11,76,30,-52,37,53,81,44,40,-37,43,-76,-30,-29,-46,-33,-104,15,-38,91,-62,59,-60,88,-49,-46,73,-123,42,-104,-107,60,60,-75,60,-51,-16,69,-88,28,-40,-57,-75,-138,-59,24,-120,-58,-94,71,60,19
,-25,66,82,-124,-58,92,-106,86,-32,-192,2,-44,-65,64,-243,53,15,-183,-83,-13,-89,43,26,-62,-95,-35,-157,-71,-6,-142,-69,27,32,-119,68,19,-84,17,74,65,7,-36,-50,-9,-45,-102,-58,59,-71,92,-69,-98,36,1,-21,-19,154,31,-37,124,-145,29,58,-106,95,104,-81,1,-131,39,-118,-106,-150,36,-128,-155,-61,-2,34,-86,7,-56,-96,90,23,-21,-10,-16,58,11,18,-111,-109,43,67,17,-113,-11,-86,-48,-91,-44,-3,5,-76,-112,40,-92,6,-121,-164,-64,-6,-191,-84,-106,-80,-112,-62,-118,-59,36,-162,-43,-112,-34,-128,70,-155,-96,-86,-6,46,-77,-34,-22,65,-110,-136,-115,8,18,-134,116,23,-33,-100,-58,-57,-68,-86,71,-92,58,-75,-140,17,-49,-164,-70,3,-66,-60,94,76,-50,-74,-8,-9,34,-97,-100,85,-49,-23,-52,4,-92,-80,-48,-166,6,2,16,-15,5,-143,39,78,-97,12,-6,-103,10,63,11,-34,12,-134,-68,35,-64,19,96,-46,-4,40,76,104,29,-92,58,-119,-106,44,-19,-44,33,10,59
,-59,99,30,106,41,-93,-105,-123,-75,6,-108,9,-28,67,-120,53,-5,78,-17,-52,39,37,-16,-31,-14,40,78,42,-114,-24,52,5,17,-49,-6,-82,-28,-9,-81,-104,96,16,-7,34,91,98,41,55,-10,-119,98,82,-107,-98,74,-110,-121,-95,-93,50,-86,-120,-86,17,85,-21,36,-113,-118,63,-13,50,53,75,86,-79,-36,17,63,-106,-52,57,45,-87,-3,-87,-42,11,26,-9,83,-114,-20,74,14,93,-87,70,2,-114,-110,-73,69,-59,-57,9,97,-115,-47,-79,-91,-15,-70,47,-53,-88,-84,-35,36,51,-32,25,6,55,92,21,-30,63,71,76,15,-124,-34,-89,19,-43,-56,-91,-82,-112,-115,15,95,-8,-108,40,-31,76,-106,-115,-3,54,-25,65,-71,27,-57,-58,46,13,-96,93,-92,-18,43,-85,33,1,-63,33,-98,70,-55,-11,84,60,-54,-39,-23,84,-24,20,-25,95,-50,-66,-49,-68,-35,-98,-29,-12,-52,90,-14,83,60,-89,-36,63,36,-77,-5,6,-99,86,-92,-19,-45,-3,-44,-101,98,-35,-61,-108,101,-51,-78,19
,34,10,31,-46,-41,34,9,-2,-110,88,12,-16,76,21,-79,-38,13,-32,27,-89,40,-12,-48,-5,-117,15,70,-64,78,-40,-62,-55,-84,-40,-86,-108,-107,81,66,-100,92,-41,-27,46,-118,77,-87,13,49,7,102,-64,77,-28,-71,-73,82,63,70,69,-6,-12,29,17,-4,40,-113,32,-39,-135,67,2,-9,24,60,1,-80,-45,-138,16,4,-36,83,-77,-49,-6,78,-145,-124,92,74,-89,102,42,-134,79,-66,-49,-81,-54,-20,-120,-58,68,-43,-20,2,-18,21,-13,-95,38,-53,66,-19,30,90,-35,-26,-36,-4,-4,78,-98,-23,-10,4,-102,-84,-75,-102,-137,-25,41,52,-134,-30,55,-57,-63,-69,-16,16,30,-93,14,-33,3,2,47,-68,16,-50,-108,8,16,-81,-12,-6,4,-55,19,-96,-64,-78,19,-56,-155,76,23,-19,5,-103,26,65,89,25,23,-37,-123,-115,-34,-63,56,-83,26,39,-85,76,-18,-24,-133,46,-70,60,-78,33,-112,13,-73,87,70,-62,86,32,27,-4,1,23,17,-31,-102,103,-42,-30,-48,70,-11,105,3
,-105,-128,-41,-98,27,50,-123,89,-134,52,70,20,20,-103,52,-65,-91,131,-107,-42,7,33,-109,86,76,56,7,10,-12,-53,27,77,-22,37,40,75,-105,29,75,65,39,-146,-110,41,-141,43,-17,6,-90,54,63,38,-97,-111,-48,-59,16,-94,-29,-42,-60,11,-113,-39,-71,-13,-47,71,-9,-127,-110,9,-58,-61,-58,59,-80,34,4,13,20,-37,68,-7,-69,7,25,60,56,-84,-118,44,-58,-82,13,64,36,59,-67,-76,87,-88,-38,-1,-149,-29,24,-125,-81,28,-52,19,-71,-130,-128,-94,-14,31,-50,-43,-23,-126,-120,43,-119,-1,30,-55,-35,-14,-68,-71,-42,78,-164,43,25,-52,-132,85,0,-141,32,-62,-6,29,-21,-118,-7,-136,-81,78,40,9,76,-11,7,-41,-47,39,-1,40,35,64,-26,-95,46,14,-34,-46,-19,31,-92,28,-18,-39,-51,-84,-14,-121,72,-60,53,-17,42,-54,66,-19,-41,-32,-46,66,19,-25,-141,-82,-2,102,-53,50,-127,-125,-75,-85,-49,75,81,27,81,-8,-71,14,-95,-156,-44,-89,-90,-72,-23,67
,-5,-64,46,-65,-81,-110,-55,9,-114,11,-74,-69,-96,-30,-128,97,-1,-158,70,23,-65,81,-73,-84,-39,-23,-137,-58,-62,-126,-117,-49,86,-33,-87,56,47,-99,106,-120,62,-101,-122,71,-108,-144,-70,-38,-52,52,49,-79,86,44,57,-3,-81,-29,-60,78,-142,-45,-84,0,1,-102,27,-47,-75,29,-45,-23,-148,86,-83,7,-1,29,-120,14,33,-27,-90,-130,61,54,-14,44,26,-113,-102,7,-76,55,45,31,-23,67,-25,10,85,-91,-103,-23,-129,-5,42,68,-110,-101,19,-107,-83,105,-69,31,-13,-37,9,-27,-110,68,8,11,-77,100,-65,55,110,22,41,18,82,97,-42,55,115,60,-115,103,-77,-80,-4,-40,-115,29,67,45,32,-97,37,-14,52,-22,-59,-91,-75,24,53,-86,-120,76,-18,-30,33,98,-46,69,109,-73,103,1,-80,-29,77,-93,-10,10,-94,-49,71,-87,13,7,-118,44,36,-110,29,83,-86,-151,34,68,-8,-24,-63,70,94,82,66,-39,-72,57,-49,-30,122,-18,-78,-40,-87,-51,-12,121,72,119,46,-67,119,-62
,-14,-30,-51,23,-38,-83,-53,-6,69,60,-23,-21,85,-58,19,45,-11,8,-98,-26,68,11,-64,59,76,34,-88,50,7,-63,-32,55,56,-113,99,51,-90,2,-114,56,24,-87,-132,-109,47,-94,-10,6,17,78,87,-45,-76,74,-142,-58,-58,24,-33,-93,-21,-25,79,-34,11,-80,23,17,-17,-13,5,41,-82,-26,-62,-71,-102,-27,31,-20,61,-50,38,80,-90,74,-10,55,-109,-21,11,-115,54,-96,58,-20,-13,44,-75,96,-117,-37,19,-73,-36,-109,-21,53,-75,92,-91,90,-111,29,71,24,-57,-68,-91,-61,-82,33,70,34,-78,90,7,-5,3,-90,3,-110,-90,37,85,-23,-55,7,3,22,-3,-43,13,67,-35,66,-41,67,-116,-117,-64,50,-11,-57,-33,-83,-13,52,-122,53,43,-32,2,-30,48,-56,-115,-70,-71,68,-80,11,-122,-71,-105,56,19,-108,-105,38,65,81,71,-9,-4,64,-114,-87,-33,64,-47,-60,-65,4,50,12,40,67,53,-68,-86,-52,-58,-34,-93,21,-67,-76,30,45,-58,-69,80,-117,92,35,34,9,-56,-112
,98,66,-81,13,-51,-75,63,-59,12,-102,-55,-26,52,31,46,38,62,-77,-12,-25,-97,-42,-36,30,-104,-117,-72,58,-91,53,-16,25,73,-12,-89,-13,-93,-15,59,-112,-47,-44,-61,72,33,-48,-71,-123,20,-63,92,32,-16,40,16,-113,46,-58,102,-60,91,46,13,-80,47,100,-44,-78,25,34,-30,-87,34,99,-109,7,-33,-45,23,14,-7,-109,-80,72,-3,28,8,-93,15,-108,-49,50,34,7,-17,-115,41,-14,73,51,-35,24,90,56,81,-34,63,-81,-52,-42,39,-60,67,47,73,-81,100,28,-114,-35,-16,-101,-18,-78,-88,26,92,-12,32,-90,-71,-103,-48,48,-107,-20,-120,-127,-29,-43,14,4,-38,1,85,82,-53,-1,19,-25,-63,-28,0,64,13,-26,93,65,51,15,-99,-112,-77,-52,-12,-77,71,28,-82,41,-37,-82,44,-116,-6,-63,80,0,-39,-16,26,-8,-8,23,-43,-24,-34,-108,43,-99,17,-5,-115,-10,-55,101,-93,-104,-103,-77,12,-107,92,68,34,-50,-86,100,-98,-106,22,0,89,-24,-26,65,-62,-111,-62,2
,-71,-30,22,-97,30,-85,-118,-141,-17,98,-66,-10,-76,65,81,6,-62,64,-35,-72,104,-22,98,202,-46,37,-7,-34,-82,2,88,47,21,31,4,4,-26,42,34,42,83,80,81,-61,-54,-59,-36,-76,51,55,8,24,-113,77,-29,-6,164,-102,2,-137,-82,-5,-316,-33,107,-203,1,-16,-237,-1,-38,-213,-176,109,-287,-152,81,-391,-171,-55,-220,-16,-65,-147,-59,-40,-262,12,-104,-216,-160,-136,-209,-72,-124,-59,-113,30,-63,-146,-2,-206,-148,-105,-121,-42,-19,-124,-105,43,-65,-57,24,-106,-50,-144,-2,-23,61,-48,-146,-14,-109,-100,2,-145,10,27,84,-178,-10,-57,-41,-121,-78,-128,42,67,-81,-69,-53,-86,-128,-3,28,54,101,-173,25,118,-139,24,156,-55,-89,-27,-11,-89,103,-173,-61,9,20,-37,109,48,-8,-46,-57,-75,-153,-7,16,6,-147,22,-87,-33,-58,85,-59,-69,-35,6,-151,-74,40,-78,8,-83,-145,-34,-22,-70,-64,46,-73,-3,81,-161,-2,81,-37,-68,62,57,-16,55,-95,70,119,-36,28,-98,-52,-7,54,-48,80,-43
,67,-119,60,-33,40,83,68,-59,35,64,-70,-82,-81,17,28,-102,-10,-106,23,79,25,-107,68,-82,-137,74,4,-120,-26,-116,-129,-35,-37,-62,-122,-97,-19,-88,47,41,69,-67,21,59,-85,14,52,-41,-45,-91,61,-72,16,-47,-117,82,-20,-13,-24,-119,-98,-132,-113,55,25,-110,19,63,84,-20,25,-7,-125,-81,-14,-85,-81,51,-71,-36,76,50,-91,-32,56,-66,-46,-62,-76,67,-82,44,10,27,23,-19,-101,-123,-103,-109,82,50,-101,25,-66,85,-84,-42,-21,-11,2,-98,-45,90,51,-54,-56,33,40,-1,70,-34,0,32,-18,78,-94,-49,-1,47,-7,-69,17,-42,-90,7,-33,36,-91,-124,2,-78,92,61,10,86,88,-7,16,26,68,-82,41,29,-114,-86,-24,17,-58,-27,-131,22,-132,-26,-70,47,-130,-80,-124,37,-51,-61,-119,-23,87,-72,-98,2,-59,-113,20,80,0,-76,44,-82,3,59,-98,42,39,43,-95,-106,-115,48,73,46,46,-108,-57,-6,54,75,89,-12,-79,-9,-94,19,3,-81,38,-72,-47,1,-4,-81,21,50
,-88,-129,-27,-114,0,7,-120,36,-27,-12,-94,-30,-66,-121,-16,-162,39,-114,-183,-13,16,-190,-54,50,-63,21,-124,8,-26,-165,-207,-116,-173,-78,-12,-176,-29,-76,-143,-16,-56,-150,-149,-44,-231,-81,64,-67,-134,-19,42,-98,2,-15,-72,60,-117,-237,105,5,-225,-58,-5,-149,97,-102,-27,-70,-51,-64,18,-82,-33,-44,76,-170,46,13,-35,-35,45,-120,-74,59,-44,101,-61,-158,-19,95,-53,21,45,-239,-61,94,-208,11,103,-31,-70,156,7,-96,128,-61,47,22,-40,47,75,-127,47,-3,-111,-37,76,-26,43,74,-67,56,23,-126,7,-135,33,-17,-119,-62,-52,-246,-104,42,-249,-160,-58,-85,-68,-42,-177,-141,-60,-42,54,103,-132,-25,-97,54,-146,110,-91,30,-88,-122,-40,24,-150,-54,-81,-33,-106,11,24,-3,-26,-68,-65,78,-90,-14,79,72,-46,104,-29,-32,13,-111,-82,-59,-39,-16,-89,-54,-36,-48,-29,40,-53,-77,-144,20,-52,-125,-61,11,-80,9,-41,-67,-4,-5,-77,-122,-19,-19,-12,69,-14,-91,-70,82,38,-56,-31,-61,106,35
,-80,66,13,-103,-37,87,-134,20,-59,5,0,56,-82,-119,-86,53,11,128,-141,-38,24,-127,91,76,-7,-11,-63,36,71,44,-21,55,65,-83,-74,108,-127,36,-13,-88,-84,-88,-175,20,-75,-62,87,103,-22,-28,-55,-179,85,17,-105,-75,-124,-16,-17,-25,-55,92,-91,-19,-102,29,-141,-114,-110,-29,86,-59,-186,68,40,-70,75,43,16,14,-48,-18,96,-5,-49,-113,-96,-132,-117,22,-90,28,-5,-129,80,-159,17,69,-13,-96,17,46,-86,-94,-32,-75,87,45,-7,33,-130,-117,43,-126,-24,-36,-36,-148,75,-125,3,29,-81,-134,-89,46,-185,-89,-51,-168,-2,-36,9,-56,-52,38,-141,72,-28,19,-63,-50,39,-76,-14,82,-23,-60,-102,-54,-65,-129,-18,-171,-44,-110,-111,-29,-96,-53,37,11,-137,28,-28,46,32,-56,-139,-124,-26,-62,65,6,-160,-11,10,-144,42,-8,-113,-81,67,1,-73,-118,-142,56,-122,7,49,30,-21,-98,-75,17,-31,65,-109,-7,20,-69,-129,-98,29,-110,-44,-73,-93,-141,14,54,39,41,93,-1,13,-23,-19,-16
,92,-96,-98,-117,66,-6,62,6,-82,59,-64,-129,80,-44,38,-73,-52,-80,-8,-16,-1,-81,-91,95,-60,5,-36,-23,-29,-105,68,-112,-81,94,-82,-65,-78,-30,59,34,-84,5,81,36,55,-72,-15,84,-9,49,86,65,-115,58,-9,-122,31,18,-93,47,-17,-132,-34,31,78,-3,53,-141,-5,58,23,-12,-88,40,35,29,52,-32,-117,-24,57,-17,8,-108,-76,-90,1,-27,-6,-94,30,-142,-15,53,-55,41,-17,-72,-105,-26,-137,22,-71,-19,-87,67,-17,-15,79,18,28,-125,19,-73,-60,-58,-143,-111,22,-127,-100,-38,-154,-122,16,-68,7,6,39,-33,-47,-65,-115,29,-78,47,-28,-146,-123,-66,-103,-12,27,-92,57,-96,-113,-40,28,-151,-19,22,-23,-101,-46,54,-42,11,28,16,-106,5,-44,-123,65,-117,-139,37,13,32,-24,-117,22,88,-9,-116,-7,-94,-122,-64,29,-66,48,67,60,-29,-100,-19,-17,21,41,89,84,-44,-104,-98,29,78,-77,-93,28,-6,-52,-48,-89,-93,97,-46,83,43,-63,-24,-83,88,-27,-126,-91,58,-9,-87
,-4,-66,66,-55,-65,-142,96,-79,-11,-79,-10,52,-75,1,-4,-125,-94,-97,-93,-25,-124,22,-44,-7,-10,-104,4,24,33,17,-36,-135,-64,-103,-43,45,-59,-71,-99,13,-63,48,-68,-39,-97,-27,-53,41,-127,62,45,-58,7,-150,-60,44,-133,16,-35,-170,-29,-71,-49,-60,-18,16,38,64,-18,-102,36,-12,-59,-99,42,-99,-6,55,96,-127,15,-89,-14,-6,-76,19,-2,-12,15,-14,5,-144,-50,38,-114,-4,-64,-33,84,91,55,-65,10,-119,11,69,4,-58,-13,-72,-85,-102,-17,94,-68,-72,-80,70,-128,-49,-45,-81,-39,-98,9,48,78,39,-65,-48,-133,-101,111,-53,-96,12,-34,-17,-10,-138,-130,119,-99,-160,-53,64,-146,-92,-60,-111,-54,-100,67,-67,-142,-111,91,-29,-117,-9,-129,-116,-8,-96,0,-58,-34,24,-98,-15,29,90,68,23,-49,-19,-93,-115,12,34,22,25,-96,48,42,-18,4,-36,-138,55,3,-25,13,-25,52,94,-132,-10,9,-15,-89,10,-92,4,-80,-15,-49,-103,-3,69,-10,-154,-84,63,89,16,26,-90,-43,5
,21,-21,-99,51,15,-36,80,-60,-7,48,8,-57,43,-112,5,-87,51,31,47,10,-47,14,6,-89,24,5,45,-83,-131,21,-132,15,-63,-109,27,-89,-156,-52,-134,-152,15,-90,-85,68,-53,12,-107,25,-14,-5,-15,-128,-117,-109,3,-138,5,-83,15,-86,32,27,19,-74,-147,59,-111,-76,2,31,32,-95,48,15,53,-14,-94,53,63,-21,7,-150,-80,-73,61,-45,-87,-77,-156,8,-122,-88,-135,42,-46,44,73,63,-31,-30,-46,12,-21,-110,-73,44,-9,77,-110,-67,-121,-128,34,-100,-17,-10,25,-88,-145,52,-51,-53,47,19,-41,-58,-109,-130,56,47,45,-3,-118,-48,-103,-51,-17,-69,-108,6,-65,-106,21,-37,33,67,-79,-75,-43,-11,15,-99,-2,-68,10,-76,-95,-45,-34,-75,-108,8,-109,-156,-111,-157,-15,-8,3,-113,20,53,77,-3,-30,7,10,60,-90,69,58,-131,-14,-44,-126,-126,-31,-147,-106,32,-117,-91,-100,-25,77,27,-87,-4,-111,30,-16,50,31,14,43,-48,73,33,-101,-19,-105,44,8,-107,45,35,51,71,-21,11
,-10,12,22,-74,-2,18,-28,5,18,-34,-79,80,-100,18,-123,-114,-137,46,-60,-63,-144,-26,59,-96,-137,-81,-64,-108,-26,-60,-103,1,-44,-80,-43,-51,56,-128,69,-133,-136,37,-60,-77,-116,-122,34,-24,-81,-8,-129,-134,-109,57,-66,-99,-137,46,-134,-133,-117,-91,10,-131,-54,-36,-97,78,-55,58,-29,63,-23,-112,46,13,-81,95,-126,63,58,20,-55,42,-93,-67,46,-72,-15,-50,70,65,31,-85,-54,13,-125,-42,-21,67,67,51,-91,-48,-41,-64,-82,50,-13,27,37,35,71,-88,-62,-76,29,-107,-19,30,27,-5,51,-67,-19,-132,-118,27,-47,-130,69,-63,-102,19,-142,40,-39,-80,-52,43,-10,43,57,41,28,-80,47,58,-74,-31,-38,-95,85,-12,73,53,51,59,-31,-85,76,-115,-133,19,24,38,-108,87,2,29,-9,78,-81,2,0,16,45,-60,-72,-55,42,-48,-24,21,-24,34,-81,7,-49,-127,-125,-80,52,20,86,-149,13,92,-17,-31,-42,-140,-59,68,-67,-6,56,-59,21,15,-118,44,55,53,51,-109,-58,-66,-120,-59
,51,-105,-47,-135,31,-94,-112,-17,73,-49,-63,-76,-60,-15,-25,64,-40,-112,-103,-129,-76,-89,-116,66,38,-91,-15,77,39,-68,96,4,49,-118,32,-119,56,-50,-116,-71,-54,31,50,-111,-121,20,-81,-3,-97,-128,-1,-19,-126,-107,63,19,-47,-130,-54,-49,-146,-78,78,-66,73,38,8,-67,-138,26,-16,-19,-75,-112,46,-40,-116,-51,41,43,44,-112,-82,74,-88,-54,78,-27,8,-106,45,-68,11,-51,-23,58,-19,76,-68,-44,-36,19,35,46,-41,74,27,-35,33,4,-127,21,6,-61,-62,8,57,-61,-99,-102,4,-118,39,-63,-75,2,-120,-81,-138,10,62,48,-29,44,-123,-76,-28,12,21,-28,-138,-91,-124,-92,-137,33,-35,-123,-50,80,-52,62,-7,-38,-120,15,-42,1,19,57,2,-104,47,-14,-21,42,-11,45,-147,-15,55,-118,29,-78,-37,6,74,12,66,-81,-77,14,-83,43,-12,42,27,-27,-117,-115,-134,-88,-78,-135,-56,-125,-109,-90,0,-59,-97,-32,-57,-1,19,-104,83,-101,24,95,94,-26,-52,39,-13,-41,51,36,-68,-106
,-131,25,-89,-18,20,-94,-24,-15,-123,-6,44,-138,-63,78,-66,1,-135,-106,59,-131,39,-141,53,101,-19,-13,73,-10,6,-159,51,-138,-51,78,-104,-87,-80,-42,-103,-99,-63,-132,66,-20,39,-91,-84,76,74,62,-97,-117,-55,-134,-23,-125,-41,24,-33,-31,-133,-109,-188,38,-74,-44,33,-33,-72,13,-36,57,52,47,-7,-68,-23,-33,-91,64,-102,19,-14,68,-81,-25,-118,-16,2,-67,-122,9,75,-134,70,-53,-105,-75,27,11,-107,-83,-63,-90,-61,39,-3,-36,-78,39,-130,-125,-13,41,-15,-12,-15,-143,43,37,35,69,71,-101,-105,80,-133,-31,64,47,-110,-95,-89,-131,-56,31,-6,38,-126,-17,-28,-42,-107,53,71,24,-113,-17,-37,58,66,-34,-66,-86,-16,-154,-21,-70,-94,-113,-39,-93,-125,-38,50,-73,50,2,-72,-53,18,70,-76,-105,-46,-103,79,61,33,-112,-49,80,-16,-116,77,-128,71,-23,-77,-1,41,-3,-66,-11,55,-122,-43,51,-87,18,-107,-91,-130,-41,104,-52,16,-50,79,-62,70,-34,94,60,-54,-35,-10,-44,-102,13
,-134,24,14,41,-5,54,84,-88,-79,18,-61,25,56,-65,106,-100,-67,63,-23,37,-43,-57,-66,4,24,-19,94,-27,-78,96,-39,67,-86,-142,-63,-90,39,-30,-8,50,-57,29,-96,18,-108,-24,-39,-140,91,-65,42,11,77,-21,-70,26,-84,-75,-82,36,-15,9,-5,-165,82,96,-107,-68,28,-117,55,70,-119,-17,61,-186,-11,-19,-21,-21,11,-16,29,-14,3,-5,-86,-150,-29,58,-2,-41,-80,-70,-13,-23,-190,27,55,-165,46,-98,-164,-87,32,-37,9,-46,-33,29,75,-110,13,30,-35,-42,29,-31,64,35,-39,-74,72,-135,-52,-98,28,-99,-44,-145,82,99,-136,56,24,-95,-39,-73,28,-66,74,-6,8,-40,-63,37,-11,-131,50,-57,24,-98,-31,0,29,-17,-108,-120,-93,-42,-72,-31,23,-84,-101,6,-71,-120,32,-6,8,-104,-70,30,-84,-16,56,-106,20,1,64,6,-14,91,-148,-20,-60,-47,8,48,-97,-17,29,-81,-98,6,0,47,-9,72,-16,-72,-15,-15,15,-105,-84,8,-107,47,30,-102,-23,-19,11,16,-142,-90,-145,31
,-93,-107,44,21,52,-42,-45,-65,57,14,-18,29,-133,13,-46,6,-67,-63,-111,-93,11,48,-107,-28,-126,77,30,-95,12,-112,-101,-90,-46,29,47,-35,-107,66,51,-92,-42,-11,75,1,81,26,37,-87,-131,-37,-78,19,51,-67,94,-102,8,-24,33,-89,-16,-1,-8,81,63,17,-61,13,-15,57,49,70,-32,12,-38,89,-96,-16,50,-68,82,-13,75,-23,-108,-1,38,5,28,55,25,-115,-107,81,-30,-119,54,30,-102,68,93,-126,-26,80,40,64,82,-113,-94,-101,100,-76,39,-95,-78,-54,44,-98,58,-52,-27,62,-57,71,-14,-49,92,-101,-75,-77,-108,-73,50,92,-78,-32,-91,-4,-86,-11,-123,27,85,46,9,-79,-79,-122,-96,100,61,-12,9,-6,-24,31,92,-1,-16,-73,-64,6,-65,-20,-48,-102,-104,-28,-91,-78,-67,40,-89,-48,76,24,-94,61,10,-118,-136,97,-23,15,42,5,-65,-49,27,-126,-80,-69,45,99,54,36,-84,12,-51,14,-12,55,-16,93,-97,-87,58,4,-95,-125,42,35,-92,-65,0,-52,-10,75,-17,32
,80,-31,-87,36,81,-4,21,-117,-138,19,41,59,74,-86,-106,49,20,32,-24,-30,-22,-48,8,-103,-24,-130,-123,-109,-3,44,73,24,25,27,-88,-55,-77,-85,-24,83,-128,-35,4,-68,79,-128,-20,-89,-137,51,10,-140,72,-85,62,-105,-22,-116,-121,-94,-76,-114,71,-122,-90,60,-104,-91,-66,-64,30,-20,6,-64,2,-107,15,-72,-93,-22,46,55,-136,-9,64,-29,-65,-35,-7,48,72,56,-80,-47,-115,30,66,-89,-136,-133,-110,-117,-123,-125,-44,-83,14,-103,-105,-91,-128,4,-19,-100,64,-52,-49,-111,80,-11,18,-75,-135,42,-99,-82,76,-41,-79,-71,-84,-137,-37,8,-63,-79,89,-6,-50,-103,16,-64,-82,10,22,-87,48,-55,-29,-133,-103,-95,-98,-16,27,-118,-25,-26,73,-48,-105,-29,-20,61,-90,42,-104,24,7,7,-117,75,35,53,-91,-108,-100,-2,7,-23,21,4,76,-77,-46,-35,22,12,-51,105,25,52,25,79,-85,62,-39,-73,-53,-49,22,-79,-12,60,2,-96,-104,-8,-26,-22,-95,29,-7,-71,61,-51,24,-2,-57,-45
,-79,61,82,-73,-105,-110,14,30,-8,-78,-15,-89,-45,-46,19,-109,66,14,-100,-110,37,-72,109,-91,-105,-41,-101,-108,111,48,-22,-55,69,-109,-10,-39,50,45,-92,-78,-25,-42,-20,-107,85,80,-42,-25,10,8,-110,-102,1,51,34,18,-65,77,-3,-72,71,73,26,106,100,57,62,-77,-109,49,-70,-99,15,-60,74,73,90,-30,3,95,-109,-108,92,-63,95,46,9,32,64,-69,-90,-19,13,-17,53,91,-34,-103,99,72,-11,47,-108,19,93,-82,47,-40,35,-107,-72,89,35,64,39,-55,97,-35,-18,-86,85,32,-5,-56,-42,35,-14,-39,-76,90,-81,-94,84,97,-5,11,-33,-64,-57,-45,-4,-102,39,-94,-53,30,-109,-52,-15,-50,98,69,44,100,-89,-5,-59,-22,-58,42,10,-43,-70,5,-12,-17,-67,25,-78,-73,-27,-71,-110,17,-15,-99,-45,47,-92,14,-9,-66,1,-109,101,-24,93,32,-67,-100,-24,-99,84,-29,-59,-49,-37,-112,-62,-60,12,68,-15,69,-26,68,21,-102,-44,-58,13,-57,-99,80,-76,-98,30,-61,-56,6
,36,3,137,-21,-131,-65,-23,-152,114,-35,-108,36,-11,99,-95,7,-57,-43,-47,-36,47,-73,7,84,58,89,-18,-26,-80,-65,71,100,-97,-34,-97,-92,85,80,-115,-16,77,-15,22,86,-95,42,0,-32,-71,-124,-42,52,31,98,43,52,-166,107,-76,-119,-30,-125,116,75,-37,28,132,27,-28,-73,-5,113,146,30,89,40,45,102,-42,-1,89,4,49,23,42,48,-110,10,-14,-3,50,-102,-116,10,67,-72,-46,-43,-20,-2,-30,-76,90,-82,57,10,-43,27,-57,-22,25,127,-90,-84,81,44,-163,116,-44,-103,82,24,-73,-74,-61,-75,92,-137,-155,45,-17,100,-1,-127,10,102,-72,7,-66,-107,-26,95,53,28,49,23,57,129,-62,12,94,3,26,-61,-19,-41,-69,-108,-64,123,-146,25,105,-154,126,-62,-95,-41,123,-47,84,9,-65,-68,10,-141,-135,105,57,38,-6,-158,46,77,-60,-87,-47,-118,87,77,26,9,135,-126,-25,109,-204,13,0,-130,21,66,-92,57,55,-4,-15,-152,-132,-78,-52,-91,10,85,80,-99,-89,15,-162,-101
,-69,2,-139,-13,16,69,-8,73,-83,9,31,15,48,-34,47,-97,-87,48,58,-98,-32,-143,-97,18,-115,-119,-71,-94,-54,-104,-22,-46,58,-38,34,20,22,-110,-75,-11,-22,-89,70,-63,-141,-24,-52,19,-27,-97,31,-49,-69,-120,-51,54,-115,82,73,31,-102,55,-24,79,-141,-140,-108,58,29,-102,-48,69,100,10,2,8,0,-25,68,45,-20,-17,-34,-1,-40,-17,-8,-48,70,-19,-26,-22,21,59,3,-66,60,-38,39,-61,-19,11,-66,24,-41,-58,-12,40,-29,36,34,62,43,-125,17,-20,-112,106,-134,-85,-3,-141,-25,39,36,-89,70,16,-21,84,-9,-32,-92,-120,28,20,45,-146,58,-133,68,-45,-85,-151,-37,-79,-49,0,60,4,-51,-13,-76,87,-107,-60,28,29,66,-85,-142,4,22,-67,27,-46,-25,44,-89,-95,-93,-59,4,25,-51,17,-41,26,-76,26,-49,-133,-128,-56,-108,-102,-114,-19,-47,-7,-46,79,-87,-25,7,-17,-141,-118,-56,-63,-114,-115,-22,-98,-113,92,36,-98,-85,-27,49,-43,-76,-53,70,-88,-133,-16,63,-2
,-113,-92,-136,-118,10,4,-46,-2,-24,17,-73,-4,24,46,12,-126,-7,13,80,-29,74,61,12,-21,-23,-26,-108,-118,-117,3,-112,-100,46,-102,-36,-2,86,43,26,-113,74,-25,-81,-80,-20,-16,38,66,81,46,27,-32,70,-91,32,-135,-109,59,-6,-62,22,-69,14,78,-36,-98,43,-1,-20,65,-120,-31,82,-58,-125,-105,30,-76,-117,-54,34,-21,6,-18,-108,40,-99,-57,-137,68,-27,43,-10,33,-12,-25,-14,-9,-45,48,-16,21,-58,-96,4,-17,-40,-5,-86,-92,11,33,81,-111,51,-113,80,-104,8,-124,-77,-50,64,-12,-8,-9,-46,21,-94,92,-1,-36,-91,73,-121,73,-106,-57,-89,52,-53,82,-104,-114,92,-18,47,-15,58,-95,-58,-111,-56,74,-86,-87,66,-16,22,64,-82,77,16,56,51,77,3,79,3,49,-86,-41,-50,76,-14,78,-125,-72,33,2,-108,41,66,83,48,-58,-47,78,-18,16,80,-69,57,-67,46,-113,56,-115,77,-127,5,-129,-71,-52,-50,-67,88,44,87,-95,-98,-61,-29,41,82,80,-20,-15,39,-111
,-9,66,6,-100,62,-29,-43,-147,-109,59,-122,43,-86,-52,34,-24,-31,94,-46,-120,-26,-77,85,-108,-21,5,-12,33,40,28,-45,48,76,-53,29,-16,12,57,-110,-46,-102,-41,61,-88,50,-46,-14,-30,66,-27,71,1,-109,-102,-40,8,8,-87,-47,-41,46,-57,-38,-29,70,74,-55,10,-3,-49,-38,4,59,-44,-107,55,-45,95,66,-35,-10,-72,61,-139,-12,-18,59,-42,-67,46,-16,-53,22,-104,-37,8,-146,65,-34,51,9,-53,-72,-94,-73,-57,-34,-109,-134,-49,-53,-6,-118,-73,16,-49,-105,19,-11,-103,-68,24,-3,34,63,-125,-1,-13,-3,42,-22,-7,-34,-68,52,-56,-66,-121,44,-125,22,-116,-1,-46,10,-31,49,-17,-84,-43,59,77,55,-87,47,41,42,-60,-6,69,-50,67,-132,38,23,-99,-108,-83,46,-40,-104,-94,-31,36,27,-29,-125,-135,13,-110,-84,-53,-106,17,43,-26,-25,44,5,-33,-30,77,-42,-30,85,2,75,-93,-77,-141,5,-147,-16,78,-11,-44,100,23,-118,82,-96,-90,93,-115,-14,-114,58,67,101,27
,-78,47,-74,-30,-55,0,93,-45,64,-79,11,31,-21,-39,-32,-42,-74,-26,32,-73,-51,-77,-57,-97,-50,-87,-73,4,-76,3,77,-112,-125,-115,-88,42,-66,-45,-27,-10,-68,41,-103,-132,-42,39,42,8,-17,27,-62,74,-21,-9,-88,44,-85,90,-134,-7,-47,-130,17,-125,59,-83,-13,23,17,-116,36,-107,-88,66,-135,-123,8,-38,29,-73,-139,-30,-81,10,50,-9,-146,82,-128,41,-72,-43,-124,10,-112,-95,-28,50,-2,86,33,21,84,-96,-15,-27,-64,25,-90,-47,-146,58,-56,-16,-71,-89,49,-56,66,31,67,-91,-113,-123,-123,-68,-98,72,-34,-117,-105,-59,-36,15,-135,-137,-137,-162,65,-96,-96,85,-37,-50,46,67,9,47,74,-32,-15,-78,16,-16,46,-48,71,-69,-11,-35,81,34,-4,-17,-44,-15,-15,-68,0,-36,8,-107,46,-159,-72,56,-39,8,-79,-147,-52,-26,-106,37,56,-75,98,-54,23,11,-7,-96,-3,-42,39,9,-1,14,-23,-133,-22,88,-158,-83,-73,123,-18,-61,27,76,-100,-143,-97,12,-5,45,67,38,-49,-6
,-127,-77,54,-74,-129,62,65,-134,9,-128,-28,-96,-11,-94,-72,28,60,-10,-103,50,7,-89,-103,-106,65,-77,-159,34,43,32,-11,-24,17,-50,-115,9,-107,72,33,-51,73,-67,-106,36,119,-107,38,-67,-106,60,-153,66,1,-72,67,92,44,-133,-81,-155,15,69,-8,-100,37,-60,14,102,-93,-87,-80,61,55,-4,59,52,-88,19,5,-45,-55,57,77,-85,13,-65,-118,-118,-91,-33,-125,-45,-113,-13,-114,0,-4,81,-114,-9,-8,-8,71,-59,-70,-69,91,16,71,-36,-82,3,-91,66,-70,40,88,57,-55,81,-17,-133,61,58,-54,-94,-85,-74,9,62,-61,24,-47,60,-74,-86,5,-122,-55,-7,-52,-96,-9,51,62,43,67,-71,-34,93,-28,-21,-83,-46,-86,58,18,-68,-72,-48,-80,12,-103,-23,-83,-22,-90,93,81,-113,54,4,-108,36,37,-30,18,-119,-56,-57,8,45,21,-55,-90,-41,-117,-6,-36,82,-120,-37,-4,-71,-139,-49,-129,-131,-94,-77,-36,43,55,-42,-92,-94,-50,37,-70,-23,48,65,-95,21,50,62,-6,-37,-88,39
,-40,-40,-7,50,64,51,-30,-19,89,18,-22,21,2,-15,-21,-162,107,66,14,69,35,2,-37,-40,-17,-10,41,-83,40,-52,23,-20,-153,-154,-58,112,-137,-56,-72,-91,16,-12,-45,3,27,36,-138,67,2,9,-101,48,-107,84,-51,-35,63,-27,-38,-24,-121,-87,1,-110,-67,28,-54,-10,65,-134,65,-149,-53,16,-19,-77,-59,28,-19,95,51,-72,-3,69,-110,48,-72,-3,-98,-143,-57,24,-134,31,-29,-38,-22,-55,-85,-168,-30,20,-15,-82,13,-80,-8,-123,-81,-69,-12,-37,-7,15,-47,45,75,26,82,-64,-44,27,-109,-14,34,21,-138,55,-21,-47,59,-106,44,-81,-10,-40,-28,-49,-159,-49,-123,-136,-83,43,-132,71,-9,-17,46,5,-9,43,24,-70,51,-58,73,-12,-71,-106,-59,40,-61,-82,61,20,-37,-58,-6,13,-129,-68,-68,-13,-79,-100,-106,-34,65,-82,54,-73,-19,-141,-127,-4,-60,-121,-70,-150,83,-18,-36,95,63,44,-29,-75,-5,-103,71,-129,20,53,-81,36,-108,-25,-60,-136,-5,-1,15,-24,-57,-26,-26,-8,43,118
,14,-108,61,-123,2,119,-83,-94,36,-124,14,99,-78,-204,-10,43,-127,-198,-91,-23,-76,-126,-45,-92,-63,-54,-155,-76,-53,17,-37,-172,34,-93,-156,6,-184,-198,168,-52,-90,105,-48,-117,144,-77,-208,170,-118,-159,67,-89,-90,-4,-35,-113,-37,-128,-158,125,-171,-153,37,-151,-169,85,-20,12,190,-78,-5,136,-188,-63,152,-226,77,-79,-216,-81,-76,-79,75,-167,-172,-213,-175,-122,-48,-96,-61,-110,-106,-72,-32,-73,-249,95,-32,-230,11,-204,-260,-65,-183,-257,-23,-303,-216,25,-320,-111,-20,-176,-139,99,-114,-211,-5,-146,-217,40,-154,-222,45,-88,-218,99,73,-135,-105,159,-70,-112,147,-165,49,89,-137,10,105,-78,-38,-58,-141,26,-108,-55,27,-173,-154,-112,-11,-174,33,-36,-77,-58,-95,-199,88,-54,-114,15,-81,-225,43,40,-75,-19,-102,-3,-21,-81,-9,146,9,-133,19,-39,-56,93,-92,-13,83,-49,-78,-28,-152,-60,107,-57,-63,-35,73,2,-47,61,-1,-30,32,-74,63,51,146,163,4,-26,134,28,21,53,119,-28,-42,20,20,21,-45,-2
,-51,-17,70,-65,88,38,-25,-65,-94,-26,-2,41,-63,-18,6,-69,-118,12,56,-69,-122,-18,21,-129,-126,-55,-35,77,90,-90,30,-14,80,-29,-2,-19,61,63,16,-59,77,48,-119,90,-26,98,-96,13,16,65,78,82,-75,51,48,-102,30,97,-106,-124,6,13,-44,-105,57,-136,-55,21,44,55,-103,85,-97,-124,94,46,3,-9,-3,-53,-71,-22,-132,24,35,-26,-99,-82,-16,-122,67,-46,4,73,-77,-66,77,-21,-94,26,-24,-16,12,53,27,67,-119,34,-7,-130,-4,-107,59,-41,-58,-127,-130,-53,42,-101,-22,-134,-29,-60,-48,25,89,-50,-47,43,-37,-127,-104,4,-50,-99,-2,12,84,-16,-155,51,9,-168,-88,79,-77,-74,21,0,-110,79,80,94,-133,46,-86,-7,-19,-53,-19,-58,85,-91,-104,-22,27,-7,-97,-35,-43,-70,-111,-77,65,56,-48,-51,6,44,-35,60,73,-28,-33,-103,-59,33,5,-35,-1,-82,56,3,27,-91,-82,-77,87,73,77,-89,34,110,-25,-66,-63,-72,-45,59,-118,-24,97,80,36,-45,-76,-49,6,-134
,-28,12,28,-75,-123,-99,-16,79,-59,37,96,41,-19,18,13,-5,84,-89,-95,86,-71,-148,-48,22,6,-36,83,51,-51,-133,-145,-34,-3,59,14,33,-134,32,-87,-27,-77,-158,-26,64,-33,-58,-101,-113,0,65,70,-110,7,-124,-80,-107,79,41,-59,87,-62,4,-80,-73,83,62,-167,37,102,-36,-114,-36,-29,-40,-105,-98,-35,-76,-69,85,-4,-72,90,-103,21,-112,-175,-112,53,-29,-121,11,-31,-86,-9,62,-160,-51,-103,38,-137,99,-25,30,-53,25,7,-31,-95,-61,45,36,-61,21,29,33,-43,-77,-70,46,-7,39,14,-24,-86,17,-82,77,82,-110,74,8,30,53,100,-7,-123,33,-106,33,24,-134,59,-35,-130,-12,20,-110,-37,-26,-3,-55,-52,29,-9,-92,-54,-10,-114,-135,3,-129,-128,72,-71,28,46,-96,-110,-90,-93,-32,-87,-166,-2,12,-122,-162,-36,-104,-53,-90,-112,-122,-122,-110,-39,23,68,54,-36,-96,32,13,-64,23,-74,-89,-35,-7,-17,-18,-110,-105,100,32,140,-136,-13,117,-56,22,-17,37,-4,31,63,28,130,-58
,-118,-45,-94,71,-20,-27,41,-14,7,-22,12,78,-1,-1,4,7,-90,46,-90,-55,62,-73,-21,53,26,-3,-39,82,-38,-44,84,51,98,-135,-10,101,56,79,-45,20,21,54,-29,-133,62,-33,57,-72,-93,14,-96,-92,-29,-41,-10,32,-83,-9,38,107,-48,-27,0,61,-67,35,52,50,-67,72,-16,99,33,14,-19,-62,-105,10,35,54,47,72,-116,85,-110,-18,98,-38,-82,25,-100,-8,56,-22,-25,-37,96,-46,140,25,-11,-38,-25,8,-28,67,-132,-103,-63,-27,-120,47,-96,-87,81,-23,-5,50,67,-119,35,11,-53,-24,-136,31,38,-113,-35,17,-20,9,44,-126,54,39,-18,-15,10,17,30,12,3,-4,30,74,-87,-29,-119,-136,10,74,-150,-95,68,80,28,-3,-84,84,-10,-106,-68,-6,-1,-55,7,12,65,16,-109,128,13,-193,64,8,-125,108,-155,-114,36,70,-48,36,107,5,-36,-20,14,70,17,59,24,79,-46,85,-61,6,-38,6,-1,-35,84,-118,83,-37,-41,-25,18,76,30,-54,-16,94,-66,-3,30,-40,-32,37
,-101,-53,-99,77,12,-87,-29,-100,-29,-116,-2,-127,-62,-4,75,-86,-88,38,11,-153,75,-90,-36,-5,79,-122,-98,-48,-57,-9,30,-93,10,-128,-126,-16,73,-68,-91,57,-78,37,-95,-12,95,-46,-15,-34,-130,61,97,-13,-53,-44,-28,-27,1,-45,56,25,19,-128,86,-87,37,70,-14,-76,-115,-30,19,-60,-29,-141,-113,-130,55,-157,-42,-137,-124,-8,-58,10,-4,-16,89,-1,38,-65,-39,6,-97,72,-119,-68,-77,-30,-121,0,57,6,-31,-53,73,84,-70,6,-9,49,-146,-20,23,-95,-19,-61,-162,-26,-112,-24,49,-16,-62,-92,-102,32,84,-70,-206,-105,-22,-162,-120,34,-137,-23,59,-153,49,12,28,-92,-11,-130,-46,47,-162,-20,-54,-118,-55,-143,-21,26,-144,-107,83,-140,98,-121,-193,150,-51,-153,-16,-39,-91,43,69,-84,61,-57,-119,-86,-54,15,-1,-22,-91,-33,-123,-36,12,84,30,21,-118,-64,-122,23,-10,-97,-101,-83,8,-18,-167,41,-127,-80,-4,44,-17,-138,-73,-67,-2,-110,-78,-103,-26,-97,-104,-101,45,31,65,-55,19,50
,-23,-121,66,33,-55,-86,17,-96,-58,-104,35,56,-98,74,-157,-82,67,97,52,-7,-126,-52,-102,-44,94,-132,-86,1,-43,-29,47,-31,55,9,-139,54,-75,2,49,-38,-2,72,-76,-78,7,36,-154,-117,-8,-38,-92,-90,60,78,48,-73,-78,-73,-56,54,3,-34,19,-115,-80,76,0,80,-35,35,11,-77,-108,-51,-42,-89,-108,39,-51,59,-108,-43,-98,58,-117,-145,-38,-123,-9,13,5,-131,76,14,-34,-76,70,-9,52,-70,-131,48,-108,50,-127,-19,-2,-110,8,-1,22,-121,6,-19,-117,-26,72,25,-96,64,25,-128,-88,5,-53,101,-92,-12,49,2,-74,17,-92,-25,31,-138,70,-8,-147,-141,29,-124,-140,-109,-9,27,46,38,-5,-12,11,-1,-132,-9,-26,-73,-20,-124,-119,-85,55,-48,-71,-92,-145,-23,-50,-71,64,-152,-82,51,60,-149,53,-45,-96,-128,-97,39,34,17,31,-105,84,-27,30,55,53,-114,-118,65,-10,83,15,39,-30,67,-58,25,-59,-52,-107,-68,137,175,47,74,95,62,-14,82,97,-43,89,-93,-63,60,-26,-80
,-38,-33,46,-103,-48,-114,-84,105,-72,-60,11,66,-22,-30,43,108,13,39,-100,57,36,7,9,-88,91,-13,-18,-78,-7,-116,-112,-99,-5,102,-21,31,-73,-114,72,-62,-99,-85,-93,71,62,56,-69,-98,19,99,-30,62,20,12,-111,24,-28,22,-103,-70,102,-68,-73,-60,15,74,33,76,-108,93,-76,22,69,105,-22,25,-68,-52,-20,-102,92,-71,56,22,-38,95,-50,27,-107,32,17,36,-50,-4,-57,-90,2,63,-102,-110,-65,-12,103,-97,86,-103,67,-95,-28,-40,-21,-12,8,-89,-87,-29,-29,-44,76,80,-57,-86,2,-18,-35,-50,99,5,-110,107,62,-51,1,-104,10,-6,79,-72,-36,-48,-9,48,74,-59,71,-19,34,88,-86,38,-2,28,23,0,78,-19,-35,-113,7,108,8,-31,-92,-9,-32,58,-103,30,42,-48,-71,-84,14,68,-102,-5,-63,-62,-9,79,-20,81,-59,-97,-58,54,18,-80,-27,-63,17,-39,-53,-9,-2,-109,32,31,55,-37,28,-108,-74,-18,93,-54,50,39,-74,73,-91,21,64,52,94,23,43,-46,-19,-88
,22,31,104,-145,-103,-53,-151,35,-41,-100,-11,-87,33,-113,41,-58,57,3,-19,78,23,-112,36,-123,48,65,4,8,-144,-35,-31,37,85,4,-34,89,-118,55,-87,72,27,-139,1,9,-25,-82,4,106,-80,5,70,-39,-23,-100,-27,28,107,-40,-2,23,-93,0,43,3,65,89,-110,-8,42,23,64,71,-87,-87,-88,-119,-48,34,37,-105,-107,-111,57,59,30,37,-77,-28,-85,-68,89,-61,-10,79,-2,-44,0,2,-24,61,-42,1,30,58,-72,0,92,5,24,35,-50,-18,-7,75,-48,8,-75,24,-22,-79,88,-30,47,-37,-108,-51,-38,14,28,22,-71,-118,-7,-124,-9,-14,-58,-110,-63,-15,-150,51,-85,-66,32,61,-31,-10,-53,56,-58,-20,62,-107,-1,49,69,-11,-100,20,-61,-5,-121,-38,-38,90,-32,-58,-47,-47,53,36,-143,73,-74,-95,-35,-55,-91,-77,0,-106,-73,-25,-112,-6,-42,90,103,-152,72,110,-19,59,3,-77,-34,-29,-108,86,-44,-85,68,12,-79,-4,25,-116,-36,31,-98,-85,150,-59,108,-39,-67,-69,-20,26
,-4,23,-17,-54,22,19,-34,-77,56,22,76,60,-11,80,-64,-114,-111,-109,-11,49,-120,40,-37,-62,32,-119,-40,18,97,59,-4,54,-83,-110,-28,-85,-122,-73,32,-102,10,82,-64,-102,70,-95,68,54,69,-97,-74,76,-25,-117,-7,40,20,-103,4,-80,9,34,-107,-86,-115,-49,69,98,38,29,-31,38,-41,-41,90,-45,-29,-58,-13,-80,-20,-33,74,8,-98,-77,37,65,43,8,50,-33,56,3,78,-49,-15,-84,-51,54,-11,-7,82,-38,-109,-118,8,-81,-102,-97,-44,-80,71,83,-34,-4,-126,43,-125,85,4,42,47,15,82,37,-37,15,-7,-11,52,46,27,-110,-3,-65,-51,32,-47,39,12,-20,83,15,-75,-76,-123,44,-17,90,-41,-128,-84,84,-33,-125,63,72,-54,34,10,30,86,-126,-103,-3,-57,0,81,85,53,-74,75,-86,72,28,91,-29,-34,-107,-128,49,-65,-121,3,-53,-20,-85,70,62,-16,13,-90,25,1,71,-43,-65,5,-18,31,-24,48,-99,73,-37,-76,-101,-71,86,-71,84,-80,27,40,-75,92,22,-66,55
,77,-57,-39,67,61,-116,-39,-124,-116,79,-68,-103,34,-85,-131,-105,-24,-119,-25,-61,-56,65,-90,87,-61,-38,-63,-63,-42,74,-46,-7,-35,-113,17,-94,17,-19,62,39,17,77,92,-22,-39,-87,-61,-91,-13,-52,0,-67,29,72,31,47,14,-127,-62,20,-10,-86,-126,-97,52,81,-125,83,113,67,-103,-97,87,-23,66,-115,-107,-57,-117,100,113,41,-4,-35,48,78,75,42,-78,-136,-39,-57,-10,71,72,-101,-5,-53,-114,-53,-23,9,98,25,-12,-71,18,-52,-47,-62,29,-83,4,62,-79,-52,11,-5,-104,-129,11,29,-70,-12,-54,-4,-67,41,-22,65,-80,70,58,25,-100,55,67,-84,49,-67,8,-73,-75,-80,-69,-59,51,45,7,29,-47,-13,46,-67,61,-91,-20,87,10,44,-1,12,109,72,-92,-80,-102,-56,-40,33,59,-15,-1,73,60,-2,18,91,-46,-80,-23,-124,16,19,-21,54,61,49,-62,32,-35,54,28,-30,15,-15,-76,52,15,46,22,34,92,-111,-78,47,126,-21,30,102,48,109,-98,-80,-111,-5,83,47,-29,-122
,68,-48,7,-104,61,21,77,45,94,45,-48,-29,33,-79,-9,-25,5,49,91,12,-47,25,-113,10,94,-92,-18,-35,-123,-35,-49,18,-22,9,27,70,-71,-74,33,98,44,42,71,51,-78,-102,-52,-105,86,28,-111,102,60,-109,93,-110,44,-5,48,-21,-25,40,-131,-15,-92,78,-114,-26,-119,79,-136,-90,-51,9,90,-38,-45,-1,-65,-138,1,99,-116,-40,52,-111,95,-98,-112,-89,-58,-49,107,80,-7,-101,98,-114,23,-115,-19,13,-103,26,-128,71,54,-71,-116,16,58,-119,15,-112,-13,34,-79,-37,40,98,-6,92,-8,-38,-36,42,-115,-37,-112,-109,49,87,-20,62,-88,-88,23,40,16,76,83,-114,101,-86,-17,53,38,-35,-24,65,-102,-17,-59,61,-57,2,43,-92,-115,-37,-52,30,50,68,12,-78,-104,-49,55,-79,-74,82,42,-130,20,-90,8,21,49,63,30,-56,-40,7,-41,-88,-3,75,-107,53,-67,-109,52,-81,24,-127,68,-50,68,-9,26,42,-116,3,25,-42,78,-101,-116,-15,-8,-103,4,3,-67,-129,45,97,102,22
,57,-3,-28,100,98,-114,-68,-47,5,98,-39,34,11,-9,99,42,-82,79,-61,-4,-106,1,-127,-130,44,-31,-83,-2,52,3,-43,-106,108,-105,-62,38,6,36,-119,-8,-51,-11,39,-33,53,41,-129,-2,60,-98,-37,-49,-49,27,31,-31,108,-89,-104,-43,50,-32,-2,-103,43,-33,-17,-81,-119,43,-83,24,-99,54,-2,66,-9,-115,-55,-64,88,46,-139,-27,-14,-56,17,-117,-112,-70,-93,-75,-83,-87,-96,-40,-46,14,-61,-35,73,47,-89,-55,23,-18,45,-36,-38,22,-16,32,-22,-48,98,59,55,-95,-32,45,23,4,-91,-64,26,-129,-42,8,-131,-17,-38,-6,55,35,-73,-34,-104,-27,88,-58,57,-52,30,104,-50,-12,-61,-114,-12,131,24,-101,96,-77,22,-23,-89,-23,-55,99,32,-75,-37,64,-28,-10,-38,73,-87,48,27,63,-11,17,-124,-2,45,87,36,116,-109,35,55,-115,51,-63,-27,74,-132,66,43,-111,11,38,-66,77,-3,-45,85,-1,-136,-38,18,-92,-22,-32,25,-72,-108,93,18,5,-45,-8,1,22,-96,0,11,-20
,-69,86,1,14,-79,-40,-35,59,-54,-128,67,-157,126,-94,37,127,-137,-157,99,53,-9,1,-140,-43,45,10,23,120,16,109,106,-134,-15,145,-112,15,126,34,-16,5,-134,-78,137,-50,-60,-52,-70,-34,92,-93,-108,92,-122,-182,29,-75,59,-6,1,-140,20,-158,-49,117,-135,-58,-39,-167,-68,28,-141,32,12,-169,95,-76,-158,-150,75,-121,3,17,-154,56,50,-101,-34,90,-29,-95,-29,-126,-49,120,-187,-110,94,-215,-187,-116,58,65,-107,11,-1,-41,-44,81,-68,3,-111,-120,-93,-100,37,-71,-101,-107,-35,17,-75,3,-102,-141,123,16,-17,-43,57,-187,-26,123,-49,31,-98,-119,-28,0,-117,-41,-119,-182,-21,33,-78,113,71,-173,74,-20,-45,60,-10,-122,81,-126,-206,-39,31,-153,-49,-118,-202,4,58,-28,100,-35,-118,-29,34,-81,5,-54,-130,82,37,-75,-12,12,-120,-119,106,-14,-6,11,-195,22,-110,-135,-30,-52,-80,-20,-22,-34,-91,-32,-172,31,-7,-104,54,65,-17,53,-79,-47,-66,17,111,-101,-42,-112,45,37,72,23,-77,56
,17,-92,-116,1,73,-69,-71,48,-85,-108,70,-73,3,-125,-77,59,-6,-27,87,-27,-46,-99,54,-111,-57,-67,8,20,34,-45,54,-97,-39,70,69,70,-87,7,-33,-108,40,5,-24,-63,38,-24,10,-40,-126,61,82,-101,14,-23,-105,-8,15,64,75,-52,21,34,71,-34,-3,36,-54,53,52,19,-117,63,77,-91,25,-51,58,1,-84,-97,-19,-7,-43,-81,-27,-72,-92,-25,-43,93,-127,-81,-20,-11,87,-55,-104,-33,-20,-131,-17,-114,-50,-123,-67,26,75,-94,42,25,-118,-63,-73,-74,-58,-72,48,-77,68,-21,-127,-107,-39,-55,-49,94,-60,78,-113,21,-30,-44,-29,53,-33,-65,-19,-108,-68,-76,-50,-41,-61,32,-91,-83,96,19,-17,90,-32,33,84,-20,61,-34,-55,40,-53,17,-6,44,-108,-108,78,-69,27,-102,81,-72,-131,-114,-98,-97,29,4,48,88,-4,-115,-95,-78,44,28,90,-46,34,2,9,-101,14,64,-130,-16,-49,74,45,17,21,-47,-100,72,79,-50,-10,-103,-23,54,24,85,59,-101,95,0,-77,-15,31,60,-100,19
,-13,-25,-139,-109,-69,-106,37,-131,30,-42,-74,-107,42,12,0,-79,20,-60,43,4,30,-105,-88,12,61,-24,-96,54,-122,-84,-56,-131,94,-44,-110,67,-135,9,-18,43,-100,20,42,60,37,5,4,-4,51,-115,-135,-72,25,-157,-21,48,32,45,-39,51,-6,-114,-34,-41,-81,-97,-88,-95,69,52,-89,73,-16,-38,-51,-72,-50,-39,-110,-12,17,-28,69,-66,-44,-31,27,35,-25,-127,-133,-145,-140,47,-96,-7,-27,-75,19,-113,-64,-73,36,-126,-9,-72,62,-56,-18,60,25,1,-101,-114,-52,-94,20,-13,51,18,15,-8,-150,35,23,-79,-133,-149,69,-27,-151,10,-49,-103,-71,-51,-103,-89,38,-53,35,-149,-14,-5,-132,33,-13,-99,-94,-41,-48,-42,-29,10,-90,-119,-10,-20,-71,-86,-28,-3,8,-79,-57,-127,47,-1,-72,-68,-1,70,-85,-47,16,30,-67,-92,-81,-59,37,-116,4,-67,33,-71,-73,-102,-84,-50,-23,-38,-27,49,-18,45,-17,30,42,41,-9,-117,28,-19,-16,-48,-133,-78,-111,73,32,24,-29,-15,-5,41,25,-44,-2,-68
,25,-9,-40,-14,-27,42,39,-16,-51,-17,-73,-123,57,-103,18,85,7,-3,21,-121,61,62,-108,-73,56,52,72,-109,12,-114,-26,-79,-11,-84,41,-84,-88,-10,69,-34,-74,-115,-85,45,83,-16,-97,-78,46,-105,-85,-14,-60,-136,-87,-105,56,80,46,-53,21,50,-55,-61,-61,-23,-56,-68,-82,50,3,41,-28,47,33,-17,-53,14,63,22,51,30,56,-108,-68,-20,-80,18,-55,-78,92,8,-54,76,76,-48,-89,4,15,-9,16,-16,-42,69,80,34,-39,-115,102,-5,-40,-103,-41,-27,9,-122,-6,25,63,-69,-71,-48,-19,73,-102,-96,-75,-93,15,42,-65,-23,-60,-57,-143,-51,-89,-38,-110,-145,-6,-72,-117,69,28,-8,-131,-108,-127,-2,84,12,-99,17,-26,-73,27,55,57,-68,-96,-134,-80,65,-77,11,-131,38,100,-17,58,104,-91,-126,25,-24,35,-102,-126,-129,13,-50,-53,46,71,22,58,-104,-13,23,49,-56,-13,58,46,-117,-19,-85,-70,12,-131,-13,90,-133,-58,27,-39,-1,44,89,83,-102,73,-86,-12,5,-89,81,-50,-52
,-82,-14,-74,-81,-78,20,74,91,-125,-60,86,-125,-33,-86,23,-4,-109,-103,-166,-90,-18,-101,0,-48,-104,-79,-35,-39,-67,217,-168,-140,-29,-83,-108,127,-50,-69,48,-188,-56,120,-40,26,133,-186,-150,77,21,51,-55,-41,25,-33,-87,-150,-59,-70,45,44,-162,58,-137,2,-18,69,-21,-121,-139,-85,22,-20,12,-17,-53,-22,-59,-188,-106,-83,45,-188,-54,-332,-13,-52,-165,-125,32,-91,-100,-28,-222,-36,-80,-226,-187,84,-222,-41,-41,-143,-93,-23,-218,-180,81,-34,-122,-42,-150,11,-22,30,-95,-27,-117,-44,-33,-51,-152,-43,-45,-15,-66,39,-11,-91,39,-172,-2,-73,-118,74,98,-9,23,112,-134,69,20,-117,-106,30,19,-64,102,4,-64,79,-49,-117,46,-41,-104,121,-71,-112,6,11,38,-58,-103,-61,4,-76,-47,89,-91,53,-29,-134,-7,39,-10,-111,102,-46,100,4,-153,-105,71,-155,81,7,-98,-69,55,-86,20,56,-33,18,98,52,-21,-69,-91,-42,-30,-6,39,19,-25,152,127,-11,23,-46,29,22,-159,-69,-93,85,25,-9,-100,-75
,105,-91,91,-9,23,-95,14,2,-52,50,45,75,-56,-51,6,44,12,-2,73,99,4,59,-37,-38,58,-23,-6,-15,-52,-105,-91,-41,-71,-83,-32,-80,-46,37,25,-109,-107,39,-14,-117,-106,60,21,51,-86,-51,57,-57,68,-7,-52,-67,-19,42,-98,-70,-54,59,57,-132,-32,-94,-3,29,-31,61,22,46,-127,-64,-12,-109,2,-90,52,-98,-103,4,-104,98,53,84,77,-66,8,18,-53,-37,50,-52,-75,61,83,-103,3,-27,10,-112,-89,-86,-36,-39,31,-64,46,8,34,32,8,41,-27,37,91,10,22,-67,14,33,41,-37,22,-82,28,-78,72,79,32,-112,-98,-29,-57,14,-44,-28,-6,-64,-109,-23,-40,-95,13,78,-32,-3,53,87,78,92,-66,62,-7,60,-109,-27,-39,-106,42,-59,-100,4,41,24,28,57,52,68,-108,16,-48,-1,58,-46,-104,-23,52,-18,89,-4,-97,-10,-64,-107,59,-109,-37,-113,85,25,48,10,-55,-106,-70,-13,-74,-15,-33,59,-85,70,96,-56,-116,71,-103,-39,64,9,60,-15,3,100,7,-107,-41,-71
,27,-52,-31,71,-33,-59,37,19,-28,83,-106,-57,-102,8,-61,39,-43,-50,-104,-102,33,-20,-66,-20,-34,-109,-29,7,-43,-53,109,-16,42,-24,-34,-46,-34,-66,-101,-99,43,-36,-91,-70,-45,-110,-109,40,-43,-72,-138,3,46,-142,77,-115,8,62,-136,34,-21,56,13,-2,-61,-146,-63,-40,7,-35,5,7,-77,-82,-89,-22,-110,30,-59,-82,-5,56,-98,-15,10,74,69,-64,-126,9,-33,18,-83,111,-38,56,85,-47,30,-58,1,-72,-3,-60,-90,72,20,-43,66,-98,39,-41,-128,-33,-13,-15,36,-40,72,-90,-14,-16,-34,25,-110,30,105,-35,-111,48,-73,-81,-43,51,-107,98,-44,24,46,-115,23,77,-34,-96,52,14,-98,16,-134,-106,112,-44,-103,-18,25,-98,-47,-38,-55,-109,-82,65,97,-18,-124,-5,43,-58,2,-119,-27,43,-109,-143,-47,56,-101,-23,-56,45,-77,-76,3,-22,-133,-105,73,4,61,-74,-128,8,109,15,40,61,-134,-102,-34,73,-88,-91,-121,-29,-63,97,65,-144,-104,-77,7,9,-25,94,93,-122,52,-61,-110,15
,12,53,-42,-24,-26,25,70,-142,-13,6,-40,-75,-4,-102,-74,-205,55,-10,-81,17,9,30,-162,50,-158,-30,54,-67,3,28,-9,-108,0,-204,-88,-140,1,69,10,-12,-82,-37,-70,-28,-113,-73,0,-123,-157,-37,-67,-4,-97,-127,-107,49,-165,-145,-109,-159,-66,-81,-175,-22,-156,-24,-44,34,-224,-89,45,-144,-168,-92,-205,-102,-140,-141,13,-121,-149,8,-112,-19,-119,-169,43,55,-47,35,-111,-35,-6,-48,-113,16,-89,-115,29,-16,-133,40,88,25,-48,-116,-50,44,-111,-116,3,-9,-10,41,27,-16,13,6,-19,52,38,-53,29,-38,7,-60,97,-45,8,-44,-16,50,69,-119,93,80,-64,19,90,-84,18,68,-163,-129,23,-97,-11,95,-70,33,-60,-13,-13,-56,-154,14,89,-87,61,-66,41,70,-95,-51,70,0,-31,42,-77,-96,-18,98,-11,-152,-36,-37,40,19,37,-86,71,52,19,-26,-142,8,-54,52,-92,-97,-71,-17,98,-101,-161,-61,-81,-13,5,-47,-102,-64,-132,-209,-65,55,78,56,-102,-82,-34,63,-21,-86,-47,-121,85,-11,29,-26
,87,-118,28,-104,-156,6,94,-44,30,-40,-36,49,-29,57,-127,64,-50,-38,-72,52,-80,40,-109,-71,-21,29,66,30,52,-89,135,43,-129,-22,-113,-43,-79,52,-50,57,-80,24,71,26,-40,93,72,68,-23,39,-73,-89,-40,84,-7,-73,19,-39,-98,34,-10,-74,80,51,40,26,-99,49,-39,50,81,52,-5,-76,-117,45,17,72,-32,-9,8,84,-59,-124,28,-122,-134,-71,83,-25,110,-132,-116,75,-41,-135,-48,66,-22,-89,-71,-23,-48,-58,69,105,-16,-129,61,-139,-134,26,-103,-122,58,75,43,-27,76,-35,12,-29,-52,82,-27,1,-10,-61,-57,107,-149,-56,-63,-39,-98,-25,-80,-66,-21,-11,47,-87,-75,13,-99,50,77,23,10,-32,45,-14,-37,-62,-87,-32,54,-51,8,80,-22,0,73,-42,37,-25,-67,-27,79,18,43,-115,-110,-6,-104,-125,-93,-53,51,59,-31,45,-111,102,-85,98,-75,63,1,4,-50,-48,0,-26,-91,39,-102,-107,5,-2,-41,27,-96,62,-81,-93,-84,-57,-128,72,75,4,75,-91,69,47,85,-55,34,-68
,-165,-34,71,-26,-91,-23,-116,23,105,-115,88,89,32,-13,-62,-79,-27,78,62,-26,114,-29,87,-102,-117,-125,-119,16,55,73,-184,-6,-12,-139,28,-27,9,-61,66,14,64,99,-110,-84,-110,-84,-101,46,2,-48,-5,-163,58,-99,-14,-89,70,-92,-67,-67,-131,-101,25,-113,69,22,-37,-126,79,-176,44,-121,-121,20,-103,-162,-117,10,-28,78,-78,7,-124,-55,-143,-102,-101,-191,-46,-8,-26,40,-59,-53,-6,25,-22,-12,-38,-93,-107,-15,-130,-69,28,-87,53,85,-31,-68,-47,-135,30,102,-189,-107,-14,-21,31,-56,-117,10,11,-174,-119,-70,-28,-99,82,-89,2,-19,-84,-44,60,-86,31,12,-120,71,-99,2,-1,-50,-159,-5,-36,-74,42,-141,-86,-96,-112,-33,67,14,40,-70,-106,-93,-111,35,3,60,62,-89,-113,50,-82,-25,-66,-166,-78,58,-4,10,9,22,-14,90,-93,-79,-41,-120,-1,-31,-2,13,29,-19,-63,-72,-133,55,17,-5,-8,91,38,64,-37,-26,-28,87,-27,-155,-120,-11,-25,-62,-94,45,88,-40,-105,52,-9,-114,-120,-1
,19,4,37,-61,31,4,20,80,-164,24,94,0,53,23,-127,73,89,-132,-55,28,68,33,-94,60,-73,-58,-105,-69,-12,-114,49,26,-173,16,-104,-146,-53,15,-147,63,-82,-11,-64,9,-127,-20,-119,10,-101,31,-84,-118,-81,-136,-77,79,-2,-81,52,-7,47,-62,-60,-29,-53,-111,-124,50,-47,-1,64,-147,61,-25,6,78,59,-150,31,11,-62,74,-70,34,57,-34,44,-125,68,-139,-111,75,3,-71,-14,-118,-84,-110,-51,25,1,-65,73,-85,1,61,82,77,54,-79,132,47,-131,-32,-118,18,-6,42,-135,133,-116,83,60,-16,-108,76,-28,31,-52,-106,73,17,-30,-55,-19,-110,30,-52,51,-112,-90,21,-115,113,21,-131,-100,-119,15,67,19,-131,37,-60,25,67,76,-110,9,-17,6,7,39,27,105,-92,-44,-40,-47,-19,87,-124,86,-88,-71,-63,-86,14,5,47,-81,36,-1,-137,-112,113,-105,46,-76,-109,-3,-18,21,84,-87,-137,61,-30,-74,14,-117,-5,-44,117,-92,40,-71,65,50,-39,-93,-15,24,33,-9,84,-19,64,-33,133
,104,53,127,-11,-75,140,74,66,-67,-47,19,-116,-62,-105,73,40,-156,-66,-87,-182,82,80,-125,82,-42,11,5,-102,-74,40,61,-102,77,-129,50,27,-46,-44,1,54,42,56,42,-176,-114,-7,16,75,40,-91,-14,-31,-81,-180,-4,-150,-63,-141,54,-193,-39,-131,-1,25,77,56,-149,70,-82,-96,-45,32,-115,-35,-181,-95,-23,-158,41,-105,-91,-69,-96,14,-76,68,-8,-13,81,13,-118,-105,-23,67,-97,32,-109,14,-142,4,56,-84,-100,31,-95,68,27,-4,-84,-81,-103,26,-50,85,-27,16,19,5,42,-67,56,-48,72,27,-12,30,-3,0,23,-92,-45,14,68,-6,9,-100,1,-41,-124,-103,42,-16,-32,-9,16,-88,-154,-78,-93,-56,3,-121,-126,-85,-71,-123,10,-23,-52,-94,-42,-132,-49,50,-32,-40,-88,-142,-114,-70,-12,-75,21,52,-106,14,65,-46,-153,-35,73,-48,18,-22,-23,29,-116,-11,25,67,-71,-42,-43,34,11,-64,-102,18,-9,33,-24,72,72,-83,68,148,-9,110,-9,26,48,144,88,45,-113,-94,-31,-35,-22,90
,-67,48,6,-68,-39,6,-76,-41,-64,72,93,-83,-17,-14,-2,11,-96,-72,-19,-13,76,105,2,48,79,63,54,9,-56,-50,-23,-91,-8,96,0,-7,-73,-95,-56,-80,76,89,-99,-39,-73,76,27,103,-112,-106,39,-91,37,24,12,-41,83,32,-52,-15,67,14,19,-67,102,-27,25,-90,-13,4,40,-9,18,-86,-57,30,-95,5,-24,-118,61,108,-68,-23,88,-19,4,70,-13,-39,61,-40,-25,24,60,-29,100,-60,-51,-67,-110,77,-112,55,-37,-12,-104,67,95,-13,-106,101,48,-31,39,-13,-90,-109,-58,-46,104,87,-114,9,-72,66,111,-17,-52,0,-54,72,38,0,-25,56,92,69,-92,90,92,28,58,-8,59,69,-64,-87,19,-3,83,34,85,14,23,-31,-94,-93,-75,66,-96,15,-22,64,-73,-20,0,-9,-42,-38,26,-26,-43,-78,65,-76,-95,73,17,19,-17,-71,19,-31,20,-35,-36,-20,-39,-56,-87,-110,-18,58,-8,-87,54,36,69,-49,22,54,-58,-25,-98,-2,28,61,53,-31,110,-58,64,76,-70,-77,8,-85,-68,-94
,-2,15,-62,30,-148,-144,-51,-52,-84,93,-30,-115,-97,2,-66,-51,-84,-80,100,-114,-125,55,-78,-25,-32,-90,14,101,63,-74,51,-100,-51,4,-79,-64,-69,-147,27,52,-25,-125,-21,51,6,-34,-51,65,82,8,-96,-21,55,-148,-105,-25,22,-7,-51,-110,-8,-64,20,-51,-76,45,-13,-109,-34,48,-21,-96,73,8,-43,-85,-54,-62,69,45,-91,14,35,-121,-11,-38,-88,-22,-108,-20,86,-32,56,74,-122,1,70,-135,34,-45,62,-18,39,-35,36,10,16,34,77,-35,-128,11,45,-88,71,-97,19,43,2,-119,-7,63,43,-99,-34,30,-32,-35,-38,12,-14,-39,4,-16,38,-28,-118,31,102,-157,-107,-103,-112,-44,15,-147,9,-22,-37,-11,24,33,-8,-100,63,5,67,-33,-10,-41,12,-37,26,-25,-49,-1,-122,-104,88,-125,37,30,-41,-127,-28,54,-122,-40,-70,-128,69,-51,-114,-21,-38,-5,29,-89,-83,-39,-5,14,97,-150,-105,-74,-45,-25,27,21,-20,100,5,55,-107,54,-29,51,-118,49,97,-6,-78,25,-43,-94,25,83,-112,1
,-125,-78,-67,-122,-74,44,-98,74,17,23,-23,-110,49,103,-120,-140,-72,-138,-30,13,-141,-106,-68,41,29,-12,-51,14,-61,-67,-109,28,-110,-108,79,15,-23,10,-56,-22,24,70,46,-65,-141,-117,-15,36,55,59,42,39,27,73,-71,70,-16,-100,88,16,73,18,-39,-72,42,-121,-100,-110,-30,-50,68,-119,-123,14,-89,-26,-56,59,-157,23,-77,56,-93,-25,-4,-114,80,-153,1,-97,-115,46,-127,-19,39,28,34,62,-56,-160,50,87,-18,44,12,28,-12,14,21,-117,-75,-38,-45,-72,42,26,0,-146,-82,-49,11,-25,-115,-46,54,28,-106,-112,-109,-124,-11,50,-37,-101,84,-108,-32,16,-40,-89,-143,-45,53,60,-42,-100,-19,-38,-30,-39,72,-82,-41,12,-39,54,30,-85,58,-120,77,-111,-136,-62,-61,-140,-22,-46,-98,15,-81,59,42,-58,75,-17,-16,-15,77,0,-11,99,-43,-139,-91,52,-136,-36,-39,-48,-57,35,54,70,55,-28,87,-102,-26,17,-1,-9,-68,-93,96,-87,-77,7,94,129,31,-78,33,14,100,-105,-3,-77,5,16
,-13,-15,12,82,-58,-123,-100,21,64,78,5,0,-52,-53,-78,-28,51,-143,113,-114,-112,-65,21,-143,83,-30,-156,-27,45,-19,-44,-73,-146,-73,-2,-89,-98,-37,-91,-70,-139,45,20,-72,53,-20,-75,31,70,-76,-43,-124,19,75,-143,56,-57,-99,60,62,33,-137,121,50,-29,114,-91,6,75,-48,-145,-40,-75,30,70,-66,-13,-35,-4,38,84,-69,29,127,-100,-145,-23,-6,61,23,-120,-122,10,-127,-84,79,-66,-57,-106,17,79,-45,-5,-26,-9,-17,-16,-101,-116,8,-133,-129,-123,46,-37,-135,29,-68,-27,33,-77,-126,4,-147,27,-96,-16,56,-84,-136,-24,25,40,-98,-90,-95,65,49,-110,-14,-187,63,-159,67,28,-28,-138,26,12,-103,22,51,-34,-12,-125,-23,-72,-133,4,-106,67,-192,-65,16,-36,58,-3,42,-29,-42,8,31,-73,-8,-89,-31,23,-36,-18,-38,-7,-101,-108,-146,35,38,-51,-77,29,-101,-61,36,12,-17,15,-84,-30,-98,2,-54,-114,0,22,-128,29,-111,83,-79,71,-67,31,67,-56,33,-50,17,38,61,54,121
,-3,-19,-141,17,-117,42,-39,-74,-9,62,90,60,78,-92,-11,94,84,16,-66,-39,-21,-71,93,-38,-80,-11,-56,-54,83,-91,85,85,42,-78,68,-21,-106,-29,88,-26,-22,68,11,-93,-106,72,-71,16,37,-26,-73,-56,60,-86,-91,-70,50,-5,100,64,-4,-63,99,-103,91,-28,-38,-47,-116,95,28,27,-88,-14,91,40,-109,-116,-3,-85,-54,-59,3,-103,74,-87,-99,29,-73,-22,74,-32,35,-28,29,-86,-57,-94,45,-63,-114,75,41,67,68,-57,-45,81,-1,-86,79,-79,72,-130,22,28,-10,94,98,89,50,-69,43,-31,28,-87,-85,-21,35,-50,37,-46,-24,72,2,-107,-78,37,96,-38,25,6,80,-89,-54,-7,-13,23,-60,-65,-36,36,-110,96,83,13,65,-101,41,-9,40,75,36,21,36,-65,-36,-89,75,44,15,85,-97,-131,95,-115,-72,73,-48,-119,83,-112,39,-44,-1,-88,-17,-64,-69,-103,-65,-94,-94,45,5,-51,-48,-100,-65,13,6,-68,-31,65,-82,19,-92,-44,-76,20,-115,19,93,-39,45,108,-65,-20,101,-7
,-4,-85,-70,-44,-33,-25,30,-125,-118,-95,18,72,-153,-87,35,23,-57,76,-147,57,-88,-114,-38,27,-16,16,-69,16,-93,-70,-56,7,25,-42,46,51,-65,14,-161,-52,-76,90,-151,-30,-69,-28,-45,104,-35,-5,-97,0,-43,-49,-108,-54,-155,9,-88,21,-148,-123,-19,-112,10,-108,2,-113,-130,-142,84,-78,25,73,-147,50,-46,68,-149,-19,75,-9,54,73,-154,-18,63,23,-124,72,-129,33,-56,-131,-32,-8,49,-9,-110,-149,-19,68,-133,54,-68,-142,2,-129,51,4,61,24,-76,-16,44,35,-95,34,72,-60,0,30,-15,-147,59,-1,50,-32,-133,-16,54,-5,-113,-37,-42,42,6,-15,-112,36,19,49,-8,-8,58,66,-7,-23,-60,32,-148,-32,-105,25,-44,-115,16,-21,-58,66,30,43,48,-48,17,-95,-134,131,-139,-52,-97,-37,-113,-85,-115,14,-100,-15,-63,37,71,85,-57,-114,75,-116,18,-124,89,-120,-101,-124,64,86,-59,-48,-67,-130,45,73,-143,-69,-125,19,-67,-74,84,56,-73,-5,-101,-29,43,-20,0,-118,-5,87,-97,-45
,38,-69,-6,-29,-92,-112,-98,-116,-84,49,14,-104,-86,-136,59,-20,54,-120,6,-96,39,69,-38,-140,-106,-18,37,-94,-78,-51,49,51,59,53,10,-7,-108,-73,-138,-36,-85,64,-22,-65,-87,77,-69,46,-93,19,-115,95,-59,-68,-66,26,4,91,-20,36,93,-133,102,51,-90,-127,1,-142,-136,-33,-82,-7,45,31,-116,12,-126,-105,-97,57,14,109,-44,-101,102,70,-140,-49,-89,68,105,-10,-107,76,-108,32,39,-123,-5,97,-11,67,-72,-46,-146,-93,-141,22,66,-129,-142,89,-78,-81,53,-110,-19,98,68,-120,93,6,-58,-4,1,-16,-38,-88,-92,-49,-55,-9,-70,-135,12,-41,55,57,-80,-24,-54,-66,11,-145,-97,74,-59,-55,-72,-8,-88,55,-89,-21,38,7,-106,-116,73,83,54,-101,-48,-111,-25,-67,-116,25,-95,-14,16,-62,-93,-11,49,-20,-140,-113,-52,-57,-7,-90,-81,-109,16,-79,57,-121,-132,-68,-79,48,-41,-46,-27,-83,18,0,8,-20,-27,3,-125,-4,45,-39,-45,20,-2,-104,-92,70,105,-95,-38,-130,-11,-94,61,13
,54,39,-161,99,-42,21,-122,-125,57,-46,34,18,-9,-50,-32,110,0,-52,100,91,-24,2,-75,-106,63,54,-24,-27,-17,-17,101,73,63,93,59,-88,-96,85,54,-75,46,-127,91,-13,13,-44,28,34,-91,-77,-89,-138,-116,25,-49,-78,-136,5,-31,-158,-128,-106,-40,62,-36,-84,-82,99,-119,-107,61,-70,-83,-43,-155,-111,102,-124,-57,58,57,15,62,-79,-83,-69,81,66,-30,-28,-107,48,-9,-40,23,-68,-121,-90,-1,-26,-126,74,-22,-116,-78,-122,-10,8,55,61,-38,51,6,-33,-87,7,77,37,60,-78,65,-17,-94,-9,-62,44,-147,22,-41,-89,16,-119,-11,-64,-2,-77,33,32,-38,-115,62,-43,60,30,-11,-81,11,-29,32,16,-104,-51,-9,-13,78,-95,5,41,72,-81,53,-42,-15,59,-14,-128,8,-120,-29,-17,-136,5,-98,-121,-60,63,78,-24,59,-77,67,-28,48,-84,-130,-44,87,28,-93,-9,-135,75,-17,-16,47,27,-126,96,38,-13,6,48,-24,-9,-23,79,-110,13,125,97,35,-48,-49,114,51,-28,101,121,-3,132
,-5,-41,-65,-73,-147,-22,-35,-80,37,60,-101,47,20,-57,-50,36,-48,-100,87,-129,60,39,-128,-103,-108,-85,32,-104,-146,-59,5,-55,13,86,-81,17,7,-151,-105,-82,23,-38,45,-95,-59,61,-1,4,25,-34,-106,91,45,45,-26,36,-63,-112,34,1,33,-137,-63,-55,-139,-29,-57,-120,15,-41,9,-145,3,-113,3,95,35,-136,46,-111,-37,88,-42,39,-68,20,10,-59,-119,7,-41,0,60,38,-73,22,74,46,15,-40,-27,2,74,-70,-93,-49,50,-99,25,-119,-71,73,-66,4,-102,35,56,18,20,38,62,-105,-94,-38,-120,-9,-22,67,-75,-104,-151,-93,-8,28,-24,-81,25,-70,-25,7,-36,-96,-131,-11,-76,-103,-72,76,-32,-1,-54,69,61,80,36,-58,25,-74,-23,-98,-45,-73,-103,22,-138,-65,-86,18,102,-87,-38,-102,10,-110,-2,20,-47,35,-7,40,-8,-5,-100,40,-78,-105,47,-128,-104,9,-95,32,29,32,-13,-7,31,-68,26,-29,34,8,-49,23,-87,36,12,8,-58,57,-95,-15,-83,45,65,-45,-11,64,-39,58
,-79,-120,-38,-13,6,-63,37,43,-110,-104,-100,-6,87,37,-100,56,-19,-138,115,41,43,-78,-19,29,23,-39,-23,-18,16,70,-20,-96,-49,-84,59,-33,-79,-23,72,-21,49,-25,107,-91,-91,-70,25,-72,-71,5,-57,-20,-98,47,53,2,-22,-29,9,8,-118,1,-153,33,-1,-136,74,-50,-60,-35,-49,-13,-54,-50,25,-3,-65,-27,64,-33,54,-42,-38,-17,-62,92,37,-13,-83,47,53,-122,-58,-124,39,4,-124,-14,-52,-62,-98,-12,49,-62,-120,58,-74,-70,27,-36,79,74,2,-83,61,31,65,7,-91,-51,-62,-24,44,-107,-127,48,58,-120,-53,-103,-68,71,-130,-28,-47,-106,68,-9,-37,64,50,-40,-107,-49,43,68,-73,-61,78,39,45,-35,-16,-60,60,2,-86,-6,-144,53,-107,53,70,-100,-41,61,86,48,-110,90,-83,-64,-39,4,-8,49,74,56,-125,-62,-88,-37,-56,-101,-92,24,-48,79,-114,31,73,71,72,-83,-103,-120,11,91,-54,69,26,52,71,14,-28,-69,-6,-22,144,-33,125,-8,89,99,46,34,86,144,22,-25
,-71,-102,-44,-84,73,-105,-126,-112,34,23,-2,21,-59,-68,-43,-39,-112,-35,19,-106,31,-73,-46,8,60,-11,11,-87,-106,-65,-38,29,43,-98,90,-76,51,-54,-31,62,87,56,-112,-38,33,-46,-42,-32,1,49,-63,46,8,83,-133,-77,-102,-68,-94,-86,76,-94,-62,1,-33,53,68,89,63,12,-87,-17,-94,-104,55,59,53,37,-99,96,20,-31,32,-87,64,-109,97,-12,-16,-94,88,-17,-101,5,89,-79,-97,78,38,-67,25,-26,105,-28,-101,-98,60,-117,99,-14,22,-81,-92,-31,80,-7,2,93,47,-85,5,26,9,66,86,75,0,63,-37,3,97,6,47,-118,-71,70,87,-82,40,85,-96,-47,21,-26,-114,-85,-2,-87,84,-71,34,-6,-64,49,-43,-52,-69,48,-68,42,-51,6,-114,21,-60,-31,-101,58,55,-111,103,-111,18,-28,34,-67,-117,-114,70,-58,12,-99,61,-53,47,61,-52,93,-15,10,-17,37,92,-90,18,-110,33,101,102,42,-104,-99,96,-39,-86,-102,-109,-36,-46,87,76,-38,38,-96,11,50,77,-66,-27,-39
,-48,37,-166,33,6,-58,8,-169,72,-145,-52,-110,-118,-73,-35,31,25,47,55,-190,72,-141,-221,127,51,-164,-74,-27,-158,-20,-54,6,45,18,16,-1,-46,-99,-81,-41,-110,-26,71,34,47,-46,70,10,-57,0,69,-52,-53,42,-38,36,50,42,-50,13,-59,-132,83,-44,-110,48,8,-107,46,-6,11,-92,70,26,-115,11,-112,-167,17,14,-74,55,-155,-106,52,-133,-50,-57,-26,-70,-97,21,-104,80,31,-64,-136,-35,1,-35,-166,-9,36,49,-69,-1,-126,-8,11,-135,-21,-111,-103,-154,43,-28,-86,59,8,8,-79,-126,-184,55,-157,-57,-116,-104,-45,-142,-48,-230,58,-3,-238,-76,-32,-32,-105,-81,-135,-20,-156,-89,-60,-118,-203,-38,-1,-51,-59,-50,-268,-104,49,-142,-145,-150,-128,-103,-49,-16,-139,-181,92,-142,-144,102,-43,-186,119,-34,-145,152,-63,-169,-1,-84,-66,38,-23,-120,-44,-123,34,100,51,23,-74,-37,-63,31,27,-164,-59,50,-81,-75,23,12,23,-38,-88,-168,-100,-63,9,25,72,34,43,-4,4,-47,2,-112,1,-4,86,-24
,30,-128,-88,-56,-122,-46,-58,-34,-23,-79,9,-78,-6,-49,50,-13,-128,32,-4,12,62,100,-32,14,-12,-109,-72,-38,-5,43,-77,-109,-162,-47,-123,109,2,-51,84,52,-120,-11,-47,42,-20,-90,49,-126,-98,-19,70,-26,28,-118,-63,-89,-38,-33,-90,-115,-106,-154,32,43,-49,43,-92,-145,4,54,37,-129,14,48,-167,-17,-47,23,67,-38,23,74,-39,-154,-51,-71,-130,33,-96,-194,72,-132,-23,-77,-84,-178,-53,-39,-147,3,-52,-149,-16,-21,-48,-91,-125,22,-96,-153,-191,19,-57,8,74,-58,-148,1,34,-40,-120,-36,-13,81,42,-132,62,22,55,23,-111,-48,46,-94,53,68,-95,-50,75,-94,-15,-119,48,-11,74,-97,8,-24,-32,-115,-106,-76,43,62,-152,-4,-40,-54,-101,73,-129,-18,29,-71,-44,-75,14,-14,-48,-9,3,-7,-46,50,-43,31,-62,-42,-35,-72,-116,43,19,-74,-113,61,54,-19,59,54,-153,-78,68,-155,-121,-39,-59,44,18,-65,2,-79,-156,-6,50,90,82,77,-104,51,-67,-97,-15,-151,-49,-32,-36,5,-142,-90
,-92,-29,14,-102,-122,-80,-89,-30,-6,70,99,-5,-49,71,-66,-14,-19,46,-70,46,94,98,22,-93,8,-17,-101,28,-51,71,70,-42,-2,-69,44,-92,-18,-14,-37,-33,-3,64,34,-34,69,23,-63,-78,45,-103,-3,-72,-77,-74,-61,-85,-75,80,27,-18,-114,-73,64,12,59,-50,-38,-97,90,83,78,89,-93,-71,65,-68,78,39,-54,16,20,-51,73,-104,-85,-78,33,-53,-66,-52,16,-16,33,-33,59,-59,-65,-65,87,82,10,69,24,100,56,39,-89,-25,95,22,-32,-59,60,-2,63,-115,-61,71,34,30,-52,75,-29,85,-20,-5,-99,9,70,8,21,-40,-61,56,-24,-95,-53,42,-30,-67,-95,-17,-36,-31,74,-67,-101,-70,22,-67,13,64,-34,4,-15,-47,-20,-106,0,-59,15,30,-58,0,-91,37,-95,32,-111,-40,-102,22,-71,56,10,-56,64,25,-102,-62,-1,82,-15,-79,-15,-27,-102,-61,-93,15,-39,34,-112,45,91,-3,90,-68,63,-84,-112,2,27,74,-28,-66,-72,14,-72,50,-5,88,-60,-44,-108,56,-92,-93,-102,-62
,-17,-32,-98,3,-111,39,91,-43,51,61,46,-77,-168,-60,-73,-67,-100,-68,-101,-60,-98,36,22,6,-153,6,16,-136,-110,-46,-138,41,-142,-45,69,-57,42,-21,16,-107,-17,-36,29,15,-100,-34,-3,-7,-29,-72,-37,56,46,-85,-74,-98,-74,71,63,21,-28,38,62,-49,-74,-110,76,30,-60,1,47,33,18,-98,-75,-124,1,58,-69,-102,61,-94,-69,-18,-113,38,-121,-114,23,13,-116,8,28,-33,31,-15,50,-38,-126,4,39,7,14,68,4,-138,-12,-19,-61,16,57,-148,-136,54,-77,-119,-31,7,-45,88,-20,-63,-36,-33,43,-2,-96,-72,-175,-88,0,-110,38,1,75,-36,-49,-81,-1,50,-33,-85,55,-25,-115,-24,66,14,-25,10,-51,-123,37,-91,53,-45,-72,36,27,-137,-54,-96,-157,-9,5,3,38,22,-31,-2,-105,-25,-116,-14,-16,-18,-61,-29,75,-5,-16,39,7,-95,-35,-36,5,46,27,-149,54,69,41,7,79,-100,-133,15,30,-94,-81,-16,16,-136,-27,-48,-86,-6,8,-14,-121,37,-86,-57,-36,-11,-15,66,6,-90
,23,45,70,33,-42,-76,12,37,-44,52,4,-78,-86,-74,-105,35,-132,20,2,-80,-67,45,3,33,-28,50,-21,-125,-103,68,9,11,-132,54,-98,38,-56,75,-122,26,2,-20,-111,-96,-18,-66,-51,-73,66,-35,-1,-90,56,-47,9,-126,-81,60,-8,-47,-114,-21,58,-127,-51,-106,34,-106,-40,-15,58,-123,46,14,-41,13,48,-19,-122,-61,-28,-65,74,68,-129,-58,-30,15,85,-5,64,-43,-14,-35,-51,-22,69,-38,-37,-42,66,27,-58,7,-29,-105,-116,62,-25,-88,-103,68,-65,-68,1,-71,-135,71,30,94,18,-71,58,-50,-47,-97,60,35,-58,20,-135,-137,62,11,-48,73,-110,-13,16,66,-90,-97,-64,-69,-10,56,79,-91,-82,-9,-110,59,-25,-66,-48,-90,19,107,5,-73,-73,-96,-125,107,-13,-93,-40,-56,-75,-94,-8,31,-49,-127,74,-101,-61,30,-34,-133,-43,-97,-66,64,-96,-76,39,78,-21,-12,-101,4,-13,-5,-95,-70,-18,75,-60,53,17,0,-98,46,-65,-15,15,3,-104,-92,38,23,-1,-68,-47,-31,14,-21,47,-89
,-86,57,70,-84,-55,-54,-21,64,102,53,-5,-74,-140,122,-188,-259,115,-175,-23,8,-26,-206,32,33,-158,-82,-82,-201,57,-176,-143,-89,-187,-123,-18,-156,-17,40,-252,-184,90,-144,-32,-76,-50,-124,-114,-7,-166,70,-183,-151,-88,-99,-159,32,-126,-121,-94,-113,-150,-15,-31,-53,-89,-98,-103,-45,-94,-81,-96,27,-156,64,144,-130,103,-51,-83,112,-53,-83,44,151,36,-72,92,-27,60,-88,30,40,1,-47,-109,-52,38,-48,82,-19,0,69,-36,-48,56,-54,6,-123,91,17,-51,-57,-8,8,-98,73,70,110,22,18,35,-80,-59,-28,-60,76,-73,-8,148,-7,-127,-21,37,62,-29,27,-34,96,-37,16,75,-16,70,-91,102,-62,91,-71,-128,-39,-24,59,-59,64,-92,-54,21,97,-170,-39,-24,-118,-29,-38,-108,-27,-22,-120,-64,50,-154,103,43,-84,16,-19,3,103,-30,-132,86,81,-2,120,-88,52,-73,120,-104,71,104,-25,-57,-19,34,-7,-63,-86,54,13,107,79,61,-64,115,4,27,-50,-42,-100,50,-70,-83,59,-19,98,21,67,91,79
,8,-85,-112,53,22,-17,65,45,-11,-116,116,-23,-106,-37,106,-33,49,125,-3,-123,156,-16,62,150,10,-31,222,-61,52,151,-61,86,-19,-44,31,63,-96,126,-23,0,-36,-95,-92,86,-43,-180,-78,28,-10,-13,-9,-111,-21,-13,-90,62,-234,-150,-53,-197,43,-84,-63,-46,-30,-223,22,-67,-166,-92,-99,-126,-78,113,-157,-24,41,-154,-42,-64,-143,35,79,-69,38,-59,-121,-66,32,-51,-153,104,-86,-43,-82,-118,12,-28,15,-159,23,-68,-73,98,124,-14,13,147,38,92,-41,-77,6,-32,-74,-13,19,-1,99,-132,20,69,-32,-59,53,-147,-66,12,26,-119,62,-76,-65,-91,-15,-104,76,54,-128,-14,-73,-57,-91,55,66,28,-9,51,-91,-54,53,-103,96,-33,31,11,28,90,-69,21,-20,-87,-152,80,-43,-17,41,-116,-58,6,-117,-150,-82,-140,-40,-77,-112,37,86,-123,60,28,-140,-75,-69,-107,1,-16,25,-108,109,-14,-108,-70,102,-110,-29,-97,30,-60,25,-82,-59,-7,-16,-47,46,64,-33,-157,-157,-29,-116,-63,-58,100,35,-72,49,79
,-87,-6,61,-136,113,33,-33,78,-123,-93,51,-134,-7,-55,-105,46,18,22,-78,-13,-45,57,18,-35,32,-52,73,0,-89,-112,-76,-2,-122,61,-68,-129,7,-4,-86,58,53,63,81,-151,-172,44,16,-15,67,-58,28,-70,-140,-110,32,-92,-118,-93,-107,58,25,-72,-50,9,-98,-91,-73,39,-72,39,-149,98,-35,-156,71,-132,-99,-94,-88,-47,80,74,10,-53,25,-39,-38,-143,-172,64,-31,-128,-14,-29,-51,138,49,-117,-34,-141,17,93,-44,-130,2,-143,-63,-43,-61,-2,-102,-34,-170,-17,-136,-23,-9,-184,-71,-56,-62,64,-109,-87,86,89,-60,82,22,-108,-24,68,-171,99,-83,-47,48,-44,-29,74,50,-60,-103,-72,-9,-70,0,-156,-3,-150,-122,2,-52,-12,-61,36,-138,-115,-44,-130,-61,94,-97,-79,9,-110,41,-83,-163,-28,-58,-101,-4,58,-84,-51,45,-178,-11,-12,-169,86,-148,-129,117,-96,-183,101,86,-28,-6,60,-117,-71,-85,-42,5,-59,22,74,-154,22,57,-2,-79,99,28,35,-25,9,-104,74,74,-56,23,46,-99,-17,34,96
,-53,-136,11,-65,-122,70,-65,-47,42,5,45,14,94,-63,54,141,24,2,23,-111,34,133,-36,-44,-42,-68,141,109,85,36,3,7,-7,29,-113,104,92,20,82,32,-62,82,120,-103,86,-54,-57,-13,38,46,42,-17,-2,69,-41,71,-98,-56,83,58,-2,-97,-39,-7,-34,-64,-3,3,-3,74,-20,-36,-28,-12,66,-64,43,9,-43,-87,6,-17,-89,-152,-11,-72,1,29,-111,64,12,-40,-30,104,-133,-67,-4,-136,-13,-44,-95,-140,-118,12,11,-97,-84,52,-68,-84,-45,-106,-20,50,42,-28,-43,28,-104,4,-83,37,39,-102,-88,-51,50,-31,-17,-96,70,-143,5,33,-88,-103,-124,86,-78,-4,13,-24,-53,-62,71,-95,98,29,32,-85,-98,-20,19,-23,-111,-33,-56,-103,67,-107,68,-43,19,81,-80,-28,-72,23,15,84,-29,-18,-87,-3,52,56,-145,75,75,-110,-31,31,-70,-115,0,77,-9,-127,-90,-70,-120,1,-24,-103,74,-42,14,-9,107,43,26,68,-102,-98,-56,-22,-97,-39,-41,-1,-64,-3,89,90,117,98,-67,-60,-1,-72
