
/* Trace */

/**
 *  updated on 06/28/2023 22:46:55
 */

#ifndef __W_SDA1_H
#define __W_SDA1_H

char name_sda1[] = "Trace/sda1";

long weight_0_T_sda1[256*31] = {
-195,108,-3,-253,96,27,-160,13,48,-107,-167,-58,-143,-135,19,-37,-117,125,-19,-120,-176,-119,175,-126,29,120,-11,-157,-23,26,0
,39,-62,-8,-139,-70,23,-178,-153,46,62,37,-97,26,-102,-66,51,59,32,-86,-143,-85,62,-53,102,34,-35,-87,-4,-21,21,-122
,-216,-190,-255,-89,-153,-274,-26,-321,34,-183,-178,82,-19,-167,-34,-35,-69,46,29,-47,-82,-148,212,33,19,74,56,29,-166,-209,144
,115,-192,1,-19,-283,-88,-171,-33,145,-9,-47,-83,19,-40,-386,-87,-70,196,-203,-129,182,-373,262,-236,-33,-28,367,-55,-195,10,231
,-87,-7,-57,-38,-59,-45,-114,-121,192,-65,-139,-286,-39,2,-293,8,186,33,-135,118,193,-67,-184,324,-37,-88,-49,-38,146,-143,-139
,-119,19,-115,-10,-86,-48,-74,-79,-90,-130,-20,39,53,67,-23,14,-26,-38,24,-124,63,-20,20,-75,-72,64,10,-155,-59,-144,-64
,-119,16,37,-103,-53,10,-127,-158,-90,8,-3,-7,-48,-201,-44,-106,234,14,-49,37,67,-106,55,65,-76,38,-106,-44,62,-22,-112
,-180,-13,-242,-138,-92,-194,-6,-261,190,-6,-243,115,3,146,-30,142,-205,-159,64,149,-301,-164,219,-82,178,-75,94,184,87,-390,19
,-78,38,-91,18,-65,-32,-112,-141,-125,-133,-170,-57,-20,85,20,-102,25,49,103,83,-7,-104,44,-34,-4,-101,16,-57,-13,58,-32
,-26,-11,-113,128,-303,50,-118,-106,-351,77,23,-75,-97,-6,129,115,-407,46,-505,-118,-284,481,-1219,65,15,-201,-684,-202,-186,-288,214
,36,-1,-65,61,71,-7,-23,-122,-9,-88,8,-96,51,-191,-102,65,113,-162,-1,4,18,85,-113,-103,237,28,-158,24,-47,-59,104
,42,-30,-172,48,82,-6,-99,-62,-70,-161,-149,-444,-84,108,-68,66,205,-106,-31,295,-184,-167,110,-27,-59,-28,164,-189,33,-1,-98
,-108,-86,19,-80,105,28,102,-164,39,135,-150,-119,-33,99,-13,3,42,-147,72,-63,57,49,-34,-137,102,23,-45,-73,63,76,-90
,46,21,-381,-231,33,-62,51,-80,62,-2,-168,52,-190,-444,66,-165,-12,-281,-4,-97,-22,12,-131,-39,-93,2,-506,-181,235,324,-278
,-150,30,-9,-77,31,-11,-129,-132,-82,-205,-102,9,-155,17,-165,73,10,80,-54,-65,27,-48,6,-13,72,-2,-103,91,-87,-43,-145
,17,19,-10,5,-44,-80,-2,-31,75,-93,-8,-131,19,-15,-137,92,91,-190,43,-42,-79,113,-41,-15,-13,-74,-77,0,-128,-8,31
,-4,-137,-59,-37,-27,106,-137,-188,-299,-180,123,-197,-209,29,179,-477,209,302,-143,277,-185,47,-1,14,-57,-199,-322,-330,86,10,-659
,-230,7,-78,-99,66,-235,-203,-26,-112,-115,14,-29,10,-167,-70,-133,-212,62,-14,-65,-203,-144,109,65,80,75,-38,227,-50,9,-20
,-211,-297,-2,10,-359,-102,-52,166,159,-250,136,-116,-222,-443,112,134,92,-77,67,-139,36,28,-317,104,-710,122,95,-205,-245,-162,-136
,-127,-123,-178,73,-119,-8,-67,124,-176,-46,-87,-143,-159,-90,16,100,-111,-67,116,19,-3,-89,-105,-9,105,80,-100,-184,6,-125,136
,18,-215,-42,-74,-76,-131,-134,-144,-140,19,54,28,35,-226,-105,-6,-8,-57,-227,-113,46,-134,-200,117,-123,13,-132,57,28,-135,112
,-262,-146,-3,-267,-159,107,-78,-116,30,-268,-10,60,-253,-166,-46,106,-207,-149,-131,-178,25,92,34,-22,-27,-27,140,-228,-57,-230,153
,-209,76,-65,24,-59,-132,39,-150,177,-196,-217,27,17,-233,-685,-77,-123,-98,-829,-126,118,51,127,-81,-178,-9,-117,-88,-85,-50,-588
,-191,-182,-176,-55,246,-65,-116,-150,-152,-215,-66,42,-118,234,1,-79,-85,-62,-35,-149,-116,-254,87,-42,-85,-66,101,-72,-227,-158,200
,-144,-228,-58,-50,-50,-206,12,-35,-132,-165,-243,-45,-138,27,34,48,18,57,36,-180,-148,-168,4,1,43,20,100,-43,64,-37,-18
,-93,-60,-67,33,-261,202,-123,-119,-992,75,-44,-255,92,227,-11,56,-135,77,-615,236,33,-28,-938,-404,-440,-116,160,-164,-38,-95,85
,-120,-190,-218,117,40,81,-80,95,-136,5,108,-58,-118,-83,-104,-150,193,8,29,-175,-169,-118,-671,-345,-285,-329,266,155,104,156,-231
,-198,-187,105,5,-215,-96,-252,243,-15,-217,-279,4,-157,95,66,16,151,-73,-63,170,119,-89,-40,206,101,-17,-137,-38,-151,121,-177
,-19,-57,-277,-36,-134,-180,-145,-268,-106,-284,13,-6,-171,-254,-9,-65,152,-7,120,38,72,96,29,-25,201,-68,70,74,77,17,-155
,27,-145,-44,23,-206,-119,-4,-119,6,20,55,-81,-7,-134,-124,-118,-164,37,73,-24,59,-221,8,-203,35,24,-80,-224,-54,-3,5
,-128,-339,-283,-215,-111,-209,-283,-64,10,-48,-174,11,-163,-377,7,-70,-76,246,290,-69,-183,-57,-177,111,70,88,81,-252,-148,-317,506
,-110,54,18,-72,-126,-22,-194,216,11,54,-21,-14,-205,-135,-31,84,-41,-130,113,-163,-516,-207,-94,-73,-113,135,70,369,61,111,94
,-83,-13,47,-224,64,-136,-4,-151,-6,-64,100,-68,37,45,-274,1,-38,55,38,-9,217,172,-37,-177,-30,-16,-65,104,203,-10,-155
,-6,-77,-56,-28,-197,82,-146,18,53,-89,-130,-46,55,-107,-123,18,-62,-25,56,-60,77,-25,-77,-66,-119,104,-24,-2,-164,-81,34
,-172,-6,-26,-36,75,-12,37,65,-75,-191,-129,34,-222,74,24,-198,-38,-112,88,87,48,-158,-116,-101,-49,-15,149,41,5,-125,68
,-258,-36,17,-311,-28,-2,-195,-18,64,-337,201,30,-325,278,16,208,-140,-55,54,316,-214,-364,-160,-204,-178,-240,168,-88,19,-88,170
,25,-31,-97,25,13,-64,-33,222,134,58,-508,-557,198,-457,-130,-92,60,162,77,-134,-11,-4,-203,2,112,19,-108,97,5,-67,-97
,8,61,-110,-212,-99,22,18,-5,-105,-55,-97,-32,-50,-16,97,8,-97,-32,-192,22,-111,-22,-54,-58,-89,141,47,-203,-219,-4,395
,-19,-5,-20,-124,-63,14,-236,-19,-21,-83,15,-63,-46,-4,30,-194,-63,-38,-132,-85,52,-77,-16,-29,-17,-38,41,-487,-386,-207,697
,-207,15,22,-72,-103,32,-64,-147,28,53,-173,-75,-179,80,-13,-141,69,31,-4,-34,-71,-34,106,-43,-240,59,42,261,-54,-230,38
,37,-53,-52,-33,-262,36,-14,-297,-77,-5,-269,-126,-120,145,-6,-25,49,4,23,-108,38,12,46,49,-63,-145,14,-43,-46,-18,27
,-69,-172,62,-46,-168,-311,-84,-122,209,-49,-268,-251,40,-212,-161,112,98,209,74,-38,-60,176,57,-114,-75,-78,277,-73,-294,116,124
,-166,-11,-264,84,-58,-83,-41,-186,46,-17,-131,59,-79,-116,-54,-186,104,99,46,186,382,-63,-318,-13,120,-20,-56,342,-128,178,-198
,-64,72,-339,-68,-3,-456,-124,-138,-466,-26,84,-65,-71,-714,220,-15,-141,38,-304,-37,-87,60,-487,-30,-175,-43,337,155,72,135,-41
,-229,114,-221,-190,25,77,-96,-430,38,-181,-168,-33,5,16,-441,126,92,108,143,-220,-87,-221,256,-29,-1,126,223,-129,-92,-276,-117
,48,-102,192,-70,-441,-205,-217,-47,58,14,-211,-463,-233,-329,-12,-5,135,112,113,12,-61,160,217,-107,-95,-5,-314,-178,107,-113,-34
,19,-96,-74,-57,-150,-28,-101,-187,-47,-96,-30,-29,-94,-152,70,-22,-39,-74,2,20,-5,-2,-78,-23,65,87,-23,46,-39,-136,-115
,26,26,-404,-222,-76,200,-180,-111,55,-34,65,22,-176,-104,-39,-10,11,-9,-138,-127,281,188,-89,-46,-27,-1,-553,-290,-111,-212,-897
,-97,-46,-26,-128,21,-17,-262,125,61,-167,85,-6,-60,-104,-107,-37,-3,154,-84,-70,-113,64,74,83,-111,-4,33,-108,-476,-320,628
,-7,-173,-9,6,22,-167,-3,-62,-131,-35,-161,5,-177,-169,5,231,-61,-44,-131,-84,59,-94,59,5,-34,-174,44,-107,14,148,-6
,-60,79,-22,-235,199,22,-247,48,-102,-109,-34,-76,-173,-290,14,21,-109,-179,38,-237,-48,25,-75,-19,-33,23,-31,-188,-116,45,245
,-169,80,-176,-156,-141,4,24,58,-252,-199,-56,-102,-166,-369,252,83,173,-85,163,-447,-146,-534,164,-205,-386,1,167,-76,96,116,-66
,16,-213,94,-197,-83,-28,-86,70,-356,-59,-164,16,-186,34,-103,-35,-16,-91,-510,-34,-63,319,70,-152,-93,-89,183,-480,-627,-1331,566
,57,-64,-227,-166,-61,136,50,-192,-156,41,132,8,-104,-133,-145,-61,147,-198,121,-100,85,-141,173,-52,1,2,68,-366,356,-32,126
,-13,15,73,-32,-189,-151,-81,-239,8,-93,-84,-71,-2,-26,-50,-39,37,48,49,70,-20,74,-147,217,-71,-73,-41,-68,68,11,-45
,-8,38,-85,-93,-139,-18,-136,93,-260,-209,68,-31,-238,24,-76,-78,-124,89,-168,-35,-102,13,71,161,-156,-14,116,-103,1,47,-63
,-9,42,-184,11,16,-45,-129,74,-312,-161,-192,61,-113,-113,102,-45,-128,230,-140,80,-15,-157,-148,-192,159,176,-67,-91,133,-79,135
,-97,-277,-275,-136,-108,-211,-133,-98,64,-135,-325,56,41,-292,29,-130,106,-53,-22,156,28,-93,102,32,78,169,-10,-59,122,112,-136
,-64,-406,-164,-74,-213,248,36,36,-53,72,-250,-344,45,-492,-84,260,57,-298,-666,56,-92,174,23,167,44,157,-265,-67,22,223,42
,4,-75,-254,-147,-148,-198,-108,195,99,-16,79,49,-58,-233,2,-64,118,-187,-392,-33,-103,-94,31,-16,-156,157,45,-151,-197,-57,443
,25,-124,120,-156,-161,-161,-199,35,-452,-164,51,-81,49,-61,147,-172,-21,-98,-422,334,-637,167,-39,-112,-114,159,48,-162,-246,-476,309
,24,-40,-140,-72,32,-244,-41,-233,-209,-120,-147,-84,51,-168,-5,-68,-50,-18,151,-99,10,42,26,-191,-142,-193,-175,-7,72,96,-141
,35,-38,103,-29,100,10,-175,-19,-22,-121,-52,-342,-129,-94,-56,-357,-234,320,253,-196,-99,-326,19,-129,-190,140,-993,-130,-85,86,-292
,-54,-54,26,-179,14,-332,-169,2,-202,-75,42,-310,-169,-79,226,-106,-149,-135,-1109,-81,-186,-14,188,-27,153,126,70,136,57,169,-746
,-86,35,-269,-71,-328,-482,198,-59,-136,107,22,-51,2,-123,-497,-40,75,150,204,-233,-190,79,298,69,25,-42,55,-1,-38,72,282
,19,-137,-96,-135,6,-103,-28,7,-7,-104,-1,-121,75,-30,77,-133,209,70,-159,106,-134,-20,179,-418,-432,-958,203,-303,-321,-1593,704
,-254,-146,-67,-29,105,-108,-64,22,-70,-6,-44,-24,-51,133,17,60,-6,46,-78,-153,103,123,64,4,-90,87,-77,168,117,-134,15
,-77,9,86,-163,-325,-71,-234,-409,-28,-120,-207,-134,-1,-411,-45,47,-89,152,-6,70,-13,-181,336,-150,-122,52,-191,25,-75,-139,224
,-109,-127,14,-214,-97,-55,-82,-139,87,-29,112,-61,-87,-120,44,64,57,-84,-104,75,36,19,-71,-31,-140,-136,3,38,-3,-146,65
,-240,-130,-16,-60,91,18,-43,56,-10,-15,22,13,11,-63,-44,-97,52,-37,44,-105,-145,-63,41,-133,-67,-25,118,-936,-520,-293,1021
,-3,-215,-203,83,-32,-29,98,-54,-145,54,10,-106,74,-45,-122,-20,44,-128,-104,56,206,-204,-111,-60,119,100,10,-254,242,-155,97
,10,-119,-120,-148,17,-147,-68,-98,-95,-180,5,-124,-60,39,-9,54,7,-8,102,-75,76,104,5,48,-179,49,90,-135,-160,-93,-59
,-135,46,-124,-18,39,29,-45,-115,18,-180,-89,-49,-70,40,6,-79,-48,-133,105,-143,-128,33,-65,21,19,-159,-52,71,-12,-60,-80
,39,-180,-54,-35,-3,86,-94,-190,-285,-148,-57,-53,-222,-106,56,-125,-174,8,-35,104,-19,118,-54,-77,-214,-35,358,184,-69,-248,194
,-108,146,-347,-86,-104,-151,-174,-73,-116,57,-2,-77,-65,78,23,-158,157,147,-33,-200,4,-157,383,-233,-159,-43,-509,-115,-163,-62,48
,-8,278,-204,-107,-273,-339,143,-349,44,20,-144,32,-54,-232,-15,73,-58,117,-141,-28,143,-296,127,257,-349,-222,358,-233,30,-43,260
,115,-371,-282,53,-146,-86,-62,-672,-192,-150,-676,41,-145,-613,18,26,-13,-39,-32,98,101,127,99,-193,-355,-313,464,-129,-202,-229,468
,-59,1,-76,-161,-17,-2,-61,-94,-6,-41,-147,-87,-53,53,23,-61,5,-59,-101,102,81,-86,-18,-152,100,15,105,-98,-101,-185,64
,-95,-26,-55,-65,5,-109,-104,-43,-141,-34,-83,75,-61,-7,-93,-77,91,-106,28,128,9,-41,-8,4,60,-36,-11,-100,-93,-25,-34
,-49,154,-63,-125,70,114,-115,-234,-282,44,-223,-180,-80,85,-151,67,18,-216,-349,82,60,83,-112,-114,-27,-58,81,3,68,-177,116
,-99,-110,-276,-165,-454,243,-139,20,-55,-186,-66,-270,-73,-298,199,-279,-266,-100,-107,159,137,68,-14,3,144,-119,-103,-26,-90,56,219
,-142,-207,34,-174,-122,-27,52,-221,-2,-99,59,-90,-181,171,-6,-79,-72,-36,190,-157,7,57,-119,-19,260,11,-101,19,79,-41,64
,-159,-172,31,-141,-81,18,-101,75,12,33,-95,-124,0,51,-7,19,107,-155,8,-24,-145,32,125,-89,37,-71,99,-116,151,-37,3
,-59,-196,-81,24,-52,16,-73,-49,-144,-147,31,-48,-174,-73,75,-87,-126,-19,-190,140,-58,-38,75,19,33,9,65,-104,-133,-148,16
,165,-7,-139,-9,-359,-147,-18,110,-224,-54,-266,-102,116,-476,182,147,82,-3,142,-302,-197,-383,18,-30,-343,230,95,-15,91,-180,121
,-34,-258,-108,37,-182,-176,15,-141,-111,-140,-87,-75,-207,90,6,-32,-79,242,-109,-15,-112,-101,36,78,-26,-20,29,143,-69,78,-37
,-134,43,53,-242,6,-27,-128,-117,73,-40,-178,77,-28,206,34,-403,-81,-126,17,203,-184,3,64,-106,265,-750,68,-6,359,-410,-451
,12,-132,35,-23,-6,12,-74,-134,2,-39,-179,14,-231,46,-154,-99,7,-49,-4,14,-34,-121,-72,144,86,-65,-109,84,-39,-61,28
,-1,-57,-86,80,-189,-182,37,-52,16,-15,-82,3,-183,-156,-28,-112,-19,-25,74,11,160,-71,-139,51,40,-87,-78,-23,169,5,-86
,-142,-43,-242,62,-108,-763,-45,-240,112,-149,7,21,-113,-89,47,429,106,-562,26,-55,64,-86,-380,-63,-37,5,14,49,-69,-54,-165
,-81,-100,-5,-35,46,-96,-204,-162,30,-96,-31,21,-107,-24,91,-14,112,62,-92,-23,13,54,-180,-96,51,-99,45,52,-131,-61,-183
,-121,-41,42,-100,-40,-161,-199,-116,8,-140,71,-170,-92,-12,86,78,63,-59,27,14,-42,2,-130,55,49,-131,-37,-48,42,-37,5
,36,-35,15,156,-35,126,98,42,-79,155,53,-8,14,-58,-101,-95,-197,154,-86,-29,-140,113,-134,-60,151,-134,62,-338,98,77,130
,4,172,-60,-71,49,167,-128,-222,27,53,-139,-57,-147,-115,-152,-33,131,67,6,57,121,94,-320,142,169,-162,-281,-188,-127,26,356
,-10,52,-303,-221,-167,-27,-121,-60,162,-243,38,-171,-216,51,-651,73,63,29,-10,-58,-505,-132,420,-318,47,-185,354,-173,268,22,148
,66,-73,-66,13,-86,-58,-21,75,-69,-142,-72,-200,44,59,-55,211,-92,148,-223,-171,42,-41,-3,-77,173,-82,97,-136,-31,32,55
,-58,-473,-162,-138,-504,35,-133,-338,-168,-15,82,-156,-144,360,177,79,-82,74,61,-93,-43,-37,288,-47,173,31,144,-108,-151,8,-231
,-265,-248,-5,-229,-68,212,-100,-146,55,-263,-24,-23,-276,23,149,-428,-90,-225,-712,-217,83,191,161,-72,-148,223,10,175,214,-106,-258
,-106,-3,-61,79,-49,-18,-89,-48,-84,-15,34,-135,52,-175,-2,21,-66,-5,12,-85,-51,-18,65,179,-34,135,-170,-169,20,-82,129
,-104,10,-139,12,-111,-197,-218,41,-94,-52,107,-137,-160,-120,63,-149,-171,-205,74,-121,-139,18,-90,-121,-4,-5,91,159,-13,-45,57
,-131,14,-145,42,-18,3,-88,-85,-2,-145,73,27,-136,7,-158,-135,69,-93,-189,36,-196,-84,-55,-260,112,211,-10,82,-170,13,79
,-76,-183,-15,-53,-157,-43,1,-73,-45,-121,-96,-149,-95,17,2,62,57,-119,-44,-91,61,21,78,73,1,22,77,-65,34,70,-78
,-92,-10,61,29,-197,-51,-158,-58,-97,-165,54,-78,-4,-66,23,33,-26,-5,-33,-16,33,-5,6,37,-1,6,7,-33,126,6,-17
,-151,-197,14,-33,-165,30,-159,-36,-128,-207,-203,34,-217,-139,87,100,-23,-82,40,12,60,-41,-46,126,115,11,-85,-36,213,-92,-162
,-22,-93,28,-38,-7,8,-94,-248,-274,-238,-49,-353,-240,-274,-469,-37,-167,-10,43,123,191,124,-44,-6,-1,105,98,-2,16,257,122
,-3,-54,48,1,-65,-52,20,-112,37,27,-268,-221,51,-31,-181,238,52,-132,20,-63,-177,-52,46,-102,-73,-143,32,231,89,18,-493
,-13,-18,41,-14,-242,-269,-8,-8,-112,-160,-265,-27,-181,-183,43,-120,-122,-82,-90,-113,-118,77,11,16,167,19,-71,69,132,-5,-138
,-87,-51,-97,72,74,-79,-118,74,-55,-140,-43,49,-119,-101,-7,-87,-120,51,14,-115,55,-3,-151,-124,-117,63,75,89,-137,83,-160
,-73,-147,-152,-35,-117,-22,57,12,27,-113,-40,42,-130,70,-78,-84,89,86,-114,50,-128,25,-92,1,-96,69,62,1,124,-70,-121
,-297,25,-16,-531,147,-26,-263,-91,92,-283,-76,83,-315,61,-247,-265,-83,-210,-1036,187,91,94,-9,-315,-99,-384,210,26,96,-7,228
,-246,1,47,-43,-117,-301,-274,-16,-404,-147,243,-168,-271,-148,-172,-106,-23,-182,5,145,137,37,179,230,33,-33,-249,134,175,191,-47
,-42,5,-33,-87,34,-60,-26,-82,-6,-166,-27,50,-127,-7,42,20,88,-5,-74,-127,-95,10,98,-72,9,43,-175,-50,31,-186,-29
,-26,-293,-51,-103,-326,-76,44,-344,-112,-128,-439,63,-5,-373,101,94,-126,-133,53,134,145,-34,-54,-57,-248,169,181,-97,-122,8,-132
,-128,-101,0,102,69,-472,91,71,-144,29,-290,-485,-60,-112,-463,105,-208,221,-196,153,156,47,-83,-51,-12,191,71,22,-194,146,263
,-64,140,-208,-13,-821,183,-181,-387,59,-77,-209,-44,-188,262,140,146,-350,14,-265,-261,-280,-43,-231,19,28,-166,-556,-234,-183,-143,-61
,-34,-85,-123,-133,-160,-117,-161,92,-3,-93,-122,-96,37,-90,-134,-121,28,-41,-44,-13,-125,24,-41,-68,-130,-127,-114,-72,115,53,78
,33,-10,-106,-81,-135,-136,-69,-5,-93,-2,-96,108,-108,-91,-75,139,-27,-123,-73,-110,110,-23,71,24,-78,-24,75,-68,-93,-11,-66
,-135,-62,-204,-285,132,-10,19,-129,-18,-89,162,-75,-81,49,-11,14,-133,-50,-134,67,-176,-123,11,-234,153,228,-190,143,-45,72,-163
,-183,-146,-372,-163,-191,-28,-106,88,-300,-114,-45,-254,-33,75,-128,-106,87,166,-44,99,66,143,-72,11,146,180,-107,-91,-4,-215,-198
,-190,57,-160,-18,73,-67,-76,-65,-25,-39,26,135,-53,-208,-29,-110,-229,2,45,-98,-48,-193,-93,-149,-196,-21,-143,-13,-147,-74,240
,-53,-7,-94,-10,27,47,-70,-85,-28,-55,-156,-109,-27,49,-80,53,-132,58,39,-9,124,-17,-90,-151,-126,75,7,-132,-146,-102,-67
,-31,66,-20,-151,-21,-145,-39,-93,-81,28,-159,-82,42,-9,54,-65,-60,-89,-72,-180,54,44,-17,-112,-130,89,20,6,-29,-53,-50
,-145,-451,201,-97,91,16,-17,-500,0,-15,-427,25,-174,-358,-221,161,-18,183,7,129,37,116,-309,186,-58,41,-10,-80,9,-132,26
,34,-202,-88,167,-380,-492,-13,311,-184,-6,-44,-206,-151,235,-88,-91,-32,-71,-161,11,-121,-3,-59,-29,-78,52,-648,-21,-90,-124,-263
,-325,130,-313,-319,5,139,-103,69,-446,-306,-20,81,-324,-96,30,-46,-219,5,77,-198,49,46,-14,62,-35,-116,-150,-108,-109,171,152
,-146,-300,-324,-224,-245,-785,-208,-86,-82,-1,-95,81,-278,-193,-407,205,157,129,68,103,46,-4,116,-193,29,-126,165,99,182,104,117
,-66,21,-42,-97,-168,-141,36,-127,-54,4,-166,13,-61,-192,-10,43,17,-40,-74,-181,114,8,-121,-21,144,-38,-8,107,-178,123,-5
,-90,-96,-84,-193,-27,4,66,-196,16,-189,-34,60,58,-125,-88,-115,207,-100,-101,101,-233,132,86,-131,-149,-19,-69,36,-160,21,-148
,-115,-93,-1,-155,-38,-23,-103,14,24,-195,-81,-57,-53,10,47,-51,145,-56,-31,-56,105,46,-72,45,10,-12,2,-47,80,-80,27
,92,5,-278,72,-134,-337,71,70,-309,-136,71,-378,11,-21,-29,-65,52,-115,-205,62,183,10,-324,17,-179,-141,-360,-93,-78,121,-5
,6,-55,-34,54,-99,-245,-7,43,66,15,-36,-249,-38,-90,-90,71,-71,-127,-276,-160,215,235,-62,-61,-104,50,-259,103,-121,-145,-144
,-111,-40,5,-151,-99,56,-140,-163,-13,-149,-47,66,-7,-67,-196,98,-66,-21,-144,-87,56,55,75,27,96,-15,-130,-25,-6,81,-96
,-168,-309,-211,-293,163,68,-183,-284,-732,-147,201,-463,-253,-13,20,-88,-50,-93,-186,0,-24,-73,-315,169,15,156,29,40,26,86,193
,-53,-44,-19,-5,96,-39,-42,-212,-118,-47,-106,-19,49,44,-20,-13,-131,11,-8,94,-144,116,4,121,-113,3,-73,-161,152,109,-123
,-202,60,-128,-27,15,31,-84,-43,75,-132,-171,-119,-174,32,-63,-193,56,-102,-19,-149,-42,-143,-382,39,38,44,-56,-208,61,-45,25
,-188,62,141,-210,7,-24,-257,210,77,-83,-378,69,-109,-219,-147,-36,-106,-42,-280,-149,-45,-258,222,-42,-194,-174,91,37,-41,-49,-415
,-166,-201,-84,-176,-7,-64,-38,-227,57,-59,-17,58,79,-69,-36,-4,0,-14,6,150,-163,44,-146,-192,-82,72,-61,165,-141,73,-24
,-218,-76,13,-304,106,27,-178,28,81,-96,-113,21,-15,60,28,-305,250,217,-238,93,108,-144,60,-315,-1096,-1968,477,-270,-73,-53,352
,56,-72,-147,75,42,-168,81,-165,-20,-10,95,16,-68,-200,-137,60,-62,-73,-80,24,-103,31,-2,-224,172,153,-218,174,-255,67,129
,-35,-265,-47,9,-398,154,-3,-229,-108,8,-194,-45,-37,47,-4,-120,224,-12,-32,61,-341,-21,228,31,34,-45,203,50,9,118,-259
,-168,-138,68,-176,102,-64,5,-27,-134,-74,45,-40,-59,-110,-143,-126,-91,76,15,-84,38,1,94,-36,100,-125,-125,-15,-80,-57,-156
,-9,-15,-131,14,99,-199,-3,88,-193,-48,17,-221,-122,-293,-68,-50,107,-71,15,111,-35,-54,-12,-124,225,350,-343,4,-42,-8,112
,-223,-189,-100,-124,-296,105,-49,-449,9,-3,-199,-267,-121,-24,-45,-474,-299,-114,507,46,-279,370,99,144,-17,184,178,-548,-446,-567,521
,110,125,-266,127,-171,-113,76,-263,-322,107,-94,-12,65,-219,-363,84,-191,151,110,-25,-160,59,-95,-40,268,-71,-63,-15,1,-104,241
,-42,-447,35,-158,130,79,-23,-150,-75,-90,-115,83,-123,-215,-144,-81,249,85,102,141,-69,154,-68,5,331,95,-412,-33,-196,40,-18
,16,-98,31,-57,-202,-284,-54,-5,-590,-216,57,-114,-61,-117,-268,-159,-39,35,2,183,142,-40,32,-7,127,160,176,76,24,66,54
,-71,-231,9,-28,-172,121,-15,-433,-373,-95,82,26,-90,-474,-792,-13,21,-81,-200,-7,-150,29,48,-15,-42,-144,170,-90,-41,-191,280
,53,-41,-78,55,-142,-81,-132,-101,-23,-160,5,-46,62,-73,-56,0,77,1,14,-81,66,-121,45,106,-104,9,-40,-110,-24,176,-47
,-248,93,-103,-110,150,-270,-159,137,67,-81,-287,-201,-193,-236,-78,-58,-72,25,-157,64,92,11,38,-2,94,-109,-497,-136,-49,-85,-215
,45,-68,14,-217,-55,2,-75,-206,-52,-34,27,-140,54,-44,-9,-70,10,-8,-125,197,0,-136,-69,16,-33,82,-188,-63,106,-25,36
,-101,-44,-68,-158,-22,-29,-125,-46,-4,88,-65,-80,93,-9,1,-90,-75,-46,143,-109,94,111,-100,68,39,-42,-63,-127,-4,22,-168
,17,-100,-135,52,-103,17,-146,-125,-56,33,-162,-56,-61,-130,-137,71,50,-14,-11,40,-8,-76,108,-96,-139,114,-1,67,76,-119,-60
,-137,-619,-424,-255,219,77,-247,168,7,-5,78,-127,-14,-287,21,-159,-15,-60,-231,-71,-77,-133,-157,49,-25,-50,188,66,18,-19,175
,75,-6,3,91,-35,6,-128,53,-169,47,-131,-248,-51,-170,-677,-75,-77,-26,-710,-112,-175,-179,-189,7,298,-256,127,-217,28,-92,-1181
,-195,35,126,22,106,-668,-108,-20,-399,-237,162,-1163,-167,-189,98,-100,-122,21,-975,30,-53,-73,-629,-26,76,62,60,-259,65,362,-79
,-84,261,-8,68,-46,-57,-71,-285,-63,10,-204,-74,29,-201,-101,-1,-74,33,-255,152,-266,206,-111,-151,-59,-26,-18,-42,-324,174,53
,-38,-311,161,-53,-209,-64,-145,-269,-140,-158,-85,32,-78,-299,55,83,229,143,-119,125,133,-11,-131,-91,278,88,-246,126,-53,19,-104
,-37,79,-56,-22,-19,-49,-39,19,-34,39,-48,-142,-180,-97,-64,-117,-101,45,-53,45,-30,-141,-129,-117,21,-45,189,82,18,-35,-38
,172,85,-136,168,-76,-104,178,28,82,159,-116,9,79,26,18,-114,2,-127,-5,5,-23,-42,-83,-27,-66,-58,98,-242,-10,112,87
,-56,-93,-118,-172,-166,33,-221,-159,-14,-194,101,8,-68,50,-24,-4,-7,-21,-106,95,-42,204,-231,-85,-33,-108,-38,42,43,-35,33
,-80,-236,-216,-23,32,22,47,-18,-6,-184,-84,3,5,-38,-75,-27,55,57,-111,88,-163,33,-117,-88,-82,66,-121,20,-83,-145,166
,-14,133,-291,-199,192,0,101,-399,-40,-129,141,-1,-34,-216,-444,-10,-90,-121,-57,275,63,139,-259,148,-35,91,92,28,-2,84,-114
,-10,41,-8,-54,-119,-12,152,-99,40,150,-24,-19,-97,-59,-20,-133,173,-29,-137,-64,174,-52,-66,15,40,-66,6,-19,-40,90,-101
,-105,129,85,-114,-97,-417,-85,-176,133,-140,14,68,-124,-164,-244,-79,-34,5,-364,-164,179,56,96,-99,-52,-152,-677,17,6,-97,-139
,-141,13,-231,-194,-126,-314,-103,-63,225,-222,94,114,-166,-62,-32,-144,61,-92,-12,173,-431,-167,350,-49,45,110,24,-190,235,-24,117
,-150,-356,-351,-31,-300,-182,86,96,35,56,-38,-398,94,83,111,-56,-92,-64,-189,-126,-213,-193,83,-157,-63,-68,116,-152,-143,-206,86
,-60,12,-14,-154,-46,-68,-6,73,18,-118,-34,-56,-85,63,82,130,-2,-17,-57,97,-16,-62,-11,34,-159,-8,92,197,-20,32,-146
,-140,-330,-347,-138,-94,-435,40,-543,190,-58,-324,171,38,-265,-29,6,141,12,32,-138,-25,286,-30,154,302,-143,-291,217,-153,93,-159
,-240,-238,-82,-79,-97,-101,65,-207,36,-35,64,190,-34,-188,-210,26,249,-167,120,-36,-118,129,-215,17,-135,-105,-99,70,-50,116,-79
,-82,-85,-226,-41,-512,119,95,-567,-36,-21,-572,-96,46,-583,-424,-64,-158,-6,-29,-48,-47,52,-352,99,95,70,-50,19,-58,-129,62
,-15,-78,47,4,-346,-149,-90,-815,242,-151,-10,-43,-98,-205,-113,-390,-481,-268,344,17,-34,-67,227,-315,-97,-80,98,90,-147,-153,-395
,-73,-175,116,-53,-110,30,-13,85,-4,-143,-112,-87,-231,-66,-33,-24,-117,-130,147,402,-100,-74,-124,-63,-52,102,172,25,37,34,-16
,-117,-95,-51,66,-175,-29,78,-13,-103,-61,-162,-94,12,63,-97,-39,-93,106,-30,68,-158,21,68,-109,-24,2,92,-97,67,38,70
,-107,-270,-166,-117,106,-26,-235,37,15,-1,-333,-83,-97,-117,63,157,48,-58,53,32,100,48,111,186,113,-53,-155,-10,226,25,-373
,-94,28,114,-139,-77,-142,52,-242,-463,-42,99,-60,117,-166,-209,360,-155,-110,-17,-198,-3,-178,222,244,-263,-97,187,177,-125,36,51
,-39,138,-468,-229,-167,4,-58,-83,-264,-64,44,108,-210,62,-104,91,-124,-75,217,-274,-27,-24,-29,29,-144,-825,269,36,-265,-26,277
,-41,-95,150,-85,-23,-100,26,-113,-396,-116,-92,-360,-74,-65,35,-85,137,-8,16,64,-189,174,-122,-79,-205,331,96,-222,-237,-94,-125
,5,75,-169,55,69,-11,-177,-178,69,-75,-197,62,-200,53,-111,-180,66,-71,-7,-122,19,31,13,39,-83,9,-104,-158,86,2,-26
,-100,-112,8,56,-135,-36,-163,-112,-38,-141,-32,88,-104,-147,-94,86,-40,31,46,111,14,-71,-168,-16,12,-39,-129,-30,-44,-88,-65
,-15,4,100,-117,-97,-58,-33,-41,-146,53,-42,-41,-105,-116,-115,-153,-126,49,-24,14,-127,91,-52,-115,-36,-106,58,70,-56,6,73
,-97,87,-474,-87,-219,153,30,-220,73,-252,-60,-295,-41,-116,-334,84,-13,60,4,-163,-174,-159,198,-115,37,21,35,-158,-128,-63,-119
,-113,105,-10,-40,-189,-17,-106,48,-59,-50,-64,-39,-51,-14,-98,-3,55,137,-269,58,-171,-102,-325,34,46,98,-99,131,-525,126,340
,-112,123,96,-37,-414,-367,-33,-286,-271,-231,-126,-302,-169,73,-160,142,-94,-32,153,-204,44,-82,96,-142,18,-4,92,119,120,36,-45
,16,73,-3,-6,-39,-143,25,-127,-47,-150,-226,-242,-182,-22,-64,136,-69,2,28,-83,-14,-79,137,-21,69,-48,6,94,28,-47,3
,-49,-11,210,-87,192,-146,-109,55,-583,-183,-117,-145,-222,-141,-103,31,144,-59,41,193,-314,100,55,-178,-228,-374,169,-179,27,34,146
,-39,-90,-178,-16,-440,93,166,-191,-307,54,-184,-188,85,72,155,153,-347,-17,-347,-46,-55,-164,-1327,-117,-79,80,-1226,-422,-299,-207,374
,-344,47,49,-478,-31,7,-349,-80,114,-198,76,-181,-367,104,142,-116,-189,-356,222,15,-8,-62,159,-48,-22,-546,-32,-22,-219,220,201
,-94,-115,-195,-160,-197,-30,77,-173,48,-126,-164,6,-37,-131,-154,-30,-77,39,-70,-14,128,-41,-125,25,2,27,88,-40,-45,-14,102
,-13,-151,-163,-176,-98,-81,-51,-86,-105,-6,-126,23,-8,33,49,-66,-5,-132,-24,-106,-47,45,118,252,-12,-118,-100,-53,-142,11,-81
,-85,-53,-329,-201,-25,-28,-146,55,-26,-62,-71,-269,-5,36,47,-116,-185,6,10,-127,-53,21,-157,105,-28,54,-14,-122,-39,16,152
,-184,-341,61,-231,-123,147,-37,108,84,-228,-456,-366,-135,-316,-193,68,257,-23,7,-103,231,29,129,139,134,62,-161,119,-9,-57,58
,-2,-37,-228,-202,23,-1,62,64,40,-147,-41,-71,-109,-128,-151,-1,-146,80,-182,-41,112,-121,122,49,65,-82,-55,-80,28,-62,-12
,90,-48,-5,37,-40,-100,-123,-179,-103,82,15,-29,-74,-43,-7,-26,-107,16,45,3,-6,13,-107,-115,-47,16,12,44,-55,-250,100
,-46,-113,30,179,7,70,96,74,40,99,-75,48,166,60,3,-56,-51,62,102,48,-39,87,88,-34,173,-42,103,-95,20,100,-4
,-149,-111,-41,-126,119,76,53,78,-304,-83,-58,-190,-165,-81,149,125,317,-385,-157,122,-148,-42,237,111,91,258,-213,459,-195,-35,-195
,-81,-30,-410,-40,-4,-229,-116,-46,230,15,-193,-208,-80,-217,71,202,-253,34,179,-49,-93,-43,204,-33,113,29,-50,-217,-134,132,-120
,-21,-58,-16,36,-194,-116,83,-31,65,-159,-112,-38,-72,-85,-22,-48,-100,75,-9,65,-66,-79,-115,121,-139,76,-52,-11,-13,-111,-65
,-123,-686,235,-39,-1159,57,-152,-808,83,3,-325,-248,-24,-159,25,-77,-89,-28,-692,-135,-98,-133,-868,-127,-155,-81,-365,-102,-137,-116,-366
,-178,-206,-118,4,-40,38,-12,-94,-124,-14,25,55,84,13,-46,-250,-78,-160,-114,-40,39,-155,-92,53,-102,-25,-24,-103,-45,74,-46
,-104,19,-26,58,-61,-370,46,-195,74,-69,45,114,-136,-215,-358,-321,-255,-122,-135,-113,-281,-456,291,92,349,-339,-6,-35,-93,-230,-6
,-164,-217,-94,-175,-284,-35,-28,-427,236,-199,-571,129,-129,-181,9,31,-60,-175,-248,153,87,90,29,-139,4,-213,-86,-90,-58,101,53
,-78,-226,-362,81,-122,106,-41,-163,-272,-67,-199,-9,-94,-87,-274,-39,68,130,-33,165,96,53,73,-747,-546,-878,561,-406,-232,-542,450
,-201,4,-131,43,40,-293,-206,40,64,-29,-63,-269,-83,42,-213,9,-155,-135,220,-71,70,72,116,-173,-117,-156,-38,149,-122,110,139
,-151,-13,31,123,-57,-124,-147,-67,-95,-105,-53,-33,-152,-83,-126,-139,-25,-47,-8,96,-84,-15,128,26,34,124,-76,23,101,5,-145
,-73,-16,-270,-63,-27,-46,13,-251,-700,-140,-235,-89,-40,-212,82,6,238,-161,-154,332,43,-32,-182,171,132,119,58,-127,124,108,47
,-220,-210,13,-145,99,16,-44,56,-250,-226,20,50,-241,-71,59,-204,1,-110,-267,-54,-64,335,-51,52,-38,-38,151,-704,-385,-429,471
,-115,-245,-4,49,-253,-87,122,78,-231,-90,-238,83,48,104,-82,-89,166,-33,-173,50,-267,-139,166,-91,-2,49,128,-93,203,33,-210
,-225,-136,-412,-19,-7,-37,-175,201,-225,-213,13,-148,-177,-3,-4,56,-47,119,-69,-160,156,416,-226,-161,151,177,132,-68,34,-19,87
,-99,-122,-256,68,-125,120,-35,-168,-68,-3,31,-324,-112,102,-354,-44,-172,80,257,-79,-26,-83,-84,-12,-161,-46,121,334,-70,158,-155
,-235,-277,-56,-17,-308,143,-134,-397,131,-15,182,-70,-23,137,-146,57,-114,385,-227,-27,31,47,-247,148,304,-147,-375,-17,-29,67,168
,-108,54,-97,-45,-266,-27,63,42,-281,-22,106,-26,50,-26,-142,125,-93,54,-70,138,63,-68,81,25,73,-54,107,89,-145,209,-51
,-150,83,116,-173,7,-19,13,29,-29,-138,-194,-60,-33,-131,-407,163,20,-169,-15,-176,-221,-101,279,-206,-33,-311,109,-344,-74,255,296
,-193,20,48,-180,-251,-36,38,-134,-60,13,-124,-134,-115,-135,-195,100,70,-113,85,21,90,10,-15,52,-112,38,-147,60,55,-109,-29
,-101,-188,109,-136,83,-451,-241,-144,86,-19,110,-464,-158,-11,-316,306,-19,-15,73,64,137,190,-217,-55,-455,-611,165,153,-259,103,15
,-42,-72,-48,20,-99,36,84,-77,-42,-142,36,-161,-149,10,-110,155,10,-93,-86,9,17,131,-124,117,-120,90,-90,117,-95,-84,49
,-16,107,-75,-8,72,-407,-179,-75,-468,-178,-197,-140,-118,-202,-267,-20,88,-86,130,138,60,-41,28,131,-8,163,168,140,106,123,-200
,-192,41,-121,-165,63,-94,76,-119,-45,55,-204,23,6,-46,-48,39,-63,117,-78,51,-92,-158,137,-67,-244,55,54,50,15,-11,2
,-73,-14,-184,-197,-24,78,-4,-276,-194,-44,-293,61,-53,133,83,-451,-78,-223,531,-169,-187,167,305,55,51,-44,-68,84,236,-249,97
,-79,-429,-108,-188,-400,-73,98,-248,-15,-56,-624,110,-47,-338,1,147,144,-19,110,-118,26,-54,294,-67,-816,-123,528,-362,-153,-286,-342
,-66,-78,39,16,83,8,-187,171,-221,70,-528,-218,-211,-35,228,41,-29,109,18,-115,37,-124,-237,86,111,176,-566,134,-69,126,-104
,-220,-55,-323,-57,-418,-21,-51,166,-926,8,-108,-129,-9,-102,-252,29,85,291,-103,-29,205,149,14,-214,-67,-69,-288,-64,-72,-184,-135
,48,-101,-75,133,-122,-97,55,30,-45,83,-127,-158,-133,-53,-127,29,40,-169,-42,11,-64,35,74,177,20,-176,37,9,87,72,-148
,-226,-132,-145,-181,-173,90,-11,8,-27,-200,-42,-39,4,-17,-37,111,31,-133,-87,-19,-101,-152,167,-112,143,63,16,-129,176,-72,-95
,-19,20,-13,58,-13,15,-126,-44,-139,5,-54,-180,-67,36,-39,56,59,-17,-97,-131,96,-79,-51,-77,-96,-73,-68,-29,121,-62,-61
,41,-321,-272,70,5,-333,156,-12,126,87,-234,-107,46,-235,-383,-4,-4,-45,177,77,-165,-1,-49,158,161,-135,-198,-56,108,19,-87
,-47,36,-180,-53,-144,-24,-155,-131,-101,-175,-32,51,-80,-158,-149,-12,-38,-36,-154,43,-45,6,-235,-52,41,55,101,-54,116,-88,85
,-84,-146,-110,-164,-22,76,-161,55,-109,3,-75,-28,28,-84,4,-121,-13,-110,63,107,-101,-154,87,-45,-142,39,-112,73,-81,-95,-20
,-130,-72,86,-217,279,-532,-260,-152,-268,-153,-305,-603,-96,-145,-110,166,68,97,135,89,150,37,-6,-270,-18,-335,-76,-29,-129,-179,-160
,33,-198,-11,-121,-74,12,52,72,20,-56,29,-114,50,-69,-131,-6,-46,14,-24,-17,32,35,-74,-113,56,-142,-123,-111,-128,91,62
,-76,-44,108,-95,105,53,-101,-74,12,-171,-18,-66,-190,-219,-102,129,394,-174,-142,54,44,79,-121,-164,-106,-15,-254,19,-95,-70,127
,-161,140,-143,-154,42,-90,-246,2,-716,-264,-89,195,-210,7,-197,319,-493,55,-78,-60,-113,-110,-158,73,26,-307,-291,-199,-222,-299,395
,70,-30,-303,-194,-154,-28,-122,-159,-103,-85,3,-15,-106,167,-134,376,121,-624,-119,-151,-91,78,107,-275,-145,458,-26,2,-142,131,162
,38,-182,-1,8,-127,52,-159,-164,-142,-200,-36,-91,-129,-220,78,0,-18,17,-176,-47,-38,79,-49,-51,53,35,62,-14,-99,3,-187
,4,81,51,-193,-74,-18,-139,-25,93,-127,-50,-86,-151,-200,-27,49,89,-86,-57,28,-117,-80,90,23,-161,11,76,15,-117,-79,106
,-66,-88,-79,-13,-39,-67,-38,-4,8,-28,-20,-226,-19,-184,-236,25,67,75,-99,-35,-32,116,-59,-165,-55,61,40,-18,-42,-195,8
,-186,-55,-24,-27,101,52,-36,-116,28,-62,79,55,-81,-205,-159,-41,18,-55,106,-8,-136,-44,-111,-130,-16,-126,43,-74,191,66,-141
,-192,-54,-55,-216,-62,-88,-140,-34,60,-157,42,-203,-197,60,-100,-70,-164,-238,-1096,181,148,35,-8,-139,43,236,121,72,198,124,-3
,-58,-123,-198,88,-287,76,57,-84,-83,34,46,-185,22,-169,-228,-25,-15,-8,-236,76,261,-194,-90,-64,-129,150,-150,-52,-1,-88,138
,-79,-84,130,-5,-38,-325,-116,-44,12,-139,-295,-239,-180,-365,232,145,177,89,-301,100,114,10,61,8,39,-81,130,-45,155,-221,39
,196,-58,64,155,41,-23,239,-44,59,204,-11,-19,223,60,46,60,-10,22,-14,-24,60,-41,115,-32,-37,80,-28,-335,67,41,-183
,-44,5,38,-29,-65,5,68,82,-46,-41,-165,-71,-155,-29,-106,-146,70,36,-204,-107,-61,-92,-24,-111,-62,53,115,86,-86,3,-36
,-97,-31,3,-60,136,17,-10,-152,-25,-231,-83,85,-13,31,-78,-67,32,-99,118,-260,141,153,-53,-109,45,20,-51,-107,0,-189,104
,144,135,-39,112,-60,-21,220,21,-142,139,141,26,151,-114,-32,-83,79,-11,52,-68,-2,-6,-148,103,-66,-8,-144,-142,5,81,142
,-24,-9,-84,-39,37,-32,-12,-108,-116,114,-38,-37,-59,-14,-59,-36,-81,-27,59,-25,-122,152,-54,-137,-34,-86,123,-147,349,72,-183
,30,-63,-147,-180,-133,-83,-111,-256,57,21,-77,-81,9,5,-80,-164,-75,92,53,1,-149,175,-123,56,67,7,-12,116,65,-61,-109
,-76,64,-428,-107,-55,139,-35,-201,-324,83,23,-312,-62,-142,76,225,158,45,-50,-80,-30,-146,105,32,364,106,-242,97,126,91,-192
,-11,-171,-82,-121,-169,-106,90,-116,124,66,-141,-246,63,-97,56,-450,-303,-626,407,-225,-107,-273,61,-253,-182,-327,1,-51,301,-84,-162
,-102,66,-114,116,38,-6,93,21,-14,159,-17,10,156,-154,-40,48,-71,42,33,125,-33,-73,-61,97,-17,-174,136,-369,332,-83,80
,-208,-301,27,-94,-22,93,-191,-227,65,-35,-52,-267,-66,-299,-33,76,29,-165,-109,70,66,-34,-73,81,-47,-126,18,-26,144,-23,24
,-121,-175,-25,-95,-95,39,-2,-130,21,33,-130,9,-230,-62,-61,-119,-15,50,53,-126,-24,-120,-182,-3,-110,-32,-20,-27,7,65,17
,-152,-156,59,-28,88,-116,57,-148,-48,-185,77,59,-117,-143,-94,-166,-204,-6,-188,31,-179,76,102,83,-31,-111,9,95,-87,-97,-65
,-31,-94,19,20,34,-105,-154,-184,41,55,-193,-44,-44,5,-133,-164,69,-115,-26,-69,85,3,-202,-10,-88,27,96,9,-111,76,-12
,117,-206,13,110,107,-10,59,-250,-270,-135,-39,-117,-160,99,-126,17,-521,310,-679,-18,-67,-189,110,-11,266,-196,-66,-5,-175,50,-385
,-200,-63,33,-60,-29,-49,-32,5,-315,-104,-48,58,-216,-53,114,27,-135,-20,-28,175,209,-479,-239,58,-308,-99,339,-58,460,-158,-626
,-72,-82,27,-96,-194,6,-148,-124,-50,75,75,-104,-116,-179,43,-113,-55,100,67,65,40,-37,-14,-119,-33,92,-92,92,-73,6,65
,-91,-180,96,-58,-329,-281,44,-299,-280,102,-62,-71,94,-267,80,131,13,71,-2,23,168,-24,-120,-165,-106,-178,-512,-56,-76,-25,-110
};

long weight_1_T_sda1[2*256] = {
102,-91,-141,761,99,-23,9,-192,-23,-452,13,159,25,-456,-51,40,-157,69,-166,-89,-1,-147,-290,260,-17,-308,-46,126,25,129,-281,-71,-21,-49,73,204,522,174,600,-74,95,-48,90,-337,-73,293,-63,-103,489,77,49,-44,-224,76,-51,-86,-68,-56,320,367,-601,86,-438,-154,241,-98,25,62,-14,-497,121,-36,-33,-15,-146,454,-463,24,-18,53,365,20,55,137,-61,-1,76,27,47,-455,30,26,25,84,-375,87,316,-129,-64,-63,45,44,77,-60,174,-46,77,111,-115,-99,296,28,-54,305,-364,-74,20,80,-181,129,3,-109,213,-227,-119,-350,55,123,-44,-92,-40,19,-418,37,-106,-225,81,-193,47,118,-118,126,-422,208,-18,91,-189,-47,-360,31,-5,-52,-283,-439,-561,104,70,7,46,0,123,239,5,-223,-83,-156,-4,340,148,-219,-232,-48,94,1,179,-241,-17,-39,-78,-135,-244,189,-133,46,-107,-353,-204,-127,15,-58,254,-114,-5,130,-274,127,-2,-567,-94,-479,-131,-234,24,-132,163,-173,54,-335,-34,203,21,-275,-12,-263,-163,43,-53,346,-161,187,-133,22,27,-30,138,26,-68,-392,-36,93,-560,400,56,32,-95,121,-89,85,119,73,109,69,105,6,-8,123,-86,38,-10,-108,-139,105,-393,-586,-29,135
,109,-107,-44,-626,25,-5,15,222,-91,309,-2,37,21,386,-22,33,315,85,253,147,69,24,79,-261,-3,208,104,-33,-36,149,282,106,-61,-47,48,19,-557,-204,-638,39,113,168,-36,373,211,-282,-70,171,-275,96,-179,162,99,-27,-36,-71,-141,-108,-345,-276,428,111,495,149,-296,252,-8,-180,-27,453,83,-15,-31,20,147,-525,342,35,-6,-107,-277,-31,48,121,102,-60,105,33,54,321,23,-19,-17,-124,352,138,-405,232,-57,-27,-12,55,63,-78,-233,175,151,-81,-90,314,-278,22,61,-375,343,48,45,-152,53,5,63,-100,-125,321,254,318,55,46,-10,178,30,102,390,38,-97,208,59,59,-9,57,-122,-267,278,-175,-108,-155,272,-7,369,32,25,-35,228,450,488,25,-48,40,12,-49,138,-176,-2,89,242,127,-13,-442,-33,108,194,-96,105,-32,-246,118,125,-23,-93,-114,4,-245,343,81,171,399,315,-9,33,-84,-271,-63,-33,112,317,-239,11,487,-90,291,109,157,-93,34,-319,19,48,459,327,-172,9,271,34,333,-141,-102,-62,-424,198,-135,325,65,-16,-53,-284,-6,126,289,-53,21,472,-268,69,98,-135,98,107,-69,-151,-27,105,-29,62,0,53,-263,100,28,-2,-110,-135,99,305,489,-76,-174
};

long bias_0_sda1[1*256] = {
4,-48,-128,-20,-42,-96,-109,-117,-41,28,-46,-52,14,-90,-67,0,-44,-96,-85,-44,-90,-57,-83,72,-121,-19,-12,-120,-132,-59,-163,-151,-85,-53,-89,39,37,-122,-104,-91,-67,-80,-31,-3,-141,-134,-59,-98,10,-84,-87,-66,-65,-32,-60,-59,-91,-94,49,-82,-70,-56,-54,-104,66,-9,-122,-112,-65,-174,-22,-54,-62,-42,-31,44,-10,-53,-52,-22,-39,-95,-29,-36,15,-101,-42,-91,-57,-57,-63,-77,91,-66,-132,-37,-50,-135,-53,-105,-44,-53,-50,-92,-119,-68,-82,-29,-23,-87,-138,-61,-89,2,-37,-34,-30,-82,-165,-49,-52,-82,-93,13,-126,-189,-70,-57,-112,16,-58,-16,-132,-31,-76,-32,-53,-161,-23,-33,-47,-109,-117,20,-36,-50,-103,-47,-63,-87,-39,-68,-130,-46,-111,-56,-82,-51,69,-78,-79,3,12,-77,-134,-52,-124,-28,-52,-43,-47,-127,-47,-104,-26,-204,-30,-73,-48,-33,-116,-152,-109,-66,-94,34,34,-35,-131,-56,-107,-67,-42,115,-57,-123,-44,-104,-39,-96,-118,14,-94,-12,-57,-153,7,-134,-39,-141,-71,-79,-81,-106,-14,-50,-59,-74,-18,-35,-99,-7,-76,-19,32,-71,-26,-111,-57,-64,-127,-52,-78,-60,-97,-48,-168,-19,-112,127,-40,-85,104,-19,-99,-11,-40,56,-136,-97,-58,-81,-19,-95,-35,-37
};

long bias_1_sda1[1*2] = {
218710,-172445
};

#endif
