
/* Trace */

/**
 *  updated on 07/21/2023 00:59:40
 */

#ifndef __W_NVME0N1_1_H
#define __W_NVME0N1_1_H

char name_nvme0n1_1[] = "Trace/nvme0n1";

long weight_0_T_nvme0n1_1[256*31] = {
-8,61,90,-4,170,-44,-13,156,-70,-18,-102,124,199,-152,-110,-1069,197,-332,-72,-79,-26,-220,74,21,13,-234,26,-22,240,30,52
,-256,-441,-277,-358,-422,263,-242,79,-412,-246,40,-72,-341,134,-254,-125,242,-35,-8,-109,-88,-104,-11,-9,-222,137,-126,32,-38,-199,-183
,94,-239,50,-60,-31,-107,17,-171,150,151,38,-146,-20,128,145,154,-372,167,-386,21,174,-186,-176,227,-65,-29,-29,70,78,55,-447
,138,-511,237,38,43,-946,-24,-87,-33,158,16,-119,126,-30,26,-165,-109,127,28,210,114,-527,42,-78,-142,-252,-186,-74,-81,-149,-327
,19,-26,-132,-220,27,12,-179,148,49,4,-10,-26,-237,188,-192,174,168,134,-134,212,-113,194,-127,294,0,-198,-116,186,-47,-63,-217
,-103,53,-17,84,-14,8,46,-84,22,-26,44,-65,-99,4,9,91,15,-50,-93,-39,-94,69,-65,-130,108,7,-46,80,-99,-6,-56
,40,-5,210,86,-174,15,-18,-107,-280,-162,-99,37,86,185,-280,48,-341,-69,-203,348,-44,-324,-141,-39,-349,-275,6,70,88,47,162
,291,-211,-64,193,-139,-213,354,-292,-109,350,-36,-126,81,-41,-27,-30,-187,-126,-41,-232,-199,157,60,140,336,92,-325,149,106,127,7
,-7,-42,-32,-108,-84,-15,-37,5,-103,167,-137,18,93,-191,-1,-4,-77,11,0,11,113,-19,-45,77,-173,14,-88,-140,-68,0,4
,-49,-205,-176,173,273,-83,-690,12,56,-138,-55,-264,109,-118,165,-290,-485,-394,-372,290,-9,-25,133,244,157,-17,-66,-373,-266,-569,-168
,-182,28,-107,52,-164,-135,-381,37,5,152,57,-131,-171,14,25,-198,170,42,-75,-87,222,-280,42,-25,-194,-177,-267,113,51,-77,-291
,16,-15,-223,49,61,-216,132,-139,30,144,104,-192,210,-73,25,8,-22,-115,53,10,-265,-78,-73,-1,-61,-66,-95,-12,-150,-4,62
,32,-6,-404,-47,12,-83,4,107,-90,-80,181,-304,217,-43,-383,78,-269,192,-101,-51,-120,89,-19,357,-48,-198,67,215,-38,-122,183
,16,134,-257,94,-54,-74,108,-70,133,-149,-165,69,11,141,-137,-97,176,3,-193,-121,-146,-142,-46,131,150,-25,67,173,165,-125,126
,-5,-83,-58,57,23,15,-1,121,-12,45,-94,-15,-46,114,-10,-94,-51,-2,24,0,2,-61,-20,53,-28,13,-32,-8,16,19,-25
,-122,81,-113,-248,-16,-119,-139,68,9,-66,-61,-101,-140,-108,-7,-87,79,-25,23,-26,54,-65,91,57,68,-197,20,-88,-138,41,-23
,-36,25,73,-288,71,-960,-310,-174,174,-285,110,-290,-382,-291,-74,-372,-258,-299,-181,-750,155,-398,72,-524,-94,105,-67,249,-24,-448,162
,-61,84,55,-239,-114,-122,-84,-115,93,-209,2,-88,-66,20,10,-193,-87,-217,128,37,2,-48,-76,162,-171,-80,-57,144,149,-182,-22
,23,-133,-12,-65,6,-318,-182,194,-186,223,-81,-186,-215,23,114,-49,-68,104,-347,47,57,-292,87,177,-18,-51,-113,92,-94,97,-174
,123,36,-202,-52,59,1,-14,41,-134,44,-50,-39,-109,-52,12,10,-151,20,-171,-65,2,-32,-159,59,-45,-11,-224,-20,60,-155,-54
,-34,-112,-220,-31,-26,87,-184,-6,126,-23,-27,-254,-215,-130,90,-3,-128,-89,-254,-86,88,-115,-8,-17,-186,-146,-203,-47,120,-46,1
,59,-100,-66,-220,21,-8,-342,85,-12,-187,105,35,-356,61,-59,39,119,-136,90,-196,40,66,-463,-222,-301,209,-119,-68,73,-43,-127
,132,38,-236,14,34,149,-189,-196,48,-110,-184,-27,-202,-168,17,-67,250,-96,65,41,-48,35,-24,94,27,1,-219,-76,-107,78,-65
,-195,-5,-403,-274,64,188,-334,73,6,-136,-102,-296,-332,73,54,-723,98,78,-289,66,69,212,-186,-191,179,109,75,359,-14,-8,-338
,-270,52,-199,56,115,-338,-103,-142,240,79,174,-202,-76,32,-375,-247,-229,-547,-220,169,54,-1,175,-53,64,-175,-118,61,109,-104,102
,-359,95,-311,-292,130,111,-92,17,-74,-263,50,-53,-81,-65,149,-70,-68,88,105,102,-517,-455,55,120,226,42,-329,-99,-17,-7,-687
,-140,-125,-67,-100,-50,-136,32,32,-59,-107,54,3,-55,7,40,-64,-17,-41,68,31,-186,-56,-138,-87,-95,-31,-388,-61,-98,-4,21
,-7,-83,159,60,93,-318,-3,-242,183,-69,-61,-152,76,-33,-46,22,195,84,-302,419,-332,-96,140,-150,-92,-183,-143,-122,-103,-16,-222
,-113,-68,-58,-26,-57,-31,-132,-134,-208,-56,-113,1,-172,-105,-13,48,-48,-109,-189,109,-66,24,-207,16,-137,-95,-161,95,-72,14,39
,71,130,-70,90,-145,-170,198,110,-304,196,106,-34,247,172,-158,-408,25,208,-64,180,-4,26,92,-168,-77,-521,-118,-496,-89,-316,-181
,-219,-69,-218,-97,8,-201,-150,-70,-204,-162,-164,145,-203,-118,125,-23,112,137,-47,-87,34,4,-207,-88,151,-187,-277,-123,69,80,39
,253,166,-141,-151,-52,-394,344,180,-559,289,49,-107,103,-124,-170,-200,175,166,-220,268,60,-86,-15,110,63,53,-414,141,76,80,190
,33,-28,-375,12,-281,-219,168,-161,-73,26,-294,-35,58,-276,-262,275,31,217,-197,-70,158,178,-114,-164,-557,-471,69,4,-156,-743,203
,-237,139,-104,26,-86,2,-16,98,-111,-140,-104,-39,-37,75,-132,90,-63,-4,-110,66,-51,-89,-7,-123,107,-91,0,62,-98,-43,-211
,-12,-3,-117,-151,-74,-28,36,-103,-22,178,88,1,-93,-23,17,133,-157,51,-65,-6,-88,-81,23,-95,112,-143,-49,-23,-28,-33,-56
,-201,-40,104,-104,190,-458,-124,77,-580,-194,97,-35,-11,-55,46,51,325,-82,-208,-9,-7,148,-134,67,25,22,-86,-137,98,-217,-482
,-103,-404,-197,32,-332,-86,-156,-84,125,-118,112,-531,-134,175,-306,-59,50,26,-174,-18,-62,70,128,-147,88,-67,71,17,-21,-28,-271
,68,-67,-16,-280,-1,-40,-152,-44,-298,25,-137,-200,-61,-133,-213,47,-77,-171,55,241,52,52,21,71,-115,-155,-113,-176,-46,-17,-50
,-455,334,193,-701,8,160,-71,-28,-139,-77,-197,-413,-128,-115,33,-171,39,-114,-147,263,110,-58,-137,-221,51,-69,-279,-113,-121,-108,85
,-45,-158,-68,-29,17,43,-10,54,-84,-128,-202,-21,-56,-134,-43,72,91,-4,-91,-40,23,-7,-76,185,11,-145,-215,155,72,-128,-158
,-102,88,-146,29,-83,-82,-197,11,-68,-165,99,-379,-167,76,89,-212,28,-32,168,-45,171,-512,-303,-148,-115,-152,-186,-41,80,-139,-289
,-127,15,-176,61,88,-89,-100,134,-61,-79,78,-17,60,-21,-163,18,-119,-168,-51,-199,233,-127,117,90,-170,-35,-10,165,-112,-21,-26
,-8,-155,126,-2,30,56,-183,112,-381,-10,-169,94,-23,-235,78,88,-57,-46,-10,-28,-61,-100,-525,120,152,-38,-154,-47,72,-320,75
,31,-223,98,-81,77,-357,244,-222,105,48,30,-112,87,44,189,197,-60,94,-337,30,184,37,-58,260,-27,4,-267,-200,75,15,-305
,-28,-36,-205,-214,199,-246,-76,-130,50,10,-379,187,-112,144,-121,108,-279,0,173,-141,-162,-121,-134,-175,-100,-75,-203,165,-3,-7,-224
,-102,20,-22,-146,131,-82,-72,-149,-206,-134,19,30,-231,-52,-90,30,-107,-126,-97,91,48,-60,-93,-63,200,-156,-102,-40,79,-25,-207
,8,60,-57,22,-61,-113,89,165,-86,-282,121,-263,-41,71,98,-102,-51,-306,-194,-179,197,-183,-92,-118,-191,122,-6,165,-24,-107,90
,-180,-90,16,-89,175,-16,-91,66,54,-124,139,-395,-88,-43,-39,41,-264,-166,-171,10,201,-7,-91,-237,144,31,25,-69,-46,28,-320
,189,-56,95,70,111,-137,-18,36,25,135,73,28,-108,39,-12,-48,-150,-199,47,-173,-14,-55,-20,-207,129,-96,-33,-531,-82,-55,-232
,46,-243,100,41,-215,-37,-108,168,100,-12,-101,25,-179,142,-150,43,-52,-29,-34,131,-139,-5,-151,-12,46,-47,87,-171,-50,-96,39
,212,-12,64,280,39,107,257,-269,-133,367,-335,-144,203,-405,-24,207,58,-289,83,-449,-242,-144,-76,73,-366,-312,-354,4,-324,-233,-19
,-48,-30,92,64,-53,-123,-81,42,-48,83,20,-333,-133,-165,140,127,219,-128,67,-15,-52,-156,-190,380,60,-1,-562,-27,-97,-289,-164
,274,-167,-12,139,-125,-85,339,-44,-71,225,-341,-98,106,100,-91,-112,-81,119,-310,-87,-20,-151,-71,150,418,-87,-278,37,92,33,24
,-159,-29,-148,-19,-87,-109,80,-38,-254,-156,-129,75,17,-62,7,12,2,-107,-206,84,128,-105,48,44,-152,56,-139,-9,-168,58,-112
,-483,-66,-64,61,39,-290,-282,-97,-368,-98,35,-560,-265,-8,105,-7,101,143,-46,225,-300,111,56,-124,-210,-153,-14,-59,-131,-245,-63
,-192,-163,176,-192,-264,13,-271,-35,-259,-183,-132,123,74,-101,-181,-80,-85,156,-17,26,-274,-363,75,119,-29,40,-116,5,10,44,-221
,5,51,-167,142,19,20,84,-14,-4,67,-51,-143,79,-53,27,-50,53,4,-162,4,-106,24,5,-87,-58,-7,13,-83,11,-45,-147
,-18,350,-119,-150,-85,-323,15,-5,237,192,-106,-262,241,-244,13,-9,149,-204,-86,20,262,-6,-55,10,-87,15,142,-389,87,-121,-307
,111,180,-268,47,-178,-222,68,-116,4,241,-279,145,44,-164,-145,269,156,-97,119,74,-683,70,-160,153,-2,-3,-90,11,65,100,-162
,-123,-167,-99,160,-41,122,-295,65,-50,-3,127,-224,149,163,107,-255,-9,51,31,-34,192,66,-86,290,-145,-176,95,-108,-180,175,-141
,-313,3,64,116,-210,104,-57,-32,-134,-237,84,-76,-325,-60,100,217,-99,-33,131,19,291,-241,-134,-211,24,50,67,142,94,2,61
,-49,9,-55,8,124,33,-229,-34,-28,-37,-166,28,75,62,-42,-99,77,-26,-48,-55,-18,-62,-2,140,-103,-69,103,26,-153,-16,-9
,175,-38,-28,-2,-59,21,186,157,79,-210,-138,14,111,-204,140,-114,-159,-293,-215,246,232,-86,-181,4,174,-41,24,215,-12,-23,-136
,-98,-133,-220,-25,7,-154,-21,-76,-340,-109,-223,39,-177,-164,92,56,-122,-146,-61,205,109,-47,-36,-111,190,-135,-51,-71,23,-28,14
,73,1,31,-124,-26,-242,132,46,41,53,-197,65,-39,92,-206,-15,15,-65,-56,-105,104,82,-122,50,-269,98,49,39,13,-63,-39
,-104,-1,-44,-54,-13,-129,-146,-9,48,-78,49,30,-11,-122,-90,27,16,-130,-42,-16,-183,128,-175,-151,1,-110,-129,-102,186,-113,-114
,-193,-17,-4,-353,90,-212,-82,14,97,28,-238,-98,-137,43,15,-141,-141,-273,86,-83,-69,114,-291,64,-84,-204,-136,17,-228,121,-301
,-234,13,-56,-221,-118,8,-160,-70,-74,-24,-117,4,-20,-8,22,12,35,-192,79,-46,-208,-73,-150,184,-44,-133,-375,-39,-119,17,91
,247,-5,89,-133,-21,32,-104,208,-96,-80,-117,-47,184,-55,-24,266,28,-180,-211,-592,-936,-290,-48,-23,297,-3,-249,24,89,119,97
,324,-229,91,210,-162,53,131,-140,-97,487,-196,-31,187,-167,-73,-227,81,-12,185,-124,194,112,-90,-75,-314,-1,-150,-11,99,-53,142
,35,81,-50,15,111,-110,46,31,-149,349,-231,175,204,-262,-245,34,222,-277,64,-184,219,-21,-263,-534,345,-53,-114,131,42,-36,119
,-17,-74,-138,78,36,-1,-62,134,-11,2,171,-53,-63,186,-146,-45,135,-298,-382,40,-146,8,-88,74,-176,123,23,-270,85,-183,256
,85,-50,-28,48,-56,27,-112,60,-90,59,-47,-92,33,-81,-136,4,31,-84,-38,-119,-130,-108,89,1,-73,-47,-155,35,-45,-19,-120
,-100,-17,-208,-188,-337,-381,87,249,-141,98,-483,42,-143,107,206,-298,-87,-57,88,175,85,-3,-122,180,-165,110,-261,-31,89,128,-184
,76,-229,-274,-225,260,13,70,-113,-514,-95,24,-62,-89,-28,-363,-100,206,-15,1,162,-76,151,114,292,-29,-75,-143,10,127,-154,-65
,-179,118,-258,200,47,181,-218,-34,7,-274,118,55,-161,-121,-56,140,64,36,-207,276,-140,147,-208,170,-151,-136,-268,35,251,-118,-53
,-312,-96,-219,-298,84,-347,-564,-66,93,-371,35,-276,-368,11,149,-100,92,151,-314,149,-246,104,70,-218,-290,-9,49,-81,-343,-177,-284
,187,186,-1,84,-98,-99,407,6,-453,59,101,-142,-85,107,71,-16,123,257,-215,8,-85,-197,-7,148,-59,41,14,-239,26,-87,174
,-382,23,-162,-46,24,15,-82,-193,96,-147,-82,179,-263,-78,14,37,10,-55,-17,-48,-94,86,143,38,81,-66,136,-100,-70,112,46
,-305,-35,101,-388,80,146,-515,61,-116,-664,121,-257,-286,-70,-193,236,-105,-191,76,-294,219,-52,-448,-197,72,64,-366,-113,-271,172,54
,59,-266,58,6,-290,-24,174,-16,34,53,-374,89,32,97,-70,-40,215,127,-199,143,18,163,-165,186,316,-307,-80,-34,-137,180,-63
,38,-75,82,-197,-11,-333,142,-69,-186,-187,-181,-69,-124,157,-149,-13,133,-257,260,-52,-182,88,-373,-22,-18,42,17,143,43,59,-69
,-26,25,-14,52,78,75,-89,10,-313,65,-84,-143,-122,-169,138,276,-133,-244,48,80,69,68,-53,-62,140,69,-308,40,-128,103,-345
,-172,-124,-226,24,108,25,-179,-250,142,-148,-16,-423,-32,-173,141,-55,-159,-189,-185,-201,24,-24,-302,-410,159,-431,-187,-293,-111,19,-156
,-27,-326,10,25,180,-282,65,-36,159,-122,-67,-359,-50,-68,76,92,250,-74,-18,-220,-295,-751,-329,193,183,-5,92,-877,-561,-788,-313
,198,18,157,347,132,86,26,-166,-286,-31,33,-231,78,-131,-466,-199,263,-6,-167,-67,171,127,-88,163,168,-61,-125,-197,142,54,124
,-109,134,-117,29,159,58,31,-30,-169,131,-84,-232,-55,90,-240,92,25,-33,-419,46,-14,242,5,-45,-290,51,-354,3,13,41,-67
,51,-146,-30,70,-193,9,-53,6,-7,44,1,-131,-25,-96,29,-85,94,-45,-201,250,31,-65,-121,12,-99,-155,-39,38,33,-158,-255
,-116,86,-99,188,68,-188,476,-122,-217,114,12,-372,53,-50,-549,182,16,-25,77,155,262,-55,179,-87,206,164,-299,-206,-126,76,34
,61,132,39,-166,97,198,-258,-115,17,-424,147,-117,44,-402,-198,236,194,-131,-110,61,149,13,-165,12,240,-288,59,34,68,98,-77
,37,-95,83,61,-4,-23,-89,86,89,-134,-49,-137,58,73,20,-125,30,-32,8,81,209,133,-86,148,-174,-20,184,20,6,28,88
,-82,-17,2,-112,44,-162,20,-87,-24,70,42,-30,-99,-81,-25,34,-120,61,-102,-121,80,42,-122,84,-155,-18,-104,-121,-47,-20,43
,23,-3,-70,190,71,154,277,-157,-134,267,-97,131,43,111,-48,-337,-423,-275,-584,123,244,-147,-106,258,91,-116,-313,-173,160,116,-67
,126,-95,-82,181,263,-175,-149,-121,59,-93,-233,46,-15,-243,-342,-13,235,117,-223,328,184,-221,-261,35,-170,-145,-237,-112,-59,-115,-65
,-68,-49,-81,63,-66,-148,-103,-7,-155,84,-27,11,-65,-58,-289,-68,167,52,-157,27,37,5,81,-24,-235,-193,-53,236,-155,-14,58
,-139,64,-304,156,-118,-111,4,-259,152,-95,-177,122,37,2,-172,119,22,-87,-148,-309,201,-372,103,26,31,-89,-58,-20,-98,-57,-250
,184,-245,56,-87,-209,-49,28,-31,90,14,-80,-137,-78,51,-46,-89,91,65,31,-248,-61,-20,98,269,212,-11,-345,111,-217,-34,-113
,317,-63,66,314,-141,85,91,176,-125,183,57,10,147,117,-211,132,-138,100,-58,281,-11,-217,-118,186,-453,-93,-146,101,-248,-29,-151
,-190,196,-372,170,-246,-4,-8,2,-98,18,22,12,-128,128,-241,-45,-360,-220,16,128,-190,92,44,-184,-141,-330,-271,-80,-112,-30,-372
,-147,113,-316,173,-205,122,92,-1,81,129,-80,-90,43,112,-60,-173,107,47,141,-196,154,-617,11,-55,94,-12,-156,-202,165,-181,-476
,127,-39,-353,197,-166,-416,230,-219,-63,329,-139,41,142,279,103,-40,15,-443,-54,-150,17,-262,133,-144,-277,-343,-236,-185,45,137,-9
,122,110,-338,174,17,50,79,-133,-11,44,-96,32,31,-2,-156,174,14,95,-449,-125,56,61,150,313,-187,-295,172,-58,123,142,-467
,-3,-133,9,-122,84,-60,-67,2,25,3,-109,-52,58,3,25,-145,-125,28,-74,51,-142,-52,41,-105,9,32,-62,56,-2,-30,-53
,5,-137,62,-65,-472,207,43,-310,-148,209,-190,-78,173,28,-510,41,367,-85,-165,-190,5,86,-104,163,-65,-212,166,-206,216,48,-122
,297,-361,-241,153,-207,31,95,-77,-115,236,-89,158,-23,-34,35,83,221,-95,69,15,37,50,39,-12,186,-133,-84,166,-140,134,102
,-36,-128,-55,-32,-46,-129,29,39,-42,78,-48,-9,90,-162,21,85,-75,-2,-45,-40,0,-121,17,-66,-55,-152,51,-16,-3,-55,-4
,77,-69,-71,-180,14,-108,-118,-3,-34,-12,-64,0,-14,80,-72,-97,-90,-107,-69,-8,91,-57,-213,-14,-68,-106,-67,80,62,-131,-3
,306,50,-14,159,-50,-98,293,-239,85,228,89,-27,184,-29,184,-63,-151,-58,-135,-208,-21,56,37,22,35,-63,-5,-59,143,97,-43
,-161,-8,-126,-80,-115,-62,-152,-121,-39,-142,82,48,-136,9,-106,-11,76,65,-72,135,-41,0,-57,-130,-146,-100,-10,-21,30,-35,-131
,-117,-88,24,-42,-146,-102,-126,154,-59,36,38,-39,177,-50,15,-85,-101,80,17,-14,30,79,-138,31,37,-166,-49,104,-80,19,-118
,-264,57,21,-200,-37,-348,-199,-199,124,-168,-48,-17,-85,170,22,-73,254,-114,-127,553,-241,2,-331,-86,146,-258,-104,9,81,25,15
,239,-607,134,52,-528,-190,266,69,-57,272,-406,-107,267,-564,-503,-133,-242,-143,-163,11,-270,-202,-62,97,248,-117,148,-122,-205,-210,-55
,-53,-95,93,209,74,31,-153,-42,59,50,11,-75,-45,-111,3,-143,139,26,-21,240,-210,22,-11,-172,-212,146,-246,63,126,22,-91
,-423,175,182,204,-240,-451,210,107,111,-343,-116,-62,-226,-106,103,-586,241,-281,-232,205,-140,45,-289,19,67,51,47,-152,-779,-575,-140
,-54,-35,-144,-32,-177,84,58,74,39,-1,45,-180,97,48,-109,-190,136,87,-76,39,93,-98,60,-40,-218,-339,-37,-79,-2,33,-22
,0,-367,28,126,81,-128,-400,98,116,-593,36,-194,-336,40,-273,140,-339,118,-70,193,-179,10,107,-292,-215,-86,-31,-197,-304,-148,-298
,171,49,-346,341,36,102,318,-37,9,351,3,-21,303,-66,-135,50,-80,107,-15,-182,113,-565,105,-160,3,126,-73,-438,183,-3,-179
,143,-167,27,-240,20,2,70,-157,-455,-9,-144,-160,-18,-424,221,204,187,43,-50,419,33,-102,-36,129,304,-154,-86,128,-165,-189,-165
,173,-81,189,25,137,-27,46,169,17,61,-268,-170,92,-76,4,-54,245,-39,6,294,-119,95,-397,24,210,51,-205,64,-83,89,-40
,-352,-108,118,32,-66,-36,-81,-45,-327,-303,-28,-45,-90,-96,244,363,-127,-35,7,-27,-109,116,-200,-529,-91,-68,-16,302,22,131,-498
,126,93,-46,-11,-35,-253,-125,98,-63,207,-218,92,296,-259,113,34,176,-125,-42,-269,-52,61,-229,-221,203,80,27,350,-55,-1,-545
,25,91,28,17,-104,12,-4,139,-169,2,159,-160,80,-24,92,6,28,115,-216,3,37,-183,-156,-227,-233,189,-41,260,-92,-38,27
,-408,37,-184,-119,-93,-83,-14,132,-221,-196,72,-216,-106,21,29,-69,-53,31,-241,-48,-41,111,-106,-23,135,36,48,203,52,142,-347
,-68,-161,-96,-149,27,134,93,79,-126,-109,-215,-52,-62,-146,-305,-84,-117,100,-258,-71,-13,29,-63,-10,-98,-94,89,-107,-6,-49,-185
,-713,145,-167,-627,-147,57,-491,6,-419,-834,-5,-347,-644,-426,205,316,-140,133,10,41,-170,-282,-198,-331,-242,-70,95,113,-328,132,36
,49,-89,-229,176,-117,-266,0,-94,-76,177,-366,234,106,-406,-45,146,-48,145,98,-101,125,-114,96,44,15,-83,107,15,-17,-221,-454
,-34,-229,-45,-206,-170,-210,62,-328,-80,-348,-83,-212,120,-148,-248,114,-42,-60,-123,121,148,-56,49,22,-29,-15,-74,115,86,50,35
,-413,119,-179,-489,-20,-432,-255,128,-63,-265,-113,-767,-380,-64,-318,123,-85,176,-175,16,-42,191,98,-84,134,108,4,-116,-142,-147,71
,15,-108,259,-135,63,-84,71,107,-275,-200,-63,142,-38,-306,-123,224,-110,-46,-209,194,-199,102,-516,11,-190,10,-10,-271,180,-39,-173
,-28,22,10,-80,-143,-114,109,54,-85,91,122,-69,-28,-72,-26,128,-67,-92,-23,301,-151,-206,-60,-169,17,-29,29,62,-26,84,-119
,-213,-290,-55,-255,-71,66,-154,5,-579,-430,233,-56,-147,-23,95,-258,-234,141,-103,150,-187,15,112,-501,-14,-149,75,-223,-108,-146,-229
,-866,65,-63,247,132,-193,-491,14,-275,-868,105,-327,-827,60,-290,-28,90,109,-175,99,299,-233,6,-360,50,-400,107,204,-147,-9,-199
,117,-131,-170,-255,36,21,-190,-23,6,-146,-165,-15,-88,49,12,-94,209,-139,-435,67,-99,-4,-129,-2,-26,-120,-214,2,99,-34,-234
,-90,28,-62,44,48,-508,-106,-60,-168,-299,-53,252,89,-526,83,11,96,-118,-235,138,205,85,38,44,122,-9,-182,82,64,-139,-86
,-17,92,-154,50,161,-232,193,-419,-145,-30,-5,208,53,-207,158,183,-328,47,95,-248,87,73,-186,-276,64,58,-324,11,9,135,-269
,211,-82,153,42,-231,-77,240,205,-85,132,-49,142,75,101,-33,-151,-57,168,-41,-91,19,77,13,104,98,-155,-157,171,-87,99,2
,108,-101,-123,44,45,-19,84,-6,-96,93,-109,-62,18,118,-38,201,-150,-221,-33,58,-17,38,-200,58,23,16,-132,77,24,-199,68
,-228,151,81,-32,24,-121,-193,-89,-25,-234,137,89,-330,9,-55,-65,-68,31,-51,10,2,-163,150,-83,-61,35,-88,-50,-38,-41,19
,161,-60,-421,337,258,-148,233,-190,171,244,-79,-281,231,36,-121,-35,65,-42,-59,214,26,-18,-75,-284,-4,175,-318,-229,192,-148,61
,-128,-3,-85,-77,16,-68,-175,49,-164,-119,-60,36,-60,-26,-31,-51,137,-55,10,73,-151,-45,-54,-208,183,-73,-190,-88,-55,-52,22
,79,-209,51,-7,-132,-59,368,-179,-11,232,-281,3,3,83,11,293,261,-305,-509,45,142,139,-198,284,-5,-80,94,-73,12,61,1
,-113,-101,12,10,-73,-278,36,135,-19,-110,-67,-114,54,98,75,181,-8,-123,-38,-143,-5,-2,-404,-241,190,89,38,-5,47,133,-379
,49,-336,-145,-209,82,-99,-331,88,-111,33,-80,-258,-84,76,6,109,141,-235,-273,-118,-56,-31,-104,-32,-182,-112,-32,21,25,79,-30
,-157,44,14,-21,-92,-53,120,-59,137,89,66,-138,167,-213,-149,-182,-72,-128,-115,-194,-312,-232,-259,84,6,102,16,-181,-165,-426,-281
,362,-399,-511,282,209,67,304,-142,-120,414,-19,-302,281,-60,-88,146,-110,114,107,-219,54,37,-278,182,111,49,-111,-95,-261,199,-164
,-207,-41,-22,81,-32,-121,-135,146,-91,22,-139,62,-257,89,86,100,-136,-69,240,-641,-180,-32,-22,-193,59,-100,53,-93,59,148,129
,-55,-69,-165,81,-37,-169,-27,38,45,-110,-188,-117,-134,39,-34,137,-152,-120,-147,143,-142,34,14,-6,36,1,-68,-63,-95,54,19
,-110,-30,-12,-39,35,-5,-10,76,27,-53,26,-84,-69,-106,17,129,-57,96,-197,-108,-160,53,13,72,-28,-116,37,-40,0,-46,1
,-68,-121,-2,34,25,249,-36,125,-514,-102,-39,111,-166,-20,-85,-184,-251,-92,-294,194,-616,-4,171,35,-37,32,-394,-197,-159,-231,-397
,261,-311,-109,-45,-320,47,224,116,59,49,-8,89,138,-50,-74,208,158,-69,-24,-47,47,77,-116,180,18,-58,-221,41,7,-29,-154
,120,-1,-129,-113,-26,18,-125,144,92,-190,-56,-105,-233,-88,-235,-446,-163,-676,132,-325,201,-41,96,145,232,-45,-205,-256,-281,-305,-183
,-30,-335,212,47,-118,-112,109,-165,33,257,-107,-173,109,-99,11,100,200,78,3,-192,-118,-116,-511,-206,-60,16,94,-135,-308,-297,-365
,1,-61,-200,-223,-79,55,-198,79,-80,-145,2,-75,23,104,34,-134,-54,-89,-15,-11,5,-21,-127,-63,43,20,5,11,70,-67,67
,-40,-300,-335,-115,-66,-195,-64,-299,-211,-282,-217,172,-49,-114,-17,-243,35,68,112,-217,-77,152,-46,-20,386,46,-85,-40,258,80,-76
,14,-234,-185,-92,-416,167,-42,-137,225,79,148,-21,-34,81,-168,-284,-533,51,52,-48,-60,-246,-99,-92,-334,-130,-375,-338,139,-259,-418
,-55,-128,-72,90,65,-68,26,40,-216,221,66,-288,-22,-170,-241,201,84,184,44,249,131,-460,-211,-125,-186,128,99,-7,221,56,-209
,-151,-200,-45,-84,-7,55,84,41,-89,-67,7,-163,-75,-68,79,21,-30,-84,-75,98,45,-115,-49,24,-67,-8,46,3,-27,-43,81
,-154,-120,-36,98,64,-74,-235,-49,-111,37,10,-85,54,-61,47,77,60,-59,16,96,-17,-22,-59,-46,-27,-110,48,-78,-12,28,24
,267,-53,-229,138,-48,-275,133,-120,-166,161,-85,-86,212,-59,-329,124,-126,-18,159,45,-51,2,-62,124,150,54,39,-80,-85,225,4
,-135,-20,-159,97,61,-153,-286,-9,-192,-170,39,6,-84,-36,-168,-69,-59,-7,85,5,-214,139,-2,46,-188,-32,79,-51,74,137,14
,-11,-41,112,-120,126,-1124,-105,126,-486,-361,-56,17,-256,-58,-319,-113,-116,-146,-149,-524,194,144,-19,334,201,-392,-34,-102,-49,1,39
,294,-454,-356,51,-261,251,-84,147,93,46,-301,-117,-19,103,-167,-9,74,79,-78,15,193,114,-89,247,163,-15,-180,88,-208,34,-63
,208,-70,78,29,-216,35,40,-51,90,-46,-29,166,-16,-171,22,-292,93,-55,-57,-21,240,110,-58,-5,117,-129,70,40,-58,82,59
,-197,-25,-396,-206,-58,117,-273,5,-71,-122,18,4,19,-224,45,-137,-102,122,-87,-38,-106,-131,-130,161,-64,164,-291,-55,-181,-210,-273
,-127,-7,-73,109,-12,21,67,-36,-151,111,-118,49,69,-123,64,12,88,73,-99,-22,-68,-104,-11,-16,7,-5,56,-92,-52,-17,-15
,-50,-41,-27,-65,-84,-89,-255,-63,-4,-95,-44,5,-179,42,-185,240,-106,-16,-2,96,-65,-11,-58,14,133,-63,17,-61,30,-21,-216
,-213,112,-411,-342,-79,-283,-435,127,-306,9,-67,-67,-443,117,-289,79,206,-15,-394,-1,197,-136,139,-232,-103,-78,-106,-33,0,-11,287
,-58,-287,-65,-148,-279,26,-161,2,85,-247,87,-182,-313,153,65,63,263,73,-68,-827,-900,-216,-40,200,212,-262,-52,185,178,23,4
,23,-134,-216,-151,6,-172,52,-81,-234,38,28,-233,113,-35,-297,-67,-175,185,-61,207,1,58,-85,139,68,-92,233,-38,-129,104,56
,-77,-39,-175,-459,-147,10,-205,-120,57,-467,97,210,2,43,-149,-613,-124,-12,-50,-125,162,138,-186,29,160,-69,-17,130,38,-6,-58
,176,91,-81,36,-244,-201,75,-181,37,119,-113,-54,33,52,133,221,173,-88,85,-149,-317,14,-305,-5,186,155,-411,-121,-50,129,-228
,83,-55,-442,111,40,-204,-146,59,-64,162,-15,208,29,-159,35,137,72,233,-111,77,-168,-108,40,234,69,-40,28,-213,5,-301,-156
,157,-76,20,-23,-144,-32,5,-208,95,185,59,-185,226,28,8,179,-128,-94,-84,62,-145,-38,-148,-8,132,18,-150,8,-10,-114,131
,-166,-95,-3,-16,65,-71,-144,76,-179,-15,-31,-179,-205,-73,-231,55,-158,-192,34,-24,-52,-126,-34,-159,-48,-31,-123,157,-184,96,6
,-116,94,-48,80,-154,-120,186,-18,90,44,-185,-214,-79,-184,-197,-107,-138,-23,-119,81,-103,-40,-216,66,101,63,-51,-69,-137,-154,-91
,-121,127,-144,-297,-259,-230,327,-299,-35,-146,235,-246,-5,-52,213,142,80,67,-252,12,33,72,14,309,171,-113,-139,202,-58,81,-64
,-25,12,108,-294,40,63,-93,-64,92,-187,14,-179,-148,-361,-36,304,58,82,-523,-120,-310,-81,-263,-176,-332,-360,-261,-119,-419,-73,66
,-173,84,-84,139,-136,72,-273,-19,64,-12,-58,-62,78,-116,143,67,112,-55,-214,452,-234,-255,-369,28,124,131,110,-282,236,-61,-151
,-66,-105,-231,-270,388,-64,266,-476,11,-74,-104,-537,-54,33,84,228,117,25,-241,78,80,104,-90,181,-27,105,-64,-210,-21,2,209
,113,-36,-86,215,-373,-123,91,-130,28,91,176,-102,182,70,-121,-164,372,6,42,-1091,-482,37,102,349,-47,-294,95,72,217,38,-134
,-115,-142,10,-99,79,38,-86,56,-127,-34,15,-41,-53,-204,16,-52,-10,10,-13,114,0,25,-119,91,0,-95,18,45,-15,-138,50
,-87,35,286,-119,140,-25,-335,44,-389,-127,90,-122,-145,-141,21,-730,-158,-239,-94,-349,-352,-520,-318,-667,-377,-179,158,-1263,-29,-39,-470
,-292,-189,207,-390,240,-67,-274,-62,-450,-204,-4,-204,-456,66,-91,117,73,117,-323,244,-90,39,-158,173,166,-101,-109,230,-69,250,-205
,71,69,-83,-69,-105,-72,26,-5,20,-58,-17,-15,-2,-115,-28,8,-13,50,-52,-169,80,-27,-177,58,-46,-40,4,-26,31,-34,22
,0,-189,-14,0,136,46,240,-45,3,-11,58,55,213,45,-196,-22,250,-209,-263,-111,-10,-81,214,71,-389,-81,107,-182,24,-82,-40
,-139,-140,-189,-249,-364,-23,-290,-289,-126,-96,-60,40,-150,-161,157,-99,149,-324,132,20,-40,-96,-85,-79,-240,-190,-574,-40,-166,-17,63
,46,89,-14,-371,16,-359,-157,186,71,-9,-147,71,-104,47,-249,-124,-64,52,135,132,142,-10,-72,202,46,59,-13,-269,56,164,-75
,294,209,-8,488,-211,-400,309,-332,-261,204,-204,-82,213,158,-99,-246,35,-22,26,182,-21,-29,110,-259,-221,-260,-146,-177,63,-120,-31
,314,-259,-149,227,85,-71,27,163,-268,-160,172,-231,83,99,-183,-5,-35,97,-28,-253,-136,208,-100,-9,116,50,47,-389,-240,90,204
,64,-38,242,-569,15,-141,-61,93,-224,136,-281,-446,43,22,80,-1,-296,44,17,34,261,74,-139,314,-322,129,-125,-52,57,12,-12
,70,-27,183,-46,-649,-66,-17,-298,138,148,-229,-331,-140,-180,-204,-4,308,31,-245,-122,253,-422,50,290,12,-193,18,74,228,-52,-239
,-140,132,91,100,-136,121,-123,-154,-3,-200,-76,-182,-47,121,-273,-731,61,52,-175,-225,155,172,-218,-84,-399,-352,57,-363,294,-525,-104
,75,-188,37,-168,-37,-77,-22,-110,151,114,201,-80,-136,42,41,-291,151,142,48,-368,-42,-49,-421,-332,140,32,-529,131,88,58,-282
,-45,8,-89,-128,-189,-24,-144,67,0,138,-21,-187,-70,-40,-7,-129,-40,12,-33,110,28,-76,-20,-152,4,0,-238,-71,-89,16,-117
,2,52,-25,-393,-45,22,-77,-107,-143,-295,4,-56,1,-55,230,-108,-182,81,-336,32,97,174,-32,-323,269,-100,-130,278,85,164,-249
,-117,47,-40,25,-69,-86,-114,-193,-143,29,12,13,-138,36,-38,195,-96,24,-7,-46,-4,-37,-39,-43,2,0,-40,1,96,-37,-144
,-142,26,70,-161,-55,-294,-266,-41,38,-942,305,-179,-202,-244,192,163,-295,149,-256,30,126,-9,-160,-126,-47,-120,-270,50,84,132,-115
,-337,-60,32,-236,-16,108,-185,-92,114,-65,139,-79,-73,7,-26,194,-91,125,-116,-40,-51,77,-85,-250,-155,94,-36,-182,134,67,-61
,-85,48,-52,44,102,-190,-147,-73,-178,196,-59,-93,31,-46,47,69,-143,94,-100,167,-64,130,-31,18,-6,-39,-201,129,32,-63,-125
,-400,-50,-9,134,-22,-140,-285,-76,-19,-222,126,-63,-236,62,-337,-239,11,19,-512,-46,328,64,-324,-299,-278,-115,-171,75,209,-129,-30
,-68,86,-223,-247,-1,-61,-41,48,-412,61,-70,203,-116,131,140,68,-53,-234,6,-463,-20,-41,-104,158,-180,71,-325,189,-128,-195,-130
,103,-170,-215,199,-344,195,110,-25,-116,385,-33,104,136,-33,-100,244,25,52,-367,-16,86,127,-70,-57,56,-316,-372,211,14,60,-8
,-4,92,28,-34,110,21,46,-15,5,51,111,9,-82,-81,46,42,-4,50,42,-34,-67,-41,94,-70,105,-7,55,11,21,-21,86
,-132,41,-115,303,151,-221,34,25,-292,66,-161,7,67,152,202,215,230,-114,-107,163,23,99,-13,-20,-280,64,-112,-395,94,-224,-127
,68,59,-32,-112,-6,31,-191,-39,-53,-157,-125,-19,-10,-66,-53,-105,33,52,-145,67,104,-96,-109,52,-169,-179,-188,-423,-84,-27,-100
,-83,61,-177,-203,19,-206,-247,63,-62,-114,-39,-30,-81,-95,-31,-19,52,-50,58,66,-131,58,-96,42,-81,-149,-277,1,-13,-33,95
,16,-198,-79,493,-69,11,298,-252,-20,190,-170,-171,112,48,76,-109,72,54,-155,121,212,-181,80,-203,-175,-218,-148,-77,420,-950,-253
,156,-176,-439,141,-30,-55,3,151,43,308,-115,-20,91,187,38,-267,-182,-32,-13,-19,158,125,-197,-320,-171,-40,-114,43,41,1,-178
,234,151,94,160,-61,281,177,9,-149,-73,-46,-163,166,-247,-122,-274,114,-127,-313,-59,72,80,-47,-63,-162,-30,-491,-78,11,49,96
,-126,-67,268,115,45,-154,-267,60,155,-365,74,-419,-191,20,37,-23,-328,168,-340,74,75,-39,-184,-587,-787,-147,-86,-567,-328,108,-106
,80,71,41,230,14,33,20,-15,-188,54,-40,0,51,-34,-143,10,85,11,-40,139,-48,47,-56,63,-10,86,-157,-112,-112,11,112
,147,-26,-43,42,7,61,12,-157,-26,50,67,-31,-39,-77,-128,59,-111,-51,-123,14,-121,49,-146,-168,-56,19,-31,49,173,41,-150
,-26,20,-25,-168,-106,-80,-9,58,-115,-42,-109,77,-40,9,-67,-237,-149,-21,-29,-57,12,13,-100,118,-131,-82,-8,116,-92,82,-41
,-93,-92,-5,177,-48,32,-145,78,-19,127,11,94,-53,19,-60,-222,113,-105,3,4,3,-35,17,-86,-139,80,-101,-192,53,11,-65
,50,14,-49,142,-78,-95,312,-94,-224,5,-13,36,-102,129,-92,-70,58,-270,-100,124,-233,30,118,-121,217,-139,28,20,264,-182,-351
,-252,55,-307,-119,-38,-189,-264,-161,99,70,153,-1,-204,62,88,-1114,-122,-397,59,-552,374,9,-244,-20,-29,-465,-100,170,44,46,97
,-162,52,-84,-20,-81,-96,-22,-36,-99,-74,-131,-220,-119,9,-138,-55,39,-28,-31,-107,165,40,-106,106,-39,-78,39,11,-12,-48,-126
,18,31,29,-121,-54,-2,39,-101,82,-197,-65,-123,-91,56,-151,-71,-87,-38,-12,63,35,3,-98,42,-127,-40,28,34,-48,-25,-62
,-126,-68,-360,-173,27,235,99,-73,-169,96,-64,46,-56,-66,54,98,174,-135,27,-83,-163,57,-197,205,-48,-115,-33,336,-156,-56,-157
,43,116,-99,23,-437,143,-179,257,-306,6,-153,-400,-32,63,-164,-14,-78,-53,64,-27,-179,167,29,390,46,32,-240,56,88,-67,-110
,-30,120,32,103,-97,58,10,-7,-159,-89,-46,-12,-43,-233,-53,87,160,-6,-102,51,-22,-47,-190,58,-120,-126,65,-135,-14,-15,-13
,-111,-98,2,-28,70,-250,-311,230,-106,-48,-205,-170,-25,-199,-163,168,47,80,-62,186,-79,60,-37,59,68,50,52,69,18,28,-41
,-109,16,-164,-511,85,-86,-24,-27,-90,-6,-154,-401,95,-272,-99,156,-302,-146,80,212,111,-96,99,298,58,-138,-14,-210,84,-4,153
,112,-67,-8,76,-79,248,-126,168,-181,46,-302,42,-53,143,-217,112,-314,-185,119,376,-693,-296,25,-400,-417,-433,-212,187,116,45,-222
,217,96,-358,-36,-135,-71,139,-187,-54,411,-19,66,-122,182,-300,234,-79,-154,109,-29,-276,162,56,94,-248,-181,-121,24,307,-4,-222
,115,97,-71,181,125,-205,273,49,-312,-128,-141,-154,0,28,88,-481,-535,209,-165,228,190,-59,-248,126,-18,-78,-100,262,8,34,182
,50,-187,-205,13,-98,5,-101,-88,-126,-125,46,-86,-185,-8,76,63,-67,-13,-35,118,-93,150,-178,-15,25,-1,-131,62,-143,-22,-92
,9,-56,53,-46,72,-138,-132,-48,52,-99,-154,-64,-181,-156,13,102,-55,1,8,88,-22,21,-115,-43,-48,-61,44,58,103,-7,-99
,128,-66,-433,377,-21,153,-138,34,12,-10,198,-124,293,113,6,-61,141,-30,-11,-230,-22,177,113,-34,124,-159,-65,-547,71,-28,-4
,-265,156,-389,-366,99,-208,16,5,-36,85,-52,-20,-32,-159,178,230,-339,138,-243,48,11,-148,-75,250,23,80,-472,123,-141,19,55
,-302,-75,79,-356,88,-295,-240,-74,-30,-168,133,-71,-376,-43,-35,-142,-79,137,-91,97,27,-112,30,4,187,-25,41,378,-130,118,-381
,-316,249,-509,28,113,-80,256,-34,-12,126,-83,53,-99,-70,-333,-161,-175,-704,-80,235,-514,-412,6,-435,25,-148,118,96,-124,10,-280
,39,42,45,-23,87,-249,299,-91,-289,-152,64,112,196,-57,43,-286,44,151,-216,-16,236,-72,-48,-6,-202,116,35,-142,182,81,-34
,43,-83,114,-129,-93,-85,250,-58,111,172,-104,-87,126,-80,-81,-199,-157,71,22,-162,142,68,34,133,102,-29,120,-87,-87,67,-111
,-64,29,-390,45,-150,-290,280,-141,-134,-65,0,92,167,15,-85,172,-122,-167,-82,27,-139,96,31,346,159,107,-252,130,-4,64,124
,-143,27,165,209,-111,-324,32,114,226,190,-117,-132,-127,-196,68,-839,-303,-300,-165,199,-27,0,-106,13,44,-62,-105,329,-218,46,-131
,103,7,-74,43,33,-162,16,-65,79,41,-120,-136,54,86,34,116,-150,35,-92,-47,77,34,18,-90,-32,-37,7,212,-75,140,-33
,33,-188,186,-69,68,-190,87,104,-55,-354,-57,-154,-5,164,-180,-79,328,-244,-29,-184,365,86,-128,-114,247,-20,-226,75,184,-96,80
,106,-101,-318,-386,81,-248,-96,73,-429,-75,-103,-167,-12,148,-83,279,-144,-429,58,96,87,30,65,-250,-310,-155,59,-101,324,-229,207
,240,-196,-147,-116,264,-195,204,-126,-364,184,-125,-117,161,-33,114,38,155,-106,-63,179,44,185,-158,-270,160,-84,-394,-411,-237,-297,-43
,-179,-221,-78,-86,-182,-77,-153,112,42,-219,-115,134,-171,-403,-177,-577,-144,177,-131,-566,0,131,-32,329,36,36,-68,218,-15,156,-40
,21,17,-211,-72,120,-365,151,-80,126,-10,-48,-49,-105,-177,-304,-55,177,30,178,207,167,-71,9,40,187,-121,-96,239,-34,-101,39
,197,87,-48,-38,6,-22,141,64,-214,-29,36,-220,140,-67,-112,68,-219,-48,-44,-291,-10,106,-141,-126,52,-16,112,26,-117,-6,-142
,104,-108,-778,-37,61,178,-255,281,43,196,28,-127,96,-131,-35,-46,-332,-2,159,-148,26,91,-287,-12,-26,-575,-215,37,23,-146,-92
,-88,-18,-268,15,-58,-156,21,-111,-145,125,57,119,-188,52,80,155,0,-159,233,18,29,109,-329,269,115,-107,-362,-54,-155,-27,-239
,-107,48,6,-616,35,114,-84,-94,-366,15,-291,-236,-165,-146,-80,-170,421,-162,-10,0,153,80,25,173,-62,-50,57,83,72,-24,-129
,209,-14,-2,-8,-407,85,188,-103,73,140,-67,57,81,65,-176,-252,-198,-43,82,247,252,-132,-193,-144,-247,-558,-367,404,-251,-351,5
,20,-147,-54,-212,-157,-309,-95,-230,-178,-32,-45,121,-77,-401,-199,-103,-17,-123,-259,264,171,34,-394,-46,-86,3,197,140,300,-73,47
,-218,-48,70,-186,206,-84,137,-248,-1,-127,46,177,-180,-149,-30,114,-182,228,17,-732,86,-41,-152,148,-100,25,-213,-422,-810,-437,-150
,13,-103,210,1,-86,-81,88,-34,-121,-28,19,-367,-77,73,-211,-148,-200,7,-167,124,-198,-2,-198,130,92,-179,-228,289,19,-46,-8
,-355,279,-219,186,29,-188,262,-444,6,62,-54,24,132,-110,-12,146,-821,-409,-445,186,-48,38,-27,7,277,123,8,-463,193,-54,-473
,141,-12,107,-191,4,-128,78,-77,-110,-108,3,91,-13,-39,-119,272,305,-30,-421,-374,-512,-45,-316,-183,-65,42,22,-293,-75,-79,90
,66,-176,112,297,248,-128,251,-11,62,204,-56,-116,141,-144,90,-346,160,-877,68,-564,-717,-50,-375,-136,-396,-374,-358,-317,166,14,-13
,22,58,-378,27,187,59,-28,-95,21,68,-138,68,228,70,-394,109,-495,-419,-369,-125,-305,-269,207,14,162,144,-118,-20,-10,42,-366
,63,-106,21,-184,-331,-256,-306,26,-174,-373,28,121,-252,109,62,240,-36,146,-175,178,158,-78,-365,34,52,-194,-17,-75,-49,145,-97
,-116,17,-114,139,25,19,140,41,-7,131,24,-156,19,-37,-14,95,-41,-65,-27,42,71,-92,-178,-7,-77,-49,68,-81,-72,49,51
};

long weight_1_T_nvme0n1_1[2*256] = {
-121,-459,75,-328,138,81,113,51,36,-152,-80,20,202,131,145,56,-562,59,93,-13,-160,35,156,189,15,-244,-109,423,6,187,111,-134,-454,-5,92,380,-410,75,256,99,-79,137,144,196,-446,108,141,-51,33,65,-214,122,360,-16,-195,82,82,257,267,5,89,117,23,12,39,38,-215,-45,-92,162,150,-126,135,462,225,95,-348,184,83,192,74,-32,-159,-320,-50,-111,261,68,-101,-173,83,-7,131,-299,146,359,99,39,-254,-63,-191,150,7,401,22,50,-2,84,69,75,152,-354,33,-136,17,-190,-15,510,-82,-205,79,73,-59,-165,-388,165,-70,-521,204,51,-147,-173,-50,-58,-227,-55,74,39,330,78,26,178,-111,-104,350,-41,-25,38,-182,65,192,-264,67,-354,-497,134,67,8,120,46,-261,391,29,-259,-21,24,692,-45,119,-52,241,-155,68,72,-70,352,-156,-72,315,-190,27,-245,252,-61,-92,-176,121,-331,-170,393,423,-140,83,-12,-124,66,254,45,75,-225,234,255,169,-100,-22,17,-267,19,-234,-259,12,23,6,111,173,-164,-70,17,69,206,79,75,-55,-140,315,80,50,36,-134,142,44,-197,70,60,135,-79,51,190,-276,321,-32,-146,31,260,221,61,-290,-404,-122,229,-299,-258,-217,-149,85,31
,-10,613,-137,273,83,80,-3,-89,32,231,58,48,-139,114,146,51,306,39,-193,-33,33,27,-13,-251,256,57,-51,-544,-30,-19,-104,347,507,1,88,-267,349,-94,-266,127,59,110,-151,-93,195,72,37,-128,-8,29,211,-312,-95,-61,196,-191,86,-183,-173,95,23,121,94,-135,-12,27,80,41,-35,84,-235,-36,108,-300,-220,-4,89,60,-3,-231,-38,-172,92,246,254,178,30,57,177,41,109,-3,-91,331,141,-410,58,-33,109,61,202,-159,8,-605,-18,65,-33,39,82,80,-103,448,21,289,37,37,136,-578,206,375,-288,4,-172,95,255,-176,173,330,-337,57,167,194,113,234,120,25,93,7,-364,88,-168,42,81,-46,-461,19,-20,36,335,-52,9,333,65,424,382,-126,55,7,-76,29,430,-315,84,195,-5,48,-570,126,-68,28,-15,72,-3,142,99,-104,338,16,-72,87,22,292,-152,-47,44,264,-43,379,53,-191,-483,71,-140,-47,108,65,-329,14,66,386,-11,-37,177,118,-24,11,372,-186,249,86,2,44,16,109,-13,45,49,56,-115,-393,41,70,-168,223,-332,-131,140,57,-8,-144,-96,159,23,30,-99,180,48,-146,76,-340,104,-2,62,-303,-196,-186,150,235,54,-160,108,159,180,200,-126,36
};

long bias_0_nvme0n1_1[1*256] = {
-423,37,28,-218,-48,348,-32,-37,-353,-341,-81,-181,-4,-138,532,258,-54,-297,106,-32,-340,57,-280,-157,-90,-169,-384,-139,-96,-30,-166,-9,-136,154,285,-74,-65,-75,-80,-37,-40,56,-295,-83,-250,134,91,-333,291,280,-46,-20,-155,-132,-215,-264,303,-5,-14,-266,356,34,-377,-129,-448,-164,-213,-280,-208,336,-249,-34,-51,-176,-162,-141,-284,-109,304,-103,142,-225,-121,-10,-234,-347,-149,-79,106,-284,-328,178,-119,-22,373,-88,161,52,-102,-74,-137,-40,-286,-115,256,-299,37,316,249,-365,147,69,315,-273,-281,-187,-262,-310,-397,-252,-165,150,-197,-13,-298,-101,-251,-66,-65,258,-63,35,60,-256,-337,-422,194,319,-106,276,-138,-120,-12,-260,20,-410,12,244,37,-28,199,-388,-276,-433,-302,-33,-301,-283,6,-84,-36,-139,-433,-56,-394,170,-36,-243,12,-321,-31,-356,-372,302,-192,-145,-57,-472,-207,-334,-285,-37,-140,-270,-375,-238,-394,33,-196,-52,-66,-168,-48,21,-377,279,-130,319,-106,-182,14,-115,718,60,97,-2,-166,-62,-374,-120,-293,150,-255,289,16,-291,78,-337,-139,-45,-241,-291,-32,-266,-10,-186,331,-369,-59,17,-164,-72,-93,287,-100,-402,-306,-160,-143,-131,-330,-147,30,-61,23,-35,-310,-152,-377,-63,-23,-99,-201,-59,-59,226
};

long bias_1_nvme0n1_1[1*2] = {
479242,-340739
};

#endif
