
/* Trace */

/**
 *  updated on 07/20/2023 01:06:26
 */

#ifndef __W_NVME0N1_8_H
#define __W_NVME0N1_8_H

char name_nvme0n1_8[] = "Trace/nvme0n1";

long weight_0_T_nvme0n1_8[256*52] = {
25,136,-173,158,41,-302,113,-175,-346,533,67,-49,194,69,-365,233,-143,209,-27,147,-457,53,29,-138,139,-126,40,285,98,135,120,-3,-46,-90,188,64,-77,-125,-612,-27,-204,-244,223,-84,-235,-277,-39,29,45,174,179,72
,-53,-139,60,-100,-92,25,-129,-188,-33,-175,69,-22,30,-18,-87,25,-23,-37,94,21,27,-92,-16,-55,23,4,1,73,-137,-175,-165,9,-181,75,-147,23,-40,47,-91,-43,55,16,-61,79,82,-36,-130,87,-71,-66,-87,45
,-191,-71,206,-79,147,140,-299,-194,-235,-726,151,-219,-278,169,-276,-143,-49,-179,-155,-42,-104,-224,-79,-254,-355,-54,217,-85,-147,-55,-445,-78,48,-235,-121,138,-150,51,0,-252,-112,5,-88,46,-35,-56,103,-59,53,253,155,9
,67,0,-22,31,42,-18,-146,-77,49,-21,-70,-131,-89,-68,-67,-97,-137,-97,102,88,113,-149,-49,-93,-129,-37,-135,-138,86,-91,56,-20,-45,66,90,-123,102,-44,-150,54,2,-109,-135,-81,-125,94,-120,-149,58,36,48,-161
,76,-75,34,162,144,105,134,85,-70,188,-156,106,-125,126,-397,79,-66,51,61,-88,-79,51,60,29,295,-107,-41,142,148,32,248,-48,102,195,-8,130,9,-36,-172,-84,-63,-190,-344,-25,96,42,119,-65,-375,-303,52,-66
,-282,169,-130,61,50,-16,103,-56,65,-186,31,140,-362,-58,-387,-314,19,-182,-30,-67,-83,16,-70,-83,-52,-29,227,-42,9,108,-130,-22,86,-87,45,275,-221,-188,-437,-2,-10,-127,68,-100,34,56,2,-61,-126,0,-80,-126
,153,-256,67,243,-88,140,108,-31,-293,153,-137,-156,45,-169,-109,-18,-74,-66,179,-149,-69,11,-96,31,-20,-149,133,54,-59,-172,106,-48,-203,44,-122,15,31,-111,-152,34,-3,-27,235,-298,-43,-13,-114,87,-54,-148,176,-271
,-142,-64,229,-37,38,-40,-6,121,-56,-140,-118,-52,-378,-78,56,-319,9,-112,-76,-75,-177,6,151,-115,-39,-15,68,39,-105,85,-179,88,108,-76,37,28,72,-131,-197,81,80,59,-94,78,-79,182,-70,165,-175,-414,-122,-29
,-37,-143,38,10,-166,-50,115,-77,-106,196,-103,-109,-117,-29,-174,-32,-181,-104,61,-107,52,114,-9,-65,-82,-18,36,-84,103,-95,3,-5,-102,49,32,5,17,98,48,-56,79,-51,54,49,-60,-7,-136,18,-101,-55,2,-90
,85,-74,-5,-53,38,-66,-148,8,-71,32,48,20,-131,-94,-52,88,-66,27,-101,-77,-28,-4,6,15,43,-90,-132,-150,15,6,-136,56,-90,52,39,-95,-24,-43,-41,-203,38,-63,-10,-60,-108,105,-151,-111,-32,-52,-127,-27
,95,-65,-77,62,-81,-212,91,-118,-55,31,-105,-487,-316,408,35,109,43,-152,-24,-30,-165,7,-147,-2,238,77,-57,107,15,-26,57,-58,-400,33,-194,-265,-6,32,-80,73,-32,35,84,-115,-39,1,-116,3,-99,37,125,-142
,-236,-10,-21,-204,-42,97,-178,-121,6,-258,14,-87,75,65,-2,97,-178,29,-51,34,40,-252,-26,-103,-187,-97,33,-181,-164,0,-44,-186,-116,-157,-38,-121,70,-66,59,9,-10,32,-138,17,-142,71,-127,-115,-4,-77,-20,-46
,-160,-129,57,27,-98,-40,-40,-145,-54,-171,-106,-22,78,14,-120,-93,-49,-18,-53,-52,102,3,-130,-92,-79,-77,32,35,82,-143,-50,-105,-145,-59,-50,-151,-149,115,50,92,-20,36,43,-98,33,-24,-67,101,-55,88,115,-24
,63,-125,-199,-128,106,6,-14,-93,48,-160,97,87,-33,101,140,107,46,172,-32,-2,200,-174,140,3,-77,-70,-199,-111,-98,-52,-135,-109,-87,182,12,-78,-92,-4,-216,-183,47,-141,-142,-33,-23,55,-25,150,-65,-255,-224,-145
,-102,-68,-160,30,-115,200,131,-225,-154,-88,-16,46,143,-72,138,-43,-112,0,-10,-30,-253,9,43,-98,17,-169,-172,68,-94,-7,41,21,-118,194,-71,-198,-123,19,95,-24,122,130,57,-88,-18,-196,60,-209,134,158,179,-42
,-200,16,-51,38,8,-61,34,-118,-148,-176,38,79,-23,28,-46,120,-175,96,-119,-20,-65,-17,66,-128,51,-76,64,20,-72,-75,-114,-107,-129,-28,32,-116,-93,6,31,-6,-56,-106,-87,-53,-84,7,59,5,17,80,35,-160
,-153,-21,-80,-183,38,-17,89,-4,15,-74,21,43,-141,-147,7,41,-132,-52,-52,-179,-202,16,-59,20,-28,-136,19,43,-135,-90,51,-22,-34,19,-21,-14,5,-79,-12,-122,-45,-23,3,-14,-104,-13,-154,62,18,-156,95,20
,-463,49,-428,-264,-184,-46,-144,106,-292,-741,71,86,-279,282,106,-314,-51,102,-401,-120,60,-340,-218,-386,-555,38,-19,-376,-71,-326,-376,60,-31,-493,72,-510,115,-149,-36,37,-2,28,6,197,-194,-115,-226,382,53,-85,30,102
,2,-108,-247,158,92,-326,-202,161,10,26,17,-100,172,46,-290,154,-122,-358,180,-147,-253,248,-12,-46,95,-49,-15,56,96,156,-179,173,154,0,98,134,73,-33,154,-62,12,65,-60,-153,-117,107,-165,-164,-5,-100,71,126
,116,107,-40,-152,1,-10,186,-47,51,300,-37,-245,-134,-279,179,-53,-188,-266,-166,-142,76,-22,-65,-121,-118,36,-73,9,-63,18,-95,-115,44,-67,-23,41,63,97,96,72,-216,-225,-147,25,-48,-139,-33,106,112,3,128,64
,33,-150,-294,-339,-252,59,228,-62,10,9,-125,90,-104,-69,-63,-6,73,259,179,-99,-101,237,-56,-121,279,-302,46,239,-103,-408,63,-158,-107,140,-216,49,-107,172,146,109,29,-57,124,22,-235,-196,-304,60,125,96,154,24
,103,-140,82,177,143,175,138,-226,-23,64,-215,-316,129,113,-600,138,-73,-519,120,-168,-89,78,-148,-2,-5,-85,-105,-43,11,-291,133,-103,249,-91,152,39,-88,-173,-101,-221,34,20,29,-136,0,49,69,90,21,-43,43,51
,-87,-21,-58,-186,2,-393,-257,-76,7,157,-322,84,-324,21,19,-167,35,114,-258,60,-123,-178,-14,106,110,-72,30,6,-125,-222,-118,-214,-107,133,-34,-206,-201,-146,-123,-100,-61,19,-153,-300,-115,15,43,-6,171,-16,79,-21
,-55,-74,-6,-510,-62,-143,-94,56,-21,-391,51,93,361,141,-571,-277,29,-102,-320,-41,33,-299,53,47,-515,-138,131,-459,-111,50,-609,-23,94,-823,90,374,-591,-157,271,-132,-52,-95,169,-24,82,-17,25,-4,-300,-217,-51,-118
,-124,-43,-115,93,-161,-84,-14,-118,122,75,-60,-87,-163,-35,-102,-153,-58,178,-100,43,-50,-140,-145,75,-73,45,176,50,-171,-160,-140,-94,-27,-73,62,-269,-633,-163,-580,-24,-180,-276,44,-150,-57,-30,112,-26,0,-2,-151,21
,358,36,332,72,52,41,-2,-80,135,-24,75,-136,-50,-59,-128,-37,-60,95,-11,102,99,-18,-159,-191,126,71,-98,22,-27,-351,-112,-85,124,49,50,55,38,-33,-143,55,55,-125,50,-34,-137,30,-10,20,-312,-404,90,-19
,-57,-120,-317,43,-29,-249,-160,-58,-262,-185,24,27,-295,33,-26,-220,41,-32,62,55,101,-79,-64,-106,-142,44,-254,22,-151,-107,-289,156,160,-354,-50,103,74,49,-117,-88,-142,46,39,32,-192,-101,-78,43,-191,-103,-34,-167
,-414,-195,82,-183,-241,17,76,-303,-324,-24,-196,76,-157,-52,37,-182,146,164,-210,172,-88,-51,-25,161,116,-860,-11,189,-364,-477,-20,-130,9,205,-201,-94,153,-10,196,12,12,-44,6,33,16,108,152,-456,-122,-13,-71,135
,-20,104,266,77,-1,12,-120,-61,-25,196,-88,47,-131,-14,38,-113,124,-30,1,-139,311,-52,-89,-285,-28,3,85,-151,81,42,-45,-109,-78,-185,132,-417,-1013,34,-516,150,-171,-269,-232,11,-132,-51,-27,30,25,4,-139,47
,-78,-166,310,118,11,48,109,-26,145,-29,-7,25,-17,-261,-65,-88,34,159,-70,-171,-199,-70,31,-244,-11,5,-168,154,37,-200,45,-104,84,206,-20,2,-104,-22,-88,3,-214,-209,-144,-231,66,48,-164,135,70,44,114,17
,-42,-426,-167,4,-198,-170,-62,-268,202,-26,49,-164,-32,-86,-323,-34,2,-21,-93,-11,348,47,-337,-182,-57,-212,-82,40,-411,185,12,-179,-64,-11,-259,117,86,-117,-301,73,-26,-77,-63,-224,6,77,-181,-110,-28,74,-38,-76
,-127,-21,-6,43,27,-95,-103,39,1,-47,-23,-79,175,-3,-86,-67,42,-152,118,63,-54,114,-181,-4,-146,73,-4,-141,-75,-26,96,-101,40,-147,-75,6,33,-74,4,-19,-1,-136,80,71,97,-139,70,-83,44,-16,-74,41
,-49,-76,-22,22,-75,-24,-65,44,23,-82,63,88,-235,2,26,-110,65,-95,-167,11,-59,56,39,-29,-104,-65,-16,-128,145,38,46,-166,-184,18,-78,-3,-98,-123,115,-121,-85,69,-10,-130,-47,-20,54,-186,-166,72,51,55
,-195,222,119,28,-297,114,-32,-110,24,-90,-107,-170,35,-146,97,126,-264,-191,-123,206,-103,87,-30,58,-27,-224,109,-102,-24,49,-30,-196,-316,24,-41,-320,-85,-8,121,-68,-21,-178,60,-75,60,-129,25,-198,-35,-94,-82,-32
,108,-37,36,182,114,-141,206,-47,65,120,-126,54,-134,162,-34,154,159,35,266,2,-49,159,-72,-5,87,-108,28,73,-172,-256,228,17,73,218,-28,-841,-88,-157,40,51,-41,48,-60,-357,-115,-8,291,-223,-119,-67,-31,224
,39,109,-228,-65,38,53,2,7,-176,214,159,-52,322,-129,-46,176,-3,-9,98,-134,-108,187,-163,72,208,75,-145,17,39,47,73,-1,-67,197,212,281,17,-92,-174,-179,-35,123,-77,78,-105,29,55,176,-46,119,44,-20
,30,-7,25,-123,-142,49,37,-67,-227,-109,-29,17,153,-133,-9,56,-14,-5,85,-64,-19,-15,-125,120,-22,59,-158,-157,-125,-140,17,20,-45,-67,-169,6,-53,-14,40,-163,-85,76,-7,-85,-73,-84,-45,-27,62,118,63,-75
,12,-107,90,-4,34,-155,-78,-87,-124,-175,-124,47,-34,-42,-33,-154,30,-62,-46,-131,-82,-78,57,-4,-212,-60,-67,-214,-90,50,26,-23,-18,-147,-26,-19,5,3,-146,65,-39,-80,-121,-126,-84,21,49,44,101,-84,73,53
,25,-150,-34,20,-146,28,-146,-71,37,-199,2,-97,30,-7,-51,13,-2,-167,0,-78,26,36,-34,10,-64,35,-4,-88,38,-3,67,67,44,90,-171,40,14,-40,-11,-25,-104,-58,91,-118,64,-40,-38,-27,-26,-58,-61,-3
,-107,-113,-144,19,-86,-69,106,-177,-75,54,-25,-186,89,-55,14,-127,15,-21,-169,-47,-186,-147,80,-23,-43,-51,-27,15,-32,37,-142,-104,26,-144,-84,34,15,116,115,-168,-119,-167,-50,10,-63,46,132,112,42,125,-76,37
,347,126,196,295,-26,158,61,42,-31,215,19,-151,129,-98,170,173,-155,-106,214,-185,-30,199,119,-174,298,-82,-47,287,3,-82,259,-44,-42,247,-189,124,-69,-70,-156,-88,46,272,59,-91,-20,31,19,-20,-120,-628,115,24
,-176,37,-211,-201,32,9,-153,-102,118,-70,-46,46,57,-94,-87,-163,31,-13,-4,-37,-95,-11,93,-226,-226,-123,-186,-111,32,-8,-109,-92,55,-75,-142,-152,62,-56,-50,9,30,1,-39,-25,-48,-129,-87,-212,-158,45,54,-126
,-91,113,-49,2,-161,-307,99,-199,-164,-10,-210,-67,52,-52,-29,-122,23,-23,-43,20,-19,-152,-74,-285,-12,-197,-170,-6,-68,-66,-54,-6,-447,-91,-309,-65,183,162,-42,-47,-186,-144,-186,-194,174,-8,67,136,31,127,66,134
,98,-33,-55,-24,17,-69,-4,0,-28,-51,0,-60,-226,-10,-127,-57,-49,29,-91,79,-50,-88,2,30,-15,-120,8,-128,-70,24,39,-9,-14,44,-53,58,101,-87,-89,-162,97,-149,93,-11,-11,44,-161,-15,82,75,-75,70
,83,24,17,-14,-171,-202,-147,-54,8,-47,-191,-207,-308,-16,-103,-142,38,-42,-235,-83,-42,-18,3,-96,-139,-75,26,-1,-85,-79,-116,68,-15,56,-57,62,-46,-52,-144,4,90,-131,-94,-172,7,-141,-99,-183,-81,166,187,90
,-250,-3,-124,-479,-118,-53,-238,24,54,-67,-87,157,-479,-35,-205,-516,-138,-6,-351,-48,-216,-268,-47,-13,11,69,225,-131,141,-6,-315,156,11,-53,101,244,-62,-11,-198,-8,144,0,-130,28,32,-109,-205,-28,54,120,177,-15
,284,140,-413,-143,-29,-74,161,-100,123,157,85,-89,-131,-363,-255,-4,-213,41,64,-117,-55,-117,-224,-3,-204,-129,123,-52,-409,19,-174,124,37,-644,229,79,31,13,30,54,2,40,-17,-167,86,-128,-153,-172,108,244,149,116
,-123,108,-204,-82,-27,-10,-17,103,-207,-89,-82,44,-82,-177,132,6,-101,19,-7,-183,390,67,13,-307,64,105,31,86,-132,-312,-56,-47,-116,-199,190,1,-70,-157,-426,-296,103,24,23,95,-34,49,-59,-47,-228,-166,-159,-9
,-13,-25,-215,-17,-75,-117,33,-97,43,134,-74,51,114,-97,76,45,-164,93,51,-188,-61,-98,-153,-231,48,-77,67,121,11,-80,82,-20,-29,-26,74,-68,72,-101,32,-224,-196,-185,43,-169,-89,103,-31,-75,-47,-12,-86,113
,288,-115,-260,42,-91,-375,26,92,86,-44,12,-250,93,145,271,-102,79,-41,35,25,13,-43,-127,17,44,-68,-337,37,-19,-6,-26,-86,2,-54,-61,-149,-151,-167,-325,299,-58,-19,41,-50,203,1,6,415,35,-133,-156,-89
,-66,11,-31,-97,54,-23,-134,-30,-48,28,37,-51,-71,-68,-95,-39,43,-78,-38,-61,98,-65,-148,-81,24,-12,-2,-12,39,-36,105,-72,-105,-55,-59,30,-94,-124,-125,-52,-89,-70,-13,-118,-67,90,-136,-10,-90,18,-120,-122
,-138,-211,-209,55,-230,-105,-140,134,-492,-30,-244,-29,71,-186,97,112,-111,-393,-74,-166,-371,132,-202,-33,-63,22,149,-244,115,81,-80,52,236,-125,-37,21,34,-134,2,-236,-204,-240,-76,46,203,160,136,93,-64,3,-35,-121
,-87,-55,-69,-236,-190,162,-172,-37,-42,-145,-156,-15,119,-9,-99,239,-57,-520,-281,175,242,-42,-107,166,-22,13,-46,-111,-133,68,-360,63,25,-428,181,53,-61,-86,-52,120,-116,161,-39,-166,-271,-287,-71,108,68,2,109,-203
,4,-24,-379,-63,-172,110,36,15,-342,-252,-50,263,-468,143,-323,-450,208,129,42,61,-407,-80,-148,-512,-19,9,-34,82,-3,-330,132,-6,101,89,10,-316,-236,-72,-238,-239,87,22,71,-128,-165,-72,-152,-281,117,-12,131,171
,9,-222,27,4,-35,-135,-104,-130,37,-139,13,11,-187,177,181,-113,45,-264,51,-328,-100,121,-394,59,-109,-223,-128,55,-186,-190,30,18,58,109,-358,-106,109,31,-76,171,-6,21,57,104,-78,80,-190,174,-195,-134,-167,97
,-438,-77,-105,3,-53,-398,-92,-97,-98,57,60,-159,-122,-135,181,-154,104,-24,-65,44,-180,114,14,-21,177,61,374,78,-24,211,10,120,214,256,-32,-39,105,-28,-9,-54,-636,-605,-830,-18,-96,-149,-71,8,-213,-127,-242,44
,-156,71,60,135,-88,133,-41,9,19,-73,-86,22,-79,-57,-108,-173,-140,44,-126,96,-22,98,63,-125,41,-142,-225,-80,-79,-98,36,-18,-88,90,-100,-22,-183,-45,-231,-86,100,-106,45,-25,22,-51,36,20,-48,-44,12,-134
,-271,-92,174,66,36,-16,-42,77,-195,80,-28,134,-305,-125,-325,-237,39,11,-251,94,-144,-32,67,-84,153,52,-87,17,-92,197,47,35,157,-37,-26,161,12,-134,-19,5,137,-412,-844,16,-104,38,30,1,-382,-11,-221,-72
,88,31,23,-102,-68,-145,7,13,-24,74,-19,4,-31,-238,-13,20,-95,-153,-173,-143,-23,-2,17,-158,-143,101,91,29,91,45,-164,-141,-88,-2,-71,-6,-76,76,-129,-81,96,-15,-21,-96,-90,21,-48,-48,8,-83,-16,54
,-244,-53,77,-126,10,59,-182,-42,-83,-79,45,-26,-145,-6,-14,-255,54,-70,-92,-68,-85,-47,-74,26,16,-180,-134,-6,-137,-93,-71,-25,44,-150,-138,-10,-123,49,73,-41,-84,-186,81,7,88,42,-9,-19,-126,-118,-109,7
,-203,-60,87,-80,-56,-112,-193,-225,-24,-144,-68,-108,-216,-99,25,-246,-123,119,-279,-23,-120,-125,-182,63,-240,-203,-67,-191,-200,-4,-103,-27,-69,-62,-132,73,-158,27,-23,-11,-113,-70,63,-26,67,-2,-90,-117,-48,-131,-85,-99
,-372,194,-66,-290,94,-157,-203,115,-159,-321,-84,-109,-576,-112,35,-620,-27,-19,-255,42,-50,-344,147,-184,-344,-34,3,-339,0,124,-354,-79,151,-418,104,311,-39,-176,-317,8,-37,61,-90,73,-522,-21,-110,144,-209,-165,-316,41
,-142,34,7,66,-52,-161,-109,66,-2,72,28,-21,-168,22,-122,-168,-25,60,33,-72,16,6,-132,-90,-172,-110,-36,-44,-8,37,67,-89,-124,90,30,5,52,-60,-139,34,53,85,41,-127,5,-138,55,34,74,-65,-98,-46
,-173,-95,-159,-52,-116,-49,-212,-52,-148,-99,19,85,-141,37,-153,25,-110,-18,-140,-129,-90,-28,19,-123,-73,6,96,41,-138,37,-169,-115,31,-129,-7,18,51,31,31,-139,123,71,2,-76,46,-149,20,-61,-73,27,-149,-87
,-86,119,-71,-223,-149,115,-126,-176,-90,-208,-262,117,-85,-234,-194,-33,-228,4,14,-162,183,-216,-108,19,-166,-61,-39,-227,-236,-86,-133,-321,6,-144,-311,45,-233,61,-78,-11,-116,66,-406,-30,-19,-18,-485,-12,-64,-146,-41,213
,-109,-153,-150,287,233,-202,-150,-107,-43,-253,-2,-114,-138,-173,-78,-76,-162,-360,-154,2,-350,-61,-11,-275,-20,-59,-261,-158,-62,3,-219,-139,-105,-110,52,74,-6,-60,-195,-141,54,195,123,14,-95,-247,83,-161,35,100,-98,-290
,-69,8,-90,-127,-47,0,-46,-76,-254,-208,5,45,-72,-51,-110,-321,-38,-138,-216,26,-33,-159,-145,27,-166,-2,-151,-210,-11,219,-282,22,58,-363,133,-250,18,-93,-22,-48,-6,-30,37,-54,-39,-61,-61,13,71,-84,-16,-100
,95,-67,-74,-272,-143,-1,-83,160,31,-228,28,-115,104,-404,314,183,-76,-62,158,-31,-36,-7,112,-148,38,137,-22,33,10,-26,113,100,-165,63,-25,-160,31,-131,-24,-102,60,67,96,36,-145,282,181,-567,219,-13,67,-61
,157,147,176,272,-21,66,224,133,97,139,-87,-88,175,-96,105,275,-184,-35,295,-171,-168,309,12,-141,90,-77,44,277,-120,67,52,75,-102,164,-124,169,-59,-210,-75,-198,-58,-73,-107,-50,-457,-94,-460,-96,214,133,128,167
,-19,-295,-295,-86,-149,-512,14,-11,-81,-19,-122,162,-418,11,64,-446,76,216,-457,40,4,-16,-389,18,2,-281,33,27,-58,-106,-196,-87,87,-74,-308,241,-36,-90,-269,-177,-1,10,41,208,95,248,16,-72,-36,-74,-82,93
,24,37,-195,-449,-108,-61,-374,494,102,-281,-45,-298,47,47,-140,-20,-85,-81,-158,10,-181,-49,-91,-170,-136,-73,-345,-143,-117,-224,-136,-90,-171,-248,13,28,-23,-111,-150,-467,215,70,-9,-36,163,30,156,130,-27,-133,-70,-77
,108,-257,-46,56,-120,74,144,-166,-278,12,-181,5,0,-45,-362,151,-77,41,34,-154,95,96,-94,203,72,-197,-2,-46,-51,-165,62,-223,23,89,-177,139,-118,-110,-73,181,143,79,-67,61,90,27,-55,-302,97,28,-173,-122
,-140,-141,-24,-142,-123,-113,113,-18,-163,-31,57,-47,-329,-43,-188,-98,27,-11,-68,55,-179,-222,-86,-62,-1,-82,-47,132,76,26,2,-81,160,12,-33,57,29,-32,-90,11,3,-161,-66,-131,-36,-168,-26,-24,-58,-218,-36,12
,-45,-26,-399,31,105,25,-231,183,-40,325,-76,-294,65,-126,-65,88,-95,104,14,-167,-267,104,-235,-169,-61,-222,-298,-195,49,47,-77,-73,-170,-327,-43,178,-103,-12,-95,-259,-136,25,-63,-293,-123,-123,150,0,75,207,80,63
,-461,32,22,-238,23,-37,-164,96,94,-78,-5,79,-482,27,-144,-467,-42,-162,-286,-61,-186,-128,72,-177,-19,100,19,-255,-47,-3,-109,-107,151,-110,-41,337,-75,-231,-270,51,-112,-28,-202,-63,66,-192,-43,-36,173,90,41,-38
,-51,77,59,-92,-47,-234,394,-42,69,17,15,-136,-65,-40,-29,6,-160,282,5,168,-429,-169,86,-73,-138,102,123,113,-123,-129,-242,74,-144,67,-54,-285,-375,-397,321,-76,-81,-210,-264,112,-47,58,360,-8,-252,-163,-80,-65
,-16,-167,-69,28,-128,-145,114,11,3,39,6,77,-52,-41,-7,-64,-142,-44,9,-164,29,37,-80,45,-77,-25,-26,73,-182,-9,-120,-39,-45,-21,26,-93,108,-61,-113,-20,-113,21,-21,-190,-26,81,134,-73,65,-73,45,91
,-342,-144,57,-419,-43,-95,-129,112,-182,-174,-277,102,-387,-170,146,-392,-132,-197,-294,-182,146,-403,90,-394,-530,-21,192,-421,-214,1,-242,-203,65,-208,-229,70,18,-123,-10,-59,-231,13,-172,-81,64,1,-23,-41,-6,66,-39,-271
,128,-90,-12,80,-134,-15,-68,-57,-27,38,-135,-154,-122,-158,-153,-141,-156,97,-127,-97,-81,-117,-11,-23,39,66,-60,39,24,-103,-61,-123,55,56,-64,6,56,36,-196,-190,-102,89,-78,82,-163,43,91,0,-13,-30,102,-53
,82,34,55,248,-372,-270,129,-156,-155,96,-191,-94,166,-393,-27,145,-373,-30,-165,21,160,-156,216,216,128,-58,-110,-47,-52,91,-75,-78,14,127,-69,-127,-176,-73,219,-453,-185,76,-43,61,10,161,-55,-216,82,13,15,44
,-34,-84,-24,-83,-114,-65,-157,-138,87,-127,-105,58,-61,-3,-188,-12,-138,-22,39,-77,65,72,-164,49,-69,63,91,-141,41,-126,-130,-184,-30,-174,-101,-16,98,-36,83,-157,83,69,-12,-29,39,86,-80,-91,11,-148,-89,61
,-279,-212,-187,-345,10,74,-349,-106,133,-355,-214,120,-271,12,-97,-294,-21,-133,-219,-85,81,-109,-192,-116,-185,-140,-35,-244,-140,45,-212,-127,55,-172,-161,107,43,-26,-73,-90,-92,-77,-87,-234,-43,-26,-34,-226,-60,-112,-45,203
,-75,1,-383,69,-131,-107,-81,-202,-15,18,-132,-65,-715,326,-10,-265,-137,-94,-111,-162,203,59,-207,181,75,-217,91,65,-164,238,86,40,-76,63,-17,94,-168,-114,4,-24,-218,-79,-124,-161,142,48,146,-148,33,93,27,-77
,-66,-158,-48,-78,-257,-52,-211,-250,-42,-215,-119,-33,-235,106,-12,-168,-186,105,-83,31,-416,-205,-206,171,-243,-4,65,-259,-10,185,-195,-79,-50,-358,187,137,-300,-252,-122,366,33,-49,-10,112,-88,-83,88,-228,-66,-80,335,-142
,-175,37,-130,-371,125,-73,-287,27,145,77,-79,-244,-47,-237,-377,-155,-38,13,-242,104,82,-268,-129,-441,44,-15,171,135,115,-270,104,92,-123,-51,143,238,-241,-273,-45,-29,14,47,133,-106,107,90,-31,-256,31,69,89,-155
,-167,-72,-125,-69,2,-54,260,-96,80,-182,74,10,154,-73,-321,66,131,-306,174,12,202,96,-30,-313,31,-69,54,43,-184,-74,-8,-220,-64,152,-97,-142,-293,-418,119,86,111,-57,-142,96,180,118,182,168,-105,1,-69,-7
,-356,-67,18,-19,91,120,-264,-30,91,-324,-104,235,-376,96,-242,-338,-29,-348,-506,-13,-185,-309,-25,-208,-417,-18,-192,-431,122,-185,-301,-97,27,-413,97,-804,-89,-145,-57,269,5,-127,-14,133,-57,-175,-124,3,-217,-191,-157,254
,-15,-162,51,-112,5,73,-83,-54,-295,-187,-106,86,107,-82,91,54,-135,-160,-111,-9,-285,15,-171,-54,-40,-9,165,-102,-128,-199,-49,-8,137,37,-134,-319,-83,-122,14,-104,-191,-167,-72,173,20,46,-66,65,-74,-17,24,94
,-289,74,175,-630,-8,45,-217,-152,105,-225,-131,119,-138,76,111,42,-158,-120,-347,132,-180,-186,29,-112,-421,-14,-423,-376,68,45,-274,-34,-8,-391,95,145,-64,-141,-34,-46,86,188,163,-68,-14,-157,-116,-100,-384,302,-48,-488
,-134,62,-318,-39,69,-18,146,-286,-338,240,-168,-341,106,58,-135,-45,156,-99,-43,-87,19,139,99,17,203,-141,-23,184,-87,350,228,-23,-469,202,-183,129,-78,-62,-318,19,-198,-148,-58,-38,-222,-207,266,-266,229,104,97,189
,534,-21,-35,414,-153,-248,136,-142,-15,201,-189,220,-64,-102,-342,129,-62,-429,-138,131,-422,-120,-18,-732,-12,-147,-515,-68,-135,-327,92,-45,-41,-36,-297,33,168,225,216,36,-52,114,-1,-20,-39,12,-31,-27,0,-73,110,-51
,-177,168,-8,-56,97,64,141,-166,-140,-6,94,-118,-123,151,-335,-12,55,-115,-26,111,-196,-218,27,-276,136,-1,-382,55,-106,-10,-213,57,67,-55,138,-67,-289,-352,53,41,-211,-197,87,5,-127,6,-166,91,14,-132,20,11
,-152,-25,-205,44,-13,-9,118,65,163,86,140,-9,-546,-146,-328,-344,-93,23,-457,-99,-138,-249,105,229,-474,142,186,-401,51,136,-244,-50,-36,-388,52,58,38,-43,65,41,48,-22,211,34,-169,45,-8,-156,3,53,-127,-49
,4,-55,28,13,-154,97,-165,65,-568,37,-129,70,16,-196,-387,-175,-24,265,-71,-42,-72,-10,-249,187,-140,-213,-127,-21,-181,-171,-225,-36,101,-238,231,-75,-138,-69,-152,152,1,-130,348,-223,6,-161,-86,-62,-32,-109,-5,-65
,-118,-64,-54,171,34,-91,126,44,-45,46,-15,-507,-212,79,-493,-256,109,25,-249,179,-56,39,150,-850,-173,-60,295,-45,-171,177,-79,-46,-526,88,-91,-317,-228,-42,-120,73,-28,20,70,-113,69,-106,-132,-151,0,-44,53,-90
,-117,16,-6,-93,-68,46,-2,93,3,107,-106,-64,-91,41,34,32,-14,-46,-61,-59,-160,-79,-122,-4,-32,-159,-136,-130,-82,-150,86,-125,-119,-81,-20,-158,-22,-37,-1,-29,29,7,-53,90,11,-33,109,-122,-100,99,80,-25
,-118,-34,-51,-77,17,-26,-32,-100,65,-63,-94,-112,-166,-53,-171,-2,-94,-114,43,-64,-125,-96,74,72,123,64,53,-75,-68,36,-103,-113,-124,-17,-156,-125,-56,-29,18,-118,-8,64,62,-92,113,-15,-11,-55,114,107,-51,-8
,21,-143,-139,29,-440,225,86,205,-55,184,-82,-416,105,137,60,40,174,-72,159,34,-217,144,-169,-317,161,0,-271,-8,5,-77,216,-242,-409,61,142,-13,-171,-60,39,-475,36,127,167,163,-129,-253,-161,154,-7,-79,-25,-86
,38,45,-43,-145,92,0,-108,-137,-152,-176,-187,39,5,-11,-109,13,49,-14,-77,58,60,24,-130,-199,-67,-253,-114,32,-196,-30,-86,-203,-35,-66,-151,-116,115,-103,106,59,-46,-37,73,27,-32,-93,-64,19,-69,-223,-130,-79
,-141,-5,-235,-424,26,-177,-133,-208,-28,-560,156,110,-197,-332,39,-48,-288,245,-295,-257,73,-174,-31,-593,-57,-232,-139,-2,-291,70,-402,102,-17,-255,-255,-251,-21,-82,-287,142,134,87,158,64,-119,-99,-37,-39,33,-192,35,67
,-95,-141,55,62,78,-131,38,9,44,-86,-158,78,71,-85,15,-3,-136,31,-22,-21,-66,55,-58,-63,-144,47,13,97,-159,-63,-57,38,-87,22,-110,54,-68,-56,81,-21,38,-57,124,-46,-30,71,65,-160,-104,40,-107,-144
,27,75,206,253,-130,-43,135,60,-176,126,9,-234,273,-153,-109,257,-154,-226,198,7,-8,174,-112,-58,79,-27,146,54,92,57,269,51,-265,234,81,3,-321,-124,-609,-509,-220,-41,-105,-336,268,43,152,67,-2,-57,66,-259
,-11,-126,-3,-54,-194,53,217,53,75,17,47,-158,-135,-101,-152,-90,-58,-103,-61,-114,-217,-36,-183,-85,-61,-73,-50,78,69,-119,146,-13,235,140,-51,-57,-11,-4,7,17,-112,-15,5,141,-78,-52,-203,-170,126,-88,93,93
,-256,161,-159,-234,36,-149,355,89,-209,476,-44,-28,-686,-276,266,-459,57,-44,-419,-72,90,-123,60,135,-100,-39,146,-277,-70,204,-86,40,42,27,-50,-362,-246,-291,-112,60,-45,-52,-57,50,26,120,81,105,130,103,74,48
,57,-49,-371,-30,-10,53,-101,-129,-278,-148,-27,-276,82,66,-62,39,54,-194,-173,-10,-186,-149,4,-374,-200,47,106,-289,23,-36,-97,-30,-118,-206,-146,-404,37,-22,-140,28,-23,39,-20,-8,-14,23,-205,143,33,-66,54,4
,-71,-106,-19,-22,42,-140,-33,-33,-134,-17,-134,-147,-17,53,-140,158,55,-29,145,-78,-160,27,18,-83,-41,21,-32,179,17,56,-45,-145,-79,97,83,-120,-47,27,-17,-15,96,-120,55,-9,-115,63,98,5,127,-15,-37,38
,87,13,257,197,-121,200,-164,144,52,-853,37,-368,137,-179,-343,21,110,-25,101,-77,-174,-237,-38,95,-50,-38,-192,11,115,-139,-150,31,-288,122,-101,114,56,-128,-56,42,36,-87,-280,-43,55,-67,-89,-563,227,63,167,85
,-36,45,12,90,3,49,95,15,18,-12,32,-55,-68,-135,-37,-176,22,-77,-210,-69,12,-180,2,-116,-109,28,-80,76,-54,19,-73,9,-80,-200,12,-25,117,-88,-102,-114,32,-20,72,-71,-134,-31,70,-13,46,-54,77,-110
,-300,176,-121,12,-227,-56,-167,6,-3,-172,-205,10,-615,35,259,-190,124,-237,-742,-97,125,-740,310,-123,-13,-239,165,-246,24,-31,-151,-112,7,-347,-288,5,151,-39,50,72,-123,-172,-153,-24,-181,-60,45,149,-190,-88,-160,-105
,22,-21,14,-86,-120,-199,55,41,-43,-108,-95,-202,-145,-104,66,-168,-93,-46,60,-105,-108,19,49,-189,-138,-67,-97,-172,-153,59,-206,-47,-123,89,-100,112,61,33,-138,-77,78,-114,50,-15,-66,-87,-115,3,-27,54,91,73
,91,8,-119,-4,-133,-3,-5,52,-100,-131,78,-105,-89,32,78,-78,-30,-111,119,-133,-56,-138,-91,-47,-27,-115,-94,-29,-156,-49,-25,-95,95,-43,-132,-122,-65,-135,-35,-100,94,37,24,-50,-73,73,-49,-119,9,-108,-23,43
,68,98,518,-120,-85,131,116,-44,-1,89,32,-117,-142,11,4,-109,34,36,-42,-44,26,139,-3,-511,-31,-58,-178,21,3,-3,64,44,80,4,-39,36,-193,-390,-216,14,-297,-142,-472,34,-137,-115,-285,17,-57,-34,23,34
,-62,107,11,-49,-188,169,19,-115,-93,-104,-169,-25,-68,124,163,3,-45,136,-157,-24,11,-42,175,-58,-250,-107,-157,22,-144,-132,-60,-49,-12,75,-248,131,-78,-45,241,-227,-177,-130,-188,-32,-185,39,137,-293,86,-19,128,30
,99,-73,157,3,80,-145,-35,149,98,282,-217,279,-89,-175,-114,38,-131,143,-85,88,-57,158,-68,106,2,-58,-68,28,17,89,139,-52,-12,-8,70,-429,-99,-39,-23,28,5,-40,80,46,-66,24,-48,-56,105,14,-105,3
,-187,-144,416,111,1,378,131,-74,77,-47,-41,49,53,29,-11,-117,151,15,46,-157,96,-28,84,-409,-81,112,-471,-15,3,-128,63,-14,-65,196,43,-33,-32,-265,-207,-99,-22,-62,162,-53,-75,-145,94,-23,-87,29,15,-145
,9,-134,-108,18,76,60,91,-71,-60,-60,72,-133,43,-99,-142,-61,-39,-23,-116,-93,-102,8,35,-136,64,-132,-124,28,-105,-6,109,1,-150,-136,62,-206,39,27,-108,-86,54,-10,-37,81,-98,51,-120,-92,-25,-43,-44,65
,-86,-181,-13,-232,-112,50,-137,-96,-95,-125,-84,-82,47,125,-155,-173,-15,-83,-88,118,16,-128,-112,16,18,8,25,-240,-15,-167,-42,-146,-138,-239,49,-92,-51,-82,-216,-20,-9,-163,42,64,-9,-109,-39,198,-33,-74,9,88
,97,19,75,-58,-86,-76,9,-132,-151,46,-37,-99,-98,72,1,-133,-109,-42,-61,-116,-124,-141,73,-109,-16,-146,-32,-44,59,-100,8,-99,71,-91,-83,76,-100,139,-29,0,34,68,-129,-4,-81,10,-5,-147,3,-26,70,-66
,-77,-109,76,-145,-50,-55,-44,-42,-52,-223,-194,-134,83,44,-140,40,23,-34,27,11,-13,-85,-155,-77,-205,-54,5,-149,-7,12,-21,-169,-104,-213,77,-54,-47,78,-133,90,-53,5,48,32,-75,98,-90,-161,-32,92,-30,112
,-245,-205,-165,-45,-5,66,11,-38,-65,-29,-17,78,12,-106,23,113,-341,-307,-196,321,269,72,-164,-80,-19,-101,-70,140,-62,187,-103,-33,-37,77,9,-360,44,127,5,-131,5,-31,-2,-304,-57,-129,19,81,65,-119,-99,-50
,-419,-94,272,-139,-30,54,205,-239,116,-183,-30,-333,-130,185,-13,-162,164,248,-146,79,76,-193,-65,-206,-426,-114,-280,-431,-90,-101,-298,-83,-268,-113,-64,-151,-95,50,150,148,14,-63,55,-52,43,-1,-57,50,-29,-124,-160,-167
,-111,8,-171,-159,-20,36,-109,-5,3,-137,70,34,25,-77,-491,-93,90,-356,-114,-186,270,-34,-20,105,-131,-17,-152,23,92,-86,-78,-47,-179,-41,38,-159,-170,-142,-65,-151,-20,-84,44,-147,-169,-78,-122,112,-203,-54,39,-14
,-137,26,-245,-96,-170,149,74,-149,-24,-185,-131,116,-58,224,191,-37,200,82,43,101,-116,-190,-94,166,-83,35,-54,-7,49,-92,-48,-48,-99,135,-80,-39,-189,-108,-75,42,-157,-196,-226,76,-155,-178,-213,53,-107,-131,-256,40
,229,-274,109,147,-122,37,80,-174,-156,74,-6,-245,170,306,37,151,-31,22,193,-66,47,137,-198,-98,251,-72,131,232,-93,-196,78,-75,-75,84,-33,-194,-128,4,-155,-15,-20,-75,-268,125,87,134,193,39,-155,-43,-51,38
,-450,-283,-40,-36,-78,-277,-418,156,-177,-469,-65,117,-373,73,-79,-187,76,-128,-254,-61,17,-385,21,-410,-470,-36,177,-506,142,-194,-499,-33,80,-145,18,-106,191,71,115,137,-25,-167,-56,-21,156,139,-45,-203,-216,-194,-2,-172
,-92,8,-218,-105,10,-166,-16,-7,-114,-96,-117,29,-84,-26,-6,-168,33,-129,-142,-68,14,-119,-68,-21,-146,-124,38,-51,58,-187,-170,-94,94,32,-159,2,-52,-96,100,98,-8,-116,-103,-136,-68,-56,101,28,-95,110,-116,-22
,-135,-98,-216,-71,9,-58,108,140,130,52,42,-118,-109,11,-195,-56,-178,107,-106,2,-284,83,-29,-3,55,70,-341,9,-255,50,-133,-133,-207,122,-248,351,-167,-22,-698,-279,-13,-167,-359,-180,241,90,58,183,46,-181,-159,-93
,114,-106,30,88,-119,-40,-29,68,64,-111,75,-124,-227,-63,35,-16,15,-88,52,-41,14,109,-34,-179,14,64,-67,-40,-202,-1,-62,70,-105,3,-152,-84,-16,-89,-10,-93,0,-119,4,48,-169,27,-108,114,148,9,-99,59
,112,121,-2,211,95,-169,137,97,-243,157,-27,-59,71,135,-71,75,21,179,-48,-49,24,10,126,-94,50,73,-271,90,-96,-78,20,-98,-127,132,-287,-141,30,-160,32,-196,28,39,-121,-271,-12,-123,-11,-79,38,-20,-44,25
,-3,-312,-60,-108,-56,-182,11,151,-68,140,53,-310,177,-414,276,79,-258,104,90,-185,195,85,-353,5,98,-133,129,55,48,66,134,17,-24,11,4,-43,28,-233,198,-193,-142,-61,109,-327,-168,-51,-83,-202,-8,-108,-71,93
,-72,89,91,-80,-3,-2,-40,-18,-12,90,-180,-43,-30,96,-197,-72,-14,-102,-88,-166,-31,4,35,-10,2,-121,5,2,-47,-173,29,-95,-5,-10,-163,29,-67,13,159,58,-96,-50,-190,12,-12,81,-150,-36,-77,-25,27,-116
,-355,34,-51,-122,182,258,-337,-11,-3,-238,-126,-10,-195,35,-177,-89,30,-96,-342,78,-86,-206,-54,-450,-179,171,-65,-95,-33,-23,-145,54,-217,93,-97,-74,102,167,59,189,15,-130,-104,-95,-6,-40,-226,-210,-45,-36,13,86
,-148,-48,42,-369,-88,112,-254,114,-227,-168,71,83,92,-190,-157,-114,-283,252,80,-201,-370,-9,-36,-37,-124,-181,170,-271,196,-441,-200,68,-173,-204,42,39,-92,-238,-147,212,138,98,21,51,-121,-18,36,-34,54,30,-145,-3
,29,114,-63,-307,19,-15,190,-67,39,-232,-146,141,-969,-14,-293,-884,-49,-116,-718,25,-143,-695,121,55,-390,42,-30,-323,-18,15,-374,-11,140,-307,-42,299,0,91,-1,28,16,-88,108,60,-12,90,118,-11,137,212,-17,0
,-21,-34,-774,-257,81,-256,-134,-161,38,-50,-122,-221,-212,-178,189,-38,-55,-80,-97,52,-201,41,75,-652,-94,-88,-296,-85,-138,175,-51,-30,-497,-159,-103,-248,48,-138,-24,-257,-26,-8,-38,-29,-24,-34,-266,72,-86,40,64,-84
,440,-288,-46,61,-51,112,577,-66,8,-6,-265,-14,-175,-277,-45,-385,-158,-9,-321,148,60,-169,-32,-38,-310,-54,-279,-79,-88,-87,-45,98,-245,-118,16,-124,162,235,142,192,13,130,171,32,-129,21,107,86,-112,-116,81,133
,-10,-161,-56,208,-4,70,37,98,-53,154,-98,-29,-43,-219,-60,-88,-37,-63,24,-74,-27,79,-20,73,83,-116,-90,188,-189,-96,-3,-60,-270,75,-136,-8,52,45,82,-24,-6,-151,29,-26,-105,-160,-8,59,-153,55,43,44
,88,-36,272,-78,-87,-151,-68,-12,-25,40,26,111,-347,32,-268,-212,-91,1,-181,41,7,71,-3,-257,-5,-59,111,126,90,86,-50,119,-123,80,20,218,337,-95,-767,14,-130,-163,-433,-86,-356,-422,398,-11,-221,-34,-359,2
,264,-58,-175,181,-20,103,-101,-90,-39,-206,11,22,-386,-143,422,-238,153,-112,-2,-38,-546,-54,6,-218,94,-3,-139,-256,199,66,-299,101,20,-78,-273,-146,-96,-67,48,203,-72,-161,30,-4,-134,-9,-1,128,135,-92,-123,211
,-13,-166,-110,65,-63,-117,-97,-202,-23,-102,-18,-100,43,74,-83,143,-164,56,-6,73,85,-72,-34,-101,-43,-19,-77,95,-124,3,-105,-137,-5,-39,-41,-14,-35,-44,-60,67,-16,152,-130,-76,-99,44,-118,39,-110,-145,54,-65
,14,76,-194,24,-119,-147,131,-10,81,107,77,-120,-50,-159,-100,77,-60,-40,25,-58,10,29,-79,-98,-162,12,-18,-92,-47,-177,-38,-118,-104,-107,5,21,12,-123,-80,-112,48,96,71,-22,79,93,-42,-15,-176,-184,61,29
,20,40,-35,80,-63,78,33,-59,-122,68,-85,-31,48,-120,-104,85,-86,-131,-91,18,-11,-67,-77,-173,65,44,-167,-64,14,12,-81,-110,-172,29,-30,95,71,-142,-156,100,103,4,96,-93,-93,-72,55,50,-64,-125,102,-141
,153,-76,177,86,-135,-88,61,92,-68,-59,-293,-206,-311,373,-338,100,28,66,42,-234,57,15,-274,-131,211,-22,-93,-36,-261,-15,146,-227,-35,106,-276,-491,55,-86,-141,73,-119,-41,0,165,120,-150,-56,-16,-100,79,65,-177
,-141,68,-58,-184,0,-156,-146,-136,-62,-103,-109,-13,-112,-20,-9,-42,-85,-118,-146,-116,-88,-132,-61,-130,-102,-10,10,-1,82,32,-10,-87,-152,-171,-54,28,-81,32,-90,-41,-61,-142,47,8,-52,91,-3,67,26,46,61,-67
,128,-72,-172,17,-76,120,-182,-130,95,36,178,186,307,-21,-119,65,-127,-262,-44,53,-81,86,74,-63,-140,97,-54,23,136,1,-28,-45,75,111,89,282,-370,-215,74,-131,-119,-179,-61,-149,-24,-70,123,-111,-13,220,-99,-226
,-25,-153,-38,-242,153,-53,-102,-84,125,92,-145,121,-155,105,78,61,-63,-323,75,0,11,-201,81,90,81,-245,-284,-18,-101,-463,61,-199,-5,29,-153,-18,-99,-173,49,-199,173,135,36,-33,-175,339,-192,-425,-19,6,-137,-96
,-88,-128,54,-52,-88,43,-68,-45,-10,-46,82,8,39,137,39,35,-36,54,17,14,-20,-176,53,-107,-203,-6,-119,-47,62,-24,-2,-26,-78,55,-240,-202,-134,47,75,45,32,-119,50,-179,-105,125,83,-111,-20,24,-18,-129
,83,36,-239,24,128,-48,-116,15,45,-150,-119,-45,64,240,109,-33,141,171,-31,-59,129,-135,-36,-3,-179,-76,-51,-151,-105,50,56,-116,-27,-27,-135,-102,-46,15,-53,-36,61,-24,37,96,-66,-68,45,-90,38,-28,154,138
,-101,-229,-68,220,-225,-233,129,-263,56,-20,-221,47,-60,-28,3,-108,98,-254,69,-129,-195,29,-248,168,167,-194,-205,31,-77,95,-12,41,-141,50,-238,166,-149,-167,-247,326,5,-241,-212,-88,204,83,191,97,-56,47,53,-135
,-23,-203,69,-84,32,55,-46,-272,166,-197,-344,105,185,257,-171,50,-133,96,8,36,-91,-233,-125,148,-181,-93,73,-278,-240,10,-210,-244,51,-100,-156,-88,-22,-296,-96,320,-71,-60,64,14,-17,-83,48,-130,31,78,77,-89
,-93,-99,-107,-185,-19,45,-204,79,-75,35,-136,-14,-162,-115,-160,-32,19,-52,-113,-183,57,46,44,-108,-47,27,-71,-185,-19,-105,-165,85,105,-88,-159,-71,39,-134,30,-32,-7,28,-3,-57,-59,-28,43,-118,25,-92,-22,23
,138,-82,-141,67,52,111,-158,129,-70,-154,-160,238,59,-274,178,-123,76,-433,-72,-271,17,-94,-254,135,-98,-190,118,-120,-99,-421,-71,-25,135,-93,-163,16,62,120,-20,97,-12,57,-82,-169,125,57,105,-49,-229,-196,-47,-196
,-24,-210,-4,95,6,-380,-73,18,-98,75,-177,-308,-41,-227,175,-30,-115,-126,24,-40,-16,52,-194,269,53,-4,-345,-132,-47,-173,-155,12,-412,33,-32,116,-67,89,-70,31,4,91,-6,195,-175,-136,88,8,-99,-162,-40,-60
,-94,-185,21,95,42,-31,68,-103,74,24,-21,-240,-39,-28,77,98,18,-66,95,-137,30,-85,-6,-31,145,19,-94,22,-22,-180,46,-97,-22,-25,-100,19,-6,80,-164,49,-117,-46,-20,-58,-111,-20,-79,23,26,43,-2,-91
,87,-257,229,-63,-165,1,70,32,100,-49,-118,-401,0,-27,-146,83,92,-231,-76,38,-164,-61,-27,58,64,-8,30,23,-67,54,-158,-222,-93,-282,181,21,-138,9,-10,-259,6,69,89,29,-129,-234,-420,-416,73,214,205,-106
,-182,3,41,-273,-96,-20,-297,64,-170,-243,-16,118,-235,68,48,-34,-34,-137,-214,-9,-245,-139,-136,-267,-155,-80,156,-249,83,5,-195,29,-33,-96,35,-53,-40,138,10,57,-128,-148,-75,-37,102,5,79,-182,150,-82,-70,-49
,-17,-196,14,-31,-172,57,-132,-146,-11,-136,-60,-52,-72,93,29,-9,-149,-116,-140,-192,23,-35,-12,-35,29,-14,27,-51,16,32,-115,-109,-88,-173,-3,-49,66,-145,-58,-123,40,-23,46,-105,48,23,51,-131,68,93,-128,-29
,-96,-21,-102,-76,-19,19,-104,-151,-120,-44,52,-121,-91,-132,-65,-63,-167,86,-192,-72,-12,-182,-80,-52,70,20,65,-111,-165,-5,60,-129,62,-31,-19,77,73,-118,134,-71,-40,22,18,48,-86,-71,-3,-68,-95,-20,-96,-121
,41,20,-417,-74,17,224,-31,-92,209,-30,-25,79,-166,-3,-1,-180,-37,1,91,-33,-1,135,38,424,110,58,-218,-61,8,-224,77,19,-87,22,8,3,-820,-348,-1133,-9,-403,-235,64,-2,-264,-423,196,-11,-245,-241,171,0
,11,-313,103,76,-60,-402,119,17,47,98,-115,-112,-3,-285,159,115,-74,-25,83,-87,-131,28,-188,24,220,-157,70,120,-6,-24,79,-80,4,34,-402,111,112,-124,-152,-127,-145,-19,57,-305,37,65,47,46,-104,53,6,-94
,448,-72,-597,184,-359,-338,133,-72,-432,138,14,-88,24,-196,217,17,-1,-52,63,-119,-256,46,-183,-29,37,-32,108,-128,17,-64,-64,-217,-17,-124,-181,166,107,55,-138,-8,167,138,160,79,82,146,48,45,-196,139,-59,25
,64,-12,101,-111,125,-5,-311,131,-14,-156,129,-56,-504,-90,-472,-381,-2,-130,-302,-120,158,-167,-80,84,-125,37,-72,-330,-70,22,-320,-23,159,-120,0,189,61,-57,99,-23,165,-466,-277,22,-129,-148,-383,25,-41,-267,-55,-56
,-181,-226,-69,-65,-222,-321,3,-147,1,-135,76,-16,-39,51,12,-252,107,-195,91,-46,8,37,-284,-322,-100,-22,-390,-136,-142,191,57,32,54,137,-9,68,178,238,9,203,-228,-30,-213,-268,-30,-124,-506,-72,-125,-112,-184,121
,-357,-306,-33,-324,-160,69,-102,-217,103,-202,-126,85,-519,5,140,-667,40,36,-151,37,-500,-204,-128,-26,-231,-286,43,-195,-233,49,-31,-131,-88,-119,56,-225,179,115,156,-5,-105,0,84,-63,-13,-75,-206,-5,-167,-93,-124,-423
,-20,-152,41,156,55,48,-5,36,-9,68,24,-136,54,-9,-84,-37,-13,-60,18,-56,-70,57,-74,-64,-64,-64,-79,6,-38,-57,-20,-54,-7,56,13,6,60,-115,-80,69,-59,-92,-66,17,6,-16,15,16,-50,-123,29,13
,-3,28,104,87,-158,-40,-54,-97,31,-22,-77,19,-274,-37,-119,-83,28,-59,-3,20,-53,-167,-133,-161,-48,87,45,40,-181,-184,15,-106,-65,80,-28,69,15,-29,17,11,-124,0,-80,18,152,-36,37,102,-148,-15,-97,-203
,26,-160,-81,-54,114,-480,100,-237,32,-108,115,-126,-279,73,-43,-100,-9,25,2,48,449,-116,-84,102,-40,-79,-176,45,29,-128,132,-12,0,50,-8,68,-143,-412,-764,-57,-50,-43,-508,-352,96,86,38,-55,5,144,-59,-135
,-139,-93,-169,284,37,-73,-66,154,-287,85,-138,-66,-197,41,-115,-135,52,2,-245,-123,248,-212,-58,262,135,-33,324,75,-16,-583,-46,-103,-6,3,10,148,-15,-248,-608,-352,19,111,138,-173,-86,-109,16,40,-235,-113,34,-343
,38,141,139,120,48,-95,56,148,42,91,103,-30,-233,28,-42,81,-66,88,160,-66,72,163,-21,-170,189,-25,101,213,81,131,134,-41,-24,-53,-8,46,-105,-276,-179,-160,48,-85,-31,-110,-307,-284,-201,-119,76,132,109,29
,-87,-112,-112,69,-35,-10,-163,-12,-20,-109,79,-166,-109,80,-20,-171,-175,-32,15,68,47,-137,-113,-96,-150,55,69,-38,24,-24,-150,-117,-11,-161,-152,-18,87,54,-63,-162,-9,-53,-65,49,13,35,97,-49,-44,84,-145,-131
,-175,30,25,-25,-5,-116,-141,-130,-34,-135,-75,72,-254,13,-214,-99,-85,-90,-81,-162,97,-214,-85,81,-111,29,-134,-40,34,-40,51,-186,-85,-11,-34,-75,-29,-98,-128,100,14,3,-55,50,-25,-72,-79,-119,-3,9,97,-108
,-73,157,-436,-422,275,190,-333,-116,301,65,-13,-37,-335,-102,-6,-307,-199,-56,-325,105,-81,-247,-77,-39,-173,109,-46,-63,29,90,-295,56,44,-205,-100,-169,21,-99,-72,36,118,161,5,74,-387,-68,59,-291,-94,-97,6,20
,-41,-28,29,-203,-111,-185,-100,-117,84,-275,-180,-268,-163,97,-729,-229,202,169,-73,-128,-28,-84,-218,33,-15,71,-327,-176,-217,-7,-185,95,112,-149,-96,193,-233,-277,-115,459,-113,-198,-193,-192,10,150,91,-159,54,96,-69,-62
,-18,89,34,108,55,81,121,75,-69,-96,-27,28,-144,-139,-11,-208,33,-1,-174,34,-197,-14,-101,-138,95,-142,-127,-106,-174,6,31,-110,90,89,67,-30,13,-24,-78,-104,31,37,143,-24,-61,-48,128,-8,-76,-254,129,-119
,-18,-184,11,-2,-104,-137,60,-97,-50,-23,-699,-90,7,-485,212,21,-524,234,-89,-372,85,109,-171,86,-95,-58,11,33,-244,-62,91,-719,-22,-117,-280,17,-116,-137,-424,262,-9,-12,21,-11,-60,-80,-131,67,-40,-96,20,-97
,121,-5,-222,109,-78,16,115,-245,-215,160,32,67,23,76,-106,-2,-54,-170,39,233,41,172,-89,32,47,-158,-49,-55,45,126,78,128,-12,20,-282,-97,0,-4,-74,-23,-105,93,-30,-78,46,-78,-124,119,-48,75,-105,-137
,-232,156,-28,278,-293,-112,-110,-84,-662,-64,101,-270,29,-15,2,10,5,51,-131,10,196,-185,-108,120,-143,-148,108,-40,-51,-95,-48,-77,169,-164,-79,-605,63,-143,-4,-144,48,49,-137,120,-127,-28,-87,80,105,191,128,155
,190,109,90,-73,121,10,-56,-18,-38,-65,-82,16,-111,-33,-4,-223,-68,52,-131,-100,98,56,22,-70,-27,-77,-224,62,-145,-352,45,-38,32,-69,119,-184,-109,4,48,1,21,-191,48,-139,-268,-198,208,13,-307,-135,71,24
,-62,36,-173,-110,-14,53,-172,-91,41,-43,-36,-99,345,78,-44,157,-96,69,150,41,3,204,-103,69,60,-139,63,133,-37,35,-79,8,-31,145,-111,50,-127,73,100,-99,-77,-6,57,-12,-97,18,0,-42,35,-66,142,-108
,38,-124,-37,-140,-114,50,-221,10,-67,-203,3,-12,-274,-140,-146,-281,80,-59,-55,-34,-165,11,-103,44,-181,-81,-49,-108,-73,93,-178,-126,63,29,27,29,-96,35,-172,44,-84,-124,100,-75,-170,-53,68,43,30,0,-142,-21
,179,26,79,-2,167,32,59,-145,297,5,-43,59,170,-74,-24,202,128,-12,147,127,-520,76,86,37,-27,-84,-140,-53,-88,141,41,2,84,-39,-45,-57,-136,158,118,-120,-9,-64,-179,-388,-80,-78,6,-277,6,41,0,-19
,-33,-116,161,111,-152,155,11,52,59,8,-19,-17,228,-44,-704,18,0,-265,-10,-30,-117,215,1,128,-33,-63,90,-45,-74,31,110,-138,-207,104,-177,-142,-126,-137,40,-338,-37,-220,-247,180,106,-86,88,232,-181,14,39,-306
,-120,-196,185,-316,-147,114,-155,-153,93,-530,-63,-9,-26,212,197,-275,58,-3,-411,16,-107,-257,-65,109,-243,-89,-292,-213,-97,112,-348,-241,-110,-405,-16,-3,47,-84,-96,-125,-257,-109,-130,46,-166,-152,-104,-133,164,62,113,-52
,3,-128,184,-127,16,26,-86,62,-129,-378,17,-158,-407,-125,109,-319,-112,214,-143,104,-150,-281,151,101,-214,85,129,-25,-31,13,-192,31,-424,-266,-22,-91,125,-107,-80,-22,-21,-162,114,51,-116,136,-122,111,-108,-1,-102,152
,-49,-83,-41,-115,44,101,25,88,-285,-94,67,-110,95,-38,149,169,72,-408,77,-7,142,117,61,-103,113,34,-135,132,-48,17,135,-47,-79,-52,-52,96,-200,-66,-154,9,1,59,-33,-72,-15,52,-51,-185,25,12,-90,85
,-123,-59,35,61,-85,-26,-107,23,-79,41,59,63,-138,-75,12,24,43,-110,-116,-16,20,76,-22,-37,-89,-121,-95,-53,69,-12,102,-87,-151,-97,-25,-147,13,-87,-112,41,63,-134,-30,40,-94,-64,-7,14,-35,-110,-33,101
,198,-5,-115,8,-65,133,-14,-165,-170,63,50,-38,72,56,-211,47,-50,-366,-1,-43,15,166,78,121,86,24,110,133,15,-279,-47,-162,-141,85,52,-3,-139,-200,23,229,-22,-102,23,32,-195,-78,-105,-67,-12,-10,31,324
,-245,131,57,-145,-30,116,27,75,36,65,-160,6,-326,-74,-73,-350,49,-84,-79,69,48,4,35,49,17,-142,-96,-200,60,-147,-166,11,8,-140,71,33,-104,110,49,165,-104,-81,-150,132,-229,-268,-293,30,75,63,-61,188
,-166,98,29,-138,251,257,-36,-278,-55,229,-48,-107,-414,234,78,103,-213,137,9,-53,-73,-2,-191,-436,-221,130,-175,-43,-35,-76,123,-187,-124,247,-289,42,0,-83,178,62,157,-39,-42,-81,-169,49,-149,-60,34,137,90,-273
,99,21,-294,-47,87,217,269,-87,64,-129,-58,-123,442,-115,-295,66,-11,251,-10,69,146,135,44,-113,-56,176,0,-182,65,-235,-98,-41,-73,-181,50,-528,-250,-352,135,-50,-18,-270,-186,-362,-22,247,146,-43,-55,-102,-64,-272
,10,-98,-120,-93,55,-97,4,37,-7,67,-156,38,83,-29,-101,-17,-60,-10,-42,-9,-46,64,46,97,-193,-152,-17,-50,-38,-138,-11,41,-3,18,-76,22,-44,-122,79,27,97,117,-82,-53,31,-43,-104,-1,-160,-41,32,-119
,-209,293,-36,-296,-281,157,-289,-43,-127,-234,-164,17,-133,66,-500,-24,226,-338,84,-222,-310,-15,-194,-28,27,-231,150,31,-63,137,65,186,-28,3,-79,125,-278,86,-97,-109,198,49,185,35,137,-5,45,-322,-55,66,74,-129
,-36,39,100,118,-68,-9,-74,-133,39,-1,15,-41,-130,64,-27,-138,-27,43,-196,129,-62,35,-143,-69,-34,-153,-185,-85,-19,65,39,-63,-118,109,12,-130,-91,79,45,-24,0,-40,-1,-84,65,-146,96,-161,-62,71,80,-95
,143,-147,-103,26,-105,-63,149,-87,-106,-30,101,171,54,-86,-164,91,-29,-203,59,-141,-386,-10,-70,-306,-128,-240,-174,-65,-99,-407,28,-223,-17,54,-173,69,-73,-133,-67,-135,-202,-240,-161,-27,75,-18,77,-3,241,141,209,139
,-241,-108,-40,-98,28,-10,-103,102,-319,-166,183,47,47,-171,-225,-59,45,21,-124,0,34,-138,-137,-205,-141,107,76,-33,-17,-101,-202,-6,-7,-77,-193,-29,-30,-29,77,-67,39,-21,-71,89,-135,-81,-28,-93,15,62,-121,129
,-217,48,94,-94,-52,-33,-86,-36,5,-93,-88,-236,-63,-160,88,-14,-181,77,-95,-62,-75,-187,-157,84,10,-158,-142,-94,-16,-158,42,49,-146,21,-199,-111,-70,119,-85,-224,-34,-5,-109,31,6,14,30,-186,-36,-59,-35,-169
,179,-183,-209,-98,-201,-46,-103,-41,-178,-24,-247,-69,29,166,202,261,-313,-160,168,-23,-157,16,-56,-167,119,-154,-110,5,-67,-228,105,-57,-10,137,-162,186,-76,-142,-133,-335,110,68,134,135,150,48,-12,47,-103,28,20,-147
,371,2,-107,180,59,-246,292,-223,134,42,-104,-218,188,-2,-216,165,-36,-259,179,-17,-185,216,-251,-1,193,-349,287,196,-54,-53,174,-102,-164,158,16,-150,177,146,-4,47,98,-47,-138,8,-151,-125,-107,120,-41,-51,-108,139
,36,-138,11,63,56,-201,86,-146,-28,-106,-45,-32,6,5,60,-40,38,-51,80,-84,34,-55,88,-120,43,-93,24,-74,81,-72,70,-51,-148,-117,15,-109,12,50,-41,-132,-27,65,19,-44,6,76,-55,-134,71,-63,98,-143
,-83,16,-15,-177,57,32,-66,-99,14,57,4,-105,-113,-125,-140,-125,-52,-166,-96,5,4,-180,-118,-54,-54,20,-63,-70,-114,-106,-110,54,8,-138,-104,33,-102,-156,-178,14,36,-188,4,39,61,-135,61,115,-137,-80,92,143
,-45,36,-114,-93,32,-59,-70,-136,39,-241,0,10,178,4,118,66,-29,-33,22,-72,-103,-177,76,83,-55,-168,-6,-139,-114,43,-13,-144,-71,-76,-45,-166,-114,87,-76,-192,-74,48,-43,-67,-124,3,-24,-87,17,-26,-209,-108
,-357,123,-12,-159,56,-25,18,-67,-3,19,-36,61,209,51,-458,-178,-149,264,-28,146,155,-383,125,22,-267,26,-37,-3,3,-12,-120,91,72,270,-120,-61,140,-92,296,-388,214,4,47,-259,129,-180,-117,-292,43,-37,213,-289
,-127,-210,43,-3,-48,-78,-67,-39,-113,-97,75,-38,-34,-138,-93,21,-78,-19,-96,-21,30,-74,-66,59,73,-133,-62,-201,-122,-18,45,80,-19,65,55,-239,-51,22,-145,2,31,62,-89,-38,-138,-8,-81,58,-10,44,-64,2
,-84,79,-278,-81,52,-26,119,-144,-75,-66,-168,-114,-25,88,-246,101,-86,-194,-119,4,-190,-7,71,-213,-21,-33,110,-117,-144,-90,-106,-68,-157,-14,-40,26,66,-155,-6,4,28,16,-24,43,92,111,-180,-46,-63,-31,-57,-233
,128,-62,-336,-42,-183,-211,64,79,104,37,-149,-124,-268,344,-44,-32,108,114,-5,-315,-284,1,-324,48,-1,-118,-21,-26,27,138,65,-39,77,242,-78,-120,-131,-133,-191,177,56,74,85,66,-6,139,21,-74,-79,-2,-278,52
,21,-144,-55,-109,-106,-128,-116,-11,36,-153,46,-124,21,5,-34,-19,-131,-99,-6,-16,-108,29,79,69,-30,-200,52,-68,-113,19,-118,7,-81,-92,-189,-3,-72,8,-157,115,11,-10,-101,56,60,-70,28,-20,-113,1,-4,91
,-147,-87,-222,-16,103,162,158,-118,20,-180,72,-23,204,221,108,75,-35,44,63,-79,96,-34,47,196,63,-32,11,156,-42,-26,-23,-70,-92,162,50,-246,-46,-132,26,-183,-115,53,28,-40,-334,49,-108,-95,-124,99,-20,139
,-135,24,95,-142,-70,-131,-79,-86,-20,-15,55,79,-174,-71,41,-157,-18,-147,-46,-182,-64,-72,-145,27,-168,-38,-17,-26,-29,30,38,45,-116,37,-52,-99,68,-102,85,-29,-23,-87,88,76,-83,-113,52,73,-155,26,38,-119
,125,-138,82,-25,45,50,94,-159,-30,-40,57,-100,-174,-31,24,-225,9,-12,20,68,23,-107,-47,-169,6,-113,-24,-35,-68,-24,-37,-115,-165,-155,22,-26,-11,5,-14,-20,17,52,23,-99,-1,-46,47,67,-118,-94,44,11
,-93,-75,-144,-131,-197,85,-101,62,98,81,-84,-138,130,-336,-478,-99,234,235,-27,-201,63,-1,-90,-347,83,-35,58,-5,-35,106,120,24,27,-12,151,18,-34,-78,152,-325,-49,-166,227,-173,-16,-139,-40,41,-83,-147,193,-83
,-3,-122,153,33,-79,160,94,23,23,59,-21,22,302,-203,-82,-22,67,-337,109,-160,-177,-41,-34,192,24,126,-28,-52,50,-35,144,184,-18,210,201,37,-122,-196,97,-167,-196,-436,-259,0,-34,67,37,-143,25,176,-5,-142
,-570,-146,292,-428,27,5,-300,-133,-55,-801,-131,-400,-454,-64,-179,-365,19,-214,-440,69,-445,-430,-8,29,-570,-73,24,-528,-118,86,-385,78,-405,-477,64,-391,-128,154,-93,183,-179,-393,-244,190,17,-166,-164,373,20,-12,-118,367
,44,31,-50,-105,-135,-68,207,-127,1,52,-4,-4,-467,10,-38,-259,-72,-65,-199,20,-13,-108,-99,-30,-63,47,-123,-7,81,-55,-68,-61,60,-35,108,-31,-303,-138,-83,-86,-90,-99,68,-114,70,33,95,-112,5,-30,73,-115
,-55,7,-300,68,155,-313,74,32,76,103,-136,-195,7,-57,-289,-45,-78,-342,-26,-121,199,116,-248,-12,158,2,-33,-20,108,-146,149,-100,-175,-68,-116,244,97,87,118,79,-22,61,41,-170,-70,98,-41,228,23,-236,-106,-62
,-679,138,125,-297,38,82,11,-80,-21,-241,-104,37,21,65,-517,-91,31,-128,-272,6,147,-80,-32,-717,-63,-192,262,-71,-178,-113,-58,-198,-11,-179,-159,-119,-3,71,224,33,-23,-384,-239,-6,-38,-194,-73,-263,114,3,111,-100
,89,91,44,-307,11,44,-326,97,-92,23,-110,-48,-336,-143,-401,-204,-71,-78,-76,-130,141,-234,152,18,-234,47,53,-46,65,158,-19,39,-6,-65,-115,220,59,-43,-127,7,-87,25,98,-19,-132,2,-230,8,-271,-180,-146,34
,-74,12,-5,-160,80,-114,4,-151,25,-175,-62,-8,-80,-133,3,28,-10,-12,-81,-11,44,-98,-109,-49,24,-24,-83,27,-166,-68,-68,77,-6,-99,-38,-77,9,96,-55,-171,29,30,-41,-101,-153,8,-101,-124,2,119,30,101
,-25,-17,60,125,53,-171,-54,64,53,-14,-160,-64,196,-32,129,47,-66,37,54,-72,-247,-80,-39,58,72,-78,-42,37,28,-173,-79,33,-276,83,-56,150,-30,-81,81,-62,47,-93,-59,-170,134,-43,8,105,-74,-57,-131,-7
,-10,-23,146,146,-216,-45,12,-67,-125,-145,56,-265,188,-498,-72,105,-279,31,-13,-85,-198,136,19,123,160,-30,109,-35,211,-182,-105,159,-172,126,-19,-78,-4,109,-45,-297,-113,-108,24,27,-153,103,-76,-108,13,-4,21,44
,-102,12,-449,-32,-81,38,-124,55,-520,-17,-83,210,-195,-60,211,-89,-207,-70,-216,-224,63,-281,-56,-407,-261,-197,-104,-61,-35,-508,-167,-233,167,-239,-130,25,-73,-52,-55,-4,52,-123,65,-154,-134,56,-125,-161,22,-93,-2,-239
,167,-108,-106,-170,32,-49,-74,-220,-14,25,99,2,160,143,-499,217,-71,-46,56,-25,374,64,21,122,-5,-29,36,-95,-19,-7,-105,159,141,-110,-114,7,31,-33,-16,-227,-53,154,28,-50,91,42,-75,30,-167,-259,110,161
,-53,-8,20,12,-190,-17,-22,-96,-71,120,-14,10,-115,21,63,-223,43,-1,-9,4,-109,127,-52,-138,109,-83,-131,6,41,-65,-96,-104,41,-51,44,32,-54,12,17,-128,-23,27,71,-13,-115,121,-65,-166,-169,91,77,-47
,-463,112,-107,-303,-106,-83,-234,82,112,-166,-121,123,-115,-43,218,-163,-72,-139,-167,-22,61,-276,38,-140,-79,-88,-84,-69,76,-81,4,-202,71,-98,-75,-75,-138,118,-41,-97,-44,28,-218,-164,-122,-47,-55,-14,72,-145,-76,-29
,36,47,-350,229,182,172,-68,22,306,-32,-2,-463,-384,74,-65,-350,-25,-308,-181,-122,58,-208,102,-223,-402,-49,-400,-309,63,-21,-145,-16,-551,17,-39,-301,-41,9,-208,60,46,57,74,363,-124,-48,-118,85,11,-58,5,-11
,-188,-84,-83,12,-157,-31,-62,-128,-144,-225,-51,-155,132,10,-122,-117,60,48,58,-53,22,-185,80,-36,61,-92,16,-99,7,40,-155,3,-169,-110,38,-76,-73,-23,134,154,-179,-57,-243,-87,-31,62,-73,-149,64,-75,116,-139
,-44,-39,19,73,15,27,-199,9,88,17,-137,-15,-57,284,-336,-145,28,2,-73,-59,-316,-38,72,-82,-168,-96,18,-263,-67,130,-55,22,46,-269,-81,395,-217,-219,47,78,-148,-300,4,-13,2,-87,-69,-83,-60,-24,32,67
,55,-118,-123,-25,-155,14,-101,-154,-26,-70,-161,63,-94,-66,-44,-330,69,-127,-304,-30,-67,-89,-132,-105,-61,-220,-135,-221,-57,26,-202,10,28,-219,-78,46,25,121,69,-124,62,-37,16,18,-202,-46,103,-79,-56,-74,-113,28
,270,-160,-21,284,89,-172,102,111,27,148,-173,70,48,35,324,24,21,5,311,-64,23,58,166,-53,131,-14,211,181,-57,13,211,-65,-65,-6,88,-420,-202,-3,113,49,-79,-373,-261,-30,-185,-174,63,115,-49,-12,40,-46
,-209,-180,156,54,94,-52,-102,143,-104,-365,32,11,-568,-48,-114,-274,-80,-38,-341,100,27,-471,72,220,-105,-167,181,-73,-231,80,-142,-6,13,-162,118,-415,102,-77,-23,46,187,73,-27,35,53,-33,-33,-58,-130,64,-47,12
,-77,98,-428,-213,-49,232,76,35,284,-32,-82,136,44,-252,-40,-164,181,9,-4,-224,-67,-57,128,480,-40,44,-216,124,-10,-292,-59,21,-151,65,19,10,-95,-127,-177,24,-104,-219,-244,-1,-135,-188,-51,30,-295,-204,105,37
,45,-185,-191,-48,28,-325,-204,34,57,-79,33,24,265,236,27,25,12,-11,-2,-4,332,93,-43,288,-147,-68,-149,82,-21,-53,-109,23,-58,-124,-104,22,-224,-19,-326,68,-66,6,-263,31,-13,0,-24,238,-180,-75,-268,-39
,66,27,-39,52,48,-120,-116,-47,80,114,-14,78,-91,38,-55,-17,-51,-29,-124,-93,-137,35,-149,-120,-119,19,-95,31,16,-26,43,-132,-46,117,-48,-38,-184,-101,-15,80,64,50,-13,-185,-41,45,81,-64,-133,40,25,-25
,190,-62,13,175,-170,15,46,-252,-49,13,-555,-131,-217,216,104,193,129,-100,-46,62,-40,199,26,-162,12,-229,-58,-3,-347,-64,-36,-323,-9,121,-411,76,-86,-36,-43,-278,93,-68,-52,-408,-99,-143,12,136,10,17,12,-431
,108,84,-69,-284,40,-34,-123,168,-76,-60,51,-104,-494,-86,-174,-446,-273,415,-340,-150,-69,-287,40,-53,-289,35,-207,-75,-35,-166,-140,-94,39,-83,63,44,141,113,-13,126,-232,-450,-108,58,-66,-165,-631,-8,-332,-30,115,-5
,267,13,78,-138,-134,-687,-133,-24,-324,-84,-132,-383,-245,62,-361,-210,-127,38,-223,9,-89,-211,105,-98,-253,107,-605,-9,-68,-501,-80,90,-195,-148,88,-391,113,156,200,-24,-60,-119,-127,-103,-80,-68,-282,-13,-199,53,198,-4
,-23,78,-128,-165,18,23,-100,-15,-9,-147,-139,-20,209,73,43,89,-153,16,154,112,51,54,-100,96,-112,-126,-165,20,29,-18,32,54,49,-44,-173,-36,26,45,-81,-79,57,64,-24,-115,-79,-12,-13,-86,-5,2,-69,60
,87,-62,106,181,165,-97,-36,153,137,139,-78,98,-262,-103,-64,-140,-83,-273,129,-105,-142,67,54,-186,-28,32,171,-48,-48,46,170,91,-32,172,-95,270,-19,-45,-85,-46,-239,-106,-561,-15,-277,-229,-108,16,-313,-223,57,9
,-96,49,111,-50,-18,-182,-183,104,33,88,13,-75,-119,79,-298,146,155,-83,-158,-82,-22,-157,122,261,294,-424,-108,3,-178,-345,124,-100,-70,169,-134,-429,-767,262,-304,-18,94,82,2,180,-44,-90,-224,-44,-57,-194,76,-43
,-32,91,25,-11,89,9,-140,-125,16,-119,-132,64,-242,-54,7,-131,13,-144,-112,-19,9,-5,-28,-119,-229,5,-149,-33,47,75,-218,1,-4,-80,-123,-107,-59,43,-136,-162,-96,-62,-26,-154,38,-172,-177,-44,24,54,-19,-86
,306,-131,-110,382,57,35,235,55,145,102,-117,-330,168,-37,-167,221,90,-62,157,-113,1,287,152,-19,245,-33,-123,139,50,-326,119,-29,231,320,103,-46,-211,24,72,-200,125,37,201,34,75,-26,92,-340,-282,-259,6,-105
,-21,-66,2,230,30,-3,243,33,12,98,-12,-38,-133,21,-90,-179,-76,58,-40,23,57,-34,39,-8,-132,-38,65,-52,66,-59,-54,66,46,67,-86,135,59,-68,111,102,-34,38,-76,117,-55,153,8,-17,32,-70,-73,70
,-135,-78,-393,193,40,95,-13,-126,-213,-259,160,-41,-86,216,59,52,-150,-13,55,-180,30,132,-4,-6,-59,-61,-109,37,56,68,-162,-2,-398,-113,-158,267,-138,-107,8,220,-45,-127,-102,79,-49,-278,-268,-124,72,54,277,24
,339,-161,-223,-286,89,-9,133,-309,26,-296,-9,116,-96,-273,104,-175,-327,60,-88,-46,-227,-131,108,285,-27,39,-328,-87,-92,-39,-314,117,106,-42,-84,-148,-4,54,196,36,-196,-223,-47,-17,-63,-16,-112,46,-147,-160,65,-94
,225,102,98,13,-298,-301,87,-242,0,-228,-48,-342,-348,84,65,-188,114,-14,-145,-32,-256,-49,-134,69,-230,-125,-23,-191,-33,-125,-228,-185,-365,17,-21,292,-46,-20,98,-87,117,190,79,32,37,-39,-60,-189,-151,-99,-189,28
,-121,-16,-22,87,31,0,47,51,-81,-137,-16,27,-91,8,-29,-179,134,-71,130,-120,11,247,-57,-15,-72,193,-172,-84,200,-196,171,-7,-53,280,56,331,-1,-76,15,-202,-109,-78,-64,-450,-105,-113,-83,-445,151,303,81,-287
,-65,-132,-26,-136,-42,-192,34,-75,129,-55,-132,171,105,-146,133,-15,-35,-252,-92,-188,109,-8,-110,21,-93,-33,-182,-74,-133,36,-91,-107,101,20,88,-255,27,-82,87,-384,-153,86,-394,37,-177,15,61,53,56,18,-69,-36
,-255,-33,120,-166,-129,-100,-234,27,111,-173,-52,160,110,-174,24,151,-198,-322,-326,173,178,-197,122,-300,-104,-96,-61,-371,-55,-33,-184,58,-5,-399,56,0,8,-112,-90,-101,-63,108,-97,170,-148,-474,89,-238,-113,-108,-144,-272
,-284,-5,-120,168,-272,-117,-403,-134,-278,-40,-254,-107,-389,94,282,-194,16,201,-563,68,34,-554,-45,-51,-264,-164,151,-335,-150,8,-315,-43,94,-337,14,-90,-7,-96,-172,68,16,14,-137,47,-79,-38,48,-25,57,-27,71,173
,6,-63,69,16,-158,-105,65,-168,115,-197,-131,-92,140,-67,-40,116,41,-28,8,-69,-65,-195,-35,-14,-21,-199,-19,-147,-190,30,27,82,-178,61,-205,96,98,-25,58,72,-233,-93,-140,7,53,-197,20,-50,-179,-80,45,-25
,0,-87,-65,15,-189,43,-131,-209,-8,-100,-34,-179,-39,-148,-62,-55,-98,-25,-130,-95,-51,-207,-60,19,-95,-216,49,4,-10,3,-169,-121,-58,-154,-1,7,109,1,89,92,4,48,19,-25,95,-116,-68,-133,-51,-117,9,-214
,153,-178,-59,131,95,35,-69,-218,45,32,-122,-189,-134,167,-41,16,-104,19,75,-34,-200,88,48,-49,97,28,-130,73,-15,150,-45,-34,-170,74,-11,85,69,-115,-148,-154,-18,-41,4,-96,-61,-92,89,-69,-91,-101,26,65
,-88,-129,554,-90,42,-259,7,-57,-170,-181,126,-78,76,22,5,41,-95,-46,32,-19,52,26,145,-685,114,73,237,-69,-5,209,-172,-36,104,-163,-95,-16,-448,-248,-91,-114,-50,-95,-162,51,-17,-27,-77,-169,70,57,-21,52
,-30,-122,88,-61,-14,-81,-80,-156,84,-107,-150,48,-231,-67,-265,-101,-26,-167,-106,-126,113,-118,-21,-115,26,-158,120,-8,-2,-66,-120,-22,-181,-241,45,149,-179,66,-35,-152,60,-49,-12,-215,-43,-104,23,-46,-13,-93,-39,-72
,-129,-234,103,-179,-119,-149,-161,-25,14,-259,-63,-43,-172,-27,-66,-278,-239,196,-276,-42,-229,-190,-34,100,-162,-212,-64,-284,-13,-140,-291,-16,58,-163,-135,129,-185,-47,220,-210,-100,20,48,13,-29,-103,-92,-76,27,-61,-74,-244
,85,-285,90,68,-205,101,260,-70,-57,13,-172,28,-115,92,-53,-4,-37,73,175,82,-4,143,-193,-178,255,-229,-296,71,-303,48,215,-245,-55,52,-347,-153,-200,31,92,-27,71,69,-112,-37,84,-46,170,130,-138,-66,-45,61
,120,11,349,-67,20,374,-180,-119,33,-204,-47,112,70,-27,10,-156,50,-24,115,59,71,84,-27,-318,69,-30,-458,173,87,-46,-76,-23,-125,81,30,8,-156,-83,-197,-26,31,-10,49,-15,-122,51,23,18,-23,-203,-8,2
};

long weight_1_T_nvme0n1_8[2*256] = {
39,-10,32,-81,35,-56,189,86,-63,-48,685,-72,-107,106,50,69,0,49,-106,38,-160,306,-73,332,65,2,-1,-273,-156,99,-513,10,-55,181,-97,97,-20,2,24,25,14,-16,186,0,72,6,-55,10,-22,167,-98,-381,15,233,-156,-48,106,71,25,30,131,-30,-58,85,-117,264,-145,-89,-2,-251,203,-180,33,-202,12,-133,68,193,-51,147,32,-139,-189,-20,194,-31,282,126,91,-290,212,20,72,374,-90,-18,113,-345,-29,-451,-59,146,35,-23,116,-75,49,-43,108,12,-61,-231,0,-64,295,-29,90,-123,32,229,55,-110,62,-5,44,71,381,19,37,108,104,159,304,20,-378,-3,18,-72,-156,32,139,83,662,108,124,-247,44,116,-253,122,125,181,243,17,39,92,7,2,-650,-150,274,-120,-148,-170,9,-51,-118,-114,-3,-140,61,96,301,49,-223,177,93,-56,-15,-78,18,-202,-21,43,-113,-42,185,148,63,-215,-23,-202,106,270,27,27,332,260,0,126,33,42,99,-49,-177,-7,88,17,34,384,89,413,24,-100,291,-28,-42,13,110,235,132,-54,101,132,-24,139,45,110,-8,521,120,-26,222,-88,-346,16,-69,-161,-73,37,38,47,248,271,132,33,3,25,50,-5,117,330,81,207,-11,-132
,174,-17,-267,-33,72,168,-29,92,-51,-45,-701,-79,-108,63,115,69,2,-102,2,119,93,-200,34,-68,10,68,-113,342,25,-42,394,1,-10,-123,263,56,-31,-28,14,13,61,-51,-123,3,62,71,207,143,-78,8,119,353,-147,-301,184,96,102,155,-34,-4,27,75,-57,65,-16,-264,35,107,61,169,-295,169,65,257,118,13,71,-92,-19,-272,30,-8,113,-190,-105,165,-211,-245,-33,359,-244,82,142,-117,248,-24,-100,292,36,443,-43,-164,7,104,160,-22,-268,-53,-34,53,-55,203,-106,49,-286,-45,125,-68,28,-266,-94,198,-91,166,-74,69,-313,47,-117,-151,90,96,-62,94,298,96,38,97,43,-1,114,53,-617,67,-149,219,33,101,175,-15,89,-76,-124,30,-166,77,34,-18,655,121,-327,3,178,82,11,-13,85,58,57,-82,68,-19,-386,54,29,-2,-238,-69,13,-39,-93,190,-82,115,13,-43,57,149,-220,83,-13,53,114,-258,40,2,-302,-283,1,120,19,-142,90,90,180,29,-58,44,29,-352,26,-273,10,43,-373,99,-40,91,-156,-152,4,-19,53,-137,-24,-128,48,175,68,-287,-54,-13,-103,109,124,18,62,174,-71,116,48,-102,-186,-175,-87,-259,-159,-181,115,5,-37,-85,-41,-141,-87,342
};

long bias_0_nvme0n1_8[1*256] = {
76,-94,-54,-13,77,4,-91,-187,-46,-118,17,123,-44,490,-37,10,-62,253,150,-51,-96,0,-174,-847,-70,137,-93,-234,-127,-64,-61,-26,-106,30,-56,-411,-30,-60,5,-43,-34,-152,-119,-111,-88,-23,45,-2,-15,152,-19,-10,-337,-9,-79,133,-66,-108,-72,-71,-5,-204,-93,-32,-43,-3,-118,-16,-96,-83,-23,-117,37,-114,-108,3,-52,-123,-112,-55,-53,-62,-134,11,-242,-65,309,-82,-100,-181,69,-60,-165,4,-32,-34,-31,56,-66,38,-48,71,-105,26,259,-57,-72,-91,-66,-71,-16,-109,-9,-32,-398,-42,217,-27,-44,-93,-103,49,539,117,-77,-42,-113,-104,-108,-112,91,192,-2,-8,41,48,-73,-59,-43,-49,-28,-42,18,-36,-876,-155,29,534,-5,141,-56,-63,12,-14,-26,-147,-39,-38,-14,-93,57,-25,-61,-207,-64,-124,135,17,-176,-29,-51,-28,-48,-140,-67,51,-18,-242,37,-96,-403,32,149,-205,-8,-127,167,366,-148,-96,-36,73,33,-82,8,-85,-37,87,-21,80,154,-473,10,-162,-195,-60,470,-18,-124,-144,-363,387,-99,-6,-100,29,-36,72,18,42,-556,-103,-35,264,15,-661,-84,-143,47,-301,25,-71,42,76,-133,15,101,-153,-149,120,-110,41,10,15,-765,-65,-218,101,69,-82,-17,-389,-3,-4,-19,-62
};

long bias_1_nvme0n1_8[1*2] = {
95078,79
};

#endif
