
/* Trace */

/**
 *  updated on 06/30/2023 16:06:21
 */

#ifndef __W_SDA1_H
#define __W_SDA1_H

char name_sda1[] = "Trace/sda1";

long weight_0_T_sda1[256*31] = {
61,-97,-173,-5,74,13,-39,-50,-185,-6,-74,-83,-132,-69,82,71,-135,16,-1,27,70,-132,-38,43,61,-126,-65,-15,-4,-125,52
,-184,-342,22,24,-255,-138,-122,-141,-298,28,-43,9,-105,-297,114,96,88,44,41,300,285,79,-92,-3,-72,38,60,24,-124,-48,-242
,48,-150,88,65,-174,-120,-158,-169,-77,-102,-9,-151,-20,101,-97,48,-3,-164,19,64,99,-115,-121,-160,-11,20,32,70,-129,-16,12
,-110,-93,-89,-68,-76,74,-36,-96,-104,-95,72,-125,-154,-117,-77,-135,127,-49,-8,47,-59,135,3,89,168,-103,-1,75,-30,44,117
,-231,26,-475,-155,158,124,-112,16,97,-144,-118,-248,-226,148,-133,3,-556,-409,-78,241,-46,15,-229,-16,-130,-161,-20,-152,111,-224,392
,-84,64,-124,-259,106,5,-171,-19,-153,-134,-106,48,-131,5,50,-98,-51,-207,65,-18,70,125,-89,-152,-179,142,-59,79,173,-52,13
,-305,-22,69,-392,-170,94,-475,-92,52,-225,-203,-22,-532,137,-125,54,-126,-446,198,-50,52,-519,148,105,161,-8,54,24,52,-13,171
,-232,121,90,-218,26,-277,-171,79,25,-186,-42,151,-120,-76,-38,18,-34,-1117,268,-802,277,5,-28,-1188,230,-4,222,-267,92,-380,270
,-79,-207,3,-323,15,109,-237,-16,73,-35,-144,-27,-286,34,147,-73,-72,-161,64,-29,-163,-375,-19,-100,-165,-176,129,-20,119,170,-8
,-98,-44,132,-123,59,32,63,83,-862,-45,-65,-196,-96,13,-1054,-121,-130,-435,248,49,-147,-574,25,-445,-217,371,-138,-59,11,-211,-108
,-48,72,203,-253,118,-262,-269,125,-214,29,-195,-301,-35,4,-272,40,56,121,-402,-3,267,62,-3,51,-265,113,272,-153,-68,-330,185
,-57,120,29,-87,-136,-96,-192,65,18,-109,-15,52,-89,-66,41,-461,172,-519,299,-216,92,-124,25,180,-102,-623,183,158,290,216,167
,-2,-75,-143,51,-80,-168,-126,-7,1,-144,2,46,58,-13,-138,-155,-108,36,-5,132,-47,3,16,-10,-99,118,-89,-90,-29,34,4
,51,50,-44,4,-59,44,-81,-60,73,-272,315,24,-154,-183,-231,-89,86,-271,-683,-98,110,-650,-779,36,43,413,-482,58,-93,-221,-38
,53,-200,-477,-121,61,53,-194,177,66,-42,-27,-70,-61,12,-26,42,195,190,-292,-52,-346,-254,269,-52,-561,-36,22,125,-211,-608,190
,-45,149,-52,-237,4,212,-89,89,-57,-234,-167,96,-199,-83,-145,-173,368,-403,28,-142,-302,-662,281,117,-13,55,73,-209,-173,-1296,152
,-184,51,-214,-146,39,318,-174,-273,-36,-52,61,-204,-198,-3,-116,-325,291,107,-19,233,145,102,154,-151,-302,-375,-217,0,156,88,-78
,-36,107,-726,-43,-573,251,96,-20,-544,-45,-128,-419,95,-329,-222,24,-143,-596,18,4,-38,2,136,-63,52,-443,244,-75,-45,-175,-934
,-3,15,-155,-193,-75,-163,22,-101,-41,-66,-55,-167,-144,-174,102,20,67,-63,2,-60,-54,63,-102,6,-182,-45,100,-94,-124,-182,-258
,-13,-102,-61,-76,-43,-140,-64,-84,-138,-157,-18,-83,-17,-47,-25,-41,-34,99,69,-3,-128,81,13,-57,-24,0,58,33,-122,-129,51
,-35,110,113,-8,-426,63,52,-512,71,96,-224,-306,64,-220,-197,223,99,-56,49,-42,-166,302,-150,-78,-192,-324,-87,-55,-29,-122,-888
,-34,-125,25,-15,23,-13,-13,-121,-175,-132,-172,68,-85,-136,-95,39,-135,30,-181,112,-157,-40,3,-19,112,-46,-121,-27,94,17,-24
,35,-57,16,-44,-127,-104,-39,27,-128,-38,20,-56,-11,31,-128,43,126,-94,28,-33,-20,4,15,-196,-172,-30,66,120,-294,407,50
,23,-114,39,-79,-36,-125,-119,6,-108,-101,-2,19,-32,-61,-175,42,42,5,51,-18,67,-88,-161,53,-43,46,-227,-42,-227,-38,140
,-237,3,-51,-168,-230,62,-35,-139,-83,-57,-333,131,-189,-139,110,-84,-6,-60,157,-22,117,103,-172,148,-11,-266,-252,-6,116,110,-44
,23,32,-86,29,-128,57,-68,10,-52,-142,-2,-107,-93,-128,-141,-130,-69,71,-43,-109,-112,98,77,-144,-16,4,-142,-134,85,-77,-105
,-86,-8,-47,94,-6,-82,8,52,29,35,-82,-27,114,-126,-85,123,14,-55,65,196,-244,85,-61,-98,154,20,-130,52,-222,-44,17
,-23,135,-102,19,-113,49,-133,-101,-81,-34,-27,188,-221,-218,-268,-200,-261,-791,156,-7,231,33,4,104,169,203,76,-112,-81,296,333
,-10,-165,-90,-67,-171,-188,-82,-95,49,-59,3,-95,-51,-76,-32,-2,-154,-56,-9,23,200,-68,80,33,155,190,-101,-105,332,9,0
,-509,-170,-166,-534,-12,-3,-475,170,-217,-484,-49,164,-513,-113,98,64,-23,-299,196,30,-424,87,111,65,-60,74,157,-89,-66,-1174,332
,-57,-126,-156,1,65,-316,-85,-104,37,-267,-105,122,-221,57,119,-103,23,-106,406,212,259,-360,-445,331,-147,19,71,-70,115,-43,201
,-83,-186,-234,-83,-77,-277,-72,-62,-92,0,-65,106,-136,-178,146,245,151,-356,96,136,30,-305,78,126,-353,294,89,86,28,162,-99
,-187,-125,-55,30,126,-66,-116,2,128,-71,12,-326,-116,-3,-42,-14,-205,-212,-13,-263,99,382,-130,118,-191,5,-64,-94,-144,272,17
,-30,-3,171,-58,41,-298,-90,-161,-233,-178,-110,-120,83,-313,116,-125,35,-231,189,-178,43,-807,254,-343,52,41,209,-185,-150,-382,183
,34,-347,-241,-41,-563,-47,-248,93,-287,-51,-382,31,-234,208,117,-62,10,93,287,32,-20,69,114,196,-17,-303,-399,16,4,73,43
,14,61,-81,-114,42,-358,44,10,-102,-29,28,-184,-165,3,-28,-365,-107,438,-320,185,-167,-286,339,43,6,-755,-30,182,-52,-271,39
,-173,-22,-10,52,118,36,-138,-290,77,-175,-149,-66,-138,339,-78,223,164,-455,130,-350,-280,-45,7,-815,409,3,57,9,178,-91,-151
,-162,-226,-357,60,-143,-205,-145,-88,206,-225,-204,32,-262,116,147,-151,-201,491,-431,-217,16,161,168,-47,-124,-353,142,-73,26,42,109
,-164,48,-123,-226,-28,107,14,-12,-141,-264,-86,-24,-21,32,-88,104,-46,-166,81,76,11,-49,151,6,91,94,-32,85,-63,-32,-42
,-231,-24,-145,-165,-253,85,-116,205,54,-191,4,34,-303,87,24,-142,-145,-443,-102,-14,172,-52,-347,-228,-37,-128,124,35,-281,555,-125
,53,-4,-107,-90,-106,-38,-192,-93,37,-27,47,-104,64,16,37,-63,100,89,-14,36,-110,143,-197,15,-46,-122,-34,-88,-127,-1,-13
,30,-43,-514,-109,-12,-105,-187,-119,-339,-101,-63,-194,109,-110,-364,253,182,-87,212,120,-128,188,-140,289,97,225,-53,104,224,41,-61
,-21,-65,-2,-36,97,-19,-5,-31,-1,-264,2,-2,-73,-73,-13,-168,89,48,-24,149,-36,-234,90,-10,-101,-91,-104,-247,-143,-31,721
,-277,-96,-103,-50,-63,-234,-89,-118,1,-178,1,-97,-25,32,-2,21,-11,-159,14,-97,-9,-8,66,9,-117,-135,-95,2,117,124,-52
,14,-61,120,-192,-233,-201,-38,-255,-340,-258,-157,171,-125,211,-48,-158,-125,231,-145,-200,-173,27,101,29,275,-48,222,46,153,213,-121
,-87,-147,-285,32,-59,137,-37,13,-138,-148,-258,32,4,-182,-340,99,-59,66,-121,-13,-4,4,-157,174,234,102,-46,112,13,105,-158
,68,-86,-72,-191,31,53,30,14,-109,-34,49,9,67,-31,-150,-231,41,-405,-435,-91,-65,-64,133,109,-79,-78,-320,-98,-72,-187,400
,-107,-329,-190,-171,-220,-154,-35,142,-42,-71,13,-185,-46,-187,-170,-91,-79,-144,122,180,51,135,-59,43,-34,111,-29,-38,-109,207,-53
,-71,-96,-15,-81,52,5,105,-20,2,-157,-26,-11,-20,59,11,-24,7,-48,52,-105,-268,-228,-68,-279,44,-495,35,-131,-117,-609,855
,-57,-29,39,193,33,-32,221,-24,24,89,82,-24,-31,-41,37,42,51,-213,-90,48,180,-197,-67,119,-15,40,54,3,-27,-235,-760
,-76,-31,-157,-32,-201,15,-5,-226,-108,-56,-275,-15,-188,-160,-158,-77,127,54,-53,236,-112,146,26,-119,-40,-22,-250,-13,25,-34,-106
,9,71,130,-86,177,-84,-119,-239,-247,-84,-121,110,-112,-84,-248,378,-6,126,-194,-52,419,-9,-190,3,20,62,72,-107,-53,-311,177
,-123,-144,-58,-81,28,-49,46,-55,70,21,18,-14,-91,-78,-57,81,-53,49,-82,-20,-52,-132,-69,48,-87,13,11,-7,37,-241,-85
,-89,-63,42,52,-145,-578,118,-483,-27,71,-200,-523,-125,-422,-56,35,-170,-119,-223,125,-68,-131,-931,158,107,61,331,40,-140,-373,38
,-181,-178,-31,-38,-131,47,58,-340,-197,29,129,120,-30,210,-304,-40,-43,-64,-39,-251,-24,157,172,59,-40,-161,81,-82,47,-20,-23
,-202,-5,232,-154,26,-246,-120,104,-521,-177,96,76,-156,-372,-68,-50,-252,74,245,23,-245,-218,105,72,203,271,-106,-157,-119,104,121
,-208,-26,-144,-167,-53,46,-192,-69,161,-138,62,-52,-199,11,168,-605,-266,247,92,-112,-327,24,21,-390,-61,202,-22,-221,222,40,357
,223,-31,12,127,-174,-8,113,-84,-64,223,-161,30,219,95,28,-67,125,227,120,106,-90,110,-98,174,96,102,55,154,-503,177,-147
,-9,177,-543,-207,-215,22,-44,-331,107,-160,206,-185,-87,-43,-112,10,-74,-304,67,-85,-25,-219,28,80,-67,-57,105,134,-248,152,150
,91,-27,20,-56,-249,-274,75,76,-87,1,-90,-204,55,5,-217,-228,-138,-231,412,97,74,150,58,-44,-12,-304,73,97,-125,37,270
,-49,-85,-78,-110,-34,117,-112,-107,16,35,-242,-4,-177,-53,-52,-292,22,-151,107,-262,9,-206,51,-136,-30,199,31,17,-19,-52,78
,-84,254,26,-67,74,69,-142,-139,-23,38,-107,-164,-27,-102,-301,-75,-15,-373,235,228,-389,281,0,-134,-176,-724,248,-11,-128,-1085,76
,-141,-26,-101,-101,-30,204,35,59,-240,-75,-105,-268,-9,-64,-68,-23,308,121,-295,-45,97,-76,141,-248,-27,-112,87,-109,208,-278,374
,3,-111,51,23,15,-4,89,-77,-144,-112,-55,-108,61,-4,-373,93,-147,-101,277,-36,-72,-8,181,80,50,248,-262,95,230,264,-252
,-100,131,72,-62,-198,-479,-73,-265,129,-211,149,-169,-265,-150,92,252,-183,92,158,125,89,145,-381,-70,-80,-201,244,113,-57,128,98
,-97,58,-63,-18,-82,66,-6,-20,31,-282,12,-85,-111,-184,15,46,-47,-110,66,78,-70,-50,20,-6,-110,-55,26,-108,-62,-161,46
,46,-54,-752,26,56,-368,-23,-9,-92,126,-213,-115,-29,-207,152,-11,-77,-224,-288,8,48,-389,-79,-178,46,304,-577,-59,-71,-171,-721
,-5,116,-397,-219,-186,17,-58,46,231,-46,-370,77,-55,-201,-189,-88,-221,249,-224,94,60,-192,270,139,-136,-384,-84,275,398,-785,-30
,45,5,-6,51,-70,-31,-25,101,29,-90,-106,-21,-145,33,-1,-25,123,135,-224,39,-19,-165,110,14,11,-112,157,-60,96,-115,590
,-80,31,-235,44,-218,178,-68,-55,16,-65,-114,-37,76,244,-38,-46,203,44,-53,-177,175,-156,107,-184,-187,203,-784,91,-210,-349,216
,-70,-64,26,-65,-482,214,-231,-389,-26,-182,-45,77,-177,134,-10,-183,152,18,215,-95,-248,-269,122,66,115,231,-201,44,-151,224,268
,-79,-37,-227,-21,-13,-265,14,-16,-244,-177,-108,-18,-212,-76,-26,111,-199,107,-219,-82,139,312,-207,36,20,-13,44,-228,199,99,85
,-191,-134,-36,-81,-143,73,-4,82,-83,-194,-4,45,-167,-164,-164,84,104,9,-128,-34,-28,70,-106,50,96,-63,-169,-49,72,-50,92
,-22,65,-57,-121,-135,-86,89,-2,36,-52,-26,-8,-78,-46,-41,12,-28,15,35,-66,-60,31,38,-18,86,-7,-78,-153,47,-80,-100
,-119,-103,-117,-123,-237,59,-139,-45,-40,49,-66,-15,-47,-62,-243,-52,-63,-55,53,-79,95,2,46,-23,70,158,182,-39,-40,7,-125
,-93,18,-32,-16,19,0,-31,-76,-25,-33,57,-15,-9,-124,-137,91,-51,27,-92,23,83,-107,36,15,-48,19,-127,56,-9,58,-27
,-156,224,-240,-177,-117,-111,-95,-2,127,-134,8,-61,-6,10,-35,107,-164,212,227,64,-162,21,51,-8,-103,51,91,-336,-217,-136,-69
,-115,-416,-132,-72,121,-14,-54,-209,20,-213,8,156,-60,-10,3,4,-222,-135,-141,-91,-21,6,279,21,-57,-749,-152,51,145,-81,335
,-248,285,75,-240,-130,62,-125,-39,-272,-268,7,-343,-21,-280,186,-43,308,38,94,-318,-253,-247,98,-84,68,-634,69,-700,-281,425,53
,85,-364,-52,112,-271,-284,99,126,-137,62,-355,-56,-104,-101,-177,32,-163,-326,106,-83,1,-15,-163,-73,168,-28,387,-8,19,70,8
,92,-170,16,-20,-9,-62,106,58,-103,-27,154,-14,158,-1,24,97,146,111,47,74,-51,52,16,-79,78,-58,0,14,-61,182,-8
,-212,31,6,-321,79,-70,-147,76,-30,-252,15,25,-168,232,-114,-395,44,322,27,164,216,-35,141,36,-145,0,-21,-301,-404,442,-131
,-185,24,4,-145,61,-35,-308,105,-10,-64,-99,8,-200,-275,-127,3,19,-32,76,-3,106,-163,-13,87,-43,-146,108,-46,149,40,25
,-128,-468,109,-293,81,117,-170,-200,-105,-192,-225,33,-325,-13,125,-75,-12,-27,101,6,58,-53,195,-400,-154,-100,295,-128,-117,429,22
,-147,262,-221,-213,148,70,-212,-314,165,-16,-184,-297,-4,37,-177,-129,-20,-231,2,-10,97,31,93,274,104,18,-189,-59,-192,242,198
,-276,134,-93,-351,-124,-242,-362,37,-65,-188,-73,132,-150,108,-253,-239,153,-168,-141,-62,-148,-212,103,32,52,-15,-93,-112,55,282,19
,-248,-64,50,-195,-116,128,-169,36,-2,-89,14,-162,-230,12,-533,49,-16,63,320,-320,-156,266,244,8,-257,130,17,-139,-235,-340,-261
,-146,-43,-158,-156,65,-235,-141,159,19,-120,-93,-212,-66,-90,178,-105,-397,472,-226,4,-317,289,-413,-342,-419,327,57,-202,-414,239,-4
,38,-266,-241,0,-83,-104,23,-135,42,-33,-15,-155,62,316,96,53,-75,28,277,146,166,200,-96,-77,6,374,-36,-298,-163,-848,257
,-6,29,-518,37,89,-535,-171,-311,16,54,-251,115,-34,-38,-590,-59,-210,-273,-44,-27,93,164,-861,-302,-178,288,179,-171,-12,355,-163
,-124,101,-154,-100,9,-22,-167,-70,-455,-313,310,75,-68,-237,-85,-39,-10,87,260,135,45,-224,-250,-3,71,1,30,33,-71,-48,151
,-11,-580,48,-98,-325,-136,-7,-436,-56,-119,-267,-292,-48,-51,217,-144,-71,-434,-1193,-146,217,-234,-759,76,-130,-270,-161,-449,-38,-3,301
,-11,16,110,-247,-110,-141,-12,-11,-142,-263,-132,-42,-148,-33,-9,81,-30,-20,225,75,148,-91,-368,-55,-171,-11,84,97,7,-224,371
,147,-133,-10,-15,-26,10,85,-35,8,160,111,17,-56,110,9,-54,-65,60,43,10,-99,100,-75,2,-175,18,50,-177,225,225,-1292
,-88,-11,31,73,134,66,16,32,-17,-116,-28,-317,-113,-196,-377,174,-13,-10,-143,3,-50,46,297,61,12,67,241,-77,6,-153,-290
,-78,-166,-132,-123,-175,-71,-141,-182,270,-41,-103,-61,-34,39,-268,-128,21,63,126,-324,-143,116,133,82,146,-109,33,-67,-162,-128,78
,-85,2,-146,7,92,-300,30,-261,-28,8,54,29,-207,51,-262,-93,-6,-201,-150,-3,-152,8,-34,6,-124,-93,-8,-42,-175,-103,-265
,-44,-422,79,55,-323,-33,-122,-225,31,25,-144,-72,-172,134,-92,-263,306,44,18,-167,-274,-256,234,-280,-420,215,145,184,110,-8,174
,20,-241,88,6,113,-360,-194,-150,40,-221,-87,-278,-10,42,-132,-235,-40,380,217,-113,-49,-326,48,-103,-134,-106,-653,20,-139,-22,-604
,0,-179,-429,-3,59,-173,-188,10,-294,80,-20,-19,-189,-158,-23,41,164,229,18,-77,51,-242,-64,-71,-51,256,309,95,164,53,-69
,97,371,48,-222,-274,-210,49,33,-123,-207,-119,-33,-195,34,56,27,28,218,-104,-12,-4,136,97,-63,216,385,-337,81,24,-316,-66
,-136,-905,153,-14,-53,-744,99,-178,-767,-99,-200,-734,41,144,26,24,17,-370,-163,-137,-144,-119,170,14,97,-107,-701,118,148,382,-542
,-211,98,24,18,-32,-227,-235,129,-113,-150,56,-117,-16,-52,102,28,38,62,120,-264,-182,294,-587,-91,42,452,-26,-231,33,-319,211
,-219,-18,24,63,-136,-57,-137,179,-83,-140,-167,-246,-139,173,-3,98,-90,270,-139,247,-771,-242,291,98,-88,62,7,206,70,110,109
,105,152,-157,-143,21,-65,-116,-244,-350,98,-211,-247,-58,248,116,386,133,-141,-225,119,194,-146,73,316,440,-703,-172,9,-319,105,109
,-122,-75,43,-88,70,-30,-104,-127,52,35,9,-151,-128,-145,-23,-105,-154,34,-35,-90,-77,22,47,169,7,-82,-196,-39,-149,22,83
,29,-181,27,-79,287,-114,-105,114,-184,73,-129,100,-176,-324,-45,92,103,-287,148,-12,-5,199,49,280,-15,-53,258,-298,177,-824,174
,-174,109,82,-73,153,-28,-154,-96,-82,-79,-149,-68,-20,38,59,-141,-371,-98,-20,-10,308,-203,-173,312,-205,-319,188,-97,-57,-155,463
,-164,-120,-157,-93,10,-115,-178,-72,-113,-156,-150,35,16,-17,-126,-7,154,43,1,-157,-85,-45,19,78,103,1,-85,25,-28,119,55
,-39,27,-332,-2,-180,-269,-92,117,91,-239,-115,-132,-191,213,222,155,-31,11,189,243,129,91,-13,24,21,-344,144,283,159,65,-787
,-11,3,-19,-78,-115,-65,-75,-61,-6,53,-243,-123,31,-211,-131,-22,-6,75,5,6,-100,25,-159,93,-83,88,-69,-191,-56,170,70
,121,-138,-202,-93,-511,167,73,-212,-309,31,-22,-278,32,-53,-437,22,-169,-75,262,70,111,-248,-112,-19,-106,-216,-91,-48,-76,-220,-56
,63,-102,-2,-139,73,13,-1,-65,-111,0,58,-20,-171,-2,-23,-54,-30,-136,84,96,-29,-98,48,76,45,-113,-19,-189,-113,196,4
,48,-71,-28,69,-121,-206,2,-115,-31,-103,-65,-137,66,47,-260,-155,-146,-99,56,-35,-104,-114,-207,342,10,-405,152,-30,-47,-135,-275
,-54,-172,-8,-166,-148,82,-253,40,-70,-90,46,-39,-19,-85,-8,-1,36,-57,-1,20,-175,-139,33,-4,45,-164,99,-122,113,100,-13
,-130,-76,4,-53,-146,63,70,-53,-131,-184,-118,-215,-37,-165,38,164,-39,-218,109,-49,-96,-81,27,-29,96,-127,-1,-75,1,84,9
,-168,-60,-295,24,-18,6,-84,-190,16,15,69,80,34,-100,-117,50,123,-101,-268,281,93,-67,97,72,46,-95,-338,97,80,-180,230
,42,-59,-80,-85,38,-17,-127,-141,28,36,-157,-129,10,-90,-53,-172,-91,-157,40,47,-95,79,9,1,-85,74,-42,-2,-87,71,5
,43,-174,11,81,-444,-7,-245,3,13,-362,365,69,-251,-257,20,-412,79,-109,216,170,6,39,107,2,187,-7,-85,-221,-238,-105,-12
,-69,64,100,-129,-147,-314,88,-134,-316,86,-115,-258,69,-66,-6,137,-95,29,-334,8,55,-155,-241,71,15,-115,-284,-79,-95,92,139
,-2,-120,-146,-134,138,-27,-186,174,147,-21,59,-125,-189,-123,3,232,73,-276,-4,-25,-74,48,155,-495,-53,-67,180,279,22,-683,346
,2,19,-323,-207,-93,26,-17,15,-191,-56,-106,-108,-51,28,-31,-37,-41,-139,109,-129,55,-108,96,26,104,-24,136,-36,-42,-48,185
,55,-8,78,-13,-163,-78,98,-64,-125,107,13,-133,-69,-128,-132,-7,-31,146,-1,-176,-154,136,19,-3,-54,-13,54,163,-183,-75,155
,-217,-42,-108,-116,41,-89,-68,47,-47,-261,-38,-202,-254,-56,139,-118,-51,259,-22,-161,-125,34,36,-6,-37,31,-147,55,31,13,-131
,-53,30,-8,132,-220,-39,62,-227,-118,40,-1,-27,-122,55,-90,33,88,183,267,289,-30,-213,-336,152,102,35,243,88,-80,164,-74
,-74,259,-176,10,51,-199,1,-231,-122,-26,-635,88,-169,224,-10,-76,-92,57,6,-76,-133,-398,241,97,221,-52,-152,143,153,-28,8
,-165,-6,140,-142,148,73,-133,-14,-139,-139,-95,-112,-157,29,-100,-9,-32,-185,75,75,130,25,-97,201,199,-289,-42,-338,-133,0,104
,-52,-169,-25,-84,67,-31,-189,109,-218,-108,-157,-63,83,-172,-39,-62,-15,-137,135,29,6,-61,-125,-107,-108,191,-54,-31,17,-216,10
,-372,293,124,-42,-139,-183,-286,-53,270,-212,97,-128,-188,-87,-427,184,45,174,7,31,-176,151,60,61,-201,-138,42,-172,-263,-66,-244
,-112,140,119,-200,-195,-24,-35,130,-124,-201,-277,153,-158,-215,-61,-13,-20,76,140,52,25,297,35,-37,148,-139,-124,-161,-116,267,179
,-263,113,156,-103,123,-47,-185,-100,-109,-90,5,-94,-62,-76,69,174,116,-350,-147,-23,14,-170,-224,152,85,-327,270,-35,79,-215,263
,-12,104,147,-127,-75,51,-5,-12,21,-91,-284,-158,-23,44,-243,15,144,20,233,113,133,190,124,-135,299,-248,62,-33,-84,-547,301
,-85,-19,-224,-125,-107,-11,-217,-218,66,2,129,-107,-12,73,-85,-239,73,-102,-18,-59,-76,-2,-2,-49,27,-75,43,28,-45,-13,162
,62,-273,-128,162,-71,-390,-44,-208,69,-3,-180,-207,-43,-434,124,114,238,-146,-236,33,29,34,-150,49,-344,386,-194,-31,95,-135,-49
,-117,-58,40,-191,-142,-161,-261,-95,82,-134,144,-181,-82,-170,4,130,141,24,-89,8,180,-38,-163,-37,20,-86,-169,130,99,28,-118
,-200,-108,-72,-29,43,67,-86,-21,83,19,1,78,-73,-56,51,-44,-66,-148,90,-62,98,-56,-69,35,-103,189,55,133,145,-204,181
,-229,-49,-290,-146,-133,60,-8,-218,4,-215,-55,-24,51,-270,111,-98,-57,142,26,-78,-54,-212,-621,-11,-3,-4,303,50,-60,-122,101
,-80,-30,158,-229,78,-305,-74,-195,-99,-14,-424,23,-107,188,66,-232,-119,168,-189,356,-112,-251,216,-149,-348,-96,79,52,-161,46,320
,-70,196,85,-2,-167,-144,4,114,-353,-154,-74,-398,-15,65,-90,-388,-433,74,99,-2,-374,-16,278,683,-55,-987,-38,88,52,-121,40
,-174,93,28,1,-35,150,-194,-83,145,-194,42,-696,-74,44,-652,-182,325,-124,78,-41,286,-165,96,132,147,121,-56,-117,257,-46,139
,-160,-171,-83,58,-149,37,93,16,13,-15,-15,-55,-83,-122,-145,-5,-8,82,-97,147,11,-64,-131,16,159,34,58,126,-126,-66,-82
,0,-86,-58,-193,-74,-136,-29,25,-116,6,-62,-71,-73,42,6,-1,-18,84,-23,24,-5,-17,-91,-16,-42,-17,52,75,-129,51,86
,-105,-183,-591,153,-628,-118,-2,114,92,4,187,18,-32,-15,13,-108,263,-75,-84,70,-153,-61,-221,-150,-139,85,49,-58,57,-64,-11
,127,53,-54,20,-9,-3,-85,-84,35,156,-259,-632,37,-201,-148,-56,-5,-273,-126,0,68,228,92,62,-98,-377,-33,-15,-106,190,180
,-184,96,-303,-46,-116,-185,56,104,-176,27,-119,-8,-177,105,8,127,100,92,4,-51,75,-403,-105,-201,90,111,225,-160,-104,105,167
,-188,-89,-13,-68,-112,-257,-111,-104,95,-235,222,95,-271,-64,-184,51,-267,25,-96,15,-224,45,47,-117,-233,67,182,-165,-69,-217,-14
,-57,-79,-5,15,-283,69,17,-226,-88,88,-280,-599,-25,99,-29,-104,-56,61,43,129,-48,-102,160,-49,-48,-324,19,9,-137,-379,155
,-179,111,49,-171,-216,-92,-105,-28,-44,-109,-109,-39,-45,75,13,75,-139,-127,13,98,-20,-148,-46,-132,71,15,193,123,153,-59,81
,93,-277,-89,87,-70,-412,-88,79,-126,-44,176,47,13,-372,24,-99,-139,28,-156,0,-33,-107,-188,115,159,104,-255,-77,5,-120,-350
,-191,-88,-184,19,-79,-10,12,-104,-139,29,29,-243,-138,-27,-123,-14,193,118,-129,-25,188,106,36,32,68,-79,30,-6,20,54,-83
,-287,48,-83,-80,147,129,-26,-95,-821,-171,-21,-377,-185,91,139,-193,-199,-238,-560,16,-4,-120,-925,135,139,217,93,61,83,-56,-269
,10,-53,-188,-48,-142,-164,-145,49,106,-4,-229,-277,-32,-122,-95,-58,-215,171,26,53,-109,-112,-54,-46,-23,-127,70,36,-159,-90,-15
,-122,-44,-105,-19,-115,-194,20,134,97,61,-115,-102,15,-180,-65,-62,-28,17,-58,55,-158,-63,-98,-121,91,-30,-208,136,-28,96,29
,96,-73,19,-21,67,-49,-173,-10,-86,-147,-148,56,-125,-149,-111,35,-137,-115,103,-16,21,-4,85,126,-23,-8,-102,82,70,-97,-173
,-168,-107,-109,-89,-293,-32,-93,-501,229,82,-341,-57,-64,-141,-70,-272,189,17,78,201,-3,163,-92,33,-83,151,-61,-238,99,-190,327
,24,-98,-114,-236,-199,-239,-105,32,-109,43,-74,-152,-20,-121,-16,35,-83,69,30,-85,-49,-1,21,93,11,-36,-205,140,106,101,-120
,4,126,78,-210,16,-82,17,-70,-170,41,-210,-91,-76,-66,-92,81,-26,-39,20,31,32,44,37,-216,-37,-84,121,12,-92,190,111
,-35,-111,34,-102,19,-41,19,-61,-5,-122,-172,-82,-111,-3,57,-140,-117,-173,-122,85,165,-200,-55,91,-35,-8,-124,-24,22,54,-45
,-64,-158,-62,-199,-69,-138,-194,-224,-122,-33,-241,138,55,-307,-1,90,63,-74,-93,75,153,55,111,-15,79,2,-55,-15,77,-53,-182
,-202,149,63,-150,-222,22,-227,220,95,-197,-262,90,-102,-181,-233,-124,-34,-271,-178,-36,-52,174,196,-200,-193,257,216,-41,32,25,-379
,61,295,-204,-70,-250,-182,-86,290,101,-100,-195,24,103,-236,-175,165,136,40,-164,73,-159,295,-221,1,81,-255,-107,-63,-53,-58,2
,-88,8,-34,-110,39,-113,-23,-109,-2,-113,-46,-110,-137,-103,-38,-70,-72,-34,173,120,-41,-45,23,79,38,-6,-238,-67,-74,28,118
,-97,-190,-251,-97,-122,25,-57,-40,-192,-129,-117,-40,48,-187,-12,18,48,373,-251,-132,47,-109,168,-62,35,-118,-290,-28,16,7,-138
,4,4,-21,86,-130,-45,-113,110,-158,-23,-42,-306,55,-157,-119,-168,-75,459,-128,-106,-104,191,80,-42,55,-224,118,125,-262,313,49
,-139,-93,19,-190,-73,-84,-212,-153,-15,8,-81,2,42,61,-12,-106,-132,86,-124,110,56,96,-79,52,172,-50,-108,-162,41,3,-155
,-70,175,35,63,85,-5,-182,-1,0,-90,-128,-29,47,-120,-36,187,52,-82,11,48,-672,-63,11,-343,-323,-958,200,-366,-411,-1657,390
,-85,79,44,-240,-142,-55,-186,-20,80,-214,59,-11,-225,-120,152,-369,95,-98,123,-362,126,-141,-75,32,150,-198,50,-117,-106,579,174
,-181,56,217,-47,-44,-34,-170,-7,-271,-235,-87,24,-305,53,58,-418,-375,-79,265,-107,-245,91,-141,-23,288,26,4,179,-5,-179,354
,-244,100,-58,-178,147,1,-69,-116,14,-152,-274,188,0,-84,-160,25,-101,189,154,-72,-195,-36,-73,74,274,-1,167,-108,-217,-163,108
,39,-50,-141,34,29,-372,43,158,-200,-118,-173,80,-101,-124,-1,-22,-113,5,96,346,300,19,-210,-104,-186,195,-168,-252,-45,27,150
,17,1,111,-117,-35,-434,-157,-95,0,-72,41,21,-107,-31,35,262,-42,-75,225,-229,-206,-93,61,59,251,162,-623,136,117,76,215
,-104,16,34,79,-151,-35,84,41,-29,21,-3,-30,-9,-37,41,143,32,18,-6,93,-143,22,-56,14,55,133,-21,124,-157,56,57
,-88,-167,12,-96,23,65,-47,-194,-165,32,-63,-85,-87,-33,-80,-84,-43,-126,-13,31,-47,-28,-41,-22,97,-10,80,19,-9,-92,-74
,-84,-59,74,-175,192,-387,-14,37,-26,5,-220,138,-191,-274,-135,-147,-87,199,221,-225,-106,101,8,139,-313,-271,334,-156,107,318,13
,-74,-86,-134,20,13,-45,-101,-11,22,-16,-129,-41,44,-27,-114,-69,-112,74,-36,116,-39,-101,54,-32,-162,-108,99,-29,68,-104,-6
,-19,-185,76,-9,6,-149,85,54,-48,-79,-98,-222,64,16,-111,-110,38,16,11,24,-8,-96,-129,115,38,-47,48,-139,134,124,-75
,37,23,-83,195,64,105,88,92,111,-18,155,47,126,35,-49,103,21,58,-30,78,-243,123,75,66,9,-86,-41,-65,-165,212,-45
,-95,79,-127,55,76,-406,-57,-119,107,-155,201,92,-12,-402,-511,254,-218,316,-135,69,79,33,27,155,44,59,-83,-73,-47,-125,302
,30,273,38,5,-162,-135,-34,-185,-123,26,-88,-96,53,-140,12,-101,14,20,-341,-18,100,84,47,23,72,21,23,176,-245,341,-294
,-96,-289,-257,-3,-362,-312,-145,-97,-107,-251,290,-115,-250,156,-36,15,-82,-567,315,-70,53,-570,-221,252,245,109,-257,67,-42,268,-149
,-140,-71,71,-294,40,14,-43,126,65,-220,-325,-111,-172,14,-247,111,-80,-140,85,37,-272,76,77,-62,74,75,-39,204,120,-314,156
,-84,132,86,-154,-147,100,-102,93,-180,43,-189,-198,-192,41,-55,-341,-53,277,-33,14,-61,165,108,-64,-55,-56,-200,-48,-29,345,287
,-117,-29,-15,-91,115,-169,-50,-26,-17,65,-196,-80,-116,-256,-21,-60,-109,-205,294,-284,-399,247,192,-182,-285,207,165,14,-202,-259,-31
,-205,19,-59,23,-127,-152,-12,-56,-2,-21,-12,-29,-6,54,55,76,34,-125,-145,51,46,-50,-1,-94,-5,-147,-102,65,36,-61,-102
,-45,-246,-92,-78,-38,-82,69,-37,45,-52,-3,-124,114,-170,-202,-45,89,-153,-100,253,184,-49,-154,-115,-61,-51,21,-254,-52,16,49
,-272,233,158,-216,-157,-112,-124,6,-71,-97,-225,132,-87,-238,-610,-91,-131,361,-176,-41,-411,339,6,-171,-182,52,250,-116,-25,-95,-286
,-122,-86,-381,-223,-279,-99,-9,-467,-35,-148,-271,-10,-48,-323,110,47,48,-115,-10,240,260,-53,179,-26,-229,-129,253,-21,14,132,142
,-109,59,48,-90,45,-242,-19,-34,-372,-423,295,-133,-48,-318,-3,-213,-139,-86,201,-124,-118,-280,34,108,-124,301,-115,-33,173,-5,187
,-200,-177,-178,-291,141,155,-258,-285,-201,-354,223,82,-351,-381,-162,134,-14,172,105,-11,-100,0,-135,130,-50,102,291,131,86,268,166
,-28,60,-165,-123,1,38,-20,-58,-56,-119,-71,37,-212,32,-151,69,-22,-177,-58,-167,59,-183,63,44,-110,-40,40,48,-10,47,-9
,30,227,-714,-108,-7,146,-154,-87,-19,-82,-25,-204,-195,-42,-45,80,20,-17,223,-72,127,337,204,175,-195,3,110,293,-431,-538,280
,-60,82,-167,-135,-101,-326,46,-73,-82,74,-104,102,-169,9,114,256,144,-64,75,74,85,-346,-163,165,-155,61,111,-136,-19,302,51
,-81,-317,-114,-185,-114,-58,-189,115,29,-291,281,135,96,-346,-560,77,37,317,-77,37,-115,128,0,10,-70,-223,185,110,265,118,-57
,-67,-123,-141,-176,-206,-60,-253,-231,86,-55,48,63,-223,-112,-267,-113,45,79,76,12,199,59,-46,15,-47,-135,-166,109,57,179,-169
,-181,81,177,-61,24,74,-179,-208,103,-231,22,17,-153,-349,-507,-23,-92,-245,23,94,165,34,-210,-85,-40,-242,-169,310,-279,-37,213
,54,-134,-78,-180,13,122,-172,92,-107,-80,-306,-337,-30,283,13,197,-26,-475,252,-54,193,-43,256,-119,333,-41,113,-227,-207,234,-503
,-5,-164,45,-92,-84,56,-94,147,60,-91,-4,15,-57,-212,-140,-88,-94,-110,62,-34,-174,407,68,70,-56,171,-164,-302,-327,-327,-482
,75,-10,-31,0,37,-253,-174,55,-25,-129,126,-213,60,-68,-127,236,62,-56,-104,-14,-16,36,-54,56,-268,124,66,-123,-77,167,-33
,126,-128,-58,-228,193,-1,-60,-19,-239,-15,69,-174,-1,-20,-141,-204,-99,151,-249,171,320,-230,174,-331,-273,48,220,-55,-122,358,-492
,88,-103,-132,124,188,-1,173,-42,-77,14,-57,-123,176,40,-121,-261,-160,-255,190,134,-54,-71,51,95,226,-56,-53,-137,14,109,-35
,-115,227,-157,-157,-99,-85,-78,50,-83,-124,-255,-84,-174,240,96,83,227,66,144,-224,-190,190,267,-131,-36,24,309,-325,-640,104,-135
,-41,-120,68,-134,-176,-143,-17,18,137,47,-74,-25,0,-28,-46,29,83,-165,112,112,20,-45,92,-53,-120,-400,195,292,-41,-529,90
,-25,-19,-32,-135,-231,-41,32,-92,-88,-98,178,-87,-134,-1,-16,46,-489,174,44,60,129,102,63,82,57,149,-4,-223,-331,499,341
,-12,7,-466,-63,-220,-9,5,-98,-308,29,26,-112,-166,229,-94,-41,33,-227,-206,-3,-94,93,-294,-8,-61,-103,218,228,37,208,-4
,-118,-213,-266,-127,-162,109,25,-245,87,58,106,-115,8,364,-68,-6,120,-36,60,89,42,-100,116,75,-34,183,17,129,-182,-303,293
,-184,168,69,-181,1,107,-32,-176,16,-61,108,-12,-24,-186,-171,229,123,-48,117,47,375,-525,146,-190,-221,271,93,-152,-267,-1309,224
,41,134,-410,-26,120,-240,-70,10,98,-44,-122,-185,-194,-45,-168,-17,59,206,173,-126,-100,-208,7,77,-141,-853,-17,-70,-275,318,333
,-100,34,-57,-89,10,-121,-30,-33,46,7,-113,-43,57,39,-88,-76,22,-149,-45,-112,-43,-12,-95,-104,-62,23,47,-32,87,3,-48
,124,-261,-266,-43,-199,-752,124,104,34,116,-278,-207,62,1,15,-100,-181,-169,-1411,26,-91,146,-1252,-359,-236,372,21,73,-141,-257,-171
,3,-439,163,25,-203,-319,100,-261,-136,-126,-23,-348,46,-252,133,183,-119,34,-130,297,-3,-1,165,227,122,-86,33,261,-61,56,-93
,-144,-90,-227,-113,-5,141,-224,72,-487,-163,80,73,1,-130,1,-160,102,-220,-364,-387,-47,-72,293,93,-55,-82,309,-96,-96,-996,148
,-16,144,100,-207,290,-97,-219,-150,-290,-85,-173,-147,-145,151,-202,-255,-120,147,203,150,179,205,-304,-155,269,-51,-44,123,213,156,-207
,147,89,-125,54,-182,-79,154,26,-129,-84,143,-123,-19,-3,50,-227,-201,-162,61,80,-184,-293,6,62,138,285,-289,111,179,-108,-255
,-59,-217,-204,-56,11,77,-129,53,9,-224,63,91,-64,-193,-32,286,-99,-286,297,91,-11,4,-309,285,117,-678,-727,190,237,-13,252
,-69,-160,108,2,30,-123,-54,-135,-266,-186,25,-48,-188,41,-10,-162,42,21,133,-153,79,-12,124,-269,-94,-74,35,92,-38,-133,45
,169,78,-25,58,100,-65,192,-104,-85,95,53,-48,64,55,34,-164,112,59,-4,159,-141,146,96,-45,-182,-103,-56,-249,-620,94,55
,-48,59,-93,-188,-156,-32,-11,33,63,-148,-29,-276,95,105,6,-72,-72,-9,-270,-136,-40,45,-114,-62,-126,-141,185,-46,-209,-101,-397
,-168,-218,-602,-42,44,172,-167,-5,-59,12,-192,-42,-161,-94,88,-88,52,24,196,407,3,78,103,282,303,-11,51,235,70,174,-154
,-63,-99,33,61,-4,19,-157,16,-61,-72,143,155,-86,-331,-214,-359,-90,-81,230,-197,56,141,93,22,104,51,256,88,200,25,124
,-112,57,-336,-11,-142,-93,-161,194,-434,-36,63,-676,78,-1,38,46,-65,61,94,42,-93,316,288,-175,-117,148,7,114,-94,-188,167
,-168,-63,93,-1,-149,93,-222,-71,-37,-170,43,48,-208,54,85,-94,-46,65,-47,80,123,109,-57,-354,8,-97,-16,84,75,-215,130
,42,102,37,43,39,-29,-12,39,7,-75,-132,-12,-191,-32,-47,-44,42,30,-11,50,-56,-240,124,14,-28,-179,307,218,195,-387,228
,-64,-37,-20,-137,9,204,-140,-66,-116,-36,-208,-178,9,-266,-81,-274,-237,50,328,-223,-217,169,-133,-46,117,177,170,73,-293,129,276
,-120,-27,-370,0,-232,110,-87,-83,-44,76,18,89,53,-43,-286,-200,34,10,112,178,-47,101,-401,-95,254,66,98,88,-30,-82,32
,-117,72,-68,1,-136,-140,58,-102,43,-218,-91,-160,-105,-97,64,9,49,-2,-139,41,54,22,-159,119,-195,-226,-9,-79,146,74,-5
,-130,-417,-59,-218,147,14,67,-157,8,-160,85,198,-208,182,-71,-331,-52,-72,166,229,-147,159,-132,329,32,-370,-316,74,-106,-137,198
,-187,-127,206,-50,-362,2,-2,15,15,-83,-150,-143,73,36,-104,-77,180,19,128,-222,-57,297,-20,57,-48,-38,305,346,-302,187,-154
,-125,20,-129,25,-106,-45,-141,43,-125,58,-64,27,18,-131,-169,-137,-16,6,120,-102,15,112,-146,-115,102,-98,-108,-125,-115,-89,-82
,-24,69,-133,-93,-142,-110,-63,14,-159,-189,-61,75,-183,111,-52,-128,-17,20,-198,-84,-25,181,-187,-56,-3,151,-94,-62,-120,52,-134
,-5,19,175,-162,-190,93,6,83,-217,-142,-243,4,-103,-204,-252,-149,-100,-188,0,-29,-17,-617,-98,252,41,247,-45,-130,-241,-186,320
,-172,-59,87,-89,122,-206,-154,7,108,-49,-157,-35,-198,163,-263,235,15,292,129,214,-44,164,-207,-104,58,-76,7,5,85,232,-46
,72,-237,-174,-87,-215,46,34,-256,-57,-132,2,-164,47,59,-22,-88,-123,-58,67,-32,170,261,-65,-175,-48,359,-34,-63,-10,-104,-3
,99,-101,84,-80,-98,-22,-19,76,18,169,122,-34,94,17,-71,-116,115,-14,-60,112,-233,100,74,-227,38,-233,-72,199,-298,139,-239
,-128,-315,100,40,0,162,-154,-634,-59,-21,-614,40,-62,-612,-321,224,-29,-56,-247,-164,-146,-682,198,301,201,-144,252,-246,-326,-1089,227
,-266,180,51,-238,192,70,-33,-58,-41,-7,-72,40,-47,-361,-109,-60,48,90,-150,-142,-77,65,-400,-224,-83,-392,278,429,-164,-208,236
,-150,8,-103,-10,-19,-59,-20,-61,19,12,-33,-64,14,-3,-75,-48,19,-88,-128,106,-9,-78,-19,-65,104,-169,115,-9,-51,110,-35
,-77,49,-26,-46,-102,-133,120,-29,118,-105,-208,-417,30,-127,24,-395,-248,287,-191,-38,-147,-104,121,170,121,373,-22,67,90,103,-82
,-18,-172,-189,-73,-117,38,24,-41,-505,-49,78,-361,-111,-418,69,-286,-88,307,338,-13,45,-308,-222,79,-14,-172,-311,-59,-36,-349,-89
,-143,-195,-181,-63,35,-301,1,-4,-214,-54,266,-27,-233,-129,214,206,138,105,-49,127,72,224,10,86,31,254,53,41,-200,190,265
,-119,-97,25,-226,-291,38,-405,128,-148,-320,-180,151,-333,-104,147,-21,81,-66,-27,-38,0,-68,-170,130,96,-70,-90,76,-38,-215,159
,-199,300,-338,-282,-124,-85,-90,-162,169,-172,-272,120,-165,11,-124,-150,-114,-2,284,-49,199,148,133,-190,-50,-194,-549,43,217,-189,-307
,-49,27,-132,75,-175,-58,113,-83,-57,16,-4,-19,75,5,12,67,58,1,38,-25,-201,99,75,-36,12,104,-72,150,-16,14,16
,-49,-136,-106,-54,41,-37,32,-173,77,-170,-71,-52,-112,-87,-152,60,125,-74,-26,-25,41,23,-77,-4,73,41,-61,70,3,67,-53
,-183,-58,50,-275,48,-224,-280,74,94,-297,-20,114,-128,-77,95,280,-120,-481,81,-113,-67,210,-40,-79,-37,-213,-194,-87,-242,192,-171
,-39,4,-19,-67,37,-284,-24,24,27,41,-35,-38,-170,-122,-225,1,27,-63,106,-21,-72,23,156,-188,-247,205,42,101,78,-27,96
,-179,-207,-31,-84,-306,130,-43,41,-290,-144,-127,6,-89,-151,52,-36,-465,267,286,-56,-43,-162,-728,138,-118,-255,-338,13,25,-297,-158
,-15,-58,-119,-177,-101,43,-188,-218,-72,-193,-105,-208,-154,113,-168,21,-114,-130,219,-158,58,-69,260,14,37,-198,-7,-54,30,-14,155
,-44,115,-24,-130,-5,-147,-178,-33,-13,-206,-149,-19,3,-140,-171,-149,66,-257,43,26,-8,-45,-38,77,-15,111,102,-44,180,-83,110
,61,-74,-63,48,-39,-101,6,-61,-2,41,-30,-86,43,53,-8,-7,45,-165,97,156,-26,62,-22,-79,1,-10,125,-30,120,-169,-428
,-206,-129,-110,1,-96,-88,-186,-157,68,-121,-154,-34,51,-138,-78,36,183,-7,143,-105,-24,-20,118,20,-23,112,-333,29,41,-65,168
,5,-609,29,-60,-36,-592,-91,-721,43,102,30,-944,-112,-118,-89,-71,-125,-79,248,-160,-72,99,-419,-56,-55,-18,-304,-59,-123,-125,-371
,-21,-23,-1,-240,68,-267,-4,20,-204,9,-217,-95,-39,-116,-263,-54,-113,121,14,81,-51,164,128,34,-40,166,-122,48,16,-87,-20
,-362,132,-18,-193,-195,-41,-122,-99,-472,-219,-287,195,11,-73,32,318,-128,-308,141,38,-49,-187,90,85,-75,-212,94,26,-126,6,-8
,-71,-309,36,42,-106,-491,33,138,-99,-205,141,107,30,-435,-28,-145,100,5,-619,29,-54,-176,-267,110,-108,-106,-525,-5,1,-25,-654
,-222,54,21,-202,-79,105,-236,81,59,-218,-264,-59,-128,178,-219,-162,170,-458,53,-308,-81,-456,182,29,381,-122,-102,-53,196,-5,97
,-73,-359,78,-116,-107,-43,-115,-375,-58,40,-367,-310,84,-254,-47,154,159,74,125,-85,-45,-613,-118,52,-52,-342,-259,73,-62,423,222
};

long weight_1_T_sda1[2*256] = {
-39,141,27,90,298,-14,-142,-44,175,-375,345,-60,-130,-430,-209,-154,193,-706,2,67,-94,11,129,-131,-73,-81,6,-108,96,-240,112,183,157,-311,628,-147,-251,-348,67,334,-36,238,504,-57,169,90,172,-38,-463,90,5,-352,-86,-449,178,489,181,111,-298,305,96,-242,310,117,248,9,-344,-61,-33,-78,-210,-252,-15,52,-1,-58,104,203,-421,395,65,42,-74,405,211,-300,395,-227,-286,-549,178,-640,250,42,-5,212,-194,-186,-231,225,257,-649,-174,-82,332,90,4,260,-6,220,71,-308,49,-343,30,-27,106,64,-291,-140,1,-45,12,-94,44,247,37,-127,475,-149,76,-55,-149,594,-31,89,-272,334,-320,251,10,28,149,225,59,313,248,-62,-72,16,-355,118,111,99,369,-27,-5,-68,-54,293,587,7,-17,130,99,-140,-257,219,162,-35,23,61,-66,-128,-80,-14,97,450,100,-612,-128,-102,-69,-74,82,607,546,627,241,111,-58,-3,421,-68,336,238,-82,15,298,69,203,20,-127,-229,61,-32,-237,-35,-566,345,-270,-482,-5,196,127,101,-51,153,-47,332,85,75,136,58,38,223,87,-27,-111,162,-174,191,127,-565,288,-138,149,-485,-131,-434,401,18,8,-187,-24,-407,-31,-62,-11,24,-231,-81,-352,-352,56,-331
,4,-22,-8,89,-266,31,217,194,122,266,-182,109,-119,324,86,87,-195,911,29,95,353,88,11,-110,98,22,11,180,116,470,-241,15,-31,329,-571,204,216,465,62,-269,-30,-204,-398,41,-61,-184,-96,116,331,-22,-94,104,-48,389,-197,-443,-131,2,247,-126,78,85,-250,-10,-331,53,225,335,103,40,202,62,9,76,-69,-50,63,40,270,-516,53,-87,-36,-385,-439,70,-185,414,174,505,-64,601,-16,129,161,-40,90,142,412,-263,-42,788,161,88,-457,94,227,-49,8,-147,113,368,56,127,74,-43,2,86,120,179,80,63,44,140,-37,-387,50,232,-362,154,-21,104,47,-568,-74,90,242,-50,98,-287,-5,47,-381,-46,-10,-223,-89,-76,145,-22,327,-10,40,37,-321,-38,15,-82,-163,-200,-548,-30,-138,-104,122,278,119,-185,106,159,-105,63,-66,312,-65,6,14,-552,-109,616,41,174,117,-79,100,-686,-584,-513,-193,128,315,-136,-213,-96,-163,-382,95,25,-358,53,-163,-28,198,75,223,136,310,-60,545,-69,124,516,13,-307,26,64,93,-329,107,-509,39,98,-214,-17,7,-236,-63,57,-120,-195,124,-33,99,525,-238,46,-198,591,155,386,-558,20,10,47,18,323,179,-36,11,90,380,-118,370,129,183,205
};

long bias_0_sda1[1*256] = {
-114,-115,-34,-57,-4,-81,-7,-54,69,-4,-49,-22,-65,-84,-135,-25,19,-21,-56,-27,-2,-27,-34,-75,-101,-18,18,-55,-53,16,-173,-68,-76,-93,-25,13,-63,-20,-66,-14,-55,-38,-206,-122,-104,-76,-33,-151,-182,142,-74,-142,-91,-74,-56,25,-101,137,-113,14,50,-117,-27,-41,-140,-89,-18,-62,-110,-52,-208,-111,-78,-46,-52,-108,-187,22,-143,32,102,-203,-81,22,28,-118,-30,-21,-72,-54,-59,-1,-58,-1,-104,7,-114,-183,-75,12,-64,-25,-111,-50,51,-43,-47,-48,-97,-163,-39,11,18,-64,-45,-72,-60,-66,-119,-64,-49,-47,-22,-18,24,-63,-41,-57,5,-89,-149,-173,-92,21,-91,-6,-93,-109,-198,-94,-23,-99,-65,53,-51,13,69,-82,-71,-73,-197,-80,-52,-45,54,-126,-149,-81,-79,1,-2,-94,-107,-66,-71,-155,33,-133,-40,-43,-108,49,-76,-67,-94,-13,131,-32,-69,55,-127,-132,-58,-79,-15,74,73,-56,-148,-107,-159,-66,38,-112,16,116,-64,24,92,50,-24,17,-94,-29,-155,-80,-39,-86,47,17,-222,-86,-2,-9,-49,117,-70,15,-75,8,-25,-122,118,-21,-68,-30,103,-20,-79,-73,-97,-43,128,-118,-170,-33,49,67,-64,12,-55,14,-62,-55,-101,-68,45,-137,-24,-51,-29,-139,16,-65,-55,-48
};

long bias_1_sda1[1*2] = {
231550,-154061
};

#endif
