
/* Trace */

/**
 *  updated on 07/06/2023 11:39:10
 */

#ifndef __W_SDB1_1_H
#define __W_SDB1_1_H

char name_sdb1_1[] = "Trace/sdb1";

long weight_0_T_sdb1_1[256*31] = {
-37,-100,-106,-3,77,72,-227,38,-85,19,-239,-159,-20,11,-233,-120,-8,-113,81,-9,79,-133,47,18,-88,58,-227,78,-92,111,-227
,141,47,-20,46,-94,-15,21,-66,8,86,-20,-53,-51,62,-58,-92,149,-13,-61,-71,95,67,-46,31,60,28,-14,69,-50,-95,40
,24,-80,17,-104,94,-107,32,-157,-41,-219,-42,-48,-173,-93,-34,-19,-28,148,10,53,-191,-122,-58,1,-17,54,-39,-100,268,-54,-91
,-134,-227,118,34,-438,-211,-155,265,44,-85,-174,-137,-196,-332,-32,52,-40,-21,129,-129,56,-178,348,-72,-60,-157,170,-13,11,-120,-205
,-197,7,-35,-81,-54,-167,-49,-70,-46,68,109,-76,2,-12,5,55,48,-30,-39,-149,-161,-118,6,-103,38,41,27,20,-50,87,-34
,90,-67,121,-44,-212,13,-33,-58,-225,124,-242,-380,49,-273,-364,48,82,-69,250,125,-203,153,-89,-148,-70,26,-989,-313,-283,-336,370
,-144,-81,-153,-187,49,-32,-215,-174,-175,-132,-14,-193,59,35,-123,44,60,98,-44,-30,120,-15,145,17,21,145,-74,51,-54,-118,84
,-71,-20,-61,47,-46,-63,-7,-104,-26,136,-159,-120,49,-99,-106,119,137,-174,-141,-112,77,-101,61,143,43,-181,11,92,96,-6,-247
,22,-51,-190,-129,54,0,10,-120,-99,-171,-210,58,-13,57,-17,138,-71,-32,-98,65,46,51,-79,-111,11,40,-146,-7,-161,-55,34
,-75,-133,19,-29,88,-83,-89,-74,-60,-87,49,48,-137,-36,-42,-33,3,-126,-43,-57,90,-21,3,-56,-24,4,20,24,-138,114,-66
,-146,-140,-135,88,-74,54,-148,31,-152,-59,-128,-6,10,-147,26,-137,-69,-74,90,24,-58,62,-105,34,-143,38,49,-76,-125,39,0
,24,-74,-47,-233,-55,5,11,-37,-99,-10,-190,48,-86,-112,-38,-88,-16,-58,-119,99,-38,-19,-43,-131,-5,9,62,-127,37,81,-46
,-77,22,-131,9,8,-23,36,-160,-32,-201,36,-113,-30,-43,-51,164,-109,87,-103,-85,-4,-199,-68,-1,-32,-59,-149,95,127,-60,-36
,-108,-139,-66,-101,79,-5,32,-262,-128,-143,-129,-176,-131,84,85,-105,-1,-181,-424,-21,79,80,85,-3,-24,-32,10,-12,18,110,-174
,58,4,-89,192,2,18,159,-12,-92,219,55,3,184,-42,70,-64,-103,79,85,-55,8,67,78,-46,-38,53,-33,25,-69,67,120
,62,-148,46,-179,-129,-2,81,-105,26,-23,-114,-92,-175,-16,-264,19,-74,73,-55,-59,243,-66,-18,-119,-23,-2,44,152,48,-108,59
,-111,-56,-62,8,144,-22,-53,55,44,-208,75,6,-45,-171,-282,-87,-34,33,-99,-164,174,-208,35,167,-116,220,-264,-9,48,-143,63
,-53,41,-106,-174,-187,-130,28,-65,34,-53,25,48,-192,-123,14,-160,-11,6,-69,-68,-3,37,30,-20,-78,59,-117,-25,97,-20,-32
,21,-184,-124,21,-22,-289,-223,29,-150,-36,-110,101,-73,-2,54,-64,4,17,-292,-46,-66,-85,-15,-44,23,-84,-96,78,130,-227,15
,-49,21,6,-146,-164,-22,-24,20,-5,-99,-43,-176,49,-1,14,56,-22,-19,-134,-80,-46,-129,-58,5,21,-51,-91,79,-36,-81,-85
,-111,-128,-22,27,-121,-186,-129,-179,117,-21,-244,-363,-90,-123,-104,-95,168,74,81,-175,15,-102,-56,4,176,114,21,55,-6,-20,63
,-384,-99,236,-264,-9,-163,-397,-109,117,-343,77,-46,-336,-118,-112,-46,72,10,69,-57,129,32,103,-55,102,94,27,-81,-71,-40,192
,-81,-28,-229,-83,-21,-281,6,69,-198,-24,11,-410,50,-36,-693,-49,-78,-30,-481,-44,-138,-157,156,2,-107,-64,-275,-29,114,75,118
,22,42,-18,-79,20,-93,-136,-104,36,-203,-135,4,7,-63,-136,75,19,90,-116,5,-92,49,-228,67,-151,56,-36,44,51,16,-36
,53,-82,0,43,-131,-117,-7,-203,-149,32,-259,-15,-119,-114,-52,-14,-56,-38,16,-187,-52,32,-290,-11,-108,-57,-23,-32,85,35,-9
,-215,138,95,-9,-47,-140,-159,-144,-105,-96,-33,-109,-226,14,-117,145,-112,-123,147,-165,-3,-58,-147,2,-23,-76,225,99,115,-141,-78
,22,50,64,62,51,60,29,-46,90,105,-6,93,180,42,35,13,54,71,19,102,-67,29,-102,-101,-4,62,67,153,-15,-55,11
,-52,-67,-52,82,51,-98,128,-141,-32,47,-115,-9,42,98,-33,-91,52,68,-51,-34,-12,36,-11,54,81,-133,-8,81,-274,-43,-71
,-121,-52,-35,-2,-210,-133,41,-32,103,-103,-71,-266,1,-185,-135,-47,64,-41,-271,191,-192,-114,165,-137,-94,-61,31,-204,-152,36,106
,-62,-95,-216,-220,202,37,-39,74,116,13,-171,-100,8,-66,-89,178,-372,-37,232,-204,-225,-78,40,-94,-24,-165,18,-88,-196,-70,-16
,49,-57,204,94,-142,-418,117,-150,-168,-21,-285,-41,-130,-203,-170,53,247,17,-308,-110,-95,81,-38,-316,-66,-167,352,-129,163,-114,148
,-74,29,-46,-112,-179,-127,-50,45,50,-199,56,7,-35,-2,-102,-164,42,-34,-102,37,119,24,-27,-19,15,32,67,53,23,153,-85
,54,-23,33,63,-161,-108,-114,89,-145,-141,21,36,-191,38,-88,8,-33,-60,-125,-130,40,10,-60,-73,39,37,-163,63,-120,24,30
,-217,-55,-126,-241,-1,-118,-246,-179,126,-14,-116,24,-102,56,-155,-118,-6,-86,-15,93,-86,47,-3,-28,-108,-41,-22,19,59,-129,-60
,-113,-98,-2,-177,85,43,-173,-48,-149,-118,29,34,-176,-121,-115,-50,81,-93,-25,76,-52,-86,-8,-62,-74,-29,-128,92,39,45,-127
,-111,-190,31,-15,-143,99,-37,-75,25,-211,-36,-133,-97,-97,-217,75,109,-111,-15,2,12,-149,165,-30,-103,-54,8,112,-82,-30,-8
,-79,91,-130,-74,-115,-27,-42,33,-12,-148,79,-67,-136,-65,26,38,116,-29,-65,-143,-108,123,34,-75,-127,50,-42,47,-117,-47,-90
,-219,64,77,16,-64,-68,-213,27,18,-143,3,-102,41,-41,-127,-47,-124,60,19,68,26,-130,15,53,79,0,-68,-25,-26,74,-7
,-442,96,-5,-156,202,81,-264,-31,-77,-294,104,-17,-378,151,-29,59,-134,32,57,100,152,-166,-46,-79,13,221,-154,-112,222,-273,140
,-167,-162,4,-64,26,-124,-155,42,15,23,-37,-32,50,82,-49,18,58,3,-90,-118,-36,-60,51,1,30,-113,-32,-70,39,0,-30
,-108,19,-166,127,-20,-307,-100,-127,-413,-76,-182,-130,-120,78,-79,-11,68,126,-31,-183,-67,-52,-299,7,-132,-91,-529,-166,223,171,-12
,-22,-358,-182,-87,-157,-98,-184,205,-122,-222,40,-19,-210,212,223,99,-280,-230,120,116,13,-97,-33,-43,-98,-162,249,92,-39,9,-9
,6,-8,11,36,-48,-48,-88,-99,-68,-105,14,25,-25,-80,-88,3,21,-49,31,78,0,50,-114,-61,15,-22,-169,18,14,-170,5
,-116,-241,-114,-85,114,42,-93,-31,-76,-42,-56,-18,-229,8,-8,-57,127,-144,-114,11,75,-61,50,30,-17,-142,-189,39,-28,-38,-48
,-222,-37,12,-26,-103,-2,-36,-74,-89,-110,-307,-217,30,-452,128,-151,-101,-85,-123,-24,-54,134,144,323,-132,179,-140,-468,-293,-845,498
,-106,219,71,-154,-50,102,-29,-621,-358,-108,-363,129,-140,-615,-139,-109,38,-39,-1182,-168,-178,-193,213,-3,66,-226,-53,-14,-16,26,-299
,-294,292,128,-109,-285,-178,-60,-88,101,-300,255,60,-218,-41,-178,-35,119,-52,-26,5,-5,-241,-1,-44,-26,20,138,-90,-22,-47,74
,-364,75,247,-379,219,-75,-330,112,26,-197,-96,24,-10,-322,-38,52,-122,-166,-23,52,42,-64,14,-56,-111,28,18,-220,177,-23,131
,10,-107,-42,-235,-275,-59,30,-146,-21,32,-191,-58,-118,15,-61,116,-56,80,-156,-32,-130,41,-47,-20,-96,-30,197,-58,-68,-72,105
,-206,-87,-22,-314,-44,-61,-152,-265,2,-19,-196,-150,-233,280,1,-55,103,-99,46,-1,70,96,75,-95,112,121,12,104,-173,99,-148
,-39,15,94,-189,-177,-88,48,-122,-290,-98,-110,-159,74,-233,-150,-69,9,101,44,-39,-193,174,21,-105,-28,-72,-219,-138,6,-29,-265
,-185,84,-30,49,-117,33,73,-62,-63,-200,-110,75,-126,4,-116,34,-31,70,-119,-6,-52,16,-147,-132,-81,87,-107,7,2,-14,-80
,11,-21,-23,-186,-105,-8,4,20,51,-155,-128,-19,21,-101,-132,-4,67,-130,39,167,-152,-26,-132,52,104,-234,-13,-6,-37,-65,13
,71,-232,-206,59,-123,-272,-183,-242,50,-61,-61,-166,93,16,105,-122,28,-52,131,-100,65,-42,119,39,4,-173,149,31,97,-46,-140
,-15,108,148,-190,-225,-462,-219,-33,33,-106,-166,-478,7,-253,21,99,-77,-168,136,-112,42,-13,-38,39,56,-32,88,272,-45,160,-75
,-73,9,-185,21,54,-142,-107,63,-239,18,1,51,-205,-114,-63,-22,-168,-10,20,-46,-144,74,69,-112,-40,-27,34,-36,-119,-26,53
,-89,-126,-1,5,-2,-34,-42,-131,-72,-90,-162,-72,-158,89,48,-173,33,72,89,-27,-136,20,-289,35,-23,-140,-75,66,3,-83,2
,-198,45,-115,-97,-152,-121,38,79,42,23,-236,-167,-6,-106,-188,-7,-45,-49,95,-126,25,-8,90,-66,28,-148,53,-80,-53,104,-96
,33,-46,103,-82,-201,34,147,-414,-75,11,-28,-323,-85,-236,-253,225,-1173,-14,419,-39,-159,-97,-760,-84,-42,-84,-224,-216,24,181,115
,-49,-298,-204,138,-357,-735,-79,-224,202,42,-375,-41,42,-448,-1535,-39,1,37,-176,220,-108,288,-33,-68,31,-74,-357,7,-38,-33,-171
,-217,-185,-100,-102,-64,-363,-64,46,-56,41,-77,-543,11,-10,83,-75,15,-63,-59,108,58,-127,-385,22,19,-76,275,38,158,127,-41
,-102,-143,-195,-220,94,-334,-202,-522,155,-66,-376,168,-162,-526,53,-273,-322,-162,278,-36,35,-118,-366,-68,0,-364,215,-222,92,-179,130
,48,-376,49,-111,-258,-314,-59,-47,-392,67,-419,264,29,-25,-452,-428,-155,50,383,-143,62,-10,-529,-40,-163,-536,-4,-97,146,7,106
,-121,-98,52,24,88,-116,-115,32,18,-175,-106,25,-240,12,-137,-158,37,69,-75,53,73,-128,60,-40,32,-37,-65,-86,114,62,-3
,6,173,150,-197,-354,-120,-141,54,-15,78,-510,-609,43,-54,-88,20,33,-166,-979,21,-72,13,-783,12,-62,-65,-876,95,-136,-208,-233
,-98,31,-501,-70,54,64,-245,203,-55,-135,-65,75,-170,-120,-104,179,158,-33,-70,-54,-158,-498,-347,123,175,29,-97,-193,121,-5,-35
,-3,4,23,-163,2,69,-234,-154,-82,39,-93,-174,7,-108,-175,-12,20,-29,-199,-74,36,7,-230,-53,63,122,-230,110,-131,-112,70
,-174,-221,-82,-59,-166,4,-111,-190,32,-87,-55,-148,-51,-78,-62,115,119,-44,-37,-16,66,-60,6,35,56,56,90,7,111,203,-182
,-68,52,51,-20,-48,-11,-26,-175,-532,40,-366,-340,16,-427,50,141,-116,-238,265,-137,-162,64,197,-73,231,-136,-743,61,31,11,100
,-274,10,-137,-173,5,-72,-129,-57,-104,-93,69,-181,-265,-175,64,-26,-24,30,132,-18,-37,-9,196,-92,-72,8,181,-49,-93,61,46
,-312,-72,-94,-266,-11,-264,-249,-85,-210,-236,-123,238,-186,-5,10,6,-42,-113,269,-21,-105,-140,49,-1,-57,-22,38,11,-43,6,-6
,-148,-357,186,-100,-202,-458,-148,76,60,-103,-473,-40,-139,-255,-201,226,20,63,-17,52,168,-113,120,-44,-155,-57,139,-7,134,63,221
,-51,-299,-479,24,-267,-1391,-15,178,96,-18,99,-158,-50,-283,-111,-175,-101,-106,-642,-70,77,-151,183,-32,-65,-47,1,56,-88,8,-816
,-187,-111,7,-131,186,-45,-17,74,62,-47,-77,3,-52,-244,-364,-107,94,-7,-185,-154,-241,-99,46,2,-141,40,-50,55,-76,-69,-100
,-259,-44,-470,-228,-138,-735,-192,-44,-554,-205,-196,11,-293,246,-104,153,21,232,60,7,6,-134,-263,43,-86,-145,-117,178,-13,121,80
,7,-120,-17,-99,-15,-46,-207,-1,-122,18,-69,82,58,-40,-98,-2,115,-67,-265,-117,39,-87,-123,16,-53,-31,85,-49,65,92,-165
,0,-185,-157,-73,-62,-113,-47,98,27,-197,-174,-107,-122,-90,-109,-143,57,-24,-15,-137,-91,-122,-125,43,-22,42,31,39,66,-35,-136
,84,-36,-7,107,29,56,-9,27,-41,126,-43,-64,6,32,-11,-74,-36,110,-22,88,54,-22,6,173,-40,-36,-41,42,68,-57,-53
,-65,-29,-32,36,-72,-107,-152,116,-594,-82,103,-292,-81,-27,-29,-102,-51,-203,-229,340,-161,207,-711,-63,-84,-150,73,-59,-119,-165,92
,49,-31,-48,-11,-158,12,43,-89,-116,-116,74,22,38,-191,-268,73,-13,-71,52,-21,64,-29,7,-136,-59,93,-85,-116,54,5,-26
,-94,118,-6,-83,59,148,7,-318,-128,-201,-248,-39,-69,-282,-398,75,81,-17,-587,-8,-97,-96,-51,-23,153,208,-312,-45,-97,116,-246
,23,-122,-621,-150,-181,-27,28,73,-490,-97,-90,45,30,-140,-90,-182,-129,-143,-221,150,-31,-140,-246,79,-3,7,-16,150,-121,139,134
,-35,-86,81,-96,-56,29,44,66,-28,-60,-90,-87,-133,-72,-47,-117,83,71,-37,39,-23,-8,-132,-31,-119,-55,-3,74,-17,-90,-19
,-195,-19,61,62,-142,-140,17,-50,-301,56,-203,-14,-75,-184,17,87,47,-102,72,30,-42,-68,-229,143,-52,-103,-48,59,-171,-20,-40
,-118,-76,-143,-122,76,-113,79,-100,-196,-77,-58,-103,-97,-3,35,-107,-110,-64,-114,236,-137,-121,-325,46,87,-13,-112,122,19,149,-151
,-228,-68,115,-124,-50,5,-264,-67,87,-213,-203,-132,-348,95,-341,-21,30,-116,167,20,-113,-116,285,62,-122,-16,128,42,-24,175,65
,-177,60,91,-3,78,64,-115,-176,-208,-103,-116,-37,-230,-163,-198,-27,-56,35,42,-47,4,50,-87,-166,3,23,-437,-36,45,-1,-332
,-184,-25,16,11,1,-19,-136,59,-91,-82,-45,-164,-158,21,70,-59,24,11,-4,-1,27,11,15,36,-21,82,-101,64,22,-133,-2
,9,-285,110,-90,-165,-484,38,44,-168,-182,-7,10,-245,54,8,157,54,117,-148,28,-117,-66,-321,-23,-83,79,-328,-27,-262,-75,14
,-119,-102,-23,-93,15,-767,-121,-44,46,-30,-14,-56,-48,7,40,15,59,-160,-610,-330,242,-159,291,11,-359,-29,-453,13,-20,-77,-753
,4,-125,46,-114,-48,-33,27,24,-106,5,-50,-52,-45,-6,-68,61,-173,16,-166,-158,84,69,-74,90,31,27,-82,35,-71,97,-179
,-201,-202,15,-75,-132,-69,-48,33,-49,-113,28,-120,-228,-127,76,-20,-92,131,-95,47,-69,-48,92,3,-85,100,-102,-57,17,23,-96
,29,-175,-97,-188,-24,-149,12,-176,-139,-120,33,-144,-43,-160,-9,83,-91,32,-5,126,-94,-1,96,-135,36,-122,112,-174,63,59,69
,-346,90,152,-192,-48,-33,-330,208,14,-216,-35,-64,-35,-445,27,184,-65,-153,106,-117,91,29,51,14,56,0,10,273,-123,127,-195
,-10,66,-131,-85,-72,-25,-164,29,-3,-163,48,-10,-202,-69,-115,49,3,-132,81,-94,-143,-27,34,-69,-14,74,-58,-155,-30,44,83
,-27,32,-64,-16,-29,-58,-111,-55,-137,-155,-249,65,-2,-140,-49,-127,-73,-15,-104,71,6,74,-99,95,22,129,-213,-28,69,-191,129
,50,-127,-166,50,89,27,16,-80,17,-151,-145,29,-7,-103,-16,-61,-20,113,-155,30,3,18,-50,-1,-3,-106,-61,13,-78,-60,39
,-37,-47,-102,-156,-148,-24,22,-145,-11,-131,-26,47,-52,-73,12,33,34,48,-153,105,34,-94,-109,42,-159,87,-16,-45,-5,82,36
,-281,-236,155,-22,-133,-87,-325,284,101,-233,-153,-91,-145,3,-145,-134,70,-7,186,-65,94,-30,49,4,-117,-142,-75,-44,4,106,103
,-156,35,65,-141,-67,-197,25,97,-269,-173,72,-295,20,-125,5,38,-2,-67,-193,-47,-143,-168,-147,-204,39,-3,27,34,-65,114,-37
,17,44,-51,-87,-74,-39,6,-166,-27,-141,-135,42,-179,47,-165,-121,-25,-279,-53,-161,159,7,104,28,94,-8,-89,96,22,-152,83
,-174,-1,27,-25,54,-109,-77,21,-176,-22,49,-52,-65,-185,-66,-48,164,92,-159,-88,-56,-62,18,-188,114,114,-108,32,54,-131,114
,-86,-76,0,-95,-36,-8,-199,-76,-130,47,76,1,-151,-42,12,-166,138,111,-124,-180,66,49,-5,-90,-41,51,67,-127,3,26,43
,-99,43,-344,-187,-183,156,-84,-112,13,-309,-213,-336,-225,-68,114,-178,146,-134,46,-81,70,67,100,82,-22,157,22,-2,-64,33,240
,-223,-23,54,-192,-51,65,17,80,-10,-139,61,4,-38,-65,54,-112,62,1,115,9,-8,-44,169,-11,-42,66,17,-28,-122,25,33
,-139,-148,-12,-164,185,59,-57,-234,-40,-30,52,0,-19,56,-104,54,93,-116,-34,163,-199,21,-314,66,20,-19,-196,10,58,4,-35
,-175,-105,172,-82,-345,-524,-200,-65,95,-153,-279,-174,64,48,134,-43,-204,-172,152,-92,19,-2,-624,-64,218,-90,-511,-64,60,-123,-204
,161,-210,-142,-80,-288,-87,28,-18,-224,103,-148,-134,117,-114,59,-171,-60,21,-218,-17,113,-206,352,165,15,219,-190,83,186,46,-399
,-222,-1,-4,-37,-23,-82,-32,-56,11,-125,-80,-12,-95,12,-161,-3,-73,-143,3,3,-44,36,-70,-120,55,-105,49,88,-56,-138,-245
,-83,-258,19,-112,208,159,-68,63,-164,-165,-217,-211,65,-99,-224,259,-67,227,-269,-31,-202,172,-98,49,-48,56,16,78,-81,-61,-374
,-38,-303,-111,7,-268,77,-161,-62,-125,-201,-25,-34,-83,37,55,-85,100,86,1,-99,7,-190,49,-35,-82,-23,-65,-79,12,-159,85
,-61,-80,198,-152,-156,65,-162,76,-128,-109,66,-435,-81,34,-445,129,-23,-81,-1127,57,-64,-101,-713,97,-100,-165,-813,321,-298,-350,281
,-13,-219,-324,44,-108,-245,51,-108,-10,1,-113,-65,-2,59,-67,77,-104,-57,78,-78,-63,78,204,-15,-132,-170,-304,-135,-56,-63,172
,-31,70,-157,-101,-23,-145,-4,-6,80,96,-99,-187,-167,25,-197,-77,-19,96,-64,-2,44,26,-28,-26,0,9,-156,98,-135,-85,20
,-85,-150,-67,-87,-70,-122,-138,-40,-86,-242,34,-238,-20,-12,80,-40,38,-166,-65,85,-118,-152,-257,-30,-66,-166,101,65,150,0,-106
,84,-237,-84,113,-125,11,-149,-161,-121,91,-339,-488,3,-354,-968,-96,-78,-99,172,109,-3,142,17,-36,257,264,-253,-109,63,23,-353
,38,-245,-163,-120,-37,-52,-163,-165,86,10,-40,124,-182,58,-231,-116,-40,15,188,39,-105,-172,215,-46,-35,-40,55,-20,-6,-16,-21
,-39,-408,53,-111,-326,-115,71,-83,-79,82,-206,-305,-20,-27,-74,-21,143,-163,-204,-41,-18,-179,-117,112,215,-11,163,204,191,261,-517
,-191,-219,-177,-50,-210,-207,-138,-200,-36,-80,-187,-200,-31,133,-135,4,82,-56,132,50,66,97,-153,65,-70,20,-34,38,61,13,-20
,-66,-92,43,-11,-146,-111,76,66,-379,-110,-228,-149,11,-339,63,-7,-177,30,187,-93,-104,-130,206,118,-113,-125,-370,26,-76,-39,-288
,-158,-49,70,-44,-133,-40,55,39,-84,2,43,-92,-18,-226,-163,-15,-14,-61,177,-55,-49,-72,-63,68,-13,13,7,-144,-104,-44,-100
,-163,-290,-139,45,-116,-998,63,-125,95,-174,-71,27,61,-54,-270,-121,345,72,-208,-30,-144,-27,68,-86,-58,-91,148,398,17,107,-541
,-163,-23,-232,-37,-45,-401,-171,92,-183,-185,-66,131,13,-207,91,-108,-79,21,-425,77,23,-219,-330,-4,-108,40,-317,180,196,-354,46
,-142,-121,-2,-8,146,1,-13,-155,-95,-39,-5,-121,65,-81,-26,-92,-222,7,131,-105,-48,7,8,-41,-54,-81,75,-11,-74,94,-13
,-146,31,-8,-67,-102,-190,-106,-127,-57,-111,148,100,-120,-274,3,-89,1,-94,-101,-101,6,-19,-18,211,15,-169,-125,-82,-33,-6,-285
,-78,71,80,-111,-136,-18,-9,-159,-164,-75,-157,-166,-103,-22,-120,-140,58,1,-120,-19,-54,-49,-80,75,82,-153,-110,30,-119,-138,-140
,11,-135,-18,-132,167,55,-126,17,2,-134,-28,-109,-209,14,-8,40,-115,-105,0,93,-235,-100,65,-284,-81,-491,198,-157,19,-31,85
,-84,16,118,-54,-363,73,-180,74,-606,46,-168,-272,-93,-125,-117,113,-65,190,-50,4,98,115,109,-100,-200,-126,-206,-366,-232,-220,13
,-178,-23,-729,-34,-203,91,-57,127,43,-134,-37,-247,-149,-85,-206,-72,-73,-180,183,43,-228,52,93,67,66,-15,2,46,-104,-44,-130
,27,-84,-247,-128,-34,98,-190,-167,-80,45,4,-14,-164,-180,-167,166,-92,-29,50,67,-135,-63,-212,-131,-78,113,112,98,40,-104,10
,-254,-86,-192,-143,166,-118,-108,171,-183,-127,-9,71,-226,-18,-207,-5,357,-339,-476,170,186,-90,-176,-113,-46,-153,26,-43,112,23,25
,-63,56,-95,-117,30,-143,-37,-57,-145,-65,34,21,61,-232,-103,-120,146,-78,-123,-14,-122,88,-106,-17,-1,17,23,150,-108,-15,23
,-71,13,-145,-172,-173,-91,-24,44,-78,76,50,-16,-96,-9,-170,60,-2,27,52,81,56,-88,-140,20,124,-85,-111,-166,27,40,-14
,-122,16,-104,64,-153,29,-109,-17,-127,-6,-104,-136,-171,-62,-14,-24,2,-104,61,-67,133,15,-92,6,-27,68,36,21,7,-23,77
,-194,82,82,-125,-208,-69,-103,-194,137,-31,-44,-44,-187,-63,-46,-104,-27,30,32,257,-96,98,-145,-206,-180,-121,50,-79,-92,10,52
,130,-269,110,-19,-176,154,-105,-149,-514,-133,-309,-95,18,121,-79,-21,-305,-76,314,-93,189,77,-99,130,227,-168,-99,-52,-113,14,-254
,-345,-26,-222,-287,43,-352,-213,29,-423,-132,-11,204,-212,38,-101,-30,-170,-127,148,116,-159,-23,90,-71,-60,7,-114,-132,-162,15,168
,-123,43,-28,-126,83,-128,-125,27,-137,-73,60,-129,52,-73,-63,-50,-114,-27,-108,-110,26,-65,-39,67,-25,-88,-107,-96,-18,38,-58
,53,-71,-9,-28,-103,-26,-133,-65,76,-186,-152,-7,15,37,-16,-156,-99,45,9,60,-95,-104,-55,130,-3,-29,-229,-38,-85,-79,72
,-73,-25,1,31,-147,126,-66,-804,-209,-58,-183,-195,72,-518,-168,-157,-114,-78,130,-38,-4,-77,50,159,127,-44,146,-106,122,-3,157
,-177,-126,53,-197,16,-204,51,52,66,-84,-47,-185,-167,-67,-54,-106,165,-53,-164,71,50,-200,-162,-88,-196,126,-278,-105,1,127,73
,-66,-305,-344,-109,192,-276,45,-231,-380,-35,-365,198,-117,-220,-81,-15,-71,-98,-165,36,135,142,109,10,57,34,-55,87,-5,-171,-831
,46,-109,-73,-73,-72,88,-3,61,-72,17,-173,37,-84,9,-51,-52,-29,-99,88,-99,-58,-99,139,-83,-126,50,179,44,-178,-5,78
,-323,-571,104,-329,-328,119,-502,-7,-17,-375,-87,86,-295,367,76,138,110,-9,27,-210,-118,-54,-394,47,-106,-123,103,51,-73,289,-59
,-265,88,35,-179,-51,-46,-281,-41,-275,-140,-174,-166,-202,-307,133,-107,27,-64,168,-163,-161,-54,355,180,-94,-138,205,38,-99,-162,105
,58,-69,-44,-135,-44,-83,0,5,-93,-79,-113,-113,107,-19,-133,-73,-115,71,64,-96,85,-17,51,-92,-97,109,-114,92,-134,19,95
,3,-216,-111,108,-359,-39,89,-363,-364,141,-264,65,-15,-276,36,-60,-100,84,-274,15,-112,170,253,97,-102,129,-175,21,47,22,-7
,-69,27,-62,-177,-399,-88,-27,-202,-44,4,154,12,-287,262,93,56,100,-117,-93,-37,-98,-151,-21,-295,-127,-314,68,-76,-16,-131,-147
,-169,-172,-150,-113,-15,-81,-167,11,7,18,-170,-58,-24,-44,-104,-89,-47,-111,-124,-11,-18,-45,1,-105,13,-66,55,80,7,1,94
,28,-87,-108,-51,-5,15,-121,-53,10,-6,-19,-2,15,-133,31,14,-60,17,-141,102,-78,-39,-78,77,-131,-16,-6,-28,-79,-109,-95
,-167,-332,-5,-257,-316,-366,-109,-285,-103,-40,-357,127,-59,-20,5,24,286,-28,1,-26,-66,99,101,31,71,-41,77,153,-19,161,64
,-6,-224,22,-239,-60,61,-209,63,20,-121,199,17,-87,-318,5,62,215,-29,-261,-140,116,56,-266,221,-104,-135,-21,70,195,3,-227
,-102,-42,-142,-59,-319,15,-103,-180,65,-145,-101,12,25,6,-164,24,92,-20,18,-162,84,-50,274,-88,-148,-92,305,-72,238,170,-273
,-114,-129,-112,-87,-105,-128,-183,-23,-52,21,44,-4,40,-125,-87,89,-7,55,-42,-49,6,-135,-44,42,-81,-68,-93,-20,19,26,22
,-72,58,-129,59,-181,-8,34,32,82,46,-157,-182,58,-168,-208,63,37,156,-303,-42,-74,103,-102,-198,78,39,-179,-22,-28,-32,-52
,-64,14,-18,-208,-147,46,-195,52,-111,-195,-68,57,-20,-22,-82,41,-83,-114,97,-125,-78,-81,-2,-14,-79,53,-22,18,-114,-72,-90
,65,-29,-131,89,-209,-95,50,-2,-195,-1,13,-238,-50,-75,-82,111,-67,-60,-184,11,130,-116,61,44,111,74,-91,199,-73,-131,115
,-203,5,-108,-114,280,15,-167,-195,-395,-280,185,145,-39,-338,-130,-146,157,21,-315,24,14,47,5,-1,-26,-17,117,-15,-57,-78,-68
,19,87,-398,-143,-158,85,-3,13,-138,-124,-16,-453,-179,-340,-32,122,135,50,20,85,-120,40,-397,70,124,-18,-184,158,111,56,94
,-196,-302,-204,-44,-590,104,-73,-306,-42,-282,-431,125,-211,-326,-115,55,26,102,185,-21,-35,-60,81,-93,-60,-185,-61,-172,-369,-490,375
,-256,-100,-204,-180,41,-30,-71,-91,277,-206,47,16,-194,-69,24,-456,-253,-51,182,-231,-64,-258,-219,-168,-339,-119,229,-15,-441,371,-59
,31,-273,-140,-188,63,9,-99,218,3,37,-137,36,-103,-228,-371,115,87,37,-134,-2,212,-14,-142,67,-27,-53,-178,-116,-89,76,-8
,-243,31,-108,-51,-79,187,-326,-161,21,-355,131,-34,-134,-181,91,-32,-300,81,166,-325,115,81,288,-168,-152,-145,-210,-133,-77,76,-266
,-113,-45,22,72,-55,-102,67,-171,10,-89,-29,-22,-169,-156,1,-14,21,-26,-50,-29,-47,91,-67,-59,-21,118,-118,101,21,91,-132
,-23,-245,-42,-53,-178,-8,-135,-203,-68,25,-231,-166,2,-161,25,-89,167,-14,-13,-107,-55,26,199,57,-98,-89,-54,0,53,-55,-124
,-108,-419,-140,-116,-375,-65,-10,-648,-43,-141,-191,115,-77,-255,170,-15,-122,-60,-573,137,101,214,-51,-45,19,-90,108,-93,105,-65,-76
,0,33,-231,11,-111,-103,66,18,-73,-167,-98,-97,-3,-179,61,56,-187,-111,46,29,22,-75,6,-108,-99,-155,62,-23,82,35,-160
,-23,-105,-60,57,26,-79,-71,-61,-6,-83,-33,-131,74,-8,50,106,-126,44,-122,73,-73,-44,6,-2,-113,-65,22,6,77,30,-126
,10,-19,70,40,221,-2,38,-298,-180,-191,214,-133,-66,-286,-169,180,57,-294,67,-136,-96,13,163,-56,7,-90,-468,-247,-205,-433,214
,-32,-7,47,-17,-73,3,18,0,-49,-31,-10,-121,-49,-187,-159,-83,55,-71,-9,-63,160,-14,-50,116,-88,51,-103,-71,27,-47,-2
,-104,-17,-165,-2,-26,-153,5,-44,-44,-79,-151,-5,-63,-145,-275,68,-133,-131,118,49,-128,61,115,-36,-34,18,220,92,-189,2,23
,-52,256,18,-184,186,-48,-167,-264,149,-189,-395,-220,11,-243,-39,-3,35,-145,130,-143,-142,-82,57,-90,25,-46,122,-19,-40,-3,93
,1,95,-8,-204,3,-103,-141,-28,-691,-57,-64,-341,-174,-61,-93,9,-11,74,94,-129,136,-24,-436,44,46,37,49,-216,325,343,-219
,-9,11,-384,-210,88,-45,-270,-101,-121,-103,-241,-495,-68,76,80,17,-15,-36,-165,65,-88,140,59,-31,163,121,99,58,136,-202,154
,-7,-114,-215,-185,28,136,-90,-271,-368,-105,-7,25,-1,-299,-428,27,216,-28,111,-66,44,65,-178,-44,182,54,211,52,-119,-21,-395
,210,-113,-46,156,13,-22,100,-151,53,207,109,-37,54,-43,-50,95,110,-98,-114,102,-98,-118,85,130,29,-134,30,136,-33,-91,30
,-180,17,-110,-118,57,-60,-208,-147,37,-63,83,-93,-201,65,-101,6,13,-49,-203,-151,90,-103,2,109,-24,119,-102,36,71,43,10
,14,336,0,3,-402,-154,-31,-326,151,-228,-221,-272,-218,-220,40,240,97,-294,-95,-180,136,-88,69,-149,-6,92,149,-72,152,-140,154
,-2,37,-19,-162,-55,64,-126,18,15,-58,72,74,-79,-128,-72,2,57,-65,-44,110,-64,15,-70,-72,-47,138,-105,56,-135,-55,62
,61,-289,-70,-170,113,47,91,-306,20,71,-227,-44,-98,-161,-71,-32,-35,-50,-214,-59,-321,268,259,-58,8,8,-102,-54,30,-16,-424
,-119,-62,-114,-243,57,-194,-67,35,-181,-185,-60,156,-169,-48,-11,86,-104,-169,96,-193,66,-131,73,33,-238,36,-93,-45,46,-100,-4
,-6,-39,-138,-72,31,-186,-62,-1,-26,-80,-133,-108,-6,40,-121,123,-63,35,-20,-79,133,120,-64,-103,20,78,-110,137,-90,-80,-59
,-329,110,-79,-379,156,-7,-308,54,-32,-188,-215,-12,-279,182,106,168,-167,49,-56,63,6,0,-303,-102,-51,-74,22,44,88,-41,-194
,-38,-445,-76,-99,76,179,-61,-93,-188,17,-317,-80,-149,32,26,12,-190,69,291,-22,-114,-137,-196,55,-3,20,-126,-93,-207,-93,-409
,-142,-92,-95,-262,114,132,-233,109,88,-130,-45,-211,-164,-144,101,-34,-23,-97,-66,-59,-73,-20,68,-82,34,-206,148,-109,-128,-145,137
,32,27,-11,-108,-133,-43,-73,-270,-52,30,-243,-32,-62,-117,-115,19,57,45,26,-52,43,-122,-6,-209,-150,-41,-97,-34,-76,12,-40
,-25,-189,-298,-178,-104,-156,-186,-222,0,-106,58,-58,-4,-102,-9,-81,-97,-106,-26,47,48,-72,-47,127,46,-25,-32,123,187,-109,-159
,-19,-23,84,-42,-103,47,-155,41,-71,-113,19,4,-91,-110,-9,-144,-68,54,0,-23,-127,68,62,-82,29,-91,38,75,-93,-4,-44
,55,-66,24,-8,-20,-111,33,30,-46,185,44,15,180,-102,28,62,-42,-53,38,-11,-58,-31,17,157,68,-183,36,1,-71,9,92
,-209,-200,149,-176,-442,35,-45,-107,-469,44,-66,-346,-130,-135,-10,-110,-254,-196,363,115,185,73,102,-181,-135,32,-63,-279,-261,-386,49
,-160,-69,-158,-101,-142,21,41,26,-73,-30,-173,44,-159,5,-11,-142,-3,-66,-78,-107,74,106,14,43,80,31,-217,17,49,-72,-45
,-98,-81,-54,-48,-198,22,69,-272,-140,-124,-210,-277,-143,142,99,248,-339,3,147,-122,-197,-169,101,-171,-30,-272,7,71,6,105,146
,-206,53,86,46,-96,-211,-53,-26,-42,-218,-206,-76,-40,-44,47,-33,68,145,-32,-108,63,30,-196,17,-166,52,-41,-3,-31,178,-68
,-259,-158,-198,-37,11,-237,-277,-179,178,-249,-37,-29,-37,-64,108,-185,-113,-148,13,96,13,-472,432,-208,135,-97,-146,18,-46,-170,98
,-38,123,-144,-100,51,14,-161,-120,-139,-127,-54,34,28,-60,-64,44,41,118,-105,-132,-169,-50,-129,-162,-21,-47,-1,-50,-174,-63,-121
,-119,-177,-346,0,-262,-450,45,-154,-183,45,-58,-283,22,3,-107,-336,-201,-341,120,-553,-222,-785,638,-170,-10,-104,-226,121,44,114,205
,-49,21,-348,-226,-44,101,-62,-125,46,-245,13,-1292,-10,4,-460,-360,-78,-390,313,-374,-352,-451,444,246,191,-74,-120,-161,-14,-23,12
,-104,-95,-39,-223,39,-17,-64,79,-193,-213,-53,-54,-19,122,-13,-64,-164,21,-62,39,-116,-20,-64,8,37,-156,32,71,58,-151,64
,-112,-101,65,-114,-179,18,-59,-164,11,-145,-55,-261,13,-180,52,81,-1,-83,-61,-41,85,-81,-156,-80,64,37,13,-5,-4,64,-222
,5,100,-205,-98,-172,-26,35,-165,-39,32,-183,-70,-113,72,-17,-76,-22,-100,14,52,18,-48,8,168,133,-102,-231,-8,12,76,-113
,68,-117,-167,-108,-129,-193,88,-97,-32,-170,-66,-310,-96,16,-51,127,-171,-103,-251,12,-53,122,-119,57,185,-63,34,44,-153,-93,308
,87,-48,-212,-109,51,-243,-8,-5,-313,-117,-48,-561,102,32,-301,-25,-54,-82,-378,-166,89,-92,10,26,47,-57,-521,-195,164,171,155
,43,-308,-268,156,-141,-271,-44,-90,-231,158,-152,-523,168,-472,5,243,52,32,86,-151,-37,-12,-530,54,217,-109,-201,-139,44,-185,-918
,-189,-60,-194,-74,171,-112,-126,53,16,-158,-178,-54,-129,-185,-135,211,-66,18,-51,-40,-46,7,-19,63,58,-13,17,-95,92,61,68
,17,-30,-17,181,-14,65,150,109,-144,91,10,-112,180,70,83,-95,135,15,-11,-41,88,113,-90,138,-55,-1,-7,-31,-9,-22,31
,51,-37,-139,-198,148,12,-36,-275,-46,-185,124,89,102,-323,-12,102,-146,172,-173,-221,-411,327,190,35,-9,-42,48,-36,-203,-8,-60
,24,-308,-88,-10,-248,225,-191,-8,-344,-246,-162,-62,-231,-302,62,-16,331,121,-314,-117,-90,-79,-178,143,79,-109,132,12,75,-84,8
,140,-202,-208,9,-58,-396,78,116,-47,10,-78,-309,-72,-234,-186,-47,53,254,-66,28,153,-31,218,-59,100,125,-181,70,-15,76,32
,-147,-151,-101,30,-200,56,-53,-76,-38,29,-82,-15,49,-104,-57,-13,-67,67,-21,-133,-32,-105,36,77,20,-31,-58,-62,32,51,-117
,-48,-103,-362,-166,-448,-197,20,-79,-274,-133,-629,-170,-35,-197,261,65,103,307,-365,-87,-98,72,154,30,-21,-120,-105,132,57,46,41
,-253,87,11,-14,-431,-347,-246,83,21,-199,88,-114,-208,113,-5,-25,34,-161,-520,-82,-168,74,-217,-11,-194,57,-513,250,22,-26,-26
,96,-145,-66,148,-61,17,175,76,-62,-36,-20,59,44,47,-14,109,-99,-38,-15,41,-39,-98,121,-44,73,-53,-1,-85,-4,140,-97
,-29,47,-28,-24,161,-32,-244,78,-38,46,-249,-29,-198,-97,-217,108,0,-35,-112,71,-102,-75,-16,-125,150,-95,-41,80,-37,-34,-58
,98,62,-98,-168,-11,57,32,27,-31,-66,-143,62,-79,-52,-2,-173,13,-95,105,-67,-103,7,128,15,-64,-67,49,-140,-83,66,70
,-148,128,91,-73,-4,-116,-126,-255,-1,-115,-98,-30,121,8,38,91,-51,-12,-205,-7,-70,-145,131,-62,-52,-25,-237,3,53,-52,6
,-145,-90,-46,58,30,-122,-5,-37,-109,17,29,54,-143,-5,7,19,56,-43,-83,-1,63,40,-107,-5,-83,87,-53,-51,38,-138,-59
,29,7,-48,30,-55,-30,107,83,12,-56,-180,-39,-50,-21,-8,-121,-15,3,45,-78,-2,3,12,83,-39,-33,-65,100,-27,-122,-47
,-86,-42,-153,-113,-33,44,-4,-107,-245,67,13,-71,-57,-79,-62,-96,-16,75,-67,-1,-91,32,139,28,-129,-5,-47,70,-93,55,-151
,-150,-397,-15,-45,-525,-61,-26,-160,15,-39,230,-341,-74,-276,96,132,1,202,95,320,156,-21,-422,5,47,181,14,28,-106,56,136
,-203,-500,-143,-136,8,-105,-131,-30,15,-20,-566,-77,-194,-553,37,67,109,94,-4,148,299,194,5,102,-133,-82,-370,38,139,-14,16
,-174,-175,-217,-321,-20,212,-200,-174,17,-227,-162,-203,-206,-150,195,-75,-83,59,60,-160,-37,20,90,-5,139,129,-146,-39,58,-8,2
,-10,-172,-179,-109,-63,-309,26,-76,-164,-101,110,-79,-152,-158,-49,0,94,188,-179,-5,191,145,-113,-62,81,88,-16,20,-35,1,-25
,-130,-175,-46,-165,-256,-160,-170,157,172,-209,-401,-207,-7,-466,216,37,-189,8,-594,122,41,26,207,132,210,134,-299,-247,-6,-595,185
,-130,-197,-114,3,49,-11,-106,-185,47,-103,-175,-193,-99,-190,91,41,68,-50,-86,119,72,47,-86,4,28,-10,-13,-226,-14,-163,-106
,-27,68,9,-133,47,30,40,42,51,-202,22,-21,-101,37,70,103,15,-62,15,115,-93,62,-5,-75,-71,123,55,-156,38,91,12
,-104,-279,-158,-285,-70,32,-58,-135,-85,-150,-53,-217,-245,-251,-202,179,131,10,17,38,194,197,93,-10,-127,-193,-54,167,208,23,74
,-83,-288,-157,-49,193,18,-59,-39,-5,11,-188,58,-40,-211,-47,-86,-153,-110,-196,16,-57,-68,-14,-19,48,31,-347,-77,108,-71,-157
,-40,-54,-23,7,78,-95,-12,-86,-116,-121,-175,-2,92,2,-65,42,-11,-9,-117,-105,-123,96,18,-18,89,-6,-36,61,-15,-33,65
,82,18,-170,-54,29,-138,-101,-4,-135,1,17,-103,12,-156,-133,-47,-160,-110,-36,270,55,-38,-279,12,11,-87,-441,25,-55,-103,-206
,-185,48,-249,-54,-29,48,-212,-93,-61,-147,-203,39,-24,-100,131,-43,-237,147,47,-131,22,-202,414,-30,-44,-112,-185,-159,-4,-223,-112
,92,-310,-80,70,-70,-35,42,45,53,-62,-331,-357,-27,-199,-214,96,35,-173,-479,-92,366,-42,11,16,-3,90,-55,95,217,-182,82
,-67,-108,-202,-2,-109,-52,-29,83,-86,-108,-112,38,18,16,-153,-73,105,-27,32,13,-117,-146,85,57,-119,-15,13,-70,-14,43,130
,-85,-155,-248,-23,-176,-101,92,-198,46,4,-106,-114,147,-339,-156,-87,-131,-24,-156,-131,-135,-325,-157,-87,-6,-129,-414,-76,-227,-156,40
,-4,84,23,-173,5,29,-58,-109,-8,-15,9,-77,-24,10,27,-85,75,13,-2,63,-38,10,-78,-20,-34,30,-88,-53,-12,73,-66
,-60,63,-20,-168,-197,-263,-208,145,-178,-71,125,-199,-201,81,43,144,145,-504,189,-140,91,63,86,-91,55,-130,-250,-93,-80,-154,54
,-58,-47,2,-73,107,5,-35,-99,44,-216,-191,-115,7,-91,-41,-48,-12,-37,-110,-94,-1,98,-89,-79,-46,-56,44,144,-65,-142,-22
,75,-392,-307,-133,173,-5,-119,-138,-77,-75,-99,-32,-191,319,90,-93,18,-70,-143,107,2,-55,-181,-114,-264,-201,37,-5,-214,30,68
,-12,-101,-127,-218,-114,-27,-127,123,-14,-65,-10,-59,-91,-122,-133,8,10,-8,62,-3,48,-55,18,-56,-77,70,-127,65,-76,-133,-161
,-101,-108,-75,-47,147,60,-20,-215,-17,-105,-35,69,-40,-182,-53,-171,-153,2,-116,-247,-296,238,173,-140,6,-81,116,10,106,126,-422
,-93,-33,14,18,69,-25,-162,-26,-3,22,-149,-45,42,3,-46,-13,18,17,-167,-49,97,-118,-127,16,12,-131,112,19,-134,71,2
,-6,-255,102,46,-45,-161,-100,-239,-418,-9,-254,-212,-95,-467,148,-226,-80,-328,181,-11,-13,-35,37,-116,143,8,-177,126,-51,35,40
,9,-158,3,-159,-164,-62,21,-169,-150,11,7,-156,-17,-123,-14,-85,130,-197,-50,20,30,-135,29,30,-62,-3,52,-116,-45,-149,-14
,-225,56,-216,-9,-101,131,-274,-69,21,-93,-165,45,-273,120,39,-128,-121,65,34,-167,-7,0,3,-121,23,-32,53,14,-92,-96,92
,29,-262,4,11,-351,-130,99,-301,-1,-25,-257,-285,-133,-38,-56,116,-39,75,-189,-111,449,-115,-249,19,9,-18,230,-54,-35,255,-121
,-115,-79,-91,-298,-402,-195,-305,-109,-341,-6,24,95,-195,-203,185,74,91,80,43,73,119,-83,177,50,126,104,61,-53,127,-35,-31
,-86,60,-6,-151,-190,-271,-135,6,-35,-61,108,-50,-201,-50,190,13,-210,273,-32,-216,-25,-182,168,254,-245,110,-110,20,22,-33,117
,-167,-61,-70,-95,25,-296,-225,-20,-146,-195,23,-97,-17,-22,6,123,-27,107,44,127,54,62,-30,56,-58,-122,-238,-42,-7,80,-93
,-82,67,-402,-191,-3,-42,-182,244,81,-334,-292,178,-363,-99,-88,67,40,232,-104,-128,49,-124,-929,104,50,81,56,-73,-185,-150,-133
,-123,-46,-168,-34,-38,-182,68,51,-156,84,-154,-225,-76,4,-208,-129,-191,-23,-15,-165,-85,-31,145,-138,-20,-140,-120,40,122,5,-28
,203,82,86,147,-7,-68,80,15,112,143,-108,47,147,-2,-100,45,-93,-49,-15,-24,25,-77,-8,-76,60,37,-5,-131,98,23,-142
,-186,64,49,-138,-67,-66,-64,-176,25,-63,44,-102,-109,-41,53,28,5,-65,63,105,-81,96,-156,35,-88,-17,46,84,-60,66,15
,20,30,44,-105,-103,23,-107,67,-101,-176,-90,26,39,20,-161,-10,71,24,-143,-22,-64,77,8,-50,90,-89,-32,-10,9,-19,-32
,-183,-195,-1209,-170,-91,-89,5,-96,23,60,94,37,42,141,-57,234,335,-306,-590,-96,-123,-62,93,-44,-340,199,84,-183,-157,-293,-257
,-53,-24,6,-135,25,13,-12,3,-56,-71,-123,-31,-116,52,-1,-121,23,0,-42,-157,-48,-34,30,60,-49,-29,-40,-87,-4,6,7
,86,78,-151,75,-149,-100,-3,-154,-56,59,48,-47,33,-20,-44,32,75,70,-120,56,43,-124,-55,-122,78,43,11,116,-89,-77,0
,-304,345,82,-249,-163,-29,-256,-251,41,-323,-99,-171,-235,117,-74,-198,4,42,153,-93,-24,110,72,110,-49,114,89,31,-43,-81,239
};

long weight_1_T_sdb1_1[2*256] = {
25,135,-19,291,-108,-432,29,125,-55,14,-97,-40,19,-25,86,74,143,-40,17,-2,58,372,-236,-51,4,-67,66,-25,-208,-146,283,-4,25,36,64,-60,-21,30,126,-45,-14,450,-153,36,-264,-145,373,152,66,-90,-110,23,107,100,168,15,13,42,-586,-663,183,-421,-476,11,-392,52,-120,-53,-263,73,-176,130,-422,84,-431,-13,-96,88,-395,-63,-185,376,-19,-97,-13,130,-53,6,-40,-513,92,19,148,57,75,-75,31,-71,214,24,-67,-69,2,182,89,74,-156,172,-52,207,81,-519,-22,-32,92,-525,100,287,-142,-85,6,-643,-127,-22,56,-21,65,-33,-117,-72,172,9,36,59,73,225,-327,-92,-83,-65,43,-432,53,-363,174,35,256,264,81,-87,116,100,53,-14,-14,8,17,427,165,-194,-387,250,-521,6,-60,343,-123,27,-303,69,-76,239,-188,179,502,25,4,259,16,98,17,-22,118,316,-23,27,-19,11,70,-328,-3,-54,-1,-410,114,-142,-519,17,79,125,90,-115,-564,25,19,123,-251,130,-5,-372,-115,59,44,43,76,33,33,48,156,442,226,101,-430,36,104,22,150,16,-189,-408,163,-40,120,-27,-282,57,329,69,29,-17,-5,6,102,220,92,-65,66,-347,-107,87,-27,34,-633,-75,43,144
,-27,132,-24,-218,-102,293,35,123,-20,-7,104,-51,33,-59,11,81,76,-55,138,43,-108,-181,47,-61,53,-81,26,-25,102,248,-329,7,25,-67,62,-58,-3,21,-33,-34,73,-356,-144,57,190,426,-254,-90,113,-76,58,-1,92,-123,-189,70,27,81,560,766,-25,311,474,22,180,90,-67,-52,251,2,252,-242,479,-72,328,-29,-18,86,348,-17,268,-363,-13,-58,-24,-89,78,0,128,498,115,33,125,-96,97,-56,24,-76,-132,52,-11,-51,7,-162,76,-18,199,-162,-46,77,59,591,-121,-18,48,451,-81,-12,-80,47,20,574,313,63,-101,15,160,160,-19,-105,-43,19,11,40,63,-309,181,87,-50,271,96,315,36,589,-346,-89,-9,-259,55,-89,-41,-28,-119,-4,64,31,7,-312,-273,141,307,-79,404,-11,-127,-415,-113,14,238,78,-30,-241,169,12,-428,-25,21,-150,13,-268,224,-27,-102,-265,169,44,-16,11,61,333,3,4,16,591,75,328,382,62,37,89,-141,295,615,-7,-40,-12,344,71,14,551,237,52,-36,34,-12,35,36,74,-172,-205,-316,119,276,86,102,11,30,11,3,404,-116,-17,127,-30,217,50,-316,49,-104,-5,140,38,89,41,-119,63,81,375,54,-3,-46,40,555,-81,40,-123
};

long bias_0_sdb1_1[1*256] = {
-119,84,-82,-6,-49,11,-68,7,-68,-90,-22,-117,-79,-31,104,-37,-73,-86,-102,-68,-71,-7,-69,-77,-61,-66,93,4,-53,-89,-13,-54,-56,-75,-41,-76,-11,-93,63,-92,-7,22,-93,-83,-119,-83,-87,-114,-84,-101,-58,-75,-55,-38,-63,-56,-95,-58,7,3,-83,-66,-21,-87,-60,-134,-91,-92,-59,-83,30,14,-4,-35,-172,-73,-80,68,-77,-39,-97,-48,-47,-73,-7,-68,-101,-105,-97,-83,-45,-106,-60,-145,-14,-132,-41,-98,-11,-79,-77,-117,-43,-69,-29,-76,-54,24,-101,-33,25,-65,-48,-30,-91,-7,-103,-50,-78,-37,-55,-77,-102,-70,-58,-45,-41,-76,-64,-81,-124,-49,-46,-56,-22,18,30,0,-61,-57,-99,-23,43,-109,-10,-8,7,-139,-45,-84,-141,-79,-105,-67,-39,-35,-15,-106,-47,-168,58,-65,-25,-60,-92,-101,-81,-80,-41,-94,-148,-96,-93,-77,-13,92,-45,-64,-84,-27,9,-44,-127,32,-20,-71,-96,-86,83,-102,-71,-78,-111,-15,-27,-14,-158,-76,-79,-61,-35,-20,39,-74,89,-21,-113,15,-66,-102,-93,69,-70,28,-19,-66,4,-39,-49,-85,-80,-46,-98,-116,-10,-154,-114,-28,-49,-107,-5,-64,18,-117,-68,-53,55,-69,-18,-68,-60,-103,-1,8,-116,-100,-155,-231,-58,112,-135,-33,-41,-67,-17,-16
};

long bias_1_sdb1_1[1*2] = {
179143,-134960
};

#endif
