
/* Trace */

/**
 *  updated on 07/20/2023 01:07:58
 */

#ifndef __W_NVME0N1_16_H
#define __W_NVME0N1_16_H

char name_nvme0n1_16[] = "Trace/nvme0n1";

long weight_0_T_nvme0n1_16[256*76] = {
6,-161,-74,22,-140,36,30,-34,14,-135,-3,52,-167,-34,-72,-69,55,-3,-218,-111,7,-83,-29,43,-76,60,24,55,-62,-80,-90,43,-148,-7,53,-58,18,-115,-95,-142,-169,-66,-142,100,-27,-23,7,-26,71,-148,41,-37,-29,-116,7,-102,-47,86,-135,-115,-59,59,9,-36,60,52,-164,32,-28,-40,-99,61,-73,30,0,79
,197,-90,312,281,-17,-19,-2,-125,-140,188,79,-198,130,-31,-143,196,27,52,127,41,-60,42,0,-73,29,169,-235,58,-137,238,-15,-73,156,136,-232,-69,129,35,-183,209,-238,108,256,-161,-4,107,-88,-476,140,40,-269,229,-9,-51,74,-123,-225,202,-66,-329,-80,-117,-47,-298,56,-10,-86,-5,39,209,163,-107,-144,-186,-126,-85
,79,-75,-98,-80,-56,-81,104,91,-138,21,-23,-30,75,26,-11,82,-22,-138,-21,61,-127,110,-143,-32,-107,-95,-67,-8,-29,-42,76,-103,-105,-17,29,-39,-116,-89,-30,16,-92,-44,-73,-49,-125,-17,117,-55,66,-49,27,-16,-38,-133,-33,-41,25,69,63,44,38,19,14,-29,-72,-12,22,-38,11,-33,92,27,74,39,-107,-37
,166,-302,8,29,1,-174,122,-47,-91,78,23,-321,-238,457,-631,-156,26,-41,151,-142,-144,133,-137,60,176,-56,95,-56,0,-31,161,76,-366,177,49,-299,89,-109,-79,-48,-295,71,-34,-528,277,155,-46,43,-36,-74,86,182,-95,-2,163,109,-199,95,-105,-246,-151,-47,-33,27,-8,99,18,-189,-47,18,-161,-79,-58,88,-58,60
,-43,-129,-204,-21,-212,-255,-251,2,-120,-32,39,33,-236,-178,-73,-25,-226,116,-49,-8,102,-218,-87,86,-74,-22,-104,-51,-54,52,-12,21,-166,-11,-153,-33,-169,-163,-225,-124,29,-195,-159,-68,-233,-196,138,-66,-178,-130,111,-45,-120,-145,25,45,25,-74,-65,-38,-30,-134,-107,58,-114,29,-7,13,-100,11,-120,99,-81,65,-91,30
,95,0,-58,109,10,-70,-49,48,-119,10,-26,28,-85,25,-10,-112,106,40,-120,13,-115,-28,89,-101,11,61,52,-79,-227,-160,-19,-125,41,110,-95,-31,-47,-163,-58,-110,-200,-157,-98,-141,28,-149,0,130,76,-186,-171,-54,-35,37,73,46,29,39,-66,-18,-97,21,21,-122,-5,-19,-77,-199,-185,-41,-130,-157,-27,-18,35,-37
,77,-25,98,109,-56,-124,-7,-41,-43,19,1,-25,-226,76,59,-3,-73,-70,50,-78,-49,-96,-68,29,24,-13,-73,-58,-105,63,-78,-27,-92,-55,37,-16,91,-27,-103,60,72,-73,14,11,11,-94,-41,-151,58,-40,13,-72,38,44,-91,-93,46,67,1,-56,6,19,-69,-57,51,-131,-82,-76,-1,83,-82,-136,-152,-129,8,-19
,-151,-97,-68,-55,-47,48,-31,6,-64,-30,-138,-49,32,-118,-39,-29,-39,-91,-200,-1,-67,-120,-7,-137,-39,-163,97,-170,-23,24,43,-5,56,-134,-79,-7,68,63,-3,-37,-158,-160,-133,-83,43,64,-91,17,80,-194,-76,72,-50,-1,-139,-147,57,-12,-79,-67,-126,73,-99,80,-83,79,-33,32,1,48,83,-46,-49,-68,-34,100
,-154,-127,10,-119,-207,-228,87,-176,-570,47,-41,-266,-7,-86,-111,-109,-62,-188,-12,-76,-195,-110,-379,240,-42,-281,104,-48,-126,115,-23,34,-212,82,-165,116,-139,-197,23,-147,-268,225,95,-106,29,-95,-222,-3,79,-26,-70,15,-161,-417,-131,0,-164,26,-239,84,29,58,-49,162,70,-92,12,-25,10,28,-175,-118,40,-74,-58,-53
,37,53,-21,70,-23,-183,87,-137,-157,-40,-92,-59,47,4,-195,73,82,-81,-85,-83,7,41,8,54,123,-148,39,-94,54,-94,-75,47,-84,-26,-106,-134,-113,85,-143,-92,-31,43,91,-32,-9,-58,55,45,-114,-40,-83,-44,-92,-37,10,8,12,96,-138,-143,-49,-3,-121,54,-29,58,-3,-78,-115,-92,20,-62,-119,32,-65,64
,79,-33,68,-2,-91,-27,-268,89,66,-95,-89,65,-61,-51,-142,27,-74,-92,-102,-49,-25,-107,-102,-24,80,35,41,79,-140,-117,-17,62,-84,-35,-137,12,-77,-60,3,108,9,-9,14,-63,26,-102,-66,-26,-119,19,143,94,44,-161,-59,-77,-94,-26,-104,-121,-147,-22,-25,-54,22,33,-56,12,-114,114,65,56,-62,77,-94,-39
,-85,-79,-67,53,-74,11,54,68,58,36,-46,-86,-59,139,-146,-20,-132,-122,41,-149,-237,-159,-138,-209,-70,-110,-241,-67,-35,-7,-78,-14,2,-1,-173,114,-76,-42,85,-125,-63,-11,-80,-229,164,-149,-2,-43,-166,-187,99,26,-35,-228,41,-92,-126,33,-161,-74,-62,46,-27,111,-53,-19,97,18,-26,-11,34,-7,50,14,64,-50
,-102,-21,98,-112,97,-119,-6,110,5,125,46,115,51,1,-129,-41,3,49,75,-113,-100,75,60,-93,-63,-104,23,4,28,-91,74,-132,-104,-111,-87,-16,25,-81,-98,58,56,-96,106,-63,-72,-119,0,-16,-114,105,9,-26,-66,33,-71,-77,-81,-17,-114,-144,-109,-5,-80,-74,-44,24,-44,-65,-112,65,86,-133,-37,-38,72,60
,-39,-84,-116,28,35,-81,-106,-126,-149,92,-75,-87,-153,20,25,-76,212,48,-133,-85,17,-207,102,-22,-55,-15,-33,-124,-59,-83,-2,-108,-43,54,-9,-66,-16,-19,-74,73,-116,-99,-76,-35,35,57,-162,31,-148,14,-44,0,3,9,-25,-97,-77,61,-73,15,-163,-120,-199,133,136,-12,-107,103,64,-118,-500,-130,47,-40,-129,53
,72,7,-18,-94,-59,93,-257,-43,-199,7,-11,-84,-383,-170,-18,-175,51,-61,-157,-27,39,-68,64,-67,37,21,43,81,47,92,194,-19,-7,-44,96,30,137,-92,-41,-76,36,-49,10,-98,-53,-78,-110,-7,-93,30,-185,-216,-131,110,-66,136,50,-154,-19,-41,-98,85,-23,10,-98,-120,-223,-21,-1,-147,97,141,-74,58,-11,75
,-5,49,144,-13,28,-219,178,-49,64,-64,-50,-173,-85,5,-244,-150,7,-112,-96,29,-105,-74,68,-3,-101,50,-117,187,-208,-157,-25,-24,29,96,-74,-58,-22,-49,-123,55,80,78,147,-121,-98,2,23,-141,39,-186,-106,-69,33,-187,-51,55,99,155,-136,64,-76,-14,100,22,-49,-124,-126,-6,-4,-82,-40,-101,34,-197,-71,16
,-140,72,-22,1,-54,42,57,-18,-193,-110,-36,-210,-68,-119,-201,33,-26,-183,56,-132,58,-117,-34,-26,71,-73,19,-26,-44,-21,107,-202,72,102,-132,-93,-143,38,-131,75,-6,8,10,22,-102,-21,75,-70,-36,-17,-200,64,10,-215,130,-170,-5,27,68,3,-113,-14,-148,-87,24,-19,-18,23,-33,-125,67,20,50,-138,34,72
,-158,71,-48,-69,-16,-51,-11,-113,13,52,36,-162,-107,63,48,25,-33,-89,-12,122,79,-96,-14,-112,-61,-27,-70,-148,-43,-47,-129,-174,3,88,13,-34,76,-168,-140,73,-97,5,111,-34,52,-134,-42,-108,62,14,58,7,35,-6,-72,-41,7,-129,71,-25,26,0,-181,39,83,-125,78,-52,123,52,-102,-157,25,-23,39,-121
,-115,-112,-34,-52,52,-48,52,-124,73,-141,75,115,-239,13,-53,-181,-15,-45,-125,-101,15,-120,4,-127,-158,10,-71,65,72,-123,82,36,74,-120,-63,57,37,26,-38,73,-102,-101,-102,-16,-69,-122,-71,73,-98,24,-26,-160,-11,-7,44,10,-159,-35,-62,-10,107,103,-102,-92,18,-52,62,-80,14,-10,55,4,49,8,-115,-3
,-32,-57,84,-121,48,84,57,-54,-29,113,-161,87,73,-182,-123,-107,-72,-199,-153,-100,-33,-15,-66,-158,-55,74,-18,14,-99,-117,102,-154,-82,-25,81,-144,-125,-55,-82,54,-110,-95,74,19,79,14,-10,-65,37,68,122,104,30,-81,48,-147,-55,56,-55,-203,-114,51,-90,-118,-124,22,-28,-72,5,-90,-83,92,84,-22,69,43
,70,55,-60,-5,-7,-97,47,-162,89,-149,-94,59,-7,-45,-109,-56,102,-92,92,93,-77,-78,-143,-25,17,-171,-35,4,0,47,-134,-128,16,59,-43,45,120,-141,41,3,49,-99,-102,-69,-103,-21,83,-6,72,-103,104,-16,-24,-72,62,-143,11,-83,-81,-157,103,-17,10,-138,39,-74,120,-50,116,38,3,-97,-107,129,147,-1
,-154,-2,-163,-219,62,-95,-216,-110,-151,-201,-122,233,-82,-27,72,-262,-209,112,-226,-182,9,-195,-89,-435,-117,-31,-271,-139,5,-21,-78,-22,-104,-122,-139,173,-277,8,-101,-177,53,-70,-276,-83,105,-33,51,-340,-57,-55,88,-37,-105,-259,52,-84,157,-117,0,-118,-93,-59,-125,387,-97,0,-146,-106,-121,-19,-57,-66,-114,-21,37,55
,-161,-27,4,9,-164,-68,29,-96,93,-34,-183,-63,-42,-78,-74,-128,-22,-134,8,-114,50,12,20,-88,9,-67,-31,-42,38,-142,-204,72,-133,0,-62,-57,-50,-29,-128,-198,60,-224,32,-145,2,-192,-109,-78,8,-9,-12,-43,10,-245,-188,26,63,-128,7,48,-191,-163,1,46,-124,-17,-220,-127,19,204,30,112,-130,-129,29,-162
,-27,37,-89,-123,-115,-17,72,-132,-53,-106,72,44,-22,-68,71,-116,-112,-18,-133,12,-18,-4,-109,-129,-86,61,-17,-38,48,19,-97,-65,-67,-108,75,122,-126,16,8,126,-124,-41,-122,43,-131,47,-70,28,68,-73,-53,73,12,-65,-26,-5,10,103,28,-86,114,-106,-83,1,-95,-111,96,47,-67,39,-97,-91,-66,44,-13,-129
,55,-101,50,-165,-174,242,-119,-89,4,199,-109,28,115,-254,-20,8,-232,-11,110,-99,-451,-18,-45,-479,25,-66,-216,-134,-140,24,-7,-103,249,84,22,-280,7,-72,-81,-100,-9,10,41,-228,-221,49,-204,-168,-156,34,-146,-90,130,-7,-141,-90,98,-15,-34,135,135,87,62,172,-97,-284,-245,61,-129,89,10,10,-136,-16,-83,-129
,-158,-78,121,17,26,8,-88,-145,67,-194,-16,79,-27,-213,59,63,-162,-166,-91,9,-52,-172,-64,-54,-161,-122,-241,47,-41,146,-79,-7,-152,-149,-42,-222,-171,-221,101,-184,-121,-295,-115,-37,-41,-109,41,-47,-151,-190,-75,57,28,48,-48,-48,85,42,-121,-160,-119,71,-70,6,-54,-8,-68,-135,-140,-159,100,70,-106,17,-87,78
,-112,85,-33,-200,-146,49,-102,97,-45,14,-137,-89,-49,175,-240,-71,124,-65,129,16,-13,-214,-22,39,-126,8,9,-199,103,20,-263,-100,-3,-252,-55,18,-337,-104,38,-147,-99,-47,-137,45,-3,-380,-30,-60,-93,10,-12,-250,-37,-14,19,-151,6,7,-184,32,-66,151,-141,-50,-11,-132,-3,-15,4,34,-134,-139,-8,-91,-58,-211
,-123,-123,178,-300,51,15,-150,-36,-110,-28,67,-26,86,-171,-594,-243,74,91,-285,55,239,-15,-11,-81,-97,-136,64,-198,-47,-175,-71,-224,105,-33,-49,-61,-277,136,-250,-211,-144,207,-275,-28,-238,-148,71,163,-220,-158,97,27,13,-338,-111,-194,89,-41,-31,61,-135,-27,-113,-558,-128,-141,-56,47,-10,-100,-76,-348,14,75,82,-158
,-89,-136,33,-1,58,68,-58,-132,-86,3,-77,-131,227,98,-44,-19,45,23,-36,-57,-100,-28,-56,7,120,-23,39,132,-125,-16,-95,35,-134,-99,-51,-12,111,56,-83,112,63,-16,-28,42,54,77,-66,-29,30,-5,49,154,-43,61,-24,4,34,-21,-30,-101,-6,47,-21,-68,-94,98,-95,119,-139,-96,-199,-53,123,-26,-109,41
,-9,-233,129,-119,-204,-99,241,-11,-6,-122,-256,-148,-530,192,262,-485,176,-238,-488,95,72,52,-227,-71,-13,-73,113,-203,-3,35,-155,-135,-35,-96,-83,-92,44,-116,-167,-185,-197,53,-25,-139,-4,-6,-308,188,1,-228,4,-221,-97,-178,9,-109,-111,-100,-78,-59,-39,-49,-53,-38,-33,-191,-58,-168,40,164,253,90,-18,32,-136,-187
,224,-389,-98,132,-278,-219,10,-126,42,-8,-162,86,32,-22,-241,-115,30,-237,-155,68,-130,-68,27,83,-202,77,-133,-124,-1,90,-222,-148,84,-217,126,-86,-100,11,-135,-263,162,-114,-392,235,76,189,-142,-101,4,-198,-231,-38,-121,-1,43,-373,110,90,-178,15,-180,38,13,109,-85,77,-114,-195,-120,-27,-59,-75,-53,-1,-69,-29
,11,-140,-193,15,142,-10,47,-46,-24,-18,14,-130,-5,-71,-95,-81,-32,-31,115,-146,-53,42,85,31,-131,-11,-26,-69,17,31,-150,-21,-61,-73,-34,-10,-78,-124,43,60,0,20,36,-100,53,7,26,-48,-41,20,-3,43,61,51,24,-85,-98,-56,44,56,43,47,-46,-95,49,-64,-77,-59,38,-24,-157,-60,-89,22,69,61
,-183,65,-209,-12,36,-112,-2,24,131,-49,-97,-273,-143,-73,-130,-128,-192,63,-78,-34,62,47,-166,-40,-72,-27,143,-179,-2,-223,-159,-71,-107,-30,-90,-217,18,-166,43,-41,-6,206,-195,35,-94,-123,48,-107,-213,-100,-36,-7,-129,-114,-23,-73,-176,-186,-100,115,-9,-143,38,0,93,-156,52,-16,123,-83,19,-16,194,37,52,-115
,-125,62,-56,-156,13,-385,-288,-180,6,-46,-22,-58,-156,-116,-63,7,-174,-167,-42,-127,160,3,-100,-93,-181,-149,-508,-179,38,-51,-170,43,-172,-146,-93,255,31,-137,115,-125,-69,-481,-10,-184,160,25,12,230,-214,-94,-300,-169,-157,-52,-68,-37,53,-131,-177,277,-70,-131,3,-80,-143,-23,-121,55,0,14,-18,-122,13,38,136,24
,158,-127,-266,-17,-143,92,-60,-86,-55,65,-191,-29,65,134,-74,-15,126,-248,-21,-83,4,-43,93,-47,55,103,-203,-75,127,36,-97,61,-23,-93,65,157,74,-240,-178,-21,-80,-151,93,-241,-170,-48,-174,-287,48,-89,95,18,-32,-115,190,-7,-39,159,18,-165,-149,-112,-63,33,-18,-31,-40,-123,-103,57,100,-99,82,-89,47,-80
,-136,-39,10,8,92,64,-75,25,-154,-53,67,-88,101,-127,-20,-192,-29,-95,-261,59,-80,-266,-168,-100,-185,31,10,-15,-31,34,104,-12,-53,-80,-106,-83,-140,-78,2,59,-23,11,-48,-136,-147,-69,44,-185,-125,47,-18,10,-119,-127,-170,27,-25,-58,76,190,-41,-53,-27,-153,14,16,141,22,-22,65,-19,-246,39,-154,-109,-187
,-114,-30,78,-109,6,26,-130,-129,50,7,-11,-16,-169,-6,26,1,-147,-123,-71,18,-121,46,77,-148,-91,-82,-107,-198,-92,-155,-191,38,-10,-85,-78,82,30,-65,-5,-47,64,27,-182,-122,-197,-15,74,-15,-70,-96,56,-174,38,-116,-130,5,48,-165,-165,2,22,-105,-106,-108,5,-137,37,-116,-164,69,3,-90,-154,-64,20,11
,1,65,-128,-125,86,89,-45,-126,-113,-109,70,-94,-101,-46,-124,-26,-78,-136,-26,-140,-112,-4,-153,-47,-66,-38,-89,-39,-90,-14,-12,38,-57,-184,-103,62,-173,47,4,-231,-111,86,-67,112,5,-93,-102,5,15,49,40,-27,-47,19,97,-167,65,119,-47,-126,-152,-87,-64,-27,-34,-199,41,-162,10,-4,2,-97,-122,71,-68,28
,-77,-7,110,48,-187,-43,-62,-97,-109,-114,-39,-126,-186,31,-70,-8,-110,-122,-158,-132,-7,-52,113,-50,-47,86,-7,-96,-134,12,-143,13,18,39,72,-98,-128,-51,-120,-133,27,-99,19,-39,-142,149,18,35,111,-62,-85,94,10,-114,-85,-73,-211,-81,63,-18,45,-43,-82,-42,20,-44,63,122,-52,-58,-138,-132,-98,49,18,-30
,-109,-81,96,1,20,-183,-133,18,40,33,-78,54,51,-166,-59,-125,-171,-66,-119,-166,53,-225,-156,-81,-164,-57,55,56,-51,-1,-60,-68,67,-176,-2,46,-154,-121,-100,-58,-102,-25,-158,15,60,-28,-80,-2,-163,43,30,-50,41,59,-38,22,-90,-5,-6,-189,-62,-63,18,-93,-89,47,-128,-17,-66,81,74,-9,-136,49,-61,-90
,-76,-91,-383,114,-208,147,-22,-91,-213,6,-45,-150,73,-140,-9,-56,-85,80,41,-52,32,189,-161,149,33,10,-151,-2,45,110,-139,32,-129,-17,-30,-68,-208,-21,181,-70,-26,-231,-32,-173,60,-42,-59,137,-126,-148,43,-25,33,-178,-134,-24,82,-108,-21,-98,-8,-125,13,4,-53,-78,-32,-72,-24,-160,81,-212,98,-93,-34,-122
,98,-87,5,-115,-95,-171,-58,56,-68,-158,-129,-122,-69,87,53,-129,-3,-232,-121,12,-68,61,10,52,-120,5,-87,111,-69,-20,-59,23,77,-49,-122,-11,28,-54,-6,-82,62,-3,39,-79,109,-113,6,-65,11,-90,-47,2,-101,-72,-124,12,32,110,-217,81,-51,-113,-75,34,81,72,-58,-63,51,78,119,-13,1,9,88,-115
,-74,-196,-12,36,9,23,-11,-33,0,-20,64,23,-83,-40,69,-45,110,-36,-77,77,-43,-80,115,66,35,-235,-229,78,-83,-137,-78,-9,37,7,-176,30,-109,-144,-26,62,-110,-13,-25,-73,-165,-83,6,55,-19,-49,-61,-53,-19,-186,-57,-65,-106,-31,-79,74,-32,57,-20,-24,55,38,-29,-28,-85,-55,-104,-21,144,-80,-22,-114
,54,-8,1,119,-137,-14,-64,131,-120,77,-55,-108,-50,71,-63,-7,83,44,-86,40,61,-18,50,38,76,-82,0,-55,-112,58,54,58,69,125,-123,-69,-50,-57,-68,-64,34,11,-149,74,20,57,39,79,-131,-82,73,-76,-79,108,-36,-45,33,2,133,85,3,22,83,61,100,9,-57,74,-56,-7,-121,69,-118,167,-6,-42
,-97,-57,-11,-22,-77,39,16,30,-17,37,11,-115,-165,-85,132,37,-3,-72,-104,-27,87,6,-141,-63,-52,18,-8,53,-27,4,-154,-121,-23,-122,-83,24,32,-41,63,-53,-19,-67,-31,-142,-121,-106,-140,-106,-220,-125,62,-113,-62,64,-179,-15,35,53,-106,-16,74,0,-15,20,46,118,-93,-93,-7,-80,17,-90,-47,106,88,-18
,-52,-105,-367,-133,13,-72,-24,-98,15,-149,-85,266,-244,-38,244,-245,95,-257,-296,84,-135,-210,25,25,-79,-203,96,-73,-44,117,-183,-31,-175,-317,-54,152,-92,-160,-62,106,-84,-306,-28,-88,139,-94,-37,-288,-38,-142,-161,-251,-92,-212,-193,-210,228,-60,-20,-90,11,-46,-97,131,-36,-98,78,-405,-49,42,-51,-129,67,-154,-115,-2
,-45,-236,115,167,-7,-51,30,-18,-68,87,-64,-496,20,69,-91,38,157,-257,-73,-26,-54,-5,9,-50,1,62,13,132,-26,143,210,-224,0,-13,-219,-236,8,-140,-80,168,-41,-79,160,-132,140,32,-178,47,-29,-171,292,83,-71,-179,42,46,-487,49,-9,-307,-36,-87,-54,-135,-78,6,-9,-343,-1,-119,-321,-97,-57,41,-71,-277
,-638,-60,-172,-263,-105,64,-275,-250,111,-174,-119,-34,-26,44,-426,-143,77,90,-193,-76,-426,-240,116,-787,-202,87,-286,-225,75,-409,-260,46,-513,-262,-55,50,-146,-132,406,-28,-230,200,-244,-94,67,-139,-176,2,-31,-108,17,-66,-123,-62,-164,-205,3,-247,-116,-133,89,64,29,167,92,-27,-138,-25,-140,-118,35,-372,-79,-58,15,233
,-140,33,62,-91,-50,-118,-25,-149,-115,14,-8,-127,-60,64,-86,171,-19,63,-69,-57,-60,177,-47,39,62,71,66,15,46,-58,-50,-16,-115,77,79,-172,12,26,-46,-81,-156,-105,-86,-135,-80,-18,55,-150,103,-22,2,-71,106,-117,142,-7,-78,122,-181,30,95,-43,-116,88,38,-25,-84,85,31,-145,-15,78,92,-46,85,-152
,121,95,122,-68,-91,199,-300,26,169,-130,-143,-135,59,-26,-163,-13,-88,-152,4,-91,-116,52,-105,-254,151,-250,-145,69,-65,-17,49,-168,-496,-115,-16,44,-170,-74,107,-158,68,-159,69,-120,-849,-104,-3,-221,-210,81,183,-240,137,83,-120,-75,44,-14,-56,234,-40,-88,-15,-267,-70,-51,90,176,-122,-46,-39,73,-104,-28,-77,-186
,53,-78,-46,-80,-75,-144,-92,-46,-73,78,-35,32,103,-4,40,-37,-19,-106,-112,-7,36,-156,-30,79,64,13,-72,74,-34,-28,-77,78,66,-128,9,-36,-15,73,-68,36,-63,-21,75,-117,100,-85,-33,-6,68,31,102,50,7,-103,-35,-116,10,119,89,-119,8,-28,-39,-98,17,28,27,10,-69,-56,30,53,-114,104,-48,-20
,-246,132,-195,-54,-107,-242,261,76,269,-170,-184,-8,-41,-142,111,-109,213,53,118,-60,-1,-57,-142,-505,65,-185,-83,10,-137,1,-114,-221,147,-4,13,-255,-84,-154,55,-8,-41,72,23,-133,140,-7,-33,-363,59,-113,-258,-119,-165,119,-148,-212,56,-137,29,-255,11,65,9,26,29,-37,-233,-277,42,-51,79,54,29,25,-24,-102
,-108,26,94,-3,24,-67,-129,116,-138,58,-96,39,-195,-132,-72,-67,21,-42,71,32,-17,-176,-37,-102,-40,-104,-63,-145,165,4,1,-52,70,25,-101,-10,38,-105,-34,4,-129,-26,101,123,-51,52,-51,-74,121,-44,-151,-106,-101,44,-114,83,88,-33,-88,-122,40,-112,-52,41,13,39,24,10,31,10,-159,-7,-88,-3,38,-148
,-164,-19,-395,-38,-428,94,-4,-150,-95,-47,-123,-157,-276,-2,1,-350,-75,218,-364,190,-122,-262,8,79,-400,17,-229,-454,-66,161,-382,120,-302,-480,26,0,-311,-69,-112,-124,-76,241,-527,167,43,-393,251,-429,-20,-278,85,-187,-97,79,-156,-154,-104,-145,-331,61,-157,-166,27,-59,96,72,-65,-332,27,-109,5,153,-33,2,101,-448
,-162,-56,288,-203,-198,220,-526,-39,-133,-142,-280,300,-146,-290,-49,-24,-277,-43,-131,-218,37,-17,-180,77,-184,-286,0,-167,-114,-82,-24,62,-74,-100,-73,82,28,138,-92,-14,-186,27,-44,-212,222,52,-239,-77,-177,-51,-124,3,-78,-151,47,71,-91,-51,-140,-182,-88,-162,-72,95,61,-58,59,-15,40,52,135,55,26,-152,-85,156
,-209,18,-110,-4,-45,117,-197,-129,-168,-184,-228,186,-214,43,-326,-240,57,193,-142,66,-37,-191,-65,127,-115,17,-20,-178,3,-316,-288,-17,266,-386,161,-171,-142,-79,-235,-204,-14,174,6,-158,-216,-161,-133,-53,-43,-207,40,-165,-47,-114,-132,-179,113,-47,-49,-360,-4,-177,-138,-133,-241,-43,-131,369,-86,-90,-160,-71,-111,-94,-37,-86
,-98,31,-96,-244,-72,-64,26,105,42,-234,11,-17,-10,-11,25,-139,-171,-72,-40,-143,-56,45,-92,81,-118,-148,-50,-110,-153,-131,-196,-1,-144,-219,98,12,-26,-129,-118,-138,25,-105,-85,-94,-65,-104,-114,-188,-68,-75,-42,48,-2,-98,11,52,-111,0,39,-55,42,-28,-74,-4,48,-106,4,-187,95,136,-62,121,74,-52,-2,-161
,-45,-94,-92,48,94,-7,-65,16,-7,-95,80,-77,104,-150,-116,64,-97,56,-57,99,11,-95,-146,-4,-146,26,-40,-105,60,-92,8,-143,-82,-78,-58,-90,91,-47,-121,22,-19,-39,-41,-85,18,1,-101,-59,-14,-42,24,-159,111,1,-70,-77,89,-140,33,-107,-76,74,25,-122,-13,-32,19,-42,74,33,64,-136,-28,-39,-86,-70
,-327,-68,-27,-260,-299,21,-244,-338,-57,-146,-178,-85,-418,397,33,-483,151,205,-315,154,179,-417,-23,226,-264,-42,85,-351,-247,72,-296,-99,40,-388,-297,-20,-428,-268,63,-402,-154,-7,-435,-139,59,-315,-226,63,-200,-264,-54,-244,-203,5,-320,-330,56,-287,-514,48,-87,-23,-126,-348,123,19,141,-168,-107,-8,52,-75,-17,18,116,-105
,-86,6,-146,-337,-93,-423,-36,-109,-32,-102,14,72,-118,-196,-60,-133,-52,105,-120,-65,140,-42,-73,18,-45,-147,-172,-242,-88,-58,-17,-69,40,-79,-131,-234,6,6,-421,-56,-124,55,-13,-100,-319,-5,-88,-148,-127,-267,233,-232,-105,82,-269,-6,99,-189,-17,-19,152,81,191,46,96,-79,-80,129,-62,-133,10,-248,41,-8,-6,-30
,-15,-59,70,17,74,41,-153,-69,46,-48,-11,-15,0,19,20,104,10,2,-126,81,-41,-61,74,-82,-19,-85,51,-133,-52,-44,-89,60,-38,-193,-45,-21,46,-154,66,-104,54,-40,-110,-47,-39,-5,-46,-5,-58,29,-57,-14,-9,-76,-108,-41,-4,-52,70,74,81,-86,109,-61,29,-69,-18,-38,-63,-65,-46,86,79,-72,-19,-157
,108,-144,68,81,-151,-58,138,31,-181,-86,-64,-166,-30,-125,20,98,-103,-46,-41,33,-33,-158,70,-141,100,23,-4,-156,-6,57,-31,-139,-70,122,30,1,101,-67,61,126,-44,-53,-12,84,62,-23,-86,9,46,72,-145,28,51,50,-96,-38,22,1,-46,40,-94,-45,-4,-74,-136,-95,20,8,22,-47,15,-130,-3,88,-122,-214
,-203,-30,89,-142,-136,-429,-227,-131,34,-220,-149,259,-305,-191,-161,-295,-175,104,-235,-125,46,-167,-169,153,-302,-70,75,-302,120,-262,-183,-232,261,-179,-101,-416,-177,-202,110,-245,42,-179,-124,-136,163,-306,-144,-62,-380,45,-98,-192,-210,-3,-81,-281,133,-76,-58,12,73,-164,-38,-63,-35,-120,-17,-198,-16,81,70,-290,-14,-101,-40,202
,-298,-269,43,-98,-101,-225,-103,-56,125,-29,-59,-186,-238,-97,-273,-266,-274,-50,-23,-242,98,-161,-71,-40,-241,-187,132,-219,-34,-216,-84,-38,1,20,-220,-249,-125,-230,107,-125,-61,142,-300,-55,207,-261,-172,206,-196,13,-108,-173,-31,92,-302,-1,-262,-109,-166,4,34,-1,68,-167,-88,12,-140,-200,18,-121,58,98,-3,112,-152,52
,191,-121,220,22,-98,3,201,-48,39,10,92,-817,107,-54,-219,32,-172,216,112,-361,76,26,-71,-93,48,-91,-119,88,-119,267,100,-171,-107,211,1,-36,57,-108,95,144,-7,-88,150,83,-163,276,-36,146,140,-135,-10,154,-28,50,91,48,-669,251,52,-540,-43,-32,-100,-415,-183,-170,-182,-71,-26,-164,-394,-457,104,88,-49,-389
,32,-140,-6,-43,44,-131,-5,-125,160,-77,-80,-69,-65,-95,-28,-84,110,-33,101,-15,57,-26,-190,68,-58,-83,-20,113,-136,-42,-101,-177,-128,51,91,63,88,6,-99,76,1,62,-116,-110,-143,-17,-84,1,47,2,-122,46,-47,-100,22,-25,-126,-14,105,32,-11,-167,-85,-159,-53,60,96,36,90,47,-86,30,-123,41,43,-140
,114,-183,-100,-150,-26,-55,63,-124,-119,-98,-113,-21,-24,11,103,-42,110,52,-99,-50,-8,-207,23,-24,-84,-36,-44,-135,-24,-101,30,-136,-94,45,-70,-48,108,-59,-7,-93,-40,-210,-53,-130,96,-82,-49,-96,55,-204,-30,-133,46,-184,42,6,11,0,50,12,65,-102,15,-8,-174,21,-164,-108,-23,103,137,-2,-148,-53,32,-142
,-87,-151,-45,-169,41,83,44,-61,-19,-148,-42,-126,-206,-26,-43,-91,18,-83,-123,-150,38,-80,88,-3,-194,48,-132,33,-6,7,-31,-129,-77,-1,-21,-33,-56,-133,-79,-21,-56,-38,-81,-127,5,-138,20,52,-181,61,51,42,14,71,-161,-117,-15,-76,-50,-6,-35,-38,37,91,67,-26,-50,49,-128,-66,-49,102,38,-26,-40,50
,-153,-223,-44,-147,-8,-374,-296,-108,87,-332,-254,62,-351,94,164,-256,70,-219,-145,-27,-184,-375,-199,130,-167,-144,126,-157,-152,88,-281,-49,-213,-321,-117,161,-220,-78,11,-332,-115,14,-160,-283,230,-191,-170,-136,-328,-176,-190,-299,-21,0,-115,-100,71,-141,-116,38,-50,-143,335,-50,48,-13,-61,-182,48,-26,15,-161,58,-129,-102,58
,-112,-123,-44,-148,-83,-52,-293,-191,193,-297,-195,29,-247,-155,-61,-114,-220,-40,-34,-97,112,-151,-121,134,-51,-127,80,-149,-196,-144,-181,-98,-62,-127,-100,-95,-162,-114,55,-79,-229,130,8,-15,-29,-165,-163,130,-31,-20,-134,-21,-74,-273,-328,-50,-95,-329,-142,29,-77,1,-28,-184,-93,-6,-187,87,54,74,-120,1,167,-68,81,-187
,-27,22,-103,81,-168,60,-54,-162,43,90,61,3,-168,12,-5,10,-151,-42,-40,90,-154,46,-124,-11,58,91,5,-133,77,-8,1,72,-87,78,-98,47,46,-87,109,143,-45,-216,-36,7,-92,-48,-129,-136,4,-102,-177,-16,-32,-42,-32,-49,-55,120,9,-113,-73,-44,-2,-118,-33,-94,24,64,7,68,-51,-38,0,-48,79,-9
,-28,-194,6,-64,-245,334,-10,-250,185,198,68,-343,27,216,-408,-15,84,133,-236,248,72,73,39,-246,112,-112,-33,-84,-87,-136,-27,-132,111,-53,-312,-56,186,-409,-12,16,-226,-280,175,-100,-3,146,-181,58,146,-187,-141,30,37,-130,153,-109,-45,112,-164,170,-271,-20,-237,34,-15,-193,128,-248,57,51,142,97,-175,-28,-152,-67
,6,-114,-122,35,-147,-126,78,-1,-107,61,-48,64,90,10,-22,3,-59,22,-40,-150,-30,88,93,21,107,14,-27,-78,-50,-55,-63,-100,-38,31,-90,6,13,54,56,-66,-101,48,-92,34,-88,77,-82,-116,-131,-95,3,106,-109,81,-125,-80,-140,0,20,-110,-86,-96,-8,-118,84,-128,-15,97,-44,-63,-127,-121,62,9,-45,91
,-144,0,-17,-94,-37,-34,83,28,72,-133,-9,-106,123,-84,20,153,17,28,-63,78,-26,-164,-137,-63,16,31,6,-50,-51,-11,-120,-56,5,-72,-82,-109,-14,94,-12,-68,25,-105,-135,-42,25,50,4,-53,-159,-113,78,86,74,34,-74,-85,-22,-18,-24,-76,51,32,-88,-32,101,-140,30,-37,31,14,-68,9,-9,-82,-100,-63
,-65,-212,104,-63,-199,136,98,-187,-381,-70,22,103,-22,-24,-117,-4,-218,86,-155,69,144,-168,147,132,79,62,-254,7,-183,-404,-69,-117,-91,-280,100,-26,-187,218,-213,68,-5,-92,-81,7,-193,90,-211,133,25,-139,-164,-154,159,-290,-51,8,126,80,-136,137,-71,-78,-108,71,-6,-43,-55,-40,13,-157,62,-298,40,-54,-107,-116
,95,-293,-85,103,-236,-39,81,-194,-68,51,-78,-88,129,152,58,115,111,-150,290,139,-297,252,68,-155,130,170,-74,2,86,80,44,-154,-134,209,-103,-131,91,112,200,102,-261,-111,182,-155,-209,115,-158,-2,100,-166,-164,94,-40,10,225,-34,-20,156,-114,-515,151,8,94,-131,-51,155,-3,0,-31,-115,-107,-90,-143,5,-183,-52
,-172,-46,-107,-387,-66,175,-91,111,74,-241,-36,-254,-227,-68,-78,-253,116,-253,-104,24,-38,-314,-154,211,-131,-116,-130,-93,79,-188,-148,-128,256,-22,-86,-308,-201,-8,-145,-297,13,240,-118,-106,-55,-325,45,-23,-307,-158,100,-210,-131,27,-363,-71,-45,-187,-81,24,-107,-122,-146,-371,-23,-157,-38,-203,42,83,39,102,-6,-71,-67,-131
,-227,-371,285,-397,-73,74,-348,-151,92,-254,-101,-22,-203,-252,-124,-114,-295,89,-287,-147,126,-247,-107,42,-185,-153,56,-188,-171,-244,-204,-163,48,-116,-211,-61,-120,-181,53,-158,-308,26,-66,-115,-69,-288,-226,264,-172,-152,-314,-47,-7,7,-32,-219,-82,-206,-64,76,11,-25,50,41,-122,67,-155,145,-46,-19,106,143,-148,99,-106,-90
,-87,-138,-64,-162,-73,70,40,3,89,67,31,-30,-65,82,-72,-176,86,1,-163,-33,-82,54,-129,12,-37,-1,53,-135,-37,-14,-50,-149,61,7,-82,10,21,-58,-22,-43,-107,-165,-110,96,-59,-167,11,-63,-133,42,-58,-67,-150,71,-108,-46,-63,71,38,-185,94,-42,-162,-107,-84,-65,37,-159,-104,27,-67,-52,0,-29,-25,6
,42,67,-53,-74,-13,-65,-218,-3,-122,-16,-127,-146,16,-86,-57,1,59,-20,-46,97,-46,-65,52,-38,-211,-140,53,-9,30,-110,-65,-37,-25,-44,-147,5,-48,-107,71,-28,35,-127,-13,-17,-137,-75,56,68,29,63,-15,-78,-49,65,98,-169,-84,-97,-132,65,-116,-2,-74,-74,-3,-64,-35,112,98,79,-67,3,5,-125,-17,-157
,38,-150,88,142,-63,-74,127,-48,45,88,91,17,-199,7,-63,-16,-9,75,124,12,-67,-23,-63,-127,126,12,75,-58,72,-79,140,-96,-6,94,-162,34,-3,51,-52,138,25,-53,-15,79,-55,1,-39,-98,-93,2,42,-16,-32,9,-4,62,-99,-109,-84,69,-58,-130,85,-123,40,-91,-57,-57,7,-129,-114,17,-91,-41,-83,-20
,-87,60,-107,73,19,-172,-35,-104,-83,88,-99,-27,53,-133,42,-52,-43,-37,-25,-93,105,50,30,-145,92,-181,47,110,-185,-186,47,29,117,-64,-32,-72,152,-126,-44,16,-158,-149,-6,58,122,-50,-9,-123,-4,-38,32,-41,-93,36,75,-85,52,81,-109,-183,114,-43,-28,75,-19,-126,-152,-151,54,80,-144,-95,67,87,103,78
,113,-122,-59,127,-76,90,102,4,-29,-82,-108,101,-66,26,-93,23,-63,-58,-86,-14,6,101,14,25,101,-45,59,-75,-68,8,-97,78,66,-37,85,-3,-99,12,39,-72,-76,59,18,-22,-98,-118,65,-58,36,-103,-45,35,74,-51,-162,101,-114,98,-51,-83,47,-38,-16,-103,-89,28,20,122,68,-29,93,-78,22,-6,-77,-53
,-14,34,-103,69,-155,-111,-47,-8,2,61,-67,-114,-172,-93,83,-96,97,-115,-84,-86,51,-97,87,-63,52,88,25,-66,-5,-56,82,12,4,118,-165,-188,133,-22,-175,130,2,-86,73,-102,31,-118,-79,82,-17,47,18,-88,64,-33,-107,-106,-117,-21,-93,-160,-109,-50,127,-58,-34,30,-20,80,77,-126,89,-66,-70,68,-2,-145
,-25,54,13,6,56,30,79,19,-24,-54,58,-18,-286,-43,-43,6,10,22,-151,-156,18,27,-46,-46,-102,-60,-43,-80,114,60,100,5,-40,-90,76,-61,41,-114,-13,-4,-1,-20,97,-90,20,-33,4,-69,-17,-88,-52,40,45,-68,51,42,37,-118,25,-84,86,-37,-97,-8,38,41,-116,53,-74,9,31,91,-165,24,55,-11
,-99,-49,20,75,-131,35,-136,-75,4,87,43,-73,-131,-71,-116,-115,48,-94,-62,-137,-98,-118,-122,-44,-31,-53,-76,-44,-109,4,1,53,-12,37,-92,45,-150,110,60,86,78,71,74,13,-39,112,34,65,-151,-160,-15,-155,68,-36,-111,-73,9,-10,-67,-30,-2,116,-37,-74,-122,70,77,31,15,71,-102,15,1,69,-168,48
,-20,37,-41,-19,-124,-115,-68,36,-113,11,-76,-109,71,30,-126,-42,-99,60,13,112,91,-25,-117,-82,14,105,15,-30,-66,-1,-38,-91,-75,34,39,69,-119,-63,-26,-45,-26,-87,-77,-27,-143,53,88,-92,107,-14,-168,-98,-93,-169,-18,80,-152,97,-108,29,-15,-65,-2,-122,48,-47,-27,75,-13,-69,43,-58,25,-28,37,14
,-9,76,30,-153,58,-137,-179,-91,-98,-121,-103,-33,-48,-126,-48,102,-160,46,15,64,-87,31,13,-63,-19,-147,-39,110,-70,76,-17,-158,-123,82,-106,-98,95,-93,68,62,31,-102,85,-36,-127,55,-14,-150,-118,-26,-22,10,21,7,-45,-78,-92,88,-112,-143,78,41,-4,11,85,78,88,3,-53,-88,-26,3,-12,28,-97,9
,21,-95,12,-34,-111,-17,-62,-36,208,-121,47,62,-200,322,16,-38,-177,-121,-115,-333,-684,5,-192,-229,-140,-261,-25,-116,116,37,-147,-88,-14,-91,-196,-412,-16,-277,-242,9,-265,-134,-75,-68,13,-103,147,-73,-155,-40,-163,-29,70,111,-41,22,22,-23,-22,10,25,-24,-62,-224,2,26,-41,-101,40,-85,-134,-77,-90,12,-32,342
,-143,-82,-9,179,93,-96,28,22,35,33,-98,65,-178,-75,-118,-116,-128,-188,-170,-4,-81,-124,-148,-142,-210,-25,-9,-201,-12,-89,58,14,-37,-112,-170,-3,-162,-56,-73,29,47,-27,-51,-140,-98,-1,-90,-24,55,-35,-11,-13,-122,-16,36,-146,-40,33,-55,47,-45,9,-1,-107,103,-60,164,-105,8,45,-104,-38,-21,94,61,-41
,193,24,-147,-36,-9,43,-49,-95,-40,-7,1,56,-311,-110,-30,-250,-74,-27,-39,-142,-15,-149,-21,11,-48,75,19,-68,110,-85,-98,106,17,73,-10,-29,151,16,51,-18,70,-55,72,-73,-13,108,49,120,186,-29,-29,-105,-48,45,-71,148,-43,158,10,120,-17,-287,16,-37,-69,-82,-36,-4,-122,-77,-64,72,62,67,-129,67
,-46,-41,-12,-147,-1,39,-181,36,-79,-149,2,72,-25,88,8,-2,39,19,41,-104,-38,18,0,-20,-181,41,-31,-26,-136,-30,-202,31,-114,-67,-27,54,11,-115,-107,54,57,-50,-14,-67,-2,-185,-168,-97,-16,-37,-92,46,23,-17,82,-54,85,-67,-146,64,-16,-17,10,-28,-16,-47,24,-122,-21,-57,50,-46,10,-82,-83,-40
,-192,42,25,-262,113,-56,-112,-36,-9,-102,-52,109,-30,-175,-73,-172,-89,-31,-244,-4,-1,-333,-62,15,-181,-9,-14,-318,49,-14,-108,99,-4,-247,-42,-9,-279,-5,-75,-65,50,-26,213,28,16,57,27,-22,82,73,-36,-26,-68,-58,188,3,-29,43,55,53,133,47,101,-296,30,-15,-28,-186,127,172,-7,-268,-142,-20,-259,-474
,-281,-114,-75,-223,7,80,-94,-164,-27,-270,-7,-336,-150,-122,99,-48,-119,-31,-7,-134,-81,66,-141,-88,65,49,-227,-99,-104,-310,-63,-147,-75,-3,-215,202,-118,-67,207,-164,-152,98,-233,31,-37,-128,75,-126,-178,25,-121,-132,53,-173,-280,-149,-157,-259,31,-453,-84,-22,80,7,-129,-24,9,-53,-119,12,8,-5,0,-61,-144,-138
,-4,-1,60,-165,-34,31,-66,-11,-104,-83,6,56,-9,-25,38,64,-61,40,-128,45,5,34,37,7,77,45,-57,24,-19,-87,-103,78,-117,48,-81,11,39,28,-63,-74,-109,-29,-87,-64,-138,-78,-149,-41,100,-155,-23,67,-139,-32,30,-89,1,-50,67,-35,-92,-54,57,22,39,-8,-86,-130,-144,-13,-7,-21,28,-117,16,33
,-3,27,-89,28,0,32,-11,-131,77,31,-94,-156,-28,55,79,111,-21,-115,60,61,3,164,-150,-3,17,87,10,-44,-39,-125,64,-145,-9,78,-28,-100,157,-39,-72,146,54,-50,153,32,-117,50,-133,56,36,16,-188,112,48,-96,-21,-165,-70,7,-101,-53,-37,-66,109,-102,6,-15,16,-69,42,-95,79,-27,-16,-146,82,53
,5,-154,-151,-72,63,81,-103,20,-28,25,-117,-59,-39,-45,103,-173,131,71,-175,-10,-74,-130,-8,20,-145,-71,-41,-124,35,-99,57,-41,-15,77,-52,24,102,-58,-106,-13,77,40,93,-3,90,-47,-154,-95,-37,-167,-1,-97,10,33,34,-184,-108,-110,-126,-44,21,-54,-106,-181,-159,80,-87,-2,-42,-4,-3,14,-184,41,47,79
,150,-76,93,125,-17,129,60,-65,87,112,106,2,-313,-83,-29,-273,-148,-28,-225,19,-62,-110,77,-11,7,27,65,105,21,-17,-82,-4,-12,8,3,-11,-15,51,21,161,-48,65,56,-54,52,-65,82,-78,-119,-126,-78,-62,98,-86,-86,47,69,-51,-69,-71,-141,34,-21,37,41,-12,26,-47,-54,24,46,15,20,8,-18,45
,-9,-73,-178,7,-58,106,-104,113,-17,167,-73,-296,-23,-54,-90,-21,-44,-188,-128,-1,87,-250,117,4,-158,-58,8,-56,123,-57,18,-88,36,-30,-233,-144,60,-207,-110,-73,-9,-78,-91,-112,16,14,-103,-122,-72,-42,86,8,54,-58,169,37,-258,166,71,1,-84,94,85,-74,-126,-99,-171,-30,-15,-15,-106,-97,172,6,110,-218
,-73,-163,-122,3,-161,-30,163,-117,-10,-59,25,-171,-141,-3,92,84,-35,38,92,-56,-38,25,-7,-138,-80,84,-15,-132,-104,-158,-6,63,-34,26,-35,27,53,35,-74,-4,-26,-56,-114,20,-156,105,41,-101,53,-212,44,12,-68,30,145,-85,36,73,-61,-158,50,65,-49,85,-29,-232,-70,-21,0,83,7,65,32,48,-112,-160
,-79,53,78,-49,-187,143,5,-126,-96,108,-74,-454,84,79,-300,29,92,-432,-92,173,-210,-55,-89,-419,-39,-181,-214,21,-186,104,-53,-217,147,27,-61,119,19,-72,-177,58,11,297,-111,68,-184,-9,59,150,62,-193,139,13,-198,44,1,-136,-420,164,-303,60,-115,10,52,-295,-16,-22,-103,62,-65,-102,41,-225,-125,57,-93,-155
,-28,-17,-69,-33,72,20,151,35,75,-11,-13,25,-54,84,24,-106,130,-45,-132,-55,6,-26,-55,-4,91,-49,-60,-11,28,97,34,15,20,160,-151,26,-33,44,20,149,50,-23,-61,49,-5,4,-124,52,79,-161,-32,132,112,-5,50,88,24,-27,-25,-91,-10,15,-31,6,-134,-93,-285,125,-175,89,108,-10,-126,49,19,42
,-7,-163,-116,89,-139,-81,-60,47,-65,1,-11,-134,-121,-40,-43,39,-111,-87,11,56,11,-96,-7,-125,-107,-32,-146,16,-3,28,8,-37,34,-50,-31,68,-33,59,-49,-150,-70,-69,69,44,-87,-86,-92,34,86,74,-52,2,-151,-27,-151,-88,-79,-3,68,56,-33,-108,9,-128,-136,44,-122,53,9,107,-24,3,15,88,-84,-75
,79,33,-111,56,-110,-10,-73,-163,-212,74,10,78,-191,-148,75,-101,-57,-58,-188,-50,-75,-69,-99,-156,-126,21,-153,-115,-163,34,-86,30,-218,-27,-165,-67,-149,-183,156,25,-47,87,-124,-87,123,-23,28,-194,9,1,17,59,-101,-152,-82,-40,33,-61,-33,-13,-26,-111,-9,104,-96,91,-98,-81,-82,-55,30,31,111,-71,-33,-1
,-48,-154,13,-76,60,-101,49,76,-143,79,-26,-11,-141,30,-9,2,-139,-130,37,52,20,-4,-145,58,-12,-94,-148,19,-128,-80,81,6,27,-31,2,58,-167,-10,-98,-3,36,-114,2,-98,-29,-5,-50,-113,21,-38,-137,-146,-14,-54,-127,2,-113,115,27,70,74,-37,14,2,-70,8,92,-8,-22,-49,-52,73,-52,92,55,-169
,-110,-21,-55,-71,-104,-172,-150,-118,182,-170,-54,-279,-66,-25,-154,-179,-70,111,-87,-113,91,-184,-139,114,-49,-81,-68,-52,-23,-147,-43,56,-182,-197,-15,-262,-80,-276,18,-46,10,42,-81,-246,137,15,-149,52,-70,-242,-3,53,-221,180,12,-67,-402,-79,-227,18,7,34,91,95,-122,38,67,-141,-36,-85,27,-89,2,-88,11,20
,36,54,-88,19,26,-77,-107,-135,-122,-3,-92,-64,-35,10,-21,-112,63,-55,33,-113,54,47,-75,-121,14,-35,-141,-95,125,34,-16,-150,79,-109,-145,-80,91,-149,-127,59,-112,0,-91,102,-64,20,-124,67,-121,-125,15,80,-23,-108,126,-138,21,85,-113,99,49,92,-25,-126,26,-111,-64,55,71,6,17,-11,42,1,83,105
,-163,-73,-61,-267,-103,-6,-330,-190,164,-223,58,-191,-310,-69,115,-319,-31,-129,-249,-131,-44,-222,130,-330,-264,-91,207,-273,60,122,-341,-134,168,-221,7,-368,-267,-93,-11,-396,-165,-269,-269,-199,285,-247,-37,105,-412,-62,-213,-284,-187,123,-478,-134,-147,-362,21,1,-74,-198,-65,102,-167,-170,38,73,-69,-102,55,-236,108,92,-64,-185
,20,11,124,67,-22,-32,29,52,-184,-100,-218,129,-21,18,32,-78,-36,29,-102,-15,43,-27,79,-134,-83,94,108,-100,136,81,195,-262,-294,40,-83,-114,-84,-105,26,-19,-138,-40,-40,-183,15,-79,-130,101,0,3,-338,-21,-108,-76,-37,-48,-256,86,-13,-351,42,-10,-40,-76,-125,70,77,-265,-56,124,109,-161,-37,3,-75,-221
,82,6,-7,-85,-108,73,76,-36,-139,-33,-123,53,100,-9,-101,-107,93,-60,103,-135,40,-59,34,-26,12,6,-59,74,-69,59,-94,-62,27,-52,-16,29,-50,-58,3,-77,-104,15,73,46,-95,78,60,-62,-79,-88,-62,15,-148,-88,87,115,-88,35,-14,-72,59,-38,-60,-176,13,-4,-168,-146,50,121,-30,-39,-24,77,77,-45
,153,26,9,183,-89,-146,-23,-81,18,-48,9,140,-128,71,-165,-126,-39,34,-6,-9,-143,-24,58,-119,-45,-51,-21,61,-32,-21,93,-115,-109,-93,57,92,-93,4,12,-69,-63,-124,75,-33,-140,-28,-3,-179,33,-79,-119,-90,-84,-96,-61,-42,-40,107,-16,-115,-39,60,28,103,13,-62,-120,-14,-38,-90,63,-92,112,-81,-35,51
,-45,-124,-114,30,-245,34,-86,-87,-126,80,-308,-341,-40,-116,167,-50,-332,355,-65,-161,-4,120,-181,-80,-120,-189,94,109,-180,-110,-18,46,-30,48,-181,69,26,-427,175,17,-410,39,59,-315,-174,-151,-245,-60,-55,-33,-237,59,-29,-38,-13,-289,-416,80,-314,-402,133,25,38,-92,111,-55,51,-66,57,-59,31,47,-137,-147,-105,144
,-61,-135,-109,-90,71,29,-146,-33,18,-143,65,13,-81,-16,-79,-157,35,-49,-143,-104,48,71,-133,-124,52,91,68,11,-57,-103,-29,17,-47,44,-121,63,-80,-97,-20,-205,-134,30,4,7,-149,-114,-13,56,-176,-37,-47,78,-192,22,-34,-35,41,-57,47,-133,-35,-89,113,-57,63,-21,-137,-148,-53,-49,26,10,-44,66,-112,-71
,-37,-52,152,-237,30,84,-163,-104,-294,4,-75,117,-149,81,36,-58,-127,181,-98,26,-194,-132,-52,-316,-201,81,-262,-92,-3,-136,-26,-135,199,-223,-126,-159,-181,-34,109,-179,-47,-103,-120,-72,-165,-77,-182,-4,-143,-21,57,-275,-153,-320,-35,-89,159,-70,-153,-181,29,-89,6,-53,-139,-91,-117,-20,6,53,-40,-138,-92,107,47,31
,68,-66,-178,-35,-281,-79,157,-324,121,31,-188,24,-247,26,-127,-164,-66,-145,-306,209,-195,-128,179,-94,-228,198,-80,-192,133,122,-46,-155,-250,35,-269,-168,159,-183,-28,-62,-212,63,-77,-38,-253,-124,-299,6,139,-145,38,151,-178,197,132,-233,-20,31,-16,25,-5,-86,11,34,42,54,-118,0,-94,-147,57,35,52,-7,-90,-127
,35,-1,145,50,91,-266,-66,24,-11,110,37,-129,-17,-43,-246,113,-187,229,17,-91,-137,36,-65,153,51,-122,-221,-11,-25,-225,-55,49,205,-135,20,-189,-47,6,-347,-31,-23,106,-89,-53,58,59,-55,-74,25,-149,-360,-129,13,-163,-3,91,-148,-105,-26,-195,-106,-7,-29,-19,25,-22,-84,9,87,61,62,-156,46,33,86,20
,116,-53,-142,-120,-26,-29,-35,-109,-103,27,-65,-33,-167,-30,25,62,22,-110,-61,35,1,22,-51,-43,-47,59,-54,-20,62,-113,36,-118,86,96,-11,-84,-47,-31,-7,70,-144,-19,-19,-43,-16,33,69,23,-81,3,-164,6,-176,-74,26,39,-91,-84,63,14,-152,-73,91,-2,-97,38,40,-6,-63,-140,-171,-38,-147,-115,-158,-26
,-9,-48,-229,-55,-6,-178,118,-66,91,120,-145,-253,-260,47,-331,-252,161,-82,-133,84,-90,-243,58,28,-410,174,132,-96,-314,-274,106,-199,-331,-68,-190,269,-98,-75,102,-43,87,-69,123,-55,-46,113,-184,-60,118,-167,183,149,-31,88,-30,85,-85,24,-7,126,-83,113,-35,22,-149,15,-170,8,-172,19,112,-275,13,98,-54,-262
,52,-133,-176,165,-109,53,-39,-258,-343,-10,-163,-113,-16,235,-497,-190,-19,-180,-248,-75,-354,-269,23,-216,-67,-92,284,-254,41,195,-171,89,270,-177,2,65,-239,2,90,-179,-221,133,-54,-154,-44,-1,-232,-135,-219,-286,7,-173,-92,-181,-44,-50,-118,-57,-182,241,-84,-58,-114,-131,73,85,14,50,-188,-59,-27,-106,-132,-170,-88,-414
,-294,-158,-103,38,-129,258,-157,-186,-401,-163,-57,88,-254,-62,-392,-297,-99,285,-279,-93,225,-223,-244,199,-259,-2,-406,-84,-120,-34,-217,-94,-14,-207,-101,0,-306,-23,58,-304,-214,-21,-226,-25,-100,-221,-247,-69,-301,-215,98,-40,-25,-82,-102,-122,-89,-204,-168,-112,-13,-15,-207,-14,146,-13,96,82,31,-132,-72,62,3,-119,-91,134
,132,-43,-104,42,-183,-210,-88,-104,-501,-56,-161,-259,-746,219,207,-684,142,205,-242,50,140,-389,21,87,-379,212,-185,-238,-27,-111,40,-200,-131,-32,-270,23,41,105,128,-39,-293,-168,65,-217,22,76,-437,323,-55,-95,-210,19,-200,-147,-58,-171,-123,34,-120,154,-282,-460,-370,-78,170,155,191,19,15,5,38,14,-92,110,2,42
,-342,104,99,-571,120,-325,-686,144,54,-554,246,1,0,-115,-656,-77,106,-605,71,148,-87,-158,132,-639,-161,70,-490,-35,-144,-736,-23,-65,-377,-192,44,228,-73,-164,212,-140,2,-776,-115,-180,210,11,-198,42,-174,-50,-623,-100,-51,40,71,-154,54,14,-90,-68,-212,-4,59,-281,-17,35,-7,-66,74,4,44,-162,199,16,89,190
,-52,-64,164,-140,78,-81,-64,73,-210,-130,2,-105,-177,126,146,-180,33,-196,5,-199,-597,-51,-139,-44,-123,-159,123,-163,-157,144,-68,-154,-38,81,-66,137,-183,189,-299,-121,-123,-108,-33,-187,165,-98,79,-34,-38,-26,60,-144,3,-266,-38,-33,-253,-90,-72,-237,-153,-90,11,-185,-196,-25,44,-70,5,-7,-17,5,20,-95,120,18
,-182,-101,144,-180,-85,-61,-196,15,78,-77,63,-828,195,180,-215,254,-2,-110,-110,164,-151,-170,120,-144,-117,-16,-154,-151,-83,-268,-216,-29,203,-140,-107,-335,-93,40,-197,-221,56,-180,-159,106,-337,-253,101,59,-239,98,-118,-87,29,48,-72,26,-619,62,-170,-820,-89,-181,-158,195,15,-143,-119,162,-14,-179,-219,297,-181,-10,-102,180
,-28,-128,50,-46,-147,83,-90,-28,-42,6,42,-63,98,-61,-154,-57,-78,17,-187,-174,-4,-104,-18,33,-16,-30,-10,-155,-95,73,-140,-99,-62,-28,25,72,-33,-19,-79,10,23,-20,17,-9,-23,-137,-39,-27,32,-178,91,-54,-77,-91,27,-84,-47,-65,-8,-68,82,-27,-73,-171,13,53,52,-184,12,128,-18,-160,-96,-49,31,-47
,-94,-135,-162,-47,-26,-61,84,-111,-28,27,-178,-30,-43,11,14,82,-19,-6,-165,-9,5,-106,137,28,43,-148,-41,-73,54,-22,-77,-86,-8,-44,53,-46,-40,-7,-34,95,81,-104,13,-37,34,90,52,-164,-35,-40,15,50,57,-80,5,-152,-63,74,50,13,-52,-112,-110,141,-98,-141,-115,24,146,-90,-89,75,-182,-68,-83,11
,-245,-168,-226,-4,2,-104,-148,-147,-184,190,25,234,-94,-167,111,-209,-50,75,-181,-185,72,-8,-38,-255,-120,-143,169,-258,-171,153,-50,99,-40,-171,51,-181,-201,-189,135,-223,-106,-13,-63,-80,20,-193,-108,105,-104,-118,102,-44,-57,-82,-68,-73,-297,-114,-63,-143,-109,-120,-145,-66,24,125,67,-17,-187,-13,-137,38,165,45,90,56
,-4,91,93,-18,97,130,76,-135,-24,-15,29,-188,16,95,-140,-7,-18,12,39,87,-81,147,-81,-97,88,86,-66,67,-113,-202,106,136,10,-67,91,-59,196,-179,-58,-54,-88,-86,135,60,-8,12,-84,-255,135,-145,-163,110,-137,-4,60,21,3,38,-114,-54,-76,161,-130,-181,-121,-150,132,-212,66,-164,43,-3,20,-199,-4,-101
,-289,-128,75,-233,-52,-168,-145,120,69,-112,-8,-101,-71,-210,-97,-269,-62,-187,-244,-65,-99,-79,-131,-200,-191,-179,-116,-186,-218,-58,-249,-169,-33,-228,-79,-123,-81,-255,43,-189,-22,-15,-103,62,-26,-234,-104,-66,-63,-36,-78,-170,-85,-163,-273,81,-53,-269,-29,76,-35,125,-48,170,-60,12,-16,38,-9,-25,-95,8,188,159,166,42
,99,7,-7,169,-29,19,2,-186,-60,58,-158,95,-69,-44,-26,9,-102,-188,36,19,-140,23,-111,-229,101,86,-122,-50,-10,91,-64,-61,-29,34,-214,-119,146,-143,0,-24,-140,-147,101,-263,87,30,60,-286,7,-142,8,166,-198,-129,-90,-86,51,-28,-278,181,-99,-112,-259,13,109,110,143,140,-289,-97,-110,142,-130,23,41,-117
,-80,-49,-198,-60,-21,62,-47,-69,-137,80,-143,-107,-20,17,101,-173,-130,-55,-96,-24,-35,-148,41,-11,-80,-177,61,65,-108,-24,-82,-125,7,66,-31,-193,80,62,121,-153,56,-4,-8,-141,-10,71,-63,94,-113,-109,68,105,-131,-83,10,-23,23,-66,-36,-64,63,-17,52,-142,57,-86,16,-23,9,65,-18,-93,-100,38,-27,-71
,81,3,188,-1,-123,-162,62,-103,-114,126,43,-67,-174,-31,-115,-155,116,-139,-45,69,153,-79,238,116,82,126,-105,39,-275,-302,-106,-77,-217,94,-150,-227,-9,-98,-249,51,1,196,-16,-110,-101,61,-15,-240,101,-106,109,83,-121,-116,89,66,3,86,-125,-205,34,-48,58,37,0,-130,-98,64,-70,22,-107,-208,11,-8,30,-91
,-161,-61,-277,-169,-6,198,50,104,-112,-117,-81,-50,8,2,-162,-140,-42,-57,-217,-172,-60,34,-141,41,-122,-83,-403,-216,14,-123,-90,-140,-175,-67,-9,-314,-60,40,91,-53,-111,-589,-72,84,-228,-35,31,-295,-13,-145,25,-95,-63,-111,-163,108,-67,-12,75,224,145,125,76,7,-104,-51,-188,-122,-53,-33,-115,-291,-70,-54,-26,-405
,51,109,84,-58,46,-30,6,24,-25,-124,-28,-4,-330,-1,8,-98,-47,-19,-152,0,11,-2,11,-32,-83,-74,-31,-59,113,23,-100,-44,-70,-15,-36,30,-8,14,-86,53,-27,15,-205,-1,-55,37,-34,-45,-74,40,-68,-108,22,39,-220,-69,51,-295,-57,62,-35,35,-61,85,118,-112,34,-42,-1,106,-115,-25,7,-62,17,-40
,17,-47,-70,76,-41,-126,-118,-83,11,48,12,-82,-102,-87,-8,-58,-17,-96,-121,45,-109,-34,-41,-34,26,32,25,32,-20,-37,44,86,-90,44,-7,33,105,-77,16,26,92,79,82,40,14,51,26,109,87,-64,-68,-82,-31,39,-138,-40,-128,-90,36,39,85,-90,-119,23,67,52,-98,-46,-92,33,-87,46,-90,-22,116,39
,-202,-211,146,-183,-39,-63,-139,-75,254,-30,-82,-249,-491,149,-155,-417,318,49,-206,-189,-241,-220,-16,-265,-254,-114,44,61,-386,138,-123,-162,-115,-248,-345,84,-207,-350,204,-37,-205,-70,-265,-268,29,-215,-126,-291,-61,4,258,-18,-254,12,-71,-7,-148,-132,35,56,-156,-51,-170,-124,92,-129,95,-35,9,96,-31,-62,-15,-115,27,-183
,-16,-134,5,-157,-107,-106,74,-18,-64,43,-98,42,-52,84,-65,-12,-134,33,-143,-14,-161,70,5,-65,43,-128,-69,-40,42,-35,19,11,-31,-76,92,-72,31,-29,70,-67,91,84,-188,93,-16,24,96,-129,86,-64,59,70,-111,-68,67,78,-164,47,-124,-128,92,68,-103,-142,-102,57,-110,66,-58,68,-74,43,55,-82,1,-36
,-51,-14,55,-235,-46,202,-369,27,70,36,-144,-125,-209,16,48,-145,36,-253,-154,-98,28,-89,0,-90,-98,-181,-209,-92,-89,179,-152,13,-319,-309,-226,174,-120,-159,-165,-245,-258,202,-63,-44,-18,-149,-121,-214,-530,220,-137,-197,122,-137,31,-213,-308,10,-7,142,-67,66,-228,-28,-103,-165,-5,55,111,32,-48,177,-74,91,-95,-114
,16,-65,-83,-136,68,73,-97,15,21,-122,20,117,34,-132,-110,-53,-17,37,23,69,-88,44,-83,-138,102,3,21,-28,41,49,38,64,26,-5,-92,85,54,22,-128,-105,-60,57,-100,25,-93,96,-111,-39,-111,-152,100,-134,67,-30,21,-67,-72,61,-22,-141,-99,24,-117,96,-98,73,156,-131,17,-93,39,85,86,3,-106,-102
,95,30,-321,175,8,-318,-294,91,93,-113,-119,125,-184,172,-145,55,34,124,-174,168,-183,-159,179,-178,-96,201,-32,341,-101,9,27,157,-96,193,-147,-63,242,-245,-27,124,-262,-88,194,-253,-56,42,-7,-779,147,-214,-668,171,-254,-299,85,-71,114,89,24,-117,171,54,-63,70,51,-42,-158,-238,57,49,162,10,-31,121,37,-90
,91,11,89,-130,64,33,122,-163,-90,63,-66,82,-47,-123,-3,102,15,-215,7,-74,-88,-16,60,20,-69,-79,-63,-66,-68,22,-57,-28,66,-140,70,-93,-100,76,-43,-153,100,-128,-138,-49,-31,21,-36,-98,-133,-111,-135,-135,90,-69,-95,27,-13,39,23,-116,47,-102,-92,-21,-126,-63,-58,-116,-11,91,-74,54,-3,-31,-92,129
,28,-190,-171,196,-117,-7,-104,119,109,85,90,-538,-358,48,114,-412,214,-36,-184,-76,111,-302,247,-102,158,-257,59,-163,114,-270,-66,-121,197,-16,-149,-53,69,-147,83,-15,-144,-475,23,-306,59,223,-221,-326,177,53,51,25,-104,95,141,-123,-266,148,117,64,-37,-55,-98,-306,-22,-135,-226,-218,-46,63,-21,-32,-56,133,-41,-76
,69,66,-130,153,-54,-324,222,69,-275,108,-110,-104,14,171,-294,-83,87,-171,-77,-41,-34,87,-153,141,121,-265,19,115,-248,-61,7,-189,98,157,-48,-183,1,93,-145,131,-59,15,18,-142,-156,-40,13,-6,72,21,-203,81,66,-232,97,106,-163,187,-64,-48,-58,-40,-96,-38,46,-80,-182,-192,48,-68,22,-104,17,-99,73,-128
,-32,50,-175,137,-152,5,178,-53,6,46,44,25,-93,-133,91,51,-70,-110,-19,-56,-85,-92,83,-123,-112,-151,-31,-50,65,29,-46,4,-175,85,-97,-30,-64,38,26,-93,11,-158,-127,15,33,-55,-179,82,42,18,-109,9,-16,12,-56,-170,86,79,-58,-167,-53,-193,-125,-49,-171,58,-122,83,20,19,34,-19,-74,170,72,-70
,-4,-78,-226,-120,-148,-262,28,77,-99,-60,-121,193,-369,98,137,-499,330,37,-68,-2,-88,-265,279,-204,-51,-78,-38,15,-325,89,110,29,-53,114,0,-44,-57,-293,66,112,-125,-295,75,-83,57,-66,-27,-380,76,-72,-269,96,-6,-62,-81,-100,154,41,45,-76,-10,-25,0,-265,83,-67,-116,2,17,-27,-13,-200,-34,45,-22,-51
,-166,-27,-13,-146,-65,87,12,-50,222,-174,-155,-459,-349,39,204,-610,289,-252,-238,76,-306,-34,-267,155,115,-262,142,-9,-49,-108,-101,-70,92,-11,-142,10,75,-147,12,49,-131,-416,-185,-210,43,-7,-96,-206,-97,-118,36,-120,-204,74,18,28,-376,86,-110,-61,34,-4,-85,-575,-45,-95,-154,-204,186,146,-28,-208,-149,81,-20,-119
,-43,77,-47,-200,-95,-18,-228,114,-20,-9,-12,66,147,-29,-179,50,-127,-111,31,33,-5,27,-98,83,-96,-72,39,-123,19,-118,-74,-12,-65,59,-32,48,-28,43,-29,-36,-99,-60,0,48,-17,-223,-110,-73,-142,70,41,-185,-75,78,-9,22,16,60,-80,5,-99,-127,56,-158,89,-22,6,-36,97,-98,-162,-188,68,-92,13,-29
,19,96,100,4,-239,-494,59,-476,-1,87,-368,-512,-317,67,71,-295,188,-110,-289,12,95,-205,86,93,-344,135,70,-199,124,34,-217,50,197,24,-60,-123,-162,-1,-78,-71,160,-29,292,-300,-17,-46,-28,52,-122,13,-91,137,-611,-94,-42,-554,-426,80,-553,-187,-73,-140,-70,-157,-124,-91,-128,71,-34,-84,-136,71,103,-12,88,-457
,22,-329,335,4,-197,-84,-14,-238,-99,18,-386,101,-76,-42,-32,-3,-280,106,-52,-119,-132,-80,-136,30,2,-25,-37,111,80,-115,1,-181,-237,23,-282,76,65,-101,-285,-125,3,-17,21,-89,-8,-127,-320,115,-33,-348,-57,-105,-350,-197,-1,-345,-104,10,-452,28,-70,45,-63,-142,34,82,135,43,-25,10,-17,162,-110,-134,19,-6
,-170,-153,187,-244,92,-130,-242,0,-653,4,-43,-36,-165,-118,149,30,-42,29,-48,-77,-291,-234,-30,-760,-57,-183,263,-143,-102,-295,-192,-179,149,-138,-53,62,-26,-165,115,-215,-83,17,-41,-144,13,-15,-26,137,-213,-29,-25,-88,71,-543,81,-97,25,-212,-200,292,-102,-62,-43,-107,-36,-43,101,-216,-52,-127,49,-212,-45,-103,49,-91
,-18,-199,-261,-74,-212,109,-18,-248,-134,-42,-188,10,-56,85,85,-92,-16,197,38,126,18,-60,154,160,-42,-57,-10,62,-114,-9,-138,-101,-104,-152,30,2,-122,-206,-317,-35,33,11,42,134,-45,13,-60,-159,98,-258,65,24,-280,-1,-62,-242,-71,56,-165,-553,-86,-116,-63,-51,20,-231,-180,-137,112,-106,65,117,-172,-284,-203,73
,-79,-200,-207,164,-133,192,14,15,-155,-134,-61,-459,1,-56,-377,-54,41,-309,-250,45,-216,-216,45,118,-160,3,187,-61,13,-36,-359,102,-226,-183,207,5,-374,164,-94,8,28,-37,11,-174,-75,21,-140,4,74,-244,160,10,24,-159,32,91,-198,-132,-136,-17,37,9,-141,-110,46,167,158,-52,-174,-44,-80,-57,38,-23,124,92
,-55,39,-29,2,47,33,-90,25,5,-190,-42,-172,-49,70,-58,-22,-121,11,-140,-97,-103,-57,49,31,-47,64,-106,-22,-136,-7,-194,-79,-139,35,-93,34,43,-63,-64,-132,-8,67,-161,73,-2,-63,-84,-41,-2,-119,62,-31,-136,-1,72,-69,-20,5,-6,44,-175,-44,10,-33,107,-52,1,-105,-7,-36,26,25,56,-131,-28,39
,22,45,-26,68,75,-5,-128,-19,84,-93,-46,16,168,49,-45,18,97,3,4,-59,36,-50,15,-69,-103,33,-29,-71,-84,-3,27,21,-72,68,-56,-29,57,-38,20,29,-91,19,-102,24,-1,-48,-52,-20,136,84,-41,-47,62,-111,-26,67,-4,-26,-45,-69,16,-42,-42,71,26,-103,-79,120,65,-4,-49,-81,40,-104,30,62
,-90,-142,-44,17,39,-102,-1,-54,56,-72,-151,31,-155,-96,-123,-138,-12,85,-46,-162,-179,-178,-68,-160,4,-104,-33,80,-35,-144,-115,81,-107,-136,-144,-168,-61,20,19,-85,-112,8,40,-41,23,5,-156,-112,49,-93,-105,-1,-47,-43,-127,-98,61,-58,-121,55,-109,-57,-55,-56,102,88,102,-88,-129,-134,-80,-12,-160,91,31,49
,-22,-150,142,-287,-61,95,-44,-105,114,-69,-58,-45,44,89,-507,-84,-107,-147,51,-54,-46,52,133,-247,125,-62,-231,-28,-20,-232,-72,41,-287,123,-13,24,-101,-28,-435,-79,-36,-454,101,-20,-107,-11,-206,109,-122,42,14,92,-131,259,13,-86,-80,87,-65,-35,-57,-170,-45,149,-60,-30,6,59,-72,-10,-93,-38,-75,51,-22,-163
,89,-134,-190,48,-67,-146,-160,-64,9,16,-22,51,-247,-43,-40,-64,-2,-2,-202,-50,-132,-166,72,-8,-51,34,-12,-49,2,25,-189,17,39,-172,64,-103,-76,16,-77,-79,4,-137,-71,-22,60,49,-60,89,-32,-113,-113,-83,-136,-23,-28,-32,47,-15,-86,-34,-6,53,-31,-26,-144,-89,93,27,-146,36,73,2,-20,46,67,-64
,61,-67,-46,90,8,-149,75,-1,31,53,11,-61,203,-43,-105,98,-73,-86,-5,-91,43,-88,-71,3,-83,-26,-30,-60,-111,50,34,117,-81,93,-5,-105,-41,-132,-140,-66,-9,76,157,-111,116,35,42,84,-17,-131,5,-44,-57,7,156,-15,58,187,-139,-101,111,-53,-118,-105,38,119,35,-143,-108,79,80,-21,-27,-114,-99,71
,-99,16,15,-158,13,244,-249,-62,-88,-65,17,-97,-359,21,-340,-73,56,131,-231,206,-122,-155,16,-84,-77,-148,43,-84,-66,-358,-109,-7,237,-35,-73,-366,-284,-164,98,-99,-59,128,-275,-31,90,-180,-25,-273,-252,-25,205,-309,-125,29,-263,-214,75,-77,-179,-115,-4,-19,-129,-104,-105,-36,-153,236,-44,43,-76,-118,-157,-40,-103,156
,49,-277,-104,146,-75,-128,7,-108,208,83,-89,-223,34,73,-332,-22,35,-74,-221,258,-132,-94,230,248,64,-230,-451,-78,-32,-218,33,10,160,67,-119,-78,217,-97,-276,162,55,49,-77,124,141,181,119,143,46,-20,-433,47,-6,-108,46,-131,29,-37,-56,103,-84,-80,-140,-12,-44,12,93,-12,-142,-184,44,145,18,-8,-151,-162
,-147,-179,-162,414,-126,260,-73,-35,-315,-147,204,113,-22,30,-109,-18,-46,-322,95,45,188,-61,-14,-298,-102,-3,-395,-171,123,-357,31,-24,-141,125,-120,20,-128,-2,201,-186,188,-225,35,-108,61,-144,-66,55,15,-100,-71,114,-13,-83,-235,132,-127,-99,-164,-312,-130,-5,-76,-65,80,65,92,50,-116,59,-64,-34,-107,3,-19,-283
,263,-64,19,-187,-46,-215,-183,185,-359,-103,-48,-208,-137,-6,-185,-228,100,-121,-149,-22,-300,-141,-79,-690,-86,124,-604,-168,-34,-98,-105,-15,221,8,-109,48,-184,21,-159,-136,-23,218,11,-173,71,-133,7,-108,29,59,-103,27,-131,-292,23,47,68,49,-45,-662,30,-85,-62,50,87,-132,32,-309,228,221,141,97,17,-183,-104,-63
,-127,-97,44,-121,49,2,-173,-105,-98,-75,-65,-63,-30,-1,62,24,104,-14,39,43,9,-4,32,31,-193,-79,19,-146,-60,-165,-52,79,-136,0,-50,22,25,-178,71,70,-91,58,-158,-115,-126,10,-4,-8,4,-208,-56,-175,-186,50,-56,-138,10,-62,50,-60,38,-97,-51,-54,58,-128,23,-23,90,-64,-18,-156,-110,-39,52,43
,-235,-211,54,-237,-74,-82,-147,-55,-124,-165,-260,-9,-343,7,154,-279,48,-332,-157,103,44,-335,-83,14,-246,-38,-92,-185,-208,122,-402,-17,-241,-255,-230,306,-229,-77,50,-304,-57,163,-304,-162,21,-276,-152,163,-52,-68,-330,-72,-120,44,-192,-81,-237,-205,-239,80,13,-93,-98,-276,-116,-82,-39,107,-16,18,-137,-39,53,-87,-138,-134
,12,-41,-23,18,-10,-12,-28,-21,-8,56,-93,-23,-81,98,108,-159,29,64,-243,71,52,-57,-40,-14,-238,-62,-106,30,-154,-1,-131,-37,13,-195,7,-63,-180,-201,14,-164,-47,-16,-136,1,72,-136,-189,-75,-155,69,55,-67,47,-70,15,-205,-54,-33,-75,-8,40,25,-82,-11,7,-68,-136,-93,-74,-8,105,-35,89,49,-147,-111
,-130,-19,-68,0,-103,59,64,-86,-125,83,45,86,-194,63,10,-8,9,-75,-32,-29,47,-24,-114,-102,-39,-178,-34,-46,6,-74,-43,-58,-31,43,-46,39,69,-143,-99,-62,-34,68,22,-80,80,-42,2,34,-87,37,-103,5,63,-146,-75,-130,-96,62,-62,-5,-62,33,-45,-85,-131,-130,-158,-129,107,3,134,-92,-66,59,-73,-121
,27,73,-130,-80,-82,88,-24,-60,-121,-50,-60,-86,-46,-29,-3,133,-51,-100,-32,-142,-21,-58,-140,-49,-32,84,-143,-47,36,-92,-34,115,-69,131,-105,7,-14,72,-60,-4,-91,60,123,-135,-72,-120,1,94,119,-62,104,74,-39,-9,72,15,-76,-81,-92,-80,-8,50,55,-85,-114,-96,112,69,-21,91,-45,23,110,-8,117,-66
,-66,-55,-81,71,61,-18,52,106,-90,-29,-103,55,74,-78,5,-12,42,-87,-8,105,29,-63,2,-29,-125,-81,64,-89,-64,23,-133,-45,3,65,-35,-17,106,-121,-43,13,-39,58,168,0,-41,12,38,-48,155,42,75,-79,-116,-4,175,-20,48,-29,87,-98,-34,66,19,-61,112,-79,-34,-46,30,9,43,-47,-29,-51,-62,50
,-99,299,-238,57,24,-67,-140,197,159,81,-247,365,359,-14,34,311,153,-130,185,18,-115,308,-22,-287,317,56,-514,80,107,-233,258,-101,-416,74,-29,-318,152,-102,-267,226,-30,-255,84,23,-89,191,-32,-450,185,-165,-258,100,-162,-216,199,-264,187,96,-242,-85,107,200,58,82,-109,-126,-135,-171,81,-79,-23,-68,47,42,-124,-261
,-30,32,-155,-131,11,-10,29,54,14,38,-44,-85,-48,-4,-123,-38,-34,-8,135,89,-117,68,-155,-148,27,-87,110,35,-149,59,-86,-46,-117,43,64,-16,9,3,-83,68,-130,-118,23,-147,-33,110,54,43,-125,49,99,-80,-71,-97,109,-57,-24,5,-72,59,-125,99,-132,-8,74,-13,-54,-132,-77,-61,24,57,-2,-133,45,16
,-34,-178,-68,-157,-94,-32,-45,53,63,-7,-10,-120,97,78,-19,80,-56,102,66,49,-78,-64,90,115,1,5,-101,20,55,97,39,62,-139,-63,44,-19,-119,4,-12,72,-2,47,-144,-33,-66,-18,20,-80,-173,-94,-95,-62,-24,79,45,-9,51,-60,-1,-22,-82,-5,29,15,53,-56,-64,72,-68,126,-91,-9,-106,-2,67,18
,-118,-133,311,129,111,28,-90,-67,-226,90,-195,-79,48,63,-97,-177,-26,-99,-160,-154,-58,-115,-130,-62,114,13,-67,-16,144,-160,-135,116,65,-85,-135,44,-45,30,-214,60,-141,-143,18,-84,-101,116,-109,-324,56,-131,-114,6,-16,210,101,-100,-11,-2,11,-9,-139,-87,-43,-90,150,11,172,13,5,-27,-97,152,-61,-82,-90,32
,82,-32,-52,49,-107,-96,55,70,92,-135,-121,-91,-119,-114,52,-26,-64,-93,-23,-101,-3,-133,21,-29,-187,-127,-95,-162,70,-50,-190,-79,-139,19,-124,39,-165,17,-127,-207,24,-24,-9,35,-97,-265,-52,-34,-11,50,-64,-187,-69,1,-3,27,30,-222,69,84,-35,87,-79,-14,79,-5,-34,25,31,-31,-73,11,-138,57,61,-37
,59,-149,261,-104,-25,67,-77,31,75,-127,111,-262,-79,-244,198,-105,-161,-16,-80,-99,-54,42,-113,-243,-32,-103,-259,-140,-29,-216,-78,-47,5,24,-198,-249,108,-122,119,140,-400,-85,-76,-114,-71,-167,89,183,-272,-15,-33,-230,112,79,-214,11,-321,-133,-74,118,-64,11,141,86,-122,-77,6,-180,107,48,143,17,17,-39,-123,-1
,12,-46,-17,208,-66,-201,163,-63,20,-33,-170,-30,-256,-280,156,-243,-80,-54,-187,-137,-97,-78,-201,-10,-322,-152,-275,-273,45,-402,-282,-126,-237,-172,-54,-160,-289,-132,-327,-108,37,-90,-208,-57,-110,-278,-104,-116,-260,-29,-14,-245,-137,31,-228,-121,24,-123,-86,163,-18,-156,-235,-198,159,102,129,19,108,208,127,194,21,-58,-55,-75
,97,18,-149,109,-179,-9,-9,-183,-46,72,13,39,-125,-203,34,-46,-83,-79,39,-128,-162,-89,-184,-150,-10,12,-14,38,-131,-124,-157,-28,-63,22,-229,-71,-51,-162,-103,-21,-177,60,-38,-34,37,63,-101,-2,32,-20,10,-1,-216,110,-1,91,43,9,-196,93,62,14,42,-124,-146,-59,39,-19,-98,84,85,47,27,9,-97,-87
,29,-12,-39,10,-145,91,23,-197,-77,-43,-241,-6,-325,221,-63,-425,-28,65,-225,-14,78,-297,97,70,-257,42,45,-223,-203,16,-143,-129,-1,-91,-69,-4,-213,-146,-9,-132,7,17,-141,-113,9,-77,-67,0,-205,-119,-34,2,-156,-79,-55,-263,13,-96,-189,-39,93,-131,1,-189,-2,23,-22,-3,-154,-87,-3,-201,47,16,149,-214
,-270,-100,-368,-73,-143,174,-107,-137,-68,-283,-107,138,-78,-130,111,-265,-35,-973,-217,81,-18,-239,-115,19,-315,1,149,-254,65,-42,-169,-44,98,-228,124,-251,-262,73,94,-75,-123,8,-254,-143,223,-246,-69,-287,-236,-49,-127,-305,46,47,-143,-130,246,-108,-47,-126,4,-1,-218,-251,-120,112,-15,-410,-59,16,-21,-92,-150,4,-14,-68
,-102,-50,108,-353,-133,176,-218,-57,-547,-324,18,-70,-149,65,-185,-246,-76,-44,-326,-68,60,-345,102,155,-267,50,-113,-119,10,-231,-336,50,35,-209,46,-310,-284,-94,125,-354,-40,-408,-296,-64,-111,-186,97,131,-280,-43,118,-238,-47,-388,-196,-46,83,-270,42,178,-57,70,110,-96,44,-24,-190,-202,-25,-118,51,-252,13,28,-24,32
,64,-26,-70,29,-79,-66,3,-118,-35,180,-106,-65,-253,75,-5,3,195,107,77,-257,-155,163,-226,-104,184,-140,33,25,-164,-239,62,-138,-164,93,-149,-111,214,-143,-112,48,-22,-57,108,98,-87,135,40,21,49,-3,-37,65,61,64,133,11,-14,64,-19,-34,8,-55,103,-84,-92,-41,-97,-239,-151,-57,143,-166,2,-56,50,-118
,75,-46,-163,-24,-6,54,-33,39,53,115,38,11,17,76,82,-24,-99,-42,56,26,-62,-37,-48,-24,57,85,24,-98,-34,54,-68,-63,-193,28,-109,51,-140,-90,-47,-41,45,-82,-99,-81,-45,91,47,39,121,-43,-27,17,-13,-102,123,-72,68,12,-54,-91,33,-150,81,-66,56,45,-30,7,64,16,-51,-127,-30,-174,-47,-49
,66,39,56,77,-74,-154,137,-54,-133,125,87,-386,8,-118,-290,94,-120,148,-50,-248,-12,-101,-140,23,-126,-43,73,-8,-52,68,102,-34,-441,103,-151,-359,-2,-144,49,-72,-73,149,42,-100,97,133,-7,-129,134,136,-30,41,-158,284,2,144,-420,-15,-38,-112,-15,-89,-140,-227,-37,76,-48,-131,22,32,-207,-172,18,-117,5,39
,-119,13,-339,-336,34,-10,-136,-137,132,-339,14,33,-229,-29,-250,-298,-107,-414,-122,-27,178,-298,-122,126,-300,-176,75,-173,-28,89,-210,-85,-190,-144,-150,153,-258,-78,-214,-199,18,178,-214,-169,159,-305,-108,-329,-208,-147,-55,-307,-115,122,-252,-185,96,-160,-179,46,59,-47,193,-151,-99,-165,-55,-366,11,72,-425,-44,-131,-128,56,-496
,-126,56,-378,-167,-279,159,-297,51,-102,-434,-164,-55,-104,-229,300,-239,-169,-119,-205,-165,-134,-148,-114,73,13,-211,129,-78,-78,64,-186,-82,36,-236,-96,-280,-216,-147,90,-65,2,-104,-134,-18,21,-51,-55,315,-58,-178,-1,-129,-83,-207,-94,30,-145,-38,-123,-26,-174,-125,-154,-88,-223,-32,-64,-250,91,-45,51,68,105,42,88,18
,250,-105,116,212,31,20,-59,-41,33,-102,59,-1,-261,-107,-25,-118,41,-8,-104,-33,2,-176,-61,-32,-137,163,-28,-101,-62,-106,34,-21,86,27,51,-2,-82,4,53,-54,-41,-90,-122,5,-44,-59,108,-165,-138,86,52,113,-33,-57,-72,119,-109,-167,-16,23,-88,16,61,90,-76,16,-45,63,-39,-12,18,39,-34,-2,-109,24
,126,-30,-127,-119,3,-115,-11,-41,-4,-93,42,-80,12,-35,32,71,-174,5,100,15,-40,18,38,-35,-137,-36,-69,-55,-122,96,-74,9,-123,52,7,-88,-88,-98,-96,122,-150,53,20,1,73,-52,41,-27,86,99,-32,-30,8,27,-7,-39,17,-39,-4,-27,14,-67,3,91,45,33,-104,-24,26,10,15,-81,37,-184,71,-83
,-115,-68,-40,97,-39,-27,-71,-7,25,-136,-33,13,-62,-147,81,60,-55,-114,88,-50,21,-20,-111,0,-43,-72,-128,-106,-16,92,92,1,115,-91,-109,-103,5,-126,32,-67,-33,-93,97,36,53,16,-9,-85,-121,-108,-16,-5,-151,-114,-1,15,-87,24,29,-18,19,85,70,-144,81,-161,15,81,-52,-74,-31,31,-71,103,-21,-33
,-259,67,-57,87,-37,-38,-321,-126,-17,147,-159,-52,-249,-207,221,-150,-125,13,-15,-127,-85,-17,-107,-112,-7,46,-60,-229,29,60,-186,74,29,-118,18,-104,-218,131,-153,-62,65,25,-87,-96,-20,18,8,61,71,-193,-33,12,-111,-10,-229,100,-137,-150,-70,-76,47,77,-35,-55,109,-7,-70,6,77,48,7,-34,-79,112,7,-68
,-1,-62,85,-174,7,72,-86,-42,-132,-164,-135,224,-193,-263,-140,-31,-101,-65,-9,-51,-90,-89,-50,50,2,-105,1,-58,-83,-68,-95,7,-102,10,-125,-59,-132,-155,-188,-152,-180,10,-275,-113,125,-89,-20,57,-42,-175,-135,13,-114,135,-12,33,-268,-78,69,-121,-32,44,59,-55,39,-78,107,-240,-69,122,-54,-182,-44,-104,8,-67
,-176,-111,-172,-8,-151,-94,-34,71,64,-156,-2,56,50,-189,-126,44,-125,-101,83,83,-41,38,-94,53,-115,-58,47,-157,85,-8,-14,-106,-162,-132,47,90,25,-131,-191,-199,-70,35,70,-14,36,78,78,-134,-54,25,-83,-13,-141,3,76,-21,106,54,-59,29,-22,13,81,-152,-96,-56,-8,-243,-111,61,-143,-93,18,34,-44,-103
,3,-305,-16,-47,-72,177,39,-30,42,-177,-48,20,44,109,185,-14,41,-230,64,119,-307,40,15,-111,30,-72,-361,-115,-136,-520,-168,-116,-24,-20,-171,115,38,-165,58,-90,-197,160,21,19,-111,-37,-114,49,-20,-121,5,-45,-57,180,-115,-132,142,-217,-58,-565,-107,-53,-67,-342,71,-16,-119,-208,24,-129,-13,-283,-47,-183,13,313
,-204,-77,64,-272,-185,-30,94,-61,-57,63,-227,-87,97,-22,-358,207,-59,-431,343,-137,-378,184,-111,-328,254,88,5,138,81,-123,194,-86,-168,241,-7,-428,90,109,-441,130,5,-257,164,-141,198,102,-97,220,216,-3,126,249,10,-178,292,-294,237,146,-239,-258,8,-89,76,-49,138,-90,65,-7,82,-44,-39,54,24,-127,-2,3
,-73,14,36,-158,71,-139,87,53,-130,-39,-88,52,-119,-158,-37,-101,-101,-36,-78,-93,24,-118,35,-59,81,-5,-37,-83,-120,-90,6,56,-121,20,14,4,-10,-114,7,-99,-149,-67,3,-21,-28,46,-115,20,30,-125,48,-57,24,-84,-2,-99,-28,-119,-46,45,-41,37,29,-61,30,79,-91,69,58,-15,-98,-40,17,-102,-13,-52
,-58,-95,-47,-279,13,-370,-125,-147,223,-319,-37,-34,-250,-86,-3,-69,-90,173,-237,4,-73,-51,128,-616,-154,-12,-44,13,-69,76,-173,-210,166,-301,-78,-160,-179,-40,-141,-167,-229,142,-104,-134,-21,-319,-90,181,-326,-118,-362,-251,-54,194,-332,-139,-83,-132,-167,11,129,-128,-26,-281,-170,64,10,-349,79,-101,-38,-181,-29,-94,-147,-381
,-264,-97,-97,-140,-148,210,-309,-2,102,-388,-177,99,-27,-3,-266,-63,133,-305,-8,133,104,-123,26,-77,49,-61,0,-107,64,-132,-206,-79,-355,-258,-64,130,-212,-24,144,-127,-58,-186,-287,-72,-103,-228,-84,-415,-338,19,64,-353,-43,39,-339,-111,148,-175,-45,-268,-148,130,-93,-322,43,12,23,57,-135,-10,-45,-51,-103,-63,-140,-47
,-32,87,25,-9,-118,-264,-183,83,161,-33,-67,-126,11,-99,-407,-28,-264,307,-65,-60,-170,-121,77,-368,-110,-49,-94,89,-51,117,40,-210,136,-80,15,-34,-10,67,-6,42,-145,114,27,-7,149,-119,-162,80,-83,-58,65,-42,132,-207,-45,30,-194,-97,-33,-206,-12,-5,-40,-27,-48,-38,-67,-131,-58,-136,-87,-81,13,-128,41,-194
,-8,-31,-83,-167,-2,-140,75,-81,-63,-67,6,16,4,11,-17,-31,28,55,-49,79,-6,36,-54,-79,84,-14,29,101,-5,-106,-121,-12,77,22,56,-118,39,27,32,77,-87,-3,-119,-153,46,-104,35,74,35,5,34,-70,70,63,67,-76,-106,76,-29,-9,94,-65,-91,-24,128,6,22,-161,-9,-45,-39,-14,58,-155,-150,-96
,-266,-83,-125,-73,61,-188,-124,-121,-76,50,-55,-98,-74,-88,-87,-273,39,-86,-138,-19,-63,-135,-170,-59,-212,-44,-10,-125,9,79,-134,-1,155,-251,-162,-106,-194,-182,97,-275,-208,-27,-79,-111,50,-132,-212,186,-23,-189,-174,-208,29,-63,-94,-58,-208,-177,41,-370,-121,-213,-196,-23,19,64,230,33,-277,-70,-54,128,52,136,-43,106
,-189,-75,-134,-259,4,-222,-18,-34,-29,-361,-119,-68,-271,-89,-336,-115,-97,52,-127,41,104,-204,-149,86,-76,-20,43,-11,-50,68,11,-41,-267,18,52,-67,-163,-86,270,-226,-134,-86,-129,-105,-206,-85,69,-276,36,-30,87,-51,-49,30,-138,-32,-24,-58,-56,-56,-87,-136,-83,115,-9,59,-150,80,-272,-217,-150,6,112,140,-4,-94
,245,-135,-295,145,-39,114,42,-124,-329,56,10,-393,172,-55,-307,94,-18,-96,95,48,-272,93,58,-167,81,-52,242,-16,56,175,34,94,232,121,-130,65,172,-128,-278,154,-124,-383,61,-8,-98,226,-85,85,141,-138,-407,38,-195,68,245,-250,48,52,-57,8,-161,59,69,-14,-130,23,-107,-86,119,-89,-85,-1,31,-11,-97,49
,78,59,-68,-9,38,41,-93,46,56,-81,-41,-149,-23,134,-60,-22,-97,54,-121,-24,-169,-42,-228,-67,-39,-108,-66,-37,-104,18,54,-204,-109,-33,-138,-143,55,-94,-50,27,-132,25,-95,-96,-55,-142,22,-99,144,-31,2,23,-95,-71,81,45,-69,-45,89,-10,85,-33,-34,115,-6,-117,-116,-142,-27,-73,22,71,-79,-118,-39,7
,18,41,-139,35,29,7,108,52,-88,26,64,-160,-68,-31,-143,37,-148,-28,-121,-144,8,-65,-110,-133,-215,11,-65,-29,7,5,49,-39,21,-55,19,-60,25,-87,-36,25,-25,69,-4,45,-7,125,-24,-84,106,-28,71,-29,20,-5,78,-52,-74,28,48,95,13,35,-144,-82,56,-6,-118,38,41,-8,32,-111,-137,-64,-117,-178
,-169,0,156,21,58,-6,-65,-54,46,107,-38,-109,71,-41,90,-128,59,-36,5,27,-71,65,4,-38,-63,-134,-85,-57,35,3,134,23,27,167,-60,74,-50,68,-78,-13,-115,22,137,-142,-112,69,-12,-155,94,-175,57,2,65,-227,-130,-53,-116,-58,32,-79,-144,-24,138,-150,84,14,22,28,-66,-54,-73,-99,32,-132,7,-76
,1,24,-21,2,1,-142,79,-29,67,-117,11,33,-59,-87,5,-19,-174,-92,-86,-60,-17,5,21,24,-85,91,-37,38,-37,27,51,64,-52,-70,29,-28,60,60,65,124,-133,45,-77,18,-122,-19,-137,1,104,59,87,-96,55,67,-40,75,-43,44,-139,-12,55,-105,91,-26,-64,-15,-12,42,-38,9,-55,83,-40,-55,100,-57
,102,19,-49,122,36,-137,0,-112,52,-167,-101,-218,125,-239,150,89,-111,19,164,33,-54,72,-22,-92,34,-38,44,66,-112,-34,33,95,-273,2,65,-205,165,-199,227,131,-161,204,130,-218,-50,-50,-243,45,-29,-225,-205,-54,-70,-209,-50,-113,-175,-32,26,-293,-113,90,-87,-318,-160,-42,-16,47,-154,-8,-98,-101,-90,35,19,-30
,-164,79,144,-178,-59,61,-166,-207,183,-402,-84,-277,-223,184,-255,-216,183,-192,-55,123,-413,64,86,2,-285,-72,26,93,-50,-94,-85,-118,61,-26,-119,-104,-128,-64,-798,-133,88,-723,-115,93,-570,-47,-22,-191,-130,-60,-209,-121,-43,293,-341,-2,-298,-41,-126,150,101,105,-105,-126,146,59,32,30,133,-126,-150,-127,-146,-27,-90,-260
,-79,-56,-151,81,-169,-132,26,-147,-17,-94,-108,-73,12,-70,74,104,32,53,98,-174,54,96,-65,-151,49,43,-146,23,113,200,-91,-125,-212,-71,20,-199,35,-110,27,-136,39,122,-67,-112,63,37,-126,-135,40,41,-69,-151,-104,-177,13,91,-208,-130,66,-92,-99,-40,-8,0,-45,-101,-135,-203,49,-94,-27,-171,60,-9,-116,-134
,-415,-109,175,-269,95,-68,82,-28,-3,23,-128,-83,2,1,-232,-27,54,-9,41,-96,-337,-88,-155,-117,67,-91,103,-133,-107,-437,-9,-131,-219,-166,-112,-281,-82,31,-360,-107,49,-548,-143,-79,-259,-99,-1,-203,-28,24,-309,-14,-12,299,79,-44,-75,117,-244,-152,120,58,64,-49,124,2,-14,33,-165,-85,-98,-101,129,-101,-135,-420
,26,-40,-74,-53,37,-7,32,-91,72,-61,-110,31,-151,-5,0,-52,22,65,6,78,-37,42,103,41,67,33,43,-80,-59,-33,77,101,-103,108,17,100,79,16,-58,-41,-57,54,91,60,54,84,-18,-98,5,40,79,64,-57,-33,-34,-18,-50,-64,53,20,-71,133,92,-6,-128,-74,61,-56,33,14,-44,-94,24,-3,72,-16
,-213,-154,44,-291,-40,-84,-94,-56,-31,-18,12,20,-19,-51,-67,45,-71,-76,7,-6,-165,-51,108,-184,118,-34,-97,-96,-49,84,42,112,-70,-33,26,-30,-72,-130,-90,-73,-145,49,-14,-99,-30,-183,-100,46,-133,6,77,-109,18,3,-157,20,18,-75,-14,36,87,-6,-3,-42,-66,8,50,54,12,53,-63,-24,-93,42,58,-146
,-81,46,-19,-196,-8,-57,-166,-28,-36,-84,18,48,89,-90,5,14,-105,-132,57,-34,9,-15,68,-21,88,-84,72,-108,-74,-130,-80,104,-11,-6,-91,17,-138,-140,-73,59,-124,-109,105,-77,-121,-22,-61,121,-203,151,121,78,-89,-204,14,-26,2,-81,-31,-269,59,5,8,-126,8,4,-40,-105,14,-140,39,110,-109,107,-35,9
,-91,98,23,-83,-70,66,1,-39,-101,-89,-16,51,108,140,-12,91,-90,-16,-52,-81,8,-21,-44,-5,-25,59,77,121,12,-82,-49,31,28,-33,50,-43,-14,-20,31,143,-94,78,-48,-16,30,52,-50,-61,-60,-53,50,7,24,-45,-22,64,-119,126,-117,51,74,41,16,-127,9,78,-64,-41,-57,-4,49,29,-44,93,-31,-102
,-46,32,-259,-155,-113,281,26,-426,-255,-116,106,48,-104,-7,-6,-172,-176,-415,-172,-30,-205,-224,-59,-71,-148,44,-128,-70,-65,-131,-309,-18,-109,-217,-87,-130,-265,-91,26,-277,17,17,-286,105,-149,-195,171,-267,-77,172,-159,-96,-19,-162,-170,17,-1,-112,3,-318,-127,-181,80,-49,-171,-103,-425,-16,177,194,86,207,76,157,10,-114
,-11,-198,135,-83,33,-128,-111,-26,57,-107,54,37,-147,-129,-59,8,10,-5,-40,-125,-131,-180,-25,-19,3,10,61,-56,-137,67,-46,80,-30,53,-54,74,-102,-2,-167,-184,-92,-130,-84,52,24,-47,-36,-141,-28,9,40,-98,-64,-177,-12,-102,33,-186,-71,-66,-3,-65,0,-121,93,-44,0,17,37,-88,65,-120,-6,-23,-7,93
,-32,-172,10,-135,-178,-3,-240,0,-133,-13,-96,-65,8,78,-134,-148,-34,-13,65,29,-188,-60,46,-112,-165,-35,19,-85,22,-37,-76,29,18,-86,31,85,-144,-116,-28,-2,63,96,-90,34,-45,-5,-65,-99,-40,-60,39,5,-40,-135,-119,56,29,-125,-27,-8,-42,-30,-64,-31,73,-66,-46,-11,86,103,-82,-197,-87,42,-67,33
,-69,-30,-65,-48,-205,4,-56,-100,49,-110,-50,166,-114,39,-241,-113,138,73,-238,60,-97,-156,-71,-25,-150,35,136,133,-68,31,158,-121,122,56,-224,165,-18,-148,-104,-113,-9,-368,-147,-131,53,87,1,-184,-16,-183,-184,-48,-63,-194,103,3,137,-199,-25,-356,-179,-72,53,-250,-60,-32,-88,-504,51,61,-49,-331,-20,84,-333,-407
,-41,-24,23,-139,-3,-8,80,-57,48,63,0,-122,-147,-5,30,-33,-114,-57,-69,-95,-122,-230,-94,72,-107,-31,-23,-226,-79,-60,-99,-108,18,-78,-165,43,-179,-135,-141,-175,45,61,-161,-176,-98,-1,-53,44,-124,-124,20,-3,39,-96,92,6,-67,-116,-32,46,-78,61,-26,-84,-26,-163,72,-18,67,-45,-145,-210,-63,-24,-126,-23
,-162,-42,-28,-130,-165,-31,-175,79,3,-358,-122,-13,-33,33,-294,-66,89,-116,-52,-97,-43,-142,63,-275,-147,7,-94,27,89,-367,-39,-39,-264,-122,-3,8,-106,23,46,-154,-129,-239,55,-25,77,-194,-186,26,-57,30,-20,-165,-161,-141,-228,-33,135,-215,-136,74,-111,-97,-62,155,-18,-141,107,-171,-44,148,116,3,95,-50,50,-128
,-37,-278,100,-112,-34,24,95,-11,-13,-13,-49,36,-272,-52,44,-438,132,-42,-470,80,-215,-463,139,164,-320,-122,-243,-355,138,65,-58,-289,-397,-111,-417,-236,125,-499,86,36,-388,94,-128,-92,166,-12,-84,105,-83,-137,-242,110,-218,31,-87,149,-365,-145,-141,176,-148,-71,-1,-365,-42,-51,-159,-326,-16,-150,-57,-113,159,139,68,-17
,-49,-73,-179,-42,-127,-140,-193,-105,25,-239,-87,-6,-56,-56,-139,-86,-139,25,-65,-137,-45,-35,-238,-198,-123,169,60,-92,-148,-40,60,-147,-51,43,-133,21,-23,-214,27,72,-108,-199,22,66,-25,51,-142,-184,115,-105,9,154,14,-59,141,-126,-74,83,85,-137,34,81,4,62,51,9,-38,17,-21,96,-61,-35,-1,50,-34,76
,-538,-134,171,-296,-132,-14,-216,-15,181,-289,-132,-168,-36,14,-420,-201,-151,-271,-38,116,-278,-120,-30,146,-170,-213,221,-157,-23,-89,-135,-108,-905,-170,-14,29,-186,-25,127,-304,94,11,-337,161,-206,-291,-106,171,-166,-19,-5,-143,-236,252,-309,-134,-60,-319,6,-126,38,13,-148,-30,-134,19,35,66,36,-87,-168,-181,-163,-132,-7,-244
,-131,28,-28,-53,-15,-138,47,22,-136,-76,-114,33,128,101,-21,-69,-104,-23,-66,-135,-29,38,113,-79,112,-63,-19,-88,-18,-119,134,-126,-12,51,-117,-143,-49,-127,-55,-39,-100,-57,-54,-10,21,-77,89,-86,-128,53,89,12,-139,91,0,36,89,-61,-39,-58,60,27,-37,-142,-46,-86,59,-113,47,26,11,34,-23,-63,-128,18
,-171,-67,28,47,4,-169,-25,102,48,-102,-183,-103,-145,-74,-123,93,-19,-233,-67,12,-114,98,-34,-120,-83,49,-211,-63,-75,-76,-98,60,-49,40,-12,-115,-32,-117,-290,-2,25,121,-76,20,87,-121,-121,-223,-97,-201,-32,120,-163,63,112,-93,-45,-41,20,-233,13,-50,-59,-72,-90,-66,-117,-175,123,115,-53,71,-102,-85,-36,-26
,-136,-129,38,-132,-48,-167,55,20,-93,-33,-153,-99,-179,-137,99,-203,-179,-182,23,15,-127,-79,-88,25,-83,-2,104,-180,-182,13,8,38,-85,-189,62,-123,-153,55,-202,-209,21,104,-122,-216,90,-10,-122,-129,-222,-65,56,-221,-29,-10,-164,55,-12,-119,29,5,-136,29,89,-120,-59,87,-81,-75,70,-82,-41,85,-68,-49,34,122
,-102,-161,-131,-157,-133,-130,-93,-42,-89,-2,-77,149,-42,-70,121,-53,-43,-6,-52,-45,-76,-118,-59,-55,-147,-193,112,-220,-42,-190,-126,40,16,-132,-156,67,-58,59,-50,-126,-153,-97,-267,-36,-57,-53,-60,-108,-13,-146,-34,-49,-75,187,-177,37,66,-183,-157,-139,30,-153,11,-112,104,-80,67,79,64,11,10,45,-56,-45,-136,6
,-84,110,-179,-110,137,-349,-71,11,79,-104,133,5,-21,121,-14,-105,86,-239,-57,-150,11,2,17,-121,11,65,-25,-69,-102,-122,-48,26,57,-9,-36,-88,58,-140,-208,-49,-139,25,-98,107,-136,-75,14,-80,-43,-177,378,48,-28,-8,-222,-38,-30,-20,-105,-115,-18,-127,-68,-123,-66,94,-111,-140,-23,-116,73,-181,-123,-79,209,-95
,-90,-263,-103,-41,-261,-25,-24,-237,-128,-319,-178,-88,-453,173,176,-461,133,65,-279,85,117,-396,-53,12,-81,-53,-55,-196,-58,45,-264,-217,-48,-208,-102,37,-264,39,-12,-107,-176,-24,-264,-194,71,-181,-164,3,-94,-205,-29,-227,-292,-45,-53,-192,35,-255,-129,35,-26,-15,17,-247,3,-28,171,-139,24,101,-63,-205,39,136,12,-247
,89,-124,118,28,-50,-174,-85,28,5,-194,-11,-170,-185,258,75,-130,230,108,-432,284,-66,8,149,38,-152,83,-229,27,64,-463,-2,56,-131,227,12,-393,-144,-66,-35,139,27,-166,21,-249,-334,-12,-116,-7,129,-185,-95,96,-166,7,-85,-80,-156,79,-212,-20,-37,-29,-89,6,-164,-178,-161,-386,239,42,132,-77,-55,-36,-72,-64
,-76,9,7,1,-45,-63,0,21,-146,-158,-66,33,-137,-188,-4,-98,-31,-88,-92,-146,-34,-19,-107,84,-5,-9,-135,-36,-65,-171,-56,-129,-91,-99,-205,-89,-83,40,89,78,63,-39,-35,-51,8,-111,34,-218,126,-189,-137,-117,-120,-38,2,-94,78,-145,-85,94,-153,66,-75,-78,-84,-121,-79,-7,-20,151,99,-44,-163,22,-57,-62
,-31,-25,-87,25,-50,-65,-2,-172,54,-23,-25,34,3,-154,-2,-12,22,-82,-16,-77,-208,85,51,0,15,-109,-96,105,10,6,154,62,-216,-35,-101,-177,67,-23,-112,-128,-163,-31,51,-14,-78,-115,25,-104,-142,-67,-166,-139,-187,16,-159,-51,-12,-106,-102,79,10,103,58,-154,-172,13,7,-174,-147,-82,15,-58,-179,-89,-115,26
,69,90,-268,-8,-174,-301,7,5,-49,-28,64,-55,-38,-50,-184,-60,-22,-254,-35,-44,-165,-58,65,-186,-31,106,-190,139,-72,-14,7,-79,-138,169,-54,-115,-1,-3,-128,-54,50,-137,65,-90,-188,83,4,-2,2,56,220,-40,10,80,-71,-6,33,-29,45,-166,-166,108,-230,94,-153,-41,-112,-37,-15,18,-58,15,-43,54,35,-106
,115,-131,132,-72,-182,-60,-9,-84,-322,103,40,-41,-99,-84,-224,-168,-42,-127,-252,134,-34,-44,-28,39,-280,163,-27,-148,262,-242,147,-178,-175,-185,75,-23,-42,-68,145,163,-110,-15,0,-69,115,-8,-197,109,41,55,-447,-65,-137,111,-33,-87,-77,163,-83,-95,109,-127,78,-101,-83,-86,-204,-129,15,66,88,14,-141,-68,-315,-17
,179,-165,-46,-56,-141,-183,33,-41,-40,-89,-158,-111,35,153,79,-161,-12,-38,-189,133,-52,-312,-33,51,-242,-69,70,-250,-206,86,-143,-185,-111,-131,33,-95,-46,-81,30,-73,-169,-87,-192,13,76,-115,-136,18,-140,-43,43,-181,3,-58,-50,-56,75,-4,-260,-34,159,63,20,-17,126,-139,67,-241,-111,32,3,-19,-50,-52,82,-97
,31,-17,113,21,-116,-32,-99,-11,-141,-136,91,11,-110,-47,18,42,64,54,-122,-149,-82,116,-96,-138,-28,-66,1,-64,11,-132,83,59,90,79,-36,-59,-4,68,29,-28,-38,-93,-69,92,50,39,-138,-100,-105,13,36,28,-52,46,90,-107,-109,-83,-39,-117,34,-60,-48,29,-48,8,53,-16,-52,-4,12,-69,-108,-138,85,-75
,-205,-147,-119,-70,-138,58,79,-255,-31,174,-257,-74,-200,-110,42,-180,-80,-249,-25,-116,-165,-104,-92,-73,-92,-153,100,60,-130,-176,-104,1,-105,-73,-176,57,-213,-93,-191,-209,-86,-139,-148,-112,16,-130,52,-137,4,93,50,-116,-111,-12,-62,-127,27,-229,-80,8,78,60,-110,32,53,-74,-171,-140,131,17,45,29,10,62,17,-201
,-235,18,-349,-245,-84,219,-258,110,-263,-301,13,-190,-206,-77,-122,-195,-8,-183,-260,-27,169,-44,-189,-131,-34,-136,106,-39,-61,-132,-88,-203,4,-194,7,91,-125,-27,166,-37,-81,-207,-21,111,-183,-118,-67,-476,-208,27,144,-166,14,-284,-276,-97,-264,-191,-104,208,32,-122,-45,155,-4,2,-156,39,-6,-115,14,-143,36,30,-80,-35
,-12,100,80,77,67,1,150,65,4,50,-4,47,-207,21,85,47,-75,34,25,83,10,-9,-117,4,24,6,36,67,60,-33,-47,-65,-13,181,76,-7,23,49,81,66,10,44,88,-28,28,63,31,31,-60,101,-53,-4,38,-34,115,-86,5,-34,-54,-23,-159,67,-121,34,-55,109,176,-14,-93,74,72,89,97,-83,59,70
,115,47,32,96,43,-193,20,18,-178,-83,18,-72,-54,124,20,69,-202,-193,-131,-109,75,106,29,-32,76,-95,59,-21,-116,-98,56,-44,-163,96,25,-4,-100,-12,-92,-147,-26,-112,59,-10,21,-112,-11,-130,-65,24,-20,130,2,-2,42,-36,-46,48,13,-3,-140,-20,60,-184,35,-5,-126,-221,-118,-15,69,-230,-11,38,-95,18
,104,-117,-146,130,3,-3,-36,38,44,-22,-191,-117,207,5,-135,-40,-139,-79,7,-103,57,59,6,-96,34,-87,-6,44,12,17,8,-114,19,-79,-42,30,128,-12,-68,148,73,-45,15,32,68,26,45,-98,116,62,55,64,-33,-6,56,24,-109,-21,76,25,19,29,-34,-48,-53,-28,-3,-130,23,-78,48,76,17,10,-15,-63
,-87,-149,161,-196,-36,-236,-128,-154,-242,-266,-64,93,-239,-218,-91,-84,-190,-159,-251,-123,-305,-204,44,-51,-229,-71,-62,-300,-44,179,-172,103,-26,-236,-163,-234,-21,59,-288,-255,-90,-186,-271,-139,200,-186,5,208,-131,30,-84,-264,34,-253,24,-12,134,-76,8,134,44,116,45,-189,-100,-101,-132,157,-142,-152,-120,79,4,25,15,-75
,2,-155,-191,-96,-18,-45,10,-50,32,9,-102,-199,-101,122,-56,-36,31,-98,-144,98,-90,90,80,-58,-8,-40,-74,-124,62,-116,-3,-4,-54,23,-119,-69,-33,-56,-49,-92,25,-172,45,-47,-214,48,49,-142,-95,-71,-130,-37,49,-112,-90,20,-127,-123,80,-196,-35,-103,-107,-76,33,-19,16,-37,-59,-82,116,-1,-144,65,75,-183
,-35,2,-121,-111,-28,4,-17,-145,27,-192,-45,89,6,-31,2,-54,-149,-72,42,44,-32,-171,33,-182,-53,5,44,53,71,48,-105,74,-165,-97,-8,-1,-214,-124,-5,-124,-56,40,-28,-148,-89,-27,-136,-62,-195,25,57,-114,29,-7,15,59,36,-199,-76,-173,-19,-34,-116,-46,-108,-55,23,44,-77,-35,70,-139,-54,16,112,116
,-24,-123,61,-193,84,-312,-94,-111,-59,15,-153,-141,-147,26,-111,-184,-155,15,-28,-179,-5,22,26,4,-74,-128,79,-83,-97,-434,-37,-24,112,-117,42,-369,-114,-63,-152,-109,-221,110,-70,-196,79,-101,-205,255,-151,-106,-297,-10,51,40,16,-10,-184,-107,100,-84,-118,-122,-25,-35,-128,9,-16,-22,10,21,46,50,72,22,75,-93
,0,-216,15,42,-230,-103,228,-173,-54,124,46,95,-37,35,29,-120,161,-191,-167,-58,-97,-80,-69,250,52,-220,53,-57,-301,2,-7,-161,-119,-119,-153,-175,-70,-154,-59,-118,7,-156,-107,82,-329,12,-169,-356,-3,130,-281,-82,35,-147,-13,18,4,-40,-157,-186,34,21,80,115,-205,-57,-31,26,-93,40,-131,7,13,86,70,46
,-134,-17,45,-376,18,-207,-339,-69,208,-282,-57,-135,-167,-24,-145,-265,-22,-168,-203,123,-265,-175,-122,87,-270,-124,46,-149,59,157,-186,-102,-262,-78,-1,-195,-289,44,-242,-280,-177,237,-426,4,24,-176,-38,-56,-298,-84,-194,-409,19,195,-272,24,103,-269,-144,144,-80,91,-48,-287,-72,12,-35,14,46,23,-92,-266,72,-69,-148,-33
,-73,106,-5,40,43,94,108,43,28,-31,-124,-196,-99,78,85,-43,-194,-33,-27,-124,-104,-13,-91,-40,-13,-120,65,-44,-135,-75,72,-139,-41,151,-118,-93,67,21,-116,18,-91,88,103,89,58,166,-122,-102,-20,6,34,133,108,-207,88,-45,4,212,-104,-25,-35,-12,-18,52,-18,-47,155,-95,-44,106,-80,-124,-2,-135,-130,-232
,-47,-74,46,-16,-16,-20,-8,-23,-63,-136,-2,-138,-55,99,16,-71,46,102,-12,86,20,-220,27,-1,-196,-110,-8,-160,-39,-65,-140,-71,-60,-119,-83,-108,-95,-90,-99,-83,-125,95,-20,65,-132,-258,-18,70,-225,-186,-94,-174,-73,44,11,-131,65,-142,-181,-57,75,-83,-72,105,-43,9,153,-165,-81,-99,-45,-119,63,-148,66,-87
,-409,11,77,-375,-92,246,-295,-274,179,-258,-183,-18,113,41,-285,94,218,-178,71,149,-175,23,-76,-212,187,30,-183,178,110,-390,-3,-11,-258,-24,68,-571,69,-54,-777,129,-29,-180,12,-183,-143,27,-144,-162,56,-182,-20,81,-286,240,66,-10,-59,-6,-201,29,-98,43,-109,8,-37,54,-132,171,-36,-26,-127,-33,-41,-165,-71,44
,-311,-35,0,-571,-299,-44,-439,-42,163,-69,-148,20,-75,1,-356,-205,49,-755,-168,50,-31,-269,-4,-133,-90,13,-90,-49,-22,92,-144,84,-91,-327,185,-528,123,-63,-608,177,-89,207,108,-48,-101,-94,-61,107,-21,-59,-140,45,-15,-41,-123,-18,284,36,49,-524,45,-24,-106,-166,-23,156,-27,239,56,44,76,-72,-52,-49,-181,62
,-216,-23,-212,-383,-97,173,-169,60,-3,-276,-95,-445,-205,-73,137,-105,-152,135,-151,-56,-199,-186,-120,75,-187,-193,23,-235,40,-497,-262,-1,-431,-116,-140,133,-307,-122,-294,-260,-98,-238,-240,50,103,-53,80,-248,-203,-135,114,-212,-180,100,-277,115,-383,-185,-162,241,-152,19,-99,-70,22,-173,-138,-121,46,230,278,189,-223,-194,-154,-4
,18,66,69,161,-49,56,39,113,79,21,-62,40,83,68,13,165,-59,6,82,27,68,34,-110,-34,188,139,-31,-21,-19,-121,91,9,52,16,-147,-48,119,28,56,101,-68,20,34,-15,-70,131,-83,-103,119,-47,-139,91,-147,-88,15,4,-150,152,-13,-88,-4,58,52,-123,-83,193,-1,-138,-18,-26,-32,16,-103,15,-26,13
,37,39,6,-70,-139,-79,31,80,-60,-91,101,73,-246,-50,-8,-75,-136,-115,-58,105,60,29,79,-91,-97,-96,46,4,-40,-5,107,39,6,-9,-15,-69,-151,-99,28,23,-102,38,22,-44,-114,77,19,14,109,101,49,110,-24,-37,34,-27,53,48,-114,-104,-34,107,19,-97,-14,6,-33,78,-12,-99,28,-136,-20,-99,72,34
,-228,-88,9,-241,23,8,-127,83,-319,-118,-140,172,-215,-75,-270,-142,-285,183,-99,-117,26,-171,-136,95,-259,-57,-47,-260,16,-80,-310,-152,-190,-222,-149,-141,-192,-191,241,-154,-111,-346,-183,0,-92,-309,79,25,-344,-49,-117,-292,-7,-168,-56,-41,170,-262,-94,77,-34,152,6,213,-110,-51,-58,-427,-80,-74,-22,-215,-68,-95,44,17
,15,117,-131,72,-46,75,155,-318,50,56,-168,25,1,176,-198,-156,135,-253,-19,106,71,53,-100,-188,261,-266,68,19,-60,72,200,-182,167,81,59,-627,185,-172,57,95,-60,-18,154,40,-320,111,144,-509,181,-210,-291,18,-273,51,72,-192,17,200,-239,-2,127,-18,109,130,-57,114,-21,-155,-91,-146,-286,69,-32,35,-122,85
,58,-97,-106,-36,15,-54,-2,42,-91,-100,-13,-188,-152,15,63,1,-173,-341,-37,-128,-187,-63,-171,28,9,-247,130,98,-122,198,-73,15,-142,24,-138,96,-84,-86,-192,-22,-74,-119,99,59,-107,121,-132,-11,123,-97,-179,121,-50,-149,94,-43,-15,-117,-97,-57,20,21,-83,-33,-38,-139,102,-32,61,-19,62,189,-50,-97,3,156
,74,-99,-108,-53,12,91,16,8,37,-119,-39,-133,-217,21,24,-21,-139,-55,-42,81,-134,107,50,15,96,125,-13,-58,-36,-5,106,-79,-36,89,82,22,10,-95,29,118,-11,56,80,-75,25,-143,-151,14,-3,79,-34,-48,48,-46,-170,-76,15,26,38,0,-6,-44,-26,122,136,-72,39,-93,-68,125,46,-97,-11,-110,43,76
};

long weight_1_T_nvme0n1_16[2*256] = {
36,-288,1,581,-101,60,-52,-58,379,107,49,26,73,-18,93,-15,1,69,39,60,-102,223,113,-132,-171,46,-57,383,70,347,-250,106,-53,343,-162,68,-2,-40,144,-73,-198,23,-89,76,-18,569,269,583,-56,552,-25,316,-78,392,-247,359,-65,56,157,-163,17,48,358,-216,497,63,46,39,171,-91,50,-327,110,-51,311,-114,419,-115,48,-112,43,-33,10,131,-10,-2,90,113,453,-5,87,-3,-78,-131,5,13,-6,81,33,59,677,112,7,-162,113,-214,30,535,-126,22,-80,-247,-26,236,-160,-153,-105,-199,356,502,407,774,-162,354,-67,-78,133,-79,-77,-47,-23,-34,266,58,-3,421,78,524,99,372,126,367,-127,93,309,371,89,469,-130,445,125,-348,0,8,96,363,-49,82,425,-372,-251,359,-18,339,-20,1,-115,38,510,-62,38,-39,-6,-84,-149,49,44,545,274,-70,14,209,427,-286,73,-20,122,99,-94,54,332,179,-76,393,339,-8,-16,63,-118,-438,-1,-105,-22,36,-176,425,-142,423,65,15,4,7,-169,-48,-49,291,-34,131,-393,83,560,146,52,-102,54,-52,97,285,-62,2,21,-51,26,-4,-51,126,94,-15,90,-133,68,84,-288,-103,396,-82,-94,331,482,378,38,-54,390,319,-131,30
,-10,365,-1,-786,-35,64,-20,102,-399,35,77,-57,77,-15,95,2,12,75,49,-162,-84,-259,33,-70,94,-99,-73,-337,71,-245,125,108,126,-422,91,59,8,-14,156,-61,45,2,-13,76,-62,-507,-297,-341,-70,-404,-28,-343,-62,-463,124,-154,-94,65,-345,177,15,35,-282,220,-328,100,17,27,-265,184,34,177,-112,-51,-248,157,-431,302,0,-134,43,-118,11,-47,-10,-2,15,111,-443,-41,87,-13,-77,248,-5,1,6,83,-15,27,-690,111,-16,-46,81,86,-85,-447,91,18,-24,418,-49,-285,107,261,-129,210,-321,-527,-248,-577,250,-94,-82,-59,-340,-58,-36,100,12,280,-318,58,1,-461,-27,-391,86,-368,126,-240,49,90,-308,-445,104,-423,60,-421,-59,196,-19,9,19,-319,-36,69,-333,340,225,-286,-18,-472,-25,-18,-121,37,-610,73,38,102,3,226,143,56,33,-630,-340,132,14,-284,-544,235,73,-16,122,105,136,14,-452,-238,-71,-380,-349,57,-14,-120,158,487,-28,-116,-11,36,130,-481,21,-219,64,10,71,7,207,2,-56,-74,-38,-90,263,-109,-414,142,-30,7,121,21,-56,-406,-79,-90,94,107,40,-1,-20,-249,94,-32,103,213,20,95,91,49,-410,144,-93,-219,-487,-496,45,-34,-426,-408,198,29
};

long bias_0_nvme0n1_16[1*256] = {
-27,26,-21,-19,23,202,214,-39,22,-32,240,-30,-17,-20,525,54,40,-257,297,-26,-27,10,20,-9,-42,-114,-292,-351,-293,-108,-119,-253,-53,-23,-177,-241,-139,-192,127,-131,17,-187,-269,539,-68,-40,-85,-67,-37,6,-265,-49,143,-171,79,-59,-42,-250,-234,-40,-368,-2,-107,47,-98,-169,-41,51,-126,58,80,-12,-9,-221,-198,23,-115,94,-134,-51,409,-36,373,-36,387,267,-23,-30,-107,81,704,-218,-788,44,208,75,-109,549,-145,-47,86,827,68,156,-80,-16,-36,-43,-6,19,-25,39,215,-115,-1,-97,57,13,-75,130,-51,-102,37,362,-279,-76,57,-12,-38,-6,48,35,-32,483,305,-61,-47,-30,-245,32,9,-103,-5,206,-59,-181,-235,-4,-81,-199,36,41,-286,-397,-30,69,142,-252,3,116,-29,101,-246,-94,-193,22,-14,-384,114,-17,-406,60,75,-16,-14,123,-209,-122,-132,86,-325,-114,-190,-15,650,-299,118,-57,23,-254,-36,-10,-84,-184,-99,84,-358,-55,194,112,-35,-176,83,421,32,21,57,-58,497,-249,3,-425,-49,172,-165,-35,-225,-36,45,-47,-154,-10,17,127,38,-21,-179,147,123,-83,260,158,-193,74,-51,-63,763,-55,-402,163,16,-222,13,-67,-132,-37,-151,261,10,-48,113,325,-103,-29,35,386
};

long bias_1_nvme0n1_16[1*2] = {
-475675,521964
};

#endif
