
/* Trace */

/**
 *  updated on 07/18/2023 21:29:12
 */

#ifndef __W_NVME0N1_2_H
#define __W_NVME0N1_2_H

char name_nvme0n1_2[] = "Trace/nvme0n1";

long weight_0_T_nvme0n1_2[256*34] = {
260,-304,-157,122,-284,-115,208,-44,-330,135,50,0,50,-69,-122,377,-235,22,-3,74,-82,275,43,568,-499,125,-74,-440,-762,-5,-97,99,-272,21
,42,65,36,-62,128,-63,166,-16,-22,77,-131,-163,-21,49,-25,-56,64,24,640,172,-266,176,423,59,-298,-75,-209,253,-186,113,47,-183,-23,204
,-30,52,-1,28,-102,-141,-78,45,-115,62,-27,-71,72,-3,32,-76,163,-55,85,-145,38,18,139,554,-114,70,-124,394,-169,11,46,288,95,-89
,2,51,-79,164,19,-382,112,-3,11,-71,-112,-130,-67,-361,134,183,34,-69,-27,479,-246,-43,-337,-537,207,203,-310,-448,168,-166,-140,-695,3,-34
,-1,-212,80,-265,-396,60,-452,94,-372,-472,33,-89,-364,-88,-221,-232,-17,-20,346,-650,129,-293,-91,-705,-142,97,255,272,123,200,-107,57,149,-119
,60,-55,2,-156,-308,55,-138,-74,-151,-489,94,49,-381,-173,-44,-19,-122,106,-92,403,-182,38,-841,166,165,111,-258,138,114,-191,-314,786,134,167
,-279,129,93,144,-125,-177,-87,-367,65,-82,-129,-82,176,-24,104,-46,212,64,-15,400,-350,-470,-99,-34,-359,-424,234,268,63,-347,-62,367,-244,44
,-84,-120,-95,-107,-144,-44,-119,-111,24,-53,27,-14,6,-158,-56,-140,-206,31,110,135,56,-203,92,-117,-202,-98,32,-82,-28,-52,-8,-108,-191,-16
,99,-220,-54,-102,-151,-361,-14,154,-123,4,-274,211,93,-199,89,-345,241,-20,94,30,-685,-209,-65,-246,6,-218,-48,-932,-163,-61,-483,309,91,-46
,66,114,7,88,-103,-37,67,81,-43,-87,15,183,-53,63,-96,105,-253,-291,-82,-278,63,-238,397,163,-319,14,132,-316,-179,106,91,-855,304,-485
,-39,143,57,-4,-9,-31,1,-135,107,237,57,-126,-10,-7,143,135,-177,-119,501,-37,77,37,106,136,111,-101,221,91,-14,94,137,-788,-2,-186
,-7,-170,-99,48,-29,69,-64,55,-351,54,-55,7,219,20,-7,9,-123,80,106,-31,118,-22,-80,-76,67,-417,59,-55,132,-326,192,-135,-262,6
,-50,-282,-164,-340,-180,-9,-420,336,-12,-16,-199,172,-36,32,-147,-119,-21,3,57,-824,-1015,228,211,23,-169,127,-410,192,94,-151,-14,127,143,-63
,-113,224,-53,-34,-98,78,-270,148,-35,-63,-134,-197,-78,-212,-217,-54,165,-298,-15,368,89,52,13,53,-238,-137,4,60,-6,1,25,-33,-13,-211
,-104,181,-36,-110,45,6,52,294,-107,214,-233,11,13,-324,-189,97,-220,-147,196,390,209,-54,42,-62,-620,-149,-48,-4,-20,199,139,-225,153,-363
,-197,94,32,-243,-113,-239,-117,-256,5,-33,-46,-340,-67,55,33,-218,-140,-93,2,326,28,-144,7,128,180,100,-63,-33,-231,-282,-79,-438,223,-146
,132,-283,85,166,139,-170,109,-257,61,-61,-268,-390,132,-256,-306,81,200,92,-165,259,233,-273,-40,412,-312,-62,-2,208,54,-91,-81,280,224,-125
,-4,10,28,52,-82,26,-121,29,17,-97,-49,-28,-92,98,18,-174,45,72,228,123,111,-57,-108,210,76,-109,61,-37,-76,3,-36,-699,-119,-82
,-80,-107,-139,-137,8,24,-102,27,-44,78,-144,-68,84,48,10,-77,-107,-79,103,-116,35,24,13,-38,46,-97,-100,123,9,-81,48,-95,-6,-52
,-11,-163,84,-43,39,63,-108,-93,-134,-40,-141,-36,88,-211,56,-70,174,-130,-47,-24,75,102,-352,41,-145,58,199,-69,148,12,164,-840,75,-46
,-124,175,55,67,-129,-14,-156,180,-193,61,-240,-30,-166,-198,-187,-145,108,-132,165,90,134,-55,-140,228,162,34,215,-102,-32,-266,56,899,-142,-19
,-37,-544,-195,-208,-44,-83,-81,7,179,145,98,-79,-51,97,136,33,170,-433,0,-264,-154,-31,-94,-394,36,-32,-51,-247,-564,-271,-113,-64,-866,119
,156,51,4,-19,-5,6,-116,-51,-3,-166,-351,367,-293,311,-384,152,72,-1,-198,135,-22,-1,47,-440,11,11,246,-90,-13,2,53,-951,-31,-140
,-769,-533,144,-625,12,20,-1004,-242,-80,-790,-323,-161,-730,47,15,-314,311,29,-162,-96,170,28,-90,-385,-134,-61,114,-151,68,-390,17,217,-621,-31
,-137,133,-210,-29,-101,95,-124,184,-126,92,60,61,-21,90,-31,-170,-154,50,-834,-874,331,-291,-379,50,167,-15,9,362,243,-388,118,-375,132,-133
,-23,-273,-14,-112,-442,-41,-22,-255,-65,-153,-196,-206,-238,-86,-277,-36,15,163,-459,-2,-289,-311,281,73,292,82,-87,-242,-310,-103,97,20,-21,-293
,-196,-201,-251,-215,-182,-329,-89,-807,-47,-18,-2,51,-215,-266,125,-252,-60,-30,47,-288,-172,143,1,-276,-454,48,43,784,-99,130,86,411,-407,-36
,232,82,-1,171,-6,3,190,-23,71,140,-284,73,30,-561,-159,108,-95,16,-83,251,71,-215,-248,170,-508,-112,-169,189,-138,-21,-658,247,275,21
,91,39,-350,128,-77,79,177,-97,-273,87,145,-414,163,-91,-428,86,-223,74,-100,-159,-253,2,-108,-201,166,-518,2,-15,-473,55,48,119,-235,-341
,97,-189,-57,34,-482,72,33,-47,-108,34,184,-131,-191,191,-134,46,-159,-161,37,218,226,-11,152,158,264,-148,51,-196,126,-39,-12,357,-283,-74
,-17,13,-86,53,-41,52,164,97,-80,-70,50,39,136,-199,-75,-18,-41,9,-218,80,15,24,-75,-45,6,19,-258,56,50,-65,-168,443,70,15
,-173,104,-65,-211,125,-39,-104,115,21,16,38,-264,85,90,-379,50,73,-262,244,-18,33,-38,-15,492,254,-34,39,47,239,-210,52,-39,-509,-754
,62,-365,-121,49,18,103,139,-581,-97,133,-16,-60,125,-180,117,245,-265,-92,-67,-177,177,86,247,620,-544,-172,-90,-229,112,139,69,-136,210,-231
,-98,-123,-46,62,-30,-49,-29,-117,-160,-118,-159,-34,29,60,-111,89,-159,-10,-105,69,4,71,-73,-114,-127,-10,63,119,-12,-40,114,39,-106,32
,-94,-17,14,195,28,11,-34,-123,-23,-77,-27,-480,36,-60,458,-58,112,5,-37,-312,-15,2,178,-141,13,-25,-110,-157,-7,3,12,-1,-527,-318
,-194,-4,-278,28,124,-235,-57,352,-12,-1,-335,-51,162,-123,144,199,-141,9,-186,165,111,-99,-138,296,90,8,241,310,45,-248,-91,-157,29,-436
,93,168,-393,178,-193,77,-41,-7,-17,91,-196,-15,152,-193,13,127,140,-86,216,-481,85,95,-1,381,160,-67,397,86,-444,-284,-63,-314,-391,-354
,-113,-116,112,-282,-17,-64,-438,-21,127,-715,188,-257,-600,38,-25,-277,-77,-144,448,274,204,-6,189,233,-373,142,283,-180,109,8,199,-335,-63,-13
,-19,-476,-71,82,-70,-70,14,-110,-68,42,-364,-90,-81,235,30,-146,-288,-64,143,-16,44,-78,277,-138,65,-154,-284,363,-144,-44,251,536,531,58
,-99,-95,59,112,33,93,-136,15,3,3,-53,-24,-98,16,-14,-318,-489,-72,437,-116,-19,-25,173,-287,121,79,580,-108,140,-47,481,-1079,67,28
,-114,94,-353,-73,-19,-170,-141,149,-208,-29,-351,142,-292,94,-86,23,-42,38,377,-776,-129,146,466,412,-176,94,86,156,73,202,-116,-451,167,-469
,251,-60,-12,224,-371,-287,-16,43,-287,-98,40,-6,78,38,73,-64,256,-352,89,291,238,109,548,30,-377,8,-137,-96,-553,-145,89,-243,-450,-311
,-139,56,-130,-121,-134,-7,-87,-160,-157,-98,-118,-35,-13,-184,-44,-95,-9,8,-24,17,1,-21,57,-104,-8,85,101,-78,16,-103,-86,27,-17,-176
,-251,318,20,-141,-28,-122,-45,110,-85,25,-870,86,-50,21,-34,42,-209,-6,-165,-3,-119,71,239,-412,-170,-278,140,374,146,-226,588,-167,195,108
,31,132,-148,40,-467,-96,81,120,-7,118,-131,-96,28,-58,151,105,181,50,440,326,-26,-219,18,-12,-24,99,-48,300,-64,-165,-114,-151,-376,-345
,195,84,-161,70,-176,-102,106,-325,-139,155,-305,-79,192,-149,-138,201,-31,-112,161,389,85,-62,30,-244,-110,311,40,-175,-116,-14,-121,-4,-302,-117
,-139,-53,149,0,-118,51,143,-108,-139,40,79,-28,165,92,-72,39,128,-2,-218,126,47,17,-26,-52,112,-56,260,481,144,-231,199,-936,-71,80
,-15,104,-74,199,-227,-125,124,-75,-48,126,-151,62,84,139,-91,179,-214,-67,173,187,126,58,-292,237,-70,-106,212,491,123,190,-184,350,221,-53
,-522,51,41,-305,44,11,-379,232,-10,-4,-376,53,107,-31,-147,-154,-239,-136,394,537,102,-194,42,-296,-13,-91,150,-46,101,61,416,-1069,-257,320
,-73,-110,-143,-143,-19,-18,31,-26,-88,76,-76,-59,-37,-105,-37,8,-96,6,59,11,-99,-45,139,80,-2,-18,101,-71,-12,-54,-126,-55,35,23
,-49,130,-510,-24,87,92,-456,-101,-10,-494,-3,-198,-370,5,35,-237,-134,58,-85,-137,170,19,-16,-249,-478,-161,-149,-734,-871,-317,558,676,292,-75
,-463,-127,13,-573,60,16,-668,30,111,-535,-223,-2,-275,-186,-444,-139,115,-56,35,-584,-27,6,-81,298,-179,-59,-113,-32,-30,-211,-61,48,338,116
,238,155,-85,100,-146,-74,8,-62,7,-104,-145,22,-49,-96,-52,-106,28,-15,119,-199,47,11,44,-197,-72,107,-105,187,51,-7,-245,701,26,-3
,237,-82,-268,-483,73,-50,-555,11,-110,-452,-112,10,-462,198,-67,-472,219,6,-418,656,-273,49,234,-16,209,148,-115,-222,-21,22,-126,250,-4,-424
,162,3,-80,-32,-221,-89,159,-7,11,99,-62,-178,-85,-59,41,-38,-160,14,60,-86,-79,-57,88,45,-29,-133,1,44,-91,-88,-1,99,-2,30
,-244,342,-290,-29,-311,-254,58,-27,73,3,-43,-157,120,-87,-198,-44,-36,-176,-158,242,67,-425,88,-91,76,24,-124,95,-182,5,31,137,-58,-73
,-47,20,-506,-172,-624,120,-21,265,15,13,-272,-174,34,-300,-8,-72,-14,-311,-97,-120,134,-335,34,-453,37,-87,47,234,321,-172,-72,119,10,250
,-3,96,71,39,-5,82,-87,-65,-66,70,64,-10,-27,64,113,135,41,49,-33,36,68,23,-43,-39,-7,18,65,-84,52,-23,68,-684,-220,76
,-89,127,-230,-292,90,103,-54,-99,-9,-54,-62,78,-159,-81,-68,-62,-78,-203,92,324,-35,-123,17,338,46,-137,111,55,70,-86,-72,42,-65,83
,-32,-125,-98,-42,-27,66,-102,-25,-175,-39,-185,-135,-103,109,75,88,43,-109,-74,-31,-12,-39,283,-380,-45,56,-222,215,-117,74,-182,417,24,17
,138,60,1,-88,-62,-4,90,95,-5,54,-49,-480,-5,140,464,-36,-130,-4,-381,-1008,9,-29,168,166,77,-41,45,-100,-39,-134,414,494,116,-2
,-168,-36,118,-185,18,-214,-269,-156,-121,-397,-190,35,-255,-635,33,-326,-79,-182,46,-252,-160,65,63,842,63,-126,-281,110,149,-45,-89,342,44,189
,-171,31,72,-123,-169,54,-197,49,-30,-114,121,-79,-125,39,-116,-36,98,-136,66,-22,-15,62,-120,14,233,-33,270,-196,48,-142,198,274,12,-262
,-70,-32,-8,40,379,-224,-203,-149,91,-101,-55,-27,-36,-4,-56,135,-117,-47,48,2,-213,124,-34,346,-18,27,-121,-48,293,-9,69,-587,27,-326
,-68,216,-90,122,-166,-336,98,-357,37,132,-220,26,-91,-187,-240,-37,22,-59,115,-76,128,191,-80,347,59,45,37,310,-87,169,-58,48,49,23
,-9,-179,-94,-227,74,-113,60,-19,-750,-306,219,210,-254,39,-356,-203,-114,-31,-170,23,-118,90,-68,-413,232,64,199,-505,-2,24,-93,-177,-293,-200
,-70,197,9,-172,-70,58,91,100,-430,-195,75,149,-10,-106,-479,-202,64,-193,-18,227,243,-287,-313,-263,74,155,-68,-261,79,-280,235,59,71,229
,49,15,-133,-116,-4,60,36,-19,-128,146,39,83,-124,-42,-164,132,96,4,168,-132,-16,-29,-29,-247,-49,-3,129,-89,-114,-26,108,-881,-303,-31
,173,10,-35,87,45,9,-180,66,-39,-169,-47,-54,37,-32,-20,-116,-24,-81,-415,-75,-58,86,227,-227,-26,48,-535,-396,-33,42,-623,357,177,21
,25,32,37,42,-145,-187,185,38,-457,235,-142,59,226,-119,-12,128,-57,-85,-39,-321,281,76,127,-94,156,-183,18,160,-132,53,-89,-788,-212,278
,128,-368,-106,48,-41,52,44,-318,102,-162,198,-84,-159,173,-118,-67,3,-57,123,518,-42,-198,137,0,-411,150,-70,314,4,-377,38,-325,-89,93
,47,-211,-7,-147,52,102,57,-99,88,112,203,-86,185,109,24,194,-235,-244,-62,235,115,-373,6,-406,111,-769,84,180,-686,40,33,182,94,-110
,-39,-142,-12,-111,-102,20,41,-17,-67,35,-103,-48,-88,-4,32,65,9,-125,-72,44,-113,-92,123,140,-139,-88,43,-47,23,-97,35,120,-131,-58
,-199,60,-17,-35,127,51,-174,-216,-71,-144,-286,-105,-8,-251,-170,67,-53,-28,-93,-16,13,-28,-99,-22,-31,-142,127,159,-39,-18,-221,355,-54,-108
,147,-143,157,82,-46,-224,123,-147,-264,-93,-51,168,-92,82,-80,-76,-19,-12,-26,14,-74,25,40,-204,-10,-53,80,195,60,-413,66,-8,38,-265
,-43,-44,57,-44,-134,-203,-89,82,-231,89,119,6,-71,175,1,-211,227,31,153,303,118,138,-322,574,-335,58,-122,-40,62,60,-114,-1011,-130,10
,-42,274,121,0,-91,-93,-3,278,129,-50,-277,-167,26,-119,-334,-66,4,-27,179,-252,-219,-24,98,624,-75,-40,217,-78,226,100,79,-734,173,-356
,61,120,-69,85,-258,-106,84,-161,102,60,77,-318,108,-52,-403,83,90,45,290,-294,354,-24,65,290,276,-104,38,-261,53,17,-63,92,-403,-188
,-197,-113,-76,-97,51,-65,-227,111,-50,12,-186,-54,-111,-145,28,-27,360,-27,241,594,-20,123,468,254,-41,-367,83,773,-81,-65,-74,-258,-187,93
,-211,46,47,-268,-65,2,105,38,3,-45,-268,-1,-279,-145,-93,-524,135,-126,107,-256,20,22,-697,317,158,-558,-262,528,126,46,-464,664,40,84
,-100,-43,39,-291,17,49,-126,18,-148,-25,49,-94,-87,-201,-14,-131,131,-340,-17,21,-93,210,60,-258,-365,-151,-97,501,-101,103,-67,571,-95,-180
,231,-408,-95,123,277,0,181,-39,-193,37,-816,-93,-53,-159,-382,-88,190,-406,-16,-188,164,194,404,346,66,137,-155,358,-164,139,66,-524,169,-227
,77,142,33,0,-15,-35,78,181,219,-45,86,29,56,-385,-213,195,-381,-88,12,-56,-134,-28,-881,615,41,-128,-503,-64,150,14,-336,303,313,23
,103,-114,-27,89,15,-10,123,87,0,-9,-244,500,122,283,-508,-424,-140,-17,-139,-41,-25,-46,256,-5,28,-5,-85,1,19,-11,455,456,103,13
,3,3,57,188,106,3,-191,-163,-32,-181,-481,123,-74,355,-177,-1086,147,-1,54,116,-50,-67,-135,-392,-472,-232,307,109,-49,16,-94,462,-482,220
,-54,236,-37,-232,188,-203,-161,-100,33,-69,-252,136,-149,-74,-147,-56,-42,-400,23,371,-182,26,-204,12,173,95,205,366,-74,7,-13,539,194,-236
,-318,-35,-30,-485,-53,1,-524,-886,-124,-417,54,-76,-495,-120,88,-447,-68,8,-141,139,-8,53,-51,-1185,12,40,-59,271,-51,-2,15,-1125,418,78
,-194,274,-208,-73,-513,128,49,154,-94,-34,-165,76,140,159,-218,163,-2,-139,71,36,252,-437,-115,-1150,-167,142,-119,-106,-672,91,73,-337,-713,-157
,-138,58,-84,-23,59,-12,119,37,-37,89,-179,-224,-123,-64,-54,42,-232,-63,196,-12,36,-124,-119,308,-143,39,44,67,-91,-64,-62,-157,-53,-180
,-100,0,148,77,12,20,-34,97,-633,-106,-149,-85,-198,18,-180,-11,100,-154,247,-67,0,84,-343,280,-374,110,444,248,140,132,271,297,-162,10
,-65,-100,-163,113,-98,-115,28,85,-222,37,-128,161,250,104,-460,15,194,-69,45,319,-60,-32,100,-421,-54,-203,56,40,138,-79,193,420,171,198
,-708,-21,8,-146,157,-96,-245,-107,-18,-382,9,-256,-281,24,-290,-308,154,-84,73,-208,-164,205,-145,7,-64,30,100,265,127,-310,-65,-146,-395,54
,21,-76,-61,-27,84,107,-56,85,1,-260,-58,-25,-184,-60,-6,60,-11,-58,-282,-364,-27,77,-266,-194,-44,-143,28,-44,85,84,-353,488,299,45
,-75,25,-129,-53,188,-107,-7,14,101,85,-115,-179,0,122,89,-41,-76,130,128,-41,-168,-124,102,-205,-74,-59,-33,-245,-197,4,103,-724,-180,210
,69,12,4,-6,-9,2,-11,-24,-5,-83,-255,-418,-60,229,401,27,37,2,-96,-70,-3,-8,-175,55,11,-3,-374,6,2,-2,-269,-1069,-1300,5
,-31,-181,-419,-72,-238,192,-30,55,-335,-63,-92,-159,-185,8,-182,-281,173,-82,100,193,95,-85,65,-163,-25,0,-134,-47,117,24,-96,382,68,-124
,-324,70,-460,-43,73,-306,-230,-614,106,-297,-28,-86,-328,-64,-49,-144,-182,85,-224,420,-468,150,260,291,213,-49,-14,-570,-849,53,-40,154,-328,-52
,74,19,85,118,-30,-90,56,-219,175,257,57,-178,51,94,-75,59,3,25,261,429,-334,-239,238,434,-8,-216,60,98,-55,-435,141,-505,128,-366
,-205,165,-282,-163,102,43,-226,-133,-69,-71,-335,37,31,-330,19,40,84,-97,-152,305,-123,21,36,-184,-130,-208,62,239,294,-309,28,730,-31,20
,18,-459,-122,-8,227,-118,-150,-142,150,-143,70,-159,49,-45,-122,-49,143,-150,353,81,47,72,-77,129,14,-164,-106,35,48,87,-40,-199,-447,-35
,123,-43,-124,253,-13,20,13,10,33,-146,-72,13,76,16,-26,-30,106,-55,-26,37,17,-53,155,-83,1,94,-198,41,214,-152,-390,766,393,162
,50,-70,-177,147,8,98,222,-47,-117,23,-194,-111,-11,-260,-262,117,-226,-65,-271,287,109,113,437,-251,376,-69,-200,186,-112,248,129,108,-72,-37
,57,18,-607,128,-453,-37,-237,316,149,95,-432,-758,-85,-440,-633,-57,-229,-236,-115,-50,-222,-267,47,103,-221,134,121,-116,-41,-12,-28,3,-78,-162
,27,0,50,9,47,-46,-70,49,6,87,-20,25,126,-121,-45,-10,-79,3,-253,181,16,-85,-316,-243,-236,82,1,-81,43,8,-338,525,-95,6
,110,-195,-42,83,139,-374,-9,-101,-215,178,43,43,134,92,-252,105,129,-139,23,-237,280,32,292,-191,98,-90,4,395,19,280,-46,347,262,-255
,224,-375,-44,86,164,-162,82,40,-24,-72,-1,-133,-79,-237,-229,-9,135,20,-46,369,-199,-53,134,142,-107,13,-181,28,216,187,41,-128,-567,45
,-237,-205,-117,-189,69,26,-492,-57,-100,-211,120,-67,-153,-69,45,-426,-12,-185,60,170,-188,309,-110,501,134,97,325,-50,228,79,249,-117,245,-151
,-176,37,-172,-25,44,-33,-109,49,125,-73,-69,-133,-115,46,168,-49,-210,-263,-59,-92,-161,88,-153,360,-76,77,124,459,-180,207,-184,-837,-1,91
,89,-406,239,91,-235,15,150,108,-73,52,-355,-124,34,-147,25,246,37,-244,3,-686,6,222,-88,174,-503,-264,-63,-160,-592,-433,71,-3,-316,18
,123,31,-67,-24,35,156,28,143,-395,107,-13,-183,70,-34,-12,34,75,-82,33,-26,81,-54,270,60,25,-121,189,-55,20,-91,35,589,157,-56
,-94,-95,-61,-149,152,-227,-106,-64,42,68,14,-200,39,83,37,130,-28,-151,-36,178,-148,-92,59,5,167,-3,21,61,119,-302,82,-366,-98,331
,-73,-144,-125,7,71,22,110,-127,14,142,90,-21,-68,33,80,-51,85,61,126,-54,-69,59,-127,83,40,-52,30,-10,-103,29,181,-746,-68,65
,-160,-111,16,-38,-168,-334,60,109,200,-2,-53,-214,43,-167,52,172,146,4,-11,-226,60,-199,-167,-919,308,-407,8,-569,122,-11,-126,-91,111,-45
,-80,-417,144,114,-316,-309,109,-225,-103,165,202,-145,154,73,-104,45,156,-40,-44,-37,-815,62,48,-895,195,-266,-65,130,-383,122,-21,146,-830,105
,-119,27,-143,11,-110,-188,-120,9,-118,85,-47,-92,134,16,95,-16,167,-230,-14,44,-120,34,-137,286,-59,52,-242,199,-121,186,271,36,215,-176
,153,-419,14,24,-398,91,120,-22,-162,71,-386,80,126,219,-18,-102,130,-2,-66,-929,-29,-268,-99,-936,125,124,-74,-1101,-60,141,-117,399,-480,54
,119,-13,-10,-41,5,7,79,-5,2,15,-67,485,-161,17,-482,-45,38,1,-123,-27,-9,6,316,-42,8,-1,79,-11,-2,-5,-203,289,-283,63
,-114,57,-96,40,-110,150,77,-77,-69,-49,-145,-25,-162,-69,-62,-36,-54,53,150,-563,41,32,-178,111,-193,113,-152,-328,138,-344,3,8,293,134
,-69,8,-44,46,51,2,-59,-49,-44,18,-36,551,261,45,-597,-270,45,-67,7,225,35,-7,346,-268,16,-29,81,2,-1,-47,579,334,27,51
,-79,159,118,-65,150,-189,-239,-27,-138,-274,-56,-332,-209,-27,-201,-35,58,47,66,-153,-495,-179,-242,-109,-52,-248,148,-68,-275,142,-98,96,-364,21
,84,-43,-25,1,-152,-114,-66,-76,-107,-65,-73,-247,10,-34,-40,-81,-166,39,-89,413,270,-590,25,201,46,-44,-87,-103,-124,-139,-199,84,195,-242
,-245,13,21,-94,-185,-282,187,-122,-107,-42,192,-212,-88,202,84,-134,-70,-30,-101,137,14,137,-87,-626,259,7,-17,-672,127,-538,-78,87,-165,220
,39,100,24,81,141,-335,-146,88,-809,-127,-38,-14,-181,70,-126,84,-57,-96,73,-595,183,37,8,-612,-112,83,93,-100,177,-97,-56,397,2,256
,27,-28,-92,-118,-820,170,81,-207,-207,-61,-120,90,35,-84,-54,-125,-220,-57,-401,323,0,-69,155,649,-64,35,363,693,-109,-143,4,-570,199,86
,69,-8,9,-200,28,6,-202,37,40,-157,1,7,-33,-215,-27,-145,17,9,-319,-294,-1,-78,-312,-332,18,-239,11,-271,-36,1,-375,372,274,53
,-126,220,13,-183,137,-27,-133,44,-29,-150,235,-247,-197,129,-20,-76,-285,-83,88,-873,-877,-258,-64,-24,-167,-120,41,-602,-258,134,-22,287,-14,-339
,-168,167,40,-1,180,24,-197,135,-214,-172,-79,-65,-136,-167,99,-22,107,-44,521,-801,-65,-483,167,424,94,-120,-165,-27,234,-272,-24,56,366,15
,151,-218,27,-4,-198,-186,-92,-322,-452,-68,60,-8,-137,166,112,46,-21,89,-584,554,86,17,-507,-358,-90,117,130,-644,94,-175,-194,225,277,31
,-6,-27,-126,-63,198,178,19,115,20,116,-238,-200,209,14,71,47,-254,-199,-8,-307,135,-189,157,152,-547,75,137,-21,-103,61,-112,-335,246,-5
,-185,127,-62,-13,136,9,-88,95,3,65,-184,-116,-163,-57,47,-169,-188,-102,236,38,-60,114,79,-21,65,-162,135,256,-53,-108,245,-408,-27,-56
,128,-48,-122,14,-61,-214,85,16,68,-95,-12,-141,151,46,-27,8,-70,55,101,-178,-42,107,90,-98,-233,-79,-71,302,-213,-289,142,-262,-239,-4
,-99,-117,23,36,-71,-24,27,-100,-161,71,59,-109,-31,73,-24,-95,14,-207,-135,-65,-103,-107,-57,223,-244,-4,-5,200,-80,-88,57,-272,-42,-61
,-106,195,-195,-68,-41,-481,-420,-459,116,-431,-209,-170,-520,0,112,-508,92,-654,-129,58,1,-61,-48,382,215,-195,37,-768,10,156,-17,6,343,-156
,-18,104,-99,-32,-114,27,-123,-114,60,-31,99,-23,59,26,4,-76,164,-20,239,240,39,-102,-399,267,-120,15,120,-136,-51,3,244,-685,-273,168
,7,22,-53,-146,193,-57,-159,18,-312,-366,-424,-61,-324,-361,16,-444,138,-2,231,-262,61,-1,72,506,161,-71,-14,-282,251,104,42,88,181,151
,126,-187,79,-34,-10,-119,-50,64,-415,-248,13,-86,-133,135,-166,4,-185,-195,-28,-90,-402,216,-35,-61,231,-38,-139,386,-256,263,-52,198,-31,123
,-55,-53,-56,-29,-260,-291,95,-229,144,-111,-34,-166,125,49,-432,72,-46,-297,198,307,-198,4,166,-97,34,229,-24,-363,33,-67,157,-73,32,-4
,-149,125,-48,-143,-138,-113,-120,-41,-120,11,238,-111,-179,362,-49,54,-25,-173,-61,212,32,60,613,-244,75,-396,-67,340,142,-15,6,43,-46,-75
,184,-42,-137,114,-316,124,-35,9,-213,52,-124,-136,209,-21,162,171,182,-289,294,38,-57,-84,22,-6,-111,-132,26,173,132,-166,80,803,241,-75
,-245,53,1,-2,12,45,24,-87,63,-10,-162,-252,56,113,153,-111,-487,-74,209,123,-57,10,840,279,-94,-283,-136,54,-34,127,-37,-296,419,-245
,-182,211,-92,-243,74,-101,122,-85,-231,123,-94,-126,93,-268,-56,-32,229,-69,-509,-54,323,-208,-326,85,97,221,-41,-46,299,-140,128,-162,-170,-63
,113,55,-65,310,-102,-33,151,55,-73,-23,160,167,74,-153,-106,-26,-84,-87,-60,-412,3,-24,-138,-674,6,50,-90,-341,-96,109,-264,-1438,550,79
,-251,-278,75,-283,-44,-102,-164,-277,-60,-319,-683,64,-265,435,-50,-135,191,5,-408,669,-213,-63,-38,169,154,-97,-113,-83,-241,-302,-389,-369,-206,169
,193,-251,-68,35,-242,-125,-37,-97,-197,-44,218,-136,38,306,-26,227,-59,-100,305,-176,223,-133,394,295,286,49,-247,143,84,39,-32,183,148,49
,181,143,-65,156,-115,-199,121,160,-142,-25,58,172,69,17,-2,56,-20,118,403,0,219,-353,270,-651,-60,49,181,-61,151,-29,-152,-518,180,-93
,-152,-60,-46,-4,-98,-48,-66,94,-59,73,-68,3,90,26,-81,-45,-9,-18,69,19,-285,56,-180,-17,-10,11,-39,4,-90,33,116,-464,-77,-36
,-60,36,-61,19,-67,5,-42,14,-143,-15,1,27,102,-47,-22,76,-131,-128,14,-38,45,-13,132,15,-154,-122,124,-37,-40,19,111,-97,-135,-180
,-70,231,-318,-7,-80,-66,-74,-16,-66,132,91,-14,-12,25,-126,168,83,-112,-58,-92,-400,-119,195,-12,-17,53,-82,-146,3,-106,115,-317,-265,-269
,-86,18,-173,129,119,118,140,-24,-90,49,-199,-58,184,-128,59,213,253,150,-50,348,-304,-146,696,-182,87,-246,-167,901,-308,-63,295,-45,-65,80
,-29,-51,-112,-29,69,-230,51,179,-146,127,-345,-86,63,-273,-37,-6,-131,63,-133,516,-199,144,-105,44,-257,72,-126,-231,-333,80,-59,90,-240,372
,128,35,21,102,31,55,-190,70,-19,-153,145,82,-198,-236,-99,-95,-10,-162,-274,-383,-146,139,21,-487,-53,53,-181,-78,-5,143,-169,790,307,105
,110,233,79,23,-143,26,14,-330,76,280,75,-33,161,-65,-109,196,230,-58,58,43,65,-192,187,-158,192,40,109,722,54,-116,51,-522,84,-270
,-512,256,-140,-319,56,-146,-227,4,-228,133,-97,-27,67,41,-60,-26,156,41,-89,192,-596,-185,82,-360,36,-592,-355,317,188,104,-67,-527,-52,122
,88,-110,-181,116,-238,124,-7,-96,-148,3,-681,-57,-3,184,143,85,-77,20,140,-484,-547,50,43,-164,-1,5,-206,-1,203,-123,-381,699,285,-557
,-151,72,-50,24,-257,156,-432,216,-65,-106,125,-199,-131,-36,50,-352,-86,-132,578,472,196,151,-41,281,-16,-155,428,-91,-388,130,-150,-68,-94,84
,-2,3,-103,119,47,-86,8,92,-192,13,-247,-11,62,-190,28,-25,-114,-74,100,0,70,-151,-233,88,-47,-31,-23,120,-74,-127,190,-152,0,-51
,101,58,1,199,-244,-144,123,-415,-179,102,-48,84,129,-100,37,-95,41,-259,-181,71,76,-181,-127,298,-272,193,-109,122,246,-158,56,-168,-126,-293
,122,204,26,119,-223,14,42,-462,-50,-11,-203,140,137,-309,9,-13,-308,-255,450,301,8,8,824,-290,80,-133,449,598,89,-323,194,-177,298,-256
,-74,24,-24,-294,15,-18,-164,86,-31,-169,58,-23,-241,-132,7,-181,55,-15,59,-109,-208,53,315,-28,-6,36,1,-167,-30,-47,-44,156,-112,22
,-88,-133,-17,-13,-129,-26,-21,62,27,-186,-86,180,-95,-37,-197,-20,-116,-13,-11,-250,5,13,-130,-193,-20,4,268,231,-21,-3,-245,475,408,44
,-132,266,-93,-8,128,-504,48,51,-79,60,-179,-47,-56,-18,-55,-116,-38,10,-6,179,264,-57,382,382,181,-275,-140,-487,112,30,-124,244,82,187
,-145,-145,25,-65,-161,2,-166,42,-41,32,192,-95,-101,55,-22,236,-230,-163,-76,-57,-405,-188,143,77,80,-266,6,94,120,130,174,-373,-280,-37
,108,224,-184,8,-97,-178,-136,-177,40,46,-86,-246,-127,53,113,-88,-111,-48,-100,-202,56,114,126,377,-128,14,123,59,-242,96,-215,8,324,5
,-85,60,0,-163,-154,-39,-175,-74,-18,137,172,-272,143,-385,218,71,-160,-41,-76,-157,32,-53,13,-142,-13,60,368,97,44,-9,411,-828,-294,380
,-289,218,-101,-32,-90,18,-36,77,97,-165,-51,-130,-241,26,152,-18,-115,-139,50,-191,-313,14,-243,-119,-168,-324,115,320,-82,-235,36,211,200,-332
,-116,98,-141,142,-70,-10,-118,140,-147,-108,-86,-217,-23,173,75,82,-100,-44,35,243,-109,49,-114,-1,-132,-84,22,222,-335,-91,45,-231,-73,46
,131,227,-188,179,163,-77,124,-97,-36,138,-193,-144,108,-405,-64,-75,66,-199,-350,-19,221,-46,400,-200,25,175,-36,-703,-1253,268,-112,-256,-98,201
,-108,182,-33,-156,-170,-16,-84,-217,229,-102,-105,16,-160,239,-213,-328,116,-35,-556,21,16,31,115,-327,-125,91,57,-728,-278,24,-408,211,91,-23
,81,-141,-74,31,164,-206,-15,61,-71,-208,71,-156,-209,4,-60,-167,-16,29,-164,-337,-49,79,-124,-218,65,-140,125,-772,-1,-82,-71,204,-46,-67
,-94,-404,108,-23,100,33,1,85,-158,-78,-112,-71,0,-75,-105,-147,189,66,-147,-69,34,-184,-440,28,-90,314,288,-23,44,-162,7,-391,20,-198
,40,-7,-9,-53,12,-134,-33,-155,45,52,-485,-30,-19,-134,114,-112,308,-105,-497,145,201,106,187,-7,121,-19,-584,-21,141,110,-732,483,198,76
,-56,-23,-193,-15,-202,-76,-110,96,149,-3,159,-372,44,66,265,-96,-76,-23,16,-550,30,-5,319,-328,29,96,172,-274,47,-54,472,305,151,52
,52,5,87,155,106,119,100,157,-115,-10,-252,-56,109,-172,-291,220,-28,-44,-116,-52,-322,259,-104,-206,-484,-104,-54,-436,43,-389,48,-601,272,-491
,-231,64,-74,-205,-150,29,-267,108,-149,-128,-55,142,-227,145,-21,-83,-137,-555,109,-517,235,-39,-107,40,-290,-206,82,-305,-632,26,73,-203,-203,-404
,-109,95,-120,74,-67,-5,-168,8,-116,-132,-59,16,-100,-103,3,75,52,11,77,-296,39,25,23,-3,22,-129,-168,96,-28,-60,34,331,8,-28
,145,-38,9,98,3,-24,-150,-53,36,12,-9,61,-38,-216,-90,-52,-67,-7,-35,129,-17,6,156,8,-17,66,-99,82,-3,10,-221,656,141,4
,-18,-396,-256,57,-27,-95,97,-20,125,109,-65,-155,-57,118,33,-59,109,-69,172,-131,214,-17,-29,93,261,-44,122,211,-186,-170,6,19,57,-25
,83,-104,-98,175,-53,-363,131,160,45,159,-40,-60,190,82,184,0,-181,-7,-41,-360,253,-472,-211,-59,150,-2,133,85,-324,-205,506,193,83,-14
,-124,-185,18,41,-275,-214,-41,-67,-183,-151,189,-292,49,143,-190,47,-16,-20,-424,744,87,-108,-484,329,92,26,-108,-541,145,195,-85,48,88,-194
,92,-307,-93,184,-162,96,40,-198,-84,-52,32,-449,79,-166,-176,57,-144,-66,-44,-178,-131,-54,94,272,231,79,6,52,-64,188,31,134,106,-186
,-251,22,-181,45,-12,-27,13,-80,-145,-156,-19,-30,47,-135,40,60,253,-65,139,84,-33,-139,-108,82,88,-213,-193,291,-168,143,-248,-288,-41,-185
,-107,230,-372,119,-47,-40,115,-55,91,-281,119,-241,-219,-92,-360,-305,247,9,232,-246,150,95,-727,344,-106,13,340,650,139,-34,65,469,56,58
,-555,51,94,-366,143,-195,-303,100,-116,-166,-20,130,-224,-60,-261,-5,-9,-311,98,-84,-494,24,-58,-152,-79,-1,-81,-64,-342,23,42,-248,-431,20
,120,-127,39,-7,11,-70,-39,134,-96,-8,-64,104,66,-116,-154,-46,-143,39,-403,235,194,-229,227,-361,117,-115,-29,-820,-92,20,-298,156,103,41
,13,13,10,50,-196,-124,-77,10,-89,100,-48,-42,-80,28,-106,-26,40,-43,286,111,-46,-31,-2,67,67,34,-99,-25,-141,-1,-66,-62,-43,-166
,-106,65,-68,92,325,156,128,-683,14,23,-196,-186,275,-227,-187,82,169,-78,268,426,-154,-35,-62,57,151,-56,-64,227,-39,-306,2,-351,198,-21
,-292,-66,-177,-236,7,-541,-242,-391,-65,-201,28,-8,-205,-17,7,-104,9,121,-143,79,51,225,14,-169,-383,-285,53,-76,-135,-124,-91,-167,-297,-305
,105,-192,-199,63,151,41,-39,-61,20,-48,-30,-63,76,177,83,26,180,-538,-58,179,145,47,167,-58,-298,-112,-68,376,109,-493,8,806,80,22
,-375,-213,-217,-377,-480,-62,-177,189,-230,-336,-114,-20,-325,37,16,-66,100,32,-37,-773,-278,311,62,-216,-109,75,23,-759,-91,66,-74,-375,-67,-308
,133,-70,-96,14,92,-89,132,-975,101,-22,-166,-11,83,-285,-88,248,220,95,99,-499,52,-24,2,-161,159,-172,97,-82,197,-172,-102,-525,168,-239
,134,-35,0,54,147,72,-35,-125,-52,-32,-174,25,160,-112,-4,198,-19,-3,-264,245,37,9,-503,704,-87,-152,-154,-710,-176,-87,-10,152,-253,-258
,23,9,-289,41,254,134,-3,-64,-167,120,-519,-133,71,-312,88,81,-128,2,58,-437,-526,-219,82,384,273,-213,-91,-331,-304,-45,-200,138,-2,143
,81,-58,48,-112,-128,-133,43,-217,-95,-102,-44,55,170,45,-139,-62,28,-26,50,-139,10,44,118,-574,48,-72,42,259,145,-215,-29,-705,-84,73
,-637,117,122,-361,-207,-500,-668,-161,-241,-250,104,44,-238,-18,-166,-305,-76,-222,186,-556,277,-273,25,-735,112,181,235,312,145,106,134,62,21,-84
,-67,275,139,41,-492,-89,70,-369,-108,130,13,212,-26,-172,-269,-160,224,-45,-53,-90,-170,-29,71,-65,2,-174,42,-62,47,19,50,251,102,-159
,-31,47,57,-137,56,-80,116,-131,29,-218,146,60,-169,-187,-64,-463,44,2,68,-91,-66,40,112,-77,93,-15,-56,314,-42,-119,-237,387,105,-73
,-43,-244,110,106,-245,-47,7,99,-319,180,-46,-386,168,103,-317,191,30,-14,183,372,92,-112,-67,-380,-333,-121,-54,-670,156,189,-27,148,-555,-16
,244,-146,-104,55,88,97,93,-183,89,55,-149,26,-70,67,-57,-100,22,41,-149,-13,118,54,-431,135,148,-151,-17,380,-176,303,-167,611,-41,35
,128,-116,-140,-22,63,171,17,24,-222,-111,-128,-22,64,-131,-97,95,-90,123,-40,105,125,-218,6,-429,161,-347,0,-253,175,32,-111,-81,150,-49
,-120,-8,-53,-140,-15,-211,-237,91,6,-144,-97,-77,-255,-52,33,-272,-103,-26,-52,-90,55,-264,-123,303,-63,-108,-49,-223,-129,-43,195,-312,-111,68
,-283,-30,15,-167,-96,-3,-86,140,-39,-147,-120,-50,-35,134,-23,-58,114,53,206,175,-197,131,410,62,52,-82,112,51,-7,25,-8,-572,-23,-1
,122,63,-47,122,152,-96,87,-69,30,-16,130,-20,64,-268,123,-104,-16,108,-462,620,73,-143,-549,398,51,-71,132,200,-136,-33,-223,383,247,83
,-186,10,36,-13,-214,-99,21,-23,-121,21,-182,-6,-68,-165,-9,-83,-71,-119,196,27,-88,-28,17,10,-80,-192,-79,49,-202,25,15,138,143,-262
,127,236,-28,87,104,50,71,-78,-277,167,-91,-197,17,-17,-83,-52,-19,-221,-6,-6,-525,-230,109,-465,109,-3,47,-608,336,-523,86,102,-818,67
,-127,352,-193,6,94,96,-106,-347,38,-245,30,-18,-272,75,-106,-131,33,-287,-182,205,209,52,424,-708,77,-46,-31,-281,-136,-54,-18,-506,260,-149
,0,-45,-86,10,-126,6,-32,57,-56,-145,-93,-99,10,-86,-43,-156,-58,34,348,-46,64,-57,-19,-80,-49,-43,173,-132,-51,-30,78,-406,-140,-73
,1,30,78,79,-135,-63,-136,-11,-155,-72,-46,-12,78,-172,-51,-14,-205,12,-177,-82,-191,34,41,239,170,-86,206,-106,-64,19,-68,476,-10,93
,-55,-127,-483,-19,-137,-60,28,-92,-38,-113,204,102,-75,-114,-103,68,227,-73,49,116,120,-295,-294,455,223,129,139,-433,126,-320,-63,-164,-147,95
,9,-162,-269,39,-1352,172,-412,212,-110,-91,-304,0,-231,15,-52,-380,308,90,-190,691,200,-492,-122,-698,83,-193,17,-3,-266,-36,-11,-292,-555,-283
,109,29,94,64,48,-19,117,-75,38,48,-27,-51,-44,-7,-76,43,-8,-23,132,-42,18,-111,-310,-223,145,13,-153,87,109,31,-164,697,239,118
,74,-233,127,-61,83,-35,137,201,45,-124,146,-129,-265,103,-245,-115,-75,27,-383,-74,-28,58,252,-474,144,53,-344,-161,16,-183,-374,505,155,31
,3,-22,29,74,252,-305,-34,97,-558,-21,158,28,-23,-35,-62,19,-252,-273,32,-130,-443,78,11,-105,-220,-146,26,167,-217,72,59,-65,-234,-131
,-629,136,-41,-134,-88,-77,-325,151,-200,-610,-109,128,-642,-75,83,177,44,-179,-234,83,72,265,-155,-940,-230,-94,47,-415,-152,-39,-249,295,-52,68
,-392,232,-218,-418,-219,54,-633,-221,-106,-562,-40,139,-359,-68,-10,-493,50,-258,90,212,131,73,113,-325,162,165,22,214,218,-120,-61,-561,-308,-224
,-20,66,-103,37,28,-70,-114,106,91,82,90,61,49,-84,70,-51,-85,-5,119,-279,-72,-106,103,52,77,32,-276,-297,-156,-73,-706,184,323,22
,-143,79,-50,143,-101,28,-63,80,-94,159,-422,51,1,-29,-80,-32,-484,-117,470,98,-103,219,-12,221,35,119,442,143,-356,149,59,-419,375,-119
,176,-54,101,-163,115,95,-78,198,-148,-221,-17,-152,-300,53,-99,-123,-84,-249,-465,253,30,-175,-380,77,99,-203,-495,-52,44,266,-272,418,-232,57
,47,275,52,250,-160,-314,-71,-44,-257,-91,-71,-41,-139,175,88,53,201,-90,37,-235,118,-57,-85,-869,-261,-23,3,-1295,-141,-151,-234,191,250,233
,190,16,9,9,-66,25,121,-136,-130,-23,110,-55,-132,-263,-35,86,-8,-53,-157,-151,-68,-16,-76,-202,51,-136,-35,136,108,46,-186,644,41,41
,42,-46,35,-40,66,-51,122,-196,-3,-3,-45,67,-36,-29,110,37,295,-45,624,-14,50,15,-115,-273,-14,-14,-111,82,-126,-145,350,73,-115,-121
,-15,135,-554,-120,-62,100,139,-30,-35,38,213,-57,78,53,25,39,-68,-35,-182,-104,106,-251,-7,283,-231,-394,-30,-171,-32,122,-245,-44,-519,-323
,-83,-188,-49,-200,-48,71,-106,157,33,-461,-226,-139,-535,-80,0,-498,279,94,363,-211,-56,29,-866,249,30,-55,-262,271,-79,21,-196,909,243,69
,167,20,-87,65,-152,-22,7,-21,-151,-60,119,49,-46,76,-31,-17,-199,-151,-94,111,-133,-148,119,-46,74,24,-35,-100,-14,-12,-24,199,-136,-115
,65,-102,-161,-75,34,-116,-64,82,23,-34,37,-65,-139,-55,-40,-157,-173,-42,-103,-87,20,43,-41,-77,61,-138,39,-36,66,-135,61,29,-67,44
,-180,-70,-20,-199,-19,3,-191,-195,53,-184,-233,-13,-334,-42,-42,-63,32,-41,-139,74,107,-120,-18,-157,-28,55,79,99,-43,-14,-124,386,5,-112
,236,4,-126,17,5,-63,43,-33,12,-2,35,36,-156,-140,-89,59,-44,-56,-136,-191,24,76,229,-154,-108,112,-92,-84,150,-24,-807,412,62,-11
,45,13,-6,-37,-11,-3,-124,-3,0,-69,154,-446,23,-174,440,150,7,0,-133,-45,-2,-1,-821,74,-19,-12,157,-81,8,-10,-73,-247,-245,9
,128,-34,-24,5,6,-129,128,106,55,44,89,46,60,-147,-4,30,-179,37,-248,-199,-53,165,95,284,-6,22,-205,-66,64,15,-501,677,174,-34
,34,-126,-55,76,-546,-29,-112,159,-317,-26,95,-15,-12,67,173,-4,55,-3,226,-1125,-154,33,302,161,68,-113,-443,-227,-94,40,-661,772,156,97
,157,-281,-184,241,13,-158,-87,-93,158,-19,103,134,-85,206,-198,-1,-100,25,-117,67,186,-283,3,-596,141,-323,-168,-544,-613,-215,9,-723,243,163
,-260,85,21,-289,15,-69,-200,146,27,174,-731,-150,-21,302,24,-16,-792,50,-111,-240,15,-110,918,170,54,-79,-14,560,-305,-88,62,53,266,-147
,122,-111,-313,3,164,-63,-25,20,70,33,229,40,-132,-88,-58,-63,-144,64,-111,-406,-9,315,-123,-787,56,-80,39,-36,-292,-139,-659,508,161,-102
,10,19,-264,-74,125,-303,-173,84,203,-106,129,-142,-277,67,-280,-208,-148,-86,155,428,36,85,61,-65,43,-77,26,260,136,-147,26,680,-10,-107
,-79,66,114,69,-98,-108,150,42,-15,-227,-104,-120,-58,59,-227,23,125,58,92,107,189,-30,-784,166,284,-491,-418,-296,282,-287,-147,226,-28,68
,56,-22,148,114,57,-34,-84,-169,-28,-155,68,-90,-1,-171,-42,-81,121,114,-160,-57,149,9,-732,-156,-197,41,29,-11,43,117,-175,873,216,77
,126,-10,33,28,-94,-129,-31,0,45,82,110,-2,180,41,-17,16,-161,99,480,138,-110,156,-299,159,54,19,5,111,-156,77,149,-881,-282,19
,-371,106,-61,-230,-414,-89,-11,-88,42,-558,184,-108,-365,62,80,-112,-269,41,-139,-27,49,43,-215,-298,99,-243,371,-20,8,66,-248,680,349,-649
,-305,-283,-181,-269,-10,-295,-503,222,153,-692,-12,7,-630,-10,9,-921,176,12,415,-243,-409,-104,8,-12,-72,6,-66,775,153,-34,-78,281,90,-267
,6,124,-59,-71,113,83,12,-227,-155,45,-45,-248,92,-98,-71,-70,-270,36,56,-171,106,-159,121,-270,-114,-105,-124,-79,-134,-95,-38,-85,77,98
,-19,-238,-80,-9,-118,-187,88,52,-128,-17,4,86,-44,176,129,-15,-262,53,-68,105,-120,-85,221,-243,115,18,-118,132,12,281,199,176,225,-350
,-119,-35,-89,151,-186,-129,39,49,-333,96,78,164,45,-25,197,-181,126,-140,-151,606,18,-213,-232,268,-215,77,14,365,-118,-370,57,-516,5,29
,87,-251,55,-5,-38,129,109,3,-824,44,-90,-815,109,70,-391,220,170,-336,41,327,126,-172,5,498,255,-807,-122,-64,-200,-345,42,-317,-316,-325
,-5,-142,35,-51,78,63,63,-106,121,-36,-73,-124,-107,-10,-96,-143,-448,60,323,84,73,-22,428,-319,141,-144,353,137,88,-91,-17,-839,61,103
,-57,-30,-34,26,9,-19,120,2,-42,-13,7,-47,32,77,-71,56,-99,-94,-6,205,113,-87,-58,-85,-95,-19,294,-37,-43,-121,338,-254,-124,44
,25,246,-15,-113,-27,20,-14,-159,-154,-131,-117,-84,-51,147,28,-24,131,-26,-243,239,-15,-71,239,-650,16,167,63,-430,-307,28,196,-457,169,-289
,9,12,-214,-156,31,-169,-49,-178,-150,-169,-10,-177,-227,-29,53,-87,-54,-147,-541,-91,192,-146,-166,-207,37,132,166,60,360,8,14,-120,293,-194
,-220,52,-88,11,140,-325,29,-119,39,-44,120,44,35,171,126,-2,-10,-141,-277,414,-67,-556,-224,805,-178,-175,31,455,-50,1,-24,-355,16,151
,-99,-151,-57,-82,-21,-57,-101,70,-3,-65,63,-112,-103,-106,54,-252,-33,-37,104,42,-22,-10,-152,135,-157,-3,130,-161,1,-46,239,-356,-124,43
,54,28,-82,-171,160,-5,102,-203,-120,130,48,14,106,213,-25,84,-180,-102,109,121,-7,26,81,47,48,-84,-61,104,-66,40,228,-272,-138,12
,86,-45,-106,-88,-17,20,44,-81,7,-155,-25,48,-26,-54,-138,81,49,-105,-461,-39,35,-32,184,-98,-4,15,-69,-172,-72,69,-288,486,51,-50
,130,-149,-72,-77,-44,-67,-24,207,47,2,-252,-114,103,-320,-47,27,54,108,-188,179,-107,-173,-121,-22,-502,-124,-16,522,210,-285,-47,470,171,-98
,9,120,-51,38,-43,-44,-150,2,108,49,104,-176,42,120,94,58,-65,-72,-151,-112,46,35,36,245,-3,-193,-39,846,-154,-84,-44,-417,-386,248
,106,-18,-63,153,87,131,70,202,-371,-141,-450,-10,-109,-152,-109,-136,-216,-212,172,-744,-399,-101,-120,664,149,-200,-199,19,-39,136,-205,11,251,141
,-184,-8,-28,-207,-125,-150,-251,-348,45,-113,-7,-90,-216,43,-316,-49,-275,-1,-50,-45,148,102,-42,-391,111,-37,-4,-179,242,-22,24,-6,-185,208
,-78,191,113,-4,13,-204,-694,-202,-133,-644,8,-143,-459,134,-48,-513,-61,-241,-248,113,50,-233,511,438,297,95,-171,213,29,-345,-204,-40,207,-73
,14,-141,-124,-125,-111,-230,-74,-173,171,-103,-410,6,-55,-326,36,-202,-1,-114,191,117,231,105,-87,466,73,-53,258,176,-236,121,-61,-482,91,63
};

long weight_1_T_nvme0n1_2[2*256] = {
-427,-33,33,-83,-172,-97,-162,145,-127,-142,50,73,-87,298,226,-343,-131,9,-73,101,147,-101,-506,-130,160,-448,-174,-101,-385,291,78,399,189,-56,952,417,149,159,562,32,-272,-357,116,56,57,429,-20,-45,57,-57,327,-219,6,-96,41,-489,-616,149,-27,40,280,-167,42,52,83,-460,298,36,19,166,-7,-366,-137,23,230,116,138,112,93,-186,300,-669,-178,661,-280,198,-569,-377,51,-180,156,-150,-1,82,-948,338,-183,6,210,-38,21,-172,-651,117,157,-93,94,126,-159,71,120,49,156,-319,-147,-63,-809,10,565,-11,-256,322,-68,128,-68,-142,-8,-151,77,-8,-58,32,-613,54,-112,333,463,211,59,93,411,-109,-288,-141,-92,123,-125,36,31,342,10,135,351,-246,4,94,157,68,150,-374,-42,69,134,467,-234,135,-106,-51,16,113,-46,125,-230,-289,0,57,-8,50,-268,110,42,-53,-27,79,68,186,-292,217,-459,44,-26,-261,27,-358,249,11,288,-5,83,130,116,52,-93,-401,-231,-47,105,252,-391,-11,28,-174,-110,-117,59,147,-26,-109,20,35,-186,6,134,-85,43,84,-851,-8,-117,-125,195,-8,298,-125,-51,35,-252,3,-35,84,101,-686,65,101,-14,636,190,-18,102,88,-18,39,-213,91,-511,50
,268,-84,41,175,163,-24,151,107,95,162,27,-24,104,-168,-323,170,355,-9,100,73,-343,155,552,115,50,214,251,90,455,-249,75,-178,-135,94,-900,-407,-99,55,-784,-22,126,389,55,-123,-139,-296,-39,49,-181,-28,-272,120,16,235,50,326,609,145,-59,-36,-266,152,28,-71,-248,270,-267,25,9,-168,-177,144,51,149,-164,-24,-124,-144,-201,28,-91,657,203,-535,143,-237,663,406,18,213,-161,134,99,19,868,-464,162,-95,-173,234,125,224,419,119,-208,134,-60,23,123,0,-180,34,-213,208,7,12,921,96,-616,254,371,-307,221,-78,6,151,153,104,-148,8,-1,16,563,36,116,-344,-304,-167,-218,-233,-496,356,302,153,38,115,-111,164,-73,-400,83,72,-298,185,-95,86,-246,-184,162,162,262,-49,-26,-328,74,95,173,72,-25,22,95,-82,178,192,-3,84,170,-176,158,-304,75,202,187,23,76,-215,148,-209,422,-164,-14,201,7,364,-79,12,-297,55,-271,157,115,88,-27,230,33,-18,35,-282,279,9,112,236,52,81,70,-156,128,48,-9,6,50,79,114,39,40,65,806,10,-30,211,-123,103,-213,185,12,11,352,278,161,-68,-129,648,0,94,17,-510,-21,8,39,68,239,4,457,-145,394,-129
};

long bias_0_nvme0n1_2[1*256] = {
1,100,114,-95,-198,-318,-247,-20,-165,-13,444,50,-112,-221,-204,-54,-22,287,-17,386,-145,-26,31,-78,-81,-111,-43,-420,-158,24,-384,-85,113,-31,-125,-93,-78,212,-484,417,-244,-206,-56,284,32,-116,94,-274,191,-11,-217,-334,-455,-230,-164,-122,116,759,-3,-269,-254,-237,129,89,-112,-21,27,245,-419,122,-68,-209,0,-242,29,37,-116,10,-64,-343,40,-154,-428,-302,-100,-40,-640,15,81,-253,-147,142,-482,261,-15,28,55,110,-2,268,-389,-221,-48,42,-28,-61,259,310,-34,-167,-157,354,0,-214,73,-133,-128,-313,-259,-87,-202,14,-159,89,-512,74,-163,-222,-103,286,130,111,118,275,-232,188,-94,-14,-56,278,-163,-618,-169,-332,-129,559,-51,68,66,34,-392,71,-98,-182,25,99,-37,100,392,-735,98,-33,-180,63,-83,349,29,-265,-44,241,-480,183,-176,-77,-300,-407,68,-49,-261,-108,101,-7,211,-267,161,25,-75,-315,-185,99,-316,-241,202,-78,113,-438,53,-372,-258,102,463,-379,-15,-41,-135,160,-190,-76,-26,-450,-239,132,-375,-124,-336,466,-105,-231,-414,266,-68,-268,-226,-54,-315,-292,15,-450,-215,-101,7,-94,-61,-123,-381,308,-345,116,47,103,59,-192,355,458,-189,-19,-127,218,279,-310,-212,87,-92,25,-152,278
};

long bias_1_nvme0n1_2[1*2] = {
490156,-364111
};

#endif
