
/* Trace */

/**
 *  updated on 05/03/2023 02:29:04
 */

#ifndef __W_SDB_H
#define __W_SDB_H

char name_sdb[] = "Trace/sdb";

long weight_0_T_sdb[256*31] = {
55,27,-50,-169,-189,-96,61,27,-99,-217,5,54,-44,2,-214,-23,-94,-100,-76,-96,-100,18,112,12,-41,41,61,-158,-151,-26,-55
,-237,103,-92,-216,-187,-85,-14,39,164,-6,-64,-85,-57,-201,3,10,-312,172,108,47,60,-193,136,48,-175,104,-123,23,54,187,-190
,-40,-55,160,-53,86,10,-191,145,93,-196,-237,-336,-231,-141,-21,146,65,-150,-109,-46,54,-56,61,-19,172,-77,-185,-85,-1,-13,107
,-84,-16,-85,-160,49,86,-225,-370,10,-67,-168,-106,-75,-218,68,80,-106,-148,29,49,74,-134,-138,-32,165,43,-82,-2,293,-136,-319
,-178,-109,-60,-118,-66,29,-409,89,205,-233,-143,-136,-405,232,54,144,25,76,-223,5,-225,-268,93,42,-54,72,-190,-111,69,75,50
,161,43,15,144,6,-47,176,-67,75,141,6,29,109,34,62,-22,22,53,-44,64,-22,14,-29,-58,16,57,-79,-45,-12,29,-10
,-85,-93,-3,-171,-156,16,-46,31,24,-137,10,-145,13,40,-111,-34,70,-97,-45,-43,121,-154,-74,-8,-7,119,-41,84,-119,20,15
,113,127,-206,94,-92,-179,4,-277,-354,10,172,-115,169,-325,-297,-26,-164,-151,118,-168,71,-157,11,-43,185,72,138,-88,-27,-49,-200
,62,83,-142,57,50,-13,-193,-69,-59,-72,-171,35,-191,-174,-194,-34,-28,-57,18,-94,-134,-84,114,2,131,13,-136,47,3,-60,43
,-169,-176,-19,-105,44,-45,-43,-33,-20,68,-154,-13,-33,-43,28,-37,-171,-109,-203,-24,-52,134,-54,57,-199,-172,2,14,-217,-176,78
,-77,-141,-110,48,173,-400,114,-320,-355,46,-138,-72,25,-413,-231,-129,-66,-14,-142,-68,-62,185,2,219,-8,32,-4,-39,66,-35,63
,-78,107,68,-129,-124,-15,-243,-63,42,-126,-756,-97,-211,221,193,-99,-189,8,-257,-59,-173,-173,-434,-53,-92,-236,114,-197,-244,-95,-434
,40,-359,-175,50,-282,-406,-7,-1,72,111,-73,-2,63,-191,116,-60,-182,-78,-36,-61,3,-47,115,23,61,84,-25,-138,-190,-170,249
,-69,-43,-45,-22,-35,40,-73,-77,-43,-3,-225,-8,-86,-243,-172,-177,-159,19,-50,140,-93,54,-31,49,-80,-58,-156,43,-208,125,133
,-170,105,23,-45,96,79,-234,48,1,-36,-151,-45,-103,-25,-15,114,20,-49,-112,-114,-66,-25,-15,-93,-64,-11,-98,-83,-27,94,42
,-111,-428,-478,-212,-349,-952,-285,153,20,-285,128,-84,-247,198,117,-13,-129,-70,43,-115,65,-73,-63,-29,43,-184,42,-67,-61,-86,39
,94,-90,-186,88,-92,-82,29,-286,-222,-15,-324,93,-58,-244,96,3,-44,-293,191,-80,-58,-135,-165,-90,-130,-1,-12,-13,-150,60,-75
,46,24,-66,-125,94,-71,21,-149,39,-60,-126,-71,-27,-37,-144,-100,-46,129,50,-89,-18,-21,-35,-38,16,-137,45,15,-152,-35,52
,-104,-102,-92,-118,-123,-116,-164,-16,79,57,-62,-8,-168,23,-65,24,50,15,49,20,38,118,-125,24,-141,78,-30,-6,25,-90,-77
,-188,101,-167,-19,-117,-224,-55,104,-4,-221,-145,-248,-56,130,95,90,-233,32,-41,-1,111,-157,229,78,138,40,-384,-42,-25,-43,35
,-396,-61,184,-373,53,144,-274,-15,-2,-467,-20,117,-426,-69,62,-31,-205,21,60,76,-157,-163,260,8,-82,-80,97,-68,-7,-58,11
,-93,-236,8,99,57,-219,-10,-224,-278,11,-141,-164,88,-378,-248,-120,170,169,-14,-164,-80,2,-129,-198,-131,-293,137,101,25,214,194
,-63,-98,-815,-89,-219,85,-10,1,-213,-375,198,146,-14,114,-48,-118,-27,-96,-796,-397,-128,-124,248,220,-442,-190,-62,9,148,124,-16
,34,51,-40,-210,32,-139,-262,204,190,-193,14,-226,61,-331,-265,3,41,-132,173,-81,-64,-132,48,-57,-126,-220,-129,92,-306,124,55
,-134,-101,-268,-128,-331,-804,-104,-310,184,-223,-162,188,-116,137,217,-28,-177,-243,145,-265,-141,-152,-568,-533,-150,-99,536,88,41,26,-49
,-50,-202,-382,-180,62,-130,-134,21,-281,38,-171,-165,-50,188,91,-122,-207,-13,-357,94,59,250,-127,24,-140,48,-391,39,103,48,15
,-5,-189,-145,-167,-149,10,-105,-58,-51,110,-42,-207,79,12,-50,5,-82,45,-53,103,1,-80,27,-44,75,28,-53,-24,-128,-63,-14
,-306,209,-65,-84,-71,94,-170,-9,-128,39,58,68,-182,-217,-24,-94,-63,118,-11,84,101,-94,-178,10,-52,128,-165,145,-46,68,-172
,-210,-162,-58,20,-65,77,-122,-66,-16,22,-122,-101,-92,-125,97,-166,62,-42,52,5,19,35,-49,-86,37,-121,-90,-150,-129,-105,78
,-112,-205,-144,-135,-143,-507,-132,233,-40,-179,0,102,-76,-189,-190,-147,69,77,-151,-100,17,-42,73,99,41,-30,45,-20,-174,-100,87
,-179,-114,53,-238,-46,110,-80,-30,20,-230,-97,-36,-24,15,21,-30,27,90,-110,-29,-159,7,158,5,142,-231,156,-42,-29,-43,-69
,0,-344,127,-184,-339,42,78,-296,-141,-111,-301,-9,-193,-101,13,154,-332,-240,68,-222,-17,-79,-332,207,89,-32,16,-17,-63,-227,138
,-172,144,-217,-33,227,-261,-35,-90,-1030,-137,-67,-363,-7,-117,10,246,-292,-208,107,134,-95,126,27,-322,-69,-216,273,-554,-418,-363,719
,13,-109,-80,137,41,-102,-14,-132,-26,82,-27,34,-68,-103,-30,69,-116,33,-20,89,-119,-45,47,89,-170,-83,29,-52,127,105,-151
,44,-334,89,-180,-119,-107,-40,-155,-521,106,109,-324,-125,-133,102,35,154,-141,-860,-35,-333,-139,-784,336,-377,179,-28,47,-8,-53,23
,-67,-81,-162,12,9,-126,41,-209,-33,32,-54,-1,-200,21,-61,99,-66,-80,-70,-27,23,15,-148,-88,-111,21,0,75,-44,32,42
,116,-95,19,-28,-64,-35,-111,55,-45,93,-176,-104,140,-2,-84,17,47,-146,51,76,-18,-45,21,4,-40,81,-144,-142,7,-67,186
,-95,-119,-135,104,30,-19,39,9,-106,62,-108,-153,12,-30,-68,13,94,-112,-110,7,122,-16,-143,-68,9,11,34,-65,19,-135,92
,133,39,-97,86,-272,-54,139,-110,-136,158,-462,-153,85,50,-180,-104,-65,21,-351,59,-8,109,-248,37,20,-62,-172,-89,84,-171,-115
,-149,-115,88,-20,-30,-62,124,100,-130,-138,-65,-4,-142,-48,-57,46,-34,-76,19,-113,16,-26,-84,-97,101,-56,40,10,120,-73,-60
,-122,-218,-505,-38,-59,-300,93,-122,-154,16,91,-162,86,104,-208,38,-132,-159,23,-42,155,136,172,-48,51,-94,-387,-125,-131,-87,-225
,-168,-118,-10,-47,-43,73,-77,-216,-68,-242,-82,-28,30,-2,-1,20,27,-191,129,51,17,43,-168,-89,-89,-6,48,97,-113,150,-71
,-136,-71,-76,-176,62,46,28,-1,20,-16,-35,-57,-196,66,-103,106,-83,19,-33,-72,-94,-6,40,10,84,-32,-78,40,-136,120,-20
,-225,85,-31,27,-86,5,21,-62,36,-35,-43,7,-228,-23,-93,54,-84,-101,41,-97,31,19,67,-13,-74,-31,-71,-3,-186,76,-9
,-182,5,-155,42,-10,47,1,-88,-69,-86,-25,-29,32,40,12,-75,-3,24,0,-1,-102,98,-110,-143,-116,-115,92,-113,35,-103,80
,0,-203,-135,39,-77,-114,-97,39,11,-186,-191,-5,-147,15,-180,-6,40,78,-177,-98,-135,-9,-16,-103,124,77,105,77,-161,-35,62
,-105,-121,-59,-88,117,76,-83,-183,-95,-176,-48,-37,-100,-132,13,-143,46,151,-47,0,146,1,-149,92,-232,38,-71,-33,-11,-112,-167
,-210,138,82,-273,-39,-163,-98,82,20,-42,-22,-55,-96,-279,101,-189,-286,-231,-82,80,-130,-143,162,21,127,-279,31,-82,170,-19,-22
,-189,-189,-116,63,-10,-163,-49,71,82,26,-199,-197,-94,11,-92,28,30,2,-48,-61,58,43,-30,171,-127,-119,90,-130,107,-102,72
,-28,92,-31,13,-14,-8,-29,-60,-64,71,-35,-206,-170,-174,-160,47,-111,-38,2,-131,-59,2,-85,-146,69,-2,56,-28,-104,-77,7
,-181,-6,-19,84,-34,-133,-29,-278,-113,-188,-93,-239,-63,6,141,-50,-178,-143,-257,34,-126,163,21,-10,-157,-112,93,-96,1,1,-40
,103,-225,-33,-118,17,-47,58,-320,-12,103,-200,-172,48,172,-387,-225,-223,-75,-97,-128,-125,-154,-106,156,-125,218,-13,-162,-14,-44,-902
,-59,-57,14,-116,-55,-78,-139,91,-169,-33,-42,-107,-172,-56,41,-147,-150,-154,-75,-65,17,25,78,-90,-57,-94,-88,43,54,-50,-53
,-128,-173,-99,-60,58,-93,-15,89,112,-41,-291,-190,-259,73,-143,-143,110,15,102,107,-213,-9,-79,46,-52,24,-120,6,-149,15,-86
,-135,-303,-147,-258,270,134,-128,-199,-350,-21,110,-40,-98,5,91,112,-369,3,102,96,-246,-107,75,-49,-30,183,28,-158,29,1,-64
,44,-346,-104,49,-295,-127,-100,-431,-93,-174,280,152,-273,-46,200,-244,-100,-84,-22,172,4,-75,180,-239,-67,-56,-399,-74,-229,-161,-294
,-105,46,-47,1,-15,-32,-17,20,-94,-59,-65,-14,-57,-48,-94,2,-11,41,-11,-106,-137,-137,-18,-58,17,65,-104,10,62,-150,-48
,-85,88,-4,9,-140,-92,-171,-132,-192,-95,-176,-174,-138,-58,131,85,-136,-95,-38,63,-19,-104,32,-52,44,-41,74,20,-56,3,-179
,-134,-187,46,-50,-117,-30,-40,-159,-23,-138,-26,2,-108,-110,158,-240,-129,-101,-311,66,-4,-309,161,129,254,-259,-79,-240,-226,-74,76
,-316,129,-27,-183,-21,29,-238,109,169,-243,-244,-158,-123,-132,54,16,31,-77,48,-2,62,-46,-323,-13,48,-73,-115,-37,-57,103,26
,-183,-6,-158,22,-741,-798,98,116,-102,109,69,-201,-70,-26,-103,-94,-115,-84,-1222,72,113,194,42,-179,-209,-104,146,-249,-244,-148,174
,-120,27,-132,2,15,-96,78,-52,-204,-105,-166,-192,-32,-201,-69,90,57,79,-94,11,-95,-94,-100,-123,100,4,-151,-38,12,-38,-89
,-136,91,-3,-163,101,-193,-29,74,-124,11,-216,-51,-179,-181,22,-156,51,20,-28,74,-13,-138,-135,8,14,-82,-73,-43,-100,11,25
,-135,-42,-119,98,-13,-97,106,-39,-123,79,-87,-75,-73,-30,8,-88,-145,-64,-75,-87,-23,59,84,-73,63,43,2,-65,-66,32,-25
,-161,28,-89,-236,53,71,-51,-217,-288,-7,148,157,-184,-230,11,-60,-90,34,2,-103,100,-32,-204,27,54,-282,132,-127,-62,-18,-145
,-232,-161,65,-74,57,-96,11,-96,-31,-257,109,40,-152,-117,-24,-110,90,-170,-70,86,28,103,-97,-19,-57,7,63,64,-105,-151,-70
,-67,-10,8,-66,-23,-3,-74,-179,89,-106,-47,-102,-46,-83,-69,-78,-38,103,77,-40,-37,-35,-168,-13,16,-7,30,-40,-154,-44,-6
,-130,8,41,-162,6,-356,-114,-80,-59,32,78,-222,-91,-37,-313,-124,-44,-281,-76,97,-117,-307,163,111,-137,152,-129,-125,-22,-3,-17
,-35,-107,-38,50,86,41,-127,-75,-154,-105,5,-20,-216,-123,72,-124,-29,93,38,36,-78,-38,-15,-46,-97,90,-121,-124,-39,114,95
,0,-320,-246,-146,-125,-98,58,-31,-323,29,289,60,-101,134,-141,293,-68,-359,-362,-178,-239,-167,-314,253,-516,27,138,-163,39,116,54
,-229,-54,0,-59,-241,144,-225,-196,-148,-172,34,-5,-291,-78,165,-129,76,-86,-96,3,-115,2,-52,-53,-20,111,-26,-35,15,-4,91
,173,120,-892,-51,-70,-254,35,91,-157,69,-391,-96,78,6,-108,-43,-207,-278,8,-117,-159,55,-702,185,18,-17,-2,365,51,-325,-220
,-76,-167,-190,-88,-40,-23,-7,-111,-165,87,-164,147,-72,111,-123,211,-70,89,-191,-167,-35,94,-212,112,35,170,-284,181,-218,-3,91
,-154,39,-168,-169,-24,-108,-199,36,-72,-167,-46,38,-43,22,61,-126,2,-75,78,-73,51,-100,-19,-50,-141,-46,69,57,-157,-74,107
,-5,36,10,-49,-2,-41,-80,-3,82,-202,23,52,-59,21,47,-21,-114,69,100,61,3,81,-114,45,-39,61,-77,59,-160,-65,117
,-291,-19,-153,-240,-14,-96,-281,210,-75,-163,204,41,-191,-135,36,-47,-25,-61,54,-111,-217,231,138,31,-172,-23,-5,-36,-64,42,105
,44,-82,-16,-78,-44,-77,-56,-23,-14,40,-141,13,-30,-85,9,108,-100,-134,43,-158,84,76,3,-74,57,98,-58,-116,-86,28,-12
,145,-499,-35,44,-185,-68,45,-115,-221,-316,236,87,-251,-6,78,254,-632,-116,3,137,-180,-180,-144,-171,-113,-1,-152,-70,-172,-43,-231
,-57,-22,98,-133,-116,-73,90,50,-38,-91,-142,-108,-110,-66,-16,-93,17,-21,-63,-131,-43,-31,-114,-99,-101,18,-109,-134,-84,128,-111
,22,-317,115,-103,-208,60,-157,-402,-434,-82,50,-142,67,-6,-531,119,186,-487,-10,46,-58,96,92,-3,-1,-198,-116,-28,-77,-57,-114
,-102,-35,-61,73,36,-61,-115,-31,66,30,-106,12,-88,-67,-136,-10,67,-56,-51,-49,-104,-63,123,64,-90,-42,93,-81,59,7,-84
,-7,-82,-130,-191,-26,-122,-20,50,-468,-9,-137,23,-63,-88,141,168,-148,-96,94,-154,-72,-98,-159,-193,-209,-198,-650,219,-434,249,133
,-142,13,124,-79,-84,94,-102,-170,-102,-44,-117,-22,-231,41,-50,-134,-128,-174,-107,-7,7,-103,-75,100,86,49,-175,-95,18,-126,11
,-59,-98,12,-25,-194,-29,-88,-109,-109,-223,116,-14,-89,42,-1,-4,65,72,-151,-107,-61,81,74,58,-125,-102,34,54,9,69,-91
,-317,-326,3,-382,308,-279,-20,-50,164,-214,-181,-69,-50,88,-105,-52,160,88,131,-170,-201,-31,-1089,-108,-144,-186,-481,63,142,49,14
,25,-3,1,36,-187,16,-10,-246,-300,-2,-91,-48,-131,-80,-300,-59,-161,29,-38,-117,-73,110,117,-73,-55,148,55,-101,77,-4,-137
,-65,-156,49,-140,-149,14,92,-75,-13,30,-57,-121,-87,46,-150,-8,-106,-125,88,14,-149,21,80,-138,-35,-96,84,107,-33,4,-125
,8,-32,-10,-164,-29,-69,71,-107,-141,57,-146,23,-19,-73,-47,-74,10,108,-132,-222,112,-52,134,-1,7,-41,-128,38,-154,-23,68
,-146,22,-156,-133,-60,-72,50,0,8,-195,-6,-20,-172,78,34,20,-171,-107,8,-195,-31,-61,9,17,-76,7,97,-5,-212,96,-396
,-52,95,-49,-214,-85,-344,-36,148,-69,-24,-162,111,-292,5,-237,331,-201,-354,-196,267,-56,204,-484,53,-237,142,56,-192,-324,-106,7
,-184,83,83,-269,164,203,-72,-95,27,-119,120,-158,-37,-258,-471,-61,-216,-93,98,0,-26,150,-2,-28,-56,-80,-836,-183,-40,-153,-836
,-139,-147,-54,-23,104,-108,15,-103,-35,-116,-161,48,-190,-24,-148,-23,45,-67,92,73,-68,-37,63,27,-140,-121,-58,-37,10,-140,-92
,-119,-118,-21,-114,-34,-37,31,-99,-104,111,32,-89,26,19,-149,-87,-26,69,-122,20,-67,-57,123,-59,-51,75,-30,54,-52,-27,-147
,-16,-69,55,-130,-137,39,-59,54,-10,11,9,-111,-136,-131,-39,19,-66,4,-57,-47,-85,76,-45,77,39,-68,-132,-47,-122,-44,86
,-116,-170,-82,-83,-1,-110,23,52,-12,-136,-48,75,-25,-78,-132,-170,-148,-19,19,66,-117,44,84,-55,-30,-171,-122,25,2,11,-64
,-196,-6,-158,47,-29,-95,-93,98,70,51,49,-137,-188,-53,-134,91,-49,98,-80,-101,72,48,-77,54,-142,8,-1,-127,16,-142,-89
,-134,-15,-73,-83,-48,-132,-128,55,-180,-116,57,-154,55,-102,-160,-49,-152,-52,-256,-70,-64,-93,-201,-67,68,-116,-18,-94,-55,75,-19
,-64,27,-21,-144,-57,-37,22,-6,32,-68,-139,-54,-163,-99,-135,-82,-42,126,-44,57,-37,97,42,-134,-87,-62,113,24,-81,-99,-151
,93,-60,22,-104,-32,-743,79,-18,-308,59,95,-133,18,-372,111,-367,-160,-175,363,115,-314,-424,205,-228,-19,-128,-943,-42,143,163,-121
,77,-134,-135,-185,-24,-66,-40,-138,-68,-158,73,61,63,-170,-131,-115,57,77,-86,84,-115,-14,-105,-133,74,-20,-39,-112,23,-11,-31
,-125,-213,134,-63,-190,-378,-18,-270,-113,-23,-12,2,-15,-206,193,-164,-82,80,-531,-98,4,50,-4,-134,-67,-85,129,-148,-46,-43,154
,-311,40,-27,-245,-211,-74,-207,78,159,-293,-220,-221,-124,-32,-83,-156,67,118,106,-142,-83,-40,-13,113,-188,1,-13,13,-43,42,189
,12,-112,52,-178,149,87,33,-314,-91,-30,-106,-89,-201,41,-64,66,-192,-123,107,61,-60,-69,103,-208,198,-224,60,455,-237,142,-481
,21,244,91,61,-60,-36,-76,-385,-109,42,-139,-255,131,-233,-266,104,116,-267,-116,-82,-340,256,-121,168,-86,126,-90,262,-18,-297,-251
,33,-60,-136,-18,-82,-17,-79,90,-123,11,2,-136,-76,-91,-12,11,9,-132,11,79,108,-70,-92,3,75,-169,9,-130,8,-44,-73
,-119,-312,-434,94,-266,-186,124,-99,43,152,141,-64,116,-98,-60,-46,72,-30,56,140,173,-7,-280,-135,-246,75,82,131,-92,-79,-23
,-30,-156,-136,75,-132,-4,-32,-57,-33,-99,20,-146,-107,18,15,-166,55,-92,-87,-55,39,-214,46,-13,-6,2,109,11,-21,-117,64
,-263,34,-303,-283,76,-41,-291,-59,82,-89,22,-207,-250,51,-83,38,61,-91,49,7,-127,-144,-97,-34,180,-68,13,-2,-87,-141,58
,-223,7,-108,-237,18,-97,-74,69,7,-16,-98,-66,26,-57,-43,-186,-98,-205,-198,-4,-169,-52,104,-120,110,-44,144,-18,-27,-50,-7
,-145,-70,-13,-40,-147,-20,-177,29,19,76,-63,-129,-191,14,-163,-136,-49,108,5,-114,33,-81,33,-29,44,-54,60,55,-158,-18,132
,-108,-157,70,53,35,0,54,-384,-82,-85,25,-712,-87,201,-293,-185,-65,-129,-113,146,104,56,-448,-113,-11,-95,-622,26,69,114,-2
,-322,59,93,-315,-113,-4,-205,-176,-298,-200,58,204,-310,143,107,38,-13,-100,51,-97,129,115,-187,-170,-84,-20,103,8,-5,-12,0
,-158,-128,-194,104,-219,-54,-131,-295,133,72,-223,-139,-106,-300,84,-114,9,-56,-211,-123,-80,144,89,16,-66,-59,31,-109,-1,-79,279
,-48,-193,24,-56,-91,-216,-147,48,110,-9,-166,-75,-94,-78,-156,-9,-20,-114,-62,9,-27,38,35,-30,17,-16,-35,-160,99,9,10
,52,74,-291,-87,-294,-232,40,-66,58,49,-124,-196,-27,-228,-235,17,113,-226,70,-223,-26,41,-108,102,-53,-24,-47,229,-58,184,-138
,-155,56,-202,129,-417,-126,-82,-359,-96,-78,-96,46,-188,376,128,19,56,-256,-40,-186,-60,93,22,155,47,-47,-96,-91,155,-216,120
,-181,145,92,-197,-182,82,-95,-86,74,-200,66,-117,-294,15,-234,60,-74,-63,-184,-154,-125,9,-47,-107,-167,115,-112,111,-62,90,19
,-222,-109,174,-127,-153,-149,-283,31,-3,-183,-157,126,-256,231,22,29,152,48,-237,34,-36,55,6,-118,-82,69,131,146,85,-102,-11
,-100,-6,-6,69,14,-1,63,-174,-120,-197,77,-50,79,-233,-100,109,-76,-10,-50,62,-170,59,-43,-161,6,-11,33,52,-112,96,-146
,-145,-42,-583,-8,-7,-28,-188,-28,211,-54,-22,-234,-100,-74,-132,61,-106,-423,-29,-293,-266,-89,-127,233,-57,317,-514,-154,-131,-305,-5
,34,-275,28,-10,-477,-689,-24,-199,-213,20,80,-493,70,90,-376,-149,95,22,85,199,0,-29,126,-40,12,11,52,6,-287,-79,64
,-55,-23,26,-54,-20,-132,-146,-25,-85,-181,61,58,-75,58,-20,55,-15,-14,-20,-27,23,-99,42,16,-48,91,-85,-121,31,-78,75
,-124,-196,-81,-205,-26,137,-154,-151,-119,-86,75,-156,-32,-58,141,41,-174,24,-146,25,106,-16,43,68,-103,112,-150,9,-131,91,-206
,-51,161,54,136,211,-223,-18,-405,58,7,-42,12,49,-369,-255,-94,-90,-264,-164,-82,-68,108,-240,-81,-183,64,-325,-78,-34,-205,-252
,19,-220,-129,5,60,56,-135,-157,-66,-18,47,-16,-173,26,-77,-37,-15,27,51,-124,71,-51,-105,8,-5,-134,-54,-30,-2,-36,30
,-164,31,-15,-127,20,-22,-142,-38,51,-7,-144,50,-77,-32,-7,-77,-107,120,-56,-8,108,-73,-151,-32,-57,82,-40,-106,-15,90,-67
,86,-209,-38,48,-226,-87,-82,-106,-188,-47,-91,10,-4,-350,-137,-102,38,-141,-117,52,20,-170,-112,-237,24,-167,-25,75,81,126,120
,44,-36,-60,-110,-116,36,-133,-1,-32,48,-294,-209,19,-171,43,-94,-164,55,-39,72,-93,16,-48,98,-131,78,-33,-48,78,27,-258
,-82,-330,-600,-104,-73,-205,16,-499,-541,-182,268,164,17,-270,-337,70,71,-97,106,53,45,51,70,-92,-200,-91,167,17,-10,-209,-286
,88,-288,-462,1,13,219,60,-193,-445,42,-105,-304,-71,326,-196,-113,129,94,38,-85,3,-553,98,2,-62,175,88,-96,-169,-133,-1396
,-166,142,13,-119,72,7,-229,-48,69,-47,29,67,-135,25,45,19,100,18,-126,-18,33,-59,73,-61,-34,27,4,-37,54,-48,23
,-69,-178,-74,-51,170,142,-12,18,-224,-117,110,-174,-248,-25,-176,-104,17,-137,-678,-213,-44,-190,224,6,-445,-28,-12,101,126,84,-136
,-63,-264,23,-36,-106,-597,11,-145,100,-45,43,119,90,-227,-76,33,123,-77,-66,57,161,111,-388,-146,-162,-89,17,-192,79,93,-43
,-260,176,47,-256,41,58,-183,227,-63,-142,-128,-94,13,-217,35,-162,-181,-110,-50,-165,5,43,131,-229,12,-240,58,-126,-92,-133,-380
,50,-117,8,180,46,-411,70,-137,-234,33,-175,29,-13,-153,-314,74,-305,-9,236,-201,-244,-16,-538,219,127,47,-517,80,32,-227,-640
,53,-263,33,46,-272,-39,-40,-179,-192,-159,72,-132,60,-127,31,303,-316,-108,82,-90,103,-831,137,175,-328,160,-374,336,15,-132,57
,-128,7,97,-81,80,89,-185,-101,-296,-72,56,-318,-167,-487,224,-186,-112,-238,196,-68,-56,-123,12,-165,139,-237,-29,-118,-96,175,207
,-70,-44,-60,-32,-23,-138,66,-133,-77,-82,-87,18,-35,-117,81,85,-101,-82,-3,-103,-14,74,30,9,60,117,-132,-136,64,22,-26
,-109,-73,12,-65,14,62,96,44,-256,12,60,-36,-93,-274,-183,-88,-88,104,-264,-77,-60,-124,-257,-146,-33,-205,-36,-96,179,219,-335
,62,-114,-146,-135,-96,7,18,-14,-115,-195,-31,58,18,29,-18,-20,-38,14,49,107,-90,-6,-16,-62,-145,-124,-20,-86,60,-76,-85
,-5,4,46,-212,17,-125,-73,38,-90,-46,-9,-142,13,-104,-96,82,-141,-19,-28,69,-60,48,-69,-22,-20,-122,23,20,-8,-57,-4
,-239,-255,116,-195,-133,63,58,-67,-2,-177,-168,72,-270,-54,-3,-131,-46,-72,-188,-117,-161,-5,-205,41,95,27,49,244,-271,219,-304
,-171,-162,-155,-18,-4,-105,-29,-94,-15,105,-171,44,70,-30,-115,-34,21,-53,58,-155,46,0,48,84,-71,-1,-78,-5,6,37,-24
,-5,-144,29,-195,28,-257,-107,153,16,13,-110,-122,-134,-87,-215,-121,-42,-121,-18,-69,-36,-59,-157,-52,-22,183,-153,50,-75,113,-206
,-94,74,-194,-104,257,-193,102,-233,-372,195,-63,-102,146,-138,-131,108,-36,-124,-71,15,-206,-68,13,-5,136,-53,-102,-70,-92,-41,-365
,-37,-176,71,40,11,-180,-39,-1,-161,30,-195,24,-45,-90,-131,-155,128,-52,-51,20,-15,-18,-197,28,-17,-127,-54,-81,-42,-229,-84
,63,-47,-38,-104,29,-105,-113,1,-84,27,-169,-22,-205,-182,39,-119,54,-111,-15,-131,-145,39,-27,-77,-158,-26,-42,13,-33,-89,14
,-31,49,128,-69,88,44,-41,-217,-144,-8,-304,-121,-3,-283,-161,-126,55,12,-81,176,58,-215,116,-100,-59,-74,-17,15,-139,12,-62
,-226,71,-137,-12,-52,-72,-134,165,91,-164,-289,-80,-59,-33,-129,-205,62,-62,75,-104,148,-40,-74,92,-131,-130,-77,82,-23,-86,-66
,-14,-185,-112,59,43,54,-209,-192,13,-191,-39,-200,13,-227,41,54,-40,-105,48,-64,-13,-151,26,-90,50,-54,-93,-41,21,-21,15
,7,-351,40,-32,-286,-8,67,-238,-45,29,-164,-31,-140,27,103,-110,-9,-111,-239,-36,-67,-90,-62,175,2,-45,40,177,-159,-114,-19
,-241,-136,32,-8,124,269,-163,11,-527,-121,-5,-128,-221,71,-77,354,-101,-259,-775,-30,-64,136,17,-157,-226,-147,-151,3,63,207,-19
,-113,-58,-158,-116,-97,-117,56,1,21,-15,-13,-56,15,-35,-4,-15,61,-112,-6,10,-111,-72,56,58,180,-137,-83,20,-94,-5,22
,-110,-196,-17,-10,44,53,48,-185,-77,-231,-86,-259,-21,-152,90,48,6,-168,89,130,-469,260,-5,40,-56,-357,139,79,-64,26,-111
,-161,-142,-211,-127,18,-140,-3,-72,-5,-20,3,32,-175,48,26,113,-70,-266,-128,-12,-39,-68,51,200,295,-223,-378,84,83,40,-222
,-53,264,154,48,-96,-153,128,-23,35,-65,-229,-186,-66,-277,-387,-174,58,-44,-68,-23,-33,-54,60,-73,-20,-119,29,-162,-27,-53,-5
,-138,35,-318,94,-117,260,-98,112,9,-145,-144,-177,-74,-275,-19,40,-67,-189,5,20,-77,-29,-122,120,-109,-53,169,85,19,-62,-231
,42,-150,-197,-105,212,-165,-49,204,-551,75,-171,-37,32,-75,-210,-153,115,-115,239,-109,-132,-87,50,-28,-128,-132,-169,67,84,42,-84
,17,-26,-3,-105,-60,-207,-78,106,-238,-41,-115,16,-36,-188,23,-9,-198,-50,-193,65,67,-57,-19,-105,-214,-43,-19,-184,-40,8,95
,-237,-136,-31,-109,28,-25,-243,-10,59,-181,-4,47,-81,95,-7,-61,19,-82,126,-39,-3,93,-60,66,25,21,-162,-255,-126,-113,-431
,-142,2,-183,-77,-113,-12,-164,96,-500,36,72,-65,-111,85,-345,191,-228,154,-306,128,153,-153,72,-82,-170,-4,-242,53,108,85,71
,-51,-115,-83,-79,-168,-25,2,-65,7,-117,97,-211,102,50,-147,60,-122,-109,61,77,70,-74,-71,31,-75,-25,-42,5,-130,-3,-4
,-87,-63,-160,-69,-39,51,11,-201,-299,-158,-221,137,-145,-101,52,-199,-150,-88,-99,-153,-213,92,-24,-4,47,45,39,-146,-105,64,133
,-252,-108,125,-222,-73,63,-69,118,-39,-325,-80,-151,-306,-68,70,-27,-199,62,43,-205,-207,19,267,206,-61,127,-305,-131,-13,-39,45
,-31,10,-354,-36,-541,-94,-117,-652,273,-172,-23,-241,22,-57,-419,53,-113,129,144,-270,-54,-191,62,108,-106,-163,-275,-182,-118,-70,-715
,-182,-19,-184,35,25,-84,46,-274,-104,-96,-23,-77,-15,-29,-42,-181,12,115,-140,68,-114,128,-73,-207,-41,-68,-62,5,130,-144,143
,-183,124,-226,-42,-34,-199,-141,-110,-9,-233,-116,-22,-264,-93,109,68,43,-117,-40,22,101,-57,34,-387,54,-374,318,-58,60,-16,129
,65,-125,-99,81,58,17,130,-117,-19,16,26,-9,-90,-37,-23,-102,56,-33,71,10,90,60,-192,-14,34,-38,-24,-13,-74,90,-34
,3,140,-164,-220,-203,-337,-116,-52,105,0,-217,-423,16,84,-316,117,59,-703,149,68,143,141,-249,-79,53,-136,100,387,-196,-30,4
,-213,-301,-343,-37,235,-79,-63,-241,-160,-258,248,147,-6,35,-325,137,106,-32,-31,-62,102,17,-34,-179,-262,-176,274,-83,-112,-166,-585
,-208,-124,20,-156,196,-45,-43,157,14,-163,-174,-71,-17,-18,57,74,49,-29,10,-125,-67,-76,-265,-123,-257,-148,277,-182,-251,149,-415
,156,-23,-130,138,71,67,-26,102,40,171,-31,84,152,-99,-99,94,-4,-139,87,-51,-76,5,53,49,-49,-10,109,31,-25,-46,30
,-202,-138,83,36,-146,-131,-20,-20,24,-56,-116,-119,67,21,-101,54,-3,-52,33,-153,-130,59,108,-26,98,10,-153,-79,-147,-114,111
,-25,-258,-213,-190,-58,49,-103,109,84,-50,-114,11,-103,-77,-79,23,-42,71,-107,-7,-6,-11,-75,45,-16,-106,-192,-146,-20,-23,-2
,-188,125,-168,-240,-84,-149,-216,-11,17,32,119,-64,44,-132,57,-127,-209,138,292,-131,145,38,-89,7,-180,-62,121,-102,-48,-129,153
,-46,4,-68,31,-148,13,-159,32,-68,-121,-107,-39,32,-9,33,-116,-53,-12,84,-142,74,47,-89,-37,-125,144,-21,77,-117,-105,97
,-181,15,25,28,-196,-22,-45,-2,-296,57,89,-40,-71,-119,-73,27,68,24,-168,128,123,-149,-28,-34,-45,28,-151,-140,-132,58,34
,-133,-496,-762,47,-472,-100,-55,211,76,-7,-181,167,-189,-113,-66,-136,-80,71,-222,-163,56,-95,-75,-67,-31,65,-223,-94,-120,115,-284
,165,-310,75,-196,245,117,-31,-603,-124,-26,-993,-201,-77,-1201,-68,-51,-38,-89,-505,-143,-90,70,-415,21,-147,-49,-537,-80,-14,-35,-361
,-86,-36,59,28,-26,4,-161,68,-273,-121,64,-150,-102,-17,-297,-49,-122,57,-114,-150,3,23,-64,36,109,66,-22,-162,-183,84,-53
,116,-304,-303,7,-222,115,6,174,-114,0,57,-74,19,-240,-366,-231,-180,-62,352,-94,-13,-73,-23,-135,-165,-112,191,144,0,-47,131
,19,-126,-80,-88,5,79,-96,-122,-259,-303,230,84,-243,-174,-18,0,10,-177,65,1,-41,12,43,-43,-189,-141,-119,-171,-178,40,3
,-120,-215,1,-54,-34,48,-17,47,-395,81,-428,-99,-216,146,77,-169,-106,-96,178,-10,-137,33,-33,18,-117,-76,-142,-88,-116,206,-180
,-108,-8,-137,13,-103,-60,-73,23,-114,99,-145,-162,-156,-14,-68,78,-34,-140,8,73,-105,-93,-62,-14,28,86,72,62,-81,-143,-35
,4,21,39,-142,-88,-274,-165,-118,102,-258,-217,-85,-115,-389,102,150,248,-457,-46,-16,200,-57,-401,-21,28,-62,43,51,63,103,-136
,-143,-159,-27,53,6,-45,-226,-69,-17,43,-129,-2,21,-52,34,-70,-78,11,25,-13,121,-136,41,-135,-125,-83,20,-33,99,53,-76
,-57,-200,-509,-110,-189,33,-39,-385,-118,42,40,-104,-172,107,-128,210,-7,-43,141,-266,-209,-52,-860,-16,-40,132,-745,118,45,85,128
,-150,106,-197,-367,218,-2,-227,-205,-39,-1,-120,143,-69,-57,108,-137,114,-67,13,8,-41,46,-130,57,-158,334,-518,-88,-33,-45,18
,127,-86,-40,-83,-49,-55,-47,-123,-104,-75,-61,-35,1,-115,-29,68,-100,-141,-87,-136,-17,27,124,41,-22,74,31,-126,-44,60,44
,-126,-133,-2,0,41,-158,-145,102,-160,1,-99,59,58,33,-89,43,-57,-153,-93,-78,-63,-81,-112,-139,-99,-134,71,-116,-25,19,-131
,-142,28,-278,-74,-92,40,-146,-216,-275,-72,274,85,15,-311,1,-1,-102,-60,-13,33,-214,-45,-90,-15,-211,5,-208,203,-94,-48,6
,-140,-211,-127,64,-171,-47,57,-1,-34,3,53,38,-89,-51,-23,-34,76,-44,2,40,26,-147,92,-42,-75,34,-91,-144,-58,45,35
,-186,-18,37,-2,-121,59,-120,-165,-81,53,-19,-121,-65,-5,-122,74,-13,-4,-54,-107,-145,-101,-155,59,31,-163,-29,-1,-88,-180,78
,-123,-353,-352,-71,-341,123,15,-21,49,-35,-262,103,11,-84,-308,-70,4,149,63,120,1,8,161,317,-128,-177,-493,53,151,-847,239
,-143,-95,33,-69,-161,-13,-214,65,-173,-64,54,-19,-162,69,-65,-58,-58,58,-120,-90,-38,-23,-46,-48,-115,224,-69,47,-128,-109,-22
,-382,242,22,-125,-81,-118,-286,149,127,-135,-119,35,-20,-32,-153,-102,-50,-120,127,-12,13,87,-119,2,-140,49,-72,-18,85,94,-293
,144,35,31,42,-112,55,205,-41,-163,174,54,-40,118,-21,-53,-55,-133,65,101,-42,64,-49,12,70,43,-101,19,62,59,-75,-41
,81,-153,-137,31,-105,-213,-70,-172,-139,-69,65,-205,14,-142,-8,129,-176,-52,-149,-73,-10,85,41,121,7,-125,32,-19,-92,-67,20
,26,23,-82,50,-70,-45,-168,-57,42,-107,90,-134,-23,-244,-112,23,-91,122,-118,-58,-41,121,7,-63,41,-205,22,100,-126,31,37
,-133,122,-179,94,-82,-164,47,-319,46,-39,11,-98,-10,-77,-17,-280,-24,-109,-389,109,152,-182,-167,-74,-166,-60,-59,-138,-123,-271,301
,-178,-245,13,-154,4,-51,-247,140,-104,-183,152,41,9,-300,-101,131,-78,13,84,-225,-257,-13,90,-117,-149,-130,28,-24,197,-3,-77
,-125,-210,-110,-143,-263,95,-224,196,-154,-211,22,27,-34,-38,-32,-67,102,26,-223,66,94,-130,144,-113,-117,-61,242,-110,-86,-41,-86
,75,-86,-118,67,-370,11,-106,18,-293,-20,-20,-172,120,160,-208,-255,-41,-383,308,230,-369,135,-184,-169,-52,-31,30,208,-36,78,57
,0,-160,-391,-131,-276,181,-11,-65,-26,64,-285,78,-113,-137,-151,-130,-260,-29,22,-105,141,-38,0,-93,-120,135,14,91,-34,173,42
,59,-132,-55,-12,143,-27,-31,-240,-62,-141,-186,41,-49,-25,-116,197,-162,6,-182,-23,-97,33,85,33,-191,-85,19,25,-109,-62,-33
,-130,41,-92,-20,-56,-10,-9,19,58,-144,78,-50,-47,-28,-61,-108,126,-32,46,-16,32,-19,-52,-36,-158,59,108,-28,-29,41,36
,-7,-82,-76,-51,48,-194,-43,-144,24,-47,-55,-15,-41,26,-175,-1,-123,-43,-98,-161,54,-134,56,17,4,-26,27,44,47,-111,-5
,21,-26,3,-165,-16,-142,-140,-128,32,-193,43,25,54,5,-121,-56,35,57,-53,-66,91,75,-186,85,-70,-50,-138,-74,72,74,-9
,21,-137,-51,-78,-125,-101,-74,-205,-55,-57,81,-91,-47,60,-116,-76,-93,-22,20,-35,-46,-70,29,-215,14,-8,-80,75,-195,52,-4
,66,-10,-144,-84,7,-121,-9,-198,-119,-73,74,-38,9,-181,9,-113,-32,-29,-118,-52,-82,-5,-22,9,89,-112,27,-164,52,-93,30
,-84,95,95,-1,199,-51,-105,-402,22,-56,56,-42,116,-282,-128,-238,-143,-137,114,-180,-125,-151,-37,-106,-24,-41,-367,-282,-29,5,44
,37,16,-47,36,-19,-111,40,-159,-63,-124,-121,-177,46,-28,-179,43,-18,-183,36,3,-192,96,-13,19,-19,-2,17,-59,53,36,12
,162,-90,96,206,-43,6,208,78,-115,50,-13,-147,99,60,10,-25,63,-22,-83,-41,94,-38,24,41,-12,-50,59,70,23,17,-4
,-130,-203,-512,26,-115,-46,24,-957,225,-143,-217,-41,-47,-137,-247,-54,-69,-150,-178,90,-13,137,-82,114,52,80,103,-140,-151,-43,-44
,115,99,6,-75,32,-138,-26,-271,64,42,-309,-16,135,-379,2,108,120,-800,25,-69,-107,-235,-931,-345,-261,-601,528,-75,-61,-136,-72
,-103,-251,-96,-30,-172,77,58,-169,-200,-68,150,-62,-80,76,-140,59,-94,-156,156,105,-2,-122,-77,182,-129,307,-261,-25,-130,-109,-59
,-226,15,73,5,-251,-54,-177,120,-143,-245,-90,-52,-128,-208,-68,16,50,16,55,-85,5,-10,65,-106,-153,71,-223,-145,-128,-81,63
,18,-126,65,-201,48,-202,0,-192,-60,21,-223,43,-208,-234,24,20,112,-136,-156,-36,29,-41,29,160,33,-138,31,-69,-83,-83,-105
,-24,55,-201,-228,-40,-94,4,116,85,-237,-156,-49,-83,-108,6,34,-132,-77,56,-9,-87,25,27,2,15,49,-222,-29,-102,-36,101
,-112,-181,-107,-215,212,109,30,-246,-101,-275,172,-29,-106,162,-99,70,-49,-86,-125,-74,-121,169,-68,34,171,-350,34,48,6,7,-83
,-141,32,25,-109,-368,53,-33,-83,-40,-206,108,217,-190,-266,-56,-21,-157,40,-25,-12,48,-23,109,362,160,-225,-450,-210,-120,-203,-48
,-132,-399,35,-242,51,51,-175,-314,-194,-223,-118,-108,-164,-158,174,238,178,19,-541,151,17,6,142,-250,-251,-220,147,-60,112,-78,112
,26,18,-43,-137,-1,72,58,-254,-167,-136,203,-93,-75,-15,-159,33,-297,125,51,-91,94,-72,-13,-29,77,-152,51,32,-144,-55,22
,-173,-34,-118,-38,84,-164,-64,-154,-117,-169,-156,15,-155,106,52,103,-144,-10,-94,46,-101,7,70,5,75,13,-148,-124,-76,67,14
,57,-253,-177,-197,64,60,37,-190,-97,-139,-181,-78,-56,-165,65,-175,82,-120,40,-84,62,89,-171,-56,-69,122,-11,-76,98,16,-22
,58,228,21,199,-1074,-6,-37,-543,-494,1,-257,-1306,-45,-488,-12,-178,-4,-111,-573,-52,-154,33,-155,-164,73,-3,-345,57,-129,-66,54
,83,-165,-13,150,-79,-157,-108,185,-284,-51,-225,-142,-77,-97,147,-107,-82,90,-86,118,-58,-48,-305,-163,44,-24,-129,-146,156,55,125
,-35,-86,-48,-174,-47,-68,-188,-108,-125,16,-146,5,-20,70,66,24,25,-248,-20,-87,-92,-32,99,-109,61,122,73,-4,-188,114,-41
,-189,33,-210,-5,-88,1,-83,50,55,-166,-138,-176,-76,-52,17,-98,-147,76,31,-87,36,-26,-30,79,-171,45,-47,-9,24,-114,62
,-133,-126,-18,-185,-163,-82,3,-109,20,-82,32,-141,-36,-35,76,-58,-147,-143,112,-110,-62,-140,-35,-91,103,104,-75,-10,-131,38,14
,-15,94,-99,-287,199,-4,-29,17,-486,-52,2,-190,-88,-48,-194,274,-63,-452,-152,252,-81,-219,-207,171,-134,105,-32,-208,-161,-362,568
,35,-86,-38,44,-124,-117,-12,-125,-251,-92,58,0,-49,9,-69,-63,-58,-183,-69,98,-20,11,-85,110,25,-42,-167,-117,-128,1,14
,-163,81,-158,-163,-45,40,-122,15,-214,43,-124,-104,24,-98,66,30,8,-141,-16,-69,-54,107,-74,-54,-132,22,-75,52,-15,-78,69
,54,-135,-339,118,-443,-191,-74,-177,38,129,116,-422,-109,-342,-108,116,-136,-258,87,-126,-203,-197,-277,-15,-120,122,-80,175,-65,188,94
,-98,1,95,-8,-161,37,-177,-91,-223,-94,-65,-23,-16,-175,-108,36,-145,95,-173,254,-305,152,-244,73,-66,80,108,-193,-144,-62,-347
,50,-299,65,-75,-39,-51,46,-5,-323,-90,-52,56,-137,-170,37,-4,299,86,-376,-24,-6,-108,93,-154,47,-67,-89,-52,-106,-20,-406
,-68,-6,58,-209,101,-132,-210,-522,-701,-89,290,61,-60,43,-39,-148,-221,-236,-687,173,-66,-106,38,196,30,120,-59,-533,-361,305,66
,-158,-56,-129,-74,-95,13,75,65,31,-78,-66,36,-53,-141,-83,-132,-6,67,8,-18,-132,-17,107,-37,1,8,-25,-9,92,-14,-114
,-4,-410,-182,-104,-155,-536,43,-38,6,-161,-144,118,-135,1,-428,91,-559,342,-53,180,-163,-19,1,-199,-170,-89,185,-228,32,-74,262
,3,-109,60,-78,-222,-27,-224,247,-67,9,-300,-227,63,21,2,89,-149,-73,82,51,-226,-50,176,356,-154,-39,-185,-226,109,37,45
,43,-68,-163,-106,-141,-16,-88,-79,5,-64,-116,35,-110,10,1,28,35,-97,25,28,12,-95,49,48,39,-2,-78,-20,-142,14,-83
,-32,-95,-107,5,-5,-59,-12,-125,26,-49,76,1,71,-77,12,-3,108,-179,-47,30,-106,7,20,32,6,64,-138,28,-69,62,-161
,-221,-57,-220,-222,108,-83,-135,-160,-186,-27,-77,-37,0,175,125,-192,137,-290,114,80,55,187,-255,-180,-84,-53,-125,29,11,-3,227
,-184,129,-95,-82,-199,-113,37,-133,-21,129,-260,-811,-153,-218,-205,-92,111,-114,117,190,242,-350,-260,-99,128,104,53,117,-196,193,-36
,-192,-88,-40,-175,142,-136,-310,292,155,-270,-151,-17,-248,-40,-150,74,13,156,-148,-6,16,129,-250,111,-207,37,-34,-126,11,46,74
,-174,-139,-12,-241,55,-22,-158,-42,143,-185,-187,-74,-29,96,-40,263,-160,-274,-10,-172,70,-126,-15,-60,-192,-36,-48,-167,4,-36,-14
,-134,-83,-228,-113,239,130,-157,-144,-105,-85,41,-75,-132,-123,-272,4,284,-92,-419,50,70,72,33,-131,-13,-163,-477,-170,-86,11,-377
,47,-165,-108,-145,-127,-237,61,-347,-124,-173,19,-154,27,109,-405,-19,-150,-18,140,-68,-101,-160,-79,166,152,169,-66,41,-65,-153,81
,-253,-20,-358,-174,58,174,-149,-188,-554,-315,-372,223,-121,23,162,-167,-169,-179,-1379,-96,-167,-276,-506,188,-35,14,-57,138,89,113,3
,-403,-88,-72,-382,-183,95,-397,43,181,-294,-65,154,-191,173,-63,-13,-147,-75,42,107,138,-41,-77,19,112,-67,-124,-29,-94,-104,90
,-110,-101,10,-131,135,-29,11,-141,-121,-175,-329,-272,10,3,-235,-88,113,-212,125,-149,124,-22,59,-105,-50,96,19,296,-19,-99,-91
,-189,-89,-6,-92,-144,58,-131,5,-26,82,-154,26,-160,-38,-159,84,32,53,-135,80,-75,-39,-41,-37,37,-83,-96,-103,-26,112,136
,-128,-285,71,103,-392,-516,40,183,-54,122,7,-113,-15,-202,-31,23,-199,-313,68,-189,-109,-122,230,-145,-147,-22,-140,175,107,92,-154
,33,-189,-43,71,-149,-32,-32,-133,-212,76,267,-194,16,-85,-122,239,-278,51,-145,-73,143,52,-20,158,-209,-307,246,-136,-137,132,-24
,-299,-136,178,-274,-76,280,-178,137,-579,-343,-191,-18,-119,-186,-99,-161,-111,-119,-348,83,96,38,-11,-135,-233,-258,-780,36,115,95,77
,-102,-26,-32,41,-57,-18,15,11,14,41,9,-60,-68,-125,-123,110,-60,43,-188,-139,100,-124,92,-89,83,121,-178,-25,-99,-42,58
};

long weight_1_T_sdb[2*256] = {
-60,69,33,94,354,69,11,253,-21,-24,234,-297,305,-21,90,-487,-50,17,49,44,358,380,-331,238,-517,353,-33,79,129,363,100,-247,-437,56,-518,84,53,-8,-97,91,439,49,-5,-81,-30,-1,-44,-61,162,-95,-38,-158,-67,-3,454,-92,114,23,-164,188,-514,-20,-57,-98,252,-56,-105,-111,16,-244,260,-341,177,-5,89,214,-55,-436,121,-234,-71,-345,-95,17,-303,-52,-136,58,-54,-458,-87,-64,-77,-54,-44,4,69,-37,-224,88,322,96,70,369,-42,173,-19,46,52,50,-227,302,80,66,-189,251,-78,202,45,-625,-363,24,-7,-179,43,100,178,-82,-431,-254,83,-64,170,-98,-406,-230,283,-40,-134,52,-9,-245,-8,-2,300,0,-143,86,109,52,-49,-47,-3,97,203,70,253,318,-72,63,259,-10,-13,207,-170,-20,-123,34,-306,-320,36,73,-75,-23,147,-77,-27,-308,-539,-27,313,116,-68,-126,-236,3,-122,163,-90,-83,342,66,-11,-217,85,138,54,18,-75,-115,116,63,167,107,57,27,-53,9,-40,45,-57,-17,76,-183,-182,262,-73,-77,81,191,-224,-343,111,69,13,-569,117,103,119,30,-361,-46,121,-114,-88,110,-289,13,-536,69,-108,30,124,-222,30,131,-327,215,-279,498,-114,-98,-277,177,-191,91
,-88,-22,-201,19,-289,36,18,-370,-15,-3,-265,308,-127,40,107,479,225,43,64,-170,-109,-377,296,-102,532,-264,-25,-47,130,-88,79,230,671,33,366,91,51,-6,189,-42,-315,28,3,-90,-34,47,-61,100,124,-21,-90,288,40,-151,-473,428,136,76,311,-131,442,-46,54,29,-115,-55,-69,147,49,527,-148,436,-310,78,88,-85,-36,246,110,281,-45,201,-47,24,273,-32,33,52,-62,483,341,-57,-64,-88,-9,39,74,76,175,112,-243,-6,-75,-96,-98,-215,-19,-82,18,40,278,-261,-274,73,136,-246,82,85,37,485,176,21,-90,186,53,66,31,-135,384,499,85,100,-286,102,397,498,-326,-24,182,63,-22,82,-5,-71,-466,35,-109,-241,84,16,45,309,39,-93,-213,-173,-153,-255,-5,59,-242,-54,53,-171,459,16,-20,34,383,201,81,57,-85,69,-57,-107,-89,224,406,13,-376,33,166,15,203,34,104,-150,-89,10,-172,68,-23,254,86,-27,44,-25,-70,51,-29,-154,-262,-115,-36,11,-62,15,-34,45,121,-20,63,410,235,-212,-49,-106,82,-18,290,202,-52,60,25,515,27,116,89,18,382,-17,108,281,112,-105,321,38,450,-255,-71,31,-150,328,-59,-156,345,-300,250,-342,1,-109,190,-287,210,77
};

long bias_0_sdb[1*256] = {
-152,86,-52,-43,51,336,-172,80,-7,-17,-10,-221,74,-37,-70,-48,43,-187,-122,-30,513,51,-191,10,-193,-75,-53,107,-24,-1,188,-183,-172,118,-82,-156,200,48,49,-3,-46,-151,-178,-55,-92,-28,-37,-237,-38,-54,-30,-62,-116,-108,82,-110,-61,-150,-139,17,-72,-52,-212,-26,-48,-150,-62,-134,-121,-133,16,-7,52,16,498,61,-127,-132,0,-70,-23,-76,-211,86,-297,1,-24,78,-123,-302,-101,-47,-21,-59,-60,-77,-114,-25,-58,-109,202,21,26,159,-80,60,-22,-91,-139,35,-30,96,30,-22,-25,83,-224,10,102,-104,-110,-127,-29,-160,-174,77,-11,-35,-71,-66,-27,-192,81,-160,-51,-95,66,-21,-1,-112,-145,-176,9,-43,40,75,-76,14,11,-6,-250,-219,-7,12,16,12,-16,127,-105,-199,33,-32,-132,83,-92,-31,-215,216,-138,-210,-188,331,-58,28,68,-64,-55,-97,-27,15,34,-84,13,-19,-216,-107,-110,13,-10,-37,11,-106,-79,-132,-63,185,304,-79,-10,-42,-118,-66,50,-32,17,-220,-79,-156,-158,-34,-180,-71,328,-30,-313,-100,-57,-72,-63,105,-205,-216,58,-78,-82,-57,97,-75,-10,-121,-255,-105,-110,-14,-233,32,-313,8,-106,42,-102,-158,42,-46,24,38,-148,8,-198,236,-162,-45,-63,78,-224,-92
};

long bias_1_sdb[1*2] = {
458093,-369426
};

#endif
