
/* Trace */

/**
 *  updated on 05/01/2023 02:17:53
 */

#ifndef __W_SDB_H
#define __W_SDB_H

char name_sdb[] = "Trace/sdb";

long weight_0_T_sdb[256*31] = {
-33,75,89,-14,-27,-136,-130,-201,-179,20,-138,9,-48,-14,-66,-134,76,101,-150,-6,-152,-112,62,-157,-84,91,69,-30,11,119,42
,-243,121,4,-47,-57,-102,-141,90,21,-216,-117,-25,-248,-172,76,-160,109,94,29,26,82,-105,11,-8,-194,152,-46,15,-40,-120,73
,-178,127,-20,-325,-94,-10,-112,-279,-383,-267,8,91,-292,137,-94,-113,-94,138,93,-144,-207,-39,-235,159,211,-228,-219,96,86,60,-24
,-96,-71,-128,-106,-9,-17,33,21,-91,-48,35,27,87,-25,11,-26,-43,-56,82,-35,-15,25,72,26,-132,-112,-4,60,-85,-142,19
,-94,-230,-288,-186,84,-83,-23,23,24,89,-1,-96,-180,-67,-193,-27,149,-167,25,90,-49,-42,71,-90,-210,-202,-216,-132,-55,-82,-267
,-93,-77,-88,-140,-130,-83,22,-89,6,-16,-14,22,-156,20,-176,-3,39,84,16,-125,-115,112,-78,-94,-102,-95,82,-80,-98,136,-31
,-111,-3,-72,-182,102,-187,-128,-99,-129,30,-79,-4,-149,-103,-47,-46,-33,27,82,190,-148,40,-103,92,-85,-5,-41,30,-160,77,-100
,-56,98,-101,7,-111,-172,-134,-108,79,-183,-167,72,-140,-173,-52,14,-63,-68,-33,-109,4,-181,-29,-58,-129,-34,72,124,-17,71,-48
,-198,-180,-150,-35,-225,-93,-216,95,73,9,-227,-60,-181,69,61,-99,-69,-108,-28,-194,-19,-130,-24,34,90,28,-96,-62,-71,148,-81
,-63,-153,-105,-10,-166,-177,30,-137,15,-66,-119,-81,60,-41,54,28,77,20,-109,45,8,-81,-23,42,-107,44,-48,37,96,-112,-131
,34,34,50,-193,-87,-96,-50,-91,-139,48,-166,-120,55,-16,-25,102,-155,-50,63,-49,126,-66,-208,-59,-124,90,27,173,280,-133,-139
,-6,-32,-55,-221,47,28,-137,-31,25,-199,103,-81,-86,-13,-81,75,-83,-4,50,-43,-24,-125,80,-60,26,-59,35,-46,-51,78,57
,-15,111,49,72,56,-130,85,-137,-102,-22,-414,-257,-48,-435,71,217,-413,-143,-21,82,-315,57,163,-101,-310,141,6,-41,171,-53,-77
,40,-316,-47,141,-86,-554,127,-147,50,47,-183,-361,-95,134,-39,-260,-168,-183,-229,422,-495,44,-428,-57,87,13,-35,98,53,201,18
,-167,2,16,-31,69,-21,-196,-99,-90,-115,-58,-10,-73,-305,65,141,182,-173,-497,156,-122,-147,-5,159,-529,164,-245,127,40,1,28
,-69,-94,-64,-124,52,13,8,20,-115,31,-192,-125,-175,-244,-59,9,-44,-59,0,-92,-114,-55,64,-58,77,25,87,-32,-69,-98,-79
,-27,-55,-107,-127,-211,-9,-202,-388,125,-68,81,11,34,223,-62,-63,-30,-159,-323,-91,-44,-103,-218,-8,135,-155,120,-196,-133,-106,-80
,-43,92,-528,-230,-61,-150,-98,-286,-155,-112,140,42,-30,125,-392,98,265,-391,-107,8,105,256,-189,46,32,-60,99,13,-117,-189,-107
,145,-7,-73,155,-17,80,198,116,46,44,36,-23,2,78,-36,-38,4,76,-85,14,107,-55,26,70,-53,54,-87,13,21,-93,16
,38,-7,-94,-10,21,-6,5,-193,-151,-10,-15,0,-63,-98,-103,-34,-11,-50,-126,13,2,-98,-87,-156,-83,10,-44,18,-48,126,-90
,-162,-96,-188,81,-76,45,14,-106,-120,-21,-78,-312,-26,-164,-136,58,-7,145,-134,110,26,-20,-54,138,-133,31,-42,-100,-133,-147,127
,-59,-90,-251,51,169,-243,-74,60,-495,-20,-369,-117,97,-63,-369,-166,-92,-28,-881,-78,52,-63,-40,221,23,-119,50,70,186,188,-255
,-64,-155,131,-192,-2,-264,-2,-70,-34,-111,70,-34,-70,-162,-57,99,-64,-24,57,-95,121,61,-135,-112,-105,25,-193,-25,-76,-29,-62
,-69,44,-5,-66,-44,-304,-142,-80,-255,-140,96,177,-18,-61,-472,348,-149,-452,-14,-161,-143,-42,-130,-142,-77,33,-230,-152,77,-13,-194
,-143,-15,-68,104,-76,-329,-220,188,-222,30,237,-15,-100,-243,-260,42,98,-195,-180,52,0,81,135,-179,-257,-205,366,-89,-28,6,98
,58,-47,-4,147,35,-293,-108,27,-4,49,-127,-278,107,-174,-453,130,-154,163,-122,-42,117,-2,-242,111,52,-215,70,122,-97,-33,109
,-205,49,-185,9,-88,-126,-31,-51,-149,6,83,-75,-140,33,-34,29,13,-217,-17,-51,20,-19,32,-125,-177,150,144,10,-119,101,-26
,17,58,-113,-149,-166,-4,90,-46,122,45,9,-63,-220,-95,-284,76,18,-58,27,-144,110,-132,11,88,64,104,-190,-36,-22,-60,68
,-23,-194,-25,-88,-147,-16,-38,-4,0,30,-20,-153,-124,-77,-285,-117,115,74,9,-57,19,-200,-228,20,-76,12,-5,-17,152,44,-63
,34,86,-54,35,-150,-37,-223,-542,-271,-22,-62,25,-202,319,83,-24,-113,-42,-128,-51,77,-125,16,-115,28,6,-16,-127,-199,71,244
,-214,110,-175,-220,-110,-43,9,11,-69,-191,-185,-35,-217,-121,165,-3,232,-158,-215,-87,158,60,43,-179,-544,-563,176,210,179,-55,-107
,-14,37,-133,23,-35,-148,7,-78,-132,-81,-51,-74,-76,-77,-100,-146,28,-116,77,-101,-47,-62,-14,-69,-118,24,-39,73,-19,-77,84
,-41,-16,5,-170,8,-195,-154,-55,-196,-207,24,95,-82,-260,54,-100,38,-85,37,55,-105,-29,-107,21,-26,-114,-116,12,48,-74,43
,-150,206,-278,-198,-157,-139,6,-546,90,-23,62,195,32,-207,-180,-31,-157,-150,128,155,-152,-38,-22,83,4,29,5,-125,-97,-72,254
,-131,-138,91,113,-236,-274,149,-30,36,-141,-146,-299,63,-65,15,-109,-150,-136,70,-55,47,92,131,-171,63,-80,-165,27,-57,18,-241
,-213,-248,-288,-48,-139,-64,-137,215,-132,74,-350,-141,-46,283,-39,-142,-167,-137,121,-40,1,23,20,-181,-226,-23,117,-94,-74,73,-355
,-154,230,31,-64,-31,-58,-82,-121,-211,11,-69,-421,-143,-272,-361,87,15,110,10,-107,7,-176,-218,-165,3,-7,16,-146,-121,-61,-139
,113,-69,-225,83,-129,-15,6,-99,102,-19,-305,83,-18,138,-112,306,-581,-189,-200,186,-77,-371,-4,-123,-59,-25,-43,-140,-126,-416,-191
,-104,-244,-143,-197,123,13,-107,-187,168,12,-299,-180,-11,92,72,-37,-168,37,22,-49,-148,58,-21,89,-160,29,-82,175,-66,57,-147
,169,-12,-67,-103,-383,-280,-129,-374,-598,11,342,35,-88,-472,26,-62,99,-412,108,-17,-72,-117,-240,-135,86,-198,3,-162,-137,-208,-181
,61,98,129,-44,32,-485,-167,15,-229,78,87,-298,13,-187,-337,-62,53,-122,91,-228,-136,10,-72,287,11,27,-123,-12,-121,133,-73
,-41,4,58,-210,-25,15,-42,37,38,-184,96,-13,51,49,85,52,28,28,-76,-48,60,90,-84,123,56,44,-199,-106,26,-20,46
,-71,-92,-23,-185,-81,-37,-66,115,-17,-174,-45,45,-93,-119,62,-7,-57,-78,14,-93,-28,128,-113,5,-115,-60,15,161,-209,2,17
,-98,52,-173,-142,-32,-157,-111,-46,-107,-20,-128,-194,-110,-55,26,-24,10,5,-2,-54,-141,-89,-31,55,6,30,72,-3,-139,-107,-143
,-7,-57,40,58,-15,-29,-129,-23,-90,-2,-68,70,-195,-82,-135,49,-61,-177,-72,16,80,-180,-51,-29,70,-20,65,27,-12,76,-117
,-7,136,-314,-72,-55,-15,73,-272,74,-120,-186,-185,-102,44,14,43,81,-101,-157,256,-2,-190,-23,205,231,-331,-174,143,128,-168,-125
,-78,30,-28,-134,135,109,-98,-61,-63,-212,74,-158,-10,-191,44,-206,-208,-121,-38,226,-168,-26,23,143,-111,51,-153,-38,-100,8,312
,-184,-37,-189,-142,56,15,-254,5,-64,-145,-69,-137,-87,86,-55,185,-73,-199,70,-211,96,98,-141,-108,32,-28,56,-12,54,13,-85
,-63,79,-256,-318,45,-148,-271,163,-7,15,-357,69,-208,-22,59,-150,70,23,73,-59,265,-175,-55,-138,-77,-32,-39,-67,184,-161,-113
,-155,-147,-41,3,-263,-695,19,-22,-393,14,-252,47,-102,-19,-36,210,-434,94,137,20,159,29,136,-164,-188,23,-234,-100,-143,-86,-1137
,13,110,-1,-61,31,-91,-134,-138,-1,-175,-154,-253,-152,-186,-78,-68,-57,-36,-87,41,-177,-93,17,8,21,-40,-28,48,-124,195,42
,-247,120,-57,-219,176,-317,-19,-401,-61,-250,319,-67,-231,-230,157,10,81,-377,22,208,-118,-86,-357,-170,26,40,-734,-100,-111,40,-482
,-65,85,-159,-81,-133,-180,21,28,-25,-154,49,-95,-155,14,-95,-66,-161,-117,-77,-174,-122,71,138,-13,-37,-21,-42,-42,-59,50,27
,-145,-84,-214,6,38,124,-238,-475,-60,-79,-171,6,-238,-223,97,-232,-146,-200,96,80,-502,241,202,-56,-109,-214,243,130,-403,9,204
,-172,-65,49,-200,-241,61,-23,-13,-150,-219,-151,24,-152,51,2,132,-57,-158,-18,-11,-47,1,104,-134,-187,-54,-145,-50,38,122,0
,42,-167,-101,-73,-97,-127,56,-8,-1,64,-125,2,26,-77,-84,88,-19,6,-181,-60,-89,-37,47,90,-56,-77,-26,103,31,-74,-4
,-69,-10,45,-240,-68,-1,-240,-155,44,-222,-2,-174,-117,95,-78,22,-44,-136,-129,-27,-40,-204,-161,-13,72,94,-15,78,-167,-57,-62
,-136,-206,146,48,-181,181,-130,18,-893,95,-223,-183,-85,-497,-359,-208,-116,-183,-411,48,124,142,-44,-73,-68,-126,-134,-156,-38,-162,-78
,-213,1,-176,53,-66,-134,-193,10,-188,-146,-68,98,10,45,-32,32,10,-43,63,-178,-106,-125,-195,-90,154,-37,-10,55,-70,111,-21
,96,-153,45,99,-13,-102,239,-111,-26,200,16,-10,210,100,-35,128,-34,-16,54,-3,-11,26,-100,-36,-15,76,87,35,-5,27,89
,-88,-139,-187,-152,-125,-71,-114,170,-170,-22,-362,-131,40,203,25,11,-120,-160,-7,-204,25,83,98,-112,-45,-110,53,-91,-67,-115,-111
,110,-7,-110,63,-124,-153,-65,29,-65,-9,81,-218,-140,-182,-11,-124,79,-136,-99,-88,117,26,-54,21,-141,-10,-53,14,-18,-97,-119
,-15,194,-309,-137,3,-159,-98,-159,56,-108,-49,-550,52,-18,-486,13,-115,-46,-73,-138,-119,-217,-258,47,150,-125,95,25,199,143,-416
,-71,48,22,-196,-177,-47,-221,-63,-179,-29,-48,23,17,-35,26,78,-55,-56,-49,-58,49,90,33,-171,127,-139,-1,-120,-84,-26,-72
,53,-154,-17,91,-33,-29,-154,-4,64,-158,-64,-50,-142,-76,-44,-70,-49,-86,112,123,-96,-19,-85,111,-153,108,-118,-30,52,-77,73
,-40,-76,-45,-147,-154,27,94,-16,-86,70,-133,-112,46,13,-28,-7,92,-57,-114,-12,60,5,-138,-87,-29,-56,65,32,-118,79,30
,-36,14,-65,-35,-97,-44,-46,-172,43,20,-177,18,-77,-19,10,-16,45,28,-66,-47,-148,-40,-31,-47,-12,7,26,-72,-71,80,105
,-348,-168,63,-295,36,46,-378,38,152,-296,34,62,-373,-12,103,-136,144,-112,64,-77,28,34,-46,-129,54,-84,199,-129,-82,-84,342
,-177,114,-364,-265,-18,-9,-251,83,-421,-285,30,-156,-143,98,105,12,196,167,-269,-171,110,147,80,34,-80,-352,0,3,260,-295,177
,-63,-30,10,75,-44,-27,120,-62,-20,82,-10,-80,89,-3,0,92,-73,-34,-58,22,43,24,-106,25,17,61,-113,-72,50,-13,26
,-83,-34,-215,47,-135,-52,-108,-152,-195,-123,-188,-178,23,49,-105,-33,31,76,11,-134,-46,67,-16,63,-100,-162,32,-86,-57,-85,-174
,-167,-66,5,-67,35,-129,-41,-82,-407,-51,-86,-280,21,10,13,49,-148,-16,-76,-117,-131,49,4,-134,-226,89,-37,38,106,-3,17
,-13,172,-130,-175,21,-377,-141,-387,-103,131,-323,196,-114,-178,0,-101,-22,-187,9,134,-259,-228,-21,-115,16,7,225,47,-116,13,-103
,21,15,-19,80,-157,-27,-96,-142,-178,-148,-205,-10,-73,8,4,-106,-51,92,-11,-170,-108,83,-154,-82,-166,-17,-52,11,89,46,-51
,-31,82,-116,55,-106,79,34,-55,8,1,-44,-94,-148,-133,-128,-42,-21,-16,-87,-23,-205,109,56,86,-73,-41,32,-53,46,105,-168
,-110,151,91,-28,-160,-90,-19,-18,100,-95,-41,-158,-146,-21,-227,-30,-12,-42,-129,-5,86,-312,67,-50,-9,-31,26,-242,-64,-114,272
,118,-67,-79,32,-32,-107,-68,-80,-100,-103,16,-48,31,-53,-5,-29,-61,91,-33,11,-90,-65,-74,-47,-124,25,-6,-19,-10,50,30
,76,-208,-181,-282,331,-46,-186,61,-196,-156,-47,-128,-124,7,0,10,201,-151,1,226,-68,-209,-249,174,-208,-9,-186,-50,-1,-66,134
,-143,37,-143,-130,-55,123,-133,2,20,-15,-208,-115,-244,59,-144,-93,151,-51,-72,3,-209,-47,163,-202,-8,91,32,11,125,-78,-145
,-41,-35,-259,97,-513,193,-93,-118,-332,-182,-239,-100,90,-502,-321,358,-33,-374,21,0,-88,50,81,77,179,-23,3,58,157,-258,-453
,9,12,-542,105,-98,-49,126,-246,74,60,-697,183,-145,80,-26,-144,-172,-216,-428,-78,-167,-130,240,-69,-141,221,58,-90,-48,-121,-62
,-58,-534,-172,-14,90,144,-42,-79,-678,-189,-23,-246,25,-283,-117,202,204,-464,-258,126,66,152,56,-100,-161,-118,-704,-45,-139,-75,-323
,48,-73,-427,-79,-581,-16,-64,-764,201,-11,55,-510,68,134,12,-118,56,-81,-1075,35,-52,-89,-1084,30,-189,-25,-341,-143,73,-28,-320
,-39,-106,-221,12,-67,-80,-5,-91,34,-86,39,-201,-45,-392,148,-169,15,-147,-337,-352,208,166,-145,153,-328,-468,142,-10,353,-314,-177
,-173,-261,-119,-20,2,51,-8,-26,40,-77,-292,25,-34,-47,-52,135,-79,27,-69,-127,38,-243,-15,-97,-23,28,5,-24,-1,9,142
,164,-57,97,-134,11,-355,-122,-227,-201,-82,-141,-467,-202,440,-127,9,4,-224,155,-27,-209,-119,-422,-55,-56,-208,-453,-74,-93,-95,-434
,72,-344,-159,25,-263,77,-72,-20,-150,57,56,11,-66,-24,-119,-70,-29,-183,-120,-45,-206,9,6,34,81,84,-12,-74,-110,-116,65
,107,-285,-143,125,-134,-353,152,-367,-1062,100,-372,-532,231,-415,-391,82,-101,-33,-109,-11,-91,-48,74,-100,124,-92,69,21,-45,-131,-44
,54,93,-14,-108,-56,-15,1,64,7,-31,-338,-131,-8,-256,-240,39,201,-206,-264,38,195,-115,-159,162,7,134,-284,169,-211,182,106
,-151,-6,-1,-180,-33,-83,-193,-39,-90,-130,-10,-27,-183,55,14,-150,147,-128,116,52,108,-158,-264,-154,56,-133,22,-60,-120,113,97
,-75,-22,-29,-80,-33,-232,-149,29,-446,-168,-66,-215,37,-13,-243,91,-106,-57,267,-178,-126,-116,-4,61,90,-164,57,-111,155,52,-113
,4,62,-109,-163,-117,257,-103,-286,-159,65,-16,-110,36,-13,-572,211,-568,-6,-184,280,-588,-382,145,-172,-29,-119,-433,-141,-218,-102,248
,-58,-211,-580,-256,275,-288,-188,133,-224,-237,-186,-34,-183,61,94,278,-217,80,96,-41,125,-1284,-347,7,130,152,10,-100,73,21,121
,-224,-198,-96,-31,-155,-70,-83,65,61,-58,-15,-113,-242,92,23,131,-46,-167,-31,-44,-7,-100,34,-7,131,-161,44,141,-92,52,-221
,-104,93,7,-167,-105,3,-421,236,74,-314,145,-36,-301,-8,-42,59,-181,55,33,-164,101,-162,160,-103,50,222,-178,122,53,-85,-177
,-63,-265,-39,-150,-75,28,14,128,-43,-157,192,-163,-4,-226,28,60,-251,-172,-17,78,100,-42,30,18,-42,-43,-19,-102,30,-105,-186
,-140,-140,119,-41,54,149,-12,-104,-402,-32,-138,-41,44,-303,-444,83,-258,325,-230,-74,-88,-73,-95,257,24,-113,-256,118,9,-163,26
,-104,-201,-385,-88,-207,-44,19,-64,251,-107,-10,-75,21,-185,95,-198,19,62,-74,-219,-63,-147,25,163,-15,-22,118,-43,-227,16,-167
,-176,-60,-292,-195,80,176,-106,-90,-241,-313,51,281,-259,-279,-34,-87,-34,54,33,16,-167,-93,166,26,-35,-8,14,-74,-87,-186,146
,-219,65,-19,-184,-13,122,40,-40,7,-161,-3,-122,-186,-332,65,-36,-17,-206,-284,58,-183,-90,64,171,-123,52,-243,43,-101,63,46
,60,-146,-2,-172,-79,7,68,-52,-38,-60,0,-17,37,4,-64,-48,-24,-83,0,-6,92,-60,25,-104,-89,-149,68,-188,-46,-176,-92
,-122,-109,51,-11,62,-85,-189,-12,-46,-182,-13,50,-66,-104,-5,-103,28,8,100,-68,2,-70,-96,-57,-108,9,45,171,-54,-129,58
,-18,-97,-148,-149,-159,-176,-96,-129,49,-77,9,30,60,-261,-7,-57,-179,43,135,122,-189,-105,109,-65,-69,-7,29,-7,-6,-40,36
,26,-170,-548,25,83,-551,-81,-76,-57,-98,-71,91,-18,-166,87,-222,-216,-207,-44,-80,-90,91,-33,282,85,-84,-129,-187,-127,-156,-362
,-181,-283,-287,-37,27,-295,35,20,99,-86,-209,93,-109,-152,-117,-73,84,89,72,126,-404,-382,214,24,45,-130,-286,-106,-15,-30,-212
,-174,-88,-34,-134,-144,-144,-127,-44,-199,-66,-87,40,-199,64,26,10,-22,24,73,-115,-36,-114,-78,-71,37,131,61,20,140,15,-158
,48,-83,-27,21,-100,-145,-127,63,-159,-100,-172,22,-165,1,-41,-134,-164,-203,-142,141,40,-7,-90,21,-59,-146,-72,-228,-190,-179,-66
,-208,-62,36,-131,-43,-128,57,53,-28,-169,43,-141,79,20,-147,12,-32,72,-122,-87,-33,-176,-110,-86,8,15,-18,-116,-81,-31,-173
,-81,186,84,-190,129,33,-80,-80,-21,-105,-20,72,-55,-112,59,-66,45,-155,143,-49,-157,25,118,-66,49,-193,88,56,-75,58,-135
,-191,40,103,-133,-141,49,-10,-238,135,-263,-257,19,-14,-226,-109,-130,-172,-280,-82,-353,-296,-287,263,142,-188,-1024,-163,273,261,69,-509
,-9,82,-17,-29,-25,55,-225,48,-123,-138,-57,-70,-100,-197,-165,2,-56,-122,-70,101,-13,57,-122,-93,71,56,-50,-34,59,-76,29
,-48,-82,48,-119,-34,-102,22,60,-480,-156,-68,-80,-30,-60,-18,-57,255,-192,-68,-159,-18,23,18,193,-141,3,86,-1,-64,211,-334
,25,-196,-55,26,-101,71,29,-81,-153,68,66,-76,-138,-185,-88,-88,-70,125,-53,43,-138,49,8,-99,-114,-157,-20,-94,30,68,41
,-112,-198,122,-138,34,-39,89,186,-167,-98,143,-407,31,-283,-161,-123,-185,-125,-544,-197,72,251,-383,-59,-133,-283,70,-218,352,48,-388
,-22,46,-73,-19,-77,-179,-124,-28,-72,38,-85,-129,-79,94,-162,-138,2,53,-183,63,-236,-3,73,-51,43,-7,24,-68,83,-162,-161
,44,-313,-223,-48,-179,-360,157,75,166,-16,-279,60,73,16,-301,166,119,-348,-175,205,-128,132,-75,56,-68,-243,-69,147,81,8,-176
,-146,-190,-54,-169,-151,-127,-47,-231,-47,71,3,7,-24,88,-62,-32,-22,51,-157,66,104,2,-120,-181,-211,-106,67,167,4,-59,13
,-191,-199,74,-299,52,32,-141,83,38,-192,-78,64,-209,36,3,-45,-152,-54,-7,-50,-246,-194,177,-186,58,-181,70,0,-41,119,-108
,-150,-365,152,-39,-20,-94,-10,-443,-490,-145,219,-396,-87,-308,-177,-191,-263,-47,201,-299,-255,-3,-547,111,-51,-113,202,55,122,27,146
,-97,-186,-115,53,-201,-152,-130,-102,-64,53,92,-117,87,103,-59,-42,-29,-97,-176,42,63,-27,2,-66,-179,-37,32,-49,-207,-131,-27
,195,55,-40,146,28,-105,-94,-54,-21,123,-398,-50,115,-147,21,-144,-170,-264,-24,-83,30,-1419,270,387,-114,-79,-754,-206,-47,-50,-406
,-1,-9,13,-208,-228,-118,-190,-79,-66,58,-151,11,-23,176,134,-1,-56,144,-21,84,-208,59,52,-77,-86,43,76,221,236,-246,-219
,35,-106,49,-163,-73,-74,15,-234,54,-172,-10,-144,48,-98,-27,-73,-98,-60,93,39,27,-24,-104,-88,-36,-63,-30,9,-48,15,31
,-31,21,30,-74,-131,-57,-22,-34,-113,-55,1,-15,-9,-103,36,52,96,-147,-85,31,-140,-154,79,-77,127,-27,-41,-74,82,105,-48
,31,-254,-191,19,-111,-89,88,-222,164,-177,-375,-78,41,3,60,-265,-178,-155,125,-30,-38,-138,78,-38,60,-76,-154,-40,73,-9,-33
,-8,-37,118,10,-146,-3,40,-288,107,4,-130,-319,-98,-23,-456,-76,-69,-110,55,93,-163,-50,117,-97,-123,237,30,-119,139,-177,191
,19,95,-78,25,73,-64,-152,-14,-34,-157,30,-39,-35,-120,25,-97,-108,31,41,-163,-69,-112,-428,-36,37,19,-17,-84,-66,-335,-394
,-152,-153,-240,-217,-10,-270,-122,187,287,-241,41,127,-23,-480,-392,-232,-166,-86,-563,334,-203,63,-212,-103,-327,98,49,77,-67,148,27
,-269,-10,-175,-46,42,-106,-81,-43,122,-92,-150,-188,-24,-305,64,62,-57,-291,33,173,-120,-89,29,-76,-197,-82,-63,103,2,6,35
,-79,67,50,19,-40,6,-42,19,-43,-184,20,13,-70,-217,6,-15,-132,46,-37,13,-12,-127,78,-83,-74,89,-16,-122,53,-11,10
,-171,-4,41,40,5,-60,-117,79,-105,-173,-13,-80,-51,-111,-132,-35,75,28,-44,5,-157,-80,105,17,120,-64,-25,-20,78,-93,11
,-138,72,-16,52,-31,-235,-155,-213,-90,-7,42,55,-154,-188,-112,-71,-89,69,-13,-37,-66,-166,129,-7,-147,-3,85,-54,27,-24,93
,-144,37,4,-224,51,-109,-42,5,-172,-69,119,123,-125,-216,14,219,17,-893,79,-138,-141,-52,-87,94,-54,-140,-209,-148,98,-237,-2
,-56,40,-17,-1,-46,-32,-5,32,-60,-180,72,26,-159,-114,60,-1,-29,-17,-13,-137,3,37,30,108,6,-64,-71,-2,74,-18,-43
,-265,-68,-39,-117,-174,-237,-174,-167,70,-368,5,191,-347,-84,-24,-32,-347,32,153,-194,92,-8,119,-122,101,83,110,-181,64,17,137
,-35,35,-110,12,52,46,-233,47,-83,12,-123,-179,-58,-28,-131,-11,13,-141,-84,-64,-40,-35,67,-12,-59,-122,-93,-129,-15,89,83
,-241,-294,-154,-58,-253,119,-248,-356,106,-44,165,137,-164,-34,-12,-18,-51,-214,24,-60,11,-26,164,-146,37,-70,114,-60,-30,-128,186
,-46,86,-199,-172,-226,-142,49,-187,-83,44,-53,270,12,-231,-140,-58,12,146,-294,36,-172,-39,-44,-72,-195,179,210,-109,179,-168,35
,84,-68,5,-160,-89,-143,-3,-71,54,-128,10,-102,-112,-153,-10,-119,15,-100,123,-37,-51,-64,116,-42,-37,-20,-32,65,-43,53,53
,-177,-114,-115,-177,140,146,-121,28,-69,-310,-385,-4,-348,106,80,193,-84,-134,78,-19,-149,-944,252,-57,120,70,-43,29,-2,11,126
,-23,12,-2,37,-118,-115,-114,-141,-52,7,-137,-18,60,-186,-126,-32,78,-41,38,-38,135,-144,-26,-89,56,10,-20,-24,20,-28,59
,-172,102,-80,23,-87,-302,-69,1,-29,-22,-201,245,-153,-134,-112,-138,-139,50,-118,-174,-30,43,-26,53,45,-40,-165,345,-222,111,-53
,-154,-159,-39,-124,108,58,-130,-50,-59,-177,116,-185,-156,-184,97,-78,-86,-10,-6,-4,42,-213,60,-11,80,126,-223,-193,27,86,-82
,-140,-20,2,-77,-158,-293,-43,-103,-94,-112,-71,25,68,-62,-89,39,-119,78,-81,89,5,3,84,30,34,3,-142,-161,52,-71,-19
,-90,-219,63,-155,-243,84,-287,-210,69,-215,58,-58,-314,117,-201,-34,44,-126,57,-109,-84,56,70,35,-1,92,-171,-94,-42,144,75
,46,66,126,-68,-274,58,-69,144,-286,72,-182,25,-42,-665,-169,55,-191,54,-196,-34,-150,78,28,-52,-351,-78,79,261,-223,146,-17
,35,-34,35,-207,12,-53,-4,-50,39,-60,-118,-159,43,-37,-130,27,18,70,-152,-111,84,-3,-151,126,-85,-110,-104,-138,94,-116,-76
,-152,-62,-125,68,64,-195,-5,-49,-23,30,-148,-41,31,-35,-56,-147,74,67,-10,-58,45,63,-175,31,38,43,-18,-63,-63,-115,-4
,-94,-326,-142,-5,-30,-7,-194,203,-312,-74,-32,231,-104,-229,-175,192,54,-194,-32,-31,-167,155,-277,-99,-15,145,-38,263,-70,259,-248
,-375,73,108,-365,-103,-53,-387,158,50,-286,38,22,-262,-16,51,-77,-136,52,45,-58,0,-90,70,-30,32,-29,9,35,-89,45,0
,-21,-326,-212,112,-105,-199,86,106,-36,84,-176,67,145,-54,-85,-33,31,4,-218,24,41,20,-198,53,-186,139,-77,254,-219,37,-26
,-2,-311,133,48,-1,-432,150,-33,-362,-131,203,-130,158,-175,-865,4,-138,-35,-248,-110,-73,41,-359,-188,65,-121,-86,204,-365,12,82
,-15,-248,-37,-57,-118,-8,-67,-237,-198,-119,40,95,39,137,-146,-160,-28,63,69,-30,-92,-139,111,-148,52,-144,127,-78,-21,-43,-98
,-189,-224,139,-17,-44,-183,-87,175,-143,-141,-299,-148,-215,192,-127,117,117,-122,-6,-66,-11,-99,-20,77,-56,35,75,67,58,60,-57
,-87,-225,28,-66,-226,201,-88,-38,-51,-201,-197,27,-95,-177,-66,246,141,-61,-293,-275,-190,-118,-155,-109,-198,-134,-229,182,146,65,-16
,83,-67,-38,32,-54,-62,-48,97,-63,28,-186,1,-72,-98,-64,-126,76,-12,-141,155,123,-74,-148,-39,-161,91,154,-52,-39,3,35
,-139,-33,-76,-164,158,-128,-61,-223,-15,22,-445,94,-37,-163,-82,-146,23,-93,-76,97,-290,109,79,-38,136,114,-84,-92,-177,16,-49
,-110,-83,4,-171,-246,-140,-55,-130,-170,-49,-99,-34,51,-212,125,-124,51,71,-22,9,101,60,-64,-175,2,-86,-86,140,69,49,-164
,-23,30,5,26,-91,61,79,92,-4,47,-119,-120,-125,-85,-147,-61,-12,89,-92,-122,168,-58,-79,-39,-63,-41,18,-99,-110,83,117
,-129,-225,-72,-45,58,1,48,19,-14,-105,3,-106,-85,-117,-70,-14,68,-131,29,-41,15,141,-101,26,67,87,-175,-40,-145,-127,-157
,-173,77,-31,-102,36,22,16,4,13,-210,-73,14,-176,30,57,32,41,-71,-39,67,-102,67,-133,21,52,-17,-138,76,-26,6,-16
,-52,-437,21,-21,-94,19,-34,225,59,38,-140,45,-69,-136,-102,-56,-203,-88,-4,-199,-161,-28,42,18,177,-112,-45,-135,22,-121,-240
,17,-93,56,-8,-49,-88,-119,68,-54,-9,-101,-233,-187,-71,-275,110,121,-174,-1,-131,55,-123,99,-62,123,10,-42,-5,-144,166,-1
,-208,-151,-94,16,106,55,-93,-130,-132,31,151,-25,-194,-38,-32,21,-32,-34,-57,-63,67,-96,-99,-84,31,43,42,-75,16,-118,-177
,-127,-319,-559,-129,-291,108,123,-164,-108,8,117,-528,-50,208,-9,131,-108,-152,53,-37,102,131,-113,-17,-172,-5,-39,114,72,41,89
,-322,-31,185,-90,93,92,-125,206,-248,-229,46,-277,-1,-533,-55,-122,-197,35,-707,-116,-146,26,-142,-192,-95,-15,-288,-131,-160,36,-434
,-13,-160,62,-164,-145,-149,7,-142,-14,-9,-240,-33,-68,-229,-7,210,-386,-45,184,316,-205,44,-190,50,-156,-121,90,57,253,-161,-21
,-77,-407,34,-145,119,-422,43,22,-128,51,206,-618,-132,155,-412,135,-58,92,-41,-118,-62,-85,-453,-167,-107,-6,-775,-21,71,-9,-322
,-112,51,-71,-8,93,-156,-91,-128,-142,-108,19,-92,-44,-104,-58,-107,36,-87,57,-142,-45,-177,61,58,35,54,-84,15,44,-66,1
,-35,30,-30,70,-16,-127,24,-94,36,-171,-123,-169,-168,-119,-85,-130,38,30,-27,15,-131,68,-71,-80,-101,8,67,-19,9,-57,-55
,-236,-142,-80,-63,-56,-861,-138,-78,65,-127,92,-16,-136,-10,63,-310,-132,-148,-430,577,-201,-267,-139,92,-32,62,133,-172,-138,2,-388
,-39,-202,6,-44,11,52,-21,-128,-183,-52,-33,-40,40,-185,30,65,-139,139,-121,-153,-111,-119,-194,-30,134,-52,-25,-140,41,-145,-171
,37,-356,-13,-98,-136,-90,20,-359,226,130,-360,-99,56,-140,-372,-165,41,-210,193,-157,-26,72,100,-81,159,-35,-21,-123,53,61,-108
,-171,47,-238,-181,-143,73,-84,-18,67,-216,14,-38,-2,-72,-52,116,-114,-76,-4,-3,144,-92,-290,240,-49,45,-7,-112,-53,163,-53
,-14,-126,4,-78,1,-10,-71,-137,-76,-72,-195,-206,59,60,-78,-30,-78,-48,141,151,113,-247,-92,33,-52,-62,46,-110,115,65,6
,-8,180,155,-77,87,-82,-233,-58,-267,2,-460,-180,-95,-189,-74,131,-91,41,-35,336,-297,19,-225,230,-124,-181,-126,123,-334,-208,-769
,-43,-33,-109,-183,37,61,-181,-121,58,-3,13,-231,-105,-93,-55,-178,-43,-142,63,123,-117,-192,-42,32,-233,128,-72,61,-154,-91,136
,-210,69,-41,-38,-361,-155,-81,-171,-86,46,211,134,-198,-283,149,176,-224,78,-100,88,-96,-124,131,-43,-162,-47,-13,17,62,-61,192
,-207,198,114,-238,165,-4,-223,-76,104,-283,-259,-39,-265,-47,33,-45,112,-5,-20,60,-262,85,70,-192,59,-42,-22,-148,-38,49,83
,53,-134,-47,-230,-150,64,48,-82,-44,25,-181,-81,-49,-26,50,-176,-45,39,37,-59,-119,17,-28,-13,60,-18,0,-118,-23,9,55
,64,-94,-82,-77,0,-93,96,-108,-122,76,-40,-42,110,-130,-64,172,-145,-134,23,55,-7,-10,-155,-86,3,87,-87,-164,109,30,-47
,-108,-105,40,-1,63,-196,-218,-16,-264,-59,9,19,-89,-397,11,24,-49,27,92,-20,-91,-144,-20,209,-172,-86,2,-78,-52,-83,-185
,52,-109,35,21,-108,-29,-162,-2,-55,-133,-12,-83,-198,77,15,-142,-88,-23,-163,40,-165,59,-70,-25,-59,-48,197,-161,19,-111,104
,-68,-203,108,-77,-203,4,-5,-84,-321,-165,-248,-118,1,-173,-247,-92,-52,49,72,-56,-88,-140,-69,118,169,-219,14,30,33,157,-12
,-4,-9,-153,42,-135,110,-62,0,8,-103,-153,-161,13,69,-155,-30,-180,-265,313,75,-86,-132,8,187,286,-180,-194,113,-85,-14,-12
,-133,-81,-156,29,-168,-152,40,4,-225,11,-64,14,-89,-306,-183,-3,-2,61,64,-50,-262,42,-22,-51,19,-63,154,-135,80,-87,-122
,-90,84,-133,-109,123,-390,81,-385,-220,-240,106,98,-246,-64,114,-200,-63,-156,-42,-39,-236,-70,-437,204,215,-337,-19,-166,8,-3,-54
,-54,23,53,-145,203,-203,-150,-225,-219,-235,65,50,-139,28,82,44,80,-7,-82,-264,-104,-202,-417,-20,119,-136,17,-48,-272,-30,-196
,-217,127,-269,-43,-208,-195,-165,-87,98,69,65,-199,-98,122,-417,-123,-164,-33,-377,134,-129,-283,-108,59,109,35,79,-200,24,-11,-6
,50,63,-254,-72,-169,-214,-16,-163,-39,-82,24,-177,-26,30,-3,-154,-6,-173,70,15,59,-29,-28,-60,-26,-107,40,-13,47,-13,67
,-131,-164,-60,87,63,-10,-46,-147,-58,-144,19,59,3,-133,-63,-32,-129,-110,-35,-69,53,49,-28,53,56,-143,-66,-22,-131,40,-55
,-94,101,-368,-118,-15,-114,-60,-4,132,57,-38,-102,57,-588,48,-122,-124,-157,-505,-12,-75,-283,308,31,-113,-317,145,90,276,-172,-407
,-128,24,-214,-125,129,60,-134,-211,-171,-193,20,-42,-164,-317,-176,122,-180,47,37,96,-50,-23,-124,-74,20,-304,187,43,86,15,61
,-225,-112,150,25,-57,108,-216,49,-2,-166,-190,-421,-147,-462,76,-126,-57,-151,-198,-181,-72,-203,-63,-34,150,-13,74,-7,-100,-89,-596
,-267,-432,-289,-73,-36,10,-241,-178,-51,-129,299,233,-263,-43,80,39,113,-269,-166,-132,25,93,-33,94,-85,-10,144,96,-113,240,-151
,-92,104,-63,18,100,114,-170,-248,19,45,-355,-180,-162,-51,-194,4,106,73,-285,33,-151,-100,150,-45,-71,19,27,10,60,-112,129
,-6,28,-7,-95,-85,-63,42,-33,14,-104,46,-43,-196,61,-34,-214,-177,-2,-269,7,-114,-145,53,-41,168,-60,-33,-207,-202,-14,14
,-75,257,-263,-109,-171,83,-63,-83,-274,-34,40,214,-79,-330,-119,37,-179,-37,-5,131,-334,-145,148,-35,-72,12,117,61,122,-79,-190
,44,-80,-138,6,21,-44,-157,-50,18,-136,-117,31,-211,-16,-94,139,-122,115,-79,-140,-85,-9,-91,-111,-108,-113,-21,58,101,-132,80
,90,15,-80,86,-126,-11,-170,-162,-143,95,-85,-177,-177,-57,28,72,-17,16,-86,-111,-28,49,-20,-20,52,-141,65,-8,70,-52,39
,27,14,-135,92,35,3,101,-88,-165,45,-124,-90,-146,38,-88,53,-139,-37,-40,51,-158,-39,72,41,-341,-36,77,-101,143,8,-72
,-125,-30,68,-224,222,8,-226,-22,-218,-189,-147,146,-160,-121,-7,339,152,-183,-261,-93,-292,-217,-71,211,-195,-48,-134,47,165,44,-36
,-72,-257,-507,-145,109,-269,30,-116,-37,19,-135,157,-106,-219,-392,-148,49,37,96,-36,72,-24,113,48,70,-29,73,-174,10,-169,-213
,-52,-417,-7,-277,123,-49,-64,49,-556,-62,-133,20,-66,148,86,-101,41,1,69,1,-60,-49,50,68,-246,169,-357,-26,58,84,89
,-137,-24,1,-16,6,-105,-66,-54,6,-192,-48,38,28,22,10,-121,17,100,-165,21,72,-189,43,-71,-3,-141,43,47,-124,-56,-97
,-115,-18,-104,-89,100,-81,-29,-102,28,-88,-131,-60,-112,4,-156,-43,93,-144,-101,93,-95,-139,-6,-143,76,-24,97,-87,-98,128,-57
,-194,21,-68,-220,191,144,-273,176,-88,53,-104,-180,-169,-335,-64,45,2,39,107,-53,129,-105,-169,-165,-263,98,-46,187,221,-174,-161
,-197,-170,-137,-97,-342,-277,-219,108,114,-166,-67,71,-27,-130,129,-107,95,-37,-16,-180,-50,36,-7,63,10,79,16,-126,-76,40,-1
,10,-43,62,41,-68,-70,-97,-55,-116,-162,-111,50,-124,-147,-121,49,33,-34,-94,-152,-47,-13,8,-47,28,52,-66,-182,95,-80,79
,-110,71,-140,-133,86,48,-121,-134,-28,-149,-259,-83,-105,26,62,66,90,70,-152,31,-145,-77,56,10,67,8,-99,-22,-65,-107,-75
,-116,202,-137,-5,-144,76,-304,-197,46,-109,111,-363,-264,84,-450,-156,-37,-46,-428,-259,25,-114,-552,106,96,-3,61,-170,-161,-253,37
,63,8,44,-165,-81,34,-3,-71,59,-120,-68,-42,-151,-108,9,-107,31,-23,34,-15,-49,-44,23,-109,93,-36,-80,-53,13,44,8
,30,39,-13,-107,47,-207,-144,-83,-23,-80,-104,-88,-228,-119,4,-57,170,72,-233,-148,48,-116,38,-70,171,-252,142,122,-99,136,-114
,-65,-360,238,-118,-460,22,-148,-221,163,-11,-225,73,-214,-395,-126,168,149,-92,-546,27,3,-130,109,-70,-315,-164,-553,214,-15,114,-2
,-207,-29,-153,-80,107,-143,-42,-58,9,-78,-128,-39,31,-86,75,7,47,-133,-17,25,44,-50,10,-52,-6,40,-72,19,-140,-17,12
,-122,-177,40,-61,138,-121,-62,-51,11,-146,7,-28,-7,-6,20,94,-16,-10,-127,61,-43,-2,-39,-148,44,-92,61,-39,26,2,-72
,-88,-126,63,-194,-177,-265,-6,-160,-12,-18,142,-39,-172,-106,76,31,21,1,-155,-46,-90,-106,-2,-90,32,43,7,-29,35,-2,54
,54,-258,-409,-79,283,-105,178,-205,172,-15,117,-338,-55,-269,-591,-137,78,-25,91,95,-401,-110,-27,-130,-112,-106,-211,-152,-32,-108,-892
,32,-6,-88,-90,24,11,-174,-6,-128,-40,-294,118,-18,-423,-7,5,-176,0,84,290,-240,77,-247,-35,-226,-36,301,11,179,-79,37
,-24,-32,32,-25,-52,-112,-278,79,51,-1,-166,50,-12,-194,36,116,-85,232,-310,156,-342,-88,56,-45,23,-56,-12,181,78,-236,14
,-118,-523,-696,-115,141,-206,7,77,-10,-31,107,-165,-32,22,-356,12,59,72,37,72,66,18,20,-128,-54,-33,-357,-149,-128,73,-539
,-115,36,-92,-32,89,-201,-91,-363,-24,-197,24,-226,-65,-70,53,-84,-140,43,-51,56,-11,136,-237,80,158,-215,63,159,-82,53,-12
,39,-39,34,-91,-80,-138,-96,1,-96,-59,-70,-155,1,77,-131,90,-8,97,-125,27,-69,-122,65,-138,-135,-133,-133,4,-110,-9,-43
,-256,-154,-52,-190,-315,85,-78,-240,134,-76,32,82,-311,135,46,-138,-108,-230,-37,-215,-103,-77,-45,5,126,11,183,-337,-198,-151,316
,-55,4,25,-159,48,47,-144,-69,-58,34,-16,-92,19,-46,36,33,-48,56,-85,-104,24,-116,79,-54,131,-40,-65,-36,-23,67,-56
,-41,-125,-59,-43,-117,97,-202,-8,-207,-93,111,-153,-191,54,-205,-86,73,-134,86,-65,-92,51,-8,-176,-51,-39,102,44,-36,30,-188
,69,-23,-47,152,-87,-32,22,124,22,176,-153,48,-93,-46,-6,-1,-53,120,-104,194,-89,-53,-98,-4,-2,8,6,-65,153,-164,12
,-46,188,-471,-85,-569,-276,133,-99,95,-93,-134,185,10,168,57,-128,-90,-183,-510,-53,-118,-52,-1271,-135,-315,-154,19,-256,-155,-282,92
,-115,-91,-185,-8,-130,-79,-197,43,65,-34,-37,-39,-68,71,-28,-57,73,-28,-44,-78,30,23,96,-79,61,-159,-81,-54,40,-56,-71
,-81,-141,62,57,-30,126,36,-121,-289,9,-427,-75,0,-380,-16,101,122,-291,-19,-56,-62,-125,-34,-17,102,16,-174,21,-9,169,70
,-192,-195,-22,-138,178,-62,56,-176,-13,-57,-101,35,-132,9,-198,29,93,-258,71,-197,-55,-52,137,-103,47,-115,194,-87,27,-39,123
,-24,-166,-75,-2,-140,-48,-81,-72,-105,26,-339,-56,-37,-13,27,-35,-219,75,149,98,24,-17,-156,-97,-105,82,14,105,-57,-265,-10
,17,-168,-384,-83,16,99,-229,-412,-164,-177,80,-390,-45,158,-347,-223,-168,-154,-198,-69,134,41,111,0,78,65,142,-88,-211,-52,-68
,-124,65,80,51,-290,-187,-7,-228,-353,-136,-631,-69,-72,149,-389,212,-43,72,-296,-172,-116,19,-564,137,182,88,75,-13,-158,-157,-361
,-90,-138,143,-206,61,-68,60,-209,-186,-111,-20,86,32,-203,-60,-131,-117,-83,301,67,123,-27,-217,-171,84,-186,95,-167,178,7,39
,5,33,7,-78,-91,7,8,0,-151,-99,-31,-53,-104,62,-84,-4,-32,-20,16,5,-113,-114,-216,-106,-53,-106,-148,31,-52,-152,-25
,-107,-44,-159,-41,-117,-121,-116,-118,3,-44,-6,-117,-120,-62,101,-99,-106,-60,-57,116,-2,-141,-146,-50,21,-55,17,40,-127,105,-138
,-313,77,-16,-417,-2,-73,-329,54,-31,-480,260,74,-363,105,34,123,147,119,-424,-109,-169,-38,136,49,75,-84,-4,-77,35,-23,38
,-46,-138,-37,1,-52,-47,64,-134,-54,-31,14,12,-146,86,-90,44,123,-138,-64,-8,-128,-97,-65,-73,-130,-72,-57,-90,-93,-124,-69
,41,-148,39,-208,-44,38,-65,-27,-143,50,-76,-4,-29,-78,2,52,-6,0,-6,-30,12,-82,7,-66,-76,-121,-111,-162,-162,-170,-48
,51,17,-82,29,-37,-100,-154,-133,38,-147,53,-92,-69,59,-150,-53,-109,20,78,62,-28,83,-107,-79,20,-203,-38,-56,-79,-92,42
,-53,-46,42,-159,-129,36,-33,-70,1,0,-172,-108,8,-55,-14,75,-51,-1,19,36,-51,-65,-106,49,-98,7,12,-5,-167,0,-55
,-108,90,143,-313,-68,3,-160,-13,-60,-315,-157,-4,-228,32,116,76,270,-207,-238,81,-108,-152,32,17,-200,77,-115,-185,-28,104,-123
,104,-29,-35,-60,-85,-9,111,85,-100,119,-83,-45,97,-83,-63,104,36,5,-144,-61,-84,124,-29,-151,-47,91,66,-69,47,105,-88
,41,181,-107,-38,109,-41,-130,-512,-258,-78,-197,115,26,-143,-125,-40,-175,-227,-214,-39,-159,68,66,151,210,-162,-140,-149,-85,-5,-37
,-255,-359,91,10,-276,-181,-254,-228,-46,-267,316,36,-182,-34,154,-8,-130,-114,65,5,-5,-149,-73,93,67,-125,-32,54,-51,71,1
,97,27,-53,-17,-52,-55,-150,113,-3,96,-76,-9,39,-71,-114,-141,-63,76,105,139,163,-224,-110,-67,15,-126,110,-47,207,-120,-67
,3,84,-5,238,17,47,143,29,7,71,6,11,101,-49,33,-63,24,-16,-6,-41,-1,22,53,24,8,-43,-43,-20,-38,30,-50
,-116,-236,-113,-190,-115,-84,-97,16,87,-44,-140,25,-108,63,-130,-168,64,-142,227,53,-54,-62,-85,-86,-189,12,70,52,-122,77,127
,88,-14,-77,51,-45,-44,85,-132,-118,-105,-90,-63,48,-35,-52,-77,104,49,-47,-79,-53,-2,73,-120,-4,-18,-28,26,-38,-19,-119
,78,-210,-116,21,-361,-425,-38,-861,-317,-35,-461,34,-30,-410,111,180,-108,50,76,13,159,92,123,-212,-101,-188,215,-133,59,-38,-339
,-113,31,84,-65,-108,-305,-201,174,-135,-43,-344,-433,-97,-77,7,76,-94,19,167,250,-518,-88,233,-135,-614,-140,146,69,-49,-43,25
,-14,-275,100,-77,107,-4,64,-123,-330,19,-106,7,-83,-81,-273,17,29,-208,-90,-31,78,210,71,9,-147,-109,-250,-135,5,-86,-243
,86,-66,-146,25,-90,19,46,33,-59,2,-212,-25,-33,-131,-21,87,117,-57,-110,-18,-10,-64,-54,62,-41,-195,187,-30,-143,87,-42
,-33,89,-355,112,-617,-417,-114,-166,-380,-68,-245,-21,23,-233,68,-52,-75,-3,103,160,-12,-15,207,162,82,301,-236,-230,-95,-123,-169
,-105,-365,188,-95,-313,-17,-49,-63,-209,-93,32,-47,-223,68,-278,-31,-76,-84,59,-51,-46,-69,217,-72,-134,-86,53,-52,-54,-97,212
};

long weight_1_T_sdb[2*256] = {
-18,118,-48,-18,65,11,51,110,212,-31,18,9,276,-398,-118,117,-182,-180,102,-136,36,-371,40,-340,263,263,73,27,-22,402,-134,-42,-44,580,-63,-297,-174,-42,304,-480,125,26,74,12,-58,205,29,119,125,-398,-89,-395,4,-303,-62,25,118,-305,-23,82,-63,12,-296,-8,-72,0,-98,370,-365,65,5,73,180,-59,15,91,-62,447,124,-555,-84,-217,-507,-434,-92,-561,-33,-370,148,127,-10,-615,-273,-2,33,45,428,70,389,-59,70,4,64,-143,-40,-64,-8,-125,85,-373,7,81,-80,-280,100,527,44,99,-363,-7,-51,42,-27,47,133,202,30,-472,70,55,-38,-16,-3,-11,84,34,265,326,15,-205,-21,356,31,-18,44,-252,-91,-109,-183,311,199,-311,17,42,-78,-15,-122,-72,73,71,10,-117,-142,38,434,-489,203,-374,-38,31,-478,95,208,38,-25,-222,-101,205,121,62,71,26,1,210,40,143,-206,38,-129,41,-95,-273,56,-163,430,76,-65,174,103,13,31,-185,-94,68,-80,8,97,48,-71,-2,-265,-64,45,-467,120,-37,2,-515,130,-12,-288,45,-107,-258,-1,77,55,-334,127,231,-41,-11,-248,-443,95,-30,-80,490,57,9,-35,-33,201,22,-4,178,56,51,83,38,-257,-504,-104,85,-351,53
,-47,102,290,-8,157,5,45,80,7,-1,-7,-7,-270,260,58,114,190,425,95,-121,-68,315,-12,388,-120,-47,38,-2,-44,-314,83,-45,-2,-290,84,158,222,58,-87,670,-88,31,89,47,-49,-102,145,-23,-87,282,-129,401,-77,428,-72,8,130,466,13,61,207,63,415,-24,22,13,-95,19,365,62,5,-42,-240,-51,14,-33,105,-420,-76,565,340,515,404,277,-44,469,72,515,-141,-129,-136,566,242,-71,-19,-83,-179,-198,-369,67,59,30,123,179,283,-91,26,-125,84,450,-21,-14,-67,491,100,-670,17,169,410,-6,188,-96,-26,41,-103,-59,23,313,129,62,-41,-34,156,-15,-22,51,18,-262,19,121,10,-212,-102,-13,-130,267,-115,-118,380,-225,-108,620,48,-34,224,-5,216,20,52,87,9,57,-111,27,-515,233,-346,528,-46,42,711,82,-277,-4,6,384,63,51,52,46,58,-79,25,-69,-112,47,354,64,215,9,-37,365,-176,91,-444,-18,-75,-345,79,21,17,230,47,-107,-67,63,-98,-37,-70,-12,139,-59,28,395,111,-23,-14,563,-99,-62,89,-152,-109,123,-1,79,49,322,124,-121,-20,-50,252,404,28,-21,107,-225,66,17,-7,-32,-162,17,292,-119,50,11,-20,28,378,430,91,83,228,-98
};

long bias_0_sdb[1*256] = {
62,-62,-83,-152,-87,-25,-158,-23,-113,-91,45,-165,111,-51,-272,-141,-221,-149,379,-133,-39,19,-69,-22,-8,84,-22,40,-90,3,-232,-41,-89,-56,20,-119,-146,-167,32,-44,-3,-294,-97,-28,-115,64,-239,13,-61,-100,-54,-134,-62,-84,-22,86,-138,-135,-140,342,41,-28,-43,-21,-37,42,-140,352,-229,275,-66,-22,79,-60,-143,60,0,123,-11,-55,-140,-56,65,-86,-139,-91,-133,97,-26,54,-78,-90,-219,-155,-5,-19,4,49,138,-111,-124,3,-29,-68,-89,-49,-161,-111,-49,-165,-112,-4,-7,-86,-139,149,-84,158,-42,-123,-232,23,1,-181,-133,36,-206,-168,-215,155,-13,-14,-225,-243,19,-69,86,63,-73,-343,-85,23,8,-93,14,-101,-143,-37,-154,190,51,-5,-1,-3,-119,108,-199,-74,162,-2,-235,-234,-74,-147,64,-201,-33,-94,-26,-48,-173,-77,81,-10,65,-196,-238,63,269,-140,101,-139,-102,-63,31,-42,-190,-161,-190,-107,-32,-39,-75,-205,63,-71,-205,7,-8,-24,75,-251,-134,-47,-8,-33,51,-40,-37,-151,-196,-3,-9,-167,-120,-193,10,-145,33,-10,-164,-103,-35,-334,-216,6,280,-154,-8,40,-40,-36,-219,-66,110,-83,-35,411,-45,-89,24,21,91,209,-103,25,164,329,-44,131,-50,-197,29,167,-36,-33
};

long bias_1_sdb[1*2] = {
458412,-376946
};

#endif
