
/* Trace */

/**
 *  updated on 07/06/2023 11:39:10
 */

#ifndef __W_SDB1_2_H
#define __W_SDB1_2_H

char name_sdb1_2[] = "Trace/sdb1";

long weight_0_T_sdb1_2[256*34] = {
-163,-224,97,-130,-118,-107,-268,-74,-89,-54,-27,53,-3,33,-31,-176,30,9,-134,-119,-11,129,-113,-95,-13,210,-41,-38,28,14,-40,-120,-44,105
,-205,-167,-146,77,-143,-121,77,-121,-210,-124,-26,15,-165,-173,-143,-87,-176,-140,-39,6,55,-48,-31,-20,59,56,112,50,-67,-59,24,20,54,59
,10,-102,79,54,11,31,62,-114,-177,-100,120,-90,32,-84,-71,-102,-190,-160,-65,23,-1,-304,-124,-41,28,-38,23,21,70,87,-14,100,277,-163
,-80,-109,-213,-27,-51,-150,-49,16,111,-58,-155,118,93,40,44,-50,-134,-224,-65,-100,-96,149,122,3,-89,-106,-191,23,-128,-144,135,205,-33,-25
,-146,-2,28,-189,90,-62,-5,-181,-177,17,11,-124,67,3,-153,-58,68,-57,-43,-28,77,-114,28,-54,17,122,54,-92,-134,50,-31,-46,105,-55
,92,88,-85,25,-103,-22,88,-121,-105,126,54,-16,-101,67,55,-102,-42,-32,-49,-26,64,-46,105,-82,-69,2,17,-3,-1,-33,87,-201,-40,161
,-121,-79,52,-27,-102,8,-118,-15,-183,47,23,-39,-38,-39,-123,10,69,-9,-21,-153,-14,135,-163,60,83,38,-35,-69,2,-118,19,12,-154,-17
,-30,100,-46,19,-172,-73,-22,-27,-146,-11,4,-122,-169,-29,42,-169,76,-32,-105,-47,-92,-116,101,-128,39,-1,64,-54,-18,58,115,-77,-56,79
,104,-480,63,-3,-235,-341,-53,-505,-132,-145,-255,33,99,-158,137,-61,-108,62,-30,206,123,-211,192,59,-59,-16,106,-336,-19,-68,20,-78,-436,92
,106,-80,-105,93,-192,-136,68,-38,-92,36,51,-106,-106,-75,-57,-154,-16,-44,84,78,-155,63,41,46,-75,15,128,-120,-15,-129,-91,131,-33,-76
,126,-358,-41,218,-80,37,141,-99,-803,59,-124,-99,-7,-208,-181,74,-66,-202,-228,-308,-151,240,-23,42,-152,-69,83,5,119,-153,-92,-37,54,79
,61,17,52,-66,-127,41,-39,-96,-92,-171,42,-46,-175,-136,-126,43,-192,-117,-238,-159,74,-41,-81,-176,16,52,-8,-17,-89,-207,103,-22,27,5
,-9,134,18,-11,-224,-41,52,-85,16,-209,-95,-125,6,-29,-50,-179,8,-180,-24,-121,90,1,-126,96,-36,24,-2,7,-125,-81,-150,13,58,37
,-138,-108,-178,60,-344,-137,35,-157,-667,-147,-260,45,-23,-264,143,57,-18,91,-51,48,93,-338,82,-25,178,252,48,-116,123,155,-195,-96,-229,-222
,-230,54,72,-180,34,142,-183,7,-91,-276,224,-201,-257,-70,-10,0,-158,-40,-88,-40,-189,264,-35,-43,-431,216,279,65,-206,-115,-23,-131,-133,132
,-72,137,62,95,-134,-556,145,-94,-209,166,-159,-13,8,-107,-50,24,-40,-473,-31,-84,125,172,126,116,-52,144,79,-83,-172,-114,-44,-49,86,30
,52,-68,79,-184,-95,-211,49,234,146,43,-404,-71,-171,-320,36,-175,273,-193,-48,-78,129,114,-108,-203,15,90,-68,206,117,-135,-122,-50,-352,181
,-49,19,29,-151,-172,20,-44,-65,-14,-103,-120,-63,-113,-92,32,78,-61,-139,-13,-23,47,94,-157,-74,-28,-157,-24,-101,134,44,67,-123,-147,52
,-24,-175,-59,-170,65,2,-1,-199,242,-26,-179,46,-128,44,-490,-31,169,-115,46,139,0,-220,237,-33,62,-240,-124,-77,-391,-47,76,179,46,199
,-119,4,15,-51,-133,-120,-121,-93,154,-112,-78,-2,-152,-46,114,-5,-63,-156,265,-63,-514,287,-3,168,-76,-395,114,193,-158,-222,-161,-72,-164,409
,52,-128,-53,-16,29,45,-189,-256,-86,-168,-11,-110,-182,25,-147,-43,-64,-247,75,-61,32,238,-90,-172,-36,-24,236,169,-14,-78,172,-10,4,142
,65,-115,-49,146,-101,-14,9,20,-3,71,79,-159,100,63,138,-75,-84,-38,77,5,-76,51,79,-114,-56,77,13,8,21,13,-36,341,-1673,-67
,-150,-340,-407,-251,218,36,-239,-94,31,19,-46,-78,3,73,-7,-102,-264,-48,-97,39,-34,-271,-14,-61,116,217,-18,36,209,31,-161,-214,-334,-292
,-96,-97,94,31,-70,83,-109,15,20,14,114,-92,-129,94,126,-23,164,107,-211,-75,112,-62,-80,96,43,68,167,48,97,177,58,86,221,-57
,-217,-167,-169,-82,-152,228,-104,-32,-257,-59,-67,39,66,-150,-163,-134,-218,119,-196,221,264,-297,103,106,98,-101,132,70,223,-147,-254,-201,-7,59
,25,-106,-44,41,-74,19,-133,-73,-31,-23,-8,-167,-117,-197,7,-37,-91,12,-93,-147,50,-164,-54,2,-17,45,66,-41,2,-120,119,-91,-170,149
,-107,-51,-180,-119,9,22,-61,67,-166,-105,-108,-140,-167,-96,-79,-170,28,-133,26,36,48,-48,-49,-115,55,48,-25,26,29,-80,75,101,-8,18
,-189,-100,-37,-104,-124,-92,-74,-101,102,-135,-8,41,41,30,4,21,187,-541,-47,-207,137,-177,-147,25,-87,-5,102,-282,74,234,-298,70,388,14
,-137,-153,5,75,-164,-9,24,-145,-62,-78,-60,-180,107,117,-4,21,-73,29,24,29,63,-195,-8,246,-170,-39,25,114,60,-85,-189,-39,-974,9
,-129,-128,-195,-140,-95,-115,-82,-135,-91,36,-166,-135,-200,-198,-100,-243,68,112,-147,63,142,93,-69,-9,86,-149,31,76,-35,-69,75,-123,41,55
,42,73,-20,71,-113,-109,68,75,-4,-30,-128,-35,153,58,-84,66,-64,-85,-21,-3,60,56,-8,-104,9,156,27,-21,74,-51,47,118,-143,115
,-172,-218,-53,31,122,79,89,-157,-16,22,113,-219,-102,-23,-112,-11,-91,-195,-56,148,283,-44,19,247,28,114,57,117,-30,-237,-488,-127,-921,7
,-181,-149,112,-94,-51,-278,-214,52,98,-92,-6,-277,-180,-29,-6,20,24,-188,-4,-58,-97,-104,-99,47,-106,-8,58,144,111,-237,77,10,104,110
,-55,-12,-15,-21,-5,-22,-3,-6,-32,51,52,-386,-56,-108,339,-63,-13,-4,30,-6,-23,7,-48,8,9,7,-3,18,-9,2,-577,-470,-174,-77
,-102,-69,96,-57,74,-185,-3,-139,-50,115,-58,-627,79,-103,111,73,-8,-160,-60,-124,-177,-15,-110,-44,-60,46,-209,90,18,-55,170,98,81,-82
,-89,-55,-61,-183,-84,185,-239,-176,-26,-54,-26,-288,-213,-6,-347,-59,-156,99,-8,145,-256,175,29,115,13,-36,-72,38,267,41,-68,-56,-142,-216
,-20,117,88,138,61,-66,68,-58,50,-113,-124,-111,-92,61,88,-35,-8,-22,-134,220,-108,-98,-103,60,128,-25,-113,-54,105,-62,-189,62,-466,-9
,-57,-230,100,-5,-117,139,-87,-156,-118,66,-180,-326,55,-6,20,-108,-86,-352,-60,55,-107,-377,-44,41,-142,-588,-89,100,184,-334,188,-118,-259,190
,-166,-362,-293,1,-166,48,-309,284,100,57,-233,-173,-194,-416,-59,-253,229,39,-48,26,145,182,117,46,-159,107,145,145,108,-78,-134,-85,-12,-306
,-239,-152,76,-296,-42,-172,-253,-193,-353,-364,-15,137,-335,138,191,-270,378,100,-116,-84,-128,252,-105,150,27,-15,-230,-196,-231,181,33,62,-26,135
,-10,-99,93,-55,-1,-329,26,-19,-132,-12,-118,-31,-3,26,-33,-173,-34,80,-86,64,-113,-114,-96,-60,-29,158,-27,-44,-95,-374,-257,252,129,-114
,122,27,39,6,-41,-100,87,-179,-180,-92,-179,-80,-97,-18,8,15,6,-70,-35,23,-86,-84,105,118,-120,-20,41,118,-112,14,-414,-331,-1053,-59
,-117,108,-8,-106,147,-300,-63,104,-435,64,-159,-289,-188,-48,-804,-201,-196,-127,89,-58,144,57,102,-10,124,157,-74,-60,-229,-19,-45,-1,46,41
,-125,-36,-3,-90,49,-72,-71,-21,-561,62,31,-316,-156,-134,404,-70,137,-66,1,70,-26,-59,-39,-46,132,31,152,-398,123,-265,163,-136,312,-95
,-179,-38,124,63,-7,32,-47,-113,-170,-61,5,121,-52,-63,-212,-77,87,-125,-183,-134,-122,-374,20,-48,13,-690,-103,184,-516,-435,244,-216,-217,307
,2,-5,66,-139,-14,-90,21,-76,-140,-30,-2,-55,7,55,9,-173,20,-108,-67,33,-17,-20,-125,-41,-35,-143,-6,5,-106,-13,92,-47,70,-104
,-95,69,-32,32,115,69,-151,-24,-17,12,-42,36,-163,0,53,22,-18,1,69,87,-38,4,-48,59,-36,143,12,150,-115,27,89,28,350,-104
,-173,-184,-86,54,-205,-614,-207,-152,5,20,-92,-16,-129,40,-498,14,-113,-136,-33,71,136,-594,-83,-64,26,-184,161,206,-71,255,-2,88,211,119
,-72,-7,-67,22,-111,-19,33,-222,-151,-102,-4,-108,1,24,-26,-78,115,82,127,73,-85,-123,76,143,-170,-14,-121,-135,-15,178,16,-7,38,-38
,6,-85,-93,-1,-41,16,-46,-60,-113,-50,49,-90,-155,50,-124,-174,50,-189,-66,-14,-19,136,-84,-63,12,31,-52,-130,-121,40,-58,-175,-25,99
,-122,-84,-148,67,-47,-95,-183,-140,81,-83,121,-69,-104,-80,-59,-142,-151,10,108,-48,12,94,-46,-44,59,11,99,-7,-74,57,36,-120,-81,-45
,-190,-314,40,-129,16,37,-158,-13,-148,67,-192,-18,35,17,-68,-45,-95,-31,60,27,148,-107,-81,-118,-149,19,-12,6,-34,4,-118,-190,-110,-118
,-115,-36,-176,-186,2,-31,-165,71,213,-104,-85,-94,-159,-162,-417,-95,-47,111,14,118,188,-463,78,62,-122,236,76,5,114,76,290,-72,-23,176
,-67,-17,-26,28,-18,-33,-124,-40,-41,-146,99,-504,-15,-182,441,33,7,-17,-43,-10,-34,-24,27,-8,-14,10,-13,-14,-14,-20,-1151,-845,-276,175
,68,-86,-103,90,-79,-127,124,-103,-83,-55,28,-204,-7,-166,22,14,-75,-66,-77,-31,84,4,53,-54,-109,32,-171,110,-56,-24,-60,-131,-233,-66
,29,-31,1,-92,-30,-145,-95,-100,-116,64,-28,-89,-188,78,90,-183,-157,-155,51,100,-111,118,55,23,31,-91,-63,142,-42,-12,-96,114,-43,-5
,-130,-388,132,-159,-253,-358,-72,-195,365,-76,-201,42,-197,-237,19,-18,-68,-179,-59,26,170,86,165,281,-265,-121,81,85,-97,98,-152,24,165,15
,-189,275,71,-139,241,3,-30,-62,-168,-73,-184,377,-41,-86,-333,-235,-43,4,-87,-46,97,-116,-74,77,53,52,85,-168,-208,52,33,99,92,12
,76,-139,134,-180,-46,-322,-116,-31,-237,-39,-261,117,43,-216,85,95,-54,-244,-431,113,-236,436,-14,-181,201,-243,319,-314,-67,82,-38,113,-27,234
,72,-131,-144,-17,-111,2,38,-48,-70,-83,12,-169,21,-7,137,-148,-49,-75,43,-111,106,36,-117,-36,-105,-61,26,-19,49,17,-81,85,-29,40
,-14,-279,70,-33,41,-291,-204,-140,-330,-8,-100,126,-213,-10,-15,55,-49,25,-391,51,-353,389,-69,-42,-13,114,-295,383,-244,257,131,-87,-59,103
,-134,-13,-116,-61,-117,-47,84,-167,-79,-74,27,39,45,30,13,21,-96,-84,3,-66,-28,-27,100,90,-44,-211,118,38,-123,40,-23,-21,-44,-93
,75,-479,9,74,197,131,54,90,-133,-38,-120,-461,-65,-75,-414,79,-301,-140,-63,-118,-175,291,-74,-151,-57,-56,-95,112,-119,-141,-195,-347,-67,163
,-236,-37,57,-210,-242,-348,-57,80,-40,5,10,-32,25,82,194,9,31,-305,257,-358,23,-114,-134,194,127,169,82,-147,93,30,110,129,-109,-76
,-241,63,-451,-10,53,56,29,106,-84,-152,-157,-89,16,22,-50,3,-157,-90,-11,190,-36,133,259,-156,107,-222,181,-93,92,-17,-277,-115,-177,534
,-62,-405,15,-98,-375,-94,76,-478,135,-121,-482,-152,27,-44,96,-123,-582,-129,-208,-193,-68,203,-182,-136,-154,-282,9,-79,56,-67,160,136,151,-87
,80,-272,-193,-3,-174,107,-28,-297,-211,39,121,-145,-179,-43,156,-3,-162,-502,-299,-110,-732,194,155,77,162,20,187,65,133,-321,-17,-337,-252,174
,-86,-149,-207,-59,196,106,46,95,-801,-25,21,-104,-64,-92,51,-120,12,-129,-38,-44,-38,38,212,32,117,-44,-86,-440,123,-177,347,-386,-188,282
,-85,-2,-231,-177,-131,-60,26,140,82,-26,77,83,-247,1,-131,-201,-193,-295,-80,334,-35,-209,-259,-16,80,377,31,4,71,123,-74,-91,-164,440
,-355,49,16,-383,121,-210,-476,-16,39,-462,44,-15,-392,17,42,-332,26,-51,-21,84,-11,14,100,-70,-109,162,-35,28,65,111,72,3,-185,118
,-355,129,-279,-338,51,-69,-345,146,-85,-228,-119,-135,-86,131,-281,-143,125,217,25,-11,223,-161,99,-177,135,-419,40,28,90,72,-36,105,-84,118
,-138,-117,-46,-180,112,9,-164,-64,233,-89,-88,29,-26,11,-197,-91,-210,-91,-65,35,-79,261,-102,-299,-103,189,225,-32,-31,164,5,-40,-56,364
,-57,-233,109,-163,-131,-113,119,40,-473,62,-169,-187,-57,-49,-3,174,2,-293,156,149,-201,127,18,12,211,183,-181,-323,60,-88,-389,-598,-498,549
,-190,10,-65,49,-105,0,29,-39,1,-74,-129,29,2,-160,-75,-32,79,25,-134,-151,120,-39,-74,151,-68,-169,26,59,-74,3,-28,-140,-187,-143
,-78,-113,91,-196,-86,-5,-225,-91,-161,-170,87,-241,-46,71,-120,-19,-31,-430,-120,-110,41,110,57,101,176,-21,174,-28,211,64,-62,-163,-456,-215
,-179,51,-46,19,20,99,-76,-15,-87,73,-33,56,-65,-87,-205,-190,-120,-161,-5,-158,9,-21,-112,-106,-45,139,114,27,28,-91,-23,-14,-67,-46
,48,-179,-77,38,45,65,-69,-122,-147,-70,-102,-48,-188,-103,-1,-163,-107,22,-95,34,30,85,-6,-53,130,3,-81,-42,-65,-3,-16,-133,72,-98
,-28,-355,26,98,-228,-210,-129,-362,200,-91,-328,114,14,169,-151,-25,-56,-850,-21,-154,-210,-68,208,-52,239,-125,25,-62,-124,-513,11,119,29,-17
,-25,59,27,-105,-126,-212,-166,-190,-189,-25,78,-26,1,112,-146,-204,-29,-120,21,-65,47,-29,72,49,-157,21,-40,-88,-125,109,21,-14,-108,36
,32,-144,-93,34,-13,-106,-67,-115,-121,-113,55,26,-88,3,-89,18,132,-175,123,176,-129,-11,-143,-26,24,121,32,75,-165,-51,-116,200,75,-55
,-76,227,40,54,-207,-89,-102,-46,0,-126,-156,-141,11,-193,-174,136,-291,-17,143,19,-287,21,-14,-189,-128,52,-68,-152,73,330,-277,-161,-122,-128
,48,47,-98,-137,-64,-104,119,-62,5,-13,-32,95,-106,-165,-103,3,31,4,-47,-4,-105,-193,-120,-21,79,-159,56,-35,55,-124,208,-217,171,-158
,125,21,-35,148,-135,-70,-3,179,98,73,-72,-92,129,18,4,-18,-61,-14,207,90,-268,-181,6,-269,8,23,272,-94,8,-187,-313,-459,-1607,126
,-165,-136,-43,-116,114,-80,-18,-90,22,71,-198,-170,-17,-172,-120,-54,-15,-130,-230,126,158,-107,82,-118,43,80,-67,15,-88,48,-266,-247,-694,-59
,110,-288,-96,0,-231,-63,-168,258,76,81,-273,-112,-56,-388,18,52,-126,-119,-186,-90,-130,-2,-32,172,117,6,-136,-144,-48,-11,135,-92,35,-261
,-90,389,146,-68,-332,-183,96,28,-191,-53,-176,-144,15,-213,18,-111,-211,116,156,6,154,-87,-68,-69,-24,48,-144,44,-192,-428,28,-693,499,-89
,-102,-170,-176,-13,-31,-39,-51,110,3,26,12,55,-152,-156,-93,63,47,-188,-100,15,-50,39,-68,-139,55,21,69,4,134,-132,-113,-105,-200,-109
,23,-102,-142,86,-112,-85,6,30,129,-40,-164,94,-79,-32,-156,120,-241,-37,65,150,10,-740,57,66,-380,314,-261,-172,-35,-376,-64,-205,-288,314
,-20,-102,-109,-69,10,-62,74,-111,-162,33,94,17,2,-26,-107,-135,87,-20,22,-56,-111,121,-7,39,-5,8,-96,-125,-4,89,90,30,-68,-140
,-203,54,-166,-78,-136,17,1,67,50,48,-193,26,-56,-13,-115,57,69,-91,36,-133,-56,86,-128,118,-96,43,-122,108,-12,-139,-3,10,38,-1
,-73,-2,169,59,-144,-19,-103,-175,-201,-48,-102,-174,-174,-239,-153,45,-52,-258,156,59,36,-55,-102,-26,95,148,-86,16,-122,-149,-177,-44,-36,-165
,-10,67,112,-112,-188,20,-98,-175,45,-75,-15,-79,-160,-239,-248,-150,57,8,-127,82,34,10,-16,-23,-6,-29,13,-81,81,-46,21,69,46,-155
,-83,-68,27,-133,97,-207,-57,-323,-60,-89,172,-262,-71,-156,309,54,124,53,-156,33,-108,146,-144,-106,-310,112,63,19,-52,74,-80,81,274,-258
,-116,-47,27,-82,80,-48,67,-133,6,-78,-100,-123,-119,29,41,0,162,138,-129,3,-35,-18,-98,34,1,163,-49,82,-81,-4,34,78,172,-170
,-149,117,-236,-197,47,9,-51,-72,-313,-88,79,55,-193,174,-355,-81,-65,3,152,-43,155,-148,-145,-54,-44,-136,-174,-105,128,209,124,-101,136,-15
,79,38,-407,-139,-237,-12,76,8,-244,59,-90,34,6,-202,32,125,-176,-222,307,-11,-220,-311,-97,129,128,10,-102,20,165,131,-243,-195,-197,226
,39,27,-9,38,-23,-8,-119,-17,10,32,49,384,-1,-101,-411,-160,82,9,31,-38,12,20,5,10,-20,5,14,-5,-3,-1,116,74,136,248
,85,7,5,-21,-6,4,-153,-21,3,51,-142,579,-46,117,-580,14,34,-2,12,-11,4,-7,4,7,-7,-1,-7,-11,-7,-8,-1880,-1565,16,165
,72,255,126,-131,-302,-474,118,-51,-196,126,-158,-77,58,-352,-13,79,-178,-286,-43,42,-159,97,102,142,-63,21,-112,-18,-139,22,-88,-193,-116,-229
,-218,90,19,-161,-62,-298,-198,-90,-114,-113,35,84,-57,-18,182,-250,-72,-295,83,-1,-20,179,-33,110,-59,233,-167,63,40,-147,-187,-254,-148,-58
,156,-159,9,-49,32,-53,-3,-93,-94,102,-37,-35,48,83,-72,47,-66,-106,103,2,1,-73,100,17,55,-101,87,-97,-71,88,-69,76,-144,169
,-33,-126,-155,33,-183,1,-12,194,86,-59,77,-265,-169,151,172,-182,-190,-150,-114,34,118,-24,27,-106,179,61,-44,57,-263,-226,265,73,159,276
,88,-195,-178,87,204,202,-145,-107,-96,-92,-366,-198,-10,-225,-47,-38,-232,-171,-159,-50,27,-739,52,43,154,131,-67,32,-137,162,-305,-59,-73,-184
,-187,-79,-65,-228,-93,-145,-125,-119,-156,-161,-110,-1,-218,-126,27,2,-157,84,-56,165,24,42,59,44,-15,69,163,-30,-120,10,-19,66,21,-161
,-169,292,97,-134,-310,-98,13,54,-52,-13,-263,-388,42,-123,-459,-100,-30,-26,170,58,-44,84,-1,-123,94,68,-170,-181,-149,-575,120,413,-220,-729
,-74,4,-16,13,-4,-30,-104,-54,-31,12,-116,389,84,52,-401,-34,-13,-27,24,5,17,0,-179,-147,-134,-22,-19,-8,3,11,-823,-424,-435,-59
,7,-157,-94,39,-299,-462,7,-219,239,-136,-110,-247,30,-232,-55,-147,-126,-92,-125,135,-22,167,-234,-121,-154,182,19,-25,139,200,-136,-180,-27,-160
,-37,9,-139,-103,-165,-7,4,71,-77,26,45,68,24,46,-68,-115,-2,-13,-62,-35,171,-50,-116,-11,68,96,17,121,-169,76,-25,-9,32,9
,0,-293,6,-90,-31,-49,-99,169,110,-69,-271,-123,-42,-305,-35,-127,-205,-9,187,7,13,19,-17,-16,107,83,157,-190,-29,48,-61,6,78,-75
,43,-201,75,6,-108,25,-233,-53,-116,36,-44,-166,-158,-115,-62,-7,-4,5,-9,107,59,-147,-136,63,-136,64,33,-51,-158,-125,-39,-36,-386,-32
,-28,-29,-54,-103,-107,36,-11,-57,46,31,-165,43,-47,-22,-169,-179,123,47,4,-40,26,13,-137,58,76,-342,-10,24,-7,-114,-102,100,-15,-39
,-72,-192,-230,-104,81,19,-39,130,-60,-54,-83,-110,52,-157,-81,-138,-122,24,62,-130,-86,-19,91,-85,71,-79,128,-87,79,-15,-269,-224,-207,-190
,-32,-223,42,-16,-24,-160,39,-203,-50,-9,-28,180,9,16,-300,-163,41,59,-77,-56,7,-514,23,-96,45,-196,117,-146,190,-71,45,166,-383,-46
,-51,-116,8,-89,-11,29,-12,-157,-125,-137,-69,-1,-84,-22,-143,-114,110,-181,114,-76,9,-50,41,63,85,-133,63,102,-2,16,-119,5,49,-8
,-20,-36,-3,-125,-91,-140,15,63,-6,27,42,91,-66,-2,-185,-80,-19,1,55,-53,133,-117,-119,-87,41,-208,0,-26,50,-187,-18,-78,11,59
,73,-220,-326,68,-162,-168,-55,-57,112,19,167,-182,19,74,-192,-157,-128,-7,-173,226,-159,181,-210,428,-21,-245,-15,210,-9,169,-407,-341,-543,-210
,14,-193,-165,-93,113,41,-56,-233,-261,-103,-150,-103,-255,-76,-219,-198,-290,-284,-85,-129,-39,138,-42,3,-98,47,-50,115,190,94,181,140,-57,82
,-125,-70,15,67,104,118,-44,149,-87,-112,-84,8,-133,-69,-49,81,-243,-95,200,-40,146,-220,-115,135,-197,28,-148,-284,-292,-150,134,41,193,-12
,-167,85,-5,38,25,-144,-161,-45,-626,-38,-740,238,-84,-178,-181,-18,-37,-109,-368,-145,-207,74,-169,-138,-43,-273,-48,226,137,-176,68,151,116,41
,100,46,-154,103,15,-23,-84,-121,10,42,-88,-27,-81,-33,-132,-145,-32,-74,218,-117,-96,-141,-38,-8,104,-38,-151,85,-52,-15,-82,-28,80,50
,61,100,73,-192,-34,5,-113,-53,-91,-106,-20,56,-45,29,32,-158,13,67,-15,-12,163,-79,-39,-61,13,11,-24,3,78,-94,-1,-49,-62,46
,-81,54,42,-102,-94,-38,-101,-162,-117,12,-116,-143,-45,-68,82,8,89,22,-55,-70,7,28,12,153,-47,-67,78,-99,-134,95,78,-48,104,-125
,13,-128,-115,23,-137,79,97,111,-314,-30,-103,213,-74,111,-416,109,-186,-125,-94,-118,-202,79,-240,341,11,-119,-114,-272,-92,56,152,-9,-6,-125
,29,-116,-95,-170,80,68,31,-144,72,-181,-149,-114,-205,-84,-60,-87,-117,-24,5,24,-58,2,-85,-80,-110,-75,19,-28,-68,-14,-108,79,-116,12
,-36,-16,192,-293,220,-62,-238,-198,-293,-175,13,-102,-269,83,-9,-296,101,-269,112,-298,-228,360,102,154,-68,91,139,21,-86,177,-161,-34,-457,84
,22,94,-264,-134,-69,-22,76,-97,-165,74,105,-81,-159,79,-136,87,-72,-573,-151,1,179,203,-209,-38,-26,-28,47,-76,-1,106,-69,-222,-15,-61
,-100,-17,-7,-37,-162,26,-19,-95,-52,3,-105,-55,-8,-1,-2,-129,-85,38,87,-5,-111,-55,-18,84,-57,-63,-74,-42,-103,158,55,-30,-126,-67
,-77,129,23,-44,-23,8,-9,-174,-161,-84,-172,30,-43,-139,-329,-34,-146,-8,-9,-17,15,-86,-81,-38,32,-106,28,-48,-122,57,33,55,103,-20
,-292,191,25,-256,-34,-65,-215,132,-36,-91,-113,25,-116,97,-235,-113,137,-18,102,93,7,-39,348,16,-23,-41,-380,-224,345,-580,-114,-10,-226,-1059
,-48,-51,-9,-152,-102,-39,-57,112,130,-107,-206,60,33,-129,-115,-73,-137,-178,-56,-46,-2,-61,-27,-59,-91,53,189,-201,-17,-32,-242,-102,-24,119
,86,-58,50,86,-158,-149,-147,-38,-94,1,-43,-696,40,-132,71,-79,-161,-125,-185,-159,-329,-345,-39,242,-46,-405,-97,107,-59,98,177,173,58,-38
,-81,-119,28,-1,-209,-16,-98,20,-21,39,7,-118,36,75,13,-157,-10,-36,46,-55,-58,0,-33,-291,160,175,-173,-205,104,86,-221,-105,-323,84
,-112,88,-23,-280,202,38,-229,-61,161,-271,-189,-231,-174,-54,-328,-274,259,-139,-32,43,-53,4,19,-28,-9,14,118,-15,-146,-176,-17,-179,24,11
,-12,25,-315,-6,32,-247,-219,-58,-173,-152,107,-236,-103,30,8,-81,47,-41,-9,172,-131,-291,-109,107,212,28,69,-36,-139,-375,-14,167,314,-111
,39,-103,-75,63,-4,-411,-115,-273,123,-195,41,-395,-44,-106,-306,-110,-179,-56,-102,-1,113,-415,-7,18,55,152,-246,-78,84,321,-228,60,-32,-210
,-74,-179,58,-175,-155,28,95,2,49,-180,-133,-75,26,-97,85,-174,-42,-36,-29,-27,-105,-105,-4,-71,10,32,36,-29,-73,-109,-33,-108,-1,-75
,79,-190,-211,-19,-231,63,-29,-192,-305,-14,195,226,168,-237,-161,-83,-234,-125,99,143,189,-65,-57,233,39,13,78,291,4,-344,178,109,159,23
,-43,-240,-59,-104,63,-187,40,-380,131,14,-376,32,-191,-209,-70,-100,-403,81,48,-297,104,338,-287,-48,-299,-137,-478,-439,-1025,418,-447,-479,135,339
,-138,-44,53,-201,-59,-107,34,221,-67,-220,-53,-94,-181,-127,156,-173,-44,35,-359,-515,238,338,-202,272,-128,154,79,-51,30,150,-84,-89,17,304
,84,31,-52,-55,-51,-179,9,-88,-8,-115,-138,-180,37,84,101,-42,14,-138,88,-56,-32,19,173,-224,-79,52,52,-88,-10,-39,60,52,-171,84
,-96,-137,-145,49,-242,77,-114,-100,161,82,-50,-9,-99,-112,-109,-44,41,-202,-11,36,165,-346,-159,-44,-53,164,4,-73,-46,-233,239,-157,-186,190
,235,118,9,76,82,20,198,-13,7,116,-132,-50,193,17,121,86,78,40,-47,-83,45,59,50,106,-21,-94,30,49,-49,5,-686,-869,-2390,-191
,60,-169,-85,-165,71,-94,58,-99,43,-18,-41,-88,-101,-54,23,77,-56,-49,-78,64,24,-46,29,-65,50,0,-31,-179,99,-178,64,-67,-36,-39
,-55,-357,52,-12,112,-191,-213,-351,127,37,-145,53,-122,-128,-43,-178,-544,155,-682,-507,-204,351,-69,-103,-239,-135,-23,-11,-437,51,392,-288,-82,-242
,-131,-86,-77,-88,80,-84,-34,25,-87,-81,-71,3,-110,-29,-124,126,70,-53,-135,-52,23,59,62,2,-70,41,-45,-1,31,-69,49,-57,-92,-14
,-13,-250,-273,161,-11,-489,109,-33,-71,34,-491,56,-101,-502,104,161,-57,-155,-19,207,-121,-30,-88,55,-115,-494,-8,-62,-266,-210,54,-53,-47,-505
,-150,-185,-246,-58,199,156,-3,-181,-94,-136,59,-123,11,21,-224,28,-108,-281,-178,-255,-257,283,351,6,-86,-249,144,133,50,-265,-201,-323,-318,252
,-153,90,-322,-72,-101,79,-190,-221,-120,-215,137,-162,-57,155,-243,-56,165,-189,103,34,-112,-720,104,-32,138,186,-32,-166,-93,105,-219,-110,63,365
,-161,36,-125,-172,2,-405,-25,-247,175,-66,-49,-185,-42,-127,-125,94,-128,-227,-77,-23,148,58,-41,-102,110,-243,-15,19,-8,-126,-89,-15,-1,177
,-87,28,-147,-165,-94,31,86,-125,-235,-145,53,29,-27,-26,-14,62,41,-126,-134,48,60,30,-150,-24,54,-108,-21,-31,47,-209,18,97,-82,22
,44,107,-406,72,-141,45,-106,-103,-150,-95,-143,53,72,-95,51,57,-218,-184,159,-101,-59,-97,-24,-317,83,465,123,-174,88,87,-169,-167,-216,160
,-24,-10,14,-102,-75,-11,-141,18,-31,-57,-61,-225,-148,-88,73,75,27,46,-143,-70,151,-30,18,-101,-23,29,-23,39,-54,-255,46,-229,72,81
,-85,-181,51,-37,-196,91,-281,199,-71,-240,214,-67,-245,99,-16,-72,-156,-46,7,-68,-6,225,-159,78,-151,48,194,221,-250,-183,-166,294,-51,-8
,-24,7,-6,-95,-22,-5,57,-78,-14,-29,2,-243,-95,-72,209,-132,157,9,4,-4,13,0,-4,-7,-4,27,35,-36,14,-10,-233,68,-187,563
,-136,48,-385,-126,88,31,-79,119,-327,-230,24,-258,-180,35,62,-88,-137,169,-37,18,-192,135,194,41,115,-53,141,-846,334,-97,-161,324,224,-807
,-103,-83,-34,51,-45,-204,-38,29,-62,-43,17,79,-11,68,-194,3,-133,-8,43,-75,-4,-134,-1,26,-79,-37,27,-49,9,-77,141,38,144,-270
,-102,-53,-386,33,44,-130,-36,98,90,74,-219,-104,164,-364,-75,132,-318,-457,84,-52,25,3,-102,-26,207,-172,68,63,210,66,-389,-203,-284,43
,-8,333,68,-171,43,27,-122,-277,18,-147,-206,-134,123,-346,-108,-124,101,-98,50,304,-165,-166,163,65,124,-180,206,-90,-172,137,-187,-471,111,119
,-272,122,87,-222,169,-113,-193,56,-148,-114,284,-126,-160,-119,-151,37,-416,-214,142,66,-164,162,49,-9,-59,-269,-51,3,-112,72,-92,153,-79,159
,-154,-13,-15,-19,-153,-36,90,69,-156,-83,-104,-120,-27,-103,1,-97,58,-47,-144,42,45,26,-68,40,-103,74,-131,-30,-116,9,77,30,-47,35
,80,-219,-235,-120,-107,16,-9,-24,18,-39,-94,117,-72,-87,-77,-189,-40,-91,-33,-21,-64,-35,-2,137,-99,113,-50,-92,100,-44,116,-180,-57,106
,-84,-68,-77,-80,-87,89,-123,-94,-105,-8,-62,34,-126,-22,2,-6,17,-162,-164,95,-48,-50,74,-92,-96,-40,90,58,-67,22,129,-93,-33,-113
,-206,-269,-198,-274,-217,-32,-240,-236,33,-319,-377,285,-302,-388,164,-324,-163,-15,-308,-99,-12,297,-73,42,10,-134,-62,-169,75,184,44,-4,-113,-61
,-205,-31,-6,-305,-36,0,-303,-21,-487,-89,-12,-12,-81,15,480,-345,98,5,41,14,10,-24,5,0,-18,8,-349,263,-523,-11,-42,169,205,160
,-182,-268,-2,34,-113,-62,-205,-232,-145,-51,-55,-9,-124,21,122,-145,39,165,69,-66,-88,159,-251,59,37,111,-140,-93,-186,160,85,-102,34,-61
,15,-39,-227,-196,-236,-243,4,-222,-150,-176,-2,-14,-209,-32,-11,12,-139,-14,-11,147,227,-147,225,-44,-7,137,169,-157,-111,138,-68,-134,-492,104
,-164,-157,-96,-141,-310,-187,72,48,229,-126,-141,-213,14,-111,-74,-156,-218,113,-20,106,43,188,-211,174,-82,91,-22,-19,20,-33,-155,-181,-124,-179
,-166,-463,200,-110,-347,-395,50,76,-105,-27,-199,60,-157,-381,9,-2,-55,52,142,25,-153,213,-83,-103,22,-33,37,-12,145,234,-215,-36,-31,-459
,-134,-158,17,-89,-3,-207,-178,76,-942,-112,-139,133,-171,-194,61,119,-119,-89,36,-5,240,60,51,-102,-40,-660,70,27,-196,9,61,266,189,-61
,-150,-99,112,-120,-22,-153,8,-80,-212,-223,-77,-280,-116,-64,-42,-200,-166,-330,-10,114,121,113,1,-38,-14,-181,92,153,-22,101,-136,-76,4,249
,115,-78,47,214,-72,50,2,20,-4,235,74,83,227,75,-99,204,27,43,-39,-40,80,-63,-8,-51,-52,84,-1,-18,108,82,-729,-957,-2802,-298
,10,-121,-83,15,54,32,-36,0,-254,-91,-220,-253,-254,12,-235,-98,-243,-92,29,-55,130,67,88,-56,241,-73,127,-38,80,-172,169,-165,78,-28
,-203,-55,-106,-150,-308,-120,0,-137,128,-228,-133,-465,-66,-30,-416,45,-208,218,-192,-183,-239,-347,250,10,-53,215,250,-106,109,155,-4,30,-242,4
,-6,-341,-155,-24,-272,-610,-66,-415,99,-103,-288,-390,-71,-357,-237,-104,-237,-240,-110,86,-73,12,3,104,90,174,125,93,51,74,-118,-18,-134,189
,-76,-100,-105,-18,-83,-127,-110,0,-6,-97,130,22,61,-127,-37,48,-122,-31,78,-19,56,3,-73,96,-104,80,-122,41,-38,-32,66,51,12,-65
,9,-47,16,-57,-45,13,41,49,-347,-141,84,425,79,12,-485,-71,-152,23,20,-19,-26,-47,-36,234,-30,-117,-116,-38,-74,-30,-14,140,127,106
,-294,-71,-52,-291,18,10,-374,262,-104,-152,71,143,-386,170,-42,-285,99,-30,41,-222,46,-96,69,-11,263,-362,-181,133,160,-40,9,39,18,-18
,57,36,-67,-182,-113,-84,-40,-152,-47,-60,-52,-118,5,43,-91,-190,160,4,62,191,-107,-161,-59,57,-81,45,-86,27,49,-70,-169,-3,-108,-47
,-150,42,61,-163,131,187,-220,-303,213,-185,-276,-160,-244,-300,-83,6,-152,-152,-2,75,-249,33,-106,188,-133,181,-107,-178,-40,204,-76,-31,-57,-43
,28,108,202,67,-387,59,52,-476,-176,-20,-319,-525,35,-347,-514,-157,-57,-140,-47,-87,109,-60,-10,-12,-43,-1058,-92,-101,94,5,-10,238,-22,105
,-5,-257,-410,5,-14,-127,-166,-91,23,-70,-28,-4,-101,-136,-234,-28,-129,-34,258,-38,-15,229,-108,-109,-89,-157,-279,-203,-351,463,-18,169,106,94
,-172,6,-278,-68,32,-93,-235,264,166,-240,50,-51,-269,-63,-209,-114,-107,147,-529,-214,-315,-97,276,61,-144,119,101,94,152,-17,247,19,-22,108
,77,-127,20,-83,69,-382,81,-170,-25,44,-18,-135,-82,-42,-62,66,-124,-112,-181,75,8,181,41,204,88,-33,-3,-51,-116,-298,-98,-13,-188,-67
,-24,-44,111,-162,-228,-56,-114,-215,121,-143,-235,9,-225,-80,-174,-246,-85,34,-12,-173,-39,111,-155,82,112,156,-104,82,-4,115,35,-71,-11,25
,-149,-87,-55,0,4,-88,-184,51,-63,20,-189,-5,38,-60,-87,-124,-32,134,-99,-161,-70,-67,0,56,58,102,39,-23,-26,-95,54,171,-36,-255
,-120,82,-183,-34,58,-4,-148,-147,60,-8,3,-182,-168,-113,63,-159,58,-69,-180,-66,1,68,-73,76,-143,-33,69,-105,-97,114,-60,-7,-142,24
,-97,-270,-1,54,-206,0,-69,360,-72,-57,-366,-51,-27,-333,-37,102,-157,-346,10,-173,-116,214,-90,76,-138,342,-26,-53,-196,69,-148,-4,-27,-368
,-64,-192,69,-67,21,-122,-30,25,-120,31,-79,-114,-2,-34,-97,-136,-31,-131,11,61,79,-33,-36,-95,-18,-133,-50,-22,70,-10,-84,21,-32,41
,-166,-219,-249,34,-64,300,-162,-174,11,-186,51,-207,-205,-3,-292,-134,-263,-19,117,48,45,187,-80,52,-66,22,70,-80,249,163,-162,-123,-159,-157
,-174,-297,124,-237,-3,1,15,-126,-276,-230,-243,-49,37,-82,-8,-165,-186,141,58,34,127,135,-100,154,58,90,119,-132,-120,-8,-3,166,12,24
,-155,-191,-153,50,-125,-247,-102,-88,6,-204,-141,-188,5,63,-7,-151,-32,101,29,78,102,-146,-89,28,-27,-181,-55,8,88,-2,-2,87,5,7
,-25,5,32,-83,-59,-131,111,-70,-112,-47,5,96,-91,-68,-33,-75,-96,-74,73,-8,-75,-122,15,-50,115,-125,-11,-93,-95,-90,-107,27,-80,0
,55,-365,134,-17,-397,-75,-66,-218,-281,-55,-360,-28,-63,-122,-306,-96,-242,138,-113,-161,-222,15,118,-20,146,197,309,-48,15,128,-354,165,34,224
,-140,0,2,-259,-52,-10,-180,-43,449,-173,12,-4,-263,63,-448,-282,-6,0,1,-54,39,-37,-54,37,10,37,228,-119,-405,-85,38,342,125,-17
,-77,-103,-127,0,-117,-109,-167,88,-34,-147,30,-33,21,25,-75,33,35,-149,33,135,-121,-40,-8,-45,41,-50,3,-2,-58,-123,94,56,-55,-97
,10,-4,0,95,14,7,-69,0,-2,-113,25,-539,-62,-54,540,63,15,11,-2,6,-6,3,-3,2,-1,-2,3,-7,0,-1,-1078,-262,-178,-7
,-132,65,-208,-131,-172,32,-64,-134,236,-46,-38,62,-28,-44,-306,-150,128,-96,194,-98,-13,72,-118,16,-47,-57,183,-89,58,-172,-25,32,-36,302
,-88,67,92,-145,150,75,30,96,35,-199,52,-94,-141,136,88,-233,-354,-189,12,9,-222,-62,-26,-34,-172,-62,-99,78,-363,-215,134,218,39,136
,-26,-64,5,11,-176,27,30,-38,-95,-63,-159,-157,-227,24,-6,10,4,8,54,7,111,-124,246,-96,158,-124,-27,-124,-51,114,-72,154,4,-120
,45,-214,-275,-1,-142,-18,15,-190,-76,58,-210,-159,49,-21,3,80,-161,-35,37,58,-123,52,32,-69,0,-7,53,63,-65,-43,-172,-203,-372,-167
,20,75,-19,-54,9,-100,-90,-102,-44,-9,-44,11,-137,-41,7,-176,3,-110,48,-123,146,0,-100,52,-36,0,0,-159,23,-11,-61,-101,10,2
,86,-184,-141,-161,-309,19,-77,81,-175,82,-389,-56,-90,-314,66,-1,36,5,76,197,251,-635,71,-2,159,220,-57,41,52,84,-90,83,-203,-334
,-96,93,29,-68,-7,44,-89,50,15,101,21,244,138,-71,-210,91,28,63,2,-97,83,-5,93,-17,-120,-20,-67,-11,53,-2,256,156,57,-724
,32,89,-28,-211,-157,-67,-109,97,-13,-145,-82,-166,-55,-6,-177,-105,-141,16,79,63,-27,-18,-89,-33,100,-93,80,-106,-27,7,52,47,-175,121
,16,-251,22,-20,-34,18,27,-142,-39,-144,-91,-21,-73,12,-62,-188,-221,-227,0,-22,1,-136,-53,-48,-33,18,59,-84,32,22,-151,149,137,-57
,-30,-392,36,3,-148,-154,-26,-211,-885,36,-7,-224,104,-162,-233,10,-746,183,-24,-260,-80,308,77,-55,-88,-138,-66,33,-12,122,-82,-111,-172,-932
,-193,210,-10,-60,-154,-178,-1,-488,-431,-64,-189,-113,-90,-367,9,-58,271,187,89,157,73,23,-154,58,-54,125,-104,10,50,-2,192,-69,78,-46
,-23,65,-35,-146,-52,84,-146,-208,-213,4,-44,67,-86,-27,-143,-46,-202,-71,-27,-125,-137,4,-115,-143,169,18,106,13,-135,-32,-12,-108,93,-11
,-148,106,32,-73,-34,-32,-54,-55,24,-113,-47,-81,-33,-30,50,-9,9,-170,-82,-1,27,38,-81,-19,-36,-154,146,95,-59,-135,-52,-25,-7,-158
,-189,-35,-115,-77,7,-188,13,160,12,-99,5,-222,-103,23,-184,-206,-113,97,-25,-171,40,-156,47,146,-206,123,33,53,-6,26,-155,-26,-49,181
,-8,38,133,-106,133,-54,-86,192,-23,-36,105,-260,-130,-143,-176,2,-375,-82,13,-96,-39,-99,-102,34,-165,-34,-148,-73,-149,76,-11,-7,-121,-63
,-128,23,92,-3,73,-30,-191,-189,-27,-90,137,165,-171,72,-12,-43,-362,9,-29,230,-14,-212,-60,-244,84,-212,-107,131,-82,53,93,69,271,8
,-250,-254,-429,-242,41,180,-10,-244,-111,-176,165,102,-202,136,-32,-193,-279,203,21,-10,280,-162,-58,23,4,59,45,73,-69,128,-155,28,-219,55
,-3,-86,-25,109,-67,-68,24,-87,-48,-28,31,-137,131,46,82,-31,29,7,-34,-33,109,-53,-46,-85,228,-238,-81,83,43,-2,-470,-222,-1130,26
,-18,1,-2,-184,-151,-48,17,21,-391,33,-5,202,-1,-84,-506,37,11,119,275,146,-165,-399,146,-136,-114,-67,-75,-123,-140,-192,-244,12,293,-236
,28,-25,-278,-149,38,-112,-55,-28,-300,-129,64,184,-63,43,-628,-89,-93,-304,-110,73,27,-425,-219,118,131,-144,-74,132,145,208,127,-50,103,99
,-194,-69,12,38,-186,60,-117,-36,-84,-184,-146,-221,-48,-100,-137,36,-166,-29,67,-84,-49,-201,182,-81,-79,-49,39,74,-102,95,70,-171,-98,-136
,12,-71,27,45,67,-90,-23,-170,74,-128,-193,-2,-154,-129,-19,3,75,-37,-31,180,-209,88,88,-24,-124,-159,-10,37,9,-83,87,33,47,-105
,89,-412,-320,-63,-382,-98,26,-133,-72,110,-307,-226,114,-266,-220,69,-86,32,-75,-35,-142,-122,11,-63,-118,86,-134,-64,-31,-188,-103,-140,5,-233
,-202,-212,71,-154,-232,34,-252,-18,100,-169,-59,-281,-173,-67,-171,-102,-221,132,189,25,52,192,-33,108,-52,48,-42,120,176,68,-321,-210,-452,-172
,52,-124,-39,101,15,-971,-133,150,-332,-104,12,32,-62,-306,-200,60,-95,-177,80,367,-138,32,-90,-132,-67,-397,46,123,140,37,117,-80,81,-59
,-26,-155,-163,-3,147,-753,-26,-42,71,-3,-298,-28,61,-549,152,87,-325,-156,-312,-295,-122,243,-193,-27,-768,50,55,318,34,-8,-44,-40,192,164
,-231,60,-84,-53,-129,-303,-156,-146,-301,1,-107,-23,-231,-134,106,-22,41,36,-49,-73,29,26,-71,126,198,53,-25,-76,99,-115,92,-145,10,-96
,-169,-143,-42,-36,-104,21,-42,27,-127,-20,24,-124,-14,31,-57,30,-186,-125,-33,236,-265,-249,37,64,-33,5,78,-39,3,-109,42,-75,91,-84
,-179,-35,-239,-23,-36,-101,-174,-88,181,-150,-1,262,7,-35,-262,26,52,-145,244,-331,-10,259,-65,187,-155,167,-13,-13,-65,-36,-366,-157,150,-416
,-103,-466,-164,-87,71,-33,-153,-52,22,32,-202,-63,-81,-196,-26,-226,511,-10,-152,-189,-152,6,-85,-92,84,25,36,108,-93,-14,113,130,44,-24
,-14,69,-26,-88,90,-22,-23,-11,-263,-95,61,-151,-209,-159,25,-71,74,-146,49,-203,-19,24,-52,-48,-139,25,55,-20,122,-58,41,-155,27,27
,39,160,17,-209,-157,32,-194,-87,50,-170,22,-3,-7,-106,-174,-67,16,-113,-88,35,-8,-90,-56,-4,-51,-6,82,-32,-136,16,-240,-78,-235,127
,72,-131,-151,-25,-52,83,15,92,-126,-35,-219,-145,-205,-115,-51,-214,-120,-125,58,75,69,-52,121,-49,96,-35,4,-102,-151,-178,87,130,-20,-85
,-79,-192,33,77,-101,101,-150,46,-86,-35,-103,-160,1,-178,-150,-157,-65,36,-26,-53,-114,-17,-41,-84,58,118,-16,-78,-52,-213,281,-56,55,-231
,-87,42,-91,54,-39,-127,0,-59,-70,-94,-129,-18,-89,84,51,-95,-19,90,69,26,-119,62,40,0,54,-79,-126,51,-75,-169,-168,35,117,-90
,59,-79,-131,-150,-126,-97,-22,-38,-214,9,1,-242,67,-76,-57,8,-147,-20,-177,83,-95,-49,131,43,-226,200,65,-11,-28,12,26,-28,35,14
,-14,-128,-14,-82,10,-106,-226,8,-19,-58,4,13,-10,-174,-3,-48,25,-34,2,-107,313,-187,178,77,-104,-62,33,46,-69,-60,-181,-30,13,-80
,46,-226,10,-72,3,-50,-119,-52,-191,86,98,28,24,-75,42,-179,-21,-75,16,9,-68,1,28,-64,-57,-53,-97,41,-174,-109,-89,-26,38,52
,10,-69,-243,-95,-108,-70,8,-19,51,-54,-65,12,-79,-5,-68,-71,19,-76,-33,3,141,-115,-36,-120,-20,-123,-72,-31,-146,62,-74,-27,73,6
,-154,30,-71,-45,-55,61,-173,-84,-130,-132,79,-38,-119,-144,45,68,42,-48,-8,108,-78,115,-39,-65,27,-56,-129,-6,33,60,8,48,-17,-168
,-14,8,-242,-160,-246,-86,-146,33,-79,-225,47,156,-122,-152,3,40,65,-207,-228,-39,-86,59,116,-11,198,-89,-85,-159,-146,-16,241,-14,88,-49
,18,93,-56,148,-76,34,72,-82,74,27,63,-63,-100,-1,83,58,-152,11,-69,96,-103,74,27,-42,21,1,90,-114,-3,-42,45,-78,-105,86
,122,-3,-52,-106,54,108,125,-166,-314,144,-32,-136,75,-39,-192,-34,-188,1,162,105,7,-337,-90,-14,-63,126,-136,-167,-59,-17,191,126,109,-68
,91,-323,-254,-28,-265,-54,78,-30,75,146,-429,-292,43,-504,-248,16,5,199,-56,-15,-73,-61,47,138,-102,-85,42,-172,48,-16,35,-29,41,12
,-205,-240,-209,-140,-323,133,-36,360,1,-197,82,-127,-16,-14,-23,-20,-554,235,82,-46,74,-192,27,139,46,-145,-120,-156,-195,-275,-390,-443,-154,341
,-147,-222,-192,-198,-28,-168,26,-46,-93,-230,-78,-15,-218,14,-12,-177,-41,1,56,48,-7,189,43,71,100,5,41,-120,-73,-9,94,-109,-94,151
,-11,-175,103,-28,-311,-8,19,-206,-174,-150,-29,-295,24,-310,143,-102,-51,-3,-165,80,-56,96,-18,-33,22,-81,-76,78,34,-72,9,245,-113,-180
,91,99,-67,-2,-71,-8,-72,-138,78,-145,-126,-62,31,-184,-190,94,-31,-115,71,15,90,-171,-41,-84,-1,-117,-211,160,-48,-453,-119,47,-35,83
,-79,-161,-142,-184,80,19,-63,65,-200,-171,75,17,-78,-158,4,-147,-12,90,118,30,-155,187,-156,-25,109,-76,-26,56,-82,-28,141,-110,15,7
,-143,-15,-235,42,-314,-171,1,23,-371,-211,-251,-92,-184,-218,18,-136,-215,126,-34,155,9,245,-86,-61,-98,58,102,0,286,-86,-39,-9,-5,163
,-19,36,-294,-165,-214,44,-64,-4,-86,-153,25,3,-104,99,89,12,54,-100,87,-50,-24,-368,59,206,186,-186,-147,-117,-171,110,-236,-212,-333,-155
,18,7,-4,-115,31,-32,-176,-137,-55,75,29,-56,39,27,-166,-104,32,-71,46,108,-157,-27,-138,76,32,-1,96,59,-117,-126,8,-13,103,-141
,-92,-108,-121,-88,96,49,-55,154,6,-32,-34,87,-165,-139,-7,-142,-147,-176,-84,-57,-52,36,99,139,-57,-166,118,-227,127,-181,159,129,-137,-131
,-19,-126,6,-142,-37,-90,-122,-42,-284,16,32,-143,-95,-267,253,-72,24,56,-87,-96,-47,-261,175,-51,200,-151,-191,199,-323,-157,138,333,-10,-194
,8,31,35,-82,-209,-128,-115,-90,-318,-158,93,46,-163,-125,-15,-122,90,-49,-111,112,-167,-20,124,-82,-121,184,-79,3,57,-93,-73,-40,61,-33
,-114,-203,-39,91,48,-248,27,-210,-69,22,78,-91,-113,40,-168,10,-54,11,14,111,-64,-92,-34,-112,10,-58,-21,278,-61,-145,-143,-177,65,-192
,-254,131,-82,-247,-198,-117,-332,175,158,-364,158,-139,-312,86,-120,-167,29,-5,88,-19,86,-80,-83,-152,-8,5,379,-152,-221,191,-169,97,-300,-166
,26,-116,-280,-129,-214,-365,48,-71,-44,-44,-225,-12,51,-175,-47,-40,-184,-47,71,102,118,15,255,-63,155,-106,57,-105,-163,114,-258,-109,-356,15
,14,-215,-430,-31,46,-35,-82,278,101,-212,126,-221,-106,1,-133,-128,-157,-388,208,51,-1,-261,156,-2,235,-274,-5,30,73,190,-216,-184,-342,40
,-105,1,-3,59,-241,-196,-106,-193,2,-24,-53,-103,47,-90,-57,-9,-11,9,-27,-195,-117,76,-90,44,-114,-88,-24,-39,-35,106,-128,73,100,-3
};

long weight_1_T_sdb1_2[2*256] = {
121,-25,89,142,-17,61,-121,-111,156,-33,352,-89,78,184,-219,169,176,-44,-176,193,-11,43,131,3,-51,-87,117,-239,23,-34,140,41,80,-912,230,29,16,-360,291,795,198,59,100,-462,-27,-145,98,250,9,-1,91,29,-89,-2227,66,125,184,59,-94,-58,-160,-7,-226,-105,-72,-16,-214,-134,-121,264,197,24,-235,-77,56,-45,17,-279,74,-36,144,34,19,68,228,-238,25,-347,58,61,-133,120,-276,50,19,18,-28,-4404,248,30,87,129,291,65,-166,-880,329,-12,131,-74,-37,-20,-112,-32,66,121,-137,15,-337,88,6,68,78,78,211,20,-71,76,-198,122,194,49,324,-45,-143,46,116,-319,-26,28,-243,150,-68,-219,-61,-239,-383,118,188,-95,70,-59,-134,-56,-201,74,304,267,-73,34,49,100,-755,-1162,259,-112,41,357,-271,-263,93,80,-263,-222,-46,85,122,85,804,-372,-92,-107,96,44,73,-120,394,58,86,18,67,68,-178,-1103,39,-3430,-48,61,31,-103,-38,225,-20,-59,10,-421,325,-105,87,-32,-23,-6,362,28,400,305,-58,-6,-16,46,-338,-236,52,-43,-451,392,145,69,95,87,-20,-19,-99,46,-80,38,120,43,61,215,-451,18,-131,-6,52,96,93,-102,44,-41,127,-165,273,-221,470,31
,-16,-22,41,31,-37,58,-85,-115,-38,25,-358,-82,106,-294,264,-141,-221,-25,151,-278,66,37,-5,53,127,-57,139,173,-2,88,130,-13,-17,870,40,-28,17,201,-99,-870,-152,80,-107,438,69,-148,100,-418,-31,73,70,10,144,2273,90,63,-340,-185,187,-32,264,4,269,33,67,272,131,197,296,-92,-244,80,126,-93,-74,-49,-11,399,43,50,-125,-125,3,38,31,250,57,329,62,59,52,102,241,71,-20,-33,176,4453,-162,-12,92,-138,-305,37,120,1004,-319,-20,99,-116,-37,-14,164,-110,60,22,377,-6,322,85,13,75,-18,39,-257,-133,-79,90,133,92,-90,-43,-446,216,161,65,-153,386,65,-19,78,37,-52,264,-123,331,223,-193,-158,-101,-31,-36,154,188,236,0,-303,-383,260,71,45,-84,755,1242,-45,25,11,-423,174,52,-43,33,169,429,22,-94,-55,34,-665,315,99,-40,-27,-76,84,30,-355,61,-74,-104,61,81,130,1109,87,3272,-13,-85,16,-38,-15,-178,59,-56,-27,356,-184,-152,-36,95,219,-122,-248,18,-337,-213,-116,30,218,-85,267,272,-43,-17,432,-456,113,92,38,28,-14,-50,-65,61,-95,21,92,34,-35,-151,365,73,293,56,71,-182,-51,-67,-34,125,133,108,-189,22,-224,13
};

long bias_0_sdb1_2[1*256] = {
-27,-64,-46,-38,-42,34,-47,-33,-4,-32,70,-68,-63,-12,15,24,-3,-37,-141,-16,-81,84,-32,-54,-94,-95,-40,-110,5,-64,67,-18,-29,-71,-29,-36,45,-47,-45,100,-50,26,-64,-165,-82,-38,-35,-74,-132,-52,-45,-50,-149,-128,-13,-65,-43,15,-59,-55,-146,-31,-35,-123,-129,-74,-29,-59,-171,-62,-74,-132,17,-62,-82,-62,-60,-19,-85,-111,15,-22,30,-60,21,-35,-59,-33,-29,-99,-73,-45,-110,-52,-102,5,-95,-148,22,-90,37,-48,-14,-106,-44,-24,11,-130,-2,-92,-95,-72,-90,-35,-18,-2,-112,-21,-56,-22,-113,-86,54,-46,10,-45,-101,-122,-179,8,-20,6,-95,-147,-80,-55,22,-37,-152,-12,-108,155,-53,-111,0,38,-121,-4,-39,-44,-12,-59,-93,-163,-123,-58,36,-4,-77,-16,-38,-37,77,-381,-5,-63,-16,-85,-65,-103,138,-114,-122,-68,-50,13,33,-45,46,-66,-44,-211,-43,-47,-111,-5,-10,-73,-35,-56,-85,-8,-75,-336,-22,0,-93,-55,-110,-49,-71,-24,8,-90,-57,-10,-26,-75,-29,-138,-37,-44,12,74,-85,-56,-67,-94,-20,-96,-25,-1,-70,-70,-83,-37,-33,-41,-64,-58,-83,-40,-95,-12,-94,-83,-81,61,24,26,-167,-101,-22,-46,-115,-78,-56,-56,-79,-47,-27,-26,-38,-58,-52,-60
};

long bias_1_sdb1_2[1*2] = {
124888,-62099
};

#endif
