
/* Trace */

/**
 *  updated on 07/18/2023 21:29:12
 */

#ifndef __W_NVME0N1_1_H
#define __W_NVME0N1_1_H

char name_nvme0n1_1[] = "Trace/nvme0n1";

long weight_0_T_nvme0n1_1[256*31] = {
56,11,-183,81,-143,56,187,-141,-130,119,101,-186,-23,209,-247,-92,269,310,-172,67,-117,188,-194,-60,137,193,20,16,6,126,-341
,-221,157,179,-155,132,11,138,-95,-198,58,46,-220,-74,-47,-582,262,37,324,-193,198,-94,131,-68,-74,294,-40,123,-124,-50,186,-429
,79,256,48,-213,-6,32,-272,-224,-10,-11,-197,-103,-19,-177,-163,19,173,72,-1,-1071,741,161,-421,-628,487,197,-110,-21,-483,-287,154
,-140,26,7,-103,-18,2,54,-63,-20,90,28,-4,158,21,-34,221,-86,49,-12,93,47,67,-63,-218,143,-84,-24,152,1,-45,-44
,151,-130,22,268,24,-3,205,-17,62,151,-293,-196,248,-440,-174,-95,-157,-452,133,60,465,-587,-115,-58,-772,-153,-37,-566,806,223,-38
,100,-46,-125,-54,-153,0,-24,-224,-7,-307,85,-12,55,-300,-50,502,34,144,127,413,-90,184,-127,-182,282,-28,-25,-186,319,-2,-62
,-53,-11,-304,-54,142,71,-17,105,-33,55,-29,-11,108,-181,-215,-264,-46,190,-346,-311,517,-288,43,-62,-30,-137,138,132,-30,123,-6
,287,-101,-369,242,-31,-50,108,71,-123,70,-93,-92,92,191,78,-67,-752,-277,-100,5,-258,91,119,-62,-1049,61,4,37,86,-263,78
,-128,-1,-86,-64,44,-152,-111,-22,-110,35,6,-244,-155,-39,87,-22,197,194,-83,-217,-139,-91,70,-16,-129,-35,32,-87,301,-41,-2
,-27,-148,-104,104,-94,-101,-24,53,-14,109,77,5,-106,-7,-110,26,25,32,-19,-103,76,-80,105,-142,190,-115,-232,309,5,-127,-20
,160,37,-169,140,-136,22,2,33,-64,88,112,-61,-73,-33,-71,155,101,-43,-145,74,-114,110,-27,15,-210,-39,-194,-6,50,-195,-95
,313,63,32,36,57,6,275,36,38,110,-128,-11,-35,45,31,-76,41,-20,66,-47,-22,129,29,141,142,92,-43,15,115,82,-25
,-157,25,27,75,43,-33,39,-75,-315,-33,-189,-50,-96,21,-136,97,208,33,-106,146,-101,-179,-96,-146,-226,4,98,-124,-106,-88,-41
,96,263,-259,28,-2,11,31,135,-218,-5,135,-104,9,-424,-62,-161,174,-3,90,-111,-371,-142,35,5,101,-148,-165,85,486,185,-126
,-27,65,-359,-276,-70,-436,-336,79,-236,-237,198,66,-370,-1,47,137,-801,-167,245,336,-478,52,83,-171,-460,180,-134,31,-318,253,-453
,-36,-219,-153,-70,-41,-106,47,-73,-147,80,-286,-6,-54,-50,-87,115,241,-173,-116,-67,183,-233,-61,-275,238,-100,223,-82,-38,-8,107
,128,39,-47,-9,-142,16,126,-379,-77,88,-82,20,-17,-21,-18,75,369,-140,-7,524,-135,-52,-151,136,581,40,-330,-99,-124,26,-9
,-6,-106,-77,-100,71,-33,-80,147,-27,112,-77,-104,127,-149,-52,87,8,172,-76,106,-94,43,-55,-255,-71,-24,40,74,137,-65,-11
,181,155,112,67,32,90,-27,-92,-351,-22,-29,-80,-55,37,-249,48,43,-318,-203,11,-307,-262,-202,107,-566,232,-286,-132,-301,-348,-167
,19,170,-82,107,141,-263,-46,-146,-100,51,-74,-278,210,291,-158,-42,189,-134,-134,150,-22,157,-129,78,390,108,200,86,-255,-197,-112
,216,121,-428,100,-10,-281,-126,-165,-66,-186,178,-37,-381,228,-78,96,-43,-512,-195,65,-710,21,-222,149,254,-675,283,261,300,-34,-164
,-37,-78,-23,-24,-111,-24,-288,186,-126,-314,103,-191,-138,82,-59,40,-41,77,85,215,600,-27,140,156,-96,106,27,140,382,-55,-182
,29,-37,65,200,-43,58,210,15,-228,225,-197,-267,119,157,-365,84,-251,-73,117,46,43,-346,-76,104,14,62,-460,102,-203,-205,-126
,-132,-30,-99,-113,-226,-160,-290,319,50,-336,262,-6,-87,-118,-21,490,397,116,-239,180,-466,258,-96,296,-234,114,31,20,186,-31,-189
,35,1,49,-76,-43,-33,-145,-37,-96,-4,94,36,90,121,-51,565,464,-124,137,154,1,-104,-201,-277,266,-48,92,-43,-74,-29,81
,-84,1,109,-104,72,-368,100,-301,-87,-105,74,-177,47,-31,64,93,46,75,-253,-41,129,-3,85,163,-50,-101,-66,271,119,82,-217
,-303,-121,-209,-46,-26,-96,-137,68,-55,-109,175,-139,39,126,82,-301,73,5,36,67,-27,9,68,151,-333,198,-62,43,64,32,-11
,159,213,-236,161,43,11,229,13,8,9,-81,-294,-169,7,-167,-211,303,34,125,-140,-837,-86,190,-43,-658,-630,90,-80,214,-203,-104
,242,-172,-36,89,-175,-149,93,-161,-240,-110,-112,-108,-411,307,158,-13,-51,-174,-164,-327,56,-73,111,-67,-87,41,166,395,-171,-87,2
,73,135,177,174,6,-343,212,-172,-437,-44,-151,-139,163,-432,11,-15,124,174,-333,-132,-27,90,-204,-52,295,6,68,137,566,-158,188
,-56,75,-11,112,97,-81,-181,-113,-66,47,61,10,-25,-140,23,-557,402,71,-328,327,241,57,-35,-52,-735,73,-162,-151,-147,-174,128
,-8,-20,1,-85,-35,-53,-163,59,-29,-77,-36,21,37,-89,-100,-50,72,94,-134,103,72,68,-61,51,-24,22,-93,-548,-182,72,25
,60,244,-134,131,34,-39,-101,-212,-291,-105,-46,-190,-218,78,136,57,199,155,-267,-36,-486,-119,167,-212,-390,242,52,155,523,-136,-172
,103,-15,-134,249,-41,-165,-7,57,-293,76,-220,-191,-5,82,203,147,-15,-25,-133,197,603,160,23,-9,88,-115,-201,-54,-177,74,-373
,-199,218,-50,-240,-33,-135,-66,358,-262,40,-335,59,87,-210,-107,101,169,102,-17,-1,-262,131,-9,-11,40,77,12,549,474,24,-383
,-46,-95,-241,135,149,31,116,184,-149,-47,227,-392,-73,48,-329,181,586,-81,77,30,-33,-65,-142,185,344,96,-226,2,44,-375,-373
,109,-164,58,140,18,-195,125,-153,-121,188,-7,89,283,-255,-195,183,675,-107,-118,20,33,237,-264,-58,432,8,209,-207,-57,188,-272
,77,-13,43,84,-6,66,-33,127,-10,-142,36,53,-36,13,0,-15,98,105,-100,-45,-59,-6,72,204,-27,37,-51,-251,56,52,-50
,-193,113,-27,-190,-101,-4,23,14,39,-30,154,52,-48,-89,-18,-541,-47,-57,55,-664,9,34,2,-166,-74,66,-36,-581,273,112,-179
,-155,-383,-56,30,-21,-277,55,-364,-192,-55,27,-135,-248,14,27,-114,-89,68,15,-20,352,-323,198,17,121,-57,138,-51,-121,-84,-95
,-42,-10,-51,0,20,-22,-123,-256,-106,-75,117,36,-41,-164,-69,-45,-110,-10,-94,117,-118,38,-175,-63,65,-105,-19,40,28,-28,-40
,31,-29,-57,-38,24,-45,90,54,-208,99,-153,-159,-137,-11,-32,-79,-63,-4,61,182,-47,51,-196,104,89,-29,-126,-8,-134,145,-285
,321,75,89,96,143,-96,70,151,-80,63,-84,2,72,-186,-204,-91,-424,-17,-286,5,-453,-320,42,42,-1068,215,52,-481,54,85,-32
,-378,23,-35,-363,106,-103,-462,-58,33,-350,361,-139,-106,26,-79,43,-157,245,-367,-25,201,-288,122,-82,-52,-54,-519,68,13,-21,-1
,206,176,-97,269,-107,-331,172,-351,-120,148,-246,-79,140,-24,28,-109,-7,-257,-350,119,415,-221,-331,3,229,-41,25,-39,339,69,212
,-42,13,-74,-115,173,-331,-69,48,185,-81,96,-109,310,-215,-204,8,-327,-127,-406,-167,130,132,13,49,87,42,-321,378,473,-32,-88
,-194,-610,56,-249,-157,-201,-320,-196,78,-144,78,-416,-250,-257,-116,154,129,263,-307,8,102,-65,-22,62,72,-108,69,108,-358,158,120
,-3,18,-19,17,-177,-32,-95,-110,-215,-131,76,-4,-87,31,-198,-244,180,297,-465,366,8,137,38,188,-891,-19,229,53,-329,-527,56
,-76,-85,-480,50,-544,-241,-74,41,73,-238,234,-254,-170,95,79,-134,405,-515,35,9,-42,156,-347,35,-135,-99,-73,7,-151,-463,228
,138,169,-11,175,-3,-66,17,-520,23,95,-303,-20,120,91,-67,328,433,-199,-7,282,420,92,6,-131,756,-124,-58,-137,165,92,-572
,65,-545,50,121,145,0,166,150,-78,77,1,-21,-33,-19,-371,216,539,-209,-50,-129,82,-175,120,-76,-137,69,-217,60,254,184,-260
,-225,-50,-262,-58,-43,-334,-75,-522,-27,-15,-15,119,-94,-82,1,26,-325,-15,118,-141,-194,-245,-195,-13,-220,-174,-183,-109,342,-343,-1
,174,-312,-39,235,61,-81,89,-523,61,178,108,-275,71,-227,-208,280,297,-279,-89,-105,164,-62,169,6,-79,151,115,95,-140,-243,4
,-36,106,14,-19,-29,-146,-153,-84,11,-138,92,-295,9,12,-81,80,-197,103,-63,88,-145,210,27,-115,-27,-4,12,3,117,-188,18
,214,80,-132,49,23,-31,170,-110,-41,-93,-37,-141,-192,156,-30,-335,573,335,-350,-334,134,175,-321,120,-5,-213,4,282,148,177,-330
,-38,-49,-443,-171,106,-126,-72,-107,-94,-163,-176,-123,-104,-34,-116,-48,-256,190,191,-115,187,-4,141,-262,90,52,-16,54,625,-217,157
,-12,40,-8,148,-217,-242,84,236,153,-71,52,-265,131,-32,-168,29,-250,46,219,-351,610,-81,109,-162,-197,187,5,-19,-274,-103,-333
,82,-5,-71,178,91,-124,114,-192,-60,87,57,95,13,263,-436,153,489,-104,-26,-50,177,-114,-213,-289,407,106,-95,-79,-516,154,91
,-27,-228,-144,-91,18,144,-50,-15,17,25,66,-189,-123,221,-209,346,365,67,-359,129,383,3,-4,-129,11,139,-350,15,301,-229,-111
,-48,-144,-33,162,-87,52,83,26,34,-33,146,53,-15,-112,9,27,-236,-57,98,-515,195,58,-104,156,-166,-12,187,214,-239,-28,66
,44,12,-42,-57,-50,-147,127,-209,54,-18,-169,-115,-79,44,-27,-207,347,-33,-47,-675,141,-96,-97,13,-409,0,86,-60,53,150,-132
,-197,-290,-220,-90,-236,-203,-280,1,-57,-116,168,72,-229,241,91,231,247,200,-145,-71,-561,101,26,-53,164,-350,-169,361,458,-173,-38
,-370,-147,-41,-439,-355,-233,-161,-223,50,-91,-60,15,-259,286,2,-225,-308,-20,24,-452,374,121,-492,-174,364,269,-273,100,-329,147,-381
,-49,-47,-66,-34,-138,-191,167,-151,-12,54,49,-27,44,11,5,111,39,-90,31,-5,175,-140,-14,132,70,-27,-199,-123,-138,-48,-186
,-140,42,-20,101,-146,-174,124,135,25,146,-151,-102,0,14,11,-73,-227,152,44,117,90,50,-214,479,254,-16,-98,221,-234,90,97
,-280,315,-59,-15,-89,-46,-12,-52,110,-278,90,-94,-64,-220,-239,90,193,102,37,-255,-310,103,-249,99,-87,-125,-2,-61,268,120,-273
,181,-39,22,170,-414,-167,157,-10,-62,148,-48,-4,-29,-287,-305,-52,287,132,-26,210,-306,-171,238,-191,148,-14,155,-326,383,-63,-88
,-20,-323,-23,-18,112,-387,94,166,-99,6,-54,-72,12,-22,52,-130,158,-312,-300,-61,577,33,83,-47,-198,-242,-97,585,447,299,-236
,-314,115,-91,-255,93,-80,-213,83,-2,-244,-13,-212,-285,-84,-394,68,-716,-57,243,-235,-268,172,-564,-130,-386,74,84,31,-875,239,-11
,125,-97,-20,-6,-37,-46,34,94,-117,103,104,-58,-102,-67,-121,204,87,73,132,-45,-21,78,-217,-206,214,-108,-142,363,246,-17,9
,-7,-31,-203,-33,211,-22,32,-183,-4,-250,-99,-54,-172,39,21,-56,129,-58,-93,24,115,-24,30,80,-20,200,-77,14,140,145,-105
,144,127,-526,151,-336,-148,-8,-206,-33,58,44,142,-51,247,-132,25,141,142,-226,3,134,52,-118,46,101,161,-204,33,-73,-62,-173
,-80,163,-85,87,-56,9,-46,52,-94,149,75,-199,39,-139,-304,-297,-352,245,-189,209,73,385,-376,-96,110,-36,16,298,332,11,246
,-36,215,-234,88,-149,206,126,-4,-59,39,-14,-429,280,72,-158,109,-442,70,-154,-104,-158,-106,-210,-119,-100,-610,-398,52,-281,103,-340
,290,-391,-243,250,-300,-151,108,28,-243,202,115,-37,327,-211,9,-104,-612,-178,334,58,558,-251,37,0,-492,-163,22,-88,45,-435,-199
,-27,106,57,-56,26,-33,114,-86,-30,64,39,6,21,-96,9,31,168,41,29,17,158,6,22,-171,-108,76,-89,-679,-75,95,-68
,-135,-207,-74,-7,-36,112,137,-81,5,-29,56,23,5,-66,32,109,-162,49,17,14,-194,68,89,-372,-99,62,-59,95,360,-9,-13
,-354,224,-128,-302,103,-173,92,-173,-53,-90,-168,-298,-16,82,-346,186,141,26,168,101,-22,364,-44,-22,62,237,-264,-86,171,-28,106
,247,115,-118,120,61,-471,180,-50,76,93,-252,-97,79,-621,-180,-128,136,-274,69,-141,-454,37,-78,173,337,160,79,-102,-99,-303,239
,181,-19,-4,-25,42,-56,47,-33,78,157,-152,7,-152,41,1,-460,222,74,-10,63,45,80,0,55,-20,12,8,-3,-85,-56,67
,-123,-203,3,18,-319,83,41,-175,-260,-55,44,-597,-94,-1,-130,-150,50,-154,-89,-23,-107,178,-372,24,-26,-102,-213,-115,18,-66,195
,14,-110,-79,46,100,3,-84,-6,13,32,107,-28,-54,-119,4,163,9,71,-93,447,-86,19,-142,-14,159,13,10,-375,-185,-110,37
,24,-82,-90,38,-10,-121,222,15,-49,100,28,37,-32,-83,-81,-56,-435,-201,104,-104,109,-87,-41,175,-45,187,-41,99,21,17,-32
,196,91,-328,26,-4,-489,306,149,-183,183,76,-111,221,-144,-49,-103,-291,14,76,18,-137,-45,84,54,29,-56,-64,-123,25,-349,-173
,-30,-91,-32,-114,2,-131,31,-142,-2,134,-102,22,169,-25,-50,419,493,-21,153,13,-501,192,-199,-37,-467,208,-187,464,347,23,-84
,131,23,-26,112,-199,-59,52,-223,-237,191,244,149,215,-70,-5,-55,250,-42,108,83,-564,-66,-218,78,249,88,-727,101,333,-22,104
,-58,-192,-204,125,-139,21,175,-97,-153,162,108,-162,-46,-246,-12,10,-39,41,-230,122,217,281,-286,50,33,-21,111,35,104,-61,-35
,137,-331,86,159,14,-116,-159,142,-112,-197,145,-165,54,57,-14,-77,157,-12,202,475,198,-165,18,17,382,37,-320,-52,-95,203,-242
,-81,-45,87,-9,77,-56,77,-100,-99,-25,100,30,60,-118,-4,-127,79,-75,-178,-671,405,21,-167,-112,-176,-67,-8,-341,-28,5,10
,-71,-130,-108,-84,-85,32,-121,29,-14,169,4,-14,-43,-58,-85,-204,-370,87,-94,-132,-53,-122,16,-177,-139,-81,-48,623,83,-19,60
,-488,214,95,-111,53,-62,-115,-470,-330,-224,-102,105,-215,41,-118,-128,391,170,-365,101,-163,-12,16,-166,-26,56,-54,509,624,-14,-307
,-256,-314,32,-259,-26,-332,-250,-226,-111,-113,1,-54,-269,-94,-105,-509,653,-70,-160,141,537,135,292,32,-700,-150,-11,-131,-263,-4,-359
,50,-83,-248,45,-68,-116,55,-415,7,99,156,73,95,-143,110,-24,395,222,-572,46,-155,-168,-194,-22,-104,136,-109,-22,-250,78,-221
,-38,36,3,9,-79,-217,38,-216,24,49,-48,-17,117,21,-139,789,449,53,19,-7,61,-165,-139,109,-17,86,-39,89,-158,-191,-84
,-62,82,-261,-35,66,-139,10,101,-57,-132,-106,34,68,-97,-70,-100,-6,-134,-151,-16,245,62,-149,194,-283,197,93,90,-42,39,-104
,-25,237,-15,156,153,117,117,-93,-99,132,-114,-70,-9,-125,-409,-243,-355,-22,-271,-467,426,200,-183,-113,-246,33,-269,-103,-309,192,-1
,59,-24,-54,-50,-21,73,-163,88,-101,20,-203,-241,-23,88,-275,189,-224,-6,125,36,83,-126,-138,-25,151,-26,-179,6,-69,-83,-60
,123,38,-142,80,-174,-102,134,63,-30,34,-204,-246,28,-4,-75,147,472,18,85,202,-177,-56,-244,-148,363,-90,42,-16,145,-80,75
,28,-146,-190,76,-8,34,100,10,-117,-77,43,12,24,-27,6,-170,-400,27,-200,-96,-55,-34,-137,80,47,-132,-185,-50,35,-186,-154
,48,-188,158,184,-95,-22,274,-1,-86,178,-504,-66,140,-9,-213,74,-42,11,201,-78,289,-539,-164,-97,-125,-267,-176,-28,-927,-176,-99
,-267,-38,-74,-251,31,-16,-231,137,-110,-370,-39,-94,-615,131,-606,253,184,57,93,-263,350,18,138,-70,209,8,-51,180,-246,-295,57
,220,-318,-143,47,-56,-53,152,-95,-68,19,255,57,181,85,22,-207,372,269,-265,55,-261,103,-248,111,-629,-1142,275,2,-331,-43,-447
,-158,26,-97,-41,27,-78,-46,18,-59,-11,9,-127,-155,-63,87,-129,-238,-120,55,35,-21,-74,-194,-125,78,-111,-217,-89,-128,-149,-11
,146,-25,84,199,63,96,185,-55,-224,132,52,-172,51,3,-182,-38,334,-220,112,-251,-280,-100,30,-139,-229,107,48,-44,-494,218,-389
,203,-338,-203,188,-239,-186,24,-4,28,24,-365,-60,114,33,170,50,-373,-100,-43,-75,-498,69,27,124,463,-81,-371,55,-38,-82,84
,29,-136,2,-1,209,-25,77,-836,41,-2,-212,-105,162,124,-201,285,-119,231,-235,165,567,-175,95,-375,-34,-369,63,495,786,185,-144
,80,-102,-262,192,-37,-149,148,-12,123,315,106,-185,413,-118,-189,40,168,45,-53,124,-15,-75,-10,127,202,121,28,-7,-66,-40,181
,-99,-548,121,-146,-318,-77,-489,146,72,16,-275,-395,-315,107,-70,-115,-736,254,-166,-182,-227,-373,-110,75,-82,-66,-163,143,-57,-22,-112
,-65,1,-156,173,-36,-15,-107,-287,26,11,38,10,202,303,-71,607,615,-62,-119,17,314,188,-158,58,223,-213,-220,-158,293,144,-317
,76,-49,-38,110,-67,57,-14,44,53,-45,73,-58,-87,50,75,-42,249,41,37,-1160,-43,122,-8,112,-117,78,78,-147,139,-52,22
,-55,47,17,-126,110,-52,-20,-144,-103,-88,111,-107,-31,-84,19,20,146,11,-251,-681,-139,-127,-111,145,62,10,-80,-158,137,-5,-182
,371,-132,-263,321,49,-321,250,54,-118,244,-166,40,78,-143,90,-9,-167,116,-42,-118,-157,21,55,-103,165,97,-411,127,171,-304,-112
,79,115,-198,136,172,-6,172,-111,-87,262,-162,-62,70,-110,-562,316,582,134,93,-29,370,-72,-85,-79,230,-221,-250,180,383,140,54
,108,-65,-25,-187,20,-83,-140,128,91,-192,47,-188,-250,-64,-164,20,-23,-90,-52,-456,330,-65,-195,108,159,38,-84,11,364,25,-33
,-85,17,10,-100,8,-16,33,-55,-86,-163,-148,-90,-30,-249,0,46,-141,-196,-71,791,166,-12,-149,-205,406,24,-25,-285,-2,7,-46
,132,99,43,-9,65,-199,88,-219,-262,-45,230,-91,-21,-323,-93,-233,285,-102,115,-121,-357,-343,220,309,188,93,26,142,-226,-179,190
,-106,-98,-83,-59,-97,-222,49,42,-212,112,-178,-496,38,-99,188,-577,424,-124,-9,-29,317,318,78,-61,-727,44,52,9,-205,-637,-278
,120,88,-7,261,20,-70,181,135,-171,130,143,-5,75,-135,36,29,-655,-105,-280,63,62,-125,-131,-148,-407,116,-119,-295,2,194,-84
,110,282,-17,116,-318,27,-3,-34,25,148,-221,-337,-117,115,-223,-118,-72,-344,186,-121,111,-330,-59,-24,-40,-115,-77,154,238,284,-153
,-229,-129,-35,-205,-672,56,-206,-137,-136,-103,13,-54,-17,-234,-3,115,40,85,61,24,-976,-171,86,-100,-866,284,-336,33,-298,51,-77
,274,-182,-182,244,27,-280,185,-498,70,51,104,56,75,142,-423,-125,-718,-516,-107,518,311,162,-53,-96,730,-123,-203,-107,138,-263,2
,42,-226,-168,-148,156,-83,24,-201,-28,-36,105,8,92,-62,-35,273,133,35,-33,63,-224,-181,1,-126,-136,-65,168,-115,-11,-41,64
,81,-67,-184,-69,69,-129,143,-207,-253,34,125,-11,227,-106,111,-6,453,-149,-93,7,-146,-312,5,171,414,-50,44,-156,-302,233,-87
,-104,134,46,-83,157,-255,13,36,-372,130,-20,40,99,-212,-144,10,126,-262,-307,6,-181,9,29,-38,301,-177,-348,43,83,-96,79
,20,-4,-202,7,20,3,-33,80,-119,-106,-396,19,-252,-107,-8,-34,175,141,-346,66,-88,6,17,213,-2,-220,-45,114,-122,-147,-82
,173,55,159,39,-91,136,61,210,-299,-128,-48,-176,64,69,-389,-129,-70,-324,-244,-121,526,195,-379,46,-205,-311,-355,-151,-479,-140,-114
,-30,39,-303,-133,127,-288,59,20,-61,-97,-246,-117,99,141,69,-70,-192,-186,29,-16,64,-14,-305,79,35,-114,-185,-47,67,-17,163
,-639,161,-211,-889,-459,-39,-690,-48,-12,-883,-240,-89,-202,391,-136,76,-760,297,-205,104,-486,-302,96,-140,-220,89,-238,72,181,-106,212
,-52,-14,-235,-107,38,-13,-31,-61,-214,93,-72,-261,-124,-113,48,59,-187,-146,37,-19,42,-113,18,-104,13,101,-177,25,193,-136,-70
,-57,69,16,-290,124,-88,-91,256,-81,-296,68,-78,-272,-67,27,-420,561,-192,-228,-616,153,192,-51,-65,-539,97,-142,-595,229,-146,-23
,-18,-35,76,89,70,-126,103,-61,-148,84,-249,-51,161,-126,-192,-118,-175,-34,-99,-159,-47,-42,-145,-58,-93,7,-59,110,-221,-107,-138
,100,40,-205,8,-66,-203,55,213,34,58,-401,81,229,134,-21,70,-134,85,-178,-170,530,115,-139,60,240,-39,-172,-45,11,-81,-352
,6,-29,-41,31,-29,-43,124,-21,28,-45,-65,2,-8,-48,-70,-50,-46,-62,-49,-90,-83,9,25,-167,57,57,-120,-47,-6,31,-47
,-95,-8,-32,-160,-13,-178,-81,186,-36,-378,262,-200,-230,-103,-108,35,104,64,127,154,-167,219,-134,-109,-152,164,-334,263,-1,31,38
,-94,-229,116,-64,129,-357,90,270,-323,-26,-923,-43,178,-21,-22,-55,31,-311,-612,115,84,-498,-455,106,169,182,138,-136,7,-25,-171
,-300,151,-46,-130,-84,-122,-106,6,-36,34,23,-311,29,88,-119,203,239,-112,141,-13,71,131,-59,-137,382,-254,217,-6,-121,-26,-165
,35,-290,-12,-26,-131,85,21,-280,-142,65,-242,-156,-79,259,63,172,124,182,-33,-162,267,138,-282,55,77,67,-172,-74,304,-12,-98
,-44,-73,1,-186,58,-108,-5,136,-153,-99,-166,-6,30,2,-17,28,191,70,-184,304,218,-141,-169,-47,106,172,-29,419,93,91,-1
,37,-142,22,56,48,-96,-117,-184,-128,-56,-151,-111,-122,-19,-36,69,23,2,67,-70,-136,-123,-67,76,56,-111,-155,89,-173,-156,-118
,-58,10,46,-199,12,-23,-62,49,28,-218,-56,-79,-144,-25,-126,-453,-105,-49,6,-226,-293,-5,-52,202,-77,64,-30,-378,67,-115,-89
,-94,-208,-86,-53,80,-85,-188,197,142,-5,188,-138,-224,73,-339,-5,-734,-17,-41,119,-920,-38,33,240,279,-7,-8,-519,365,299,-128
,-87,26,-29,-52,-129,-22,-22,-49,-151,-126,-147,-91,-136,-100,-40,-141,82,90,-84,58,-127,104,-141,3,-30,100,-135,-18,-48,-59,-80
,-281,194,-25,-334,53,-85,-247,143,-337,-5,-308,-195,-24,172,-10,-17,320,-46,-196,-98,188,182,180,70,29,169,-250,-34,72,50,54
,48,-55,-92,278,-261,4,8,158,-63,-60,34,-128,-156,-171,-188,134,-124,-14,14,-155,-16,-54,216,37,-165,67,111,141,-134,152,8
,90,-105,-16,157,43,-337,42,-179,56,-107,270,-25,42,28,61,-23,477,109,-74,-150,-260,-307,-311,21,87,56,-208,38,123,-94,-27
,-245,125,-109,-146,-139,-91,-32,-93,-30,-37,57,36,-7,-5,-80,80,53,-92,82,-62,45,57,-52,127,29,3,-84,183,-115,-56,-213
,56,-354,13,66,-176,-90,1,-518,-142,-229,-111,110,-120,-266,166,-112,616,91,-315,-146,39,-189,-260,109,-405,32,-371,5,-333,-147,45
,-13,-82,-294,-170,48,-543,-2,112,-638,7,-463,30,-37,-583,13,158,-212,-159,-232,96,101,-106,-150,17,114,-93,-6,128,-40,240,-8
,52,86,143,-20,30,-679,149,83,-403,142,46,-258,268,50,63,-33,152,284,-173,50,240,-225,-57,-83,-253,-48,-41,16,-537,72,-19
,148,-81,-157,28,-18,-182,29,31,-207,28,88,-116,172,-93,80,270,522,182,-134,36,-394,-200,30,56,66,-164,229,62,-129,-395,63
,-130,-26,-30,-110,72,28,155,43,32,-48,-22,59,202,-44,-2,105,-9,-86,56,41,58,65,-102,-54,116,5,-20,253,-106,47,-48
,113,-147,-77,-62,-28,45,21,48,-100,-119,-177,-3,16,-195,-2,-136,171,166,-98,-297,179,-79,-150,-94,-479,-7,33,-175,305,173,-49
,21,-203,-108,34,-132,-105,16,-100,52,-133,-140,-187,91,47,2,26,-3,-65,61,-59,137,34,-211,-17,7,6,-19,86,-132,61,-75
,100,-130,-137,79,-44,42,-18,-97,10,106,-297,-125,-3,243,-381,387,-151,-135,-235,-22,-262,200,57,99,-128,30,74,112,-62,-328,49
,130,-41,-20,84,54,-86,-5,-32,-15,128,-423,-101,-116,236,-4,-380,584,146,-22,-630,-102,153,-3,66,385,39,68,-195,260,-134,-80
,-144,292,-26,121,85,-14,112,63,-237,97,-36,-151,-132,-170,119,56,-582,193,-341,146,29,-333,-555,83,-181,-106,-317,-96,-229,-38,116
,151,-551,233,26,76,-186,-83,175,-58,-160,-58,-34,102,-186,-1117,61,-544,202,-344,31,-212,4,-165,-51,-32,-285,-257,-120,8,-17,-66
,115,-7,64,-38,-39,-190,-156,-176,-98,-24,-156,-97,-39,19,32,-413,335,110,-96,-197,-4,156,-25,34,-355,-283,140,-1,-56,32,-210
,-104,84,6,-41,1,-160,-107,-13,-11,-204,33,-54,-262,119,-125,-523,225,81,25,121,-251,-75,-62,-25,-874,-286,-41,-542,209,142,-222
,32,104,-122,246,8,135,76,-148,-43,34,-57,-150,-34,-474,-445,-72,-29,112,52,-12,-3,-307,-52,-96,241,-2,-189,205,661,53,129
,-52,33,74,-170,1,-920,29,-247,-433,10,-152,-102,-138,-46,109,-132,-158,-12,5,4,138,-144,-457,-46,-143,-249,-427,-177,-426,146,190
,-145,-86,-23,-146,99,83,9,91,5,79,101,-29,6,31,33,111,-27,-9,-35,163,121,11,-64,-65,167,15,18,70,-150,-26,5
,-72,-105,-136,36,61,-142,-64,-122,-151,80,28,35,-3,-162,-90,-26,40,-45,123,67,-77,0,-143,136,133,81,-139,56,-115,-92,-59
,-151,-54,-51,28,-156,-141,25,51,20,6,-22,-29,7,-11,-108,55,17,36,-197,70,-150,-58,39,-101,139,27,58,-66,25,62,-24
,162,179,-129,188,-283,126,53,-493,-176,195,-150,-85,128,128,-2,114,529,-5,41,45,-33,-66,-188,48,92,-21,95,-40,175,58,-403
,-40,-539,100,-82,159,-173,147,77,-84,79,109,-228,83,-288,-288,7,-223,101,37,23,55,-164,-169,30,-62,-254,-16,-187,618,-117,-60
,224,-107,-200,142,-92,-150,185,171,-195,180,45,13,-18,-98,50,-84,-474,79,-13,-27,-74,158,-65,104,254,113,150,214,56,-242,204
,42,-22,-39,-144,-118,-104,78,26,16,-22,14,55,0,167,20,147,93,-44,-34,132,210,-5,-67,-122,524,-235,58,-379,-225,54,-45
,47,-60,-79,53,54,-138,49,-78,-364,197,-150,-82,-76,52,-64,-2,238,322,-320,-83,354,-236,92,89,29,-267,31,-102,145,-140,279
,16,1,-22,50,21,50,33,-29,-91,-152,-8,-33,-100,4,-66,-280,-179,37,-63,-335,-68,19,-135,-8,-574,-78,-73,-2,-212,48,-193
,29,-130,-29,-413,228,17,-233,109,38,-175,149,-69,-258,13,-228,-250,-182,-677,-63,-473,-185,88,-147,256,525,101,-6,-132,722,-180,-143
,-69,56,60,-3,-198,-56,-120,10,-11,-238,53,40,-59,-171,-65,267,121,-53,20,-277,22,72,19,-62,-445,46,102,714,111,-8,96
,-164,266,-5,102,-149,-208,4,-208,13,-76,89,-8,-96,-389,77,5,-300,-30,127,24,-280,-203,-117,94,111,-209,2,-52,560,-204,-315
,-553,77,-24,-202,11,-57,-75,25,-16,-114,-60,-47,-96,-28,-20,145,-173,-5,-43,-255,68,-196,117,-227,-52,-121,112,-101,-67,-81,101
,-159,-133,0,-122,-48,-79,58,-167,-15,88,-116,-115,-73,-15,-147,-583,115,61,-71,-290,132,108,-31,76,-823,-80,64,-1,-284,-45,119
,171,-53,-66,57,-293,-279,185,-145,-4,283,-302,-11,153,-250,-298,40,-380,214,-90,-129,291,376,15,-47,375,194,-182,44,-8,93,-50
,-131,-54,-60,-41,-43,-60,86,-3,-74,33,-140,-107,-72,-26,-94,-16,71,46,-128,60,-78,-125,-23,-30,106,-158,-163,-36,-31,-38,28
,-206,-249,51,-53,-716,37,-16,63,-351,103,168,-88,-56,-307,-58,21,44,189,-390,-62,-39,6,-132,-198,24,-140,-100,80,97,-163,-89
,-373,44,-59,-318,149,-152,-272,25,-380,-233,-123,53,-249,65,-256,39,65,135,57,26,-101,-310,-222,-90,57,-298,-131,-44,229,85,124
,45,160,-83,-15,124,43,2,123,-205,-136,59,-142,-151,11,-281,157,304,-52,38,471,-1056,-64,291,-1,-217,-88,-93,-153,277,49,-224
,215,-660,-87,189,-26,-132,113,-383,-159,82,-358,-467,117,75,120,89,-322,-92,243,22,-202,-347,86,106,-25,-450,-190,137,-205,-243,-43
,165,71,67,132,63,-18,-45,123,-50,201,-185,-135,94,-175,-89,-1,56,224,-240,26,-173,296,-19,108,102,216,-195,-89,314,199,-439
,98,-35,-119,-64,259,-254,-63,111,28,-27,91,-80,53,-276,-152,71,109,103,-146,-41,92,106,-38,-52,40,-15,4,-10,-123,97,-225
,-172,-364,88,-15,-33,-175,18,118,118,-20,-155,-345,-179,-108,-3,92,-597,280,1,-137,-165,-468,-120,122,-130,-386,-203,67,-151,-123,-219
,90,-238,-70,25,183,-46,-109,32,-127,-113,63,-348,-162,86,-58,165,-386,151,-147,-83,-270,52,24,11,-148,-145,-74,-269,268,80,138
,-116,-85,-168,73,111,-77,51,-30,84,20,76,-67,5,5,-178,-128,126,99,-173,153,-12,-71,-30,107,163,50,29,69,-40,-36,-158
,66,-59,-58,-85,-186,-151,-43,-3,-33,-228,-49,111,-809,367,-88,8,-261,-615,-193,280,-296,-272,-133,-72,-22,-87,78,-74,-23,-3,90
,19,-70,-78,87,115,-207,-69,-48,-12,-76,117,-491,-362,-54,-62,325,-297,-150,-270,-187,227,-272,155,188,435,203,-12,-107,645,156,-307
,-169,80,-106,-2,-225,-80,-202,-9,-28,36,156,-150,-71,-5,-164,126,-92,73,-57,-332,-40,50,121,5,-118,104,102,634,134,-74,134
,-79,111,84,145,59,-117,-54,55,-11,19,-88,-326,-70,206,-204,-722,444,130,-84,-315,-629,114,26,-15,-1217,-409,61,-572,496,160,91
,-409,134,-185,-333,-37,-146,-3,-56,-89,9,-376,84,-381,200,-28,-168,177,-64,-255,-166,547,272,-309,81,103,-47,-227,58,-521,130,66
,-4,-174,-146,23,-197,-246,108,93,-255,166,157,-385,168,168,131,79,213,-64,135,-47,177,-73,173,124,-32,-167,-295,92,228,-247,-43
,-83,21,68,-515,182,21,-485,10,-205,-467,165,-7,-257,-157,-68,-354,541,-296,-13,211,-641,23,-31,165,-563,-123,86,-75,-162,-278,-344
,124,-54,-17,67,13,-36,-74,-174,-57,96,22,-22,29,61,58,-194,108,21,27,148,-48,75,48,143,-252,28,-62,51,-109,13,38
,15,-38,-59,-198,72,6,-129,26,20,-266,90,-116,-100,20,-276,-36,-866,114,-116,307,-330,85,-26,-111,-588,-80,-231,-356,162,195,17
,69,2,-143,-104,28,15,31,-104,11,-103,-20,-1,-123,-45,-101,-79,12,16,-232,-81,183,42,-81,-223,-123,-48,-62,-80,132,-91,-160
,222,-189,-41,302,-44,-84,7,166,114,160,-253,-220,203,-354,-477,31,-823,99,-28,74,639,-89,53,-4,-42,-14,-181,-52,-587,-774,23
,-37,-45,-243,83,74,-87,-31,-241,-37,157,85,-17,202,105,-170,-59,428,114,-99,-151,143,70,-145,268,-13,328,17,-7,-11,255,-47
,-243,32,-37,-64,182,-71,68,-69,-42,-426,54,-721,-723,86,-261,5,-207,154,-67,-39,103,-123,-54,252,552,102,129,-132,540,-73,40
,-138,-111,3,-56,-81,-75,64,4,-179,82,60,30,-135,-166,38,86,236,-63,-30,-49,-92,-49,-129,-35,-158,-153,-213,-108,-144,-124,-215
,-169,16,-62,94,-87,5,-27,93,-113,47,-87,-41,-57,-109,-98,93,-146,141,-125,185,54,-12,-67,123,86,-18,-115,-32,-130,-15,-109
,147,-72,-123,39,81,13,150,24,-65,207,-102,2,59,-44,-39,-53,-109,76,-70,114,-191,62,-20,73,24,2,-197,43,157,37,-173
,261,67,-167,320,-18,-208,93,-224,-133,294,-286,-11,183,73,90,14,335,178,-197,100,-31,-26,147,-191,-773,-41,96,16,-185,45,125
,55,-23,-64,101,-102,-47,-153,57,27,146,-36,-13,16,34,-24,-56,-92,-62,-107,6,261,-167,21,-130,178,-132,-90,-82,-175,-82,84
,74,95,12,84,68,104,207,19,-203,292,-25,-323,129,165,-86,55,248,-259,-205,-29,-63,103,54,-117,202,-69,-191,-46,737,-315,-203
,92,-182,12,58,13,-169,1,-119,11,55,61,-195,76,1,-46,-13,-75,-50,16,-29,-33,108,-44,-27,-21,-36,-208,51,102,5,-151
,13,1,-73,42,75,-27,13,148,-7,-48,-95,-138,188,-46,-112,-33,-18,197,-151,362,93,223,-215,31,73,58,-41,-42,215,-15,-24
,-63,84,-155,222,-81,-65,193,107,-160,92,100,-183,76,125,-145,67,-250,-327,-216,-76,-1192,-82,58,108,125,435,-337,-38,-149,-447,37
,-88,-151,-560,6,110,24,-35,-276,-286,-74,-337,-104,-155,-772,59,38,-91,-356,4,-123,-120,-378,-44,48,18,78,131,-120,-172,-82,98
,-101,48,-128,-111,-75,-22,-138,48,-132,-62,-72,-94,98,-39,-74,137,17,-120,-9,116,97,-119,15,44,44,-72,31,141,85,0,-82
,-199,52,-141,-215,118,-141,-162,118,-298,-20,208,73,-232,37,-59,-127,-115,-484,-56,220,-126,194,-677,113,-62,146,34,120,159,285,-185
,292,176,-246,-8,62,-7,-61,118,5,-132,-54,-134,-186,-316,-578,-265,-414,271,69,213,-613,153,-18,-173,-16,106,-26,-89,-4,101,102
,240,-307,-193,299,-301,-185,12,180,-389,154,-212,-67,47,134,40,84,370,-170,-171,-5,-6,-384,86,141,463,60,205,-47,233,-189,-71
,-50,72,-91,-8,-102,-73,-95,108,-18,57,89,-81,72,72,17,-128,-2,40,-184,40,65,49,-31,-175,-208,55,40,-207,57,24,-43
,-148,-77,-106,-134,-24,-68,136,58,-104,114,-24,-104,21,103,-119,-93,156,-72,34,52,100,-100,-137,4,71,-141,-54,51,-49,-91,-174
,95,-91,-131,55,-140,-141,39,-124,58,37,94,3,-127,-59,-115,-41,-81,-43,-79,-33,60,-23,-140,-33,78,-142,-151,128,74,-40,-65
,105,-104,-113,-102,88,-136,93,160,-67,78,-205,109,136,-76,4,-125,349,204,-377,102,113,-277,-152,-113,-64,-289,-57,113,74,-270,-314
,-61,281,-191,-58,55,-17,20,-293,-91,-109,140,60,151,-130,-366,18,429,270,-130,477,-119,-116,-21,14,119,-225,-147,48,567,-208,-13
,130,32,91,88,11,-200,221,-259,-150,120,72,2,109,-822,-114,-143,30,-174,11,41,-186,127,48,22,498,-466,-2,60,-139,83,44
,59,67,9,46,-38,-115,-97,17,51,47,-83,-32,158,-70,0,167,-37,87,-9,-67,65,19,43,-256,127,11,68,167,28,-6,37
,85,-68,-84,194,38,-1,112,92,-20,-5,-302,-20,-172,109,32,-244,142,-29,-269,-171,-65,59,-242,124,-259,-105,67,81,-290,-126,111
,-91,-52,-104,-15,-128,-149,67,-25,-273,-91,167,116,103,121,8,-63,77,-209,-314,-232,444,-243,226,114,140,-223,-425,127,245,-120,97
,17,-78,-32,44,-36,-160,-100,1,-145,-144,-46,-178,44,-80,-5,-94,-75,-38,-38,-90,64,-89,-90,-106,-91,-61,56,-94,-69,-16,-3
,73,-252,34,189,-464,-350,136,59,-324,62,69,-59,39,309,-158,-81,-531,12,59,-57,-460,-16,19,131,-463,-255,45,-90,-673,31,28
,-239,-147,-193,-244,27,-188,-257,44,51,-94,-118,-22,-457,-158,121,115,-651,-101,118,7,454,-142,-77,-78,-399,-33,-18,-226,672,-319,-131
,55,-132,-247,-366,173,-60,-282,21,96,-357,187,-23,-447,-207,-232,186,-249,95,38,378,-264,0,138,147,440,-187,-230,-414,356,-83,67
,107,-504,-100,8,154,53,-37,36,5,51,135,-306,-74,132,-224,-171,-233,107,-100,56,-258,179,-180,312,480,-19,133,185,323,-556,-33
,-81,-64,46,-63,-95,109,-97,173,-364,-198,-5,-54,-86,136,-178,70,-62,-293,27,-196,495,1,-227,60,22,-282,-411,248,-294,241,-503
,-8,-173,-128,152,-84,-35,60,-413,9,258,-278,-202,167,-105,-106,207,460,-160,-50,-131,121,58,157,-99,-86,-105,-14,-61,77,-54,28
,104,-113,6,76,-134,-27,-163,-43,-166,-91,-252,-91,-50,-30,-77,85,111,-92,59,129,290,221,-84,-96,133,-97,93,-73,65,-100,-92
,2,-284,-135,215,-294,-60,44,188,-221,-131,216,-15,-122,-154,20,99,92,-114,-187,-24,83,-42,0,47,64,-26,-31,-242,243,230,-77
,-15,123,-269,-233,213,-109,-53,107,-182,-319,107,-145,-186,-141,97,32,-1172,182,77,-88,-716,-714,117,-76,-1044,61,-264,65,-850,-120,-70
,-123,103,-63,-72,-28,-17,68,27,-73,-28,-125,-9,69,-30,-83,131,66,-49,-112,-194,251,64,-64,-224,205,-100,88,203,74,94,-63
,43,123,-112,166,-69,-64,112,-85,-22,59,51,92,208,9,-36,-542,565,128,-83,-113,-27,-441,76,58,-307,-57,-70,-499,358,118,-331
,137,-12,97,41,48,-96,109,64,-290,99,44,-277,273,167,-242,404,124,-417,92,42,-6,-136,-141,-341,829,-134,-111,122,-449,-37,191
,-156,16,-244,41,-67,-2,80,-95,-76,-52,46,-432,112,42,57,-74,-108,-103,41,-241,77,-29,160,169,-377,2,-18,-17,-386,-23,9
,-80,26,-21,-4,-74,-140,190,48,32,-51,-164,-131,28,-97,-112,110,231,-63,8,-94,58,-176,-102,-88,248,-175,-125,33,-106,101,-95
,-10,125,-110,-11,-68,-142,74,39,-63,35,67,116,118,-168,-204,114,101,-147,67,-330,188,49,5,-182,-327,154,77,589,286,-217,-128
,78,-263,-299,-55,-305,-24,-7,-179,90,63,-177,-138,101,207,-216,-121,-913,343,-182,2,-117,-102,-67,143,-387,102,-203,5,-300,39,12
,-67,72,23,121,41,17,-1,6,45,-31,-27,7,-120,77,13,-75,59,-30,-15,108,145,-11,-27,7,-77,77,25,-268,70,-79,57
,-880,70,73,-401,203,-302,-617,114,-781,-129,28,-18,-153,-72,-493,-6,-37,-98,-47,127,60,-181,-288,150,288,4,-116,60,-91,-549,161
,-65,-59,-36,123,76,-50,77,-73,-150,95,97,-1,148,205,-15,621,478,-124,135,161,445,-206,-277,-14,612,-345,54,-340,-361,-149,24
,64,20,-156,134,12,54,-5,-3,-180,100,-127,-31,-94,-249,-294,31,-171,127,32,-332,205,-78,202,-34,-12,-171,-11,496,214,98,-124
,31,-217,20,-12,-116,-38,70,47,-153,-38,-33,-152,7,-298,75,132,103,10,-46,-388,-197,-129,-96,-41,-230,147,64,-60,36,-296,-80
,-41,82,-115,-22,36,114,10,-242,-124,70,-1111,-123,-83,-35,74,-89,-588,-810,275,-103,-209,-63,-44,149,-197,-219,-165,98,3,-137,-303
,117,66,-47,113,-48,-44,-87,-95,-20,-58,-76,-76,-134,-7,16,-95,67,-73,112,-328,30,-63,106,225,5,-3,39,-152,205,110,-35
,-105,341,-635,133,-77,-39,234,-60,-170,92,15,-6,144,-101,-270,121,-462,-83,-101,506,-13,145,-45,-129,-180,-9,206,-67,-97,-345,-160
,44,-70,-21,17,-91,-144,-47,-79,-19,136,-28,38,-55,38,-30,-258,-52,-110,7,169,87,-72,29,59,-41,-22,36,-90,46,-87,42
,74,214,62,74,-318,-258,-166,-78,-120,-97,199,-186,-222,33,-6,-42,26,256,57,-5,-116,214,-15,72,-165,-43,-285,-75,318,-96,2
,86,78,-41,-47,108,-680,140,144,-461,-118,-49,-126,40,-29,-22,-42,-37,-6,123,-22,72,176,-391,-87,-501,292,-10,-49,-257,-519,49
,27,-35,-247,-41,94,-391,13,113,32,137,-202,60,-69,224,-341,-4,-19,118,-210,-44,8,-47,52,53,1,136,-397,41,-17,161,109
,33,132,-356,48,-43,112,85,-323,-84,33,-94,-133,-37,314,-161,124,-73,-101,64,79,-685,-525,-228,103,-478,209,-204,36,68,-21,122
,-64,-123,-127,21,-274,-175,85,154,-19,-20,276,-4,-3,-108,-207,238,530,-203,-384,-484,274,211,150,145,98,62,-26,105,-206,-236,-149
,-158,43,60,-74,2,-21,-114,41,35,154,86,-26,-81,43,21,60,40,121,-8,81,-16,-67,-68,-214,57,23,90,201,-214,40,-38
,94,-185,10,-144,1,-99,-36,-134,-135,110,-47,1,-98,-28,-174,93,-185,144,-168,-29,-97,-71,44,-105,16,-16,-77,171,76,-147,-10
,138,-223,96,82,20,-85,-17,28,-166,60,68,-255,-37,-215,-134,-165,-907,306,-26,-176,27,272,-107,-96,274,-57,126,9,-55,176,-245
};

long weight_1_T_nvme0n1_1[2*256] = {
433,533,-299,34,-186,37,27,-110,76,-71,21,136,-88,151,-426,-112,17,-26,-134,154,-608,-30,-388,179,96,147,75,-95,-109,595,-64,-44,111,471,253,427,123,58,15,103,-93,-55,-70,291,620,320,326,-278,-436,263,205,-177,218,76,-49,120,64,-8,176,14,-73,363,-444,-66,91,-327,283,346,-141,-35,104,620,221,-336,-439,44,98,409,-196,15,-149,-1,58,-322,31,213,251,71,0,-7,311,-474,-280,11,-27,-211,223,66,37,-185,231,-87,71,-59,140,348,199,-289,327,-17,94,390,395,39,-45,129,-373,-19,249,-184,-464,39,115,-182,-164,-344,74,-257,-41,-124,118,103,75,59,-652,212,265,-1,32,-17,-75,-85,190,101,187,44,-315,-311,-66,245,46,43,36,-114,-123,-332,-608,144,109,361,-536,67,-53,0,283,-81,-61,50,433,79,-169,44,-113,199,69,-448,5,-303,-119,56,-465,194,122,-183,213,57,-9,-372,-15,-118,-301,568,-130,86,-83,31,-319,146,-295,18,23,-15,-231,69,159,67,109,-126,-305,90,327,-80,749,-21,11,21,270,-264,137,21,-11,276,-77,-312,-143,-87,-99,-348,126,163,79,-104,106,5,129,31,-100,67,-250,49,-445,106,-30,115,-534,15,-418,38,148,-261,269,-324,439,73,128,-262
,-506,-518,307,30,322,10,-121,133,67,-65,18,136,39,-150,381,38,-23,-48,318,-298,445,-62,213,-61,87,-84,57,71,207,-641,-18,-51,-249,-450,-300,-607,-211,64,19,-200,-105,-49,1,-159,-751,-56,-393,230,571,-358,-168,-37,-204,8,341,-223,-86,-157,-160,34,17,-170,477,-91,67,225,-105,-97,293,-31,-38,-389,-88,208,534,38,76,-249,362,29,303,-1,13,74,-34,-108,-97,-9,-26,-8,-387,440,286,-54,-145,249,-83,105,49,-18,52,328,92,122,51,-257,-49,345,-87,-6,62,-278,-357,25,-59,-169,364,70,-373,89,367,23,-149,200,-15,284,-332,334,122,23,100,-225,85,-177,619,-21,-119,-2,38,-20,98,-117,-167,34,-244,52,325,405,283,-48,26,-51,67,159,-29,229,374,68,78,-211,514,51,-29,23,-117,284,84,49,-380,96,178,22,343,188,61,556,98,158,149,178,366,-109,-87,98,-37,-20,95,466,-55,88,231,-435,198,89,-46,17,357,-52,350,23,54,-1,111,71,-66,40,95,231,228,122,-440,337,-668,-30,3,38,-279,240,-247,18,61,-161,-92,327,-76,77,220,345,-171,47,-219,108,109,59,-145,53,-101,56,210,51,311,30,74,-11,371,13,326,40,-107,185,-357,178,-334,50,67,228
};

long bias_0_nvme0n1_1[1*256] = {
-54,-47,-306,333,-112,202,-101,-235,-85,81,-90,588,175,98,-95,-14,131,120,-54,-142,-217,235,19,-275,425,-234,96,-212,-359,-56,-378,-312,44,-110,2,-174,-81,-397,-331,132,-235,-63,-134,-72,-64,-75,-76,-191,-41,-159,-53,-151,122,17,54,207,29,-48,-81,-384,-345,-252,-2,59,66,-312,-170,-229,-122,12,-276,-62,-46,42,-1,-379,459,-87,-24,-388,-42,287,-331,-122,52,-28,-158,46,-325,241,-47,-148,19,63,-339,-155,-131,-124,37,-140,241,-188,-97,-284,54,-140,-40,-269,0,-400,-296,-54,-85,-248,94,245,-143,-81,-17,-194,-7,203,-198,0,-253,-301,-140,9,109,-262,61,-95,405,-192,-210,318,-145,106,-126,-314,12,-44,-213,197,-361,179,-130,-116,-178,-6,392,-234,-86,46,-308,-87,-206,-197,-169,84,-220,392,-30,244,-174,-133,-359,319,33,-172,-312,430,-225,813,-234,-16,-36,48,89,-52,-57,-320,-262,-307,-262,-203,-244,-59,74,-124,6,31,-438,-343,-176,29,76,-74,-144,-125,-291,177,-245,396,-67,153,57,248,-90,0,-175,44,13,-375,-21,-24,-119,-82,20,387,-384,-188,-62,-180,-85,-219,-208,-44,-18,-206,-39,-60,421,-189,-65,-153,-91,136,121,-388,-28,160,35,-282,-87,-374,-56,-352,83,58,-209,-228,5,388,184,-344
};

long bias_1_nvme0n1_1[1*2] = {
510668,-414878
};

#endif
