
/* Trace */

/**
 *  updated on 07/07/2023 15:31:03
 */

#ifndef __W_NVME0N1_1_H
#define __W_NVME0N1_1_H

char name_nvme0n1_1[] = "Trace/nvme0n1";

long weight_0_T_nvme0n1_1[256*31] = {
-45,-104,156,35,82,39,-28,-193,-124,-36,171,80,-149,-310,80,-182,33,4,-374,2,-161,133,61,194,139,173,-201,-167,-163,111,55
,-166,134,-27,-113,125,1,47,85,-130,-89,113,-81,129,111,-1020,39,95,-53,176,-50,290,-244,142,13,260,116,-65,160,-4,46,-109
,-20,158,66,-22,-10,-70,-54,42,-47,-30,-458,-394,-93,-78,-49,-53,46,-110,138,61,182,-21,226,-208,198,196,38,15,267,51,171
,-216,-264,154,-243,-151,-20,-84,-303,9,21,-38,-97,-20,212,-511,317,-42,256,-226,110,56,122,75,304,230,-158,67,108,-141,-323,-359
,-190,-211,-231,-268,-145,-13,-324,-120,-254,-269,-325,250,-79,198,-176,-135,-167,-82,271,262,62,-134,241,90,249,-233,100,-379,217,-18,86
,-150,100,-130,-181,-137,-153,102,76,205,67,146,-73,43,-37,-322,-49,138,159,-359,252,-86,105,97,-128,133,-26,-35,164,200,-203,-265
,47,-13,65,-24,-200,3,153,-27,8,-64,78,-238,98,-477,68,21,-116,11,-145,34,-117,-272,-370,-153,360,226,-70,419,54,119,-269
,-135,-102,-262,40,23,-133,101,161,74,-267,198,33,21,-465,-45,137,-101,-73,-13,-243,-229,-250,-501,104,-173,127,2,176,259,60,155
,-167,5,-15,-141,59,-521,-10,127,37,70,-111,-14,67,103,-354,25,-94,226,47,-167,172,77,51,205,336,-11,140,213,-93,-249,21
,-190,72,-88,78,9,-90,234,-267,-42,-107,242,-171,15,-142,197,-100,198,15,-121,23,-161,168,88,-46,80,180,-136,-31,19,-182,123
,-179,90,-153,-80,24,57,-104,-343,84,30,182,104,201,-38,192,15,199,159,-14,-75,-135,54,-354,-101,-289,29,206,335,-108,-150,-418
,-34,88,-187,63,-253,-49,286,169,-255,154,138,-26,275,-150,183,140,110,-111,-173,127,-26,-151,-247,141,-5,-41,-345,228,112,-101,-178
,307,-2,-364,190,171,-190,250,10,-179,-53,-12,140,-17,-264,168,49,177,-20,86,-12,172,-94,119,7,252,-284,132,-399,107,-84,-245
,24,-18,85,200,89,-587,92,142,-102,75,-220,0,255,-43,38,18,90,209,71,106,-87,50,-341,106,-172,57,-89,-14,-197,-90,-43
,228,-436,7,280,-25,-62,-54,264,-37,26,-129,91,-19,-109,157,32,-187,105,-350,55,331,85,11,-213,-523,132,-234,-165,-35,2,3
,-123,113,29,-188,121,-66,-134,-39,-74,-253,176,-595,-174,248,-213,85,-182,140,90,-537,-152,-201,141,-531,71,125,68,-25,-320,54,19
,80,-330,10,148,-206,-97,49,-202,16,-51,23,67,46,8,-95,66,-251,343,-176,-386,-71,147,130,-28,145,112,5,60,338,-288,112
,-32,-87,141,154,-83,199,53,-170,-188,166,-206,-352,-63,224,-48,211,-380,-573,73,-180,-499,-152,242,64,-165,-211,-90,295,-33,-213,99
,-173,124,161,59,85,135,-16,148,74,-134,-1,-4,49,-257,0,118,-132,-164,-72,-116,203,125,-257,-108,-40,-135,114,93,73,-156,-123
,164,-217,114,-16,124,-169,156,163,-92,-22,-133,-186,-30,-510,129,145,-182,93,209,-27,-464,-70,132,85,-114,-3,-3,231,92,-38,-416
,-109,26,-79,-47,186,-75,142,96,-311,11,-68,-305,-8,13,239,-136,156,-78,-31,14,152,78,-206,-258,13,-115,79,-321,-374,-511,-184
,165,-106,-153,236,69,-214,247,-333,165,23,-80,-61,184,-114,-86,87,-71,-209,98,4,-9,-451,124,-130,154,253,-198,-122,-62,139,19
,-220,-86,109,-191,-82,-90,-69,-24,47,-54,-6,10,-120,63,-35,-105,-154,-29,96,-63,-95,69,86,471,-349,-219,290,265,-349,176,216
,-52,-150,-49,18,104,-353,0,27,205,-106,157,-77,-27,82,10,-74,-250,133,-127,-13,239,-282,210,-439,-224,27,30,23,213,-86,112
,222,44,12,310,-97,83,157,-75,-12,98,180,-201,247,1,-186,-176,-267,-386,-290,-260,283,175,-338,-489,135,271,-154,46,-405,-94,-76
,-325,106,56,-143,-69,-268,-222,-300,-464,-109,-141,119,-6,59,50,7,-82,17,202,-90,-410,-10,-213,12,-38,-408,115,-90,-446,-118,-106
,-35,-73,-140,24,31,-39,39,73,-177,-31,-190,46,-186,-115,-119,-40,-141,-30,5,-135,5,59,-65,-26,-111,-13,-9,72,-51,33,-201
,113,36,-98,122,74,-103,-138,-108,-22,-102,175,168,-43,208,93,428,284,-196,-45,97,318,-5,53,223,-223,-108,-604,212,-145,-172,-285
,-126,-66,159,-113,-320,47,16,-65,-332,-139,-117,68,1,161,-109,307,59,126,128,216,-270,225,-35,203,130,180,-159,38,-223,87,-437
,-1,128,-385,199,31,137,-11,-216,6,275,-534,-55,18,-587,216,274,-145,-270,-90,17,143,-179,147,-81,-60,55,187,342,-121,12,-48
,-32,-201,-7,-156,-360,-125,24,163,-351,-244,179,111,-128,234,129,351,264,-42,19,169,163,-117,107,10,116,-2,-189,-192,99,-77,34
,51,-234,-116,157,253,-245,-35,-9,119,230,-42,-168,19,206,-90,-30,34,-49,13,61,-340,-303,135,-57,-229,364,-172,32,-44,225,-37
,231,-32,-379,251,-330,235,75,130,-164,-35,-47,-38,140,-159,-178,-133,-222,-26,-236,-34,67,111,119,112,28,-202,251,-290,261,2,76
,172,37,97,-47,85,-313,-76,15,231,76,17,-333,-113,-214,-151,45,-71,-372,-27,-701,314,-100,-165,-527,221,-145,204,-732,97,215,-17
,24,23,29,-68,37,82,76,51,115,-2,-206,-299,185,142,69,-62,-337,-307,-617,91,-306,32,132,-318,-20,32,167,-2,18,189,-362
,-97,16,-198,73,169,-219,23,119,98,218,234,-242,-78,-175,49,133,188,-159,-29,-82,-179,-408,69,167,196,36,70,-5,160,-107,-73
,-8,-396,9,150,-511,-139,-184,158,159,-94,-7,-75,104,202,-160,72,-250,-202,119,18,110,75,116,109,-36,-226,88,-348,-73,112,103
,-159,-3,213,-172,170,-182,-173,280,120,-322,-104,-70,-145,-32,-11,143,306,-130,-91,-255,-204,145,-466,-498,158,-287,-78,-112,195,153,-22
,52,-76,-275,-117,180,91,104,218,157,139,-212,-398,-18,-600,130,9,-434,-181,-435,176,42,-125,-174,107,169,-76,36,302,-155,170,114
,168,-195,-111,32,147,-214,-56,283,-59,-66,168,-39,31,-144,-70,-30,-397,-109,15,-189,289,-56,157,83,233,-602,-234,26,-130,74,136
,176,203,152,85,-87,-160,210,-535,117,25,-238,-28,218,-276,-223,107,-406,-268,56,50,-266,-125,-133,117,252,215,-253,-185,173,195,-81
,111,-111,-125,2,-51,-183,-13,177,-178,178,-228,105,110,129,204,122,99,9,50,-126,3,182,-8,184,12,115,49,221,-348,59,201
,-304,170,-7,-58,233,233,-210,-254,-243,-219,-95,-52,-35,242,-173,-70,43,62,101,172,234,45,-25,249,-143,-28,106,-209,-184,-184,10
,75,298,-277,122,-57,39,116,-16,97,45,-52,48,156,-249,-77,-18,151,-16,-301,6,28,98,-446,44,297,-205,-182,176,101,-179,110
,128,-111,-230,195,-16,-52,124,67,-22,191,-129,69,-10,-27,170,-72,-56,152,-348,167,373,-295,0,81,19,114,17,-37,168,-156,191
,-236,121,-183,-167,-83,-376,-8,22,-79,-366,191,-179,-393,116,180,-49,215,-83,-81,100,108,42,5,76,-100,78,88,-353,20,191,137
,-52,-212,136,-6,-61,-8,-231,116,-83,-77,-10,-362,-209,227,90,-320,46,73,-310,-12,-469,-391,2,-176,131,-87,182,-268,-119,-221,-213
,-227,-215,-247,-227,-16,-99,-57,-117,-115,-136,-145,-31,-294,-280,18,244,-30,54,-315,154,-115,202,-42,-250,134,184,232,215,229,292,-268
,-126,-97,-111,4,354,-182,-46,65,-425,17,-35,162,-40,-265,-280,-315,22,202,-151,24,72,48,220,-53,-266,164,32,-286,40,-189,-52
,222,-362,100,75,-71,118,147,-61,82,137,204,89,-8,-222,99,162,28,-113,26,-505,-71,147,-340,215,-156,110,34,-439,107,92,-48
,28,393,-248,65,104,89,52,96,-241,29,-216,-37,-80,-171,12,-145,29,57,82,-563,-119,-675,165,11,-186,6,-96,-61,-208,295,-245
,275,-81,139,143,-88,-66,-71,38,-419,15,231,-303,244,-79,62,-211,-309,-270,113,-469,-294,-455,-85,-101,161,-77,287,-484,-276,183,-151
,-187,289,-346,-26,-234,18,-233,101,-415,-140,204,-82,-6,126,-454,293,-198,-322,45,-29,229,132,-45,-452,-70,124,139,-347,73,219,-79
,-88,121,-30,205,-248,226,-131,252,-5,-28,-135,163,66,-194,-420,183,-269,-203,20,-34,202,-61,94,280,-299,122,-81,419,-285,214,-303
,-413,-195,-267,-279,-138,-355,-281,205,-60,-203,-93,226,136,-108,129,135,-206,-469,87,24,408,41,-211,136,-137,220,-237,-233,-481,-299,-246
,-2,-188,-282,-27,-356,-29,165,-51,-18,108,-175,107,163,130,-81,70,235,-11,-324,56,240,40,150,176,-53,1,252,25,20,83,-293
,-33,-477,-84,-224,252,-14,-23,-384,219,-58,-281,-192,-25,-3,-237,17,64,120,-105,217,-193,-6,23,168,-188,125,91,-94,-75,210,-102
,116,214,-69,-60,38,-472,98,195,-418,101,54,-324,5,42,-36,-8,-453,-281,-69,221,-202,260,26,-20,15,230,-81,-274,-183,197,98
,-249,167,-66,-173,221,-321,95,-257,138,-17,-55,72,191,-13,23,-257,-54,-159,209,13,11,-328,151,-312,287,-262,-107,-194,209,-78,-124
,82,-132,118,161,279,65,70,74,-447,-146,222,-229,92,-98,-193,241,75,12,-139,-23,-75,58,296,-724,-584,-125,31,-753,-633,91,29
,-126,180,-256,-46,-449,-56,-71,-251,-355,-35,273,5,-239,-125,129,11,-47,116,52,278,-196,-190,-50,137,-250,234,52,398,-252,57,254
,176,-42,-390,-56,-161,66,-66,240,-22,-18,86,-85,11,186,-189,-195,-57,172,-191,380,-368,-298,314,205,-138,-77,156,120,423,53,-250
,124,-65,-350,27,69,182,-24,259,74,134,1,-345,173,-244,-166,-213,-190,149,41,169,22,-30,132,-302,174,-75,-46,15,-19,25,-266
,196,306,-288,219,-171,47,13,-376,-274,157,-91,148,30,-296,-141,165,-90,-99,133,39,-150,-192,-111,-241,162,214,125,-56,-161,-187,83
,-251,-91,-198,-290,-172,-68,-351,-25,109,-376,155,79,-208,-498,41,-49,205,-48,-84,375,145,46,-382,69,-8,-201,34,-182,37,354,-251
,124,-528,-40,-36,-50,70,-8,319,42,49,-135,-98,130,159,147,82,3,-194,188,-213,18,-351,-247,75,73,-76,171,134,66,31,-179
,-140,136,-10,-249,269,-74,-128,-233,-166,-246,-69,-166,-309,181,220,232,101,-86,-10,-1,54,-130,-385,317,377,-19,10,-31,-358,-43,-294
,176,186,-331,105,198,64,-119,-201,-56,-148,205,-105,4,-368,-114,31,289,-97,-212,142,-60,-42,79,-34,207,-2,-139,60,-108,95,55
,31,-415,32,-9,356,-375,21,-180,102,94,-95,34,102,-557,76,82,-29,164,80,93,-201,42,-216,406,264,-7,-157,-325,270,160,-154
,-363,179,-450,90,-263,-188,-212,-121,-9,-436,203,-193,-317,155,133,-33,-68,-140,-195,85,239,166,137,335,219,173,-38,285,-44,-426,-257
,234,163,150,-12,-162,-216,175,-8,-27,150,-554,-139,2,42,-147,-129,262,186,3,27,91,36,157,-255,152,-188,-44,99,-66,-253,208
,67,-627,-105,117,-136,-48,208,171,28,141,185,123,86,9,-431,289,251,-127,-35,-213,-483,-108,-417,228,87,70,236,-120,152,-288,-101
,-104,-247,-120,13,194,-94,105,39,16,94,81,52,60,-272,32,-37,258,-96,-21,-330,127,-223,257,-167,-172,49,39,-36,98,-22,-364
,-18,-35,-81,-203,107,212,-196,13,-40,-209,160,-105,-163,268,-67,-302,-441,72,-294,244,-27,-171,-489,-416,-101,-96,64,124,-42,-82,39
,132,-93,-197,207,-78,-39,89,-45,-456,-114,218,-145,-58,126,-82,80,-155,1,-139,165,-64,-28,-88,-5,16,92,-30,-60,-68,-137,-181
,104,-83,-191,127,-306,138,-21,50,62,166,126,-161,-37,16,-366,-21,-568,-365,121,-84,-187,93,-369,-293,221,92,203,-194,399,141,-261
,200,112,-107,230,66,-147,24,53,-123,108,-216,-119,-106,-318,315,-538,432,63,-190,-57,-39,-359,-231,-162,-325,-232,-436,-232,-321,91,-232
,-395,-103,-261,-318,64,-91,-203,160,-19,-285,-208,50,-149,292,4,-142,-148,-401,-233,66,0,-513,106,318,166,181,-74,-171,253,-75,92
,-206,126,-118,-81,-266,27,-192,-23,-404,-147,-173,-277,-279,41,360,-219,-163,33,62,400,-112,-167,44,-166,-181,95,156,112,-56,137,-218
,21,-241,202,-54,133,-100,197,78,-207,223,-277,-191,-5,161,-441,351,-44,91,-222,65,-251,-100,-64,130,-136,-98,-188,206,198,198,47
,-90,-36,-188,26,71,-164,-155,-272,30,-198,126,164,-85,205,-307,-150,163,174,-17,-229,-99,-378,72,-67,-75,-242,106,-21,-58,183,114
,-36,-178,-177,-65,-255,188,-87,-105,-383,75,-68,-351,163,100,-86,93,28,-14,320,10,124,177,-3,-72,-248,61,243,142,-60,193,218
,-53,-480,-79,181,-378,207,-11,-203,112,163,-69,138,254,94,-59,-67,-110,-228,-336,-24,25,234,-183,168,-225,-465,-218,103,-82,-132,-340
,-448,-19,-192,-848,137,-463,-228,221,-37,-37,-60,-287,-96,-125,-302,-621,29,229,188,72,300,199,-13,321,-142,-37,-23,-280,-148,-83,2
,66,127,77,-53,-58,-48,93,-107,83,-116,325,-163,39,-283,-294,-505,-17,127,174,-177,30,227,-110,-152,-300,-142,-370,54,201,34,-99
,169,-293,-62,49,123,-559,235,-467,-7,193,-455,-19,218,75,247,-81,273,102,-142,14,18,31,85,-237,-46,6,-280,-297,-127,159,164
,171,-302,97,114,11,-354,-20,-19,-62,73,-34,105,142,-241,-156,210,410,-186,43,279,-353,146,144,270,-191,-145,-25,-141,142,84,7
,47,152,-153,-146,19,-612,197,267,-143,-43,-69,143,82,13,150,-268,87,233,-177,229,9,-63,-219,93,-170,-142,160,127,176,-125,50
,-22,-141,319,8,-174,-65,-35,152,-399,-69,-57,-400,-176,134,-38,208,-160,134,-279,72,284,-18,-232,123,176,-90,-109,112,190,200,26
,98,-178,-40,291,97,-120,271,-118,-174,81,-227,-109,-31,170,-721,-12,-652,-199,203,-158,81,102,203,-177,-131,139,-137,-334,-52,-363,123
,111,119,-197,-217,-173,-91,-89,-43,-23,90,-318,-23,-239,189,136,9,47,-391,179,145,-95,311,-374,-20,132,-108,-39,-187,-438,-197,-43
,149,-115,17,92,302,-169,105,197,-110,114,-257,110,-158,143,-59,-349,-34,-206,-52,-95,92,55,-189,-166,-213,-58,305,11,70,129,-42
,75,-81,-206,88,-331,-228,33,-73,192,207,-153,141,299,-52,154,-620,-76,29,-94,266,-209,211,86,-250,-247,84,130,0,134,81,-52
,119,232,-123,253,53,81,129,-311,155,163,-113,19,135,-175,-487,76,-76,-11,67,156,-186,251,45,161,119,-171,133,-209,-491,282,54
,-128,163,-183,-260,78,101,-173,161,18,123,-283,-309,-30,-163,62,25,222,-55,-267,21,79,165,-271,-96,151,3,-95,142,-211,-16,88
,238,-133,-20,127,-65,-398,212,-50,-259,69,200,-112,271,26,29,-52,82,-190,-211,140,-212,-68,-54,211,11,-269,227,-39,-205,-190,-30
,-140,74,-328,-129,-149,-65,-177,137,-27,-155,332,101,57,-284,94,25,-304,147,55,226,31,-196,72,343,-310,-59,45,-183,-121,50,-178
,231,-92,92,120,349,-229,77,-191,153,212,-193,-153,81,-279,-41,-170,378,-148,27,-333,-72,193,127,-48,319,-54,-36,42,-196,-297,-35
,-296,-30,230,-205,-5,-219,-278,-80,-274,-176,165,-151,-328,258,-14,3,210,48,-284,-168,-195,269,-28,185,-158,70,-380,-124,-108,-441,94
,-380,337,-328,-62,-64,-246,-153,-208,37,150,-44,106,-131,204,-403,-391,-500,54,-67,-130,-294,-120,-130,-257,67,-198,143,-74,-253,-270,-398
,-208,-96,-101,117,-247,-145,-101,187,274,-57,-127,-200,-216,43,-305,15,-45,-86,-166,100,-152,194,194,114,-299,3,2,-6,204,99,-82
,-496,-528,-39,-297,115,-49,-294,-311,57,-398,-596,55,-471,56,-41,-97,362,-190,94,35,307,92,12,-43,310,-303,239,-246,38,178,-124
,-113,183,168,56,-24,-366,131,-239,-49,-59,138,-14,-92,129,-18,-419,-260,-139,-276,315,-202,-345,-167,256,51,191,165,52,-183,-371,208
,91,-259,-60,173,373,-7,166,-49,-10,35,-122,156,200,-426,-95,-297,296,145,-202,-207,168,-187,-233,81,93,4,-98,24,85,-64,-244
,-76,201,-63,-124,95,61,224,-381,77,-88,-118,33,-72,192,9,-32,-17,-45,-13,130,-72,-82,-126,-207,104,-226,44,-424,161,-79,139
,-272,-326,-260,-109,-167,-334,52,85,-44,-260,159,87,-188,-556,144,-86,-100,36,190,64,2,51,10,101,210,151,-137,140,115,173,-114
,169,97,-94,204,-106,-217,97,-199,14,166,322,-236,71,-169,-182,228,-59,-89,77,15,-176,-164,-198,-387,-198,106,-111,-200,-152,39,-206
,-66,174,-368,67,-71,-60,-155,154,63,71,10,208,5,91,-122,221,-34,-53,59,-229,-113,-430,133,281,169,-415,-61,-97,-276,-886,-607
,179,-218,-197,235,-377,27,188,-166,-50,129,44,-339,156,102,121,-7,-440,-728,172,128,-313,127,-84,214,408,-84,-125,-191,-532,-562,318
,-135,125,-392,4,251,135,84,-93,4,158,-96,-135,186,179,-188,-296,98,-57,-16,-97,207,121,-121,-35,-244,189,124,-8,199,-69,102
,17,-109,151,-114,212,-322,150,-29,-277,111,-93,49,181,153,-404,-92,-73,-16,-325,394,-140,40,-170,-235,21,218,-133,-100,-49,-15,244
,37,-267,-94,208,12,77,70,-262,178,208,13,-295,40,85,88,-27,-415,171,-52,-4,447,133,-279,101,-132,43,166,151,-3,302,-77
,283,-325,152,98,108,-159,186,-202,75,227,-81,-276,138,-115,91,-364,102,-163,115,-123,35,-155,244,-140,-55,-100,-268,-13,-123,-228,-1
,51,85,-58,27,290,-169,-6,167,-798,74,-160,57,25,-119,205,-267,-307,163,-89,-147,-521,-102,-297,185,-73,-220,-254,96,-557,-431,-31
,-39,-231,-101,-148,-9,82,-103,220,200,-314,-102,-153,90,324,-55,226,50,-204,-14,-92,72,38,8,195,-272,-192,-259,253,-83,103,129
,-233,-64,-237,124,-27,-37,-91,-101,51,-104,261,-224,-218,224,6,-256,181,21,-36,-337,174,-80,-271,82,-252,42,-431,70,294,165,-243
,-108,189,133,-110,-105,-255,-4,138,30,65,190,-25,-45,61,-137,-347,-101,-126,141,-76,101,52,-125,-112,-229,-43,-174,-55,-145,-350,-432
,86,171,102,125,83,223,138,-101,-387,-158,-187,-143,30,-421,-64,-137,65,94,-128,-153,40,-178,119,-471,19,-116,246,101,1,136,195
,-470,342,-177,-214,-65,-35,-396,39,208,-324,-227,55,-245,-282,-194,178,-110,172,72,-119,83,-337,85,126,-46,159,-45,-157,-199,-199,-49
,203,25,-111,97,-253,123,180,-207,96,201,-12,-45,-11,-48,-336,-93,29,-59,-73,253,224,-9,7,85,398,148,85,-237,-169,63,-101
,-87,-208,-118,42,-167,121,-170,206,-163,15,234,62,129,-210,-64,-252,237,94,11,-315,-192,73,92,38,-52,-90,37,-232,-449,199,118
,122,-262,-169,97,-77,-178,161,48,-1,114,133,43,94,-596,145,-14,295,-167,261,275,160,41,-386,87,142,124,63,-3,-38,-151,-250
,80,-180,8,145,-386,-345,86,-171,-281,-24,-250,-24,-41,-82,-41,-72,171,198,-278,-19,-184,-41,-182,171,164,7,-18,279,178,275,-69
,193,-81,49,-131,171,20,72,25,-107,-95,54,226,-85,16,-196,205,343,-118,-507,38,8,-50,-359,-88,183,61,40,39,372,-202,-153
,-27,286,-530,-442,-27,-112,-269,-106,-224,-182,-288,-41,-221,-451,6,-127,242,-49,252,-338,103,-450,236,23,-237,203,-164,-49,55,-652,147
,1,77,116,-16,150,-272,223,-353,83,29,2,-167,197,129,-380,-183,-21,-69,82,5,57,-192,56,303,-143,-264,150,56,15,-224,38
,136,142,-168,210,-385,-105,19,-271,157,226,155,-170,-2,147,-409,164,46,-129,-224,216,-165,46,30,258,107,-55,69,288,-40,-366,24
,219,-156,-240,311,74,74,39,-107,143,159,-56,-525,184,-128,46,175,-122,9,332,75,-153,-59,-191,-69,43,228,-100,226,280,168,-326
,-60,62,138,49,264,-286,41,-162,-390,-69,0,-96,14,-248,-292,230,-5,19,146,-54,297,29,-39,92,-65,-318,180,58,-190,128,263
,-102,-194,-285,-140,58,-292,-267,27,21,-372,215,90,-4,160,-257,-56,-318,-42,-14,-4,-325,144,194,-69,-201,-190,-77,-158,-344,-241,-105
,43,-185,-145,92,96,-423,-25,128,180,61,167,-305,137,-153,-43,210,-124,2,206,97,50,-186,-390,-87,-11,74,-63,-80,219,248,-3
,-208,350,65,-60,-51,-98,-115,-253,47,126,-150,-336,95,-170,104,10,-4,181,-220,-61,269,-389,171,274,-261,-94,193,-376,-596,112,-234
,-133,-438,-304,6,149,27,-81,-17,-330,75,-12,-66,3,207,179,-312,-36,-124,258,107,-227,220,-173,-93,-239,11,-266,390,124,-36,-94
,56,64,-338,16,-68,241,72,-139,-292,45,-528,-291,-73,230,-362,-180,336,-222,-1,76,-308,-155,128,-73,31,-223,45,93,-188,-312,-88
,-149,-105,-548,-165,-1,-135,-268,164,254,-103,-176,-166,-593,38,-90,1,296,-434,31,77,-184,-200,-44,-425,-158,-409,93,70,230,112,145
,-201,-104,-5,-433,-215,-13,-75,99,-173,-205,77,-107,-241,-824,-44,-74,69,233,-221,60,-204,248,16,-100,136,199,65,-132,-180,191,268
,132,115,-53,-57,-117,-233,156,-23,-237,-98,161,-342,98,132,88,-5,113,137,-16,-62,-75,-122,-243,-191,9,-75,-20,96,-287,-187,-6
,-51,-177,221,-79,-35,-285,127,-39,79,-8,196,-321,-202,265,-353,-107,162,-22,-56,-1,33,133,-177,-152,-274,285,-70,282,106,-25,-87
,119,91,98,235,-215,153,152,76,-162,73,77,-507,65,40,-81,-70,48,-20,-254,-39,364,-315,82,-327,-441,-27,78,-296,-346,-88,149
,-197,-182,212,-33,-218,-47,-252,-236,213,-65,-84,-408,-10,-127,68,-182,283,59,-291,13,49,263,-174,137,-38,-43,-27,-371,24,-25,-147
,103,37,-190,12,146,-25,-136,-55,-155,11,-280,-236,-37,-10,-827,-48,-76,-50,85,-27,-112,-121,-62,-250,369,-239,77,31,98,233,-102
,168,-18,143,241,-296,-429,47,104,69,189,338,109,282,-43,-265,35,-57,-118,-35,149,52,-137,-303,24,-32,59,-133,34,-300,126,-96
,-17,24,-47,-103,111,-105,-33,295,-67,-110,-121,-330,118,-363,0,-243,21,-53,-60,-131,-396,-48,-93,75,81,95,131,130,-319,85,88
,164,-357,-192,22,-308,142,33,-43,-307,77,48,-106,189,-38,177,-79,-248,253,40,-1,-104,-50,-128,-60,69,-11,-170,-1,-179,125,-157
,97,-4,-55,95,79,-42,-125,180,19,40,15,-236,-190,119,91,-317,176,111,-4,137,-125,213,-147,111,78,-178,143,-343,-1,191,-200
,50,-238,-344,-19,101,-32,-20,-88,-273,52,-193,-118,212,-10,212,168,-60,-424,-28,195,110,225,-98,146,-325,-25,-47,16,-314,-199,-210
,-191,-264,-115,-166,80,194,-17,20,-199,-434,41,-210,-166,-2,57,-15,-253,-450,-275,-232,-144,-247,-11,-12,-225,-322,-180,182,70,238,-91
,-235,137,27,-234,178,40,-8,-332,-8,-127,146,42,4,-225,-141,-177,71,216,-129,-235,-423,55,2,18,-350,-184,296,-345,13,-81,35
,-97,-295,183,-103,-182,102,-300,-137,-634,-240,-146,-655,-131,42,-60,358,9,-80,-399,-98,120,48,64,81,-381,251,8,13,-19,-393,280
,324,21,-77,179,-369,-196,223,45,186,90,-276,96,331,-197,-137,-48,292,110,39,44,25,165,75,-372,-258,-32,-158,-80,289,143,-167
,-210,160,-18,-229,34,-6,-259,-191,122,-227,156,-78,-325,-334,-333,-66,-1,-114,-36,-163,-293,-323,-164,296,-234,-115,-115,142,181,244,73
,-162,-167,278,16,-156,-725,-101,-170,-96,26,127,-288,-198,100,16,-50,101,-628,-117,167,318,19,-72,189,-265,-115,199,-7,172,-309,-122
,-89,-274,-171,-414,-89,-18,-170,-408,195,-293,-42,-170,-313,-257,-203,-314,-7,250,120,272,198,121,-230,-214,207,52,-198,-300,-12,86,250
,136,146,179,-65,171,28,28,-221,-599,156,129,-97,138,13,-453,177,-355,-152,-174,322,-154,-94,40,53,304,40,97,34,92,154,-418
,-268,-76,-31,-59,-104,260,-216,75,151,-318,125,-62,-245,29,-57,350,223,-77,-82,215,10,129,-37,62,241,-123,-186,-83,-45,146,-109
,145,57,-161,135,183,-243,193,197,114,184,-93,46,30,-212,-465,192,-19,-183,-93,-289,234,176,-343,53,-163,220,-184,215,143,6,234
,9,-435,-190,-49,76,-271,140,-65,14,180,48,161,124,85,-140,-145,-111,130,125,-73,81,80,-1,-378,345,111,139,5,-47,225,-285
,28,-469,-66,-88,-431,80,33,27,-114,-108,144,-113,131,-208,181,48,147,-103,-22,-124,89,221,110,84,-200,-109,152,157,56,-284,88
,-8,-279,-57,-197,89,127,-89,53,113,-191,80,38,-79,-100,184,142,-84,-144,-4,-220,-139,-108,62,408,-53,-120,92,324,-229,-302,370
,287,-471,113,162,-11,-213,66,203,284,83,-182,68,62,207,-107,180,-76,205,-423,-374,-114,-46,-337,-45,-15,-54,-113,-204,-94,-146,-333
,-21,-44,-66,-137,54,-78,-155,205,-319,-147,46,-57,92,-93,-492,532,30,241,-87,44,91,138,-156,-5,-271,271,182,-108,21,220,-24
,109,-283,31,123,20,-23,-111,-232,-49,-46,-208,143,99,-446,-259,-162,289,63,-134,-238,72,228,-44,-353,5,144,249,-101,315,1,-409
,-29,140,43,-184,92,-12,76,-90,-83,33,110,109,-59,68,-287,-396,-406,-404,-334,281,-129,-473,211,-385,-304,307,-243,138,66,-119,-48
,-319,154,14,68,-74,-195,-193,196,3,-137,-132,-77,-172,-331,67,-76,309,-184,-37,312,302,5,-162,-44,-31,-40,103,89,-392,-58,-322
,68,174,63,-77,215,-3,148,24,-375,136,-324,66,139,-385,-48,-52,296,-127,133,231,-266,-22,-135,-41,-297,-66,-412,70,-111,-238,-232
,-37,165,-136,-51,17,59,88,-280,-299,160,-57,-26,111,73,-150,-6,-92,-18,-268,145,13,105,-139,-21,25,74,-87,-105,-16,-23,43
,67,-57,157,-177,-143,-246,-68,2,-182,-312,-271,-76,-265,251,127,-264,-281,160,-126,-601,-116,-75,182,82,243,-51,102,-1,-108,167,66
,253,-26,-13,-66,344,153,42,-1,-103,-116,-20,189,-6,-348,-267,391,-425,39,358,-193,128,7,5,-644,-207,106,-322,372,-146,-6,137
,139,9,223,179,-131,-186,163,-111,116,5,-97,-282,136,-856,-79,340,-168,-192,-123,226,-372,-247,93,-23,-188,8,-109,242,290,-124,150
,-86,-41,192,-76,-77,-10,-100,-57,181,-60,-338,-144,-149,-374,-479,32,7,-47,-227,-34,-8,-189,244,10,30,32,100,31,149,-48,149
,130,-162,-446,165,90,-202,170,24,231,83,-98,-278,-80,318,-129,-62,-659,-244,-80,7,-2,178,89,-447,-175,-104,-209,-298,218,-110,20
,-244,-191,84,-221,304,-68,-162,-558,-118,-307,90,-402,-132,-338,16,-324,115,342,-606,-171,-103,-64,-6,-54,-305,148,-208,-403,237,178,-20
,-417,103,71,-194,47,-71,-25,146,-48,-156,-187,-40,-307,242,22,-201,-114,-130,-217,-311,252,85,-102,301,-204,-225,113,-340,210,63,-364
,-203,179,-71,-246,7,-147,-509,161,-74,-171,230,-6,-127,-363,110,30,-282,-318,-234,15,-29,-124,-402,184,-100,91,-544,-154,169,113,131
,83,-68,45,-78,99,93,-94,136,165,-115,-226,115,-20,0,-76,-247,-274,81,-51,-264,-171,-308,-241,203,-163,109,154,-67,-220,-104,-38
,-303,95,-186,-228,14,101,-160,103,-35,-212,-230,-154,-99,33,-217,164,-149,-55,-156,-73,269,31,-47,-91,105,91,-294,118,182,-10,-165
,10,-242,-82,157,20,19,247,28,-4,324,152,197,309,-254,97,598,-244,243,-368,365,-233,-246,-141,-44,100,64,50,-94,137,-79,-45
,55,88,-521,141,145,-123,59,139,-197,95,85,164,52,-393,-192,185,209,-106,53,-145,-594,-287,121,110,48,22,116,-227,-107,299,-317
,48,159,-122,170,-243,114,176,140,-235,-183,88,32,114,-57,25,40,-24,-159,-152,-30,-363,-152,7,-119,432,-55,-394,216,195,-152,67
,-436,136,-294,-402,122,-283,-90,-97,-78,-216,62,237,-388,29,-282,-198,-147,-51,-65,115,328,317,-151,154,-179,-63,-109,-373,-311,123,32
,-150,-85,-66,59,-166,-12,-211,84,-92,19,93,37,-123,-34,-218,196,145,-98,-55,-169,-105,190,-111,34,-132,81,53,-171,41,16,-243
,164,218,105,124,134,22,-71,112,13,132,-267,-364,163,-15,-234,209,-64,332,-93,-219,-70,-584,-272,-736,427,90,-267,150,-176,104,3
,-400,43,-199,-141,129,157,-443,290,-167,-206,231,108,39,-263,-80,-132,330,-126,-155,22,-311,-91,-242,-389,180,89,-291,-299,47,-274,-81
,123,157,78,117,200,218,-69,-127,-58,-114,58,129,4,-186,86,-43,-132,2,33,-35,-267,-240,-219,445,-219,-162,-346,-177,-248,47,72
,-84,-100,-304,66,166,149,134,-130,174,-122,182,-540,-13,48,-422,-21,248,-37,-178,-96,-19,-445,-6,-48,298,-225,-38,-23,280,188,-59
,-108,118,139,-160,-14,-402,-284,-187,-133,-6,38,-11,-72,159,-225,100,-150,-15,377,-78,392,140,-291,-254,-290,108,104,198,118,104,20
,163,-42,73,63,74,47,88,33,71,-15,47,48,138,-88,21,35,-53,-129,-192,350,-144,23,160,196,-206,20,-35,248,37,62,-60
,201,188,48,-109,-284,-293,191,-9,40,224,-320,238,187,39,-619,208,30,104,-311,348,122,176,-131,172,102,35,-156,20,-19,-44,-77
,2,-101,-102,142,-105,-100,29,-127,-49,2,16,-62,-97,18,-79,49,-42,-70,-3,-136,94,-75,-62,104,-21,-74,-62,31,-135,-28,-81
,-121,-68,-194,88,-126,-275,33,-76,-237,-54,-55,-428,234,134,285,21,242,-160,5,-16,-205,105,259,185,149,-1,171,-41,137,226,-44
,155,218,-111,-29,184,-47,189,-277,-335,-57,-42,-174,127,192,-38,-36,-75,-288,9,255,-77,93,152,-124,-129,-357,-407,-45,-129,-113,-241
,-37,31,48,61,-46,-75,-77,79,18,-194,182,-397,-180,139,-489,-238,-336,-190,-406,243,202,18,-114,83,-155,-165,-204,134,17,-22,169
,-41,130,-90,-3,-205,193,78,98,-161,87,-89,-263,-80,246,56,7,-271,-244,-189,117,-278,-136,188,-134,-4,-161,-330,336,212,12,-471
,-126,133,-135,-26,-5,73,229,161,185,149,30,-304,163,-25,25,-137,116,24,-81,-205,-250,-106,-6,364,-88,-146,-254,-225,-444,-442,-186
,33,212,184,20,26,-119,-38,-299,-201,114,-217,-335,-13,97,192,60,-128,86,145,-132,-108,351,-315,-265,-14,-39,-140,-119,-353,-40,37
,126,135,-92,-186,165,93,42,-179,67,-26,-9,29,-77,-95,-573,82,-257,102,14,82,-399,17,-1,-915,332,-145,-119,64,-239,-214,266
,145,-98,120,-29,-106,-8,89,93,-37,42,259,-402,-186,116,-341,14,201,130,-15,21,-103,145,137,-85,-183,-183,-191,21,-95,261,-98
,-53,-333,-2,165,-59,-6,-16,-376,-171,200,-250,93,8,-489,81,-465,-119,-152,365,-261,152,102,38,215,-56,20,-83,-56,499,59,-207
,-46,17,-268,-86,-21,-75,-48,194,15,-227,-211,-154,-80,1,186,15,96,160,-452,46,-300,68,64,-388,-203,48,12,-448,221,-163,178
,51,45,-346,-22,-66,-154,238,-259,-332,33,-237,120,190,18,-524,-51,88,161,274,235,6,146,63,-91,165,-74,12,176,-45,95,305
,-280,-68,-80,-471,-195,-100,-285,-24,90,-196,-543,-161,-439,409,156,2,-27,12,161,-155,-265,87,115,-68,194,-216,47,205,220,-144,-319
,-6,-83,-59,42,283,-192,-153,171,206,17,-442,-171,-60,-292,42,-9,108,-29,-421,148,148,105,-33,-52,-122,-470,-26,142,-98,52,179
,46,-35,183,-143,-141,-273,119,-7,-329,-279,63,-286,-255,1,91,78,263,-220,43,55,162,-1,-160,165,7,270,-145,-119,203,-256,-15
,428,-234,-66,212,-50,76,375,169,87,266,-169,-295,263,-64,-171,-1,-119,226,36,196,79,-67,-217,-278,50,81,-251,-87,172,-49,92
,-13,-188,-44,-159,-241,-16,114,-440,-17,-40,246,-112,51,-480,134,199,-351,157,202,-51,-178,-341,-149,257,23,31,127,397,-158,62,214
,192,76,-35,21,-184,-390,-148,151,89,131,-283,-207,22,-70,218,-145,382,-199,-331,275,-386,67,93,7,127,117,-121,-131,-428,-49,39
,239,-15,-161,-69,41,201,208,-67,-266,-26,247,83,233,29,-9,208,154,143,-583,-242,122,87,-266,-255,40,91,-224,-118,-146,-30,-351
,-40,-186,-386,-40,169,-372,12,-210,138,222,74,37,174,181,-180,182,71,148,-101,-113,-334,-53,95,-170,205,70,251,221,24,-205,14
,-448,-569,39,-211,-324,-209,-214,-261,107,-375,229,85,-227,184,105,176,281,168,-155,-222,170,148,-289,-9,156,-214,57,497,-61,90,217
,35,-81,-308,44,23,112,-28,126,-356,72,175,-160,-43,-87,-244,170,-79,88,173,-228,121,-216,88,40,-114,-435,240,-6,244,-257,278
,-77,235,84,75,-174,29,42,-286,-159,28,232,-199,-174,197,0,-105,304,10,10,275,92,-273,-20,-184,63,105,-230,49,2,123,255
,-57,265,-8,-27,-10,-87,-46,164,-114,-242,-312,-32,-161,77,-177,30,-113,43,-217,-558,104,-196,-188,146,-320,298,96,133,40,-258,56
,142,-128,262,174,93,-145,20,330,-417,159,-102,139,17,-37,-146,440,-329,154,-304,-236,-222,-38,-302,-82,-174,-283,-67,-133,134,-224,143
,174,68,-40,163,155,-442,204,-124,-2,-103,-67,-320,49,73,160,-5,-276,-185,-92,-438,-414,-7,-331,-78,55,29,227,-261,-84,98,25
,278,-365,11,210,13,-11,276,185,-24,93,-279,19,91,-88,43,513,-360,-198,171,-221,-404,-147,-386,17,-69,-167,-371,3,197,70,82
,-60,-284,23,66,-98,80,-109,103,168,-119,-93,45,-21,-311,-1,125,-235,-14,63,137,9,2,53,163,29,118,-114,-292,-59,-444,-25
,-41,364,-193,83,76,21,120,81,34,-39,-135,-399,65,-119,-367,-12,-343,130,149,-621,-205,55,23,-525,82,-290,72,-330,-184,-106,-30
,-124,-105,134,-18,171,-381,-318,251,-45,-189,58,-475,-93,-238,-260,128,-440,-219,63,217,109,51,147,-171,-81,-389,126,174,-421,128,56
,53,117,-99,149,138,-383,117,96,131,21,-180,58,-124,154,-32,45,-522,-138,-217,219,56,-32,-301,56,-126,-154,135,-175,-21,288,-156
,209,-227,-130,146,-195,18,137,172,45,157,-382,211,79,60,-206,-316,34,-26,-435,-41,175,95,118,-239,-7,-20,-166,22,-205,-184,-7
,32,63,-352,-24,140,75,56,15,69,-85,71,70,17,-65,-302,-439,-205,-321,-257,-63,-23,222,211,-213,-235,-112,206,-165,97,-75,-459
,-101,-77,-100,-88,10,-83,64,-135,-127,-6,-111,-34,0,20,-52,61,103,44,-43,127,-35,-124,-113,138,-78,9,-38,-135,91,-7,-14
,0,-41,90,-159,-256,-218,-53,-148,-137,-102,232,50,-164,27,171,12,-161,3,136,31,176,-4,-339,-68,-130,-50,-89,-518,-94,355,-296
,189,184,215,216,-227,-175,86,3,48,194,-279,155,160,-290,-105,-26,-355,-516,-167,-62,-296,-357,13,-101,-235,24,-117,-345,324,130,-188
,-156,-210,-243,-79,234,-40,-67,114,28,55,37,-36,62,-587,130,-25,-77,35,11,-98,68,194,43,137,-156,209,-425,-21,22,-192,-255
,149,80,199,133,116,-100,53,14,69,18,-182,-132,173,-142,-45,91,-160,146,-430,-51,206,228,46,-90,173,120,-383,19,80,63,-577
,3,-106,-302,-20,-228,137,129,-96,24,-173,150,106,-121,-418,-328,-467,103,142,-116,-519,254,34,183,62,-366,-233,213,-351,250,77,-237
,-87,-264,-438,-332,-124,126,-92,-240,95,-448,-319,235,-135,35,-36,83,-83,108,97,369,276,113,-208,310,-60,-7,-129,470,192,-228,-77
,-140,130,200,111,-73,-233,103,135,-350,46,-240,-147,71,-37,-74,254,248,-182,-106,-140,283,-35,234,98,128,71,-244,-69,227,-228,185
,-161,315,83,-6,-168,-144,-27,-74,-185,70,52,27,79,-61,-126,181,-176,-76,300,7,-385,-63,-207,-160,-86,5,-187,-26,239,-18,149
,-35,-28,72,-91,144,-34,132,170,6,18,56,77,-45,-219,-286,-320,217,-147,-151,266,166,130,-128,194,202,-228,196,108,51,-38,202
,-192,98,38,20,39,-172,-44,-224,184,-122,-182,35,-135,355,-144,-145,179,167,-55,-71,162,12,-19,172,21,23,-80,237,2,89,-478
,133,67,-502,87,8,-119,28,227,-131,54,-235,3,-36,66,46,-48,-238,-71,-302,-406,-35,214,66,-288,265,186,87,-189,-56,12,-151
,-123,-28,-27,-80,-139,163,-197,-41,-146,69,7,-7,-131,128,18,-64,-211,236,58,-273,-188,55,216,64,31,-199,-244,91,218,157,-137
,-298,-66,74,-203,192,74,-49,-139,-15,-199,-38,-23,-150,-66,-115,-178,218,-607,-9,-164,293,-70,-361,374,-60,-207,96,452,-138,-81,242
,-118,-82,-387,64,-47,102,106,-27,-240,-103,-98,232,-22,176,-155,184,-488,-170,19,-318,-136,109,-181,-61,-149,116,51,-153,-250,-1,325
,-323,201,59,17,66,-217,10,-198,-310,-21,17,99,31,-14,197,-325,-39,238,117,435,-154,-79,-96,133,-216,-22,251,28,-38,-247,-462
,-9,-293,-211,242,174,183,226,-307,24,201,171,-405,68,-277,-150,24,87,-64,-318,-38,-10,262,127,-129,273,44,43,69,-179,70,53
,5,72,77,-146,-102,-146,38,-129,55,-41,229,-22,-211,9,-206,31,341,-72,208,168,-229,-99,236,122,82,-105,62,-73,-205,-86,-130
,-117,-110,-138,-54,33,-182,7,-68,-169,-301,234,136,-198,228,217,-147,-316,-548,-312,-319,-308,-93,-129,-62,31,-137,-233,-7,-42,-2,-349
,-214,-54,100,-68,116,-62,171,-275,-208,61,50,-617,-1,-111,151,-516,192,158,-165,63,177,-405,-366,3,-373,-369,-51,-390,145,88,57
,-152,130,-356,35,-21,121,15,114,65,3,51,-4,66,-67,85,338,-56,120,-310,25,290,-352,73,277,2,-396,46,-121,-251,-343,-456
,-82,59,185,-235,-202,34,75,-73,-131,-22,120,138,-90,-172,-129,100,21,116,-169,-120,-260,18,271,167,97,77,-464,14,314,-20,-36
,194,-225,-306,-22,-262,92,-70,76,-242,166,-119,-86,-52,178,132,-32,313,185,-7,47,-463,67,103,94,-301,-194,106,-118,-258,-323,-100
,-77,-88,-41,-45,-8,-387,-322,113,-120,-200,99,-255,-129,-184,-85,-114,-297,-532,54,-103,194,-27,47,297,159,232,82,-182,27,-58,-151
,-14,-66,41,13,-407,-320,197,99,42,97,172,-177,145,-248,-490,-351,68,116,-38,-255,-480,-294,242,-188,330,73,-226,91,-251,-232,-72
,-53,97,77,-266,-52,109,-113,-167,10,-122,101,-184,92,262,-281,-267,-274,-194,329,-143,61,-237,21,-395,246,-121,-292,-90,155,-67,76
,35,65,-110,38,-104,142,124,-201,220,73,-33,-202,105,-310,-502,-42,160,-175,99,69,127,-160,-174,142,-234,37,144,59,356,-228,-10
,80,-1,50,-51,180,-202,275,37,-95,112,-43,-84,230,110,-391,-302,-191,-50,-270,50,250,-447,169,-64,-241,-470,9,54,22,-474,9
,-240,225,35,-283,16,-43,0,-90,-51,33,-7,-333,-205,46,254,37,-100,-311,-53,193,-180,79,-480,17,-342,189,-67,26,92,169,16
,62,-293,113,142,-246,44,82,-50,-322,60,-166,170,126,385,-224,11,282,-18,-146,-75,-125,65,-13,37,-166,28,153,174,229,-56,-191
,69,-516,160,17,175,-123,163,179,58,125,-109,-236,74,-444,-347,63,182,10,172,27,21,108,-175,84,89,81,17,124,-150,-280,-52
,-78,-68,-133,-107,2,-114,44,-52,83,112,-584,78,-67,-307,169,-130,-96,124,-252,195,-105,94,185,-41,-42,-118,-153,76,109,-46,150
,96,-295,125,-16,-343,229,36,-273,-195,-13,57,-303,-63,-337,-234,27,297,227,110,-118,47,31,-78,-60,83,22,229,-497,-72,-56,159
,-73,220,93,9,-66,-159,-139,194,111,-54,27,-58,-120,-62,67,131,-182,75,-453,-410,-197,-187,153,260,1,-12,-282,5,-2,116,-251
,66,59,131,84,-243,-222,-102,85,-277,-101,-165,68,-353,123,-420,302,111,-309,178,328,77,-201,-84,73,-194,239,113,-77,136,213,91
};

long weight_1_T_nvme0n1_1[256*256] = {
76,-58,-155,8,-357,273,-165,-370,88,-53,-293,86,-67,57,-162,40,-103,173,-214,-306,-10,-247,2,-436,-243,-111,-10,-13,-92,-35,-36,-294,102,-251,-434,-264,-86,-26,107,-113,-366,9,-78,-257,-160,190,-21,16,42,-35,40,136,425,-338,5,-64,-69,265,-434,353,-728,-277,-88,-9,364,-101,-70,-18,18,203,181,-95,26,-486,23,48,397,-109,28,-410,-195,-245,10,306,-130,-29,64,187,202,47,140,53,110,-263,-229,-29,1,-128,138,-59,-384,120,-537,403,-199,47,-161,-312,-175,-118,-274,198,-93,27,-192,75,256,69,-282,53,22,-309,-365,157,-162,-407,-199,-275,56,-287,-448,21,-200,-62,-666,-42,214,62,165,-487,24,-66,26,105,155,-20,-335,-32,494,-78,110,-285,-197,-13,1,-304,106,-399,-319,-142,-159,3,-318,-355,-81,-274,-43,-684,-278,-336,-420,569,-74,-399,-333,28,-312,-5,-82,146,-48,94,-257,-46,-550,-217,40,-47,36,-113,46,-253,20,-63,64,-124,171,-122,-105,18,73,-86,156,-204,-123,-20,-101,-270,-19,-19,114,-85,-474,-77,-220,-71,-185,-206,129,-358,155,-14,280,-194,-156,-195,-68,-158,-59,-243,50,-65,166,-120,-120,-679,-97,-141,-33,-553,176,-200,70,32,212,186,-91,-36,-179,-82,80,-80,-54,-22,-125,-568
,140,-92,232,-200,-111,65,52,129,-35,-117,-280,12,-216,-324,-333,-275,-53,-42,-2,0,76,187,-70,-236,-249,-364,-12,-208,60,-43,-110,-4,-27,-4,42,-142,86,189,-15,89,215,-196,-21,41,-155,-239,53,29,-13,-89,-93,149,-243,144,-358,-118,-57,52,-351,209,-32,-50,-123,310,138,-62,215,90,-34,-26,-117,166,163,-48,113,219,-87,149,25,124,170,169,90,-76,76,-356,-170,-107,176,68,-105,-118,6,8,-101,164,-242,19,250,103,114,-43,46,-54,-202,3,151,71,-246,-42,-225,40,26,63,9,-383,11,141,18,-183,-95,-211,-14,-223,96,-157,13,-339,-4,-227,154,-279,-100,201,159,265,-77,107,-49,-59,243,-476,100,-335,-161,46,4,-9,166,294,178,-471,-20,-11,-80,-89,-63,-243,-143,-281,-23,-228,106,-160,17,-87,28,44,-365,182,-62,-117,27,-89,-45,73,-184,-433,-405,-269,-18,-264,-89,5,128,1,75,235,-99,-129,-123,267,-342,-237,46,-214,139,235,-91,34,172,-268,-358,-61,22,252,-149,-183,-199,-328,-229,109,181,-458,235,-28,-176,194,-47,98,65,-13,-182,106,-50,-110,-26,-294,53,-201,-73,-78,-181,158,-110,44,-43,-288,-18,-52,-29,-110,182,63,-106,235,-220,-16,-217,50,-64,75,-44,385,60,225
,-62,104,-68,101,56,-174,-19,29,28,-45,-27,109,-174,-47,-9,-74,-133,-78,-62,-45,36,-109,-153,16,52,-46,13,-165,110,86,-1,-76,60,-6,-145,-53,-102,-101,71,-18,-32,-131,6,-56,-13,-43,-86,-31,-147,-29,-15,-88,25,-83,1,-98,76,124,-65,28,41,-91,-40,-44,5,-64,-111,-41,-55,37,-45,139,-107,70,-2,72,72,-55,107,-123,-114,-21,-12,22,-96,68,-142,-158,-43,-122,74,-96,-91,-13,-17,-136,37,-107,21,-106,-72,-54,-119,40,-10,-97,-84,-26,-237,-57,-75,-215,-51,13,9,-181,-69,30,26,-43,-88,50,-31,4,-132,-13,-148,-23,-137,-65,45,-17,-82,125,1,-45,1,118,27,-66,38,76,-121,-22,-28,136,-111,-79,-82,-47,-8,58,-127,8,-11,-24,46,-60,-197,-101,67,57,69,13,47,29,-56,-81,-70,-87,21,-110,-116,13,-37,42,4,-214,0,117,-37,-204,28,-18,-19,-18,-128,-90,60,-29,-151,-66,-53,-41,-27,9,4,102,19,-74,65,69,-142,180,20,-12,-134,61,11,112,-91,-125,63,52,87,-20,57,-104,-17,-103,-133,51,-56,-68,-104,-140,-34,131,-170,-77,76,-144,78,-173,25,36,-51,13,-27,59,-31,-42,13,2,155,-207,-98,-60,65,9,-130,13,-104,3,-80,48
,129,311,-482,-96,-260,-189,-252,261,52,-368,-225,-201,213,-198,-162,298,-238,-44,-289,-367,-182,-155,-8,-282,32,-39,-67,-272,-340,86,-155,-342,-35,-239,-3,-397,-104,142,-226,-201,-86,-226,92,92,45,32,-27,-147,-67,26,81,-80,445,-632,-73,-96,-151,-430,-387,171,-320,12,-296,-239,362,-248,10,-84,-202,-356,184,-145,-21,178,33,7,-353,97,-238,-218,9,22,-96,-264,-347,-450,180,-605,-351,-354,-213,-171,159,-849,-240,-17,85,-266,-737,-51,80,-366,-336,-111,-384,291,-123,-6,276,75,-446,-327,-66,-164,31,74,-159,-483,-294,-300,12,-1,17,-388,-45,-129,53,-230,-465,-89,115,-58,-108,61,-335,-36,-143,288,-84,-32,-63,-38,-172,-582,-10,-52,-258,-343,-108,-184,152,-97,-374,-90,-72,-155,-237,-236,-285,-193,-190,-213,-141,-88,-65,-119,-108,-304,-400,-292,-504,-321,-88,295,-83,-280,0,204,-20,-236,-218,173,40,-66,170,53,-141,-15,41,-238,180,280,-173,-130,-103,54,281,-45,-69,-271,-165,-491,-175,-348,-396,-178,139,-221,-7,94,-49,25,-508,-309,-356,-439,-299,-401,-60,-23,156,3,271,21,-27,-155,-597,-289,-309,155,-11,-475,-304,54,119,-291,-400,-253,-241,228,-365,-126,66,244,-64,-11,88,107,-199,64,-582,-132,-77,-484,-54,-38
,-122,-231,104,-76,18,-203,-350,-231,-328,-95,-307,-53,51,68,-54,-556,-605,143,-269,-63,30,-141,-68,20,-46,-8,52,51,-500,108,-130,123,272,-108,-77,-292,-345,-504,-10,-51,-18,-204,-369,-19,41,170,-19,54,-316,-229,105,73,275,-120,-128,117,-254,-246,195,-99,139,100,-404,214,-43,-210,-391,-87,-370,267,29,17,37,-471,-10,-13,-343,-7,-105,-374,-139,246,-281,-63,-175,367,-195,-32,44,-362,-209,-37,-72,-315,-469,217,-368,-42,38,-26,-1,115,159,64,-169,-531,-35,-124,79,-130,-140,110,194,-185,-43,-236,11,-55,-88,-131,-40,-357,77,-129,345,-257,-369,51,-419,65,-48,344,-24,-200,160,-18,122,-213,37,-154,-213,6,18,-341,-200,-139,111,-111,-64,51,98,-175,-284,-199,27,-85,-310,-139,-218,-22,-89,113,-62,-31,90,-347,115,-317,74,-602,-28,-13,-163,-18,-561,-29,-126,-336,147,71,-98,-394,-88,-78,217,-281,-96,48,108,427,177,-229,6,-129,63,-209,-240,42,-168,61,-128,174,59,-38,-133,-88,-97,-333,-343,151,-4,-150,-324,-55,81,-58,-217,-270,-127,-494,-158,-33,-170,-25,-213,-88,33,-179,-227,-366,-381,-349,-279,-43,-445,140,-51,34,-367,-492,-66,6,-280,196,-270,-83,-186,-302,-334,-125,-27,-121,73,-325,136,-241
,-314,239,32,-114,203,89,16,314,12,87,111,190,-78,-133,-23,-535,-183,58,-200,-125,-160,21,-214,23,-157,336,26,91,-29,84,-272,-149,3,-35,-348,-30,241,-170,162,30,-138,-135,77,-68,50,-8,-49,92,201,-618,-180,182,-46,5,-96,128,-85,-153,-103,-33,62,92,-29,-140,-116,-241,-309,101,-67,264,-210,263,-65,-152,167,156,249,276,6,250,-4,74,209,149,-227,22,-329,183,196,381,57,-26,87,-288,43,220,-17,-284,239,133,401,-275,10,-134,14,238,182,375,-79,-208,96,-46,-56,338,-211,34,-170,9,-149,11,-330,155,440,135,-397,86,235,48,-227,-272,309,604,229,133,245,-127,124,3,252,132,50,141,251,45,-305,457,308,-289,288,-5,47,-33,101,156,103,-24,-105,46,40,-74,-74,201,-88,44,-13,208,-240,-225,2,74,384,627,16,283,5,195,-227,185,87,-73,49,21,243,54,142,-134,-239,595,-24,74,-322,-29,-131,-236,46,122,-183,-297,29,-212,145,-116,52,20,344,-128,-122,122,51,36,-31,-53,375,46,-309,-198,-416,-134,51,-15,165,78,24,-270,363,173,-43,-100,-159,-147,-258,-11,-178,-15,-218,165,122,164,-321,-60,-69,310,-230,-102,-177,246,85,18,254,100,95,-209,-158,-155,2,84
,-228,-70,-41,-96,-18,-303,-366,-360,23,-462,-244,-65,-112,5,-179,69,-638,-141,79,188,84,57,36,146,-34,-141,-8,-386,-316,271,44,-17,-222,368,36,-106,13,147,-429,-273,-246,-310,-318,-304,-146,-114,-343,-115,-214,-12,-129,-62,-240,-404,-87,-68,199,-529,-82,-862,558,-751,-220,423,-140,73,-82,-206,109,-178,34,-46,-259,-266,-73,-393,-27,-527,223,-245,-43,295,-64,51,-112,-543,-135,-463,-648,-134,80,-154,-659,-474,-103,-81,-241,162,-430,-95,-380,-355,-222,-200,-78,20,-40,-449,-418,-139,-68,-183,-37,-335,-338,-409,40,-283,-237,-447,-175,10,-70,-76,550,-50,-101,141,-490,46,111,-432,-5,-10,-308,-387,-82,4,-144,-669,86,48,-116,-12,111,-33,-474,-288,-36,-209,236,216,217,-214,-171,49,-280,-255,-37,-435,-191,-143,-388,65,-50,73,-362,-572,181,-409,-98,-227,-312,-41,-452,105,-566,-115,-98,-90,-22,-118,-214,6,-561,211,-13,-519,-10,-231,-4,-14,-212,-418,32,-330,103,30,-780,-207,-174,122,-484,-285,-2,-378,-75,-377,38,44,65,-168,-406,45,-304,-310,-181,125,223,-202,-291,-49,-193,-212,71,30,-78,-412,-384,-175,-63,8,-158,-436,-4,48,239,-51,182,-513,-319,-222,-423,176,-246,-50,-364,-524,-64,16,-634,137,-336,-113,-1,-521
,58,-28,21,48,16,-259,-58,37,-77,-114,-122,-108,47,8,-129,-74,153,67,-41,55,-31,66,46,-55,-11,-40,-75,20,-5,76,-55,219,33,-95,-32,77,67,-16,-120,-14,99,84,-57,-49,74,27,-27,-103,178,22,-73,31,80,-54,-125,-106,28,-70,-58,-217,64,120,-158,-142,-37,-17,-125,20,-8,-210,147,-173,-41,119,-188,-203,-127,47,-90,-35,170,-133,82,38,-146,-56,-78,-84,-128,-244,-7,178,-12,51,-254,-26,-35,75,-84,43,-308,-142,51,-115,-86,-138,7,-64,53,-15,-84,117,-46,-138,-64,-69,-138,-2,47,-191,37,59,46,59,-100,50,-123,-121,-199,-83,-15,38,127,-339,27,-106,-37,4,61,-153,-173,-115,-48,37,181,-245,-75,111,-85,-73,20,-150,-155,-141,-56,-201,11,-85,2,66,-68,-44,48,-93,-116,1,54,-22,-46,-75,-65,23,-161,-185,-25,-244,-69,34,10,-27,153,184,47,50,-74,-111,-86,-59,-1,1,-44,-252,-90,-93,-1,-87,-31,-33,-109,-225,-95,-129,143,89,-103,-11,-49,-17,-79,-108,57,120,8,-132,148,-76,-198,-30,124,-50,136,-104,-51,15,-18,-1,45,-127,194,-116,-66,-94,98,-36,-143,25,-111,-20,16,2,50,-45,-145,-60,79,-37,92,-18,-33,-51,-59,302,-7,2,-72,-104
,-349,-191,45,-143,59,-393,157,-102,60,-143,-105,-64,-116,-249,-10,-521,-3,-84,-285,-72,-112,299,-408,115,-273,-46,23,22,-92,-36,41,-160,-421,-251,-20,-72,206,-179,140,108,256,-554,-186,-2,96,29,-148,-300,78,-15,-368,-163,278,96,134,-18,-286,-173,-45,-163,23,-107,-469,-137,107,-483,-47,-61,-505,160,-214,-224,59,9,-46,-57,56,-109,-29,-55,-62,-164,-54,-25,-182,-43,-102,-445,12,226,-133,56,-78,188,38,-35,-129,-112,-39,63,-23,-174,-231,-287,-12,74,-78,-178,-357,-220,-114,198,-296,14,25,217,-170,-357,-87,216,-217,-50,85,-456,-340,-150,-270,176,-85,129,-208,-383,17,120,-53,-219,-52,-154,-99,-112,97,198,-91,-165,-361,-7,27,-131,61,188,-25,-7,145,-206,-17,134,173,-15,-508,-133,-158,12,-236,167,-79,-159,-124,-37,-56,-279,-4,48,-88,24,22,-264,83,-213,-189,404,-63,14,-24,-259,48,250,-169,-139,105,-102,71,51,-89,-309,-129,-170,30,-219,-195,103,-162,-290,-147,192,76,-36,-49,-528,-42,-83,-69,-423,-105,-163,-9,78,-230,13,-8,-308,-14,42,-80,-166,-75,-264,123,-99,155,-400,-147,110,-57,-331,102,-166,-231,-331,-9,-48,53,-206,-120,-25,10,-76,-62,33,-201,-639,-226,120,-153,184,-20,136
,16,-213,-371,-24,-302,75,-51,-78,-155,172,22,-349,215,-337,-312,-107,-301,81,170,-223,-104,123,54,-174,92,-333,5,60,-335,-286,1,74,-71,-202,-40,-22,170,-14,-112,-306,-394,-15,138,-122,-11,-526,-114,-13,-272,-184,-173,69,-154,-634,-210,-160,40,-183,81,178,-261,273,-195,-311,-63,-11,-47,-52,-359,-277,1,-302,-130,-375,79,-25,-255,-136,-371,-232,-385,-215,-180,-65,-208,-224,-249,-238,-160,-299,401,-111,-22,-547,-235,249,-376,-323,-585,-65,146,-207,223,95,-35,-153,-33,-51,288,-105,-209,108,-254,-248,-51,172,80,234,-22,-61,-379,-237,67,-221,-175,-143,267,-28,-418,27,-323,184,-577,73,363,-242,60,-72,71,44,37,139,-295,-411,-44,-141,-67,208,-53,-412,-109,-297,-72,-193,-265,-449,-148,-550,-295,-333,-97,-134,85,-329,5,-364,-191,-32,-232,-374,91,24,111,-118,-58,-266,-34,-135,14,120,31,-160,-358,-211,-63,250,-196,-208,-57,-188,-14,-265,106,-123,-16,-105,-75,-372,-305,-250,190,-71,-224,-494,-9,-142,14,16,-604,-222,-38,122,-315,106,-324,-431,-482,-540,-169,173,-246,-48,-51,-197,-13,10,101,37,-422,40,-278,10,-304,-132,-29,-297,97,-27,142,-146,-113,-132,-236,240,-355,-262,149,-265,-270,98,82,-132,-264,-102,20,-328
,-70,94,-421,-129,138,-63,-161,26,-209,90,14,-195,53,-94,-167,-143,-174,-143,89,-220,78,58,42,19,-101,-239,26,-132,151,-381,-172,-136,-355,-428,219,102,82,-91,-327,-31,42,-264,28,-26,47,-119,189,46,-66,-75,78,123,-255,-10,-30,-132,98,13,-188,239,-443,-262,0,-42,347,-336,110,-196,-276,-131,-122,-127,-117,62,21,52,-570,79,196,79,82,-118,-257,-97,-391,-487,-108,-182,203,-298,-79,-43,162,28,247,-224,114,-153,324,314,-265,1,-93,-208,166,-27,70,-33,-560,92,4,-219,-74,-354,105,220,-160,-199,92,51,137,-365,40,-47,136,-320,76,-115,-201,7,-137,107,-276,156,170,-583,-120,145,-103,-421,116,-146,-191,-417,121,-187,-8,-150,239,34,141,147,-123,-125,-90,-127,35,86,-130,-549,-235,-212,-302,-573,207,-54,63,48,-365,-229,91,-78,153,-192,-227,-42,275,182,4,58,-66,-51,-124,-58,183,-182,-46,-135,-93,-189,-28,69,201,118,138,-250,-72,62,59,-9,-236,-169,-198,-484,-417,289,-260,-21,11,-201,-147,-128,262,174,181,-196,129,-60,-160,-161,-40,-86,-5,146,-68,-60,236,128,241,-40,-255,-477,-251,162,-85,-136,-329,-377,99,-203,-135,-45,76,-323,-50,-4,-10,-282,-230,238,48,238,-37,44,46,159
,-607,-429,111,-83,-30,-60,-117,-420,-103,32,-192,-64,-3,49,179,-328,-204,-278,-142,181,-25,63,-386,91,-90,177,-115,85,-221,166,-12,-103,-398,-704,-94,160,-178,-564,-230,-61,-169,-138,-80,-236,168,207,-143,-262,-128,-372,159,-176,-393,79,-77,61,35,-160,99,-42,-95,-47,-656,-174,-201,-47,-29,-347,-71,-407,122,-111,215,25,88,-43,103,90,7,-85,-501,-164,-85,-160,-5,157,147,376,183,-250,-265,40,-205,-273,-191,-94,-54,-310,-290,19,-355,-6,-237,-104,-17,-241,-124,111,-354,-162,57,-152,-266,113,-131,-178,-430,96,38,-355,-336,-385,8,223,356,-161,-226,-236,1,-173,-589,59,-467,14,21,120,-77,159,-231,-186,45,-168,-317,-305,-299,-297,-31,-34,-215,-103,-4,-213,167,-44,-207,-416,70,174,-59,-166,65,-220,-123,-90,-215,228,-242,192,-203,-358,-142,-287,-312,-273,-641,31,-531,-128,-327,100,-45,-1,-198,-358,-92,-464,-40,-379,8,520,252,-89,-157,-154,-133,-32,-243,-188,297,-234,0,-77,-409,272,53,15,7,-417,161,-481,28,-88,-155,75,-309,-41,-271,-262,-266,-41,-406,21,-420,-116,61,-208,209,-72,196,-439,232,-126,-266,-693,40,-350,26,-164,-211,-95,-315,90,-483,-158,-434,41,-482,-285,139,-277,223,52,145,-81,-129,112
,-102,347,150,-45,-474,-64,126,-101,-247,194,-10,-146,18,-331,-351,-1,-336,-890,-164,-383,-135,-107,-8,139,244,-27,0,-101,227,-274,-57,-68,-269,-159,-422,-209,-556,46,-387,-258,-116,98,18,0,-205,-475,-221,188,-101,-91,7,-663,-142,-119,273,-10,-213,-353,162,-223,-178,-182,-342,89,58,-462,-97,-1,143,-361,-483,-495,183,130,-118,163,-76,-71,-652,34,-618,-470,-269,-311,-313,-371,-550,-90,-241,-163,-72,-621,-353,18,-275,-320,-634,187,-2,22,-325,-255,-146,-46,256,259,-147,-370,169,-100,28,19,13,-91,-824,-112,-8,-198,71,171,-167,135,-30,186,-135,-118,-10,-205,-191,-55,231,-54,-2,-105,-657,7,28,-194,-123,-46,-148,-36,-168,126,-249,58,58,-387,-166,-30,-165,-390,-133,78,-74,-480,-123,-34,55,-13,27,-114,-126,-832,-85,-23,-476,-415,-74,-763,-274,-387,16,-356,75,218,-296,-270,-47,-9,-186,199,-223,-21,-454,45,-77,-336,-72,-193,243,179,-233,-343,292,186,82,96,-261,-236,-405,-440,-669,22,-40,-123,-109,22,-115,304,45,-11,-143,179,-248,-32,-87,-160,-30,-72,-141,-90,25,-769,153,-369,-155,-575,-274,-239,-645,170,-211,-215,-284,-1029,-134,-569,226,-146,99,-272,-445,-269,-71,108,280,-190,-378,-60,-294,-119,-227,-106,-141,-470
,12,252,3,-41,-287,-269,-216,-4,-293,-218,-231,70,-161,-140,-22,234,152,4,-410,-68,-155,-249,-327,-209,-104,25,51,-176,-75,-156,-208,36,-92,-78,-40,-70,-39,-105,-141,37,-174,-129,54,-19,20,-65,-211,131,-104,-192,1,-130,-105,-53,-97,-89,-331,93,-115,48,76,23,-195,97,-110,-363,-113,176,-157,-177,-322,-42,-121,-67,78,168,73,-282,-430,-6,-39,123,-80,-44,-195,-110,-47,-154,-112,-111,-116,-209,-148,16,12,-86,-132,-131,-78,79,56,-203,-142,-159,-340,55,-26,-131,-2,225,-46,-3,-163,41,-134,-69,-204,59,-85,33,-53,-130,15,25,-236,-113,-121,-194,71,12,51,-194,106,63,39,203,-74,-7,63,-129,-116,-203,-174,-78,-106,-6,81,-225,79,-174,-14,93,13,32,-230,-212,102,-139,-531,-104,228,54,-57,100,-55,151,-295,16,92,-74,-10,39,-151,2,-13,-114,20,-218,93,-98,31,-28,-283,-234,-152,9,-77,24,2,-77,5,-49,-106,-281,-144,72,-164,-234,-120,216,-127,46,-43,-106,159,-103,71,99,-130,-98,-9,-106,-78,20,-59,-166,-266,60,55,-149,-14,-100,-113,-198,-43,-173,-96,-175,-117,-130,-258,6,15,-118,-130,-109,-402,228,-95,70,21,-56,-132,-120,-38,-46,54,-94,-47,-151,-5,-1,-110,84,-25,-104
,-193,200,-521,-451,145,-389,-319,6,-212,64,91,-158,273,-134,-107,161,-256,-28,-428,-1024,-439,35,-51,-34,199,-43,-43,-19,-324,-392,12,140,12,-458,-113,-281,76,-544,-400,-270,-513,134,-7,88,107,236,-182,-237,-220,-149,-21,-372,8,-17,111,-284,-47,120,16,-242,-247,-212,-289,-343,-241,-157,-41,138,-612,298,-178,-272,-16,-4,354,17,-46,-23,-470,-93,-228,-365,-144,-310,-36,-500,-403,110,-128,-176,354,-72,162,73,349,-276,2,-62,-43,-591,-348,14,-158,-575,-65,184,-336,250,277,126,154,-133,-287,-109,53,-137,-503,135,194,-125,-56,120,-179,18,103,-227,64,60,-272,-185,-413,-458,-372,663,1,-136,-146,-19,-92,12,18,-316,-64,-286,-436,-157,-148,-142,-18,327,-80,-78,36,-146,-271,63,-70,-300,-99,-751,-137,-438,-34,-272,132,35,400,166,-367,-13,133,149,-182,-8,-396,-175,-132,-157,-55,-451,-256,-308,290,-102,374,-298,8,130,51,-47,-415,-169,-186,164,-52,-67,-206,-150,-146,30,-11,-372,11,11,-116,68,53,-219,-581,105,193,-27,-427,-458,-163,-36,-380,-33,-429,-4,-29,32,-240,-220,-108,-216,149,19,-391,-648,-180,-189,122,-125,-382,50,-302,223,-135,-144,155,-202,-395,124,-118,32,-253,88,-8,-242,-54,-113,-402,39,-453,-149
,-122,90,-138,83,69,180,-556,-195,368,-7,-353,29,-111,3,-8,-262,78,-107,-103,-17,-156,-111,69,140,-297,-493,-23,-38,56,-22,-25,-214,-146,132,-156,162,-183,-429,-77,-199,58,86,-63,-583,-65,190,-80,-687,-122,-165,-333,226,163,151,-100,-95,-579,-48,-94,-456,-80,-362,-237,-133,25,27,-90,-83,-65,191,149,404,-161,120,66,-596,10,20,-114,-174,-41,-62,147,290,326,-316,-209,-108,-306,109,381,63,-177,-89,-162,77,-277,116,-435,-955,-476,242,158,-206,-82,-240,-438,-621,145,108,309,-105,74,-326,158,108,-98,-180,100,-219,-137,27,-151,39,-495,0,-243,-269,-585,-125,4,-304,-282,-67,-337,-117,-207,130,-130,-109,-79,36,181,-53,28,39,46,-60,-71,34,133,-775,252,149,106,39,-114,-57,-310,-161,-411,63,-102,-192,-18,-60,134,25,-146,-447,306,-496,-150,-228,-122,84,-262,-209,126,183,-113,-91,-137,43,282,297,-261,-431,-63,7,-50,-65,-483,-80,-62,8,137,-133,-236,-604,-276,-26,-352,-91,-12,-150,118,-298,-108,-504,175,-38,-43,159,-140,-21,17,-186,-3,100,94,24,-361,-224,56,14,175,104,-137,82,61,37,11,-195,-88,-313,170,-268,-26,-337,-417,235,-49,22,142,253,-363,-42,-90,70,55,121,-403,-176,-543,267
,-360,-32,-335,260,-47,52,-215,242,200,-166,28,-152,-95,-31,9,132,-88,-144,-283,-99,-30,54,-291,-77,-8,-89,-20,19,-16,200,-69,183,64,38,10,-29,-80,76,187,-149,-56,-40,-75,22,209,58,26,-186,-389,-375,100,101,257,-115,522,86,129,183,-181,-33,136,190,-1,325,196,-119,-155,183,109,43,-200,156,84,-23,75,275,110,1,-143,-241,-122,-34,123,481,222,198,-180,20,163,-186,20,27,25,121,253,153,32,-92,177,-182,87,-12,66,114,80,-69,216,85,-64,207,-91,-70,-131,-208,-46,150,135,-94,50,62,-414,-47,130,-244,117,-150,306,-248,47,-15,257,-193,-77,106,-204,-130,210,-57,125,184,-63,86,-10,-11,9,-84,-181,82,-143,-105,166,256,172,137,-271,13,-83,-337,-8,-47,-142,-78,-307,420,89,33,-57,-417,-206,36,170,121,-100,299,-105,171,-126,-136,25,-108,-19,83,-39,-87,-83,66,-208,131,-82,-112,181,197,52,-83,-92,-281,22,-66,195,261,-39,266,19,-275,-24,-44,-151,213,-74,57,88,38,-89,241,-289,-122,282,192,-136,-122,-5,101,-11,-163,297,-68,-38,290,-25,-96,-235,-16,153,-179,-163,213,-189,8,-333,142,120,38,-183,-175,-106,282,-142,63,-40,-182,166,19,160,-68,-147,272
,-398,23,259,50,178,41,188,262,-7,-201,-173,-83,114,0,115,-83,165,-19,20,44,-132,-113,-118,-243,-75,280,56,142,141,66,47,-57,-50,26,-18,84,124,27,486,82,1,-12,115,126,-219,-207,50,-90,-112,-156,149,-281,-315,0,68,71,-123,53,-22,62,-400,-39,115,-399,270,199,-306,68,-247,-46,14,423,-95,125,135,-33,100,-116,-229,-151,-251,247,-209,-40,-114,439,4,31,-382,108,-70,-151,-142,-173,295,-100,-241,2,173,157,-209,20,-241,-47,-95,93,-7,-248,-183,182,-85,-4,39,188,80,-124,-170,120,-134,112,-184,69,109,99,-110,-88,-422,199,-154,130,-20,140,159,-125,-43,49,-185,-452,178,-63,-243,159,193,161,-5,-189,344,31,167,-165,242,190,121,-169,-71,202,5,12,10,69,-145,131,-160,398,66,99,6,-350,134,74,-221,-188,-86,254,77,100,-254,79,11,-205,-29,32,20,-352,121,-231,-172,52,23,101,-20,5,145,52,-125,60,97,194,-141,-115,194,304,89,-252,-17,-78,8,-176,49,-23,36,240,-104,50,-122,-6,163,15,145,158,-39,-52,161,-455,49,31,116,-232,-31,58,107,-107,-154,-189,93,50,72,-75,52,3,-57,-64,-200,188,-3,-244,135,61,170,-66,-269,36,243,314,-320,-272
,-183,-105,-239,-89,-13,74,-119,-296,-145,-154,-649,-62,-511,27,53,-274,-42,-77,-100,-33,-43,1,-249,-292,-260,-97,-32,-7,-453,-11,-122,-202,-48,-436,17,-94,-8,-76,48,19,22,-76,34,-2,32,-188,198,-213,-454,-126,160,-728,-237,-150,-500,-198,5,70,-408,157,38,54,291,197,-148,19,-144,235,-166,-175,53,-419,-313,-278,-74,111,-36,44,171,-24,-89,-366,-501,-200,-40,-59,-185,202,-93,-149,185,9,-299,-341,-342,-58,-83,-478,-317,-672,-430,-177,-311,-205,-23,-125,-28,-2,-210,115,-262,83,-168,-35,-204,-237,-60,-116,-227,-29,78,-24,75,-104,-259,-301,-539,274,-32,-42,-567,18,-397,-458,-451,-267,5,-494,-46,27,-43,-309,-175,-198,-30,-6,24,-108,82,-171,-136,82,-276,-454,-181,-218,-199,-284,-139,-190,-128,-15,220,78,15,-95,-230,183,-37,-172,118,-75,-222,189,-69,0,-142,-189,172,211,-79,-341,245,83,94,-406,18,251,58,255,-171,-124,182,150,25,-122,-48,-155,33,380,184,-330,-145,417,-179,209,-40,-351,-297,-98,-425,-261,-274,25,-116,-555,-171,-225,141,-65,150,1,-198,-318,-116,-148,-490,-8,-105,-7,-8,-376,67,86,-267,398,-403,-26,-306,-135,54,122,-70,394,80,-10,-241,129,-48,-255,-72,-9,-21,154,73,-350
,59,-53,-47,-128,-99,-84,-2,11,-145,-7,-3,77,55,-2,-75,-49,-170,-111,-61,0,-8,34,-20,-142,-140,36,-31,-3,47,-1,-8,-150,-161,13,34,18,-54,72,-113,-33,-128,-22,-64,24,-80,-115,-72,94,-88,-77,-114,-26,-67,17,-86,-24,-14,-95,52,-20,70,16,101,-106,47,-13,-72,11,-63,13,-24,-46,-38,18,-95,89,-41,-139,-45,-58,-56,30,-139,63,-94,-39,56,-65,57,-134,-46,-64,-121,-7,-1,-132,-146,-107,38,-47,-50,-56,85,14,-165,7,69,114,-129,75,47,-15,-75,39,-58,31,-113,66,-39,-7,-98,135,-31,9,-101,-29,-54,-90,53,-22,17,-119,6,-105,-14,0,31,-134,-17,7,-99,6,61,-104,-87,93,-12,-150,64,28,-64,-38,-33,79,-1,-90,-5,-74,-146,29,-162,-65,-69,-67,186,31,58,-63,-62,35,-137,-71,-18,-73,-133,-78,-93,-38,-121,-44,29,-110,-29,-68,47,-142,-119,179,-75,-93,7,2,-45,-60,-67,43,-128,-140,1,-105,4,-124,-16,51,-22,10,44,-107,8,-85,-113,73,70,-80,15,-26,82,-89,1,-177,-68,44,-35,7,82,-66,-37,54,-108,-38,-117,-165,52,-84,-89,-66,-38,94,25,-7,45,44,84,-69,-106,9,-114,-106,0,0,-37,-15,-8,106,19,-61
,46,-35,23,-28,152,28,71,19,-337,21,-82,180,182,-111,-6,-79,292,161,-70,-321,1,-31,-107,128,41,184,-22,86,-114,-110,100,-104,67,191,224,4,160,-52,110,172,173,2,-55,-169,143,162,346,-95,186,-156,198,241,-340,82,392,-79,242,-91,205,205,-64,-14,192,251,73,9,2,-83,78,-74,-283,-47,55,-30,-133,95,-155,-217,-59,48,-64,-287,-48,-180,-127,-55,278,110,99,-80,33,170,-142,-323,-16,185,226,-43,-48,95,-159,0,112,-115,94,75,125,-74,-95,-72,-67,-73,95,-211,-443,-68,-102,-133,-130,-12,25,107,410,-64,-105,-68,93,223,-30,-56,-281,20,117,88,46,-152,106,-602,-125,87,-170,157,-77,141,-7,42,-69,-99,18,30,-98,29,-131,-352,-79,-68,19,55,-47,-332,34,-66,-231,421,267,72,114,-499,38,13,-253,124,-79,-97,-242,65,96,-174,214,-70,-16,-93,-15,-56,-22,-7,-45,90,-71,35,-66,-251,219,16,50,-108,-300,-247,-284,153,184,-82,414,-209,116,-275,154,-491,307,-162,-19,-204,-460,262,-313,-242,-181,-215,182,-263,-14,49,-97,30,-114,-10,-110,-520,-390,-85,-79,-102,-271,92,90,-218,56,41,207,-163,-69,134,147,96,-51,269,-26,-30,76,-180,-238,-53,-82,-268,10,96
,-52,203,248,543,209,-69,116,74,189,33,223,-80,-184,-116,-127,68,131,-190,-15,-150,101,202,-176,-119,135,163,-56,-31,121,-83,99,17,-3,-170,95,109,22,-38,-229,-233,-32,110,151,5,-70,-79,-217,-22,-31,5,-117,-109,-20,-185,-196,-54,-40,-403,67,-131,363,155,105,-46,79,-148,88,-27,-190,-55,130,110,97,-50,-205,-63,-188,222,-75,136,3,-26,105,-178,-214,-83,-63,-84,-190,-161,17,62,-72,74,-325,-63,-98,151,233,-391,-69,-283,-21,-43,-5,-105,17,51,-432,1,-76,-165,-210,-38,172,24,165,-221,19,4,-130,77,-159,41,-314,13,-154,-186,92,-46,-80,-88,-39,-173,173,-48,-17,-219,-239,-193,20,91,88,195,-37,186,-230,110,197,-155,-144,8,-58,208,140,-254,61,5,-37,-53,-258,-38,-97,61,-309,-69,52,-117,43,-45,-309,145,146,129,41,-183,2,77,-27,-298,286,153,97,-166,130,-157,-127,-152,41,-51,-212,-49,109,71,-208,-267,102,-21,79,-85,77,17,48,24,163,-190,-17,166,-366,-193,113,42,-71,-171,-89,-47,-144,-49,-109,-28,160,-83,1,98,-7,-39,-59,22,44,-138,-80,212,-63,113,-127,-37,38,-28,111,120,183,31,-52,189,-139,-196,35,91,110,-203,161,340,-78,-68,19,41
,-206,-155,-14,-205,64,66,-262,-80,-22,253,-93,150,72,-213,-300,-294,-232,201,-48,-54,115,-306,-158,-296,-68,-187,117,-38,71,-360,200,-287,149,-71,-235,-90,-27,-176,-53,-362,-145,-15,76,87,-49,148,-19,-382,-198,-142,54,-17,341,191,-283,77,-53,50,84,-555,-69,100,-125,-340,28,-132,241,126,-319,270,184,-186,19,-257,181,-181,-117,-151,-24,49,-254,-384,-68,143,-343,-237,-34,-53,-304,-140,-43,125,-619,-286,-174,81,-125,203,-210,-463,-151,-210,62,117,64,-121,39,-216,-41,-116,11,-146,68,-43,-160,-16,-194,-94,-91,-86,-246,-77,-73,149,87,176,-128,-377,222,-283,-115,-48,-385,-46,60,-21,-14,-27,-350,-177,-38,-291,-213,-63,-96,-294,-113,-8,-107,-366,-209,73,-3,38,161,40,34,-463,-569,-405,-12,-112,-127,29,-7,-85,38,20,-210,32,-171,-39,184,-35,-259,31,-360,-14,101,242,16,125,116,-43,-145,-38,-255,76,53,-41,201,-139,-41,31,255,-508,-544,-73,2,-223,-74,-241,-227,-269,-257,-223,269,-160,-125,-77,93,-206,131,240,-104,-363,-143,-216,159,-142,178,-108,-219,-22,-137,-34,32,41,46,-8,-103,167,63,23,-114,83,134,-163,-85,-167,-214,41,88,30,79,-96,-171,-431,4,-170,191,-27,-389,-124,-122,-486
,-184,-109,-274,-88,-81,201,-91,-29,-154,-76,-115,67,-98,-315,85,-119,-75,-291,-217,21,-264,-86,-215,4,121,-38,-41,-154,20,30,-325,-41,69,-60,-101,20,-42,-182,103,270,238,-270,-145,120,-31,-60,-189,78,-14,-95,111,9,-120,-110,-43,-144,71,-74,-31,17,-78,-45,106,-13,-26,-2,-20,57,-167,125,94,219,36,-40,-45,-31,88,-24,-76,-200,56,-187,-237,-77,238,-159,24,-118,1,84,117,-239,24,-9,-120,117,-47,16,80,182,-58,31,60,-45,6,66,243,41,-10,-301,-193,-5,-62,-90,-3,-32,-19,-323,12,-100,-48,102,-118,-111,-26,178,69,66,36,-184,137,-135,164,-69,39,-40,-32,-1,87,-22,155,44,-146,-75,-217,60,9,-24,-6,46,49,-126,80,-49,-187,229,-157,-113,-167,-45,-124,-86,-73,10,-58,101,19,-119,-61,-27,-269,-74,-157,-38,-17,-13,14,133,-148,-44,-27,10,-68,-58,-125,-183,-218,203,87,132,103,-33,82,13,4,46,111,17,-136,16,-124,-30,-78,-10,-91,58,-59,65,-117,-28,-5,71,-71,-90,28,-2,-22,177,-32,-32,-223,22,107,105,-23,-61,-48,2,-228,91,69,27,-49,-88,-201,-67,-10,-77,-3,86,-24,-177,-155,-113,104,107,-46,285,14,-62,43,296,-15,-229,41,-14
,-367,-139,-114,138,28,-43,-136,-135,-117,-403,-413,-239,-101,-185,-90,242,-94,-91,-21,35,26,-199,6,-932,-348,-12,-91,-3,21,-94,-335,-88,-154,-155,-68,-700,-88,-129,-24,-83,-176,-212,103,-164,87,-365,47,-62,-139,-495,-296,131,242,-248,61,-181,0,318,-347,80,-434,-9,-153,-187,98,-320,34,-10,-79,-56,-40,-31,-1,-127,-131,-64,-79,-417,-333,-17,-68,-132,-127,30,-114,18,-16,-263,-375,51,101,-586,-182,-363,-65,-104,-282,3,51,111,-175,-102,95,-13,-4,35,-139,161,-106,-535,-33,-65,128,-40,-304,-45,-17,-593,-285,-47,-41,-6,-37,88,-102,-235,35,31,4,-51,-267,180,6,45,-111,49,89,-220,157,33,66,-120,-35,-36,11,-115,-98,-323,-23,66,72,-13,49,-227,-335,-154,-98,-223,-198,63,24,19,57,35,-26,-158,-387,-33,-203,-107,-131,-95,149,1,-891,-140,-223,-91,-22,83,-63,-354,-277,83,-131,202,-102,-75,9,95,61,62,292,50,93,-296,146,0,56,20,-16,-191,-170,-179,-44,-66,-350,-180,26,-365,266,-214,-219,-40,-185,-119,-386,-319,-98,-150,-32,-27,50,-287,-106,-117,-48,-59,115,13,-220,225,-21,-471,-143,-154,-19,-70,-111,-412,-94,-465,-304,-104,-33,-16,46,-82,-212,105,-199,38,-84,34,217,-83
,-154,89,-373,56,-276,39,149,73,-148,21,4,-231,-66,22,-454,382,-299,6,-103,30,-11,-58,62,-22,170,52,-56,-143,43,-124,-320,-179,35,-113,48,-193,-87,-120,-106,42,124,-162,24,-40,-99,330,56,19,-29,-201,-210,-16,37,172,-356,82,297,-21,87,1,197,-66,150,31,230,-439,-363,-91,36,212,-225,-272,241,136,29,41,-32,41,-199,322,-25,-274,-174,-274,122,256,203,-517,-16,435,-190,-225,10,-90,86,157,-98,27,36,-441,260,32,-153,283,40,138,14,50,-191,-21,-316,-19,35,-100,-14,-23,209,-107,-109,35,-175,280,112,-54,-87,8,-123,131,-62,-278,86,49,283,-404,120,33,-402,-6,78,-82,-54,75,-84,-244,-136,141,-134,-110,147,-94,-15,-12,-377,-2,121,-30,37,-243,-62,-155,504,142,-32,154,61,-67,-343,-123,98,-29,-109,15,-113,20,-9,-64,-133,-414,-378,185,97,1,49,-254,-1,191,2,-196,103,342,-354,185,37,3,-65,154,155,40,53,7,49,60,-137,-160,45,-161,-244,-53,147,-8,71,269,213,125,71,76,-88,-79,-83,-24,-24,-66,58,121,-40,174,145,84,-444,-235,180,227,-35,-139,125,152,-107,216,53,-368,-4,-234,172,-202,-18,-289,69,-149,-54,177,-142,285,33,11,-102,113
,-25,52,-33,-261,-80,-53,-224,-27,-203,95,-307,64,-13,17,-6,-169,12,-134,-415,11,-63,-292,-254,-134,5,-18,84,-48,-40,-115,51,-221,-226,-141,-273,-22,24,-171,-2,-6,-155,-219,36,198,-121,-67,-205,-159,-86,-328,-222,-331,-185,-126,-48,-38,89,-187,199,-42,35,20,-364,-327,-6,-146,140,268,-73,-251,-106,9,-122,49,-7,-253,83,-121,-114,-19,-102,-116,-7,-14,-52,-65,-31,47,-84,-100,-40,-248,-21,98,-198,1,-161,-142,45,-16,-90,-131,-162,-48,-58,-174,-170,-242,388,-104,-181,-228,10,-50,30,-77,-41,-43,-363,119,-117,-113,46,43,25,-192,-70,23,-64,-40,-95,-139,34,-107,-125,0,-21,24,-280,89,-66,-203,-200,-192,-120,13,39,-146,61,-107,35,44,49,105,-120,-202,-8,25,-429,92,-61,-10,-150,45,-57,104,35,74,23,-173,-9,-33,-212,-99,-243,-184,-373,-179,182,-47,-103,217,166,-111,-73,-141,-379,-74,66,-54,250,10,45,-250,101,174,-105,-67,35,-295,44,-92,-16,-213,-67,56,82,-23,-87,-192,-9,-141,-170,-176,11,-114,-291,-97,-96,-59,-212,105,-1,3,90,-209,8,-195,-230,-320,-6,-37,-251,-122,-209,-341,-175,-63,-21,50,84,-84,-26,-36,-190,28,125,-150,56,-195,-237,-192,-49,-21,-461,-124
,58,-42,-298,-50,-210,83,116,-136,-226,85,-13,-70,-157,-36,-442,-219,-179,-97,-94,-83,54,-1,-17,-63,-167,-180,61,51,14,-205,-87,-97,100,74,110,-145,128,29,43,-78,-14,133,210,21,-387,87,-103,286,-642,19,323,-104,-5,-363,4,-85,-422,255,-272,49,-518,36,169,-300,463,-293,-99,168,49,-367,-165,23,-75,-50,88,307,372,-507,-254,-243,-361,-409,-392,-444,14,108,104,101,193,-354,98,-91,6,85,312,-55,-135,-102,150,89,-317,-81,-87,-89,-11,-275,96,-96,136,-196,-261,-67,91,206,-461,42,127,8,-16,165,121,-148,-329,-200,292,137,220,-6,-250,-116,19,-46,-73,215,-187,-21,32,243,-115,-124,494,184,-93,90,130,196,-130,92,198,87,-1,245,-341,44,-176,-302,-30,-360,-45,-8,-107,-195,-147,140,220,-83,187,137,90,-44,147,484,-49,-107,-364,106,-447,263,-36,71,212,-219,-147,-28,481,-99,-141,120,-97,35,161,-237,46,-229,75,34,37,113,-139,-356,-424,-130,-156,-35,186,444,51,-317,26,-297,33,-86,-470,-41,-104,-74,-41,229,-72,-45,-18,54,-114,-170,57,-206,-378,-204,-139,37,51,-368,124,-126,91,-269,46,294,63,83,309,-35,-257,155,-10,105,-96,288,98,-254,-173,248,-44,220,24,-167
,9,-102,-156,39,40,-118,-281,-85,178,23,13,-174,7,-95,0,-10,-79,-41,-82,26,-114,-225,50,-6,-132,-277,16,-34,-152,-19,-111,0,-26,3,-68,52,-81,91,-88,66,51,-203,40,-202,140,126,-107,-82,-44,31,192,-126,-79,101,-198,-44,-23,-314,38,-203,-69,-99,-111,197,-177,5,-16,144,3,-40,136,-264,35,-41,75,-97,-103,55,-47,-182,23,142,-62,-246,-45,6,-58,59,-178,-218,-8,111,-49,104,-70,180,51,-89,129,-140,-244,119,-242,-4,106,-139,-96,-53,82,72,-188,178,48,-79,40,27,-92,12,-98,50,-96,83,24,-12,-41,69,-293,-52,-366,-274,7,-84,219,-345,-46,-58,-227,221,33,68,-248,100,-139,88,139,55,-243,90,-240,-79,-54,116,-125,-147,-92,-194,52,-88,-73,49,61,-79,-89,60,-94,32,-67,32,5,128,-133,-87,-9,-64,-195,110,-34,57,83,44,-162,-84,-330,50,-397,11,29,37,-8,29,61,29,-228,141,-94,201,124,-21,-48,-155,-69,67,188,-46,96,-86,-96,-40,-70,-264,-59,77,-67,-25,-95,9,-18,71,197,-3,-97,-21,111,-36,84,68,116,-2,269,-132,-16,-10,72,-60,102,-97,-123,-119,108,-109,65,55,15,119,9,-286,-83,-148,10,-52,27,208,-52,89,53,-48
,-29,17,-277,155,107,34,-132,-72,-132,153,32,-306,-74,-89,-235,-488,-86,-100,79,-74,-76,-375,-256,65,42,-156,18,-11,-375,-122,-123,-110,87,-231,82,-106,238,-269,-241,-245,-261,-446,141,-590,-108,-230,-184,-683,-25,6,284,-59,-49,-82,-121,-128,-221,-37,-79,7,-367,-29,-146,-215,173,-73,-35,-177,-472,-57,-38,-54,-287,31,58,1,153,-40,16,-282,54,-163,160,283,144,-85,248,30,-231,22,-369,-127,57,-247,-24,-41,36,-261,-358,-240,-366,-98,-193,140,34,48,-43,-278,146,-22,-47,-306,-355,-159,-196,196,36,-102,-224,-54,-162,-230,-237,119,-388,-18,-391,-24,24,-88,-114,354,-202,-81,-201,335,-202,-211,-74,49,-82,-136,-281,114,38,-114,-204,-66,24,245,247,-206,244,279,-92,-94,-21,-101,-264,230,44,43,50,10,192,-120,-469,-70,-384,-175,12,259,90,266,-30,275,-265,94,-218,-372,47,-452,301,89,-592,133,52,536,-30,179,46,147,-241,132,-328,-257,31,-53,243,-143,-56,-127,-49,-49,-68,112,-511,103,152,-453,-286,-158,-71,73,68,-193,-491,-138,-57,-68,-46,76,-181,125,-75,200,172,-421,-193,2,104,144,-237,-25,-248,31,-182,-136,-31,-210,-107,-65,-69,-326,-111,-282,47,-436,-33,-85,228,79,65,22,-7,-439
,-28,-144,70,-377,154,101,-157,59,59,-116,205,238,-111,43,-139,85,115,240,-175,48,-166,-203,-122,-8,102,250,89,57,82,-163,-274,-269,-50,-287,-65,-128,12,-57,-139,-177,23,-83,-68,66,83,13,-252,2,-222,85,-20,167,33,81,178,130,42,17,15,90,-228,176,-13,43,141,-155,-16,142,295,5,-18,19,-189,14,97,-103,222,47,281,214,60,-1,189,-36,109,68,153,-304,-12,199,77,-102,131,-88,229,29,188,-119,-88,280,-117,-28,-143,95,-142,206,117,-363,-171,148,322,11,149,-4,-141,295,-26,-25,2,172,-122,61,-138,4,-389,16,5,160,394,-4,85,-54,382,341,-135,269,-135,-32,162,112,364,-292,-7,274,-206,366,-60,-41,1,-272,-52,-90,93,41,-221,-6,59,-21,-111,18,112,213,-50,-71,76,-206,-43,100,-258,343,143,120,-79,-11,71,94,-30,260,113,13,-152,-258,-280,-178,134,172,-20,-380,-4,-61,-59,-154,210,-45,-192,-178,148,94,309,63,187,-43,-70,141,95,-89,225,1,26,-214,25,57,-32,4,48,-122,-79,85,77,-43,-132,54,-98,-74,105,47,-1,205,59,54,109,-23,40,108,-78,-59,96,109,-41,280,-139,-48,64,10,-23,94,167,-42,-182,288,46,-238,-11,-150,-169,286
,-87,-88,-30,1,116,1,32,56,-11,41,-82,105,-40,-88,14,-53,-120,-85,-171,24,-147,-101,-8,-157,-14,34,73,-1,-74,-58,-70,-112,69,-99,-14,-46,-77,-29,-68,54,74,10,56,104,18,-79,31,-26,23,-36,-98,121,-52,-42,-43,-86,77,-29,-134,-8,131,17,98,-58,-108,-161,-35,63,-103,110,-62,26,-17,-92,138,-30,28,-110,24,-89,74,-12,44,-42,-93,30,-121,-69,-3,27,-121,-23,-44,-47,-18,-31,-114,-106,-5,37,21,61,19,-2,-125,10,-75,-170,107,-5,-79,-25,-15,-42,-133,-48,83,-40,-85,-111,-5,15,-35,-124,16,73,140,40,15,13,-31,-6,-96,-77,-28,-40,-18,57,-67,-123,36,-111,-96,-75,-64,0,7,7,11,-22,-30,-19,69,-21,-72,-66,-110,-29,-101,-71,95,-7,34,-5,-26,18,46,-98,57,4,26,-13,2,63,-104,-32,-45,-106,-152,-52,121,-128,44,-29,-46,-15,-133,-19,69,-3,-86,-30,57,2,7,-15,-121,-32,-143,-6,98,66,65,-90,79,84,-70,33,73,12,-10,-32,-14,-42,63,-113,-3,26,-44,54,-68,-63,32,72,80,-23,17,3,-97,23,-2,-58,2,-126,14,29,-97,-61,-39,66,-66,-87,-138,-82,80,56,36,-15,-102,-88,-106,27,-144,-8,-47,-49
,41,-122,190,-99,179,-144,-28,-17,63,-91,-114,49,125,5,112,76,83,-204,-198,173,196,-117,17,78,23,156,-96,-111,-197,-114,112,4,-134,-47,181,-12,39,-229,353,-70,-11,2,-104,129,125,-202,-178,146,94,102,65,85,-421,136,-17,27,113,40,-48,88,103,90,191,203,193,18,-63,-181,-123,-195,80,-232,-45,-115,-98,-112,-530,90,-92,-294,-219,-194,-193,13,-79,-285,70,-210,183,139,-30,-275,16,-370,310,-9,-120,-224,-16,41,135,302,14,-235,-57,182,286,-161,186,-171,-3,127,-2,62,40,-46,-114,-84,-100,28,-2,-11,98,29,29,-29,-183,142,14,69,100,297,103,111,-31,-151,246,-330,-16,275,-210,16,7,-28,117,102,-1,-301,20,133,-50,15,-37,-205,165,85,249,30,-437,-165,374,-198,-143,301,-3,4,38,-87,-24,129,12,-50,26,-55,-75,208,-36,-77,12,-63,-198,160,-152,-167,194,-242,-109,302,13,-59,10,-176,61,-61,-133,37,98,109,-118,-23,33,-100,-242,127,-28,24,69,54,192,203,-208,28,147,19,-67,-187,64,60,115,-26,-276,-9,134,-264,-260,93,127,70,179,18,-201,36,174,104,-58,-238,-107,129,-193,10,-156,-190,112,-73,-156,-25,-236,-69,32,-252,-248,121,-312,-28,159,-451
,-14,-122,46,234,24,122,-77,-54,-38,-22,-249,-412,-117,49,111,262,-287,206,-170,-233,-92,99,-291,-156,189,45,7,-121,32,39,17,117,-258,-286,-162,-145,137,-337,-109,-125,125,49,-336,-159,17,-4,-104,-14,-304,-235,200,-272,100,44,107,52,-19,126,-41,-57,316,46,210,102,130,43,214,-101,82,41,263,97,-185,213,-115,-290,66,187,212,112,118,74,151,229,-59,-109,105,-86,-28,142,35,-140,-124,92,191,-21,-178,-98,-101,250,-119,-98,133,24,-333,-140,174,-10,19,77,139,-210,65,108,115,12,-104,-261,-80,-90,-252,-223,379,-237,23,-100,86,-96,227,280,96,12,-69,268,35,92,-23,193,15,-11,-22,30,96,84,-130,137,-68,-273,41,186,-245,210,-201,-62,-28,-2,-103,-169,-177,182,-107,-132,93,284,180,-176,136,26,256,313,155,102,-219,132,246,18,-284,91,-271,-8,96,134,0,-155,-41,166,2,245,-105,28,126,399,120,-105,-8,-226,211,-15,147,188,183,114,-260,226,-21,2,-177,33,-138,258,-38,180,-138,-125,163,-36,135,-17,-31,29,128,-73,192,42,75,160,145,-122,174,-192,-249,-437,70,-18,-107,-84,-32,-70,-63,16,-89,82,65,197,-45,-144,-89,-98,35,165,-106,153,-73,12,100,266
,-4,-112,-47,-235,230,61,-42,-98,-250,-190,-47,7,43,107,39,-210,38,26,-133,-50,-200,-198,-22,-57,124,117,-86,87,-304,-9,290,-65,77,-114,137,-41,-33,-11,0,-377,-153,50,-34,-98,16,-192,97,-56,26,-131,-56,-81,-189,23,-85,-36,296,-94,-131,168,-176,-123,-2,5,-136,42,-4,-215,-146,-315,113,-96,66,93,-16,-23,-145,-17,65,120,-137,72,-138,36,-139,80,-47,-182,30,297,-61,43,-5,-328,33,-44,-90,-220,260,359,-107,87,42,-51,-71,107,220,23,-310,-5,418,-84,-318,-65,-65,-308,-111,-148,34,-79,-110,-37,30,-135,39,-149,-33,-41,-17,81,-139,222,5,249,-104,-26,18,72,-30,153,-412,50,-167,-127,-204,87,-21,-51,-19,34,-10,340,-376,87,-92,-49,-92,107,11,-107,-281,-192,0,-249,-97,-2,168,35,199,300,215,160,-117,54,16,-25,-104,-169,8,-46,-47,-502,-167,-208,22,153,-41,102,-74,-194,4,49,-60,-112,-95,-72,71,115,220,-265,-248,48,-24,-101,15,-83,-129,-106,133,117,-18,-80,2,19,166,-100,-84,-69,-71,-58,75,6,50,189,115,-124,90,-173,-19,52,-111,-41,-65,73,58,-172,18,-153,85,106,-204,89,153,-125,-356,9,56,100,-89,-4,-55,-297,215,-40,34,289
,-221,121,146,5,29,-13,78,-26,128,-109,-132,29,36,-62,-203,235,64,88,-397,186,-99,-2,-379,-294,-46,-17,-142,53,-150,158,84,-183,79,-55,72,265,347,-168,-53,-74,123,111,-53,44,130,-205,-36,-41,153,-241,78,-43,-20,48,112,123,-254,56,-8,-71,154,167,-55,224,-102,10,318,64,90,4,-113,294,-120,-271,31,-6,-49,176,-152,-172,-94,230,9,269,43,-399,-10,19,-122,474,-217,31,-218,27,-136,-32,-217,-15,-16,-335,-4,101,143,-42,-17,95,80,-46,-15,-7,-1,-152,-221,-143,-249,-68,-231,-24,-99,114,-113,157,-9,101,201,68,-143,303,127,-74,264,166,107,111,-116,19,29,235,-96,-208,181,-80,300,15,-119,-257,28,-225,22,-170,206,20,318,-13,-224,134,50,25,-260,-285,412,25,-36,-269,-25,55,-27,-26,-296,-156,-100,-274,-222,-561,-108,-149,47,410,-18,-129,-87,156,-55,-336,-141,72,-290,-128,-57,68,148,-149,-447,-173,198,132,-132,184,-194,256,-139,-136,-163,98,-6,98,27,-11,85,269,-90,244,-12,27,-156,-63,74,-174,30,-89,-180,-56,-23,-234,-229,-165,100,-303,125,-3,-15,-332,332,-97,-339,154,121,57,-136,-319,32,21,-88,-56,206,274,-117,-161,201,-403,179,214,-232,-26,-240,-120
,-284,222,-126,456,-89,166,-250,-141,222,-200,-172,-87,109,-148,8,105,23,-84,-23,22,-3,210,-65,-109,17,-57,7,-234,61,-30,188,222,53,369,96,-193,49,-184,120,-222,-269,177,62,51,-191,-85,89,84,-98,-90,187,-83,88,-82,139,-8,220,203,-117,-97,133,93,-81,214,-98,32,-195,-220,-273,-107,-222,178,-28,66,86,285,-55,-5,478,407,4,85,-230,170,-135,31,58,55,51,84,165,190,54,-51,38,237,-204,-18,337,-21,279,29,-53,75,-92,-267,98,-8,-217,-13,-60,-216,-132,10,-34,-23,-203,-239,-147,84,-286,-81,193,131,362,-62,86,104,124,-158,102,-134,208,-14,-47,-76,17,-1,-38,-32,201,124,-24,8,-262,64,22,-184,14,20,-260,454,57,-42,-302,128,180,367,-235,-297,38,-179,95,-306,83,14,100,18,-284,237,-43,15,97,43,-77,-116,148,42,-156,54,90,69,-47,-244,-274,66,-238,-201,-94,71,-148,225,132,-89,-32,-107,-115,44,38,-116,164,-148,52,-389,-97,-25,2,111,-49,-233,-14,31,-27,87,-74,-131,-8,-190,60,-89,-59,88,244,184,67,-164,-341,-48,-282,-53,-102,-12,128,38,45,264,-225,-160,-2,158,314,-242,-271,53,-74,176,87,-4,-186,81,153,8,41,-24,-54,39
,73,-242,-616,-362,-365,54,-447,150,49,91,213,77,-389,81,-11,-202,-121,172,-201,-149,-39,-73,-202,-183,3,-186,-90,-49,125,-188,181,63,-264,-165,-121,-46,-8,229,-38,-157,-42,-103,-84,-37,-230,22,71,0,-229,-34,-137,-8,-127,-305,-41,139,43,-60,-369,351,239,-17,2,61,-320,-293,-13,300,-410,153,-208,-31,226,-318,154,-260,129,19,-35,-42,-5,-397,168,59,12,-82,-38,-211,90,-7,49,175,-13,-742,160,61,-12,-274,113,70,-147,114,-97,-521,-157,-164,255,-397,-331,-96,216,-108,-167,67,-125,-79,98,53,331,-156,170,-301,-347,203,92,282,196,-20,-160,68,100,-195,298,430,-231,-155,-21,138,-128,-528,-87,182,-62,-584,-23,310,5,-255,240,249,-310,-592,-331,-73,-218,307,138,48,23,108,171,43,141,-186,-199,83,41,-184,77,-348,220,-251,53,394,-115,-56,-135,159,-46,150,-140,-134,-18,-13,200,-179,-235,179,-36,-341,23,-242,-105,-220,143,28,119,-94,-279,-463,-141,23,59,-452,-341,-377,137,-116,-127,-327,170,185,216,-456,101,-145,-740,45,-128,197,-84,72,-315,123,52,-200,-117,305,43,-77,68,-91,286,-30,-170,83,-59,197,-39,-664,160,-344,-18,-82,-18,-275,-55,-80,219,211,53,70,-94,-14,-97,76
,116,-177,-132,79,-304,-469,-149,-283,-9,-168,183,109,48,-222,-15,258,-138,-49,-216,-18,68,-3,245,-73,-181,-65,43,113,-179,-356,-44,-250,-10,-347,-130,40,229,-56,-82,248,312,102,-370,76,81,151,286,-11,298,-67,-276,-32,76,-347,339,-268,139,-31,-29,-21,88,-66,-10,34,-121,-226,-29,-328,-221,58,-344,7,69,-284,12,-111,-263,-88,-172,133,-395,118,-203,-277,169,136,4,4,358,42,162,66,57,-331,-4,-15,85,-85,135,100,243,-151,-124,111,-260,-30,-252,-2,27,-71,215,44,-154,-298,148,-137,-276,60,219,-108,118,78,196,85,-52,215,124,177,-38,140,-201,33,13,170,-505,76,-38,56,-71,-24,98,-80,-160,-69,213,-257,27,7,-144,14,-226,88,-39,-146,191,-281,1,-41,-157,-113,217,27,79,107,-86,-35,52,29,-47,276,76,-15,-113,235,-335,-39,59,-229,-39,-14,-187,-282,25,-383,37,339,-97,303,25,238,158,36,76,211,48,-207,-98,-30,152,-185,229,-172,-245,3,-113,316,228,-200,155,-188,-68,-192,119,-229,-6,-44,177,-435,-109,-41,-206,-21,-52,-112,-53,-224,-118,101,-255,-218,-115,-133,-267,142,-83,62,31,-6,99,-110,180,273,320,1,-98,-77,46,147,-40,-42,-58,269,86,99,-222,323
,-67,80,-20,423,435,112,368,65,95,-35,-178,-79,216,-169,-130,77,-249,-36,-228,-188,-26,74,-73,-127,57,238,70,-224,-19,230,-46,143,13,-134,-174,52,-190,-190,-182,87,-21,-63,4,158,17,52,-241,359,-68,-75,88,125,-94,-403,-99,-78,40,286,-50,251,130,-78,-250,77,-116,-41,43,-268,16,39,111,-55,21,-258,-87,128,-399,21,124,98,75,8,263,435,90,-78,-5,-7,-32,234,211,89,130,-109,-77,152,-363,-21,96,233,173,-46,52,2,71,-44,-59,81,-103,-371,180,-38,-97,231,-195,141,-95,-38,212,-7,-204,-87,263,216,271,3,217,151,-73,-53,141,-273,245,176,326,156,-80,-128,-65,354,97,74,0,88,-188,333,-195,-375,226,43,-239,-146,-64,81,-269,-98,30,-180,-178,13,-79,47,-85,105,172,80,-106,-136,-188,55,114,178,79,256,-258,13,-194,214,-75,-111,-23,-184,-744,-122,-86,-107,-117,479,-28,183,84,384,57,-183,-63,-141,-124,152,154,441,223,-1,290,73,106,171,88,-175,191,53,-68,-125,190,62,38,65,-308,142,-204,-127,90,80,35,5,-37,-122,-67,235,87,38,9,-176,8,103,-368,60,-180,-109,94,120,-82,39,-250,94,-68,59,-461,-94,229,339,-15,-90,-42,-3,-76,262
,46,197,-86,-190,-49,-144,253,-89,-69,122,-56,22,227,191,208,37,2,-148,-136,224,-113,-267,-149,31,-58,213,-25,109,193,-175,21,-437,22,-201,-319,85,-260,-199,174,186,-82,123,-377,-119,79,-91,-25,-392,-233,-23,-44,-516,222,213,393,-19,-293,278,-101,30,-120,65,75,14,-317,-263,-67,9,-39,11,14,254,204,-232,-66,-249,268,141,-122,-334,-2,76,-674,-72,-267,-129,92,197,146,-3,-177,64,38,-136,142,-149,-190,-152,-71,-437,-67,-97,-569,134,-308,154,215,10,-218,-226,-7,-144,-69,16,-484,-72,15,-299,-46,132,-200,213,-254,-347,-254,-28,-256,320,105,-25,56,36,-143,-37,201,133,195,-212,97,267,308,-20,-161,261,22,-74,-7,-241,16,-76,-104,73,-75,-138,-224,20,-99,-160,-312,-52,-401,-50,-214,-359,-158,-144,62,71,267,-185,-666,-94,15,40,-12,-30,195,311,87,1,-207,185,-231,-266,-636,123,-136,-339,-17,116,-133,-289,-255,-105,226,104,-186,252,291,21,-127,-34,79,156,107,-194,-276,48,38,310,-63,-50,-235,-457,-68,51,270,-128,-9,122,-194,107,279,207,221,-88,-112,110,54,96,-104,-315,149,-280,-180,-393,-145,-492,-59,-3,92,-175,-223,215,-2,-266,89,-38,94,-154,-482,-347,39,17,54,-255
,-48,-139,7,-52,-10,75,-45,33,0,-97,-18,-46,-21,-4,-55,0,-116,-116,-214,1,-86,-93,-58,27,-31,110,-67,-14,-165,-97,-111,-61,18,-42,-96,118,-108,-184,24,-121,-6,-189,-22,-23,-165,21,-26,80,-56,-32,-155,29,-50,-78,-80,113,51,-111,-27,-63,-66,-14,81,-76,-60,-144,-108,-99,-97,-97,1,-198,29,-136,-8,-76,-170,-149,42,-92,-45,20,-60,-205,57,26,-34,-106,-103,-24,-33,-50,30,-86,-134,66,-81,-28,-127,-80,-20,-38,-139,-58,-9,-47,-68,-20,-161,-136,-100,-35,-54,-114,4,-48,-33,-130,61,-49,-38,-92,-29,-31,-76,57,5,-26,-34,15,-34,-27,47,-175,23,-24,-17,-200,-85,-88,-115,0,-54,1,-8,-69,68,30,-85,-127,-102,-64,36,-10,-68,-113,-90,-5,-32,34,-45,-50,-48,92,-172,-87,-80,-56,-96,-81,29,-69,-35,-44,-188,34,-44,18,-45,-107,14,11,-105,-187,123,-17,-51,91,-15,29,-119,-78,25,73,-63,42,-145,-139,-33,-13,-141,-34,-25,-14,-99,88,133,-133,-166,-15,-110,35,-5,105,-115,-51,-53,0,9,-85,-38,102,-95,1,38,-124,-172,-1,-89,22,25,-96,-133,-35,-19,-152,-28,-1,-11,-124,-151,-56,-70,161,45,-230,11,79,-50,-109,-128,72,-77,118,-78,56
,-143,-333,-204,-232,-298,-66,-66,-9,37,-4,-1,44,117,-174,-304,-71,116,260,-26,-92,-121,49,-303,-14,-84,72,88,239,-22,103,244,-26,-51,326,-38,-119,-60,173,232,79,239,25,-36,-74,0,-63,54,-191,241,75,-15,-284,-361,-80,-4,95,144,-186,-42,46,95,111,122,92,386,153,262,-164,109,110,-258,-337,-175,25,-30,32,-79,65,-149,-15,-166,-339,75,-46,-62,-233,33,-185,263,-47,74,-297,-98,-162,-236,-116,97,-286,410,260,279,220,64,-339,-222,170,-129,-61,-258,20,-29,9,-168,-325,105,-91,-201,-101,176,-156,-46,285,254,333,-105,-51,-260,132,-61,-25,173,103,373,-155,164,18,94,15,59,136,-68,140,-13,182,-292,143,82,-123,43,-83,-200,-71,-166,251,74,3,107,-89,-152,81,143,-64,-5,359,242,-21,-15,189,295,89,33,115,35,-333,-163,182,72,132,-17,-58,-159,43,70,71,153,-166,-70,-73,-87,-396,-44,13,-82,-252,-9,33,-517,15,-118,-274,102,-131,-164,144,-63,-39,152,-95,-309,-34,316,-23,-36,-27,-165,-180,-258,68,115,-58,496,18,85,310,-72,-161,109,-289,23,28,-5,31,84,-167,41,-350,155,-16,97,-86,-188,128,-1,-191,-234,78,-1,-112,-258,-128,165,258,-435,-159,3,-208
,41,-255,-251,-82,-440,-3,-180,77,-134,55,-32,149,-106,94,-46,-157,17,-485,-166,78,-28,-139,-142,8,222,-207,-97,-371,22,205,-272,-137,-69,-333,36,55,-203,-346,370,347,-273,-79,-179,-162,47,97,9,-675,-19,-161,35,-127,-239,82,268,-192,-389,-227,-387,34,-107,-39,238,-243,35,-170,-159,-160,-70,-105,-1,-133,323,17,67,-63,-64,-329,100,-391,-30,-123,-193,0,100,191,-149,-52,-142,-275,-337,178,-43,-104,-393,217,10,-55,-304,-267,-177,-82,-175,-145,34,-286,21,26,-70,-329,-429,268,101,-115,-308,49,-22,-642,60,-16,-449,166,-94,185,-369,-187,187,203,26,-138,-275,260,-174,18,-161,62,-299,-513,-148,174,7,123,55,-380,61,-294,-28,74,-136,-92,-95,-77,266,-79,-439,239,-64,115,-118,66,-205,-10,9,-374,-278,-229,-221,46,-66,-161,-272,511,-32,-15,-18,-207,-1,347,-92,-308,-21,-38,-77,-263,-229,-332,-191,-578,-4,45,-180,-442,80,-29,178,-121,-136,-92,265,-161,386,71,-4,253,255,21,-69,-136,46,32,-89,-183,-43,249,22,-81,128,352,100,-60,87,78,69,147,-282,172,27,22,84,9,23,87,157,214,-242,-174,-168,-107,-136,-394,-173,-376,148,-127,-126,282,145,-87,268,174,-223,77,89,-129,75,-126
,-147,18,6,-110,127,-82,-51,88,-229,77,-59,149,-187,-7,-180,-178,45,-110,-115,-186,202,-38,-320,-266,15,36,26,-211,-84,151,-49,-167,57,-116,-41,54,39,-231,111,-70,-46,-85,-147,33,-127,21,97,346,120,-110,95,161,120,-72,-141,-160,-16,341,-82,-15,19,80,-88,-87,85,54,72,-110,55,15,5,29,-48,-47,-80,177,212,-34,84,-76,89,-87,-183,119,131,64,-168,-17,-113,-41,142,-130,-56,-107,54,-132,-230,-11,-47,57,-83,19,-63,169,-109,-19,-1,100,-119,-10,52,31,-25,186,-82,293,-136,-99,67,29,-90,20,50,-10,-112,-78,37,93,-167,4,-136,129,24,191,51,-24,26,-39,73,-109,49,-30,-47,16,-120,305,187,10,-74,-40,58,59,-41,84,-248,67,-17,43,-34,-134,-111,121,-80,18,26,-14,91,-136,176,99,-84,-118,-243,98,-27,56,-154,-66,-13,-8,18,73,-105,-27,116,-46,-48,179,-96,352,7,58,119,-118,48,160,-68,33,185,0,-58,24,-259,-140,-89,-8,1,29,3,6,-123,-18,78,33,-220,-157,26,-56,63,-48,28,94,-53,135,-119,37,-42,83,233,89,-19,-270,-76,-18,-87,102,-8,103,-198,169,-21,30,-38,-210,8,22,-134,-119,65,14,-177,40,-29,-196,-95,-34
,-213,120,-101,-502,-111,113,-34,-212,-47,-946,36,105,87,-410,-108,-37,-257,-580,-1,33,121,225,-69,-234,-144,-29,9,72,-49,-451,-327,-183,9,148,141,-454,-356,-46,240,-197,168,-18,76,-521,-350,282,138,136,-743,-89,56,69,-479,149,-363,-304,-245,316,-79,-56,259,-630,-262,321,79,239,-189,159,164,-56,165,-176,-61,-448,-44,234,400,-25,-154,-553,-66,-436,-319,39,-195,-67,-577,-60,-132,-112,34,252,-93,-193,-116,-115,-359,-129,-145,24,-587,239,-189,-329,8,208,-70,333,-316,-256,-23,34,-567,128,215,-587,-104,6,281,39,26,-113,-225,-116,-274,50,-169,-23,-218,88,38,98,-98,-256,-103,-474,-175,-379,-496,25,81,-448,197,-394,-14,-55,183,-150,-134,66,57,-50,-141,-54,-54,-493,138,135,-82,-435,-102,155,88,-83,-7,73,286,218,-171,-55,-136,-152,-59,-28,56,-107,-20,-240,270,69,-238,-555,163,-3,-229,-235,-7,-581,-30,128,-134,-66,-289,202,-7,-45,-638,-257,-242,188,163,-77,-213,-355,-427,-148,-30,-449,-150,-97,-326,-343,-289,107,119,-22,-284,-50,252,-540,43,-49,87,-326,-384,-312,-901,-153,-470,-269,-32,205,-135,-26,-206,178,-355,-24,-415,-382,135,104,-173,-258,43,-31,-323,-406,-221,38,-100,-276,-32,-567,-32,-418
,-21,293,-186,254,-190,2,-110,4,-122,-221,-79,-123,-290,119,-368,-160,39,-229,-60,-174,0,-78,-185,44,-125,8,-89,64,-394,-43,-312,-9,-79,-202,-71,-131,16,131,-107,-117,81,-148,-6,-79,-192,-136,-215,62,-170,-174,-34,-11,-12,-278,32,-185,348,67,-167,70,-221,-107,148,-70,-220,-225,-62,-223,-5,-25,-59,-100,-99,-363,-34,-68,-56,-183,-171,-223,-43,-300,-91,-212,118,202,-75,11,-146,-116,75,-225,-226,241,-215,-32,-232,104,-243,32,176,-389,-87,-150,-102,-123,116,147,-1,138,-205,-164,-107,42,-154,-175,-49,-393,-63,-86,-392,82,68,61,18,54,-128,-93,-83,-163,-189,67,6,57,27,-6,-147,-95,-11,183,131,110,-159,-71,-214,61,63,45,45,-41,-193,-41,97,-91,-115,2,-350,-132,-195,217,-162,-245,-223,-16,-61,22,-157,73,-148,165,67,156,-203,-96,-1,106,28,-254,-149,-97,-14,178,-43,-100,13,27,-131,-80,-71,76,-60,-49,22,-285,-270,126,54,-144,3,-160,-485,210,-90,-40,-298,5,-128,-315,209,-114,-329,-210,292,-46,-120,-102,22,-9,-27,64,-53,-4,77,-355,31,-4,-104,-21,-17,305,-38,-48,-90,-325,-158,-72,-140,103,69,16,-130,-254,-186,-93,91,188,-181,-119,-348,74,186,292,31,-34,0,126
,-162,42,154,-211,-305,322,146,8,-37,199,-720,-75,-392,-157,-83,-53,-154,13,-197,-183,-130,295,-219,-189,-115,32,87,-238,-138,-39,-278,-396,-321,260,-540,-71,-128,-1149,-535,-134,123,-628,-333,29,1,-258,-244,-103,-5,-375,-272,-146,-224,-430,-13,-1,114,-168,3,-238,-269,-155,-668,-356,35,-622,-554,83,-523,-317,275,-157,76,-237,-25,-961,24,10,-36,-94,-264,-241,46,-42,-84,-127,-95,-322,-186,92,-227,-373,-356,15,-85,-107,-167,220,3,-42,44,72,-912,-267,131,-372,10,-906,73,-683,-197,61,-212,-19,-498,-115,-314,-326,175,38,-67,-439,2,-401,63,47,201,209,-47,42,3,-106,102,-79,-107,-57,-81,-52,-204,113,-67,-76,-264,50,-673,29,-105,-185,51,138,-182,-61,281,-36,156,-334,-68,-46,143,-198,37,-126,-292,47,12,-131,-568,-874,-121,-129,-127,-71,-117,-41,-29,-274,-479,-89,161,-174,-307,114,-222,-356,-444,-494,-132,175,-35,87,-191,82,-17,91,-158,186,-84,-233,18,138,-736,-284,23,-166,121,-190,-155,-221,-605,-43,-176,-410,-20,111,-61,171,-3,-180,-159,89,-427,17,-32,-202,-136,135,169,-610,105,83,-120,80,-563,-394,-83,-451,-13,-605,10,-154,23,-403,-705,3,-229,323,30,-246,-129,-232,-190,-259,-432,46,94,-126
,-107,107,12,-122,155,15,3,105,54,-136,76,-90,-192,-158,-25,53,-104,156,-244,-152,29,27,-44,-5,-23,-16,70,-14,-238,-220,41,-17,-50,-143,-100,-102,-53,-201,24,-40,-112,-363,9,-122,-168,138,-230,-451,-70,-170,-577,47,74,166,174,132,-172,-275,228,-90,113,121,-175,2,-144,-155,-118,88,-17,-624,-29,121,278,4,95,129,225,58,-95,-292,94,-64,-72,-91,-82,220,52,-273,146,282,-5,-125,110,-172,125,-52,-279,-73,-22,259,-233,181,-83,181,-10,57,-436,-134,-27,318,-246,20,178,-385,-216,106,-28,-506,26,-19,-164,-237,-118,118,-364,-428,-175,29,153,-19,-83,236,58,351,258,-67,-24,-329,19,-283,-110,-58,-157,31,-4,85,44,-104,-269,-27,33,-56,-914,275,-91,142,177,-382,-177,-5,-200,-245,85,230,-43,100,103,-62,-185,-413,347,-216,-20,309,-3,-2,-88,-426,-193,265,37,-91,-7,-345,206,13,-233,-72,74,-440,235,-79,248,7,-116,61,3,-18,-30,101,13,205,95,-19,-395,53,122,-30,-383,145,120,-301,-30,-333,22,-76,-42,11,-98,115,106,-72,-6,-23,-189,-13,-347,237,88,-5,-199,124,-214,87,10,278,-203,-363,19,-246,45,2,-140,-8,60,282,161,-204,167,-47,-115,-103,-100,-306,76,-295
,33,53,-20,50,-79,-176,138,60,129,203,-32,-118,51,5,67,-201,-127,-5,74,115,-23,9,-10,188,124,88,5,41,19,86,77,-274,-27,90,85,41,105,-102,48,-28,-26,-14,149,193,26,-18,34,-66,-53,49,-85,19,-457,79,144,67,97,-71,63,72,-231,-152,-104,235,-67,70,52,160,205,-71,-37,30,143,-50,27,38,130,47,2,-46,-57,200,34,51,-83,-71,-203,-26,116,5,-22,-252,10,101,13,160,-71,1,339,220,99,144,-11,-46,7,30,-87,116,-212,-67,-184,166,79,-359,-22,173,-231,163,-106,136,69,86,-90,-103,224,-114,-65,-16,-345,-46,40,-226,137,226,-22,-150,62,172,185,0,-148,-183,-90,26,-37,174,-190,-74,251,-30,-473,106,155,-383,12,-149,186,22,88,-9,162,10,-1,326,-67,43,33,35,-1,-152,-352,155,-78,-37,58,-103,4,-24,84,196,19,131,156,-133,-171,7,-125,-256,37,70,-40,78,-303,34,152,1,-184,-130,141,-18,-154,-143,-39,-228,-167,3,-190,177,-39,475,71,65,16,5,-128,-9,94,-231,124,-92,-11,71,96,-24,282,32,-90,-167,98,-169,-53,47,61,-22,211,-39,29,-54,99,71,-76,-13,-4,214,-44,-216,1,127,-326,-112,-66,44,30,-41,15,-75
,-138,-306,-199,-138,192,203,-145,-357,44,76,-175,-62,-222,281,82,-167,-172,211,-162,-78,78,-38,17,68,-154,-363,-75,-441,-385,169,-394,191,61,-4,65,88,183,128,-128,-67,-382,-4,-122,246,-307,-295,3,-312,-38,-213,-234,169,-509,275,109,-34,-261,16,-63,-62,-414,162,-156,368,-72,-7,-422,-295,-39,-432,2,-202,-113,-43,-89,-101,145,188,-408,49,130,-133,-124,-321,-422,49,236,-174,-372,-387,-324,48,-1,-58,-147,163,-193,22,251,378,265,99,-145,35,-222,-307,-150,-214,205,-6,377,-115,44,224,129,-101,224,-114,-51,60,-336,-42,-214,104,-76,-42,362,-15,193,-187,97,-267,135,-342,190,-203,62,-23,242,-220,-86,172,-85,94,-11,-181,-393,-314,-112,174,48,-243,-416,83,-37,114,-269,-122,-355,169,-156,-33,-85,-141,235,109,123,-5,-235,-8,16,-76,-187,-160,73,-168,-81,-655,-19,85,-114,-245,-134,-205,275,-77,11,234,72,191,54,-261,-204,-19,-61,9,-143,249,92,152,-514,-11,-130,74,-45,177,-242,-66,6,-345,-11,-66,-237,8,53,-51,161,337,239,-209,-234,1,-181,235,-135,51,-15,-272,68,-204,-130,-109,-609,18,-208,-4,-173,8,-56,-247,-272,-578,22,164,-117,122,-343,206,64,-317,-39,-232,-162,191,-104,121
,212,86,79,-148,-254,-150,131,-23,-159,100,-301,-161,70,-202,-374,154,-215,-128,-172,-117,-138,-399,183,-465,390,-48,-73,-127,99,-95,-118,-343,21,-33,-99,-132,-288,-463,-355,-365,-385,-89,-578,-206,-493,30,45,60,133,3,-111,-64,-159,196,-143,19,-29,205,-396,-82,-184,-29,-154,-302,-42,-250,81,54,-172,-77,-18,87,-156,-33,-113,69,107,-42,-161,-113,-284,133,56,125,-229,102,26,-287,122,-128,-85,-197,-193,45,-62,-46,-67,-56,76,67,-192,18,64,16,-269,-201,-40,-72,-334,-275,-340,-66,-119,-224,-307,104,157,59,-607,115,210,-212,93,167,-56,-119,-10,-573,351,-6,-62,-450,-202,85,-28,137,166,-339,-39,-379,2,-74,-475,8,-209,-104,-143,87,-179,61,-101,-25,-148,-512,76,-106,-420,-207,-133,46,-165,132,-99,-261,-163,-102,-49,-581,-92,-107,94,-287,-216,358,-80,-36,-450,-29,-250,189,12,242,284,-275,-213,-94,-50,168,-19,22,-125,-72,-271,-269,-89,-199,-95,-339,-94,220,-168,-144,53,-87,-267,-199,-28,22,33,-222,182,-45,-71,-272,91,-2,-210,-127,66,-110,-347,2,-323,-262,-47,-194,93,56,59,47,-304,-588,-93,-334,-239,-162,-71,253,-435,4,-113,-89,-10,-89,103,71,80,-411,-27,-132,-505,-200,-41,-300,249,-420
,-17,154,-783,107,-172,-423,-248,-53,-56,-640,-427,21,-231,260,-495,240,-303,-11,40,-214,-276,-394,30,-5,-232,47,44,-293,-87,-26,-40,-23,27,132,-42,-84,75,195,-25,-367,-553,-305,-319,-199,-22,-432,-159,36,65,82,39,-245,-27,16,-24,-115,-546,-141,-112,-393,-25,-163,-4,88,83,-67,-500,15,-16,68,106,-330,-187,-383,-41,35,-96,19,-114,-261,301,-158,-174,-285,158,-460,351,-504,-430,-115,-531,-250,-368,-207,6,-136,-261,184,-314,-84,-798,-141,10,-274,-298,-417,19,-82,78,-383,166,-505,126,-81,-390,-53,203,-486,-78,-248,-126,43,62,-506,26,170,-205,-505,-411,-132,-125,-315,45,-24,-80,-233,-73,245,-294,-164,-66,154,-159,-39,-143,-80,20,-124,-193,103,-498,522,-119,24,-154,-326,-371,-252,-209,-544,61,-26,-16,73,198,76,-49,-101,148,-55,-181,-360,-116,-47,-500,-58,-93,-49,-10,-273,-72,5,-101,-423,-228,36,-79,-441,-97,-48,214,-64,-55,-47,22,-366,207,-535,-85,-241,-295,-365,-386,-322,-676,-314,20,-412,-46,-185,-38,83,-657,46,-141,-423,-407,408,-285,-260,67,-71,6,-138,-22,20,120,-262,-559,-390,150,34,-170,-306,149,-41,-181,-94,75,-34,-357,18,-588,-190,-193,-299,-101,-629,102,-428,-885,321,77,-68,-117,-435
,-292,-664,-38,19,-29,3,-277,-334,-470,-231,-116,-247,171,-282,110,-136,-269,120,-97,23,-517,-165,-70,77,-13,109,4,-176,-137,89,160,-133,-175,-381,6,0,130,157,-62,195,304,-197,-331,304,-47,-209,-196,-151,-777,-210,54,31,-364,-24,20,-94,-524,-149,94,255,-252,11,-52,-1,-414,-29,-134,-189,-157,-13,-149,-386,-34,-100,-85,-707,-138,117,-100,364,300,-37,-20,-160,-67,-304,-41,-36,142,-115,-98,269,-132,162,-41,125,-431,-15,-433,40,30,-52,-22,-79,0,-398,-572,-173,-172,-3,-180,-154,61,-55,189,78,-449,157,260,33,-235,-141,-25,140,40,-110,122,82,-298,30,-347,-242,93,-60,-281,-151,-81,-90,-130,-1,-133,-370,-81,-57,-256,-149,209,-20,-158,175,-152,-112,-106,118,-476,57,-76,-253,-430,-250,20,269,66,-79,1,-153,180,107,-14,-1,-249,-31,18,-244,-14,-76,-196,-600,108,-599,-45,-172,-4,-264,-284,-31,91,454,-51,-90,-263,-218,259,-164,176,-146,-147,-34,-335,40,-269,-388,-164,12,-293,-447,86,-335,-183,-370,135,-208,126,-315,-110,-575,-243,-140,-41,-66,-9,69,-244,82,-234,116,-50,-192,116,-68,40,95,-44,120,204,-706,178,-98,-295,-121,-159,-233,-240,-329,-82,80,69,36,165,119,186,-2,-56,59,-88,62
,-318,258,124,-535,-411,-72,-177,-38,-145,282,-256,-3,-210,72,-147,25,-293,-337,6,-616,39,47,31,-229,-105,-117,-132,-77,-125,-249,225,-420,-300,-90,-91,-528,54,-453,-106,-223,255,6,-302,23,88,148,-82,-464,-189,-206,162,121,-195,-375,130,-340,-276,35,184,-461,-155,-453,-396,146,139,61,-39,-126,-51,76,183,54,-36,-151,104,-32,75,205,-220,-527,-34,-110,133,63,244,-273,-533,117,97,109,307,27,-52,219,-338,-13,-328,169,-245,-416,-468,190,-333,71,-31,217,-298,-237,445,185,-311,-65,38,-104,-95,-91,-21,-165,8,-224,-160,-18,-4,159,-342,-9,-209,-431,-255,-33,-17,73,-326,-116,6,-310,180,75,-82,-380,-52,181,-251,102,98,-649,-89,-204,14,-33,-124,106,283,-382,9,317,85,145,-237,-186,-208,-159,135,-98,-129,-46,271,83,-531,-335,-157,68,-122,-219,-102,18,-502,258,-291,142,-100,3,216,-131,-250,-120,40,-395,-11,-94,39,-18,-364,41,59,222,3,-141,-118,-357,58,-583,156,108,88,114,-58,-175,202,83,146,-49,-286,15,-222,-156,226,-231,278,-91,74,-38,-368,-289,-42,-227,-97,278,-88,-144,36,24,-69,-240,121,183,-251,-286,-156,-247,-80,-296,-148,225,62,24,-23,-82,85,-235,-140,-164,-721,-749,-38,-37
,-768,191,-52,-141,-46,235,-98,-160,-66,36,141,-467,-458,-55,-51,-88,-544,-592,-127,-225,47,-65,-79,-102,151,51,-107,144,-259,192,34,5,-329,2,26,169,-97,-496,126,253,-404,106,-75,-238,19,-237,164,-708,-147,46,124,132,-25,-422,-160,-237,-164,34,-271,161,134,281,39,-64,91,248,-87,268,-121,25,-44,291,55,231,-160,-99,-250,-27,-59,147,118,191,323,-112,75,-185,-131,-496,391,-175,-375,59,199,-686,-373,-132,42,-84,-252,-431,-680,-133,44,-221,-181,-484,196,168,-210,-7,-141,38,-206,-418,-97,-289,84,-279,-485,78,-129,106,-47,-196,216,-229,-159,-14,194,176,70,83,-83,-202,-203,-817,-362,90,71,-340,-166,-126,163,-53,117,-175,89,230,-264,-427,264,-205,-62,176,-366,-254,-406,6,-103,124,-118,-196,74,139,-96,3,-419,-405,45,-249,-266,5,-52,82,-142,-47,122,-374,-153,-499,81,-171,122,-199,-175,186,-47,-53,-76,18,-167,-150,-88,-94,-300,156,21,35,-244,-20,-188,-165,157,-46,18,274,49,-242,-48,45,-246,-193,-323,9,-192,-188,154,-253,-691,262,244,-70,157,-640,-28,-188,-376,-531,23,-364,-15,-78,-138,-79,-50,-486,189,-147,-219,231,372,47,-193,40,107,216,18,-521,70,-192,-354,328,-86,-569,-173,-29
,-231,226,237,132,385,110,-19,-266,224,-320,-117,-171,58,-63,-315,-63,-182,-76,-249,-497,42,104,-109,-98,-74,247,87,-187,2,-177,183,153,120,-141,-68,130,-51,-354,113,48,-65,-169,60,-70,-194,-102,-129,286,145,-355,-150,13,-289,1,-189,-178,282,-177,294,23,178,-159,17,-155,-253,-188,-129,294,-162,25,-93,98,69,-5,44,58,-121,222,333,169,-77,-167,97,100,-72,110,56,-193,152,130,190,-177,6,-64,-65,105,-26,24,176,314,63,86,66,-71,-46,-117,175,117,-215,-223,-96,-113,-125,82,-53,288,-224,59,-112,203,-98,-328,21,-69,173,49,373,-76,296,198,-56,116,216,-103,39,-139,-61,75,-216,255,-134,133,-304,249,-380,6,210,-402,-76,-140,-208,-135,72,-319,41,39,109,80,-6,-73,-7,-123,-73,49,-30,-89,48,-160,-65,-122,121,80,-338,134,-282,-32,-274,-52,-44,70,-42,102,-219,-324,305,-142,-257,10,-22,70,-229,250,31,53,-20,17,-84,-80,69,37,349,131,187,89,-303,-172,-137,219,224,-299,-55,133,30,-76,88,-68,-189,-104,-114,84,-382,-34,144,-258,-56,-108,-186,138,73,-131,-325,109,-79,23,-11,-138,-71,115,33,133,118,-42,-35,63,-35,-100,162,-153,-95,-277,-2,-73,118,38,-197,235
,-100,18,-48,-307,-249,-32,164,19,-19,37,-101,87,-309,100,-160,-148,-120,51,-266,65,232,-5,-152,-88,238,94,7,-136,-22,-56,-146,241,-150,-176,19,126,-155,128,-52,-123,71,-36,1,69,-78,253,119,302,-168,15,-58,-154,-21,40,164,126,-94,51,-207,66,-184,-308,-199,6,-60,113,336,-125,-309,192,-33,-82,-87,-279,-125,-107,26,-419,-133,-188,84,43,-92,-112,-26,-218,-293,-19,-217,74,300,-126,-69,-18,72,-275,-232,-33,-364,20,-30,-105,136,-106,100,71,-48,-170,-136,41,94,-147,208,-11,19,225,120,-75,-288,166,34,204,208,-144,13,-56,89,243,-345,-247,167,225,291,-372,-132,261,-140,-91,-26,-36,-53,52,36,121,169,97,-279,-112,67,-153,-234,343,301,15,-118,-101,-230,-115,-10,-40,-166,66,57,29,178,243,16,14,291,236,67,302,-128,-32,-344,-82,-251,-212,-41,298,-54,111,-154,105,136,55,-163,401,-33,254,234,65,134,189,157,-152,-5,156,164,-133,344,-272,155,37,-413,-272,178,-224,97,-67,215,-185,22,-168,-193,-257,-198,-165,-263,-24,-30,-3,158,40,124,14,-219,20,-80,1,-237,-317,-115,37,47,141,-93,-133,45,96,85,-354,2,251,95,319,-203,153,-13,-140,-96,62,-74,88,-21,-112
,86,394,-76,-144,-73,-15,165,-25,-1,84,5,82,-749,-171,-52,39,28,-9,-199,-302,-201,-268,-8,-80,272,24,-49,203,26,159,-153,-343,-176,-108,-120,-277,23,56,-112,-19,1,11,-135,-168,32,-1,229,24,-20,-59,-491,-360,-210,207,202,-100,-521,-162,144,-171,135,-145,-154,172,-152,-61,-156,-160,-242,-585,-423,-26,-592,-324,-127,-219,-2,-53,273,-341,-250,-345,-56,31,41,295,127,-39,-168,102,-679,-194,100,-248,-203,-145,-201,199,110,158,5,41,104,-968,115,252,72,-325,-529,-419,88,-163,-101,101,-34,136,116,-415,-135,180,-416,164,-210,5,24,107,-38,-140,-202,117,-129,-563,26,67,39,27,-58,125,-406,-258,89,328,7,-12,-110,-253,2,-507,-173,111,-175,-20,20,-106,-120,123,203,-201,-176,176,-279,-26,51,-177,44,-51,-238,-424,-355,-248,19,-195,-405,-36,-133,80,-376,-79,65,11,-28,94,17,-324,-414,250,-174,-237,-81,-115,-236,-257,-442,-389,-301,-13,-25,-109,39,-348,-222,-54,-49,-223,-298,113,90,-405,389,-48,-5,-40,-617,-12,-350,41,-353,198,-16,9,-154,-28,133,-5,6,103,-488,-633,-203,-16,-495,72,156,-260,-451,-112,23,-284,-126,26,-123,-328,202,-561,89,168,-22,-122,-119,-581,-258,184,10,-78,89,-189
,100,85,79,135,-124,-314,-127,-14,-29,-159,-313,-103,-121,159,-30,107,-70,-131,-100,98,-227,-57,92,-308,-138,-259,29,-186,91,31,-96,-276,16,173,49,-50,-386,341,118,-590,-103,22,-17,-313,-52,-90,-60,-319,161,-87,-188,41,-290,-40,66,-241,-95,242,-505,64,-10,-210,-13,-245,-70,-94,-189,76,-80,57,-149,-197,43,-183,-98,13,-13,-273,-12,161,-183,-181,29,186,229,-72,91,-130,-35,-174,-155,-54,-538,31,-152,-114,-204,-39,175,39,-135,-848,-523,-261,-582,-16,-13,-115,63,-257,-40,-444,105,-214,-312,-110,188,-390,-310,-11,132,118,-157,-96,32,-415,-75,64,-158,11,-89,-54,-119,-82,67,-22,-148,83,-32,-228,92,-423,104,-222,-83,-121,-94,-183,-27,-134,-21,-367,-175,138,-85,87,-136,-495,-312,-301,-125,-123,-390,-65,156,-8,-108,122,-130,-254,-148,-185,78,-72,-490,-141,-312,-81,-81,169,182,-90,-202,-627,12,209,-99,281,21,98,-83,-326,-58,-197,-281,-171,-91,113,-135,-99,-165,-326,68,-132,0,112,-245,-33,-316,-50,-391,-210,96,-95,15,-163,-203,174,-383,17,-61,-95,16,-22,147,75,-271,-368,-35,-18,196,-68,-25,73,-195,-123,-127,229,-346,-141,-12,-58,53,-55,161,-134,-313,-76,-146,-79,107,247,-341,-277,-80,-511
,67,-431,-28,-94,-75,-193,-70,60,-5,-21,156,-118,-210,38,-210,-103,-375,-4,-108,3,-271,-161,-132,-197,-189,-9,-51,-54,74,138,-111,92,69,-210,38,-57,-62,98,86,11,-94,-177,-133,47,20,-244,15,469,25,-24,174,-216,-220,157,195,96,-62,-119,110,-130,222,-116,254,242,-324,-62,62,82,46,178,-337,-219,-85,-306,-5,147,-76,-318,-144,174,-203,-187,88,25,36,56,-47,-70,-13,174,14,-177,-10,75,106,-230,122,-132,153,170,-172,-368,-28,150,4,-197,39,271,-12,149,292,40,-317,253,-117,14,-91,-18,246,134,-106,-557,110,-114,192,97,-106,317,208,96,200,-432,-144,246,44,117,-35,117,-374,-254,151,-76,-103,-18,-84,-26,-43,-75,16,-187,-63,228,260,29,-195,110,-190,-503,-99,77,144,73,-245,-31,25,294,-47,124,-120,-107,237,-111,-156,65,-165,64,-211,212,-70,58,136,-310,-191,69,248,67,-269,-117,32,113,305,23,195,-34,178,-241,-269,182,-59,-51,214,228,384,-247,161,160,14,-35,-563,-147,-12,-33,248,170,215,0,81,-48,27,-42,62,-60,-75,299,-52,7,-54,19,301,246,63,-172,-12,-3,45,-221,331,-64,-31,-167,-118,97,75,180,199,-66,-161,112,-110,-231,-149,-171,-304,-391,-205,228
,-138,-566,-742,-184,8,29,127,-177,-27,149,117,-333,-387,-221,18,-96,78,60,93,-363,155,232,-12,-158,120,33,-72,254,-527,-372,14,-491,-269,-379,226,-220,-419,-171,-333,-339,-269,-567,-242,-470,-45,-346,90,15,-25,12,-547,211,-174,-284,41,-261,-85,-27,-81,57,-311,-286,-304,-363,3,-74,-58,-8,-268,-448,40,-593,-184,-152,180,-292,-43,-124,-157,-179,-38,-285,-385,30,62,30,-171,-555,-577,-173,-130,-196,-56,-209,-135,173,-834,-167,-79,105,-28,-288,279,-249,-145,-24,342,45,373,-244,-484,127,64,-331,-50,-69,125,-108,-262,-32,-471,42,-21,-451,80,-526,277,-411,-52,76,-140,311,45,49,61,72,136,-244,153,138,43,185,-241,-274,-6,-39,-367,-16,-53,-100,-27,-135,-59,-137,-212,-285,-518,-28,-153,-496,-57,25,311,-51,-326,-674,-421,-302,-310,-357,-245,-168,-39,-139,51,-28,107,89,58,-155,-45,-349,-685,30,-391,463,59,-310,45,-174,77,-168,-62,-28,-181,-237,129,-93,-203,-326,-376,-272,-437,141,230,-334,172,2,-654,-71,-39,-122,-589,-292,1,-162,-746,-441,-92,-361,-42,104,26,-293,62,73,-152,-383,-86,-265,-148,198,-57,-100,-265,-249,14,39,288,103,-21,-234,-53,-136,-108,29,176,-476,-582,153,-199,-250,-85,-470,153,-222
,32,-61,37,-75,-171,-84,0,-1,-151,-149,18,-51,31,-72,24,-131,-100,0,-66,-63,-156,51,-165,44,-21,48,10,-73,-73,-116,60,-153,27,-111,48,18,91,-188,70,-90,14,-123,-34,-5,-104,42,-17,-55,10,-99,-82,-1,101,-31,45,82,-6,-18,-18,-154,-6,-48,-78,-2,-39,-131,-48,-89,25,-2,-23,-73,-57,35,106,-56,-3,53,28,-52,-50,-78,-57,1,44,-36,-136,41,-1,22,-66,-97,-137,0,13,-36,0,42,-81,19,-105,33,-149,49,-8,-108,-8,30,-25,-146,14,-57,4,-70,-80,-49,-5,-4,-57,22,13,-8,-54,-149,3,-65,41,-121,-72,-61,14,16,-25,29,-20,-98,80,-120,13,-9,-87,90,-77,66,-32,19,-2,-84,65,14,-85,-31,96,-84,-118,-19,-53,29,8,-47,23,21,-122,1,-19,-91,-134,9,-57,-90,-6,13,-119,71,-108,52,60,14,-94,36,2,-93,-51,-87,-5,-32,-156,-138,19,-93,-26,-88,-111,-40,5,41,-72,-41,29,69,22,47,-153,-100,-89,-74,-70,-71,-21,-109,-21,-21,-5,11,29,-42,-16,-36,-92,-124,92,69,31,-38,74,-8,-60,24,53,37,-12,-68,60,-123,-113,66,74,-63,-134,-138,31,-88,35,52,-165,49,-150,67,-116,-21,77,-70,-121,50,-72,-38
