
/* Trace */

/**
 *  updated on 07/18/2023 01:04:38
 */

#ifndef __W_SDA_4_H
#define __W_SDA_4_H

char name_sda_4[] = "Trace/sda";

long weight_0_T_sda_4[256*40] = {
127,-128,-106,-64,107,25,113,-63,38,-37,-43,-56,122,70,-107,-39,62,33,-32,9,-127,67,-19,-127,113,-90,47,-138,-57,48,-30,-51,-128,70,80,-95,50,-72,125,-71
,-98,-90,-119,-18,47,-61,151,-120,26,51,-293,-11,137,-87,155,-25,-182,64,-56,97,10,21,-113,28,84,-43,60,-46,192,-69,217,-191,-19,37,0,-206,-122,-33,-149,201
,124,-83,-37,-121,166,-34,-127,-115,-39,94,48,135,-135,-119,40,11,-47,-7,98,-39,123,125,-63,45,-69,-76,73,-84,-125,61,34,130,37,-171,211,-125,127,-148,31,152
,-149,90,-107,-185,59,-48,22,-72,109,-203,84,171,-130,70,58,-28,95,126,-20,52,7,-35,4,-17,132,43,-108,-62,-95,92,-58,-8,-128,-44,-60,23,36,75,245,-181
,-269,64,-56,-82,-135,38,-46,121,54,-138,-58,15,83,67,-260,102,-53,149,-5,5,17,36,16,-75,96,95,168,-241,88,129,-41,-62,260,-97,142,-288,14,46,-102,19
,137,80,-74,-87,102,-70,-74,196,-169,-114,13,170,130,62,-93,-120,51,47,-122,114,-153,136,-58,97,-316,-101,-284,-153,27,120,-39,50,-440,-383,-38,-59,-171,-270,45,-235
,-89,12,189,-101,-96,-68,-110,-151,59,19,-3,-40,4,-149,-15,-146,21,-15,53,-136,0,55,120,167,-211,-153,-265,-73,139,133,200,74,-35,150,-33,-82,-71,-182,130,88
,75,-14,-180,-62,53,57,126,101,-75,-79,-78,-202,-64,248,-176,-132,-2,-213,-41,23,108,-117,70,-10,-79,-73,-14,-247,-193,-177,-154,-30,-72,-128,26,-93,112,8,115,110
,-33,130,28,-139,-123,13,12,62,113,-10,21,126,56,75,93,-56,86,-77,93,141,33,-85,-79,74,38,-79,-9,-51,100,106,-123,73,-60,-103,119,-41,6,-74,119,-8
,122,-59,-83,-33,159,25,85,106,137,67,36,2,-117,-89,-138,-47,-31,-118,-55,-98,22,85,75,-78,128,137,-99,89,-71,-257,-293,-160,-9,-121,-46,93,-19,-104,-190,-21
,-121,-372,-270,-20,-248,91,73,28,-66,156,145,-18,-131,-114,-197,-122,-6,-120,-63,180,41,59,161,-17,-82,65,81,-46,-57,-44,153,27,-79,133,170,26,-12,-59,49,-73
,91,-36,99,-69,-63,-67,-19,64,34,-11,-101,-42,92,103,-33,-32,-16,121,16,124,85,-118,-5,101,118,44,63,139,58,73,24,82,-49,42,129,-90,97,-51,-179,-93
,64,-145,42,83,-75,66,82,-78,94,75,-133,97,62,-114,130,-35,108,104,-142,97,61,-15,-37,-6,-22,34,97,70,-80,69,22,-14,-43,-32,58,-87,110,49,-80,-84
,-81,-8,-132,6,3,-74,139,-38,-138,42,-144,171,-51,-85,-243,-64,71,70,-119,-129,-67,-30,78,-71,12,185,-228,100,81,-10,223,-64,-11,195,79,-42,-151,19,-68,127
,-34,-16,51,122,-124,-98,-126,-73,-97,-157,-79,63,-99,-21,-57,-1,-33,-35,-85,-75,-136,98,-75,-20,-66,-109,-136,-88,79,63,117,8,46,118,-127,112,-124,-108,15,-107
,-54,-108,48,-111,-41,16,-120,-47,-43,46,45,-1,93,-35,-20,91,-60,-13,43,148,-78,59,130,103,-65,75,-75,94,22,-11,73,57,-59,129,-121,-38,26,-112,72,66
,-55,43,26,62,-7,53,-162,48,-26,42,-125,-149,-67,180,6,-41,-156,-113,36,1,-165,-36,150,-102,140,-150,-71,-109,138,4,-352,-10,-20,209,114,183,97,23,-12,-134
,52,-86,-90,89,119,100,-33,142,-43,-65,55,-159,32,-37,-66,66,-41,-35,-57,-73,205,-118,-80,94,6,69,38,99,-37,30,112,-92,5,5,-131,-217,21,-102,93,-41
,-127,98,-26,22,-7,124,25,53,-102,10,70,-16,23,-140,92,20,12,66,-50,-22,49,41,75,127,2,54,-118,-118,-11,37,-23,-30,-132,-142,72,6,-85,95,128,-39
,23,-196,129,62,-174,-92,-89,-205,54,19,-163,166,67,-4,8,81,11,22,-10,107,-30,-30,-1,15,-30,17,-154,109,-149,-120,-98,11,47,40,-24,43,12,87,-60,-35
,-92,-71,-160,163,32,-131,37,-52,-229,-59,24,-206,-5,60,-37,-109,55,35,20,-98,-47,92,13,127,-233,-76,-123,-49,41,-184,29,174,159,217,20,-121,123,-105,69,7
,-20,126,51,10,37,-73,59,92,-8,-73,94,90,-35,-116,95,-87,-52,-99,-123,-77,61,114,14,54,-95,-18,22,-93,-86,125,88,36,28,36,-63,-35,-18,-78,-77,63
,-62,-54,-81,-63,-48,-72,90,-114,97,-46,-177,-36,40,72,88,74,115,-79,82,-52,100,40,-115,136,-48,-136,-42,-178,-132,-184,-191,-12,-174,-142,109,68,120,-91,79,-32
,-113,-108,27,33,114,88,-14,-109,70,81,30,3,123,-58,67,-80,-5,-94,-71,4,-33,23,17,131,-118,123,-131,1,-84,-3,90,71,-68,110,-54,9,-158,39,-81,66
,-25,48,-134,-36,-76,115,38,3,31,70,32,87,80,-52,-105,77,48,-40,109,39,80,47,124,125,-100,-99,-84,-140,30,-12,101,5,76,94,-1,-120,-164,-22,141,125
,-143,-92,-50,113,-105,80,-3,2,-52,-26,13,85,115,-37,-8,45,37,-119,0,-30,2,125,60,68,151,-143,-76,-112,-6,21,-26,-66,-27,-80,26,59,24,36,32,-24
,100,53,2,-69,-168,-75,-95,-53,100,122,-41,89,99,-37,87,-14,53,57,122,74,-143,8,-104,-50,-154,-76,105,-14,30,71,17,-88,33,112,-116,68,-159,27,-21,58
,-146,109,133,-76,-84,-146,91,29,82,79,-32,-168,-132,19,45,-30,120,134,12,-92,-135,96,-151,-31,143,-60,-24,-250,-159,54,-14,37,41,107,-22,-33,8,-35,41,-34
,60,2,-25,-23,29,93,-62,70,16,17,76,-140,87,26,-75,68,-34,21,-18,-10,118,-116,103,66,-25,55,-74,-77,106,-6,95,-66,53,59,9,73,93,-100,-28,-37
,-64,43,-48,-14,75,0,98,-136,85,108,-137,59,16,-92,-110,77,23,-32,32,-18,114,-122,-140,95,-62,36,16,119,-50,69,65,25,-21,-89,51,36,-92,119,14,-31
,-70,-233,-33,-32,21,-199,-53,107,-214,-93,177,95,27,92,-178,-121,-200,-155,98,72,-106,-75,-95,-154,139,152,163,-74,68,108,-54,16,-50,130,-47,217,-208,-88,-191,-9
,-82,-15,-77,121,-72,-210,158,25,-147,-15,-58,-174,156,-85,46,-7,-51,12,129,-51,-10,182,-130,8,66,-231,-7,101,-178,-159,3,52,11,-51,87,-123,-39,145,131,-120
,54,-40,-12,-62,-5,44,88,84,-41,93,-79,108,-127,-111,33,52,27,28,113,23,102,-32,64,85,-97,117,6,59,77,22,108,-70,86,22,-58,49,-145,122,-104,85
,32,139,-40,168,-190,10,29,-196,0,130,-143,-80,-58,-126,169,62,-165,-120,-117,-68,116,-105,-225,116,-3,-20,29,34,22,61,-3,94,68,81,-122,58,172,80,-173,161
,-178,-75,-23,-5,-44,86,-46,20,135,-42,-92,-224,-135,-56,-183,1,81,74,-104,51,-12,27,-3,69,-116,187,-99,119,-54,178,213,63,-92,-200,-45,-113,-291,-274,-239,-232
,-54,57,122,-103,-49,79,19,80,127,8,132,-88,-109,55,-40,141,29,-84,142,47,-106,-118,-89,-67,45,85,-130,25,123,201,123,-11,65,-247,-98,-204,-36,-60,-26,125
,-116,-196,-93,-4,138,8,46,-82,22,-113,-11,-80,121,27,-88,157,77,85,14,-107,14,191,5,-72,-46,27,44,-17,137,40,-147,-12,-93,-133,-157,-181,40,99,82,120
,-19,-27,3,121,151,-112,56,-96,-116,-82,101,-2,109,113,-28,-109,-151,-219,22,-74,-71,-103,130,114,-73,49,44,-16,-53,106,66,33,-42,80,-117,-110,106,-39,61,74
,-17,-52,-85,53,144,26,-75,42,24,21,-78,-181,131,-136,-29,-89,35,65,-116,-64,136,-99,26,139,5,-112,-49,-104,42,26,42,-15,-145,156,-87,-145,50,125,-166,87
,46,77,-84,79,143,-173,-20,-157,-170,47,-48,22,-11,-67,160,-141,91,149,30,114,-108,-113,72,-8,59,14,29,-71,55,-28,58,-39,1,-231,-140,42,-64,135,-93,-8
,-47,100,-36,-122,-131,27,-26,-89,-124,-145,-68,120,-66,-131,-5,-143,-130,-50,-88,-68,-149,-56,18,-24,-69,-75,-27,111,-55,-45,106,-108,-12,71,125,74,68,-111,74,16
,24,-84,-15,-70,-104,-51,-112,-74,102,-113,-150,-143,-123,126,120,-32,-83,-88,-47,90,-99,-135,18,-32,126,-79,89,-133,105,-67,36,123,-85,116,-71,-120,31,-40,-99,55
,18,138,-25,-97,-18,-68,49,-185,-12,-55,-29,-45,-17,-192,-75,43,-160,213,-21,-93,190,-99,11,47,-286,42,-31,-10,-119,-229,-44,159,-116,-212,103,104,47,30,143,126
,113,-119,-65,-124,96,-144,88,24,-102,-1,-14,-57,-107,-78,48,-43,30,107,56,-135,157,22,130,-32,-26,-68,109,98,-38,-92,-152,113,23,-19,140,57,-29,-115,72,-152
,-15,119,73,-47,31,26,70,-31,-98,-29,-59,117,14,19,-94,68,78,62,50,77,-107,142,-19,8,123,-120,107,-60,-29,-14,57,132,-42,85,24,-109,-125,-72,-79,65
,-107,141,38,-53,-152,-12,22,57,-4,-19,-102,143,-59,-38,62,-72,-69,54,108,-125,141,61,68,-57,-153,-64,-48,-12,157,-140,-135,71,-49,43,9,18,-75,-133,-16,-27
,-60,-161,123,-104,-45,22,-86,-159,-120,65,220,118,15,-89,-145,72,-210,-171,-52,-53,-54,21,-197,-40,-364,-37,-15,231,119,246,-78,127,-120,68,61,45,-205,17,193,-74
,-18,-145,-26,40,33,21,-39,17,-81,32,49,-101,-112,-15,-97,-130,-34,-177,-80,94,162,121,-12,3,-4,-113,73,135,99,95,90,62,79,-82,33,71,135,185,99,-56
,4,70,6,-7,53,-144,135,89,-184,-126,98,-213,56,35,5,-111,55,90,-15,-122,-122,40,134,-95,12,-43,63,67,-57,124,-85,85,-142,-283,-148,13,90,108,80,127
,69,-120,35,-94,13,-86,-62,117,40,-21,49,22,63,-13,37,82,134,7,31,137,-71,94,133,-58,-134,20,-10,51,5,131,-156,98,116,-53,-101,-66,26,-17,-90,-57
,-175,-51,82,-108,-83,-68,-33,-173,-30,-77,-15,177,-108,-89,-58,-89,41,-60,-179,-8,141,-22,169,108,-254,42,-61,-233,113,153,97,169,60,160,-140,-46,77,74,-59,56
,98,3,92,-36,-19,-87,-77,122,47,-56,133,33,-61,63,11,101,-39,-101,80,6,63,-61,81,14,101,81,-58,62,107,-107,-3,15,-155,-44,-55,-169,10,-23,104,88
,19,97,-74,124,-72,-116,74,-45,105,-67,12,62,-122,115,-21,116,18,25,-24,-73,-129,-59,84,-19,-86,108,31,-26,-67,118,72,5,121,-133,117,-133,85,-60,-85,96
,27,-178,-151,-104,94,53,84,-82,193,-85,66,-86,68,50,-60,-29,48,70,-65,-131,65,-33,111,159,-205,80,102,-147,-195,-12,164,48,46,-45,19,16,-193,-56,151,-39
,150,-283,-164,81,66,-262,56,-99,-36,-25,15,-117,14,-194,-109,-62,-225,-55,152,-198,-104,145,234,19,28,-4,-250,54,5,41,-158,137,97,-57,137,-63,-84,331,-54,-103
,28,72,140,-63,126,-57,52,-85,182,-101,80,117,32,-118,-292,57,-61,-131,-19,-256,-79,21,40,16,69,-8,178,-91,147,28,20,23,-35,-112,101,74,73,-21,94,18
,-25,-15,32,54,-27,47,-30,40,-50,-101,37,-92,-99,-50,19,37,-2,126,69,92,-136,28,-6,144,-251,-225,-6,-9,-139,117,-81,-64,-89,-100,100,-177,-289,76,-80,128
,-72,-99,109,38,151,-144,-125,-10,36,98,32,-140,25,-56,59,28,-184,149,64,-113,-136,-26,-20,117,101,103,142,-142,62,73,-135,126,-84,85,73,-24,139,-105,-1,44
,-239,108,96,88,-42,-153,-167,27,-33,49,-128,65,-126,-199,110,-79,108,-123,-68,11,18,53,-53,-82,-26,85,224,-75,-11,-61,100,81,29,85,69,75,-286,-73,-23,-122
,-11,58,35,-3,-49,-8,-108,144,149,-44,98,-131,-41,198,114,100,23,-162,-43,-132,-105,67,-145,-30,-44,-90,-126,77,-243,171,-1,53,-160,-184,-234,-76,73,160,42,41
,-191,-128,-171,-116,60,158,13,-124,83,-35,-132,-137,-109,-26,57,42,32,61,-67,144,70,117,110,65,66,135,98,-44,242,-265,-137,167,-105,-161,10,70,-31,-149,-14,44
,-97,28,-7,-8,-244,235,-92,-43,92,181,-13,145,-17,119,-195,-86,54,-102,100,76,-185,83,-48,3,81,-70,83,-226,-25,-183,-87,95,-89,-8,-43,-194,-175,-104,48,103
,145,-206,144,-111,31,-192,-110,141,30,31,-220,-223,102,-309,33,-66,-191,-224,44,23,-142,-9,-86,-34,-86,-107,-223,216,23,-92,18,89,-61,155,233,166,-164,160,41,-78
,36,113,-15,8,106,-114,101,73,-103,114,-105,50,137,-104,82,75,67,-3,-141,106,-148,30,17,-25,-107,24,-68,-98,29,-3,-72,-23,41,-4,-148,-75,-178,-10,114,14
,-99,74,148,30,48,-139,-1,38,-29,126,-31,-29,100,2,-180,62,117,-87,-122,80,-167,-62,-192,148,-142,-116,-93,-9,143,124,123,15,-232,32,-26,57,-177,-68,-74,-63
,4,-37,44,79,68,108,-82,73,12,30,-80,-85,33,-19,70,88,100,121,-68,81,1,-14,106,29,-114,-94,131,-76,-132,56,137,-48,-63,20,95,32,-150,36,-35,-38
,116,34,50,58,1,-14,-23,-110,70,-29,-1,25,-50,24,-82,35,-10,-69,124,-26,-61,127,-2,15,32,80,37,-59,61,63,-121,-63,75,7,-35,-119,140,-32,-11,85
,-129,138,45,-147,125,-7,135,-43,-28,-94,-29,25,78,58,110,42,-19,-55,-78,7,71,-2,55,-57,-76,125,85,-92,113,112,59,91,54,16,130,2,128,92,-30,108
,-134,-111,-119,-10,-146,-178,-83,42,99,48,-43,-140,-14,-402,81,-78,12,117,-53,2,65,74,70,52,-125,-297,142,79,116,-35,108,-304,85,158,-14,260,-242,-327,-176,-54
,23,1,46,56,30,-118,-75,-106,-53,117,-78,112,-93,70,67,59,-78,134,21,118,111,69,-38,-36,-127,69,-41,82,72,-9,49,72,-39,-208,-102,-107,43,-96,-51,55
,70,37,-100,148,-121,-115,-97,86,16,140,47,-67,-17,0,-119,9,182,160,-74,-157,-104,107,-18,-69,-47,-4,17,135,171,70,134,-79,-113,148,136,30,-114,-19,-63,-88
,68,-2,-63,89,69,77,-69,-62,50,128,154,30,40,-36,14,-58,59,88,-111,69,-54,-88,-110,-57,141,65,-27,-23,26,12,43,-35,-71,21,95,62,13,27,124,51
,-101,-67,-61,62,23,33,-162,221,125,-91,-224,-112,-148,80,-81,-70,-110,84,-11,-57,118,-78,75,-21,-106,162,102,23,298,99,-154,77,-184,103,-62,56,-26,7,-103,-72
,11,-132,35,-6,-1,125,137,-4,-73,84,35,142,67,-249,-25,82,-137,-110,77,-91,-18,-65,-82,-76,-161,-340,-28,-104,-146,143,-84,7,-486,-149,-110,-38,-66,160,14,-125
,-82,65,80,42,55,44,25,132,110,-55,-19,-98,-148,90,63,-129,17,-39,18,-54,58,-41,33,107,-81,157,-107,7,-14,1,-48,77,28,-128,-8,102,75,-28,-13,33
,33,-80,-69,78,-112,42,121,-29,-97,115,-73,-20,66,-180,49,81,-45,100,107,-90,-14,-107,-26,69,-166,66,71,42,54,-58,-45,159,-199,-38,-262,83,-158,-46,-102,127
,57,-2,50,0,95,74,-85,27,21,111,-107,-93,-89,93,-4,117,113,-57,-48,83,-47,116,-98,34,117,-74,-18,-34,60,-61,-112,-6,-101,72,-77,135,45,-99,61,-113
,-104,54,-16,-76,70,-114,58,-11,59,90,-22,-42,-146,76,-94,-36,64,93,-105,94,18,27,-145,76,-22,-149,114,18,104,99,-39,-164,2,-111,124,-81,66,-57,-22,-60
,-104,-100,-157,-148,45,28,57,106,-71,9,79,3,94,108,-32,-57,-4,-277,-80,104,-36,-97,-73,-83,-13,-183,-136,-50,187,169,29,183,43,23,3,-6,-253,-152,10,-101
,74,-118,65,-103,8,-98,142,128,9,-20,-12,-9,76,-107,0,58,80,111,-100,65,-15,102,40,-60,10,76,125,24,41,-9,-76,11,-81,-112,-128,-95,-16,31,29,136
,230,61,-88,-74,-118,-31,106,-159,-40,-94,163,-229,112,-62,73,79,19,-204,-116,49,-153,-119,-145,116,-9,279,-181,-143,20,-112,-101,47,3,-125,43,12,-140,169,105,2
,79,-94,-57,111,-77,-21,117,-93,114,29,120,68,95,22,-107,-132,-119,-65,-99,111,12,86,77,109,-52,133,-95,15,134,17,72,-144,-33,-96,-37,21,28,-81,-68,-53
,26,147,-65,53,17,-117,-34,-23,16,-52,-76,-87,-49,-44,110,40,-62,-162,13,76,-61,56,112,121,-153,79,-23,-32,151,-29,0,10,-18,-214,-178,-141,132,94,-69,139
,-58,-160,-144,-76,-205,152,62,5,-20,166,-136,74,146,-92,-18,2,-19,33,4,-11,68,67,-64,1,60,-65,136,6,-145,28,-74,101,79,106,71,-148,-120,5,-78,-97
,106,140,96,-19,117,-76,-8,9,40,116,100,-117,70,-59,37,-99,39,-101,123,95,-24,-77,-116,-107,54,-28,104,44,-69,69,-69,32,101,-93,44,-2,131,-23,152,-86
,-61,-141,15,-9,-20,-10,-47,-2,68,97,-60,42,-44,-95,-267,131,66,156,-74,-161,-9,101,-152,-17,-76,147,-14,-22,90,47,-22,-87,-75,-22,-151,7,-186,-149,56,-63
,11,-67,74,-45,68,113,-66,-110,-307,61,-13,107,149,-32,-20,-23,95,-224,41,10,17,30,27,-176,137,104,-94,117,-124,109,198,-125,-10,5,59,-285,38,-44,-191,-223
,40,-57,101,25,-126,-37,-16,-68,103,14,-22,30,-19,-100,38,3,-18,-68,82,53,15,-86,135,-135,-38,40,-35,54,69,-40,-131,-17,128,63,54,162,-71,-84,-70,131
,28,118,29,64,88,60,-124,17,4,134,-91,45,-79,-124,58,33,-56,107,-83,-73,-89,-11,-3,100,-166,-38,18,-90,-16,-20,57,-126,69,21,-88,25,-60,111,80,110
,86,7,-95,-140,-40,8,139,125,-97,-6,-39,-11,20,-81,-55,71,-78,16,33,94,110,102,-111,-30,106,62,-134,90,-20,-55,8,-50,-54,-37,-81,-72,26,47,-80,41
,33,-57,138,-122,204,20,41,142,-19,82,-61,192,18,-31,32,-64,74,-195,-104,-27,-94,-122,-131,20,-95,3,-95,-280,149,114,104,34,92,-82,-32,119,-43,106,-89,29
,-22,27,6,8,-44,128,44,-7,93,105,-161,-147,60,36,-69,-116,40,-231,13,116,92,153,-60,-92,-676,-428,-291,-81,-17,-38,-77,113,-195,-132,-346,-102,-182,-46,94,-6
,-42,99,-41,127,-146,-12,162,-28,-40,-211,-41,148,-67,2,-99,-102,246,-87,-16,-57,-46,60,-68,100,-166,-191,-4,-43,-49,-94,224,-46,60,-114,-132,5,167,73,-58,-99
,-111,-35,-100,-40,16,-48,-3,-121,55,-64,-75,-28,-122,-107,-82,-56,-26,-85,-37,72,-7,14,-134,-9,-56,-66,-48,17,-131,-3,44,-133,41,-93,-9,-78,-37,-3,-54,-113
,18,-129,82,-142,-3,-161,-50,129,-84,-54,-31,111,-41,44,100,118,-122,84,69,56,118,29,-18,-114,19,53,-95,-88,80,104,24,116,-77,-61,-11,-121,49,-7,-56,102
,-3,-134,111,37,72,129,-64,4,110,-67,128,-104,126,-70,80,-75,-86,-55,-95,44,89,-62,92,-142,-6,67,-98,130,-124,159,-50,42,155,-93,86,110,64,41,159,18
,76,126,-17,-54,-48,131,-78,52,105,68,70,-52,-47,82,-78,-28,129,-121,25,91,-157,34,-42,-122,-88,-15,32,16,105,-9,38,-37,134,137,68,36,96,97,4,-2
,138,-43,35,116,118,-14,-109,-13,119,13,-52,107,-77,-59,0,46,-70,51,52,86,-5,2,-92,3,121,33,-38,42,16,99,79,115,19,7,1,9,-85,-97,116,-108
,50,84,35,127,-72,122,-90,-152,-144,22,31,115,-27,-50,137,8,126,2,-26,76,4,-70,-146,-160,49,-113,-104,174,-40,-46,117,78,-133,32,-143,-99,-71,175,76,85
,241,100,-63,-38,-388,-9,38,114,-44,55,-2,95,60,-188,-96,-7,78,-58,17,-201,-25,-90,-177,-40,43,31,-268,-17,-371,-122,-77,101,0,-221,42,45,-239,-202,47,209
,133,-72,-5,-73,-45,86,-60,83,-38,118,134,-30,-28,47,39,66,-136,-67,128,129,-90,-59,79,134,-22,117,-66,-11,-69,-27,-154,-114,-67,-3,-56,-87,125,20,72,43
,74,-49,-1,-40,-4,-103,77,68,-123,120,-161,-102,50,69,25,-87,132,11,-63,107,75,119,52,-81,-8,-110,117,70,-127,-130,172,-113,-128,-124,111,-117,-110,13,100,114
,14,59,-5,-224,182,146,-5,-263,-154,-74,-109,-91,-100,-3,126,7,-104,103,-152,-113,-7,66,55,-64,-35,-240,158,114,14,-309,-132,-40,-30,-208,11,87,290,-75,64,112
,14,-91,60,-71,-157,-107,-129,108,24,-49,-43,40,-82,-114,-87,66,-140,-125,-146,-54,38,30,76,105,17,54,-20,-163,65,81,0,-145,-50,-38,-64,5,-141,21,8,-50
,-116,-129,133,-24,27,-134,117,114,-90,115,-124,50,-73,-130,36,-59,-85,-132,17,-63,-75,-101,-123,-63,-110,-120,-114,-61,-118,-90,138,-51,-108,-64,-4,-112,71,-30,109,38
,16,23,-190,-127,80,-85,-102,-148,-164,-77,67,34,-45,-97,225,29,-138,-238,125,-75,158,3,-79,-177,-27,-479,111,108,137,46,-7,-19,150,112,-3,168,81,-34,123,-77
,11,27,67,-150,156,19,-73,107,113,98,52,103,-95,-48,-119,96,-68,-13,-19,-32,-12,110,-12,-137,-14,65,-59,74,-347,-161,-262,-123,37,105,69,-43,-105,13,-111,-88
,-178,79,-48,-141,-104,-85,45,-38,-138,-240,-13,7,2,-56,174,-26,-44,204,-142,-24,140,-39,-148,-43,102,-98,-18,-100,100,-44,81,143,157,59,-177,-87,82,128,39,115
,-33,-117,-14,77,-21,57,-112,-13,8,98,-25,50,-35,35,-26,112,-141,93,-113,4,-79,102,10,-55,68,-51,-92,66,-1,-12,26,-4,60,-113,-85,-63,-74,-50,39,-7
,-104,-41,-43,41,105,-58,150,67,61,22,-143,-35,-102,-103,-47,-47,-53,-26,133,125,89,-10,58,134,-28,-38,-120,76,54,-7,10,-101,-131,84,74,75,43,90,2,-121
,-127,16,30,29,152,86,65,12,-16,99,109,-61,132,-190,-14,55,-42,-57,56,-147,54,55,38,-135,-34,-87,-125,-84,-193,-169,-201,29,12,110,-172,-44,-52,-87,-50,-157
,61,-141,135,105,68,-40,-67,130,-155,49,-101,106,59,104,-21,-99,107,-74,-110,-107,13,37,9,75,-107,-17,96,12,-21,134,66,40,50,-65,-63,72,-27,-58,-104,-128
,35,77,21,20,108,-180,-122,-34,-3,-42,-38,96,28,59,-200,10,157,11,-19,-67,45,-63,14,19,-70,-313,-40,12,-61,1,-143,156,34,-87,78,7,-34,-72,98,13
,1,-57,-38,124,-92,-14,20,18,8,35,-44,25,-99,-17,-68,9,77,131,113,-93,53,69,9,135,95,4,-47,53,106,9,-72,-41,2,129,53,-11,-37,-91,119,60
,124,62,126,115,53,22,146,134,118,-83,-53,104,-10,-135,7,-123,-80,-53,-74,89,20,142,-94,103,60,-103,9,-43,-19,-48,12,128,26,-23,-112,-16,-123,25,-46,128
,-4,120,116,-157,-113,-124,-139,-123,111,33,-57,130,12,163,113,83,-79,115,91,-34,98,132,-123,-35,-58,84,-85,-43,40,46,31,-151,112,124,67,119,-50,30,69,-120
,-51,-17,47,68,190,106,-142,158,-46,-225,-2,-117,14,-43,-48,-26,80,-75,12,-39,-137,-84,96,-51,-160,228,43,44,-140,165,-7,25,99,78,-124,130,144,-57,50,8
,-10,41,-105,-105,70,156,-19,-148,47,-110,119,-143,77,40,26,94,120,-27,-135,-25,32,97,14,-102,-22,107,64,182,36,-51,-127,-51,-148,-38,-98,-234,-46,-27,-102,-263
,73,74,-163,63,-366,96,-82,78,-260,68,52,-211,-96,-66,115,150,-85,57,117,-65,22,-111,47,-177,-211,-185,-239,-120,265,-91,-2,145,-58,-83,61,-131,-338,-112,-281,-309
,37,187,-137,113,-245,-151,-154,-115,123,-111,43,-214,-158,-107,83,53,138,113,-79,-77,-121,146,-258,153,-189,40,84,-115,-60,76,-60,-276,-111,241,-86,194,-183,-89,-144,-14
,17,-63,-79,-58,51,-129,110,10,104,67,104,-16,-133,-49,-160,-72,-52,138,52,-15,-138,77,-111,79,223,-42,-70,18,153,-25,-210,124,-134,128,-50,-29,154,100,-47,-3
,117,-61,89,-42,-164,-114,103,-8,-56,4,-5,-85,-127,-129,28,-22,-23,52,6,113,-7,77,30,95,87,-75,25,45,85,61,-82,129,39,57,99,-41,-134,-72,-74,-65
,136,88,-71,-55,66,94,-123,-78,88,55,46,73,8,76,-134,138,-80,120,55,132,134,-51,-100,-123,127,-23,92,67,-43,-6,74,-116,-74,78,80,59,9,65,92,-27
,132,-101,-151,-35,-121,77,-97,33,58,122,-100,88,134,-86,78,-114,-112,-122,-59,62,-12,31,109,100,-43,-118,-7,39,-41,38,-5,14,5,45,106,18,-104,-88,74,107
,-117,57,27,-8,-10,-14,110,-141,-29,-30,15,87,-42,-128,-138,-87,85,-63,28,-99,-48,35,-71,7,97,-69,27,-122,-98,-87,-74,-73,1,-132,-55,-103,106,-45,-25,-6
,173,-107,-104,80,-45,100,-116,-97,139,29,-65,220,-129,-53,-184,76,-83,-22,64,-24,-37,2,-187,-228,201,-32,91,91,-186,-14,-199,-292,191,-96,-40,-71,96,-211,89,-245
,-45,-86,146,-110,0,8,-96,6,73,79,119,-68,-16,1,-114,116,115,58,99,-27,27,92,-131,126,90,121,-96,-67,9,126,33,-142,132,-83,114,-3,-32,-56,63,-58
,55,121,-53,24,92,-118,-44,-2,122,12,125,-4,36,36,58,-59,-61,52,43,-3,94,120,74,125,-28,-138,112,46,49,-105,-15,129,83,13,-4,120,-96,86,30,130
,-129,49,-133,61,-329,-120,-112,-35,-46,-9,103,-215,-117,71,-1,-133,-9,-87,3,19,-20,-129,18,48,170,134,-34,50,116,-55,-4,140,31,118,-22,196,-70,7,48,272
,138,-90,-145,28,-74,2,33,54,37,92,-12,-63,-63,-167,-39,63,78,-143,90,-59,-220,103,-106,12,49,73,-41,79,-19,-203,88,112,97,137,42,-165,-82,-45,29,-186
,-56,87,-82,-138,7,67,32,-174,-161,-17,-134,95,-39,222,67,63,-16,12,-72,-130,82,-33,-28,119,91,-7,-179,-113,-48,28,35,-120,94,53,159,54,-120,29,-19,161
,112,-144,-174,107,-136,-15,58,58,95,-192,-124,125,-40,-125,-23,56,-189,106,-57,100,-120,15,171,-216,54,276,-93,77,93,119,138,-103,42,-63,-286,22,-97,-297,-340,176
,7,-46,-52,52,-52,23,40,114,-228,-83,-36,-38,133,148,110,38,68,-160,-112,-94,-30,-52,-22,34,-22,138,-133,77,9,127,-114,-125,-37,-77,-165,214,-156,18,-132,22
,-51,58,-148,-81,-156,-199,-114,-96,-230,119,-5,29,11,-47,-90,-44,39,-51,146,66,-104,137,-193,163,69,77,92,82,86,-88,-4,59,-201,-27,-326,-105,-36,21,-13,95
,139,-142,-44,-27,-13,83,36,-1,205,-40,-74,84,33,29,-9,-63,84,-115,82,-22,-148,-61,-117,-187,-15,46,220,-50,2,-179,-60,80,-120,102,192,163,-97,13,41,-39
,-108,-113,43,102,-25,148,131,-133,-127,96,-222,251,-44,-106,-60,85,-194,102,100,-108,2,-19,-142,-24,-254,6,-98,-89,-276,22,34,70,82,-20,62,-236,-213,-128,-128,-174
,38,-44,-51,-142,117,-97,-106,67,24,-17,23,121,72,-156,30,54,14,65,68,81,-157,57,0,-5,-55,116,-106,-29,-16,29,5,-103,36,20,-141,136,43,73,-53,119
,-124,-117,217,-118,-18,-135,-82,2,215,-49,-157,-70,-204,135,-22,-149,-57,36,-73,61,-45,-188,38,20,143,-12,140,56,-13,-63,-33,59,46,168,147,-52,-51,28,50,-20
,110,64,94,-107,79,-41,-148,5,26,79,-6,138,-101,113,-33,98,-61,82,-88,111,-79,124,25,98,-123,37,-182,-109,-7,135,-105,49,-19,87,-133,-86,24,130,21,-93
,15,3,-48,117,116,143,42,-131,-62,15,-18,-60,-30,-131,-88,-42,46,-46,127,107,30,100,127,-21,-34,-6,-137,39,61,-53,113,-21,-14,-80,31,-109,111,130,-86,71
,109,-212,-124,-38,-101,-78,-68,4,-102,-98,115,64,68,166,-115,-98,-138,-23,-98,60,-37,1,54,99,-139,70,84,112,-154,-113,-156,-36,296,12,-279,121,-241,-27,-150,-120
,3,34,83,-16,-23,4,59,88,-145,-118,-155,53,87,70,115,81,104,40,-140,-124,26,107,-121,-81,11,-103,-67,69,116,-69,56,-123,137,-8,-118,-149,-154,63,81,80
,-26,-134,142,-103,-28,188,-146,41,-204,-136,85,-148,26,25,67,-181,72,-63,-74,66,92,6,14,-81,-78,12,20,-11,12,40,122,-63,176,-16,178,30,-18,-43,-11,-37
,-12,2,12,91,61,-47,-81,35,134,22,-109,29,-18,-100,111,-1,-18,74,119,-72,44,96,47,-149,-155,-110,-76,28,-91,12,-37,-89,31,-13,45,71,115,82,-19,109
,126,56,105,171,126,-38,-3,-131,-263,31,-14,145,-108,-97,9,123,-100,-96,20,11,-110,-91,60,-141,30,-128,-81,-34,-43,-197,119,80,-114,36,21,-115,169,-169,67,-233
,116,-86,165,126,91,31,-30,162,-11,-117,-82,-262,-57,-76,-96,-124,-102,-26,7,64,-6,0,-129,-1,65,-147,-42,-158,78,-88,215,-29,-4,162,202,159,-192,31,85,7
,-40,-102,-12,106,136,53,-33,37,-123,93,-50,-12,-20,-124,10,51,-128,69,111,-98,18,101,-79,9,-172,-116,99,121,10,6,107,-74,-35,-12,-41,17,32,-115,72,-60
,-68,10,68,-76,9,-47,-91,117,18,142,-80,75,104,-118,71,13,115,-64,-66,128,83,-14,12,51,-12,-67,22,-46,64,110,1,-13,82,17,59,100,-101,86,26,-117
,52,-126,-41,-53,71,16,152,17,20,-129,136,-155,-21,32,179,-133,-12,125,-203,38,-55,-116,-103,147,54,-34,-17,-97,-6,-148,-187,229,-81,151,38,-38,147,-35,141,-1
,116,-18,138,33,-89,145,-88,-4,-28,77,-51,-106,-84,109,140,-73,-4,107,-12,-153,-61,56,-2,45,-34,74,-13,-113,92,-7,65,101,-12,130,-17,-106,28,17,-179,-18
,-31,-114,2,-135,-84,132,82,-77,62,-38,61,38,4,-95,-49,96,48,106,-141,-227,140,99,-55,55,106,-103,-57,-129,-263,-25,-89,-152,181,-42,79,12,-163,-100,37,101
,77,-49,-184,42,24,-101,81,144,-68,102,30,187,-133,-123,-130,-56,-19,-114,76,114,-132,-78,-138,-203,49,-66,-227,26,137,-93,144,159,33,-166,-55,-28,-147,182,-125,169
,-19,-144,15,144,36,-33,87,-108,74,83,-57,122,0,81,55,125,26,-105,87,-2,-82,84,-5,131,50,104,38,-105,-105,-115,105,-64,72,-3,37,-121,90,36,-7,-79
,-219,-60,-59,-63,-155,-43,-76,0,-208,4,-22,126,-193,-69,83,-4,52,130,-61,105,-1,-57,35,-117,-32,-72,-198,-61,71,178,219,203,-232,-106,35,-126,-30,-10,66,-9
,-162,17,124,60,-56,-21,-15,-190,76,120,-142,107,61,-43,-117,32,134,78,-79,141,37,83,-33,49,54,-77,-144,-44,-267,-8,-118,-84,114,-158,-207,56,-1,-284,-311,-106
,119,66,136,-3,-71,-19,43,-19,39,57,35,86,-27,134,-105,89,-32,-107,-107,-100,18,111,-16,-104,-98,-80,8,26,11,123,-70,59,54,-73,-70,81,-50,-104,148,32
,-49,-185,175,-1,75,-167,-53,-168,26,-94,129,-119,-116,142,-135,-61,126,84,-80,-105,62,-173,140,-15,18,117,-61,166,147,-30,-96,128,96,70,-87,-52,56,48,-139,101
,142,133,-36,109,4,39,70,94,-17,99,63,52,-30,-51,-140,-85,68,-1,120,-8,-141,-105,-25,-93,85,138,33,22,-55,-97,55,139,98,59,3,131,-90,42,-8,99
,73,113,-75,-66,-196,-152,41,-72,-37,70,31,137,141,17,57,-65,-162,-109,86,4,0,80,-96,-70,-191,77,57,219,-24,-46,-306,42,-25,-44,-30,168,-121,103,-71,10
,-61,-3,72,-72,61,-7,-84,-125,172,158,0,-61,147,-12,-46,153,-102,-118,-78,-124,-103,-101,97,78,-57,-62,95,-63,122,68,-47,78,109,-126,74,49,110,-3,137,124
,-75,44,9,-128,-65,122,42,-106,-155,6,94,-124,99,-41,7,73,7,89,-35,70,144,79,65,-100,17,95,49,98,-130,9,31,-1,-51,-71,-56,-59,107,-119,6,-11
,-62,101,-194,-156,-83,130,45,-6,32,-82,-125,4,7,-32,128,-50,-100,49,88,71,49,31,-153,125,120,-158,24,48,-8,-48,-118,-35,-69,22,12,-73,-90,-252,47,-86
,-155,-19,15,113,121,162,-150,81,-102,-57,-42,138,109,170,-103,-1,70,72,-52,-146,-34,-19,-103,51,52,-182,117,63,-214,-259,-194,-227,-106,-230,51,-89,-44,-33,-133,-179
,-32,-71,34,-117,31,106,-39,110,-109,-36,53,161,81,51,-118,-33,-133,108,-115,-139,-57,102,7,88,58,-95,76,90,65,95,100,91,-57,73,-104,-161,-93,-126,-18,69
,-73,-19,51,96,-38,-315,27,-4,128,-29,-71,91,-140,-186,-1,19,156,-202,97,-275,81,-114,-120,101,10,158,85,-287,32,64,-55,81,-142,5,100,-42,139,-54,-141,-285
,30,62,41,118,54,-100,-26,-103,-30,-70,141,95,11,65,12,-76,-11,10,114,12,2,-84,83,-93,-89,-73,99,-66,-234,-131,229,-44,45,-46,-137,-2,-135,44,55,-73
,-161,70,-124,28,-8,16,39,189,54,-17,-36,-197,2,174,-101,-55,26,-183,-45,102,-171,-30,40,-118,35,-109,-41,12,105,-172,-55,121,-67,-36,34,277,-173,2,21,-69
,-53,-43,-127,90,-47,-281,-99,-1,221,55,138,102,-23,-178,47,-61,-21,-118,115,-40,83,-141,-48,-23,213,1,42,-55,233,-12,62,-305,-104,84,-129,37,102,-159,-76,34
,-147,60,-70,38,89,118,-81,75,-39,-185,-36,-1,-130,79,116,100,48,31,-131,24,-130,16,66,68,-128,-50,-129,279,139,157,-69,-29,-138,49,-111,-74,-51,-36,-84,-192
,22,-94,27,70,-132,-59,15,58,63,18,-74,-67,-2,121,44,-74,24,-27,121,54,81,-134,113,-48,124,-103,86,100,-118,-34,42,15,57,-7,-15,48,106,-147,1,-132
,64,-33,-130,79,-38,27,-39,-20,-72,-34,-57,-16,-55,-99,-101,123,-127,-10,-116,-45,8,21,-135,-65,-82,-3,111,-60,-22,-115,-101,-133,-93,-66,75,14,-36,63,-8,61
,-110,60,-16,140,41,-64,118,-11,-138,156,47,-161,120,116,-17,-97,189,-51,-37,65,-261,-168,-208,-49,-61,30,240,-159,-96,60,93,-175,-115,-30,22,-22,77,-55,42,-165
,85,-68,-68,-4,112,-203,47,-36,27,34,-12,-219,48,-97,128,124,45,-299,-50,-190,43,134,-130,-226,-80,98,8,28,-69,-55,-150,-12,90,-25,-147,84,-59,-20,94,-41
,-87,-59,50,-142,-21,68,-24,48,-52,71,59,10,-58,-164,-127,89,16,105,73,114,-118,106,81,109,29,-101,51,-100,35,-31,37,65,-32,168,-150,-133,13,7,-56,122
,71,89,-69,-105,-7,34,139,97,-115,113,-65,43,97,-100,-73,121,-109,-85,-9,-70,-62,88,-101,-158,130,80,132,-5,104,-160,-59,-201,-40,-107,12,27,-135,-24,51,93
,-31,93,9,-25,-95,-45,51,-46,25,-128,6,-16,-30,-31,43,99,82,-115,-103,-57,90,124,120,-96,15,-56,-7,57,81,-144,48,-100,-48,-65,-97,5,13,-35,-123,-39
,-96,-97,-68,57,-32,-127,6,-22,-89,-63,129,75,-87,62,69,-35,-114,-81,-137,-130,11,-123,-65,-121,-35,53,-36,47,13,-51,-19,-8,-5,-102,53,49,-76,-85,-12,-101
,-99,102,-28,11,-145,-142,47,131,62,-41,130,-24,47,61,-1,-4,105,-265,-33,59,-111,-132,-26,149,4,39,-72,-184,-140,-88,-60,-81,85,-182,-102,71,57,-104,66,148
,27,27,35,-8,-90,-144,-57,93,-163,25,-103,-102,82,114,92,72,-130,-32,-101,29,100,69,140,121,-57,112,3,20,134,55,-148,-16,104,-34,-23,69,-45,-54,-45,50
,-24,-83,-122,21,-67,-58,-77,1,-17,27,42,22,-94,-37,133,-43,-23,34,9,112,99,-95,62,137,-137,56,167,20,-164,-91,15,90,-61,24,98,216,12,-183,104,-53
,91,205,-158,123,13,-43,-144,-43,-15,-18,-105,52,-39,-41,0,89,-139,-64,-13,-39,117,-26,-73,-110,-46,-81,136,-33,-161,65,50,125,102,35,23,48,-38,61,-55,64
,142,12,55,-16,-117,-117,-128,-72,-33,-31,119,132,130,41,116,84,-78,61,-61,35,-57,83,-116,128,70,109,-58,-21,54,-24,5,-68,-90,129,79,20,-104,61,64,70
,53,-80,-87,69,-63,-38,136,-55,-14,-24,9,-145,-78,-67,34,83,143,104,-135,169,68,-52,114,4,-218,-105,-261,-317,51,-153,-137,64,-120,69,-15,27,-100,-132,-12,-3
,74,-85,7,70,28,-238,-44,-200,-63,100,-100,57,156,63,-87,29,-23,7,73,-20,66,-75,-121,48,-44,199,-178,-298,92,-193,79,-148,-226,-179,-283,-50,-228,27,48,-272
,-99,-90,-87,-2,-102,-158,-65,94,62,-69,-209,-105,123,159,-52,-120,-10,197,189,-87,49,125,91,-91,-192,-5,-296,97,-57,-315,-240,-30,35,108,-16,39,35,-233,26,174
,-101,110,71,-19,-52,65,93,-50,-7,101,15,44,-95,-7,140,53,106,15,-43,-137,39,-72,89,16,124,97,-88,-41,-101,1,-166,47,42,-46,19,58,-2,-90,97,82
,-66,-16,87,129,102,-9,141,68,-34,-14,49,-120,132,101,-111,45,-46,-98,-41,-39,-21,-31,136,22,120,127,22,9,-25,80,16,75,50,20,136,-104,-109,69,-56,16
,-72,42,-25,71,-5,-54,67,104,74,5,-241,-109,-50,-2,-214,-28,-69,-88,118,-87,-80,-128,64,107,14,-169,32,-86,140,-43,-229,107,141,39,-278,79,-104,166,-7,152
,99,58,106,73,-124,3,-71,-125,-64,118,132,20,-87,80,-18,-130,-130,125,0,45,73,-65,-7,-10,-38,120,-247,-109,-89,42,-127,-59,113,-130,58,82,124,216,-51,-136
,60,-131,96,-87,74,-209,-52,105,-91,-61,-169,-148,0,136,-69,-141,243,-88,-69,157,-134,-61,-50,-9,-8,69,75,-31,23,176,-74,-102,127,-70,-54,204,138,199,21,-120
,-8,-107,-17,-19,151,17,-49,69,-121,98,-112,-39,90,8,101,-123,101,-27,83,113,94,115,-34,12,24,50,144,-163,-17,136,-10,61,14,98,-69,-127,-32,-53,82,-120
,3,-85,44,-37,46,-66,72,-14,-141,-18,116,56,32,58,117,43,5,52,-96,36,88,-157,-19,-7,26,-48,-45,79,-30,25,58,13,-31,57,-96,85,-24,-106,-57,-159
,71,164,-53,-57,-69,-67,125,21,29,26,-5,13,-34,30,-23,-59,-27,-36,-99,-27,160,-106,106,12,-33,116,-98,98,-45,38,-40,-103,86,15,19,-129,122,57,-10,-119
,-115,-154,120,-101,67,-63,114,73,-32,96,3,-74,94,-83,77,95,-155,-111,26,2,29,-118,39,15,98,-53,92,-69,-4,65,-78,54,76,-120,-69,11,89,61,-92,9
,3,107,-133,90,-51,58,-50,24,127,-59,-133,64,40,96,44,-114,145,-71,48,122,-42,40,11,129,27,43,-5,32,-73,30,113,8,118,126,-113,-12,37,138,0,-67
,113,-48,122,-113,127,-67,-103,-49,18,74,-164,129,23,43,74,95,8,-94,-78,-29,56,-45,-71,105,97,-100,-97,-167,73,-12,100,110,79,-31,131,-16,0,-8,-27,76
,-11,148,159,-91,-68,-155,51,-27,-80,-66,4,23,5,31,-72,-42,26,-91,-168,81,-63,102,-66,117,-328,93,-102,204,-305,-160,46,205,6,199,60,-75,117,-200,171,-25
,24,-99,43,106,-81,-17,-132,-38,28,120,-38,100,-53,85,120,-92,12,97,-42,-41,-86,-33,140,-97,48,93,-24,53,-81,-183,-83,-10,179,149,33,135,48,-49,156,101
,117,93,28,27,-112,61,134,-144,-87,-16,-76,103,-5,-115,-105,57,-90,-87,66,-87,39,94,2,26,62,40,-119,155,-85,81,123,64,-110,-106,-73,185,75,177,-44,59
,139,-43,-81,58,109,-44,124,66,133,112,-55,1,0,-98,81,96,39,-119,-125,5,28,-78,-48,-105,128,-105,117,45,50,-109,-135,127,-127,62,-6,-1,30,100,-95,-21
,129,95,-69,-61,141,20,81,-94,-3,-136,-83,126,-141,-55,-64,24,-54,-90,52,-30,77,117,-83,117,128,-6,-99,23,-98,104,-17,-77,-21,148,87,-152,-64,-197,23,186
,16,-188,-3,-154,-141,-120,-205,-336,171,-125,-205,55,14,-166,-124,129,-109,95,-73,4,-81,20,46,54,114,-191,120,-132,-57,-277,13,130,-12,181,50,109,158,218,156,59
,66,95,-64,61,123,132,-43,56,11,30,113,-64,-48,-92,105,43,-121,-18,96,48,110,-53,-116,-102,103,-9,-117,-117,-51,-152,76,-138,79,-30,-52,133,3,-87,-82,-133
,95,-123,117,4,80,143,122,83,-55,-57,-131,129,64,90,-130,-74,22,25,-22,107,78,-12,-60,63,37,84,114,-23,-49,-80,-38,-45,53,-49,119,116,-61,82,-21,-100
,29,117,20,6,17,-114,9,-74,-217,128,54,-104,-141,123,6,-129,131,-21,40,82,-100,65,11,-23,176,122,-47,-20,7,-118,111,147,21,-43,-10,138,-175,-134,-1,-134
,-97,165,-43,-30,-98,-120,-43,38,118,7,102,-143,80,24,0,85,67,-85,6,-7,-114,-55,22,91,-15,18,127,-105,110,99,-116,-80,-47,58,124,62,14,103,-5,-26
,110,-86,2,72,-44,69,104,-242,-24,-82,-57,91,-50,34,-84,102,-194,135,50,-98,-121,88,-102,53,66,-105,-153,-37,113,57,-35,-106,50,124,34,-120,-100,112,159,111
,-130,89,101,-115,98,-212,28,14,80,-12,-25,-203,-36,119,78,-120,141,-38,10,-120,-72,-6,9,-115,91,-6,42,22,13,9,-48,74,-137,112,77,-38,195,67,-93,101
,-40,120,69,-35,5,30,-124,-26,-5,44,8,113,-29,86,-53,81,51,55,21,-127,-117,40,-102,-21,39,-46,-115,-96,-41,-78,-46,-168,-34,-121,82,139,-31,112,-13,28
,-1,-144,-114,10,-82,-183,31,-68,-70,-145,49,-66,89,47,6,11,-5,99,46,93,92,143,-59,100,41,57,12,-82,189,-37,-77,73,-39,-44,-73,-6,95,10,-47,45
,-108,-72,-69,-93,26,-13,-71,62,63,-2,17,1,-21,-87,-80,100,78,117,45,0,-79,-53,75,-6,86,196,-25,27,-56,128,-58,77,14,-33,-190,-6,-123,35,-134,23
,17,-92,-95,17,-261,53,66,-108,-82,-16,-307,-199,-60,-24,-148,158,-138,56,78,7,-64,-92,-97,-5,73,-1,25,73,-234,-236,73,-71,138,189,75,159,-22,-206,-26,-103
,-147,132,133,-126,41,-102,52,-189,-19,79,105,78,13,-52,-41,-193,94,-35,-72,144,59,-163,-164,-60,-244,-291,10,52,-28,24,83,39,294,204,-80,50,-324,-147,-185,-226
,5,117,98,-66,-123,-160,-46,73,-130,-24,-49,128,-74,67,-63,122,-98,81,-46,-41,22,-69,20,85,-8,112,-104,-42,-28,69,-95,67,16,61,-93,101,137,-95,-113,-15
,35,-43,107,90,10,84,43,62,72,-87,-77,-118,-105,116,-116,93,142,149,-59,-144,5,22,109,-154,-97,-27,-16,46,-84,-183,-180,-47,54,45,35,42,-186,73,100,-97
,173,-160,-28,142,-173,42,102,-216,53,105,58,-62,-114,-28,127,-149,166,30,-47,-183,-139,-113,81,81,-62,-43,46,-140,26,136,62,-84,-113,111,-58,-58,-38,111,-215,15
,-126,-20,-6,-42,-42,-21,119,68,30,18,-67,-149,41,-2,0,89,28,-54,104,-98,-147,63,-50,-62,-45,46,-19,38,-127,-14,32,-49,-99,-57,56,-99,-32,-31,28,68
,49,-84,81,39,-261,-19,-15,-98,87,-133,-34,139,-142,77,-19,-59,-55,60,4,-52,-105,21,32,-39,41,-9,-66,-84,-21,5,78,-148,249,153,125,129,-129,40,-10,-312
,-61,-76,18,76,-198,114,1,-104,98,9,100,-12,-109,-184,110,89,-22,36,-163,108,82,-106,-136,136,152,-90,161,-118,69,-135,59,98,-164,-117,-317,-35,-123,-154,-131,68
,21,20,-39,-30,-22,55,-167,-2,-137,-73,34,-189,-36,-32,-27,63,-103,116,-37,17,185,-53,113,20,-78,87,-103,90,45,57,134,51,-50,48,-1,-89,-140,123,-132,61
,86,-24,-71,68,-54,-29,-21,102,-71,85,9,28,-127,-157,-83,19,65,111,14,80,104,26,-41,-64,-139,10,66,-44,-163,-21,119,-9,-123,43,47,-84,55,-34,110,68
,54,30,-23,-130,38,31,46,-77,108,149,-106,-100,-116,-83,-32,91,56,-196,56,47,71,-91,-8,-5,-36,-39,99,122,39,37,-49,110,-49,169,-47,32,46,132,17,98
,60,56,-102,-127,31,-189,-102,20,-109,134,-26,67,18,-12,238,-47,-9,96,157,-7,4,-23,-70,62,43,-48,-97,67,11,39,35,-52,26,-263,44,-78,-151,-72,81,-132
,115,12,-31,107,33,149,-27,134,133,-158,-166,147,107,-157,-42,-77,-57,-91,52,-78,-45,-42,-70,-45,-176,27,14,4,-123,181,-96,134,69,162,29,-107,26,144,15,-38
,-22,100,-56,31,9,-82,66,88,13,14,16,80,-128,-106,88,-92,69,-92,97,-26,41,4,-43,-99,-16,-50,108,0,100,-118,33,23,133,34,-78,-52,81,77,-50,48
,-29,98,-43,65,107,-78,-96,-24,13,12,29,84,22,-52,-99,74,149,-142,-37,74,-81,69,-52,129,38,125,-70,75,-118,-123,91,56,29,67,-11,62,117,57,74,-98
,-6,-175,-106,90,-120,-193,35,-145,-117,-43,84,46,-84,-53,118,108,129,-20,91,65,-4,152,26,0,-2,-214,118,-48,62,-20,28,-64,-86,46,132,-24,-27,12,-66,-61
,-126,38,42,102,-14,60,110,-53,-24,81,117,-58,-92,79,-9,4,-21,-121,45,-22,-138,-65,135,149,150,-151,-3,-15,79,5,-110,-53,-91,94,40,121,-105,-144,-111,-151
,-35,53,-83,-33,-102,-42,-178,93,-92,-68,103,-17,-89,-101,36,-34,-135,-36,104,54,94,-37,108,29,-9,-42,-141,21,-173,-37,-75,-153,-108,73,-176,118,-70,-122,-116,101
,-141,163,26,-60,2,-81,-77,46,217,-113,168,-226,-169,-151,-129,76,-161,-81,-27,84,-164,125,139,-90,111,46,-149,-76,-99,-195,-28,-18,-186,-186,-84,-135,36,-235,-201,159
,91,118,-44,-117,98,-135,-161,36,79,17,-136,25,47,-98,38,-95,52,37,66,-41,-96,-92,-12,111,-57,-23,123,-39,-140,6,50,91,60,51,4,54,-62,-118,-157,69
,113,-63,-33,62,57,111,11,-85,-188,-68,90,-94,-3,-11,18,124,76,-101,-34,96,-213,-12,-196,-22,-87,42,14,25,-64,-95,18,-6,66,-159,-162,-5,33,-99,229,-212
,59,-49,-113,104,-196,155,-52,-151,7,6,32,102,114,-41,39,-128,9,-111,-16,49,89,-157,114,26,-6,127,97,-110,148,136,95,176,-30,47,30,15,71,-73,-24,49
,-105,82,65,-83,-2,-52,-81,99,-53,-62,-193,-30,-40,0,170,-56,-25,-18,-16,13,-7,-174,73,113,-62,-74,-69,-172,-386,-88,-281,-78,166,-175,-78,247,39,197,-152,171
,25,-59,42,55,-172,153,-22,51,85,43,-40,-105,83,-82,-51,136,-130,-127,-117,124,68,78,67,-128,104,35,-114,-154,-9,145,53,-99,-62,91,30,99,142,129,141,-62
,-50,-38,71,-116,75,92,22,-150,-82,-135,45,109,113,134,119,-43,-239,-75,-148,195,115,-10,-42,-14,-53,-22,41,-103,109,-128,5,115,-18,-67,-204,-46,-163,-176,-21,-263
,64,-104,-31,-237,82,-35,-56,111,-76,-205,-211,12,-181,37,72,-22,-3,19,-85,-64,160,-227,70,107,-95,93,121,217,-171,-140,330,-38,51,21,-44,78,-222,-44,20,-24
,-127,252,-167,-176,123,-18,-118,-114,138,82,211,-69,111,-39,108,99,-156,-300,102,-39,-266,13,-33,-123,-74,38,-24,45,-85,-194,157,-75,73,7,-65,51,-124,-142,-63,-130
,-92,-308,19,-66,1,15,-77,142,-218,84,-54,-84,-104,131,-293,-122,240,-4,-84,38,14,81,-44,174,182,46,148,-133,-66,84,76,-169,-173,128,201,-216,-253,-123,-74,87
,46,-10,-132,127,84,150,-113,-99,-113,20,-65,53,5,-14,-154,-9,-42,70,25,-9,-50,61,102,104,71,85,-29,-195,165,-193,-40,-97,84,90,-102,74,-86,65,171,139
,-14,-74,21,-22,86,100,-93,109,56,-109,6,113,136,-139,51,110,-79,-135,6,29,-5,-3,3,108,25,76,-112,-105,121,-122,-29,-34,-43,0,-240,-130,154,-65,12,-104
,98,-202,78,-135,-214,-30,65,-181,53,111,-58,-8,-103,256,-44,131,137,-179,-30,0,122,-47,-120,83,-133,-4,-22,34,-16,-53,-6,56,60,-68,65,10,74,-350,30,-118
,137,3,-130,55,-46,107,138,-85,101,71,-23,-204,44,-63,5,56,-49,-87,-101,44,-65,49,51,-183,114,-103,24,-81,-181,92,-166,-148,332,-17,100,33,-99,25,-86,-153
,-49,-265,83,55,-59,116,105,-62,-166,-14,73,61,94,21,-70,-50,-163,254,6,104,-118,-109,-195,149,-195,-231,-391,-142,113,-157,69,-218,-11,136,17,-74,15,169,144,-85
,-57,-185,177,-17,-12,133,-154,9,-47,37,80,49,97,88,29,148,-371,-179,-99,-85,5,12,-67,-70,-113,-96,83,-70,-16,119,179,-97,-179,-62,-65,225,-73,130,69,-35
,-102,223,76,-107,153,-93,-65,175,41,-139,-249,95,87,87,-86,-2,-56,-18,-90,-24,166,16,-90,-48,174,-109,55,34,121,-202,-29,47,-94,197,-124,-105,-118,119,133,-15
,-141,-144,-116,-111,-110,89,12,77,-101,-127,80,-59,-86,38,-108,-106,-169,11,10,89,56,-94,-62,-132,35,73,-87,88,-113,-122,-108,-58,-138,-132,-87,-172,-105,108,56,-66
,74,76,49,25,-15,-3,94,68,19,-1,-7,-47,-122,-14,74,17,-110,-89,71,-55,61,60,62,-39,-136,-19,-14,-65,40,28,-76,-130,55,95,-36,52,-92,-114,80,-13
,-8,-67,88,123,-54,-89,-119,120,126,9,38,1,87,-38,72,39,-54,-93,4,67,93,-88,-20,53,85,57,-99,-56,63,47,-43,80,17,-127,-26,-68,-29,-140,-42,23
,-115,-98,127,149,-68,-68,105,-277,-7,-88,-79,155,-75,-128,-4,150,-226,-34,1,-96,-126,-121,101,-86,105,-265,-118,-1,-72,290,22,149,-67,1,-2,-8,-283,-226,-364,250
,-178,-33,169,-3,-141,-154,-149,-17,-2,106,66,-3,-46,61,70,-135,-120,-25,-6,141,11,63,-128,33,120,-49,58,-17,-54,-130,70,157,66,106,92,63,120,-103,58,30
,-83,-87,-78,102,177,-322,62,78,-187,-96,-82,-133,113,-111,-63,37,121,-318,-89,-231,90,-1,44,167,214,-351,66,3,-167,179,15,179,-40,107,-169,15,33,-142,54,-213
,78,-144,118,103,-149,50,120,-37,-45,-38,-31,-120,7,105,83,78,27,44,76,-73,-143,-151,-42,-12,53,-102,1,-66,29,-19,114,103,41,70,21,-27,76,-161,90,10
,57,-104,-50,115,-109,9,-161,147,-88,67,69,-57,-116,-46,128,-30,-162,138,-119,55,121,-119,33,78,-63,-113,-68,-125,79,133,115,65,178,-186,41,-53,-40,-17,49,-85
,-23,136,-37,79,86,35,-127,85,23,-47,95,-98,65,-33,111,-14,-54,-52,-75,-98,-19,139,-130,84,-27,4,68,115,-25,-121,25,-107,-43,-89,71,-113,56,-78,67,118
,-86,-61,89,75,-67,-23,-53,-137,113,122,67,-14,89,102,-109,61,39,-59,129,51,108,-13,104,-31,-61,41,-56,77,74,-62,103,37,-58,-22,80,8,19,8,19,-153
};

long weight_1_T_sda_4[2*256] = {
-48,-185,148,24,-112,-171,-25,157,-2,-19,380,105,-84,-338,-11,55,197,-112,83,-118,-121,56,82,36,94,77,-89,110,-98,115,378,-206,-43,164,-259,92,-71,69,-62,-244,-37,-4,-246,-68,66,149,-455,132,-117,-56,127,-37,136,66,246,-239,101,104,351,-112,-171,-333,347,41,136,105,40,32,-211,-94,126,119,447,-141,6,-1,-2,-39,201,69,345,48,-112,106,79,-153,11,-16,-42,-45,-21,-260,-226,61,88,113,-79,-3,145,151,29,132,276,-87,67,-190,-147,227,91,-76,-178,-87,43,107,-51,73,-13,73,-111,-485,51,55,-39,95,42,302,-47,95,89,31,-113,68,158,-196,60,-108,65,135,-115,104,-291,33,-123,-73,77,-163,80,-43,-135,134,107,170,108,179,42,124,207,63,133,-55,-70,89,-122,-64,-299,120,232,138,173,120,-105,35,105,-131,-99,-21,-123,-3,23,184,-36,110,-137,256,-242,33,-55,195,27,-256,56,-150,-58,61,34,-24,-2,-66,-3,-47,60,-288,-76,131,-1,77,110,75,135,-79,69,-289,388,-46,-65,-92,-150,58,66,-161,120,-51,-131,51,-97,0,40,-22,-132,228,-100,132,-147,187,57,159,133,-205,215,-40,-36,-203,196,135,-86,53,-110,-37,21,242,-54,-157,6,-136,-65,-107
,-75,202,60,-185,153,-25,-201,-232,68,29,-158,-25,32,321,-22,70,-125,18,59,80,188,60,-6,15,-42,86,-95,-81,-115,90,-315,71,-94,-135,144,178,98,-90,0,64,107,136,100,137,117,104,260,-42,-17,60,-204,-119,126,-43,-259,57,-69,-40,-296,46,152,128,-261,-103,-80,73,82,77,330,-52,28,79,-230,252,49,-128,-46,-11,-45,-54,-433,-19,28,190,-92,-19,-232,36,37,50,46,-35,397,147,93,11,47,115,90,-378,124,121,-425,-80,-136,268,-72,-105,97,-39,-12,90,-121,-50,108,128,239,-32,210,303,-128,91,53,84,77,-316,80,134,-133,161,64,-241,-213,-51,157,148,129,-345,-41,12,362,26,69,-122,-67,106,-22,68,156,-38,-162,-212,48,-175,188,10,-99,19,-135,69,125,-133,137,193,302,-35,-59,-241,-179,120,-84,-298,-261,-111,86,-19,70,-172,90,79,78,31,-28,-260,134,97,104,-245,98,154,-74,-119,105,69,-24,-127,268,71,-112,-106,-92,233,-41,-121,112,-77,-49,-98,145,157,-73,67,-289,-125,-129,258,-107,-151,-231,167,117,66,145,139,-25,-21,150,78,-41,-229,-131,-143,-57,-312,-47,-118,-362,207,-300,36,133,153,26,-208,294,-175,82,-94,-62,-444,-177,257,10,43,4,-26
};

long bias_0_sda_4[1*256] = {
-11,-18,20,34,-31,-89,-52,56,-17,-55,-11,23,-19,-36,-17,2,30,-30,16,69,-10,-28,-7,4,13,-12,-2,-10,5,-24,23,-13,1,-39,-27,-29,-26,-4,-18,33,-19,-11,-19,-12,-14,38,-45,-30,-57,-14,-22,-5,6,28,31,-10,53,-11,-12,-38,-47,-48,-39,13,-15,12,7,-1,-41,-34,9,24,82,-102,-18,6,8,-31,-27,22,29,16,-5,4,14,-32,-44,35,-17,-9,-1,-8,-13,0,-4,35,-3,-10,28,96,-5,2,6,-27,2,-9,-21,-46,-14,-25,-52,0,32,15,-16,-14,-12,55,-38,-12,-49,-28,-11,0,0,79,-22,-23,-30,1,19,-41,24,0,4,-71,-33,104,-28,5,-8,-20,-14,8,-28,25,22,-2,-76,18,15,-44,13,20,-38,13,37,18,-50,30,-5,-11,-112,-44,-13,15,20,-31,66,-7,-17,11,-4,-29,-16,-30,-7,52,-27,43,36,9,-78,16,-9,-21,-8,11,-26,-23,19,-53,-11,-18,13,7,27,-8,-7,13,-12,42,-29,20,-1,-4,0,-56,-29,-49,20,18,35,-3,39,-76,-40,-31,9,79,-26,30,-34,-13,-24,9,0,-30,-20,59,-25,-30,6,24,-28,9,72,-22,81,-35,-55,7,31,71,38,-18,-46,4,18,-23,-18,-21,-17,-36,-35,-27
};

long bias_1_sda_4[1*2] = {
23442,-14315
};

#endif
