
/* Trace */

/**
 *  updated on 05/12/2023 18:10:30
 */

#ifndef __W_SDA2_H
#define __W_SDA2_H

char name_sda2[] = "Trace/sda2";

long weight_0_T_sda2[256*31] = {
11,-8,2,-105,12,55,-54,-143,-14,98,-98,96,-102,-80,-59,18,94,58,-81,-87,67,-139,35,55,-48,35,12,0,118,-106,-30
,-47,137,-27,-75,110,101,-97,32,55,160,28,65,-93,-5,158,142,-85,19,90,-138,-85,-89,-45,-76,42,-143,83,-138,-20,114,-71
,-1,-15,64,-98,-116,-113,-50,-80,-66,-108,112,-132,91,109,-172,-72,86,110,5,1,-43,-27,-127,82,47,92,95,53,83,-62,35
,-119,-21,-124,128,-105,63,1,-57,-15,-44,-35,-42,-36,-70,2,-103,92,106,124,-133,30,117,-39,-110,127,167,-44,-15,156,-76,-5
,-78,123,137,-38,-103,6,-143,87,85,83,63,-102,79,35,-132,-34,118,93,12,-98,113,-96,98,-129,4,-119,54,48,76,-54,-109
,111,32,11,136,25,119,-113,27,-10,-95,115,72,24,-207,104,-155,-21,-89,54,130,-127,-115,95,45,64,-32,-116,-90,108,-99,3
,114,92,103,-38,-101,91,44,-137,12,37,15,107,-134,-67,-112,-37,-40,-74,63,-103,-85,-47,93,-147,-69,-13,-31,-10,101,35,-128
,2,133,80,3,-65,-89,121,-84,-83,-138,138,78,-36,-30,-32,-1,-22,126,138,-102,8,123,89,-61,64,-95,-19,85,68,-98,-97
,-74,56,54,-132,-21,-17,24,39,-114,51,-2,87,66,62,82,117,53,65,-105,-25,-1,-70,64,-98,-41,-19,28,11,67,-118,140
,5,67,-91,-132,121,-35,78,52,121,139,57,135,64,77,86,120,122,-63,-100,-32,-88,131,110,-85,-31,55,-118,30,-103,96,-99
,95,-46,55,-126,-23,-156,66,-63,-131,97,-103,39,-65,90,69,-128,-136,-114,-47,-75,-131,131,4,85,60,-90,-140,31,-7,19,116
,76,-112,25,19,24,-37,42,47,9,-145,-70,-40,-57,14,112,-33,65,75,63,48,73,77,-43,140,34,-79,-110,-85,-60,-56,120
,76,-143,-131,55,1,163,49,98,-77,135,-52,-91,123,-55,-168,72,-75,-146,-113,18,98,70,-27,143,-71,-54,-45,49,46,-109,24
,-109,66,80,-33,86,63,33,142,-23,89,-21,193,-117,-136,125,-61,-38,107,56,-132,-13,161,40,-33,-136,-115,-98,124,14,-2,-53
,-39,102,101,-115,-48,71,111,101,110,65,158,-50,49,-125,-75,-136,-130,-106,6,-59,112,99,-32,4,-56,18,-77,-86,82,-90,-98
,49,-46,-143,102,134,-129,-111,-117,-41,-82,121,-192,122,-3,25,71,54,109,-29,-41,-130,-72,65,-36,17,87,-63,130,32,25,-105
,92,104,-126,-130,-32,-88,113,-61,-108,-67,127,75,-34,46,37,-147,-76,-13,23,6,-135,-134,-52,-20,99,-90,84,-42,9,-83,-84
,-27,-136,64,-14,71,-90,-107,137,54,68,8,139,37,78,86,-72,59,64,8,86,61,-17,97,-115,-128,-40,-79,56,135,132,14
,-44,-132,27,73,-41,-145,-64,124,50,-17,49,14,-115,21,-30,103,-35,-73,116,-69,-18,98,-71,41,-64,131,87,122,109,9,-33
,-20,-79,91,-119,-58,-121,-76,15,86,-1,104,126,73,-61,-61,-56,-5,-32,-102,-121,82,145,125,160,-74,35,-1,60,71,-4,-97
,-30,111,129,-39,-80,115,32,71,141,39,-36,37,101,-6,-119,-27,-58,123,-31,128,-71,-42,-112,-144,58,82,92,83,147,-5,-94
,-135,-120,128,-106,-71,-55,35,116,40,-94,42,107,2,-5,102,-98,136,-148,97,29,-124,109,-33,115,117,-91,-3,13,51,146,-103
,122,124,41,20,59,-7,-101,-93,18,-59,42,-88,-65,-10,-111,81,106,4,-24,-46,-51,8,-23,119,-73,-64,-56,-16,-46,109,113
,76,-54,-54,114,-55,186,3,32,-153,-132,-93,-95,55,-30,19,-37,61,86,148,63,-122,136,-112,-93,-139,-101,-35,-101,122,90,-65
,43,54,-144,122,77,-136,-49,121,-52,10,108,43,27,-129,97,49,-22,-33,93,-156,-4,40,45,-42,68,22,92,-89,-124,-59,-127
,-56,54,-107,-80,36,-36,131,-95,44,104,-49,56,-106,15,-73,-65,36,-70,-49,138,92,81,98,-127,-122,113,-167,94,-77,-136,-149
,113,105,-14,-34,-8,-147,115,73,-108,-44,18,-45,-107,103,-97,118,-119,17,-22,-26,-153,-63,-61,-50,-115,-89,66,-141,-95,-44,22
,-114,-32,-18,8,70,-33,42,97,-49,-131,-16,-150,-47,-28,69,41,10,-46,-93,83,-43,-20,2,-75,48,-55,131,-58,-6,82,-81
,-45,75,-40,5,-35,-89,-43,42,-76,10,-20,-71,115,-65,21,86,116,-70,-96,-133,10,-30,-125,143,81,124,-86,89,160,18,27
,-129,-71,95,-20,95,84,42,58,141,-26,68,-12,50,-66,-10,-60,43,-6,-59,-149,-27,-78,-147,-32,88,-28,1,9,47,63,-31
,70,45,-130,3,85,49,72,133,-115,-74,146,-39,67,93,59,127,85,-123,117,55,-61,-1,-34,-115,103,-64,-137,106,-65,30,2
,-51,-40,-193,-29,105,-167,-75,-162,-62,60,68,180,-49,-94,117,136,-15,-46,-118,-86,23,110,14,-123,48,-69,-31,131,147,24,-18
,7,-110,-120,98,87,55,35,-58,1,68,-29,-71,-37,107,14,-18,-3,-9,121,-21,-77,-108,-56,108,-79,69,164,-112,-80,-38,26
,-40,-98,-27,-48,-81,100,-83,-95,-49,32,-121,106,111,120,-114,61,-50,-20,-143,57,-67,-34,-47,-83,37,-80,2,-12,-35,74,-70
,81,-49,114,144,-112,-68,-53,50,-1,-104,-95,135,-33,-49,-63,-141,-91,-111,49,-15,-140,-43,-92,-91,-66,7,-13,93,96,111,-41
,29,-34,-18,130,6,114,109,-52,100,-130,32,52,-129,-67,-65,82,-113,124,-109,-82,116,104,-78,144,-27,-7,96,41,-144,11,-106
,49,36,99,-81,-104,-48,67,9,63,-18,43,16,6,34,1,-147,50,-143,33,6,53,99,-105,-89,-45,9,38,-102,42,-104,-128
,158,89,-109,-46,-123,-86,109,-129,-13,79,139,43,-86,-90,-57,141,-58,-59,98,-13,49,-75,55,92,-84,-119,106,-42,65,-26,14
,-39,36,101,-69,3,-86,-74,-123,77,113,-139,58,73,129,-22,-31,121,97,-41,-56,-63,-4,47,83,57,22,-51,84,-114,71,-138
,-17,-116,0,72,80,8,-97,-17,61,127,-14,68,95,-25,-53,-61,29,3,-12,2,-4,88,34,-21,92,-36,88,66,7,36,-124
,83,-57,-5,-38,-25,-36,99,-26,-84,35,102,135,-27,115,-33,-64,80,122,31,36,103,-93,62,44,95,99,131,44,-150,-145,-90
,72,-150,84,-145,-93,145,130,16,-142,55,-67,-9,-4,34,-91,120,-62,-17,-37,49,-36,-61,-130,-44,-109,86,-51,-10,165,16,34
,-31,111,-40,-140,58,-60,-8,12,-65,-1,-122,-64,24,-161,159,-188,86,-139,-131,143,86,-65,65,105,64,-54,-100,-33,54,64,-7
,14,88,70,-118,-29,-31,-94,30,-33,-46,-76,134,49,-77,-119,110,-90,-122,-51,-14,-8,-92,-100,-65,40,-49,68,83,-80,46,-29
,-28,0,17,-72,-68,-16,9,38,-129,44,-1,60,72,-70,90,73,74,-40,-13,101,78,117,32,-27,73,148,23,14,-2,-34,-73
,-144,9,52,-65,123,-133,13,-89,109,25,-122,-20,76,96,74,-132,-107,25,-20,-152,-73,-125,45,94,124,-107,99,-148,1,-18,42
,79,54,47,67,-9,92,-98,122,-113,73,-144,37,-100,161,-123,-150,88,111,-49,-6,-131,-157,-163,74,-54,37,126,53,2,50,-77
,17,2,-21,-109,73,-139,100,64,-4,39,-128,-62,-29,-109,-112,-120,129,74,2,129,-82,68,-30,-27,69,93,66,112,-142,-24,-31
,22,-25,10,69,91,16,-9,126,127,-88,69,118,127,-11,68,125,109,-75,4,18,0,88,-68,10,114,-62,-62,-94,-78,-113,-109
,-145,72,-109,73,-74,-36,23,71,-124,-127,-88,-3,-49,-50,-63,70,31,-38,27,-34,66,52,113,138,57,32,-60,13,-89,-32,-118
,17,17,33,-71,124,48,44,80,61,66,-125,30,-101,72,92,4,-39,-4,78,115,80,73,-44,-68,88,-66,24,-109,-34,128,-91
,-24,-125,136,-42,57,-33,-112,106,-59,111,62,-115,-91,174,-24,78,-59,-119,137,-30,127,-81,20,108,-78,-38,-8,13,40,-62,50
,-145,108,-114,-129,35,13,37,-62,-31,103,-90,92,107,-148,-130,-105,61,78,-134,32,-69,-112,110,63,121,95,-68,134,-19,24,-30
,103,-13,-57,-24,132,1,-64,97,-17,-99,-103,126,160,-54,-65,-85,142,-43,90,70,-5,70,24,30,-118,37,-87,85,-111,-87,26
,-86,129,-45,37,2,97,111,-30,27,124,104,146,62,-74,-18,-116,72,-38,75,-13,9,32,57,-21,-27,-107,-143,47,119,-33,141
,7,4,-98,89,87,-125,-45,-132,-117,-137,-60,119,-97,-59,14,-61,-29,122,-94,54,-1,-115,24,21,-117,-126,-49,-64,-77,34,73
,31,111,-32,0,117,-89,-148,-48,-141,56,56,-21,72,-99,-106,-1,-12,-103,-66,13,101,-46,72,-151,112,-125,21,-28,8,-26,-26
,57,18,92,68,-99,62,-117,145,108,4,-60,-41,110,-22,-64,139,61,44,-69,-70,-67,39,-79,41,18,96,-68,-67,134,-135,120
,-74,67,-132,151,-90,21,27,-117,3,132,-61,-120,-46,148,41,-71,100,-53,142,11,-46,85,-55,-62,-142,186,-163,142,-142,-57,-17
,-96,129,11,26,-104,108,11,0,88,-119,-84,10,119,-132,-66,-12,1,-94,25,1,129,127,30,32,-94,-58,113,-132,23,-1,-8
,120,61,-7,-52,134,145,-46,88,55,108,11,-84,-3,-24,103,59,44,41,127,36,-46,-69,107,67,-123,-78,-74,130,106,-18,135
,-68,132,1,-55,-36,-63,6,35,27,-54,22,-64,113,-26,-74,89,131,99,-68,69,51,36,-9,17,127,55,-29,49,-36,-86,-49
,-8,-109,2,101,-71,111,-94,-5,-10,-73,-93,-111,89,76,100,-57,20,-139,-90,96,-127,-79,32,-140,119,-41,-17,7,-62,-77,16
,-108,56,-9,35,95,-22,106,67,-104,-77,-122,-3,0,-25,37,16,-150,-124,18,126,-114,0,42,55,50,71,-103,5,-141,-137,-110
,-13,-57,-137,69,-12,0,22,117,118,90,-135,-18,52,0,112,17,72,37,-63,37,38,28,39,136,114,106,45,-143,7,-94,-29
,23,13,-143,-111,-117,-128,-122,51,-58,-69,65,105,-83,-92,52,56,-52,106,-47,102,140,-103,-133,-122,74,-82,-54,-68,79,-75,-29
,8,-141,11,44,-133,-78,-23,67,-29,90,-5,-60,-133,-130,100,51,-129,117,88,-73,-49,20,73,-102,75,113,-53,-147,-10,-141,-29
,-107,-49,91,-10,25,-112,-110,123,17,-86,-135,-105,-108,-117,-151,76,8,-16,-145,-7,-71,-13,-54,19,98,-129,117,90,-52,-107,97
,-97,-48,-53,88,24,128,112,-26,41,66,-56,161,63,181,129,-158,112,-9,62,103,3,-89,-74,-124,-138,-93,-127,-74,-166,-100,-39
,147,-84,126,127,49,37,-21,150,-108,86,-126,103,-49,-88,-119,108,-114,-10,-85,-33,-61,89,-19,-72,-45,104,0,-66,17,-41,78
,-129,114,-56,-138,83,-121,32,-38,-71,-24,-54,-124,-100,48,-24,127,75,70,121,66,-52,2,1,106,-27,-19,40,135,-92,105,1
,-129,119,100,6,-57,0,105,-140,-91,-10,131,-7,-147,130,142,56,-103,-46,-79,55,128,-145,59,67,145,97,60,133,136,47,6
,74,-25,94,120,-160,-66,124,-41,4,80,106,-54,100,20,39,-121,-86,-97,6,126,-111,-57,-82,-100,125,22,-73,-63,2,100,91
,-19,-74,-61,-21,-42,-3,66,-55,-81,-87,133,74,-48,-124,29,120,-121,72,-56,-115,120,94,0,-85,-112,-104,-64,-26,1,35,-5
,107,-70,-144,87,118,-82,-131,123,-142,21,-110,-50,86,-16,137,102,-135,-69,33,-37,-17,14,-113,-130,-84,0,57,-121,72,-111,-4
,-42,22,-92,-86,10,12,16,21,24,112,83,63,-250,206,-84,-127,65,-93,81,-76,-146,-27,-8,110,-60,134,-76,-53,45,-141,-79
,-23,-129,-72,-21,-47,22,-30,-144,8,126,101,-89,75,-42,-108,0,90,45,27,37,-112,-127,-131,137,73,-112,-104,22,-132,-141,-44
,-111,-57,-75,-86,-86,72,-163,128,108,-134,-65,-75,-123,198,-70,85,-43,-115,47,78,21,-67,-148,105,39,57,-137,60,24,-156,-130
,-55,-146,-37,94,-147,90,22,-125,-40,94,-16,92,-21,-49,-79,-5,29,64,24,43,-69,-70,-35,-80,102,-32,-3,149,-75,-13,-149
,-89,-2,-127,-59,-47,-8,99,67,-40,70,14,-113,116,-31,-73,29,-117,-25,64,36,45,-70,-132,-63,-111,-17,87,-95,25,-141,60
,65,-11,-48,-25,78,29,48,-1,159,58,-95,-22,-93,-106,194,-123,8,-35,-62,-29,-130,-47,125,0,91,15,27,-25,-35,-64,105
,19,-115,-81,-6,-23,62,-70,-115,127,-153,17,93,45,-42,0,125,48,-78,2,-134,-27,14,-104,5,-46,-60,10,-75,57,104,-143
,69,34,-69,109,-38,19,85,93,-128,-74,-47,-122,-92,94,40,-38,129,-109,150,-135,108,-32,-33,80,68,-25,-123,-69,20,86,71
,-37,46,123,56,-35,98,4,-110,1,83,-81,-16,25,-108,-100,90,-62,-102,-133,-50,101,-31,127,-107,59,82,-46,-68,137,-44,51
,50,61,89,12,83,-95,-127,-13,-4,45,-141,-106,-109,-34,-14,-15,-58,-43,-25,-98,-64,-127,64,-129,-89,-36,93,6,106,119,-78
,166,-11,78,-78,-159,122,-108,17,-100,125,-77,28,73,-103,-147,-170,5,-150,-59,81,65,70,-45,-105,38,139,4,-134,61,30,-23
,-66,-72,-2,4,122,-7,43,-29,142,-68,-72,-128,-120,92,-57,-22,-134,31,23,-80,114,-19,-92,-138,22,-41,-106,70,132,23,-26
,127,-125,-104,-137,-7,37,106,-132,58,-42,-9,34,81,-63,-170,-114,-44,18,29,7,-17,108,-18,-110,127,70,-130,123,134,-3,116
,108,66,0,33,14,-132,43,-154,6,-93,-20,-8,-116,157,-65,-80,86,44,-123,77,25,94,116,122,-112,45,-80,20,-129,-2,24
,60,-92,90,-93,78,71,-126,-111,-133,-88,23,-125,-86,56,11,52,112,-28,104,59,-138,52,31,8,-125,46,76,54,80,86,125
,-123,54,-117,63,-63,140,121,62,134,-115,118,-118,50,78,0,-72,86,103,51,134,79,10,121,-94,-115,59,61,125,-94,67,31
,72,98,104,-24,140,-118,40,-135,-4,72,69,-33,-33,35,34,-87,117,52,80,25,-94,26,12,49,53,-110,-27,50,-43,-40,68
,25,28,-52,-27,-48,-7,-37,124,-82,-105,104,-70,-76,85,-30,4,134,91,23,39,12,-87,116,116,86,46,-61,40,99,0,141
,5,-32,-120,53,33,-37,-116,-33,30,-45,-42,-202,-76,-73,74,26,87,-85,102,77,144,3,35,110,5,47,-104,-119,0,17,-116
,40,37,-115,86,-94,6,-16,-103,-142,127,63,-99,25,-2,-75,-91,75,49,136,-113,-50,-8,87,-108,-7,61,94,116,63,121,77
,69,8,36,-129,-28,-100,-100,127,44,14,41,110,-3,25,-7,17,47,-11,129,-105,-65,-12,-121,136,12,-7,38,62,134,-133,138
,-51,-141,43,58,6,-141,85,60,-83,-13,117,139,94,-39,116,-29,64,-69,-91,36,139,-21,9,-155,67,4,-125,-28,123,-130,-147
,-31,-113,-76,84,-98,53,111,-103,-103,131,105,14,68,-122,27,-17,1,123,28,-118,127,80,75,76,107,91,13,-146,67,-137,-4
,41,-120,109,112,-50,51,29,-128,-45,-101,-67,103,-113,47,-93,-144,-73,-139,-91,79,-138,64,-62,75,82,-144,-41,-130,40,135,-131
,5,-114,-120,56,117,-113,-73,-100,120,-116,86,-103,-47,-13,-127,66,-113,-132,-94,-93,-19,104,53,-118,-27,-41,-130,-110,1,-7,13
,96,-99,12,-106,120,120,-101,-98,-143,-7,-17,-36,-102,80,-33,-39,39,-91,-121,-66,119,-63,7,86,55,-68,-39,-114,-11,-131,34
,-126,75,-136,-14,101,-22,-92,-144,52,26,-20,-141,-59,-13,-94,53,131,-34,-57,-3,-45,50,-36,89,88,-112,-113,-119,87,-127,-122
,-38,72,69,-59,-184,-99,-128,-17,124,33,73,-94,-182,119,-131,-46,-51,-33,53,16,20,-24,112,-32,133,-24,121,42,-90,-120,18
,65,151,-32,77,106,-116,47,-47,-33,-5,-61,-5,-70,-12,-14,34,-5,85,97,-123,132,133,-112,-19,-146,-77,2,10,-68,28,-10
,36,-201,54,-49,-41,-45,53,111,-34,-80,48,-15,-61,57,61,-158,-7,144,-111,60,-63,2,156,-48,-4,63,118,-36,-203,-39,-78
,133,73,-101,58,-96,-71,103,-30,-30,-91,-58,-30,47,143,114,136,-29,-132,-43,-57,-96,38,105,-72,-37,-109,-87,-63,140,-29,105
,101,124,86,94,-183,-61,110,135,30,-123,-111,-57,110,-53,-74,22,-49,-40,41,134,-29,-38,-83,-119,-129,-82,-61,49,-6,-88,138
,32,-106,-35,-3,122,126,-1,-122,162,13,27,-55,-23,147,-144,9,-108,112,-115,-152,135,94,-47,-65,-30,48,-93,53,45,7,-117
,-51,-118,-7,-73,-69,17,110,66,84,-21,-17,-26,-77,53,-77,27,-16,111,-7,113,-138,-109,-91,-77,5,-123,119,-86,83,-95,-58
,58,-117,123,-131,21,127,-117,109,120,-9,109,-69,56,11,-103,-128,-15,21,69,-110,101,89,80,60,-6,-101,76,-7,119,-119,-20
,51,88,148,-50,62,6,69,155,39,-69,-24,120,-43,-91,-54,-70,26,36,14,-46,-90,-70,-68,-25,77,-26,-120,-30,52,76,-14
,6,-171,-15,89,0,-37,59,-9,96,57,-118,-72,109,54,-101,-122,127,54,-96,-33,-142,27,9,-22,-116,-124,121,-11,-55,128,36
,78,15,-17,116,-141,-82,42,-81,-55,69,-73,77,-10,-4,-82,-77,-29,126,20,-76,-37,-37,-51,146,-29,-57,-44,-97,57,105,31
,-135,3,125,-66,1,76,103,57,-150,-115,-32,-124,-102,-138,10,-105,95,-120,-60,-74,-121,-145,-144,122,-159,109,75,-141,-80,136,100
,-71,93,-60,-48,-109,-99,119,-36,-122,128,17,-6,-1,-18,66,-24,88,32,120,-15,35,-130,-109,66,66,12,-131,99,145,-87,80
,90,-137,105,-34,76,-91,91,-71,-80,71,-9,-10,38,71,-50,-69,-78,-5,60,-26,-70,64,101,109,126,-5,128,-18,26,-29,33
,76,14,-65,-2,83,59,115,91,122,-31,75,-105,54,18,105,144,94,128,7,99,-58,-85,-127,-132,4,56,-79,140,122,-58,73
,147,-45,-61,139,37,122,-135,108,-111,-149,-36,-143,11,13,-138,-73,47,-63,-52,-34,144,-85,29,-98,24,-39,9,75,117,5,-57
,-138,-85,-85,-80,77,-147,-108,86,22,103,116,-49,-138,15,19,104,-66,-91,37,-114,-30,63,46,-4,99,59,3,-76,-65,-147,-40
,17,116,58,23,121,-36,30,89,73,10,-16,-59,31,18,-145,116,122,-163,-59,59,-82,-76,107,44,-22,-92,-127,-10,-53,-35,-131
,-69,53,113,-54,-133,5,137,94,-53,83,-94,-129,-93,35,106,-127,123,135,118,107,-78,-31,106,37,-83,-85,-137,107,89,142,112
,13,31,-16,-88,-57,-93,-86,17,92,89,120,108,110,125,136,122,-45,100,67,10,96,-11,-78,-8,137,-80,7,-86,120,-88,124
,40,-139,-143,-97,34,-107,-124,-80,81,-95,125,139,94,-135,-102,112,-101,36,-126,-91,-117,-58,136,-99,-25,59,40,-85,-132,2,35
,-19,103,-130,-101,-123,7,131,-116,-108,85,-86,132,58,54,52,-102,136,134,-56,-111,-108,-39,-124,-67,-68,-117,-6,-81,-137,-100,-119
,112,185,131,-125,82,-104,-111,163,-118,-73,71,1,-71,-131,61,-100,6,-88,-66,32,106,-3,82,75,-115,-105,-99,79,-12,93,-13
,60,-46,-151,98,-118,-148,107,75,6,15,22,-136,124,-138,59,-141,55,59,-19,26,-22,-24,81,-135,67,-153,-50,-96,-144,89,-64
,110,93,89,47,-19,111,32,-64,-119,57,123,-74,-73,4,-68,74,-104,108,29,-10,-14,112,124,-134,46,45,-84,85,-12,90,7
,31,1,104,111,-138,-35,57,-74,69,-87,68,-45,-51,-104,-88,7,-30,-42,-49,101,39,-66,134,-38,59,-15,74,85,108,107,134
,-64,8,-60,116,-108,35,58,24,30,98,127,17,-33,-33,129,14,-142,-38,-32,-88,-117,-103,-130,-64,94,-111,-72,-46,-17,-93,-51
,101,1,-79,93,53,51,-86,21,43,-80,-136,133,-18,136,-84,45,-25,51,-87,69,79,99,17,-53,-136,99,-51,-137,109,-75,8
,-28,-90,2,92,42,103,-73,81,-156,-5,-7,95,-19,57,-135,-44,3,82,-53,-56,-65,27,80,55,-71,43,-55,-141,-107,85,29
,41,-100,69,117,26,-130,31,-90,109,-45,-75,93,133,73,-28,-9,109,-136,42,30,122,-80,35,-79,-76,-136,131,146,127,-44,-67
,18,-66,104,-53,-151,48,41,77,-37,-1,108,129,-55,-16,-147,-115,-25,104,99,-37,-19,127,-46,-3,-158,48,-109,57,87,-59,90
,157,-107,78,87,24,60,-63,-108,-19,-98,124,-51,-30,42,20,-114,105,-45,107,-134,-142,-130,118,-27,93,0,137,-12,-146,8,-14
,6,55,-150,-19,50,114,-93,136,-74,107,-86,-31,-133,50,104,72,28,42,13,136,135,-38,120,70,98,-7,43,66,82,68,-9
,-61,82,-45,-86,-14,34,-23,-67,103,-124,106,93,-11,37,-6,-47,-27,-42,-160,-24,112,-24,10,-35,-149,-35,21,56,-54,4,171
,68,-85,41,-4,-108,-122,113,-72,36,-80,50,-8,-47,-158,88,-35,-139,81,-34,-95,36,128,110,57,-89,77,34,91,-5,-26,14
,18,-11,-86,-27,87,4,38,1,124,101,-44,-120,47,-104,52,0,98,-68,133,-131,35,-85,65,105,-29,21,24,-56,-24,67,81
,-127,106,-152,-48,95,77,-19,85,74,29,-50,-56,-36,62,-2,-26,-108,-72,147,-74,124,52,-16,102,-35,115,-127,90,49,43,81
,-88,-108,-25,-66,58,142,37,-2,-36,48,-13,67,-69,-19,-14,-79,100,106,124,-122,118,14,63,116,130,-62,-96,109,-121,21,-128
,-112,-77,-57,66,38,-14,-34,-109,0,-90,-80,-125,97,47,-91,-24,53,21,-154,-78,134,92,67,48,-1,-32,132,26,21,-152,85
,-144,-194,80,95,85,-15,-19,88,-49,-106,94,57,161,-95,87,54,14,-63,-45,50,-59,147,-72,44,15,-120,120,-128,45,9,-126
,81,92,94,73,107,100,31,68,145,53,-92,10,-114,100,49,65,61,9,-24,-75,16,-59,123,87,143,125,-133,50,29,13,125
,-134,106,-5,-50,-101,41,28,-12,13,141,-82,44,-58,93,-6,-94,102,-32,122,-113,-38,47,49,-91,42,69,-48,70,-125,97,109
,2,-47,100,113,116,70,-68,137,24,73,-42,84,-59,48,105,14,83,76,36,-78,-122,59,29,-13,116,-95,-40,123,-94,-104,-124
,-98,5,85,12,-6,35,51,106,58,-20,60,12,57,95,-141,45,-63,44,-75,23,83,-109,-8,-25,107,89,97,71,-78,40,-82
,7,66,-60,-2,83,126,-71,-73,-101,27,121,87,-38,-57,-39,37,-1,-122,71,59,76,-71,-37,93,-64,82,112,-57,131,43,-104
,-85,5,-25,-23,134,-168,-87,25,114,46,3,14,-126,-11,-22,133,-149,-53,-67,-7,3,-55,17,-22,127,13,57,-73,114,-69,-23
,64,-35,-3,11,41,-40,-39,-14,106,31,-105,-55,78,-131,55,-40,49,67,73,128,-35,61,81,122,-29,-86,0,139,-51,-66,-18
,-74,14,89,-77,-17,-43,119,27,-87,70,-138,48,71,82,-12,-164,26,55,85,-7,80,25,12,62,5,-52,27,-147,-73,113,-100
,23,-25,60,35,-70,127,-4,29,-131,130,-31,78,2,-78,-97,23,129,-53,91,78,-103,72,-104,-141,46,20,-122,91,67,-84,6
,48,110,-20,89,80,-128,-102,129,-121,-20,91,-55,-1,9,-128,-37,98,-100,135,57,-7,53,126,-96,-47,128,81,24,42,102,33
,-7,-45,-69,19,-36,108,-32,102,-127,-120,98,-26,46,127,21,-105,95,132,-44,108,-22,-137,52,-27,17,-49,-41,65,49,-132,-11
,16,106,31,-99,-79,-93,81,163,62,35,86,44,-126,-108,-49,-37,-12,12,61,-24,-39,98,56,-122,68,64,102,-37,-55,-90,35
,1,98,-146,-107,-20,-15,-59,-37,-142,-58,-14,52,124,-112,-124,-148,-154,19,-147,-21,53,85,76,39,40,-62,-45,58,-102,-62,-5
,-34,-111,-69,129,-66,-9,90,139,110,-131,97,-7,122,72,-74,140,124,108,97,121,14,87,-6,109,76,-93,-8,68,-21,37,110
,18,131,-9,51,86,18,-115,132,49,82,-94,153,123,37,26,-58,-111,52,90,-141,-115,-47,19,-144,49,-92,11,-31,35,-41,146
,14,63,-102,-106,-37,-45,84,-113,74,-99,108,-69,9,-86,6,108,-61,-118,44,23,2,-94,2,-63,123,7,-70,-90,27,-42,-39
,-126,62,-85,133,158,108,69,66,32,-78,41,98,119,-133,94,-30,18,-38,69,-129,-114,72,89,-78,113,130,-115,-135,-86,79,-49
,-19,138,128,31,8,115,19,-46,125,85,23,-58,85,117,-92,-118,-60,98,6,37,97,-117,-49,-8,-24,-104,0,144,-9,49,-69
,-105,-37,-137,-129,-25,105,-77,-88,-110,110,19,-129,-2,-5,-73,-10,105,-19,109,-31,26,117,102,23,-98,132,-110,95,100,52,31
,-18,-111,-152,81,-78,-23,-42,46,91,109,150,107,-122,-69,-17,53,97,-126,105,29,37,131,115,118,-25,-59,-63,93,-123,69,-26
,76,66,-87,62,-99,64,-129,42,-29,91,65,49,106,-73,-29,-94,16,114,-72,116,-86,36,-117,37,87,125,-85,20,128,-24,-129
,21,-8,-114,100,-154,16,-45,-59,-88,-124,9,-129,-62,-150,-145,17,-114,70,121,52,-7,-77,-159,-104,-80,46,81,-149,-133,51,99
,144,-129,47,-62,-76,-63,-32,-45,-96,-104,87,-63,-87,-51,26,-144,63,-134,-74,101,115,-81,44,105,129,-126,-82,90,-99,-75,-120
,-111,-119,-36,-134,26,-82,130,70,-129,14,53,115,-61,-79,71,-30,-153,73,-108,-57,-69,-47,87,-129,-58,-106,-36,77,4,-11,57
,115,130,-78,-114,-144,90,119,144,31,47,-90,76,18,-118,64,-44,106,-61,2,-128,91,97,-16,104,-26,110,66,135,146,-18,85
,-11,69,43,-126,54,-135,-100,-58,91,-47,-114,-156,-57,-51,6,76,68,106,108,-69,57,-98,-105,-48,-93,71,49,139,-80,94,114
,31,137,37,-83,98,-142,75,-71,61,-96,47,-77,60,93,-134,2,49,15,82,57,-99,109,-11,-67,-43,131,149,-17,-41,-75,-76
,65,-110,50,53,121,-121,-83,-46,-41,106,60,17,134,-127,-107,-124,132,-60,43,83,-114,23,90,63,-14,66,38,-64,-104,123,51
,97,-98,-113,116,11,-129,128,-34,40,-58,114,-102,28,-68,108,-128,93,-22,-117,61,2,57,-42,73,-37,-140,135,26,78,96,91
,-38,-84,-79,-111,-71,91,20,-81,-58,-142,-158,5,17,-150,-97,-73,-8,28,100,-102,-112,-48,-42,-51,111,-23,42,94,23,72,-94
,50,-70,32,-139,51,-31,-92,-61,53,6,-139,-144,-43,-45,10,-116,105,108,-19,-119,-132,84,-119,104,-39,10,5,-50,44,-142,-63
,-158,192,47,-80,-214,-180,-95,-157,136,0,-242,-109,-64,139,-14,-109,154,-60,-25,64,93,-5,-82,34,-115,43,-5,42,116,-5,63
,106,-78,16,100,130,51,-48,22,-140,-84,-38,30,21,108,-9,-58,-55,91,4,131,-33,67,113,126,-38,-39,-104,22,43,-27,-78
,-103,78,91,150,80,-123,-139,91,-122,-22,-112,49,-53,67,-115,-103,-38,13,-83,72,7,131,-123,72,-136,-61,129,-41,-50,138,65
,-125,41,14,-99,29,119,96,50,36,67,65,55,-132,-29,-56,124,78,-71,13,143,-74,90,-142,-97,124,-31,-32,-121,-78,112,-32
,-157,-117,136,57,130,-7,-144,116,-22,-111,-17,-17,-63,-1,60,-117,-135,-16,15,-18,-146,130,-16,83,-55,74,-48,-152,45,77,18
,88,-61,54,57,44,-125,20,-2,-136,-88,-93,7,74,-83,12,21,137,-104,7,38,78,36,-37,-85,-117,137,111,-47,99,73,111
,63,-137,-5,71,-38,-107,121,113,-7,-6,-127,-82,-41,-63,84,-99,-31,-113,65,71,-70,-92,-114,-71,69,68,-32,42,-140,-64,-80
,-51,111,96,63,-90,78,-81,-132,154,-113,52,-131,57,9,-115,135,-103,104,4,-29,-125,59,-9,136,118,-46,-16,-113,7,64,32
,-1,29,-30,-76,153,-106,-15,30,95,39,-138,-75,40,-112,202,-102,53,-22,-78,-64,-28,-54,-19,-118,-16,24,72,-23,153,128,-52
,21,71,-152,-32,31,-54,3,62,132,-137,73,-155,12,-22,-111,-14,45,-43,75,100,78,-93,-39,-33,81,-65,1,108,-118,21,49
,-44,139,-141,19,106,-122,-113,-204,13,-56,95,27,44,8,-28,5,-15,47,72,116,3,-103,-58,124,-39,37,-7,-119,-76,91,-44
,-85,-61,20,-76,37,-7,-135,-125,44,-3,75,82,-41,-35,-2,-59,54,-125,-102,-48,-25,7,-114,34,-68,128,-61,-37,140,-70,-68
,-47,-105,75,-34,66,55,75,-145,-123,82,-109,-133,-130,110,-65,87,15,84,63,-44,101,28,62,89,70,-46,-139,-18,111,5,-57
,61,20,96,24,-57,-60,101,136,11,81,-110,24,4,-47,88,42,-138,33,65,-59,-73,11,-47,-108,-136,86,-31,113,-27,122,51
,135,-85,39,-133,-17,-137,117,-29,70,-62,57,80,-150,-30,-95,100,-41,63,143,131,99,-131,-56,-23,21,141,-3,59,-86,128,-5
,-33,85,143,30,20,41,-48,-114,-40,-72,103,-68,-35,105,-136,-46,-129,-40,-99,-78,-8,2,-51,133,-78,-126,-109,-31,-111,38,-35
,-97,-71,11,69,75,-143,90,-78,-107,14,-150,-138,-59,-57,-3,-54,110,-67,52,25,80,24,85,101,-134,125,-53,-8,-46,-106,66
,-83,-80,-78,-36,119,106,144,137,33,103,41,2,-30,-88,-133,-102,-92,-108,106,-67,55,83,-24,67,67,-86,28,17,140,29,22
,66,103,-78,-45,43,127,125,-110,-13,-20,7,-102,123,45,41,8,-74,-166,-119,24,-98,-24,83,56,-77,-4,-85,-122,50,-24,-73
,86,10,-78,-19,-50,-140,-81,127,35,-86,52,104,91,-92,-96,17,79,116,33,74,-62,134,-34,81,66,56,125,111,-66,71,21
,-85,37,-19,86,33,-91,99,87,47,53,-44,-23,-122,-89,-95,8,122,-96,70,-134,66,-70,18,33,-123,144,-120,95,138,-98,109
,-64,81,138,-11,69,-93,-103,-82,66,8,-53,111,115,132,-98,14,-17,57,116,67,-1,134,90,73,-115,-138,-143,-87,138,10,-51
,95,-76,-61,7,-141,57,4,-151,-163,94,-173,-91,-4,-192,-30,22,133,-77,-99,-46,123,121,-12,44,-6,-118,86,104,2,-35,-87
,99,31,-90,-23,73,70,42,52,-118,-117,83,-9,112,124,29,9,-198,118,-165,67,-144,-93,-64,-29,29,-105,-72,72,-25,-67,-92
,-68,52,-71,133,61,38,-120,60,127,64,115,136,10,84,39,-85,33,-24,-85,-20,114,129,-82,-138,87,-151,44,-1,-38,-53,3
,74,151,15,102,34,-136,87,-58,98,32,99,46,53,-110,-51,44,82,97,-58,92,113,-53,-2,-104,62,11,-77,32,-35,61,-125
,76,32,-40,-39,-102,-109,-32,-23,-43,-23,55,113,123,119,65,123,122,129,-107,40,-38,110,141,60,1,67,-95,-43,134,21,-7
,14,14,-48,84,30,-117,58,93,-16,-139,116,71,146,-169,119,69,26,-6,141,-73,71,-37,-62,-73,-108,22,99,-28,-98,9,-57
,61,88,25,-77,-94,-68,-163,-44,-22,-77,103,116,-40,12,37,60,128,-89,-48,-131,-12,64,-7,128,-48,43,-11,25,-38,-121,38
,-151,-30,76,97,-24,-134,117,21,41,82,-22,123,-77,-28,-3,101,115,91,-148,140,44,97,-42,121,-110,-61,75,41,117,44,-87
,-41,121,-117,-123,58,-144,52,-71,95,140,46,-123,89,75,98,-11,90,17,130,-110,-64,32,-75,17,9,61,112,-19,-93,104,33
,8,100,89,117,-87,32,-6,63,-17,18,103,93,-87,-108,67,-138,24,58,-109,-158,-43,25,-10,38,59,90,-30,56,-21,-110,103
,-158,-78,23,-122,60,119,17,143,61,4,111,-74,-65,89,-104,73,-8,74,-16,-83,-86,-45,-143,65,96,-88,22,156,-81,28,44
,-27,-96,-138,78,77,-127,6,-20,-126,-19,-136,-15,136,-20,-73,-5,5,-90,16,-51,61,-46,-61,66,-4,-110,101,-128,-85,51,-104
,71,132,52,-82,-71,-121,-80,-22,-40,152,-29,-87,-10,-111,-24,74,44,-41,-96,32,3,-41,-18,121,-122,97,33,25,-95,85,136
,-33,-53,-30,74,117,-162,52,90,-142,-130,95,30,69,121,83,36,-30,30,107,47,-120,11,-51,2,28,-136,-74,-86,125,-66,82
,-152,-50,-93,-141,2,-126,28,73,1,58,-6,-41,97,-55,103,4,-93,7,47,103,-137,91,-43,-125,-119,95,17,44,5,-90,74
,83,-92,145,72,-106,129,56,44,-133,-10,64,118,-105,137,103,3,10,94,-102,-100,131,-92,-6,-135,-48,116,-42,2,107,108,38
,117,-169,-72,-145,106,20,-26,-110,49,-63,-19,163,-79,-145,2,79,-142,-263,-133,-13,140,54,138,86,12,-20,-34,52,121,-1,-72
,-36,-43,91,149,78,13,115,-172,91,-10,-75,38,36,-19,-106,-75,17,19,26,-133,-29,98,-91,-153,34,-110,-49,27,20,-43,35
,116,79,104,3,-4,106,-9,119,-3,0,17,-106,2,-44,-87,27,65,-43,126,-93,44,141,135,-136,-3,110,-128,-139,135,-103,-45
,8,-110,92,117,58,125,-80,72,-50,105,62,5,-23,-77,-104,-16,-123,113,-139,-80,129,-121,83,-64,-83,77,120,-131,-164,121,-107
,54,151,-95,61,-16,82,145,76,43,-42,-19,153,-20,-4,187,-130,5,-107,-54,64,-103,25,-14,-62,-134,-51,-140,-87,134,-9,115
,-54,-126,-151,-36,-54,-117,74,106,-126,-86,-32,-133,-135,-20,-119,-52,-20,-81,-73,-140,80,73,97,-136,-32,23,78,57,-22,69,2
,136,81,-112,-104,82,-122,-102,-68,-117,107,-126,-75,148,103,-73,113,22,-75,11,115,-39,-124,-19,-59,42,-133,128,19,83,-29,141
,-8,-104,59,26,-11,60,71,47,-136,-24,-85,-80,85,105,-16,-47,-17,77,-54,-95,-131,86,0,-26,18,71,52,100,129,96,60
,76,146,35,15,167,153,-148,-138,148,-80,114,69,-59,-38,99,-98,-99,38,-79,-80,12,-10,-63,-21,85,55,-107,158,-52,-108,-21
,-23,-102,-113,-8,94,-10,-2,-6,-28,-21,-110,-152,165,131,140,-113,100,-16,30,-3,15,110,-73,-21,70,-151,32,123,-62,-51,-117
,-123,-148,89,-53,82,-116,-118,-136,8,23,-77,-144,58,22,-126,-90,12,-89,-103,159,168,66,-49,34,145,-35,-41,-38,-19,6,149
,-59,37,-46,147,-151,124,-25,-163,110,-103,188,-107,-1,-153,-9,51,66,-127,133,-56,-36,76,-11,36,-145,-103,30,38,-97,-78,98
,16,-27,136,57,21,71,39,129,87,-18,-123,26,-68,110,-26,-27,74,-19,-145,79,-50,130,-5,86,-72,46,88,84,-67,-51,-147
,80,-125,75,22,56,82,-139,-20,-13,-10,-13,-55,-62,-45,22,-54,28,-18,-87,-99,63,-64,70,-55,98,0,39,-113,-72,-98,-123
,92,10,72,136,-124,-79,21,-133,-31,70,-22,93,143,4,23,38,95,70,40,-45,119,76,17,-54,-124,75,-80,44,22,27,-33
,-40,-89,45,-126,-4,-6,24,-105,-44,106,-49,-110,-9,126,0,-45,-84,-4,-112,22,76,124,-8,100,-126,88,-42,83,-40,37,34
,-15,-94,-108,-19,90,75,44,26,-32,82,-91,-116,44,37,137,24,-10,-74,136,-130,66,-24,-105,117,-10,-26,37,-85,-93,-70,106
,-45,10,-164,14,127,-59,-2,71,-60,-74,-174,56,-123,43,-163,-29,133,-6,111,-134,133,-129,58,21,-54,84,119,-54,48,-82,71
,-40,115,10,-47,-56,-114,-81,79,21,-137,-14,-104,63,-35,-139,92,-109,-98,-110,117,143,-5,-112,4,27,-57,-83,123,110,-99,130
,26,131,-80,75,-62,124,-118,35,-109,19,-34,-128,26,107,83,-98,59,-63,21,-82,75,-131,143,137,116,-11,-83,59,61,-101,119
,-91,113,-59,-94,43,86,-52,112,131,-43,64,-118,118,-61,-59,-83,14,94,74,58,-6,70,-56,-18,-18,41,2,50,39,-34,15
,-36,140,-87,6,49,-149,-70,-14,-20,-43,37,-1,-90,53,-17,35,-7,8,36,132,-47,-27,66,76,-159,115,61,40,-167,-128,66
,-34,-25,72,43,141,55,-7,-43,-52,62,37,-26,143,-99,6,141,6,-151,-149,30,6,124,110,-30,-64,64,-51,94,51,40,-40
,42,96,-45,91,-131,-85,-105,-81,-39,9,-21,-114,139,129,108,72,17,-66,-111,-123,101,-115,132,-87,65,114,-80,-9,121,-36,136
,131,103,34,-115,-3,-109,19,-12,52,133,-21,-140,104,-53,-69,67,-125,-149,50,-77,-4,-103,81,-4,84,46,117,15,107,18,88
,-45,-68,116,-68,119,-5,-29,71,1,-9,-8,-158,-41,23,-145,-106,133,-37,103,18,90,32,92,26,131,-12,111,-138,118,-99,-120
,-26,118,-115,-52,62,43,14,57,-102,65,127,-130,62,12,-204,-105,96,98,-111,133,16,7,-137,-133,42,51,114,-153,62,-149,38
,-37,43,-94,6,-104,117,-57,-76,105,138,-110,57,-97,-122,12,40,-38,-154,115,8,-12,-41,-92,31,48,-91,-5,-13,42,-44,105
,-71,-84,-136,-6,-22,66,-86,20,115,114,-88,-20,-139,-103,-125,1,-43,-17,44,-49,106,-72,134,84,140,48,128,115,-92,51,-3
,-85,-183,-112,-59,106,39,44,-72,-20,99,-56,7,50,-72,107,98,73,78,9,6,-49,-86,66,-128,-211,-93,-60,-76,136,-61,83
,-122,121,-114,89,28,76,111,-69,-157,-95,-76,-129,-32,-124,48,-152,126,62,-90,-121,71,-44,96,-121,97,-58,-98,-100,-70,90,-19
,-27,47,-48,96,-73,63,87,6,-80,37,-84,-115,-123,117,-110,-63,56,62,59,105,-143,110,-10,50,18,-84,-105,-8,34,107,92
,-118,-26,-129,141,148,-108,-82,-39,40,56,-53,-66,136,9,43,-95,21,72,-1,-148,-15,-59,-39,143,88,111,9,56,-24,-123,-6
,117,132,-123,-104,-129,53,128,86,88,94,58,104,-122,-98,-135,-32,19,112,5,21,98,-57,44,63,-32,56,21,-56,-37,136,-10
,133,-156,-51,-91,-185,138,69,-202,20,-30,-151,101,-103,41,-74,0,-50,-42,-68,-16,118,66,-105,93,26,45,134,-116,-44,97,26
,89,28,69,97,-89,-81,-68,-26,-131,-140,-70,124,30,42,-17,-98,39,24,139,70,74,18,-149,83,-140,-40,92,37,16,-55,-29
,-125,-58,71,-153,-130,133,-83,-154,-24,-51,-139,-59,116,-52,125,-16,15,-33,62,-56,-17,-102,23,-12,16,48,60,-144,-10,-119,-118
,-83,-78,142,26,128,36,167,-136,79,102,-117,-74,-109,-77,60,-94,-70,86,-103,-4,-10,-131,134,-34,137,49,-31,-107,-87,110,-1
,133,-45,40,17,-13,-79,-19,-7,-207,-78,33,57,-66,84,-58,3,-124,17,133,-136,-10,22,19,-97,13,145,-12,25,129,-113,-77
,-74,-67,48,-137,31,-68,12,-67,65,35,-67,123,100,29,47,50,-41,44,83,-100,23,57,136,58,-3,90,-50,90,37,-29,-78
,154,-67,4,-32,45,44,103,-166,60,-6,-84,-57,-62,130,-112,43,-56,97,-213,-158,85,-59,-20,54,-143,86,-244,-80,38,134,22
,105,30,25,-58,118,6,-184,-73,-135,81,114,1,-104,-27,-172,98,100,3,-94,53,12,-3,60,27,-10,-55,89,-103,-89,-53,-30
,-136,-100,51,-68,-30,-129,-62,58,6,-16,-128,107,51,-94,42,-60,132,-13,96,95,-120,-38,-112,3,-117,-27,-122,-39,118,-107,-3
,103,95,39,96,-21,-198,118,84,77,-142,-145,-172,-27,-131,-50,76,51,62,-118,-67,112,-111,112,23,62,-2,-11,-68,69,-142,-132
,61,-182,169,-11,-128,-4,-69,97,-28,148,-101,72,38,70,-109,-87,-54,36,-66,94,-23,-37,41,134,-24,135,-39,-63,-60,-162,-29
};

long weight_1_T_sda2[2*256] = {
-122,-147,-29,-3,1,145,-28,-18,-66,142,-85,-78,-25,120,155,150,-73,91,30,-147,148,67,97,122,67,-38,14,-126,103,-60,70,94,36,-61,17,-21,90,40,-14,-98,-59,101,229,-80,139,15,-183,-115,136,132,-61,104,-113,-85,-111,17,25,-100,-124,21,111,-17,-90,-2,66,75,-54,-3,111,125,60,-5,-78,-105,46,-225,46,-196,-158,135,103,91,152,-167,-90,173,-54,24,28,-36,73,-103,-119,99,-13,150,114,14,-32,98,93,51,-56,-149,226,-94,181,-248,-2,-88,141,2,76,-116,-68,-18,-71,219,-104,97,41,-81,115,35,177,-75,32,45,109,39,40,120,-57,140,3,179,107,-32,9,132,286,-111,126,-117,137,-133,-125,154,-131,49,-95,-94,-141,94,39,-98,-105,44,-131,68,-69,114,-61,-93,32,-136,146,-83,137,89,-92,-50,-111,-14,-7,95,-29,-100,100,-85,-44,254,67,214,-74,25,-88,118,49,-91,-40,73,-32,-9,-123,-164,208,48,118,56,-58,-122,-17,8,-35,37,-34,53,-11,91,-119,-44,-166,-109,-24,155,-37,12,86,-19,141,262,-51,65,-1,-80,-125,58,23,-31,-66,97,-163,-116,38,-67,118,81,-203,42,318,1,125,17,-12,-103,-28,-64,247,148,127,-146,137,-114,156,163
,42,65,-100,-82,136,5,-130,-120,45,68,-19,118,70,18,2,28,50,-29,-128,-98,0,174,-84,-188,17,120,30,-110,-144,-128,-21,10,-133,4,-90,-90,26,-123,-18,125,-4,-250,51,12,69,115,-28,68,-76,-79,81,147,-29,43,79,22,-16,30,115,50,46,133,92,95,73,78,82,101,-267,-95,5,-92,-139,71,48,108,-118,116,87,114,-178,-92,61,45,-90,-135,60,133,164,-71,-112,61,117,-36,66,33,-96,-3,144,-115,90,-81,125,-31,-239,98,94,113,-132,-78,25,-118,-110,71,-120,-29,126,-236,-24,183,-143,10,144,-138,-194,120,-113,111,34,39,-98,158,-72,56,-88,-176,-6,35,-9,120,-231,115,-53,99,-46,48,-60,-80,139,48,-126,102,18,-42,70,-5,-117,3,-85,-72,-8,7,-83,-67,-12,90,17,125,110,16,-59,97,-81,248,-120,134,39,73,-50,-94,111,-33,-11,-170,-143,-25,10,-5,32,143,-135,-117,126,-106,-61,94,-59,99,-41,-135,111,115,33,-36,-68,-61,-128,-50,147,114,131,224,212,63,-55,95,79,105,116,-230,-87,-305,-184,88,-83,-16,-78,-72,-176,-149,96,-114,-85,9,-115,65,40,-170,96,22,-221,-55,-55,-61,77,172,-11,93,-144,-185,-51,136,-93,-33,-126,-141
};

long bias_0_sda2[1*256] = {
-14,-12,9,20,-4,2,-5,-1,2,2,-21,-4,4,13,6,-1,-5,3,3,4,3,2,-3,11,-9,-5,-13,-9,10,10,1,7,7,-15,0,1,-11,-2,-6,-1,-6,21,15,0,4,-14,-20,-8,-1,-3,-2,-3,-11,8,-4,0,-14,-1,11,-7,4,-2,-9,-6,-6,0,-17,-7,0,-6,0,2,-3,-13,0,2,0,-5,-1,0,12,-8,2,4,-14,7,-15,-5,-4,1,3,-1,-4,13,-2,2,-7,-5,0,0,-10,0,-15,0,16,4,6,23,-7,-11,-5,-10,9,-17,-4,-7,-4,16,-13,-5,0,-5,0,0,26,-17,3,-3,0,-6,-9,-1,-28,3,2,19,-3,-6,2,4,17,-3,3,-4,0,0,-5,8,-4,-23,0,-3,-8,11,-19,-6,-5,0,1,3,-4,3,-5,-22,0,-17,4,-5,1,4,-10,-20,0,-17,4,-12,0,-13,4,-4,0,23,19,0,0,-3,-3,2,0,-11,3,-5,-4,-1,-3,-16,8,-1,6,3,-3,-10,-6,0,-5,15,0,15,-8,-15,2,-5,2,3,-5,1,-25,-3,-6,21,6,37,-6,-6,0,-7,-8,13,18,18,-7,2,-5,-3,6,-3,1,7,-15,5,-4,-6,3,13,-4,-2,-1,-10,10,4,3,0,8,0,-8,13
};

long bias_1_sda2[1*2] = {
4464,-3097
};

#endif
