
/* Trace */

/**
 *  updated on 07/20/2023 01:04:41
 */

#ifndef __W_NVME0N1_4_H
#define __W_NVME0N1_4_H

char name_nvme0n1_4[] = "Trace/nvme0n1";

long weight_0_T_nvme0n1_4[256*40] = {
92,51,102,-165,122,-212,-134,-76,-16,-149,36,178,3,-35,-35,-146,-36,-122,-84,-32,-133,38,81,170,-493,-302,164,7,-160,-172,139,-110,-71,-109,-975,-57,0,-231,-804,84
,-1134,-246,-162,-515,186,-132,-284,-486,147,-278,182,-378,-388,12,123,-505,105,-72,-255,108,-207,113,-241,-554,84,95,14,52,-301,-201,-453,-185,64,100,65,-28,-206,-50,-180,-260
,107,-108,23,-305,-205,97,-315,-25,-751,-182,-68,-187,-188,-108,-100,39,-120,-159,9,-118,-197,-46,-31,-126,-81,37,-123,7,-230,-140,73,258,98,9,120,113,17,-134,28,-346
,249,5,-30,414,-286,-503,-114,-6,144,-564,-48,162,-455,152,-42,-486,126,135,-476,-81,-75,-323,-156,-127,-15,-132,85,185,-8,236,122,-30,-168,-3,-67,-41,-88,37,5,-80
,-22,85,-139,-17,-12,-7,-77,-36,-15,-151,101,-88,-46,-172,-110,-125,-77,-111,-120,-67,-23,-65,60,-137,-77,-98,-35,92,70,16,-42,-6,61,27,12,-74,47,111,-138,-20
,-996,-191,-25,-220,-33,-630,-846,11,-161,-610,-134,227,-528,-100,-306,-705,-64,-147,-614,-71,-42,-668,-100,-86,55,77,17,30,125,177,81,164,-222,-359,-316,-273,-186,-243,-490,-32
,-202,-18,-8,66,-25,-442,98,121,198,70,-112,-150,-89,16,452,48,-84,-203,74,55,144,-54,24,5,-290,-135,-404,10,-161,-147,-896,-8,-114,-181,-383,8,-84,-67,97,-18
,-121,-65,-119,-174,163,148,-297,-127,26,-450,-178,18,-37,-127,-27,-276,-2,-18,-108,104,80,-353,-24,-224,-417,-291,168,368,-115,35,-74,106,-186,-210,-360,214,-84,-12,-217,128
,-51,-266,65,-49,-147,-97,17,-67,138,180,-198,-108,20,-189,67,-1,-139,-44,83,12,-118,42,-207,-213,-48,27,8,-279,-112,-117,-125,-186,-96,-16,121,115,-19,-17,-80,60
,-143,75,-249,-44,-126,-92,54,-109,-4,-155,107,-145,135,-59,-214,97,14,-51,72,-17,-14,-77,-2,-240,-72,10,40,4,-190,-74,97,253,-116,-93,64,-206,-3,-98,-17,-235
,161,-75,44,-53,-315,61,-50,-314,4,-15,-386,-90,143,-279,-61,113,-283,106,113,-327,-128,161,-380,-353,90,39,-40,-218,79,137,10,-88,55,107,-26,159,-140,-2,-137,153
,-232,113,-81,-203,112,67,-120,-94,150,-224,-85,104,19,-72,-64,-74,-124,-93,-241,-161,-52,-72,-29,-128,-87,-2,53,139,12,152,63,-88,-141,-135,139,-195,-46,-118,13,31
,143,81,-150,-99,-157,-60,-136,42,-117,-160,-2,-127,-102,-61,-16,-51,-34,-72,-47,-6,-67,48,-19,-57,-72,-20,14,121,37,-148,117,-67,72,63,38,-67,131,-78,31,-117
,74,70,-47,51,-68,19,24,-256,127,146,-222,-51,-13,116,-199,-30,-231,141,134,-142,-24,35,-182,83,-109,49,113,-242,42,-67,57,-174,-33,151,150,-300,-20,-99,-32,-94
,-44,-31,-5,-195,120,-79,-208,-176,-102,-100,18,55,-6,76,-4,-61,-9,-23,76,-24,-28,-138,-79,-172,-171,74,-209,-39,-99,-112,-25,-65,6,-47,2,4,-104,-98,-65,-41
,-11,-22,13,-94,-79,533,-13,106,-366,-138,60,-71,154,105,-553,21,-107,358,3,-47,77,66,-37,1,-57,-310,-144,-1,-404,-244,30,-8,-160,-22,-14,-19,-73,-63,-30,82
,-375,179,120,62,-148,-149,-70,-186,146,64,-91,-427,-154,7,-133,120,48,77,22,29,-569,-109,-30,-139,-269,-294,-1,230,-87,-172,39,-128,81,44,-86,-221,71,-22,-63,-505
,-100,-2,-24,54,-29,-352,119,64,127,-48,-108,-71,6,-102,291,-15,42,-134,15,23,138,6,7,-29,-33,-32,-174,-24,-64,-166,-106,-82,-147,-250,-690,-115,-188,-122,-87,9
,-405,8,117,-128,-99,64,-30,127,-541,-701,-27,-33,-611,-303,-187,-745,-255,-432,-798,-90,-621,-673,-72,-177,-182,7,44,13,-124,118,83,146,124,60,129,148,-355,-347,-477,536
,622,55,263,142,-78,-183,216,-47,-286,420,-291,-378,-75,-62,-187,169,-247,73,79,-143,-210,46,-156,-89,94,-30,9,136,-329,-360,-411,-421,111,142,211,75,79,34,57,-167
,-74,-111,-71,-83,-45,244,-39,-176,22,16,-8,-9,-28,-202,219,-127,-9,-25,-211,-181,-5,-38,-199,-53,-33,-70,30,42,28,-157,148,-197,-23,-11,248,-403,-54,31,118,-207
,-118,-45,29,111,-47,-240,-16,17,-36,53,-104,-293,-108,106,-68,-84,-118,-120,-69,-77,196,-60,-39,-235,52,-55,184,-157,-115,60,12,212,-4,95,-59,-67,-9,-148,52,-218
,-165,60,57,-58,-57,-48,-110,-2,-68,202,-38,98,109,-248,-38,117,-121,23,33,50,-64,-29,-162,88,47,12,23,-89,24,16,65,-122,66,36,-114,56,17,30,-11,-50
,-10,-139,-44,85,-190,63,16,11,-23,-12,-179,25,39,-157,-27,-189,-148,51,-13,-36,-147,23,-221,-62,-73,-40,76,47,43,-98,65,39,-6,-76,-110,-108,104,61,-44,-126
,52,45,-155,-138,-13,0,-90,14,3,-13,70,-180,11,-206,29,-73,-121,36,-172,-105,-39,-138,-20,-148,-22,-148,64,9,-22,54,-72,29,58,-161,20,-39,57,-128,-169,-132
,88,-366,32,-33,-192,73,164,39,114,52,23,-88,150,-217,80,147,-42,93,69,58,-7,120,-129,91,-60,-48,211,-258,28,58,62,-661,-103,26,243,-254,-21,29,-11,-111
,-51,-118,-204,-245,-114,-139,-206,64,184,-178,44,-291,-1,-167,8,-295,58,-143,-105,42,70,-124,-179,155,-206,-19,-284,413,-215,13,-210,227,176,40,2,-111,-173,-199,-153,342
,-602,-350,223,-553,-300,4,-289,-6,-78,-2,-153,115,-391,-107,133,-455,-117,-221,-311,-128,68,-393,-269,-49,-163,-14,-6,-12,-35,-97,146,-158,162,59,-13,240,18,55,97,-148
,-99,31,-62,258,173,-265,-13,-5,13,19,-80,86,100,80,-232,45,-113,-58,67,115,3,141,-107,474,-259,91,19,-49,-87,136,-156,-153,-123,89,136,-68,-220,-39,10,-37
,-157,0,6,111,-104,-55,21,85,38,-131,-147,44,101,-86,-111,-53,-23,23,-116,19,-20,1,-186,-93,53,13,59,-154,47,-47,42,-196,57,-65,-90,-15,-44,-26,-116,-128
,235,10,-389,229,-141,-287,239,-81,-262,108,-3,38,149,-67,-223,57,-158,41,112,-28,-72,123,74,-110,-82,-33,-180,67,-96,-177,-108,-248,-10,-63,152,402,-123,-177,32,-32
,-105,-40,-84,103,-164,-83,68,14,-108,4,85,31,-77,-189,-112,-114,57,31,-42,-114,-90,96,-16,-85,-153,125,-27,-38,-130,-106,-93,-62,-41,59,-18,155,-113,-166,-1,-82
,-370,-22,82,-32,90,26,-317,233,-106,-12,21,96,-51,45,-211,22,-148,-41,74,55,-160,136,-387,102,-65,30,-19,-177,-19,-7,-76,-218,-61,-34,-71,-159,68,-41,-26,-154
,-112,73,-3,147,-52,5,-73,179,-308,155,7,69,-5,55,-62,-58,178,-172,154,-17,-176,272,-105,-218,-243,23,143,-768,-65,-122,-1,-188,6,105,157,-99,-49,53,-49,-221
,-160,-84,72,-39,-236,-193,-216,-107,-50,-6,-27,-152,-26,-204,-88,-182,113,129,-98,-172,-6,-216,111,41,65,-91,98,-212,24,-136,48,-162,-107,110,16,-239,17,-101,40,30
,23,-85,-85,82,-105,-95,25,-24,-59,-63,-42,-86,62,81,56,3,36,34,-149,28,-50,40,-80,-26,-12,-38,19,-69,72,-122,31,-93,-152,55,95,-31,70,-103,105,-68
,158,-42,-350,166,-118,-398,-20,-99,-159,94,86,18,145,78,-430,-79,98,-5,-135,35,64,81,199,294,-93,63,84,45,-538,-213,213,-223,-1,-173,-1052,35,6,-244,-1292,85
,-74,-66,-174,82,-32,12,28,-108,28,-41,-140,-67,-99,-25,-51,80,31,-93,171,69,73,97,47,-138,-121,-67,-158,-38,-45,-99,-59,-157,40,-156,-44,15,22,-108,62,-13
,-41,96,-35,-20,67,-8,-29,-15,-14,23,-191,-178,-143,-148,71,22,39,13,-54,-184,-7,-107,58,-127,69,23,-66,-116,-128,74,-75,5,-54,1,33,-121,94,-130,-66,51
,-123,45,20,-90,-42,-21,69,-119,-14,120,-29,-8,-127,-34,-84,-4,34,-20,-61,-184,-118,-11,43,10,-111,-53,-46,-144,-121,-63,-93,-212,-154,-116,-324,-25,-7,-45,63,-101
,-433,118,-238,-320,-181,-144,-131,-21,-3,-111,89,172,-301,-71,-67,-264,-4,10,-73,-82,184,-128,167,133,90,183,-22,-33,-74,-92,29,-23,51,174,38,66,83,62,44,-21
,-10,-53,-130,29,-203,-9,-30,-76,64,-149,1,-140,-169,32,-26,-14,35,89,33,41,-74,20,-23,45,26,-51,-101,-181,52,-14,-17,-152,96,50,-49,-216,-72,15,25,-165
,-87,45,-21,-81,-73,-7,105,-68,-40,-64,65,-7,-74,-46,-71,-134,7,51,-141,-178,-146,86,-1,-63,-126,105,-117,-69,63,110,-143,-15,-105,21,17,49,112,-147,-68,56
,-61,-89,-239,-61,120,37,64,-92,92,58,39,-27,-58,-50,-26,-79,-143,-202,-210,-88,16,-172,59,-85,98,-68,-69,-177,-179,29,17,50,-30,-61,-36,-59,-72,-117,-69,-23
,284,-39,-88,57,46,-99,71,-114,-31,-60,-448,133,120,51,-20,178,-106,-324,236,-416,54,179,-103,-400,-126,66,118,-164,-43,-113,131,54,-50,42,-110,245,-118,20,103,-3
,-72,59,-52,52,-167,-51,7,-57,33,-80,-102,-71,78,71,-32,-80,-73,-127,-71,-20,-65,85,16,-58,-10,46,-142,-26,39,-16,30,10,1,-117,1,-108,-15,75,-74,-135
,278,-204,21,21,4,15,-61,104,100,-48,116,-316,184,-206,-476,-81,60,99,27,60,-267,66,69,-151,-2,-109,-97,-65,-81,65,-169,-107,-47,-69,-190,-205,-129,0,-39,-156
,-579,-101,-226,-402,-99,-64,-103,-133,-99,-2,72,175,-220,-152,-127,-119,-207,49,-129,72,3,-27,99,152,-69,155,13,14,134,53,71,43,95,-56,24,115,-215,-576,-553,26
,-23,-108,-344,-268,-12,-220,-116,71,107,-112,-81,100,-51,-70,61,-168,-112,-41,-20,20,-23,-5,-63,-101,69,-119,25,-132,53,86,44,-321,-73,105,-94,-171,-86,8,-64,23
,274,-114,-102,97,179,198,-99,-90,155,-88,128,-196,104,59,141,106,96,-124,-66,121,101,-105,-104,-183,82,52,42,-56,-34,52,-73,-28,-47,-63,-48,-32,49,-119,103,-220
,111,-119,28,127,-156,210,-26,73,-156,49,-11,-168,-82,-110,182,-46,113,-387,-28,-86,140,181,81,-98,55,124,-25,5,-1228,142,-224,64,-85,-48,-495,-145,-99,35,-765,-32
,-502,90,-66,-358,79,-93,-288,41,96,-890,70,84,-402,130,-295,-469,-86,-60,-597,91,-15,-460,8,-251,114,143,183,-194,-13,81,-12,-83,29,48,65,-298,20,169,194,-226
,-54,-140,68,-77,106,-245,343,-317,-196,-680,12,322,-173,54,134,-94,-36,244,-101,108,-205,31,34,-92,6,45,-219,-191,33,-13,-26,-84,-119,-30,-193,38,103,89,117,-90
,-169,-100,18,-364,-134,-239,-244,73,-332,-279,22,-202,-154,206,126,-363,-23,-46,-125,-75,-135,-280,-2,-288,-71,143,203,156,58,87,25,-69,12,-169,-66,-216,49,-130,11,-172
,-9,19,-28,-91,223,227,-163,-24,8,-71,100,-219,-12,92,138,-232,-88,15,-120,121,45,-38,-85,-215,-60,44,-22,-302,-34,-54,29,-27,79,-65,69,-130,17,1,82,130
,139,-52,-39,95,-30,-188,-51,-1,96,-186,-6,72,3,-102,91,-52,-195,22,-133,43,-134,-72,39,-168,-171,-47,-115,-189,-37,-115,-273,-20,71,-16,-22,128,-11,-140,-47,30
,447,-157,-57,226,-113,-71,238,-114,193,172,-48,-34,303,45,-16,247,51,-20,278,-79,-148,245,-24,-79,-68,146,46,-169,-191,53,122,-289,88,100,203,-43,-109,72,-9,4
,-117,80,-65,16,-49,-68,190,-73,-128,121,3,-71,35,-107,31,-167,-11,-241,-108,-35,15,-30,-3,-118,-146,50,-86,7,50,-44,64,3,66,40,-151,-123,-180,10,-78,-16
,98,41,-195,-40,-37,-187,80,155,-79,-521,-7,169,40,-85,-275,-8,-63,-414,-192,-71,102,-277,-212,-172,4,129,-62,163,-133,70,-40,-45,72,51,92,161,-132,-128,93,-68
,385,-271,-482,351,22,-55,378,-94,-8,270,19,-168,290,-215,12,322,67,38,130,-147,18,303,-133,-212,-123,11,-57,-156,97,46,-47,-46,112,-85,-130,-18,-53,160,288,-244
,130,-49,45,-401,-59,-33,-378,99,-909,128,-153,40,-19,83,42,90,-201,38,157,-198,14,131,-55,-165,-45,-330,252,-417,-96,37,-125,308,73,132,98,84,-196,20,-157,-43
,-534,44,-371,-7,14,14,671,-186,214,-428,-116,-84,-636,-42,-263,-512,42,32,-464,33,-8,-597,46,-224,-508,-229,223,-120,49,-11,-166,5,250,53,93,109,-222,-420,-194,111
,119,-349,-106,125,12,101,262,100,21,232,-24,-237,179,-166,21,227,94,27,338,-179,-121,196,242,10,-42,238,65,-394,23,-143,95,-277,-122,-121,-124,-295,5,-123,393,92
,-78,36,16,32,-111,178,11,93,-113,-239,108,245,-11,-170,225,-245,9,115,-168,-141,-244,-260,184,-396,-5,16,7,-60,46,-195,-672,-4,3,30,-58,-33,-308,-321,-124,53
,-76,-31,-212,134,-85,-281,-240,-8,-61,-217,45,-84,-52,-58,-3,-189,-99,-108,-204,-237,-61,-179,-66,-65,102,-87,-165,-65,25,170,2,8,-122,-165,-87,5,-185,31,40,-11
,-6,143,-227,16,-240,-152,-81,-56,122,-33,14,61,134,-241,104,4,-141,-81,45,-7,19,65,51,94,-164,113,-19,170,-346,179,-181,258,-22,103,98,-164,-33,-132,82,-121
,-188,111,41,37,63,265,-153,41,-114,-173,31,-159,30,69,158,11,-55,136,-1,-168,-99,-151,-122,-219,-43,-31,142,1,-11,-59,-60,112,-267,5,9,-85,-77,45,77,13
,-68,46,-68,-137,-196,110,-20,74,5,107,-22,-247,-19,146,289,27,-68,165,83,-26,-245,140,-171,54,-125,-73,-222,-97,122,69,-2,-189,-51,-105,-905,-13,52,22,-772,-221
,49,-142,-97,-29,32,36,-56,-29,-36,11,-31,15,32,10,-12,25,60,-120,-24,-69,-1,45,-40,-109,-50,-119,-138,-123,-86,-1,11,56,-9,-84,34,19,-130,-84,-21,-89
,-148,-56,-9,-213,-110,-101,-186,-238,-14,-156,-23,-231,-164,-145,-174,-204,-206,-35,-210,36,106,-213,12,146,-137,-4,-86,105,-35,48,-176,7,63,-91,-133,-75,-80,-93,-128,105
,-231,178,-3,181,111,-64,144,192,-16,-49,-53,-148,13,-75,-274,28,94,66,182,-1,27,158,-65,294,33,-76,77,-65,-292,-271,154,-92,-30,29,-108,-323,141,130,140,-384
,210,87,-192,213,-112,104,181,-202,-491,121,-44,112,83,-214,-5,233,95,-23,15,3,58,-19,128,-119,-135,-48,-87,-281,0,43,112,-105,63,203,71,-20,-149,-49,44,18
,-24,55,7,-44,-62,369,-68,55,-324,-19,-35,-172,52,-18,-392,96,-37,336,-30,25,173,45,1,1,-103,-276,-81,-7,64,-217,-229,-7,-9,-172,28,-9,-119,31,-45,-1
,-223,-64,-142,-167,-164,23,47,-66,38,-57,55,-12,-38,32,-142,76,-101,3,-15,-44,13,-94,30,44,66,-6,-9,-21,-6,-122,-54,-186,-53,-11,7,-181,5,32,-108,52
,-269,134,81,15,-135,-290,-179,-102,-130,-83,-233,52,-117,-190,-233,-87,-81,28,36,-279,-134,-120,20,-24,-225,63,100,11,-42,-54,110,44,-189,-168,80,62,-149,-133,88,168
,-155,-91,-11,-32,120,-59,55,-30,26,-203,-85,-36,-95,-119,-14,17,5,7,-15,40,27,-40,130,68,42,-74,-151,99,-153,-231,-58,-13,-35,23,-39,32,92,32,-124,53
,-90,-29,44,-90,48,33,-133,19,94,-154,-162,-98,-237,-10,-141,-170,-211,30,-59,-244,25,17,-183,-91,-16,80,-81,-68,-7,-14,-9,-3,-86,-9,24,-112,-198,-61,-28,-105
,146,-299,-533,-18,-16,128,133,3,-196,155,-92,-242,115,43,-65,160,-128,-181,117,39,185,108,91,130,-148,43,-30,133,50,49,100,42,-73,39,29,-112,-7,52,-112,-231
,249,-525,57,-152,121,-222,77,-61,2,-106,-137,-123,-187,-60,-53,46,-159,120,-153,107,-133,-106,88,-170,193,52,147,4,-61,-62,125,-367,-139,9,-2,-46,-53,74,-74,-391
,-45,52,51,-112,-48,175,-112,-69,-281,-27,53,-37,-108,-80,182,-114,125,25,27,2,27,-42,-150,-179,-45,-38,45,134,-151,-245,127,175,-166,-107,133,43,48,-49,123,-19
,18,-213,-65,-117,-123,261,-90,28,-122,45,-19,-167,118,-28,-139,60,-69,-30,-95,-264,-95,-48,-29,60,-142,-40,-81,205,-33,-138,27,104,-8,-207,-153,116,-10,-41,-139,183
,-260,86,-304,-237,143,334,129,75,-59,-200,-54,-443,-71,-49,-115,-90,41,-158,-158,38,71,111,-115,-61,105,-144,23,47,-132,-47,-142,-355,-50,31,-122,-143,-193,-45,-107,-149
,-96,-14,-15,23,48,171,-108,-274,-88,114,-437,45,-40,64,153,-19,-401,-5,83,-619,35,69,-488,-302,-52,-234,-241,254,-46,-10,-549,-65,-135,-140,-240,-248,-53,49,-618,-91
,-22,4,-125,92,-111,-147,2,80,-41,-48,-77,-122,-59,-7,-41,-156,-104,20,79,-131,-61,-70,-135,-105,62,44,-9,23,-162,-20,5,67,-62,-58,-133,89,-26,11,-31,-112
,-291,-49,4,-91,-129,159,-183,-133,223,-2,111,-17,33,-30,188,-12,94,-196,86,170,9,108,-95,-381,-60,40,-3,15,-154,-101,-118,-10,-31,-101,-165,77,30,5,-121,27
,-76,-118,172,-16,-79,164,45,-29,-15,-127,73,-108,-63,56,-41,101,-79,69,-40,117,89,-24,108,-307,-184,-37,-5,-79,-85,112,-3,45,-46,-193,-113,-105,-203,76,-142,-107
,-14,-3,-1,36,-26,414,31,-14,253,68,-46,20,77,31,-409,79,54,-251,-23,77,-15,-229,-77,-13,-160,30,-253,-9,1,-529,-169,8,-23,-188,-365,-2,-312,-103,68,8
,32,133,249,-69,84,-16,-131,-174,13,-230,-196,-210,-134,25,16,-83,-199,-152,-277,-10,108,-49,-257,-381,81,-189,58,-131,59,21,50,104,61,-12,-21,-124,-213,-19,-22,-89
,-81,35,18,-13,-42,-82,-122,-92,-143,-170,-23,49,-166,-130,-173,-53,71,-26,-185,-49,-106,-137,-124,-143,43,-81,69,27,-148,35,-110,66,81,-132,23,110,33,-69,-150,106
,-35,-302,283,-93,98,-290,133,-245,-6,-13,-236,-322,-16,-67,53,104,-162,-17,41,-37,-189,153,-25,82,19,-27,-22,-65,15,-49,-102,-208,-37,113,129,-56,34,-127,-35,355
,224,-20,82,222,-8,-569,135,-131,-51,266,-65,139,145,-145,-160,115,-105,83,228,54,3,150,83,109,-83,-101,-922,-423,1,-3,-648,47,-63,31,-613,-337,-50,105,96,-134
,-490,325,-261,-211,-18,130,-60,-81,-20,-37,-41,-164,44,-104,-131,-44,-200,-1,-92,-104,-127,-235,-28,247,-13,-51,38,-94,78,-63,-93,-38,-89,18,-3,-363,62,-59,-149,55
,-145,-8,22,-205,-124,-23,-83,-90,-22,-19,11,-10,1,-113,-14,-23,-4,-155,-90,-75,56,-21,58,-77,99,-82,-99,-22,-118,-91,125,49,-91,-10,-53,18,-44,6,33,-35
,-138,-164,-142,13,-95,21,-153,-29,-34,-139,28,-35,-24,-109,-4,16,55,73,-99,-25,-120,-153,20,-23,1,9,-11,3,-47,-52,-63,-55,43,-23,-26,42,-75,91,-83,-67
,-313,-82,73,-76,-70,-224,-143,32,81,-71,-117,-123,-55,-81,-16,-82,6,-53,-238,-66,-224,13,-55,-57,-29,0,-126,93,-124,-165,-6,-34,62,28,-53,48,-71,-87,-7,-41
,-16,135,-21,-26,-28,234,71,24,46,150,-63,190,-46,16,111,-92,65,-31,90,-160,-194,81,63,-317,-819,-89,-1564,32,-66,-82,-1030,-67,-71,-32,52,39,-230,-169,71,-55
,-180,132,4,200,-179,441,-87,-60,414,108,-54,-170,97,51,-444,-120,56,-432,24,35,145,54,8,4,-201,-149,-144,48,-197,-77,-226,-40,28,-66,-154,1,67,-155,-20,-22
,-59,-148,58,-204,3,-148,-189,1,-74,0,48,-59,-33,19,-19,-88,-7,90,12,-2,-265,1,-185,-73,27,-137,-23,-87,-5,-165,51,-170,61,84,-115,16,-58,-149,-146,-57
,50,-103,-49,-107,-87,-434,-34,-21,-358,-29,-336,43,-22,-118,-495,-79,-98,-535,57,-526,154,144,-413,110,31,-1,-50,-108,70,78,-48,-677,59,80,-29,-91,-74,-32,104,-489
,-107,-45,-28,-52,-21,-128,17,-66,20,26,-45,-78,-117,-14,-111,-58,-14,-37,136,38,16,-40,20,75,19,52,-102,-60,-24,53,36,5,-28,-126,84,-142,29,61,-8,-98
,-97,-16,-398,-27,90,68,38,-63,-79,85,-31,21,-235,76,42,-1,-124,-115,-5,-90,26,-94,86,-159,109,85,-66,-238,-5,-170,-111,-213,7,-75,-31,-138,45,-109,-66,91
,96,-82,-202,-90,-8,-14,-55,-233,165,41,-37,-228,21,-63,-7,-44,21,-268,51,55,166,-21,-47,-351,-34,-149,39,-182,-144,78,73,-58,-52,72,-38,2,-82,-106,45,19
,-160,-143,-142,22,21,30,10,-73,47,-54,-117,-13,-160,-50,-150,-107,2,47,-32,-84,39,-77,-38,-80,61,27,-12,5,49,-69,-123,-90,60,-88,-23,17,137,-51,-102,-72
,-157,-186,56,-120,-4,75,-174,-153,19,48,-60,-40,-157,138,-84,-51,-45,-28,-104,65,-50,7,-37,-180,18,-189,-89,0,113,-35,-1,-83,5,-136,-25,-17,-196,79,17,-146
,94,-68,-287,-174,40,-83,-52,-150,-89,23,-133,-431,49,-102,-74,-67,54,-165,-171,90,192,39,107,145,-152,26,-10,-4,-36,168,71,89,0,118,46,188,-170,-42,-138,118
,-12,-175,-180,-44,-163,-142,-165,-76,-32,-1,-159,88,84,-100,-17,-43,18,-159,-192,-171,-2,63,-87,35,-63,-20,-63,-206,91,-11,-133,-8,27,-137,-50,-13,-74,-10,121,-18
,-317,6,-89,14,54,-301,-356,145,198,-336,58,-689,-270,65,-269,-305,-24,160,-187,-108,-453,-146,-124,-247,-55,-158,-290,-34,7,182,55,-149,-42,130,42,354,-217,-219,-167,199
,-26,-169,86,-18,-25,106,24,-192,13,113,-55,150,104,13,-167,-130,-153,-207,-113,169,111,14,162,-225,-251,216,104,-172,-70,-66,140,-308,-215,-60,-128,385,30,-36,-87,109
,8,-45,-30,-130,-122,-166,-175,-38,-110,-163,-151,-39,-49,5,95,-187,-36,-189,-2,62,-8,-56,13,5,90,-59,81,-114,57,-150,48,37,128,-52,100,-84,-48,-149,-91,-181
,-58,-335,268,0,-142,141,100,2,-328,15,68,88,65,-141,-39,89,-125,-178,81,17,-136,-71,-53,-205,-135,-118,46,40,0,-7,238,-168,78,-121,117,-232,-159,-27,185,-158
,117,-83,-89,-22,23,134,164,-65,-70,-48,1,343,35,-18,-137,-64,104,108,44,18,-390,26,-72,-64,182,-185,-114,-102,-203,-68,-112,-46,-206,-64,-169,123,-93,-17,23,-153
,-70,-10,-6,104,-47,-1,-44,-39,452,-1,25,-69,53,102,42,75,26,-480,2,-6,73,-104,-42,-9,-683,1,-708,-5,50,-139,-91,-16,-29,-207,-240,2,-61,32,-292,-14
,181,-264,-1,-103,-85,-402,-24,184,-28,-12,0,70,-46,152,171,-89,132,-14,-57,-91,-128,-24,-30,-320,-201,-173,14,57,-173,1,-25,-34,71,-96,15,-185,-15,37,-115,69
,144,-110,-55,158,-6,-164,-105,15,-124,-152,-22,-53,-76,-5,-147,37,7,-42,-143,-73,-120,22,-82,-34,-53,45,77,-81,26,111,19,-22,52,-44,-148,-94,-62,60,15,-34
,265,-125,-53,240,33,-74,305,-86,45,48,80,244,113,56,-469,99,51,-21,40,119,176,259,-27,136,57,35,-95,-5,12,173,29,-230,-93,-32,-27,-373,-17,117,-25,-219
,-110,-63,6,-192,-31,11,107,12,51,118,44,66,124,0,23,-21,-70,0,87,54,-71,169,9,194,-80,-20,138,26,200,17,96,-40,-13,162,53,-45,154,94,-14,-121
,-248,58,-306,-340,1,67,-278,135,-380,-185,22,87,124,-85,-40,-143,-55,167,18,-91,72,64,-105,236,-222,160,7,-27,-108,-31,-129,116,-207,20,-83,64,-143,-27,62,183
,-151,-20,-34,-539,-147,229,-92,9,-249,-227,-90,-71,-151,60,-758,-145,44,-230,-195,-103,69,17,-17,-166,-183,-98,-258,-262,1,108,98,33,-197,33,-36,-100,-126,-168,-125,124
,-289,-113,-171,-107,154,-66,173,-205,-383,-242,-267,133,-69,-108,10,-62,-128,-137,-32,-119,-16,-247,25,-87,-274,-19,-239,61,23,27,158,131,-70,21,-80,-272,139,136,160,-11
,-147,-48,31,-181,-167,-114,11,48,-20,-98,52,-98,-33,-154,-149,-65,35,-30,120,68,-118,113,-78,39,77,-124,-12,25,-133,89,40,-17,-51,105,50,-102,38,105,-112,-38
,-185,-134,95,-31,-122,-155,-91,11,-180,-104,-89,-42,-13,-4,-66,52,43,26,-227,-20,-22,-193,-199,-252,-34,153,66,-117,-11,-138,50,-255,-29,-86,0,-2,-59,166,-82,-16
,-157,-151,13,96,-34,-72,-136,-175,47,-139,-14,-25,-101,17,33,-7,44,-236,-38,-157,14,-200,-114,-30,52,-112,-136,-161,49,-20,-4,41,-54,-37,-23,-9,36,8,-85,-10
,148,-187,-30,85,-62,44,-113,28,-29,-74,0,-48,-32,80,-16,-26,19,-156,-33,-11,31,-35,-73,-31,-22,-92,-64,-60,70,-139,-27,99,8,-89,76,18,29,86,-18,-154
,43,-118,30,-21,11,-40,114,-22,-146,112,-65,78,2,-121,87,-18,-187,19,205,76,-95,204,-140,-63,-119,-23,-5,55,-149,-162,-563,-225,-133,36,-101,-211,-124,-59,-72,-17
,217,66,-323,7,60,-107,252,75,153,56,-100,58,22,4,-139,-47,72,69,200,58,-87,179,-160,65,-168,-200,426,-475,-66,-88,-391,-19,-72,158,159,21,-86,-158,-92,-184
,136,-146,-190,148,-85,-158,-19,36,104,-80,-9,-31,1,-88,-150,-58,-74,31,33,-228,-116,57,95,-18,-128,64,-42,102,38,-191,-26,-59,-36,86,-86,47,92,-148,-56,-82
,74,-138,-47,284,145,-178,19,66,-345,157,77,-168,265,157,-22,141,34,80,106,-88,166,97,-204,154,-207,-246,-327,-112,-40,-53,-99,284,46,-77,86,217,-52,-61,53,142
,-257,185,80,-456,104,-343,-345,-162,-294,-749,77,-125,-243,57,-129,-145,-66,197,-292,-234,-216,-379,-111,-287,79,159,53,184,-53,0,-84,29,-175,-129,-47,0,64,-71,152,123
,-510,190,-73,-48,-11,-133,-333,-56,145,-144,-2,58,-200,-111,-141,-109,72,31,-230,55,-148,108,-218,-488,-123,3,-107,-39,-51,-64,-118,115,-43,-178,-126,189,-178,-170,57,125
,147,-242,-730,-139,-337,-25,-213,-56,139,-190,-216,97,-145,-255,-9,-214,-235,25,37,-145,75,-59,-125,120,164,-57,70,15,-16,20,-237,-474,-72,-108,-98,-436,73,-97,21,179
,-181,48,113,60,-125,83,-117,75,139,-103,79,-154,-136,9,-89,-136,-30,43,-31,-21,-38,-29,-53,-91,-6,70,4,-20,-174,-84,1,-68,-48,-24,164,-135,-122,-49,23,-117
,-117,49,-15,-313,-48,226,-211,-240,-406,-9,69,-268,-77,-61,-211,-108,-112,196,-234,-101,77,-53,-152,-159,112,4,51,-1,54,-163,47,-19,10,110,65,36,-18,-141,41,15
,135,-78,-53,25,10,-231,58,-111,147,75,15,-9,67,-175,214,22,-4,-3,54,-151,-89,82,-57,-214,5,35,-192,-222,-154,26,-83,-96,-14,50,-17,300,-82,84,123,-80
,137,59,-125,-27,-52,40,-37,20,30,-144,11,-182,145,-57,-40,43,-98,-106,-67,-55,91,11,-92,-83,64,-95,-180,28,71,-170,-5,46,-11,-128,17,14,-96,74,87,-58
,6,21,-115,-140,-45,-22,-26,48,-208,-57,-65,-48,-30,-105,49,-133,-56,-45,113,-43,-85,-121,59,-26,-49,51,40,-185,70,-41,-72,6,-88,-30,-99,-49,-70,34,60,52
,-241,-93,239,-197,-121,-24,-262,101,181,-45,-58,-141,-114,-49,252,-162,-63,-168,21,44,71,-170,135,-449,9,-22,-68,32,-104,-247,-182,16,-39,-125,-166,150,-85,15,-147,137
,-77,23,-365,-137,-127,-201,53,17,-203,131,-93,-103,119,92,30,-85,41,-294,-4,-3,-186,139,46,-30,-491,-415,-579,5,118,95,286,50,-82,-159,-332,-47,-146,-220,-347,60
,268,-32,188,200,-300,127,1,-236,-686,-58,-217,-534,60,-282,83,44,-3,-141,-75,-86,-616,70,-200,50,210,39,134,-107,-1,202,114,-94,-91,-197,58,-144,137,118,10,-407
,-3,-194,-71,-87,-168,27,-107,-173,14,-22,-203,-54,-84,-104,52,91,-204,-121,-82,-100,128,23,-152,-44,-132,-23,-117,-169,-40,-38,-9,-175,122,115,-52,20,-7,60,-112,-157
,-266,-25,240,-407,2,-32,-18,-26,-36,-230,-108,-68,-112,-170,56,-30,-137,39,3,-39,-298,101,176,-171,11,55,73,-104,143,-48,126,-22,111,-123,100,132,-103,-53,-247,104
,21,62,15,146,26,92,-168,-54,-1,-177,59,-169,60,-107,-91,-68,-154,10,-45,3,56,-36,-58,-164,-155,60,28,-8,29,53,-125,-117,-7,-26,-26,-20,4,18,8,-250
,-453,36,-359,-461,-269,170,-334,148,-338,-117,-146,-154,-310,153,130,-226,-108,-327,-15,49,-47,128,-106,-43,-25,-29,-87,-373,157,106,16,13,-148,-162,-211,37,-43,-122,-243,74
,114,91,51,83,-86,-170,105,-22,-7,19,-186,-173,119,-58,26,96,53,-34,38,-179,219,-17,-178,-58,-56,11,-68,66,-150,70,25,-9,-120,12,-165,91,-1,29,-21,8
,93,-360,221,89,-64,-11,-58,-31,192,63,63,-190,-150,-271,-264,106,-327,-203,-40,-205,-290,-224,101,-72,-348,-400,-248,10,40,132,-86,233,39,-1,178,60,73,70,-35,76
,-54,-64,-8,-48,57,-462,152,-142,11,84,47,-112,13,-14,447,-45,59,-23,-9,66,103,-1,-22,-6,-200,-204,-210,27,-294,-192,-1024,4,46,-144,-417,28,-90,-250,-241,-1
,-132,-106,-138,20,62,-67,-115,-19,24,152,-202,32,117,105,-39,140,254,119,188,48,84,411,-329,-239,123,4,89,-108,-44,46,-54,-327,193,-36,84,-200,-175,-1,-198,-29
,-70,-139,133,69,-19,-62,-181,-87,-40,64,-301,-136,-44,-187,-50,157,-326,59,36,-202,74,161,-80,-175,63,-29,-27,-263,189,-35,182,68,-139,-15,52,-48,-71,21,15,31
,-288,15,-142,-207,-40,54,-331,-117,44,-101,-129,-10,-348,-91,113,-147,57,345,-149,-114,41,-211,92,-440,63,-5,27,-64,62,-25,-35,-41,-172,-194,-214,-422,99,-85,-1019,-182
,202,-450,-105,296,-375,82,-264,-10,-153,-58,-186,86,348,-64,9,308,-201,-239,336,-272,-93,162,-120,4,-81,-141,-291,-42,-96,-57,-216,-161,79,122,113,45,-36,116,58,33
,-60,-31,-36,109,280,267,112,47,164,31,-116,-7,137,-103,-168,96,-228,-146,145,-19,-102,82,-179,-229,-37,-38,-146,-64,195,-16,52,-12,-53,17,-86,-184,60,34,-12,35
,94,-47,-116,227,63,-8,-36,-115,-9,30,-93,143,60,157,-107,23,5,-64,192,-133,-14,20,-33,224,111,-151,-273,-506,64,160,14,168,-36,-147,-158,-107,16,-254,-459,-220
,-82,-98,-202,-117,-111,-109,8,80,31,56,-2,57,-267,-23,-29,-196,-95,-200,-217,-310,-38,-130,-325,-252,-157,-90,-51,-78,-170,-78,-31,-380,153,56,101,144,61,-55,-79,127
,-29,119,-11,-67,84,175,76,-104,286,130,75,-35,7,-16,143,82,-54,-285,-78,-112,-294,-83,29,5,-1028,-531,110,53,-296,-515,42,-125,31,115,-39,99,-80,85,117,52
,-11,-305,-408,-219,-313,-118,-497,254,-469,-23,-173,-222,293,-188,-113,69,-97,92,256,-193,-97,259,-349,235,0,-79,164,12,3,123,116,65,145,-98,98,154,76,-107,74,12
,-503,-254,148,-304,124,-200,-113,-54,-140,-428,36,-3,-499,11,147,-94,27,-264,-77,-71,-79,-115,-300,11,-4,-53,8,-178,83,-52,-36,6,39,-107,-85,-347,67,201,270,111
,15,-105,-50,-11,-198,91,226,-11,-114,4,-210,-52,123,-109,-18,82,34,-97,86,-54,39,-23,-152,-3,-48,-152,-190,-158,-175,-176,43,149,-36,-21,80,-94,6,111,-85,8
,77,151,-71,-31,68,-547,153,-184,48,-218,47,26,128,-145,-15,101,-148,-173,112,72,-263,-100,119,233,-338,-402,340,-110,-12,-282,-180,-87,175,-72,178,64,-180,-51,-22,-129
,-450,-355,-156,165,-224,-39,-218,71,75,74,-410,135,-312,-50,95,-45,-211,-81,-319,187,-447,-141,321,-574,-12,139,118,66,42,-3,105,105,-692,-727,-761,-97,83,125,5,76
,-10,49,-114,-52,-31,21,26,-55,-151,38,14,-42,-99,-21,-170,-70,-61,-19,-62,31,42,-5,29,-71,105,-28,0,-201,-11,-130,-122,-88,40,-87,-158,-120,80,35,-24,-153
,284,-34,-162,48,10,51,66,-84,8,-81,-3,2,-50,-120,35,17,-178,40,-22,-50,-12,-140,-124,-142,24,-10,-23,-107,-103,-81,94,-132,-140,102,87,-271,-65,10,-293,-109
,-314,-208,178,96,-22,-249,-272,-166,-504,-400,-135,35,-206,-242,-256,-214,-249,-12,-164,-71,-69,-370,-139,-58,-390,39,29,73,103,-57,161,119,-14,5,44,-104,-32,-161,-70,-101
,-12,69,-168,-68,-4,-282,152,31,135,73,98,111,9,20,105,103,-105,16,172,-90,-122,42,69,201,-212,-407,-1384,-47,-21,-158,-978,-82,-69,-134,-1504,-5,-140,-115,-27,-30
,-115,73,25,80,-166,-51,-58,-30,-132,-143,55,75,-179,-92,-188,-57,-179,-90,-87,40,-174,-123,38,-122,64,-170,39,39,-103,95,-112,54,76,34,90,-146,-75,-135,-84,66
,80,-114,224,134,-3,158,-90,102,53,-168,-114,273,-41,-155,35,-21,19,-75,91,72,-195,-116,118,-497,-25,-14,-1,35,-28,80,-93,19,-79,-31,-137,80,-303,261,-1384,-5
,-206,77,-135,-44,46,-98,-126,84,-114,-13,-64,-23,-107,131,92,71,-115,73,124,-42,155,-77,103,-89,-49,26,-88,-333,71,-73,-44,-247,-129,-18,144,-242,36,108,49,-118
,263,31,-70,307,106,-352,-91,30,232,-63,-72,106,96,-32,-140,-86,-168,241,41,-16,-124,34,116,-23,39,-131,-26,-26,-6,58,77,92,-388,-118,199,-54,-92,-70,-79,-41
,20,-55,65,-113,97,-131,-119,73,-62,-82,-179,181,1,27,-27,-32,18,-33,-81,69,-80,69,-1,190,127,-73,-126,47,-125,-5,10,93,-22,-258,-418,33,-107,80,-41,-93
,-187,-172,-32,-17,-4,250,-76,-240,108,44,-139,4,-63,-69,177,-39,-136,188,18,-263,-92,-76,-222,-61,43,-108,-175,-3,94,-91,95,-331,-19,195,217,-33,-179,68,81,-213
,32,10,192,-20,-255,-206,110,-316,-405,118,-286,-602,-14,73,99,113,-189,-30,63,243,102,115,-37,49,-124,-34,-95,269,-170,-126,75,198,-68,-132,187,-209,72,-134,193,67
,90,-28,102,263,3,-236,373,-120,143,322,-24,-355,124,-68,-231,345,63,-184,311,87,-374,133,18,-309,65,-22,87,-16,106,173,16,-141,-198,-115,-259,-144,-187,-222,-254,38
,-197,28,70,102,-23,-79,-255,-137,48,-340,-97,-260,-43,61,-150,-218,1,-48,-357,30,-19,-234,-210,316,-37,-232,-42,-482,128,58,199,-218,-140,57,-25,-285,-184,-116,-348,397
,84,-78,53,179,161,27,77,-40,-279,499,-401,-22,332,-67,-20,164,-91,-77,242,-20,-69,161,-104,-849,-58,23,-40,84,-89,-204,-522,-68,-190,-119,-499,3,-94,46,-7,247
,36,31,-211,-48,35,58,-155,-179,-101,-35,23,-6,-118,-121,-38,-166,-114,-41,25,-150,-57,-12,47,-35,-47,-134,-55,-24,36,-31,10,38,26,117,-82,84,-118,-16,-112,-90
,-12,-42,27,77,-89,170,27,8,55,274,64,-28,177,73,146,248,-60,-92,229,-161,32,113,91,-338,-42,95,32,-20,-206,-245,-199,-1,70,112,-124,211,-212,-182,-257,140
,-1226,-218,-430,-435,-78,-239,-75,119,168,-149,98,-108,-209,-128,158,-84,-111,-8,-256,82,-45,-144,34,-25,151,173,-89,127,70,14,-107,6,15,-103,-277,-283,-181,-112,-151,-173
,-62,-145,-111,-9,69,-131,45,-90,-95,32,-210,116,-133,-93,77,-204,-28,-154,-182,-133,-131,-112,-121,-162,-84,67,39,95,79,57,82,-168,-30,-117,139,-128,-62,126,103,-93
,-17,-129,-377,-57,-186,131,96,-226,122,32,-187,-98,104,-335,-74,182,-26,-227,103,123,-165,77,-172,65,-18,-31,3,37,-97,-130,-148,-169,-72,105,17,-76,-86,-19,53,-3
,49,61,-93,28,-141,-7,77,-156,-185,-29,-120,-170,-40,-111,-17,67,-33,-15,60,-154,67,14,-95,9,-116,-19,90,-178,73,100,-91,102,-53,131,-36,-193,102,-73,-40,-127
,136,125,-188,92,-142,-14,24,-7,-14,194,203,88,-46,-50,-98,114,111,42,58,-94,138,235,-333,-317,-336,-196,-286,62,122,88,52,60,-158,143,-191,-403,145,86,75,-28
,-18,58,42,-94,-46,-51,-146,-73,74,75,-45,51,-6,-192,30,-7,-243,-193,-83,-256,-98,-149,66,-70,-24,97,16,-110,-190,60,-34,19,-67,-6,-88,-79,-17,38,30,-20
,-70,-152,-14,9,-53,22,-32,-215,-193,-186,15,73,-75,-130,50,-135,-128,-108,-159,15,29,-143,-16,-86,120,74,43,-181,-19,-46,41,-190,-9,-58,-39,16,103,-44,24,-286
,-244,21,-85,-153,-21,-51,-261,-190,-120,-93,-35,6,-124,-22,-72,-16,-13,-188,-131,-90,79,-188,-68,-167,-25,-142,-171,38,18,-108,85,3,-45,78,-117,-52,7,45,83,109
,-15,-79,-51,94,63,-120,48,-91,-147,-120,-177,-114,127,53,144,42,-48,-2,82,-22,-90,-20,-157,-73,-194,-10,132,140,68,-101,104,103,-121,-45,-209,-14,-46,20,-54,-98
,-2,-87,-51,171,7,123,4,-56,-221,6,-197,16,54,-80,-187,168,-91,22,-102,3,-106,-85,-191,74,-126,67,-136,176,29,-202,-173,33,-68,-110,89,56,-27,-80,-10,152
,-81,42,-24,114,41,20,-92,99,-411,-214,-101,64,26,-253,-156,-24,42,490,-47,-50,-17,49,106,-9,-101,-206,-308,120,-178,-211,-126,61,-1,-78,69,-26,-51,-139,-229,22
,-87,69,-132,102,-94,-24,-54,13,-29,6,-85,-130,95,-1,-60,-140,-171,-20,-16,-157,52,-130,-7,-123,48,-87,81,24,83,87,-51,-40,1,-83,29,1,-120,-130,-125,41
,-182,-58,-32,-20,-101,162,-15,60,110,80,11,186,40,-201,-257,-233,31,-21,7,126,-265,168,-39,-44,-263,119,357,-275,-70,-40,11,-30,-270,107,119,-204,-32,-66,206,-181
,167,-234,17,39,-70,-139,-17,-111,-64,-102,98,-61,-31,-26,-9,18,7,75,-159,74,65,-29,-68,-152,1,19,-36,-17,68,-145,17,-203,84,-36,75,-95,-26,-93,-21,-187
,-114,-161,-2,1,7,-53,13,55,-79,-80,-76,-162,-43,60,-148,13,-14,-60,-114,-213,4,59,-87,48,131,-99,-97,27,36,-88,-109,-89,43,-63,6,-189,14,-42,56,70
,5,3,-60,26,-48,-153,273,-72,92,29,-61,-85,116,22,-164,281,90,-57,207,-330,75,139,-368,72,-209,-57,-140,93,-45,-174,-191,-80,-131,-143,139,338,-22,88,66,-4
,-17,101,-129,63,90,52,37,-157,-177,36,-156,-207,26,-214,-96,-193,45,55,-152,-16,1,52,-47,2,34,-159,90,8,-142,10,17,38,-74,71,-2,-148,-22,101,-130,-73
,71,-138,9,-128,-67,4,-245,131,402,52,13,230,-191,146,80,-79,77,-434,168,-130,-290,-24,-120,-23,182,-95,-620,46,-190,-8,-48,-172,140,20,11,38,-93,-5,-191,-81
,-212,-155,-405,-346,-167,-133,-265,-125,57,304,-197,-31,-213,-24,-473,-190,-206,149,-187,-191,-104,-394,-5,15,-215,-233,-177,140,-135,-152,248,15,-143,-284,-264,202,169,229,246,124
,-24,-156,-73,18,-219,-204,94,-137,156,-49,-32,-158,-101,-42,81,-49,64,-260,-85,17,82,-54,-86,-104,-39,10,-5,-57,-156,-155,-296,-89,-131,-197,-368,-26,-121,-136,-389,-60
,82,68,-149,-159,-47,-50,-69,41,-79,-31,12,-77,-149,-115,-151,-138,-40,-49,-86,9,-99,-2,-38,-139,-95,9,89,29,-146,115,-38,-140,60,4,-92,85,-76,79,-69,79
,-12,-155,-37,2,98,18,-50,-116,-42,-16,23,42,8,15,-29,52,-70,4,82,4,-66,-106,36,-71,5,-107,-104,2,-60,-128,103,83,-62,-14,55,-1,-3,-18,-33,-162
,441,56,-37,-64,-114,144,-92,-127,-281,-161,20,-22,6,-184,-366,-42,-152,-242,-145,-147,-79,-313,173,228,138,67,160,31,-1765,-108,-471,382,-39,-26,-324,-210,75,-184,-89,189
,-397,-150,-15,-406,216,220,-159,70,-238,-503,149,-6,-174,90,-171,-196,19,-94,-382,-123,64,-75,-186,219,-125,105,116,-283,41,-8,57,-210,-89,80,91,-139,-150,136,85,-70
,525,98,-27,138,-84,-45,110,-90,-383,159,-173,161,166,71,-890,59,85,-251,57,-193,106,174,-122,-112,64,-4,3,-2,-72,-50,-176,358,-77,-195,-904,-186,-33,-153,-354,1
,95,-123,28,139,-32,-163,140,-14,-69,15,-77,-101,178,-29,-40,160,-4,-70,34,34,44,136,-6,-115,-85,-142,38,-287,65,-88,-166,119,77,-72,-144,196,35,84,-151,-168
,130,0,-36,-49,82,299,-67,-101,170,-69,-10,-129,-171,53,-97,15,-68,-229,52,-120,-132,-100,7,-11,-133,-42,37,62,-68,-96,-106,58,28,64,37,34,23,2,-77,-139
,127,-55,-5,-159,122,-278,154,93,-258,-22,45,296,-79,-142,249,-64,1,289,-31,-54,-300,134,-12,0,-54,-36,-96,-4,-82,4,-376,-5,-93,-180,-672,-13,-24,-218,-99,-13
,-38,-131,-555,376,-83,-27,38,-50,-149,-166,108,-217,257,-9,-106,94,-149,73,74,96,-208,-3,-87,-373,85,106,123,127,-194,-171,-251,245,-242,-61,-17,-121,159,34,-7,146
,-858,-121,-112,-351,20,3,-326,-77,-566,-499,95,-290,-379,-19,43,-408,-22,-478,-480,-35,-727,-367,-24,-171,97,25,46,155,-766,-824,-717,18,156,103,169,27,-136,-63,-61,-282
,-47,-91,37,-10,-96,-140,-115,-199,-216,-129,-220,-37,-165,-174,38,-54,-182,-53,-41,81,47,-76,42,59,-78,-193,-169,-100,84,181,138,-39,31,53,-215,-263,-62,-111,-131,-52
,51,-85,-41,48,-51,-84,-1,-101,-146,27,125,-126,-47,-62,17,-171,-140,-142,-38,-125,-33,-64,99,-106,29,-48,-132,-66,-158,-3,77,-49,-28,107,64,-3,22,56,61,-89
,-85,-27,62,-40,-27,-126,-205,-133,57,-73,-86,-150,-28,76,-91,7,-85,-203,-196,-126,24,-40,-35,19,42,-37,75,-121,-99,25,-83,102,31,-140,-22,60,-40,-2,153,13
,80,23,231,72,35,-345,423,-157,-41,244,132,-139,248,-144,-400,260,-130,-73,168,46,-64,101,-80,195,-215,-434,189,-84,-126,-135,-941,-62,93,209,40,3,157,-52,41,-113
,-75,-37,-168,109,-76,-62,86,-15,-141,-159,9,-93,-91,-156,-20,-128,23,-17,22,-76,75,4,6,31,-35,42,-138,-30,70,132,-2,-96,-96,-30,68,-113,-61,23,21,-167
,-102,-637,172,-32,-131,-451,-46,-152,174,48,-45,-95,165,-509,-40,48,-325,-10,39,-55,-34,16,-225,51,-242,-40,-398,69,67,-30,46,151,185,-46,184,35,-187,-168,-23,-469
,-242,68,-36,-157,60,-206,-119,-69,33,-106,43,4,20,-18,-35,-52,60,-196,96,66,39,33,40,394,89,78,-97,-70,119,-73,26,-35,117,-559,-1075,-131,-99,-128,-308,-27
,51,-58,-18,-16,19,-588,-2,-61,-10,-214,-12,-58,-120,-182,480,-278,126,21,-132,-65,95,-66,128,26,87,-98,-146,41,-153,-317,-108,125,-203,-77,61,17,-125,-118,-57,-8
,-739,-88,-501,-793,32,-329,-946,-166,-181,-618,-77,-381,-19,-44,-148,-199,75,-11,66,72,-147,21,-115,-333,-41,-25,73,106,164,-30,44,221,16,-15,197,15,-227,21,-13,53
,244,-50,78,116,-202,-92,287,83,69,307,-79,184,297,112,-98,333,-33,82,191,-59,189,184,-127,-360,-73,-62,-57,-292,-58,94,-11,-113,-161,-62,170,-145,-147,-78,-616,-14
,-18,-157,-229,19,11,-12,-38,-11,-197,142,-129,109,16,-154,72,54,29,59,174,-1,-13,90,15,-27,-56,-181,3,-49,25,-11,15,-88,-121,-59,-39,31,22,16,-4,-146
,249,-386,-319,-35,17,108,-16,-47,-469,-40,-46,-23,81,-265,24,157,-164,-151,191,-154,196,170,-292,174,7,-112,67,-69,-6,96,137,54,96,-34,41,-123,120,95,-63,40
,224,-201,-429,136,79,29,-135,-166,-239,26,29,-156,181,86,-21,157,-164,15,74,-13,32,214,102,-48,-100,53,-44,220,7,-209,-134,-49,-15,157,135,96,-119,0,59,-114
,2,-5,50,19,-28,240,-14,-39,130,7,-25,-294,-46,-241,-271,-56,-15,-237,121,35,159,61,92,38,76,76,-17,36,134,8,169,75,-334,-327,-679,-11,54,59,-172,-13
,13,-80,13,-208,-7,-124,25,-157,36,-90,65,-86,-51,-124,-146,-104,-107,-27,-91,41,-48,-60,19,8,-107,-13,103,-8,-70,-33,77,-71,127,-107,-42,-13,-17,29,-92,1
,38,-57,-174,-7,-189,105,-39,-2,-225,12,8,-1,-74,-6,135,-48,-9,-183,-139,-182,-146,-139,-148,-155,-113,-42,-408,-44,-154,-27,-49,-303,-114,-38,-112,58,13,50,21,-8
,-10,-42,-77,-2,34,-134,60,-69,-63,-93,-104,-76,-47,-142,-176,-43,28,-120,44,-115,-149,3,82,3,-16,65,-138,124,28,-25,-62,32,-60,95,-57,-52,-113,-43,-114,25
,-189,-66,-50,25,-155,-100,-309,-170,106,256,383,-179,-242,-266,31,-263,-318,95,-55,-222,106,-121,-64,-39,40,-19,-79,-25,132,-42,153,-143,-297,-244,-441,-110,145,189,34,-67
,130,11,-342,-337,234,-69,-400,88,-300,-1031,-28,34,46,47,-159,-342,127,-471,30,-172,135,-76,-191,-174,-1,61,-26,102,143,-14,133,183,91,13,12,-96,-120,-63,-70,-24
,136,139,-449,-221,-91,5,-316,-112,-11,-464,93,121,-266,130,123,-241,1,46,-216,103,-40,-353,-131,140,22,229,34,-231,-208,104,-28,-104,62,-78,113,-289,220,18,69,-253
,-192,35,33,86,4,59,6,18,-65,-141,-143,-138,-203,-90,-6,45,-122,-124,-212,-36,-55,-120,-170,-14,-114,-55,124,19,-176,-83,-10,-31,-221,-58,65,-196,-29,180,22,98
,51,-66,-17,-73,77,-540,20,-51,286,58,-113,-24,-103,-39,545,-129,109,-284,159,96,18,11,-6,-1,-208,-197,-407,42,-105,-67,-48,-71,-99,-114,-128,19,-43,-125,-162,-3
,-214,132,45,36,17,-46,-83,-142,-58,-198,-125,0,44,126,106,-163,-106,204,-21,-1,85,-82,-115,-250,-370,-297,-428,4,-72,106,-60,1,1,45,189,66,-98,40,-165,-62
,42,-119,-134,176,-146,-276,50,26,-50,231,81,-12,113,0,-38,187,-171,-138,98,61,-3,77,-40,25,-138,-24,66,17,57,-59,-127,58,-70,-103,112,168,-68,-46,-161,9
,243,-8,6,-50,44,-152,36,39,-24,114,84,197,85,48,-171,-63,-89,42,50,112,-162,32,-138,293,-111,45,-21,81,-282,-362,-947,-114,-60,-77,-940,-22,-55,-164,2,-30
,-338,-4,-151,-286,158,-229,-221,90,-23,110,-163,83,-308,-8,-240,-67,13,52,-61,-31,219,-56,-61,302,-251,-293,-1571,0,-71,-130,-1613,18,-150,-165,-2002,26,66,7,13,-36
,-60,-183,-16,-114,-213,54,-49,-196,-194,-59,-49,53,5,-32,-76,-30,-26,-26,-56,26,-28,19,-137,50,-59,-83,-49,-80,56,86,83,-109,-9,12,-126,87,55,29,46,-142
,-155,24,-208,-102,-75,-61,107,-61,36,-125,30,29,34,-71,-87,-48,-200,12,14,-86,43,-119,63,-79,12,71,12,-73,-126,94,-172,56,-43,117,-80,-171,85,-120,73,-84
,4,42,-66,220,78,-22,-156,85,-180,-61,-1,-66,16,54,102,165,-159,-60,-2,-51,93,-55,58,-70,56,49,60,0,-143,-28,79,-58,-36,-1,10,-129,-51,-29,232,-98
,-436,-329,-50,-468,-34,83,141,-79,49,-325,-347,-97,-361,-178,-115,-605,-212,73,-250,-232,229,-359,-213,207,164,121,102,56,-257,-264,-366,-253,136,188,-8,43,-36,67,-140,-52
,38,-112,-62,35,-87,2,-65,-53,25,42,71,9,4,56,-34,-91,-141,-58,-139,15,-60,-120,-62,63,-144,-100,92,-116,79,67,-23,-99,19,51,-117,-103,-4,-137,-54,76
,21,-47,-107,169,-193,-531,294,-67,-132,82,-92,161,117,-92,-21,1,-41,49,143,-202,158,83,-13,-267,-52,-51,-74,-128,-221,-29,35,-55,-164,45,-104,502,-56,-118,-24,179
,1,84,-9,-164,-125,-113,-4,46,31,-170,77,-49,60,-129,34,-76,-27,-45,98,74,50,-28,29,59,10,47,-202,180,-15,-5,-25,133,-178,-185,-202,-61,9,-63,205,59
,57,265,-575,71,152,-3,-327,161,-38,-59,34,-39,-136,53,-111,-67,-8,-181,-101,-206,148,-383,-53,-240,-35,135,156,-113,-118,69,68,170,2,-70,56,-101,-62,-90,146,-286
,-52,-203,193,-63,-124,48,-226,126,-355,184,-114,-14,-85,-6,288,1,-47,-83,171,11,64,-58,-47,2,-105,-330,227,-301,157,-37,94,-55,89,-45,94,-120,15,-148,-134,-275
,-102,-67,38,-164,-102,179,-28,152,54,-221,42,11,-29,146,148,-157,19,27,-158,34,-43,-108,-149,-364,96,-6,-70,2,-153,-68,-62,18,38,-85,-109,-181,27,128,5,-109
,-129,-5,-49,-140,65,-152,-37,-139,-24,-70,56,-154,-38,-62,-31,-66,-63,18,-175,-173,-51,15,-40,-53,58,-46,-122,-73,43,-21,-91,64,-41,-61,60,114,-117,-26,116,-60
,-519,-148,-8,-258,117,-205,-115,-146,-89,-254,24,80,-86,-14,-277,-24,11,-307,15,-43,-323,-100,-149,46,-23,21,-1,-304,23,-122,-7,-58,-165,-67,-192,-289,216,176,54,-80
,9,-24,-22,99,140,-474,31,-140,-526,89,48,-45,135,-167,-218,50,-167,-389,96,40,-226,130,-383,33,10,-119,39,-115,-71,-124,23,-85,-162,-35,-119,57,117,-39,202,174
,116,45,-33,169,-65,-24,-49,-47,-39,103,-85,-57,-285,154,41,-214,-87,64,-283,104,23,-153,-51,-4,-60,-151,122,-58,-55,1,-17,-22,-113,-17,145,-32,-112,-121,90,59
,-298,-48,-20,-284,-40,-12,-216,22,-178,-51,60,1,43,-68,-29,88,-17,-64,-112,16,19,-140,-29,-60,-50,116,-31,-116,48,10,-89,45,-23,-20,-12,-87,17,15,17,-15
,1,-168,32,-168,-14,-65,-50,-4,-85,24,-140,32,61,43,29,58,29,-173,57,-32,-171,88,22,18,43,-61,39,21,45,-65,-6,-171,34,116,-145,-39,16,-126,23,-185
,-22,-7,-8,-144,-187,67,49,-168,-75,-233,43,13,17,-185,47,-53,23,-189,-185,-91,82,72,52,-25,9,-55,-29,-260,-132,118,-81,6,146,-22,-64,-20,-82,-41,-53,-239
,81,-105,-62,-101,-9,-20,-126,-121,-42,81,13,-139,-155,-145,104,-144,27,-100,-23,-24,-164,38,21,-121,-56,-84,95,93,84,107,-42,-143,103,-121,-4,33,25,-139,-53,-109
,-205,-2,-204,-185,125,-68,6,-92,9,-129,-256,-13,-161,-105,-125,-178,-10,-43,-100,-84,154,-267,-157,129,-131,-71,-208,-234,-124,-147,-126,-275,-113,-109,-96,-305,76,-75,-172,139
,-32,34,-3,92,77,-219,-106,-95,138,83,-68,-78,48,-91,-74,-23,76,-44,38,-95,-48,51,82,-88,-167,-173,-482,-83,69,-134,86,-64,75,121,62,-116,-170,-62,55,-253
,-192,-170,59,-56,-9,-142,-80,-31,-97,64,-16,-239,-143,52,-107,-42,22,-141,-38,-94,-258,29,-8,-234,-137,-127,11,-56,-82,93,-4,-52,69,-63,123,-99,-146,8,138,-52
,-162,-41,228,-278,-77,-239,83,-2,10,-572,-147,-126,-506,-53,141,-654,9,-159,-445,102,-156,-408,23,-964,-123,-35,-107,-114,142,35,211,-100,48,36,242,-40,-155,-35,-240,-48
,-172,-197,-198,79,14,-94,-31,67,-128,19,-97,-23,-82,55,-91,-5,68,-177,117,86,-182,51,-119,-7,22,9,16,0,-100,11,32,-59,-43,-144,-70,-112,-87,34,-30,98
,68,7,263,143,-152,-237,166,-139,-500,137,129,77,226,-13,-65,357,-127,-445,309,94,63,368,-108,-245,149,-30,-14,54,62,-25,211,-240,-45,10,47,-644,-72,198,136,-147
,-253,-11,-214,-77,-190,-302,-115,-317,64,-22,-335,182,-3,-308,234,-116,-310,-71,152,-159,-65,-96,67,-382,204,138,8,-67,-80,-112,-235,-241,-108,-121,-93,4,-128,79,-204,-79
,-55,-18,66,86,-181,-206,1,-99,16,-189,56,-203,-302,-53,18,-87,106,14,-214,-41,-116,-104,-207,-31,48,-105,18,-224,-57,-6,158,156,-100,26,163,83,-21,42,-180,-153
};

long weight_1_T_nvme0n1_4[2*256] = {
23,-474,-299,63,-57,-216,-463,140,80,41,183,94,118,128,19,680,-248,-162,-290,261,-47,212,70,67,70,147,151,204,233,-95,320,36,206,215,32,-3,-111,-29,97,-12,4,-48,37,97,-322,-117,36,10,-16,82,-48,64,120,119,138,83,158,-30,114,450,-349,-172,21,-202,35,23,35,-117,64,155,93,68,-1031,-72,-62,131,103,151,310,166,45,-113,-169,-121,-49,87,-990,167,90,77,-66,46,-133,-117,-80,-15,1032,-9,-300,37,-81,-10,14,1,157,30,180,162,94,200,226,-549,-36,-13,182,54,124,-158,184,-54,-53,15,72,-10,-24,-37,95,171,-31,-177,121,212,-58,71,33,-61,-93,445,-78,-11,-27,-225,-29,-68,-531,7,-5,-80,-237,58,28,79,3,249,109,-4,-152,-215,-27,44,-306,-20,-105,25,109,74,126,52,491,-104,252,-351,31,183,-165,38,282,-51,-119,1,-75,-75,94,-30,344,1,172,27,-46,30,-53,196,-279,-102,94,-14,-192,112,-132,80,-39,-349,405,-251,-26,-76,-58,-99,25,-394,-100,322,297,25,46,13,162,75,-40,14,68,-93,134,133,-46,799,68,98,-90,-222,-9,-108,65,-110,-110,318,138,181,-76,16,72,51,516,114,-9,-47,-69,-64,-107,19,14,123,-84,147,-270,40
,55,324,105,-72,-60,153,662,18,-38,-26,-3,68,82,-23,31,-734,166,103,239,-257,-77,-38,64,87,73,-6,-88,-128,-146,-107,-36,27,13,-75,10,3,69,-14,103,3,68,-54,19,116,188,87,162,66,-90,21,142,-52,-143,-53,52,34,163,-14,-97,-444,356,138,-211,67,98,-16,-110,99,42,130,-164,-44,1217,-67,67,131,132,-138,-146,-99,14,170,86,-70,11,-128,1128,-62,84,-221,51,-208,-118,-120,-78,89,-849,-20,296,27,-158,281,-5,4,40,67,-181,-20,47,-15,-343,654,213,-5,-146,82,-36,-32,-298,-48,-79,-4,71,29,96,-39,-40,8,91,312,117,47,-187,80,25,121,64,-537,-55,20,-26,-41,-103,171,332,153,-68,158,100,-221,97,-160,137,-335,-129,44,126,174,-22,37,161,89,-88,220,110,-80,131,-81,-303,82,-91,367,38,19,258,18,-307,50,107,33,-102,-48,76,172,-252,10,-128,-7,-37,-35,79,-305,329,-145,110,-23,151,26,271,74,-38,647,-208,284,-111,-73,-14,90,9,281,59,-301,-195,209,30,-168,16,204,-41,92,-4,94,-23,-38,-59,-836,2,79,143,65,-11,-98,57,118,-102,-131,138,37,97,-101,90,-159,-424,116,-8,-49,-111,-58,98,28,4,-165,-91,-345,373,3
};

long bias_0_nvme0n1_4[1*256] = {
-120,-189,-74,-258,-43,-83,-12,493,-4,46,1,231,-43,-27,116,-578,-130,-1,-80,14,-20,-64,-188,-63,69,-9,47,-85,-582,-21,-16,-79,-148,-49,-137,8,295,-73,320,-175,-111,-62,-111,-91,4,-31,-31,-22,-98,280,-94,-139,-46,35,255,-98,150,-24,-168,201,-65,-42,8,-215,-121,-59,521,-131,-33,139,-759,-288,-25,-203,-93,464,-89,-61,29,505,-140,-122,-14,-67,-13,388,-51,91,59,-3,-27,-66,-46,-41,-56,-250,-539,-67,-46,-173,-140,-125,-44,287,-1,-63,110,-82,-44,-43,-142,-26,-40,-82,-669,-216,-405,-39,-178,-57,-24,-6,83,-214,-12,-110,-189,114,60,-24,406,-63,-37,188,-44,1,-67,-89,-25,-60,169,-42,49,-59,-24,-129,-48,36,-44,-127,-72,-87,-98,-32,-137,43,106,-92,-75,43,-105,-36,-109,-156,-101,-236,-73,21,-46,-50,-160,165,-67,529,-46,-46,-38,-67,7,-167,-49,-73,176,100,-389,-15,-149,-58,-60,81,18,-125,20,-79,-16,48,91,-522,-47,-76,-134,-5,141,-50,-108,-5,-1,66,-50,-115,-215,-353,195,41,-44,-185,-14,-123,-154,30,-130,-197,45,-602,12,-569,447,-53,-218,42,-132,-130,155,-112,-76,197,576,47,8,391,92,-113,-15,572,-97,-205,-195,-29,-20,-144,-12,112,-65,6,-82,160
};

long bias_1_nvme0n1_4[1*2] = {
242795,-133663
};

#endif
