
/* Trace */

/**
 *  updated on 07/20/2023 01:14:11
 */

#ifndef __W_NVME0N1_1_H
#define __W_NVME0N1_1_H

char name_nvme0n1_1[] = "Trace/nvme0n1";

long weight_0_T_nvme0n1_1[256*31] = {
0,-208,-319,26,-288,98,129,-231,75,223,115,-150,194,-105,-26,25,-101,-87,27,49,-21,-49,-245,-72,79,131,-140,-47,-89,-140,-92
,196,-92,33,12,47,-201,-13,-246,-27,206,-231,83,129,-77,-126,-73,29,-6,-238,37,-84,-34,43,67,89,-83,-182,63,-120,-120,-116
,-76,39,-17,145,-121,-70,-39,-207,51,-33,-97,116,112,-136,-23,64,0,-73,-150,87,-103,-25,-105,-12,54,90,-155,-140,-130,-213,-96
,-8,-157,42,-123,72,-43,-65,70,-107,-45,-120,-86,26,-149,-64,130,-49,1,-160,-52,-119,-99,-137,88,-53,-2,-29,95,-51,-144,3
,-165,-11,82,-95,111,23,-41,-140,-57,-44,-220,-491,18,-221,-284,13,31,-23,-88,54,85,-98,-619,-70,-39,10,-217,76,53,95,-102
,-55,-139,67,-160,-78,-189,36,-155,-18,-228,29,-122,40,-67,-74,129,-52,45,-22,51,-19,-45,-152,-57,-7,39,6,64,-40,-101,-188
,-327,-75,-51,-369,-141,-199,-164,-144,-841,-233,-113,44,-361,-245,222,-124,-121,71,-75,26,-15,-100,-123,15,-234,9,198,-112,23,41,-67
,15,60,-167,-20,-87,-10,57,-151,-113,61,-10,-4,47,-104,-114,-110,-106,54,42,-54,-126,-21,-12,-123,69,-78,-171,-77,-80,46,66
,36,-7,-126,-1,-85,-201,-153,-35,-9,105,25,-206,116,-186,-47,-2,-135,-65,-14,2,-17,96,-28,-2,6,46,93,-29,-109,100,-95
,230,72,-261,274,151,-322,224,-113,-253,265,-51,-349,144,58,239,-43,-85,19,-170,-47,38,-428,-67,-43,-8,11,67,52,-201,-240,-260
,-140,12,34,-202,-104,-50,-174,-145,14,-68,-134,-23,72,58,-65,-65,-2,-104,7,-108,-93,107,103,87,-123,-83,-128,-39,20,-70,-61
,-102,32,-218,-51,-109,-390,23,-26,-200,36,46,106,101,-7,-390,-67,-143,8,-83,-34,-28,-37,73,-160,74,67,35,-144,42,22,-585
,-67,-159,42,83,-61,-41,129,-156,-25,-49,46,-11,78,-212,-37,62,-34,-76,-198,-52,61,-89,20,69,-97,64,-200,-79,-28,-28,-107
,-217,47,14,-93,-176,-91,29,16,34,-26,65,-52,-16,-38,-88,-49,185,63,-183,-84,305,-218,-120,-86,154,-33,-58,-129,69,36,50
,-3,-25,7,45,-27,72,15,-79,1,-193,65,21,-72,-178,-76,52,-157,-156,-112,-114,-44,107,-17,58,-74,13,-98,-21,91,43,-53
,-70,21,-107,-15,-113,12,-56,24,14,149,18,100,-53,-8,-77,101,-48,-38,-115,117,-45,80,-156,62,-61,-114,-17,-116,10,-143,51
,-104,-22,55,-57,-162,54,-92,-200,-130,-203,-31,30,-137,-144,-56,-70,-130,-125,-182,-26,-110,24,-159,-25,-71,-128,-109,98,-132,-113,-153
,-25,10,-251,-25,-76,-129,-203,46,-47,-189,-181,35,-99,-8,87,43,105,-171,-302,-142,59,14,-261,210,-31,174,-156,-71,13,-140,-249
,116,-260,117,-9,27,-226,100,-88,22,-219,-66,28,-341,-128,-49,39,54,135,-16,-129,96,-71,-287,61,-35,-23,-114,-107,106,243,-172
,-211,-207,106,87,19,-192,-60,-258,-243,-201,-75,-114,-74,-258,-243,-308,172,-63,20,12,76,15,-81,-47,-90,-117,-157,58,-38,-17,-31
,-176,67,-216,-72,-91,30,28,30,-245,-59,82,-403,-300,-14,-13,80,-34,-4,-293,50,-97,34,-246,58,-116,-9,-46,-54,112,-8,-116
,120,36,-29,-109,98,-204,-12,-182,-247,-109,-252,-43,68,-192,0,2,-13,-138,-76,-21,-7,-49,-12,-198,-75,23,73,-73,-19,-31,33
,-51,-94,30,-41,-181,-32,-83,33,-36,-29,-68,26,-28,-87,-76,-72,106,-18,58,50,-137,-61,-109,-23,-46,-38,-247,18,139,-143,-172
,-110,-124,-17,-166,-125,-82,-145,-142,-31,35,42,-119,-142,-76,65,-6,55,43,-123,-99,-54,-21,47,-51,14,-27,-56,-111,-99,-68,52
,143,-60,-119,70,-128,-142,39,-64,-146,193,-91,-78,16,-36,-86,-103,-128,-192,72,-82,-29,56,12,48,5,-64,-67,-49,-163,96,-76
,220,64,-319,-275,-168,-246,-251,-262,85,145,65,-257,-1,105,-89,-224,3,-96,-188,156,163,-58,67,-45,173,146,74,120,-103,-104,-292
,-98,49,-144,-44,-57,-181,47,-126,-27,45,83,18,-151,-171,69,-4,-148,15,-110,59,47,26,-52,-165,-142,48,-144,-110,90,18,-138
,-45,-90,-267,31,-116,73,51,-168,48,-39,-59,-100,155,111,-23,-61,-50,-107,143,-104,120,-76,-109,-74,-53,240,-215,-92,107,63,-89
,-3,-196,13,26,-122,-140,38,-162,-65,-130,-53,46,-128,96,17,-88,-161,-89,37,-44,42,120,-220,-75,-183,-146,-255,153,113,-86,-202
,-243,-171,-138,39,-96,-41,-353,-10,-172,-135,-146,9,-125,-129,-155,-152,-56,-116,119,46,-108,405,-847,20,-171,-41,26,109,94,73,-21
,-309,-67,-47,-33,-90,-101,-76,-139,-122,-262,15,-14,31,29,63,-130,-80,-33,-85,76,-121,79,-58,-123,-76,59,-49,48,-48,-30,-51
,171,162,7,130,-137,-245,363,-158,63,238,109,-10,163,0,-71,49,-170,-330,-68,-121,-94,-70,-233,-58,-100,-84,-247,21,29,-135,-402
,-32,-2,-56,107,-40,-324,-7,11,-97,32,-102,-279,68,-195,75,-108,22,64,35,-21,-173,-82,-150,-24,-70,107,-160,81,80,-8,87
,-84,-98,-315,-141,-29,-147,44,-76,-55,22,-22,135,-44,-125,-59,-112,64,-146,-61,-115,-86,-175,287,-73,120,-102,-247,180,147,131,10
,18,-15,-5,88,-58,-171,-118,119,-151,13,-76,-6,89,5,-19,-83,-27,99,-64,47,-35,-17,32,-49,-6,8,16,-138,34,-65,-23
,182,50,-165,68,112,-57,21,-177,-15,40,-187,-99,-11,-73,-142,90,-111,-115,-29,-83,-156,-119,207,16,-34,-134,-58,1,19,7,42
,134,-159,-188,138,-171,-120,-85,250,74,20,-47,30,199,-340,-31,-87,22,-70,-13,-134,74,-179,70,-147,-23,98,-49,115,-125,76,-92
,-406,-41,97,537,35,-834,-277,-147,-221,-246,-109,-73,-206,-62,-179,-426,159,-30,53,45,166,27,59,32,-61,-27,-187,-139,-135,-39,103
,-52,95,-16,167,-55,-136,-37,-237,-184,-67,-222,74,130,-32,-48,-47,-71,120,-2,52,57,-224,-181,20,-110,-45,-187,137,-43,43,64
,-32,-127,52,-60,6,6,-156,-114,17,-62,-172,-156,-151,-18,-117,-85,-138,13,31,-126,41,3,-30,-136,-83,-38,-338,-77,-116,-138,74
,-66,-152,-93,-30,-1,-95,-134,29,68,75,-8,36,-201,-119,-122,-82,-6,-121,-148,110,49,-125,-120,19,-46,62,-22,41,-123,30,-234
,60,-189,-35,66,-60,33,-63,18,32,86,49,-82,-24,-209,-38,-36,-20,-10,131,-26,-117,-94,-176,28,-124,-455,-99,19,-28,-181,-173
,-108,-101,-8,138,56,-59,-75,78,29,-11,27,32,5,2,-43,17,12,83,71,-51,38,-19,-90,48,49,77,69,-65,-101,62,-5
,-72,-86,10,-104,70,-100,-151,47,41,-104,42,-127,-103,-109,-92,27,-106,47,-104,-154,-34,-96,-121,67,-143,-47,-124,12,-139,-32,2
,-61,-88,-98,201,-54,-47,-74,-69,-77,-48,42,20,59,-122,-82,-173,132,87,-143,-117,112,32,14,-93,-63,-83,-131,-97,-72,-38,-109
,56,-58,-81,-18,37,-125,12,-34,36,-247,-18,-213,67,3,-43,60,-104,-162,-179,15,-27,3,-139,-17,-20,-40,-77,-8,34,28,-19
,196,-259,-248,-86,-106,-254,-67,-98,9,148,20,-48,40,-108,85,-216,-7,-46,-184,35,40,87,-141,142,-64,94,-17,85,11,-39,-223
,12,60,-16,90,-47,34,3,-108,16,-39,-16,-3,-70,24,-66,-15,-23,-122,-211,-35,-23,-13,55,66,80,-80,31,18,98,-35,113
,-258,-99,-134,30,-233,24,-226,-240,-28,-177,33,-210,-270,18,-346,48,-166,-182,94,-61,92,75,35,-169,-146,-47,220,-121,-2,-148,154
,-103,-190,-74,7,15,-190,-216,107,-5,71,68,-11,74,-214,19,86,-149,125,-149,-18,-25,-194,-224,-82,-23,-65,29,-120,-95,-84,-87
,-34,-130,-204,-54,-117,-217,102,-40,76,-113,-65,-11,-35,-186,-70,-116,77,36,-134,13,-134,-17,-393,118,-138,-9,-49,-39,101,-80,92
,-152,58,14,68,-139,-134,83,38,27,-148,29,-65,-50,-165,14,50,-156,19,52,-128,-8,-34,-133,-130,-113,-189,-142,40,-82,1,-51
,57,-25,-402,54,-91,-83,134,-124,10,69,41,-141,-145,-32,202,-122,-131,175,-426,89,-118,-118,161,64,122,12,122,-133,-318,-399,137
,-198,-180,-885,-540,-132,-348,-24,-84,184,-652,-83,-177,-186,-88,48,-2,-35,-117,-397,109,-38,137,15,-21,46,-219,-336,122,150,-85,110
,323,-214,-28,112,-113,47,319,-73,-360,255,-170,-4,203,-92,-522,-70,4,-39,-157,46,25,-198,-122,26,-184,-186,128,-119,84,-153,271
,192,-207,-135,284,-46,-107,170,-87,-336,254,-137,74,84,-52,-327,24,-55,-92,-16,-159,-109,40,48,41,131,-79,170,15,32,-22,-249
,112,-24,-45,-94,59,-120,-56,-97,-23,67,-139,-31,-143,-134,-150,-85,-53,71,123,-126,-79,21,-125,58,-128,106,-166,-124,106,-1,35
,40,-145,-119,-81,-49,-61,-121,46,-48,75,36,-13,35,-55,46,-112,36,-12,-54,-11,121,-109,-58,-37,35,77,-104,-46,94,-54,-118
,115,91,-116,-132,92,-320,578,-142,25,-323,-20,-2,-331,-63,-293,-155,-116,173,-460,-188,-106,-31,16,152,31,156,72,-202,-135,-52,-302
,41,-111,15,-51,6,-29,-102,-45,-75,-112,24,-121,77,8,-60,-45,-82,-21,-49,-76,-112,104,-63,-95,-8,-20,-85,-120,-32,112,83
,-17,-54,-112,-31,51,-83,146,-7,-153,69,-70,20,22,-42,-39,-27,6,-107,31,-23,-47,-192,-97,-68,61,-109,-101,70,4,22,-226
,26,71,-84,-65,-120,4,32,-96,-43,-6,0,23,-82,69,-8,-110,14,0,-10,-122,-23,-106,-4,-42,-191,-61,-3,82,-101,44,-26
,-130,28,47,64,8,-8,184,74,73,-151,44,-29,77,1,-75,5,-62,41,-19,21,-164,-140,-24,-22,-24,-11,-16,-156,-94,-1,-70
,-58,-535,28,137,-341,-342,87,-51,-138,117,-482,76,60,-379,120,-12,44,-127,90,-165,46,-24,-59,31,-27,-61,-136,90,64,-33,-306
,-42,-10,3,-149,-110,47,-87,-129,55,-32,-127,-12,6,-216,-122,25,44,-58,-4,-302,-408,-525,10,-125,-70,-297,-170,60,-172,-235,18
,-228,-61,-19,17,-52,-163,-63,-8,30,26,-75,-130,-102,-146,-7,133,29,-25,10,42,96,-138,-293,29,-48,120,-218,-58,39,21,-16
,-160,-270,-20,-85,-129,22,-206,-212,81,-233,-59,-216,-149,-68,-258,-146,112,-144,143,60,-74,-10,145,1,-50,-32,60,-78,-66,-14,61
,121,-101,111,36,-140,-165,173,-109,-64,92,-188,-82,-12,-23,-17,-132,12,-51,-139,102,64,-103,-78,47,60,-73,-102,-36,-111,-147,164
,-226,-172,-157,-74,97,36,42,68,56,-18,-30,36,41,-82,-127,115,-135,-75,66,-123,51,-68,6,-65,46,-22,25,126,-20,-58,-105
,33,-82,-14,128,44,-26,9,-43,-145,144,-7,51,-18,-68,-156,83,-87,77,-156,-86,73,-83,-16,66,-1,96,-226,-96,-107,-71,-139
,-94,68,-66,-1,-92,-117,77,16,-165,58,22,-43,-59,-223,15,-62,9,-174,5,-4,-68,-71,-115,101,-21,71,-2,-121,-60,-86,-71
,-50,66,-153,29,-127,-1,-272,-100,15,-29,-155,39,-95,-16,-104,-38,31,-6,-65,111,-102,-72,-197,38,-42,-70,-31,-143,94,-13,-65
,-20,-76,16,15,-132,34,-97,-67,27,-14,-57,-51,-181,58,-19,50,-11,16,-99,12,-147,-41,138,-3,46,-150,-168,97,111,-177,-53
,-105,-129,-34,-61,-21,-160,168,-118,-56,-148,37,49,-12,25,-119,54,-120,-104,3,63,-97,5,-84,-146,79,-71,-30,-91,37,101,-30
,24,-14,-118,-32,38,-188,16,38,-157,-224,-84,-32,-154,-112,53,-188,38,-23,-36,56,6,-111,-208,128,107,102,-119,-215,26,42,-154
,-158,-126,72,22,-127,-143,-80,77,-82,-35,-64,8,-152,-105,-165,78,-119,-60,-43,-29,-170,102,53,-19,-100,94,-56,-122,72,87,34
,131,-84,-29,-142,73,-110,-114,-88,-148,18,11,-10,-100,-45,-37,-74,81,-98,-134,-14,-89,35,-14,-16,-98,-72,-94,-78,135,-49,-43
,253,98,-287,377,-43,-169,142,84,43,334,-230,-186,183,-235,-457,160,21,28,-53,125,-60,111,-93,-63,44,-132,-74,-3,-120,87,72
,-224,-329,39,-4,-297,106,-159,-255,74,4,-336,108,-48,-124,-131,38,-19,98,-150,-86,17,-131,-695,-54,40,31,-748,-111,81,-118,-692
,-142,170,-167,229,-88,-167,-110,-183,96,140,-146,-258,96,-30,213,2,-100,-169,4,127,18,204,-180,-62,-26,87,-314,-65,-144,94,-229
,-49,-39,25,-61,34,-68,-17,-101,-98,-169,-15,-134,-151,51,-81,-20,95,-79,-37,53,2,106,-160,73,-125,-18,-83,39,-58,-84,26
,-80,-34,-7,-3,56,51,-107,-177,-139,44,-35,15,-140,-55,14,-105,67,-23,-7,24,-197,-77,-143,-95,-107,54,-36,9,-43,66,-75
,-46,-69,-11,72,-52,-106,-80,-58,61,-114,75,-70,158,51,26,27,-101,-6,-31,-137,112,114,24,-49,-89,73,-63,22,-73,-34,-198
,-27,97,-33,38,-79,32,0,-71,-14,-73,-8,-22,128,-6,-1,89,-140,105,-31,87,174,-76,-59,-225,33,-39,-60,6,-83,-123,90
,128,-582,-317,-13,-367,133,88,-407,164,-28,-71,-180,-70,-187,-11,66,62,45,-38,-38,-12,-168,76,-19,2,-240,-24,-77,-210,-74,0
,164,-12,-115,9,-366,-102,214,-299,-55,117,-66,146,95,-15,-41,-62,-79,-52,-136,127,26,13,-2,-125,28,22,153,-143,-210,105,253
,128,-43,27,-73,-139,-51,-99,-67,22,-18,-121,-72,-99,-124,25,89,-45,27,-71,86,-109,-94,-64,24,-125,41,-81,-6,-5,-116,93
,27,-91,-282,18,4,-71,-43,56,-24,-132,-157,105,149,-184,-157,-14,-119,58,-39,-55,-46,12,-81,-123,-161,-114,-205,-103,-2,-158,-205
,-66,-5,-22,-75,142,3,-101,-132,-21,-57,-104,-18,-16,-94,-25,85,-70,-81,160,-28,-48,38,95,21,-104,-66,-88,-1,-106,-121,47
,-145,-94,-241,-423,-189,-43,-257,-165,-65,-158,-124,8,-408,-129,18,76,-71,62,112,-226,-51,-171,-139,-15,-41,146,-27,-30,76,-73,14
,-69,12,25,107,-64,-137,-22,16,30,36,-36,-19,90,25,-38,-255,-309,274,-131,21,-111,-801,-19,-146,-91,-470,61,65,-7,-198,-71
,-8,-74,-46,5,27,-80,-62,-90,-30,15,41,-16,7,33,22,-107,46,69,42,-86,-72,85,46,-102,52,0,24,-107,-60,-36,-71
,31,1,-66,-56,-126,-82,-237,33,-54,-71,-93,-39,-61,66,63,66,20,-127,-20,73,104,-10,-284,-15,7,-156,-310,-57,-48,-8,-273
,-69,-4,-4,69,-51,-157,-16,48,-128,-141,-81,71,-175,-82,-189,-254,-11,25,-237,116,-56,-128,40,-114,61,-232,-92,5,-106,-21,-146
,181,45,2,-142,98,67,-43,100,53,-12,-49,80,59,-28,-33,-171,57,-83,7,-79,19,0,69,86,17,-129,-27,100,-59,17,-98
,-37,-49,-170,-45,66,-100,-140,-1,-77,-29,-76,-120,-179,-18,64,-133,115,37,-160,-102,100,60,-107,25,56,-108,-59,-39,72,70,-189
,-92,-199,-120,-207,-97,-79,-130,-57,-145,-61,24,-78,-8,-50,18,-133,-130,-127,61,66,4,-26,9,-134,-139,-62,-125,36,105,136,-44
,101,-202,-14,-170,-56,-18,-57,47,-74,-10,-62,62,-29,36,-34,-136,53,-24,18,59,-29,-32,-71,99,-55,-60,35,-60,-11,38,-75
,-66,-31,-21,-617,-141,8,-273,-19,-221,267,-252,57,16,221,-113,-48,-6,17,-146,22,74,48,-15,42,108,-76,-60,-164,59,61,52
,185,-362,-385,-36,-228,8,80,-127,-4,-25,-149,-290,57,-29,171,123,-22,3,-5,-165,33,-167,-88,-34,-217,57,-251,168,14,134,-29
,-257,-296,35,-298,-348,87,-805,-117,15,-946,-280,-880,-295,-221,-90,-111,-103,-101,-20,-109,-101,-122,-10,-64,-124,64,143,179,166,-102,184
,-59,-34,-156,10,-81,-121,-20,-107,-60,41,-148,-197,-29,31,8,38,-104,49,-103,15,-108,58,52,-85,-75,-36,112,93,128,81,-163
,-185,-200,-133,166,-121,-182,103,-136,-114,-7,-78,0,107,-121,-20,-6,-53,107,86,-81,-51,-34,-45,-155,53,-73,-36,2,-56,-142,-137
,-117,-32,-144,-165,-35,-164,-98,-59,-132,-4,-172,-3,127,-25,-117,-66,-64,-100,26,12,47,-96,65,0,-114,120,74,-66,36,34,42
,210,-18,-7,202,-187,-184,-99,-10,67,168,-412,78,142,-159,-247,-106,60,-56,-124,-20,-173,-156,-55,22,-19,-56,-78,74,-88,180,-122
,17,104,-54,-69,10,61,-72,15,-5,53,-59,-24,99,-105,-9,32,-10,-21,-104,-128,91,115,-2,72,-115,135,29,-106,73,48,-31
,-86,-68,-115,48,-110,-73,-98,-88,-41,140,-175,-102,-80,-102,22,-131,-24,-23,172,-114,74,-184,-62,-176,-5,-186,226,39,-22,31,-18
,-97,11,-136,11,-60,-103,-34,-218,28,61,35,-52,-35,13,20,63,51,-100,-44,-55,-67,26,-76,-145,72,89,-76,30,-63,-88,-26
,-176,-38,-24,-118,-164,13,10,-25,-171,-100,32,-59,-140,-54,48,57,10,-147,-6,43,-117,35,-57,143,-116,-69,-128,-4,-102,-83,40
,64,-70,-208,-38,191,93,-54,-282,-3,147,-109,-55,-1,-174,-237,103,-132,-68,-35,19,1,-97,34,-16,-120,-36,-50,48,-137,105,-25
,50,102,40,152,-118,-87,221,-1,-242,87,-83,-181,-37,-23,-15,-91,-22,-22,-39,62,-202,65,2,38,-126,-45,-213,93,67,-125,-39
,-52,-149,-156,-140,-87,-113,-167,29,-9,-263,-207,72,-247,-46,43,75,-6,28,-121,44,-13,-56,-31,-100,-95,-114,2,-43,-83,-114,-40
,-450,-19,-55,-191,-90,-58,-286,-132,-10,-127,-285,-174,-270,16,-35,-78,-115,62,211,68,-143,604,-1553,-119,-245,-20,217,122,121,10,107
,-136,-130,-706,-798,-160,-304,-266,-97,219,-530,-154,-29,-179,-197,52,-143,-50,-193,-78,-58,36,135,-28,-171,28,32,-501,83,77,58,104
,-23,-241,-344,289,-239,139,194,-210,71,19,-84,-237,162,73,-14,-626,-313,327,-221,-88,-67,116,170,-56,143,96,116,-91,-46,-185,-65
,162,-245,123,168,-317,-126,20,-195,-191,30,192,-175,144,73,-14,-14,-144,80,6,16,-91,168,2,7,-61,-205,-271,-16,8,157,49
,-188,-11,-22,91,-48,-166,-89,27,12,1,-173,-14,-86,-113,-28,96,43,-123,29,-108,-22,-54,-100,136,-102,-123,58,-31,42,140,-123
,-103,-261,-651,-138,-545,104,-59,-748,90,-26,-230,4,-195,-330,48,-57,-78,-205,25,2,-136,-26,96,-24,-41,50,-185,-13,91,-150,-187
,-397,56,-174,-243,-101,-438,-261,-4,-261,-440,146,-282,-315,-29,159,27,34,-87,-535,-80,57,-237,-77,-6,-69,-28,121,-73,-82,-121,-106
,-113,24,-249,-57,-66,-254,2,-200,-50,-247,-68,-115,-95,-24,-47,-107,-76,-1,-133,106,114,-157,15,-10,-49,-46,-150,22,116,-110,118
,-104,-139,-76,-208,-96,10,-174,-13,-53,-46,31,-68,1,-221,-15,127,-2,-150,-73,-95,-34,-94,-208,-42,-130,-167,-125,51,-68,96,26
,85,-136,5,-21,-10,-168,-65,-28,-11,56,-1,10,-65,-94,-138,-83,-57,39,64,-32,-173,-34,36,75,26,-93,-39,-88,-107,116,13
,-697,-233,81,-90,-122,-214,-325,-293,-223,-144,-237,216,-293,-272,-176,-90,79,17,123,112,-12,-67,3,-189,-201,-108,-66,-152,-129,-188,166
,87,159,-118,29,-185,-11,-100,-163,-123,64,-191,75,145,-34,56,-194,-137,101,-193,-174,-98,88,-38,-53,-25,48,-79,-98,-62,-244,-52
,-388,-88,-376,-384,-93,-440,-209,-184,18,-299,-114,6,-417,-93,128,-77,-90,-136,-39,-63,72,-52,-73,-83,121,-101,-492,-109,-184,41,238
,-3,-165,-182,-237,-254,180,-198,-141,-1348,116,-82,-237,71,34,53,-141,-145,-158,-144,128,63,-93,51,11,95,82,168,-327,-86,-252,203
,-136,-46,55,71,-97,-50,65,46,-85,-39,38,64,-53,73,44,-96,41,-95,81,-111,-239,4,61,-58,21,198,-76,-134,-165,-20,50
,282,-39,68,-356,-287,119,129,-33,-518,-340,-233,-841,-395,-280,-1243,-32,-118,90,41,-523,172,49,197,137,156,111,-119,-81,-126,111,-175
,-153,20,-24,-112,-17,-75,-57,-98,-6,-55,5,-64,38,-4,27,-193,253,7,-58,-150,63,178,-160,-24,-230,324,-178,-8,-17,-17,-40
,36,-59,-85,-71,-18,-101,-36,-78,107,-97,-77,-215,-34,-59,-112,-108,87,-99,-84,102,45,106,-190,10,-97,-58,2,-31,-144,21,-139
,19,-19,16,-185,-82,4,-159,-11,-9,-8,-107,21,17,-105,-126,-126,-84,-33,-28,-107,-59,88,-94,-47,45,27,19,-143,125,-149,47
,30,52,-251,-189,-47,62,-199,-48,-172,-316,-33,-477,-118,47,26,93,106,34,-147,249,-389,168,-245,-107,-95,-405,-13,1,51,186,-40
,-87,44,-53,79,-131,-56,-144,57,37,-161,-183,-110,11,-59,-149,10,-82,23,46,-37,-22,-117,-59,56,-74,-51,10,24,63,28,-164
,-212,50,-32,-87,-95,-37,-5,-51,-67,2,-10,-41,-160,-193,11,83,-187,-131,50,-143,-21,-312,60,-133,-6,-18,77,80,-151,100,148
,-574,-348,96,-168,-135,-1471,84,-440,89,-101,-419,-186,-5,-316,92,-134,197,81,-23,76,44,-17,97,-85,-49,-145,-313,-99,-60,-170,-46
,-120,39,-135,-102,-14,31,-103,-153,-146,21,33,14,-126,-172,-84,-135,12,-112,7,-99,-1,-8,2,-1,-113,6,1,-20,-67,-16,-17
,-106,-148,4,73,-217,-133,18,-115,4,84,-209,33,-101,6,-16,-129,-21,-40,31,23,115,-31,-59,-110,-134,-138,-117,-122,-70,124,-45
,-542,92,43,-181,-90,-124,-137,-248,-225,-447,8,31,-395,74,61,-92,4,53,-301,-34,-160,24,-16,-145,-124,-51,-173,-140,-71,18,-334
,-4,71,-114,4,-201,-211,-123,-168,-76,62,40,184,-155,-143,-270,-118,45,-149,-165,159,49,-16,-121,-190,64,31,-220,-51,-105,139,180
,-36,-155,52,76,36,-60,-90,80,-7,-25,64,83,-119,64,19,-35,-148,46,19,-61,60,95,-67,-63,-123,-23,84,11,18,-120,91
,-127,-37,39,-141,-79,-74,49,30,-146,-129,-90,-149,-112,12,-140,-74,-119,3,5,-112,-136,-58,-101,63,66,-60,-159,-33,25,45,46
,26,-1,-1,-1,-136,-64,-139,-229,32,-223,41,-107,38,23,-47,-93,-33,-49,22,-123,49,-69,-65,55,-44,-28,16,-45,88,-6,12
,-73,35,-39,-90,93,-231,-174,115,-117,-46,-199,-167,-76,-185,71,87,-4,-17,-151,-159,-24,56,-289,-50,154,-113,14,-60,-47,-73,-24
,128,-54,-138,-182,86,-28,95,-280,122,-158,-46,-232,51,-196,-30,34,-144,12,-86,-143,-84,-58,-114,-91,-144,0,116,50,-174,-43,144
,46,-537,-190,193,-246,-16,96,-453,-93,145,-341,87,155,49,-235,-116,-163,45,-97,30,-100,23,116,107,-40,30,-179,3,42,-181,233
,-63,-164,-51,6,-81,-100,148,-210,6,-40,-77,34,6,116,8,-68,-87,106,-105,86,-181,-298,-165,39,-98,-335,-230,-13,-71,-271,-118
,-30,-150,-68,-3,-189,-73,43,-52,-139,2,68,-94,-170,-175,-80,-162,-53,-40,-63,-169,-109,-163,-75,3,23,47,6,130,67,-150,101
,-97,17,-730,-382,-198,-254,18,-195,180,-375,-72,-126,-12,-69,20,-121,16,-132,-277,170,115,-68,-104,1,-154,-134,-136,110,86,21,17
,61,-214,-216,-151,-78,-219,52,-162,-15,71,-22,-144,-100,36,84,32,-16,-119,-121,23,-52,54,3,-57,-12,-48,-176,-73,55,-103,-117
,69,68,-305,2,12,-10,146,-28,-477,100,-59,-263,121,5,-15,7,-12,-216,-327,17,36,-64,-221,-20,205,51,235,-26,-34,-105,134
,-151,68,-48,11,-168,62,-81,-8,-75,-190,-177,-160,-184,-112,-113,24,-9,7,37,81,113,-95,-86,-151,-121,-16,-28,-89,-19,131,-111
,16,16,20,-134,-183,-133,-113,19,-111,95,-99,-198,54,-62,-128,3,-35,24,-125,-70,36,-193,-24,-11,71,57,2,-147,-83,-103,-162
,-81,-61,-61,-55,-67,102,-164,17,-78,-220,-124,-164,33,-2,-12,-113,21,-48,-34,54,-130,-8,-191,-117,-21,-30,-117,120,-15,-88,67
,40,-32,-49,14,66,-158,3,-149,-21,49,-30,-120,114,-94,-28,-69,47,-35,87,87,-65,56,-158,-33,-142,-14,-145,-45,-107,-97,23
,-160,-150,-105,-38,-141,-97,-30,-98,-59,-100,-19,-233,3,32,-112,-52,-70,-180,-11,51,-48,26,-155,115,124,-40,-39,1,-68,-45,71
,155,-138,7,89,-278,49,35,-194,-364,259,28,-127,144,-197,192,93,-30,-42,-213,-11,-52,-512,122,-103,-79,-22,-246,-8,-69,-43,45
,-128,-156,45,-102,-213,28,3,-203,-99,106,-49,-121,-37,25,-46,32,86,44,-144,-34,-17,-49,-80,93,-72,42,-39,77,-116,-76,44
,-126,-140,-68,-119,29,-40,-162,-3,30,81,-54,-70,121,27,37,-114,-195,75,23,98,34,-145,74,74,-72,40,-80,-4,44,-111,-177
,15,-68,-104,60,134,45,-113,-139,40,27,-132,-39,-182,33,-50,-214,37,55,243,-197,6,179,-73,-94,-65,-115,31,96,-113,71,-58
,-32,-135,-427,6,-408,113,196,-295,87,180,-3,-175,229,-33,-124,-28,-100,99,-149,-93,-90,45,68,-89,-79,133,41,-139,-5,135,-166
,-109,41,1,28,-30,-33,-153,-151,-56,-186,-20,-56,-16,-125,60,7,-59,101,-130,-162,-160,104,-217,1,36,-103,56,-88,-19,30,-65
,9,-3,-8,99,50,-15,-173,-63,14,-152,-53,-201,94,-1,-26,64,-154,43,27,-24,-52,70,-96,-128,-74,-81,-5,-14,40,125,-242
,-73,78,-21,37,-185,-67,-105,51,58,-79,-27,-122,-77,-11,-121,-207,-188,-22,-140,-27,12,69,-97,-109,32,-9,-66,80,-20,57,-80
,122,-130,68,65,22,-140,-60,49,62,106,66,32,-55,46,12,-118,33,-113,96,96,127,-126,-35,-106,-143,15,-96,-63,70,19,-20
,33,2,-121,34,-163,-57,-61,-3,26,-32,-146,23,-113,-103,-128,31,-67,73,-182,-127,121,-182,5,-165,-153,55,-53,-123,-24,54,84
,-218,61,-99,-182,-169,-84,-108,29,-82,72,-8,26,-49,-59,15,65,-95,0,-34,-46,-36,106,-70,-134,-20,38,-54,-79,-126,-20,-35
,47,36,-21,116,-150,-239,-53,4,-156,-127,-51,110,122,-174,-132,16,-118,18,-108,55,-12,95,-188,70,-68,88,-61,-122,-64,13,-110
,2,-327,118,-100,-348,117,135,-87,-592,138,-352,14,2,-250,-274,57,-75,38,-64,21,-19,-385,-1033,-14,-17,-14,-287,-33,-30,-76,326
,41,60,-22,-82,-31,1,-73,-62,-6,-50,55,25,-126,-28,-37,-108,149,68,-70,-14,100,2,22,-64,-99,-51,-34,-19,175,-63,-103
,-27,-176,35,-215,-126,-193,-118,-21,12,-95,5,8,-211,6,-70,-123,-63,11,-112,105,-51,-65,93,74,12,-75,-25,24,-140,100,-82
,-113,-1,-151,-46,63,-24,21,-13,53,-88,-156,-121,-154,-51,12,-88,-68,-15,-116,-129,34,-2,-130,-109,-51,-215,-183,52,-32,-102,-50
,44,-10,-13,133,15,73,-72,46,45,-65,-63,-60,13,78,11,68,-86,83,-78,-113,-92,-139,-12,4,35,-28,-70,-27,24,-5,-25
,83,-58,50,-82,119,-20,-66,-113,38,145,-92,-109,-22,107,33,8,9,81,159,-92,70,-4,101,-107,134,-75,114,-19,103,81,-113
,-142,97,-119,-70,-22,13,19,40,-126,42,-155,-91,-67,-219,-62,-67,-106,-121,-178,-191,34,-173,42,-131,36,71,-9,17,-42,-174,185
,-237,122,-144,62,-50,-359,332,-199,-18,-359,120,-99,-391,-15,87,25,-82,185,-433,-51,-179,-261,40,148,-6,26,135,-199,-33,-109,-19
,46,22,-114,66,-253,199,-12,-135,-58,32,-23,-25,144,-169,-149,27,-117,131,-308,11,-162,-2,185,50,-105,79,108,11,-12,6,-237
,16,-56,21,-50,88,-59,7,-45,-105,-85,-184,29,3,53,-14,-79,130,-99,-140,-86,-30,-6,26,-21,78,59,-101,80,14,-106,-118
,-36,-215,-279,-176,-146,-221,-160,18,70,35,-80,-166,185,-22,248,29,-75,-422,27,123,-47,138,-278,148,108,75,-6,-101,-63,-59,-485
,5,-21,-77,95,-137,3,-38,-53,136,-51,-158,-263,-137,25,-127,82,-125,138,-83,-23,25,79,-106,-87,31,324,-258,-125,17,47,-169
,-44,-277,92,-207,-186,-414,-52,33,-196,-74,-74,141,-251,-275,118,-139,-17,-91,-366,-16,38,-14,-100,-111,4,-45,55,57,-153,97,-374
,152,48,-4,53,-178,-168,29,-293,16,-81,-321,158,8,-117,-143,-4,-172,-61,-60,-87,-87,-95,-205,109,-71,-51,-245,128,-23,226,-322
,56,-213,-32,304,-53,13,-82,-197,-331,99,98,-132,37,-140,-69,-45,-70,-34,-81,62,1,-47,-149,-110,-45,-95,-80,24,-30,89,16
,-34,-147,-824,-198,33,-590,-273,-278,64,-195,-119,88,-50,-216,96,97,-80,-54,4,91,-170,-94,-547,-18,19,-2,-892,-149,-112,-46,359
,103,39,-48,-34,37,1,-74,32,19,43,-163,-33,-127,33,14,-34,-14,93,131,-32,105,-20,60,-135,-204,52,40,35,-13,-121,-31
,-403,74,35,-74,-112,-120,37,-57,-97,-156,13,-28,-140,77,-2,39,-14,-100,-93,-9,-29,97,-168,-40,-28,26,-89,-43,137,-63,-37
,-54,-69,-99,-150,-109,-154,-192,-49,28,-231,-23,-185,-104,-117,102,-153,-120,69,36,43,-35,-62,23,43,88,-77,-98,117,-21,-78,-109
,-381,109,-251,-188,-536,133,35,-608,135,61,-449,90,51,-165,-232,-52,43,-17,75,-33,-49,70,-234,-13,-123,-81,-254,-83,21,-180,-306
,-291,188,97,100,-157,-24,74,-199,-14,85,-147,-65,33,-151,-272,7,13,-45,-25,128,-29,-112,-168,-87,-21,78,31,73,-90,-44,-5
,72,67,-162,211,-142,-142,213,-145,-121,141,-128,-128,198,-150,200,-202,264,-167,126,-49,-131,138,-150,105,-123,-22,-141,34,8,163,-77
,79,66,52,45,-73,5,6,-156,1,-174,-191,-78,-184,-50,-4,47,12,-70,-85,-54,-165,1,-41,-143,-54,-154,-71,125,94,-69,-152
,-72,45,-6,62,-110,-336,118,1,-52,-21,-25,-3,105,43,15,-182,-209,164,-110,-221,-142,156,-111,-10,-111,-391,38,63,-146,-199,70
,-24,49,-35,-217,31,-149,52,11,-130,41,-57,-145,-173,-174,-162,-141,-55,-116,-80,-90,-88,85,-4,82,-3,60,-21,33,22,13,-98
,-219,-115,-31,-117,-19,7,-297,-99,-203,8,-38,-169,-153,-4,-180,7,5,47,7,119,-107,-142,109,-99,-74,-109,-75,0,76,-2,-79
,27,28,-43,9,-148,-206,-111,-32,2,71,44,11,128,-183,-131,76,-90,-60,-94,21,9,47,-8,73,-154,65,-52,55,39,35,-116
,541,-934,-77,-246,147,-16,-102,168,-30,321,-379,21,128,-59,-357,15,48,-26,-31,-233,209,-40,162,60,125,35,-156,-111,-61,52,60
,-212,-184,-139,-150,-130,-55,-59,-125,-43,-213,-118,93,6,-74,31,-96,-25,143,59,-184,-208,-133,33,13,-27,-48,-133,-113,20,-2,-52
,-136,-28,-159,-76,-142,10,-237,-49,-70,-222,-115,39,-213,18,29,-106,-90,-66,39,15,5,84,-185,-158,79,39,-81,85,-150,-120,-21
,56,-56,-57,73,-154,-35,-11,-9,14,-51,-158,-66,-156,63,-29,-53,-125,-56,-204,-21,9,-89,-48,-59,-48,70,75,-104,-88,63,-151
,-48,-143,76,23,29,-44,-174,-189,-9,-39,77,-85,78,-167,-60,-109,-95,151,-105,-31,-39,50,-108,-138,135,-153,43,-165,-39,32,9
,-185,74,-156,-57,-34,-92,-174,81,-146,-72,-125,-98,48,-107,-88,-122,-3,94,40,19,1,85,-82,25,58,-8,-177,83,-15,14,-42
,-139,122,-7,51,-91,1,98,-38,-85,75,-43,44,-49,92,63,101,-90,106,43,-39,68,122,-70,83,92,-4,105,-95,119,-19,45
,-431,-179,-115,-373,-178,-497,-334,-117,-1048,-340,-239,171,-269,-188,165,125,-71,91,59,-79,-12,-90,-52,-181,75,-129,-82,-56,-73,-9,-85
,-98,10,-77,67,-68,1,-47,-4,-42,-150,-140,-75,12,60,52,-156,62,67,-27,-6,79,-87,-186,-7,15,-91,93,55,-141,-21,11
,365,-459,-300,-292,-186,108,-220,-83,5,-185,-176,-71,-292,-244,45,66,39,116,-104,-323,183,24,139,-118,-28,-113,142,-99,-151,101,-173
,12,-186,-42,28,-119,-79,24,-221,25,-158,54,-55,64,-3,-13,-108,9,-140,-104,-69,-8,-59,-180,19,63,77,-184,-112,40,36,-45
,89,38,-394,52,-75,-283,-3,-131,-308,156,50,-418,167,-23,145,-208,-47,-239,-50,38,139,-60,16,183,138,31,4,78,53,-58,32
,108,18,-157,167,-54,18,141,-79,32,-4,-47,-91,124,37,-130,-46,-131,116,64,-152,-73,18,-201,45,-2,41,-112,7,36,12,-36
,-83,-31,-135,-137,-83,20,-58,-124,-9,53,-2,-46,21,-85,36,-101,83,-179,57,10,-120,86,51,-36,-119,-8,-170,-30,50,66,-21
,31,31,-202,14,-36,-196,-31,7,-147,136,7,47,-38,-126,-125,27,-8,-57,-12,82,-110,-123,-145,-64,-98,-165,-127,-30,-171,-55,-177
,53,112,107,114,-484,71,106,-333,-222,2,-189,-440,-44,-114,53,-67,41,102,-94,67,-133,33,95,6,-225,39,-115,-101,-96,-56,68
,42,8,41,-24,42,36,-118,60,17,-74,82,96,91,-59,-60,-141,36,-68,-51,15,-153,92,51,-37,54,-94,62,109,-113,26,-74
,-100,-69,-50,-25,60,9,-92,-92,-11,165,50,-10,98,-74,33,26,-6,-125,5,-46,-59,51,18,-203,-146,-15,-21,14,34,59,126
,-117,26,-100,58,-66,-95,-36,-38,-174,34,-139,-198,-136,58,5,50,-135,2,-34,-51,-56,3,11,38,-107,83,-18,125,-140,-110,-151
,-222,18,242,168,-222,-368,-4,-548,116,127,-126,-57,-88,-240,-133,-181,67,141,-70,105,40,-3,6,-202,-99,-165,185,-134,23,-86,-117
,-100,-149,17,-79,-55,6,-165,-145,-79,-131,-153,73,-9,5,7,-19,1,-99,-143,91,33,-144,-78,-12,25,80,-62,119,7,-28,-55
,206,-122,-205,-62,8,109,89,164,-80,115,-256,4,119,-138,-127,75,-23,-74,-200,-51,-7,31,-72,9,-148,5,74,-126,-140,89,1
,-621,-117,-6,124,-221,-275,-79,-245,-113,38,-253,170,-109,-159,-503,-16,33,104,123,-124,-28,-132,-97,-128,37,-86,-445,17,-58,-126,-193
,-106,-132,-126,-304,-59,47,-99,-89,-88,-177,-49,-52,-184,34,16,-103,-176,12,-136,-170,-126,-54,-38,-138,-135,124,40,-22,-1,96,14
,208,-213,-88,-131,-187,-196,58,-149,71,6,-279,-8,36,-72,-93,-97,-124,-88,-56,133,159,10,-38,-92,-110,52,-178,-138,-13,-10,-186
,-88,-2,-122,70,-50,-109,9,-163,67,-153,15,-35,-187,-24,-201,13,-114,6,25,-152,72,-4,-9,-139,94,-148,29,32,-114,77,-133
,-166,-132,-118,-100,-103,-42,-46,21,-8,78,82,42,-105,28,-68,-86,56,29,-14,-106,35,-174,16,-142,-164,86,-124,-1,84,46,-130
,168,29,-501,228,-146,-93,118,21,37,65,-128,-384,115,-129,80,2,-65,117,-192,-107,-148,-76,-147,172,82,-36,35,-116,96,-84,76
,1,-146,-43,32,6,-37,-136,-51,26,-88,-36,-104,-188,-22,-86,-27,-105,10,63,-13,21,-82,-1,-62,-65,78,7,-131,133,-71,-2
,-276,-85,-504,-380,-109,-171,-86,-170,-104,-729,56,-83,-308,-48,245,-14,-129,-21,-402,-99,18,-263,223,-90,-131,-24,138,-20,-167,2,144
,-129,82,-80,66,-138,9,-168,-129,-48,91,28,-19,-66,-142,-277,-56,-81,-105,-13,86,-136,-48,-20,41,-7,86,-107,83,-148,35,-19
,-168,-32,-227,-36,-82,64,54,-7,-44,-79,18,-80,-2,-73,-171,-120,26,0,-71,-137,97,-59,119,-27,20,-95,-244,-35,1,-117,-176
,-81,-34,-173,136,-166,-18,18,-36,-174,-38,-14,5,96,-84,-278,-59,-41,-42,38,-98,-28,42,-166,-21,75,110,40,-14,-16,112,-162
,-104,-22,-131,79,-56,-20,-80,34,-64,64,-56,20,-81,58,36,113,-79,-64,1,60,-75,-6,-100,45,-11,-45,-143,179,31,-25,-80
,-425,16,6,-509,-148,40,-167,144,-9,-438,46,149,111,-473,-461,-18,-113,-164,-61,-32,-35,-14,0,69,-105,-90,10,44,-140,-135,55
,111,-242,-205,279,-398,79,168,-126,32,162,-65,67,47,-28,-303,-109,27,-105,131,-129,-138,48,-150,-129,-105,-35,116,141,80,128,-395
,72,-34,91,-44,-76,30,24,102,-1,-61,50,18,2,100,-30,-98,-10,-49,-25,24,-69,-177,87,-104,-122,-768,77,-63,-120,-357,-113
,-405,-94,103,-254,-152,-64,-293,-6,-13,-397,-166,-26,-343,-54,6,-11,387,-585,209,-155,-220,-120,-261,30,-44,-24,-108,-96,23,92,-312
,-132,-118,-99,-142,-20,-137,-68,-140,29,30,96,-130,-28,-22,-118,-122,-119,71,99,-168,-76,76,105,12,-140,-114,-103,78,-118,56,89
,134,-109,-26,19,-70,-45,-24,-68,-4,58,-53,-134,145,-26,-226,3,25,-163,78,124,-60,1,-121,78,-33,65,-113,-96,-121,75,-6
,-85,-81,0,153,63,13,57,-73,55,93,79,-99,-34,59,62,52,84,-28,-79,-5,-240,-477,-93,-62,-94,-245,67,90,-22,-130,-17
,-40,-182,-112,-66,-156,-16,-26,104,45,22,-153,-33,92,-18,-15,-22,-152,21,26,-73,-73,81,22,-133,66,-51,61,48,22,-170,54
,139,13,25,-146,-26,28,-27,29,-9,-136,61,49,95,24,-56,90,-6,-143,-68,106,-19,-106,38,102,30,-61,-116,32,-54,85,-40
,-25,-51,-151,58,27,-61,-16,-115,-43,-84,-12,-89,106,3,36,133,-152,-20,-105,-136,-164,11,49,23,64,-28,-135,54,13,51,-72
,-5,-80,-24,86,-2,8,-12,74,11,-74,-6,20,-151,-109,-11,59,-180,32,54,-68,66,123,-75,-56,-32,-160,-91,-21,-109,6,-120
,-287,22,-25,-238,-278,-332,-167,-289,-902,-291,-6,75,-300,-73,205,182,37,61,-213,-33,-30,-54,-104,-118,-108,55,83,49,-96,13,-25
,-37,38,-219,-60,-63,-61,-155,38,-83,44,-63,-45,73,-144,-48,-169,-152,124,-146,59,23,-103,-81,174,-63,28,-16,-36,56,105,-37
,-36,-67,-34,-97,-13,69,-81,-13,-1,-40,-227,41,-22,-178,-48,24,-42,-3,-56,140,24,-111,-61,61,-13,-65,-114,106,41,-159,26
,-154,-199,-124,-89,102,-33,32,-29,-118,28,-92,-104,-71,-162,37,99,-85,44,-134,71,105,-5,-43,-139,-72,-150,-35,-103,35,-159,-154
,20,-119,-544,32,-70,-628,217,44,-305,245,21,-439,245,-106,164,-73,-204,-20,112,-35,-25,-32,-24,-19,-70,-17,75,153,106,23,-58
,-170,-160,-54,55,-60,-30,21,-38,24,35,51,-14,-198,-21,-13,-39,-116,-88,-2,19,-162,24,86,3,-39,51,-42,109,-21,9,-169
,-130,-32,-14,-129,-116,-67,-219,-184,74,-107,30,-172,-305,-212,48,-52,55,85,-287,-141,29,-17,-132,52,-114,-97,75,44,-69,-135,-10
,94,-15,-30,23,45,-53,36,-47,9,-108,-114,-127,72,-103,3,90,-86,-79,-62,-23,71,21,-52,-41,-173,54,-33,-86,-22,-92,-248
,-2,126,-338,167,73,213,190,9,-127,152,-132,-945,-27,-83,-152,-95,-107,61,-165,-131,-7,-146,-680,29,-81,-92,-136,35,-145,39,-7
,-50,-25,-138,-131,17,-62,-8,-139,-45,-62,-122,46,-86,-227,-170,39,-182,-111,83,-39,61,74,39,10,58,25,-57,29,-48,-111,-157
,-155,-136,-154,67,-4,-2,132,26,-102,-59,42,-54,20,15,40,-102,-48,71,-193,-142,139,104,-124,-110,-171,72,-89,120,-81,-47,-293
,4,-144,-167,-54,-117,-48,-65,43,-78,-143,-166,-21,-188,53,-121,-51,25,27,24,-123,-81,126,133,-63,52,-104,-72,32,109,-99,-44
,-591,111,91,-146,-341,-276,87,-227,-89,-240,14,-50,-151,42,16,-70,89,-183,-5,-165,72,-85,-31,50,89,-134,-209,-6,81,-96,-129
,98,3,-245,-129,-90,-25,-106,104,-34,117,36,-47,-47,-179,-246,-103,59,76,-171,17,7,-16,-83,-19,8,-98,-74,19,-129,-105,-94
,35,-41,-144,106,135,140,-37,-86,-26,-19,-80,-205,-51,-230,95,2,28,19,-43,-84,128,84,33,9,-77,41,-350,-12,-58,34,-23
,121,-121,-175,66,204,0,20,-73,-26,236,-32,-51,282,-131,-203,-34,47,-254,18,-5,12,-18,3,-20,-94,-72,95,-66,60,54,-184
,-143,59,-74,114,89,-85,-16,-14,-140,-51,-125,-7,-39,-101,-1,110,-78,110,-203,-29,-46,-18,-68,-101,90,-25,-278,-91,-72,62,107
};

long weight_1_T_nvme0n1_1[2*256] = {
259,-5,-34,-41,-102,90,-313,-28,-74,-267,69,-152,38,20,71,-1,-52,-82,-34,-157,-90,-49,40,107,153,233,-92,30,48,-124,-61,-102,4,78,-61,18,29,-255,-26,-90,-30,-55,95,-44,108,78,1,96,10,-41,-14,29,-55,-255,-278,370,64,61,-231,-11,-118,37,76,-277,14,-78,-255,118,-16,98,29,-58,-87,33,-56,-108,118,276,-303,160,118,37,57,144,-161,151,-9,91,24,31,-11,-25,-110,5,13,-70,2,-89,-23,216,-383,-115,115,-113,105,135,84,4,25,189,74,93,-439,-235,-105,158,33,-218,-32,49,-92,13,-151,64,-22,-228,107,-241,81,5,-121,-53,-30,136,-400,-1,-4,-235,108,25,-60,-124,158,65,-197,-6,-91,-183,-116,216,30,-43,-119,-104,49,-139,-6,37,3,584,15,9,108,62,-12,32,-4,-403,106,-35,-28,33,95,66,-54,130,92,394,21,-191,281,43,-491,-24,-66,26,-194,-97,98,-47,-21,10,-68,3,-277,-22,1,-28,-54,-34,33,-406,-14,-76,-29,225,-11,51,-69,361,68,180,-97,-237,6,172,-151,-40,84,-80,44,-20,10,-297,-80,115,84,43,-136,374,57,-389,-68,-36,-7,42,-58,41,21,-297,62,45,-47,427,-71,-78,72,-330,7,6,6,-178,-107,3,220,66
,-315,-94,-125,-53,176,76,88,31,-107,158,77,92,54,7,81,18,-66,-107,-53,34,12,-108,62,117,68,-230,-87,-40,25,7,-48,89,-1,-166,-60,-92,-144,117,-40,-46,-24,-33,89,-42,-60,70,-13,97,141,-102,82,44,90,172,411,-369,41,69,82,-5,-79,37,77,130,23,-58,121,-15,-6,106,31,-14,-75,18,-59,51,61,-95,189,-225,126,27,57,144,272,113,6,98,6,53,-12,-21,-115,0,58,-40,5,-76,-44,-112,337,-109,113,-120,-136,135,-3,5,32,-286,-97,108,541,140,6,-136,59,77,301,67,-73,-4,160,-34,203,177,91,259,22,-24,-107,-18,-65,111,418,-30,-15,17,-99,41,-72,-97,8,-74,208,-32,-140,29,-151,-181,-1,18,-60,63,33,129,8,46,-115,-507,17,16,126,43,-20,33,5,312,103,-52,-18,-11,81,19,115,-170,118,-263,-17,101,-285,-18,461,-36,23,-48,275,136,-142,-42,-17,52,-99,-14,266,67,-3,65,-57,-27,15,317,-11,208,-73,1,16,75,-70,-259,-23,165,42,157,9,77,215,-36,49,-55,31,-110,36,356,-16,93,-2,36,117,-545,84,224,-47,-68,0,46,-55,56,15,259,105,55,-60,-285,-87,-138,87,480,-22,18,24,4,-84,-40,43,52
};

long bias_0_nvme0n1_1[1*256] = {
30,-18,-188,-63,25,37,66,-58,-59,-250,24,-65,10,255,-314,-285,-119,7,-121,-108,-322,-118,-12,-134,41,-76,-92,-83,-39,-57,-106,-153,-58,-87,-140,-170,-41,-81,11,-54,-28,-209,410,-189,-64,-258,-103,-299,172,-136,-44,-253,84,-203,114,48,-14,89,-68,-42,-11,299,-336,-50,-248,17,-149,-50,223,-44,-202,110,-355,-54,48,-35,-28,72,-100,30,99,-296,314,724,-17,95,-11,-72,277,-40,-288,232,-105,-212,-386,-114,26,-248,-82,-120,-146,-145,-76,-38,-213,672,185,137,44,-160,-93,-113,-26,-124,68,29,159,-141,-279,-164,-13,156,-30,-161,-12,55,394,-148,249,-36,-38,-317,-53,541,-78,-179,-53,-254,-79,-411,-51,-35,62,-99,29,-195,-105,-235,-74,77,-56,27,-192,-48,-6,-134,-51,-236,-154,68,110,83,-166,369,65,139,-55,-47,428,-23,-220,364,400,92,-187,-57,-204,49,54,-58,-89,-105,-48,297,-258,-125,-100,-182,71,-121,-244,-128,-48,-89,-11,-84,81,-57,-16,16,350,25,-281,-77,-112,35,-262,-219,-235,-21,368,863,-75,-193,-16,-209,-28,-1,6,63,210,49,89,125,-76,-153,-26,-282,-106,-56,-390,-161,-20,-23,-374,-159,-417,-195,306,-13,-180,-256,-43,-72,-108,-126,117,38,-78,90,-37,-198,-130,11,35,270
};

long bias_1_nvme0n1_1[1*2] = {
461519,-401664
};

#endif
