
/* Trace */

/**
 *  updated on 05/12/2023 18:10:30
 */

#ifndef __W_SDB_H
#define __W_SDB_H

char name_sdb[] = "Trace/sdb";

long weight_0_T_sdb[256*31] = {
19,-3,20,57,54,-14,4,67,-112,-33,-179,-39,-113,90,-103,-70,-54,169,-128,-124,136,-67,49,71,-2,-29,37,95,137,-50,-68
,-98,-125,103,-178,44,-93,124,-75,-92,-34,-135,-51,116,-166,-125,120,61,4,-91,64,4,-66,85,69,-65,-60,47,127,57,73,-30
,101,12,80,13,-31,-113,-67,142,95,-92,-34,-156,140,-100,70,-35,83,89,115,-12,-36,-54,-113,-83,24,-18,-37,107,14,-61,-59
,-30,90,-91,105,-33,85,64,-130,2,44,-134,-28,-148,111,92,-48,-2,19,-86,7,86,-144,-55,-63,101,31,-77,106,-97,-18,-145
,86,-105,-23,131,102,-53,-5,5,54,52,-123,19,90,-37,-96,36,-5,-41,-102,139,-90,126,-8,-13,-41,-86,112,137,14,19,-114
,-11,-21,51,5,88,4,73,-12,-26,-50,2,-73,39,-70,-87,-73,-2,-32,3,-117,14,133,-136,-6,-48,-48,-138,-9,-30,-107,-138
,79,143,-42,149,121,48,-119,-65,92,65,-34,138,81,77,78,110,129,-77,114,-67,-61,-37,-5,-48,-76,-1,41,-83,50,-89,26
,110,62,22,99,-46,-7,-12,74,91,8,121,116,-42,-110,-107,-15,113,56,-78,26,-114,108,48,-99,-20,-113,-118,79,48,83,-6
,-75,-128,111,101,79,16,-162,65,101,72,-15,41,-52,-113,64,-5,-117,-18,111,-49,127,-10,-105,105,13,36,132,-15,108,-57,-19
,-130,106,-108,-9,-106,-107,91,21,-96,60,-134,-115,-133,-60,9,114,-63,2,-42,-13,139,-99,4,131,86,133,95,23,51,84,-10
,-43,-42,-120,51,82,106,100,-78,124,71,17,45,86,12,45,-21,-7,65,-18,-74,134,-9,74,61,-45,-91,-17,148,-136,-30,108
,121,114,122,33,120,-34,54,75,126,-127,-140,-131,13,138,64,-114,125,-14,-144,-4,-22,103,44,30,-25,68,122,20,50,108,84
,-136,-34,112,-134,49,-138,-32,58,-37,18,0,-23,-124,139,-84,91,67,38,108,-60,-138,63,-28,-24,-34,64,-22,51,-113,12,-109
,39,-125,91,-63,57,47,57,41,25,23,133,81,-114,39,50,64,-99,8,-25,-36,44,89,-79,-122,-26,-83,3,16,124,-54,95
,140,-59,-110,46,43,-125,-115,-91,137,-8,54,33,41,122,5,75,14,44,-72,-73,-81,114,-21,104,55,-54,-3,134,136,109,-51
,130,51,94,95,-51,-50,-16,20,115,-73,105,-151,97,-53,-59,-61,-150,98,91,-32,-150,47,41,-110,62,94,133,-3,123,130,-56
,49,-77,-33,-11,-23,48,29,64,-96,-2,101,-117,86,82,110,81,114,39,96,-94,133,-81,101,70,86,-18,-14,-2,-41,-61,76
,-132,81,90,-92,93,-133,132,-1,24,13,26,40,-78,-106,12,-102,73,66,-30,52,-56,-68,119,93,66,9,-119,-142,33,27,100
,-35,33,39,71,84,37,61,13,79,-102,113,104,75,-120,150,40,94,-82,-76,136,-123,51,148,6,-10,-88,-119,21,67,-93,124
,1,-20,-93,40,54,-107,47,14,-10,-96,-124,144,-105,-30,-46,-60,72,47,-69,106,92,131,-53,-34,-41,58,-37,65,63,-74,-52
,-43,20,-24,79,124,-72,8,-60,139,-16,-109,-6,80,-77,129,-20,-72,-80,86,91,79,-92,107,132,88,-35,-60,147,26,47,34
,9,139,-127,14,-60,20,66,2,98,-75,101,-76,-69,23,83,44,141,97,-125,51,4,-9,-6,-25,-37,-116,-70,68,20,-71,70
,100,-3,-83,108,95,-113,38,43,94,-9,55,27,22,36,14,-73,122,32,101,124,48,106,-119,-78,37,-95,85,-41,4,30,-120
,-14,54,57,-24,-49,14,77,2,-34,197,-77,-16,28,1,87,-61,-50,-137,132,40,-191,-63,68,63,21,-66,-94,-58,39,-150,142
,-34,-48,-65,62,-44,2,-33,125,24,10,-42,-213,120,-66,-105,31,151,120,50,-78,69,-134,91,-74,-1,-14,-17,-18,-58,-86,138
,-78,67,12,109,-96,-100,29,27,-105,-155,-25,148,90,-2,147,2,115,-6,47,-10,-71,126,-145,-126,-25,35,-38,-166,60,134,-106
,-92,90,102,39,4,-93,19,-106,-29,17,101,89,-108,-131,-130,-89,-77,127,33,51,-61,-42,-61,114,-20,124,53,-111,-46,126,84
,-87,3,116,-143,-133,-97,47,73,-192,-34,-36,-197,114,91,51,-160,16,70,-152,35,-103,111,53,-43,-49,109,101,-124,-42,-119,117
,36,158,145,22,68,-26,-90,-14,-107,-38,67,-106,79,-112,7,57,65,17,-84,-63,23,104,-94,-75,-178,152,132,-120,-64,-46,-154
,-5,-142,-106,-9,-2,8,-44,126,-10,-78,82,-75,14,-53,41,43,-68,4,-93,22,-37,-120,105,52,116,48,-33,-58,48,-91,139
,43,-146,17,-18,118,54,-15,51,10,-57,24,67,-133,25,-55,93,90,77,-102,-153,-26,19,30,15,-78,-88,148,30,-91,-48,-111
,118,116,-17,103,-1,76,120,103,-87,-101,129,118,95,106,-11,34,-128,-84,52,22,89,106,-115,-42,-1,-101,48,-67,-105,-64,-87
,104,26,-97,-64,100,68,-23,36,-149,129,26,-108,-59,-10,7,-123,-124,-37,-44,-8,-40,-117,-61,-110,97,-26,-89,-54,-128,-32,-100
,42,-105,91,13,16,-36,-20,47,92,-102,96,-19,-107,74,-94,35,142,109,-15,-93,-129,-38,-75,22,89,-29,-77,77,-54,130,-58
,116,-108,-76,-99,24,-33,-127,-47,129,100,-16,-19,33,61,-4,47,122,-20,162,-142,57,-106,40,-103,-35,-77,-28,72,-139,108,-109
,-137,3,23,21,46,-1,-142,-44,105,-27,126,-60,-118,86,-25,-75,102,-59,2,-112,-110,-40,4,-24,63,-9,125,141,-85,22,116
,-84,-78,-104,-86,-38,81,-74,0,-21,72,36,-56,138,154,55,-138,-16,74,-93,-4,30,118,-25,113,-109,117,-117,-29,48,121,51
,127,64,29,4,-23,16,-53,115,6,-138,-110,-44,84,136,-87,-119,76,-72,26,-43,-37,163,-131,-20,-17,63,8,-134,3,44,-105
,-58,-50,87,18,89,96,61,-16,142,41,-100,-68,80,78,-136,71,131,92,104,2,-105,1,-35,35,54,-98,8,3,140,-125,-27
,69,-137,-23,-94,58,100,-10,-98,-14,114,-18,49,19,-143,75,-164,-31,-1,-107,89,22,21,87,-53,-18,19,38,-166,160,-84,-52
,41,103,-121,20,-120,-1,-75,77,82,-125,-111,-149,80,55,-84,-148,-140,-65,-45,125,-97,52,-73,-71,-66,-107,-119,127,-137,-8,131
,38,118,61,-20,-5,-153,141,-63,31,-140,-65,-140,91,-25,-46,97,-26,-135,39,-13,-112,121,-108,88,117,-94,-34,-5,22,123,92
,-115,91,-104,-62,-91,-81,143,-99,-57,-2,-71,30,75,23,-2,20,-35,-105,-106,-108,54,-42,-120,-125,14,44,-85,-28,-134,-41,-86
,-18,-43,85,112,-52,127,-17,130,83,-127,-9,42,96,-59,-53,49,22,110,-99,-20,-127,-13,-54,132,23,67,-79,75,138,99,125
,-62,54,27,-151,-68,11,-97,-77,-110,30,84,-10,72,-13,-117,-15,131,-5,-36,24,-99,96,-52,133,-1,95,-60,130,68,58,47
,-83,130,72,49,-64,-29,13,157,146,66,-80,29,121,-154,-5,68,-81,107,41,28,-44,-67,-85,91,-142,-7,27,68,-13,-21,-61
,-5,46,194,52,-64,142,-9,-145,138,-2,4,-124,64,-28,41,108,-91,53,-31,-24,-94,-132,-100,71,8,-143,5,59,81,92,-129
,-85,62,99,127,94,22,35,49,-7,146,138,-37,-163,-39,36,-174,-161,-70,-70,-21,52,-151,-87,69,60,68,-96,-134,25,128,-68
,39,114,85,159,-23,-102,-19,79,115,-14,122,80,69,-125,-34,-8,51,-122,-24,-110,5,-48,45,-132,-21,147,81,57,-62,144,79
,-34,-77,54,84,29,79,-78,-83,95,42,18,102,-136,129,-24,132,-49,-3,-66,-64,-25,-138,97,94,138,-72,34,-82,-46,-147,-56
,35,-132,-62,-43,-58,-2,101,-129,-42,12,-94,-113,118,45,-87,-46,107,96,32,-10,-130,119,25,117,-39,9,2,140,0,117,146
,28,-73,112,-15,51,-95,77,98,59,-135,-137,-120,87,139,95,133,-108,-3,-132,-30,147,-1,13,95,-140,129,24,2,48,17,141
,-63,133,109,115,91,76,-127,67,-117,99,-2,-71,-38,90,31,50,-110,83,-102,123,-17,-148,26,-99,111,-47,-86,119,-97,-42,-112
,-102,94,132,16,-126,104,74,-58,-122,21,94,-100,-115,1,-40,-141,24,111,125,-94,33,46,-55,121,-104,115,-102,122,85,84,-91
,-38,-131,-105,114,67,-7,-140,-66,-85,38,79,99,-106,-101,27,-112,100,32,-6,-26,98,63,129,34,130,-135,107,24,61,31,127
,-110,167,-106,-155,111,-255,-28,63,-70,-98,-14,40,23,-142,-112,-44,13,62,-69,-131,113,-43,130,123,159,-80,-81,-114,181,-114,-76
,82,82,-139,-75,-87,47,-2,136,-57,128,-43,108,18,-191,-175,-39,-173,-13,-89,8,-175,100,101,41,-133,-178,-17,18,-33,-60,65
,44,1,38,78,44,-84,-33,83,128,106,-87,-26,-202,7,53,27,16,-132,-90,-131,-127,-54,79,-18,32,87,9,-143,38,68,54
,-108,36,-45,95,-24,70,-2,-25,0,48,123,8,172,34,5,109,66,-124,-145,-148,-7,29,-134,13,-87,-137,27,7,150,143,32
,-56,-37,51,-106,5,117,-157,124,118,-133,73,-98,-130,63,145,-40,-16,129,-173,-65,-3,-71,4,10,-4,-170,-44,-83,5,-93,-63
,13,43,-149,-29,82,-2,138,-107,0,51,-146,66,-56,3,-117,-78,10,5,-37,-54,-56,-42,79,32,93,139,45,122,71,138,49
,25,-15,17,-123,142,31,-140,-82,120,-119,149,71,-162,91,-51,-10,-140,-55,128,-63,-26,-19,62,-3,-67,115,98,-117,-97,-69,105
,31,-7,-59,69,134,68,138,-58,-4,-13,21,-45,117,54,-94,-14,76,-66,-154,153,-76,-132,-21,27,27,-12,-42,-52,118,5,79
,73,99,-61,113,-60,-31,-156,-59,25,104,-3,-139,95,-77,-66,66,96,-94,133,50,-24,123,84,97,-89,-162,-55,102,-95,-143,96
,58,65,-43,112,-26,-128,-85,-107,96,-30,19,38,163,-93,21,73,21,87,57,35,-133,-17,16,35,-88,-36,134,-30,96,29,20
,-114,113,-35,-15,36,112,-138,71,99,-83,-116,-59,-174,53,94,-16,121,38,-58,-80,-68,-93,70,-66,52,27,-31,-145,-104,79,-74
,75,18,-42,-60,73,-42,-107,-71,45,155,-88,-140,128,97,-116,-147,11,-40,-52,98,177,-68,-60,-9,137,119,-71,-40,38,-157,-43
,-79,147,-2,-23,-20,-106,58,128,-24,-59,8,-18,-139,77,100,125,-88,90,103,-99,141,-2,-82,56,30,-134,-81,33,93,121,49
,10,4,60,-33,106,-159,-130,51,-45,23,-57,105,79,-39,-29,-21,110,-2,124,52,49,130,129,68,140,-55,-32,63,-75,-143,137
,68,-133,87,-5,131,-45,106,-140,22,-114,10,20,49,-65,-50,-11,-138,6,88,98,12,36,-48,32,-9,23,87,78,50,55,-111
,41,-24,-85,100,-31,54,-32,-145,-80,3,123,-158,141,130,-153,-116,-99,42,41,112,24,36,-10,-55,14,-118,-57,132,103,51,72
,115,135,15,127,72,-54,69,-2,-146,-155,-122,-34,111,-171,-39,13,-116,-29,-125,-122,-22,-13,-28,25,12,-10,65,-5,113,84,-20
,158,66,54,-90,-133,-43,111,152,-92,-98,81,140,-155,-148,-163,67,46,42,-131,-69,86,105,-59,-2,-114,-117,56,44,-84,-73,-65
,-36,10,-125,-133,-60,115,149,53,-115,49,-116,2,-119,158,-7,-67,-57,36,-43,103,-82,102,-19,-22,52,10,-58,-12,13,4,-27
,82,85,18,105,-147,78,-82,57,156,-95,-10,-71,89,-98,-181,111,104,-15,-56,-103,88,-130,-35,3,-117,-109,126,37,127,68,-109
,3,123,81,140,-102,-99,40,-4,37,44,-157,112,-64,-64,40,-100,129,-27,1,109,66,99,-45,-75,-62,-46,74,-85,-147,116,-140
,48,12,-37,-4,-114,20,31,-116,151,53,-31,-97,83,-24,82,86,130,-131,-101,65,-113,-142,-69,-122,46,129,-41,49,-67,-98,5
,-79,78,-44,11,112,9,-34,32,29,-73,36,-75,11,-75,37,41,46,-94,-137,24,94,-106,144,-122,2,-116,-69,58,18,145,-2
,-129,83,55,81,-143,79,94,-88,104,24,-42,-111,63,-126,7,-52,51,-97,-51,50,-72,39,11,-130,17,-123,109,-89,-108,-123,-52
,117,24,-156,-115,52,-25,101,-148,-110,43,-124,124,-48,16,89,59,-54,95,32,-79,0,-79,-137,-20,-117,-105,2,-118,39,-113,-18
,-132,71,109,60,-6,127,-15,-123,-14,5,-29,49,126,-31,12,-82,81,76,19,-7,29,125,69,95,-26,-83,106,-119,-137,-23,91
,103,-86,-72,-95,-113,-82,2,51,-51,47,139,17,120,-213,-102,121,-7,19,-55,-69,13,18,134,114,35,-9,-79,80,150,-81,-127
,-126,88,79,-127,-71,-53,-31,-45,-30,-21,-90,-140,127,101,-9,-54,-44,-62,-129,-135,55,13,-95,78,-121,55,22,77,-59,-90,37
,119,63,136,136,-156,73,24,54,-64,99,-75,52,-72,182,115,91,95,-59,-57,-129,15,-41,-110,7,87,-114,66,-59,85,-137,-103
,53,-7,-13,-112,35,-58,133,-72,-83,-120,-133,-32,-137,34,122,55,-89,76,84,-29,74,-96,-147,-142,-31,-151,38,-6,-85,-91,104
,-123,-99,62,37,109,-123,55,-65,-83,-59,65,15,2,151,-200,-23,71,72,46,-64,130,-102,-10,-3,133,127,13,-72,-47,-95,-120
,68,-104,117,105,73,-25,-48,-26,11,129,-129,133,-21,4,-98,5,38,7,-118,-75,97,-23,45,129,63,94,124,-108,92,137,-31
,-73,48,-60,-47,-43,51,10,-68,51,26,85,1,-112,70,-178,103,87,-55,-159,-22,-66,88,-6,-39,-120,-157,-147,-5,102,112,-126
,17,2,82,-3,-48,7,-6,117,115,76,100,-4,-54,-109,-21,46,2,-105,-6,93,22,96,139,-135,149,-123,-94,22,-87,104,-137
,-250,54,-155,-79,-160,104,-82,9,-183,-13,-95,40,13,-72,8,69,3,128,24,28,-118,-99,-25,-198,-124,61,-49,46,134,117,-101
,-115,11,-15,-40,-147,46,-91,-35,105,-24,-151,19,-35,-127,119,105,101,-63,-91,134,96,108,-105,-40,-16,-43,91,-122,89,-83,-67
,-26,-131,-16,-58,-56,100,40,-99,-76,77,24,-66,125,-120,-84,-89,-117,-76,-14,-126,-6,59,-39,-57,-99,-128,103,-21,-77,-32,-6
,81,-116,95,135,-44,-17,-90,27,11,-28,32,37,-7,-49,108,-133,79,74,48,-12,-17,-85,-138,-35,24,-59,-56,145,-49,-94,34
,139,62,133,33,-121,-13,-30,-14,-165,178,-137,51,0,-39,0,-11,-28,-13,-108,-114,-21,116,-49,-81,41,75,15,136,133,-61,-44
,-150,27,-15,-44,85,30,43,-36,62,46,-137,-83,-108,-99,-4,66,-81,-132,119,110,-105,-65,-50,-89,146,146,-36,-137,-102,137,-114
,38,103,-49,75,-30,113,77,138,136,7,148,-57,51,-118,-65,130,37,100,-113,-119,-47,139,-58,-43,-131,74,-66,11,-6,-86,-69
,96,65,14,-124,-33,105,-114,-50,-85,21,-50,-132,116,110,145,48,118,-97,-4,-41,-66,26,49,4,142,72,-44,54,24,-150,56
,25,42,-34,-167,131,-31,4,82,-41,130,8,-103,-36,32,-102,127,6,48,-23,-133,4,105,25,128,-75,35,-96,-116,58,-21,-87
,-98,126,24,-117,-40,117,-19,75,-66,-73,-59,-70,63,-77,119,-17,35,1,67,-39,3,14,74,46,-4,-6,-3,88,45,24,11
,-66,154,125,43,145,-76,-50,-78,5,35,-6,-136,2,34,-115,14,116,-11,65,33,-66,6,-18,-178,-90,121,-81,-129,19,-55,-45
,-126,6,78,3,-142,85,118,-19,-150,35,77,-77,-81,-193,-14,-120,2,103,33,-110,-24,97,118,59,28,9,103,-65,-67,-89,-168
,-71,94,-13,54,17,57,-9,-69,-83,46,-113,122,-37,27,-86,107,3,92,117,10,22,88,30,-34,38,101,-28,132,84,5,-137
,75,23,49,-51,-144,115,-3,-19,132,55,-131,-126,157,-95,40,11,-54,-7,-26,-53,68,122,62,7,-71,18,18,-36,-77,107,0
,55,68,135,24,4,41,-90,135,-107,-96,140,121,-39,32,24,-92,-23,-52,-52,-53,62,-120,-21,103,13,-8,65,26,-22,75,32
,-67,24,-35,84,131,119,113,-1,-112,-73,-126,-111,14,-40,-75,-25,-126,-147,66,-71,130,37,63,13,-55,66,-84,-123,13,-51,25
,133,20,-108,-50,-99,-70,157,-173,15,75,106,-24,3,79,153,138,110,52,74,133,-80,-18,-119,-142,-105,-117,-55,29,-107,65,-136
,65,139,-20,-124,-128,-104,54,-112,92,-30,-143,119,99,-90,-118,-121,140,30,115,84,-133,-73,155,-139,-63,-114,-64,-45,65,-102,-112
,-15,-127,-35,63,-107,44,-95,-101,105,52,-137,-109,-92,16,-135,-129,-72,-114,-111,-125,-91,10,-131,-81,48,45,-94,98,-74,-18,-77
,137,-121,95,-30,-107,86,132,12,-69,-87,100,154,-13,-125,-24,-37,-73,-86,17,75,67,24,-31,93,61,-88,68,-14,-127,-59,-119
,66,111,54,153,-39,63,-61,-40,-97,-55,76,62,57,-135,45,168,-27,69,-96,-105,124,-106,-55,-82,94,-67,4,-36,-14,-164,56
,-104,130,126,-75,-107,66,134,66,24,-24,65,113,-39,-10,35,61,113,58,-52,91,-97,12,123,-65,-155,-88,102,52,-58,24,-137
,54,-157,-65,29,55,-154,165,152,-77,212,-83,-148,-61,-63,-163,-25,-70,-73,119,48,50,68,-101,16,18,39,3,20,-89,62,120
,69,118,-134,16,149,-10,148,-28,-17,-124,-10,36,5,-120,-56,0,-80,24,-103,-41,99,-62,106,-109,93,93,30,131,-19,-98,62
,-129,-133,87,0,75,-53,25,120,78,-71,-13,19,-9,129,-52,-140,86,118,-34,134,-35,2,-132,122,-9,37,50,143,-65,26,-58
,-31,5,-73,105,-78,-27,134,-55,58,77,87,115,1,-52,20,129,119,-41,39,70,96,-90,133,126,-24,79,-32,-54,-67,77,-13
,88,98,-143,75,-11,-32,-98,-45,-10,-158,-22,-7,130,107,-35,24,98,75,46,68,-129,103,-39,-96,-117,-47,99,-20,6,-109,130
,-122,51,-50,-61,24,113,6,-107,107,-43,17,-18,165,106,-120,68,-38,-122,-62,94,-85,83,56,-131,-9,-40,72,62,-109,-103,-74
,-27,-5,-105,105,-92,-9,20,6,150,12,154,16,-78,128,112,17,120,-121,-128,-8,89,104,-55,126,-43,6,-83,-53,107,-99,99
,44,-74,34,-53,104,-1,54,34,4,17,-10,-45,118,123,-79,-92,129,140,-80,-98,-52,-51,79,38,-60,95,-136,-53,31,56,74
,-105,-100,-59,29,55,89,30,-14,19,14,43,88,-37,69,-15,142,-106,-29,55,95,-104,113,-131,17,106,11,-53,83,-90,139,-138
,-59,-133,95,83,72,-72,96,-148,-136,54,107,-16,43,-18,-4,-70,78,81,-61,-68,-102,46,73,137,4,94,-51,92,10,34,32
,-25,-58,25,-65,-62,114,-27,102,-20,7,88,130,131,-38,36,-66,-101,-6,-45,22,-91,-36,101,1,-78,-74,109,80,60,-47,-34
,-76,-85,125,-92,100,29,-119,145,137,115,-5,-35,-73,-5,62,-88,-130,-34,59,56,-79,17,-87,113,105,-61,107,17,-10,28,81
,65,-54,135,26,-87,-217,-65,147,133,-31,119,-134,47,-51,-125,-43,41,15,-10,60,136,-106,166,-73,92,-120,-15,-102,57,-97,-113
,6,-115,123,9,91,-106,-64,-37,-42,-48,-141,-123,63,-131,8,-102,-73,-61,-85,-128,-90,-123,-124,122,-56,-94,100,41,10,-60,127
,-85,83,112,55,61,118,71,-51,-60,-36,-82,62,-95,69,83,37,-39,119,-112,-152,-68,-13,90,-110,-66,22,10,-137,50,-10,40
,72,137,11,-49,107,15,21,106,-10,58,-128,45,-49,-51,-124,-128,63,93,96,-66,-103,-20,135,-87,123,-88,-110,13,-132,34,102
,-12,47,-120,112,7,64,-105,60,-67,-72,9,-34,-63,90,-106,-77,-11,95,149,-18,-103,50,80,-62,76,-73,-24,-61,-190,19,-10
,83,20,10,46,-75,88,144,85,68,-10,-93,96,-89,3,-107,133,-101,38,31,88,24,89,80,138,102,71,99,54,69,113,-112
,-12,40,-75,73,-70,68,-17,-58,32,84,0,27,13,-143,-68,136,79,31,-59,58,0,115,-89,46,131,-74,-20,-102,82,35,105
,138,-61,-133,-76,-92,-94,-46,-123,-25,-125,-104,35,23,-144,-133,-68,-58,-107,64,-76,-80,-20,-138,-65,85,-63,6,94,-28,-13,137
,111,134,72,1,6,-2,97,-36,-21,10,50,-40,137,-70,-15,46,-95,-146,-26,-35,-96,-98,80,-28,153,-125,-138,54,70,-49,88
,6,76,83,-21,9,-135,-24,81,-50,-28,-3,60,-79,-4,105,74,68,-92,-118,123,-137,-6,-34,97,103,17,-20,-131,-142,159,-67
,28,16,24,31,17,155,-83,52,108,59,109,-38,66,81,-124,-151,-9,-38,42,31,136,-138,-49,-179,0,-133,-8,-134,-52,-9,51
,40,114,112,33,-76,95,29,106,-92,-10,-39,-98,-30,-4,-70,84,-52,-122,15,77,-142,51,-131,-25,-30,66,163,-79,22,-81,121
,78,-22,-84,-123,36,-77,-103,-48,-18,-38,31,19,-79,137,-43,41,-21,62,116,-145,-134,66,97,-3,70,17,-106,2,-127,72,102
,-9,103,-32,-40,69,-117,131,-85,-26,87,-69,110,117,-140,-131,-143,112,30,89,24,-78,-141,-66,-124,16,2,117,147,-61,36,105
,120,42,26,23,-72,-80,33,-119,122,120,45,-93,5,-118,-138,104,130,-20,-36,54,84,69,-22,-39,-107,30,69,5,77,78,64
,-42,20,7,84,-118,54,115,109,-112,-34,-84,-141,145,-99,-37,-129,11,63,58,-98,-131,18,-86,146,-51,-141,92,-56,49,-24,81
,-158,-65,111,-153,127,125,71,-44,-115,-132,-4,-38,29,-20,-162,48,86,-134,52,-32,-83,51,-53,-25,46,-2,8,-64,-1,60,146
,-121,-70,108,13,-37,19,149,74,-26,-22,-60,-32,-121,-21,72,-79,41,72,102,-87,-128,5,-82,-39,101,-31,156,-115,126,13,1
,147,91,-122,-79,110,-90,70,-77,4,-115,-98,146,94,21,-28,-30,111,98,54,133,-20,-133,62,48,-44,-60,140,107,-152,-117,-50
,-66,33,136,16,120,127,108,-155,121,13,-92,-23,44,-62,0,-41,-34,-6,-72,38,33,-70,-137,126,-63,-118,93,-71,69,-106,99
,107,-9,-128,-97,-110,-23,62,-111,-131,-113,137,-49,55,40,105,96,48,-64,53,126,133,-93,29,-111,-87,-47,-87,136,71,44,42
,106,-138,-37,39,59,-66,34,-50,57,-100,81,-21,-26,46,92,110,-150,-131,92,-120,110,-70,69,123,109,-75,79,3,19,61,42
,-94,119,-112,-87,99,-96,-167,130,-81,-158,32,76,-78,-64,-23,-61,-103,-16,-32,-45,-69,-151,144,-107,-79,148,106,87,5,51,-42
,-113,-62,-108,-110,59,46,-34,-73,91,-128,61,-1,-33,-143,-113,104,109,8,49,121,133,-126,127,-117,10,-115,8,39,112,98,-69
,87,-7,132,-147,106,135,37,39,-50,69,141,-93,103,-103,44,-87,54,-91,-73,100,45,96,132,-59,-41,-123,-49,22,81,33,57
,80,14,-15,95,92,-94,5,88,-14,104,16,59,-31,-59,128,38,25,-148,15,94,20,38,-85,-96,79,5,-135,9,-73,-113,8
,-55,-32,134,55,-18,113,-22,-36,121,-126,122,59,85,119,-133,-74,24,78,92,70,2,-8,-105,78,-115,-98,85,-76,38,8,87
,68,114,140,-77,-14,-147,152,44,-97,-98,-60,-1,142,-80,114,101,-158,49,-131,-141,-6,24,-87,-32,-53,-76,-9,-64,62,89,25
,119,113,45,-44,117,-115,-71,77,-105,-13,-39,-102,-120,94,-85,-70,63,31,32,-143,-4,119,109,82,-137,104,43,98,-103,59,126
,-109,50,-60,42,-54,85,-6,-87,-51,83,61,140,126,122,-2,88,64,17,56,84,-72,-124,1,-32,27,-24,-7,45,-121,99,-78
,-5,7,-119,-113,-66,-75,26,72,95,32,73,126,12,91,95,-89,-38,14,57,-80,10,-12,19,-74,65,-45,44,-132,35,-37,-22
,100,88,30,79,34,-95,-114,-48,96,-83,122,89,-149,134,-104,-91,49,121,131,-180,-96,-116,101,-62,-78,78,-85,93,-116,-103,84
,142,-18,-85,28,109,-5,-110,106,1,141,49,55,39,88,-62,-93,65,12,-60,-59,39,-55,-44,68,-7,-130,-7,-132,-65,146,-70
,94,-3,129,-55,-72,84,-97,-162,-65,105,78,-17,101,-113,-129,-78,-60,-21,-146,87,41,38,9,140,-54,-93,146,90,-63,118,-76
,-114,-104,-105,52,69,54,28,-145,-105,24,-131,79,40,-56,106,31,-83,-78,-113,-48,55,-96,-47,66,-115,5,-27,-142,101,66,-62
,-109,65,-77,-141,-116,12,-135,-127,-16,-121,-141,-70,21,29,-46,73,94,-35,-76,17,-3,-62,20,120,-11,-72,-150,-16,73,27,2
,51,-19,22,-109,103,-17,-157,76,107,-174,69,36,-146,-32,124,-152,-17,-145,-168,-148,9,13,75,-52,96,-131,-21,-25,-108,33,-73
,27,94,-142,156,-4,40,42,84,42,46,64,156,103,-72,-126,95,23,-91,-80,140,-51,-133,54,102,118,-69,-59,33,8,-111,13
,-75,27,10,-138,-32,-17,24,141,-118,119,-13,140,38,-29,-121,116,-67,91,116,-3,-34,-130,-38,-63,34,106,7,-97,49,-79,141
,-14,-152,-32,14,-2,119,36,-28,-54,39,104,-199,184,-87,-120,10,81,-23,58,18,-36,164,-95,-138,-6,48,-166,15,40,93,-39
,-11,80,39,69,-27,-41,103,-98,9,-43,-61,-112,-45,-68,-153,149,-63,52,27,80,-115,116,84,-122,23,63,-187,60,-106,-10,-27
,40,12,73,-101,-58,-62,-32,118,39,-13,122,-89,-26,99,122,-134,41,78,147,-10,-121,69,-100,-56,-67,-42,-10,61,79,-73,1
,-2,-98,-71,-63,37,60,172,101,118,130,-111,-80,-65,-28,-104,3,99,-98,150,77,56,37,-105,33,-91,-6,94,111,47,-109,69
,-65,-27,-42,-97,-114,150,32,22,134,-61,-51,131,-80,86,-44,46,117,43,-20,1,-119,109,93,82,-30,-14,122,-80,24,-112,-14
,147,98,49,-109,65,135,-116,-72,24,15,-80,-96,-14,-29,146,-139,-5,-26,70,136,-133,101,-93,96,3,33,143,-105,-112,81,94
,45,-108,128,109,67,123,43,103,-145,65,36,4,-100,-81,-61,70,67,67,18,-44,37,5,73,-30,45,56,-37,121,43,-108,75
,37,159,-13,63,-138,-47,-153,-78,62,-148,-15,83,-20,-94,57,30,-77,13,-105,-65,-89,-110,37,-3,78,141,136,31,6,5,-126
,73,1,117,-16,-2,-16,-34,62,-108,-23,20,89,-47,-57,49,42,24,-36,-7,40,56,-16,49,-59,-17,115,123,115,57,-16,-26
,-31,-107,67,-35,-51,-19,50,-58,-108,-17,-9,35,-20,-86,11,114,-97,20,82,21,62,135,-123,-110,-98,126,134,-128,-76,123,74
,5,-70,-59,93,96,-30,45,28,118,-70,-116,74,-121,-78,65,59,145,29,-78,27,143,-68,-88,110,-29,58,-116,-13,-27,112,-129
,14,-121,-4,136,46,-121,123,52,-89,55,66,101,95,-84,-75,-42,58,56,19,96,-49,17,10,116,47,-77,114,70,-66,76,-110
,-144,-27,68,-70,104,-140,108,61,6,-99,-111,-34,-80,103,-102,-26,18,-18,87,-70,126,79,132,-97,45,-41,111,77,76,-63,4
,-136,35,-129,99,-8,119,-125,-36,-87,37,-131,-4,-9,-25,58,130,-2,34,-17,-122,98,1,-47,54,-18,-82,-57,-134,135,-154,10
,-93,-51,81,13,-5,-19,-71,-96,24,-150,68,77,-3,86,-1,-35,21,14,-82,64,-9,-113,124,-82,136,-16,29,-13,-54,66,104
,-126,-49,-12,-129,-48,74,-50,-123,-136,111,-91,-72,7,-144,76,-132,117,-63,-103,49,42,60,121,-10,53,-139,-50,113,-8,-132,-66
,-78,-15,134,63,1,-6,82,-138,9,80,14,-39,-120,141,66,11,138,-55,73,-9,134,74,98,52,-31,-28,149,103,-69,-69,-94
,-49,-140,33,5,80,25,-62,-116,-135,13,-89,-85,141,-25,-64,-82,-141,-98,64,50,-26,-59,-126,-95,-17,-63,42,-81,2,-142,-43
,-57,152,49,-16,90,-128,-41,-91,69,52,-139,61,-36,93,67,97,-12,130,-6,71,107,-87,116,-131,61,-68,102,-123,-20,-113,48
,-43,-7,41,-24,96,-109,-8,37,47,-43,12,-11,-105,-72,80,-125,89,-38,26,-93,119,-40,-9,128,79,48,-29,-65,58,40,10
,52,84,49,21,52,-143,99,125,-130,150,-95,59,91,125,-92,-71,-83,111,-42,66,-123,-24,-138,79,-85,-34,-65,39,96,63,-40
,67,134,-33,-27,-29,119,-53,-11,24,123,-134,-17,-73,121,57,-74,-109,20,63,-121,108,-100,40,120,112,-21,-54,47,-14,-53,-75
,155,-24,-143,-30,-29,3,-15,37,32,-26,81,-116,-12,10,111,25,82,-10,29,137,-103,-16,32,-110,-28,-56,16,132,66,64,-78
,-17,-123,-79,-14,-128,-18,-145,101,78,72,-104,140,89,-136,35,58,-77,61,-129,54,115,-17,-12,99,-58,100,12,-3,-63,68,127
,-70,67,-104,-8,123,67,-104,-86,-14,-120,-117,-13,139,-10,95,-21,-140,-55,126,-151,-128,-15,119,105,19,-95,113,18,81,15,-25
,-4,-109,-154,105,59,33,120,41,70,-16,-156,120,-93,-53,-84,1,106,-34,-75,21,82,-64,-42,104,-167,-13,49,77,-1,-90,-134
,-74,-51,-59,-63,53,23,129,4,-116,-11,0,-69,-55,-105,-1,117,-87,146,148,-29,93,123,-18,2,63,93,-130,-16,-40,9,72
,148,137,37,106,79,73,-111,116,43,73,64,100,92,-116,-88,-117,-83,2,-99,-59,-7,21,-140,-11,83,18,-7,141,40,63,-64
,68,-106,68,124,-40,102,1,-63,-37,-31,-20,-98,147,131,61,79,-134,60,47,-71,61,-44,58,126,24,-97,-50,88,49,113,-42
,133,61,-147,46,106,-87,89,42,82,-11,-16,-110,54,-152,-102,25,123,8,-68,134,-51,113,82,-84,59,128,-69,-135,-61,36,4
,124,-103,88,-19,-77,-56,40,-156,102,-118,-154,-46,78,5,11,-90,-137,-103,-36,-34,-95,-9,-22,-140,-45,-16,-43,-51,-29,-110,68
,-128,-112,-110,-83,-106,-99,-109,-1,130,103,92,-188,103,-58,-17,42,-55,-180,-133,-9,-109,24,-41,116,104,118,-25,-59,104,106,-96
,-127,-115,-21,-70,126,-40,17,74,-10,116,29,-98,131,16,25,-110,-32,121,-129,-150,112,-68,8,76,45,-85,80,-18,72,59,43
,156,-127,49,60,45,-110,-65,-188,60,-124,-27,-171,-115,-1,87,-8,-46,-188,100,108,98,-27,98,-2,-188,-6,62,-144,-44,82,-82
,-74,66,147,21,-4,66,-113,80,31,83,128,143,-5,-140,87,-74,143,-57,-105,46,128,130,-35,102,141,136,-66,85,43,-49,124
,87,17,13,47,93,108,17,56,42,61,111,-71,-68,131,104,39,0,108,19,64,17,73,-21,-24,-27,24,-129,87,-40,-97,-2
,-20,44,49,-112,-76,9,165,140,4,-20,-39,-124,-101,119,50,48,-2,-21,-71,-100,3,-13,-63,31,-14,70,107,-151,28,59,-49
,-91,106,63,129,-84,-32,-22,72,77,-113,7,43,-71,143,107,16,47,-54,-94,132,144,-123,-68,-31,130,-28,-70,-107,130,-48,-97
,-9,50,-54,-138,33,-128,45,-104,-55,53,-11,131,-76,91,-128,-7,-42,32,-17,-13,-36,-33,-64,86,-107,-28,98,-109,-81,-153,39
,-111,14,-145,45,-155,-9,-112,130,-100,-26,-149,-179,9,-138,-95,75,108,17,-62,139,1,135,62,-81,-61,87,-114,19,7,-109,89
,-126,16,-143,0,-20,80,-13,69,97,-7,90,-135,-52,69,70,59,-63,134,88,132,-61,60,26,17,-130,124,73,132,-109,115,86
,-109,-144,42,-10,-64,-52,111,-84,-87,-13,146,-15,-97,114,14,-31,-67,19,32,75,-58,-74,17,-1,139,-146,93,56,141,98,-137
,134,-36,-138,-39,-50,108,68,-108,14,-5,-149,-28,87,35,-3,-143,-101,11,124,53,106,-72,33,-101,56,-37,33,-133,-78,-105,65
,33,-68,-114,-118,58,-128,43,28,36,124,55,-89,-161,-171,-43,-26,-102,147,81,-97,-134,-38,99,-32,95,-124,109,-47,151,93,51
,-140,127,-18,11,-23,-9,-144,20,74,114,-115,-88,24,122,20,-5,-74,-66,-72,-6,70,59,81,93,-72,-51,-77,-109,-103,-51,81
,-144,-55,81,-137,-109,-55,33,-25,-147,25,-66,86,-150,50,-210,127,45,22,35,-197,-4,37,-28,-19,-148,112,-15,49,-24,73,-93
,97,-180,-19,68,-55,-99,-115,-29,97,121,-40,112,-2,-128,-100,54,-15,132,-86,124,50,-121,108,84,61,-20,17,-75,73,-125,-160
,-60,-87,22,129,121,112,-121,25,-55,-40,-118,-62,97,-104,-119,116,37,-55,62,90,-43,52,-140,-25,-60,60,85,116,96,-2,134
,-65,137,144,41,102,46,-140,-79,52,86,122,-98,144,-91,83,26,85,89,2,100,35,-52,91,-99,74,132,-56,108,19,-96,28
,-9,-90,-5,38,33,4,8,-47,76,-108,75,-36,-14,78,-93,132,123,111,-93,-133,67,134,-59,49,-123,-17,-60,128,-91,112,136
,-106,114,-61,-121,-29,144,143,-67,-31,54,108,-59,-64,-35,-86,-143,50,-14,1,-124,-3,-130,-137,-25,-43,20,-26,22,-30,-143,-145
,67,-134,41,-29,88,-108,41,119,-86,1,-34,133,6,-121,-129,-14,139,22,-59,-84,68,-66,129,96,-109,54,-38,-36,-11,37,125
,-94,-123,42,-137,41,-116,30,43,32,105,-27,3,-137,-90,114,22,-121,-65,74,15,24,-47,50,-82,-105,-75,-130,80,-10,-73,-135
,137,-18,126,-10,4,89,-30,26,-14,-133,124,43,42,-95,-37,93,-81,111,-41,-41,121,61,-45,142,-96,-120,-77,-131,38,96,79
,-113,-122,-125,46,98,-91,71,-87,81,72,126,-30,-71,-56,-65,71,-95,-25,77,17,-94,-95,-113,-31,102,-9,-41,-84,78,104,-123
,-49,-91,-71,-39,-123,117,11,-17,127,-89,53,-70,127,12,-3,102,-3,122,32,-141,-50,31,-45,39,49,103,62,-90,-78,-131,-118
,9,3,-105,50,-30,-28,-74,-55,-86,-97,-133,56,94,-54,121,-28,117,-1,-54,-51,-71,91,89,101,107,114,-47,74,59,29,-63
,-5,-66,135,-100,51,89,104,47,12,-49,81,-10,22,32,-49,-35,-143,130,123,-81,31,152,79,-18,-121,-89,-67,16,-105,-111,129
,10,127,105,77,94,-138,5,47,-114,98,47,-105,60,-91,142,107,95,63,-80,-20,62,-148,121,83,-76,-9,-124,78,-30,-26,-81
,-33,-100,-19,-100,-94,-36,-100,-109,16,81,62,-30,88,-68,-139,80,54,17,63,92,-106,51,-81,-76,131,118,-53,-139,-109,103,-83
,95,-139,-47,-121,53,150,-154,-79,-128,25,-26,-50,-33,116,-17,-98,132,-136,124,-15,73,1,30,-19,52,-53,-42,-80,60,17,-42
,-32,-10,139,-98,29,43,-43,66,135,-140,-99,-103,-103,-36,-40,-56,134,143,3,-9,33,109,-83,68,14,141,40,-12,51,-45,-97
,-61,83,137,-23,49,155,-112,91,-76,-133,-113,-115,89,122,-97,45,25,-93,-60,-65,-160,-46,74,19,-40,49,106,-77,-62,140,-167
,4,-77,-157,-8,65,73,-82,6,139,80,10,-49,95,-3,49,-86,-133,138,60,9,10,128,-99,97,-139,65,-17,17,77,-73,-99
,66,-122,-98,-66,85,28,59,-125,-155,-67,81,-99,-159,45,-161,118,-64,48,72,24,141,-5,-120,-38,57,48,60,-93,-123,-91,-192
,-23,-42,-96,93,85,-138,-113,120,-40,113,-24,11,173,93,75,116,79,140,-164,0,-133,-77,-99,-167,-77,142,-116,-179,61,74,24
,26,-93,52,125,-79,142,87,-4,133,106,97,-82,95,-26,-128,68,105,-39,-105,60,-126,-101,131,-37,-19,-61,-128,88,0,-19,5
,141,-78,51,-12,-105,120,53,-77,126,-41,-1,145,-27,7,-12,-86,-121,-79,112,-134,132,98,-131,15,-72,49,63,-102,-19,47,54
,-144,-52,-108,-128,128,-62,-92,62,-56,-71,-2,-40,79,10,123,32,-87,119,114,-81,105,-48,111,52,112,67,-28,-108,140,56,119
,-100,-115,-30,91,36,34,-132,-129,-103,-130,40,-38,-84,17,35,-44,-73,115,-81,-51,15,-108,81,-20,-144,-37,10,106,-125,82,74
,-9,-150,93,-73,44,77,21,-9,27,72,-97,-108,33,-38,114,103,-123,117,96,112,-92,-75,39,-51,48,-136,-122,149,-89,97,-74
,24,-23,83,106,-36,137,-80,55,-89,7,-88,-16,-185,112,119,-70,61,-91,-113,-46,-55,9,-43,24,-134,86,80,-88,-90,108,141
,40,71,4,38,-19,79,-96,44,-76,15,13,20,50,68,46,9,-132,-12,78,-14,-78,-113,-114,77,-43,-52,143,-138,10,4,134
,-134,-67,-125,22,112,11,-76,63,20,39,-67,66,85,-101,65,-68,-101,55,-32,52,128,68,-61,128,103,-15,-20,145,-115,-89,133
,-88,83,122,-39,46,-103,136,118,-70,-46,60,15,-100,-34,-105,-77,49,85,-107,0,93,73,11,-136,7,39,104,1,1,-110,51
,-95,76,39,116,-103,-129,-43,129,-140,-14,0,110,107,60,126,127,31,-96,10,92,-84,15,113,55,-57,110,24,-90,-103,-131,-40
,102,-44,99,-142,-84,132,41,103,-70,55,25,-66,118,-114,91,58,-4,-60,-66,-147,-182,125,-58,18,-5,25,-123,-58,4,2,49
,-115,54,-8,-3,149,153,58,-22,-56,-38,21,43,-1,-139,-52,110,147,-40,30,44,111,61,41,-57,57,69,17,-25,17,27,66
,-105,0,26,8,41,-116,-82,-8,-54,-135,-143,-103,-121,-119,-107,120,48,17,-11,-116,-85,-76,-71,48,-137,60,-113,77,-14,80,-37
,-76,-35,2,110,-107,-27,25,54,69,-108,-68,-67,124,-94,48,-57,25,103,52,113,129,83,88,30,88,-61,-85,-31,-91,-39,71
,-91,-42,8,42,-102,82,72,1,-126,46,36,-13,-27,35,-69,125,-118,125,40,-8,91,-117,147,-45,5,111,106,132,-65,73,130
,19,134,74,-46,59,-130,94,95,-25,-97,-38,-114,26,70,-149,-12,64,52,76,-66,-129,-39,22,144,115,-92,-35,-128,-33,66,-103
,111,-109,-113,-71,-119,-144,75,57,-79,-138,-2,-128,59,-102,120,58,43,88,29,-82,-111,-54,-36,-5,-84,113,-104,64,-22,-115,-64
,75,21,53,-94,-61,-78,75,-143,114,84,83,-48,128,66,62,-28,116,5,15,-16,-72,-113,-92,-124,-105,58,119,-75,-157,-63,-82
,-144,48,-35,-118,-33,55,-130,-35,-88,-124,-99,103,-2,-126,11,-84,-91,-138,36,-52,-103,-110,42,42,-30,-37,45,33,-67,18,71
,126,-49,111,34,13,26,-59,-73,-4,7,29,-137,72,32,66,62,-134,-60,113,-9,51,-32,-46,1,-13,1,-39,-15,63,55,131
,19,-65,107,-71,120,121,157,-45,-30,-40,-35,-83,-33,-83,-56,82,-78,-79,50,60,2,-45,71,75,57,-139,-118,43,114,-67,71
,-81,32,-180,-61,120,-175,98,-98,47,3,41,-200,37,93,110,-102,-121,23,-148,-188,-141,-80,-56,66,129,14,-23,-176,13,-70,61
,47,10,-63,-57,-36,83,-43,111,-37,121,125,-34,8,23,48,-53,-106,72,123,-91,-32,7,102,148,-73,15,73,-119,104,-143,8
,-102,16,-69,-121,31,101,87,60,-10,56,-52,-143,100,-128,24,-13,28,-75,-111,-113,-133,-135,-11,-60,48,-119,-36,22,81,11,-145
,-111,-88,-28,1,-47,146,-107,28,-65,-28,-19,52,-158,18,140,-73,-44,-12,-119,-32,49,27,130,-2,-39,144,86,-7,71,89,31
,-84,-42,128,106,71,13,110,34,-118,76,-42,127,109,127,-85,79,-50,19,61,64,129,18,77,20,-46,6,-18,-35,-16,84,-110
,48,-142,-122,34,-144,73,95,-13,-97,-101,-120,-36,119,-125,-65,-112,16,-79,-13,78,-121,-16,-73,26,-20,-2,7,64,-29,-126,-102
,127,-143,-10,131,51,34,-14,-101,105,108,19,-95,-103,-126,81,-17,65,-71,-87,11,129,-81,101,-110,-86,-100,-140,-115,48,27,59
};

long weight_1_T_sdb[2*256] = {
-7,-20,141,-81,99,-48,5,74,6,50,113,-53,38,97,88,-115,-64,-88,44,102,-6,11,103,205,80,-44,-98,-177,295,77,-69,-106,52,129,125,-102,49,139,-119,87,-59,-79,111,-91,-140,-125,123,-48,134,72,86,16,76,114,52,-193,-101,-127,94,-63,74,-36,175,-71,97,-132,212,-114,16,-132,75,-59,56,-187,142,124,175,68,106,-7,87,-173,-95,68,-59,-107,127,44,83,-96,-120,-61,39,15,-29,-149,72,-78,142,228,74,102,135,45,1,-24,155,-134,225,155,-69,103,-40,143,-140,103,147,115,120,17,-123,42,90,-80,-114,-24,92,-100,107,-121,74,126,43,-202,-48,-32,-148,108,138,-166,0,5,36,-58,-48,189,-139,69,136,126,222,-128,66,-54,15,143,36,126,-26,-200,98,103,252,277,90,55,88,-46,6,-12,-141,-132,121,145,-57,91,-38,116,58,-116,29,-138,-30,48,-139,-49,139,-126,42,58,76,-125,-95,-194,129,-184,128,4,-94,52,-51,200,-46,158,-57,35,-57,-90,-52,-33,97,-98,45,58,119,137,133,-120,-17,-75,119,-69,-134,46,191,-93,-79,198,26,110,136,-111,61,-71,111,-27,-88,80,208,114,143,60,151,-47,-85,9,-36,-89,61,-154,86,-13,55,11,109,-23
,111,154,-119,-48,127,-4,-98,62,-17,110,80,-87,102,95,74,-88,-33,94,74,3,55,-55,-52,-242,-138,-178,-22,40,-51,-53,43,-110,79,-48,-67,-134,-50,-148,72,-153,-98,-90,-144,28,-34,90,-78,71,-114,106,-23,49,-88,-2,-24,29,187,83,-94,208,107,53,-35,-124,26,83,-141,20,-81,86,-102,-176,-72,144,24,6,55,154,103,102,-93,76,51,122,23,23,61,-61,-129,143,29,141,-169,189,-146,94,127,13,43,-136,-42,-110,-134,-72,-95,151,-106,98,-171,-141,-38,-208,-22,36,34,-96,-151,87,-60,99,125,-35,-56,118,8,29,109,151,153,123,44,8,13,179,88,-110,78,-96,-195,105,118,-82,-87,129,-83,-65,139,114,79,138,18,-30,-16,30,139,149,-78,124,-45,2,23,-119,-86,-128,-83,94,-40,107,-71,-101,120,-101,1,100,-22,-16,-128,-4,110,99,-75,-110,151,97,-7,-93,-32,-47,79,92,64,78,31,200,-47,129,143,-75,37,-55,-11,-119,-79,-47,-98,118,8,139,64,-88,15,-12,81,-109,-2,93,60,-75,-80,153,14,63,9,-20,-128,-44,24,-27,4,-40,30,-102,-3,52,167,-111,16,54,-214,147,-48,137,107,116,-24,-132,-12,73,-98,19,-123,56,144,146,33,-157
};

long bias_0_sdb[1*256] = {
3,3,13,-16,1,-8,2,9,-5,6,8,-9,-16,5,8,-10,-10,-10,6,6,7,-9,2,2,21,13,-14,-6,29,-8,-7,-9,-10,11,3,0,11,24,-7,2,-7,-12,0,-6,-16,0,5,5,2,-3,2,1,3,8,0,3,4,-9,-3,22,-3,-2,19,-12,8,-11,16,2,-7,-1,3,-5,-15,18,3,14,18,4,6,-18,2,-4,-11,5,-11,-9,11,-21,3,10,-4,-11,-1,-3,0,-7,2,-17,4,49,18,7,-2,0,-16,-18,8,0,12,-12,-13,22,-2,5,-6,-6,-11,9,2,3,-9,-3,3,3,-9,-7,5,-3,5,0,0,10,9,3,9,-14,-5,3,19,-4,0,1,-16,13,-11,-3,2,2,-3,5,9,-10,11,-8,-3,6,-1,-7,-8,0,-1,3,30,24,1,10,5,-2,-5,13,-3,-7,6,9,-10,-10,-6,0,4,0,6,-10,-4,0,-4,-9,-3,-10,0,-1,3,-6,-16,-2,-3,8,5,-5,-3,4,-11,-10,-9,1,-6,5,0,-2,-13,-3,6,-2,0,-1,0,10,0,-9,2,11,5,-20,-2,10,24,-7,-12,38,6,6,5,-12,0,0,7,-10,-9,5,4,5,0,2,7,-11,-15,-3,-8,-3,2,15,-2,-20,8,4,0,-7
};

long bias_1_sdb[1*2] = {
6639,4298
};

#endif
