
/* Trace */

/**
 *  updated on 05/02/2023 05:30:20
 */

#ifndef __W_SDB_H
#define __W_SDB_H

char name_sdb[] = "Trace/sdb";

long weight_0_T_sdb[256*31] = {
-26,-370,-78,4,-138,-378,-152,-185,-174,45,90,195,74,-195,41,205,16,-116,36,-203,13,-93,-7,-127,-163,17,73,123,78,36,37
,71,86,-63,-3,-225,22,-155,43,-64,-151,39,-65,-114,-35,-61,-55,-61,37,11,-73,-52,-4,-77,-86,-59,24,100,62,38,-95,32
,-130,-190,-87,-206,130,-846,-152,-452,176,-215,-38,-607,31,171,9,-67,-27,-96,-192,47,21,-13,66,-134,6,-35,-458,30,-70,-100,-212
,-61,-98,-193,46,-98,80,53,-10,-10,-167,-86,-194,-80,-51,2,37,-16,50,-112,-24,-20,-33,-102,35,-94,59,76,-3,-146,-106,67
,25,90,-127,-119,-12,-268,177,-532,-4,-160,-196,-249,-37,-224,24,-68,-192,-270,-934,21,-72,230,214,-358,-198,25,-1478,222,-40,112,133
,123,3,-44,-9,-53,-86,77,-96,28,147,-62,27,-25,-12,6,41,49,77,-178,-84,-112,25,94,10,63,-37,-57,-7,25,43,-182
,7,-249,-76,-21,-48,110,11,-85,-91,16,-441,50,-169,-391,-48,17,-236,-58,-95,-139,-21,85,77,229,38,-91,-35,-66,32,-115,-107
,-201,-44,41,-122,120,-215,14,98,57,-20,-72,-87,-183,26,-147,20,-186,14,-47,-112,11,38,-160,-48,-7,-88,-54,-153,-135,-29,36
,-26,-146,-117,-31,-88,-89,-167,-45,-26,-16,66,-52,-44,-160,104,-87,76,-47,10,-126,-11,84,103,34,-154,56,69,-119,46,-122,-67
,59,-184,-116,-49,60,-46,33,-77,-69,-155,-38,-107,-14,-11,4,-144,284,-6,-202,-163,43,85,-25,24,2,-136,-83,87,-78,-112,-148
,21,69,-132,-180,-131,-173,-25,29,-172,69,18,-178,-49,-120,-167,-34,68,58,28,24,-178,-63,-56,5,47,53,-64,-80,100,26,-22
,-76,-145,-51,-153,85,-115,-35,-151,-118,38,89,-15,-93,-85,36,30,103,-27,-142,114,51,-174,-160,-70,-142,76,-92,-110,-134,19,31
,107,-401,21,59,-32,-1630,-139,-263,11,-180,-274,134,22,-204,239,-77,95,126,30,-253,-49,158,-188,-14,-5,-1,-906,-40,54,-47,-1399
,-34,-312,222,-145,81,-411,63,-407,-179,-32,-414,88,110,-441,-25,-2,99,75,-38,1,-56,-79,-144,169,42,99,-17,-137,-106,-60,-420
,-231,128,-594,-293,120,-414,-285,-590,64,-29,172,-204,-233,197,-171,19,-137,-75,-309,-157,-31,-16,-537,7,-59,151,48,122,138,-9,-63
,109,23,32,-117,51,-82,-15,-81,-146,-48,-72,-161,-159,-133,-79,-120,-85,61,-41,-93,-9,-106,173,-33,-85,-73,44,146,16,-11,-18
,-12,167,-399,-120,21,-229,-250,221,183,-337,33,-197,-107,-214,-238,-50,-29,-162,-689,-99,-26,-192,-580,-221,-38,-9,-927,-23,112,64,139
,-148,6,-63,3,63,-67,36,-32,-155,27,-137,-141,-31,-101,-68,-4,28,88,-42,-57,-72,-79,16,-117,-151,46,105,-75,94,13,-31
,-94,-60,-348,-99,211,79,-126,-136,-213,-30,205,-151,-201,-358,-37,62,4,-20,27,20,147,-114,-200,-147,-151,66,34,-40,-39,105,-10
,-156,-479,16,-20,221,69,53,-262,-11,-44,19,-39,33,-177,-273,-122,65,-60,75,-143,-26,-10,26,16,11,62,-169,-136,105,-46,-7
,-232,258,-138,-317,93,110,-131,-115,-30,-162,-134,149,-241,-142,2,-111,189,-98,-17,-68,-78,-36,-123,-84,256,50,-129,309,-348,-346,50
,-205,89,179,-138,84,-263,-13,156,139,-84,-109,-233,-31,-290,-127,-194,-152,-51,-198,-76,48,36,39,66,-99,-110,-32,241,-193,-125,19
,160,-329,-19,66,-135,-202,38,-144,-224,81,-210,-53,176,57,-165,50,208,142,-314,-246,-440,101,214,39,221,166,-109,-219,-164,-140,-66
,-249,-95,63,-51,37,60,-44,-70,-284,-128,-66,-163,-205,-21,5,-63,42,141,-170,112,-148,-100,-47,87,-56,-211,178,32,-110,-149,125
,-316,63,104,-48,173,-114,-260,-210,-452,-248,83,-65,-107,-19,247,-144,-103,52,-162,-123,-182,-32,-800,163,102,-247,128,-481,-295,-207,255
,-76,-259,-75,92,-151,-119,-177,1,-132,17,66,-66,33,-18,49,-276,32,-82,-71,38,-29,126,-39,26,-41,29,-24,51,-109,22,52
,-198,-205,-30,65,82,-81,-233,265,-299,4,-118,-208,61,-175,-13,-17,-88,-43,-163,72,185,-27,-51,97,-197,-22,-106,-52,-84,68,-262
,12,220,-281,-13,-37,56,-36,-202,-113,-9,-124,112,-113,-70,-103,132,42,-262,-70,85,25,37,-249,4,-77,-231,238,-197,-17,84,42
,-109,-11,-115,5,21,-36,-66,-172,3,-105,-15,3,-18,26,-102,63,-35,-31,-8,-18,-76,-99,-117,138,-49,10,-11,-101,-62,-30,-42
,-108,88,-91,-117,-49,58,-120,-38,-141,46,-146,21,-106,-14,-65,10,-72,38,-124,66,-40,3,-175,70,-83,22,-20,-40,-33,-63,119
,29,-65,-188,46,-7,-91,-12,-121,-3,-178,-2,57,40,-153,27,-141,-99,-22,3,7,-88,61,13,-63,-78,44,-34,28,57,-2,-147
,-209,-25,-241,-132,-190,159,-168,75,-62,47,-173,138,-27,17,-130,2,-38,-75,82,-19,-64,-205,98,46,-64,-103,31,-207,38,-44,61
,-67,127,15,-91,198,-212,-79,-1282,-36,160,-159,-242,-31,-508,-12,-40,-135,-32,82,-87,39,-30,-657,-63,-83,-113,-997,22,-162,-190,398
,13,-214,24,51,-50,-20,1,-73,-127,-204,91,-54,-112,-48,-47,13,-258,36,67,-131,40,47,94,72,2,64,-154,-17,-35,-38,-216
,84,79,80,52,149,-173,-38,-145,31,128,45,-806,17,-545,-581,-45,-51,-9,-736,-131,-122,-98,-1064,-65,177,25,-38,-172,-218,-136,-133
,1,21,32,-162,42,-87,66,59,-157,-137,-142,-26,-123,-138,-182,-123,-46,58,-83,96,-60,-82,-50,-50,-108,-43,-130,-8,15,22,-11
,-95,56,-72,-221,35,-361,80,-411,-101,40,-9,-8,-211,207,37,-38,87,-72,-117,42,-22,-66,-88,227,-68,51,-176,-132,36,3,-212
,-5,-9,-67,-79,-92,36,-120,2,71,131,-103,-37,-93,-37,-64,-26,-130,76,-34,48,23,-31,26,27,-28,-8,-2,-78,61,17,-5
,-69,146,45,-223,164,-49,-50,-85,-659,-24,34,-173,-138,-131,46,-241,-230,-319,9,428,-356,7,-183,175,-151,71,-65,-492,-229,-440,308
,-87,-166,49,-94,-52,-47,49,11,-101,-170,-59,-92,-146,-1,61,-125,-29,62,129,-117,-158,-223,-137,53,-59,-149,-74,-87,72,72,-106
,-120,130,-267,-139,-82,-43,31,-326,-153,58,-424,107,69,221,-114,55,-38,-127,65,-12,61,91,-122,-98,-73,-53,-162,-34,-150,-61,-410
,16,-127,48,0,-128,56,21,-100,-313,63,-179,-162,-91,-156,-32,-37,84,59,1,-12,-243,-6,73,395,-49,-269,3,229,-186,-119,-99
,-3,-24,-196,-69,-3,-57,14,-253,-233,-65,83,46,-225,-102,-3,97,-199,105,-200,-152,-120,-114,40,21,-63,63,54,-113,67,-58,112
,137,40,73,-24,-195,-134,41,-345,0,13,-317,-85,131,-307,-146,205,-96,-160,3,-197,-121,50,-333,-3,1,-67,-232,-142,-78,10,-213
,-50,-220,-51,-131,-69,-249,48,37,-51,47,-2,-7,-103,-56,-196,-111,15,31,-101,-113,-99,-44,-178,126,121,-75,-142,60,-42,66,-74
,-221,51,21,-200,100,-14,-224,67,-17,-290,51,27,-367,67,33,150,11,-93,-1,-68,-134,-119,34,2,-40,-70,152,-57,70,-68,23
,-33,4,-195,9,-119,-86,30,-76,-145,-5,-30,43,-179,-68,-108,-132,-74,-83,145,-15,-36,-19,60,-115,-39,-119,-15,-35,28,3,-12
,-14,-110,-235,69,25,37,-180,-188,-30,-180,-35,134,6,85,-244,193,111,-226,-179,-24,-357,181,62,172,139,-43,-83,90,-34,39,-194
,-116,-157,17,-48,-64,-5,-110,76,10,-118,-109,-76,35,52,1,48,-52,-106,-31,68,-140,16,-48,34,83,-136,9,-63,32,76,-67
,-151,-205,-39,16,-203,56,-28,-240,28,-17,-69,-15,-106,-14,-100,-23,-60,15,125,-128,-42,32,-114,-18,-39,16,124,45,-64,36,-151
,-321,211,92,-173,-77,-269,-21,-109,225,53,-140,-18,-170,-310,-71,-209,95,-182,86,-101,129,104,-45,126,-46,-327,53,-33,-27,-60,185
,-132,-134,18,-59,-24,47,-90,-66,82,-190,-166,37,-152,-159,-85,-175,-36,-85,136,82,-97,-34,30,18,-60,-20,149,-57,-65,84,-16
,-148,60,-213,43,174,-61,35,-400,-127,27,-183,30,-97,152,119,-164,-59,-17,-85,-53,-24,-141,-717,-87,-34,-179,-1298,-135,-106,-71,202
,61,-111,-96,-49,-81,-69,-87,-21,6,-169,32,95,11,-211,15,-262,-128,-52,187,-48,-105,-101,-85,-103,-146,-58,173,-39,-45,-56,-264
,-107,-25,-11,112,-2,-77,-89,-7,-57,107,-86,-29,-82,-152,-24,94,17,-152,-116,-106,63,-52,121,-9,-178,50,-51,-39,76,-131,-81
,-243,-45,62,37,-164,-118,-170,-11,78,-172,21,-46,37,-88,-92,-15,15,-135,-5,-91,59,-150,-80,41,-60,103,-66,-119,66,9,-137
,5,-84,-156,-231,-387,208,-165,162,-36,-417,249,-166,-7,-103,-65,-36,-49,-219,-183,-116,-193,-182,-572,-193,-73,-147,-293,111,-73,92,-44
,116,-86,-187,68,-117,-93,48,81,199,21,-935,-348,125,-67,-20,-60,-171,-83,-161,78,-432,279,34,-181,-200,-126,-222,-49,-157,-139,69
,-258,31,-5,-75,4,-104,-220,84,27,47,-114,-97,-212,-141,-50,-90,24,-72,2,-39,125,-46,76,-92,-107,-41,48,-4,-82,-118,-60
,-128,-409,-558,-8,-459,-69,5,108,134,-112,-268,75,-59,-247,104,195,64,-267,-278,93,-1,-122,136,4,179,-59,85,-103,-100,-90,-548
,-84,-182,10,-28,-115,-87,-12,-125,-66,-38,17,-83,-31,82,-90,-71,-146,-66,-41,-22,-56,45,-83,58,118,-138,-20,29,-107,-102,-83
,78,-40,-8,-52,-83,-21,73,-201,-125,-64,-111,32,-225,99,-201,-17,-25,46,-139,-120,-46,-47,98,82,-163,-84,-273,180,105,-303,-1
,-120,-103,-94,35,-193,20,-198,-78,-438,-73,90,-229,-42,-5,-17,60,30,-34,-14,-44,-108,-104,-88,44,110,-10,106,-63,37,-113,-237
,-31,-85,-39,-126,-32,143,-38,-547,-139,-15,-102,-434,-218,-435,190,-145,-107,-103,-279,-142,204,-263,261,-108,-50,6,-236,-38,-17,-39,-170
,-20,-3,-4,1,178,125,-91,136,-33,-59,-78,-111,-266,128,109,-50,80,28,30,51,110,-52,-131,61,-76,15,91,-84,-91,182,63
,-180,-405,41,3,101,78,81,-491,252,-195,-170,6,-141,45,-310,32,55,-253,-99,-30,-144,86,129,-85,-88,39,-50,103,-98,162,-17
,-27,80,-76,65,-149,-48,49,-148,-119,-167,-10,-103,67,-92,-23,148,-117,-156,-47,-75,114,-82,-124,-206,-77,-38,14,-9,101,39,-85
,-76,-161,218,-210,127,122,19,-241,77,-238,-676,-3,-193,-718,19,-42,-64,-114,-373,-165,-145,-52,-299,15,-15,-437,334,-65,86,25,107
,54,213,187,-59,-330,65,55,-149,123,34,-367,-311,-183,-306,-129,-45,132,-204,-17,224,-137,-30,6,-109,-213,-33,-373,-102,-83,-130,-446
,63,-131,-123,-23,-20,-67,-133,92,-155,3,-152,-92,-28,-95,-201,-158,7,-46,-189,13,-20,1,100,-232,48,-54,-57,76,20,96,-126
,-40,12,-13,-179,116,52,-210,-217,70,-62,-170,68,-186,84,-213,-15,-27,-38,52,222,-269,-180,125,-212,-137,-116,-237,-68,-27,-17,-248
,-12,173,-115,-28,-164,-10,-20,-91,-81,-218,-1,-101,-197,-25,14,-160,-104,33,-125,47,-137,-88,-314,207,69,-222,-118,-35,-75,-83,-335
,-123,107,41,-131,12,-241,-290,102,226,-63,-254,-6,-55,-255,-383,20,-17,-58,24,-129,-120,-173,-459,70,2,59,-205,-74,-142,-173,270
,65,-124,54,-51,-42,-23,-68,-142,-298,-87,22,-140,10,51,-29,-170,-50,18,39,-3,-41,-110,15,-151,-105,-109,-95,-29,-141,-44,60
,-129,21,-133,80,54,24,-78,-85,-73,-183,-82,30,-210,-104,16,38,-161,92,-164,-92,-80,-17,14,160,-92,-98,-73,-50,-19,75,60
,22,-202,-81,-174,28,-147,50,-80,-68,-174,-84,-30,-17,-53,20,98,-108,-140,2,8,26,81,-2,-119,-39,112,69,65,-135,-74,25
,9,-143,-227,-140,-194,-57,-152,-111,-186,-115,6,-299,-150,3,115,-65,10,-57,-6,21,-56,-20,-112,-132,75,2,-58,74,9,60,81
,-52,-77,-13,-151,-74,-148,29,40,-8,-149,-31,26,30,-221,-6,-20,78,-71,6,-124,-107,86,-24,57,86,-90,-17,119,-45,55,-159
,-444,59,17,-487,-57,114,-449,18,116,-401,-60,44,-349,21,20,25,-156,44,115,111,-131,-6,75,-42,-112,39,115,-42,-48,70,158
,-61,147,-133,-295,97,-12,-274,156,-74,58,-197,-182,26,-18,-603,-28,96,-31,80,-85,-101,-126,-226,-97,-24,-140,41,-34,44,108,-211
,-71,-64,-31,-89,-125,-1,37,51,11,-22,-100,70,2,-189,-130,-156,65,73,-45,-136,82,35,34,100,22,-165,-61,76,-143,-110,-85
,-36,-191,-130,-31,-66,8,-51,101,-113,-91,6,-47,-99,-47,69,26,59,-27,-15,-144,37,-23,-99,-175,15,-112,58,154,-197,-97,62
,-126,-129,139,92,-20,-251,48,-73,-738,91,-67,-70,-7,-24,-536,-99,-154,53,-586,-324,-156,-267,570,-261,-86,12,212,-228,-194,16,198
,67,93,-234,128,-459,-12,138,-457,-371,51,-135,-154,20,141,-26,-75,-41,-12,68,-91,-116,-78,97,142,-2,-142,-135,-84,93,126,155
,51,33,43,-122,30,40,-204,-118,47,-124,44,-77,-7,-151,-119,40,-6,-13,-147,39,57,-124,-11,-127,54,-39,14,-79,43,48,-29
,112,-3,104,-71,57,-70,-12,-134,99,155,18,50,101,-52,67,-64,-1,-99,107,63,-88,-57,119,-52,129,-21,43,-22,60,-7,-66
,-194,-123,-78,-105,-86,-117,-48,20,-101,11,-59,-134,-135,98,-67,27,-1,28,-156,23,40,-46,8,-90,55,-130,-123,-109,-101,-7,-173
,12,149,-211,-91,-189,-200,-125,-67,54,-93,-47,45,-120,163,-133,67,-113,103,-33,-239,245,-93,-232,344,20,-397,68,-284,-267,-197,-124
,-171,-117,-186,19,-396,-122,32,-208,143,-20,-372,93,28,-253,90,-230,-172,-98,-267,237,-6,178,-173,36,-136,-39,-286,143,-40,146,133
,47,95,17,68,-25,-91,-86,-27,-259,-148,-149,-272,31,-40,-85,278,-281,53,-270,187,-238,-72,8,167,-91,-273,90,161,-311,131,96
,80,150,-70,29,6,249,106,-378,-250,53,-224,-441,-185,-8,-104,-32,-902,208,11,70,-444,146,-35,-119,64,-172,-759,-65,9,-93,-425
,-5,46,-144,-77,8,-101,-159,-44,-95,41,-10,-206,-6,-29,21,-43,-24,-17,52,-65,-46,-173,-30,24,110,-26,-12,-4,-164,-160,-58
,-19,-123,-255,-125,-87,-212,54,-205,69,-12,-174,-160,-75,61,5,-39,-4,-25,-100,-72,84,16,-102,-97,-96,-86,39,11,95,-30,92
,-33,118,-157,-207,-16,-123,-251,-189,-69,18,-122,58,-48,-166,51,229,-215,32,33,-11,28,-176,109,16,-224,20,-40,31,51,-30,-209
,54,-251,-299,185,-698,57,112,-70,-746,98,-104,55,82,-305,-18,-102,-45,-121,22,174,-41,-253,99,5,-47,83,-240,-92,-98,10,-50
,-64,-39,35,-190,57,53,-39,-142,-116,-125,-22,-104,-57,-119,30,26,40,76,-77,-113,-120,-103,-320,-64,93,61,-244,43,-57,-40,-156
,16,-5,-84,-255,-104,87,-125,-57,-12,-249,-30,-209,-70,-126,15,90,-143,-144,51,98,-63,-57,-146,-195,-15,-149,-161,173,51,97,-139
,-1,-53,-77,-134,-223,-171,-210,-169,189,-9,-301,286,-193,-321,-498,19,82,8,-798,120,83,-33,-33,4,159,163,62,-176,-81,46,-1066
,-120,-62,42,-157,-44,6,-265,-328,123,-147,-227,256,-135,-518,68,89,76,-159,-115,355,-97,-251,-183,-145,-471,12,37,284,-114,135,50
,-119,-550,75,-188,106,-349,-225,-265,108,8,-27,-1233,7,194,-27,-67,-5,199,14,49,56,157,-110,-222,-116,-246,-306,-71,-130,-13,-377
,-10,-183,178,-182,-223,-23,-160,149,-7,-105,-458,-77,-15,-266,-262,-87,40,67,48,51,100,-121,-381,23,-9,54,89,-90,-53,-67,-54
,-86,-41,40,-87,-68,-46,-234,-105,40,-159,-77,68,-117,1,78,-310,-310,-281,242,-198,-86,-65,-87,-1,105,-62,77,-3,-19,-209,39
,-94,82,-499,-60,-109,-442,-80,-105,50,-91,-262,10,-69,146,56,240,-35,-278,-184,39,-303,3,351,161,167,-340,-146,-128,-6,-142,-135
,0,21,-396,-49,119,118,-76,113,-65,117,-560,-358,150,-667,35,26,-136,-317,-134,43,85,-23,134,-370,-190,-145,37,-237,-88,-100,340
,-14,-93,1,80,-155,-22,-79,43,-105,-62,-59,-48,49,-120,-67,-52,-82,39,-68,103,-70,-94,31,-61,-67,-83,182,38,-104,-34,129
,-259,79,147,-249,-335,149,-131,146,172,-213,41,-131,-180,-64,-45,-352,103,-821,296,-374,-478,-81,283,-216,-188,-380,402,-291,-372,-321,309
,-116,-263,-160,47,-230,-171,4,119,76,-46,67,-50,-72,8,-91,21,-171,139,-75,177,-195,-132,227,-156,124,-114,-71,-1,280,-61,-117
,-22,-27,33,-150,-40,-22,110,-33,-5,96,-32,-22,118,-98,-37,125,-103,-97,82,-110,52,-25,-20,-35,-80,90,20,77,4,-80,10
,-295,154,181,-236,-91,-141,27,-191,131,-195,98,24,-19,-170,-82,113,164,-361,-180,56,114,-35,-173,-58,-81,-23,152,-63,72,-176,-54
,-12,-157,-17,-46,-100,15,-59,-99,-183,-64,155,68,-87,-277,49,58,-195,48,-195,30,-445,201,278,-103,-99,306,-122,36,-345,-22,-25
,8,-383,-285,22,58,-66,-82,-172,-332,81,-34,-47,14,-73,168,-133,-74,51,-19,-35,-46,14,-8,248,-67,78,-170,98,34,-169,-140
,-17,-120,40,-7,-182,-212,-194,-144,-4,-110,-131,-153,-15,-95,67,-73,2,-121,-73,-50,45,42,20,-41,-80,221,23,-66,-12,-94,-90
,16,-52,78,106,-373,88,5,51,-317,10,-165,-153,-20,-126,-236,-86,-128,27,49,-194,-188,21,-4,163,-89,134,157,44,-94,-179,-67
,19,14,-141,-189,-163,-135,-11,-197,22,-175,-15,-15,5,-95,-191,111,-56,-209,51,-133,-118,-112,-106,-151,-46,-3,105,-30,18,115,-120
,-95,-517,-3,-108,218,48,40,85,-415,-39,-348,-402,42,-288,-201,-39,62,-181,-114,-1,-160,-124,-155,88,97,101,-72,-222,-29,53,7
,-131,106,35,-30,-19,-196,-216,-31,16,107,-378,106,132,-167,-59,-63,-189,-290,-255,-261,121,-266,-39,111,95,-103,68,-267,-77,-256,0
,-7,-131,-24,-10,-22,-107,-121,-36,17,-72,14,-67,3,-186,-100,-36,-43,-40,60,-33,51,115,-68,-118,-18,-38,55,-21,-151,13,101
,-90,147,-276,-189,-233,-81,-351,55,-62,-306,205,254,-362,-34,-82,6,98,41,-54,139,-230,-51,-28,146,-126,-83,-73,191,-43,73,6
,-85,-66,-190,-45,-60,-308,162,-397,-151,-46,255,-41,86,26,65,145,-258,-32,-198,-131,-55,-64,212,-63,158,-20,119,158,-330,107,-149
,-127,-117,-125,-15,128,11,-84,166,-130,-180,81,-333,-181,-301,-156,-196,-23,80,-124,-83,61,128,69,-232,-61,-9,-26,-175,-51,92,48
,-147,66,38,5,-72,-148,-138,64,-83,-116,-51,1,-62,-166,56,-23,-148,-65,-99,-31,45,-133,-39,-128,104,-132,-69,-113,-78,118,57
,-9,207,7,99,86,-22,-78,-288,-55,62,-162,-632,117,-189,-156,83,41,-136,-324,151,106,-78,-114,-71,-41,-421,71,48,-15,-95,206
,-262,-67,-70,-93,-222,-28,-76,198,-153,-24,22,-152,-102,-44,-138,164,192,-109,-477,7,164,-33,45,84,140,161,-504,-166,-103,-133,-96
,-191,-170,-20,94,212,-368,2,66,-279,-158,-36,-418,77,-205,0,-59,-44,-35,-17,61,71,158,-165,14,-203,-143,-20,171,-107,-24,162
,-27,-3,-31,-120,-10,-112,-83,-217,-100,-7,54,-27,32,-62,-118,3,26,-104,24,16,8,-1,-80,22,-100,-134,27,196,129,-156,-176
,-274,71,111,-83,-163,-113,-142,-171,-55,-242,-150,151,-167,-140,-216,-138,79,173,-128,-66,52,68,-89,194,-151,-12,-218,5,-46,27,94
,-31,-146,62,25,93,-89,-238,-134,-110,45,-7,9,-55,3,-42,-94,-53,-7,-61,-235,-3,37,-88,72,123,-224,153,-22,-79,-10,-109
,-139,186,-36,-172,-927,134,-53,-425,90,-188,-580,-36,-254,202,129,-198,-14,-88,5,-15,-61,-25,-590,56,12,-219,156,-173,-86,-263,-472
,19,-12,12,-34,43,-84,-169,-35,13,-12,-1,14,-212,-110,53,80,-122,-37,-47,5,-99,-46,-51,-82,-108,20,53,-9,68,-12,-124
,-125,98,-8,54,8,-92,133,18,31,89,-134,-51,-21,-71,26,-110,-87,49,73,-36,-44,13,30,-71,47,78,-152,-7,-16,-47,-168
,-128,-99,-7,101,-76,-122,20,38,-100,116,55,7,-119,-138,-121,-59,86,34,-37,-134,-89,-22,71,4,-101,-23,15,-72,-109,-61,55
,-158,134,-107,-65,-127,-104,-106,-128,77,0,116,104,-137,-359,-118,139,-209,89,-78,234,-73,-115,99,-242,-133,-145,-352,262,37,-65,-233
,-174,21,-129,9,-99,5,-119,19,-29,-50,-116,-73,58,-92,12,49,-35,20,-93,63,-103,41,-54,-72,-133,-114,81,-6,-43,200,-92
,-170,-50,-74,-188,-74,127,-192,87,-135,84,-270,0,-37,-46,-102,-94,12,-187,-18,41,71,-48,-86,114,93,-189,-83,-135,-66,0,-38
,-209,-86,50,-240,-232,147,-242,139,-137,-225,87,227,-163,-274,-17,-246,-48,83,-80,-37,94,-317,125,-77,-119,169,140,112,-150,-70,-314
,50,79,164,-54,225,-258,-78,-91,-97,-160,-106,-102,-125,-242,-133,-215,-236,-102,107,298,-514,-2,-371,167,-428,-53,136,-174,6,-191,-268
,-109,-221,-202,-370,203,76,-391,146,157,-259,30,144,-163,-332,-202,-7,45,-48,28,-127,-41,-154,62,-193,-46,-55,158,-52,-52,-18,89
,107,-309,-408,-150,217,164,-146,-302,0,21,-112,51,-257,72,-76,72,-18,-7,65,-81,-21,-195,142,-36,-38,-84,-192,-127,-164,-192,-860
,-90,-84,-167,52,-1,-108,89,-61,-77,-107,-173,-130,-59,3,-214,138,-179,40,51,-105,-154,35,101,-106,-2,-45,-202,197,-14,-154,62
,-46,-160,156,-104,15,-186,56,-239,-50,174,-611,-241,-45,-327,95,-96,194,-80,-225,272,-106,111,-98,-85,5,3,-95,-117,-71,-37,-451
,-120,-110,74,-56,-88,-42,72,-91,-85,-143,-57,134,-110,153,-792,-451,-307,-711,188,-296,-185,53,385,40,135,-236,-14,324,-411,284,-154
,52,22,-57,-3,-462,-86,-13,-213,-316,-118,56,74,-178,16,-131,104,30,10,-8,210,54,28,-153,-127,100,67,-304,27,-79,-51,-302
,16,-118,-38,29,1,-50,3,-26,145,-110,-298,39,14,-135,-148,174,-236,266,-287,-160,-42,-5,161,-78,25,135,-241,66,-116,-65,147
,-156,-198,5,-176,28,53,-99,-94,-165,-21,-20,-8,-63,-94,31,-88,40,87,4,-44,57,-47,102,-41,-98,-74,89,46,38,-136,-17
,-83,240,-9,-83,47,32,-220,-48,-166,-141,-338,-147,-223,135,-88,92,-159,-114,242,-12,-133,-264,244,-171,-176,-11,285,-117,48,-62,-15
,-112,-101,-50,5,-46,7,-23,-148,-79,69,45,-87,-48,-76,-107,-25,93,60,-99,-103,52,93,-83,70,-100,50,91,-46,-80,117,-33
,-110,74,29,-181,-52,-170,-4,-36,-23,-143,-68,-94,-155,-97,88,-52,28,26,-61,-60,50,35,18,36,39,-3,-73,-98,63,-38,1
,-171,-153,103,-93,-137,229,-73,268,-22,45,-257,-282,-25,-277,-197,-225,-71,82,-3,-85,11,86,-45,-20,18,-121,-81,135,-29,128,-67
,-202,101,24,-121,-467,-189,-30,-99,101,-161,-21,33,-234,45,-281,-7,-183,-107,40,-152,-62,-170,-66,-41,-5,-128,58,56,156,-12,102
,-137,36,-207,-35,142,-276,-57,-324,-261,-12,-128,-61,-100,-61,228,-11,33,29,-65,203,-71,-475,23,221,-6,150,2,-80,46,-313,-856
,-57,-226,-890,-55,-436,-74,-127,-26,-65,68,-842,225,-44,-351,-191,-143,-98,-123,-37,1,-102,4,-294,131,4,36,157,-119,-126,-13,-564
,-151,70,125,-6,78,51,-192,165,176,-108,-628,24,-122,-197,-353,-3,66,-107,-203,-192,-240,-219,93,-197,17,-464,256,-136,43,-137,157
,-126,49,-8,33,-177,37,-117,-103,-99,32,-183,-116,-209,72,-99,-34,-102,-119,12,-66,-74,47,87,-97,-139,7,28,-61,-12,26,78
,-19,-220,-85,118,-370,-185,57,-625,78,18,58,-406,-117,247,-59,-105,71,-150,-401,-223,-20,-81,-51,-96,-90,-67,-481,39,-156,0,-19
,-40,40,-165,-96,-91,-91,-105,89,24,-216,32,12,30,-147,-158,-144,-20,21,-24,-78,-139,-134,106,26,-102,89,-62,-122,-61,-78,-40
,-28,91,-46,-76,-32,2,4,-6,-118,-138,-128,-100,-83,-214,-124,4,11,-81,-93,-61,72,27,-68,-125,92,43,-23,-156,17,-34,2
,-91,-164,-80,2,-69,-57,-32,89,7,-216,-30,37,-44,-31,60,73,-121,23,-59,5,-28,4,-34,53,-26,33,-47,32,-59,-69,40
,-159,144,47,7,-400,-766,-103,101,-691,54,-366,-888,27,120,-7,70,-147,-60,-269,30,-128,-34,-351,-53,-121,-135,-190,-64,72,41,-155
,-230,-203,224,-126,63,-79,-199,-5,-14,-157,-78,-58,-332,84,63,-27,235,-88,-152,-48,-269,-257,351,-48,-61,34,223,-169,-274,108,189
,-221,51,22,-74,-37,16,-65,-45,41,-48,-133,-173,-142,40,-42,-78,-52,-27,78,104,28,-174,-141,57,-53,-67,-167,-96,131,-91,168
,-136,-148,51,-137,-132,-44,-154,55,-33,-139,17,-48,84,-168,17,-107,-63,-3,-16,95,8,-56,-14,-41,-119,-92,92,62,112,-77,-35
,-144,40,-87,-142,21,-119,29,-72,-110,-115,59,-164,-115,38,-101,-131,101,-17,-46,-43,71,-82,-108,4,7,19,-103,-142,16,25,-58
,148,-5,-53,188,-140,-16,168,-117,-83,166,69,27,-59,3,-27,-49,66,-7,-50,-47,-74,27,81,18,-124,-74,124,-60,122,-151,124
,6,-168,34,-185,34,-171,-254,141,-206,-154,200,-159,-232,-178,35,-91,-125,-111,-149,90,6,8,184,-129,-105,-134,3,-11,-39,25,-23
,-21,27,-24,-116,-303,-124,-101,-131,85,-144,-91,78,-205,-298,-425,-126,-253,-185,-494,-42,89,44,28,39,-58,66,64,-137,-105,-66,-261
,49,-184,-6,-144,-18,-17,53,-146,-118,-80,110,47,-46,-317,109,77,126,-309,29,75,89,-60,-152,-35,54,-248,-55,183,-216,168,-182
,68,-400,-83,6,-264,-319,79,-63,147,54,-56,-1199,-8,152,-88,-143,117,-385,143,-306,-202,-262,378,-188,30,-36,-55,-35,-50,-136,-596
,-53,-157,3,-56,-23,-113,-74,84,1,-97,-79,31,-140,21,22,-35,-80,46,-100,-68,44,-127,107,-14,61,-81,7,64,46,-51,-28
,72,-249,-10,-48,-145,-63,-103,-95,-114,51,-302,109,-21,-314,-197,160,-72,-21,-244,85,-23,36,98,5,-63,-190,-1,186,-125,72,88
,-65,-50,-170,-31,40,-39,80,12,-86,-13,-185,-36,-13,-22,-14,2,5,-41,-36,-131,-133,64,-33,-28,37,-107,-124,-113,156,109,-97
,162,11,6,10,-136,-29,105,-20,39,153,111,53,220,-126,-104,19,-94,11,15,57,1,-4,22,49,62,-67,-123,120,-17,-121,-9
,-194,4,-14,-87,-204,256,-44,185,12,-53,-188,-327,-80,-233,-207,228,-251,-25,-139,135,35,-224,-54,-71,-132,-52,128,-81,-112,21,98
,-134,-183,-51,-128,37,74,-7,-142,16,37,-20,14,-207,-96,-184,-56,106,-106,45,64,-256,266,-270,-68,-93,106,26,56,97,-298,-170
,-253,159,-63,-39,-270,68,83,-206,-311,-2,-150,137,-151,67,-64,-112,-78,73,-81,-114,-69,-126,-198,0,65,-174,-35,-66,32,150,109
,-105,77,-420,-121,-31,104,-259,-495,107,-153,129,-106,-208,104,-621,15,43,71,124,131,43,-167,-213,161,30,-72,26,-217,-77,-96,-153
,31,-201,-29,-109,-50,-163,-98,4,-103,-162,-123,-36,35,-97,-95,25,-29,-131,-77,10,80,-87,54,-42,-12,75,34,-14,-32,59,24
,-231,116,148,-169,-114,3,-152,-27,-151,-179,-72,126,11,-195,22,-87,-270,107,203,-77,202,-256,64,-99,6,-14,-118,16,353,-100,-297
,-245,-3,19,-79,-17,-153,-217,-110,69,-129,30,-142,47,6,-40,-30,-71,-98,-99,-8,-137,-47,71,27,74,-28,-40,-38,-52,-136,49
,-164,130,-33,-63,-35,30,18,-415,-208,7,-282,30,-211,137,-24,-96,-51,48,-167,101,72,-99,-130,-39,13,108,-124,-35,-56,-61,81
,-79,-179,-207,-197,-250,186,-27,-21,190,-199,-186,-150,-45,-132,-288,206,49,-224,-197,-23,42,-147,57,-231,-53,-187,37,3,-83,236,165
,36,72,-174,-136,-145,27,-1,-56,-236,-20,-186,9,-49,-157,-52,-38,-11,-69,-22,70,-144,-105,-65,-17,11,-111,-30,-114,-126,-108,-77
,-102,6,-129,-184,-213,44,-151,-104,-137,-21,-230,35,41,42,-10,-19,-104,100,-90,-83,-62,10,67,-55,-64,132,-152,-54,-101,183,178
,-122,62,-131,-142,-63,-174,-134,-11,-26,36,-197,2,-84,-106,44,53,-48,-96,-61,117,-19,-79,-176,49,27,40,31,-15,15,-134,62
,170,15,-219,206,123,52,101,-208,-242,0,-393,-270,86,-248,78,135,-158,37,-96,-74,82,15,-440,96,-28,-147,-281,84,74,-150,65
,101,139,-8,-200,12,-137,-102,-131,-123,-62,-163,35,-5,-67,-115,77,-48,-27,-151,-34,-57,17,22,-137,56,-46,-95,124,-175,12,-45
,-70,70,-87,-26,19,-17,-126,-6,-145,-72,-80,-96,-67,3,-87,-144,1,68,-99,91,-108,25,-88,-83,-17,-156,232,25,-179,57,116
,-220,271,-391,5,-313,-373,-163,-579,197,-173,145,-32,-259,163,-199,339,-239,-271,-49,-64,-178,149,26,10,-168,-23,-631,-176,-168,-206,293
,113,-1,-140,-111,-134,28,-44,-87,-199,-112,-6,-89,-64,-34,-132,15,54,-79,113,-6,-93,16,-42,-108,-141,31,-39,97,60,-53,-73
,-85,49,-119,-191,-202,-28,6,-200,-183,27,-108,36,36,-35,-37,55,40,63,-104,-130,109,-98,-139,-34,-97,-46,61,-54,-28,-81,156
,-204,75,16,81,-186,57,-124,273,96,-28,-236,-319,-233,-133,-197,-111,138,-148,228,88,-190,-42,27,-249,-361,-220,229,-149,-93,-194,-840
,-130,3,-137,-55,-29,81,-201,-437,-209,-39,110,-74,39,46,77,2,-4,-195,93,155,-78,-170,90,27,124,-23,-168,55,-49,87,-11
,-115,102,-3,-183,-79,-54,-178,-46,86,77,26,-112,-134,-120,-179,-1,-76,6,80,22,-119,-97,-79,44,-153,-94,94,-101,-138,-131,-139
,20,-37,-115,33,-352,59,-83,-126,-62,-37,-233,-228,77,44,31,122,-160,-174,88,-63,-106,48,80,101,16,144,62,-83,-151,-206,205
,-175,-159,62,-194,-213,-63,-249,16,89,-207,0,-202,-185,159,254,-65,-40,30,-93,117,57,46,-100,50,-342,-41,70,38,-96,3,148
,96,60,5,-61,-64,-12,18,10,-12,-83,-5,23,139,-87,4,78,-105,21,-45,39,7,21,-71,-11,32,-11,-20,-91,124,-116,-24
,121,-282,-19,81,-194,-215,-77,199,-27,2,-123,99,37,-156,-178,120,-13,-78,-167,135,71,45,-182,136,-90,102,-165,-70,-52,5,-157
,-3,-14,-192,23,157,152,-26,-18,-208,-53,-402,-167,21,-42,-313,139,-246,-84,-71,29,-64,101,-46,-27,16,52,-292,146,-18,-5,-122
,-262,102,85,-57,-87,-124,-25,-78,-13,-52,-238,-127,-163,135,88,60,-195,-79,-151,21,-34,93,-306,44,-38,-92,-181,-116,-7,-102,76
,84,-88,-2,-141,-126,-140,-89,-119,-3,75,26,-195,133,-41,-142,-148,-71,0,32,-64,14,-81,73,-27,-90,68,-6,-11,-150,77,-188
,70,-340,-84,72,-134,-182,76,39,-14,99,-90,-238,57,37,-119,-101,-117,58,-125,-55,37,-197,120,40,-37,-131,-431,-93,-49,39,-548
,161,38,-40,158,-15,-97,226,-25,41,-21,-61,64,-72,14,-55,109,0,30,-111,88,-164,24,-7,-58,19,114,-106,65,132,-27,-127
,-162,177,-98,-84,-191,-92,-180,125,-84,4,-153,-34,42,-274,210,-24,37,-97,-98,6,71,-30,5,-134,-39,95,14,-141,-78,3,-58
,24,-145,-102,29,-200,-6,-157,211,-15,-214,-207,30,-136,-536,-196,19,2,79,118,136,-71,-393,246,126,-93,159,-272,-186,21,-25,-183
,-231,-89,41,-296,-36,-314,-319,176,-48,-283,239,-23,-10,-135,77,139,-171,-125,71,73,66,15,-45,-198,-79,-5,44,137,-169,-101,-92
,-159,-76,-17,-192,66,59,-208,73,-1,39,112,18,-56,-8,7,-34,2,-36,48,-55,-158,161,87,36,19,-48,-83,127,-157,-7,-62
,-159,-97,-6,-203,51,41,-142,29,-54,-208,-30,26,-2,1,-94,-66,87,114,-30,-6,20,-49,-50,68,-42,-25,46,25,-66,15,0
,-13,400,-34,-10,-424,-373,-38,-119,-93,-150,-317,-315,-88,24,-143,-8,-230,184,87,82,-203,-107,-191,135,80,120,83,43,163,33,-298
,-166,-213,81,-234,-88,-104,-157,78,-154,-113,151,-80,-285,-218,240,316,2,-488,-162,163,32,32,-26,67,-60,-346,266,101,-71,-181,-74
,4,-77,-158,24,-286,-464,-58,248,156,148,-271,-185,203,-144,-97,-17,-94,-80,175,-74,24,-96,-475,-12,85,-169,123,-200,86,6,2
,-78,-52,-9,-21,-105,62,-79,-203,68,-85,-217,-38,-222,14,-87,-61,-98,-92,88,18,-17,-201,-61,-92,75,-81,90,78,129,-139,-91
,71,-172,-155,81,21,-37,76,19,-72,-159,7,-76,-170,-169,-129,-185,91,27,48,4,-101,-86,172,-129,0,-203,144,129,-91,-144,175
,-100,69,-16,-23,-12,-29,-117,-72,-108,25,-25,-171,73,-67,-162,-26,80,-95,64,49,-160,66,-109,-110,-82,-27,88,42,-50,31,-18
,-127,-106,2,-195,96,-121,-168,-21,-44,-114,-3,40,-108,29,-141,121,62,-112,-135,223,96,-218,-135,91,314,-258,-79,-169,-172,-42,-125
,-186,15,47,63,17,103,-193,-302,24,12,22,-234,56,-180,-79,-100,-229,-21,79,31,-158,110,96,-132,46,89,-206,36,-34,-80,69
,58,-37,-116,-118,5,-30,-66,25,-28,3,-230,-97,62,-13,-239,106,-38,-64,-135,195,-263,-177,16,138,19,-330,254,152,-234,-32,-117
,-72,187,-232,149,-23,-10,-35,-308,-103,-29,15,-531,-75,-236,69,202,-473,-87,-337,235,-518,-64,-800,201,242,-4,-221,-315,-270,-172,123
,87,6,-31,219,60,53,183,60,-36,230,-23,-40,137,59,33,-68,7,54,38,-19,66,-21,-53,32,-95,4,84,-50,-37,60,34
,-173,-331,145,-12,-36,-45,5,-295,-63,78,-378,-255,59,40,46,-107,-141,-63,0,241,-289,-27,139,-205,-220,-214,-87,197,160,-42,-134
,-208,-18,-22,-275,-37,31,-77,91,5,-71,97,13,-308,87,44,102,-25,-31,-58,-152,-55,-59,45,14,-97,76,-24,-77,-6,-23,-14
,-47,-107,-192,-17,-193,79,43,-7,105,-67,28,-160,-15,-158,-157,154,-126,31,133,99,-34,-52,-74,-27,-99,-178,-65,12,52,-23,18
,-216,293,-22,-279,-69,-82,-79,-254,82,-260,227,3,-72,-117,-90,-154,-159,49,175,57,157,-94,-312,-19,-88,73,62,-287,-34,-22,174
,-288,136,-25,-235,-843,-1407,-112,240,26,-59,33,224,-205,-61,-92,-113,-29,-27,-417,-263,-340,-162,521,-226,-175,4,307,-104,-151,-192,330
,-144,217,-62,-167,16,147,-144,-43,-346,26,-6,-305,-236,-80,-141,18,26,-167,83,-174,-35,-2,51,27,101,-224,-58,243,-96,-161,39
,-51,-256,-471,-126,143,-5,37,88,-307,-125,-142,-504,26,120,-41,172,-553,-210,59,280,-343,14,-591,2,118,114,105,-133,-124,-121,47
,-103,-145,-62,25,41,132,-131,-36,-43,-28,97,-21,22,-94,-111,-30,69,93,-143,79,-67,56,-167,28,-121,-6,60,-63,-45,30,-72
,73,-619,4,-113,-125,53,-42,-177,25,-216,-61,7,-39,-262,24,87,-145,-41,251,175,-151,-485,121,273,-71,138,-260,86,-140,-252,144
,-47,-65,22,-182,-265,-60,-85,76,39,-160,171,-63,-135,-376,51,-56,68,-79,134,-38,-54,-117,18,-98,-75,-127,72,-120,83,86,141
,119,-48,54,-48,-40,30,216,15,-19,23,-22,-39,93,-5,-39,154,85,-153,-81,-103,62,68,-39,-46,106,21,-137,6,-139,105,31
,46,-223,-3,-74,7,-751,-66,7,-178,-214,98,-34,-17,-1303,98,-138,-111,27,-423,-81,-81,-44,-214,175,-216,8,261,-266,-276,-46,162
,-62,-6,-186,-134,-95,-32,26,-43,14,-80,1,-120,-157,-121,-40,-14,-71,-22,19,-145,26,-34,-101,59,80,57,15,-119,-5,-9,-4
,-60,-147,160,-126,180,-200,117,-228,42,-49,-186,-160,84,47,-587,142,7,28,-275,-12,-79,182,-290,-46,3,-213,-41,189,-29,86,-58
,-112,8,-152,-26,45,25,-156,40,2,-214,45,2,-235,56,31,28,-27,-65,60,-132,126,114,34,104,-118,-155,-3,-134,74,-27,-36
,-139,-7,58,-59,111,-69,-194,-133,-245,-47,-93,-63,-40,-32,-74,42,-99,-50,-156,36,61,37,-21,-101,-107,62,-93,122,-102,-43,18
,-13,-112,-236,-141,-61,73,-44,-16,12,-182,-56,-172,-116,-176,68,69,55,-137,24,-78,13,52,73,95,-152,-23,67,99,-121,-93,-80
,105,-62,-308,-57,-448,22,54,-229,-188,-33,244,-353,-137,100,1,-88,-115,-89,-821,-100,-127,-137,-708,-85,9,-187,-488,251,7,30,165
,-181,13,-26,-179,78,103,-140,-65,12,-56,-242,151,-100,-379,-92,-62,-86,-83,-304,-181,-162,-85,-230,-180,-112,-259,-323,315,-294,270,-89
,103,39,122,59,-84,-115,87,-183,-140,-174,-472,-220,-13,-267,-14,218,107,-82,-158,-182,26,-75,-71,-19,-25,-72,-77,-14,-3,-113,-67
,-107,-171,-149,-135,-87,-133,-83,-66,31,33,-159,59,-113,-59,-21,57,79,-100,-155,-14,-6,-102,78,82,-173,54,-11,-86,-81,-10,-21
,141,-416,-143,-4,243,100,-55,-33,-72,85,-137,-339,-26,-256,17,-174,60,-98,-95,-11,-59,55,-154,-63,-185,111,-226,-25,147,-32,42
,-49,1,-63,-87,-32,-119,-154,-111,-13,35,-50,-78,-43,-153,-52,-98,-1,45,-141,-23,-2,80,95,-124,-146,72,-44,24,75,-11,-21
,-156,5,18,-18,-70,-131,-9,-50,-38,-53,-16,-8,-181,-61,-5,2,-126,-6,64,22,20,-8,-107,75,-92,25,-75,137,-118,-89,46
,-108,16,-3,-173,16,46,86,43,-44,-236,167,-17,104,-767,79,158,16,-128,-552,-168,-221,-181,-220,-71,179,247,-517,-316,-310,-274,242
,54,-204,-78,-55,-91,-128,-21,81,-66,17,12,2,-70,-120,38,-15,-5,-3,39,6,-125,-157,-188,4,-30,-101,28,-51,-138,48,45
,-114,-210,-183,60,-61,-82,13,44,-111,-167,-56,-125,-34,-25,-198,-56,11,80,99,-204,-188,-39,-65,-82,28,-39,-129,46,75,74,18
,-158,-212,-141,-76,-160,-451,-283,95,-700,-186,-369,-84,-114,-145,-229,152,54,136,80,-369,-55,-208,-564,98,83,99,139,48,-42,5,76
,-291,-25,160,-226,-80,99,-119,45,87,-185,-370,159,-196,-44,-119,213,-812,-446,2,3,208,85,-303,-472,-67,36,228,235,-553,231,-67
,-129,15,-29,-22,17,-17,24,-75,43,120,-312,19,-152,-154,-123,-103,-28,-170,107,-108,89,183,-87,152,-216,66,-56,168,108,-266,-134
,-120,-92,83,-162,-52,-61,-164,248,232,-132,-244,-228,-108,35,-686,-15,78,17,31,69,-304,-312,254,19,-160,156,-317,-67,128,-42,190
,-99,19,11,-142,-86,-132,122,-88,-126,-112,43,-7,-105,-49,69,-6,74,-33,-32,51,-26,-28,-85,26,-146,47,29,-83,-10,-21,-61
,98,-176,-54,75,-258,-114,48,-12,-143,-76,-513,-454,52,-465,-19,143,28,82,-22,-197,-212,-205,66,29,59,67,232,47,-160,5,-186
,37,-130,23,2,-218,-134,-200,127,28,-99,-202,-41,15,-121,-113,63,-31,-45,-43,-69,-69,-105,-100,66,-123,2,25,33,-158,-110,88
,-24,91,89,2,11,33,-77,-269,-301,-51,-341,-66,-72,-205,40,80,-152,-66,-145,154,-277,108,-4,-40,-21,48,-40,68,-8,-257,0
,-2,-39,-225,-55,-15,-56,-76,63,78,-204,-274,62,-15,-206,34,23,-275,33,-14,-119,-80,15,-80,137,-155,-30,72,-196,69,20,42
,-164,-37,-120,-4,66,-12,-89,18,107,-113,-110,-66,10,-125,-152,70,-121,-74,21,-99,68,21,-73,89,-52,-90,-184,135,-41,15,-96
,-169,-138,-195,52,30,-56,-52,-122,-2,-86,48,-58,-11,-89,62,58,-163,-80,61,-39,116,-72,32,-178,25,43,-116,-41,40,-59,-138
,-242,231,-109,117,-462,-83,-51,80,140,172,26,-351,-9,-410,-174,61,-13,-207,70,108,-35,-122,-139,-104,-9,-102,-86,194,244,-182,-16
};

long weight_1_T_sdb[2*256] = {
218,22,-292,12,-270,9,145,93,-73,77,-57,58,-442,522,-302,-36,-307,89,175,107,230,99,-197,126,-198,-9,210,157,-19,-61,-30,60,-208,86,-451,-84,243,13,-402,-23,54,99,-41,-169,-93,150,-24,20,-23,62,293,-11,-62,62,6,-41,-391,-550,98,-285,-33,-128,110,-489,115,223,135,-446,-207,-17,-30,37,203,44,-127,10,47,-9,780,390,101,65,-301,460,-76,72,33,-322,366,325,-436,-48,-107,-26,-340,-4,-38,-334,-239,-130,130,22,-308,-221,1,-349,105,11,140,438,155,-9,105,-84,-421,8,-16,290,341,-19,-111,249,-126,207,-50,53,7,-350,-26,69,-113,-105,9,-59,229,-172,362,-199,32,194,-173,135,183,-13,409,1,-30,436,-55,174,-593,-205,-2,-370,62,-67,6,-763,641,18,12,-96,77,44,-147,191,-462,-29,-66,29,121,358,126,42,-317,-65,190,15,174,300,49,-25,-6,291,-32,-3,-879,104,-52,-258,-166,-18,95,286,55,179,294,66,17,-57,68,76,-347,136,108,-43,-142,-279,497,-87,59,-58,82,52,180,-488,38,473,97,41,250,-389,86,-341,12,-437,22,29,-714,-107,390,14,123,-122,-312,-426,-36,-77,176,-66,-34,-142,-19,77,-274,-307,5,-260,-115,427,15,33,37,86,66,575
,-327,31,313,-35,308,5,-77,100,77,46,-23,45,295,-328,413,-57,171,114,-77,-183,-151,-228,206,65,369,-9,-144,-105,18,-43,-12,-84,173,98,484,-96,-122,7,327,-1,-88,-193,-59,52,-105,97,21,-140,73,90,-399,-183,152,151,12,-14,184,368,78,217,-67,24,-27,317,118,-237,123,467,188,-110,91,211,-292,58,-137,-40,95,-7,-423,-306,128,52,395,-385,-65,60,21,422,-234,-234,215,-34,56,-171,362,-8,-27,192,421,338,-54,55,351,162,-26,402,-154,10,-88,-292,-92,-7,-169,43,288,34,13,-144,-50,-85,-135,-36,299,-179,-22,18,-130,536,8,71,-109,262,-5,-40,-70,231,-255,227,71,-339,361,99,-41,3,-228,4,6,-181,62,-294,599,174,18,207,72,-66,0,623,-516,45,75,74,74,-191,126,-170,384,0,-130,5,110,-273,-126,-96,332,-40,-174,70,47,-273,31,-8,-14,-227,0,-21,872,140,-39,194,51,9,-100,-31,54,-212,-125,-75,48,-56,60,-29,243,-151,108,-40,428,407,-474,-91,70,-63,-194,38,-289,367,-2,-476,89,42,-322,437,-68,290,-30,270,-59,15,530,-89,-336,11,128,-99,178,238,280,-87,-224,-40,-70,112,-6,96,226,543,-45,267,57,-300,42,-101,6,85,80,-321
};

long bias_0_sdb[1*256] = {
-58,-2,-104,-27,-13,137,-16,-41,-39,42,-62,-83,-171,58,-205,-31,-182,-34,-32,-20,183,25,58,-20,-236,23,2,29,-168,-23,-96,-5,-43,-20,81,-77,-18,119,-106,-64,-27,31,-83,11,-87,286,-46,51,-13,-78,66,-78,-164,63,55,-114,-108,-132,-74,-107,-38,-41,-62,-183,-42,123,-28,-167,-167,-25,-147,-136,13,-91,-57,-52,-54,-117,804,-78,-27,-128,-4,-14,-140,266,-60,-121,-39,44,-94,-47,-25,-33,-24,-82,-129,-131,-273,-147,-43,-153,-108,-115,-17,-245,6,108,58,97,-54,-68,-32,-53,-60,-118,-158,94,76,-64,-44,78,-113,-26,33,-17,-141,-142,-171,157,-17,-120,-23,8,83,-61,46,-192,-23,45,-129,25,-75,-33,19,-77,-88,-21,-112,-19,3,-295,-14,-162,-122,-74,-183,-38,164,-121,-52,-27,170,-107,-80,1,-47,0,-59,35,283,65,53,-5,-75,-38,82,-40,-105,-20,-92,-50,-106,93,-151,-116,-120,-31,-108,-270,-165,-72,-45,65,205,-1,27,-159,29,-1,236,-99,-64,22,292,-184,-65,-253,102,-114,-52,-47,-42,-118,45,-85,281,45,341,-30,90,-288,-72,-87,-62,-127,-17,209,-94,-64,-30,-219,36,-71,-2,-150,45,-90,63,-36,3,-74,-132,-100,-59,-302,68,-275,-20,-28,-114,-25,-117,98,-27,31
};

long bias_1_sdb[1*2] = {
438483,-368706
};

#endif
