
/* Trace */

/**
 *  updated on 05/12/2023 18:12:57
 */

#ifndef __W_SDA_H
#define __W_SDA_H

char name_sda[] = "Trace/sda";

long weight_0_T_sda[256*31] = {
-143,106,107,-93,145,-26,-129,-108,-90,8,-2,2,-121,-114,-130,-23,-6,80,-48,-79,76,15,110,-134,-17,-141,34,-117,44,-132,-80
,109,125,39,5,-132,-53,-42,-1,-36,128,-146,92,17,-74,59,-95,32,76,43,121,-17,-118,9,-44,110,-105,-4,-13,45,-32,90
,111,-58,-53,140,21,91,-96,21,-140,140,-22,29,-99,72,-35,-72,31,132,65,105,60,-118,-13,-36,55,-16,-110,-151,-28,113,-32
,103,33,68,-50,100,49,-79,125,-99,-25,-41,-149,-1,82,-131,117,-20,69,-38,-16,-18,-1,-74,79,79,23,-110,-152,101,-110,-26
,67,57,111,-69,-116,27,121,-108,-144,-139,50,-89,-67,34,98,37,80,92,11,-33,-133,98,32,-36,138,-75,36,-27,64,4,-35
,50,-123,-134,-40,-119,0,-164,98,-136,-108,-66,66,19,91,77,82,-90,-9,35,81,100,5,59,74,104,58,1,-105,26,-18,-128
,-5,8,41,-88,116,-116,-50,72,-25,5,118,57,-77,71,-16,95,31,123,-35,-56,43,-4,-13,-24,126,-77,-69,91,43,82,116
,-12,-90,61,-131,-42,15,0,87,82,0,92,-153,-160,111,125,34,-22,-23,-2,-78,-89,89,-69,-17,98,-92,-108,21,99,-10,-111
,89,113,90,3,-39,-48,-11,-43,86,20,135,17,-93,-79,110,-78,29,124,116,-96,-11,117,116,-45,22,73,-53,129,105,50,-46
,-10,-42,50,113,-143,109,163,20,-100,105,104,36,-97,36,122,75,48,50,132,-61,142,-12,-113,-103,-92,-29,-13,-132,-14,-123,-22
,43,81,127,-73,10,136,146,-30,49,-4,-137,-72,-47,-27,62,-2,124,93,112,126,98,-51,11,-28,-56,-1,94,3,-5,-33,-126
,102,-87,57,-14,17,-87,-66,-100,112,-83,33,31,-70,-131,7,73,-96,-98,-49,-21,35,-90,-59,1,-57,64,112,7,-138,-143,-69
,-124,-130,-66,116,95,70,21,-94,156,-104,28,-56,-143,-10,-146,118,-81,120,38,105,4,-6,-112,-1,-29,-11,18,-26,-62,95,-99
,135,99,-135,-52,107,11,122,20,-88,-84,147,8,-81,-77,41,-27,-65,123,133,113,-98,121,-122,-31,50,28,-79,34,135,25,-137
,-49,12,-129,52,78,-131,5,-140,-42,-52,140,-86,86,111,6,-105,-113,-41,-33,-19,-14,127,147,-112,-85,-111,-78,-5,93,-38,-118
,-13,124,76,62,110,58,-18,42,-2,-110,-108,62,88,-90,-59,-63,76,-60,-93,9,-100,123,112,-12,111,-113,-67,-112,-111,6,2
,-120,21,70,81,-97,18,-84,-36,146,-104,81,87,115,-112,86,61,13,-89,25,131,-32,-128,-26,111,26,82,86,-97,31,-81,43
,107,87,-3,40,7,-98,60,134,112,-117,-120,-141,127,-103,78,110,-131,95,36,-119,104,106,53,51,125,61,-26,116,-103,-137,144
,85,126,84,58,-135,-47,6,15,144,-85,7,-145,51,131,58,-22,85,-96,-116,-23,33,-82,94,-5,-82,-31,52,126,122,-141,111
,107,-130,96,143,122,74,-117,44,-116,9,-37,84,114,123,-52,110,54,142,75,-28,-125,17,24,-115,106,-77,-129,92,-102,-60,60
,-102,17,143,6,49,-95,-79,-114,-132,117,20,80,55,129,-149,33,11,125,-40,-10,54,-102,-24,50,-7,9,25,122,19,48,79
,3,42,49,68,-90,137,95,-59,-89,-39,75,17,151,-111,-35,-12,-37,-9,-55,31,126,-3,2,-28,110,121,52,-120,-83,28,-21
,-128,-32,117,95,21,112,24,-89,-15,71,-40,59,117,15,-50,120,-1,105,46,81,-85,-50,-120,-93,-90,-24,3,-3,-37,-38,-59
,-32,-86,-27,4,132,-119,-42,135,-21,1,96,103,17,63,-75,-56,22,69,136,-88,-96,-66,-60,-91,-143,136,-88,88,-3,75,-2
,-75,126,-61,31,-44,78,101,78,5,-53,74,-81,14,133,-97,32,65,-134,44,-80,-136,80,58,112,29,96,-115,122,121,-46,106
,79,51,140,10,57,122,-64,-56,47,-54,55,128,114,-79,12,-129,36,99,49,-38,55,21,-53,9,-125,58,-12,-102,-4,-132,140
,-28,72,-21,141,95,137,99,97,-27,-18,-97,-82,-83,67,23,107,148,126,-40,47,-132,134,-128,10,-34,-34,71,-35,-61,102,-21
,24,-153,-88,-81,-99,-141,15,20,38,-140,-114,118,46,84,111,34,-65,-39,-67,108,-12,-112,81,33,-85,93,-103,-118,-80,125,-85
,-66,144,80,13,106,91,100,-27,138,-78,-108,-96,-36,-94,-46,-25,90,64,-90,-34,56,-16,63,105,111,-106,-15,129,134,115,-30
,74,-85,-12,34,141,-121,44,-72,-81,-69,58,-70,-25,-108,123,-19,64,-82,72,-84,-74,-44,-19,-90,-35,101,-86,132,60,145,-54
,-109,-80,-84,53,52,159,59,-129,43,89,117,-28,99,-31,-37,-33,-179,-50,-54,-34,-119,-72,93,-10,71,-129,72,-107,-24,6,142
,-45,131,-126,53,-132,-5,5,123,-139,133,-114,34,-137,-41,-20,78,-16,-148,43,-49,-83,45,-117,-136,-24,-33,-113,13,60,-24,-108
,-110,-148,77,6,18,57,-48,-166,56,116,89,18,-138,-12,137,73,66,56,55,9,106,-79,-95,-118,63,34,139,-104,-100,-122,-77
,70,25,-38,-68,-124,102,125,129,114,138,14,35,-17,68,-78,52,-37,-160,-119,-55,-6,-72,-115,157,-57,-130,-77,89,-73,-50,57
,103,118,-70,-113,129,-141,-99,70,53,-65,-118,128,64,-32,27,41,-17,55,-121,-95,-110,84,74,26,3,57,25,-87,-91,45,-21
,25,98,-42,12,47,108,24,60,-122,-40,6,97,154,-80,75,-161,162,-78,47,69,-90,-90,-59,-39,-95,20,97,-27,175,-45,1
,-61,28,-106,25,-24,-68,20,-72,115,-18,49,53,129,-98,-138,-29,-67,-65,106,-104,13,-7,-80,-92,121,5,-2,116,-102,-103,58
,-71,110,-118,118,-149,-71,-9,-134,-72,-116,44,-119,-34,-4,105,-91,-61,98,84,-130,-63,-95,108,121,124,-56,-49,49,-14,94,-104
,33,-13,-63,-81,-140,3,-39,-103,7,17,-9,-105,-29,-75,-130,94,-137,-113,-116,-79,134,77,-82,-46,33,-111,88,17,60,-122,-55
,48,-152,-35,-63,-132,-13,-63,-62,-145,-112,87,108,-66,46,90,-101,-36,-155,-157,5,-102,-27,73,-90,-42,-135,-15,11,68,61,45
,88,165,-5,105,-33,-44,0,-106,173,96,-20,-116,-91,96,-74,-76,18,143,75,-54,53,-24,-131,45,-170,-91,-119,-59,-35,-171,36
,-112,-164,-117,-91,118,-55,-69,-133,104,-65,117,58,-99,18,20,97,-122,-36,76,-10,70,-3,57,-62,-74,131,-94,-137,77,53,113
,-18,-44,135,33,60,59,4,0,-35,-89,42,-23,32,95,-15,1,74,-123,-129,-35,88,-70,-92,42,-94,68,-69,-113,-61,74,-45
,-49,-13,-137,-114,-81,-113,-10,-78,88,127,57,111,-43,-146,-108,-106,-106,-42,28,39,43,-16,33,-96,-51,64,26,-102,-29,-120,55
,-110,-49,57,-120,105,86,-105,-15,-115,142,65,67,-136,-16,-136,-86,-12,9,50,37,-13,-10,-139,-97,-67,-127,98,-63,-122,-118,-20
,-88,16,12,-168,-6,121,-114,-110,-63,-81,113,-80,-13,-31,0,-138,134,143,13,58,27,-79,64,-119,-24,10,-28,82,-121,133,35
,-82,81,123,110,8,-34,122,59,5,-94,-23,82,9,-11,52,75,-119,-63,-12,-87,34,107,133,86,69,102,-62,93,-64,95,63
,-28,-94,-71,-149,-101,71,-47,-13,-95,-42,-31,44,-122,2,26,91,-138,57,81,1,-127,98,-7,-126,135,117,61,-181,-125,-61,106
,-38,53,-158,29,-133,16,-118,-18,0,-171,-102,-93,-134,-10,55,103,-57,-145,-139,-6,74,24,-118,18,18,56,69,123,91,1,111
,-87,20,35,-44,-140,58,127,79,-91,-77,-83,-83,-34,0,198,-111,-150,121,152,57,59,-112,-44,-35,-34,114,-36,52,0,43,-88
,-51,-84,100,-18,92,-13,-40,-123,38,-87,55,72,-9,27,-19,37,107,-94,-89,91,54,29,-147,-135,-129,107,76,6,-6,-164,71
,-14,-99,2,73,84,-110,-37,-79,107,-113,52,70,122,-16,30,-99,-96,81,10,38,127,-118,142,-147,-49,-1,-126,148,-88,55,3
,-95,-81,53,100,-26,-109,-74,-105,40,-96,-143,112,73,-93,103,13,-18,-1,23,72,-133,-123,126,53,93,96,124,-122,114,-107,-58
,137,13,66,-104,-110,-60,108,86,-83,116,43,156,22,-14,-27,-30,-26,94,-90,55,16,103,74,1,6,10,49,-63,-38,-88,111
,-12,-76,-21,26,97,114,-23,13,60,61,90,123,-19,-133,-20,127,85,-107,-6,92,41,106,-17,-124,64,-28,61,95,68,106,69
,-55,-27,-101,28,126,43,-122,-80,50,16,-96,-57,-78,-127,98,119,38,-24,-128,-94,-29,112,33,124,-79,128,-87,67,35,87,111
,-31,147,-87,-23,66,65,-69,138,143,-97,89,40,103,-14,91,-36,43,114,150,-129,57,-84,62,77,-131,-18,33,120,110,79,87
,-207,132,106,-156,-31,-65,-157,-118,-15,-113,78,-57,-64,72,-27,103,127,-70,123,80,-100,-33,40,-73,-24,114,61,-2,-31,-64,-104
,-2,-7,-116,-111,-20,26,142,9,-11,-122,-44,-99,116,20,-17,-11,-113,64,-82,67,97,53,-122,30,56,-38,-143,-66,-8,-126,-62
,82,104,129,3,-88,133,16,70,65,-27,37,-38,-105,57,-135,-112,3,43,-2,-134,151,98,29,-60,-37,105,87,53,-17,105,-65
,-151,19,35,-134,-52,-151,118,-40,86,1,-71,87,56,-88,-76,-49,8,32,79,28,34,110,-102,144,105,122,89,44,20,-111,76
,-88,-61,33,-106,-3,94,-66,-36,46,-54,129,57,-39,114,137,52,-2,23,-118,-7,-44,27,-3,135,-33,32,-72,-134,36,-69,135
,76,68,20,93,23,-36,-61,-12,-52,-110,49,-140,104,-177,100,111,131,-122,-100,-80,46,69,48,-121,-34,-68,-89,128,54,38,2
,-18,-90,36,65,-9,61,79,26,-27,-137,-85,67,-47,-27,-5,-103,120,10,82,-22,-28,32,113,16,93,-28,72,-81,32,-17,78
,31,26,21,57,-46,-139,-125,104,-139,113,112,46,128,-74,32,-91,32,76,-89,53,-81,-15,-98,149,105,-13,59,-9,115,-19,-63
,-30,14,36,-118,-109,108,38,30,131,-17,104,58,-111,-78,-140,22,38,-31,-16,129,-31,67,-76,-66,-131,-155,109,78,40,-46,56
,86,-32,-7,-55,69,23,137,124,94,-63,-110,50,87,-13,-26,-39,-38,-68,-8,136,118,0,90,-108,-69,-128,-28,40,-124,-88,-25
,-57,-35,109,-37,118,126,-12,66,-160,125,78,-85,-24,-25,-83,64,-77,-157,-21,63,-154,55,96,10,-88,-43,-27,26,-190,-87,19
,-108,-106,-52,75,73,11,-65,73,-131,67,129,-91,100,-44,146,-47,-1,-106,57,-120,108,111,93,-53,-96,-51,-40,-16,89,46,-100
,42,130,19,-130,-7,14,-134,-64,-47,-45,116,71,132,-61,32,-39,-40,-11,26,1,-2,-46,69,93,-106,40,-47,-5,1,95,-37
,117,45,99,-42,30,-91,-97,93,-10,2,109,73,89,-146,20,115,-12,111,26,32,63,-54,-127,121,-37,41,48,-61,1,81,-58
,-14,145,-117,-11,-112,-117,99,117,33,-29,-65,-68,151,-55,78,13,37,-74,9,48,121,-109,-56,104,98,80,27,-42,64,6,-57
,66,76,117,-85,77,103,135,45,-78,119,132,143,8,136,24,73,54,-64,71,33,-17,109,110,37,-28,119,-3,-50,-32,-74,-73
,-117,122,55,135,88,67,-41,62,-52,-43,-104,-103,109,102,-24,-102,136,-113,-96,-39,-17,54,91,75,-119,15,91,-11,-10,-14,3
,27,-21,22,124,-104,-30,-54,-121,-35,-115,-36,-47,126,-91,-6,-2,44,27,-38,-123,96,143,-9,-61,121,-18,-12,138,-104,119,137
,-6,-118,-53,-10,92,-45,-77,-130,18,28,110,-1,116,60,4,26,-51,-102,-53,-113,64,-22,-41,-35,-92,-128,19,29,-118,-90,75
,-56,-8,119,26,20,30,-58,0,-133,-50,-69,27,51,-99,36,-20,135,-57,139,72,-4,-31,-14,-26,-2,67,-109,-22,-2,-119,78
,-43,106,123,120,119,55,43,-32,-133,-119,-50,-107,97,62,-114,-125,60,-97,-42,25,71,116,15,87,-12,-125,-106,144,-6,77,107
,110,-117,-102,29,35,72,28,89,116,-17,-75,153,100,-15,-14,126,-29,147,20,121,2,71,-12,-105,90,116,94,-26,-52,-112,126
,135,27,12,66,109,1,53,123,87,138,118,-22,-16,-44,-13,-75,-52,65,-102,93,-8,-84,-14,-88,-103,-78,-10,117,-100,-182,-26
,-152,99,107,-38,-101,104,19,74,47,7,53,88,16,103,-56,20,132,48,-123,29,-56,-51,-70,65,94,-17,124,64,-52,-76,65
,-44,109,23,-52,-179,-152,-76,117,31,176,-59,-19,71,-45,-78,147,-16,15,-55,100,-9,-49,-45,12,32,-86,137,-174,23,-102,83
,122,-86,-76,69,-27,-69,44,125,-60,-101,-29,-46,-83,-26,147,133,123,-100,13,15,-103,46,62,24,134,41,-55,-56,-19,22,-72
,-14,91,169,-53,-228,28,-213,122,129,88,-223,10,29,-224,14,76,34,-186,-20,-31,-11,-63,-102,118,-11,47,-64,-82,101,-178,94
,13,-97,-66,-68,118,43,-97,-10,26,-61,-79,75,-29,-60,110,135,34,-80,118,74,93,109,44,-10,93,-145,-77,-108,14,-89,-43
,42,44,-124,115,-112,-73,17,57,3,88,16,-76,154,58,78,82,35,-27,-91,31,84,51,-65,41,71,-13,-116,-148,91,-169,116
,49,130,145,51,132,127,-59,-40,63,36,-9,-69,89,-13,38,-97,127,106,-7,77,21,136,-43,123,71,-58,-125,42,-125,-77,121
,-54,-132,-105,-15,-76,-123,-138,-49,-55,-22,-37,-96,-121,-89,12,97,-21,-131,-16,128,-100,-100,-60,38,-39,-79,-83,-79,39,138,108
,-18,124,-32,124,-53,104,34,-144,-70,-58,-7,97,56,-114,-122,-28,15,-34,-16,92,86,109,110,84,41,-102,-4,31,-40,83,-97
,3,56,33,71,111,-32,98,-162,80,67,79,-149,-135,-134,-66,3,86,34,-63,-154,30,16,97,-148,-125,-103,128,28,63,23,125
,-138,21,-35,61,-139,116,-49,-132,28,-35,32,-41,106,-110,124,-76,-65,57,-3,-51,-15,-12,92,46,93,25,-153,-89,-92,-156,-159
,133,14,139,-30,124,68,-126,-26,115,-6,-14,-63,25,67,-100,111,39,103,104,73,-104,139,125,-37,88,139,72,-55,128,-111,27
,-35,-89,-23,68,44,62,7,108,-83,-6,41,-97,-54,18,-143,21,138,30,45,-142,53,92,-136,116,2,33,1,-17,-31,-124,-135
,24,45,100,-15,118,94,-137,107,33,131,10,-115,126,100,98,83,83,-93,6,36,-89,16,-101,13,-41,116,83,108,-27,129,27
,112,-109,122,104,-6,-6,-33,-98,135,-114,84,61,140,-132,-24,139,134,88,-134,4,-92,115,104,87,122,-145,-3,-67,96,34,-23
,31,24,-69,45,-46,-125,73,93,-61,82,29,-15,19,16,-143,-26,-153,75,-64,112,-81,-41,1,81,-85,85,137,-137,-82,-72,-40
,27,-2,-107,145,-15,-108,53,118,76,-6,-110,124,59,23,9,-36,-195,49,-179,-129,-72,-11,-111,-55,-134,-106,35,-43,-78,-94,81
,-20,-131,75,-18,69,96,-36,67,131,119,2,-120,109,148,-89,-119,58,124,97,-89,27,40,105,-121,-126,56,86,113,-21,-104,-58
,-156,95,-100,-137,-93,-30,-11,-66,-99,-48,-25,110,-74,-59,60,-15,-143,-147,-160,-113,-73,111,-153,-11,-21,71,-1,-14,-19,51,-3
,-16,59,134,-138,-114,-11,137,96,4,80,-15,-14,-116,-137,88,-90,78,-81,2,123,39,131,3,107,-63,49,32,-134,-40,-126,99
,-109,-53,-45,144,59,82,-57,114,-52,81,-23,-52,-57,-93,-87,108,-31,133,-13,-92,26,-81,78,120,114,-1,-5,137,-18,98,41
,126,93,102,-65,46,24,116,-2,15,-7,87,-9,-91,-138,33,58,-106,104,-57,-66,144,-36,90,-116,142,86,-137,-133,14,82,80
,74,-19,-17,-39,15,-50,64,15,118,-68,94,104,-50,-75,62,3,-93,179,-49,-81,-76,-131,98,-5,-40,-3,59,-57,-114,-31,1
,-14,-41,39,12,-24,-52,4,-136,-138,-113,-55,-29,55,21,-29,-132,96,-18,43,56,15,132,-72,-87,22,118,-41,-4,-16,-86,-1
,14,68,86,-88,116,33,13,118,-98,-93,-108,-96,-108,81,83,-108,-104,-74,30,20,115,-95,40,46,-21,-132,81,44,-89,-100,135
,27,-28,113,-127,74,120,-149,107,21,-95,-78,-93,-64,-96,50,109,-148,-44,53,38,-49,97,19,55,-66,49,115,58,-9,-55,-18
,-45,-25,25,129,96,54,-121,-65,-124,69,127,-48,-111,-75,59,-30,-142,59,-76,55,-45,39,92,-96,46,38,26,95,-89,-162,87
,114,73,-12,-11,-132,-96,-114,-19,-78,33,-98,-138,13,-48,37,-95,53,-133,-149,115,12,104,-25,106,-98,105,83,85,107,120,67
,-41,45,-38,69,-64,50,16,-124,64,3,96,48,-145,54,-12,-1,6,79,-125,70,139,-132,37,-66,68,-104,-131,102,-20,-25,-77
,25,-104,-37,-136,60,13,32,23,1,31,-153,-101,32,134,134,154,-13,58,-40,-20,137,-111,101,-108,-115,-130,57,38,-68,-50,44
,27,141,60,-95,60,130,-3,-52,-137,71,120,44,-66,133,-56,135,-91,-61,-129,-3,-75,114,-93,-28,40,-28,-5,-116,-31,-14,119
,36,-78,145,-69,-81,75,65,-166,80,107,-20,-119,-15,-84,185,-105,36,-66,14,55,-28,-45,108,-46,67,40,-98,-50,105,-29,-50
,37,74,117,-88,26,-45,80,-119,-56,-65,119,65,-31,-108,115,116,9,50,-126,99,-142,71,65,80,-87,6,109,-29,-66,98,-73
,-161,-46,-59,-122,-94,69,-39,-46,-6,-73,-102,-28,-113,138,-45,-87,112,-82,102,22,-135,116,8,-12,139,24,126,42,118,146,-12
,27,96,-19,-92,76,-92,-136,-44,-99,44,-137,-97,-20,46,98,119,118,-59,-116,7,68,-110,38,23,-93,109,-53,-115,-82,-141,55
,-15,108,-47,-8,-27,-193,-30,48,-30,32,-13,9,-68,-123,-47,92,19,130,-122,33,-35,128,-151,39,21,-18,-27,142,-70,22,6
,-156,-153,-98,-145,16,60,83,-91,6,-120,-25,114,-128,-19,-72,86,-70,-3,-131,105,-135,-26,-75,-86,-134,-76,-151,-40,97,95,104
,26,-114,-87,97,93,-109,68,-40,-25,-134,135,51,132,13,-47,-126,-29,-3,-103,-20,-72,101,-42,125,144,-44,133,27,-22,85,119
,-126,77,45,43,-117,-33,95,-34,90,13,114,-149,-23,29,-92,-83,18,132,-93,-92,7,-69,22,37,-94,-118,-63,-98,125,-65,-67
,70,-101,-69,113,31,-5,-53,97,-136,-123,-28,118,-13,123,66,73,53,93,-116,78,84,-34,-56,121,101,-144,66,21,115,-130,-44
,-105,-61,-76,-67,23,65,-130,-80,124,-66,93,54,-136,-150,-8,129,-83,68,105,-84,-43,-144,73,-145,-141,-122,-125,-39,-20,-147,-77
,-108,-109,34,-23,-105,-149,-104,-7,103,-18,82,-5,137,-148,39,-7,95,8,25,77,102,-78,-76,105,29,-31,90,51,-27,97,43
,-58,-152,131,2,23,76,-99,17,-31,23,-146,142,38,65,-2,-109,26,119,-104,-97,-60,-90,69,-14,137,49,-126,149,-10,7,-115
,-98,164,4,31,108,-72,-164,16,-20,59,147,135,-128,-132,30,-61,20,-35,-136,8,-94,-5,-124,33,82,47,113,-78,-145,76,-91
,-5,81,-5,104,111,11,-1,86,138,87,-105,76,63,89,117,108,-134,50,-97,99,97,-67,84,4,-117,26,-128,61,-12,141,-12
,-111,-99,53,-88,-89,-53,18,-17,-86,111,56,106,-93,46,88,15,-30,34,6,-100,39,90,-105,-98,65,76,-220,-77,109,-157,87
,-64,124,101,-122,-89,-94,-129,104,-56,-119,-31,94,113,108,-152,96,-62,100,42,-126,31,59,-150,132,63,67,-126,74,113,-124,-43
,126,94,74,119,-2,67,-116,-139,55,72,106,-110,109,115,88,110,-5,135,-21,121,68,-54,-62,-73,128,74,83,84,66,130,89
,67,-60,-90,67,-98,33,67,99,-192,-115,69,31,15,-16,-125,115,-32,51,64,-87,-45,-181,-156,-186,-118,-113,120,90,-14,25,106
,-73,46,98,55,-55,88,-122,-25,-6,38,139,-88,-37,16,-138,-47,94,-81,28,-44,84,-121,25,-36,82,-16,4,-111,77,71,134
,-137,3,-144,6,-142,36,19,100,-130,-91,19,-4,-140,40,133,-10,50,-120,-99,7,14,86,87,-50,94,59,-136,71,88,74,8
,-134,6,-98,23,91,-84,70,95,-23,47,99,45,127,-90,-41,35,-106,27,66,67,-49,-82,31,103,-106,-101,38,-108,-12,72,93
,-86,140,129,-82,-113,149,85,106,115,88,55,-68,-100,-23,-91,-91,-154,25,-135,118,-80,28,134,107,-13,-54,-159,-46,83,-1,-120
,-16,84,22,140,42,-97,102,64,79,1,4,-58,-63,36,149,105,-79,-123,122,-92,-27,12,-55,-33,115,-65,73,73,105,3,-118
,100,7,97,82,-113,-32,-89,-24,-71,-136,-31,-39,116,-146,161,-25,-164,138,-84,20,-6,-75,-64,-19,-26,80,68,-46,95,110,41
,-139,57,51,-154,86,82,-76,-51,108,81,-67,-40,44,72,-27,40,63,37,-124,88,-21,21,-14,-18,-133,-139,135,-158,-96,90,0
,-131,101,98,-97,-104,132,-71,-73,80,36,-58,112,115,92,-43,-112,-141,-66,64,120,83,4,-10,55,39,10,-40,-81,105,-141,-119
,114,109,52,-16,66,114,-95,-43,-13,15,29,-59,-91,133,-39,-115,-39,-21,74,-56,101,26,4,52,-128,83,-82,67,-89,-97,14
,-111,25,56,43,-66,-120,71,-113,-97,-42,79,-56,105,50,107,-94,85,72,151,130,138,-92,-53,143,-132,12,-1,-148,-19,107,-122
,88,-81,123,74,-47,12,-88,110,-7,-59,-83,101,41,27,-16,77,-95,127,-150,7,-100,109,72,-44,76,55,128,11,74,115,110
,-41,61,-115,108,-7,-117,67,-61,76,-145,-24,81,-11,47,-42,17,-50,24,23,122,-8,48,-99,96,64,-42,-42,126,47,-70,53
,130,-42,-15,-62,37,-113,82,-60,129,113,-60,-103,-98,127,21,131,2,-55,-121,90,112,-23,25,78,126,90,129,-88,84,-50,-59
,99,-30,-66,96,106,-135,71,-63,-99,-97,108,-112,49,95,24,-125,130,52,-15,-55,89,43,-89,113,-1,38,82,-43,-6,-13,-122
,-56,-101,24,8,43,-8,26,162,25,77,-49,102,122,-88,79,-115,-224,-85,-197,-15,13,116,-118,-169,82,35,-95,-129,150,-186,-122
,-103,-72,56,-74,-31,-136,-99,-8,-90,-79,5,29,12,-10,-90,-130,32,-4,-75,39,-116,29,11,-97,-119,-12,105,-17,-110,-22,85
,-134,-18,125,15,34,-75,141,102,64,71,-32,-107,-129,112,-140,141,86,-31,-38,-37,18,36,-67,9,98,-59,-90,46,-15,-1,49
,-41,-31,105,-177,73,5,-226,-112,1,-80,9,-60,-34,-223,-159,-132,1,77,115,-22,-50,128,86,-55,12,47,121,66,-1,-66,-137
,120,-29,-111,-137,77,114,13,79,40,-2,22,-90,39,155,-107,27,93,-126,-75,94,-39,98,-130,-102,116,37,-105,-241,-195,-36,103
,-88,140,-104,130,-13,-117,17,-80,130,6,49,63,25,37,89,48,17,52,-88,-96,85,11,84,-137,18,84,43,-1,-93,-134,-45
,-142,81,-80,-70,-7,-75,-141,11,-61,99,84,93,-159,-26,54,71,-95,26,34,-59,-33,20,-25,-113,-110,-38,11,-96,-130,-145,16
,152,87,-112,-91,-149,164,-82,-59,121,-111,-97,-2,11,130,-52,-13,135,7,-120,-117,39,124,-79,1,-12,-11,-13,-2,-82,52,-66
,130,-52,-3,46,-32,68,-115,66,-124,39,-128,107,52,-19,-62,128,-68,114,97,62,-15,-153,114,-125,-33,133,-130,-157,-115,-95,-168
,-85,2,-123,-87,-70,-89,-38,-6,48,-164,3,-34,-80,104,-35,33,14,-77,78,-171,157,27,-132,-77,68,73,-13,36,-99,113,-6
,14,-49,-30,-61,17,67,50,52,92,28,54,53,109,-72,133,-94,14,-108,94,-85,53,-139,-6,121,119,97,116,-58,52,-93,70
,-38,5,-32,88,-42,-175,-96,80,-45,168,41,137,-48,-71,31,-115,-122,-152,-113,-46,40,98,83,56,11,-138,62,54,8,66,-71
,46,-142,-58,48,58,51,151,-68,71,-51,51,38,112,-44,-95,-132,45,-129,-4,-22,-62,25,49,-122,-49,-125,123,30,115,58,-111
,-93,87,-138,-160,123,108,8,-44,-45,-8,26,93,80,35,-13,-118,58,-115,-104,112,131,18,-24,100,127,-136,86,-111,-111,20,-33
,37,94,-86,-17,110,-15,44,-80,-5,48,93,-56,99,125,-175,87,69,108,85,-110,124,-125,-132,125,-28,-28,-98,-126,-124,9,-60
,-86,-105,81,-120,-33,47,-60,75,88,23,-131,-52,-50,-179,-82,-141,-72,16,104,-29,137,49,-85,-35,2,-55,39,34,114,46,-33
,-115,38,141,30,125,12,3,-61,105,-75,-2,-12,-21,37,-72,-21,111,-104,-44,-4,91,21,-24,77,-9,80,85,55,-144,47,-44
,76,124,-39,104,-112,-101,-122,73,-55,-50,-122,-52,-94,-62,44,41,-41,139,51,64,38,88,32,14,-125,-24,112,130,-76,-25,-71
,52,147,-18,46,56,63,125,87,13,81,98,136,75,70,-55,16,133,54,-78,60,-86,-21,34,98,-96,-144,-66,-133,-85,71,-140
,-105,48,-97,-28,-25,40,-131,-121,-146,-45,39,-127,18,17,-44,-114,86,92,-105,91,49,-60,-84,67,77,44,-167,-149,36,12,109
,45,-140,-110,-118,-20,-21,10,95,-48,45,129,-19,7,-89,37,-38,79,141,101,-119,-25,133,-27,-135,-157,-31,84,-58,-19,-137,-41
,-153,-1,19,-117,-106,-2,66,114,-157,-45,49,-141,-152,85,36,-19,-89,-24,85,-2,82,-68,-42,51,-104,-139,-115,-123,-38,-6,3
,45,139,-106,-13,80,-25,-51,149,118,-38,117,35,70,61,-50,130,45,108,-131,-70,-26,147,16,137,-54,154,-9,133,-136,3,-111
,-87,140,-85,-72,-66,-59,-3,49,10,-16,-88,85,-97,107,95,131,9,-69,47,-8,-78,104,-38,-77,-67,126,64,65,78,-15,-117
,125,34,-110,17,-84,-17,31,58,-112,-92,-113,-99,121,55,-12,-30,-5,66,118,-96,124,-53,111,-26,13,-112,-60,86,68,-24,111
,-55,75,-42,-112,18,137,-66,-22,-84,88,58,107,29,48,96,16,9,-44,-13,-150,-102,7,-100,-127,12,77,20,-148,64,-63,58
,-153,29,6,59,133,37,-5,-92,68,14,-41,-196,-137,12,96,50,-34,88,-42,109,24,158,-154,-47,-103,6,-44,94,-23,-26,-143
,-67,-7,-133,-56,-1,-154,83,-77,-131,41,-40,62,51,32,124,130,-69,117,-70,32,-29,-99,115,151,50,-132,-29,-54,-166,119,-130
,114,-99,-98,-24,26,32,-61,79,24,124,11,34,85,81,-34,12,63,111,16,99,80,-5,28,-78,-64,-99,-96,-126,59,-134,-67
,-225,34,16,-177,135,24,-267,29,-79,-218,90,108,-61,-80,-139,-1,87,43,-129,31,55,-36,25,-100,-31,-94,63,-95,129,-92,68
,122,103,-164,17,-120,-54,-36,98,27,-141,-104,84,-2,83,91,-42,-112,35,-73,-5,-113,-100,92,87,-112,102,17,109,22,105,11
,52,123,94,-55,77,94,-5,94,113,-146,25,-134,-22,-33,-97,104,-144,73,-154,-132,96,78,-91,-103,108,58,-104,-50,-71,-124,-12
,6,-66,-97,-75,9,58,-13,138,-47,149,-42,-33,52,122,-43,-29,107,43,21,86,69,87,-140,91,-91,-56,-14,123,-55,-127,-37
,-3,14,27,-92,67,126,111,-101,35,-46,67,1,31,-186,55,-95,-57,62,78,108,116,-83,-139,52,55,-147,-2,18,-15,-25,13
,-73,-38,-20,-126,-111,114,22,133,117,-51,131,-8,-37,-40,-98,35,61,99,-40,-64,-38,-147,134,76,89,-31,-38,82,35,69,113
,-15,-90,-137,102,-49,119,-11,12,-59,-15,-107,-26,-117,-92,-86,-108,-23,-39,-69,-128,130,114,-148,-51,-93,29,-33,110,-130,-86,76
,-74,-132,84,-1,-129,-96,57,56,42,-153,16,-104,-26,115,47,71,-74,132,106,-42,-107,97,15,67,-29,-40,22,102,40,-32,-115
,-90,-81,-23,-86,91,40,52,106,-90,-74,50,-5,-111,-92,-99,-45,-145,-40,118,54,-17,138,23,49,76,-1,127,120,60,-124,-2
,42,116,45,54,-81,63,-134,36,50,-132,125,87,-71,-90,86,-62,124,49,-90,139,-106,-15,-7,35,73,36,86,-20,-142,-59,-29
,13,86,84,-89,37,-171,-94,2,-158,156,-55,82,-8,-42,87,-80,85,-172,-82,87,-64,-35,-22,100,-69,-71,76,6,13,137,-81
,-40,129,-19,-17,23,-15,-128,-71,-61,-132,6,57,12,-122,-123,-110,38,-25,-19,-39,74,111,82,-22,-62,-88,-31,-120,54,-79,-154
,18,152,-115,-73,-96,87,29,38,-85,132,-57,80,-68,82,-95,4,-12,-83,5,-152,-84,-156,51,44,-119,167,107,66,-110,-84,88
,-154,-54,-155,-112,-104,73,-50,55,44,117,137,12,109,-134,-40,-11,42,35,101,-120,127,-163,131,-73,140,137,36,44,78,-41,-107
,-56,-111,99,0,-136,-133,-106,58,20,143,63,144,83,-99,-4,93,-12,-135,-126,-39,132,-124,-112,-98,-44,-97,-21,-36,77,-139,-78
,102,-65,-54,49,-34,119,-31,-112,136,81,-91,89,-39,134,-8,97,58,-149,-14,-103,6,60,84,-8,43,94,-74,104,-120,54,56
,4,35,108,-24,29,-120,58,-62,150,139,-88,-111,28,42,-91,-135,72,4,-166,109,74,-75,-31,85,-8,-105,43,-55,-64,86,100
,-65,-134,22,6,84,58,-90,89,15,22,49,52,-119,-19,55,58,82,33,26,-92,113,-114,4,-49,47,-66,-110,102,4,67,92
,-13,67,87,-76,-11,-78,39,52,50,108,-105,119,-25,36,-44,-58,57,-152,-49,-148,99,-141,-147,-100,110,28,-17,-146,-88,-45,-10
,-55,96,-87,130,-13,-18,-71,-94,34,14,3,17,58,15,-95,-1,93,-121,125,59,-138,24,75,-52,27,57,87,37,106,41,46
,-13,64,104,-81,-120,-48,-93,-92,47,88,62,107,108,152,64,69,39,-122,57,104,-110,41,6,-21,-29,-147,-93,0,-45,-40,54
,-78,-9,21,-103,-9,-105,97,23,79,94,-51,-35,-10,-60,35,6,-136,-102,-39,-84,76,-101,-54,-117,83,33,87,53,126,-47,-127
,-18,47,-98,-11,9,81,-35,-78,100,-153,-75,24,61,-152,-164,-113,-72,57,-11,52,-89,-10,83,-86,18,-113,-28,-39,24,-89,103
,-84,4,-13,-141,8,63,31,9,-139,36,90,-122,71,114,-125,123,-81,11,-12,-25,19,-13,19,94,73,-12,-118,115,33,-94,93
,38,56,120,17,-81,-77,58,-118,-36,-75,-119,70,-29,33,-45,-46,0,71,-30,76,41,8,123,-81,109,122,-80,-142,-98,15,-130
,-59,82,5,-4,-83,70,-72,57,35,55,53,64,-75,-130,-103,11,36,81,-20,-138,-120,27,26,-102,11,98,54,-117,-127,58,132
,19,-81,83,128,-20,23,20,-35,-70,137,-97,-69,162,5,60,96,-106,-159,24,-57,-38,58,-17,39,-105,-101,-130,14,68,114,-2
,-121,74,-106,-12,39,69,97,-69,-67,-106,119,-94,91,-52,-173,96,96,-53,6,11,-80,32,-96,-90,92,93,-28,-194,-86,100,-96
,-144,93,126,-112,-124,-88,-39,-49,110,-135,-119,106,-5,-82,-92,-114,82,-110,13,75,-96,10,-88,-102,-133,46,-86,77,65,-64,-79
,-128,37,-133,84,-31,100,15,138,138,31,-2,-39,113,131,16,25,-117,-32,128,-140,-99,117,109,72,52,112,-95,72,62,-75,-59
,-86,-71,25,66,93,-51,50,-60,28,114,-103,-30,144,-143,-49,-161,1,-107,123,-25,7,126,-129,34,45,-57,114,-92,132,113,59
,-108,-139,-93,-32,48,91,-26,-22,35,52,21,-129,-12,109,-129,-51,-39,-126,-152,63,-141,-104,59,-142,60,44,77,-45,49,29,16
,63,117,-147,-74,97,28,-71,-5,3,-138,73,91,97,-101,123,76,-133,-170,104,-18,-45,-45,50,-12,-114,-24,-173,83,-45,29,117
,-30,-65,-98,77,-137,-121,117,-126,-157,-4,14,62,-60,-69,-83,-64,-31,85,98,-80,60,20,112,-76,-49,-47,-74,-51,107,138,-52
,26,-13,-82,26,-10,-71,-75,-92,-61,127,85,53,-94,29,1,-149,-77,3,12,-8,64,-80,131,10,60,-87,21,127,-1,0,-64
,145,-24,-129,-123,108,-76,43,-101,133,145,130,53,59,-53,100,-82,-105,-42,120,-96,136,112,-60,-61,-62,120,-58,135,-63,21,44
,5,-38,86,104,59,-92,-123,-136,-12,-67,-51,76,59,-23,-25,48,107,109,-67,-114,-66,-144,-110,40,8,132,48,42,-136,-10,-110
,-25,-67,-134,57,-100,90,26,70,54,45,-38,129,143,2,33,70,-60,-43,-16,-71,15,-70,130,-2,-36,-77,-83,80,139,75,72
,5,-26,-1,150,120,134,1,-3,-91,17,-111,143,58,119,-35,-132,-36,52,-120,56,-45,46,-68,47,-78,-37,121,-111,17,-86,-22
,13,-9,99,112,-82,-92,126,45,149,-136,-100,-178,-84,-28,-3,-115,-75,-124,30,-17,-81,11,-133,58,-30,57,6,136,119,75,4
,-133,-141,60,69,70,-68,-64,26,73,47,39,-102,-64,-112,-110,96,-57,-140,44,-134,-18,34,-134,-132,-65,112,-73,70,12,-50,-56
,-120,-126,8,10,14,-58,-15,-13,-112,80,33,11,-35,42,-110,7,12,118,-141,-112,66,82,-135,94,-85,36,30,107,-65,69,119
,-144,-116,-31,-47,-127,-86,51,-43,65,-117,73,-29,87,-47,-134,141,-27,-98,4,49,-101,13,-137,-64,67,-144,37,-91,76,-49,15
,-65,-111,115,-113,-73,26,-83,31,-150,-100,-52,137,128,14,102,-79,102,-69,122,-113,-128,86,124,87,-73,124,114,107,-32,-5,94
,-119,111,54,111,52,102,121,-73,-132,-132,59,100,-85,-31,119,31,-52,-125,88,-110,66,107,-109,-49,-22,-96,-2,-55,-9,7,-57
,146,71,107,21,53,-22,-52,73,-9,18,27,-113,121,123,-76,32,-108,151,86,39,72,19,57,110,13,-42,-27,-130,85,148,79
,41,-62,60,128,50,31,64,16,-135,-99,120,99,-50,-126,103,9,0,-84,-75,56,4,-139,-21,10,-63,62,103,77,-76,-53,36
,100,-106,-108,-97,-153,-3,-52,41,6,-1,-125,118,36,7,43,14,103,-20,67,-94,30,56,122,-119,-113,116,52,6,120,101,-120
,-87,24,11,60,-18,-79,-82,66,-75,-77,148,-38,75,-117,-71,34,-62,31,66,-42,-2,55,19,-135,-10,-151,-27,-29,95,47,122
,-54,-28,-73,150,30,-105,139,-102,116,-4,88,-47,-5,44,-85,-80,-28,138,-2,58,97,15,83,-108,4,23,146,40,-133,101,133
,71,-154,-45,80,13,45,67,-67,51,97,-48,-131,-141,140,-61,45,-35,-5,-121,-73,-29,148,-83,-4,3,-119,132,82,-104,46,101
,19,15,-142,17,-138,59,-75,-11,-128,-7,-70,12,-59,40,35,83,-74,5,30,16,151,36,-66,138,-58,86,140,79,-70,92,-50
,29,-119,34,16,-22,-108,121,-89,100,126,-89,115,90,-36,-72,-149,122,-72,49,-33,85,-1,-66,-61,-89,123,-59,-6,-68,45,-22
,-90,3,-38,17,66,-39,-3,-86,-109,-35,-73,74,-14,-110,136,43,100,-141,73,24,-51,-108,20,49,-103,-92,-124,6,64,-111,-52
,80,23,-33,-146,55,-77,-171,27,0,20,-35,133,-117,-81,94,10,-149,16,-39,104,-146,-132,-154,128,111,26,38,13,-7,-76,109
,-58,-48,80,65,92,141,-149,2,50,109,63,-75,-55,6,-39,113,66,-40,-31,-59,125,-120,-24,43,43,-34,-39,6,-69,-31,36
,-153,-137,82,-61,-150,-81,-11,-106,27,43,-149,-14,72,-15,42,-57,-106,26,-151,-65,50,40,34,84,-141,-76,119,-53,63,-126,-65
,5,-155,23,74,-145,-145,54,69,-118,28,-134,-118,26,56,-78,93,-57,-21,28,-94,-38,116,-31,18,-105,-70,87,-77,-65,-148,88
,4,-33,-75,-150,19,130,-58,93,93,-53,151,-23,-66,117,-95,118,-108,-108,151,-106,-116,10,20,75,-49,-69,-22,-131,115,110,-109
,-54,135,-28,14,-39,-132,37,-107,-5,52,-15,-134,36,111,-31,-8,-77,-17,-62,53,112,-39,64,139,-73,70,5,109,128,43,-104
,-26,88,118,-35,-22,102,-116,96,-73,-107,131,-137,89,52,130,98,-39,49,-130,32,-145,2,-93,133,57,120,89,-69,48,-50,141
,-46,-129,-54,81,-104,-7,-140,65,-13,-93,10,-47,70,30,-66,-71,99,-117,-131,-57,-4,24,-135,-40,-72,-97,42,-126,-43,35,61
,9,-83,-4,28,-73,168,-235,7,-11,-46,4,176,-126,-88,-170,18,7,-26,-54,85,116,-100,-40,-69,151,139,-111,-116,157,-2,-52
,-132,70,6,81,111,89,60,132,105,25,133,-49,-19,118,131,-65,-91,-17,52,74,100,-62,64,48,83,-30,77,-67,-40,60,-51
,-143,-17,65,27,45,77,-25,80,122,-25,-153,68,-132,94,-95,-14,-82,-78,-101,-66,98,-79,-115,121,45,-116,-86,-89,-101,-36,-33
,-136,-5,-56,61,-16,-2,15,32,100,99,-22,-37,130,32,-95,92,104,15,-68,-33,64,70,88,-126,-42,-115,76,94,26,74,37
,-100,90,124,100,10,62,106,29,-111,-54,-100,120,69,77,22,-5,104,46,-91,-60,-6,-150,68,78,-55,22,-77,109,134,21,60
,-22,-116,54,-125,-114,132,3,97,10,92,17,-70,-37,-117,151,-59,126,21,2,128,103,33,-21,-8,111,-109,-47,36,89,-108,72
,-44,-30,111,-54,-69,-92,123,-14,-47,-101,-131,81,72,111,115,7,47,-50,-145,-114,5,29,-127,-2,121,127,-13,-8,-54,9,-67
,59,93,92,-111,-112,15,86,65,-55,-21,128,35,-129,112,16,-22,39,-133,136,12,142,-51,-106,110,-110,19,94,122,-60,32,99
,67,-87,-62,-7,-86,-118,74,-28,-77,146,85,144,132,148,129,97,-40,-102,95,-60,19,-103,42,41,47,-63,38,85,57,-22,36
,99,-143,78,141,-115,-103,-38,81,-115,-86,77,81,-60,34,27,50,-79,115,11,133,-62,59,-60,-74,-25,-53,-108,-93,101,-80,-80
,-20,-97,35,86,-100,44,43,94,-80,-20,-47,-149,-73,-55,-2,-98,101,-36,-29,46,55,-50,60,118,-127,54,131,40,19,-5,23
,-90,-86,73,46,-88,126,146,-91,4,-90,-57,-51,-12,-142,109,64,180,1,-138,-135,-31,107,-166,-11,12,73,150,10,-74,-96,-50
,-52,6,-50,94,11,99,-52,-13,132,-95,-48,-76,-133,98,-24,63,-99,73,-44,-140,29,87,80,-23,94,106,-44,68,85,-97,-92
,-54,-26,24,-1,-65,1,-99,-163,30,-12,10,16,-103,-59,-142,-108,49,49,41,109,115,-1,11,-60,108,-167,-17,-81,27,49,-110
,130,-68,-132,83,85,3,75,-20,-117,104,23,56,-71,7,34,17,-87,-95,148,135,39,-17,-120,139,141,32,-20,-42,55,-60,-129
,-72,84,122,-42,-88,-140,-59,-17,-117,-82,15,107,-117,-130,82,153,64,36,46,44,136,-6,-139,-65,125,2,-36,7,-61,84,99
,104,-10,127,-31,2,71,13,53,-95,-25,44,-63,-123,77,123,-38,79,126,-112,-77,-76,-76,24,-74,-192,17,-104,92,-73,-83,49
,18,-115,-42,-3,-130,59,-125,-70,92,132,-27,68,115,91,106,11,104,67,-20,-134,67,-95,31,134,30,54,26,25,-133,-41,-29
,-77,-46,-132,45,-40,-116,-43,-80,-23,-3,139,-98,24,32,-35,-47,35,93,132,21,5,-60,-80,-101,28,63,105,-6,150,4,-11
,66,-32,67,13,26,-104,-59,21,27,-98,-77,-174,-58,174,-76,-14,39,11,82,113,68,-55,60,-33,35,131,-10,-135,-114,-71,50
,72,126,-30,-81,52,144,5,80,64,67,148,-13,142,94,54,-109,0,30,34,144,-25,-55,-41,-58,88,119,121,56,89,49,56
,-28,-143,139,114,67,-217,-14,-115,-38,89,116,-33,-14,-97,44,6,-12,-112,-119,-39,-89,-53,-111,140,117,-69,-51,18,99,138,-103
};

long weight_1_T_sda[2*256] = {
-142,-50,59,162,-63,-103,-131,-141,50,-148,108,-68,-135,-116,116,48,106,55,-156,92,-3,-49,-86,63,-2,92,135,-97,133,57,160,38,-19,115,60,-53,111,-13,94,-125,-17,-66,-55,-86,-123,-26,-60,-169,-50,58,-35,136,-56,105,-129,-25,154,-142,-25,99,54,107,31,-7,75,71,-85,-61,200,-74,-79,116,2,85,88,58,83,34,149,-34,-85,-179,-45,-37,53,-96,-28,-137,-138,-54,-62,-117,86,-31,92,-125,-76,69,44,-129,128,113,152,-123,90,-72,76,83,209,64,22,205,-138,-38,-43,43,-72,31,37,-12,-85,-93,-20,86,72,63,-64,107,-179,114,-42,-109,98,152,-55,-43,93,163,135,-70,-101,123,-70,-123,-96,94,-166,-161,-135,10,301,-161,94,-24,-171,170,15,137,-76,111,14,4,-27,50,-122,84,141,114,4,-84,-153,-133,-44,89,-60,94,-141,1,-9,-101,8,74,-34,-58,7,-78,13,-131,131,-143,97,102,145,92,-33,-52,-102,-16,-13,82,100,-15,-127,-71,7,-111,-109,67,-118,36,-9,162,-84,-107,-33,28,-40,127,-121,-61,55,74,-131,119,-43,-100,-94,-97,-95,-82,54,-53,-50,-125,-63,26,-79,84,-49,88,180,3,53,192,8,105,51,139,130,148,-140,-59,104,60,5,-151
,-131,-54,79,-145,35,116,62,-14,91,10,-50,-40,59,100,-35,-97,-31,135,-93,70,124,59,-147,-19,-124,53,135,91,-115,123,-28,114,-51,74,-171,112,-66,113,-117,-74,185,-5,48,136,95,74,8,64,-141,-80,-149,-35,-104,-21,80,135,97,145,152,129,159,-28,-154,-56,-86,35,-74,50,16,-45,114,135,-88,102,90,-102,-64,13,-53,17,-5,53,-156,211,-98,81,78,128,16,-46,111,-17,-113,61,13,-165,115,101,117,-10,-111,79,39,-88,-174,-86,-106,37,-244,-43,-153,-59,-105,46,75,-164,69,-126,-95,-42,72,15,-180,-105,77,-258,-75,99,-51,-24,-95,41,-118,138,-101,-203,-47,-60,-125,-129,45,57,81,41,50,79,77,-81,144,120,-25,67,-131,-87,-17,-163,56,-8,-8,73,-65,-163,-37,-241,125,117,-134,10,90,108,-40,79,155,-23,-58,-93,89,-39,134,129,-13,-136,218,-41,143,-5,120,40,-184,-154,-94,-84,75,-83,-2,-80,-136,-128,-174,-178,6,135,19,-72,-110,38,-28,-132,-131,113,-167,-113,-75,55,100,85,-94,102,118,-60,-178,-14,129,59,-88,-104,-157,-70,85,-44,-155,-9,-14,-77,166,81,128,143,51,-23,-55,36,-127,-166,4,-192,-60,-128,111,-86,162,-135,62,189,45,160
};

long bias_0_sda[1*256] = {
0,-12,5,-1,0,-10,-4,-9,2,-1,7,0,-1,-4,6,-1,9,1,-7,9,3,-4,-9,12,0,7,7,-14,7,8,15,-9,1,-22,22,6,-16,-15,0,-18,-7,-8,-5,-16,0,16,-8,-7,-15,15,-11,30,0,10,-6,-6,8,-4,0,7,-2,2,20,0,8,0,-12,2,22,-12,-3,2,1,7,5,0,6,-2,6,-28,-10,2,2,27,5,-4,-5,0,-8,-10,-20,-8,3,-6,2,-9,2,3,-18,-14,4,6,44,-9,7,-12,2,-6,14,0,3,15,-10,5,-11,1,-20,4,-12,-14,-13,-5,-6,-8,4,-3,-15,7,-11,-4,-16,-9,11,10,-15,-11,2,7,3,-7,-4,6,-13,16,-8,5,-9,-12,-21,-21,22,-16,-3,-2,-14,15,-7,4,-1,6,-3,-2,-20,13,-20,7,9,2,-5,8,-3,-5,1,20,-12,3,0,3,-20,-12,3,9,4,-9,11,-23,0,-2,-16,-12,-17,3,9,-2,-23,-14,-11,3,-30,19,0,-4,2,-9,17,-14,-7,10,-7,-3,12,-7,-8,-7,0,-5,-23,8,-9,-13,-18,7,9,4,-8,-7,-5,-4,-20,-18,34,2,-4,-14,10,-2,-11,2,-11,1,8,-2,18,21,-5,4,11,-9,10,-2,-7,-11,6,10,-4,1
};

long bias_1_sda[1*2] = {
6869,-2434
};

#endif
