
/* Trace */

/**
 *  updated on 07/18/2023 01:04:38
 */

#ifndef __W_SDA_1_H
#define __W_SDA_1_H

char name_sda_1[] = "Trace/sda";

long weight_0_T_sda_1[256*31] = {
62,-134,-50,-79,48,-46,85,76,109,21,-3,68,109,60,-77,-45,-124,-1,120,17,101,94,-53,-44,-21,-28,106,26,-26,8,42
,-91,34,-224,101,54,60,-72,-174,-19,-41,-119,82,-29,100,-288,-138,125,-42,-130,100,-66,-16,180,-17,120,-208,-9,59,-260,230,73
,31,49,-144,24,11,85,44,104,111,-83,-119,37,34,-125,57,68,96,82,96,-134,-24,-83,56,22,9,-81,135,-135,55,18,111
,-47,-43,-1,-156,23,-151,-36,-74,-137,-90,96,-110,-17,117,-71,5,70,100,-33,-99,-145,5,-73,-70,54,-51,-56,34,139,58,-92
,69,-101,-125,-104,-153,-149,-19,78,48,41,-8,-62,169,71,-39,-197,40,30,-41,-32,-57,67,85,9,89,159,123,124,-125,133,-57
,94,-17,-63,-32,136,-58,30,-15,94,70,83,-49,-44,-13,12,37,-24,-26,-86,17,16,12,129,-293,-263,-212,-191,-3,-14,-120,-142
,-92,-89,132,-80,103,-116,82,141,64,80,-133,-64,-52,-49,-24,132,-157,-181,-157,-50,-41,43,173,-49,100,-6,-374,216,-51,-60,-184
,-53,-21,-60,-146,38,-56,116,-247,52,-165,-186,-113,-40,-206,116,-131,-57,2,-104,24,34,51,-6,-58,-147,81,110,92,-37,40,-92
,87,-121,-41,125,-111,167,-68,-43,-55,-161,39,-89,-1,-41,52,-39,-11,4,39,99,-210,141,110,-206,214,145,54,15,33,-183,-219
,-7,171,-97,136,-36,34,44,-128,-118,-145,-153,54,39,138,-50,-28,143,-103,-72,77,-50,21,7,130,112,-6,73,75,-14,-19,-182
,-113,-10,45,-115,-130,-40,51,34,86,-7,11,135,99,52,85,47,36,33,-57,20,-174,161,21,-58,-150,-85,-64,135,-56,-3,117
,-40,3,129,93,59,130,-64,-102,78,-49,-43,-14,113,-94,70,-5,112,22,22,23,-63,146,123,-115,-28,73,42,117,67,81,84
,-78,-156,-114,-58,45,30,-125,-138,57,62,55,117,3,65,-118,47,52,170,-73,-154,62,-183,-95,90,156,194,-37,52,36,-102,-107
,-28,105,89,-9,11,-98,94,97,-32,20,133,-14,-72,-107,65,44,23,41,-29,3,61,-53,-18,-110,23,-77,6,-26,-91,-105,9
,-81,124,53,-130,-146,-5,-297,110,-1,193,-6,183,-122,35,-46,-37,72,-265,-17,-150,-95,-247,36,105,-32,110,-118,74,-15,52,-124
,-99,-438,12,-101,44,-109,70,190,-106,-42,-120,15,118,-278,-101,-1,-135,28,-10,-175,-128,-174,24,-25,-111,-101,-282,157,73,94,59
,110,-211,-91,48,-119,-122,54,33,136,-54,153,-127,-40,67,70,77,16,-86,26,-60,89,98,-91,-124,-105,116,33,-28,108,-19,89
,-91,23,112,-174,-210,124,-20,24,-61,27,-88,10,7,-14,-143,-119,11,-146,-15,-142,8,-73,55,-29,58,127,-97,89,167,-410,188
,124,144,33,132,-170,-135,-99,85,-16,-105,16,-79,49,-3,-48,-75,127,-91,-71,13,44,-74,122,-20,36,56,-7,46,-93,12,49
,-80,20,93,58,104,97,-19,-79,-77,-153,-203,65,-87,152,-155,-43,198,-114,10,-100,-53,136,-161,-8,88,-230,-10,25,-109,-34,105
,-7,-123,-152,-41,-77,97,39,-243,-109,31,-218,50,180,-501,92,-191,-16,-95,-142,-317,-370,-210,-46,-430,-376,-226,-162,26,89,170,51
,69,-21,187,-31,39,40,-154,11,97,-154,-102,-117,-9,152,-144,-187,-250,-12,-86,-1,-145,-32,-131,-38,-62,-10,186,-232,-178,-201,-7
,-8,113,-142,-140,-17,70,117,-50,-78,-14,57,117,24,-13,-37,-81,-59,-18,91,62,78,-22,-57,102,-11,-122,-177,-9,17,-182,-135
,101,-101,110,-40,55,101,-98,-51,15,-31,-90,14,34,-47,121,-82,-11,20,37,132,-69,112,-42,-79,-89,147,-13,25,-46,-14,110
,-32,62,-31,64,-78,126,-135,141,70,78,-120,140,-39,-22,-98,-76,22,51,-85,57,-103,70,139,-124,8,122,83,4,110,-20,-85
,0,119,85,-1,-53,123,-92,83,89,-31,135,-54,56,105,97,-23,139,53,30,-75,142,118,98,39,-22,-56,132,-99,51,80,135
,-80,-7,26,69,114,92,18,80,46,-67,-71,-135,-5,106,124,57,-97,-44,-39,92,-113,-55,-60,98,-37,39,-82,58,-5,-32,-87
,25,101,61,-62,-34,89,-101,103,-57,43,9,73,-17,6,-28,-43,87,-150,83,-91,57,45,-23,4,-42,50,136,135,-25,-133,-35
,-145,16,26,-96,76,97,33,-90,106,117,7,4,-99,43,-26,98,-94,18,-2,-124,64,49,114,36,58,119,-75,63,-64,78,118
,-72,-20,-101,21,-104,64,-47,47,-101,-1,87,4,52,-89,40,-48,180,19,128,-244,102,-161,-86,197,-87,-121,-92,158,77,-66,-35
,-75,99,54,22,106,-482,-10,-95,65,5,-90,-164,-91,-187,6,224,51,89,-214,20,174,-72,105,33,-111,-58,85,137,40,-2,-127
,74,71,94,74,-161,-163,72,77,12,125,82,-27,-108,-84,45,69,-14,-127,-22,-72,-52,-206,100,20,-72,-59,52,-50,5,-8,-153
,111,-48,9,76,-146,-62,36,4,-52,53,-90,-158,-49,-7,70,32,89,126,86,-46,-36,-60,44,34,-120,-152,-183,42,105,197,-79
,-65,113,55,-80,193,132,6,10,-71,-138,58,-92,124,-257,-166,-71,28,162,-20,-153,27,-172,103,-6,-47,-112,18,-145,-52,9,159
,72,78,15,72,56,14,-56,98,69,61,18,26,102,101,54,69,-9,-68,-110,-133,99,106,-10,4,-75,69,16,-104,-77,-28,114
,-99,66,-39,-13,73,17,-98,106,161,-97,100,-137,-50,85,-109,121,-23,-171,-21,77,160,-41,-10,58,167,62,-48,-117,-171,-142,4
,-130,-35,-74,67,-185,-45,81,-160,40,71,-175,-141,-8,-179,-6,-31,51,80,32,-81,-190,-313,-206,247,32,102,83,-113,-276,-131,2
,-108,10,-24,-151,33,-34,23,-7,43,-53,-99,-119,66,189,-56,113,31,25,51,-134,-39,36,28,148,95,44,-97,215,-39,-39,-197
,87,-33,-6,-39,125,-36,63,-38,-158,-16,112,80,-103,104,-78,158,-6,9,-82,-64,-104,-53,44,-31,-61,-58,156,-106,116,-137,65
,-159,20,-134,122,-187,-237,-152,-49,59,-30,134,-106,-114,45,-86,-167,122,-155,170,-1,-44,46,14,-1,-29,102,106,-122,-17,-130,-49
,-126,-119,-101,112,-104,93,-120,12,1,-2,101,96,-165,121,22,64,-26,46,74,65,101,-34,-110,105,-19,52,21,56,65,59,45
,-143,-60,145,-7,-26,-148,-150,17,56,54,-12,165,108,-155,-247,-149,128,-193,-140,36,24,-57,157,2,55,-46,47,120,-109,128,-125
,54,-12,66,-131,-139,-117,10,-154,-7,34,58,-128,4,-57,72,133,-65,-96,247,-137,-3,5,-150,-139,3,3,134,77,63,85,101
,-68,30,-161,46,-38,-28,-31,-122,114,89,58,-95,62,16,-51,-97,-108,97,-97,75,-266,-342,146,5,40,-95,-2,-63,-143,-449,346
,-94,127,-1,42,-20,126,52,125,82,70,-11,-115,-5,103,-41,109,-116,122,126,-31,107,-149,108,-19,106,155,28,165,-92,-103,0
,-26,96,24,105,63,77,-94,-21,67,111,2,96,-119,-3,93,-96,-45,-72,-71,-88,-145,-21,-151,-70,5,-26,-129,79,90,71,100
,57,86,-116,8,124,-2,-3,-86,-10,-49,86,137,-88,41,60,128,44,46,-41,19,-79,-46,-83,-120,98,113,71,-78,-6,-20,-15
,-18,79,41,35,-93,42,-80,-109,-67,-78,-49,-49,-144,134,-44,151,61,162,-77,-33,0,-92,-141,-116,73,-76,65,102,76,110,-83
,112,84,-135,-82,169,-110,-134,177,-154,7,108,10,-102,-70,115,-175,34,-44,-97,-33,-13,-28,-68,108,37,-278,-204,-106,37,104,63
,-53,81,74,106,105,-141,26,47,-22,-38,124,101,-118,-105,-85,-20,-28,-23,13,15,-141,102,15,87,-99,27,43,22,-76,-46,67
,-85,139,82,60,-79,9,-111,-106,1,-261,122,-130,63,-29,48,-82,-47,155,-211,-119,82,-18,-11,55,88,-17,-174,77,135,-109,202
,-83,196,44,-17,19,159,-129,-84,-328,135,23,-337,17,-76,-63,-37,-220,74,-16,190,-80,214,67,-312,-268,-26,120,-116,-598,-118,108
,12,136,63,-127,111,55,-12,-75,-83,108,-10,4,-54,68,54,-69,-20,-113,-102,126,68,117,-85,121,69,18,-164,20,-55,21,57
,130,-35,-109,74,61,99,-68,101,-63,-109,144,-127,74,-125,50,-156,102,-18,-64,23,-45,-45,7,50,21,-49,93,16,20,-31,36
,70,-34,36,58,-93,-230,-60,-57,-77,75,-160,-233,49,-159,-117,151,-81,7,161,-176,78,218,-8,-36,-262,44,-105,235,-92,-149,208
,-149,-64,91,113,120,-73,54,-105,66,119,-1,22,21,-122,118,88,-149,-127,6,-48,-7,166,86,-26,-129,46,-149,41,120,-55,84
,127,16,-294,-79,20,89,19,-39,-80,-14,85,110,-99,-179,58,98,79,63,-166,-75,102,-182,-5,-123,88,182,-132,-100,-263,-66,-70
,-118,-73,-22,70,-19,-44,-71,76,-60,92,86,7,126,-105,97,-98,-48,132,-15,86,-5,120,-97,-23,16,46,120,51,-88,-19,52
,129,20,-69,-66,-113,-330,116,-74,25,75,-257,95,-49,-98,-48,-208,130,-149,92,13,98,69,106,245,27,-301,42,-180,-115,-199,-9
,11,117,-91,-54,-160,-171,102,67,-18,-25,-104,-30,26,58,182,45,95,-259,22,-9,-276,-79,-1,-314,96,5,-92,-249,0,-22,186
,65,-123,82,-2,-11,175,-34,170,-212,-47,12,-196,-76,-251,8,33,-38,-43,38,-55,231,23,-222,-67,-231,34,65,173,-19,-154,144
,0,-185,84,-43,-205,-157,5,-215,71,-86,62,150,-14,92,18,122,49,9,-99,229,18,-20,-134,-88,63,60,54,130,-176,-60,30
,-32,7,-87,114,3,16,85,85,-123,23,22,102,60,-2,91,25,81,87,-68,-32,-52,131,-8,119,-110,-22,28,-104,-129,-18,-63
,15,-108,-113,-44,97,-162,76,-142,104,-59,52,-179,-127,-47,157,-124,100,-85,-153,62,121,-207,-160,20,38,-176,129,78,54,107,164
,-81,-128,-92,-79,-145,-76,-36,-118,119,-60,30,71,53,-161,-114,-39,103,-69,-38,79,-1,57,-70,66,-74,-44,98,-87,93,-51,-67
,85,-83,-27,82,-42,-116,-59,6,-250,35,66,132,-37,96,-113,47,-160,-90,-81,-18,-42,9,32,142,145,-106,-88,13,142,173,26
,-144,169,115,150,-175,-190,-116,69,142,-38,-31,-73,104,-217,-39,-43,107,-70,-168,63,-147,-42,-223,126,-233,87,14,-106,148,50,-76
,26,-243,-45,-111,102,-185,90,58,-188,-251,88,-182,-133,181,57,-180,53,151,-53,91,271,-147,-8,-73,-177,-83,10,124,-49,-51,84
,3,133,6,-28,-21,120,-65,115,-35,-122,132,-18,119,101,-141,77,-97,-27,-132,36,28,64,23,-50,79,78,30,-22,-51,-4,-73
,-183,-127,-91,-181,-30,102,28,8,3,-102,95,-6,84,131,-27,-22,138,48,97,-84,-209,-20,-94,-93,119,121,81,-177,-121,-182,-74
,-52,103,-29,-121,-90,60,-27,27,77,-129,-46,128,76,55,33,-72,-33,-22,-2,-129,-89,81,-13,96,128,-118,-28,87,82,127,-19
,-237,166,-95,117,-162,-118,-144,-55,70,83,47,44,18,-117,158,116,-8,82,-124,-284,-113,-164,15,-2,-165,157,-107,2,183,-83,-339
,125,48,47,-77,18,-88,12,-128,-50,-10,-8,100,88,-20,-94,90,-201,-216,18,-68,-148,-10,167,-86,-168,106,-32,168,-81,-5,3
,-122,-125,-123,-90,32,-3,-78,111,2,-46,-24,-114,-92,-26,-140,-97,-1,-127,-145,-23,-115,-58,107,40,16,41,98,-64,9,-65,-36
,-187,138,-135,-12,62,26,25,-323,-9,-58,-221,66,-11,-112,95,66,-83,-9,86,1,41,26,55,171,-111,113,-24,121,46,45,-52
,78,31,135,136,-264,15,-31,-7,61,-14,-37,-86,-122,-8,20,-180,122,-159,-93,-63,-50,-55,74,2,10,115,-36,-113,101,193,-94
,-105,-135,-232,-122,-123,-89,79,249,-128,-129,47,199,-7,25,-156,-187,45,102,-91,68,37,18,49,55,33,128,-129,78,136,20,-109
,65,21,-103,-46,-182,84,71,-133,-235,70,31,-198,113,45,-114,-170,108,-97,-159,201,97,-55,-156,107,-1,151,51,59,-154,86,-156
,62,-269,-55,-136,-65,-161,-104,104,19,-30,216,-111,4,130,-52,49,-73,-19,36,92,-11,-117,14,-50,-43,-48,-50,-106,45,73,163
,87,103,80,-58,54,133,109,-131,-2,-104,74,64,13,17,62,-53,62,-82,-159,-133,-4,140,128,84,-150,25,64,-12,-89,16,115
,25,-200,-192,-61,-23,-220,13,133,-188,111,98,64,78,-78,-77,93,158,-64,-38,-1,49,175,-103,-100,-101,-49,-76,182,-284,-74,-117
,114,-46,81,-101,-234,19,101,24,-128,-37,111,-10,2,177,-43,-200,-102,-114,72,-91,-34,-162,-313,-42,148,80,-259,-127,-26,-314,-334
,16,69,-45,143,-150,-146,139,100,-41,33,125,93,14,-119,26,-79,138,-94,9,-104,121,-116,38,-23,-127,107,112,-13,-11,54,85
,110,-28,118,-93,-69,55,-25,-156,-82,-11,161,-66,141,-238,-159,-62,-172,127,84,-92,9,-81,215,-30,-156,103,-156,131,-9,-161,5
,58,34,-135,113,-129,166,-22,104,-103,-68,96,26,-155,102,68,-145,-141,54,47,71,-39,-4,-20,-95,-129,-39,-64,-113,-143,-122,-5
,120,-199,173,-101,-147,-67,68,23,-84,41,-114,64,-130,145,-22,-47,-101,66,-69,99,101,103,-143,-72,218,11,-67,121,138,-55,-308
,-34,-81,-71,124,143,-4,-21,142,85,80,104,-58,111,-51,19,-22,18,89,105,89,-30,-6,-52,-11,-44,37,-113,-22,-125,-63,-13
,113,-125,-44,54,94,74,22,90,-59,92,34,-93,-16,112,139,35,28,-13,34,123,86,12,-143,-123,-32,-18,-90,-135,97,81,67
,100,-50,-38,-63,-137,-103,-44,-132,-13,101,-30,-144,-59,-38,-34,135,42,-99,48,28,101,-142,-127,5,-9,-56,-95,17,-3,7,17
,86,32,-89,137,92,104,-82,-87,101,-103,-97,78,39,70,44,-118,-169,-72,-100,-170,-22,-161,-28,-152,57,-8,56,151,56,-107,-7
,82,89,-14,-102,-89,-140,101,-114,-8,7,4,-12,71,-45,75,138,80,59,-26,106,15,-88,-92,68,151,-3,116,-55,103,-26,-88
,85,71,-9,70,-81,76,112,14,15,-45,75,92,64,121,-3,46,-114,-22,124,-6,90,127,8,-81,72,3,-58,96,44,-10,-46
,31,-82,-26,-325,59,92,-192,102,-58,-155,243,-181,-74,68,37,-266,-10,-60,-19,68,67,87,20,77,48,-256,-50,-81,258,-44,51
,-186,-224,-51,-86,79,50,-132,44,54,-35,24,24,-103,160,73,55,86,-116,145,-43,117,-70,58,-70,125,-43,-166,-37,-87,8,-97
,-168,51,58,-21,29,48,-40,-19,-126,-8,149,158,-24,147,-7,17,-150,-68,-77,-8,142,-27,-15,-77,-41,41,-165,-116,-46,-95,22
,-107,-84,110,107,-69,-69,32,50,-6,-32,-6,94,125,-43,-64,-1,87,-71,5,53,-80,37,-30,-88,91,136,-102,-52,-20,-101,71
,-77,26,-84,-120,-51,148,95,-14,-141,93,-27,30,67,70,69,111,28,-146,76,43,82,19,-26,-87,18,-77,-1,36,-41,-95,66
,26,-102,98,46,80,125,48,-45,47,31,-148,-98,75,109,32,-39,-76,-32,102,-80,-133,-128,15,55,-112,31,0,15,-159,116,12
,-67,-120,-104,77,-124,107,81,-39,67,-88,-109,60,-42,-45,174,-109,-34,105,-206,-69,112,-9,135,26,132,171,64,36,-126,-39,4
,80,90,83,-42,-13,-91,54,-42,-30,69,113,121,-99,30,98,-13,-83,62,67,-74,-78,-118,16,-53,126,47,62,-85,-113,150,41
,-133,208,-186,-108,69,-66,11,218,-62,-160,107,-3,-142,-173,-52,-55,-39,97,38,-237,15,-60,20,-100,-23,320,-114,158,24,-58,29
,156,36,39,-104,-5,170,46,-168,-82,-187,-78,163,-31,-179,-128,-46,77,95,138,-271,-235,-249,-51,95,22,-168,28,-170,156,114,-245
,112,-159,119,111,119,14,9,3,51,-115,117,-145,-87,125,54,-126,-7,-13,12,-99,-102,-198,91,85,-15,-76,-5,-2,-99,6,-158
,13,-58,140,-63,128,148,-116,-143,-102,21,-127,50,114,134,-31,41,-32,127,62,-49,-26,-119,19,-14,169,-10,29,41,132,-35,122
,63,129,-40,-71,49,-76,112,-73,-124,-141,81,69,-12,132,45,13,129,-103,-113,96,-82,122,140,-113,98,65,83,-135,85,-9,-86
,-63,-75,-119,-141,4,-99,117,-116,-33,-125,35,-9,-93,33,-123,112,-37,-93,-11,76,-8,29,43,-99,-92,-55,-67,-19,74,34,-57
,-132,101,22,92,-127,77,-12,-155,-132,61,-45,70,90,-168,17,89,-149,56,-69,45,-98,-44,56,31,-60,8,99,81,64,66,62
,-34,129,39,-56,163,-165,-110,129,112,6,-188,58,-93,-102,-113,84,-159,122,127,-25,-93,8,118,-56,-82,-212,103,128,-141,-240,269
,-193,195,-48,-59,-45,-154,20,-135,-119,3,-5,8,-32,-106,137,9,-162,202,130,-172,122,-95,-81,38,100,-269,-123,149,125,-106,88
,-16,-153,98,-95,-274,-226,-69,-21,-156,107,99,77,81,30,96,122,122,-45,120,-73,-135,63,-142,10,-121,-90,-360,-86,-125,108,-94
,60,-75,-13,-50,48,-80,64,-3,-34,12,57,101,0,8,84,-203,-18,28,-4,-104,89,-66,74,65,0,-38,-25,-104,107,69,30
,-172,70,-39,61,122,69,7,-96,-145,40,-6,72,85,36,148,98,81,-32,79,-8,-25,-104,69,96,83,-76,-112,-85,-15,53,-129
,93,-131,-113,-131,8,-97,16,-43,-46,-105,-92,8,66,-8,-138,-112,78,-115,-121,-44,-133,-128,-22,74,58,14,7,37,54,-119,-73
,-44,-46,-22,-39,23,-63,71,54,100,-104,-178,-229,-144,223,89,166,186,-152,-9,17,-33,-41,-14,102,14,13,-165,-232,96,-40,-203
,-107,-34,228,53,-84,-210,-122,125,-114,125,-119,-209,-123,199,-168,-44,-56,79,-19,-98,-41,50,-40,116,56,91,27,150,-177,103,-174
,20,-104,-115,-31,-37,-68,-95,98,-112,-121,-15,-109,41,20,39,-113,27,89,-139,-121,50,118,13,-77,25,110,-65,-65,-84,124,-119
,-99,-61,113,60,-50,54,-35,58,-19,39,-123,-61,90,-96,21,116,1,-44,-55,-17,69,149,43,91,51,126,92,0,133,-125,-100
,-107,-23,66,109,-22,18,-54,110,-153,45,-144,59,154,-45,22,58,-133,146,-185,29,-354,51,-283,143,87,-75,-127,24,-30,-115,-61
,50,93,74,31,-143,-60,-139,-134,-10,129,102,103,104,-3,-111,-61,-158,125,44,-3,-135,141,31,32,-59,74,-32,-45,53,-58,-76
,-44,108,-32,23,99,-71,-82,168,-85,72,-42,-104,-53,85,-64,-157,170,-150,-119,165,40,-5,158,-1,38,-58,53,52,-15,-22,-94
,8,-21,-58,42,45,-227,-178,-69,226,139,-36,-54,15,45,-196,171,-232,-51,-22,89,-162,247,-163,-63,110,-28,124,-109,-185,-279,111
,24,-32,202,40,-15,-59,49,12,92,19,134,-166,-151,-338,-144,-219,4,-211,152,-37,-145,-89,40,-83,58,0,-67,-76,68,79,-5
,-234,-96,171,-90,-155,-44,-135,76,-73,-77,160,7,-94,0,19,-37,101,-222,153,-9,168,75,148,-191,-209,-10,-115,60,-66,122,53
,-121,95,-42,-114,-129,132,136,60,-14,3,-39,73,-98,33,58,47,133,91,-168,133,-199,33,112,8,114,-50,103,-3,101,-63,-13
,145,110,39,107,-100,113,-29,57,33,144,-27,-137,-22,51,60,131,-48,66,-82,61,43,-7,72,-56,64,67,-45,120,-84,79,-106
,111,27,-188,-26,58,7,-71,-82,-83,-94,84,64,-75,-173,-64,-176,-63,-81,54,118,-176,113,106,-128,-182,210,26,71,6,-3,-98
,-102,40,-50,-123,24,49,113,46,10,-44,138,-10,103,-50,100,-159,40,-117,0,-66,-92,57,115,21,-86,-127,128,-103,141,13,-36
,137,-144,46,41,32,29,-113,125,-80,-63,0,107,-74,61,-67,51,0,-26,-182,54,-154,85,-110,93,-212,-14,-134,114,81,118,-9
,165,-57,156,-53,-94,-110,-61,-103,59,-15,172,87,57,-64,-99,125,82,-92,50,-40,159,76,-65,-85,-114,-53,-2,-182,-86,46,-149
,-19,45,-94,-8,64,-118,-123,-18,106,-132,-23,103,50,-153,144,93,-37,146,97,-80,-28,34,-41,-105,73,111,-115,162,90,85,69
,46,-234,-134,54,-136,-219,-98,98,21,-55,95,-9,67,-203,-93,52,-47,65,162,83,-181,159,101,-135,54,46,146,-35,47,-302,129
,85,-61,58,60,-108,-125,17,-198,25,83,-13,-105,99,-120,-154,130,-86,58,-83,120,61,170,-22,-12,-205,145,95,16,-100,117,-146
,-74,60,26,-44,189,-125,-27,-23,-85,-35,-2,152,78,-13,-203,154,37,-4,-205,114,-26,-12,-250,24,22,-146,-173,86,-135,103,59
,-189,98,88,-68,-43,-106,27,69,54,-35,64,-199,-9,73,-138,-131,187,-73,-90,116,-72,125,10,-16,133,-175,243,-220,144,5,-73
,21,29,-120,-109,-65,37,-141,-35,-105,-71,-28,-88,15,82,-130,-17,-3,58,23,14,-76,-19,-107,-9,123,50,-82,-142,-64,9,-34
,-85,21,-11,81,11,118,53,5,160,-139,-88,8,-33,106,-58,-156,122,40,137,46,-60,126,-92,-101,-57,-65,116,-18,31,-39,-50
,-9,117,3,103,26,171,-67,-51,84,19,110,-98,-114,-83,-92,-155,92,6,-169,-13,164,96,-33,73,-84,-200,65,157,-39,-45,69
,-4,-98,-97,-147,-240,-86,94,-54,96,55,-25,-197,71,-173,33,87,-1,22,31,114,209,34,-39,118,-369,-428,106,-123,-265,-221,-246
,12,-170,-135,-88,-65,54,-96,-214,61,148,160,-201,39,-143,193,-28,123,86,96,-161,-67,61,35,108,-42,-59,-80,190,-6,-3,37
,-63,-99,172,129,-21,-141,96,22,-90,11,-112,-228,-95,95,-35,-27,202,61,-163,133,-72,-174,80,-67,43,44,82,-80,2,52,-3
,-71,32,63,-74,134,-71,67,-128,55,-136,-16,-47,86,63,-45,-63,-141,85,105,76,5,52,-81,111,77,-4,-30,-45,29,49,17
,-20,-27,12,-139,-63,-84,-147,-26,-23,-127,46,148,-20,-26,-142,140,141,-110,-82,121,98,38,77,-145,-82,-135,-41,-95,-134,-137,45
,67,-81,-94,-30,-94,173,75,-78,7,-95,-136,-60,42,-229,117,213,-134,-19,-116,-108,-155,-21,188,-185,41,156,25,3,-217,-177,-10
,96,116,58,-11,-104,133,-60,18,-61,19,102,66,-102,70,-151,26,122,47,105,94,33,40,-23,60,14,-93,79,-133,-46,78,-1
,-21,17,-226,-95,-104,21,-65,-49,-23,34,-118,171,-138,162,93,70,41,105,82,-2,-183,-116,184,8,-279,127,-214,-13,-139,69,149
,57,-104,64,151,-60,28,54,-24,-29,-104,90,-93,-58,-31,46,-135,208,-91,110,154,-197,-91,-73,49,-62,-186,25,-252,-54,-96,-43
,52,29,-83,-78,143,125,-48,-91,-5,-37,165,-101,74,-8,139,-137,-41,-11,-67,-115,3,14,-46,-5,10,36,130,161,-38,1,-59
,37,120,-61,117,114,44,34,-12,-84,-3,34,49,-34,20,-139,-116,-108,-87,-133,115,-39,23,33,-20,83,-12,-66,6,97,-22,-11
,22,70,-177,-75,-93,13,69,-87,138,-71,66,-91,137,17,-64,72,-81,-20,-87,121,79,107,107,39,-95,86,37,-13,-105,68,114
,119,-103,-17,12,52,-5,-81,35,49,-98,76,-3,-60,96,-66,24,42,72,-237,-117,-197,131,117,59,-97,129,-74,63,-76,122,-48
,-20,-60,76,-126,-86,-97,37,77,166,69,-127,175,128,-52,-300,-243,-385,5,-131,-246,-196,-153,-58,-17,-105,-125,23,-81,-193,114,-97
,-46,-102,26,-101,65,-267,82,1,53,-123,-6,-25,56,82,68,13,55,-267,26,108,111,109,-61,124,159,45,-107,-349,-272,-235,-95
,-79,-140,-181,30,-154,47,-28,3,189,-154,122,150,-74,-7,-21,-32,102,7,130,17,-42,11,-213,116,51,-102,-42,-35,-72,-17,54
,7,111,4,26,-58,117,-30,-112,-32,121,-22,-22,-14,1,68,117,33,80,40,102,-139,64,132,-40,-114,-17,43,-79,88,-30,25
,13,68,162,140,1,-57,-63,-48,109,-131,-34,85,-99,72,-29,29,147,-39,-176,48,-115,74,14,-18,-124,26,-239,-190,230,-32,-102
,-108,192,-107,13,23,36,-31,61,-72,20,-112,198,-113,-279,30,-102,94,-36,177,-276,15,175,-137,-261,-79,-233,43,59,-172,25,128
,-79,34,64,24,117,85,134,100,-134,38,-116,-123,-116,-49,33,-47,-169,-150,97,-50,-23,62,19,-100,59,-54,-114,80,24,122,126
,-18,97,-83,-195,-82,54,-90,-73,136,-100,-177,120,-70,153,-139,129,-61,154,64,-32,71,-45,-102,-133,121,100,-18,115,-141,-133,-33
,-17,-28,30,4,80,-18,-9,-13,-51,91,124,7,-76,-159,139,-167,-20,-54,-90,13,-91,-72,81,31,105,76,33,129,-151,-164,45
,-83,-62,77,88,89,141,-114,-78,187,-15,0,-59,54,-105,-152,-47,-3,-145,-234,104,-224,184,-138,118,-105,181,-239,-159,225,-116,36
,1,7,92,1,139,51,127,-127,96,-67,6,38,65,9,-157,-5,42,108,-104,39,67,-93,-109,-57,-99,-158,142,-35,105,146,-70
,89,-16,107,61,-85,4,-14,91,70,-101,113,-120,-3,2,-22,57,-46,103,77,-145,-27,-49,10,43,-5,43,103,-11,-122,27,10
,-164,12,-52,-8,39,-181,-50,48,-128,12,161,-64,-121,67,126,19,129,-38,75,-187,-182,-64,66,-185,-189,-144,43,238,-91,-68,-97
,-36,-53,-261,88,42,56,87,-83,-243,23,26,-34,13,-38,4,79,94,0,-129,-204,96,108,-14,-293,216,58,-206,63,-143,106,140
,114,-29,-224,-83,-26,-12,45,-20,12,-142,41,-42,-51,142,67,-157,79,-37,16,18,-25,-89,-95,-145,196,-181,-57,99,-7,152,91
,-106,60,-30,-79,91,-7,-94,102,-117,-125,83,220,-186,97,-98,-201,-5,47,126,-94,130,-1,-67,-114,75,104,-104,-352,83,99,-104
,-104,62,-63,-133,-18,134,-208,135,-74,60,-52,-361,26,-226,-249,46,42,-83,97,-128,-137,-156,79,113,131,-254,24,67,-110,-24,119
,-30,8,-10,197,47,-26,38,-83,-158,108,11,-262,-60,-107,-124,75,106,-27,-53,143,90,-55,106,-81,35,-206,18,-97,219,46,-23
,101,12,-108,98,-125,74,89,28,71,25,-152,102,112,37,41,38,-22,-111,-197,-70,107,-75,-2,-127,13,-1,-31,-178,-5,-116,26
,-136,-104,-87,3,-57,17,36,-86,79,50,58,84,-158,106,-9,94,39,-130,83,3,52,108,-178,-81,9,119,73,63,11,-94,99
,-101,-127,-65,36,-157,-143,47,-83,181,-21,37,-34,17,124,-101,211,81,-82,0,185,15,-390,-109,84,-114,176,94,8,-55,113,-216
,-216,-87,3,2,85,-108,-16,37,103,-228,-81,-53,64,223,-88,-14,124,-56,-55,-23,-172,55,109,-228,-257,58,-6,131,-221,-52,141
,-223,51,155,94,-78,-27,-74,-26,-7,-39,124,-54,-158,-127,-19,-236,-12,-217,110,157,213,-4,-86,58,-209,-82,58,217,-19,-247,49
,56,-125,-28,-162,-85,42,3,-63,-22,104,29,104,56,69,61,-1,-42,45,62,-96,-21,-83,82,111,-105,66,-70,129,-3,-35,15
,89,44,-109,-12,99,-158,-94,84,-71,53,13,-36,16,-36,-30,-38,31,-51,138,-104,55,57,91,-58,-28,-4,130,66,44,-91,6
,39,-71,-173,19,97,-113,-56,80,42,66,-29,99,71,-31,-83,90,73,-148,23,7,-33,34,62,-22,-67,12,-86,66,-74,15,-38
,-127,-30,20,-25,-33,-22,95,99,-39,-102,174,-457,89,46,-102,-105,167,-33,-126,23,3,-41,-81,-78,145,-51,33,-95,-244,-127,55
,140,-3,100,-39,-107,21,19,-80,7,69,-45,-80,-76,104,-35,-51,-23,88,201,-91,141,-149,40,81,8,-56,90,-137,16,30,-104
,26,-114,14,55,57,121,86,-122,-50,0,25,31,-131,62,74,-129,-149,95,-96,110,54,-29,138,-102,-4,-72,177,-90,-133,26,81
,77,-12,-1,55,22,80,16,-7,95,43,-129,-58,-116,87,-142,-28,-128,28,-101,-88,-102,-151,-48,-15,170,-6,-48,-40,75,-14,-38
,84,-37,95,14,86,-183,-61,-35,-95,32,120,-98,-148,162,51,-16,-9,22,-335,90,-249,-229,-66,31,-48,22,68,21,-203,-85,-48
,-66,-84,2,-68,161,-180,73,105,128,-131,-140,-139,134,-36,-133,110,-4,-96,-54,-45,48,-22,-113,97,31,25,150,2,186,-1,27
,-104,25,-50,-144,109,-15,75,107,67,4,-176,82,-55,55,-61,-121,67,41,54,-114,-7,-102,19,-41,137,185,7,30,130,-101,53
,121,-92,-163,-19,-230,99,151,-168,-102,4,-119,-228,-65,-23,-20,-3,170,21,-171,-92,-53,148,145,-95,35,215,-37,102,-122,110,127
,-16,-86,-15,113,78,91,-116,87,-81,-112,123,-46,-159,56,40,153,53,-178,-105,-73,42,131,158,-176,-117,-189,-105,124,-27,6,-53
,-99,-114,40,-82,50,56,-88,158,57,117,121,-9,97,-113,30,-78,-133,79,3,39,157,-60,-162,-32,133,-107,26,57,35,-161,43
,72,-53,-120,19,32,28,40,140,-198,136,-112,-64,5,-71,139,93,-179,118,-180,-121,-69,-203,-235,82,-116,159,-187,-19,-101,-10,-128
,-162,189,125,-191,-251,-73,-111,88,128,-209,-172,43,-101,188,28,136,58,46,-205,195,-161,-124,79,-17,147,-124,35,160,143,4,-112
,61,74,-137,48,103,176,-60,-10,0,16,-114,113,-33,-134,23,35,4,3,-69,-14,-181,63,61,-56,-107,-54,-101,-120,-51,-21,148
,-105,55,79,10,89,12,109,36,-262,5,-58,32,-167,-67,93,-169,-29,112,210,46,-245,8,61,3,-65,-40,67,-104,32,-102,-134
,14,-66,-63,123,68,-102,-3,-41,123,-150,-123,-136,-139,-141,-152,-102,39,67,-129,120,-114,4,41,-130,28,-2,-26,-83,105,-106,-147
,-61,167,16,-94,68,85,-9,-118,-19,93,73,120,82,-85,-66,-103,-75,-106,72,7,-24,43,-189,-66,-211,-34,49,186,65,43,-17
,-22,-89,142,-26,-112,-1,60,82,138,14,-88,125,-142,-171,-51,-114,-74,-111,-10,181,-313,58,-147,146,59,-156,-245,-56,247,-4,89
,7,-176,-160,191,-88,188,-16,-152,-69,203,56,-6,-106,-46,-71,131,-234,101,-118,-90,46,-126,150,-109,130,-153,-146,29,-26,-222,93
,-66,145,202,46,-55,-162,-218,-49,148,116,-179,-13,-241,109,-58,-8,75,-235,131,-223,41,-222,78,-200,37,126,-9,134,-74,-8,-13
,-92,-93,27,111,-13,-24,-120,-145,23,-80,99,-22,-152,-59,-30,-42,86,-105,-156,-19,-153,105,80,-59,-84,76,-146,50,24,-53,-59
,-115,221,-228,-284,49,19,66,125,-239,72,107,-99,-114,-13,121,-27,-214,-52,-160,-68,90,61,50,90,60,-13,41,-137,-14,-33,-106
,71,-27,-108,106,54,90,15,-92,-72,95,-87,-96,82,16,-146,143,-227,54,63,199,60,-82,-125,-93,55,-158,46,61,-52,-34,-164
,-79,-13,5,-10,-144,72,-83,82,108,55,102,-48,-89,-13,-109,-9,18,81,12,-164,-34,-17,-89,-8,39,68,-8,-105,-30,48,-18
,-87,122,12,55,-12,-9,-72,-128,41,51,150,92,-21,-55,-102,-36,166,95,-102,35,76,-68,-89,-84,-66,102,82,-24,120,106,-131
,85,6,93,81,46,-107,140,18,33,-46,-54,69,-87,123,-108,90,65,-34,-129,-29,-76,98,-20,-47,52,22,71,39,-6,7,92
,50,-134,-98,-102,67,-155,-20,90,25,-99,-162,-117,-41,-154,8,-53,-4,-62,-11,-88,26,-25,87,-143,-87,-60,20,-92,12,87,-174
,95,-22,-64,122,86,-135,-40,-16,-56,62,-64,90,28,116,93,-22,70,35,-135,-60,107,-125,18,39,-86,-3,-126,-93,123,16,125
,75,59,121,-166,119,89,-47,-89,155,-79,-56,-31,45,13,-179,59,-103,33,-174,-60,72,-173,-25,-45,31,-91,-302,22,34,67,-101
,54,-56,-34,93,-89,-77,65,-149,37,16,-88,37,121,99,-4,-80,-174,121,62,103,73,87,70,-69,89,-75,-15,-143,-25,130,97
,-11,69,57,56,20,-85,-8,27,7,32,41,-130,114,23,49,-85,99,-87,-140,44,111,-114,117,33,-22,-105,-173,73,-179,64,71
,113,-45,16,50,-26,92,68,125,-50,128,-86,131,-22,-84,-92,-105,-42,-29,-77,-89,-178,-7,-24,-27,98,42,112,-64,-52,92,-48
,-34,114,-174,-147,5,-117,14,-36,-158,-101,176,-26,15,-10,150,-134,-171,-56,-209,-45,134,48,137,-192,-5,-39,-78,121,-181,125,116
,42,-31,23,75,-126,-64,-130,81,157,65,135,55,-25,-73,-57,87,117,-61,-71,-52,-60,-53,132,32,-154,-79,106,-21,-34,-79,56
,-27,-27,-105,80,-149,85,-128,-33,138,115,119,132,-45,74,68,-47,-5,77,-40,5,116,-113,64,104,-108,37,-33,-30,50,128,105
,-47,0,-80,-151,4,44,-155,-64,-77,66,-27,44,-69,-104,78,-78,-158,-70,-9,-54,24,-14,-64,36,22,-53,48,-117,-158,35,23
,39,-213,73,3,-221,-41,32,125,-213,92,-144,158,-116,92,-58,-59,-274,-6,49,-55,-169,221,-124,-133,110,233,27,71,-391,71,-106
,68,-143,-62,98,-10,-124,87,-66,95,118,-117,-61,-22,41,-181,-39,66,81,90,-85,212,-58,-30,-65,53,-82,116,-79,12,67,-180
,-25,-100,114,-77,10,53,39,-36,59,70,-76,41,81,-35,-142,145,87,74,-20,-88,-203,-195,-6,156,161,91,181,-166,32,-89,-22
,-115,112,80,18,83,-109,104,28,5,84,93,122,40,-48,-81,-89,-93,35,-79,-11,5,100,-131,24,80,157,-105,80,-62,89,77
,92,276,-12,-6,119,-107,-145,-111,141,-37,-120,-192,-81,32,-33,72,144,-106,57,-118,31,-108,-111,-80,32,-8,-84,6,141,-92,-163
,67,16,132,90,-132,-6,116,-15,-28,127,49,-125,-118,-64,-42,133,41,-52,-109,-74,-54,-60,79,-56,120,147,-80,113,32,-35,77
,-108,95,-77,-80,-42,-123,-143,27,-26,103,-96,55,-25,-23,-125,-91,-4,13,111,-60,-23,-100,-67,-105,-63,-134,-70,-59,-135,68,-143
,64,0,-88,-95,141,-100,93,119,128,91,-3,-10,20,-88,-68,-180,17,110,95,-129,-18,79,-91,67,117,77,-16,-39,-175,38,-72
,107,-143,40,139,-190,103,-99,128,-311,-11,161,-209,-145,0,-217,-9,99,-120,3,-21,-73,-6,14,122,129,79,-57,30,-11,-22,-52
,7,-43,-122,-8,-62,14,44,-53,-165,-37,42,221,-42,65,-146,133,58,-133,-20,-50,40,-81,96,130,105,-71,17,-97,-37,112,-49
,-58,-119,-169,-130,1,-248,102,-3,-213,64,120,-94,-54,145,-8,-55,24,-127,21,-3,16,-130,58,111,191,37,158,-215,-120,84,34
,83,-16,62,120,188,-52,-168,-239,-48,-34,-75,-137,-124,-168,-8,105,-126,14,-116,43,161,-33,138,-131,344,-213,-79,-328,-489,-356,115
,-81,-104,-38,-83,0,231,-220,-22,-139,-17,-120,-234,-65,-72,-80,89,178,95,39,17,-61,-32,-30,126,61,34,73,-42,-64,-432,96
,75,91,-145,63,-100,126,6,-131,86,1,-35,68,-121,41,-117,-34,-56,-200,-93,108,3,86,111,63,5,-54,67,24,-187,61,130
,122,56,65,-6,47,-63,161,-72,-64,-3,33,-58,-107,-64,-257,275,-239,-150,-239,23,-109,120,91,133,203,-201,-161,-19,127,-29,-20
,-40,-123,-74,-87,38,-16,-141,146,34,67,-68,-72,-8,125,210,3,-32,170,-194,74,-92,64,-127,-69,128,8,77,-84,29,29,40
,19,86,-65,65,-15,150,-187,-137,-189,-107,-161,103,-97,81,86,-46,-270,-41,-48,-146,-145,-147,-112,28,161,68,63,-47,132,-149,-18
,-99,-102,197,47,21,-50,139,65,59,-57,-150,90,-67,-120,-108,-119,124,41,-196,62,-145,-179,-115,144,136,-58,74,69,59,113,-80
,-96,-40,-235,60,-49,-99,-26,112,-7,86,31,-174,5,32,-69,70,29,48,90,-88,-113,210,185,64,-96,-148,-187,-19,-172,125,21
,12,-68,206,-125,-108,-124,-36,245,38,-123,99,89,-46,-2,-78,-270,-241,-197,15,-90,42,138,41,-400,-226,-334,-81,110,66,-521,-275
,24,119,-232,23,3,170,-60,16,4,-108,-94,-54,34,-101,-136,157,-5,138,-15,24,-19,5,-279,126,-24,61,88,-102,12,-12,137
,144,-110,25,112,204,49,-129,-92,154,-147,-122,-174,-162,-40,98,-39,-238,47,135,-175,114,125,-131,-65,-121,46,193,-42,-44,140,95
,141,151,-152,8,-131,-95,-126,52,-126,-121,-67,-178,91,121,-190,204,-99,162,111,-336,-290,-334,-216,-109,19,-8,78,-24,-171,181,104
,64,-59,94,-71,-41,-15,0,-147,-198,-156,4,-110,-164,131,-156,-19,-202,89,6,116,-17,95,-60,108,154,222,158,79,-122,-71,-181
,-22,-46,8,-24,-13,53,-145,78,111,-17,40,98,105,3,39,78,108,97,95,77,89,96,-92,-66,13,-208,-43,71,104,-40,-69
,-24,-153,-21,59,-101,-6,-13,-191,90,-134,131,-29,84,-114,18,-27,52,70,5,-53,-196,227,73,-182,-90,-151,26,-247,-99,19,-7
,-86,-114,104,-125,0,22,81,-125,102,69,-8,92,-115,-118,147,91,106,103,103,86,156,-103,10,-36,-125,-23,-29,-39,35,80,102
,78,11,29,41,-12,-130,116,140,-98,118,33,20,28,-91,113,-129,15,-38,41,-18,18,21,132,15,-39,122,-71,85,-65,-46,-116
,-137,-77,-140,87,-114,72,52,-12,144,-42,116,-129,132,-106,11,-241,164,-118,65,10,28,-100,69,64,7,126,140,-128,153,16,-33
,49,-27,82,25,-61,-137,-156,-85,-97,-39,29,102,-66,-130,-141,-143,80,29,-153,130,-18,-48,-85,40,-89,-127,-75,-74,39,-122,98
,16,-1,18,-85,119,-33,2,134,33,32,-80,32,-192,-117,-215,-115,60,93,36,41,-184,237,-253,-45,121,-30,140,-72,31,38,16
,-5,-112,-61,-5,-129,13,27,73,66,70,-20,86,-123,-101,-207,137,57,121,-33,-9,-176,-248,44,80,-70,272,-17,-110,-195,87,-12
,-71,128,13,125,-308,34,98,-159,-90,-147,28,-73,-29,-105,51,-49,186,-62,64,128,-109,-71,-99,-222,-20,113,-182,-47,-50,-78,161
,-27,82,-78,98,77,-115,47,37,-98,135,-68,-5,-6,-121,8,-95,77,1,74,84,-112,89,-107,17,142,63,-112,68,-29,8,-14
,-35,7,-116,109,-15,177,-106,141,-20,26,-35,-80,-91,-21,118,38,-123,-35,-140,-44,-22,-183,125,57,-78,-138,71,61,-48,180,138
,146,10,102,87,147,84,75,-130,21,-82,-111,109,12,-26,1,-20,55,21,-55,-62,-119,-63,-119,-41,89,-148,-66,-159,21,-47,66
,-56,163,136,10,34,-69,6,-8,-103,103,4,-73,-100,-23,-64,-85,90,126,-73,96,-124,26,51,174,-48,-141,96,-68,-135,94,6
,115,-147,98,52,-104,-67,-59,97,-104,128,103,-17,60,7,102,-63,-96,-97,127,69,-65,50,63,-166,29,-84,-75,-85,44,-85,81
,-86,-133,-74,3,184,-33,19,-43,0,-74,-129,230,14,-198,-85,77,-71,-15,-76,7,-28,-186,84,-43,14,-30,16,274,-272,46,-28
,23,29,126,-59,-104,-72,84,-8,40,82,82,-12,24,-34,-100,124,-41,142,-110,41,-133,107,63,-176,75,-119,-146,128,-122,3,-11
,48,-145,86,-82,-13,132,-160,114,-198,23,-101,59,-115,70,-1,139,95,-129,94,-30,147,-13,69,-149,-96,47,-131,-89,76,-129,102
,45,7,-31,11,75,109,13,-30,-26,-3,-42,-127,95,-15,-3,-82,138,-97,131,108,-133,104,105,-55,69,70,29,129,-104,62,83
,-35,-147,29,64,30,114,26,-16,59,-90,125,43,-44,78,-67,-243,0,73,-106,-241,-189,-24,20,-71,-325,18,-151,-166,-145,126,-9
,-51,118,-77,-13,-151,-68,24,118,-84,73,-149,99,-120,-157,-306,169,164,-81,47,29,138,-179,72,-46,-157,-18,164,-241,92,125,-219
,-53,-21,-15,70,-82,136,-144,95,-14,36,120,-84,-14,24,105,-79,42,112,-50,87,79,56,-116,114,-26,94,-110,-117,33,66,13
};

long weight_1_T_sda_1[2*256] = {
-54,129,0,51,136,-24,47,-139,-106,-21,49,13,73,34,-338,-224,21,240,1,140,-303,-81,-10,93,21,122,22,83,45,170,-309,-142,-93,29,67,111,-81,58,64,-266,-108,302,-28,-248,109,63,-44,3,-164,-99,-243,-218,-95,-27,400,26,343,118,171,211,225,247,82,219,-78,69,305,-302,-52,-130,37,-401,41,41,283,-78,-251,-103,290,-105,370,-57,-10,-221,131,136,-56,131,108,-6,118,54,-129,249,-86,107,-25,59,-33,-62,310,371,-102,-73,-1,-57,-52,108,272,-15,94,-32,50,361,209,24,40,-167,-43,66,-241,70,268,-28,38,184,0,-3,102,64,125,-102,84,14,120,-54,-88,-261,289,112,-70,144,400,-118,-244,89,-1,93,-17,27,-190,-52,212,66,81,-250,114,465,125,34,-27,-47,-77,273,-122,322,-371,-51,-88,-15,254,332,98,-12,101,54,352,-67,19,-47,37,-126,-102,257,61,-47,-223,357,15,171,-134,-73,176,-249,-167,-55,152,150,103,74,-15,98,59,191,-9,114,-21,234,106,98,-86,245,157,-18,116,-291,61,-118,108,323,43,-207,382,-303,-3,147,205,188,-132,-164,-160,-178,-29,-253,330,-55,193,-87,-110,88,-42,-60,84,261,9,-92,86,110,-51,305,-24,187,20,-27,363,26
,-2,-309,-93,13,58,47,-248,-18,226,100,-10,123,-50,2,168,269,89,-486,57,-169,263,40,-35,-42,7,-98,90,69,61,-12,262,-86,75,199,41,-117,254,-159,-66,107,-63,-360,138,33,56,29,43,3,169,-123,239,184,53,-31,-280,107,-229,92,-247,-41,-310,-319,99,-136,128,-91,-357,372,49,31,7,334,-136,-52,-335,135,321,222,-265,5,-387,287,70,201,-26,28,51,25,70,84,87,-80,415,-192,12,106,39,66,105,51,-266,-251,12,62,86,137,-47,-281,-261,181,43,45,61,-233,-283,16,-19,37,-31,133,97,-232,-248,97,-47,-82,-79,-63,-88,-74,-364,153,1,-195,-6,42,109,233,-24,-179,-48,-207,-313,-92,144,-41,-118,64,44,-14,228,124,-254,-97,-8,170,11,-298,-36,-191,102,-57,-196,-125,164,-307,310,-214,-109,115,-254,-391,-376,-20,97,58,-345,-140,-91,-45,-206,123,-126,-167,-7,82,8,-276,129,-222,-82,-7,-62,158,406,73,-345,-117,117,-54,105,90,28,-96,22,127,-77,-88,57,19,31,-209,-62,130,-64,64,27,108,50,-245,-104,296,-582,279,22,-66,-34,-325,-41,232,246,160,153,226,-251,76,-273,53,7,-1,40,109,-172,-258,-16,-20,-96,121,101,-187,-44,-43,-39,-161,-471,83
};

long bias_0_sda_1[1*256] = {
-26,-106,22,-13,-27,-56,-8,-44,-68,-12,21,-25,-47,5,46,45,-34,50,-16,32,31,18,-28,25,17,22,-20,17,-2,-10,-21,-63,-41,120,8,-40,20,-83,32,-7,-10,44,24,-31,24,33,-18,12,-37,-14,0,5,-15,20,-10,-36,47,17,28,45,-6,8,-26,-4,-21,-31,8,27,-23,14,-15,21,30,-8,-36,9,37,-20,-10,-34,8,-52,-27,-31,64,-7,-19,21,0,-49,-7,18,16,16,-36,11,-45,-39,-16,-27,1,-38,-55,-11,-44,-7,-29,44,-12,28,36,-51,-17,40,-3,-8,-12,-43,-28,-26,77,48,91,-9,14,-13,26,3,44,-36,-32,-34,-8,-16,0,-12,-30,15,-1,-9,3,33,95,-29,2,145,31,11,9,-21,86,-52,-11,17,25,55,32,48,40,-22,-45,2,-38,25,-34,76,53,-21,11,73,-48,72,94,-5,14,-24,49,68,39,-56,103,50,-62,-39,57,-27,-94,65,-35,2,-16,-43,13,-101,76,-25,77,50,14,-37,-20,-37,16,-13,-41,-25,19,-54,24,21,-39,-58,1,-24,16,-19,16,0,36,-6,1,24,14,80,7,-58,75,-114,14,-39,-59,82,2,79,-50,-29,38,-26,-33,48,-26,1,-58,-44,-14,-53,32,19,-35,-16,7,-63,8,29,5,-10
};

long bias_1_sda_1[1*2] = {
30453,-22956
};

#endif
