3.038819693028926849e-02
-1.750583574175834656e-02
-1.884865611791610718e-01
-6.284939497709274292e-02
2.500626444816589355e-02
3.689359128475189209e-02
6.621856987476348877e-02
-5.838057771325111389e-02
-5.933211743831634521e-02
-2.502855062484741211e-01
2.444362640380859375e-02
-6.504211574792861938e-02
1.011543162167072296e-02
2.545938193798065186e-01
-3.139149546623229980e-01
-2.849341332912445068e-01
-1.185495927929878235e-01
7.178371772170066833e-03
-1.211934536695480347e-01
-1.083963513374328613e-01
-3.217208385467529297e-01
-1.180863380432128906e-01
-1.211357209831476212e-02
-1.341126412153244019e-01
4.110031574964523315e-02
-7.571977376937866211e-02
-9.247364848852157593e-02
-8.275192975997924805e-02
-3.893681615591049194e-02
-5.701822787523269653e-02
-1.060483604669570923e-01
-1.531697958707809448e-01
-5.773720145225524902e-02
-8.713765442371368408e-02
-1.398757249116897583e-01
-1.695786863565444946e-01
-4.125799611210823059e-02
-8.132130652666091919e-02
1.069972012192010880e-02
-5.433517694473266602e-02
-2.772439271211624146e-02
-2.090434879064559937e-01
4.103406369686126709e-01
-1.893697828054428101e-01
-6.397037953138351440e-02
-2.581426501274108887e-01
-1.027613133192062378e-01
-2.991636097431182861e-01
1.723745614290237427e-01
-1.361172646284103394e-01
-4.407889023423194885e-02
-2.530733644962310791e-01
8.351061493158340454e-02
-2.032966911792755127e-01
1.136371195316314697e-01
4.789471626281738281e-02
-1.391600258648395538e-02
8.892024308443069458e-02
-6.834972649812698364e-02
-4.164826869964599609e-02
-1.115898694843053818e-02
2.987189292907714844e-01
-3.356639146804809570e-01
-4.984397441148757935e-02
-2.484882175922393799e-01
1.707928627729415894e-02
-1.490083038806915283e-01
-5.011902377009391785e-02
2.234423160552978516e-01
-4.351757839322090149e-02
-2.024003714323043823e-01
1.097131296992301941e-01
-3.554968833923339844e-01
-5.363105982542037964e-02
4.805094376206398010e-02
-3.461787849664688110e-02
-2.821492590010166168e-02
7.243043929338455200e-02
-9.977935999631881714e-02
2.954641543328762054e-02
9.941262006759643555e-02
-2.960613667964935303e-01
3.137805163860321045e-01
7.235268354415893555e-01
-1.696336269378662109e-02
9.469024091958999634e-02
-1.148064061999320984e-02
-7.213146239519119263e-02
2.774294912815093994e-01
-3.953633829951286316e-02
-2.879884243011474609e-01
2.324606925249099731e-01
-1.051645204424858093e-01
-2.120825201272964478e-01
-3.864885270595550537e-01
-1.139163970947265625e-01
2.633524872362613678e-02
-2.484112530946731567e-01
-8.159610629081726074e-02
-1.199508309364318848e-01
-1.463023871183395386e-01
-1.451408863067626953e-01
-7.559178024530410767e-02
-3.774208948016166687e-02
-2.129761576652526855e-01
6.715798974037170410e-01
1.848547309637069702e-01
1.372699141502380371e-01
4.390484094619750977e-02
-1.603818684816360474e-01
-9.282456338405609131e-02
-1.129708662629127502e-01
-2.588059194386005402e-02
-1.244081556797027588e-01
6.812837719917297363e-02
2.923483401536941528e-02
1.589720547199249268e-01
-1.412186771631240845e-01
-2.789597809314727783e-01
-1.643016189336776733e-01
-1.333109941333532333e-02
1.564184725284576416e-01
-2.958085201680660248e-02
-1.607948094606399536e-01
-1.211561169475317001e-02
5.453087016940116882e-02
3.935458958148956299e-01
-1.476269513368606567e-01
2.491275221109390259e-01
-3.595398366451263428e-02
-3.768582642078399658e-02
-3.167086541652679443e-01
-5.260622501373291016e-02
5.408504009246826172e-01
-7.837348431348800659e-02
-1.791622489690780640e-01
-5.327707156538963318e-02
-2.541197836399078369e-01
-7.920800894498825073e-02
-4.110008776187896729e-01
-5.118545517325401306e-02
-3.530813008546829224e-02
6.231304630637168884e-02
-9.876993298530578613e-02
2.875217981636524200e-02
-1.948699206113815308e-01
-1.047483831644058228e-01
-2.353732436895370483e-01
-7.383601367473602295e-02
7.700807601213455200e-02
-5.572824925184249878e-02
2.675265073776245117e-02
-1.924141496419906616e-01
-4.802781343460083008e-02
-6.221653893589973450e-03
-1.344645321369171143e-01
-5.092202499508857727e-02
-2.355337738990783691e-01
-1.539821624755859375e-01
6.831844896078109741e-02
1.095904931426048279e-01
8.267432451248168945e-02
-1.660437583923339844e-01
3.693623840808868408e-01
6.500782817602157593e-02
1.394552141427993774e-01
-5.501748993992805481e-02
-4.651184752583503723e-02
4.280181527137756348e-01
-2.301742509007453918e-02
-2.200781255960464478e-01
3.638602197170257568e-01
4.000593125820159912e-01
9.219564497470855713e-02
-1.873331665992736816e-01
-5.725593864917755127e-02
-2.040843218564987183e-01
4.918683320283889771e-02
5.407445132732391357e-02
-5.820561200380325317e-02
-8.893980085849761963e-02
-1.049369722604751587e-01
-4.790415987372398376e-02
2.968288362026214600e-01
-2.576240897178649902e-01
-1.248882040381431580e-01
-1.001248881220817566e-01
-1.822760403156280518e-01
7.109740376472473145e-02
-1.207497790455818176e-01
-2.439060062170028687e-01
-1.281187832355499268e-01
-4.762097820639610291e-02
-8.865465968847274780e-02
-1.079837605357170105e-02
-8.364261686801910400e-02
8.131048828363418579e-02
-5.719565972685813904e-02
-1.591913215816020966e-02
1.595277339220046997e-02
3.502928018569946289e-01
2.451132424175739288e-02
-2.811842560768127441e-01
-7.658686488866806030e-02
-1.122246608138084412e-01
3.470965847373008728e-02
-2.618247270584106445e-01
-2.191379815340042114e-01
-2.350787371397018433e-01
-2.147051133215427399e-02
3.677882254123687744e-01
8.626937866210937500e-01
-7.537303864955902100e-02
-1.931496560573577881e-01
-1.638549380004405975e-02
-2.090974003076553345e-01
-2.782713435590267181e-02
-1.245331834070384502e-03
6.054149009287357330e-03
6.321779638528823853e-02
2.097292542457580566e-01
4.860478267073631287e-02
8.902187645435333252e-02
1.250206232070922852e-01
-7.630722969770431519e-02
-1.530167162418365479e-01
-2.554250136017799377e-02
-2.824624180793762207e-01
-1.056111231446266174e-01
-5.605947971343994141e-02
-3.901087343692779541e-01
-1.605365723371505737e-01
-2.026725746691226959e-02
-2.270985208451747894e-02
-3.735956847667694092e-01
-1.591401398181915283e-01
-4.171489775180816650e-01
-1.949290037155151367e-01
3.059543073177337646e-01
-1.341333985328674316e-02
-1.799051016569137573e-01
-2.564919292926788330e-01
-4.305922240018844604e-02
-7.204960286617279053e-02
-1.078863516449928284e-01
-1.256686747074127197e-01
1.171777173876762390e-01
3.835315629839897156e-02
-7.753168046474456787e-02
9.013228863477706909e-02
-3.690893575549125671e-02
-1.982782930135726929e-01
-1.303112655878067017e-01
1.103570125997066498e-02
3.486349433660507202e-02
2.701981961727142334e-01
