-1.135679930448532104e-01
-1.148212477564811707e-01
-3.400216251611709595e-02
-5.696596577763557434e-02
-4.383167717605829239e-03
-8.106808364391326904e-02
-6.895728409290313721e-03
-5.387440696358680725e-02
6.878281384706497192e-02
-4.337609745562076569e-03
-4.880655184388160706e-02
-2.221306040883064270e-02
-6.531545519828796387e-02
-8.412615209817886353e-02
-1.353357583284378052e-01
-2.502015419304370880e-02
1.919727958738803864e-02
-2.117200940847396851e-02
-5.640019848942756653e-02
-2.708595246076583862e-02
-1.979796681553125381e-03
-2.654264494776725769e-02
-3.424319252371788025e-02
-7.452536374330520630e-02
-1.013793572783470154e-01
-1.847428083419799805e-02
1.806348189711570740e-02
-5.451188236474990845e-02
-5.294180661439895630e-02
1.621169783174991608e-02
-1.732873767614364624e-01
-6.847451627254486084e-02
-7.554618269205093384e-02
-9.329061210155487061e-02
-2.450438402593135834e-02
1.308903377503156662e-02
-6.279788911342620850e-02
-1.998890750110149384e-02
-6.560911983251571655e-02
-1.369054242968559265e-02
-5.541015788912773132e-02
-3.762309253215789795e-02
-2.064594179391860962e-01
-1.218064650893211365e-01
-1.039205491542816162e-01
-7.622096687555313110e-02
-3.257991001009941101e-02
-1.511965692043304443e-01
-1.819203644990921021e-01
1.420017480850219727e-01
-7.379677146673202515e-02
-1.420868486166000366e-01
-9.098700433969497681e-02
-7.431706786155700684e-02
-5.614934489130973816e-02
2.483416348695755005e-02
-1.013569682836532593e-01
1.374942511320114136e-01
-1.131973713636398315e-01
1.424149610102176666e-02
5.000979080796241760e-02
-1.169402450323104858e-01
-2.662872709333896637e-02
-4.123743996024131775e-02
-1.402127742767333984e-01
-8.882552385330200195e-02
-1.808080822229385376e-02
-6.206189095973968506e-02
-1.098009571433067322e-01
-5.238049477338790894e-02
-2.079214304685592651e-01
-1.110235378146171570e-01
-7.814469188451766968e-02
-4.630937054753303528e-02
-5.226108804345130920e-02
-1.076674014329910278e-01
-1.868768632411956787e-01
2.210242114961147308e-02
-1.430590897798538208e-01
3.196499869227409363e-02
1.016763746738433838e-01
-2.029663920402526855e-01
-8.137400448322296143e-02
2.234481088817119598e-02
2.783636935055255890e-02
-1.180710121989250183e-01
-2.959127910435199738e-02
-2.149094454944133759e-02
-7.160896062850952148e-02
-5.370890349149703979e-02
-5.920198187232017517e-02
-8.340727654285728931e-04
-5.836380273103713989e-02
-8.616548730060458183e-04
-1.036822125315666199e-01
6.784691475331783295e-03
-1.136272996664047241e-01
-1.827278733253479004e-01
-7.466133683919906616e-02
1.249706745147705078e-02
-6.422327458858489990e-02
-2.498509548604488373e-02
-1.108450591564178467e-01
-4.961572960019111633e-02
5.143172666430473328e-02
-4.303250089287757874e-02
-4.747714474797248840e-02
-4.776422679424285889e-02
-9.711319953203201294e-02
-1.633534133434295654e-01
-3.878021612763404846e-02
1.091820280998945236e-02
1.790067367255687714e-02
-6.367836892604827881e-02
-4.465354979038238525e-02
-7.191580533981323242e-02
-5.981438606977462769e-02
-6.570305675268173218e-02
-1.192173659801483154e-01
-6.366584450006484985e-02
-4.943348467350006104e-02
-4.726852849125862122e-02
-2.235094644129276276e-02
-1.796928606927394867e-02
2.443681098520755768e-02
-6.332019716501235962e-02
-4.060473665595054626e-02
-5.673998594284057617e-02
4.961674101650714874e-03
-8.854649960994720459e-02
-1.491892933845520020e-01
-1.728148460388183594e-01
-9.189780056476593018e-02
2.139136567711830139e-02
-9.090189635753631592e-02
-6.352800410240888596e-03
-9.285037964582443237e-02
-1.091800630092620850e-01
-1.979909986257553101e-01
-9.421237558126449585e-02
-2.255454286932945251e-02
-9.943073987960815430e-02
-6.493422389030456543e-02
5.286723747849464417e-02
-5.123214051127433777e-02
1.331091020256280899e-02
6.886293739080429077e-02
-8.172994107007980347e-02
-7.052338123321533203e-02
-7.291404902935028076e-02
-1.969617456197738647e-01
-8.041413128376007080e-02
-5.244116112589836121e-02
-4.540675505995750427e-02
5.351705476641654968e-02
-1.262374818325042725e-01
-1.492549180984497070e-01
-8.100023120641708374e-02
-7.866237312555313110e-02
6.659678183495998383e-04
-2.027530921623110771e-03
-9.387395530939102173e-02
-1.068855896592140198e-01
-6.622210144996643066e-02
-7.131153345108032227e-02
-1.547193229198455811e-01
3.333923593163490295e-02
-1.332133114337921143e-01
-4.048261418938636780e-02
-4.261671006679534912e-02
-1.075362265110015869e-01
4.857700690627098083e-02
-7.628419250249862671e-02
-6.731414049863815308e-02
-9.405644983053207397e-02
-1.298787817358970642e-02
1.306412667036056519e-01
-3.193843737244606018e-02
-6.941574811935424805e-02
5.516185611486434937e-02
-1.272210329771041870e-01
-1.319976747035980225e-01
-5.750380083918571472e-02
-7.889955490827560425e-02
-1.547439675778150558e-02
7.432992011308670044e-02
7.326471060514450073e-02
-5.569973215460777283e-02
-1.483080536127090454e-01
-1.069160550832748413e-01
-1.588100343942642212e-01
-6.616476178169250488e-02
3.754178062081336975e-02
-1.119714006781578064e-01
1.630951277911663055e-02
1.162198185920715332e-01
-6.431458145380020142e-02
2.353125438094139099e-02
9.247180819511413574e-02
4.996914789080619812e-02
-2.362395636737346649e-02
1.741720363497734070e-02
-9.380312263965606689e-02
-2.899064682424068451e-02
-1.545840799808502197e-01
-8.000133931636810303e-02
-3.928580135107040405e-02
-8.554739505052566528e-02
4.657695442438125610e-02
1.672389544546604156e-02
-2.222496718168258667e-01
-8.581566065549850464e-02
-1.999870408326387405e-03
-9.050802327692508698e-03
-4.917301237583160400e-02
1.169793605804443359e-01
-6.975986063480377197e-02
1.454794313758611679e-02
-7.505419850349426270e-02
7.734033279120922089e-03
-2.480120956897735596e-02
-1.221766024827957153e-01
1.184960529208183289e-01
-2.129522152245044708e-02
-6.795102357864379883e-02
-2.969774045050144196e-02
1.029142141342163086e-01
-2.035961113870143890e-02
-7.889895141124725342e-02
-7.316959649324417114e-02
-9.709137678146362305e-02
-4.295626655220985413e-02
1.281760036945343018e-01
-1.181628182530403137e-01
-1.698186844587326050e-01
-3.298915550112724304e-02
4.936810210347175598e-02
6.702774018049240112e-02
-6.369885057210922241e-02
1.187974400818347931e-02
-5.477110669016838074e-02
1.355152111500501633e-02
-6.209763884544372559e-02
-5.541109666228294373e-02
-1.010862961411476135e-01
-6.792278587818145752e-02
4.472636431455612183e-02
-1.366012394428253174e-01
-2.355449087917804718e-02
-5.126819387078285217e-02
-2.907969243824481964e-02
-1.391563117504119873e-01
1.558629516512155533e-02
-6.520957499742507935e-02
-5.518724396824836731e-02
-4.801715537905693054e-02
