6.164947152137756348e-02
-6.185530871152877808e-02
-8.268108963966369629e-02
-1.516341716051101685e-01
-8.690909296274185181e-02
-2.488198131322860718e-02
-1.583681553602218628e-01
-2.343464456498622894e-02
-1.125898659229278564e-01
-9.070543944835662842e-02
4.498355090618133545e-02
-1.651531755924224854e-01
1.109633594751358032e-01
-5.112643912434577942e-02
-2.715310156345367432e-01
-1.410544067621231079e-01
-2.213075757026672363e-01
-1.485961377620697021e-01
3.791446387767791748e-01
-1.331968456506729126e-01
-3.935964405536651611e-02
1.878998056054115295e-02
-6.910999864339828491e-02
-2.210212312638759613e-02
-7.989912293851375580e-03
8.437294512987136841e-02
-2.177525497972965240e-02
3.983703255653381348e-02
-9.003368765115737915e-02
2.789343008771538734e-03
-2.320870012044906616e-01
-4.064950719475746155e-02
-8.905727416276931763e-02
-5.574999004602432251e-02
1.963601075112819672e-02
-1.193440482020378113e-01
-1.462501585483551025e-01
-1.667475551366806030e-01
3.219954296946525574e-02
-4.444137588143348694e-02
-2.771003171801567078e-03
-2.944990694522857666e-01
-9.686639159917831421e-02
-2.836185321211814880e-02
-1.151425242424011230e-01
6.360680609941482544e-02
-2.389409691095352173e-01
1.306735165417194366e-02
-6.107967719435691833e-02
-9.965264052152633667e-02
-5.384302884340286255e-02
-1.340758353471755981e-01
-6.211203336715698242e-02
-8.365754038095474243e-02
-2.172430790960788727e-02
8.626265823841094971e-02
-1.375813782215118408e-01
-1.349912732839584351e-01
-1.403989791870117188e-01
3.416826725006103516e-01
4.096022248268127441e-02
-2.791530638933181763e-02
-4.298089072108268738e-02
-2.130463719367980957e-02
-3.673200681805610657e-02
4.185814410448074341e-02
-1.402335166931152344e-01
3.517808020114898682e-01
-2.285246253013610840e-01
2.746087908744812012e-01
-6.602617353200912476e-02
-2.217251621186733246e-02
7.891029119491577148e-02
-5.963649600744247437e-02
-1.425818353891372681e-01
6.009646505117416382e-02
0.000000000000000000e+00
1.226676031947135925e-01
-1.123132277280092239e-02
-5.482480302453041077e-02
-1.404954791069030762e-01
-5.621752142906188965e-02
6.453954428434371948e-02
-8.583000302314758301e-02
-1.386008411645889282e-01
-9.074410796165466309e-02
-1.333680003881454468e-01
9.744719415903091431e-02
-2.633949182927608490e-02
5.360016971826553345e-02
-7.780130207538604736e-02
-9.017755091190338135e-02
-2.192150950431823730e-01
-1.552809178829193115e-01
-5.404183175414800644e-03
-1.852182857692241669e-02
3.745370311662554741e-03
4.875662550330162048e-02
1.378216594457626343e-01
-1.114444062113761902e-01
-1.237313374876976013e-01
2.805179916322231293e-03
-2.854407206177711487e-02
-6.800891458988189697e-02
-8.893168717622756958e-02
-4.877881705760955811e-02
-1.612514108419418335e-01
-1.106684729456901550e-01
-4.901850223541259766e-02
-1.654593646526336670e-01
-1.120826452970504761e-01
-4.284472670406103134e-03
-6.576295476406812668e-03
-8.617621660232543945e-02
-1.394007205963134766e-01
1.485780328512191772e-01
-8.387924730777740479e-02
1.578061133623123169e-01
-4.155847430229187012e-02
-1.225451976060867310e-01
-2.318347394466400146e-01
2.344156242907047272e-02
8.346213144250214100e-04
-1.807391494512557983e-01
-1.329416483640670776e-01
3.558696433901786804e-02
-2.060381919145584106e-01
-1.681477129459381104e-01
-2.152523994445800781e-01
1.553238779306411743e-01
-1.331931725144386292e-02
-1.424332894384860992e-02
-2.246121466159820557e-01
-2.428904920816421509e-01
1.935744285583496094e-02
-6.898088008165359497e-02
8.557309955358505249e-02
6.256775557994842529e-02
-7.272744178771972656e-02
-3.429284691810607910e-01
-8.521964401006698608e-02
2.290882542729377747e-02
7.831534370779991150e-03
-9.344810247421264648e-02
1.425704918801784515e-02
-1.011948734521865845e-01
-1.428444385528564453e-01
-3.670554980635643005e-02
-1.540849804878234863e-01
1.901558339595794678e-01
5.083809047937393188e-02
-5.068683996796607971e-03
-7.711571524851024151e-04
-2.803857438266277313e-03
-1.191080063581466675e-01
1.077360063791275024e-01
-1.986574679613113403e-01
-7.425571233034133911e-02
1.624165624380111694e-01
-2.159534720703959465e-03
-2.347324639558792114e-01
-2.335080206394195557e-01
-7.367558032274246216e-02
-1.472779214382171631e-01
6.432132422924041748e-02
-2.011804729700088501e-01
-3.272249177098274231e-02
-9.382645040750503540e-02
-2.625398710370063782e-02
-4.847232997417449951e-02
-1.725528687238693237e-01
-7.678773254156112671e-02
8.138326555490493774e-02
-9.505653753876686096e-03
6.487306952476501465e-02
-1.955974102020263672e-01
-2.377623319625854492e-01
6.326525658369064331e-02
2.686070799827575684e-01
-1.402596533298492432e-01
1.010598987340927124e-01
-1.393487751483917236e-01
-1.018885746598243713e-01
-6.290931999683380127e-02
3.084946796298027039e-02
-4.195700958371162415e-02
-1.897246837615966797e-01
-1.608334332704544067e-01
-1.903315931558609009e-01
-1.066020578145980835e-01
-3.247012943029403687e-02
-3.882723301649093628e-02
-7.532542943954467773e-02
-2.051642835140228271e-01
6.263179332017898560e-02
-7.057377696037292480e-02
-2.051902115345001221e-01
6.926246918737888336e-03
-7.695077918469905853e-03
-2.419116534292697906e-02
7.484695315361022949e-02
-2.510675787925720215e-01
-1.339042484760284424e-01
-4.691975563764572144e-02
-7.981615141034126282e-03
-3.335506841540336609e-02
5.104464665055274963e-02
-3.965886309742927551e-02
-3.703457117080688477e-02
-1.509338170289993286e-01
-1.956742107868194580e-01
-3.217201679944992065e-03
-9.439431130886077881e-03
-1.669302731752395630e-01
-1.204102411866188049e-01
-1.929734647274017334e-01
1.044604461640119553e-02
-1.454770267009735107e-01
3.268713876605033875e-02
-1.020724978297948837e-02
-1.644703447818756104e-01
-1.029957756400108337e-01
-3.474109992384910583e-02
-3.337858021259307861e-01
-2.163125723600387573e-01
5.878568626940250397e-03
2.797800302505493164e-01
-1.544652879238128662e-01
-7.831348106265068054e-03
3.968319296836853027e-02
-4.038599506020545959e-02
-3.621892631053924561e-02
-2.185754477977752686e-01
-6.627276539802551270e-02
1.098861917853355408e-01
-8.304171264171600342e-02
-3.520020842552185059e-02
4.114990234375000000e-01
-4.513438045978546143e-02
-8.897211402654647827e-02
2.414578571915626526e-02
2.139082737267017365e-02
9.094928205013275146e-02
2.094741314649581909e-01
-1.033841967582702637e-01
2.515195868909358978e-02
1.641924828290939331e-01
3.289411365985870361e-01
-4.398985207080841064e-02
1.312908828258514404e-01
-5.041643604636192322e-02
-1.972859650850296021e-01
2.883313409984111786e-02
1.669640392065048218e-01
-3.581343963742256165e-02
-3.346956893801689148e-02
