-4.916260764002799988e-02
-2.452393323183059692e-01
-1.448417007923126221e-01
7.325112819671630859e-02
-1.955750435590744019e-01
-8.532081544399261475e-02
-1.719404160976409912e-01
5.824593454599380493e-02
-7.917918264865875244e-02
-1.212441828101873398e-02
-1.571585983037948608e-01
1.118845269083976746e-01
-1.551293730735778809e-01
1.256783902645111084e-01
6.641396135091781616e-02
5.383403599262237549e-02
2.329321205615997314e-01
-7.978267967700958252e-02
-1.575318574905395508e-01
6.088174134492874146e-02
-7.061563432216644287e-02
7.658608257770538330e-02
1.903578406199812889e-03
-7.148992270231246948e-02
-1.965128779411315918e-01
2.984547615051269531e-02
4.969331994652748108e-02
7.694040983915328979e-02
2.740047574043273926e-01
-1.452949792146682739e-01
9.964179992675781250e-02
6.645762920379638672e-02
3.416562452912330627e-02
5.530080944299697876e-02
-2.684828937053680420e-01
-4.773380607366561890e-02
-7.140918821096420288e-02
2.096848785877227783e-01
1.490691602230072021e-01
-9.886184334754943848e-02
-2.607163041830062866e-02
2.849141061305999756e-01
-1.165729463100433350e-01
-7.749247550964355469e-02
-3.401045501232147217e-01
3.150093555450439453e-01
2.049803733825683594e-02
1.034756228327751160e-01
-1.318580508232116699e-01
-2.228173464536666870e-01
-1.674331426620483398e-01
-1.184378787875175476e-01
6.746727973222732544e-02
-1.136997789144515991e-01
2.203243784606456757e-02
3.356858715415000916e-02
-1.899522989988327026e-01
-7.298980373889207840e-03
-2.791437879204750061e-02
-7.475655525922775269e-02
-4.323522374033927917e-02
-6.218555383384227753e-03
-5.212532728910446167e-02
1.055389363318681717e-02
-4.663567990064620972e-02
2.847637832164764404e-01
3.474066555500030518e-01
-1.449272036552429199e-02
-8.814305812120437622e-02
9.968625754117965698e-02
-2.260700017213821411e-01
-2.827058434486389160e-01
1.829492598772048950e-01
9.871587902307510376e-02
-2.404825203120708466e-02
-1.520715355873107910e-01
-9.352996200323104858e-02
1.107920289039611816e+00
-6.618929654359817505e-02
-1.727281361818313599e-01
-1.725004166364669800e-01
-1.040508449077606201e-01
8.015607297420501709e-02
-3.779481351375579834e-02
9.428737685084342957e-03
-4.303395748138427734e-02
2.465959824621677399e-02
-2.791772224009037018e-02
-7.013349980115890503e-02
-4.597366228699684143e-02
8.616724610328674316e-02
-8.911983668804168701e-02
9.363764524459838867e-02
1.120430752635002136e-01
1.880326420068740845e-01
7.012517191469669342e-03
9.210921078920364380e-02
-8.138991147279739380e-02
-1.306343264877796173e-02
-6.990993767976760864e-02
-8.548461832106113434e-03
3.613070845603942871e-01
-1.210281327366828918e-01
-1.303860098123550415e-01
1.642491221427917480e-01
1.480031460523605347e-01
-3.079655766487121582e-01
3.297182023525238037e-01
-3.644331544637680054e-02
1.482000350952148438e-01
2.361759990453720093e-01
2.810664847493171692e-02
-1.671357899904251099e-01
2.390650808811187744e-01
9.444329887628555298e-02
-4.687695205211639404e-02
-1.095653101801872253e-01
1.424454152584075928e-01
4.872769117355346680e-02
-2.806147746741771698e-02
5.192390680313110352e-01
7.601544260978698730e-02
-9.393858164548873901e-02
-1.563628017902374268e-02
-5.896237865090370178e-02
1.867475658655166626e-01
-1.623688936233520508e-01
1.110582961700856686e-03
1.381687521934509277e-01
-1.815061867237091064e-01
1.233847904950380325e-02
-1.468508392572402954e-01
-1.993068605661392212e-01
-7.471629977226257324e-02
1.112230345606803894e-01
1.677265167236328125e-01
1.186552047729492188e-01
1.422498971223831177e-01
5.133959464728832245e-03
-1.437617652118206024e-02
9.898567944765090942e-02
-4.017977416515350342e-02
2.029459327459335327e-01
-4.579955711960792542e-02
1.357060968875885010e-01
1.472407281398773193e-01
-9.894051402807235718e-02
2.687956690788269043e-01
3.661330416798591614e-02
-2.211677283048629761e-01
-1.929369941353797913e-02
-9.385906159877777100e-02
-3.168629109859466553e-01
1.156568899750709534e-01
-2.947632037103176117e-02
2.020252346992492676e-01
7.560468465089797974e-02
-2.991031408309936523e-01
1.888760626316070557e-01
-6.602225452661514282e-02
6.111242109909653664e-04
-8.754859119653701782e-02
5.709646269679069519e-02
-1.292586177587509155e-01
-3.060726523399353027e-01
-1.151247471570968628e-01
-9.153566509485244751e-02
8.170027285814285278e-02
1.612976640462875366e-01
-6.810589134693145752e-02
-3.973320499062538147e-02
9.672484546899795532e-02
-4.090929031372070312e-02
-1.068931519985198975e-01
-8.871667087078094482e-02
1.127915009856224060e-01
2.120547927916049957e-02
-1.569802910089492798e-01
-1.477036327123641968e-01
7.817893475294113159e-02
1.595007479190826416e-01
7.534305006265640259e-02
-7.873520255088806152e-02
2.251509875059127808e-01
1.894981712102890015e-01
-1.397349834442138672e-01
-3.984415158629417419e-02
-9.852043539285659790e-02
-9.000689536333084106e-02
-2.444721311330795288e-01
-1.510839909315109253e-01
4.892018437385559082e-02
-1.472395956516265869e-01
-1.922342032194137573e-01
-1.902558803558349609e-01
2.639329731464385986e-01
-1.434989124536514282e-01
1.940047293901443481e-01
1.979331970214843750e-01
-1.712485700845718384e-01
1.848092228174209595e-01
-1.175130382180213928e-01
-1.520626097917556763e-01
-5.744525417685508728e-02
3.303143084049224854e-01
-3.110113441944122314e-01
1.435679197311401367e-01
-3.092104941606521606e-02
7.657371461391448975e-02
-1.686743199825286865e-01
-1.506958901882171631e-01
2.516890168190002441e-01
9.079001098871231079e-02
-1.240064799785614014e-01
9.034484624862670898e-02
1.381746530532836914e-01
2.685653865337371826e-01
4.633695632219314575e-02
-1.117112338542938232e-01
2.517611682415008545e-01
-3.840846195816993713e-02
1.856419891119003296e-01
3.376906216144561768e-01
-1.032131463289260864e-01
1.028994023799896240e-01
1.590420119464397430e-02
-9.360916167497634888e-02
-4.604397341609001160e-02
-1.383070498704910278e-01
-1.114889308810234070e-01
-3.967421129345893860e-02
-1.063762232661247253e-01
-7.373183034360408783e-03
-1.992443650960922241e-01
1.251396238803863525e-01
-3.137390911579132080e-01
4.188544750213623047e-01
2.601152062416076660e-01
-1.230388134717941284e-01
-1.992260068655014038e-01
-1.324644237756729126e-01
1.283998638391494751e-01
-1.325127780437469482e-01
4.106053709983825684e-02
3.012638390064239502e-01
-6.611448526382446289e-02
1.837994009256362915e-01
-9.114199131727218628e-02
-1.410854421555995941e-02
8.456256985664367676e-02
-1.590126603841781616e-01
-7.741498202085494995e-02
2.287058085203170776e-01
-1.544034034013748169e-01
-3.659547865390777588e-02
6.624542176723480225e-02
