-4.234118759632110596e-01
3.737559169530868530e-02
2.751601301133632660e-02
-2.179583758115768433e-01
-4.778952524065971375e-02
3.484723865985870361e-01
-3.206358104944229126e-02
-3.675191849470138550e-02
-3.525705039501190186e-01
-3.409468829631805420e-01
-8.130143582820892334e-02
-1.805758923292160034e-01
-4.362221807241439819e-03
-1.381988078355789185e-01
5.318956375122070312e-01
2.580895423889160156e-01
-5.432673916220664978e-02
-2.974096834659576416e-01
1.060775518417358398e-01
-3.173345699906349182e-02
-3.398571312427520752e-01
5.689822509884834290e-02
-2.797002792358398438e-01
-1.573095023632049561e-01
-8.979286998510360718e-02
-1.687485873699188232e-01
-3.840273618698120117e-01
-1.388085484504699707e-01
-9.604471176862716675e-02
-3.021077997982501984e-02
-1.664941906929016113e-01
-8.900128304958343506e-03
-1.362832486629486084e-01
1.535290479660034180e-01
2.845425307750701904e-01
-7.431461662054061890e-02
-6.501178443431854248e-02
-7.461144775152206421e-02
-8.019694685935974121e-02
-3.743524104356765747e-02
-4.032548144459724426e-02
5.583426728844642639e-02
-2.945303320884704590e-01
-8.272088319063186646e-02
-2.499182969331741333e-01
1.344965100288391113e-01
9.067010879516601562e-02
-3.326647877693176270e-01
2.911594510078430176e-01
2.796308100223541260e-01
-4.612039029598236084e-02
-2.033654600381851196e-02
-1.549591869115829468e-01
-1.318068504333496094e-01
-2.147935628890991211e-01
-2.641783952713012695e-01
3.033573925495147705e-01
-5.314033012837171555e-03
-1.353533379733562469e-02
-2.660552263259887695e-01
3.560501337051391602e-01
3.351945430040359497e-02
-3.770366311073303223e-01
-1.291593164205551147e-01
-4.482112228870391846e-01
-1.641195714473724365e-01
-2.133895009756088257e-01
-2.801125645637512207e-01
-2.080927789211273193e-01
3.357697129249572754e-01
-2.491813302040100098e-01
-3.371320292353630066e-02
-5.061808601021766663e-02
-1.760661900043487549e-01
-1.617513746023178101e-01
-1.407261043787002563e-01
-2.839600145816802979e-01
-1.090011894702911377e-01
3.039287924766540527e-01
-1.026093214750289917e-01
1.417444348335266113e-01
-2.247228473424911499e-01
-1.205751448869705200e-01
-9.665681049227714539e-03
-2.341076284646987915e-01
-3.466887772083282471e-01
-1.492526531219482422e-01
-7.913480699062347412e-02
1.056354939937591553e-01
-2.835210561752319336e-01
-3.280490636825561523e-01
1.784771233797073364e-01
-1.193543523550033569e-01
-2.193007990717887878e-02
3.731134235858917236e-01
-8.806446194648742676e-02
1.614803969860076904e-01
5.236078053712844849e-02
-1.022005453705787659e-01
-7.417614758014678955e-02
-1.370765417814254761e-01
-3.999855369329452515e-02
-2.857881486415863037e-01
-1.146635860204696655e-01
2.563643157482147217e-01
-2.994680106639862061e-01
3.672390431165695190e-02
3.163489997386932373e-01
2.490271329879760742e-01
-3.654848933219909668e-01
1.468971222639083862e-01
6.889107078313827515e-02
3.150126039981842041e-01
-2.732855975627899170e-01
-2.807564437389373779e-01
-1.871354430913925171e-01
-2.615996003150939941e-01
-3.103909790515899658e-01
-3.965877592563629150e-01
-2.515148520469665527e-01
-1.652203649282455444e-01
1.502419412136077881e-01
-1.970643103122711182e-01
-1.285272929817438126e-02
-2.981109321117401123e-01
-1.012272313237190247e-01
-2.508711516857147217e-01
-6.606473028659820557e-02
-6.501998752355575562e-02
2.579510807991027832e-01
-6.335096806287765503e-02
3.495072200894355774e-02
5.983496084809303284e-02
-2.556689381599426270e-01
-3.373909294605255127e-01
-4.223181009292602539e-01
1.939698010683059692e-01
3.190324604511260986e-01
-1.056420281529426575e-01
2.759930193424224854e-01
-1.377438455820083618e-01
-1.203519925475120544e-01
-1.173311471939086914e-02
-2.600390017032623291e-01
2.024397440254688263e-02
-4.097280502319335938e-01
1.159138046205043793e-02
2.438380420207977295e-01
3.733623400330543518e-02
-2.823367714881896973e-02
1.993834972381591797e-01
-3.878108263015747070e-01
-2.757070660591125488e-01
-4.334483146667480469e-01
-3.021947741508483887e-01
-3.275188058614730835e-02
-3.009021878242492676e-01
-2.832026183605194092e-01
5.693227984011173248e-03
-8.355838060379028320e-02
-3.619445860385894775e-02
-1.388784199953079224e-01
-4.326243102550506592e-01
-5.589578673243522644e-02
-3.942808508872985840e-01
1.704066097736358643e-01
-3.631243109703063965e-02
-2.425373494625091553e-01
1.181465946137905121e-02
-3.210383355617523193e-01
-3.056092187762260437e-02
-3.560368716716766357e-01
-3.718145191669464111e-01
3.019901216030120850e-01
-1.920556724071502686e-01
-1.454025208950042725e-01
-5.710260942578315735e-02
-4.722203910350799561e-01
-2.069997936487197876e-01
-3.339756429195404053e-01
-2.848424315452575684e-01
-3.746511042118072510e-02
-1.402948647737503052e-01
-2.696194350719451904e-01
-3.748169243335723877e-01
-2.375098466873168945e-01
-3.944337666034698486e-01
3.284899145364761353e-02
-1.956991851329803467e-01
-5.244479700922966003e-02
-6.550995260477066040e-02
-1.676265746355056763e-01
-4.756421223282814026e-02
2.138651348650455475e-02
-3.772993385791778564e-01
2.788888812065124512e-01
-1.299033164978027344e-01
3.194625377655029297e-01
-1.062297075986862183e-01
-1.822748035192489624e-01
1.405962929129600525e-02
-1.148098409175872803e-01
7.176261544227600098e-01
5.972269177436828613e-02
9.719402343034744263e-02
-1.673029386438429356e-03
-1.659785062074661255e-01
-6.222774088382720947e-02
-3.738747835159301758e-01
-1.200026720762252808e-01
-2.931773960590362549e-01
1.502501368522644043e-01
-2.552312910556793213e-01
2.893489003181457520e-01
1.581514813005924225e-02
-2.908571064472198486e-01
7.779803872108459473e-02
-3.369514942169189453e-01
-1.388581693172454834e-01
-4.452012106776237488e-02
-2.408614605665206909e-01
-2.912578284740447998e-01
-3.160452097654342651e-02
-2.663548588752746582e-01
-9.791486896574497223e-03
-1.858835071325302124e-01
3.305100202560424805e-01
-3.692035079002380371e-01
-5.906718224287033081e-02
1.744273491203784943e-02
-1.640575975179672241e-01
-7.225736975669860840e-02
-9.266787767410278320e-02
2.868717312812805176e-01
-1.004985496401786804e-01
-4.019908308982849121e-01
-3.064293265342712402e-01
-1.596270352602005005e-01
-1.430111825466156006e-01
-1.314404904842376709e-01
-3.304692506790161133e-01
-1.469241678714752197e-01
3.004798106849193573e-02
-6.140416488051414490e-02
2.332262881100177765e-02
-3.484694287180900574e-02
-3.098762929439544678e-01
-1.521268337965011597e-01
-3.773625791072845459e-01
-6.315115839242935181e-02
-2.344212494790554047e-02
-9.929230809211730957e-02
-2.014884650707244873e-01
-5.937228724360466003e-02
-5.881749838590621948e-02
2.256961762905120850e-01
