1.107705407775938511e-03
1.001186519861221313e-01
1.135954707860946655e-01
-9.461002796888351440e-02
-1.977863311767578125e-01
-3.175174593925476074e-01
-2.470083385705947876e-01
-1.959085837006568909e-02
-1.650863885879516602e-01
-1.292387768626213074e-02
4.435308277606964111e-01
4.986840113997459412e-02
-1.123163774609565735e-01
-2.212360948324203491e-01
-2.038277089595794678e-01
-5.360694229602813721e-02
-2.179287746548652649e-02
2.866560220718383789e-01
-1.695680618286132812e-02
3.859430551528930664e-01
-1.445468962192535400e-01
-2.567034587264060974e-02
3.097796440124511719e-02
-7.827263325452804565e-02
-8.109632879495620728e-02
-1.113731712102890015e-01
-4.303335398435592651e-02
-4.201553761959075928e-01
-1.584865897893905640e-01
2.392303384840488434e-02
-3.839028477668762207e-01
-8.469347655773162842e-02
1.134599000215530396e-01
-3.062374703586101532e-02
-1.248656213283538818e-01
-9.319783002138137817e-02
-7.810526341199874878e-02
2.119027078151702881e-01
-4.836907684803009033e-01
4.165017306804656982e-01
-2.436153441667556763e-01
-2.057724297046661377e-01
-5.587908625602722168e-02
2.839273214340209961e-01
3.221734985709190369e-02
-1.157600954174995422e-01
9.392818063497543335e-02
-2.741352319717407227e-01
1.914342194795608521e-01
-1.105913333594799042e-02
-2.169594168663024902e-01
-3.338394165039062500e-01
-4.552691578865051270e-01
-2.299534678459167480e-01
-1.644110828638076782e-01
-1.221304386854171753e-01
1.159453243017196655e-01
7.587729692459106445e-01
-2.882481086999177933e-03
-2.691170871257781982e-01
-2.538332939147949219e-01
-2.370937615633010864e-01
1.291760951280593872e-01
8.876451849937438965e-02
-1.123157292604446411e-01
-2.062091045081615448e-02
2.695570513606071472e-02
2.448219656944274902e-01
-4.188374876976013184e-01
1.218959391117095947e-01
-6.824354827404022217e-02
-2.094178497791290283e-01
0.000000000000000000e+00
-2.419539541006088257e-01
2.857451327145099640e-02
3.697641193866729736e-02
-1.155177801847457886e-01
9.724645875394344330e-03
-6.366939842700958252e-02
-3.428646028041839600e-01
3.988332673907279968e-02
-1.538501679897308350e-01
-4.279871582984924316e-01
-3.018278479576110840e-01
-1.004037857055664062e-01
-3.999597951769828796e-02
-6.399158835411071777e-01
1.497351471334695816e-02
8.140982687473297119e-02
-2.527956366539001465e-01
-1.467871963977813721e-01
1.423632353544235229e-01
-4.819220900535583496e-01
2.607065439224243164e-01
-1.452114339917898178e-02
2.777731604874134064e-02
5.507005006074905396e-02
1.103015765547752380e-01
-2.305505797266960144e-03
2.675418853759765625e-01
-3.886599242687225342e-01
-2.207249104976654053e-01
-4.817035794258117676e-02
4.242912679910659790e-02
-2.828108705580234528e-02
-6.077293679118156433e-02
2.589901387691497803e-01
3.096123337745666504e-01
-3.386497870087623596e-02
-1.668383330106735229e-01
-1.567778289318084717e-01
3.542387485504150391e-01
4.507483681663870811e-04
-2.136675864458084106e-01
7.261734455823898315e-02
-1.327530890703201294e-01
-1.283907443284988403e-01
-3.134976923465728760e-01
-2.591399550437927246e-01
-8.692651242017745972e-02
-2.016695141792297363e-01
1.353604160249233246e-02
-1.586731076240539551e-01
8.917272090911865234e-02
-5.118438601493835449e-01
7.369539886713027954e-02
-1.631725281476974487e-01
-2.215246558189392090e-01
-1.026510596275329590e-01
2.858861982822418213e-01
1.299435347318649292e-01
1.106857731938362122e-01
1.181361302733421326e-01
2.754063010215759277e-01
-2.315142303705215454e-01
1.876123845577239990e-01
-9.385127574205398560e-02
-1.381030026823282242e-02
-5.610750615596771240e-02
2.780077159404754639e-01
-1.634186953306198120e-01
-6.175814867019653320e-01
-1.691685020923614502e-01
-3.318636715412139893e-01
-1.287633776664733887e-01
5.588589310646057129e-01
-5.141420662403106689e-02
6.774860620498657227e-02
6.578155606985092163e-02
3.389383852481842041e-02
-3.916723132133483887e-01
7.122648507356643677e-02
-9.784352779388427734e-02
-1.819584071636199951e-01
2.488722652196884155e-02
9.904491901397705078e-02
-3.674608469009399414e-02
9.967529028654098511e-02
3.924897015094757080e-01
-7.351949810981750488e-01
9.839242696762084961e-02
-3.316979855298995972e-02
-1.801554858684539795e-01
6.340476125478744507e-02
-8.337196707725524902e-02
3.490542471408843994e-01
2.858045138418674469e-02
-2.645146250724792480e-01
-4.425993189215660095e-02
2.414430975914001465e-01
-4.801901876926422119e-01
1.825899034738540649e-01
-1.760363578796386719e-01
-7.733209431171417236e-02
-3.004462122917175293e-01
-4.066136181354522705e-01
6.812847405672073364e-02
-4.905709251761436462e-02
-2.605026066303253174e-01
-1.077144220471382141e-01
1.006419882178306580e-01
-6.813163869082927704e-03
2.106375098228454590e-01
-2.673522531986236572e-01
1.606223583221435547e-01
2.471611648797988892e-02
-7.487117499113082886e-02
-3.146241307258605957e-01
-1.845581084489822388e-01
9.875205159187316895e-02
-3.164865970611572266e-01
-2.406071573495864868e-01
2.018179148435592651e-01
-7.775047421455383301e-02
1.126579791307449341e-01
-4.383261203765869141e-01
5.309589579701423645e-02
-3.724167048931121826e-01
-2.580925822257995605e-01
1.022648438811302185e-01
4.633838236331939697e-01
-3.787038028240203857e-01
-1.543354894965887070e-02
-4.135701060295104980e-02
-1.352106630802154541e-01
1.600011140108108521e-01
-1.898470520973205566e-01
-7.628022134304046631e-02
-2.608248963952064514e-02
-4.502348005771636963e-01
-2.385310828685760498e-01
1.324143409729003906e-01
-3.746089935302734375e-01
-1.243289709091186523e-01
-3.355745375156402588e-01
4.660716056823730469e-01
-1.047938838601112366e-01
-2.311633974313735962e-01
-4.136424958705902100e-01
2.664655148983001709e-01
-6.818339973688125610e-02
-2.677723765373229980e-01
-2.259664833545684814e-01
-5.350926145911216736e-02
-3.154645562171936035e-01
-2.924383878707885742e-01
1.502923760563135147e-02
-4.499895274639129639e-01
-2.153404355049133301e-01
-1.006254255771636963e-01
7.072617765516042709e-03
-9.380941092967987061e-02
-6.061041727662086487e-02
-1.233798936009407043e-01
-3.809570372104644775e-01
3.082536756992340088e-01
-3.446494638919830322e-01
1.163009330630302429e-01
4.740086942911148071e-02
1.033806502819061279e-01
5.873225629329681396e-02
-1.917510330677032471e-01
3.549899756908416748e-01
4.581966400146484375e-01
-1.890814453363418579e-01
-1.936985738575458527e-02
-1.269287168979644775e-01
2.181602865457534790e-01
2.786579132080078125e-01
-3.103756606578826904e-01
-2.119436413049697876e-01
8.682324737310409546e-02
-9.245474636554718018e-02
2.547967992722988129e-02
-1.523599773645401001e-01
2.779942452907562256e-01
