-1.231145262718200684e-01
1.101967785507440567e-02
-2.626290023326873779e-01
-6.256680935621261597e-02
3.213961124420166016e-01
-1.469155550003051758e-01
-1.836875081062316895e-01
3.641963750123977661e-02
-9.725360572338104248e-02
2.768950760364532471e-01
-3.435812890529632568e-02
-9.539143741130828857e-02
-2.892071008682250977e-01
6.056050583720207214e-02
1.014592349529266357e-01
-1.217318698763847351e-01
1.172940526157617569e-02
-3.710162937641143799e-01
2.747302949428558350e-01
9.627166390419006348e-02
-5.697651579976081848e-02
8.477830141782760620e-02
3.984215483069419861e-02
6.586481630802154541e-02
-1.868581585586071014e-02
1.860621944069862366e-02
1.740735322237014771e-01
-1.069806441664695740e-01
-1.754012256860733032e-01
-1.238213181495666504e-01
3.583562746644020081e-02
-2.760249376296997070e-01
-2.407400459051132202e-01
-8.239351958036422729e-02
-3.901869431138038635e-02
-1.914767771959304810e-01
-8.520465344190597534e-02
-2.153266072273254395e-01
1.378789246082305908e-01
7.006693631410598755e-02
2.544087767601013184e-01
-6.290525943040847778e-02
-1.996950432658195496e-02
-1.067287698388099670e-01
-1.058356463909149170e-01
-2.243006601929664612e-02
-1.467767357826232910e-01
1.565190777182579041e-02
-9.832002967596054077e-02
-1.005680561065673828e-01
-8.394172787666320801e-02
-2.740436792373657227e-01
-1.135449185967445374e-01
-1.308722421526908875e-02
-2.474770881235599518e-02
-2.674124948680400848e-02
-1.620046943426132202e-01
-8.655687421560287476e-02
3.685335442423820496e-02
-1.720021367073059082e-01
-1.611746251583099365e-01
1.553306579589843750e-01
-6.291784346103668213e-02
-3.403775021433830261e-02
-5.936755985021591187e-02
-6.098326295614242554e-02
-2.922456562519073486e-01
-1.461120229214429855e-02
-5.441697314381599426e-02
-2.952720969915390015e-02
7.619239389896392822e-03
1.344675719738006592e-01
-2.219387888908386230e-01
5.250236392021179199e-02
-2.263014912605285645e-01
-1.100988313555717468e-01
-2.017101794481277466e-01
-7.861896604299545288e-02
2.275513485074043274e-02
4.114731773734092712e-02
-4.088233783841133118e-02
-1.084410995244979858e-01
-2.090065628290176392e-01
-1.580048054456710815e-01
-2.060832828283309937e-01
1.650925492867827415e-03
-9.211269021034240723e-02
-4.799968376755714417e-02
2.040784657001495361e-01
7.171416878700256348e-01
-1.477257013320922852e-01
-1.399277895689010620e-01
-4.700175672769546509e-02
-9.217849373817443848e-02
3.208029568195343018e-01
-4.370709508657455444e-02
-2.304649055004119873e-01
-4.657382518053054810e-02
-2.589783445000648499e-02
-1.422835737466812134e-01
-6.076492369174957275e-02
3.737963736057281494e-01
-4.554921016097068787e-02
-1.788580119609832764e-01
-1.083024740219116211e-01
-2.344620972871780396e-01
5.092832073569297791e-02
-3.970737755298614502e-01
-1.221555024385452271e-01
3.045586496591567993e-02
-5.465974658727645874e-02
-1.720300763845443726e-01
-1.490549296140670776e-01
-8.244238793849945068e-02
6.711671128869056702e-03
-1.791021525859832764e-01
-4.487735568545758724e-04
2.240223437547683716e-01
5.197373032569885254e-02
-1.523984316736459732e-02
6.383705139160156250e-02
-1.851451350376009941e-03
2.458823025226593018e-01
1.450118422508239746e-01
2.344776839017868042e-01
-1.425340324640274048e-01
-8.420336991548538208e-02
-1.494135521352291107e-02
-2.029111981391906738e-02
-8.797360211610794067e-02
-2.613535821437835693e-01
-3.458176851272583008e-01
7.262367755174636841e-02
-9.568902850151062012e-02
-1.822350360453128815e-02
-7.498818635940551758e-02
-9.172289818525314331e-02
1.967191882431507111e-02
-2.710486352443695068e-01
1.990561932325363159e-02
-1.947813294827938080e-02
-4.205656051635742188e-02
1.292473822832107544e-02
9.296218305826187134e-02
8.193518221378326416e-02
1.940823942422866821e-01
-3.263694047927856445e-01
6.451494991779327393e-02
3.295893222093582153e-02
-1.080611050128936768e-01
9.664786607027053833e-02
-1.991387307643890381e-01
-1.885850168764591217e-02
7.405954599380493164e-02
-8.451863378286361694e-02
-2.676237821578979492e-01
-9.903603047132492065e-02
-8.880836516618728638e-02
-2.344738543033599854e-01
9.454482793807983398e-02
1.462565921247005463e-02
9.543503075838088989e-02
1.278531849384307861e-01
-6.157021969556808472e-02
1.585470587015151978e-01
2.734928131103515625e-01
-2.116493880748748779e-01
-3.613686561584472656e-02
-1.439037322998046875e-01
-1.085916161537170410e-01
1.884816735982894897e-01
-1.528734862804412842e-01
3.525065258145332336e-02
4.183031618595123291e-02
2.706867754459381104e-01
-9.361325204372406006e-02
1.749643832445144653e-01
6.073558330535888672e-02
1.174383834004402161e-01
-1.568694226443767548e-02
-2.415753602981567383e-01
-8.135315030813217163e-02
-2.246250808238983154e-01
2.162559516727924347e-02
-9.658782929182052612e-02
-3.596163168549537659e-02
-1.880911737680435181e-01
-1.393014341592788696e-01
-1.902717351913452148e-02
-9.015738964080810547e-02
1.316491514444351196e-01
-6.784969568252563477e-02
-1.316497623920440674e-01
-1.009101495146751404e-01
-7.890935242176055908e-02
-5.737169086933135986e-02
-1.756362915039062500e-01
-6.844414770603179932e-02
6.080094352364540100e-02
-1.492533385753631592e-01
1.126892492175102234e-01
-1.447114646434783936e-01
2.258974127471446991e-03
3.213956356048583984e-01
-1.043898612260818481e-01
-6.155339255928993225e-02
1.941134184598922729e-01
-2.257317304611206055e-01
7.615572214126586914e-02
1.705541014671325684e-01
2.146927565336227417e-01
-2.875229716300964355e-02
-1.903075277805328369e-01
2.401494532823562622e-01
1.008274406194686890e-02
3.172870576381683350e-01
9.465336054563522339e-02
8.745574951171875000e-02
3.962052613496780396e-02
-1.305550802499055862e-02
-1.430660039186477661e-01
-1.241576150059700012e-01
-1.487576067447662354e-01
7.811129838228225708e-02
-1.597692072391510010e-01
-2.604582011699676514e-01
-1.345292627811431885e-01
-4.566583782434463501e-02
7.038854807615280151e-02
-1.402021050453186035e-01
2.474102228879928589e-01
-1.823399215936660767e-02
-1.878789067268371582e-01
-3.132570385932922363e-01
-9.604734927415847778e-02
-2.554377317428588867e-01
-2.050949633121490479e-01
1.608933508396148682e-01
-6.701243668794631958e-02
-4.219405725598335266e-02
-1.169131025671958923e-01
-1.742836236953735352e-01
-1.769158057868480682e-02
-1.955898106098175049e-01
-2.059005051851272583e-01
-2.532111704349517822e-01
-2.033769935369491577e-01
3.233081195503473282e-03
-1.956313103437423706e-01
9.459453821182250977e-01
5.802278965711593628e-02
-4.883247241377830505e-02
-8.260863274335861206e-02
3.240927308797836304e-02
-1.456762105226516724e-01
-9.501635096967220306e-03
