-1.911619119346141815e-02
-1.198347657918930054e-01
-3.673397749662399292e-02
-1.059595216065645218e-02
-5.316517129540443420e-02
-1.221521496772766113e-01
3.026879429817199707e-01
-5.961287394165992737e-02
1.574510186910629272e-01
4.362731054425239563e-02
1.268505752086639404e-01
6.825856119394302368e-02
-2.201984077692031860e-02
4.270241782069206238e-02
-2.529494166374206543e-01
-3.126650676131248474e-02
3.824964165687561035e-02
-1.705512702465057373e-01
2.976185083389282227e-01
3.776247799396514893e-02
4.008020740002393723e-03
-4.962165281176567078e-02
-6.174477282911539078e-03
-1.498811841011047363e-01
5.427584797143936157e-02
-1.645408757030963898e-02
-8.230452239513397217e-02
4.541083574295043945e-01
-1.194861251860857010e-02
-1.379311680793762207e-01
-2.811171859502792358e-02
6.627983599901199341e-02
-1.996639817953109741e-01
-7.734654098749160767e-02
-3.713976219296455383e-02
1.969583928585052490e-01
5.675835162401199341e-02
1.517107430845499039e-02
1.231414359062910080e-02
-2.385318279266357422e-01
-2.641456201672554016e-02
-5.848114378750324249e-03
-2.330296784639358521e-01
1.062505394220352173e-01
9.567178040742874146e-02
4.213515669107437134e-02
1.274711787700653076e-01
1.361623220145702362e-02
-1.905238023027777672e-03
-9.028787910938262939e-02
2.414557151496410370e-02
5.428040027618408203e-02
-1.397215873003005981e-01
1.048962175846099854e-01
-2.581601142883300781e-01
-1.902319490909576416e-02
7.771254517138004303e-03
-2.475415170192718506e-01
1.795548945665359497e-02
1.169040948152542114e-01
2.251235097646713257e-01
8.417685329914093018e-02
3.928463160991668701e-02
-6.661212537437677383e-03
1.363132148981094360e-01
-3.904790431261062622e-02
1.962693929672241211e-01
-1.108579710125923157e-01
7.061758078634738922e-04
-5.976661294698715210e-02
-1.622461378574371338e-01
8.851225674152374268e-02
9.500552713871002197e-02
-4.036694765090942383e-02
6.488598138093948364e-02
9.378706663846969604e-02
-9.767800569534301758e-02
-2.042841315269470215e-01
-1.740562915802001953e-01
1.448654569685459137e-02
-1.014918312430381775e-01
2.859593741595745087e-02
7.860839366912841797e-02
-1.874848902225494385e-01
5.158377811312675476e-02
-3.222660627216100693e-03
-1.570633500814437866e-01
-1.800915300846099854e-01
4.924477264285087585e-02
1.676325649023056030e-01
1.605248451232910156e-02
-1.496894806623458862e-01
2.255844185128808022e-03
-1.670508235692977905e-01
-4.341121017932891846e-02
-2.544029802083969116e-02
3.338321670889854431e-02
2.004322223365306854e-02
-7.839179039001464844e-02
-7.381492760032415390e-03
1.261944621801376343e-01
-4.601552337408065796e-02
-1.416277736425399780e-01
-2.103056199848651886e-02
1.436541676521301270e-01
1.633853465318679810e-01
1.910350620746612549e-01
-1.213544309139251709e-01
7.540423423051834106e-02
-6.336727738380432129e-02
-4.545002803206443787e-02
-6.599735468626022339e-02
1.013048589229583740e-01
-2.058827430009841919e-01
1.204079836606979370e-01
1.067809984087944031e-01
-1.008897051215171814e-01
-5.150415748357772827e-02
7.858051359653472900e-02
-8.118284493684768677e-02
1.315771043300628662e-01
7.275459170341491699e-02
-7.381876558065414429e-02
4.180244728922843933e-02
6.920082122087478638e-02
-1.438281238079071045e-01
1.093292459845542908e-01
-7.144903391599655151e-02
-1.566907167434692383e-01
7.138552516698837280e-02
1.298192143440246582e-01
1.394654661417007446e-01
1.529430411756038666e-02
4.171930998563766479e-02
-2.284809574484825134e-02
-1.801802217960357666e-01
-2.243234664201736450e-01
-1.382185518741607666e-01
9.304311871528625488e-02
4.117533564567565918e-02
2.964988350868225098e-02
-6.346453726291656494e-02
-6.195262446999549866e-02
1.618509925901889801e-02
3.062763810157775879e-02
-1.407312899827957153e-01
1.068309601396322250e-02
-1.184616461396217346e-01
-1.925555802881717682e-02
-7.470876723527908325e-02
-1.541141867637634277e-01
-2.578994072973728180e-02
-1.587524116039276123e-01
9.548263624310493469e-03
-2.093838900327682495e-02
5.333165451884269714e-02
2.145965844392776489e-01
7.196631282567977905e-02
-7.365471124649047852e-02
2.107759006321430206e-02
-1.340358704328536987e-01
-4.662575945258140564e-02
1.141108796000480652e-01
-2.173460125923156738e-01
-1.747237890958786011e-01
2.465788647532463074e-02
2.322227507829666138e-02
-1.392011195421218872e-01
5.291808769106864929e-02
-5.811626091599464417e-02
-2.452965676784515381e-01
-1.624493300914764404e-01
1.841191351413726807e-01
3.938003778457641602e-01
2.393871843814849854e-01
-7.787544280290603638e-02
8.180055767297744751e-02
1.919881105422973633e-01
-5.244724825024604797e-02
-1.861936151981353760e-01
-4.321052879095077515e-02
-8.189877122640609741e-02
5.455532670021057129e-02
-2.896610833704471588e-02
-7.947043329477310181e-02
-1.758828014135360718e-02
9.986005723476409912e-02
-1.985321342945098877e-01
-4.341926425695419312e-03
5.028332024812698364e-02
-2.472054772078990936e-02
-4.643686115741729736e-02
3.014784865081310272e-02
-9.301555156707763672e-02
1.510652452707290649e-01
4.087531194090843201e-02
-1.515488624572753906e-01
-3.498869389295578003e-02
3.862902987748384476e-03
1.918173395097255707e-02
-2.750546298921108246e-02
4.246695339679718018e-02
3.195491135120391846e-01
-5.667896196246147156e-02
-2.597539126873016357e-02
1.020045503973960876e-01
-1.765228211879730225e-01
-7.240752130746841431e-02
7.297721505165100098e-02
-1.740082800388336182e-01
-8.044344931840896606e-02
1.529165506362915039e-01
-8.936333656311035156e-02
7.153845578432083130e-02
-1.064021736383438110e-01
9.832506626844406128e-02
1.375839561223983765e-01
0.000000000000000000e+00
-6.169402971863746643e-02
-8.864587545394897461e-02
-5.927469953894615173e-02
1.609090343117713928e-02
3.488644585013389587e-02
2.308997362852096558e-01
-8.401030302047729492e-02
-1.522241383790969849e-01
-1.074105501174926758e-01
-3.879183903336524963e-02
-5.489396676421165466e-02
1.209998577833175659e-01
2.479169890284538269e-02
-3.466259315609931946e-02
1.434422796592116356e-03
-1.873614639043807983e-01
5.458229035139083862e-02
-9.292996674776077271e-02
2.547040581703186035e-01
-8.134834468364715576e-02
1.801268905401229858e-01
3.329346328973770142e-02
-1.240000221878290176e-02
-4.402304440736770630e-02
9.996935725212097168e-02
-2.233832346973940730e-04
-7.242900878190994263e-02
-1.619989275932312012e-01
1.263813674449920654e-02
-1.262008305639028549e-02
-5.546274781227111816e-02
-5.776475742459297180e-02
-1.135101839900016785e-01
-8.396185934543609619e-02
-3.177191913127899170e-01
9.520879015326499939e-03
1.104118488729000092e-02
2.177330292761325836e-02
