-4.170104861259460449e-03
-5.835419520735740662e-02
-1.062412708997726440e-01
-1.341418363153934479e-02
-2.090893127024173737e-02
1.413111016154289246e-02
8.738636970520019531e-02
1.170761585235595703e-01
-2.689069323241710663e-02
1.327537149190902710e-01
2.213894277811050415e-01
6.392139941453933716e-02
-3.527740482240915298e-03
-2.978857420384883881e-02
1.653615981340408325e-01
2.739978767931461334e-02
-9.877582639455795288e-02
-3.466830849647521973e-01
4.018660187721252441e-01
-3.533643111586570740e-02
-1.696885824203491211e-01
1.373318731784820557e-01
-1.973334886133670807e-02
3.508876636624336243e-02
-2.586698532104492188e-02
1.606710702180862427e-01
-6.892384588718414307e-02
4.754789918661117554e-02
-1.636133491992950439e-01
3.236026689410209656e-02
3.459756076335906982e-01
1.234180480241775513e-01
-1.231048926711082458e-01
-1.621627062559127808e-01
-1.144783124327659607e-01
1.660541817545890808e-02
-5.434740707278251648e-02
1.086637079715728760e-01
1.310225296765565872e-02
3.285542428493499756e-01
1.481937319040298462e-01
5.567215383052825928e-03
-4.937517642974853516e-02
-4.155983682721853256e-03
-1.459899940527975559e-03
-4.033993557095527649e-02
-1.092050522565841675e-01
1.048102229833602905e-02
-1.133406683802604675e-01
2.691066265106201172e-01
6.663686782121658325e-02
2.434289455413818359e-01
-3.385717049241065979e-02
-1.582894176244735718e-01
1.232282724231481552e-02
8.580077439546585083e-02
-9.786970913410186768e-02
-2.070399224758148193e-01
1.100353375077247620e-01
8.492137491703033447e-02
-9.123476594686508179e-02
-3.535087108612060547e-01
-2.545788325369358063e-02
2.393981069326400757e-01
-1.482153981924057007e-01
-2.295185178518295288e-01
-1.202735751867294312e-01
9.461674839258193970e-02
-3.806614130735397339e-02
4.283213242888450623e-02
-1.528539508581161499e-01
-2.119862437248229980e-01
-3.020163774490356445e-01
-1.291307620704174042e-02
7.505981326103210449e-01
-1.267180442810058594e-01
-7.826784998178482056e-02
9.982486814260482788e-02
1.632510870695114136e-01
-9.762402623891830444e-03
-1.219860464334487915e-01
-9.596779942512512207e-02
-7.209693640470504761e-02
1.377101580146700144e-05
-1.183428242802619934e-01
2.793849706649780273e-01
4.645104520022869110e-03
-1.394744664430618286e-01
-7.182492315769195557e-02
7.979312911629676819e-03
-8.744370192289352417e-02
1.382762044668197632e-01
7.432486116886138916e-02
4.174156486988067627e-02
2.109487503767013550e-01
6.942342221736907959e-02
-9.290407598018646240e-02
-1.212888732552528381e-01
5.954515188932418823e-02
1.546890884637832642e-01
-2.959808148443698883e-02
6.465490907430648804e-02
4.822297487407922745e-03
3.192312419414520264e-01
-2.967476472258567810e-02
-2.517107501626014709e-02
6.002889573574066162e-02
-9.114442765712738037e-02
2.012819610536098480e-02
1.121602952480316162e-01
-4.054877534508705139e-02
1.357975304126739502e-01
-9.173155575990676880e-02
-1.610649824142456055e-01
-6.459536403417587280e-02
6.498807668685913086e-02
1.821445971727371216e-01
1.339697688817977905e-01
-1.183938160538673401e-01
4.183925390243530273e-01
2.625879347324371338e-01
-2.374328821897506714e-01
-5.471974983811378479e-02
-1.077224165201187134e-01
1.292864829301834106e-01
1.866614222526550293e-01
1.167460158467292786e-01
6.013344600796699524e-02
2.107218801975250244e-01
1.673466265201568604e-01
-4.859959706664085388e-02
-7.002939283847808838e-02
3.486241400241851807e-01
-1.139397323131561279e-01
-5.963609740138053894e-02
6.908319890499114990e-02
3.736706566996872425e-04
-8.415240794420242310e-02
2.561484873294830322e-01
-1.343973875045776367e-01
4.795078635215759277e-01
-3.249155357480049133e-02
-6.655147671699523926e-02
5.426171794533729553e-02
-1.582686901092529297e-01
-7.779420353472232819e-03
-5.144724622368812561e-02
1.043089330196380615e-01
7.982726395130157471e-02
1.250211447477340698e-01
2.506787776947021484e-01
1.542707085609436035e-01
-2.074671983718872070e-01
-1.918845921754837036e-01
4.621748030185699463e-01
6.816883385181427002e-02
1.199189200997352600e-01
-1.021744757890701294e-01
-8.876672387123107910e-02
-8.892267942428588867e-04
-3.066905438899993896e-01
1.600464880466461182e-01
3.046942651271820068e-01
-2.214459776878356934e-01
2.289202995598316193e-02
-8.111338317394256592e-02
3.358782231807708740e-01
2.284826152026653290e-02
-2.255371212959289551e-01
1.153132170438766479e-01
6.148808822035789490e-02
1.684577316045761108e-01
3.208698928356170654e-01
-7.736385613679885864e-02
-1.091631352901458740e-01
-1.009224168956279755e-02
-2.790535688400268555e-01
-8.441946655511856079e-02
5.283269658684730530e-02
-3.441219404339790344e-02
-1.004424691200256348e-01
-5.405377969145774841e-02
5.916522070765495300e-02
-3.016073256731033325e-02
-1.204046048223972321e-02
-9.012443572282791138e-02
2.084906101226806641e-01
-5.855814367532730103e-02
-3.817183971405029297e-01
6.719318032264709473e-02
-6.803365796804428101e-02
-2.370118945837020874e-01
-2.430407106876373291e-01
-7.973987609148025513e-02
-6.916650384664535522e-02
-3.005002439022064209e-01
-5.013416334986686707e-02
-1.449129451066255569e-02
1.315041817724704742e-02
5.164701119065284729e-02
-3.032762743532657623e-02
-3.418555110692977905e-02
2.237499952316284180e-01
1.930050402879714966e-01
-1.203788965940475464e-01
-7.591894268989562988e-02
1.510703414678573608e-01
2.251230478286743164e-01
-8.980540186166763306e-02
-1.171288862824440002e-01
2.556392252445220947e-01
-1.245790719985961914e-01
-1.225276067852973938e-01
5.623719468712806702e-02
5.159014090895652771e-02
9.916754812002182007e-02
7.005089521408081055e-02
-1.178216338157653809e-01
-6.960797309875488281e-02
1.673288494348526001e-01
-1.050069630146026611e-01
-2.616406977176666260e-02
-2.615759074687957764e-01
-2.102087140083312988e-01
8.827486634254455566e-02
-1.263621151447296143e-01
-1.663759946823120117e-01
2.295914106070995331e-02
-8.264636248350143433e-02
-6.779519468545913696e-02
-3.089516982436180115e-02
1.598849147558212280e-01
-7.241466641426086426e-02
-5.642521008849143982e-02
-4.547183215618133545e-02
5.639956146478652954e-02
-3.711974993348121643e-02
-1.666954010725021362e-01
-3.908143937587738037e-02
5.231910943984985352e-02
5.276487022638320923e-02
-8.255992084741592407e-02
-8.967703580856323242e-02
5.193775519728660583e-02
-6.122836377471685410e-03
3.421999812126159668e-01
-2.039907686412334442e-02
6.103665381669998169e-02
-1.404164009727537632e-03
-3.921920433640480042e-02
-1.538512855768203735e-02
3.469762206077575684e-02
1.071918290108442307e-02
2.239241637289524078e-02
-2.508408576250076294e-02
-1.036945208907127380e-01
