-2.748394012451171875e-02
2.559257298707962036e-02
-2.082063816487789154e-02
-1.946290023624897003e-02
2.270078845322132111e-02
2.022651135921478271e-01
2.144987285137176514e-01
-3.908663243055343628e-02
2.163833566009998322e-02
-3.158567100763320923e-02
2.402644902467727661e-01
-3.019096702337265015e-02
-1.728288829326629639e-02
-1.950077712535858154e-02
5.245510339736938477e-01
5.401600152254104614e-02
4.009515047073364258e-02
-2.570891678333282471e-01
2.967350482940673828e-01
-2.636070176959037781e-02
-2.728093042969703674e-02
1.025273371487855911e-02
2.028778195381164551e-02
-9.166967123746871948e-03
-4.205260053277015686e-02
-1.139380633831024170e-01
-2.920694947242736816e-01
-3.510085940361022949e-01
-2.928661406040191650e-01
-1.083497256040573120e-01
-1.188036724925041199e-01
-2.525533139705657959e-01
-5.264480784535408020e-02
-2.293176017701625824e-02
-1.772010773420333862e-01
-2.408324480056762695e-01
-1.391009092330932617e-01
-1.924576908349990845e-01
1.273944377899169922e-01
-1.313567459583282471e-01
1.700544171035289764e-02
-1.874145716428756714e-01
-2.686951458454132080e-01
5.387383699417114258e-01
-6.809419393539428711e-02
-4.034249112010002136e-02
-8.548010885715484619e-02
-6.708718091249465942e-02
-3.660099580883979797e-02
6.221232470124959946e-03
-2.652404606342315674e-01
-4.868718981742858887e-02
1.428693234920501709e-01
-1.707655340433120728e-01
7.899212092161178589e-02
-5.878291651606559753e-02
-4.207932204008102417e-02
-2.499140948057174683e-01
-2.338422238826751709e-01
-3.979501128196716309e-02
-3.684474527835845947e-01
-2.310952404513955116e-03
-1.065156012773513794e-01
4.708447307348251343e-02
-9.849811345338821411e-02
-1.690333783626556396e-01
-4.109409078955650330e-02
5.100529640913009644e-02
-1.263728588819503784e-01
5.796488374471664429e-02
8.040717989206314087e-02
-1.244739349931478500e-02
-9.449905715882778168e-03
-2.207446098327636719e-01
-1.983868628740310669e-01
2.250684611499309540e-02
-1.154115423560142517e-01
9.429059177637100220e-02
-1.343369781970977783e-01
-5.078594386577606201e-02
4.092356860637664795e-01
-3.643310070037841797e-02
3.730101883411407471e-01
-3.633117675781250000e-02
3.866235911846160889e-01
2.667258679866790771e-01
-2.311348915100097656e-02
-3.014364652335643768e-02
-1.068965643644332886e-01
8.124078810214996338e-02
7.043491601943969727e-01
-2.177563309669494629e-01
-7.884014844894409180e-01
4.395578429102897644e-02
2.079602926969528198e-01
7.466094940900802612e-02
-1.088851690292358398e-01
5.486887693405151367e-01
-1.450479924678802490e-01
-4.717582836747169495e-02
8.578312397003173828e-02
8.273175954818725586e-01
6.824380159378051758e-02
1.557087153196334839e-01
-7.995413243770599365e-02
-1.585581898689270020e-02
-3.604720160365104675e-02
-4.347570985555648804e-02
-5.612669046968221664e-03
1.886286027729511261e-02
-2.515215612947940826e-02
3.915033861994743347e-02
2.152614295482635498e-01
-1.146253049373626709e-01
-1.099230721592903137e-03
-9.743952751159667969e-02
5.694338306784629822e-02
1.310510467737913132e-02
-7.513877749443054199e-02
1.304848939180374146e-01
-5.098214000463485718e-02
-1.024845764040946960e-01
3.651286289095878601e-02
3.619099557399749756e-01
-2.786902189254760742e-01
-7.593549042940139771e-02
5.682973563671112061e-02
-1.200506929308176041e-02
-3.811627998948097229e-02
-5.971694830805063248e-03
4.786923527717590332e-02
3.505498543381690979e-02
-3.178855776786804199e-02
4.825854003429412842e-01
3.052298128604888916e-01
-6.134515628218650818e-02
-4.674598947167396545e-02
-2.964794076979160309e-02
-2.446254491806030273e-01
3.247028216719627380e-02
8.961305022239685059e-03
-1.031543686985969543e-01
-4.522605333477258682e-03
2.057964205741882324e-01
-5.911060050129890442e-02
-1.807963997125625610e-01
-2.354992032051086426e-01
-3.732520388439297676e-03
-8.099234849214553833e-02
-1.990819126367568970e-01
3.596251457929611206e-02
4.084087163209915161e-02
-2.863241732120513916e-01
-3.971764445304870605e-01
-3.044780902564525604e-02
6.858666241168975830e-02
1.421244293451309204e-01
-2.517294585704803467e-01
2.573535079136490822e-03
1.157635003328323364e-01
-2.885624952614307404e-02
1.011806502938270569e-01
-2.463216483592987061e-01
-9.410251677036285400e-02
-1.930880844593048096e-01
2.151874825358390808e-02
-1.413415558636188507e-02
-3.841937780380249023e-01
1.140790730714797974e-01
-1.729605719447135925e-02
-4.064954221248626709e-01
6.029858067631721497e-02
7.517004013061523438e-02
-1.557390391826629639e-02
-1.423757243901491165e-02
1.225525364279747009e-01
-2.092315703630447388e-01
-1.220458373427391052e-01
-1.318125128746032715e-01
8.569364994764328003e-02
-3.254420459270477295e-01
-1.138286367058753967e-01
-1.897717267274856567e-01
-1.545362919569015503e-02
6.500720977783203125e-01
-2.987685501575469971e-01
1.181078180670738220e-01
-5.652406439185142517e-02
2.269896864891052246e-02
-2.540104687213897705e-01
-3.602486476302146912e-02
-9.620298631489276886e-03
-8.359936624765396118e-02
-1.842769086360931396e-01
-9.886173158884048462e-02
8.368074148893356323e-02
-3.575412034988403320e-01
-5.488538742065429688e-02
1.942396312952041626e-01
1.123171001672744751e-01
-3.522936627268791199e-02
-1.761143207550048828e-01
8.299539983272552490e-02
4.209387600421905518e-01
3.168831765651702881e-02
2.075207419693470001e-02
5.651575326919555664e-02
-5.823910981416702271e-02
4.969575107097625732e-01
-2.485191375017166138e-01
2.897767815738916397e-03
-4.252514839172363281e-01
-4.924933984875679016e-02
1.718171238899230957e-01
-1.652605384588241577e-01
-3.467261791229248047e-02
-2.252503931522369385e-01
-3.628430515527725220e-02
4.478536546230316162e-02
-4.692273959517478943e-02
-1.537485569715499878e-01
-1.034758426249027252e-02
1.672530360519886017e-02
1.266842186450958252e-01
3.802043199539184570e-02
-2.136571146547794342e-02
-1.789073944091796875e-01
1.473952382802963257e-01
1.232898607850074768e-01
-8.267948031425476074e-02
2.602703273296356201e-01
1.580434441566467285e-01
-1.933642774820327759e-01
7.405713200569152832e-02
-5.116583406925201416e-02
-6.262003630399703979e-02
7.625731229782104492e-01
-5.488879978656768799e-02
-4.017081260681152344e-01
1.630466133356094360e-01
1.632141694426536560e-02
-2.223018556833267212e-01
1.312192250043153763e-02
-6.731694191694259644e-02
-1.320191919803619385e-01
-3.717971220612525940e-02
-1.506723910570144653e-01
2.609314620494842529e-01
9.806197136640548706e-03
-4.810157418251037598e-02
1.131231114268302917e-01
3.248288929462432861e-01
-1.026591435074806213e-01
-2.912201732397079468e-02
3.493645414710044861e-02
3.858171999454498291e-01
