-5.389253422617912292e-02
-4.700928553938865662e-02
-3.064012825489044189e-01
3.328049778938293457e-01
-1.116103902459144592e-01
2.023790627717971802e-01
-1.006221920251846313e-01
-2.346676886081695557e-01
-8.450285345315933228e-02
8.123247325420379639e-02
-8.979512006044387817e-02
5.879090428352355957e-01
1.751337647438049316e-01
9.842356294393539429e-02
-9.489204734563827515e-02
-1.372310612350702286e-02
1.307567358016967773e-01
1.202692091464996338e-01
-5.433481931686401367e-02
-1.424018889665603638e-01
-2.173605710268020630e-01
2.345733195543289185e-01
1.868125796318054199e-02
-2.751787304878234863e-01
4.251092672348022461e-01
-2.338441759347915649e-01
9.583662450313568115e-02
-2.124861925840377808e-01
-3.593159019947052002e-01
-5.577409639954566956e-02
-3.781816363334655762e-01
-3.121481537818908691e-01
4.359017312526702881e-02
-1.095914170145988464e-01
1.848208834417164326e-03
-1.735327541828155518e-01
-8.119611442089080811e-02
-3.969583809375762939e-01
-3.314252197742462158e-01
1.321841180324554443e-01
-2.354122549295425415e-01
-6.276095658540725708e-02
-1.344171613454818726e-01
-7.232317328453063965e-02
-6.383644044399261475e-02
-7.538374513387680054e-02
-7.551016658544540405e-02
-1.914740204811096191e-01
-4.131945595145225525e-02
-1.593563258647918701e-01
-5.273726955056190491e-02
-1.507891863584518433e-01
1.221729144454002380e-01
1.741411536931991577e-02
5.390356481075286865e-02
2.066219151020050049e-01
2.889921143651008606e-02
-4.761953279376029968e-02
-8.086841553449630737e-02
-3.835235834121704102e-01
-3.451668918132781982e-01
-2.519592046737670898e-01
-1.720290747471153736e-03
5.903417244553565979e-02
6.583471596240997314e-02
-3.117340803146362305e-01
-1.702385246753692627e-01
-2.292509377002716064e-01
-1.219614520668983459e-01
1.192418765276670456e-02
-2.760312855243682861e-01
-6.229919195175170898e-02
-4.638333991169929504e-02
4.222819209098815918e-02
-1.097174477763473988e-03
-3.789483904838562012e-01
4.593676328659057617e-01
-8.685300499200820923e-02
-2.421475015580654144e-02
-3.883115947246551514e-01
-4.171912372112274170e-02
2.868919372558593750e-01
-3.313816487789154053e-01
-1.223070248961448669e-01
5.220941826701164246e-02
-2.778112329542636871e-02
-1.584737300872802734e-01
4.603325203061103821e-02
-3.249933123588562012e-01
2.414555996656417847e-01
-4.688610136508941650e-02
-1.478121429681777954e-01
1.874759048223495483e-02
6.316570937633514404e-02
-3.390882909297943115e-01
-1.554241329431533813e-01
-1.311820149421691895e-01
-1.235512048006057739e-01
3.741164132952690125e-02
-1.401615887880325317e-01
2.409593760967254639e-01
-1.879633665084838867e-01
-9.700590372085571289e-02
-2.843746840953826904e-01
5.370198935270309448e-02
-1.398342698812484741e-01
-4.033981263637542725e-02
-2.689765393733978271e-01
2.741488860920071602e-04
-4.000948369503021240e-01
-2.955285906791687012e-01
-5.360630527138710022e-02
-8.488403260707855225e-02
-2.481775134801864624e-01
9.390860795974731445e-02
2.450417429208755493e-01
-1.426404267549514771e-01
-8.061657845973968506e-02
-1.663242839276790619e-02
-1.940108090639114380e-01
-6.593539845198392868e-03
2.034607678651809692e-01
-1.982629001140594482e-01
-1.484922249801456928e-04
-2.529821097850799561e-01
-3.014211356639862061e-01
-1.398797333240509033e-01
9.052877314388751984e-03
1.089716926217079163e-01
-2.620854675769805908e-01
6.140037998557090759e-02
-9.546950459480285645e-02
4.049756526947021484e-01
-1.919034421443939209e-01
-2.096017152070999146e-01
3.176939189434051514e-01
-1.446662247180938721e-01
1.062799543142318726e-01
-1.261690109968185425e-01
-3.138607442378997803e-01
1.220541633665561676e-02
-4.414013028144836426e-02
-2.125036120414733887e-01
1.970140337944030762e-01
-3.614886701107025146e-01
1.792440861463546753e-01
-1.302463561296463013e-01
-1.158654317259788513e-01
-1.784778088331222534e-01
-5.971730221062898636e-03
3.918718397617340088e-01
-2.344444692134857178e-01
-8.552306890487670898e-02
4.563356563448905945e-02
-3.083693981170654297e-01
-8.683525770902633667e-02
-2.057129144668579102e-01
-1.966455876827239990e-01
-1.686875671148300171e-01
8.392868191003799438e-02
-2.204114049673080444e-01
3.921827077865600586e-01
-3.006175160408020020e-02
2.437123209238052368e-01
-1.742085963487625122e-01
-1.332814544439315796e-01
-3.588614165782928467e-01
3.192348778247833252e-01
3.293487429618835449e-02
-1.720398664474487305e-01
-3.120641410350799561e-01
4.304197132587432861e-01
-2.245860546827316284e-01
8.125488162040710449e-01
-2.339079380035400391e-01
-1.608475856482982635e-02
-3.631615266203880310e-02
4.775283485651016235e-02
8.866995573043823242e-02
-5.191078409552574158e-02
-5.744735524058341980e-02
-3.195741772651672363e-01
-2.618357241153717041e-01
-3.070288598537445068e-01
-2.616311013698577881e-01
-2.034713029861450195e-01
-2.438182532787322998e-01
-5.855766311287879944e-02
7.353881746530532837e-02
-1.236594393849372864e-01
5.677199456840753555e-03
3.097495064139366150e-02
-4.381932020187377930e-01
-3.425079286098480225e-01
-1.764080375432968140e-01
2.875552698969841003e-02
7.574324309825897217e-02
-7.401590049266815186e-02
-1.444647014141082764e-01
-1.249973475933074951e-01
-2.907266318798065186e-01
1.773793399333953857e-01
-2.450920343399047852e-01
3.957424461841583252e-01
-6.675180792808532715e-02
1.529061794281005859e-01
5.721877142786979675e-02
2.481142282485961914e-01
-8.955717086791992188e-02
0.000000000000000000e+00
-1.751964092254638672e-01
4.357548058032989502e-02
1.268579531461000443e-02
-3.748971819877624512e-01
-2.137563377618789673e-02
-2.438958548009395599e-02
-1.188030689954757690e-01
-8.195072412490844727e-02
2.008560113608837128e-02
3.872871696949005127e-01
-3.835373818874359131e-01
-1.883266568183898926e-01
-6.199619919061660767e-02
-1.798006594181060791e-01
-8.497608453035354614e-02
-2.190032899379730225e-01
-2.076859623193740845e-01
-4.356740787625312805e-02
-1.779723353683948517e-02
-2.061766833066940308e-01
-3.928144276142120361e-02
-6.041602790355682373e-02
4.205030500888824463e-01
-1.893870085477828979e-01
-6.502985209226608276e-02
-1.534467935562133789e-01
-9.092061221599578857e-02
1.363510638475418091e-01
1.211096420884132385e-01
-3.877694010734558105e-01
-2.847727201879024506e-02
1.598214209079742432e-01
3.473372012376785278e-02
-2.819586098194122314e-01
-8.719665557146072388e-02
-3.738648295402526855e-01
-5.641517415642738342e-02
-3.520126044750213623e-01
8.347699791193008423e-02
5.775832012295722961e-02
-2.093078345060348511e-01
-2.278841584920883179e-01
4.629529546946287155e-03
3.880590796470642090e-01
1.840407550334930420e-01
-3.438380658626556396e-01
