-2.107337415218353271e-01
-1.765134930610656738e-02
2.297422885894775391e-01
-1.724105142056941986e-02
-3.033320605754852295e-02
-2.655709907412528992e-02
-1.609634160995483398e-01
-1.430709958076477051e-01
-1.513176411390304565e-02
-2.616045773029327393e-01
-2.622051537036895752e-02
-3.148983791470527649e-02
-1.201960537582635880e-02
8.381852507591247559e-02
-1.708268001675605774e-02
-2.032563276588916779e-02
-3.557852935045957565e-03
-1.545845121145248413e-01
-3.229382634162902832e-02
-3.343563899397850037e-02
-2.977643162012100220e-02
-1.037441007792949677e-02
-2.762439660727977753e-02
3.430032134056091309e-01
1.925014108419418335e-01
2.476732879877090454e-01
-6.512923538684844971e-02
1.498637348413467407e-01
-2.303237328305840492e-03
-7.777859270572662354e-02
-8.887606859207153320e-02
2.561528421938419342e-02
-3.100813329219818115e-01
-1.616671085357666016e-01
6.976868212223052979e-02
1.063073575496673584e-01
-7.412733137607574463e-02
4.177684709429740906e-02
-3.970612958073616028e-02
-2.061163634061813354e-02
-5.323180556297302246e-02
0.000000000000000000e+00
-3.781489133834838867e-01
1.474991440773010254e-01
2.430875152349472046e-01
-2.758138068020343781e-02
2.870922684669494629e-01
-4.863311722874641418e-02
-1.822949945926666260e-02
-1.190064195543527603e-02
-2.466937992721796036e-03
-1.752169802784919739e-02
-1.513839662075042725e-01
9.906527120620012283e-04
-3.827671520411968231e-03
-2.967694029211997986e-02
7.133479118347167969e-01
-2.404627576470375061e-02
-3.116757608950138092e-02
-9.669683873653411865e-02
-4.261507838964462280e-02
-1.048658043146133423e-01
4.425875842571258545e-02
-3.033668920397758484e-02
-9.404839575290679932e-02
1.228464916348457336e-01
1.345985084772109985e-01
-5.870233848690986633e-02
-2.427910417318344116e-01
-2.042680233716964722e-01
-4.471576213836669922e-02
1.744659245014190674e-02
6.844689697027206421e-02
-1.506301667541265488e-02
-2.179397642612457275e-01
-6.574626266956329346e-02
3.885697573423385620e-02
-1.374613400548696518e-02
-4.177318885922431946e-02
-4.897357523441314697e-02
-4.948395863175392151e-02
1.250835359096527100e-01
-8.404987305402755737e-02
-1.165030598640441895e-01
-2.990191616117954254e-02
2.451235614717006683e-02
-5.624302104115486145e-02
4.465942382812500000e-01
3.919711709022521973e-01
4.334978386759757996e-02
-5.820439010858535767e-02
-1.441839244216680527e-02
-1.529061347246170044e-01
-2.690103650093078613e-01
3.620772659778594971e-01
-7.531640678644180298e-02
-6.713746488094329834e-02
-1.110018715262413025e-01
-4.101217538118362427e-02
-2.341978996992111206e-02
-4.176183417439460754e-02
2.347383350133895874e-01
-1.569414734840393066e-01
-1.818110644817352295e-01
-1.414223313331604004e-01
-6.382903456687927246e-02
8.544438332319259644e-02
-3.666555881500244141e-02
-3.046017289161682129e-01
-3.047453984618186951e-02
1.665416173636913300e-02
-8.117488771677017212e-02
-6.028796732425689697e-02
-3.295458480715751648e-02
3.251434536650776863e-03
2.897758781909942627e-01
-2.582317590713500977e-02
4.459461271762847900e-01
-3.488803631626069546e-04
-5.085236392915248871e-03
1.024769693613052368e-01
3.889284133911132812e-01
-1.105701271444559097e-02
-1.133650261908769608e-02
1.329049170017242432e-01
-1.314473003149032593e-01
4.013798385858535767e-02
1.909660757519304752e-03
-5.048922728747129440e-03
-8.298783795908093452e-04
1.846998557448387146e-02
1.521025002002716064e-01
-3.762228414416313171e-02
-5.661195516586303711e-02
-1.072053145617246628e-02
-1.502428483217954636e-02
-1.680871248245239258e-01
-1.427121926099061966e-02
4.616429656744003296e-02
-4.982053861021995544e-02
-4.196516796946525574e-02
-1.541341841220855713e-02
1.459339410066604614e-01
2.468961058184504509e-03
-1.136762090027332306e-02
-8.008075505495071411e-02
-2.496837638318538666e-02
-2.100674621760845184e-02
-4.216500818729400635e-01
-2.167254872620105743e-02
-4.034772515296936035e-02
-1.673043221235275269e-01
-5.292145535349845886e-02
-2.155685611069202423e-02
-5.545583739876747131e-02
-4.215691685676574707e-01
-8.200311660766601562e-02
-3.773095831274986267e-02
9.448105841875076294e-02
-2.490254119038581848e-02
2.094257250428199768e-02
4.248574748635292053e-02
-6.211832538247108459e-02
-1.765578240156173706e-01
-7.101546972990036011e-02
-3.816616907715797424e-02
-5.658524855971336365e-02
3.019908815622329712e-02
-9.952808730304241180e-03
2.009112834930419922e-01
-2.943888306617736816e-02
1.185204759240150452e-01
-1.707849837839603424e-02
-2.777689509093761444e-02
-2.277504093945026398e-02
3.718568012118339539e-02
2.291855216026306152e-02
-3.905585706233978271e-01
5.802380666136741638e-02
-3.047981299459934235e-02
-3.996251523494720459e-02
-2.357680164277553558e-02
-1.512387301772832870e-02
-3.402081876993179321e-02
4.189379513263702393e-01
0.000000000000000000e+00
-5.142081528902053833e-02
1.327931284904479980e-01
-1.570116132497787476e-01
1.521430015563964844e-01
-7.395800948143005371e-02
1.886995434761047363e-01
-3.400567546486854553e-02
-1.669440045952796936e-02
1.886461977846920490e-04
-1.472812741994857788e-01
-1.429276727139949799e-02
-1.039052754640579224e-02
-3.947446867823600769e-02
-1.131466403603553772e-01
4.146976768970489502e-01
-1.223992779850959778e-01
-2.565939910709857941e-02
-1.291959080845117569e-02
3.074430525302886963e-01
3.713320940732955933e-02
-4.646289348602294922e-02
9.430410712957382202e-02
1.210356317460536957e-02
-2.327960543334484100e-02
5.068260431289672852e-02
-8.766509592533111572e-02
-5.722243338823318481e-03
3.257217258214950562e-02
-1.681702770292758942e-02
-7.921027392148971558e-02
2.123702690005302429e-02
5.923424288630485535e-02
-6.075041368603706360e-02
1.774808466434478760e-01
2.565134502947330475e-02
-4.588785395026206970e-02
-2.451624907553195953e-02
-4.647481814026832581e-02
-2.196553349494934082e-02
-1.035703439265489578e-02
2.684219367802143097e-02
-1.813589408993721008e-02
5.693283677101135254e-01
-2.134267985820770264e-02
1.410294175148010254e-01
2.332725226879119873e-01
4.307684022933244705e-03
-3.170267492532730103e-02
1.674787327647209167e-02
1.833048611879348755e-01
-2.177672237157821655e-01
-2.842310816049575806e-02
-5.262449756264686584e-02
2.163320034742355347e-01
3.382197022438049316e-02
-5.012083053588867188e-02
-1.137093827128410339e-01
-1.667752116918563843e-01
3.996213972568511963e-01
2.744217030704021454e-02
-1.698397472500801086e-02
-4.423451423645019531e-02
4.473924934864044189e-01
2.610133029520511627e-02
5.270727351307868958e-02
-6.925787031650543213e-02
-2.448593825101852417e-02
-2.266393043100833893e-02
-3.192875906825065613e-02
-2.191375009715557098e-02
