
/* Trace */

/**
 *  updated on 07/18/2023 01:04:38
 */

#ifndef __W_NVME0N1_4_H
#define __W_NVME0N1_4_H

char name_nvme0n1_4[] = "Trace/nvme0n1";

long weight_0_T_nvme0n1_4[256*40] = {
27,56,278,67,-32,-60,163,-52,-10,148,-174,-104,201,-133,88,224,-103,-204,55,-167,-207,330,-40,-147,-126,-307,225,-105,101,-31,13,-567,87,-559,156,-182,-11,-381,-111,-353
,-1276,-445,-62,-80,381,-64,-401,-67,105,-416,-142,89,-1315,-360,48,-358,-52,-145,-581,82,-113,40,-79,13,-513,-44,27,0,59,61,445,4,74,138,-531,93,-187,56,404,0
,55,84,17,47,38,-130,94,-103,90,147,86,-220,60,-101,-186,-86,22,-112,110,80,4,-98,-45,41,-60,-497,-46,121,-68,-366,-124,187,-137,-460,-128,-427,37,-691,-233,-159
,-125,41,-49,-355,-106,-59,-179,131,80,-156,48,-37,-215,122,-15,-137,-187,159,65,-189,74,-428,197,-99,331,-182,-4,-132,143,160,76,168,-3,57,-67,16,253,360,-5,-97
,-144,-822,181,-120,-58,-245,-157,25,-864,-57,-827,5,-259,71,-136,-164,-76,-819,-308,-833,-95,-194,135,-366,-11,62,-353,-101,79,-89,-90,-23,-102,-1,-396,-24,-49,-131,-356,114
,-36,-543,-30,-35,-321,-53,1,6,37,7,242,-15,-96,-428,-72,79,-104,-33,-65,283,-9,-94,-403,-93,-182,131,158,-118,76,-1030,-150,226,10,-1233,171,21,-107,-1361,71,173
,-139,20,-165,-134,-281,-41,44,-257,51,47,-72,108,-18,136,-85,-120,47,-24,-57,-211,-72,-638,422,-77,733,228,-106,41,93,-125,-111,51,-356,159,91,-99,-260,-1209,389,47
,-78,-57,18,-49,102,-200,-209,35,2,-147,53,180,-46,-19,-179,-171,-72,-117,85,53,-12,47,118,54,124,-69,-64,156,-93,-583,-264,41,233,-353,211,119,679,-534,15,223
,-297,-32,40,-48,-153,-98,-32,1,-46,-178,-90,3,27,-89,62,-66,-108,134,-79,-45,-92,220,48,-218,-467,353,-67,31,-40,427,69,-124,68,-886,99,206,-125,-1007,325,320
,125,74,-65,184,-303,42,0,98,235,177,-334,10,79,9,-172,126,72,-257,1,-337,-70,198,-553,50,-24,-303,-512,-134,440,365,-132,40,360,1072,204,127,69,-415,-206,-513
,-379,7,-4,-344,216,-295,-123,103,-173,-163,-245,69,-728,-340,277,134,-134,173,-317,255,-77,-863,81,-1,-148,-320,16,-26,-49,-1039,-376,39,-237,466,-452,63,27,-301,-648,23
,-61,68,-58,-133,17,31,83,-287,195,-37,-62,46,-117,3,-66,135,0,-113,143,-185,-19,237,54,-138,-303,580,-232,-122,-203,-301,-180,-12,196,213,125,121,182,-291,553,-353
,-258,11,-713,-30,-81,-110,-242,-143,-60,-291,-183,120,-116,-119,-89,-145,-300,126,-241,39,-84,-344,74,-338,-91,-136,-419,-3,48,243,117,-219,-72,421,308,137,-32,404,45,-150
,385,-168,-113,262,19,-144,225,-204,92,92,-245,-135,42,-127,36,121,-277,35,139,-342,-229,190,70,-36,57,-1089,-69,-256,-223,-113,233,91,-162,304,-129,244,225,-491,314,260
,-197,137,2,-166,82,-44,-104,49,-181,-85,125,-184,-10,85,21,-85,-54,131,-221,-189,36,-221,-146,-71,128,-15,-9,-198,-92,45,-54,-166,-154,569,-235,21,-439,890,192,19
,-453,147,-98,-259,94,-274,-131,-65,34,-325,-383,104,-305,202,-4,-119,-48,-104,-164,-186,24,-122,184,-253,163,707,224,-21,-471,-539,293,144,-469,-30,57,-482,91,40,279,88
,-181,-79,-133,-81,11,63,26,2,6,15,-7,-23,-36,-6,-121,-53,16,-66,-65,85,-12,14,-73,9,-253,-271,-11,44,-84,-529,70,25,34,-512,184,-28,296,-537,159,-11
,-72,-40,-5,6,135,14,32,27,-250,58,-49,-199,52,-65,48,-91,26,-245,82,129,-66,-71,96,-228,119,-2,-116,-283,-76,35,-254,-212,77,-302,-26,-221,32,-200,195,-141
,-37,-183,-45,-132,-124,-18,145,109,34,-224,41,-24,-23,-346,-100,-41,-109,-57,-258,-79,-22,-282,-124,-42,-25,-25,-7,13,28,-133,-24,4,-127,-1798,609,59,-54,492,-21,15
,-142,-91,-67,-236,175,-211,-340,-5,-404,-51,-343,92,-217,-78,-50,-247,54,168,-218,-225,-181,27,180,-88,360,-333,232,138,75,97,79,96,98,-36,105,-89,-49,722,225,23
,273,30,-63,108,65,-251,-38,3,-224,-135,105,-55,59,-129,33,5,7,234,-113,-143,260,-168,-1,-7,531,223,-122,12,233,218,-29,42,160,138,25,-51,-151,-810,270,-71
,213,130,27,40,264,-9,91,118,-30,-92,75,116,26,-96,79,172,-259,51,66,-224,-130,-14,-103,-59,-139,176,77,-45,-125,274,192,24,-10,633,62,93,-10,733,-101,-30
,-264,230,-134,-208,68,3,-49,54,30,-119,-73,-529,-299,72,53,-276,-161,-252,-125,-187,-68,-120,10,147,-212,306,-145,97,2,351,-252,-18,26,-73,-242,230,-9,155,108,99
,-321,312,-326,171,-52,-105,-24,-162,222,-109,1,-1,83,43,-129,15,70,-132,127,-80,-77,18,-19,-54,-243,-169,128,126,-161,-210,-5,-625,-80,-363,109,-333,168,83,-221,287
,-64,59,-52,-52,-522,95,-251,-138,-146,-234,-13,85,-36,-20,69,-243,-43,-62,-46,48,-87,-236,-718,131,310,69,-40,-41,364,-487,-2,178,-35,-332,-277,213,-107,-732,120,24
,-185,-119,-319,-123,-113,-68,-130,-424,-61,-122,193,144,-49,-197,46,-236,-300,-222,-228,70,131,-254,-35,-465,-117,122,153,-136,-61,276,-350,127,-63,296,-221,79,67,116,233,-125
,-124,274,-31,-197,109,-116,-29,-43,-51,-67,-63,-3,-193,-41,110,-103,-252,34,-65,-6,-4,-183,-54,-46,-238,-120,8,-29,35,71,430,61,-303,134,114,-74,-229,242,414,34
,-41,-41,-43,6,-226,-158,-5,-70,-260,-199,233,-66,-6,-45,-310,-17,-18,59,-87,301,-88,-19,-76,-14,-202,362,49,250,185,95,286,15,115,377,-102,-163,124,-533,370,251
,-284,-91,-30,-184,-187,-6,104,41,169,276,-85,42,37,-158,-281,-12,34,-38,61,-152,-88,186,293,-67,-529,-500,59,85,259,-81,-7,280,360,-246,211,180,-64,-508,130,-112
,-500,-1026,155,-84,297,127,-563,-354,-30,-44,-63,4,-656,-493,-99,-401,268,-86,-37,-22,-218,59,-41,6,-151,-87,90,-35,-461,327,-238,62,4,305,167,54,-81,883,-160,86
,-155,21,-2,-188,-13,-299,160,-38,153,89,32,-194,-158,-25,295,131,29,-158,-125,5,201,104,25,5,230,66,-3,-1,74,710,-217,21,36,346,145,-18,59,-195,-665,49
,-79,-36,148,-335,105,-114,-135,-194,72,-300,103,-216,-205,-13,-287,-236,165,-512,-410,-34,81,-204,175,-2,28,112,-483,33,-174,40,161,148,295,376,-166,41,92,106,-668,70
,221,-124,-73,162,-44,-26,167,-143,59,-72,125,10,150,6,21,-88,-68,-58,48,32,89,-17,-93,79,312,333,-33,36,-74,408,47,78,-160,767,-166,102,-33,1063,-207,20
,-325,60,-142,23,-241,-22,-96,91,109,100,-134,87,1,-130,-117,-50,168,52,5,-41,48,136,-18,-32,-120,15,109,78,-210,-427,36,-37,318,-605,63,-69,145,-753,347,34
,-140,-157,-47,-152,-397,-20,71,111,34,46,35,193,-138,-720,-88,-100,-142,10,-78,116,-169,78,165,-15,-98,134,-60,20,-105,-210,136,7,-38,-453,314,-1058,822,-752,17,84
,-61,-257,20,-110,-537,51,-297,38,7,-125,94,22,-145,-129,-129,-281,-11,-44,-226,-270,-45,-23,-85,-57,421,377,5,15,3,-48,-14,-108,50,313,-65,-146,-62,-1066,615,193
,-22,-222,23,-318,130,145,-146,7,-29,69,-142,157,-186,28,32,37,9,-37,50,-6,-47,266,-43,-81,-386,306,148,-21,118,-1319,-22,-124,230,-256,288,55,228,-2043,-14,-21
,102,-325,-202,54,-154,72,94,-586,-339,136,69,-157,4,-206,-118,66,-182,27,-80,-73,-212,-118,165,95,-49,9,-47,162,45,358,-297,-66,-29,-26,104,360,106,-274,-428,-176
,120,-137,9,64,-284,-159,47,-108,-145,-71,63,-43,74,14,13,-73,11,67,-5,-15,99,-98,53,-6,-12,405,-48,-51,-120,-32,-106,-22,-68,494,-56,24,-58,640,149,-17
,214,40,-59,181,-514,237,-46,-39,13,-66,-110,-30,138,433,-243,-137,120,-39,-62,-43,-17,-226,-78,-24,229,454,-166,54,-409,383,418,-188,-279,-712,-394,-344,-415,-652,-172,220
,76,243,-49,172,-20,15,87,-78,-131,7,-89,145,-20,135,-3,-86,36,-234,130,-137,-167,59,109,-41,-10,-2,-719,-528,1,227,-129,-472,111,391,-135,269,541,-93,469,-138
,-130,78,-75,-57,-36,-143,207,-81,-63,66,88,-230,69,78,-138,171,128,-97,44,-17,-16,59,-9,-26,-171,-7,-98,5,148,-66,-112,107,-20,-361,1,-244,52,-497,-177,83
,-393,-112,-55,-149,36,50,-156,-17,-66,-320,-138,-264,-311,-52,11,-154,22,-239,-294,19,-168,-203,279,120,36,97,43,120,-147,61,115,107,31,52,-508,-233,-177,266,-10,212
,102,-228,125,-14,-36,-116,-31,-398,-15,13,-289,131,-45,-52,-33,-135,-418,-256,-130,-37,-58,-295,205,-195,-489,194,289,42,3,53,-573,-72,104,-344,-247,211,269,-31,-453,-150
,163,147,-32,221,-59,137,-58,57,-22,13,-179,-205,179,81,-268,-91,-87,178,115,-54,-110,-35,-83,-436,50,288,19,113,74,462,170,61,129,-488,38,-97,99,-73,-588,-99
,-90,-1292,44,7,-105,-276,126,307,36,-26,-509,-73,-52,-298,-52,-116,-40,119,139,25,-12,78,-177,-292,154,289,57,193,97,-129,-107,-540,-45,-24,104,-97,-324,271,125,272
,-118,-36,7,165,-62,222,51,150,-181,39,-23,-180,-93,46,-230,18,-187,142,-19,78,210,-30,103,-15,-131,55,20,-21,78,417,-422,156,-122,-450,147,-77,44,-189,-119,18
,8,22,81,-167,-260,-372,104,-206,-182,-104,168,-154,-115,16,-22,-2,-14,-80,54,7,-319,-127,-265,25,-72,-59,-20,34,-44,267,161,60,73,-135,-453,65,177,2,116,192
,-68,-23,-720,35,-250,177,-116,-85,108,123,47,-191,-33,338,-587,44,73,-111,34,-233,13,-88,-83,155,-31,-436,253,-54,30,250,-23,49,-134,-715,-68,21,-16,-89,-304,58
,-170,-28,-169,11,-38,-142,-121,67,-31,-109,-84,35,-137,-99,-136,-96,162,-144,-118,-239,169,-183,-18,-451,-56,-96,-267,-13,57,-158,-70,-177,-174,137,9,85,-144,-65,200,-158
,-145,11,-36,-49,-80,-183,-58,-92,-90,107,52,-91,91,64,92,-60,-93,34,58,73,28,44,-56,-80,235,-211,-54,46,66,-79,-116,47,-126,-74,-348,165,-333,-2297,509,105
,-117,28,12,-111,-251,201,-245,-312,47,50,239,-163,-148,165,-203,-248,274,-57,-190,-182,197,-238,39,6,194,-198,-39,-11,97,-325,-218,-88,-110,-68,-290,144,7,51,115,-7
,18,-184,-523,-171,45,86,-178,255,3,-151,56,-104,-67,-236,-252,-39,149,-54,20,212,-169,178,-96,91,170,140,-246,-129,10,99,-51,-2,412,217,-140,148,-223,912,52,133
,176,158,38,329,-86,27,71,16,-83,64,63,62,196,-54,-25,174,31,-73,-153,-102,110,-3,-29,-46,-265,177,-41,-110,-139,-68,278,24,33,242,-65,-152,-166,199,-133,-1
,-149,-118,-86,-19,110,23,-48,-63,-142,-130,208,-289,-346,170,-41,-36,-21,69,-27,97,-294,-71,108,-135,-307,204,142,168,233,112,306,153,71,-511,-432,-136,-125,-159,-391,-99
,60,-17,-19,-70,-5,10,75,65,-83,-42,-178,-126,-59,-14,-175,-116,0,-3,-76,9,-16,56,82,-54,-6,-25,-125,56,107,139,-95,-99,-19,61,27,-126,-126,275,-287,-91
,199,-62,18,-19,219,26,54,-37,61,-60,162,-19,138,-30,-17,-83,-36,0,-9,268,-54,-92,-349,-75,-308,-598,150,69,-62,-949,-9,-292,-79,-1474,41,-42,407,-1190,57,31
,-95,254,31,-147,-260,65,-84,-204,180,-219,-174,-176,-236,103,4,-90,65,-293,-298,-248,8,-206,-44,-45,-45,-210,-85,43,69,66,-401,-111,-104,-149,-246,-294,-136,1081,-629,-40
,107,117,-228,37,-7,-112,-6,-55,-333,194,-344,-182,11,139,-54,84,207,-103,-2,-153,97,63,-189,115,61,217,-791,-147,-7,293,-668,-67,-170,99,79,263,-10,401,208,-62
,18,-98,2,-127,159,-10,27,25,80,38,-17,-188,-53,-298,9,147,-111,-101,95,9,-59,100,240,89,-196,-226,-305,-47,-29,-411,-96,106,118,-318,378,-389,210,-273,391,-128
,64,-153,-81,84,21,140,87,-106,164,-107,-152,-149,132,203,-116,139,-86,-215,55,-338,-64,171,348,-108,-69,-370,-274,11,177,708,132,169,96,-638,-102,-65,217,360,382,51
,-432,-21,93,-734,-83,-46,39,-5,113,-621,-167,-34,-636,-36,-15,-178,322,46,-344,-62,-72,-646,-394,-35,-312,112,-133,44,80,170,-149,57,-101,-768,-49,-513,77,-1009,-189,70
,-172,271,-227,52,94,43,2,-14,58,194,57,76,50,-16,-188,53,-107,93,72,-102,8,275,-227,-115,-534,128,50,31,-393,-41,-94,159,108,320,-345,-109,127,-35,100,-607
,-22,54,-36,-141,93,-40,-58,-186,-13,56,-153,-58,-61,51,-6,-72,7,-19,5,83,-71,2,1,14,-66,-259,1,-53,70,-411,-94,37,186,-348,153,-126,422,-917,14,-62
,-191,17,-73,-215,-311,82,66,97,-289,-10,-42,-200,25,197,-366,-36,-61,-112,62,-107,-54,68,85,20,44,-76,-695,57,-126,-112,268,77,-71,-51,-312,-568,-171,-193,254,207
,-39,-99,-5,-4,-3,33,-167,-1,-95,-65,-95,-241,-128,-16,-209,40,-28,-50,83,-103,-160,48,15,-58,62,284,110,38,-66,61,-100,-71,59,-19,-201,-145,18,-105,-104,-134
,-195,93,-105,-265,-24,8,-249,-70,-69,-314,67,-29,-115,60,-47,-189,-133,-21,-295,-163,-107,-38,-157,-27,48,-109,33,-292,-38,36,115,-124,-65,-35,-176,-151,-432,635,390,36
,-317,-320,78,-191,-549,75,-328,-160,17,-265,-200,28,-178,-66,-174,-173,-182,44,-108,-253,-40,-299,-590,-40,471,-224,-66,41,547,-198,192,216,42,-845,17,78,-188,-516,173,-159
,-161,-221,37,-183,106,-244,1,-172,156,73,83,-141,0,-2,76,-249,-2,-234,50,-65,-6,-149,-11,32,-126,-85,-201,65,60,-329,-573,3,131,-115,180,-177,212,-733,297,-311
,-136,30,142,-1,-147,-101,-33,98,-217,-144,191,74,-115,-50,-266,114,137,-55,-60,5,110,52,-144,-294,2,175,-69,-353,-47,-236,211,-76,44,-15,-23,-394,18,12,-196,-140
,50,-336,120,147,-107,-70,129,-280,91,-158,-133,-369,89,24,68,-145,-150,-101,-46,-159,-50,-216,265,-158,-130,-247,-206,-228,-187,516,213,-77,-60,225,142,6,-67,108,-224,-58
,-188,-19,-136,-86,-38,-20,-100,-15,-294,-204,127,-126,-3,182,-346,-106,229,-309,-44,55,125,-375,44,175,55,588,-199,-89,-49,-146,-315,-355,-127,-341,-51,-770,-120,-39,-413,16
,-220,81,16,61,108,-46,-154,-54,-3,-135,69,93,-35,140,122,3,44,39,-74,-61,-215,-60,76,14,-520,-129,-44,-7,1,-612,-43,5,211,-588,271,-121,434,-1213,131,41
,82,-37,119,-33,23,-147,3,-89,-28,-56,29,-48,-64,114,-117,46,99,-58,98,107,-67,-11,-395,-281,-286,4,-97,150,-12,-39,-280,257,-92,-1122,-206,89,-68,-697,5,98
,-83,133,76,7,-2,-52,120,50,-11,-39,-117,-27,21,-137,-34,75,-36,28,26,-68,-89,74,78,-36,24,23,187,-88,-270,162,-94,181,-78,352,-164,-7,-185,332,-127,-184
,195,-127,-140,70,38,101,-67,-2,106,70,161,60,-80,140,-263,-42,-57,-149,-144,49,-61,-55,-357,-133,-30,-119,-310,-197,9,-20,-403,-127,369,95,568,-25,194,-18,-244,-308
,-8,-465,-30,-119,-91,-271,-34,-111,-31,-107,106,22,25,-111,-427,12,-176,-23,-161,-14,-66,-145,279,16,-265,-132,-235,210,-8,-646,373,12,-139,409,-164,74,-100,591,-240,178
,-309,106,-39,-398,-255,183,-340,-6,-89,-669,-48,-103,-252,151,-169,-354,243,56,-604,-24,-45,-290,11,-264,-226,-402,-46,-362,138,962,221,167,13,585,26,152,-360,-117,77,41
,454,77,-19,388,-109,63,-305,-251,-69,-633,-270,73,249,263,57,-326,148,-101,-620,-124,-53,-716,-177,16,492,-130,-17,-194,109,-486,179,-96,138,-130,170,0,216,-731,67,273
,29,129,-256,157,-111,-189,276,-288,-32,176,-205,103,278,-163,64,265,-146,-188,79,-277,-17,48,-434,-757,-62,-14,-727,-82,-138,-230,251,22,-122,649,-230,126,108,358,-122,-135
,-442,-333,-40,-607,-77,10,-64,-101,24,-52,27,22,-476,-796,-48,-209,113,-19,-225,81,-18,-420,-22,-19,99,85,136,-13,20,-627,415,-1852,-88,179,-67,27,138,109,-26,55
,168,167,3,183,-28,-222,-67,134,-355,-5,199,76,167,108,-48,87,96,-626,98,35,59,-22,-250,77,310,-248,-163,-211,-100,-245,33,120,-5,-281,-90,-271,-13,-340,-149,-141
,-112,22,-147,-46,-112,2,-56,-193,19,55,-49,68,-5,99,-219,-36,-126,-21,-166,-17,68,-96,-132,-60,-234,-189,131,-222,-162,-773,-109,155,173,-184,174,-263,-56,-630,44,47
,-53,-45,-394,-130,-539,102,-162,-178,-20,-20,-142,-168,-150,-230,-75,28,-401,46,-79,147,-39,-206,155,-598,265,-283,-168,141,42,414,285,-18,-250,77,-409,-47,-165,-164,-14,115
,-161,68,-19,101,-2,-183,207,41,165,-19,-74,142,18,-77,-140,198,-113,-63,-48,173,68,161,187,-28,-559,-124,74,-62,-119,-680,-240,80,387,-552,152,-547,661,-583,17,-38
,-27,-47,-36,-132,10,-88,-39,63,-102,20,-270,-140,-27,7,-137,-162,48,-77,100,-81,-35,-26,70,-66,-132,61,-56,-38,-89,94,47,4,93,-95,26,-26,83,-172,-45,-100
,-52,174,96,-17,102,26,63,-10,-23,20,98,-15,20,-228,-45,-121,-150,-113,32,-62,164,81,-208,115,132,-84,117,-5,179,403,-46,-68,83,491,-201,146,-475,1131,-272,102
,134,-112,-79,45,99,97,92,-191,-191,-62,156,-15,-83,25,131,-75,-292,-93,42,17,9,160,285,-23,-258,88,-231,-19,-110,-519,-329,195,-63,-1042,26,-185,57,-1323,-57,154
,14,71,-114,9,-37,-178,-58,-356,51,-177,-183,-96,-17,-170,61,-52,-128,-29,36,-417,48,-213,237,-279,27,-318,228,-5,50,21,-13,-4,26,52,13,197,-170,-132,-109,-95
,38,-268,-149,17,256,50,90,-314,-161,188,19,60,18,-69,-84,109,-183,2,100,31,-116,235,-11,-176,322,-128,26,140,-122,117,277,45,-17,-191,-23,-90,-159,1,203,-238
,51,-13,-9,160,-44,38,-43,9,81,-77,-45,82,-44,62,-43,66,21,-87,-67,20,-96,-10,-2,-11,351,25,15,-8,143,111,-10,-4,74,-122,562,-23,-30,-632,539,-16
,-38,37,-21,47,-193,-32,96,52,-120,58,-1,-34,-105,-111,9,96,-149,23,141,224,-38,-25,-178,126,107,194,18,-348,-13,-95,-84,144,41,-518,97,-251,-68,-1051,104,377
,54,4,-38,11,-27,-353,-14,-70,-432,-43,-201,225,51,-150,139,164,-89,23,-24,-67,-205,-219,308,49,284,78,4,20,-73,-123,2,44,91,-601,-341,-127,145,-53,-146,67
,-115,-154,11,-102,-39,-114,-16,-16,-81,84,60,-149,-152,23,23,-103,4,38,-69,-109,50,124,10,-56,-105,121,-70,113,119,-398,-137,-46,37,-634,-33,-74,143,-345,134,-87
,29,-127,71,-74,10,97,-211,68,-174,-46,-58,60,-5,114,-51,37,-17,-109,-49,142,-20,68,-163,48,396,-170,269,172,115,-651,-38,-95,235,-147,324,185,258,-979,280,-2
,26,-53,-54,142,-160,-39,-41,-133,-78,27,164,-59,-149,-70,18,-110,-29,43,93,6,52,-170,50,-22,164,251,88,9,108,234,159,27,64,250,-11,-109,-74,362,-384,-107
,-117,127,-90,-170,40,192,133,-40,162,-25,119,38,-163,-25,-169,-24,164,-164,-145,-231,-1,2,10,-90,767,-101,-114,-5,282,-86,-452,29,-150,-916,468,58,147,116,-539,223
,-80,-107,-111,-130,40,-87,-126,81,51,6,-77,25,82,-161,-116,3,74,-138,-70,-9,-130,42,-123,54,-138,83,-80,-15,24,129,9,-53,41,-9,-137,-108,134,-140,73,-43
,15,-178,-154,59,23,-35,36,-106,17,-204,62,-19,73,-193,60,44,90,-1,-65,-185,-42,7,80,-90,69,-115,-68,-47,-118,150,-50,-92,-22,330,-101,-55,-312,92,31,66
,-31,131,177,33,170,14,208,-125,-154,119,6,-195,-38,49,-42,94,21,-138,24,107,2,-42,-171,96,-54,565,-447,-182,-81,-100,-171,-539,6,-472,6,-240,-9,-833,-7,280
,-102,93,-130,41,-11,-66,101,-89,-98,211,58,120,-63,-84,53,-44,-22,-60,203,168,47,110,-175,-200,-249,-206,22,124,-145,-533,-175,-183,239,-693,181,-94,271,-309,208,83
,-166,93,-158,-60,172,-99,-53,97,32,-40,-91,-152,23,-6,-274,21,64,-57,75,-74,-140,-68,201,-237,110,-237,-216,-82,-41,333,288,-203,-60,390,23,23,10,697,-70,222
,-2,-600,-48,-23,-161,60,-110,-98,-65,-60,-179,-114,-71,-403,38,116,-283,54,-14,31,100,-395,137,125,-563,187,42,-40,-707,578,7,75,-13,324,185,11,-231,1196,-447,76
,-52,-142,-197,-257,179,2,-35,-129,-302,-122,-68,101,-102,-201,-428,-308,-13,69,-175,-19,-20,-194,-436,70,-139,-83,17,-186,-91,-351,-100,-118,81,700,404,-550,159,255,37,-44
,-67,-27,-108,-48,72,135,99,-58,50,95,-44,-150,89,56,-53,120,170,95,214,93,-40,226,-330,-265,-105,192,179,12,-376,-658,8,113,169,-781,-150,-11,-141,-1386,145,210
,115,-88,-36,50,215,-19,-50,-233,6,169,3,-43,36,38,30,66,15,-90,-6,-49,57,97,-67,-268,107,172,-75,-217,-137,274,148,-223,-222,-52,-92,17,-193,-63,23,-85
,-99,27,1,-210,-46,-211,146,42,-160,55,-22,251,57,9,202,-91,6,183,-49,22,-270,-88,31,-23,315,83,35,-32,-76,-151,-763,171,-92,280,96,47,-269,926,-167,37
,-118,-82,-231,-70,-21,330,-93,175,138,70,-30,14,17,158,-433,-102,11,-30,229,-213,-114,112,-78,-75,-356,-161,45,-273,227,116,216,97,-6,400,279,192,-89,303,-59,-446
,-44,-44,-9,88,-218,200,-109,-124,-231,-86,32,229,113,242,-160,89,67,230,-30,14,-198,0,73,-1,-251,-421,25,-22,-152,-275,-431,-7,-455,141,121,40,-271,625,215,-60
,81,27,127,159,-51,62,116,-182,-16,157,-311,-377,121,304,-38,98,-51,-79,206,-419,-708,321,-429,95,311,-402,-889,-99,-193,-549,50,59,-198,86,1,-74,-146,421,-351,-388
,-415,-185,-58,-231,-245,-79,-630,-162,-18,-152,154,6,-349,-205,77,-640,38,-117,-333,203,48,-602,359,-145,512,472,104,-60,42,926,216,-78,-44,5,489,-128,66,-231,183,236
,115,-130,-365,103,-63,107,-49,-275,-319,-22,73,-142,67,-218,-30,116,-287,-131,-130,234,6,24,256,-122,46,-91,-391,-130,-104,658,-145,112,44,-97,89,305,-55,49,-198,-210
,12,-57,31,238,174,197,-54,182,-146,-10,10,-199,61,-175,-226,47,-136,153,-156,-23,209,15,21,-22,-554,-137,-93,30,-538,-128,299,-86,-260,256,222,47,-368,683,-655,199
,-91,55,-133,-133,-145,-130,66,-80,-137,-100,72,-95,33,-91,-101,99,-145,-71,-13,-190,-18,-56,81,41,-21,102,-160,40,91,25,-125,-183,-86,-23,76,-144,111,137,-49,42
,-141,66,13,28,-52,-140,-111,20,-199,-29,-153,-6,-39,114,46,-177,-47,31,-133,-31,-111,-104,44,-21,-281,-54,-143,-36,84,-81,23,-26,7,139,333,74,120,-771,-94,-180
,-263,158,12,-321,193,-25,-62,-61,34,-65,86,-11,-1,-186,-9,156,-73,-60,189,-53,-24,45,-6,-8,-8,-253,-17,33,308,-146,-165,0,43,308,13,40,40,152,605,-2397
,-138,-453,-7,-391,-179,-145,-151,-151,135,-289,-271,9,-369,-272,-392,-310,140,-8,-185,-437,58,-291,4,101,-62,-1009,-5,-163,16,-706,128,195,20,9,-172,-123,-95,485,-353,5
,-108,-146,27,12,121,-98,-82,-68,-61,-42,-574,-131,-195,-244,-246,4,3,-39,-17,-164,53,-4,-374,61,22,-97,-205,261,-190,-1139,293,22,-90,520,-250,-43,-1,441,-346,141
,-55,-722,-158,-231,43,-3,-55,99,-12,134,112,3,-93,-170,-55,156,-212,3,129,82,24,219,339,61,-154,329,-240,141,-167,407,-254,129,81,-273,-225,100,802,-41,278,-695
,-159,-95,3,-139,77,3,74,-133,-13,-60,78,-2,31,55,-52,50,-181,-121,70,1,-231,88,-110,-106,-18,-211,-138,-139,37,-108,-204,-35,231,73,-104,13,131,-396,64,-139
,143,-126,28,122,134,-410,47,-124,-177,-136,208,85,-44,127,-115,-69,-374,-176,-143,38,114,-29,-12,-172,-238,-558,-156,212,76,84,-602,12,16,407,-442,158,-207,-326,-363,163
,-132,-151,-125,-415,23,15,-327,-50,-88,-174,-120,156,-430,70,-125,-450,33,-34,-62,76,-58,30,-315,54,64,-346,-51,63,292,-388,9,291,146,-144,423,-71,234,-940,225,82
,71,251,102,172,16,229,158,-132,-134,-116,14,-95,155,-171,-104,-53,-92,-153,63,43,-170,-26,-37,-151,-286,-217,279,-5,-105,-286,13,-75,-242,174,-49,175,-67,150,187,-114
,118,-81,-26,-122,-473,4,-116,-337,4,92,-160,-92,46,346,-48,-41,-50,-119,-153,-220,-40,-172,-102,-73,542,27,-282,52,233,498,597,52,-287,-165,-177,28,68,-75,-315,-377
,68,6,56,-76,69,-34,207,-232,116,53,-59,96,51,191,-305,74,-193,-102,-72,31,-35,169,-288,-70,-91,33,93,74,-52,-128,229,-647,-17,-281,-137,-115,589,-141,154,-291
,-169,-11,27,-189,-238,-197,-498,183,155,-353,40,50,-178,48,71,-517,159,-37,-623,3,-38,-591,-30,-532,-4,-791,-422,141,-137,-241,-225,-129,135,718,-575,-153,-130,-679,-286,253
,-182,-104,-90,18,56,116,-89,-78,58,156,69,-24,-3,-55,-53,90,-82,-178,-23,-9,25,117,150,-4,95,156,112,-10,-102,-786,-79,-144,382,-360,361,103,200,-1020,128,83
,26,-161,-52,-5,-135,-111,-157,188,35,-179,105,-364,-73,-175,-22,-68,-28,156,-160,61,-382,-2,-436,-485,-173,-85,40,58,9,-331,-414,160,81,5,-270,-37,216,-144,-432,-66
,-48,-3,29,-171,-24,-57,-52,-104,-215,139,32,13,-175,87,131,1,-41,-47,47,-52,51,242,18,-209,44,269,-139,177,162,284,122,-29,-224,-604,185,173,100,-718,88,154
,8,-13,-37,-38,29,111,38,69,-153,169,-69,23,-222,162,138,-111,227,27,149,-75,-4,214,-225,-143,-19,-128,-41,57,138,-639,-83,-98,91,-1312,-264,90,36,-826,-71,-353
,2,149,93,-89,171,-238,-27,-94,-18,-203,41,-99,-203,-94,-289,-117,-112,98,-88,59,-129,-118,65,139,-390,-387,275,136,-131,660,130,-80,138,497,182,63,-152,406,-386,-100
,-1,239,-209,144,-175,-61,136,-154,121,205,-58,-80,20,-29,-103,62,-95,-236,118,-62,-97,116,-137,179,-199,-504,0,60,275,-10,39,-34,175,-186,394,-42,-105,-586,-195,-99
,109,148,-192,-124,-134,118,-127,154,58,-268,205,-184,-31,-110,-216,-164,-134,37,-192,132,54,-329,192,-197,46,94,241,-323,340,352,-6,-88,448,375,-201,264,0,846,23,-189
,119,-28,-34,172,-22,-59,-16,79,-156,3,57,-189,-40,88,63,81,-68,165,-83,-66,196,-180,-32,-26,72,204,16,21,165,418,448,-14,-86,-312,311,12,101,-1391,400,-25
,-289,73,-100,-108,32,-82,-329,114,-215,-218,99,-82,-166,38,-73,-202,90,-325,-218,101,-145,-117,-186,78,-14,138,253,-80,95,234,98,51,-122,188,-18,168,121,-244,-26,-13
,77,70,-96,91,-242,-595,145,16,29,22,33,18,120,-48,-458,86,36,-54,278,94,105,200,76,-146,-33,-2,-522,-59,17,209,174,-322,-81,-38,-10,-385,5,-22,-448,-178
,25,-136,-56,169,-4,-38,-147,-153,-114,-166,78,27,-58,-76,-121,-52,85,113,-37,-88,166,-149,150,77,296,291,66,8,373,319,-457,-95,-307,71,-65,58,-32,482,172,4
,95,-167,12,12,25,48,158,73,-139,-19,14,41,-77,39,-21,108,-127,54,163,21,-52,122,-424,-191,-108,303,-112,73,157,-129,196,-42,219,-467,286,133,121,-455,298,112
,-214,168,-53,-441,-128,143,-239,-96,205,-371,-528,25,-347,182,-272,-60,53,-212,-344,-193,19,-333,-623,-170,-208,132,-214,47,246,55,73,-46,453,682,221,11,-135,-615,-14,209
,94,-17,-71,-183,11,21,-12,-100,-89,45,-66,-80,-176,-68,-48,-17,169,74,0,85,59,-189,10,-8,27,237,-31,-25,-19,14,-104,-6,175,197,531,-1782,-28,884,76,-48
,-162,80,22,75,-276,-5,-58,26,-266,2,163,-283,-223,-76,121,-188,118,-11,-170,36,-305,-199,27,-109,143,-111,-164,252,-43,137,42,-397,58,-43,354,47,388,277,51,-100
,-114,138,31,-89,-213,-16,-2,-180,-17,-60,-108,-6,-14,-5,-36,-69,-91,-59,33,22,-68,-142,153,11,-88,210,22,-36,54,-344,103,-54,103,-961,45,-50,316,-834,28,17
,16,31,-227,-8,-103,-400,-41,-56,26,-349,36,-61,-8,-144,-144,-182,26,150,-301,242,-109,-585,83,-75,-106,-347,-185,-149,1,-5,-24,-418,-87,411,369,110,-16,366,-573,-69
,-356,285,116,85,-295,2,174,20,81,-33,-105,-178,57,-309,-249,-21,-160,-102,-86,-104,-31,120,-2,5,-51,-100,74,130,-86,-290,117,-23,121,-278,-189,-174,193,-493,-40,91
,56,28,0,112,-33,-540,-308,-172,-3,-173,-86,7,252,115,515,-85,108,-42,-24,-147,-63,-122,-285,-43,206,52,-12,-20,-380,424,153,-10,-511,-311,55,-5,-191,416,-240,17
,12,69,-194,89,-40,73,53,25,-346,158,-173,-238,168,-176,-35,95,196,-160,101,-113,-512,19,-466,212,6,-231,222,-151,16,-325,191,15,141,355,170,-367,56,169,201,-259
,-172,27,-77,-67,-652,-101,-59,-200,-126,18,-209,56,-157,-718,141,-149,-38,-146,-49,-163,31,-22,-155,-307,4,-510,-47,227,145,-133,-289,-209,-12,-270,262,-454,-51,-314,267,15
,185,93,-15,19,-85,147,7,160,-407,-1,-16,-570,146,304,-259,198,-205,-165,177,-149,-131,197,-155,-141,326,715,87,168,106,21,173,-106,113,-4,50,234,91,260,-458,12
,-101,-166,-40,9,157,-288,17,9,12,-112,-72,-130,-57,-49,71,-36,-300,-129,40,-106,-52,16,-224,-54,55,230,72,-63,-52,62,213,112,-147,20,37,-16,-104,-55,-157,-54
,56,-242,-103,-35,31,-237,-102,-74,9,45,-263,16,3,-141,-144,-15,-292,81,-91,-193,28,-98,327,-183,222,-489,-267,158,-36,-260,-274,-20,-140,474,-23,-169,-222,-112,115,-97
,-59,68,16,26,118,-39,-69,103,69,-25,-162,-63,-60,-122,-119,-93,112,3,-124,60,-54,-142,-88,-54,-7,-64,-36,55,-105,-75,51,-37,-92,194,-90,4,-218,139,-327,-20
,35,7,-46,19,0,-240,91,20,48,-19,50,11,114,-177,84,24,50,-42,-103,112,-95,3,72,-111,247,128,-53,-56,83,227,-35,-102,-197,370,-174,96,-143,149,-230,-219
,-538,229,-163,-639,38,-81,-113,-299,147,-278,-133,148,-495,177,-87,-187,91,-297,-190,27,-298,-326,-575,-31,-17,-129,-274,-24,19,-109,73,-122,236,200,-64,163,255,832,210,115
,-150,67,33,-94,41,-69,-165,-80,0,-60,-131,-73,0,-69,27,-75,38,-25,44,-43,-115,-8,64,-67,-136,9,-30,-161,66,-303,151,-188,249,-208,153,-208,117,-451,-41,35
,37,88,-372,-61,2,110,140,-40,-911,216,78,-489,62,60,14,81,94,-465,192,165,-108,-105,-35,-440,-47,311,-157,-278,-46,-2,-351,-106,-120,-86,-238,-30,-49,-126,250,-99
,-2,-523,-241,-50,-241,24,-140,-28,-9,-21,83,-310,-92,82,56,-208,93,-92,-235,77,-194,-52,51,115,-52,132,-6,-142,-11,504,209,85,22,444,-548,-247,-163,108,-55,54
,271,42,-24,-46,197,17,36,-198,65,-158,-20,-134,76,-108,27,-97,4,-36,59,51,60,-2,133,-36,-351,394,-65,-283,-87,-205,348,-1247,270,-77,149,94,13,74,-221,98
,201,-209,-4,1,94,-252,-18,-65,-37,161,-140,-212,179,-134,97,152,-104,-1,-80,46,63,151,-154,-2,-172,-81,-165,-179,-385,198,111,90,-61,262,-147,-69,-365,581,-177,-25
,46,-76,-5,125,47,16,-28,-107,1,40,-173,-39,-26,96,-167,-36,49,34,34,-14,-157,31,-103,-120,112,184,40,7,3,216,147,-22,-77,386,-123,-112,-120,329,6,3
,-82,88,11,-125,-63,89,68,26,-103,-81,-162,-176,-51,16,68,192,76,59,169,-56,27,17,-538,-174,479,-360,-30,-216,-34,-502,-306,114,-40,-919,-14,6,-14,-364,251,-145
,-241,-16,-2,-99,55,25,73,-71,-18,-204,6,-149,-98,-99,59,-97,159,17,-205,87,13,72,-149,-131,306,303,-4,49,80,391,-17,-38,-176,220,6,-31,23,344,56,-60
,-4,8,-48,-61,-118,124,-91,-172,-9,-119,141,-225,-162,79,-117,78,-58,3,-61,29,-206,-165,159,9,186,76,-250,-312,38,163,12,-276,-146,-122,7,19,-203,777,114,178
,160,320,-455,118,8,132,-4,28,-257,23,-170,68,147,-11,-32,118,-18,57,-3,-257,92,-318,79,-29,180,-438,103,63,57,633,249,-239,-171,478,110,-241,335,340,56,-45
,176,58,-348,50,-47,-410,112,-44,-61,66,-114,-88,45,230,158,96,25,103,18,-56,160,-182,197,-48,-126,-575,175,-157,72,383,-211,-219,-12,132,-869,199,-122,66,84,-375
,10,-140,21,-33,111,-317,-159,-123,-72,73,-55,-57,-135,-31,-259,38,-33,-169,79,123,-78,50,-201,24,1,-5,65,-72,-15,196,-145,241,161,-294,102,184,180,-396,-60,95
,204,-40,-97,189,-9,-192,172,270,-124,98,-187,-289,152,170,-122,64,58,27,-55,64,43,208,-84,-43,-121,-381,-227,34,-35,458,-260,-233,74,-218,-1222,82,-107,-342,424,-50
,120,186,39,155,59,130,58,-182,-219,34,172,-98,230,45,-106,30,-145,-304,15,65,113,73,-161,191,-23,631,-190,178,-174,-152,-278,-65,-417,189,34,113,-455,432,23,-23
,78,-173,50,46,-229,-336,43,-31,138,-15,157,-168,133,58,-295,167,-18,-157,0,108,-138,59,-267,117,-35,-430,123,109,-30,-1085,-153,-2,300,-321,-11,308,97,-892,167,-116
,-102,-421,-11,-60,-68,-443,-126,157,-144,-43,-199,-45,-11,-395,139,-99,-84,-11,-54,-437,24,59,109,-226,34,-60,-179,-89,36,-82,-113,-561,22,54,-35,-171,-157,-153,-37,188
,-101,21,-62,-276,-50,28,-35,-104,3,-81,34,-63,-346,156,-75,-103,-66,-123,-64,-2,-145,27,164,37,-163,177,145,-134,477,-143,52,-181,154,136,334,171,-14,-1303,124,263
,-143,96,16,170,-175,170,-22,-89,289,-59,-277,-123,98,194,-245,138,-99,-312,47,-495,-6,-94,-256,-50,-106,-201,-190,-229,137,-41,-309,-170,169,428,458,13,39,-287,-376,-121
,156,-179,-9,92,-245,257,-28,-363,148,-118,33,204,-18,218,-217,-120,175,-175,-64,88,-184,-47,132,-18,-22,15,-197,69,-60,-498,-90,3,-416,-377,-24,9,-353,-495,95,-26
,124,8,-45,44,192,-203,121,-48,-10,127,-41,-47,-152,-154,201,-14,70,-9,-125,-14,36,-119,0,-30,153,-47,-27,14,-113,193,509,-25,65,122,-34,19,-31,288,476,-28
,-121,-11,0,-19,-311,101,-75,-247,324,17,-95,83,-37,266,-99,-73,229,-325,-62,124,-88,229,38,-10,-77,-238,3,-8,-105,-120,-45,-35,-351,145,-308,11,-202,-80,-399,12
,245,228,48,163,42,76,-21,72,105,171,-333,18,42,175,-166,-36,-221,60,100,-308,-315,207,-108,-129,578,148,-42,-41,442,384,313,-483,100,430,238,-185,-227,-90,90,62
,188,55,-85,5,-119,-150,-109,-32,-5,-77,253,-184,134,-117,-38,0,-184,-55,-302,169,-52,-84,198,-28,-93,253,48,179,-110,-451,-257,-493,217,76,-365,254,452,125,-236,260
,-175,170,127,-140,-267,234,-111,-100,-15,-56,17,41,-105,57,-234,50,142,-14,72,106,-31,36,-56,-109,90,431,-30,9,-26,-395,-387,-91,-162,-57,22,-183,-418,-1395,391,-116
,-282,20,85,-322,41,122,-38,72,-527,-16,137,-247,-284,-135,-222,-101,-141,41,-135,-141,16,-206,13,-77,47,66,142,157,63,-119,88,-297,-61,52,-138,-108,-21,899,-197,118
,-305,47,-43,-124,124,-144,-120,-87,-175,-116,-86,-105,-165,-66,-64,-210,50,-129,-282,-60,-112,-199,-153,100,-110,559,266,-34,-149,213,210,70,-41,72,-359,-65,-20,-39,-140,-218
,-158,106,14,-14,26,17,62,46,-14,142,-131,-70,-45,-82,4,-87,20,39,127,-88,-3,174,197,34,45,-234,-150,1,-3,-178,32,140,60,218,-296,122,482,527,-280,-12
,-105,-26,-32,-174,-747,-18,-168,-62,-79,129,-179,68,-7,-2365,22,-198,-87,42,146,-85,-94,62,-303,-51,222,316,-35,-6,-114,-904,545,-4,-384,775,-42,-14,-78,1135,-154,58
,60,132,64,96,38,-149,55,-6,-163,90,-202,68,150,53,44,-86,-130,-44,11,-126,-176,-226,119,-273,-328,-32,259,78,18,-71,213,60,-58,109,-177,74,-363,373,169,-256
,-10,2,-57,26,-10,209,76,70,-90,-47,105,211,-22,-21,-186,-84,-42,86,149,-131,-222,-23,47,-37,-336,-314,33,-26,-519,-927,256,-17,-242,935,-488,174,-318,1028,-724,85
,-36,-56,-158,-73,189,-44,-62,-21,116,-58,-22,84,-96,25,14,127,-30,-68,163,199,2,96,-27,-142,-427,-355,0,156,-149,-1201,-439,239,-43,-1026,-80,-134,463,-858,108,44
,37,26,-37,196,-31,-9,88,-134,98,-25,44,-158,13,-117,-32,110,-104,-241,28,91,94,-50,-70,-87,136,97,106,-51,48,211,-14,22,-19,239,-40,147,-133,446,114,-15
,37,-39,9,-165,-37,-82,-4,30,32,117,25,-37,-16,-57,-73,4,22,-113,-6,-149,-150,-27,13,-64,-25,-30,49,-135,325,-251,63,-21,303,-238,-141,94,228,-345,105,-123
,-148,84,-87,-3,-85,-369,-11,99,-41,-26,-73,3,79,-13,-106,21,-78,-24,26,-171,21,-167,49,25,-52,-11,-164,-232,-236,77,46,-68,-238,317,33,12,-346,253,-237,-65
,-758,-2046,26,-107,201,68,-431,153,15,-483,-202,-110,-732,-19,-51,-303,-396,-88,-492,164,115,-433,112,-8,-971,104,-58,-21,-245,-270,425,-39,34,9,-89,-159,-176,1038,-82,-387
,167,67,-27,4,5,82,-125,-68,-433,-22,70,-5,-56,20,-87,27,-6,361,-3,-181,-21,4,-51,-31,-85,-363,-53,-34,79,260,-114,-304,275,169,246,-11,-564,45,402,-137
,91,-115,-321,136,-361,-34,-52,-73,48,122,-50,-71,207,-89,-34,-4,-142,112,-29,-58,-74,-64,-232,16,312,11,-259,-105,165,290,-292,-219,-357,248,-173,56,-130,159,-134,61
,28,-342,62,-831,57,14,-737,129,-347,-52,-34,82,-696,53,97,-849,279,-409,-23,-151,-60,-273,31,-293,-226,488,107,27,-182,-289,330,-128,-72,394,-218,-188,-37,308,58,10
,-174,-201,-155,24,46,96,52,-33,-17,-113,144,61,73,-94,-160,90,-129,-60,169,-88,-49,-4,126,59,-233,494,54,-102,203,-433,50,64,154,-525,209,78,98,-799,141,117
,-55,-79,-182,-141,125,-48,-152,102,72,124,26,-191,-38,104,10,-125,98,8,25,-196,11,-81,-137,-105,-105,-25,-108,-40,169,-51,-75,-117,118,99,210,-56,466,-97,190,6
,105,0,-26,-29,-85,-232,57,-35,26,64,93,40,-66,-39,-23,-14,-11,-123,-36,128,-30,-186,22,-160,10,-10,-137,-71,-43,-79,-115,-122,100,-221,45,-252,482,-39,282,128
,77,-318,142,167,-187,8,-154,246,-45,79,-98,-426,246,-206,-280,28,165,177,117,-130,-505,146,-255,-95,174,1,45,70,105,-586,-52,-207,-133,-264,124,-104,-72,-79,-585,-131
,-111,-89,-249,-79,163,-146,-45,-145,19,10,-153,-106,-66,-89,59,14,63,5,-176,-175,70,20,-39,-139,44,52,102,-150,58,63,-53,9,47,23,-184,35,91,9,-80,-44
,-134,-167,-28,-210,4,-140,20,-25,-103,98,-46,24,-174,-29,-252,3,-118,-88,-38,-78,-127,-109,-145,-34,59,-31,143,102,153,-38,-289,77,255,-60,137,94,57,-426,252,-24
,110,-29,-227,110,-124,-198,78,-227,-96,-115,-83,14,-64,82,-75,-171,-111,128,20,43,16,-104,131,-37,287,109,-34,-290,22,230,26,30,93,432,-152,-156,-64,127,69,128
,53,118,-24,-143,148,14,70,38,44,173,-416,-399,-39,24,128,-60,160,-41,30,-421,-263,-41,-51,-84,75,383,-154,-155,158,-333,-432,126,-44,-261,-442,-285,149,-323,-206,195
,97,-350,-149,232,-115,-189,114,92,47,35,-6,11,107,-8,148,-86,136,61,-3,-4,42,-73,3,149,345,77,-55,106,-116,431,13,45,-177,639,-137,-6,-415,788,-212,51
,-63,-5,0,177,31,20,48,20,49,-62,-81,109,-69,-189,-61,-22,118,-51,29,157,-135,-89,-96,-24,-416,-76,72,7,-510,-1322,418,8,-34,-50,427,9,-472,127,-281,63
,132,-22,-11,24,-168,27,-115,-62,-1,121,-133,58,-111,-54,-151,-9,104,-134,-8,-56,-27,145,130,1,93,736,-76,-68,174,-80,332,-265,88,-307,321,304,158,-80,295,2
,38,-43,-69,98,160,-127,85,41,-65,-145,-109,-184,-127,-186,58,25,15,43,0,19,-13,-147,13,-120,49,109,-107,178,-14,100,281,-99,-211,241,-50,-2,-46,436,-74,-13
,-119,-54,-129,-142,-74,-168,89,-121,62,11,6,-125,91,99,10,119,37,-256,-47,58,-39,-79,-121,-135,-86,55,57,-181,-31,-113,-95,-66,-57,204,-105,99,-45,21,63,-103
,-104,67,-109,13,-216,-39,42,-117,58,-115,-95,134,-121,109,-13,151,-203,-17,4,-177,-31,-72,107,7,-583,-91,18,-62,66,-455,83,2,169,-361,284,99,130,-1305,268,232
,-111,-35,-360,-151,159,-573,-3,-167,145,-28,250,82,-102,-96,-308,-221,72,-6,43,88,-159,16,-56,-337,115,-323,-471,42,-137,-120,72,383,-83,284,-226,-398,-55,39,-421,-62
,62,-72,-58,116,227,31,12,-186,-6,191,3,-142,-41,1,42,154,0,-73,48,24,-87,170,-31,-253,208,719,161,-307,-57,53,-53,-444,264,-859,3,172,293,-579,-105,218
,-478,-46,98,-274,-134,-365,-171,77,-374,8,25,-92,-218,-82,82,-90,67,-95,-39,-9,-77,-426,165,-26,89,53,-381,-284,-151,-416,297,86,36,-174,146,-118,76,-581,156,-72
,-302,-128,138,-89,-459,-51,-121,-139,87,26,163,-20,-137,-260,-153,-241,-21,-208,-1,86,21,-136,135,-101,-7,-29,-90,-31,142,-882,-186,217,278,-142,321,48,306,-324,191,112
,-6,31,6,123,45,-118,43,-84,-125,-87,-13,-12,-24,-61,-5,-65,-153,-72,-129,-3,6,-136,29,-140,64,14,-55,-8,4,-19,63,0,-171,320,-67,32,-470,658,-14,-104
,17,-139,122,-196,-237,9,-138,-31,-54,-109,25,-280,-45,-134,25,-96,-232,-20,-74,-358,-113,-177,29,68,17,5,71,-11,25,-767,-151,149,-211,-458,246,152,41,-1492,149,49
,-164,-79,-259,-180,-219,51,15,3,-107,-187,-171,129,-97,105,-111,-220,-123,35,-19,-113,-275,-175,219,-96,-298,59,-186,72,-27,234,374,-451,66,10,-387,48,310,-178,0,114
,-704,-135,11,-281,105,44,-297,-121,122,-420,84,-9,-63,169,-50,-448,-18,43,-316,87,-99,-229,-848,3,-364,317,37,-48,-61,-1442,53,10,134,-141,-71,94,-292,-1460,235,42
,100,-51,-92,140,-90,-55,23,-212,-87,-54,-80,-14,-130,-24,-84,50,36,-77,78,15,9,8,-44,25,126,66,37,-107,70,284,-143,-103,-95,303,-110,-112,-231,599,398,23
,144,-67,150,83,-311,-22,4,-17,31,148,35,-107,197,-348,54,-82,-50,-140,-96,235,-275,39,-88,130,-308,81,-26,-141,-244,-52,-616,-14,-397,309,-289,92,-599,168,266,176
,-75,39,-220,-77,-371,49,-15,-193,59,-83,-122,-172,8,-466,-84,13,-162,3,-129,-76,-105,-288,125,-396,-39,-100,-190,117,191,118,-110,7,193,2,-259,80,130,48,-134,-70
,-113,309,-128,100,-66,-178,11,-177,-7,156,58,-60,13,76,-35,64,19,-16,17,-189,-206,198,66,166,81,476,-437,-505,-112,-102,-60,-316,-38,-695,92,-153,81,-205,-318,-423
,35,95,-29,-61,-120,-146,-163,64,-186,73,120,25,-101,88,-6,-101,37,-34,88,-101,-112,-22,-4,-67,-109,-69,-75,-46,-84,10,131,-190,206,36,276,112,370,-420,-70,-48
,-2,230,-52,61,164,-190,-45,-238,-249,190,133,83,11,-43,-62,-6,-245,-156,150,-16,78,40,-312,69,-205,-165,223,-185,-53,-240,130,127,112,-371,8,-35,51,-56,-166,133
,-3,-98,25,43,45,-193,-25,-70,-195,-127,38,27,-112,-64,96,-2,-24,-262,-217,59,-140,-65,105,-31,93,99,203,45,24,95,-112,-105,-242,201,170,163,-228,-63,56,-182
,-117,-115,15,62,-129,-85,-15,-32,7,105,29,-47,77,35,-192,9,42,-3,-49,-81,8,-28,85,-17,181,68,-40,-107,13,227,-58,-123,-164,145,-125,2,-373,62,-143,-140
,238,-87,-14,-29,333,-74,88,267,-73,113,23,63,-80,-257,72,35,-256,75,4,-62,-74,-117,-11,-1,-189,-662,-13,30,35,-380,-981,-9,-543,-1631,376,2,-1104,436,429,-42
,-201,79,-89,-84,-54,-58,-44,31,47,22,-48,-97,-88,4,-127,129,73,-70,-8,77,-97,10,-333,2,-121,-52,-163,-25,96,-310,11,-9,57,134,-180,-7,270,-55,-48,0
,-120,-367,-84,-56,-76,-103,70,-119,-119,-234,116,-129,-116,124,-44,-154,-7,120,-245,-113,170,-175,34,-39,-257,-109,-240,-82,-251,-224,2,39,-298,-178,145,59,1,170,-170,-50
,3,78,-7,-138,-384,-47,168,-184,-53,-84,-317,72,-125,288,74,-45,82,-79,-38,-143,43,-88,-451,-64,278,316,15,-33,-419,160,344,-34,-78,-544,-313,-456,377,260,223,-503
,158,110,-206,86,186,-223,126,-165,125,76,68,-268,115,49,-125,119,-75,-98,100,57,-156,-124,-191,-64,28,245,-100,206,-143,174,211,-162,-97,-309,31,-58,-262,-105,56,-124
,168,-508,-54,8,-116,-113,-70,-1,-36,74,61,-33,99,156,184,85,4,48,142,130,-27,58,43,-10,441,-211,-117,-401,187,466,-213,-49,-19,332,-321,-105,-197,-1782,435,95
,163,-156,-46,29,-280,-319,74,112,114,-175,-161,-4,22,-14,323,112,41,-1,6,158,-14,-48,131,-35,99,-338,18,-85,-2,235,-43,-62,-108,707,75,-26,-104,274,-125,48
,-306,-1018,-11,-193,180,73,-199,51,-117,-215,-146,-66,-858,242,-111,-377,-321,9,-406,-106,-45,-196,136,81,-723,-422,5,-69,-153,-820,359,147,-129,-254,-14,-428,7,722,-122,-197
,-5,113,-4,-101,7,-37,-99,70,-179,-125,-58,-130,4,117,162,-24,-17,104,-145,-97,-44,-259,-381,-132,31,359,10,-58,-41,18,87,-342,-115,-389,133,92,107,-350,262,124
,-270,193,164,28,37,-299,-51,-207,-38,-205,149,-387,-169,-63,-25,44,-21,-388,0,83,-275,-105,189,111,-139,-199,147,-481,126,-17,-717,174,-37,-1081,285,30,32,135,-528,-102
,-157,-409,-327,-144,-92,54,-332,92,-149,-249,187,171,-85,-154,8,-313,131,96,-238,233,-193,-145,-5,-3,40,-257,154,-161,41,91,165,-241,-120,363,270,-93,292,564,258,-314
,29,-43,5,-229,-225,-8,-106,98,269,-216,74,-446,-169,-12,64,24,-18,-344,-35,-57,192,70,259,54,48,92,-185,-38,-37,-99,-146,-144,6,-303,-537,-386,65,91,-320,-49
,-339,-43,17,-396,41,-119,-57,-617,138,-170,97,-39,-126,-69,-74,-143,-131,-65,-157,28,-212,-25,-140,-61,78,-416,-161,281,33,-459,-12,-174,213,661,234,137,107,-274,-51,-570
,-94,-172,109,-38,116,24,140,-37,43,38,123,-38,84,-146,-11,120,-226,-37,-4,122,10,126,-149,-418,189,-131,85,-265,31,437,158,-328,188,136,-169,-129,303,308,702,-351
,48,194,-195,41,1,110,152,-213,-334,-35,36,7,115,-100,128,143,-154,-306,67,-11,-67,86,163,-124,-219,-309,-147,-27,20,356,-444,-456,110,-114,421,-218,250,195,-373,-47
,-7,85,-181,-105,21,114,27,-27,74,-117,80,-184,-13,-236,-246,-2,-122,108,97,174,-132,183,-64,-136,-2,-449,6,104,-118,662,94,261,641,-291,-44,217,-176,374,314,168
,-123,-17,96,-225,-36,-524,-127,-13,-437,-138,-115,-23,-85,-21,-531,-74,-123,-356,7,-45,-13,-54,153,-310,-50,-120,-88,-53,138,70,143,-194,120,-136,-225,-33,57,-77,438,66
,-61,299,146,-135,-27,35,-11,107,96,-29,-25,-123,-258,-251,19,-44,-168,-88,-23,20,-96,-347,120,-403,318,48,43,135,-38,-163,255,-31,-78,98,-112,95,-299,383,-215,-128
,-20,-200,-13,42,301,128,116,-236,133,-174,-63,-198,-112,-196,-127,36,200,-191,33,84,201,-30,59,-14,-1036,-237,23,2,-544,275,183,-13,-297,663,-232,94,-547,995,-421,151
,-63,15,-52,-48,-11,-117,-36,167,-187,26,-105,4,-130,-202,-21,-20,-206,292,-179,11,41,-552,172,-40,139,-275,21,138,-705,191,176,73,-69,229,118,-21,-117,32,-1025,114
,-78,-218,7,72,101,-39,140,-242,-5,-34,0,-21,171,-173,-24,131,-222,-100,-157,38,4,-97,54,-31,178,-15,0,-16,-149,-577,180,-13,132,-1125,603,147,30,492,-178,-409
,-100,-93,88,40,-60,-180,68,91,-249,34,-5,130,-4,-122,71,31,50,71,73,101,-161,-52,-303,-120,160,-129,-10,-57,57,230,169,-225,134,-615,-126,55,144,-437,-79,188
,19,122,-1,143,-47,-33,-104,26,-111,-58,139,-84,90,22,-32,-136,-127,68,-74,-138,83,60,-33,-40,324,132,20,-16,322,-156,-58,-7,-247,-248,-299,123,-160,-1430,619,14
,65,-367,51,-120,-156,-232,-200,-50,-235,-179,-138,65,-19,-32,-389,28,-181,-264,-71,-220,-42,-12,-343,20,-78,-45,167,36,-88,-57,-77,-55,14,241,-172,-593,-278,256,-82,-95
,-54,-161,-167,83,75,43,98,58,-132,120,-113,-92,-57,-39,-65,97,-3,-180,-34,4,1,-116,103,-52,-158,-62,2,-57,-97,-139,35,50,98,-48,37,-179,148,-145,-67,-29
,121,-323,38,-212,436,119,-119,-158,-227,-175,-159,-251,-121,216,151,-143,-445,-93,-187,-251,-852,-73,-87,-198,-42,-94,27,-240,90,-102,117,-192,139,-95,-156,-163,67,287,-20,76
,94,7,-358,28,75,-389,106,26,-47,88,10,-140,4,130,-272,11,151,93,107,24,42,107,1,42,36,-1025,80,-383,12,-144,-343,-336,77,-751,-555,241,43,31,-864,23
,-155,-182,-26,24,77,66,-19,57,56,184,126,-75,-77,-258,-30,106,-45,-131,75,144,8,226,323,33,88,55,88,-283,124,-4,-311,206,141,-326,-30,-72,75,-316,-299,-242
,-226,84,63,-184,181,-208,-75,167,60,-111,26,22,-192,-109,8,-20,34,-238,-261,-119,-1,-287,48,113,115,-295,-78,-8,231,-1,20,4,-158,-240,-57,64,-584,-9,143,177
,-429,387,-128,-432,-151,-151,-531,37,-8,-269,-646,106,-320,-43,-72,-452,209,-190,-223,-386,-80,-137,-17,-103,486,90,-2,-31,102,283,422,-455,490,-223,63,191,92,157,133,-221
,52,79,59,232,-87,37,31,4,-196,119,-155,-48,48,-68,-142,103,-362,136,34,-56,123,-367,212,-62,-524,-103,156,-229,365,-227,-21,221,-86,80,-814,-239,38,488,-289,-447
,-115,-60,-47,-73,83,-41,40,-72,21,159,-55,108,60,-30,-118,-92,-43,-55,-39,-4,-75,-51,208,-48,117,5,-47,-8,55,-498,-20,122,163,-38,59,84,41,-689,-112,-363
,-25,146,-68,-48,9,17,-77,123,178,-17,173,-177,-35,-99,134,52,-68,-250,-16,-177,133,5,38,-13,-178,-225,-42,-123,182,156,86,22,-272,172,-880,135,-104,683,369,84
,-102,-321,-36,62,-184,-190,2,37,-316,-86,-337,182,-109,-240,-23,41,-82,223,6,-290,-52,-210,-68,-59,98,219,191,-4,-165,39,82,-123,-133,-140,140,94,-137,-462,-157,82
,-40,42,-3,-120,-208,-14,-155,-282,158,-109,-56,159,-205,58,-141,-154,155,-89,-136,103,-18,-50,-775,39,-177,-95,-57,-69,218,-743,236,-127,185,-346,174,-44,341,-323,390,-117
};

long weight_1_T_nvme0n1_4[2*256] = {
347,-413,-95,61,-512,-20,-308,109,163,521,-562,139,-386,-141,300,247,60,13,-630,283,-44,18,-113,299,55,400,-246,-207,21,-76,-350,-180,53,41,226,-536,117,-152,8,302,155,91,-141,-317,-265,-369,-228,341,-352,-292,-66,-231,302,7,-44,-65,142,307,-121,101,98,106,71,14,-310,-28,217,10,-354,247,-204,-285,63,-63,146,478,-83,239,-52,-401,419,44,64,-363,-28,12,-17,-30,-77,245,-797,173,337,48,113,70,-108,-124,-111,61,-27,109,-31,-428,-1,-18,-225,141,-94,-169,124,-368,-166,-39,184,341,-28,-36,148,43,-174,17,-34,694,107,-58,70,-158,42,68,-33,48,232,-137,208,-82,-5,35,326,482,264,114,-400,67,607,588,-367,-233,157,-92,14,63,498,-47,-446,-162,143,51,81,119,-13,37,11,-1,31,12,-70,83,-202,47,839,-271,-176,-508,-180,135,-35,307,276,170,-658,-68,-123,150,7,76,62,-340,477,5,-81,46,-61,45,-213,-29,-182,-122,85,15,-327,15,39,-156,55,-421,-25,-252,246,41,-41,-284,46,144,-67,26,352,7,46,64,72,-237,-87,-18,207,90,-145,-134,-396,176,-116,-178,372,324,187,-234,184,-299,-133,24,-171,-258,43,-709,-233,68,-521,-182,115,60,-504,-82,11,-74,120,120
,-381,284,-98,88,512,-207,237,52,-16,-441,607,56,179,172,-132,-102,53,6,592,-114,64,33,264,-195,-56,-557,104,299,-66,95,485,75,75,5,-251,331,52,366,-8,-215,-333,98,51,89,57,355,192,-143,290,160,245,104,-332,38,84,-49,127,-537,146,21,-122,79,-178,22,268,27,-311,-71,243,-371,105,127,37,-166,148,-554,153,-36,-97,320,-586,-152,113,360,-98,61,59,-107,63,-107,896,111,-311,25,37,62,202,131,-94,-96,-57,-40,47,474,-66,-91,138,-303,243,223,-120,124,252,-13,19,-546,75,184,-279,10,163,-116,71,-621,-118,198,36,320,13,23,131,-193,-286,333,20,261,20,-112,-68,-552,-23,110,229,-82,-593,-437,260,346,-49,16,-5,32,-590,60,358,165,-89,-48,90,97,-16,-197,181,247,-178,146,47,-108,273,-77,-650,323,321,516,154,-207,242,-418,-193,172,695,118,139,90,101,58,82,284,-377,75,218,-4,69,-135,196,92,93,52,-289,55,231,-221,-10,-13,9,376,-163,95,64,85,-148,418,-32,-176,35,180,-283,-62,178,-181,78,520,-79,38,-113,-135,171,78,263,32,423,380,-363,-271,-46,202,104,268,-28,188,-51,383,-89,588,76,63,486,67,44,114,369,91,17,77,-246,-23
};

long bias_0_nvme0n1_4[1*256] = {
-79,-713,-2,-194,8,387,-528,378,381,-145,-51,251,23,-156,-351,-37,251,-7,-681,180,-231,-385,-79,41,371,-74,-692,-279,210,-322,-180,-70,-332,281,151,-830,370,-18,-347,-83,29,61,-245,-18,16,-184,-186,106,-17,-97,-553,-337,-63,-123,19,-225,334,-232,55,224,25,271,-170,172,-117,-212,-285,238,203,32,-127,-283,283,66,255,-308,-41,18,384,-167,236,-96,139,19,79,-92,-376,135,-172,-204,-1349,368,66,182,426,-240,-582,-37,-286,168,157,45,-229,-89,132,-222,-224,-132,-421,-111,186,-177,-399,-41,216,199,-49,-184,96,38,-182,390,-238,-482,109,139,343,92,331,188,-336,14,-56,-882,195,-46,-294,288,50,55,181,334,-200,56,-83,63,87,-50,-298,-131,-196,-241,-32,173,-87,-262,-49,-328,-231,170,-359,-311,-34,-28,58,-51,-259,338,-171,416,-334,-253,-761,-8,-121,53,-474,125,-157,804,-648,-249,-200,238,-306,148,-211,-482,-12,-187,-174,291,145,76,-119,-11,103,-170,-96,-296,-853,462,-301,-47,361,67,123,-92,620,-244,259,255,384,-313,-303,78,-18,127,109,-252,-274,-1019,69,-320,86,-118,-600,-161,-132,264,99,-159,-206,-108,218,-47,185,-116,-73,-129,-236,-601,205,-950,-186,97,-37,5,3,-358,24,-209,163,-360,-103,362
};

long bias_1_nvme0n1_4[1*2] = {
396494,-308600
};

#endif
