
/* Trace */

/**
 *  updated on 05/01/2023 02:17:53
 */

#ifndef __W_SDA2_H
#define __W_SDA2_H

char name_sda2[] = "Trace/sda2";

long weight_0_T_sda2[256*31] = {
164,184,99,-235,-8,-199,-201,55,-90,324,-138,10,-22,-29,76,-79,103,256,-134,-15,-27,301,-131,-8,-36,107,23,-139,37,-59,137
,189,75,-29,9,-145,53,119,-35,115,42,69,-128,29,-67,123,-97,-111,-77,-117,94,43,94,48,-105,87,22,88,92,24,-216,-113
,314,-20,-173,-127,194,7,53,-14,8,-301,-141,5,10,-233,124,-82,1,-228,78,-24,-134,363,-380,-91,-16,295,-30,-64,-53,215,60
,43,-110,-102,21,-95,-28,-43,71,9,66,97,45,186,33,91,104,-2,-62,-33,-100,-88,334,-121,-41,-107,-75,89,-51,-137,117,-80
,22,-129,71,-35,-65,22,40,-88,-151,145,-43,27,-256,68,4,-67,-117,137,56,41,64,-164,-22,-30,-98,196,-190,-123,116,-76,-40
,133,31,81,125,140,121,-30,-8,131,-125,63,69,-20,71,27,22,92,144,54,26,85,79,122,-67,-95,140,-147,-135,-32,-88,-116
,264,-118,-35,49,-168,-54,-241,-132,1,59,4,77,193,-135,-144,80,-1,-111,-143,85,-63,-57,-183,134,-14,119,-67,-134,57,-15,119
,57,166,-150,-47,-60,-70,80,-114,52,238,-28,-346,-12,-110,17,120,-138,-10,-71,49,122,61,-246,61,65,-103,136,-83,53,-127,112
,-82,-97,-131,208,-197,-169,410,89,105,-191,-153,107,146,188,31,-108,19,433,-96,-16,-111,406,110,-134,-41,-237,-172,-119,-6,315,73
,47,-191,15,82,187,-133,320,218,-79,102,-22,-28,-5,22,34,-30,-56,-82,135,-6,79,-198,-11,-127,-39,-101,-92,75,-115,374,69
,-141,123,-129,-45,-140,-229,89,-253,124,-125,179,-67,-79,1,-251,-120,-59,134,-404,110,-49,73,177,-94,-111,-129,-139,133,-141,111,223
,404,-63,3,70,-293,103,-249,-24,-222,-131,166,-33,92,48,-36,22,-7,-138,-186,-39,14,12,46,-118,-32,135,-248,63,-108,-2,-185
,-20,221,31,-26,-164,-36,170,-144,-57,126,-51,-200,175,-44,-81,-100,-67,14,-171,-70,16,41,-161,-132,136,-225,191,-143,-119,-73,251
,38,38,-45,-13,47,20,-91,25,8,-68,22,102,-102,82,-90,2,-79,-273,137,-81,-58,51,59,115,103,142,-150,97,-73,146,-168
,211,106,170,53,-271,-121,-154,20,-22,-274,-128,-50,278,111,-55,-131,94,-30,150,101,-144,10,-55,-38,88,-109,13,-119,35,222,107
,-255,-58,-53,-147,-84,-34,-82,105,65,-195,-81,85,230,-82,28,125,104,16,97,117,-63,74,-118,110,-32,-75,82,126,143,-49,-52
,126,125,143,-73,58,-7,69,71,70,-77,-123,93,-119,-113,81,-36,57,136,-64,-27,-107,-22,-96,-78,-25,65,33,-77,-80,-53,149
,-181,-150,-23,-61,-21,-137,-143,55,41,-48,6,130,85,10,98,-51,-54,-194,2,-77,29,445,-113,127,17,-134,125,-16,44,260,-111
,63,-103,-79,-50,67,11,-135,63,-9,-10,95,28,-85,23,79,106,-89,-106,-51,-108,83,-180,23,73,-34,93,68,-4,-45,-40,-2
,130,80,72,94,93,-111,22,106,-68,-110,145,107,122,-10,111,105,6,-88,-112,-89,-138,-105,0,-86,134,-14,-93,77,3,-16,134
,182,-167,-154,82,-125,-24,462,-9,150,-46,-207,44,131,55,-37,26,41,109,-102,-113,109,311,35,112,104,-20,-82,129,-23,458,-115
,139,-105,98,-164,-78,13,439,-88,-76,334,74,-115,37,98,93,27,60,-99,-68,-133,97,-301,-308,-97,-82,-17,137,104,-58,79,71
,-67,52,96,-183,135,-58,-135,-3,-9,-66,-2,156,-28,51,-86,-80,-99,82,76,100,-31,-69,-54,-67,4,100,6,-34,-136,73,13
,-86,-225,-53,-35,97,84,-16,259,-106,414,-178,-387,-2,118,-274,-83,50,-72,-99,118,87,101,60,-20,-5,-16,51,1,-129,-360,55
,33,122,-150,-350,122,107,239,43,-47,-8,-95,-141,337,27,69,-144,76,-65,-222,63,108,-114,-123,-22,72,234,-199,-47,85,210,-209
,137,-218,-33,-182,-8,-115,-583,20,-16,143,-12,92,-249,-85,98,-1,140,-29,86,-131,-3,-336,71,-22,38,71,28,38,-133,-321,-109
,88,-63,-41,-23,-66,76,-48,-3,120,114,111,-31,47,78,32,38,84,-290,18,20,42,119,94,135,25,-34,-76,-75,-129,-79,-145
,138,8,124,149,-78,46,115,-73,-103,92,-55,125,-233,129,113,-46,-18,97,33,9,113,23,-18,-112,-3,-108,-89,49,-144,12,118
,-240,53,-77,17,-126,-147,-144,166,-69,63,-297,52,474,-2,-35,52,19,-369,343,-109,137,78,-297,-27,-49,76,112,18,-122,-9,-76
,-238,-196,-78,45,-54,96,330,-9,100,131,84,-133,378,-23,-3,-12,-106,-23,-47,-33,-100,-38,-99,-104,20,169,-160,-24,65,394,-119
,-12,33,85,-176,-41,-103,209,-67,60,-126,128,-16,-47,-58,35,-52,-136,35,28,6,31,163,1,143,25,61,142,75,-84,126,72
,-2,44,95,-2,-97,-135,111,55,-19,-10,32,32,32,-22,102,118,-71,-23,70,107,-80,-199,-65,-57,144,53,18,-104,82,-50,111
,131,15,27,160,-121,-173,-110,34,17,229,-96,17,-83,57,109,-140,-1,-179,-86,50,7,-282,-249,-13,-31,-67,-23,114,-80,-145,-87
,25,-2,80,-74,-83,-205,65,-243,74,-10,-201,-106,89,134,-112,-45,143,78,-37,-140,-129,107,-265,139,11,188,-172,18,99,23,27
,-110,41,-1,-168,45,124,232,145,-126,116,-62,9,138,125,80,142,135,-105,161,-83,-98,169,83,-43,130,-11,-20,15,-131,-1,33
,73,-106,45,113,146,69,190,-70,-65,-109,-36,139,126,-135,51,63,-51,-43,114,-9,-21,-77,-69,31,86,-121,-40,91,141,43,42
,-149,85,-3,-4,3,-4,73,-48,-98,-24,12,5,-137,-81,46,15,-87,-84,-91,42,-65,38,-15,-14,-37,34,-147,72,-105,-166,102
,-3,6,-152,170,-13,-79,-223,146,13,130,16,31,15,23,-122,-103,0,20,123,-49,-21,92,38,127,-118,-5,70,9,-1,121,16
,-408,63,37,94,87,-113,-98,38,131,168,-48,15,-59,17,-86,-47,74,138,-266,143,-38,572,109,55,115,51,-11,118,-71,-97,38
,140,-102,-94,6,60,52,-15,79,57,67,-8,-104,-149,110,134,113,98,256,-30,-127,-53,82,144,144,-61,185,156,74,138,-102,34
,-137,-48,130,213,-127,-9,56,82,-8,136,131,6,-292,81,-99,78,92,149,-107,-13,-128,-27,130,5,102,-164,41,-66,61,-212,111
,240,-101,187,191,51,-127,-266,-150,-68,720,-94,-56,-263,31,25,-105,56,25,-278,66,11,340,63,42,98,303,-103,69,36,-104,-233
,-67,-94,-20,36,110,-12,-62,-45,-125,201,162,-180,220,-132,91,73,63,548,232,17,75,153,-32,-121,-93,380,172,17,65,360,156
,-56,173,-31,60,-94,-23,456,65,-103,-135,-262,-200,-222,-356,116,9,-14,128,-73,9,-76,-109,44,-17,-54,-23,33,-130,98,-25,24
,79,-140,42,-43,-42,-6,-67,-2,-77,5,112,104,-79,66,12,-10,101,-98,-16,-12,82,9,-101,15,29,-33,130,91,107,146,101
,-373,-92,85,-71,119,-58,-290,109,36,193,24,-131,0,-80,27,-47,-8,150,-246,30,102,-128,-83,-135,-39,203,-233,-94,-4,-156,-41
,49,99,-60,-378,-102,-280,-35,-50,163,-368,91,-12,55,-49,-37,-12,2,268,130,-48,142,-42,-106,65,139,-223,-27,-43,7,-118,42
,-560,81,41,-205,-163,-125,-151,-111,-92,-399,81,-166,-312,104,175,27,-7,-140,-336,-24,90,-97,-26,-91,48,6,158,82,90,-298,-162
,223,-46,37,-137,51,-4,2,72,85,-276,0,11,64,101,-99,66,-119,-167,-55,-19,131,44,3,86,-93,-27,82,-24,-56,22,-35
,-89,69,-81,-11,-63,-135,-116,-19,-52,69,1,21,71,-34,-121,62,-118,-86,109,82,-24,-34,-70,20,-77,-89,-1,-31,42,101,-31
,148,-176,-31,22,-479,-84,-464,43,85,482,-124,63,11,-66,65,126,82,-79,-254,70,50,-275,-84,-18,-28,210,276,-33,-133,303,-20
,-113,-114,-142,57,54,-31,-155,48,87,291,-171,117,229,122,-122,23,25,288,-24,26,13,-239,-18,37,69,102,153,-128,66,-391,-94
,-306,147,-164,-62,-20,68,67,-67,46,150,-80,87,72,95,-64,140,22,240,-150,-114,-43,-451,104,74,9,-75,-130,-97,55,-130,-77
,26,134,47,77,52,52,-145,106,-81,152,-116,129,25,77,102,12,94,-24,-84,-115,53,139,12,90,-35,174,-100,-45,8,-38,-152
,-296,-250,-43,-37,-34,36,-322,-182,-47,74,161,12,-6,-300,78,134,85,94,-65,-116,23,-678,125,-116,-122,113,69,6,-67,-168,-8
,108,-18,4,21,-42,81,127,-47,126,48,61,135,71,106,30,99,-41,-28,18,135,-22,119,-115,45,-59,132,-37,-7,-135,-46,41
,32,163,-19,4,-30,70,24,-160,16,97,-45,-68,59,26,140,-85,-122,-90,-45,-65,85,162,-67,-118,-18,-120,164,-67,121,377,-152
,81,-124,120,-12,29,96,16,-69,31,-49,30,114,72,77,1,9,11,17,151,-26,134,-83,-71,-15,-49,122,-15,-45,23,-9,140
,-2,-68,85,4,-65,-7,3,-75,121,101,-159,82,-13,-35,123,51,-90,-107,-119,-92,10,118,-89,-79,23,-134,110,-8,12,167,69
,-19,103,123,2,-124,136,84,-16,-14,-238,-18,-97,156,86,-43,74,-117,-117,-127,-13,88,102,8,71,-121,-54,109,126,-104,96,-98
,-49,-63,-81,-144,-119,-111,11,100,-131,-3,-105,-88,-55,-32,24,133,1,73,-83,-107,95,-9,-136,137,46,92,-130,7,-24,22,-52
,-210,-2,-91,-215,103,-169,-138,164,-59,385,-52,-128,41,-120,-30,-99,-111,-277,224,36,-99,-121,-445,92,44,149,145,35,3,-21,140
,-86,164,-53,165,-33,-2,-313,175,-73,-76,-202,-88,315,-41,-231,-49,76,13,116,53,-144,-366,368,22,-54,322,424,29,31,408,-19
,-77,19,-11,71,-30,-97,-159,43,73,-85,40,-166,41,-5,-41,-118,-128,-7,-145,95,-101,-142,69,132,-23,-60,69,105,-68,107,122
,126,79,-101,21,54,12,-135,13,54,-153,-163,-70,71,61,42,-34,-25,141,-166,-32,-38,31,-89,-66,62,123,54,99,84,71,-87
,-369,-11,-190,-330,207,-172,94,-202,84,60,-106,-2,-274,-72,74,-121,89,24,-123,-116,77,42,119,113,121,138,63,25,-6,-92,-22
,6,-154,53,-61,44,164,584,-78,-131,147,-72,-420,-135,35,-66,10,22,-91,-220,130,47,-422,-50,-111,33,-129,-24,88,39,92,-405
,28,-46,90,-161,-41,-39,-88,-163,-95,-220,3,31,21,-9,40,80,-81,35,47,78,-144,174,-11,105,-58,88,-7,-144,26,-185,18
,69,-50,59,-164,7,-132,40,31,106,-56,82,81,24,-84,-39,89,41,-165,-149,16,-45,-537,60,-137,90,30,-66,103,-144,37,113
,-143,116,-36,-47,-175,141,141,-127,-29,-576,82,44,319,-26,-163,-141,-16,189,120,67,33,-27,108,52,118,-171,-17,13,-59,-130,-87
,83,195,-129,-52,-19,8,-140,-91,-262,47,-111,9,48,-227,6,-76,126,22,-185,-82,88,212,57,113,48,41,119,-100,108,141,-53
,-265,-66,110,259,35,94,12,81,105,97,37,-152,-294,-140,-50,-120,72,-59,79,128,3,-72,62,15,-51,-84,-214,62,-80,-154,30
,73,-51,60,173,152,-98,188,33,128,-304,15,50,131,129,-139,28,-81,-17,-122,-126,-32,-422,24,-9,-6,7,101,-85,7,5,45
,72,-73,45,35,-25,48,64,-102,-29,-72,-75,-146,60,25,37,-46,77,-179,152,-85,-115,-213,-112,-121,-47,-18,-194,-81,-38,36,115
,-23,-134,94,-34,38,73,-162,-90,74,348,22,-99,-6,-80,-80,-123,-40,-73,-11,-84,-64,2,-68,-51,76,4,-12,-74,72,103,130
,153,2,-195,-198,-25,25,39,-101,-93,-421,-85,-2,214,-7,127,-51,-79,169,-265,-100,5,503,152,-59,87,1,-124,76,-85,230,-100
,144,127,88,66,45,30,144,45,107,13,82,133,-75,-133,-73,14,-7,-50,-51,48,97,70,-70,43,-53,-35,45,-64,118,-17,146
,197,-104,-26,-74,-2,-117,-54,122,-69,45,128,38,4,102,-112,-130,81,95,129,-87,92,529,53,-85,-109,-368,229,56,142,-189,-75
,34,-298,114,-132,4,-198,75,-98,75,-21,-292,-72,-446,-64,-194,83,-29,-57,-540,-122,-39,107,-152,19,41,-324,310,14,122,-6,37
,-175,80,99,167,14,135,87,100,75,-27,-48,31,59,103,-116,-57,-92,-164,77,-95,23,148,95,29,95,-135,-67,129,3,36,-139
,-67,71,-183,25,115,-155,58,-31,94,-12,-4,63,-189,32,-23,-31,-108,159,-41,-137,37,-185,65,-136,83,107,53,-91,-39,-302,-7
,-285,37,69,-251,-68,-60,-7,-124,56,67,-30,91,-113,80,-57,56,-83,-91,-18,-96,-4,97,-28,36,26,-130,67,-135,-61,215,-100
,59,155,47,-153,1,-68,-297,109,-52,-18,18,-38,144,-109,84,95,94,35,152,-9,-136,-69,43,95,113,177,188,-85,-131,85,80
,-52,40,59,-242,87,-75,7,34,2,280,32,61,300,-130,-110,127,-96,-121,-33,-80,59,237,-61,-97,-60,221,2,39,69,-70,-221
,127,-164,15,-225,-45,-68,147,138,-203,-395,37,108,-203,61,72,-121,-140,381,-33,-11,17,416,135,-13,-35,-205,279,-22,123,-253,51
,-4,8,-23,157,-134,133,67,36,71,124,34,2,198,-131,-84,116,19,43,-8,-36,-64,-217,-156,-86,139,-3,50,117,-18,-44,204
,-69,-76,30,147,142,-22,-114,-54,68,-123,23,28,91,-3,43,143,-8,91,-28,-38,-75,-108,-123,-89,-109,79,-20,-64,35,-111,-74
,97,-27,132,-222,-164,98,-116,-15,-79,97,78,-58,94,-46,-41,-33,78,12,89,-104,-26,-199,-254,24,21,18,62,-122,-122,54,-135
,-34,31,52,290,-107,-26,62,-125,131,162,-118,-254,-141,-40,-144,35,-134,73,-104,42,-21,-54,188,-125,-129,213,-521,-98,-8,16,152
,-143,-5,83,-144,65,93,-134,-56,65,109,84,67,26,4,-35,8,-61,-38,-36,-11,-70,141,87,-116,83,71,-21,69,-48,116,-120
,206,-151,39,-262,-28,55,472,-295,-23,96,51,-124,-202,-13,73,-77,-4,278,-136,98,75,-194,-239,74,-105,-35,10,142,-129,17,161
,129,31,79,45,140,-80,63,69,-44,85,78,110,-150,16,1,43,50,158,-39,-96,76,-118,2,128,-135,-22,59,132,137,-16,-54
,103,111,64,-91,-135,113,60,106,-58,79,116,71,48,-156,-108,134,-44,-31,75,59,-36,-90,114,-48,46,106,109,-91,86,-7,-132
,71,-208,-391,232,86,-10,318,154,-116,80,-8,-80,-65,-271,121,-53,-52,15,67,43,-134,57,-130,-93,27,57,-313,27,10,1,74
,274,29,22,-49,129,-148,-119,11,-125,-31,-42,18,-75,-127,95,-79,116,359,-301,-75,48,188,-34,36,66,52,207,-134,-30,416,-136
,463,-97,183,106,98,-136,-180,-85,-233,107,-30,-190,-132,230,19,-95,76,513,-286,129,-45,-46,69,-60,29,200,-70,-20,107,215,-150
,-113,-92,-140,133,-196,13,-89,-308,-5,173,-289,-39,-108,-323,113,-25,43,-139,183,-137,17,-125,239,-3,62,19,63,-70,-103,-71,-625
,-16,-30,-177,157,-148,158,19,93,4,-335,141,-55,94,-116,-114,113,-117,371,235,-46,-142,257,-161,-35,104,-92,-242,-53,-19,188,-220
,411,-162,-96,-324,-96,-424,1065,5,59,428,-382,80,236,-7,42,13,-107,-150,-128,22,-129,-75,-300,21,70,-71,-172,18,-55,10,-439
,232,-68,-91,17,126,99,-141,-26,28,-439,-46,-179,39,16,-8,-31,120,-9,68,-41,-88,95,79,5,-97,-131,25,-43,-129,279,-104
,-16,-23,47,-22,59,68,163,-8,8,-156,-91,72,-54,4,-54,-30,-98,-263,-142,104,-104,-151,1,-114,-50,-81,107,-119,-44,11,-42
,-14,67,101,-34,94,98,-230,-104,-42,467,-169,-21,-114,50,-81,117,-142,-170,-19,-135,-143,-110,-169,18,-103,520,-64,-64,73,102,-359
,-72,19,69,317,-249,-156,-94,74,-29,-226,85,-38,175,31,78,-103,-94,-497,-184,96,-115,-273,-189,-128,135,84,35,30,-40,47,-78
,116,-22,-75,19,49,-20,-4,17,-54,-96,-129,-93,8,-99,-49,79,106,112,82,62,-84,-3,-34,78,65,60,-142,-10,29,30,-139
,-31,7,27,42,66,-50,193,-148,-109,236,37,-112,-76,63,128,-36,10,278,147,104,-96,174,76,48,112,-121,13,-44,-89,-136,-18
,265,126,82,56,52,-52,243,21,-201,-143,117,72,330,-291,-151,126,-29,-226,65,42,-33,-73,-182,-75,78,-258,-25,-110,102,442,-509
,139,-74,-168,221,161,-84,11,-59,75,-135,159,-151,387,57,125,-129,-88,477,-63,85,66,159,27,62,116,-93,73,47,141,-42,30
,-142,-76,-82,-40,21,120,48,28,84,39,138,5,-172,74,94,61,-45,-6,103,-56,117,-142,34,-8,65,49,-101,95,130,129,-80
,-65,76,128,56,129,-98,-79,79,121,-35,51,29,19,-90,67,25,-97,-78,21,-128,-46,-82,77,100,101,32,89,-95,3,106,0
,101,119,-117,-173,-111,-61,-89,206,72,215,-167,137,-134,12,-51,76,-91,17,40,-62,93,-441,26,-97,102,-325,-131,127,141,100,-169
,-315,79,0,-172,83,-135,-17,-83,50,-342,-194,-85,-346,-140,67,105,123,533,64,-73,-16,-107,127,-52,138,70,-45,-35,-122,13,-39
,24,-210,-97,-39,199,-71,-91,-57,-29,255,-55,63,340,-257,-93,-52,129,-64,8,-3,-108,8,-342,-29,125,-76,-250,-5,-133,560,186
,86,-149,-211,-566,111,-137,112,-32,175,-465,27,15,-56,-74,-63,-40,55,492,111,-64,-132,-212,227,20,-75,281,14,-141,44,-210,88
,-45,40,-56,-43,188,3,281,-87,-23,-136,-7,84,-74,-64,16,8,-34,290,120,57,86,255,-129,-87,82,9,-20,26,-9,-233,-126
,-63,-8,-17,15,68,44,-212,-7,51,29,24,-27,83,-137,4,83,13,-97,-85,74,92,-66,-87,-74,-47,57,130,-92,-51,45,105
,-141,128,18,-100,-170,110,-393,-192,-151,-432,16,95,80,62,-93,143,49,-10,12,-145,-29,138,85,57,137,-125,77,19,78,-333,101
,79,25,1,-92,79,-8,73,-156,9,-69,-19,69,-151,-107,-51,-23,85,48,-33,103,67,-1,-58,52,-91,-157,-47,-105,2,-122,-33
,-280,94,-254,77,-216,-141,-36,31,-39,393,125,-163,-77,216,-18,-109,92,1,27,-52,9,-170,187,-104,-137,58,-292,108,40,13,-91
,44,164,-106,88,-34,-45,-97,79,-26,88,85,89,42,-59,70,-45,64,163,128,-70,137,-353,29,-17,33,-8,152,99,-5,90,100
,-357,43,-21,-159,-138,88,348,-115,96,105,-88,-26,-238,-14,-74,40,4,-137,5,50,33,-113,60,75,13,-58,109,-53,48,93,175
,-368,-165,-122,60,27,57,195,-63,-186,437,-75,107,-343,-182,98,137,-28,-85,8,-138,-102,-491,124,54,33,58,-144,-23,-17,-505,125
,-357,215,-18,-284,77,-497,-111,-90,-261,-261,-224,-75,-351,-98,139,143,44,203,261,-75,-87,-67,85,-51,-126,55,67,71,64,-102,-44
,117,92,32,118,-141,-34,73,-139,-29,52,-68,-124,115,-54,-128,104,24,141,-22,80,102,2,20,-88,-124,-17,-129,22,-22,104,-70
,-142,-163,-162,-558,-392,-61,-357,46,-10,130,143,-95,-299,118,114,-8,14,-76,207,38,-128,-62,-92,-99,-102,430,232,-86,-75,118,-129
,251,-35,29,22,-168,-142,-147,41,122,215,-158,-6,-44,9,148,111,62,-211,61,132,-100,-83,-153,-118,136,51,1,-127,78,113,58
,-194,-282,32,-249,194,-61,-86,-195,-190,46,186,-104,145,27,-78,33,42,-97,131,-130,9,-138,-167,23,116,150,350,-125,128,-379,215
,-179,-67,82,-37,47,-73,-50,-102,103,-198,-155,131,41,122,-35,-21,99,71,-30,-100,93,-231,-88,13,8,-158,-63,119,-98,-383,-104
,321,-35,86,37,57,-17,39,-245,-103,28,-14,-209,-215,108,-95,8,-62,-50,-416,105,-14,-144,150,10,-56,-160,280,-142,41,20,37
,316,-9,-138,-87,42,52,42,8,-195,-77,160,40,464,-208,-4,113,57,-257,49,-26,78,163,84,26,112,-43,52,-3,132,-51,-105
,-165,238,-112,128,31,-7,-187,42,6,149,-184,-65,649,-142,29,-122,-134,57,-65,66,-116,-8,-387,38,-88,156,-147,-55,-59,64,-72
,-147,-55,-92,38,0,-19,208,235,30,520,-94,-220,-170,46,-69,-84,20,39,-245,-109,100,113,-121,-9,112,11,154,66,-67,-142,-322
,94,-35,-37,-174,33,-19,18,96,40,-87,63,-12,31,73,76,129,87,-105,-152,118,-138,-273,-101,28,86,33,-130,72,-44,137,38
,22,-102,-266,-114,110,-99,97,-19,63,163,-151,-2,191,17,-152,38,23,149,-54,-15,106,86,279,22,121,-33,-69,-129,-29,41,-298
,104,32,-32,-46,-29,112,21,87,28,-50,105,-101,69,57,25,25,-67,9,-11,93,-123,162,125,23,53,35,99,-98,-108,-40,-77
,37,-122,-59,-10,-65,122,-256,78,34,-124,-90,-75,32,150,128,-35,122,113,-73,126,-100,111,-166,-108,-102,85,14,1,17,-4,102
,-123,112,-18,158,-294,-46,-108,-140,-101,227,61,-9,-92,97,57,-47,-5,134,-150,-12,92,150,103,116,-116,-88,61,-6,-9,-43,30
,-237,-16,-238,-140,192,-103,-101,167,34,384,-175,-20,383,-34,-120,119,-14,71,220,-61,92,-111,-70,-83,4,-140,-91,109,-61,-172,150
,-660,-200,-269,165,102,31,-151,8,105,-806,-14,-37,79,210,-122,141,-35,63,78,70,-91,-91,85,-9,97,-133,191,63,-51,-298,85
,-162,34,0,128,-230,9,309,191,75,-197,-112,-82,95,-210,-15,142,14,6,-39,-64,-47,373,97,-127,142,-100,21,-70,-2,-163,89
,-174,-107,61,148,-29,94,-214,201,-147,98,-31,-5,-480,-8,-26,-81,-65,-16,-58,27,-90,-200,126,-82,31,138,-127,-52,-135,76,80
,-91,27,-69,-105,-124,125,-95,58,-44,-130,-147,-108,-122,51,-344,-114,-93,46,283,-130,102,-127,-373,59,-14,77,-286,60,15,-40,28
,17,-82,85,151,-105,70,118,-56,113,180,25,-10,80,-51,53,-25,-132,65,-57,87,53,-94,-2,-106,-70,-56,102,41,100,-24,82
,-484,-484,-72,138,-110,182,330,-38,-393,257,65,14,15,34,-114,30,76,-129,-187,-52,-77,-14,-523,23,15,89,64,-97,1,-484,32
,3,3,105,32,95,110,19,-116,98,192,114,-100,-102,16,-35,-38,123,-134,-162,70,126,30,-3,64,-32,36,69,47,-22,16,-111
,378,128,149,241,37,-105,-154,-182,-114,49,-102,-96,-234,6,-62,65,-131,232,17,85,-4,-32,-145,144,87,83,-110,105,16,-125,21
,-201,205,-212,337,135,23,47,-45,-124,51,175,-74,286,-68,-86,34,-53,208,12,113,-66,-360,6,92,-95,293,322,-16,-38,79,63
,21,-75,-4,12,-127,46,75,44,-33,-48,53,125,-49,143,-83,-31,4,-227,-33,16,-122,-515,-24,-127,-90,53,12,-67,78,-77,-57
,36,82,63,-144,-28,84,-106,-11,69,-369,21,-27,25,-59,-174,-110,4,49,-24,76,18,74,19,76,96,28,24,89,-63,-72,119
,119,130,-102,11,25,20,-13,159,-46,-67,115,-67,166,67,91,-103,20,-56,165,107,-4,-37,133,-45,129,-12,80,-30,14,-14,-45
,5,119,87,52,-10,-33,3,153,-143,-275,54,88,-146,-72,56,-41,-96,51,63,25,-63,-136,-1,-70,105,-103,-148,-90,93,279,-121
,71,20,-80,102,-3,63,-91,-118,0,-142,70,33,-43,20,49,101,73,11,73,-23,-8,-160,-170,133,-112,17,-87,34,-37,-86,-50
,26,236,-6,237,61,-105,423,-84,96,-256,71,-147,203,-40,-124,62,137,125,-5,40,109,-175,-306,10,21,-3,-227,120,-124,-55,-131
,-366,-195,-216,-76,-240,131,63,93,-38,-383,148,-59,-154,-230,17,54,-21,-133,238,-40,13,-256,-202,129,-111,134,-260,130,96,87,-358
,490,-56,-24,-96,10,119,-59,-102,-109,162,121,-44,-120,-98,-8,-97,72,-124,-362,8,-40,-305,-167,129,-100,-384,458,-17,31,72,56
,17,-203,-175,2,-98,152,-140,-60,-124,51,28,88,-184,-207,-197,46,88,329,-102,-122,30,-190,-188,0,100,364,234,-39,45,89,-107
,-161,-90,126,-64,-18,8,-13,9,46,19,58,-157,5,-76,138,-131,-76,139,-181,-111,103,-216,-189,81,-109,20,-35,120,-31,132,-149
,-126,-107,-89,-260,-142,54,-268,63,-101,51,168,-255,294,159,-10,-34,-67,-87,151,-48,-54,103,-197,85,-88,371,124,0,-47,-47,38
,63,-49,-115,320,75,71,-115,66,-124,-1,-196,117,-218,-144,92,-127,-88,-172,-49,33,-62,127,292,38,40,-244,-241,52,-109,46,195
,-48,61,26,20,-116,-63,79,147,94,-93,1,119,-8,-81,-77,125,-67,-79,-31,68,114,271,-102,61,120,181,-88,130,44,-188,64
,434,44,-127,-110,-130,-70,422,-232,-42,-202,182,40,726,-131,55,-5,-111,-87,165,-71,-86,36,121,63,-117,-114,88,94,-109,-15,-472
,192,63,47,67,-58,-54,-177,-120,100,93,-166,-90,156,84,113,99,-37,90,-66,-50,17,73,-9,-34,-11,20,-45,83,76,-61,-26
,61,152,-21,291,-99,17,61,-27,-45,100,63,-149,6,4,136,-132,-74,124,-113,12,-113,-168,-269,-109,57,-165,-290,-131,-92,-19,-42
,-9,-164,106,67,-111,84,-282,78,-99,-112,-33,-7,126,48,76,2,28,32,131,143,-53,76,-130,-2,-124,-27,-16,-80,-61,-75,-181
,-133,98,-97,-10,-91,3,322,208,62,89,142,-172,-311,31,-269,102,97,-101,-219,-4,-44,152,-230,96,94,21,-330,-113,-142,-45,-3
,-18,-173,-28,206,2,168,-67,-157,31,-699,-365,-38,28,98,-137,31,-97,69,-294,-93,-134,419,-109,130,-78,-265,-220,-27,-105,-245,116
,51,127,36,-320,1,-56,214,105,14,150,25,-156,-69,125,-58,-32,45,254,-35,-126,-76,98,44,111,-94,-94,365,-22,103,-5,-124
,-127,-161,-122,74,-163,-140,-67,-112,88,-120,-139,-43,95,-68,-99,126,131,-121,-17,115,-55,138,91,25,81,100,-110,-80,-11,108,1
,-9,158,24,-84,-97,-161,-26,-45,-13,-119,119,-25,78,-90,132,-40,-122,211,148,-5,-128,230,-134,81,71,114,-86,30,-48,-234,108
,215,169,-86,-192,18,67,-180,-156,-30,134,58,71,43,91,-9,33,97,-315,-139,20,112,-38,-148,-86,-33,54,60,-87,91,341,-54
,341,93,-100,59,-225,6,102,-58,-97,-324,207,41,-26,-92,88,-120,30,-119,-429,-63,18,635,220,-2,-14,-79,-103,4,11,476,85
,55,83,133,-33,-174,-96,-109,-110,82,-424,86,-115,113,77,-115,110,137,7,-17,72,-75,-297,119,-96,-136,-255,97,-60,74,168,102
,-37,-151,-259,-119,86,30,11,93,49,-7,-161,-7,440,-158,34,70,-10,-254,186,61,-91,190,-72,-33,37,-451,339,-144,70,9,46
,-19,-58,-24,155,26,13,-3,-18,18,-82,-154,1,150,47,103,-59,7,37,132,46,117,106,120,127,-96,156,-141,-19,30,-31,26
,47,-93,-58,109,89,122,3,23,91,-62,102,77,-60,-59,41,-106,116,47,-133,-59,12,-61,-44,52,9,-4,20,88,72,112,6
,149,-165,106,108,40,-131,-23,-56,-53,-622,-74,150,-88,2,-120,-112,1,326,230,-83,48,-288,47,33,-29,-217,-126,59,21,-63,37
,-80,-51,-85,138,-139,29,41,7,-61,-71,22,-125,119,-142,-15,7,-108,-110,-78,-75,-26,14,-44,104,91,64,-98,-45,-47,139,-148
,-292,92,6,-339,-97,-40,20,-118,93,-128,-89,141,111,-133,-121,-32,-90,-156,116,-139,134,74,-128,-74,139,-14,52,-52,-27,139,-57
,389,-5,-25,-290,-95,102,-636,157,-1,-281,-26,-157,294,-47,-76,-143,9,290,48,5,-122,31,127,-8,45,-157,-206,22,-93,75,-194
,-32,121,-57,-97,-73,-19,55,-12,75,179,112,63,-54,115,91,-8,118,-110,-75,-99,-10,148,72,-33,-138,21,73,-67,-72,47,-61
,64,114,127,-151,-65,38,15,56,122,158,77,-120,46,58,57,-64,111,9,-178,-99,-30,-86,-64,-27,-123,-49,78,-139,-14,142,47
,-1,36,-196,103,-124,-393,134,69,-403,-23,-472,113,105,-189,-81,89,-109,-26,-202,-15,-90,-26,39,-119,-101,-35,-33,112,-4,-51,345
,-35,-142,111,-83,-36,72,-59,-51,13,-87,42,93,-93,121,-50,-71,-113,128,58,44,8,-41,-174,106,132,-61,-142,-84,75,-129,7
,44,-48,82,39,92,18,255,-227,66,-473,76,-110,331,20,-191,-24,-45,-59,-68,-39,-50,245,172,136,-136,10,-46,91,-39,179,39
,-29,2,16,-232,-71,-11,-93,132,-151,-224,-36,93,249,87,-99,-142,101,124,-182,-124,123,-282,185,-85,103,-84,-114,-140,70,-81,-21
,-80,175,-128,-35,144,-69,239,-41,-16,286,-1,136,-392,45,-6,135,-58,20,158,-46,39,-201,-180,135,-97,-103,138,-119,48,-594,8
,175,78,-63,-20,-140,-89,-150,-90,20,256,101,74,-220,-98,74,-76,-124,-8,151,117,106,-424,9,-21,113,99,119,39,-139,-81,106
,12,103,-166,-85,-228,49,-35,24,68,425,-194,32,-366,-66,-58,105,63,-1,92,18,-121,-369,-17,74,-98,-46,121,114,-105,-233,17
,121,-105,151,-63,-92,126,73,-12,47,-212,-39,-61,304,-114,-107,-57,9,102,91,-10,-9,99,5,31,-45,125,102,-40,13,-80,111
,58,-141,-28,-39,-250,6,79,62,170,25,-46,-88,298,82,-90,45,93,-44,-29,91,100,235,-104,38,-108,79,256,-143,-138,156,-60
,461,-9,-42,43,4,40,-86,-93,-29,355,198,70,-35,88,-226,76,87,-225,176,-57,-71,223,-6,132,-86,276,-69,-95,19,203,-43
,-255,-47,118,-40,71,-72,65,-18,59,114,-110,19,-111,85,-63,-17,-94,-16,-83,85,-125,-110,-88,-46,55,36,12,70,-117,-79,88
,-425,-137,-167,-140,80,-47,-83,-76,101,-164,-46,-167,-304,270,-17,-116,-142,-36,147,26,-112,-93,-19,93,-19,-118,144,-65,33,-198,99
,-258,-56,46,-28,-42,127,-19,79,-36,273,-128,38,-131,12,-131,-139,97,-154,117,-73,-53,-115,-11,11,-140,349,-52,2,102,-58,-84
,932,157,-123,83,-28,95,655,-85,-195,60,126,12,307,89,-251,126,-58,-348,-54,-15,-98,516,227,-128,-100,-68,12,4,128,513,-41
,213,10,98,-33,16,-83,16,-101,-104,459,91,25,-177,-28,-114,16,23,-136,-100,-120,-98,158,145,-97,-137,158,17,1,-68,-120,-132
,-84,-185,131,-372,68,-144,-332,31,-56,-563,-149,56,141,29,-60,133,96,65,216,-60,89,80,-122,143,-113,-226,-47,-95,-16,297,47
,-9,-183,-66,-28,-26,43,-129,-139,72,-131,40,37,205,-22,13,30,-79,259,-175,-50,-10,-405,101,-39,-107,66,82,94,10,-167,-25
,-325,81,-2,-12,107,-92,19,-15,-52,153,102,-117,-87,83,109,129,110,-491,-91,-4,32,-464,20,131,-54,74,41,47,87,-308,-68
,32,91,-62,269,150,-92,14,-36,58,-84,-149,19,239,44,98,17,-21,-127,35,7,86,552,211,-67,10,-96,-77,33,43,362,-32
,1062,48,-86,444,154,-43,116,-131,-141,170,110,22,512,-146,-195,-92,94,-498,303,101,-84,506,305,130,-54,-16,-282,-55,40,-90,183
,188,93,118,-132,-79,-113,-54,55,119,-67,113,-127,139,92,23,-5,-63,-40,-37,-37,-131,-302,164,6,43,56,106,58,120,88,-18
,-401,-153,-187,269,85,-94,59,136,99,198,-43,-73,-80,-82,-28,41,38,276,-72,-88,-55,-108,-105,-16,-2,4,34,71,-92,-157,195
,-258,-7,-63,-136,-38,9,322,-222,24,-9,-252,-62,676,212,40,-95,-5,-57,-193,43,46,1,-203,-38,104,290,137,-36,-27,448,-351
,-171,-132,92,90,-6,-111,180,1,-31,194,22,77,-166,19,1,-100,95,13,25,-84,137,275,150,18,-97,-114,-65,119,-32,-93,149
,-88,90,-115,290,-269,-121,-89,120,-269,-95,87,129,149,-155,-192,-19,-58,-59,-243,115,-14,265,136,-105,-136,-53,-9,-33,94,120,-291
,-237,6,-122,220,-62,86,333,31,-156,138,84,126,147,11,-9,-78,-13,103,110,32,-127,-28,-104,33,53,33,65,-9,46,19,173
,105,-191,-46,-226,27,48,288,-52,3,515,-238,78,-121,-183,-49,-114,-105,-374,487,-11,109,34,-446,-25,-102,41,30,-117,106,681,-81
,-83,-88,-91,279,68,27,-390,-80,-135,128,-124,-121,-188,149,136,102,127,-29,-39,137,93,-228,76,-142,97,-117,9,-110,31,-31,185
,-320,-123,118,-492,-282,-134,301,102,-39,99,86,-231,442,198,-95,-59,109,13,55,-6,12,77,118,-9,69,-21,-137,50,39,-134,70
,-88,-39,123,-7,-71,-34,212,-19,-17,301,-102,-61,-260,140,46,-73,8,-49,-64,-143,65,37,-6,37,-30,-22,-251,42,-66,-22,275
,116,191,-79,-35,99,-12,-49,157,-61,29,147,105,48,75,46,-102,-91,-89,-75,-30,74,76,-73,-69,6,9,186,-82,-144,-63,-9
,32,51,120,101,-88,128,65,-151,110,60,-12,41,-143,115,-130,73,141,-169,126,93,20,-120,9,-1,-61,-24,-99,-59,-119,-6,-41
,42,-38,-79,-166,75,60,-266,-9,-57,-92,-22,92,15,123,-44,54,37,-294,229,67,42,-297,-161,31,139,274,-298,124,124,77,-150
,60,-182,-171,201,-19,-483,32,-234,138,69,-68,-31,711,49,24,16,-43,6,-116,-47,51,63,102,-83,-137,-119,-141,133,24,15,-368
,-201,-101,154,121,-160,151,39,-124,-72,121,17,107,6,89,-95,-8,35,78,-83,128,-44,-120,42,66,-96,-25,-52,-48,-88,-204,-168
,-147,-150,-38,3,-197,40,597,-82,170,814,-134,-216,-304,10,-62,110,-29,-5,-102,31,70,83,38,123,129,368,-200,140,71,-93,71
,-93,166,-201,38,163,-155,-215,100,20,603,-75,-38,310,-24,-46,59,6,278,-28,-10,134,192,-359,110,-144,-4,357,94,124,-23,191
,25,-108,-198,64,-138,-252,1198,-108,38,-479,-8,-24,287,145,126,-62,-15,336,159,-69,-61,282,102,24,95,-42,112,134,-72,88,-32
,-121,-104,50,34,79,25,-388,-254,53,-630,-43,-13,119,13,-25,-7,24,210,-56,-18,-67,126,6,2,-102,27,119,-59,10,-12,45
,59,-149,68,-74,-112,115,-115,-19,142,-308,-62,24,88,-60,-172,132,-136,61,-139,-125,-60,97,-10,-3,-45,-16,39,-54,109,84,37
,-581,183,-207,401,84,-151,-456,-49,-136,-153,57,29,-229,129,-34,69,-60,1,-360,-12,-124,-252,361,-20,39,117,228,141,34,-123,48
,-96,-58,-37,33,48,-49,-49,-109,-118,-40,-30,-75,101,-62,9,-52,68,-16,-64,5,-28,5,-95,-119,84,106,-115,-28,-120,89,-103
,159,36,23,-95,-86,115,-68,-71,118,-244,-36,-34,117,7,-24,-24,117,116,26,88,-116,5,-56,85,-127,107,120,-51,-139,37,112
,-71,-85,-24,-70,-71,-24,110,73,-53,86,-68,-17,144,-317,150,108,31,-79,48,44,65,-473,59,6,9,98,-267,-134,34,116,-97
,-116,-38,-153,26,128,80,-77,23,32,18,26,60,26,-42,-119,-45,-116,39,-93,40,48,173,93,-132,90,82,-20,133,-64,-40,-125
,-118,-78,-100,-158,100,51,63,-56,88,66,124,-165,-55,143,118,51,85,-159,183,-81,53,-56,103,37,-73,52,-86,73,49,-25,66
,547,90,-8,470,-30,0,-253,-30,-104,-330,91,-102,271,-66,167,-8,14,651,-462,2,25,23,-214,4,-8,242,-373,16,129,382,-192
,282,48,26,-44,33,-25,145,-130,37,-101,-102,46,-117,-26,33,43,-25,-336,-268,139,110,180,-75,28,4,12,19,-78,-20,570,-222
,-78,132,-119,19,-93,-75,-261,3,4,39,161,115,-358,27,35,-31,16,-2,202,81,35,-370,13,-40,-86,-55,36,37,71,-193,47
,-43,-35,-192,-18,8,65,312,138,-5,242,-38,83,-67,78,-32,125,77,28,-156,19,41,-165,-203,94,-56,119,-220,43,128,55,-113
,-78,26,56,113,-46,122,-62,-64,119,-128,-117,-32,44,-76,35,-14,135,-68,131,121,-140,-112,107,27,75,141,-60,-87,-80,96,29
,48,-56,-49,35,-119,-113,-50,-99,-122,-30,-100,55,98,-78,-63,-134,-139,-64,-108,-6,-70,139,-29,12,75,-67,56,-89,-81,89,-98
,-202,33,3,5,-62,-12,425,-66,-160,777,-320,112,1,18,-93,144,-80,26,140,-39,-21,19,-162,98,-107,-181,-13,-98,113,492,-309
,-102,67,106,33,96,-29,8,71,24,-19,-66,50,-162,-37,39,-15,-95,72,-108,-144,-110,-39,-115,32,9,-13,-43,43,54,-100,-74
,-21,181,-147,-190,-144,17,83,-102,-87,146,-79,-30,-94,162,-132,-65,131,42,-202,-83,-97,-95,-188,131,-130,77,62,74,137,-19,-87
,-11,82,-41,-58,59,112,-295,125,-38,-70,-117,77,-208,-14,-75,-6,30,46,-63,-104,1,-114,-191,-50,105,-108,279,85,121,245,-295
,-31,-105,2,94,144,74,-165,-14,74,216,91,61,-80,12,-136,-108,-39,98,-152,-2,-104,-143,119,27,-103,-39,63,-126,-87,64,-105
,73,126,73,-113,-95,-95,-9,-59,65,181,125,91,-90,-139,-46,57,-6,-47,112,40,86,88,-119,104,51,-13,32,37,-86,155,84
,-80,112,-222,735,-262,87,445,59,-101,68,75,81,314,118,-231,88,134,-15,-200,-32,-31,146,-220,-88,-121,109,-308,-62,-10,327,149
,210,-337,-57,320,135,-152,-109,89,8,-29,210,-153,-89,-54,-11,-58,111,709,-85,-81,-106,-53,-325,-2,-141,252,63,-36,74,-141,-114
,327,-243,123,100,132,-55,-188,-81,-123,-56,164,-103,-347,91,-75,-79,-15,146,-187,84,28,-51,-205,-132,117,396,19,109,131,81,4
,-187,-76,-194,1,-120,-146,260,152,-4,-342,-127,86,373,41,115,-50,125,215,167,112,-119,225,115,40,-96,85,-295,94,25,199,129
,26,-130,-51,109,-171,-64,-134,72,-91,-98,-81,43,-3,-117,-68,-21,32,141,9,-73,-69,144,-68,-56,129,134,71,58,47,55,56
,335,76,8,-186,-110,-236,-81,113,-445,-34,74,-171,48,87,150,-50,-116,-154,202,-137,124,31,72,57,-6,24,-17,-25,136,61,-328
,293,104,-94,101,65,31,111,165,149,-112,-131,-130,-307,-82,-38,-25,51,-617,10,113,-115,-390,94,-32,136,-8,-125,-21,-74,359,103
,64,53,70,149,88,-44,61,77,-88,-34,-78,55,35,11,118,-123,-95,31,-149,4,-80,60,64,-91,-122,-33,-18,-70,101,-173,-52
,125,120,-133,72,88,72,-68,4,99,-8,146,128,18,6,65,116,132,21,115,-127,120,-63,-129,-68,1,-111,-29,70,-121,-75,-4
,35,-43,-18,102,111,30,79,80,129,-57,-58,130,118,8,-36,-73,-95,-55,71,-44,-81,82,-106,55,106,105,124,73,85,-28,-144
,-330,-494,196,-343,3,-204,523,-58,-197,106,40,-246,224,-4,-18,-105,-138,32,-228,-122,113,-217,265,54,-50,89,-147,-62,114,-89,-107
,-62,-112,80,50,86,-46,84,13,55,33,-127,8,7,-101,19,79,-65,115,-150,59,41,-120,-66,-97,-7,-93,-66,48,-125,17,-11
,123,173,-5,91,42,-51,-72,0,21,377,-44,-185,-9,188,-23,76,-106,-420,290,48,92,-65,-190,-58,28,-33,-190,-99,49,-267,133
,52,-149,-104,-66,93,-30,-48,-26,58,103,-114,11,31,-144,58,49,-94,-51,0,59,76,127,-74,95,84,99,-154,72,72,152,-120
,177,-200,-68,397,-196,-75,313,-241,95,-43,135,-89,557,48,52,-92,-122,62,-251,-139,81,176,174,36,45,-200,-180,-93,71,123,-367
,99,-113,-10,127,-41,119,-53,-55,91,168,8,78,154,-79,88,57,5,89,95,-45,-47,-26,8,-117,98,-14,-49,117,19,114,68
,-254,-53,69,-83,150,101,31,0,-71,63,-7,-277,252,-148,-41,-122,42,446,41,-84,17,172,18,112,-6,92,185,-79,60,454,47
,-208,92,76,390,155,-213,-236,-343,26,966,-8,20,-154,-245,-43,-62,-142,426,-359,-131,84,-87,-347,54,-100,399,19,-10,66,45,-13
};

long weight_1_T_sda2[2*256] = {
34,-72,130,76,-1,-81,-203,428,85,-109,490,212,311,92,-128,38,17,104,30,-104,216,69,128,639,157,-116,114,51,620,-26,88,133,-124,-134,-55,1,-1,50,82,-78,4,276,-141,348,92,47,-246,-254,-103,49,-247,-100,-28,-4,-162,130,146,5,30,-59,70,329,-401,-80,-68,-208,397,-99,-95,-115,404,82,44,-43,5,247,73,-25,708,126,-150,-72,-96,-90,33,42,101,150,392,-40,-59,106,91,-374,-11,102,-541,-53,518,-138,-95,-56,-170,-151,29,-293,182,-77,139,-149,-95,577,-165,-105,-111,-76,-128,-313,-65,66,-240,-459,-114,-151,-158,-368,1,317,123,102,275,-108,327,79,-97,64,274,-260,161,114,434,-44,-507,-86,294,-240,23,-40,99,-3,-71,-287,-198,75,-318,139,-219,214,64,183,98,78,-136,116,-216,119,-30,67,122,81,-74,274,4,21,-138,-62,61,-111,-41,83,-337,-11,-52,-184,-14,-36,-239,-60,163,128,94,-104,42,102,51,-175,0,-164,123,306,-43,288,362,58,722,-142,199,-9,-325,98,125,116,44,329,13,270,316,123,-62,54,-259,-40,99,54,134,28,156,116,-163,54,34,-87,23,-57,325,64,117,33,255,292,129,119,-104,259,-107,95,-33,86,-613,68,191,151,279,112,-232,383
,-188,78,-67,72,-35,100,139,-448,-117,186,-649,-239,-334,-45,145,-15,115,-86,34,71,-247,-100,-62,-539,-176,-16,19,87,-620,-143,6,137,-102,89,-101,37,6,77,-81,94,-69,-100,85,-398,3,-137,135,186,-30,104,148,148,96,-116,-30,-99,82,67,-75,94,40,-385,482,-58,-60,183,-507,-95,104,137,-458,-11,80,-60,-44,-142,130,-192,-472,-116,-126,-91,46,-120,-81,-104,110,-43,-263,-55,-184,126,122,291,-124,-298,414,101,-425,122,-73,-87,52,-11,58,130,-97,93,-41,126,39,-619,144,127,-123,69,-127,344,79,-73,81,335,41,272,-7,352,61,-308,-157,-270,-450,-39,-381,62,35,165,-228,28,3,-137,-477,-110,507,-118,-295,321,77,108,52,-54,-69,180,112,-246,77,63,204,30,-57,-367,105,11,-26,-182,194,6,-4,-208,-39,-136,98,-89,-74,-57,139,70,-96,124,-107,52,309,116,120,-20,102,-35,52,78,42,22,66,258,-92,-230,62,77,108,-70,92,-424,51,-39,-322,25,-690,20,-193,205,526,3,90,-44,-119,-354,148,-242,-143,-158,-33,159,248,-112,124,179,131,-129,-23,11,-77,174,94,29,-188,114,-288,0,45,20,-342,-131,-258,-111,-51,-272,18,114,108,-24,724,69,-199,145,-230,32,10,-145
};

long bias_0_sda2[1*256] = {
-2,2,3,-34,-31,-4,-45,77,-57,-39,37,-37,-56,-10,-82,-48,-5,-20,-14,3,-17,25,7,25,-21,31,-15,4,-86,9,0,-3,-42,3,-18,5,-53,-27,2,39,-17,29,-30,10,-13,0,43,-1,2,-14,-54,-14,25,-5,-45,-5,1,-3,-13,17,0,13,-8,-57,-41,-13,-28,-38,-4,-3,25,-13,17,-57,-16,35,-2,45,17,0,-37,-49,9,27,-26,-8,0,-21,-24,-51,0,-2,1,80,-24,81,6,68,-38,-23,-26,-40,-25,0,-50,-134,44,13,-12,1,-23,76,-33,8,-45,-38,-51,-56,3,-23,-43,11,-30,-18,-10,-24,7,31,-20,-86,-11,-6,-8,-8,26,-110,74,-35,-41,45,44,-27,48,-29,40,-76,18,-26,8,-5,-70,19,-1,-23,-65,-12,39,-23,-19,9,-13,26,-17,-57,-31,51,-21,5,8,34,37,-3,-43,-16,30,-10,-17,26,-2,-5,21,-3,-32,-3,17,-53,-28,12,16,55,-3,16,-46,104,-15,-50,18,-68,7,103,-20,24,-49,0,10,-1,22,-46,8,4,17,-8,-38,2,22,9,-49,-59,-22,0,-78,0,12,24,-3,-17,22,-21,-15,11,-8,-28,63,-3,-13,-22,-2,-24,41,-18,73,-1,-35,97,8,0,-1,-4,34,-42,-23,-28,-7,-2,-6,90
};

long bias_1_sda2[1*2] = {
5560,6564
};

#endif
