
/* Trace */

/**
 *  updated on 05/12/2023 18:12:57
 */

#ifndef __W_SDC_H
#define __W_SDC_H

char name_sdc[] = "Trace/sdc";

long weight_0_T_sdc[256*31] = {
61,14,-195,65,112,-177,80,134,-105,10,-131,34,7,-117,167,63,-45,-146,-81,20,45,-90,-23,-75,136,-84,-99,-73,37,94,26
,66,83,-95,-140,-141,53,-7,-27,139,-87,-107,-137,100,23,-79,73,-29,54,127,84,107,-71,46,53,-60,-57,54,-8,97,-73,-55
,-69,101,-79,109,9,-111,-139,55,67,-89,-141,-65,-78,-41,-92,56,-20,3,-68,-6,25,151,43,-31,-22,-10,5,129,31,115,138
,54,132,-48,-65,-38,32,-77,-49,89,67,50,-2,-17,123,130,-69,-83,-56,-190,-122,-36,137,-49,37,129,3,-18,-163,86,69,-104
,-28,-97,23,90,67,19,95,-146,-100,-23,25,-64,95,105,-136,-35,88,52,-100,-98,71,126,79,42,14,-25,-15,118,50,-58,-22
,117,57,25,16,28,77,33,26,104,-56,36,18,130,18,-71,88,-11,-72,-14,21,45,-112,31,-89,-26,-94,77,-111,-98,-30,19
,-110,90,-6,-86,-67,26,-105,123,-55,-5,120,17,-24,-116,92,-58,54,-107,-51,-50,-67,-114,-115,127,-118,-113,1,11,-41,-104,90
,-46,-128,122,86,132,125,90,-30,-143,-21,10,-7,-60,-12,-83,-88,-71,-122,-61,-8,-88,-98,-125,121,-134,-66,-28,-125,82,91,52
,-81,14,98,66,-128,-130,20,-5,124,105,61,31,65,-97,-76,62,11,76,23,58,5,79,55,-119,8,-21,89,42,-12,95,-64
,107,73,66,108,100,37,101,-90,-10,53,-37,91,-34,141,15,-134,119,4,-65,90,9,104,-124,-63,-77,21,-1,108,-68,12,-60
,11,-8,-42,111,-67,-37,-41,112,72,-79,88,-110,-90,-144,100,98,-2,22,-166,38,89,-16,47,-136,63,-3,116,57,-69,-28,-73
,36,-106,-22,-43,29,113,-14,125,42,5,-102,95,-80,64,-94,135,-55,-27,40,63,-16,20,-60,124,136,-150,15,92,12,88,-136
,32,-97,-21,-85,-51,-6,70,95,39,-76,-4,130,-70,-52,50,-73,119,6,124,123,19,-87,124,129,-31,-50,26,134,139,80,91
,-64,-84,17,99,-67,-67,-96,-3,-135,22,147,-18,34,118,-69,-22,16,59,115,-52,-86,7,-153,-20,18,13,-23,62,129,-131,64
,-91,-41,-50,-1,105,2,115,2,-47,121,-12,-115,-132,67,133,66,-8,-98,27,99,44,55,49,133,-7,61,34,-125,-55,-126,-129
,37,136,-102,-103,-31,-89,-25,67,24,16,94,88,-117,23,5,2,-78,-39,104,95,125,15,118,132,-120,57,-120,85,51,8,13
,-3,14,-73,31,115,95,-105,37,-111,120,51,-64,-76,60,59,58,-141,101,-90,-136,126,-21,-9,-71,36,79,94,-59,-65,29,-35
,-89,-90,34,33,-121,62,47,-115,53,-44,-7,-88,17,109,49,49,-72,11,153,100,-5,-83,166,-126,158,62,-96,127,-63,-118,-14
,-5,-71,63,-108,95,150,-131,-35,51,70,-115,-52,-45,-104,-103,124,21,-48,112,-86,153,12,156,-11,74,32,-24,-51,111,-139,4
,-54,135,77,8,-126,-78,-102,26,49,-19,4,-35,120,121,10,-35,-109,75,46,-99,63,47,118,-45,17,5,109,55,-144,-60,37
,2,-79,22,-81,96,-51,-147,-59,62,-20,-94,60,-8,43,-53,106,-79,-108,-17,-87,-71,-56,52,-33,57,12,127,11,-29,-145,92
,-97,56,90,-120,111,-11,78,-63,-121,49,83,95,115,86,-23,32,143,71,92,-126,135,-28,16,7,115,-9,27,-64,-56,3,-146
,42,75,-34,73,46,136,10,9,53,-110,87,134,69,-89,55,-62,33,-3,131,126,12,-20,136,61,45,31,-64,-135,-53,-58,-61
,21,85,-23,49,89,-114,55,3,56,-43,13,45,-2,16,71,133,25,56,-79,44,-63,88,-28,-7,-127,-56,50,-94,120,94,99
,-67,-131,-23,-67,60,-10,18,-82,43,-89,33,-5,-15,-137,120,4,-70,110,49,118,73,114,-75,129,-67,115,130,-78,100,-29,69
,-107,141,50,-71,50,26,-42,32,-55,74,31,80,18,-31,-24,-79,39,-67,-145,23,-79,-95,81,-131,87,26,-39,85,-81,131,-8
,-83,17,-82,-93,129,66,120,96,50,-38,66,125,61,81,98,90,-133,72,-8,67,-56,4,-67,-124,86,50,-115,-108,48,-16,-98
,78,63,-29,7,-24,59,159,-104,30,-73,-74,-16,58,68,-154,129,-117,-103,-74,122,2,93,-30,-180,-83,14,-43,33,-10,69,5
,85,-115,-116,-33,10,80,-71,-44,152,79,108,59,-37,79,-121,-82,-37,-103,113,-8,41,-104,-23,49,90,-57,-118,-24,46,129,105
,-74,108,-3,-19,-96,-22,-53,-124,-6,49,117,-78,54,-42,-39,-25,80,-45,4,-88,33,-57,-40,71,72,-136,-43,-75,54,-137,79
,121,3,81,49,103,-49,14,144,77,-83,7,120,123,-77,69,-12,45,-62,-86,133,-20,-94,27,-105,-104,-136,107,137,-124,112,6
,106,35,5,89,112,8,41,-99,132,58,25,117,28,-62,-62,-59,79,-55,-29,15,-24,72,82,-20,149,106,100,52,-9,57,146
,-82,-44,-12,-1,-143,131,-57,58,-98,53,141,-23,-134,-75,91,47,24,-61,-58,-19,-88,-113,83,-1,144,-110,-122,76,-126,-102,-110
,-140,-60,-49,-158,92,14,-188,68,144,60,80,61,-200,-11,-47,57,2,-86,-86,-13,69,89,130,30,-41,-69,57,-96,-45,-83,-101
,34,129,-70,-122,-80,-92,-132,56,-78,76,27,-119,-60,-25,26,-73,-104,78,-4,27,-7,-48,-33,-70,50,-32,-14,21,47,72,-47
,129,-22,-6,-65,-7,-113,6,-41,-71,-88,92,25,-117,-126,-74,-101,-21,51,57,47,-136,49,109,42,-35,-19,86,7,125,104,136
,-103,-15,81,0,-143,-114,-83,89,-87,-51,-127,-81,19,-82,4,60,-94,-127,-42,-53,-8,26,-152,13,130,102,99,-110,-153,82,13
,46,-43,-15,-47,-37,21,-101,-8,-118,-157,-22,-33,34,-41,-83,-43,76,-53,81,-71,-99,-46,-17,94,-130,24,113,122,-145,129,-143
,-53,-90,60,-44,120,29,43,70,160,47,-62,82,-42,47,-63,-25,-117,8,-71,-97,-8,-43,-115,32,118,-101,-12,93,119,31,-27
,32,35,-72,95,6,32,-43,-51,51,83,-35,-138,-143,42,-66,69,110,33,20,-31,-28,-6,81,-91,-85,26,137,-11,-40,-6,-93
,-140,-131,-44,-77,23,-9,81,-19,-12,8,-41,-14,-42,-170,51,-62,-118,86,-95,106,51,37,-38,-153,-148,8,-154,21,111,131,-51
,55,27,-70,142,116,-136,-33,-53,-9,-45,-67,113,-129,-52,64,-62,23,97,-63,128,-107,-44,84,-82,81,-46,-179,-80,13,66,45
,60,34,130,-49,-63,147,-85,147,-63,-101,24,-64,-54,14,-47,27,53,16,60,82,-90,4,-13,-98,-67,55,26,128,0,30,117
,13,-16,-70,103,102,-100,44,63,39,-24,43,14,-16,-111,31,-18,-50,-127,-45,-59,95,26,27,164,74,-103,-74,58,-86,94,69
,-122,-142,-72,39,-104,-84,-46,67,47,-105,-31,-60,-68,-5,50,-2,84,101,-110,-85,-57,-84,120,-101,-132,138,-31,73,-56,36,-69
,112,81,73,118,-56,-62,40,-140,-112,-17,129,-94,33,62,56,81,53,136,132,-90,24,69,77,-110,-46,-74,58,-121,-57,-20,9
,-41,-105,-9,32,-55,-140,39,150,-124,-62,104,166,-90,-116,72,-137,-71,110,-128,-7,-67,92,-13,-13,-4,-69,-104,66,154,-41,154
,-37,-29,-84,105,35,-181,19,72,-132,-18,-130,-117,-4,-36,129,85,-84,-81,78,15,18,-79,61,-34,-67,-56,121,-108,102,73,-76
,-140,-17,-10,35,80,-134,62,-146,106,-50,-82,-54,148,-128,-82,-123,-121,68,-20,85,-152,80,92,139,100,131,110,-133,3,-120,-131
,-119,130,130,-107,-126,-64,-87,53,-78,-77,-91,-17,-153,2,-100,-128,50,-48,-53,-137,-137,-42,80,36,-70,-154,109,-37,91,-118,10
,-73,95,-100,38,-79,-118,-38,-141,136,77,31,108,114,-108,-71,8,142,-90,42,117,-115,-9,-31,104,142,-8,-99,97,67,-4,-5
,-93,-49,-8,142,-33,91,114,112,-27,113,96,13,-131,-68,-19,-43,-16,-121,-91,36,76,-109,88,131,-85,-142,-88,99,-70,118,77
,127,47,-73,1,76,59,104,69,-137,22,83,-131,132,-63,31,-139,69,133,-7,-67,-95,131,97,-21,79,107,-69,25,131,-135,111
,110,-70,-155,6,65,-97,11,-97,2,23,31,54,-81,-86,-26,124,126,-12,38,48,-59,-150,35,-25,-77,-44,-136,48,53,93,103
,59,-59,84,58,-81,-11,-122,49,-96,-116,-89,64,22,152,74,-50,137,-68,53,37,-73,64,-11,-11,149,-126,114,122,2,-127,94
,-36,126,91,78,112,62,139,-15,-40,-108,-39,-45,-17,28,6,-45,-134,31,65,-71,-9,63,-9,93,-111,-121,126,95,-76,-7,88
,-34,68,100,100,-45,73,-143,-86,77,-89,101,-87,119,-43,-64,30,-12,73,21,120,36,-20,70,81,67,-117,128,67,-72,-1,-90
,-97,130,132,-60,-54,-122,-149,94,9,-148,-71,97,142,109,-65,-117,107,44,-145,39,-79,-139,-42,-18,-30,43,-129,6,123,36,125
,112,-119,-89,-87,-142,-9,22,37,-151,91,-4,-134,-6,36,-146,65,50,-79,80,-5,117,138,-28,-167,-2,105,-136,-138,98,79,116
,-54,-139,-32,140,103,61,-86,-38,113,141,-104,-21,-29,-85,-67,96,-45,-106,-110,-150,65,131,70,55,105,-137,8,-143,126,96,-20
,-29,108,-95,-79,80,-1,17,-85,61,-35,-111,71,-93,0,-142,-130,-70,-105,93,91,-110,78,127,97,-83,-133,0,-97,-130,99,-94
,-103,71,44,-5,113,52,128,-39,142,42,-132,113,-125,-24,-33,101,-42,-69,-70,14,105,94,6,31,-14,-81,127,-128,4,111,51
,-28,48,-143,-41,80,-111,-55,63,-165,11,80,-136,-7,82,71,112,-75,-42,69,-111,-71,22,20,-11,89,-80,-83,-99,109,58,-37
,72,92,-34,-116,44,149,-44,-107,121,-69,-102,-68,3,-55,-138,-15,122,-16,-109,109,13,30,71,-86,-133,-141,78,-34,95,39,39
,-141,-27,-120,-55,-111,119,-130,-88,-20,11,-43,-54,50,-144,91,-13,-115,-5,-52,-78,-63,-43,-18,91,-87,54,107,-137,-1,-112,30
,-51,5,3,6,-145,36,68,-67,7,-165,6,92,98,-26,-88,103,-145,-138,13,-139,-75,-13,90,-143,50,108,120,-64,-153,-77,34
,-145,133,38,-173,87,22,-218,-49,88,-117,1,123,-206,-138,-27,-3,36,-29,106,-19,-35,-79,96,-149,49,81,36,-1,-146,-140,-6
,12,-23,-19,-87,-161,-43,122,76,-91,21,-10,-68,-121,-120,-5,-58,-47,-33,-106,105,82,-126,119,-90,-10,77,153,-29,43,48,129
,-31,114,-88,-34,108,-114,-16,-128,100,-132,54,-98,138,-81,-77,-95,-89,-84,3,7,25,-2,49,-127,118,-69,-74,-85,-20,-141,-119
,56,145,-144,39,-58,-61,138,-41,8,37,-63,56,117,-8,-105,135,105,-74,109,88,57,-60,66,-15,107,123,-110,-116,60,-135,-122
,87,-27,-127,-120,74,-74,130,163,37,106,139,67,-147,-67,-19,-114,-122,44,3,-53,-15,-110,-55,-6,131,114,-25,104,-122,88,-156
,-131,52,12,-57,-45,102,79,44,115,-47,-21,20,82,-83,-203,-133,76,28,-27,-57,-45,0,87,-138,-89,124,-3,134,-141,132,-155
,88,80,105,3,-34,-126,-49,123,-2,-11,-81,-57,95,-41,81,102,68,-6,-66,-112,106,-23,-43,131,28,17,129,53,-109,-106,137
,84,90,110,-106,85,-118,94,-71,110,93,103,24,123,-80,-141,-53,-100,141,39,132,-73,-134,133,22,136,-128,8,-94,92,-89,-59
,33,-37,76,17,-24,-100,-19,-90,129,96,5,102,48,106,-67,103,-65,120,93,120,129,4,-69,-149,-56,136,71,-73,-52,-71,124
,-126,-48,99,-77,-159,-154,75,85,134,93,-3,55,103,-25,67,110,59,-56,-4,-86,-174,138,-119,67,-228,-122,133,-30,-89,-150,-184
,-92,-55,137,34,31,-93,22,-106,99,104,43,-15,53,-113,-33,-114,96,128,-36,34,31,-61,-25,111,-32,134,-44,98,-77,-30,-131
,-126,-1,133,-204,70,60,-174,-95,65,-90,-42,-6,-173,-62,169,51,64,75,106,-97,80,-58,98,116,-87,-79,24,-192,-123,-22,-154
,52,63,8,16,64,57,130,90,78,-4,89,142,24,-115,-5,-36,-63,-107,-47,-58,-81,-134,-111,-4,-90,81,64,62,140,-63,112
,103,-78,-53,69,-140,-104,-103,-1,24,42,-46,111,-121,115,-10,-113,27,-19,33,-104,54,-98,78,-136,20,-129,-108,-45,-58,-57,-70
,-59,124,60,-15,-20,-7,47,-97,27,74,112,-21,-75,-138,-75,-27,80,98,-33,52,-110,105,-132,-26,138,-37,-39,-5,7,-58,85
,64,105,-31,72,-36,-80,-78,-92,-69,-30,93,137,92,-60,-57,56,13,-17,85,19,48,-77,-100,-135,-128,7,-155,-151,130,-109,-23
,-23,-12,74,122,-32,16,129,-99,33,68,-94,29,65,-105,-114,46,-141,124,44,-65,63,-75,-100,-67,-79,130,103,-114,39,-128,105
,-130,35,81,-29,112,35,-92,-3,-31,-28,-40,-29,56,126,0,-48,-63,-3,37,10,116,41,-7,-23,126,16,-89,134,40,28,-93
,-32,-105,139,-77,-14,-51,19,-92,94,-81,-85,135,-20,127,-25,-26,24,-8,116,34,-98,13,-33,-131,-55,-100,-101,19,-112,-16,-59
,-16,-136,111,28,-128,-99,63,-49,-33,3,24,77,36,138,-27,16,33,-95,59,123,66,66,-36,63,11,72,-30,48,-84,-39,93
,-24,1,-49,97,-13,48,-38,-79,32,51,-13,57,138,99,46,-67,68,13,-92,-102,76,-127,-17,80,109,-74,144,-97,-114,-25,25
,-102,-115,-71,-128,-142,120,39,89,-58,-72,-53,-49,99,-44,12,-39,56,30,-31,-80,113,-142,-22,-127,70,117,-23,-79,23,-135,-101
,55,52,-116,-13,41,16,-131,19,80,92,107,-22,-58,11,139,35,29,-51,141,-84,45,117,-26,27,145,-93,-51,118,-42,55,7
,133,-10,13,63,130,-139,-139,118,-63,100,33,-120,-7,37,60,135,-122,134,71,7,-52,47,35,103,-13,-137,-117,-147,-43,-126,-138
,115,-107,100,-13,112,-138,-5,-9,-67,-68,-28,104,-127,-83,16,-127,-112,21,-57,-60,-89,-25,57,-14,68,-105,89,11,115,-11,-64
,-91,87,-126,-54,-120,132,-142,-148,122,-122,87,-85,38,-146,118,-101,-144,113,-108,96,-1,-133,-11,-84,-29,124,-139,-119,9,-87,49
,-50,-10,53,-60,-38,63,-97,-131,122,97,105,-122,-112,74,47,35,-82,-134,-118,-99,86,-125,-99,87,-63,-21,44,57,-127,-20,123
,54,-13,55,58,6,87,107,79,51,41,28,-77,40,-66,-130,-42,46,106,136,-118,-13,-140,103,-2,55,123,-4,-129,-77,46,-128
,-59,20,144,58,75,7,-30,120,-134,-104,-60,-142,41,77,-51,65,53,58,-9,-133,-119,-75,65,0,-9,-16,124,123,-140,16,-40
,111,-128,134,-80,117,55,-127,104,90,32,-110,-83,-85,43,17,26,-33,-121,55,-127,85,8,-150,-121,11,65,-87,56,2,33,89
,97,13,-14,-71,-110,143,40,-89,-59,-35,-45,-38,22,-109,-70,104,141,107,-84,-126,142,-113,-96,71,-71,135,14,-164,-117,136,-120
,112,135,101,47,-81,-45,88,-142,104,33,-69,47,-139,147,44,-29,-56,60,-16,99,-55,-96,114,71,78,-34,-105,145,-107,-16,-25
,20,16,-24,-111,-84,119,-65,-79,-12,-77,-87,15,-76,-41,129,39,-144,3,-105,-66,42,-83,-18,-101,39,-109,98,-26,79,90,84
,-12,-94,-36,62,-70,-73,-98,-139,-57,24,-32,-35,112,65,66,-55,53,156,1,138,-42,48,26,62,13,77,-42,94,-145,-46,-88
,48,67,-79,14,86,68,34,103,-72,61,-82,22,-26,-52,139,-90,86,129,-89,-142,-69,-75,128,85,73,-80,-35,19,-64,-50,42
,85,61,62,43,-45,25,-84,-45,-82,65,26,13,32,91,-29,-147,104,81,-61,57,-58,-16,12,-4,-60,-101,-52,-77,113,-92,-10
,141,-54,-150,26,72,115,37,65,104,-57,-104,7,-91,35,-38,150,-90,-109,142,8,80,-118,66,-81,3,-57,79,82,-109,57,-123
,-12,-18,-66,73,-49,-5,-134,66,-108,41,-145,107,-90,-23,143,-100,145,-33,30,23,101,-158,-107,-73,95,150,59,49,54,-132,-59
,-163,78,-116,12,-78,41,-85,89,-116,-128,79,-27,-26,-130,-33,-96,122,-150,86,14,-45,109,-134,25,88,87,87,-60,-75,10,-77
,-92,-71,-58,76,67,-48,78,26,119,113,-20,72,-18,21,-116,-24,17,-150,54,-151,98,-197,31,-90,27,130,-165,129,-101,100,-133
,123,-8,64,112,-7,-102,60,-99,10,-30,24,-35,92,-142,147,41,-24,19,-130,-16,-11,-103,-1,109,-4,-128,38,-20,90,46,-42
,113,17,-67,48,-14,12,38,27,120,-74,67,-39,-96,5,111,127,28,-22,-112,-100,139,125,-10,19,90,-74,23,-33,73,-4,-50
,-107,-87,79,-16,-4,-87,-69,-67,62,9,-124,42,142,-61,71,52,-25,135,-127,-3,-63,-14,108,-41,-15,-17,-1,47,60,-89,135
,-34,156,-43,137,-111,78,105,-92,5,128,25,-86,10,-233,73,122,-61,-28,54,-72,-64,-154,-173,-83,-149,26,53,116,-85,63,-88
,106,-91,-155,51,-47,-27,-56,-106,-5,-51,-126,100,105,41,-117,111,18,-127,57,-65,-1,119,-112,38,-81,-136,-74,-48,-125,-125,-33
,22,-130,-8,116,-289,112,35,71,40,104,-237,3,27,-236,-35,-98,-97,-32,95,119,-42,-23,-95,-51,90,33,-107,-3,105,-3,3
,9,-54,-108,-74,65,-87,95,150,-101,-23,-80,127,61,-51,106,122,-99,-96,-57,-17,91,70,123,105,-122,-45,-28,-3,70,-34,-49
,12,115,50,99,-37,-59,-141,-76,26,-88,-110,43,-35,3,-53,-30,-61,-7,125,-87,-75,-108,-132,137,12,-134,-31,-79,84,18,-35
,29,-61,113,-49,120,-31,-45,96,49,-149,-27,76,-33,-77,67,-54,-113,-37,-79,-114,-14,79,-100,39,-62,-58,59,11,65,129,-92
,53,116,-107,43,-42,122,83,-131,-97,-3,-100,0,-85,-92,-101,44,23,-41,-54,45,-1,26,-78,97,-58,-84,55,-102,-133,112,-55
,-57,-44,121,84,-37,48,77,107,110,63,127,63,112,83,135,-67,-55,-22,96,26,-33,-54,136,-28,-108,72,0,-98,90,33,-4
,77,-36,-110,-8,24,115,-183,-18,76,-173,-43,137,17,-15,25,129,56,-3,-136,-101,4,0,2,15,14,-40,123,-189,-157,-19,-112
,-43,-71,49,-1,-112,-8,129,-94,0,16,75,-30,135,139,-101,93,-85,151,79,151,106,-24,-101,-130,-45,-6,-119,-13,56,-133,-95
,14,-125,-121,37,-87,-46,8,71,-11,40,127,-137,-44,121,-35,106,79,-52,36,105,-50,112,100,113,87,-1,126,73,-33,-74,-96
,-115,117,25,-41,-152,-40,-130,134,-52,52,-60,53,-87,103,9,-115,26,107,-88,-78,-54,-133,111,-78,125,131,-156,48,23,-150,4
,143,-153,81,116,-33,32,85,111,-136,-26,-118,64,-77,39,-56,98,96,-112,0,75,151,-99,-113,87,-122,-111,-150,117,-143,-118,-55
,-112,56,-132,143,82,26,19,-131,78,-45,38,108,-1,-8,21,-75,68,30,-31,24,-107,127,102,22,-52,-110,-96,129,-51,38,-97
,-94,129,-54,-97,-111,-27,84,22,-6,-32,120,96,64,-107,-141,-27,60,133,101,-61,-102,-73,-51,97,-22,62,-93,13,87,68,140
,-28,-133,135,79,-106,148,140,-50,86,137,21,67,12,-88,110,65,10,90,-8,-43,-37,16,-80,18,127,110,56,82,-67,-104,5
,100,89,-57,-117,3,49,-64,19,-127,9,18,85,27,37,136,-72,-64,-53,79,96,114,71,82,134,-76,77,64,77,-82,78,142
,-109,-24,-42,45,-3,-45,-53,93,51,-34,-109,146,-169,-25,99,-119,64,-190,-94,14,44,106,23,134,117,-9,-102,87,-110,-6,-13
,134,-104,-108,-106,-86,-6,-78,-135,-33,51,-73,-29,21,70,-51,140,-37,-109,78,-131,62,102,-100,-23,-44,68,-74,-130,-124,-48,70
,59,109,-79,87,-38,11,-22,-61,121,-30,108,37,137,119,-96,-53,-21,-11,115,-100,85,55,28,-141,136,81,90,62,-141,-56,21
,-51,-84,125,-121,78,18,100,58,-82,-65,109,-43,93,31,-73,-145,-86,-136,131,31,17,-125,46,103,70,-97,-77,-54,103,-135,138
,-113,17,159,36,77,103,90,-132,79,86,121,-48,77,-130,-22,-122,-63,129,-90,-142,-36,38,-16,-70,-122,-119,94,109,80,-70,62
,-53,11,142,-141,-64,123,-77,-36,29,-20,-107,-126,-4,-123,87,-57,67,-108,-39,-37,115,-92,5,-17,-23,-92,33,61,-87,-45,-60
,-52,-152,-137,-78,133,-69,77,-20,-95,-7,-85,-103,-1,6,117,90,-146,-177,-108,-23,58,40,-8,92,26,93,1,57,116,-87,-85
,-3,-48,33,70,91,-109,50,-44,-85,-78,15,9,-62,-144,-97,79,97,79,-108,118,114,-88,27,-45,-57,103,-43,-93,92,-11,138
,140,-49,-11,-126,103,43,68,16,-83,12,113,-61,-19,74,90,35,-108,71,-123,-90,-106,137,-52,-149,108,-75,-56,4,121,96,137
,26,78,-123,68,-125,-13,106,-129,121,-53,-23,-75,-40,-103,-39,94,45,93,-92,-83,-26,-47,26,-122,-18,-62,78,-140,-93,-107,142
,81,-69,-118,103,-142,140,-27,88,-17,-7,113,50,-110,-57,0,-59,-55,4,-45,-25,-21,116,-44,149,-119,14,147,72,-29,-78,-36
,-20,87,18,85,111,147,140,-56,53,-91,-22,-99,74,-106,145,69,122,33,38,28,69,-49,-90,-124,95,111,36,124,-98,-30,-137
,19,-74,40,-50,-100,-119,109,-112,-8,-85,85,48,-106,121,4,33,3,67,8,119,-88,92,113,-87,47,-103,141,31,67,-60,-79
,-106,27,-113,123,-111,59,-22,50,125,-24,99,-64,111,-127,-137,39,-81,-13,-80,-80,80,95,84,84,-82,6,-106,-101,18,125,-62
,20,28,105,-11,135,-127,-109,118,141,-59,-80,-13,94,54,-63,8,38,42,-119,35,-103,-132,31,65,5,138,-62,-102,83,130,8
,-82,-119,-99,1,-82,45,-72,146,-29,-13,-6,-140,143,-163,83,0,30,1,-21,-79,0,82,118,70,-130,-22,38,-6,130,-109,124
,-3,60,-19,63,24,-45,-53,111,-43,45,-73,-71,-12,-134,-113,63,-59,97,48,-31,87,-88,15,108,-23,-28,100,-70,-49,124,72
,35,-55,-72,-54,-138,-105,-18,66,-161,-94,93,67,-142,6,-128,-133,-101,123,57,32,-29,56,-147,-148,89,22,79,50,111,122,-147
,71,85,78,-52,-4,-95,-55,71,110,25,-121,-82,53,-29,9,9,-121,-88,-143,-121,-10,119,3,-101,-67,-26,-126,-44,-68,97,35
,60,-148,18,-124,107,-30,52,1,-139,88,163,169,-4,-4,-128,-105,-78,-126,89,111,-90,-118,-61,81,84,140,-67,-20,100,50,-76
,-66,123,-76,-101,69,-65,-12,15,135,1,78,-74,-72,-109,115,77,-2,122,132,-66,-25,1,49,-27,125,-11,136,-63,-2,-17,46
,-50,139,-93,93,-38,5,-20,-76,-66,-81,-37,50,123,48,-81,134,-31,110,-106,105,-138,-142,-107,-33,-108,-126,-94,-53,99,-147,-36
,80,100,-66,71,-101,-35,-17,99,41,-92,-75,-46,139,38,-25,-18,76,-47,-20,-2,-28,124,56,106,-10,-101,-69,82,96,-15,-36
,-90,54,18,40,-44,-116,98,30,-50,-54,110,52,51,15,119,-22,-125,96,45,132,-53,-6,-138,-6,111,-92,32,123,95,46,88
,48,113,-90,-15,-28,-150,-43,-9,9,-77,-45,119,93,-67,84,43,122,14,24,-118,55,33,-106,-10,6,-58,38,2,-89,-113,-49
,-78,43,-146,125,31,-43,19,-3,33,130,-145,-64,0,126,-108,-23,-113,18,-66,81,-103,64,-25,-72,-92,8,-35,-68,-1,79,-117
,-14,-36,-127,-20,-30,41,-143,-35,-88,-109,-72,-64,-41,-92,134,-119,104,2,98,-14,124,-123,-50,91,-82,103,52,-137,-114,42,-9
,49,120,92,2,-119,-128,136,-48,118,15,109,106,-5,5,137,-9,-58,47,58,74,-43,-129,-90,-121,-42,-2,-113,112,-41,113,-33
,99,121,75,-26,41,118,103,18,67,-36,31,94,12,112,100,-105,-126,50,-43,-128,53,122,-68,38,-136,64,-141,72,99,-14,29
,-57,-138,-53,38,132,3,62,-57,62,94,-26,79,-78,76,-24,89,-1,-47,19,-23,-31,-108,123,-64,34,56,-4,-3,74,-79,-17
,-118,105,111,-23,-21,-52,77,-118,19,130,-110,-139,-55,-124,36,-106,53,-114,-38,-121,-63,-66,-37,69,-131,-127,50,-74,60,134,-46
,-77,29,89,-148,47,-131,-49,-58,125,116,-53,-93,-35,-113,77,16,-148,20,-44,54,-83,-39,26,-79,57,-60,35,75,-65,69,-28
,85,135,-11,29,-102,-55,22,-104,17,-3,-81,-124,6,79,47,59,-103,92,81,41,109,-20,-149,133,-59,-119,-117,4,69,-116,135
,-64,40,31,128,-71,-69,-20,-62,-32,17,57,-118,9,72,25,30,-94,-97,-18,24,114,-72,-107,86,18,26,18,-77,102,96,134
,134,111,25,37,36,-101,13,-131,119,-78,-90,-9,54,-41,149,-75,-110,-62,25,-5,-105,55,-132,137,63,97,51,110,-52,108,112
,-167,-2,42,-113,10,96,123,-89,133,-131,63,77,74,-67,125,-149,-141,-14,-11,-128,-119,-47,32,-2,-67,20,-65,43,79,70,88
,-41,2,-20,-73,-130,-11,-143,-24,90,-73,-45,32,27,-49,66,-90,39,-87,19,-64,93,109,-108,-112,77,-63,-68,-50,44,29,-6
,34,-17,85,91,-20,-148,132,-122,67,-135,48,96,97,-59,67,-44,114,27,93,-121,52,-114,14,-121,-127,39,-106,38,-33,145,152
,-39,55,-55,84,-29,-16,145,-21,-81,136,13,-26,33,-113,40,-29,2,73,-133,-36,-119,-5,99,21,-17,28,-13,111,33,68,27
,-76,78,105,28,-1,-109,18,3,15,106,75,-1,71,133,-32,117,-129,139,56,61,134,-130,-39,98,-43,94,65,-92,-74,4,-135
,104,28,-112,86,126,14,-23,112,-105,124,127,71,106,-28,-92,-79,-19,-125,43,-76,95,-89,53,-102,132,-112,-17,33,-27,130,56
,-65,-17,-47,-52,-126,112,81,-12,-67,-21,105,-83,-115,-138,8,-134,-106,134,-106,-94,16,-48,-99,-78,18,-58,8,-121,-131,6,-88
,-39,-104,13,98,4,120,-124,-66,-96,-89,142,77,12,-63,133,-89,26,-116,-27,-30,6,-31,45,16,135,142,-89,64,66,17,144
,151,-40,138,-52,117,-48,64,-83,-135,-2,91,-98,-3,110,51,11,-17,-109,-31,8,105,62,144,-56,3,-14,-100,-28,105,14,-2
,103,67,37,52,-64,-146,54,122,-102,24,146,132,-4,136,-95,-67,86,-102,52,11,-105,-22,-34,75,104,110,-41,-114,34,-33,47
,-39,121,-48,107,35,-16,-142,-82,127,69,4,-80,-40,-46,37,-23,-74,139,-128,-62,103,25,-93,55,-6,135,118,-45,-20,-77,-11
,35,51,78,-19,-1,-30,-22,97,-21,-61,-86,25,-18,133,-147,-134,-78,-33,-7,49,59,-152,-40,20,126,11,-113,-85,84,-116,-39
,-41,-56,-124,-129,90,61,-88,54,-112,69,-125,-54,12,-111,-96,-8,-57,93,127,80,7,-53,67,-17,-106,104,-71,11,-26,-90,118
,95,62,-52,-109,104,-68,-55,-144,-60,-55,88,102,-150,71,-50,-64,-10,-158,-51,84,-45,79,60,83,89,32,-134,-26,-2,-54,129
,-54,-99,-30,12,37,-33,3,129,73,-131,98,140,76,115,102,-16,74,-63,-12,88,6,-57,26,-17,72,-84,-30,-6,-34,-67,117
,49,-25,-73,115,41,-64,8,65,-96,45,-62,25,4,-103,180,-25,6,125,-108,34,-96,83,3,-34,-2,-54,-85,46,-105,-155,17
,74,-95,-107,149,-55,22,145,71,-97,41,-71,-93,-27,-80,100,73,-129,35,18,54,-105,135,-11,-22,-128,-88,3,35,-53,-9,-126
,-72,108,-25,120,-236,-182,-37,154,-249,-26,24,-95,-142,66,-65,12,-6,33,-42,89,89,-128,-46,124,-179,-71,-10,-97,91,47,133
,-147,-48,-101,48,4,97,124,97,-29,86,100,-107,-124,-79,22,127,128,-10,-14,-137,138,134,-71,-64,-98,108,124,-118,120,-30,-44
,34,109,20,111,-111,-116,64,-76,38,-83,-30,-39,98,-127,-57,151,-47,-132,6,-112,-151,-22,31,116,31,64,-98,-16,46,-39,68
,-91,-181,84,-49,7,-70,109,-30,68,13,-56,82,-16,-202,26,17,13,-4,-109,-39,-29,106,129,42,-132,150,-114,35,-16,72,-39
,5,22,-60,-8,141,19,76,102,32,121,-43,113,-119,108,-246,-155,-121,101,47,-130,56,-142,28,-108,104,-78,-5,-133,121,-3,32
,-82,34,-32,89,123,-84,-35,-133,127,-2,-65,85,-152,32,-52,-102,113,-66,95,94,-84,-116,37,121,99,99,-51,37,-109,-117,-31
,-110,-51,60,58,-30,-52,25,-127,113,-124,132,-38,37,134,66,75,-101,-38,-68,-15,-62,30,-81,93,-94,-149,-11,-112,-50,84,-22
,15,-118,-37,-60,-87,-153,-14,-71,58,37,34,-142,-127,-82,61,-111,29,119,38,-50,-125,26,-157,107,-124,90,107,51,71,27,33
,-126,135,-78,-118,121,-79,-57,-60,124,57,-81,-111,-107,-136,20,117,-73,5,-119,-78,-81,-139,16,-31,-100,-52,118,-11,73,95,84
,86,-68,30,104,-37,100,-30,34,43,-150,-57,-135,-108,-28,-103,63,61,-22,38,-4,-107,-25,-53,37,-60,-62,-62,101,-58,-10,-137
,52,85,111,5,-43,42,-44,7,117,-131,12,-30,39,5,-101,102,1,139,132,-28,-47,-8,-109,-52,-13,90,-7,-76,136,-68,10
,106,-144,117,30,88,-117,48,-134,127,-104,41,-105,116,-20,-22,-142,11,-136,-103,-25,98,44,128,96,38,58,42,82,87,-88,-82
,-26,32,-102,-122,30,-133,-18,-112,-97,97,-75,58,-16,-21,-76,90,2,123,114,147,19,-100,127,-25,19,42,-3,100,-124,-113,-107
,-45,94,98,81,-2,70,-30,-27,8,-94,-131,-90,25,-85,174,-138,77,32,44,67,-5,-127,-140,127,56,-110,-94,8,-5,106,-90
,94,78,-139,-26,-91,-53,-62,52,53,-124,-10,-73,36,-1,-3,-116,-83,-29,-64,128,-86,-124,-105,62,-29,-30,-54,133,-124,116,-26
,-53,139,-113,47,71,-45,121,-63,-83,-56,-111,107,17,-110,-48,-155,-153,29,-20,92,47,-143,84,36,-35,-110,64,35,38,0,66
,-139,110,-123,109,-159,-111,-27,-135,33,-118,-90,-99,15,-112,19,-44,145,-45,51,71,-56,35,-52,18,-112,-155,43,-73,131,66,128
,-78,-114,77,129,-21,123,63,82,-29,-86,-53,27,90,-6,89,67,-81,-123,3,-45,99,103,-23,-65,-40,-71,-4,94,-19,-57,105
,-58,-41,-39,40,-37,37,16,67,68,57,86,-119,-1,-92,60,74,11,6,73,35,8,3,59,103,26,-102,51,-53,139,-87,-53
,69,115,-56,-104,-116,56,113,89,109,100,-5,39,-93,26,-120,20,11,147,28,114,-17,85,-52,-136,148,37,83,-78,96,-41,-78
,-97,-130,-116,10,22,39,37,87,105,-102,-106,112,-141,-140,30,-111,-4,-115,-118,93,74,-130,129,17,87,27,-63,108,48,28,33
,-178,16,-181,-96,-92,-58,-65,-161,-7,38,-24,83,15,-104,-210,130,-117,21,110,-112,91,114,-30,-136,15,51,102,100,34,-46,96
,-122,39,7,-85,35,69,-118,-141,-109,12,-96,-35,-126,-128,19,39,30,-78,-104,34,-138,-120,-126,-22,-35,68,-2,-45,-130,-15,-26
,11,-39,38,35,-47,-53,68,68,-86,-97,20,-46,-102,130,11,-56,-90,-56,105,-125,29,-117,-48,-75,99,108,26,-141,-121,-77,-105
,152,124,108,-105,62,-30,-115,-82,-88,94,56,-64,-140,48,-51,103,-32,105,127,-8,21,-7,2,-57,-110,-214,37,89,-151,73,-115
,142,-42,-35,-12,44,-9,130,101,-41,-16,67,-57,125,10,113,148,-31,-112,-78,-91,-49,174,-92,-61,63,-26,70,-69,-86,77,-97
,-118,-71,-24,-36,-75,11,13,54,76,-15,-123,-2,-117,37,21,-59,105,-35,121,58,18,83,-24,53,114,66,-17,83,97,-121,-35
,-97,33,-100,-51,-94,-75,71,-25,-132,-107,131,-64,-112,-144,0,2,61,-20,82,59,-12,-69,-86,-73,108,-110,-116,56,-34,41,-18
,-57,-101,-60,-53,22,94,12,-105,91,-39,-57,73,-139,120,1,-122,17,-131,76,38,112,-106,-16,62,-39,-152,43,66,-61,8,-34
,-64,20,72,-80,-8,-134,47,66,-17,-71,-94,116,95,-143,-45,-53,-25,133,-13,27,107,-136,50,27,-13,-124,-56,128,70,-105,133
,-36,-44,133,-11,-98,91,99,134,-17,145,3,106,84,-53,-78,32,-107,135,105,82,106,122,-102,-123,6,-29,-127,-24,-127,-89,-10
,2,30,-138,129,-132,37,131,-106,48,136,12,-87,95,120,90,72,58,48,0,11,-115,-85,-98,97,-118,32,105,8,-15,-136,75
,18,73,-6,-108,-5,42,-38,145,-66,143,-93,99,-116,-58,2,-101,-21,-115,100,94,-88,140,67,-100,49,52,-143,-125,121,72,107
,-15,4,63,99,-128,-63,19,-60,101,-55,97,-114,127,77,85,136,-71,-36,-20,-90,-20,69,-95,17,-48,31,79,87,-130,45,-1
,28,-58,-63,56,-40,-2,-63,-139,-74,120,78,39,107,75,97,-119,68,-94,94,-110,125,-128,10,2,146,98,104,10,-84,16,-25
,141,-134,-88,-120,84,-105,3,-82,0,-66,5,50,-193,152,121,-46,84,-108,-71,-11,-92,87,-131,136,-89,-75,-13,-7,-98,135,51
,-101,155,40,15,-103,52,127,-51,-158,67,-84,109,-108,-145,56,-67,78,-17,-137,111,-108,143,-58,-46,63,-127,-6,-24,74,44,53
,67,-21,-148,98,79,-127,-58,59,-168,60,-156,188,108,63,42,9,53,-80,-108,-86,30,16,-14,-66,101,14,-3,-148,86,-141,45
,30,-105,-59,-104,44,-74,72,70,172,-24,-26,31,31,119,-32,51,-34,11,-155,87,-33,-82,-76,-58,140,15,82,-15,-112,-129,6
,-53,115,-61,71,-65,-22,-17,81,5,101,-32,0,-112,50,-22,79,113,-17,103,40,-61,-80,-105,-3,48,103,-110,-172,-18,-178,65
,-18,13,-139,-54,-7,63,-33,-6,97,-112,87,-99,-142,110,-134,-70,-9,-112,28,-135,-90,49,-103,-93,-108,-41,96,-108,-53,-101,66
,81,-123,-114,107,93,-63,122,98,115,-75,-10,-11,71,-56,-101,-36,143,124,-6,141,66,111,-16,12,47,-88,3,117,36,4,110
,14,62,-102,-4,-117,-35,-104,41,68,-2,130,-136,-37,-38,29,-132,71,33,56,-106,-67,5,-68,-9,-110,-13,-3,-27,-107,-42,94
,79,-1,56,92,-90,3,-23,61,-74,27,-104,128,135,44,-25,19,24,67,57,121,102,98,-15,-125,116,-10,37,20,89,-12,-139
,-78,-68,-91,-131,144,86,-19,17,-26,120,-39,-121,37,-6,-7,-132,35,-142,76,-30,-137,-22,-96,-25,66,142,138,63,56,64,-114
,137,21,92,-35,-152,28,-113,21,-2,18,24,44,-14,61,-38,-3,77,-55,-89,-6,-50,-15,-35,67,-51,37,23,-102,144,8,93
,-65,-58,-121,-60,125,-115,-41,-144,54,-41,-60,105,-135,50,-142,67,-103,-47,81,-38,-3,52,-141,-39,-89,96,54,5,-46,121,-35
,1,6,61,49,114,37,5,-106,-111,-101,28,120,80,-92,-22,-120,-11,50,-46,-98,10,-76,143,133,41,70,-85,85,78,-82,128
,-87,123,-33,117,-30,-106,-82,-33,-150,-67,10,-150,-88,-114,25,78,33,73,131,-54,-27,50,62,132,-128,110,-52,109,-118,48,86
,107,47,135,73,-23,74,62,-102,84,105,130,106,65,-120,-11,32,135,102,-31,135,0,-133,-133,115,-109,77,-87,-56,-22,-3,-27
,100,40,46,9,115,42,-130,-36,128,109,-97,-9,129,-118,43,47,-21,8,18,128,-63,-71,21,-67,56,145,55,97,-1,143,15
,87,127,107,71,-140,-17,-105,-103,86,-75,-96,-141,-78,1,-37,4,124,132,35,99,-41,-42,-3,43,17,-20,-80,-58,71,-3,110
,148,-75,0,156,23,-65,-98,-38,28,60,58,-48,91,-63,92,155,-94,102,1,-67,115,-79,45,114,-17,84,-81,-46,-131,-76,-123
,45,-10,-125,-98,-2,-110,70,-81,17,-53,-121,27,90,58,2,-85,52,9,88,48,-3,-39,131,106,-68,-86,-100,124,60,-126,-77
,-136,40,-10,-69,2,-94,-34,-30,52,-74,-51,-10,-37,2,98,16,38,82,-138,116,-106,96,122,116,-54,-50,68,5,14,11,-144
,142,-136,-3,113,122,-24,-50,-31,-10,-126,112,118,123,-51,137,-75,96,83,-71,35,1,36,-110,112,105,14,-30,125,-43,-71,103
,-35,66,-111,-115,119,-25,-116,79,-6,-123,-15,121,-55,-82,116,100,110,-30,73,23,45,-142,105,-104,64,-46,67,136,-122,-12,129
,-70,22,60,-68,-47,6,77,127,76,-81,96,136,90,117,137,46,-61,15,-53,-57,-54,-45,96,131,45,60,-25,46,114,59,-113
,-84,37,-98,46,-29,-85,127,127,80,-121,128,-23,86,-102,-68,-80,-143,11,25,128,112,29,-70,-133,-18,-53,51,-154,-126,-92,-76
,-5,118,-105,105,-24,123,-21,-96,51,129,-9,-69,54,85,77,90,81,87,-70,-39,-54,80,113,-45,103,-111,1,-70,63,-19,67
,-32,-126,44,74,26,-7,-88,90,30,25,145,130,-77,-77,77,93,-50,122,-69,56,65,45,3,46,23,-115,-126,-17,51,-19,139
,-55,-111,68,-143,-126,-94,85,63,46,-95,-97,23,-128,-6,11,-123,83,-129,30,-70,140,-139,-41,-79,7,-3,-103,-9,-77,-79,-142
,151,-21,21,-51,-92,18,-68,-162,11,-74,64,-110,-87,113,91,2,-97,19,-147,-49,121,-41,-100,142,14,116,-53,-27,-91,131,91
,-132,30,105,143,22,111,2,-72,33,-36,122,-114,84,-83,-58,-119,104,-142,106,-16,-86,142,3,16,-132,-86,-51,-108,-163,73,102
,-30,32,22,82,-69,28,86,72,20,63,48,-104,-28,125,89,14,-93,29,113,144,-142,87,-29,67,-47,105,70,15,-138,10,91
,-97,31,-132,32,-103,-25,107,129,-58,-61,-89,-44,23,33,59,-99,-72,-87,86,-49,-134,-91,-112,-84,1,14,-85,-48,-47,-33,144
,5,62,145,8,-110,102,26,112,-108,64,122,125,89,-147,-126,36,70,-34,124,-128,-63,74,24,-34,119,35,-140,-77,-117,7,-44
,-142,-87,-100,-5,-67,58,52,90,-31,-105,134,-34,28,-108,-113,-8,35,-89,16,55,-33,-83,-125,8,127,130,63,-41,93,46,121
,-45,104,75,82,-6,-112,55,-26,46,74,5,27,142,-13,-107,-145,147,-82,-140,-60,-133,79,-107,25,-181,-167,19,16,25,-139,89
,89,-41,17,-48,-20,-42,-109,73,-127,-40,62,-118,58,-38,-34,137,-91,-129,-37,-146,117,-105,93,32,-41,113,-97,16,-17,-76,-122
,-55,-140,83,49,38,-37,-103,134,-161,-58,-83,-92,26,166,51,-95,22,90,89,46,-58,-64,-178,29,-162,42,70,-18,15,54,44
,72,-96,-38,-2,44,-68,57,42,-15,8,100,66,-100,-56,-31,57,-82,-13,136,21,32,-55,70,-91,-143,81,-121,-17,-44,-108,-85
,78,7,-57,-30,59,65,-119,-130,-88,-35,85,-105,-113,89,-84,22,-56,-33,-53,52,34,102,-128,-27,15,144,-15,68,141,-86,37
,132,134,-88,54,-61,-79,-18,-60,42,-71,31,-35,118,10,-40,11,60,97,142,-103,110,27,60,144,-61,-137,73,12,134,-5,97
,133,34,162,93,-82,30,-139,-161,156,50,108,-89,20,-100,-142,48,29,-97,130,-79,108,-41,-13,-111,-47,124,-134,-64,131,2,-47
,81,-158,19,-11,35,-109,62,-14,118,7,17,-40,133,-21,120,72,-139,49,-100,-92,8,-19,-32,59,-140,102,-85,19,69,32,-17
,45,-97,-3,-41,-21,-86,-26,-100,41,-123,8,-58,58,-16,-13,38,-136,-43,96,10,-139,-146,-40,116,57,132,73,61,113,41,81
,142,-84,-100,49,149,22,-47,-7,34,93,-65,-30,-3,-72,-88,-67,-72,-95,106,-20,3,102,-13,127,-10,-98,-133,129,104,-14,44
};

long weight_1_T_sdc[2*256] = {
-60,47,51,200,-113,135,6,-47,150,-127,-10,-72,32,-145,0,-66,-117,88,120,-41,-110,14,5,100,129,98,-122,235,-144,-4,47,146,-79,-99,-24,-3,-107,-17,-97,-135,-73,207,145,-133,17,58,238,-159,-24,37,44,129,45,21,103,-9,-32,157,-56,67,112,137,203,62,-10,-10,-108,-49,104,-121,53,30,-49,-71,-19,19,103,37,-43,-59,-41,138,137,-91,23,-105,122,-38,151,-18,-3,-65,-113,67,-28,-82,53,-116,-58,56,67,-125,127,130,-38,-54,-138,-91,6,19,20,-194,41,50,-60,77,-58,-133,103,-142,-53,113,68,130,63,-79,25,112,148,126,88,63,-241,-25,-39,13,20,96,-1,116,47,-1,-12,-91,-65,-60,-49,11,152,-36,-74,-63,-117,123,134,-110,103,-90,15,52,118,24,-18,31,-21,128,31,-68,-144,17,-41,39,-7,126,-121,-96,-155,-156,-258,-48,238,-73,-125,117,-40,-19,-33,-97,-123,85,-42,28,105,-79,151,-56,-97,98,46,-199,-31,97,-33,159,-15,-18,-12,-90,-5,114,-15,109,-6,-117,-143,-172,176,-50,49,84,57,-62,248,21,56,21,-58,38,-65,149,-8,89,-26,-22,109,10,-33,-123,25,34,170,-64,-84,-97,-3,71,0,31,-75,91,21,108,105,-150,8,86
,13,-145,-28,-230,93,96,74,40,48,-14,-45,-113,-106,24,-100,-31,10,50,76,-69,-25,-107,75,-54,72,11,-106,-150,75,77,33,48,115,-39,144,-90,107,-15,142,112,-163,-93,0,36,-116,115,-247,156,-202,59,-33,-27,-96,92,-44,10,91,-39,-134,-118,86,96,-151,-130,56,129,-54,-116,132,80,-168,-204,98,-20,-7,169,136,183,119,74,24,-73,-56,136,16,87,127,-55,-121,-102,-104,30,-124,105,-8,-25,-222,65,20,-108,53,84,-1,-161,117,40,134,15,-147,-211,78,58,-85,-93,74,90,25,64,7,-56,-210,-125,125,140,-56,136,137,2,-26,-23,-66,3,228,85,-140,-137,-96,74,-148,-107,81,77,-112,144,105,84,86,125,113,-123,105,-74,17,146,-48,24,-80,116,105,42,0,-63,64,67,122,-134,53,137,19,-146,-18,-124,-158,50,-87,75,93,73,237,65,-159,49,172,-30,-22,19,44,-64,60,81,-116,-276,-102,-12,-164,-65,76,53,-100,88,-36,137,-168,57,125,55,144,124,-89,117,-72,10,-79,192,182,160,-92,-158,79,-54,85,55,-164,-4,-91,-140,-107,143,78,23,-131,-84,-170,-112,-61,-50,63,-15,109,-71,-76,155,113,-107,-63,-136,176,16,112,-14,-67,134,-46,-39,11,115
};

long bias_0_sdc[1*256] = {
1,6,5,-1,-8,13,-6,0,7,-8,-9,-1,5,-13,-4,-13,-10,18,9,3,-17,3,-6,6,10,8,-8,16,9,-6,2,7,0,8,0,-1,-11,-14,-9,-8,-12,1,7,8,0,-7,8,-13,6,-14,6,-1,6,-4,24,-2,-6,-5,-15,5,0,13,0,1,0,-20,3,-1,0,-3,3,11,-6,-3,-15,-9,-6,-2,8,0,-10,-8,8,-1,0,-7,1,0,6,-9,-8,-10,-6,-7,-16,-16,23,-3,-13,7,4,-10,5,9,-19,-4,-5,-8,12,14,-22,-5,-2,0,-8,0,-8,-10,5,-9,-1,4,5,1,8,-7,12,0,5,0,3,0,-2,-8,-2,0,11,7,6,-5,-6,-10,5,-11,0,0,-5,-6,9,3,-14,-9,-12,-2,4,-6,0,-13,-5,3,5,-5,-10,-7,-5,7,-3,0,-2,0,-8,1,-2,-3,-13,-2,-1,-9,2,-2,28,-14,3,-5,-8,-16,0,-9,-8,-2,2,15,-5,-16,6,-8,-5,6,-9,-4,0,0,-2,29,-7,0,3,-6,12,-5,2,7,6,-3,-16,8,21,-8,-11,6,0,-7,15,14,0,4,0,-5,-7,9,14,-6,4,3,0,3,-13,-8,-4,0,12,19,-7,0,4,-1,-1,-5,-12,-10,-1,-1,-3,-18,-11,9
};

long bias_1_sdc[1*2] = {
7425,-5012
};

#endif
