
/* Trace */

/**
 *  updated on 07/18/2023 01:04:38
 */

#ifndef __W_NVME0N1_1_H
#define __W_NVME0N1_1_H

char name_nvme0n1_1[] = "Trace/nvme0n1";

long weight_0_T_nvme0n1_1[256*31] = {
160,-39,76,157,-168,16,-65,-49,47,-36,32,51,26,18,20,107,58,-44,-21,-409,39,-127,50,-122,-227,-74,51,-188,200,109,-49
,301,-343,-774,59,170,-253,-59,-1,29,-36,-125,-12,19,-18,142,-64,-90,42,-501,-64,-199,-189,-29,-113,-361,-416,45,-104,-489,250,-40
,233,-233,105,-11,311,-182,-33,142,-133,-14,-127,-13,173,-52,-209,-26,-298,-73,-140,-54,-561,60,-13,-44,-85,283,-89,25,-249,-183,45
,-4,66,-150,111,-85,49,70,-299,-715,-277,-85,-176,-247,201,-107,116,-248,36,188,26,-538,61,116,87,-388,91,82,-134,174,-599,-104
,-277,-61,-201,-131,-217,-200,-322,29,92,-236,-98,89,-175,169,-176,695,286,-142,196,25,199,128,-7,36,-32,-296,-287,180,-308,-33,6
,149,-81,-12,103,-67,-45,78,30,-68,-32,-87,-48,-91,-58,44,-301,-67,72,-118,-209,-174,-45,32,-153,98,-19,71,79,115,59,-15
,-145,-187,-95,-188,-6,80,-132,78,-59,-8,-11,-120,16,98,-183,190,181,28,87,-137,207,358,-160,48,-53,-57,-57,125,212,-8,-50
,-238,31,-803,-67,-475,165,25,-7,-90,-140,-558,-64,-142,358,-219,566,-427,168,179,84,-300,34,-200,-107,-143,-237,-116,-76,-539,23,-135
,-132,43,-135,-147,-9,53,-179,-15,-64,16,-276,-200,-116,297,-28,-104,-190,-64,-2,10,422,-31,65,44,137,-147,-190,-70,787,96,-15
,-152,-41,-19,-210,131,-185,-105,-77,-26,-100,6,-10,73,15,-111,59,-104,-92,-119,101,50,-30,-122,108,-2,147,-208,-34,-136,-45,55
,27,281,-195,213,-76,112,220,-148,-358,-16,36,36,-53,-5,-82,440,225,110,-149,329,428,-274,-170,-44,-27,-91,-359,-105,410,154,-155
,-446,129,-353,-446,-74,-29,-621,189,-72,-649,109,-75,-362,-155,-365,-68,331,234,161,234,169,-63,-57,262,83,-167,74,54,48,-205,-15
,173,239,120,156,-132,-132,122,112,-155,141,-29,41,139,61,-392,110,2,-93,121,126,-376,66,-146,111,129,-178,183,67,546,-103,78
,-18,109,-99,-87,9,-231,-58,90,-41,41,32,141,40,-53,-45,-256,281,65,-230,-61,110,-228,-119,-189,84,9,-283,7,-229,115,-101
,124,-49,-56,-23,90,24,-138,-231,-99,79,-259,-65,-110,221,-199,-142,-85,191,-114,-73,218,-184,25,-427,89,-43,240,-170,647,-343,-303
,-193,249,91,-22,-371,-146,22,139,-59,45,-173,-120,213,-65,-623,-75,199,-185,218,-45,223,174,-199,-19,-21,-429,73,-230,90,217,-69
,-190,230,-109,-14,-5,89,88,100,-10,54,-57,-305,270,76,-351,-93,-107,-487,-150,-81,-8,33,-300,51,-384,289,-428,-54,-22,-424,-175
,-125,-31,-135,41,28,-82,-178,143,-143,90,243,-152,-12,-52,-352,276,-150,-660,-105,-115,-602,-22,267,13,-88,317,79,-64,-326,-206,227
,146,81,31,-17,50,21,3,-5,18,-189,-77,-1,-12,81,22,273,16,12,-21,-49,-189,-15,0,-12,-36,33,-29,-146,128,23,-19
,8,-36,-130,-78,27,37,113,14,-77,47,-164,-200,86,30,-70,24,-148,39,-38,19,214,-19,-47,-33,12,76,-44,-139,115,-93,-137
,125,21,-156,88,-4,-344,113,135,68,106,42,-293,-76,-248,30,94,550,-238,-273,-28,-820,123,246,50,-50,-170,-19,-103,985,-97,-5
,516,-85,-94,259,-13,-167,328,113,-24,113,-182,-28,204,-133,26,88,-1131,-491,77,-28,263,80,-144,-70,-524,-94,156,-40,-1337,-267,20
,50,135,106,-208,-146,-1,-35,-156,-110,-269,10,-190,-98,-40,0,-529,204,128,-62,-312,-853,120,-19,-81,-916,116,30,44,150,55,58
,-43,6,-55,-53,-103,-96,-53,-13,27,26,42,14,162,-7,-56,-218,81,-48,12,-252,-294,-34,-54,-13,-203,-19,-12,58,40,47,-61
,205,-109,-217,174,59,-355,388,-301,-205,223,-112,-71,234,73,170,-75,220,67,-174,-140,194,-215,117,5,377,43,82,-154,-138,151,56
,-225,-376,-3,-237,68,-97,-216,-94,-390,-178,147,-227,-99,-90,-90,89,-273,130,155,114,-10,26,82,-10,99,-132,-55,60,266,16,-450
,19,-13,5,-35,-77,-176,182,105,-58,72,-44,-93,16,60,-23,-199,147,190,-30,-198,76,167,53,6,174,9,-14,66,499,-301,-23
,-208,-112,-274,-84,136,-6,3,190,-150,-33,-84,38,72,114,0,16,-101,-346,-409,-137,453,-272,66,102,-352,291,-63,86,232,-142,-82
,70,29,-23,184,48,42,-53,123,80,-69,-8,-75,-137,-44,32,385,168,35,-44,329,-529,67,-162,-49,34,45,-34,-153,-106,-94,149
,-287,-116,42,-199,4,-314,13,92,-225,-46,94,-195,-73,229,110,30,-511,184,-165,-72,-121,-75,85,146,252,181,-379,66,-181,-563,-15
,128,-224,-54,33,209,14,21,-319,-180,196,-286,-489,125,65,25,162,-66,2,-42,-361,712,-415,-35,-141,38,-86,287,-198,262,-191,-275
,-146,168,-65,-295,-68,188,-145,44,-920,-338,-147,-323,-263,77,-87,105,-89,-243,-239,84,-369,147,-232,-5,-405,143,12,-133,-50,32,-256
,-210,64,-101,87,-39,-60,-164,273,-53,-241,172,-85,-158,-122,66,-8,169,-263,52,-454,351,-291,113,103,117,-117,86,-18,-2,-361,-85
,-32,-733,42,73,-193,-89,199,207,-75,281,92,-172,243,-61,-152,55,-83,-1,66,19,-129,203,84,-117,562,62,-14,-57,120,51,-142
,57,-113,16,-5,8,-10,109,60,-83,65,-111,-203,230,139,-85,71,-9,-156,109,291,160,-185,-149,36,288,48,-73,164,33,-111,-271
,114,-119,-231,-49,62,-42,92,4,-145,161,-133,-189,-78,109,-43,82,-146,42,44,163,78,-107,19,60,-63,5,-74,14,-153,-78,52
,43,102,-47,45,-167,-19,-74,63,-300,-104,145,-476,-78,-44,-25,-8,114,41,-343,144,-29,267,91,53,-112,191,-250,-100,216,3,78
,158,-19,-42,137,85,-95,169,85,102,183,-134,-355,225,-162,20,89,-48,-459,-267,143,74,-536,-326,133,-54,196,-668,61,-87,26,-40
,37,172,2,169,-322,56,84,18,-11,220,-18,-106,227,-120,-61,449,-7,88,-136,-19,546,-76,5,-69,-203,105,27,-146,-199,-29,-304
,209,201,-377,48,-332,-93,190,-287,55,67,203,-62,-102,89,-207,67,187,125,-211,-79,-444,-128,-9,-54,424,60,-320,-114,10,-56,173
,-78,-313,-131,-125,41,-262,-225,-306,62,-182,241,-363,-154,-115,-7,-5,-189,336,-89,48,-61,-310,-188,220,9,70,47,-118,-166,110,120
,-47,-88,-449,-3,-26,-516,194,24,-279,275,-103,53,77,119,-388,38,-90,53,203,-46,-34,159,62,178,120,-37,71,43,8,120,7
,-108,-191,-151,-92,79,-352,-69,-98,6,-123,-87,-309,1,-17,78,-27,-234,34,102,122,-178,145,54,88,40,230,-350,-40,-4,35,257
,94,139,-258,187,-217,54,191,-168,-139,-22,216,128,112,-182,-699,54,52,-288,5,-157,-767,206,-340,-32,-404,285,-748,-38,88,148,49
,60,-276,-165,-13,-65,82,-73,145,-135,169,115,-58,203,-111,-116,-25,202,85,159,45,80,88,-463,-131,-34,49,-313,-55,-113,27,103
,204,10,-143,5,-14,81,-94,-20,195,-23,219,-136,-40,-45,-353,-129,58,187,-384,-234,115,114,-172,-123,-256,-312,-506,-181,719,75,-109
,-7,-109,-137,51,-307,-137,-129,-228,-103,-128,99,12,-42,164,104,-71,-141,59,-34,236,469,213,-390,-11,257,-120,-473,-2,65,-19,136
,-87,-49,-66,-75,10,-8,-15,-5,-81,-70,-53,10,-13,57,-47,-5,-83,-31,-140,14,200,80,-30,81,-54,-100,-121,-151,55,-118,-27
,109,-112,-33,270,-120,-173,230,-264,-21,222,-390,62,187,-60,42,-40,109,-262,-207,-34,-86,-35,-56,115,71,169,-288,208,185,165,-84
,41,-275,19,-648,210,-105,-362,23,-495,-867,139,-173,-883,162,-89,-105,-387,-47,157,-75,-62,109,125,106,17,-329,-140,-28,-170,-489,-191
,211,-351,-66,121,-139,-36,78,208,-8,-129,136,68,-42,-51,-52,134,-253,-51,-79,22,44,-281,49,-171,48,-32,93,-110,345,-196,116
,-339,-17,-131,-524,120,-141,-487,148,-195,-129,102,-155,-77,-344,194,469,-499,22,8,-125,149,161,-74,-253,257,78,0,-37,-124,-448,-221
,-168,27,-142,-145,-8,-20,-96,18,-296,54,57,73,-130,-198,-50,-101,-230,124,-36,286,305,189,-178,225,1,13,-191,7,-64,8,-122
,11,-21,26,-6,-96,-113,52,-34,-17,-115,161,-90,-62,-331,-112,-242,58,21,-93,126,313,95,-24,-48,-611,-128,-37,-110,-117,16,-327
,2,201,28,95,40,-88,150,-184,-277,58,-60,-190,67,-60,-21,289,-284,42,217,432,301,-10,131,73,126,83,-154,-153,-140,-238,-132
,-39,1,105,61,-159,-6,22,-52,47,-42,-51,-28,15,137,70,-280,-1,3,18,87,6,-94,-7,24,-174,-80,16,102,-89,65,-6
,-104,252,135,-15,-320,-320,176,204,-42,60,-26,-62,2,-139,-235,402,-132,107,-17,-113,7,-6,191,-244,-111,122,-254,-328,-15,-191,158
,141,-291,-197,-58,-153,29,106,-402,-338,-102,165,102,146,273,-178,-129,-57,-845,39,-193,509,-202,157,-25,-773,-191,-39,19,-79,270,-139
,39,-53,-89,53,-75,-90,12,-188,-81,37,-216,-126,86,195,-118,-288,-138,114,17,-155,289,206,-161,-135,1,147,-356,-22,297,346,-19
,-7,171,-137,8,-255,-54,-144,48,-56,-73,-472,153,-221,247,-220,-150,-255,-264,-82,59,-117,-27,-248,121,-245,-82,-171,-52,7,-272,-138
,-3,4,-272,-51,-40,-69,-43,-128,-347,3,188,-79,140,151,-11,-96,102,-250,-88,16,589,-243,-13,25,198,-463,214,-32,-267,-316,-19
,266,-136,-26,5,-177,-12,9,-26,-68,199,-278,-415,-20,192,-38,-67,-83,-235,-176,2,151,212,-197,172,432,164,-41,97,653,-23,124
,-161,35,-11,25,-86,48,-91,27,-190,44,33,-109,164,23,-43,261,-37,25,-165,287,191,-3,13,38,390,81,74,230,-498,20,-227
,60,44,-244,-106,174,30,-92,-144,25,154,-144,-9,-93,160,-39,-60,-57,-193,-537,-41,-107,-1,35,-100,-96,-270,-175,-171,255,261,-216
,-139,67,-12,-145,-57,-75,-139,52,-133,133,-6,-53,-15,-141,29,461,-85,24,-126,-157,-132,35,-37,150,-27,39,51,79,-150,54,-85
,-36,-273,125,-42,39,-444,-178,132,-337,-126,-894,-26,-175,72,-99,63,296,-102,-47,46,498,211,2,359,426,-127,-262,285,241,88,-427
,57,176,-341,-84,15,26,-4,-89,-165,-190,-17,24,48,-29,-138,613,-286,-188,51,32,-241,30,-6,67,6,114,-73,-208,-469,74,37
,-360,159,-82,-308,17,101,-166,98,-133,-161,-308,73,-46,-235,-325,88,-89,-253,150,-181,32,-56,112,-137,270,-396,40,75,-168,37,-232
,113,25,-38,144,-33,-58,-139,-5,5,-147,-137,-24,-110,-22,-140,293,-82,-183,-67,194,-81,122,-100,80,-112,-2,-114,26,-71,71,-19
,83,-83,-166,-74,-334,-156,-5,-21,37,-86,-370,-69,290,102,148,-131,155,-259,208,-128,-82,106,-68,35,-90,-451,-184,59,-626,-111,165
,104,141,-55,-173,292,-147,21,-144,-172,89,-26,-54,46,-434,59,-49,-190,-339,-105,-727,193,-60,65,-190,-109,151,128,-162,27,-202,-20
,-151,-54,-418,-384,102,31,-161,79,59,-167,82,-287,183,46,-102,53,-13,-101,16,125,200,76,103,51,-400,-328,-102,-121,-285,-294,149
,25,211,-66,312,-515,-214,197,143,-199,-34,-37,-399,-54,78,175,159,575,-24,-16,8,-120,-221,-607,119,-257,-498,-31,-96,-162,-124,100
,109,-400,-50,-74,105,-130,96,20,-186,209,-230,-195,98,286,113,-17,-246,192,-34,-23,170,-40,-145,193,258,-389,-85,103,-330,41,-9
,354,-266,-312,282,66,-370,91,13,-70,303,-38,-87,337,-79,-90,130,94,-252,-113,237,581,132,-319,215,236,161,-420,-140,114,-326,85
,-306,200,-28,13,-219,-301,48,-163,119,45,164,-336,-96,13,14,-116,-85,-9,-29,-27,-67,193,2,-41,234,206,-81,44,-291,155,-172
,227,-226,-64,190,79,-170,-51,76,-331,-26,59,-140,33,-110,3,-111,49,263,-134,63,-142,-249,246,-17,-29,1,-53,61,-294,-159,-120
,-60,102,-187,145,118,-89,130,-468,27,151,-214,-72,332,-53,93,-217,-58,139,-89,-412,-260,181,-639,201,108,94,-87,-13,818,67,-108
,-422,423,-13,-262,-15,-393,-42,-142,-36,77,147,-367,1,-258,-101,-155,62,-310,60,96,66,-525,-10,130,97,-232,115,126,54,-417,-129
,-72,-291,-104,-123,304,-83,58,41,-90,-48,-140,-189,189,-20,134,-469,-783,75,-33,-183,46,291,66,71,-1133,192,-241,79,-424,53,-73
,154,100,-39,259,-280,51,64,-172,-218,-33,75,30,193,-110,-45,-191,-226,-13,-263,-241,23,205,68,-217,219,-65,-88,-7,199,92,24
,40,92,-247,-52,-126,-68,-72,-52,-87,-52,59,-168,-295,60,167,53,212,-302,65,-77,407,-198,-60,-126,-27,238,124,22,449,-167,57
,-30,-139,-47,-9,52,50,31,115,30,17,17,-48,71,-56,-49,-369,-109,62,15,160,25,-93,89,115,9,-13,64,-16,3,155,-183
,-48,-128,-202,-99,320,-72,47,-241,-89,256,-41,37,129,232,-408,20,320,5,-33,44,-444,309,-122,67,-297,46,12,168,773,83,-38
,-178,-22,37,-720,89,-226,-407,86,46,-625,39,-23,-418,123,-567,52,-224,-429,52,-74,-95,-26,-357,-117,112,-53,-255,-32,-125,-583,31
,14,8,-63,-162,71,-24,20,-80,-17,-193,6,-65,-14,-18,2,36,114,-124,76,-77,51,6,30,-3,-174,57,-49,183,48,-59,61
,94,-109,10,49,242,-142,192,35,22,176,93,5,192,-428,-259,-78,220,57,94,80,-345,32,79,8,159,-498,-45,-120,48,20,-69
,350,-132,42,100,-219,49,89,-97,-270,373,12,-180,336,-207,-277,71,-295,-15,11,384,-249,-31,151,316,363,-142,24,89,-36,127,32
,220,-37,2,76,26,37,115,-59,-37,117,113,-65,150,-396,-123,527,-392,105,25,386,267,-53,78,-46,-57,-81,-18,-8,44,151,-44
,145,-136,-268,14,-31,-153,77,181,-121,60,-78,-9,-36,17,-200,23,84,50,-33,114,-177,-70,-10,-106,-42,95,-168,-62,76,-155,352
,81,-37,-49,116,-153,47,-2,118,-17,278,-306,-188,153,-95,-216,324,-290,33,127,410,549,-170,229,-63,26,29,-333,-109,354,-205,168
,-16,-30,-169,-194,-165,96,60,-147,-145,-115,86,-148,-61,-33,16,148,-14,-219,-71,-53,527,-285,27,-22,-38,159,-254,76,108,139,-51
,100,-689,-423,-57,-376,-74,100,-294,61,-72,179,-2,240,144,-85,-123,-42,-496,13,-17,432,-606,-219,-115,-763,190,156,-71,-194,19,142
,-206,49,-15,131,13,16,54,28,9,-22,8,63,15,-48,50,-552,33,0,-103,254,-25,-77,-54,325,-92,46,-46,320,-71,36,17
,68,-181,80,-24,32,-84,46,33,-54,84,-124,-95,-238,114,-228,149,-17,-243,-8,-211,190,30,-54,-83,61,82,89,93,343,60,-39
,241,-46,0,205,-156,-40,-111,80,24,-35,-61,-57,6,37,62,424,220,2,56,-75,71,120,-100,81,148,-54,73,107,189,-135,98
,-21,-76,-139,-130,9,-19,6,-9,-165,-59,123,-18,102,-213,-111,-227,116,-48,8,183,8,56,-285,71,3,138,-108,112,-76,-38,-240
,50,28,-338,-101,28,-406,-165,-267,-133,-26,-155,-178,-82,-293,74,18,-132,-173,-234,96,260,37,169,-80,-75,-219,53,87,43,-236,-7
,48,22,66,182,-94,-135,141,-189,-132,-81,40,-62,-51,-191,-10,482,360,-158,8,467,-110,10,140,-37,484,-275,-294,46,-230,36,-4
,-192,229,-15,-86,71,77,-49,4,-255,174,-43,-181,162,-166,41,214,-223,-81,37,380,450,-233,-214,-212,229,237,-486,66,65,120,-166
,54,-113,54,-92,108,10,-40,-14,-17,-101,136,41,-51,-8,-96,-271,-110,29,-10,67,57,-46,122,175,-139,48,44,-160,-382,-7,-74
,-71,-155,-61,-3,47,-8,-83,31,61,10,-107,65,30,-50,-43,-222,126,-58,56,-7,-85,20,-39,-25,121,-54,94,155,171,9,-41
,-282,166,-14,-49,69,37,-144,-31,-280,7,-429,-21,135,-93,-262,-80,-392,-140,168,-136,351,71,30,207,-153,-125,-114,183,316,-122,-36
,37,42,-279,-33,134,162,98,110,-3,221,-198,-230,220,-143,-295,-179,-692,192,-25,121,299,-28,137,285,-333,115,-165,195,-214,58,-59
,-170,118,-102,-449,-215,86,-104,-635,-111,-213,-75,-114,-286,-542,88,-89,-217,-349,-334,-226,230,-54,119,-34,-265,-428,-143,79,-173,-559,169
,138,-68,-114,-105,-22,42,149,-72,-44,0,-161,-125,-26,-41,-155,-42,-77,75,-72,85,84,-23,-9,112,83,-42,-3,-92,71,38,-11
,-166,16,40,-122,-152,30,-39,-82,-24,128,79,-27,-69,-30,12,-245,175,-48,-25,285,-32,167,17,94,241,-50,11,219,27,-46,36
,-216,167,-225,-126,226,-76,-119,105,-296,-169,5,-109,-62,-336,4,0,-294,-268,342,7,-46,67,-32,31,616,107,-30,94,181,-94,-246
,112,26,15,-7,171,-12,11,-85,-212,-76,73,-326,-70,-127,-27,-81,-68,-52,4,-326,-87,246,-42,-52,-348,144,-219,-119,-216,-19,-15
,34,5,-60,-112,-69,-14,18,-188,-44,30,-27,-64,-85,-173,64,-210,259,93,66,-255,315,74,-150,-104,319,21,-98,67,57,85,-164
,175,8,-1,27,50,18,-91,-36,36,56,-28,-14,-99,9,-44,156,-59,-163,65,-123,-45,127,-53,-92,-23,57,-30,11,21,-65,-10
,30,113,-1,-68,-163,-91,-173,-164,-63,83,28,7,-73,74,-25,-105,-11,-21,8,195,25,12,80,50,160,-81,-148,136,1,0,-46
,-8,287,-23,202,-196,-58,12,20,159,196,-245,-285,157,-85,-264,24,138,-7,50,-132,-698,45,-107,10,-571,-83,110,21,-310,-490,-263
,-12,129,21,100,87,-265,154,62,92,201,-295,-65,-78,17,-41,-43,-115,82,-296,-266,204,121,-95,-171,122,-31,-346,-112,-211,165,-111
,91,249,-27,-2,-215,24,-102,9,-42,21,-435,-134,128,85,-2,-302,193,147,-76,61,45,50,-176,101,-165,-357,-52,57,-28,-53,-90
,-228,173,-272,-81,-116,-193,-51,-71,-95,-297,93,-111,-376,146,-125,-339,-165,377,-2,-30,443,270,83,-131,-201,-97,-135,-102,157,-267,24
,-17,-251,8,-114,-14,-70,-62,-70,-83,56,1,-36,102,194,36,715,-214,-11,-60,462,-68,128,-33,19,183,42,-83,89,117,52,12
,-24,-149,-268,110,-74,-111,91,194,128,26,145,-570,46,93,68,-177,470,-503,-358,-199,134,-91,-98,-95,130,16,28,78,175,-28,-267
,176,-328,-249,-191,227,-44,14,223,-96,-106,-183,102,163,-207,-286,-122,121,-490,143,48,-37,-278,-141,60,206,-241,-228,-58,-104,294,-842
,151,-564,68,86,-76,-234,145,266,-91,140,-142,-125,113,205,42,4,246,-46,58,-90,-35,-36,-186,12,577,23,-244,-94,-188,-7,-127
,-353,318,-98,-281,178,-416,-154,-73,-96,-65,-54,-197,-169,-113,95,240,-393,111,-451,-38,-356,22,144,-346,341,203,138,-140,-142,-53,-105
,-46,210,60,-18,197,-139,188,-66,-300,78,-216,-142,7,285,-296,-63,-32,-291,167,231,252,43,-185,-180,47,118,62,119,736,10,-262
,-131,20,-39,-28,-9,27,-88,73,-48,38,5,56,230,-276,-37,-19,-137,-1,-16,206,-164,-47,144,29,132,33,-128,135,304,76,-57
,-77,113,33,21,-5,-217,-36,150,-132,-202,-109,86,4,-105,-432,6,-106,-71,-86,-46,409,25,57,-31,-1,227,-434,-71,227,-240,23
,-68,-57,-144,121,111,11,58,-166,-18,-83,-195,-146,-113,-132,-55,95,60,-14,55,-23,-214,26,79,-162,-339,60,-94,93,-36,-178,-154
,140,-68,-677,-134,100,-265,25,66,-21,122,161,-103,34,-55,39,-40,-766,217,-3,-244,110,-2,237,-300,-303,-48,-50,-95,41,190,-607
,-24,-300,20,-222,76,-312,-192,307,-159,113,-37,-179,-151,-364,-104,179,449,51,-55,-82,-186,208,104,185,108,147,174,-11,-208,-111,-59
,17,-216,-46,-156,17,-121,4,83,-113,-44,-16,41,33,10,-80,30,27,144,-21,31,143,202,-334,-84,-193,87,-62,-156,-103,20,-42
,41,-39,-63,132,9,-150,-144,-149,68,-77,-12,-35,-143,-80,-107,28,-6,-53,-24,64,-135,74,-143,120,-141,-34,-175,-57,85,-128,-129
,61,270,-63,179,173,-141,-531,-103,56,-762,-159,-75,-770,-608,-113,66,530,-98,-56,318,-271,124,-6,203,479,-37,150,-34,479,39,-47
,34,-216,-297,120,-344,129,102,133,-181,124,-295,-36,15,4,-771,120,-55,-8,28,18,180,-61,209,-90,174,-70,117,-83,511,215,-35
,1,38,-34,34,69,-130,-132,-144,25,-91,52,-85,-28,-200,-95,-150,-8,-89,-64,-160,-132,-54,-167,-77,107,-88,4,98,104,-134,-15
,-213,-55,-55,-332,-27,-222,-134,-245,83,-485,1,-316,-335,304,8,0,-223,-204,-374,35,33,174,-164,-34,62,-318,-67,98,-207,-53,-81
,-434,-64,-160,-460,-86,-375,-195,-233,32,-361,-93,-130,-1142,451,86,-174,-403,67,-181,-161,192,143,121,-46,-737,44,66,104,-12,-82,-112
,81,77,-153,-41,247,32,-13,-89,29,7,-59,-180,-68,-8,24,45,-206,22,-381,-14,132,49,-546,-87,-317,55,95,-20,363,-15,82
,283,170,-56,-87,119,-163,131,-123,114,-49,-272,-137,41,-170,16,201,-552,159,-143,103,-246,-190,26,-26,-287,-37,-26,27,-173,-557,-11
,-182,82,90,-130,-177,-158,61,28,-167,-136,43,-176,-153,-450,-35,126,-297,38,61,461,127,137,33,-281,-77,75,46,-119,-293,-27,-12
,-83,39,-84,51,-2,110,96,-7,-144,-62,-57,-280,157,-12,-120,-192,44,-145,-129,350,70,-148,-53,33,27,53,-185,-116,-59,-20,20
,63,-43,-90,191,-205,53,119,65,-82,18,64,-10,114,-260,-97,-36,62,-11,-48,347,-2,-113,70,360,233,22,50,-59,-43,62,-7
,-113,191,-17,-162,-208,-157,-243,106,30,-53,-389,21,-359,278,29,519,158,-228,-414,226,444,153,-193,331,178,168,10,44,95,186,-190
,-4,69,35,69,-80,-33,-13,0,-36,38,-38,-244,-112,-75,-38,10,124,-137,-66,57,-101,-40,-9,-116,27,-58,-176,44,12,-83,-63
,-51,131,29,-251,-216,164,-193,-260,-169,-338,-81,-137,-334,-81,-287,-357,103,200,-154,-140,-444,233,134,-146,357,-94,90,-102,-480,29,-52
,75,144,-71,249,-16,-111,-119,-70,133,-119,280,-229,-25,-126,-236,-299,628,191,-229,-95,13,-4,239,-124,166,27,-100,-259,-153,-61,-26
,184,-148,-153,184,252,-235,112,-306,173,155,-19,-31,211,0,-138,122,-709,-74,-681,29,427,93,93,-46,-234,-426,-280,-51,-112,-438,-202
,14,-73,-105,-92,-65,-165,4,78,-173,118,-142,44,128,133,-35,8,132,-160,79,208,-54,-168,-9,-88,-162,20,84,-101,-543,-62,8
,54,55,-13,202,198,59,62,-9,-257,76,10,-150,132,-81,-223,287,154,116,233,652,399,-173,-74,-33,163,-166,24,-12,-350,-208,-189
,-14,74,-273,-145,13,1,-84,71,-88,-93,87,-148,-53,-164,57,52,178,202,-201,201,110,-185,-335,-67,-193,159,161,-56,212,-349,-112
,-48,106,-125,-80,-255,-94,-234,58,-64,-538,297,-180,-371,224,-264,460,-95,259,17,56,-14,68,-265,47,366,72,155,104,-180,-236,254
,-86,-123,-48,122,-159,14,106,-30,-85,126,-9,-115,-44,-200,-139,117,-43,154,21,-32,88,3,-134,119,-134,125,56,1,-109,-41,-75
,-116,10,108,43,21,32,-160,-106,-284,-22,-101,-209,103,-2,-353,-120,-351,-52,188,-106,114,188,38,-62,-315,25,-98,-6,146,179,51
,-122,-64,99,-216,-1,-158,-215,-241,1,-70,3,-44,-197,-44,-187,-25,153,211,-221,-7,-173,127,30,-83,-119,72,-205,109,-223,191,-130
,191,96,36,179,9,78,-18,-104,-14,-85,-73,-130,-50,-117,-140,-99,22,-49,40,120,252,-113,-65,-14,-19,-99,-109,51,96,202,-146
,16,75,-345,215,64,-194,102,69,52,144,-169,-40,32,-91,-142,-2,308,61,54,-196,-63,260,83,-15,317,-36,-289,227,180,-172,259
,-124,158,-173,-52,-75,-150,-168,90,-150,-139,-26,-431,-301,218,-83,-13,-93,-265,-68,46,347,-169,253,85,141,325,-236,-152,-53,241,60
,214,-283,4,182,-460,47,164,-67,-422,1,-317,57,84,-73,-116,20,-140,-106,143,6,-235,-209,-130,-159,-82,8,-55,-117,136,111,-179
,196,-67,-587,-45,102,-1120,121,185,-105,261,-66,90,61,83,-222,56,-89,-494,13,123,149,-394,-361,82,-144,41,184,28,-40,78,-262
,138,-122,-85,73,-210,-275,185,-47,-293,149,-117,87,245,-146,1,-24,-190,172,-30,154,-120,172,-7,-10,-35,-215,-166,-66,-210,-103,-122
,84,-147,-431,90,-59,-552,153,-31,68,113,-93,-58,193,-494,10,68,-9,-584,30,68,9,132,-20,-141,-274,329,17,40,-51,74,87
,450,182,26,341,23,-220,132,-92,-51,208,-249,25,232,-399,-23,281,-365,49,-90,48,-1043,-257,-66,-114,-397,-216,102,-6,-23,-224,139
,73,-112,-27,102,-120,-120,-43,-48,-129,-90,66,-74,-82,-94,-106,56,116,128,-121,52,132,-61,-136,133,-63,63,51,-3,-138,-137,-133
,-114,-17,-25,-66,138,-35,-43,178,75,173,-7,4,152,-441,-56,-217,202,-88,-92,-36,-68,1,2,8,97,-19,-77,176,557,36,13
,-138,73,-266,4,-163,-321,-10,-36,153,12,47,46,151,-216,-170,-319,491,-75,96,-131,76,-310,-107,-80,202,231,-115,-53,174,-295,115
,54,45,23,-157,12,-16,-71,-21,-32,45,-34,19,124,-83,-96,-77,-80,52,-50,103,55,-66,-12,70,-345,27,-15,58,-367,-22,-64
,11,12,-158,-112,-279,-236,-337,106,-116,-33,40,-141,-219,-4,-314,267,259,-165,-228,103,-19,183,71,357,54,-37,93,51,137,51,172
,-259,179,-164,125,-136,101,7,-172,-76,-15,-99,-96,-26,-176,-89,-239,126,80,-128,-181,-173,7,-36,341,772,-65,166,22,285,-8,-150
,-125,159,-98,-126,32,-109,-213,-76,-13,-114,210,-130,-208,135,-453,114,14,-50,217,77,-835,190,44,7,936,-339,9,128,-426,117,-59
,105,248,-284,133,230,-53,144,-26,-152,-83,0,22,15,-190,8,84,-35,137,-6,-261,246,188,-194,-29,245,252,-4,-15,446,-384,-1
,176,-43,31,117,-50,18,-123,151,77,51,-195,-41,-32,65,43,369,-63,32,5,-178,118,116,-121,-13,276,5,-53,25,38,-71,48
,141,-69,92,99,-184,34,300,66,-209,140,-624,77,113,146,-232,154,-227,63,-39,61,-705,-2,-9,-50,-586,34,-297,-9,437,-40,-160
,34,-86,-131,-2,84,-35,20,-59,63,-167,-135,-144,-97,66,6,144,-140,-104,-42,184,63,153,-144,-191,210,-120,40,30,-266,103,-72
,-36,42,-455,42,139,-8,-38,-135,13,171,-271,-68,88,-81,-425,368,127,309,-224,329,263,56,-33,-164,-344,183,227,35,-224,-101,-210
,-53,115,-164,158,-116,-234,176,74,-356,87,224,-250,149,89,-33,280,452,329,85,-104,-523,-157,-68,-131,223,216,9,64,753,218,123
,-13,20,-262,89,-63,20,95,-143,-133,-189,64,-7,-237,18,-100,-12,75,89,15,49,-51,55,-94,-141,-55,-17,145,-1,5,-143,205
,-57,-257,-175,-181,-343,31,7,-247,-14,-192,-235,-40,22,-101,-225,-59,-85,169,-432,-144,-67,83,111,7,208,165,60,82,109,-29,94
,22,-32,-355,224,40,190,79,-168,-449,169,14,-61,143,79,-216,-87,-436,-190,-20,37,-190,243,-227,-111,172,273,-41,-10,-16,249,15
,-220,83,-25,0,33,-22,-200,53,-10,-12,29,-7,-83,-167,-24,-228,95,-14,-15,-11,8,-5,-32,167,-63,-3,17,247,48,-13,-10
,46,-158,-135,85,79,-64,-54,-5,12,-51,-112,-54,82,67,16,109,-32,54,-163,47,155,-4,-25,17,151,4,29,126,-113,46,-83
,-285,118,-76,-599,276,56,-139,-96,-93,-39,-1255,-87,-96,-137,-35,18,-16,-177,-83,42,-3,-494,61,72,-192,-413,-59,62,-51,-612,-28
,14,74,-281,103,72,33,124,-56,-95,311,123,61,303,14,-285,-92,137,-69,26,155,-634,-124,73,-53,286,245,-127,-67,339,-157,-370
,-701,32,-76,-369,126,-378,-211,-93,-17,-232,77,-42,-279,43,-21,-29,-147,-376,-205,-52,251,-157,206,73,-186,234,-282,106,-129,-295,68
,-172,-160,-402,-206,222,76,-143,45,-73,-55,46,-287,-5,55,-268,130,128,-142,-247,80,242,-147,-76,39,281,354,-271,70,129,201,52
,-227,-114,-89,-286,130,-177,-143,-195,138,-226,-11,-189,-136,183,21,470,128,-41,-215,243,259,145,-90,150,54,27,-278,184,327,-45,-230
,86,15,-309,49,170,-14,202,151,-15,172,-60,-426,51,96,-176,-68,259,-87,-39,124,-262,52,-121,-6,-110,-79,187,-95,60,-169,-216
,196,-150,-127,120,-194,-86,41,164,157,-300,149,-186,-134,-132,-336,-113,-316,-174,99,-7,-87,-854,146,55,-997,319,-421,126,-398,-315,190
,206,37,-66,146,18,13,13,30,-235,-31,-80,-89,-200,11,138,-6,-265,-56,136,-81,-652,136,-382,55,-1235,96,83,-64,-508,-226,-119
,280,-377,-116,106,-125,160,-165,255,-26,41,217,-176,21,21,-120,-27,-506,10,-876,-126,-334,-246,-87,-79,60,-307,-288,41,-110,-362,44
,126,-13,-210,26,-188,-275,73,66,-446,-108,254,16,55,-64,48,-289,114,130,-205,21,255,-70,147,14,201,175,-339,-172,-62,390,-214
,-38,119,-35,98,41,5,-159,71,-23,145,42,61,-70,-2,55,-195,88,36,28,108,-13,-54,114,107,-19,26,-6,-29,67,14,51
,-10,88,-124,-31,178,112,-59,111,33,45,-60,-164,58,-476,-238,-65,484,-27,-289,30,-305,-116,119,276,-160,-237,250,80,428,-3,-320
,64,102,-59,144,-256,-73,144,-331,-60,-67,133,-1,165,74,108,-34,-45,47,-120,32,-468,-328,-328,141,514,-54,-217,134,-54,126,-252
,-37,-28,-765,-116,75,-157,-89,98,-154,-196,11,-611,-441,-168,-332,20,-5,-427,118,4,51,-156,18,136,22,-354,239,30,-99,399,126
,-23,29,-190,283,-11,-129,-137,38,-223,-117,-201,42,-176,59,-180,-100,-144,159,29,-18,-197,189,79,9,153,135,174,145,351,265,-234
,-72,30,-171,-239,113,-32,-4,-126,-139,-126,-16,-67,-42,-62,-29,-178,-99,-7,-237,-198,-198,-65,85,148,83,-244,-27,62,-73,-44,-110
,198,84,-62,162,-120,-194,56,24,72,0,29,-97,210,-186,23,221,-431,-310,-234,-246,491,-78,80,230,-289,-618,30,25,223,243,-121
,184,127,2,37,-125,-206,-29,-76,29,150,40,21,106,-145,-38,-5,179,-160,51,88,-19,-96,-176,-191,386,-117,121,-115,138,107,-31
,-10,-185,-184,15,-259,33,103,-263,-99,39,-140,-146,158,87,115,-157,368,-81,-201,-79,-177,5,-93,-125,361,57,-126,48,456,-22,-105
,-272,-65,-5,-48,24,35,-117,78,-338,-255,135,11,-308,253,-302,228,140,42,-224,408,259,272,62,-80,-226,-42,104,37,341,-246,-154
,34,-115,-82,-65,-95,-6,-199,44,-57,8,-50,73,-115,30,109,241,440,-14,-16,-38,328,18,-27,7,22,53,-70,-140,-276,89,-42
,174,-228,13,285,-215,-160,73,177,-253,191,-269,-131,166,-215,-145,-91,-533,77,215,95,-153,-76,-55,32,-168,-552,-37,43,-37,7,209
,270,38,-133,219,16,-24,-43,40,41,-146,-156,75,-164,14,-92,377,106,-114,-12,-189,240,-8,-4,-73,136,27,9,114,-21,-16,-76
,-134,68,79,77,-78,80,2,3,65,-25,91,-85,0,-85,-104,-617,-66,26,1,138,373,97,-75,11,-231,61,-82,-113,-328,-39,14
,69,251,-177,-56,131,-1,-25,183,-93,-107,-211,-8,-5,-42,-121,56,-176,-591,-63,97,-195,-350,77,121,-399,-666,109,62,-77,-250,130
,102,66,-60,151,-352,-272,280,-382,74,114,-458,-25,216,225,-247,133,-227,-24,-92,-7,151,-78,227,60,-360,-313,-165,-88,-381,-32,73
,49,-274,-65,16,-587,-99,60,139,124,-131,-111,-104,-10,17,-344,76,-837,138,-120,18,-583,233,-80,-182,307,-349,260,-52,-640,-193,161
,-57,-51,-83,-14,-76,-133,195,-47,-45,52,-14,18,22,25,-28,-186,-7,50,-101,-206,-329,38,-345,-105,52,115,-131,295,228,-43,-132
,102,124,3,2,90,66,142,35,-30,39,48,-120,-42,-162,-77,-41,179,155,-335,-165,229,-66,-625,61,-332,166,38,-1,-122,-45,-86
,60,-464,-46,138,-180,-181,55,230,-67,-77,-185,-250,-343,299,72,-305,-517,331,-109,-14,-928,199,84,10,-493,-423,-10,-100,75,-408,-329
,31,-7,-130,-206,115,-7,-293,-343,-144,-304,278,16,-158,-217,-777,285,-792,-44,204,-172,-339,164,-31,-57,330,103,134,-8,-100,-501,-179
,-184,-495,68,-294,-176,-83,-147,150,-60,-106,136,-48,-133,177,-353,12,-230,31,74,29,-89,-425,44,-50,253,108,-324,-198,122,127,-276
,-16,-48,-383,-120,308,-291,81,4,112,72,-106,-153,135,-409,43,-158,333,24,-37,-228,30,-113,-196,-160,455,-226,206,95,288,6,4
,-186,125,-297,-206,114,-209,-286,144,-128,4,47,64,-295,157,-225,362,167,287,-23,371,6,124,-255,228,244,264,-343,84,-306,211,84
,16,-153,-208,60,-317,-157,143,75,126,-8,286,-108,31,-77,-64,-92,20,-121,296,-215,-119,90,-168,-140,736,142,-300,-44,307,42,-266
,265,-202,-164,197,161,85,138,-297,-143,80,86,184,60,-66,-402,119,444,-146,-149,220,289,-88,-213,45,-132,-132,5,-71,105,-71,-203
,128,245,-151,192,-375,-140,157,-71,-98,141,62,-161,-7,-138,-67,-42,168,-78,-302,-52,-219,-366,214,53,-119,116,236,-19,103,-233,74
,-90,-396,-51,-557,185,178,-102,-488,-182,-93,-516,-99,-67,-79,-200,-258,333,240,-155,-150,-810,99,166,-69,-290,56,-77,29,-163,33,-325
,163,-305,-422,54,-83,-2,142,24,27,307,77,-238,40,273,-22,-132,157,-95,64,79,516,-93,-147,64,-15,-330,-407,-136,303,109,-295
,-126,95,-77,107,26,-18,-169,-177,-94,-202,-43,-202,-270,101,-126,-18,55,66,209,-107,-122,81,31,-65,505,294,-541,87,222,-91,50
,15,-150,-274,-98,-67,96,8,90,-139,138,38,-181,94,-26,19,-19,-126,-155,-99,-143,76,-204,-71,59,194,90,93,138,-59,-97,-108
,-200,323,49,-55,45,-239,0,-179,-69,-177,41,-444,-8,21,-215,145,186,127,-33,-16,-413,193,-99,72,796,-237,19,199,-419,152,70
,66,-55,53,-30,-71,-96,18,-63,-127,88,-6,-150,26,-33,-388,70,108,18,7,172,158,176,-365,53,46,406,-43,-25,70,-2,131
,82,-48,31,33,-82,-31,231,-130,-103,-15,50,-178,229,-504,-121,-216,11,-130,32,0,-52,-182,-230,207,253,-82,-9,-100,45,-66,-206
,-284,141,-441,-320,-277,-899,-336,-123,-54,-69,151,46,-420,-135,15,-75,-161,-106,170,-103,-293,290,-333,92,-132,-329,22,-59,0,-7,-116
,131,85,-204,-297,2,-96,-310,80,-476,-55,-208,-151,-843,180,-137,54,-72,83,-126,-264,-260,63,92,-132,73,318,116,129,192,-75,124
,93,-193,-5,80,130,23,51,108,45,-127,-143,-105,-254,-100,-107,-76,93,-51,-146,-143,-548,20,-91,84,149,-60,-66,72,99,-161,59
,-56,157,-93,94,5,-180,191,-235,28,-18,-346,-325,-292,123,-218,-115,384,330,108,-162,-936,-353,-2,-41,-434,63,-2,-20,-579,50,-41
,-7,171,-122,-17,-78,37,77,-89,-65,169,59,-61,83,64,-207,206,18,-27,-40,59,-129,-99,20,98,-127,-21,-66,92,-166,47,96
,-7,-515,-8,30,-376,70,-65,-124,-147,118,-235,-60,27,-84,-190,-18,-148,-114,206,298,4,-31,-43,-64,-147,229,-91,191,-142,182,-580
,182,-290,53,234,-198,-235,7,305,156,-15,33,-191,113,-396,-600,281,86,117,124,77,-89,-276,127,144,-122,-431,-31,4,18,-653,-110
,-376,95,-44,-195,49,27,-363,3,-126,-336,-111,3,-320,-30,-115,-359,179,-5,135,166,16,139,-272,203,407,-18,68,255,91,27,12
,58,-104,-192,117,124,78,22,-200,-135,92,212,106,-41,-86,-603,-27,180,26,-192,165,-109,5,-21,-197,-385,-284,223,34,263,242,-9
,-326,-956,-47,-323,-149,-686,-178,145,75,-243,-698,89,-22,332,-43,-114,-643,32,79,35,-135,-187,-238,65,-91,-114,-204,54,-251,89,-491
,-278,-7,-167,-149,235,-146,-252,-168,-221,-230,96,-7,-440,-144,164,-63,-172,-206,-222,-173,58,-176,-256,-54,-320,-183,24,112,26,-129,124
,-34,94,79,46,155,-56,-261,143,-171,-284,56,-303,-119,-121,-74,-357,-284,83,-236,-123,476,141,-258,-124,99,222,-256,11,405,180,165
,106,-29,-77,99,-363,-280,137,83,-45,-7,136,41,83,-234,-261,-141,-120,-423,-246,-102,-228,340,103,-55,100,75,116,128,-385,-13,67
,40,97,-132,87,205,-440,73,121,-164,-70,40,10,-157,98,-62,14,436,303,-160,12,4,-339,-183,-177,202,-106,-124,-190,-608,52,-249
,53,-147,57,9,53,6,9,146,-110,307,85,71,197,2,-223,-49,297,-208,-184,224,272,11,-159,-190,406,-96,-258,-99,315,-185,-377
,192,-761,0,153,-423,-148,-162,234,-191,82,-76,-569,-212,-17,85,-133,-2,-384,-198,-69,-105,-259,-1,-6,-179,-42,-200,-47,-389,-88,189
,149,-96,-218,116,-115,-90,193,11,122,236,0,-111,56,-25,-69,505,214,-220,-309,311,361,15,-46,287,762,-335,-258,-57,337,382,-192
,216,69,3,12,47,4,11,-89,-4,-112,-25,3,-119,112,35,158,-35,6,40,86,11,66,-35,-65,70,-6,-28,-124,130,-43,28
,175,-189,-247,104,-435,67,148,-469,-31,323,-96,-319,315,-304,121,-114,-146,-58,-162,-23,-78,-337,-149,-18,-370,-122,209,-111,-287,-353,38
,201,203,-32,25,-60,-159,-80,75,-64,166,-43,56,-81,-68,147,34,157,-7,-114,24,272,16,-65,64,152,17,-85,-43,-25,-29,46
,-242,-116,-358,-250,14,-27,-284,-4,2,-78,-32,-274,127,42,87,-52,-57,-362,65,-124,-217,-11,42,-90,-92,51,-12,15,-74,261,-319
,134,-382,-133,132,-83,-63,151,116,114,269,127,66,231,-342,-134,41,352,-89,-21,-92,159,153,-312,-184,-249,53,42,30,409,-222,-193
,253,172,50,29,-43,1,17,-14,-165,113,-7,-172,-3,-285,-64,202,-157,254,-22,230,24,-20,124,77,644,216,-318,-219,-163,41,-97
,-427,-30,-392,-527,48,-262,-192,54,-16,-424,-102,-116,-883,-59,205,-106,-619,148,-339,-85,-418,-78,90,-207,500,302,-118,-166,-388,123,11
,56,-15,-164,157,-423,-86,148,180,-405,-35,-26,156,152,125,-222,158,-293,139,-130,-18,-124,-222,-154,132,5,29,70,-121,-483,-191,161
,132,212,-9,-30,-28,-292,291,-351,54,289,-105,-206,108,-47,-176,-112,-228,2,278,-161,-75,-127,-354,-130,469,266,-331,130,52,56,-62
,-155,141,39,27,-139,-3,-81,15,-195,-196,-87,33,-55,-6,-102,-230,-110,-51,-51,44,-118,-81,3,22,387,-10,-131,-129,36,-92,68
,-2,-173,34,49,-174,-53,45,-249,11,-132,-119,-37,-110,-30,-235,-76,-73,-80,-82,-230,-89,130,-154,8,287,-102,127,42,62,-287,-101
,-44,-75,29,-7,-66,-158,13,98,-112,220,-26,121,305,59,-44,-44,50,-53,-257,-90,327,173,-381,-150,-226,58,-74,-49,-516,-92,-36
,-106,-217,-213,-63,-406,-7,-88,-382,62,-132,-50,-134,-196,-35,-9,402,524,161,-35,-55,46,-277,-291,-158,-80,141,-24,-163,224,-80,234
,80,40,-18,140,-395,-157,29,-63,-14,-67,78,-128,-8,55,76,55,97,-162,-152,-23,97,-35,50,47,162,-34,-138,27,13,159,-379
,-53,-126,-218,-324,-480,-128,-194,-435,67,-210,201,-240,-305,-5,-139,130,-258,-305,118,-48,16,-64,222,-132,-153,-550,65,-18,-75,-512,136
,152,-183,-268,71,201,-335,108,28,-176,-81,-173,-446,-51,67,-9,445,280,-144,-210,216,593,73,-26,61,154,126,188,230,224,267,35
,-82,5,-20,70,193,73,-62,-149,-82,24,-59,-57,-38,-65,39,147,-263,-163,-17,154,-43,-1,-117,-292,-169,21,31,-84,-153,71,-63
,-82,84,-69,257,78,-53,47,228,38,67,-31,-8,207,-344,6,177,-149,72,-245,-403,172,-67,20,-143,672,101,-427,-241,242,-17,24
};

long weight_1_T_nvme0n1_1[2*256] = {
21,-337,-167,-378,-149,30,57,-508,121,47,-286,583,-71,174,-152,483,-357,-254,12,-32,359,-79,-16,61,295,-202,66,217,46,-240,-395,-481,-5,154,38,-40,148,-203,107,570,342,-470,-194,-746,55,243,126,-2,68,-441,-15,210,60,-78,84,69,84,-172,137,-210,-143,50,22,-77,-21,-581,121,-113,25,-165,-152,25,-394,323,-499,239,259,208,-686,-113,41,-84,29,355,-256,114,127,194,50,457,228,53,-371,33,-89,17,45,-219,-31,183,95,56,-47,-158,-193,-28,35,376,58,-69,-30,69,-198,1,52,381,117,214,-667,223,-274,400,-46,226,29,-378,266,3,-132,106,850,46,-402,-337,172,-75,72,-34,25,-16,65,-38,148,-227,166,60,262,390,-36,-173,198,-43,131,465,-185,-502,-155,614,-23,6,16,466,-23,-111,90,-124,-80,-8,-50,-61,-327,-230,66,212,-137,147,31,-307,65,53,714,-243,264,-461,-50,-489,659,157,238,74,-744,103,115,-18,-8,38,232,21,-202,54,78,-146,-213,-44,-6,8,-289,-364,313,292,-185,281,422,481,-314,379,264,50,-340,321,-60,-458,-384,44,-415,-5,-183,-366,129,254,-392,-131,88,-307,236,-36,-375,-248,119,-302,-22,350,296,72,-306,242,755,-63,-26,-6,116,35,-196,-669,25,88
,62,436,217,250,146,33,-100,520,-37,97,59,-521,181,61,-15,-686,339,313,18,-5,-258,161,-3,55,-319,117,86,-113,50,108,563,327,173,-5,-56,-93,-294,367,18,-565,-270,437,269,596,-266,-293,-206,21,-237,366,77,-87,-162,-111,-64,24,-247,355,-185,176,120,-200,20,134,-22,682,27,236,32,86,1,186,607,-297,735,-109,-304,-180,589,222,-89,108,22,-534,124,116,-1,-179,8,-452,-215,-267,443,3,42,27,-6,25,-38,-72,87,30,132,193,41,-7,10,-531,-84,-5,-3,82,175,-123,-164,-461,112,-315,762,-300,184,-264,-60,-227,40,358,-224,-127,-113,-82,-852,92,282,341,-46,4,-73,42,21,162,62,135,-136,393,131,-62,-69,-193,-85,75,-123,-148,-212,-395,176,546,214,-807,222,34,4,-397,-20,334,-117,193,188,5,152,-7,271,71,-30,-241,337,131,41,342,-191,230,-651,12,-193,331,0,524,-566,154,-416,-209,592,-66,140,46,-59,103,-46,24,233,49,69,144,280,332,26,-191,473,394,-142,-280,256,-434,-555,-367,260,-336,-444,-149,383,-341,140,476,347,44,444,13,327,336,97,-309,309,288,-106,164,-265,-169,208,458,117,314,-15,-262,-79,-29,371,-360,-612,-28,106,-77,-295,-101,244,572,26,-30
};

long bias_0_nvme0n1_1[1*256] = {
-430,-21,-288,-69,-232,-290,56,-18,73,200,-223,107,-148,163,-50,-122,-142,-152,-437,-30,88,13,-292,324,-236,-214,-320,138,-301,14,-132,-103,-349,15,56,-1,-47,40,174,-154,86,30,-239,-133,-63,-135,-105,-241,28,-206,-256,172,65,108,-33,390,109,-159,-70,-12,-205,-73,160,-73,235,-32,-295,-221,-245,-182,-429,-189,-202,-41,80,59,91,34,-31,-123,-289,-130,348,-252,-213,-8,198,-105,215,-13,-143,-116,-90,392,-323,-371,-134,-96,13,60,437,431,10,236,-159,55,394,88,-243,-352,-418,373,5,36,-346,-74,399,110,82,-212,-127,17,348,-42,-238,-220,128,110,-32,196,-157,305,-56,68,-268,-197,137,9,289,-266,-7,-154,-102,-2,616,137,-154,-74,58,-16,-198,-278,-237,45,-314,-35,68,8,-135,0,331,-26,304,30,178,-17,-252,-399,-191,-304,97,-237,-299,-259,57,725,-344,-45,-131,256,4,-219,-10,138,-267,-265,10,1038,77,-1,-35,108,366,-194,-350,142,-47,-365,-106,-314,293,-234,-212,-41,145,56,-49,212,141,17,-169,-11,-61,-59,-87,-65,-239,74,-145,94,145,29,-248,-275,-44,-131,89,-161,455,-139,-50,-69,-68,-15,-8,47,-32,-195,112,-56,-370,159,-75,50,-147,-13,-53,-345,-266,106,-232,-314,23,-201,-379,67
};

long bias_1_nvme0n1_1[1*2] = {
495142,-413328
};

#endif
