
/* Trace */

/**
 *  updated on 04/21/2023 01:06:50
 */

#ifndef __W_NVME0N1_H
#define __W_NVME0N1_H

char name_nvme0n1[] = "Trace/nvme0n1";

long weight_0_T_nvme0n1[256*31] = {
27,-40,-121,93,247,-143,195,146,-24,34,-37,-108,263,-210,-265,-335,119,-198,-341,-357,108,173,46,-58,128,-174,100,-437,84,-33,-40
,-93,-3,-137,112,-7,-142,-24,47,-106,-142,62,-117,122,-162,-140,133,-69,-61,-158,29,111,-164,-39,-81,-94,24,-99,113,118,38,-155
,-66,-147,127,2,89,204,167,176,-618,50,-54,-95,-17,-351,188,-118,95,-33,-203,-476,-257,-129,-247,202,-149,-89,-199,328,-379,122,-13
,-93,-150,34,-123,95,-193,15,-2,-199,26,115,-182,44,-47,-77,241,217,116,-118,21,-234,0,-334,41,-378,-95,-186,53,126,215,81
,210,35,3,60,-48,9,12,51,18,-218,-146,28,-867,-155,21,-191,-37,-17,-4,-393,29,-33,28,-342,15,-5,49,-411,73,35,21
,-40,-50,-46,-14,-80,0,-12,-71,-69,203,-72,37,434,-32,-65,-118,152,-5,-162,14,-41,-114,98,87,-65,-25,102,140,-141,-1,-44
,-64,-33,32,7,-171,-57,53,19,36,-113,38,-139,-246,-194,-73,28,16,15,-81,-107,-15,-177,-169,154,31,52,-172,131,-136,-1,58
,-161,170,-68,128,-106,-71,-32,60,-66,-223,-69,-91,-636,-100,17,96,-150,85,-23,-247,-37,29,17,-56,-53,-63,9,-168,-42,-104,10
,43,-13,-137,143,51,-10,121,-160,-320,167,98,-76,295,83,-18,303,351,117,-199,-45,-346,-195,11,-275,157,57,-182,228,180,5,-78
,25,-125,148,-18,-308,-166,-22,101,-79,-305,-292,-242,-165,-187,56,116,74,62,220,305,-80,-235,2,211,-322,190,-199,152,-228,-50,13
,162,8,0,191,98,-88,140,96,0,11,21,-337,31,-30,-132,124,-39,-364,15,-534,-97,277,-394,202,239,53,-78,213,-49,-72,-111
,106,-11,-84,86,202,75,7,175,-139,147,40,-165,-262,242,80,436,-147,-245,44,108,75,-76,-151,-551,-302,-57,-229,576,30,-249,195
,-59,-164,-51,101,-239,24,-70,-321,-412,94,72,-71,-54,-195,-170,75,254,45,-72,171,314,25,-18,-117,-480,19,91,-2,70,-152,179
,-100,-45,-197,-99,-41,26,-72,-134,-154,66,23,-40,-56,77,-133,-168,192,79,-74,-86,-2,-138,95,-15,135,-17,-244,245,-53,-31,-73
,40,24,-162,154,132,2,49,105,-392,-132,-218,178,-101,141,-210,323,-23,-58,-336,-13,-185,-244,8,107,48,-192,-90,62,71,172,46
,-454,-204,72,198,218,-119,458,-30,-290,398,92,16,217,181,75,514,-91,-121,-45,364,-78,-70,-235,78,-510,106,-76,142,-57,101,99
,161,68,-117,323,-351,93,-47,78,133,80,-53,-290,126,-11,-342,-288,-196,-170,143,546,154,-177,152,48,-131,-99,-6,-188,-233,105,-10
,44,-26,56,46,-93,45,-75,133,-18,-21,-49,14,-154,28,-293,-198,-141,-322,-188,21,154,1,-24,-132,-208,135,-372,161,214,-120,-151
,43,92,-48,-18,-53,-141,-41,-80,-46,-31,-81,71,-32,61,-120,-120,-19,-80,-68,-107,-13,19,59,100,-93,-41,12,66,-140,-130,9
,-121,-127,136,-206,46,-253,173,55,-69,531,-120,182,294,-116,-125,-852,-283,44,-123,-49,104,-128,106,15,-621,-348,-158,518,179,208,3
,275,-70,-512,40,161,-144,-69,23,84,-167,59,10,-343,-392,-11,-117,71,-192,127,477,158,148,-170,-77,212,-187,101,598,-233,-161,-197
,31,-110,-106,-635,57,-120,-795,-7,-18,-803,215,35,-1129,-107,-297,555,14,20,-316,380,44,81,70,319,11,-318,-80,494,205,172,-70
,-15,20,114,358,-59,-461,165,-83,-128,264,224,-94,122,-62,-111,228,287,-250,-117,629,-135,-10,-241,-312,-65,174,-166,295,-71,-6,69
,-66,94,15,-96,93,-73,-124,-81,-61,-78,-5,-107,-154,-100,-90,29,5,9,22,30,20,-148,25,-26,-86,-167,-107,-20,-66,65,-96
,-19,-45,96,54,-147,-29,19,-7,-42,-138,-111,-58,-95,91,-102,-14,-89,-100,-82,-98,-35,-139,-44,-50,-14,54,65,129,-63,-37,-95
,-131,-108,-93,-50,-127,-22,-47,-149,23,-139,-136,38,-122,-149,32,101,23,60,-17,105,-120,-76,41,-9,-63,-90,-119,53,65,-116,-106
,-117,128,-319,-39,-145,-59,322,-264,50,158,-50,-185,-114,138,13,688,220,-189,41,225,-18,-170,203,448,112,-112,72,54,46,17,-240
,-195,-12,-49,-26,-144,15,108,-135,63,-37,31,-84,178,-4,-33,107,9,-92,29,-72,28,56,29,-161,-57,-116,-115,46,-89,-152,-89
,65,-69,51,-134,-9,-33,-193,-2,30,-37,-12,-169,-59,-192,-217,417,-510,41,-89,115,104,-357,-62,362,-21,-211,251,177,272,-25,-55
,-98,-71,2,19,-64,-117,110,71,32,-13,47,-105,-32,-216,-74,-154,-30,33,-14,-19,-140,-17,54,412,-161,-134,30,145,-84,-38,-270
,-99,62,-190,-276,104,-180,-296,-154,-77,-35,152,2,-120,-193,-288,148,324,-132,162,-189,58,-166,80,171,-392,102,-76,550,91,-69,-146
,33,-140,-9,86,-133,-7,-118,34,10,-21,-191,-55,3,29,-132,-122,-75,8,-26,-128,-107,-88,-110,107,36,-85,-40,-128,-176,76,-102
,-102,-23,128,-346,221,59,-14,291,-148,318,-25,11,815,-191,-242,93,149,35,61,200,-190,-84,93,334,-565,-57,-58,35,-142,-248,29
,-84,-29,81,13,42,-115,-88,-61,96,-86,203,-128,-420,-59,123,101,2,90,-122,347,-224,-228,-43,-351,204,122,-157,19,7,-332,-299
,-38,-35,-59,-146,-46,28,-14,5,-9,297,82,35,397,65,-29,120,-112,-119,6,43,-66,-70,-68,11,-158,-150,-77,213,-27,-98,-13
,-2,-101,-147,152,-81,-24,31,-53,-149,140,-137,52,-69,-17,44,-124,-11,-58,-162,233,79,-60,17,-188,90,-2,-49,-131,-163,12,-97
,269,-13,187,-86,68,-94,187,36,-205,84,173,-261,21,21,217,-9,-19,-458,-261,-141,-73,-82,7,180,63,141,-298,55,75,-71,32
,17,-118,-26,64,-64,-44,-93,-157,-94,-5,27,-5,71,-3,69,99,11,-122,-66,-100,68,-96,-72,-27,33,-38,-90,112,106,-38,-48
,-95,100,83,-257,84,68,36,-81,-18,15,98,-529,-29,27,-355,-314,7,48,77,483,11,201,-43,50,-290,26,-232,105,-78,-181,-43
,-51,-16,-181,37,-278,-4,21,173,-246,162,48,-65,-188,155,43,-235,146,118,46,201,-578,-309,-274,-437,75,-155,36,583,103,9,42
,30,-173,76,212,207,-256,186,136,-344,133,-128,-10,-29,-142,-22,494,248,-363,211,56,108,-100,34,51,148,10,-155,9,-310,-165,-22
,31,-24,-89,92,15,-4,50,-136,57,-118,-125,-299,242,-203,124,176,246,66,-377,-138,264,105,-577,5,-267,-209,-44,617,-86,23,123
,-29,172,131,-100,123,-22,-256,-281,-35,-245,109,-344,-142,-211,-188,-480,203,32,122,122,-178,-452,-27,178,208,-31,-28,213,-228,-245,64
,15,67,57,9,-16,-9,1,-145,-8,58,26,-79,492,-106,-133,-98,95,-179,-82,-7,33,-96,22,230,124,-19,-92,370,103,-147,-9
,-528,89,-57,101,-78,-138,24,-41,117,-77,65,61,116,34,-92,-213,-180,-66,-180,38,21,-103,51,40,-159,25,-80,381,-14,84,-150
,87,28,-408,225,18,81,435,370,-5,181,-43,-171,210,239,-297,-240,-219,130,-35,-12,-292,170,-207,149,-149,45,-21,104,-183,-155,-239
,-191,70,-55,234,-115,-159,-105,106,-141,-124,75,-31,-436,73,-117,-83,-104,43,29,-71,-132,-52,3,-48,-184,-35,91,40,-159,-216,35
,-109,67,71,-74,-64,-46,-173,-59,-71,-329,-125,-1,-477,-20,-35,-105,19,-33,23,-144,-12,-15,-24,-25,-104,12,-43,-115,-10,-32,-117
,-73,-32,-121,-140,228,-193,0,12,-230,14,50,192,150,-110,-427,509,-175,-197,-238,225,-79,40,-201,60,0,27,159,-56,5,25,-42
,313,-260,33,281,16,-251,364,-79,-348,428,-16,199,432,-331,-393,415,163,-76,147,-47,-261,73,17,186,-21,-165,77,82,45,82,5
,-302,-149,-26,148,-486,107,-277,117,134,-350,201,-537,-379,46,-333,370,118,123,-272,-30,-154,-10,-40,84,-179,-120,-100,-159,153,-254,64
,198,161,-117,-119,32,199,-111,-217,198,65,149,17,68,-146,-291,261,-139,92,-152,28,259,-64,-201,190,136,5,-179,17,-275,-348,-356
,33,-43,81,152,-69,-102,291,150,-98,579,-8,-97,801,281,195,637,-22,91,-15,94,-147,-110,-81,171,196,-27,-243,-90,-286,-253,56
,-22,-59,118,-277,-64,78,-356,-294,150,-231,-18,-179,-268,250,-100,490,199,18,-95,176,-28,-116,-56,399,142,-188,100,-73,-203,-214,-384
,-60,-175,67,-105,-57,-177,-81,72,239,-269,-359,-62,-273,-97,147,460,130,61,-148,321,-137,133,-149,497,149,-169,-106,169,27,-441,-49
,77,-56,56,149,-171,-41,122,3,103,-224,221,-107,-163,-30,-14,172,106,185,154,-115,-79,20,-343,-141,-391,-226,-520,7,36,-345,-139
,76,138,-357,82,-268,-16,-44,-21,79,121,-75,-42,-148,161,-276,-104,-213,-280,-116,42,-494,-13,63,334,-87,122,99,229,160,-141,188
,19,10,-91,33,-40,-43,24,-84,-72,69,-99,-124,-13,68,-61,-18,-2,48,-9,-128,96,-62,-31,44,3,62,-131,-73,-80,-100,26
,175,48,-129,-492,26,21,-263,76,102,226,-15,16,599,-90,-218,454,-38,-81,0,194,-208,87,-135,470,-48,-70,-47,327,27,-7,-50
,51,112,-216,208,170,51,-133,-135,69,-24,113,-321,42,321,-113,130,-27,-120,-163,186,-102,61,134,212,-134,-128,-471,-277,-58,-359,60
,100,7,-90,-140,-143,-5,-104,-13,-75,-232,-21,-153,-412,14,59,-7,1,6,-26,-128,-53,-85,-60,-2,-37,36,-41,67,-56,19,-96
,-22,76,-155,76,235,130,-17,-37,114,22,138,-71,-95,-94,-392,-145,-466,-222,144,-386,36,-232,-194,-268,-74,49,-111,246,81,43,-22
,-147,-83,-178,-165,-11,86,-77,-34,-275,-17,-130,-177,-118,-35,14,-351,9,-129,64,-3,68,129,59,159,67,-161,-178,-337,168,-34,-104
,-55,-150,-140,-118,-10,57,-115,-152,-130,3,-138,18,-90,-161,63,-105,-12,-95,-140,34,78,-65,-95,50,-5,97,12,-105,37,-137,-34
,-72,-2,-7,68,37,-40,-81,9,39,333,-31,-119,622,-56,37,-58,35,-121,-151,53,62,27,8,-97,25,-28,-76,369,-100,26,-18
,-527,51,-378,-448,-64,-249,-398,250,-76,60,136,91,406,404,-95,-286,36,70,-215,400,62,-120,-105,-54,-436,143,-304,-269,-87,-185,-134
,162,-184,-33,285,174,-2,19,34,18,-136,129,-136,-127,39,-180,-477,-45,-257,-57,-395,88,202,-92,528,-17,-80,-216,-13,-232,40,187
,-65,19,-9,33,14,-165,-243,-88,-127,-216,65,-79,-195,-128,-71,-42,24,-68,68,-148,-103,-151,35,-114,44,1,36,16,-34,-6,-40
,-280,224,-112,560,97,9,-8,154,41,-198,248,-265,267,154,-180,-879,-472,15,-69,-1029,-406,-31,-109,352,57,-179,-20,9,-196,-282,226
,-305,129,28,-142,-230,-50,33,69,-102,228,18,43,-28,97,49,-60,48,-98,52,361,288,-374,113,305,-515,117,-39,-149,-729,-172,-114
,-173,-20,-217,-69,-206,-107,1,-79,128,61,175,-182,103,28,-82,339,168,-264,-389,-126,107,109,83,349,-106,205,-35,-64,-436,-43,16
,169,0,-185,125,54,22,-41,81,54,-140,-70,34,-345,-104,-180,61,-189,-166,-181,-132,-24,6,26,-257,72,-114,26,80,-30,18,-70
,293,-77,-118,151,60,-9,180,-162,-39,183,344,26,-533,-183,7,-159,-62,50,-57,-343,106,-29,-68,350,-27,114,-11,47,-164,-28,-60
,382,-233,-271,-160,-102,-104,504,-42,-123,376,108,-92,-56,-57,82,-269,-92,-153,130,-849,236,-100,-31,196,-85,107,-37,-267,154,3,-3
,-330,228,144,703,4,-213,173,169,188,307,201,-296,349,21,193,95,-273,-355,-89,-803,-44,-131,-268,158,-324,18,-8,261,-135,-110,34
,123,-131,-59,110,110,-134,-65,-3,-74,-31,-131,46,86,-48,42,-18,-63,-41,-11,22,17,-152,-39,124,-7,-120,-101,-52,92,-40,-184
,83,14,-20,-90,-150,164,-5,108,-97,106,67,-127,261,0,84,-8,-170,-47,-297,509,178,48,-16,-174,-33,-22,32,40,-463,-104,-146
,-6,-267,-205,-34,-76,-30,75,131,45,-129,-214,-43,-95,-158,105,115,242,97,-336,-61,65,-37,-207,321,181,99,-109,335,-322,71,-285
,149,219,-61,373,4,-16,-92,269,150,-89,147,-89,-415,-174,-115,451,-319,-41,-74,659,53,-13,-233,-193,99,96,-128,405,-65,-44,-289
,200,-136,-17,83,-53,-50,-31,27,-84,-231,-233,-95,-234,9,-248,-309,-166,-40,-84,12,77,67,-227,-194,8,42,-125,156,-18,107,0
,-67,-81,68,-132,74,-137,44,109,-89,-71,-79,-141,-18,-130,94,-158,-56,-366,223,567,232,-363,-387,122,43,-99,70,-175,-500,27,5
,-189,37,191,-186,29,-227,93,-96,-88,81,26,38,166,103,-9,312,283,118,-192,-266,-71,-2,-82,-27,-3,-175,-183,68,-205,-162,31
,-54,48,-218,24,40,5,14,-181,11,-62,-192,-191,-431,23,-91,-4,-49,45,-110,4,-26,6,67,202,-102,-74,91,-289,-119,-112,-135
,317,-176,-46,283,142,-289,285,122,60,91,-19,93,-152,-19,38,-124,-216,123,93,-161,73,-164,-139,119,61,-266,-156,3,-72,-160,9
,-230,-111,-109,-184,-239,25,-110,-3,24,-3,-100,-130,145,-4,-314,671,-167,10,-151,575,-125,51,76,-90,163,-170,-114,275,305,115,-60
,-5,-268,116,88,-90,-257,51,98,-174,11,121,-49,-336,106,-206,196,-22,5,35,42,164,-176,180,471,-198,86,-275,-245,89,-211,-35
,-166,-202,67,-105,-122,-54,-344,-195,-28,-505,239,27,-250,324,-192,65,170,-121,-27,25,83,38,12,152,147,10,-141,725,-36,-170,-57
,173,10,-111,388,-232,-173,317,72,-4,383,-177,-77,-5,53,-14,19,95,-54,-117,129,102,-87,-55,45,136,-145,48,63,44,-89,-187
,-3,-18,125,102,-146,-164,19,142,-300,107,-93,5,232,-75,-222,-136,121,-15,99,-73,-10,-46,127,-192,-334,-115,17,-210,-138,26,120
,-10,22,-46,32,-54,-16,-111,24,-213,-84,-139,-68,-170,128,-158,30,127,-53,18,154,-12,-28,-26,-114,-43,-23,-140,-127,-120,-78,-41
,139,89,-44,-32,29,-238,218,107,82,236,-304,-392,257,29,-28,178,201,31,-245,18,16,-110,-336,250,-216,73,-87,-175,1,118,-38
,-186,254,-144,-650,-134,-475,-195,-131,-6,-321,-8,2,-534,256,-125,-57,-248,164,195,-411,122,-64,-52,-261,-370,-246,-194,294,-275,44,9
,314,-67,-23,234,48,-420,211,-286,50,211,-358,-245,112,141,43,-26,216,-171,101,-29,134,164,-336,212,92,-60,61,118,-71,11,2
,-163,47,72,51,-201,-18,-142,27,-205,-161,14,33,-163,-132,-217,-34,97,-92,-31,-109,-16,57,-19,-41,-24,33,23,-118,-80,-215,-207
,-86,48,6,51,66,29,85,-17,-11,-81,144,24,208,149,28,184,61,4,19,278,55,34,11,250,42,11,6,388,11,20,-3
,-111,-218,35,35,101,-81,-118,-158,-118,-183,18,29,-160,-177,-65,115,-8,44,2,-41,-84,-49,-29,60,-69,35,-95,0,-22,27,-56
,218,43,110,105,-203,162,-83,45,-140,-373,-220,60,-297,-214,-95,492,55,-336,31,-559,-222,-343,-48,454,38,179,-92,-121,-20,93,-397
,-22,-92,-8,204,-94,-13,-24,54,-46,166,-89,-25,-45,55,-199,129,-159,-112,-133,70,-121,36,-15,-100,-95,-48,-56,-42,-13,-21,-140
,236,-78,-343,300,-23,-199,176,-152,-96,354,-209,-255,-132,-92,64,188,97,40,71,74,-7,162,-21,420,135,-154,39,428,3,-327,195
,219,-23,63,403,101,109,3,220,-543,35,130,-175,218,-129,-110,557,-302,-8,-64,81,147,-245,-121,-350,-86,-238,-40,-37,91,264,-221
,2,207,-274,-154,-74,-69,383,117,-246,525,3,-81,36,-12,176,40,30,-56,227,-44,-420,40,-16,-160,166,-296,-103,293,-410,-268,-30
,-99,12,-42,-20,-123,-283,99,4,118,71,85,1,171,-30,-200,-101,-86,66,-91,29,-66,-71,-143,340,161,31,-282,-174,-103,92,-90
,22,-52,59,-279,295,-17,-47,181,-123,111,166,-153,-66,-107,-192,444,75,-13,-466,-274,-95,173,-294,-689,-499,165,-64,-565,-36,-197,-108
,-178,108,-5,-188,193,109,-213,280,-250,92,87,-53,32,-6,192,-190,-110,-164,-214,-613,321,-67,-70,139,-180,-229,-371,-186,-43,-154,-80
,143,-153,70,40,-190,-117,78,-159,-134,-35,71,-12,76,-6,-114,-186,-71,-216,62,-106,-80,46,50,134,-110,-5,61,252,-179,-41,-59
,-217,-240,-25,-86,338,76,-178,-13,-65,25,211,66,-227,181,-133,153,134,-181,-125,-317,-190,-163,-133,418,-68,72,-236,735,-137,-34,-68
,11,115,-116,70,181,-28,102,83,281,89,-59,-53,-94,125,-95,0,186,-293,-42,147,-53,-98,34,334,147,-127,-81,-41,-291,-209,5
,-145,203,-184,-10,138,62,-38,7,-101,199,-37,-413,35,64,16,49,-45,-227,-244,13,204,-207,79,18,124,7,-7,-580,54,129,-70
,-138,-20,-149,69,137,-87,185,135,145,25,201,152,-117,15,-121,-47,129,-677,-382,191,-101,-46,52,474,-91,-154,-81,221,18,51,-38
,131,-77,2,87,63,-122,106,111,-101,40,10,64,-6,111,-18,-202,-263,-82,-104,154,-158,136,-76,-6,-5,-172,-47,338,-51,-232,-190
,103,168,-33,210,51,-141,-94,194,-41,-72,-192,-272,-308,132,-24,-80,170,23,-231,214,-398,149,-155,-435,28,-3,3,156,-53,-7,-79
,-136,51,-93,-237,200,153,-25,139,120,452,78,98,343,-103,59,324,-197,89,-386,244,-223,-141,-166,354,-97,-40,-114,209,-96,-255,12
,23,-123,-69,42,-294,49,122,8,-232,-254,193,-162,-268,2,143,336,68,168,-248,-174,-171,-40,-117,-426,237,88,-237,512,-75,-164,39
,4,-142,-88,92,-47,21,94,-187,-11,-120,-12,-76,-143,61,39,-133,-2,-70,40,-23,5,-8,-64,45,-66,24,56,124,-94,-110,-141
,-188,-124,-102,202,30,-165,250,69,-36,123,-68,3,231,244,151,364,149,-53,-226,-928,-47,-63,-210,591,71,-118,130,360,10,27,-13
,43,-196,139,49,137,131,100,-64,-396,114,-275,-485,8,8,-178,-130,36,-113,60,-141,163,-76,-69,458,-494,-457,-142,-113,-114,73,54
,73,231,135,474,183,105,-125,14,-154,34,281,32,-229,-145,-59,53,-112,-106,-123,375,-65,-82,-179,-379,-164,-272,-143,20,-329,-53,96
,0,38,-160,422,-146,8,489,36,149,434,-146,-13,304,179,83,76,-130,-75,-350,-398,-228,-74,47,551,118,20,-13,98,-692,-20,55
,-220,20,93,-74,-38,19,301,150,-15,527,-396,153,484,132,-400,478,139,-10,-692,-970,-149,-133,-277,-209,-582,-148,55,-339,123,90,61
,52,12,20,5,-183,-48,198,84,-114,295,79,-35,238,-83,-70,54,81,-129,-172,70,-113,20,-65,-166,140,-14,-63,-108,-178,22,-62
,17,-220,90,-62,121,-226,124,-12,-66,93,94,-214,186,1,-93,474,255,-254,12,-47,168,-2,-306,195,132,60,82,189,39,-161,144
,349,-92,-114,70,-95,-61,418,-62,173,365,160,-19,-418,45,-6,-62,-147,38,-28,7,-18,-25,25,-25,-208,-96,-145,-21,-102,-240,9
,38,163,53,-98,138,-28,41,59,-55,-139,-160,-143,-293,-12,53,-211,50,-74,113,-137,93,-55,-148,-339,-92,-154,-69,208,99,-116,-124
,-33,-32,-78,33,-121,24,-98,-107,10,-290,6,70,-419,48,-159,53,-140,19,-112,-42,-104,-50,-172,12,36,34,-54,-140,-72,-54,-4
,96,-154,-7,22,30,-56,124,166,-52,655,-179,-309,591,94,115,387,-87,117,-243,68,113,83,-333,464,16,12,71,285,-605,77,-31
,-191,325,-37,-245,87,95,-146,133,-109,-14,-1,37,-126,-91,135,382,122,-12,-66,26,-428,-281,-8,557,20,28,-100,342,-283,-186,-93
,-109,-144,62,-51,-12,-21,-199,-121,-140,-57,-16,59,-103,-57,3,157,-97,-282,67,-191,-29,-93,-96,-30,-114,-68,29,38,-134,43,-114
,-326,112,-145,-95,-648,-198,-85,68,98,139,172,-81,56,-119,-166,61,-354,-85,-358,-535,50,24,105,395,346,199,91,176,80,-248,-99
,-74,51,67,22,-78,12,-15,-83,5,253,-170,-110,585,-94,-71,-10,71,-14,-6,-83,47,-72,-2,141,29,21,-51,262,-73,-19,12
,-244,117,-86,-126,-26,81,14,-186,-81,150,-171,11,-112,15,-18,135,3,-106,-65,168,-62,26,-51,71,-39,51,-68,-240,-37,-143,-13
,-128,-43,-99,93,70,-27,25,26,-42,210,108,26,793,138,51,34,-98,-54,-64,414,75,20,-43,330,97,-3,-64,397,61,-80,37
,11,-74,-148,-87,-135,-98,57,71,-126,122,-113,15,-40,-170,-79,6,89,-170,-22,-94,-4,-53,-76,-18,-146,47,-16,-58,72,-138,86
,301,-262,-168,226,-158,123,183,165,-26,408,-35,-172,250,64,-149,282,95,-180,77,268,-324,154,309,468,-567,-268,-199,136,-192,-290,-62
,153,-147,42,67,60,-17,126,-18,-305,259,-310,98,99,-143,-94,221,6,-28,65,214,-153,-230,-84,260,5,-207,26,-15,-25,-59,-149
,267,-156,-47,25,-104,-15,106,128,-168,-5,376,-224,-19,397,-97,53,-128,-80,-71,-428,-10,-88,-175,255,-380,72,-70,83,-39,27,90
,558,313,92,-199,178,-339,-417,177,62,-485,32,21,-123,-39,-189,84,-237,-24,-278,-46,-153,-229,-87,346,51,-13,171,219,-246,-22,-141
,-389,145,41,-253,-8,-151,-185,96,123,-87,-131,-184,-320,77,-246,228,116,25,-88,682,56,70,-186,443,132,50,27,-41,-226,46,-389
,214,-215,-128,33,45,-198,118,-29,-176,26,66,-152,51,-110,275,43,123,197,-6,-321,206,-66,52,149,40,-231,-216,81,-51,-349,-38
,-334,-109,136,-159,154,-133,-537,128,-167,-368,-167,-179,-281,343,230,395,-71,-61,-85,376,-177,-279,-412,173,209,-75,-183,-71,17,-144,91
,-37,-288,-92,-12,-185,-42,-60,287,-451,119,237,177,-16,-317,-75,-131,-90,-3,-110,-304,-366,-75,37,-195,-347,139,190,347,41,-532,-70
,-46,-101,133,-325,42,205,187,-59,-212,-89,67,-83,-74,-365,89,478,-273,-396,159,113,-377,-19,22,-417,107,-177,-251,607,-124,-77,63
,-53,163,-116,-33,-272,112,-130,-147,-61,-13,291,-134,-437,14,-203,-211,-155,-168,92,234,75,-57,155,-95,130,-17,-189,-28,-89,-167,-61
,-72,-95,-48,-32,114,109,24,-201,-40,0,12,-66,184,24,40,290,-265,-369,-44,-18,-129,62,113,143,-45,-58,-104,803,159,10,-67
,-36,-200,-108,-209,79,-211,-74,-45,-5,-277,118,34,-160,26,8,-145,-207,32,-90,-3,-25,-158,-22,24,-91,44,-140,74,-8,-219,-29
,-3,158,-34,56,117,-228,51,150,-133,132,321,110,-51,-344,78,264,-127,30,36,-295,-232,-67,-92,227,-63,-322,151,-177,-138,-417,-112
,585,-212,43,793,-42,-70,177,82,70,-225,-109,-65,-787,-3,-69,-168,53,111,9,33,-122,30,-45,-117,-11,26,-89,-553,9,-7,18
,476,237,-467,-517,-241,111,388,20,-63,-87,139,141,-15,212,-471,-216,260,-233,-97,95,17,91,11,-712,-1,-107,-48,-153,-583,-94,36
,-829,-322,-100,-295,276,244,-751,-67,-254,-382,117,36,8,-99,-99,672,-286,-222,-40,312,204,44,-175,-4,224,22,-173,-321,-136,-56,4
,93,-92,-131,165,-88,-108,30,-8,-67,-196,207,-68,-489,-179,-55,220,-168,49,-10,-46,24,-33,67,477,-6,-26,-141,117,-7,-91,-30
,-194,35,72,-279,-6,93,-1,140,-212,-77,116,-32,23,248,-269,600,-45,-298,26,165,-55,103,-21,-540,-190,-42,-61,80,-20,173,-417
,326,209,74,9,35,-215,44,355,199,57,-101,-355,39,-18,-429,511,171,-77,-28,-148,55,-61,-179,150,-237,9,5,400,-239,-124,-126
,11,10,-117,-56,-45,-140,111,-162,-69,245,-34,-71,337,21,-36,-92,25,-24,15,214,-117,-129,51,-113,-41,-3,44,314,56,-40,58
,316,402,100,-88,170,-49,315,35,-88,227,74,-412,58,-128,36,-95,216,-101,108,187,-321,-255,-453,-31,161,-21,-123,-238,-279,35,-89
,38,-140,111,79,60,215,446,46,-155,-14,-80,73,-2,-231,-158,2,-14,1,-158,630,-95,1,-288,-1,-68,0,-114,9,156,-172,-39
,210,-276,154,221,-291,-174,265,-111,-192,384,-276,90,241,229,-31,-80,67,-51,-366,140,38,118,-140,57,-34,41,100,-359,34,-78,-8
,-70,26,-305,42,120,-30,-164,7,91,-3,-171,-228,204,124,-260,122,257,-247,92,337,-574,-113,-9,-215,203,0,-91,-235,285,14,-67
,27,118,39,-107,101,-267,-183,-128,-83,-164,-21,-15,-458,-42,-117,183,-151,25,86,-361,25,-182,-147,-109,35,22,-28,508,-32,-114,-122
,81,-188,215,-146,22,-138,-121,-161,-71,-142,-78,-132,-75,50,-105,-525,41,-260,58,61,-167,-54,-361,-302,179,32,40,284,-336,203,-185
,458,-151,10,63,-154,-307,381,113,26,396,56,56,362,11,-285,-301,114,-188,65,-750,-187,222,122,-107,57,-83,-45,-480,-109,-57,-398
,201,115,-231,24,-140,1,155,122,-86,-108,-186,-98,-175,-206,-76,459,-177,179,-76,-85,207,-282,24,124,133,-27,-263,328,-273,45,127
,133,-52,-52,231,68,-67,-28,-87,-170,-52,-27,-14,-455,-210,-34,93,175,-43,-31,12,139,75,-23,-322,-117,14,-276,-135,106,-99,136
,-4,-62,8,153,70,-56,101,-254,24,-97,-329,69,124,-193,-53,-140,-191,-223,-55,-62,3,145,-10,307,131,-51,57,939,-23,-139,-67
,0,-46,-50,-235,265,132,-192,-43,-433,-65,176,6,-48,-46,-58,-119,-32,-106,214,585,133,-17,-247,-38,-15,-205,-144,502,23,14,-119
,18,205,-241,-104,133,-100,-411,-138,24,-20,-122,-96,33,-161,98,-129,9,-12,190,489,407,-187,-148,15,109,-76,-85,108,-164,-148,-102
,-86,-51,-7,-78,24,29,-43,56,-81,-519,-42,20,-468,-197,-33,236,12,50,-118,-66,-11,-52,-21,-281,14,-98,-204,57,34,38,-49
,60,-271,-164,68,239,101,88,-337,-309,-36,-95,-417,128,-93,-1144,40,272,-357,-50,342,9,188,-10,114,-27,36,-312,-123,-120,143,-35
,-71,188,141,66,-218,-107,-92,-50,-152,41,96,-158,-337,100,-344,-244,219,-228,31,17,-83,191,49,-115,-134,51,-65,226,-68,-397,-127
,-90,24,-60,290,33,-9,214,6,2,-227,133,-68,-270,-236,-147,-215,171,-53,105,84,128,-46,-324,-266,250,-114,-250,298,-114,-103,77
,-89,-126,120,76,-12,-95,125,144,-65,24,-46,77,11,281,-276,492,-251,-30,4,-403,19,-127,61,-572,-77,-120,105,424,-644,-98,-1
,-56,-21,-207,182,119,-117,-52,129,82,-133,-117,36,-501,-81,1,9,-143,13,-186,140,-37,-265,76,-328,41,68,-141,-296,187,54,-159
,165,72,-249,-56,124,-561,128,220,-261,35,213,-235,-150,-59,48,-6,-94,-128,91,606,132,-104,-7,-217,-151,-13,-72,229,-14,16,-213
,-72,-141,-76,133,-123,6,-50,-58,-40,82,-159,-163,-131,-136,-77,107,-133,-57,63,-16,-41,80,-80,86,50,-144,-43,-121,-36,-28,-114
,-109,31,-4,-119,-95,25,56,-141,-23,180,-176,-67,280,-91,12,-80,12,-68,-21,76,24,22,39,-46,56,60,-175,18,-29,-18,-127
,-196,145,67,20,-67,-68,169,192,-129,253,-76,-100,388,235,118,304,-300,-181,60,262,112,-150,-109,389,54,56,-338,151,194,-52,36
,-86,32,-80,-123,-50,77,-28,21,-11,175,224,188,36,-126,33,-495,-46,-250,-337,200,-71,-33,-89,135,-99,248,-67,-7,56,-169,-136
,-93,-114,10,-109,-75,-71,90,-140,56,195,-60,-69,328,78,-70,-31,-171,-50,-28,236,90,-151,-108,270,38,-29,9,-60,82,-149,-128
,-206,158,10,-358,160,-53,40,-87,-126,-66,-359,47,-54,195,-99,-555,14,-32,23,-56,-103,32,-52,-50,33,-110,1,-199,78,-96,-121
,140,-73,28,-65,-13,-242,-28,-98,62,-4,-95,-47,-116,-87,-172,-221,-157,8,-45,21,-11,16,-95,-49,-14,49,-60,-70,-84,-182,68
,52,-102,-13,-10,-17,-110,-101,-108,-111,1,-34,-73,142,35,-4,-144,-52,-141,-37,4,-80,-23,32,116,-143,-90,65,86,109,-14,-89
,14,30,-81,138,221,-34,-306,36,-87,-126,-453,191,-116,127,-94,54,215,-11,-26,288,56,-111,-158,103,-315,-86,-55,125,-86,-8,-11
,24,160,49,-111,-171,-122,-134,1,5,-155,-188,-144,-356,227,-114,-413,88,9,-51,43,-185,-15,-72,65,-36,-114,139,154,73,-148,49
,30,-6,-86,67,-94,-180,211,44,-107,-196,221,-97,-347,91,247,246,-555,-117,-82,291,210,-165,110,257,131,-41,-240,527,130,0,-158
,-107,85,22,-162,-119,40,34,-211,-88,133,-344,85,-86,-184,-38,865,229,-436,19,59,-65,184,-16,121,-48,1,-85,530,33,-352,-197
,-120,257,69,-31,244,-14,-267,-169,-35,101,129,-53,-115,-168,-77,-1500,119,-35,76,-111,-392,-45,155,374,-344,-51,-101,418,-275,43,-716
,-334,132,-12,-570,-221,-136,-408,215,-71,-734,72,-403,-772,158,-382,269,-8,-128,65,472,206,-92,72,371,-258,-32,-104,164,-43,229,75
,-33,-41,-127,-27,29,-90,25,-43,-81,140,27,-53,483,-44,-102,207,32,-108,96,-17,-135,-3,-26,-32,-53,-36,-75,96,43,-15,-18
,54,-109,-94,-72,65,-80,-99,-158,-137,-101,-148,-55,-24,-196,92,107,-115,-120,-51,-23,-46,61,-13,-188,-105,77,-8,273,-21,17,10
,-64,-112,-326,-9,183,-113,-123,-2,118,-94,108,-676,157,106,-228,-415,-350,-5,45,-710,-21,79,230,51,-3,-369,-9,263,48,-153,-132
,-176,-49,-68,-189,-82,80,-69,187,-43,120,16,-62,220,158,-169,108,-233,-128,17,-42,45,-196,43,160,171,-98,125,-61,-326,-58,7
,56,15,-80,142,-77,-28,172,-53,-62,271,-17,-183,323,-245,1,174,-95,40,72,106,76,-38,-183,-264,-90,-26,-57,-79,-158,-78,37
,116,194,8,190,176,237,27,-297,-88,-41,135,135,151,-21,-121,-163,162,-241,-163,21,-186,-46,-219,232,-41,-288,-132,-39,-298,109,-49
,-305,112,33,-96,-41,-4,81,141,42,39,-472,-43,14,173,-406,377,-425,241,42,242,152,-180,-448,-133,-43,-232,-7,618,-176,4,-306
,62,108,-239,-411,-87,-290,-218,192,-109,-144,31,70,-313,-93,-231,386,33,-300,28,-205,111,214,88,31,108,-128,38,274,-11,-89,-64
,-178,21,-322,232,-88,92,86,-328,6,229,174,109,231,-31,-5,-214,113,-137,-98,39,-278,-120,215,595,118,-147,-186,428,-44,105,-134
,398,-113,-45,-79,-28,-203,158,-259,-112,88,257,-63,-530,66,161,491,-21,-191,-115,-341,135,-176,-3,-228,101,159,19,-537,59,-180,54
,-208,218,-240,-228,-171,157,-248,139,-186,-244,428,-220,-215,51,-62,-99,-64,-367,-123,-525,-384,101,27,-933,-307,98,72,251,-324,12,-17
,129,-86,-6,123,215,76,37,96,-362,-5,-14,178,191,-106,155,-71,-255,-302,170,214,-213,-363,26,448,5,-425,-237,-63,25,100,-222
,-93,-23,-339,-62,-124,17,-84,150,-318,144,256,-354,111,-197,-215,-598,66,-126,-122,105,-86,204,98,550,-87,8,161,-555,-80,53,-219
,-24,-152,-13,-29,-25,-139,-79,-76,-41,82,41,-103,-71,-64,-148,-157,100,-82,-155,-85,-66,-12,35,-101,86,-9,56,0,63,-37,-98
,202,108,38,8,114,-124,206,-81,-16,376,-114,-126,392,18,56,451,113,-135,-277,-441,27,-78,-111,40,-43,52,-74,646,-149,63,195
,225,-6,4,171,-272,-48,184,-298,-527,36,-67,-201,-123,142,191,-84,-184,125,-96,92,190,-158,-256,-151,-46,167,84,8,40,-59,-108
,29,19,-117,-91,-76,41,42,41,-182,5,-1,-302,-96,-126,-270,-359,184,181,-145,221,-292,-33,220,-578,239,97,-120,219,-167,-184,-196
,166,-117,-137,70,121,-78,64,-93,-54,230,45,-43,393,57,66,185,-35,-45,50,-46,79,-59,-63,115,14,22,50,158,-185,-128,-15
,161,-34,-361,438,195,-233,119,290,-38,-45,212,-63,-140,186,-212,350,-17,38,-222,43,74,24,-183,68,233,21,-110,0,-421,-202,64
,-377,68,-39,-340,258,-335,-23,183,138,-19,144,-168,328,292,-171,359,52,-96,16,368,-68,64,-59,-277,199,-90,-101,87,-251,-147,-206
,14,110,-181,-107,1,23,-93,-6,170,-138,-100,-104,-124,-125,-72,53,-50,-359,-117,141,-165,47,260,-446,107,-216,88,-282,-382,-134,80
,-34,-118,-95,-55,-126,-19,-106,28,17,-196,-105,-29,-637,79,-15,-96,24,52,40,-383,75,-101,-4,17,-46,-15,-48,-134,98,-16,-89
,622,-56,-129,681,-184,-191,117,121,64,248,-26,-88,-186,-196,-63,560,-105,-173,-61,-210,186,-262,-85,-285,-418,38,-97,-355,3,176,263
,-250,101,-387,-156,-17,20,0,96,-62,-32,-276,-96,-71,-19,147,-176,-286,-89,-95,29,210,-259,-151,522,334,48,-48,43,-115,-86,126
,-72,95,-21,195,-111,-75,114,16,-63,-93,3,82,-138,-154,-88,-104,-144,-136,18,-167,-87,-40,-4,46,9,-13,55,102,-71,-26,19
,424,-150,-223,85,-243,220,177,-116,176,72,23,33,-258,196,-225,194,-14,-101,-65,-688,-124,81,-56,-143,72,-11,-328,352,78,32,-374
,-111,-63,-66,-73,-30,-131,45,13,33,-95,-101,-178,94,-135,21,-5,76,12,66,66,-201,-135,-120,-156,38,26,-118,8,111,-162,5
,-123,17,2,18,-79,-416,-91,-107,-499,79,-347,16,-34,130,-184,58,-262,-62,36,-528,63,-515,-210,9,-224,250,207,-186,257,-295,10
,222,71,113,38,194,-235,152,-180,-55,76,-115,-208,224,63,-273,427,149,-256,-174,-3,32,-22,275,81,-260,-131,-49,-249,98,176,-108
,82,43,-58,-69,-50,126,-51,-170,-25,-158,19,-42,-651,-75,-35,70,66,-7,-19,-177,-24,40,-7,-151,-8,18,-71,-318,-23,-55,-8
,60,-137,-15,-35,-30,-111,325,64,-43,108,-132,27,281,95,52,-116,46,-28,-217,28,49,-286,-153,112,-133,-225,100,112,104,5,141
,-145,191,-39,-102,-95,121,262,76,-94,99,185,-152,-176,-144,-252,14,-50,-131,94,-298,193,-116,198,195,-45,-136,-450,-72,-24,-144,53
,623,-26,-39,295,-293,-209,413,-179,-33,479,-25,-21,274,115,50,-42,-232,-66,2,170,-210,1,-30,70,-92,-112,23,44,-310,-154,-57
,-4,-101,-104,-146,-16,54,-220,221,24,-207,-173,-18,-347,199,-8,-205,210,-109,35,-226,52,-143,-191,166,103,-113,69,-298,-235,-114,-44
,-6,129,-79,231,87,-147,-46,-6,60,-85,-53,-20,10,-220,-20,-185,47,-132,-24,75,-137,-113,34,9,-76,-189,18,-133,-47,-35,-118
,97,109,-342,393,17,-194,91,-60,-159,-176,31,-479,177,140,-179,-237,-44,-93,308,-281,274,-5,-194,-146,217,-106,-28,74,-34,-18,18
,-10,-142,-35,-70,-46,-147,-38,15,-36,-1,-1,-90,3,-131,-42,128,93,-12,5,-134,-45,-21,-9,-27,39,-112,25,7,32,58,-128
,-65,60,-303,-149,17,44,-62,-94,11,-171,196,-87,206,64,-228,72,290,-267,-63,482,-146,-95,68,-52,240,-3,-90,-99,214,-86,-107
,35,-20,0,93,65,-48,-18,-300,-6,-130,-39,-143,314,43,101,531,-254,-99,97,180,51,-165,92,-118,-18,-99,-245,886,-22,-50,146
,79,-189,-109,-81,-188,82,-176,-191,-73,-12,47,4,-500,28,-32,33,125,18,-216,-214,19,-202,127,-346,27,63,62,96,9,-3,-37
,143,16,-140,-70,-129,-112,92,32,-1,-44,1,-171,-30,-43,71,1,-14,-175,-132,-78,-87,99,-145,12,34,-159,-159,52,-176,-126,-33
,-11,-95,-34,-27,80,-133,-109,-52,-41,8,6,-143,-41,36,-37,-31,-115,-110,-39,-11,-65,-73,-80,3,-21,41,-53,-30,88,124,-131
,54,96,-96,-477,-106,-203,341,77,-82,-208,-116,-16,-103,-177,207,-162,196,-83,-104,-8,-4,64,-126,527,-201,-281,-66,705,109,40,-9
,179,44,-316,104,224,-52,125,-114,-234,-194,289,126,2,58,-70,261,-168,-91,-55,197,97,24,61,259,174,-172,-132,-10,253,-270,-230
,99,-132,-240,-220,-97,-11,-153,152,59,98,-250,19,142,234,8,25,-8,-277,-302,61,64,57,-106,302,16,-186,152,-186,91,146,-104
,112,-30,9,535,-97,-383,128,276,113,-134,130,-13,-147,136,-292,-49,-119,118,-35,452,117,0,28,-1,-126,-165,-345,-188,-170,-304,123
,-94,-36,-159,110,-167,55,-48,42,-101,-11,-123,-45,113,-31,57,-78,-31,-48,-20,127,-84,-115,-104,36,111,-131,-55,140,-37,-109,-162
,-198,-107,-73,-89,-86,-44,46,29,39,95,-203,-10,410,-97,57,-221,5,36,8,77,-70,-7,-43,251,45,-29,-58,19,-37,-95,-6
,108,177,76,-138,-5,-64,219,-38,-113,-373,-273,-11,-368,9,-31,2,110,-96,32,252,-81,53,-257,-651,35,-12,-58,-117,-12,-111,99
,-202,-102,-58,-159,-18,-35,-199,362,-212,-281,127,-186,-214,56,-151,418,-151,-343,-71,86,-70,-193,85,387,417,156,-195,35,-42,-119,-264
,-362,-18,-423,-536,289,213,-899,228,198,-435,113,108,134,-495,-43,190,-96,-11,-54,147,25,-270,58,-79,-105,-48,-246,458,-10,-241,-101
,-184,-287,-189,-229,-160,-169,-19,23,-133,-226,114,102,-374,-10,-160,477,141,84,84,-128,-266,34,-100,214,73,-28,90,757,-76,-149,42
,-207,-65,-159,-78,-195,-94,-138,-268,13,67,294,69,101,145,-219,429,-246,-218,-133,-4,-48,173,119,-174,150,-189,72,286,-422,-73,120
,169,57,-287,-462,172,149,-152,-27,-486,-452,5,-90,94,144,21,449,239,59,-384,-380,-370,-99,168,-213,25,14,-98,-96,-356,-186,78
,-18,-260,18,-313,99,-150,-130,23,-393,-69,91,80,75,147,86,427,30,150,3,465,220,-209,-27,-97,15,-32,-455,37,-77,-171,-430
,-400,122,103,132,21,72,139,-53,190,86,-40,-30,225,61,-204,-194,309,71,-84,289,28,-55,-171,167,-301,-39,-201,-66,46,-432,-118
,621,-54,-30,220,274,-113,373,-149,109,-114,15,28,-239,133,18,-166,-95,-172,-75,-169,285,-259,31,-147,5,-185,-26,-390,149,55,-91
,187,29,-47,120,-239,133,4,-308,-228,84,75,100,-34,392,-302,59,156,-348,178,270,86,-32,-2,-90,-282,-284,-144,-144,71,124,-305
,371,223,-7,534,99,124,441,-309,-35,458,-229,22,305,-94,20,189,-46,170,138,-170,-263,-285,-163,271,-125,-150,-176,-385,5,-175,26
,358,-235,-89,218,-105,-130,-55,128,90,204,-143,-138,-176,139,-17,-313,-41,-161,-197,316,126,-182,-233,-2,-238,210,78,61,-442,-56,208
,67,311,-317,333,-24,-128,112,176,148,333,41,140,306,-420,211,-56,-137,-29,-293,537,-231,-135,-137,-174,-28,-264,78,-304,-106,-127,24
,319,89,-30,-20,-138,-279,-23,-43,-595,112,11,-15,334,175,-247,-244,-262,219,-248,5,25,-100,59,598,218,-7,47,543,-257,-76,122
,-5,183,-284,-85,124,126,137,-110,-31,169,72,-8,91,154,211,-186,44,-243,-254,312,-65,-177,51,190,-272,-184,43,-349,-355,-281,91
,-123,67,-42,54,-62,69,-129,-39,-549,-108,54,-279,-159,186,153,-545,-7,-153,-74,-243,-361,125,-14,-323,-228,-304,-88,-148,-247,-244,140
,42,-187,-52,182,63,62,147,-87,-22,-91,-85,12,-388,-189,20,-174,62,-92,12,-142,36,17,11,-108,64,-202,18,-173,20,20,-39
,81,-55,69,219,40,-33,221,-138,-137,226,93,-22,209,-124,-109,-123,-80,-126,45,149,118,-23,-138,-13,-89,-128,29,152,-233,27,-66
,-383,94,-302,-18,-160,88,218,211,-33,-44,270,89,-60,139,-200,344,88,-204,111,-994,-68,-227,-92,-895,-87,-232,-7,89,212,-47,-255
,13,151,-169,140,157,44,-184,290,-76,153,-23,-169,46,112,-55,384,-210,-395,-4,152,-336,-37,-57,794,-236,92,30,233,-215,35,-234
,384,-104,-158,204,-103,127,76,272,194,-69,266,-211,-259,-118,-183,25,189,7,-168,364,158,-344,-171,-256,9,-250,59,24,20,-213,-90
,100,-123,30,-132,-127,84,93,72,-112,-117,-139,116,-110,142,-21,483,13,114,-88,233,46,-100,60,-141,-126,-141,-338,699,-65,-58,-228
,-18,48,-28,-87,103,-394,-6,-33,-424,-22,93,-140,-34,46,-655,131,233,72,132,-240,93,-201,-293,-213,-71,67,-437,-179,-15,-553,-149
};

long weight_1_T_nvme0n1[2*256] = {
116,23,-363,165,118,69,-35,31,-120,337,186,241,271,74,318,-67,183,-291,109,-252,688,-194,-206,78,52,63,-76,-7,-326,60,263,-114,-195,-94,81,-11,304,96,218,-369,251,362,232,10,145,-178,61,44,250,291,-359,534,-193,295,313,-214,335,45,-54,568,31,-186,5,-106,66,-546,93,-47,-305,-286,482,57,34,171,-185,6,-252,219,236,-31,316,-137,19,173,331,392,28,-153,-126,-42,91,-394,240,90,168,140,364,-11,-319,367,231,-28,-570,-348,-150,365,-75,-169,-269,120,74,-166,265,1,-29,-260,288,-174,-580,34,-157,79,94,31,-273,196,40,-525,-25,45,57,-106,-709,-48,163,164,-74,370,423,-626,425,147,-268,69,492,108,-351,-274,-103,-132,415,65,-300,234,239,412,-75,421,210,266,72,-206,-248,-81,23,-654,265,-149,-207,45,548,9,-39,-97,115,52,-14,-48,5,163,-18,194,-381,-276,-162,58,-158,-395,-171,56,393,-403,-54,-199,128,-279,-216,426,-122,-45,426,705,-41,371,-48,206,36,341,253,73,160,117,-429,383,60,-47,253,139,9,-142,388,16,211,-276,40,97,90,145,321,401,378,118,5,111,-343,-178,137,246,-164,530,-221,102,536,130,253,-345,-328,479,-314,-8,111,-325,494,357,222,-418
,-159,126,476,-359,113,17,10,43,244,-421,-245,-242,-299,127,-201,237,-230,120,-27,297,-544,218,320,-102,-114,66,176,10,251,-80,-271,-114,149,218,103,-52,-38,-5,-80,239,-376,-321,-357,47,70,357,50,36,-449,-332,315,-306,247,-250,-281,382,-355,81,-8,-597,32,170,-123,-91,82,558,-3,-47,379,168,-198,43,17,87,306,-110,148,-290,-12,-66,-517,198,103,5,-411,-203,-63,-73,163,-22,-303,353,-111,39,170,147,-288,8,358,-257,-258,137,581,166,-109,-157,136,68,172,-7,-99,38,-231,-1,110,309,-103,203,438,40,60,27,43,54,230,-273,89,502,12,51,75,9,861,287,-273,-226,182,-350,-247,547,-405,1,127,-34,-389,104,291,229,-68,272,-255,76,258,-18,-273,-393,176,-350,-182,-189,-115,273,61,255,21,735,-298,131,175,-87,-419,-29,-49,107,-116,85,-24,-49,80,-54,12,-323,173,299,288,75,-95,367,15,71,-444,488,261,274,-85,314,447,-566,74,95,-337,-578,-43,-124,241,-183,32,-351,-167,87,-186,118,506,-251,65,-166,-34,-133,146,-133,-424,29,-127,156,-115,117,99,-161,-146,-246,-352,145,14,96,610,391,-147,-294,367,-399,130,8,-524,-141,-205,338,222,-497,193,-19,119,162,-354,-426,-230,471
};

long bias_0_nvme0n1[1*256] = {
124,-22,78,-37,490,-341,-49,352,-21,12,-16,-72,-2,-27,85,-125,-75,38,0,-171,5,-60,-80,-41,-27,-35,-23,-226,-116,1,-16,-59,-173,49,-255,-112,-1,-32,56,-67,126,-126,-26,-305,-165,-195,106,296,-9,-115,-69,-11,-86,-148,167,32,-162,-10,-503,-47,191,35,8,-22,-373,-217,126,-6,-41,-125,-54,156,355,221,-176,-11,-282,-49,77,116,69,-204,214,-19,-42,33,127,-55,-253,-109,-142,-43,7,126,672,-36,69,-2,-38,80,-84,-280,-172,12,-47,57,33,-208,-200,16,59,-200,127,49,-133,-22,-2,-30,-268,-284,-244,235,240,275,-206,-65,0,-170,-428,236,-288,-31,183,-75,-3,42,-183,-48,-31,-32,-31,78,-150,52,19,468,-202,-176,43,-50,-146,-317,-301,89,-49,-94,264,110,119,38,225,-137,-98,-170,198,87,97,215,-72,279,10,-50,-223,-161,33,-243,234,-27,-27,152,192,-53,-152,-178,-239,-283,-107,36,-148,-130,93,-35,79,-161,210,-129,-117,72,-27,-260,27,-59,-308,-148,-10,30,356,137,-16,-38,90,-55,18,-14,430,-188,1,-154,138,-30,23,-20,-118,-163,278,-38,-19,59,-85,-164,-35,-25,-316,264,-14,-339,-30,95,-48,-27,-250,221,61,97,157,-88,-221,-93,31,281,-98,-92,-81,-19,-3,16
};

long bias_1_nvme0n1[1*2] = {
555184,-447639
};

#endif
