
/* Trace */

/**
 *  updated on 04/21/2023 01:06:50
 */

#ifndef __W_NVME1N1_H
#define __W_NVME1N1_H

char name_nvme1n1[] = "Trace/nvme1n1";

long weight_0_T_nvme1n1[256*31] = {
484,-256,-66,123,-275,132,-130,166,-9,212,98,-35,-68,-36,51,231,194,38,-100,-362,-173,16,-84,-79,138,-227,-68,30,-103,89,-69
,206,91,78,121,-42,-162,207,90,11,-23,-92,102,361,71,-9,-346,-71,40,229,-68,-101,-24,-9,288,-144,-141,-73,23,-15,-108,17
,78,70,19,80,-36,-9,105,33,-31,-119,71,-102,110,-127,130,127,-113,136,109,102,38,94,-12,35,-30,-40,89,132,81,18,101
,-566,97,52,488,70,-40,454,192,-120,558,-109,-150,-70,33,-46,-55,-74,-57,67,156,-133,-147,22,-155,70,-249,-68,305,-218,55,178
,-255,-219,72,92,-169,-89,160,42,98,160,175,-45,-293,4,131,-205,35,-244,-48,52,-179,124,-76,-389,71,-124,-139,133,117,-2,-119
,-102,-9,98,52,-37,-13,-93,81,-69,-98,139,-199,-86,50,-178,7,76,-1,-107,133,12,-119,-73,121,-25,56,83,-46,-88,115,124
,41,100,-66,-158,-130,-21,-96,-212,-82,166,-118,14,-48,-308,-124,166,-6,88,-150,426,172,63,-144,274,84,-145,-95,375,31,124,206
,18,39,-78,-147,72,-137,-42,46,135,-211,-49,44,224,153,-114,-414,163,-67,32,-11,63,200,-248,82,-62,-177,-59,3,-76,-318,-60
,259,123,1,112,-6,135,-143,92,-72,-48,-75,-41,-194,-13,-418,17,41,60,36,23,-8,11,24,-113,-278,72,-80,287,93,-43,-67
,58,-63,101,-8,-110,53,215,77,-99,231,5,-84,-75,-181,-98,-309,-23,-137,-292,-71,-13,82,125,191,-118,63,-144,270,141,49,65
,-157,14,-68,-4,149,68,57,-96,20,460,-206,-71,108,-24,13,-61,-119,-130,218,-287,67,-135,-43,69,-66,-32,9,-319,115,98,-68
,53,124,113,-49,111,9,-401,-38,-56,-128,45,-115,-7,46,-77,-30,35,-74,77,3,132,120,-18,30,165,11,-122,-130,-115,17,-71
,-79,-82,-158,497,154,-26,-127,-100,135,-254,-114,8,-140,11,42,103,2,0,-130,-163,-46,110,17,179,-18,-24,67,-98,-20,-26,37
,20,-130,40,30,-130,-53,-27,-8,-184,251,57,-94,-109,-27,98,-452,41,-201,50,-400,-124,24,-215,209,203,53,147,-189,-192,37,-11
,-25,113,68,12,-50,56,40,-118,-27,-60,-103,-79,125,13,-44,-89,-35,21,-109,-132,-121,6,44,-53,-128,-11,-25,57,-140,-110,-66
,-290,145,170,-280,-236,100,-83,-12,-278,-139,-64,133,-740,61,-244,243,-153,-228,-62,-370,-216,208,-67,116,-46,-90,-30,-200,-24,-136,-268
,-269,62,101,197,-15,-83,16,-104,8,-180,106,-176,-246,-24,75,-3,-94,106,-98,63,-57,22,95,-33,53,-17,-71,220,-42,70,75
,-54,-128,118,165,104,99,-16,65,-9,-45,-5,9,62,-95,87,48,-43,32,55,-74,92,-92,-5,-14,61,-121,-116,-54,-173,78,50
,-88,27,-194,242,85,183,-161,-50,37,-167,35,-90,-372,32,13,92,-8,-47,-122,141,-73,-153,-155,105,20,96,49,170,165,-109,148
,-32,-75,125,469,-14,28,87,121,-112,-394,-158,-27,317,116,120,141,-72,-116,106,175,49,39,-34,-56,-18,-77,-71,-176,102,-201,-138
,115,73,-2,167,-49,-170,16,-96,38,64,98,21,62,-98,-60,38,-28,-65,-69,-11,164,70,-149,-113,-112,-141,-78,57,-5,-80,46
,341,56,46,149,-117,-72,-450,-106,-170,316,94,-6,484,-79,108,-116,-53,-35,-4,253,-21,-133,45,124,-330,-39,-68,17,-87,204,161
,311,-37,-22,286,109,105,214,-12,-128,-144,78,-19,-85,68,-115,150,44,-72,139,67,-281,131,-37,-218,-164,-31,66,139,-261,-85,68
,78,-29,95,-107,-73,-43,10,-120,31,150,-245,164,-291,-143,-161,-123,83,153,79,-6,-13,-29,-2,-232,-39,94,-81,-301,47,-107,-77
,75,-12,-23,-275,56,57,-131,54,26,-39,41,99,48,-133,51,6,-77,-131,-74,-65,179,143,-157,131,-22,75,-49,-52,104,-25,43
,17,217,-131,389,-49,59,55,54,89,-382,32,97,-65,-288,86,-3,-15,-33,157,299,-240,-68,31,-110,-8,-148,-24,-51,44,-194,-29
,19,79,-68,41,-94,177,36,49,164,127,68,2,343,43,-156,149,75,-153,-6,164,161,-113,59,-138,-62,-94,56,-8,149,-57,-53
,161,40,81,31,89,180,-31,29,-80,101,100,-110,293,-422,54,-165,150,-30,7,138,102,-127,-55,-235,130,-266,-44,-551,-110,-78,-294
,-116,-75,10,20,27,-95,-92,-76,34,49,143,94,-140,91,-3,101,-57,137,-59,-102,126,-36,43,53,-167,101,100,-130,64,-76,45
,41,4,-110,-65,16,108,-362,153,51,-2,-8,-110,-84,78,88,-19,129,-87,-96,-28,40,148,0,313,154,-121,1,-83,-1,-47,-192
,521,48,-36,22,-62,125,-63,129,38,130,-171,9,23,94,-153,-110,146,-85,-141,-174,117,-6,36,57,-168,22,20,-127,65,-136,-6
,-149,-4,-75,-70,-182,-32,-54,-1,-63,-434,-239,-47,64,16,7,97,129,-144,30,-221,74,-30,-201,-126,-32,203,129,-271,-112,149,-100
,-179,-46,-99,-10,63,-31,303,-61,109,-9,20,96,-252,-143,-12,-101,158,149,-165,-1,-162,76,-141,-373,130,-194,-112,163,-112,126,-41
,-124,-128,12,54,25,-144,87,-33,-29,-131,-56,52,-84,-100,-100,-60,-74,52,-17,-92,-53,13,-137,-21,8,36,-35,90,-84,-118,44
,-455,65,-202,-159,-60,-330,-329,157,-118,-300,-72,9,-308,3,50,-200,-267,67,-309,172,294,-52,150,-128,36,66,-43,-273,-326,-24,-19
,21,4,202,-3,209,-25,-58,-43,-63,56,25,114,-27,-8,-168,-262,-89,-107,77,-157,-80,-203,-30,41,-116,90,-141,-10,92,1,125
,47,-54,-137,-24,55,82,30,-80,-58,101,-17,-123,-37,-36,38,-58,-93,-37,122,-125,-100,-82,-96,-56,-50,-5,86,-106,-10,-94,-132
,-463,-162,-32,162,135,62,91,16,111,292,-164,111,-179,-189,-88,309,39,-47,-119,-155,-148,-9,-13,-251,197,-167,88,-27,-87,135,-52
,261,86,-143,-18,-35,-19,-124,109,-87,-146,132,36,31,-89,100,-21,158,-174,19,361,6,-196,-124,81,41,-314,119,-437,35,66,-166
,-230,13,-148,198,-55,-73,-187,224,79,141,81,109,28,-54,102,17,-170,1,-57,39,52,-63,-172,-7,169,37,-139,-221,168,-71,-113
,132,39,-121,-65,-34,-46,13,-25,62,-83,41,36,-162,-85,2,24,-74,-53,-52,113,-69,103,93,57,-31,-55,107,-48,117,53,-50
,104,-68,75,55,85,-69,60,75,-59,-49,-67,-3,149,111,-160,-63,-41,-5,113,124,115,27,129,70,141,-150,169,-59,-54,17,-48
,120,-59,-95,-776,113,67,-398,35,-142,-552,185,110,-116,14,94,99,-262,-18,-77,248,80,161,-74,1,-109,22,15,-61,-78,-117,-130
,-313,-158,-160,379,-34,-82,-191,246,-66,-11,-1,-167,-147,156,-269,241,123,19,-170,-144,-87,75,-162,222,80,62,19,317,95,-1,-12
,377,-23,-63,355,121,-163,-20,-139,-63,-126,-1,-61,-90,121,79,85,8,33,1,-16,163,15,-96,318,-84,60,124,-25,-184,42,-216
,65,107,-111,-111,107,-128,-63,63,77,-105,42,-58,-80,144,88,-92,107,38,-97,-51,130,-90,95,25,-93,105,-60,113,77,108,-23
,-107,67,79,-39,78,-60,-49,-34,111,113,21,63,-115,78,-73,62,20,155,-31,40,-95,6,-6,-170,61,140,-101,-78,109,34,-111
,-55,-62,-162,129,96,69,89,-40,12,-67,50,23,181,-50,-164,-92,-54,45,120,85,-89,122,-53,45,114,-1,31,175,106,109,-1
,165,125,-90,-129,61,134,-159,120,117,173,88,168,23,-136,-47,-91,-123,-28,70,27,-12,43,-57,-76,-82,44,77,-134,-109,-160,13
,97,117,21,56,-28,72,-3,-158,-129,65,-67,-121,-114,-18,-16,-61,-91,-56,-141,-101,-37,-137,3,-45,-63,-140,-104,68,-60,99,91
,-164,208,95,-8,-125,-145,-123,-203,-33,-147,-209,-82,125,-162,155,-18,23,10,198,110,-11,-151,67,-238,-41,104,-193,111,72,-117,38
,-426,16,-167,444,86,69,-174,-31,-59,-422,-138,-232,188,137,82,-182,113,143,-146,51,49,18,24,216,6,-91,-16,-564,132,-61,-175
,80,-99,-9,55,-73,-106,-4,96,154,151,-73,-61,103,60,-32,69,57,-115,104,58,86,-23,64,-18,20,80,-129,53,90,68,66
,-146,99,141,150,60,49,-5,83,28,2,103,83,124,-6,32,-120,-103,137,32,22,106,-120,-138,121,92,-111,-14,-33,-99,65,27
,-142,-129,-112,-41,-26,132,-109,39,-54,79,-93,56,-83,22,128,-94,24,4,100,28,124,122,-79,-68,121,-40,78,-65,41,139,-96
,-189,85,126,104,43,-19,-36,60,8,101,-39,-94,-53,58,64,79,27,-2,4,102,-60,-7,90,59,-69,140,-30,-149,28,30,-164
,175,-257,52,46,11,25,222,-198,-140,-232,-85,-18,118,-88,76,-344,-175,98,-59,-182,28,-216,153,102,-106,24,-152,122,-46,153,-27
,108,-19,84,-90,-120,-20,295,158,48,55,73,-150,330,67,68,-62,121,19,-83,-156,-54,36,-107,-18,-33,-10,-89,87,-121,63,101
,-108,-175,-20,-147,66,-63,-68,-22,102,-182,16,-141,-86,30,51,-104,14,116,-42,204,62,-140,114,-39,106,-65,24,17,106,-104,149
,-42,70,19,-93,22,92,-11,-101,81,-57,-163,-125,-56,77,-57,105,109,117,81,31,-123,94,38,-60,-137,-7,-52,-32,-12,100,-101
,52,115,108,-108,87,85,-119,-97,-17,-26,-162,-128,-75,102,-64,-177,-101,76,84,-45,-93,49,91,25,32,77,-178,-50,38,2,3
,-51,124,126,-108,-4,116,103,-75,-55,-103,-115,34,186,97,10,12,-130,75,-91,74,-46,-11,-11,-93,4,117,81,-64,-25,97,80
,-55,-91,-193,-423,16,-121,-278,-56,-11,104,21,-51,82,65,151,-140,100,-154,54,-50,17,-1,-57,4,-69,-37,132,-67,218,54,-109
,-66,-79,8,-140,133,128,38,137,20,66,-82,36,153,67,-85,89,7,22,-11,93,-123,98,69,-103,80,-15,-24,-80,21,17,-129
,52,65,84,-69,220,128,125,95,-109,176,12,-113,-58,16,107,-10,61,-289,18,-317,-49,-114,-165,-160,-32,-96,-22,126,45,-226,62
,-98,41,-67,16,-105,128,34,120,107,7,-96,-16,173,-14,-18,-23,128,13,57,-91,-8,97,-61,55,107,-27,-44,28,91,77,-36
,-74,148,190,-313,-249,-214,-145,-108,-75,-6,76,-63,-234,-164,39,446,-62,223,-65,-110,-79,-28,-228,-162,-221,-11,-119,136,-54,-26,-61
,-133,-15,-110,125,-35,-80,17,59,-135,117,46,5,-95,125,-115,-146,-137,35,-149,26,-150,16,-58,31,-131,-45,-3,124,109,-19,-37
,-211,-267,-172,10,-37,-245,-19,3,21,260,62,11,129,210,-119,-66,-13,-184,-14,345,23,-139,117,235,59,13,47,277,13,13,86
,-306,-37,-41,136,-116,84,-511,-25,-49,-403,-54,151,-209,0,18,-352,-226,-176,-155,-71,174,-110,113,121,-38,118,50,8,-86,-1,18
,17,-34,42,7,-88,-102,-74,62,129,-160,-49,104,5,-25,-40,-2,76,23,101,78,-25,-131,88,-75,-48,65,-100,46,-84,-57,41
,83,11,-165,-39,166,-19,-35,69,-128,-126,-117,-71,94,-89,68,35,128,131,-106,-164,-24,-81,-59,-73,0,87,74,-70,81,4,-142
,-240,152,25,-267,136,-63,0,-3,-94,-145,69,-91,325,-82,141,108,-27,10,131,181,145,-82,51,188,9,-105,-30,25,-42,-72,6
,107,-56,-82,57,24,-105,-27,-59,-117,-51,-181,-96,82,-141,106,6,24,215,-122,-30,-31,-102,85,-162,-199,61,20,107,82,25,35
,227,126,51,142,23,60,-120,-3,67,-151,-7,-73,-80,108,74,155,-45,139,120,35,-31,94,-66,-10,-106,-88,-124,81,-61,24,-37
,9,-26,-6,322,-263,122,312,85,-96,388,2,-39,-200,-49,84,59,76,-153,-23,378,-153,101,48,96,82,168,-49,56,-11,-148,-186
,-55,-31,-25,-54,-111,-90,-127,37,35,-60,76,75,117,77,85,-186,9,128,-59,102,-68,12,127,-48,109,121,14,18,26,-93,-11
,126,61,-100,92,8,-48,-62,120,118,9,-69,-22,-52,-58,22,50,-10,95,129,60,99,-76,-70,-51,-124,70,114,-79,125,23,36
,-15,-44,129,90,22,16,-154,-35,-53,-52,-1,229,149,-181,65,-19,22,-183,-138,359,18,-30,-189,-135,75,-30,-158,156,-34,111,19
,-161,62,-105,-221,81,95,256,-112,115,511,-211,-56,286,-148,79,-185,-8,-72,-269,293,160,-101,-65,-68,57,18,-143,1,135,-72,86
,98,-37,118,128,-73,-131,69,3,-99,86,-101,-52,96,116,-36,84,-141,-79,-99,67,-146,-57,-132,-119,-103,3,80,58,60,29,-156
,39,-114,133,-239,-192,-44,-69,177,-84,24,-43,82,-167,60,19,100,107,-157,94,123,-47,-70,-70,45,28,104,-68,-124,-18,-77,117
,-411,-41,32,203,-326,139,-650,-285,133,-608,-133,-18,94,-6,57,50,-195,-138,-36,203,152,125,-32,46,-8,112,33,-75,16,-85,-54
,153,-33,-38,-25,63,65,182,-168,106,8,72,-44,32,55,69,132,2,-43,4,-42,106,-12,-50,36,-57,63,142,12,41,-73,-96
,-62,46,-35,56,-157,-7,27,102,-79,23,-67,47,65,-38,108,275,25,-5,78,181,-140,-184,104,67,165,45,-189,103,116,-18,-3
,-21,-68,121,-196,8,79,-86,138,106,-19,83,94,82,-10,-7,-57,-18,47,-118,41,-19,-9,-82,177,79,-94,47,4,11,-80,-7
,73,-42,-55,-92,-95,-51,78,85,14,-19,55,-121,118,2,-126,30,-131,-114,44,136,96,48,96,76,110,61,13,-202,53,127,107
,-25,-76,-83,97,92,-76,201,-101,65,55,-44,-109,213,-31,146,-128,55,-120,-84,133,68,77,25,93,12,-33,71,38,60,126,28
,-371,10,-112,31,-156,139,527,-38,-59,294,89,68,-320,-116,181,-108,-133,-94,-91,147,-98,-64,-28,-37,-162,-43,129,-34,22,103,-20
,-123,-101,17,-37,61,12,-271,26,-25,72,-19,128,141,-125,-44,-156,38,0,10,-3,-78,-142,86,-55,-3,66,137,10,-50,49,79
,406,6,-66,-527,19,-216,231,-138,-42,-272,-124,-27,-632,12,-320,-490,206,256,-14,-217,-141,-105,-109,17,-100,48,111,-404,-90,39,-161
,41,141,-314,-187,5,-273,-199,131,20,287,-126,-72,23,131,77,-285,-34,126,-14,-25,-114,177,-80,-29,-67,-66,38,58,-168,56,-168
,439,174,-150,-179,51,-69,53,-194,66,84,189,-75,-238,-46,99,281,-2,-23,-133,244,-103,158,21,118,-238,-171,-62,139,82,-65,-41
,-342,72,-95,-60,-50,131,39,254,-35,7,-8,101,-81,107,-41,422,-106,-23,-112,-284,-20,-127,36,-86,-127,82,-169,177,157,-13,40
,-194,117,-39,-70,-68,-94,-81,68,-57,-242,180,74,104,14,-106,139,-57,36,-59,9,-107,-174,-42,29,-135,206,12,-25,160,-47,54
,406,-271,-80,-91,-278,56,-45,-316,3,-199,-49,27,-91,121,-20,-55,169,56,-168,37,73,-46,-170,290,115,-52,131,-158,-243,117,61
,212,-142,-85,-650,76,113,-58,-204,70,-512,102,-273,-60,143,101,-61,218,-214,169,91,-241,-72,-26,-179,-69,-80,-56,226,-184,28,29
,-73,19,-56,29,-22,-59,69,-51,-115,-61,-135,8,84,-113,11,118,-105,40,-100,-104,-99,-130,-118,90,-51,80,43,80,1,-54,-67
,-52,80,79,145,-246,-80,-11,-40,159,273,24,-169,-196,-66,-103,208,42,-229,-84,-78,73,-92,49,-133,60,58,7,154,-86,-21,116
,113,138,-42,343,-1,-98,168,42,33,-106,-204,-29,-214,15,216,-353,39,-126,-164,-211,29,-135,26,-70,172,30,174,-56,74,-180,-98
,-75,104,76,108,105,-37,270,-160,30,83,101,-56,-6,-62,72,-61,17,-150,89,147,63,47,-70,-292,-117,149,64,172,-39,-107,-10
,42,77,-119,17,109,-127,-93,54,125,-59,-88,-69,57,-69,90,-213,31,-1,-13,154,-19,71,-135,158,154,-17,25,-225,-26,76,22
,143,248,-1,-424,29,-97,-140,-100,-119,-263,25,-246,342,42,-14,17,-249,74,108,-31,-96,113,77,44,-8,88,-144,-202,-33,29,-198
,-11,105,-24,64,11,-107,-7,109,64,-35,-22,66,67,-27,34,-64,-109,3,83,143,104,-24,3,-68,-129,142,124,-139,-112,113,-21
,-16,-23,17,-61,12,3,-25,101,70,-185,-38,71,-109,-111,-72,104,-200,136,44,-63,75,-71,-24,128,-138,-111,58,26,19,26,102
,1,10,-22,205,56,-161,-151,-2,-160,45,88,-60,215,64,-78,-163,129,46,30,216,-168,-28,151,-47,39,1,9,-72,12,-8,-42
,-41,86,-66,-146,135,140,28,-62,-20,4,78,155,-137,-185,9,109,62,96,-81,121,-25,123,-139,-46,3,-20,52,-83,-126,-54,45
,-305,127,-87,-125,152,115,43,-144,-97,-221,-94,-267,460,40,95,72,-123,-31,-143,-213,-107,-87,-246,302,-87,-197,57,300,-227,166,62
,237,114,123,-307,-43,-148,-46,27,-2,-16,-179,-85,143,140,-172,-230,-14,-171,-168,-193,-9,3,-38,278,192,-30,128,22,-117,-185,164
,88,-126,-145,-89,-22,-150,-142,-11,92,37,-22,-23,-85,11,48,0,-59,-58,-37,-48,2,45,-35,-32,0,-111,-159,88,-24,46,-136
,-84,242,-19,-101,-21,-98,25,113,-209,198,-74,-44,-284,103,-49,-392,45,-29,-144,-17,-28,-122,-219,48,200,-73,25,-195,125,-31,25
,53,-21,132,-124,49,152,67,-252,74,-155,-311,-53,-8,72,-27,335,-64,-290,68,110,107,-55,40,-180,77,-244,-20,176,-168,-23,-70
,70,-83,91,-196,117,-132,-44,-6,12,-32,36,-51,110,-80,-70,47,7,113,58,-191,-120,103,30,-116,-138,91,135,-139,37,121,-65
,-172,9,107,-24,32,129,-416,-144,-36,-183,-143,-177,273,46,-159,-4,-74,5,-133,-413,21,121,-115,298,-103,-318,-129,277,-120,-119,238
,-130,-76,53,-41,245,175,-6,-32,-142,-11,-82,-13,4,-46,-138,20,-114,25,12,-34,48,96,-98,-201,56,89,79,-97,-14,-6,-105
,366,-65,8,-118,-41,-281,-115,-163,-3,-26,167,-73,-130,-127,168,-149,-94,-117,50,75,-6,161,140,217,102,-73,-64,-56,-60,86,-13
,126,-26,5,-81,177,-105,-20,-65,82,673,-20,35,-44,-142,-94,477,-127,-66,110,-123,-66,-25,136,267,23,32,-347,-194,-23,26,-116
,-163,14,-116,-355,247,119,289,-109,97,-82,-77,-12,12,-129,-160,-331,143,-125,-10,-334,-16,139,72,77,-108,-102,-62,-122,75,-125,-218
,51,22,3,40,-21,68,79,97,110,63,-21,-22,18,26,20,71,65,-92,-174,68,82,24,59,16,-36,46,-39,-141,28,30,14
,-328,6,132,68,-55,-145,62,84,-51,-17,-48,1,-102,-14,29,73,-126,-163,92,106,5,84,-90,-6,102,120,91,67,-4,20,27
,-78,129,-139,57,100,25,-158,2,86,-573,35,-57,-76,-215,40,15,176,-148,11,-34,59,125,102,88,-39,15,-56,28,76,-24,-132
,-185,-157,81,236,262,-233,-115,35,-115,91,-97,-64,565,-63,147,355,160,103,-213,-345,97,-110,-244,-37,49,98,-134,43,114,-83,79
,-58,33,-10,-178,-57,-20,-198,14,-51,-75,54,81,-145,-110,91,131,129,-100,-2,-120,34,-205,133,33,-108,52,-84,31,-97,-83,65
,-128,-18,-82,-128,114,-3,46,28,117,-7,55,44,-57,41,86,15,-95,95,-66,59,100,-167,49,131,30,110,-100,133,-69,74,123
,-79,82,69,-42,72,-104,-88,30,-114,140,-38,-61,52,45,59,-41,-125,70,6,-94,87,0,101,-131,23,44,62,118,-39,106,65
,8,-98,26,109,-27,-123,39,-35,57,43,-35,149,26,-151,58,-147,126,-57,41,-333,64,138,95,-108,67,56,100,-50,-29,-185,-88
,-43,99,-49,-206,21,-116,151,-1,68,-583,61,37,-188,166,-104,-33,196,-272,1,-196,36,43,16,-360,-248,-33,30,-200,-175,-138,126
,108,-26,44,-89,109,-34,270,-52,89,121,16,-113,-242,25,-151,140,127,-18,-125,-118,-51,-17,81,-67,134,8,-96,128,5,-80,132
,-196,-115,99,-27,129,-30,203,-96,110,175,29,79,278,207,95,142,-141,-30,-47,131,-118,-76,-45,3,-150,-95,49,24,13,22,-54
,-107,14,115,65,-176,-138,326,22,-95,109,-53,-179,23,103,269,137,-35,-27,24,233,42,-63,-3,35,-137,94,69,-325,-139,-2,-146
,339,-93,71,-242,-10,-105,215,161,-78,379,185,18,-301,-41,163,21,5,-24,3,-213,-9,-13,-172,-293,38,-10,-6,209,-216,52,-125
,-78,97,63,88,-89,56,162,-179,116,9,78,-91,12,-18,97,54,-29,83,-63,-79,-168,153,-124,173,104,-125,-62,22,-23,0,-5
,-132,90,127,-23,46,-61,112,-107,96,23,45,115,-146,4,-75,84,6,5,117,-157,30,34,55,89,-33,72,-67,-28,92,9,16
,-62,67,50,191,-8,-135,8,218,138,-115,-81,-81,-192,-99,182,-217,57,-104,-79,-69,59,-129,119,235,-97,-75,12,-20,15,-69,10
,-64,-183,-153,-90,7,-100,-390,6,172,46,182,-35,-154,-21,-79,-147,-187,86,-55,-208,-95,-21,79,277,-58,60,157,-61,70,-26,-48
,210,-222,-48,405,-5,73,240,-188,-79,255,131,-209,-5,98,-3,31,-209,-30,194,-10,-145,-187,-24,186,123,25,-96,-41,197,6,-58
,-195,87,89,178,3,-131,14,-32,-136,-288,-145,78,32,126,-125,-30,-17,130,30,-116,54,-84,171,152,99,-191,15,-1,-257,40,-69
,453,16,115,-14,7,-57,21,2,142,137,54,-99,-137,32,153,-17,60,-184,-57,34,-79,-236,-134,75,20,54,-62,-2,-85,-26,-18
,211,-30,103,-521,198,-185,324,-234,-42,29,-71,-15,174,-71,-86,-216,49,256,-147,-212,-70,-171,-194,-53,-47,-68,38,283,-107,90,-195
,2,62,-152,-48,-43,-131,306,-85,-301,581,-43,-346,434,-293,83,-96,72,66,-120,5,6,84,134,182,-53,-15,-118,-46,135,98,71
,294,56,-170,-148,-29,47,221,-153,-59,155,-153,-9,200,118,-64,73,96,36,-117,99,-96,-5,-82,195,142,142,42,80,43,70,-29
,-343,-94,26,-31,-75,-114,170,81,-21,18,139,-107,72,-181,-52,-30,120,83,-52,334,-116,96,31,-36,-79,28,-85,-65,236,-129,-10
,-315,68,90,-184,-123,-38,25,-71,-224,231,119,-52,43,-158,-239,381,191,26,64,-48,-77,14,37,106,42,90,199,-74,-154,-21,61
,12,12,22,-140,-41,80,-140,98,85,15,-97,107,111,-111,-34,15,23,22,111,31,-86,-93,10,-42,80,94,118,-38,108,-32,-82
,-123,30,1,110,58,74,-75,16,30,-159,-3,122,-38,-61,54,-68,15,-22,13,-108,-77,23,86,-131,61,90,-23,69,64,-72,113
,142,20,85,86,49,26,101,42,-66,-31,115,58,-45,31,75,141,-10,-100,-130,-113,-187,29,21,28,112,14,74,59,-45,-55,56
,-175,30,-194,148,-207,50,151,93,-68,42,171,-35,-245,-279,163,23,38,116,50,67,-52,-212,-174,27,-104,-17,107,348,132,-131,-159
,158,14,66,-219,71,196,373,-58,-157,-3,-80,-17,-71,-135,91,-193,-24,-228,-145,84,-87,-99,-104,-227,-48,167,50,122,-59,93,114
,-80,48,-111,-63,68,-106,-105,72,-51,-34,-24,-111,-96,-197,66,-241,169,119,-85,-53,-133,109,107,-130,208,110,-136,6,3,-1,7
,-5,-20,-65,-79,-79,22,154,117,63,-74,100,-31,-156,55,-84,-97,-201,27,110,-175,-112,-100,-159,195,-106,129,37,108,-5,53,39
,219,157,141,245,-139,90,-157,-29,162,-519,23,143,364,-138,30,-115,-43,-80,25,198,-191,-325,-158,92,-31,96,-186,47,144,-53,-98
,-17,-272,0,128,-12,28,-58,-177,46,70,-156,-217,206,168,-207,242,11,-15,-65,-30,98,-32,43,50,102,18,-43,-17,100,-76,128
,-154,-102,115,-110,94,103,-181,95,-183,121,-164,3,351,-83,-132,-81,-141,-39,-193,-44,89,-19,75,141,24,161,-238,2,-181,-15,59
,44,-46,-67,144,-97,-115,32,-252,27,-309,-3,137,-30,28,-68,-233,19,70,21,-29,78,118,120,-74,-118,-246,57,351,-72,-155,107
,14,-92,94,-125,-85,57,-196,-105,-113,46,34,25,39,39,-114,51,18,121,112,-179,-49,110,-33,-67,-33,139,-126,-29,77,137,68
,372,-27,152,-195,5,-100,333,-100,-37,-306,83,-187,274,28,-47,-52,21,132,62,-11,-178,36,109,-226,-128,-125,-234,-39,-90,-90,183
,-201,-109,-43,171,-121,-34,-113,32,-154,-100,-72,118,-143,-131,115,41,-148,97,58,93,15,113,107,-227,16,-17,132,143,-129,-7,73
,3,-95,-80,-124,7,-4,6,-38,-7,-89,-140,-132,121,19,21,87,56,33,-21,132,-1,-19,-5,-59,-74,-73,-51,-48,76,-36,-141
,-47,11,-16,132,169,102,-115,15,109,214,-9,-19,54,55,-68,-18,-86,-107,77,-297,-59,-47,94,41,-211,-48,-339,248,-341,-56,92
,-71,-1,-142,123,-14,167,-51,-48,66,-85,116,-67,54,-166,-66,233,-78,-215,-101,-429,37,136,-151,-804,-304,-21,-364,-93,211,55,86
,178,126,-52,279,-72,104,97,60,33,33,-63,-28,-76,-243,86,106,-110,-200,-205,209,-139,-62,-28,67,82,-124,-72,37,-61,15,65
,216,-39,-145,194,24,-32,247,25,24,277,-298,99,30,65,22,21,-156,-106,139,9,-127,97,103,-18,125,-33,18,-115,99,-221,-242
,35,-55,44,107,-160,84,132,-81,-126,-254,127,-29,-395,-63,-60,-61,45,-28,157,124,110,108,-66,166,-47,30,123,-64,25,53,-101
,-85,97,110,77,11,4,17,-107,128,-7,-16,132,196,45,113,54,40,135,153,148,-75,-53,-118,-36,-100,-161,150,-238,114,-74,-123
,72,-91,108,-127,96,46,87,26,-10,142,34,30,51,-71,29,-13,116,36,-144,-131,118,-9,43,-17,123,-13,26,46,86,3,-85
,99,-30,71,-72,-140,-81,-100,116,105,47,133,87,-43,-19,67,-9,15,96,-86,103,151,92,104,76,135,-44,-55,76,-75,-122,-25
,-13,-8,-45,-186,-29,10,96,-56,95,-1,-48,-118,91,68,-39,-263,59,-139,79,-55,8,42,-26,-44,-163,-74,9,96,-26,102,26
,110,51,59,-50,159,138,148,-194,79,-127,-164,-81,-49,29,-160,86,-178,-46,-40,-337,-129,48,-78,-166,17,-96,137,-270,179,-89,25
,41,63,-144,115,-2,-132,60,29,22,-74,-143,102,-104,19,-1,-34,37,-107,-8,9,30,-25,-2,-9,-151,-67,50,-13,-157,-56,-149
,100,-40,-118,-83,-172,-128,153,-30,155,303,118,-68,-121,174,95,-27,-54,11,100,-291,-22,-29,53,18,108,-205,107,263,120,-115,117
,-102,-118,-96,353,-52,41,468,48,33,-150,62,-142,-226,21,-105,-11,-67,88,-82,-225,-66,50,79,166,-120,110,-108,-47,74,51,161
,80,-100,-48,246,-6,-21,-24,-84,13,-57,-38,-25,4,-80,-188,186,-17,60,29,145,39,149,38,208,5,61,80,207,-24,18,-174
,-187,-102,87,211,71,35,-116,-116,25,263,-125,130,-190,-234,-208,37,10,146,38,-58,-183,-123,-8,-146,5,35,149,-24,-72,38,-237
,143,-10,26,-52,-37,-110,56,-3,16,23,-168,149,103,12,86,-25,69,107,20,104,93,-65,-37,-9,42,19,65,-108,28,-98,35
,-67,106,-141,28,-111,-120,97,81,86,124,-99,22,-7,-91,-24,-61,97,-98,80,-33,-30,-23,88,-140,-93,64,-109,46,-63,-30,54
,53,60,115,-283,-83,-98,98,139,-113,-96,31,-77,-45,-50,109,-66,29,-64,-4,48,77,-32,124,-109,-48,-34,19,-140,135,140,82
,-94,-35,31,-100,148,41,-115,-87,125,-178,99,-100,38,-23,-96,-29,-54,74,-126,-54,-51,119,72,140,78,-80,13,-36,142,-144,-106
,122,-74,-11,81,-22,-144,-102,-22,17,-54,26,-128,-52,-23,2,-142,102,-15,94,64,-72,-71,-95,125,-132,-4,-30,15,-17,-67,-128
,-94,-4,56,19,106,32,50,-16,133,29,-5,19,31,-151,-45,113,-14,127,-89,80,-122,5,-1,53,-34,107,0,-46,147,-1,54
,285,-132,173,60,-270,-27,-183,-48,77,-298,28,-225,318,-87,-33,-178,35,-250,92,103,125,65,48,144,34,-231,70,-135,-45,-171,56
,-92,-105,154,162,-124,61,-4,-49,109,-264,71,141,226,20,-55,-161,0,-91,122,-54,-169,55,-92,105,-144,13,127,95,-124,-55,-119
,45,102,-144,-121,-11,31,-30,-72,35,-139,-119,68,-185,30,-88,69,193,76,-73,-212,5,-140,63,-11,-64,-69,-27,151,80,85,116
,-256,-66,95,-28,-44,123,-149,-131,-91,58,-77,31,269,-143,113,9,104,127,-46,75,-63,71,62,156,-72,13,-21,-65,91,-129,-91
,322,16,0,103,-84,93,118,143,31,-94,-130,-71,-460,59,151,163,-2,-78,-95,114,94,-15,78,184,-74,-83,-32,18,-167,56,-69
,170,-120,142,-65,-38,68,-14,64,-93,114,120,114,86,-145,63,63,-10,33,-79,75,41,49,-5,-96,-69,95,-106,-177,89,-30,-61
,-29,91,115,182,92,94,-118,-130,107,4,29,-83,-39,82,-47,-36,70,0,-59,-139,-11,122,14,-103,-45,-146,-165,72,8,87,18
,8,132,89,-140,137,112,118,-34,90,48,13,59,-37,60,-19,-137,20,-17,-28,136,-117,37,-101,57,-80,72,-29,15,40,88,-60
,119,51,-53,123,-16,64,-17,18,31,-96,74,28,-80,-57,-13,5,85,-162,17,39,-38,-58,14,-101,128,122,-130,-28,21,104,158
,95,43,-2,20,-24,-143,-91,-76,-18,51,-52,95,-160,39,82,-153,104,-114,-7,-8,70,53,129,-53,115,10,-23,91,91,65,11
,-5,101,45,104,84,-10,85,110,112,-39,-39,118,-103,-177,16,25,-27,-92,-99,-185,-25,-110,41,42,86,64,53,0,-110,24,84
,291,86,-287,-108,-61,-142,-37,252,56,107,-139,89,-24,-255,-159,-396,-74,45,-100,265,25,58,-177,17,96,-34,140,-29,78,69,-312
,-138,-28,101,-166,23,22,-37,-73,101,72,-125,124,-24,45,125,-12,151,-108,105,26,-145,91,33,-104,-21,100,-147,-4,115,-88,68
,40,69,47,-52,-61,143,82,44,-92,157,107,20,109,137,-76,-17,-84,-23,52,151,68,-128,139,137,127,95,40,-97,15,85,11
,-104,-68,-134,-184,46,67,171,48,46,-38,-69,42,129,24,-69,60,-15,-124,122,-290,14,6,98,-292,108,-13,27,-201,-78,-128,114
,-258,-41,-81,101,-120,-104,327,-261,26,25,130,187,199,89,-3,-79,77,-245,-22,-107,-53,-76,-54,189,-67,103,-25,-312,-53,132,-36
,264,-10,-45,135,-36,-131,270,21,98,77,-42,-42,8,126,-80,44,171,-156,-119,-457,141,132,-6,-285,-366,79,-215,-119,198,-11,-100
,-718,-42,145,217,-132,-480,-152,-167,102,-387,-33,95,-666,-130,34,-402,0,-326,55,98,-250,-66,124,-295,-208,100,10,-58,115,-19,-150
,113,24,-47,27,82,-50,224,131,-125,-42,-178,109,242,24,-48,63,-37,105,57,33,-29,-121,-91,192,18,-36,55,49,-35,141,58
,-199,38,1,-89,72,-97,26,-87,-42,123,-52,3,-114,111,-8,1,81,5,-78,226,137,-46,-142,-149,43,-33,-15,120,4,140,157
,91,-25,-63,67,114,-24,192,14,-77,-59,115,-21,362,-69,38,146,122,-29,221,0,-42,-56,-37,20,-10,-138,71,54,-161,-1,-64
,58,98,23,-101,-200,-156,14,-118,113,-99,15,-159,172,81,110,-117,9,97,8,-167,97,128,103,-2,108,64,-136,32,-59,94,-70
,2,-48,42,182,-82,0,-115,-75,11,24,-148,110,-11,44,-159,-307,-104,-61,131,68,-23,-107,119,123,71,133,-74,-170,-13,-29,159
,32,61,22,132,-76,56,-195,-116,68,167,45,-59,124,-1,109,274,115,-107,122,178,101,-14,162,-181,-50,-14,99,-105,-83,-143,-84
,149,35,-110,160,93,-107,-71,70,-118,-70,-41,-68,-111,131,77,142,71,32,103,-195,-11,102,-136,-32,-58,-32,44,49,10,-134,115
,-205,-105,-128,-136,163,110,256,20,-92,-277,-69,-113,108,-151,-163,-73,-258,-86,-161,197,61,4,42,123,257,76,143,-287,-62,-51,100
,-302,-41,182,384,123,31,-317,-149,-1,-153,159,54,191,-72,71,22,-244,183,-108,154,-83,-51,3,154,64,-215,-40,-276,-210,-116,-72
,-50,66,-14,-86,75,55,-69,-21,84,120,-144,131,13,-89,80,135,113,158,-108,-86,-111,29,35,-66,44,19,112,41,138,-70,-43
,-58,-58,72,-34,115,13,-22,-143,-140,142,125,-56,-42,105,-13,8,73,-23,45,124,72,109,1,124,47,80,46,-172,-99,-15,68
,-68,-4,-57,321,-161,-11,13,39,231,-258,-50,22,257,5,-160,86,46,-27,-75,-84,-204,-65,-32,407,-53,-121,125,259,-69,-205,72
,170,-9,-86,187,-60,-103,149,-85,-42,-63,-43,120,102,-46,-28,20,-103,32,-48,86,-111,50,40,212,-143,-150,-127,-16,-10,-127,88
,16,-58,-26,169,-19,26,-73,46,100,239,-59,-83,-109,-24,-55,-142,147,-22,36,70,7,-99,-21,-146,50,-18,120,65,96,41,16
,116,-4,62,120,70,-13,116,-78,-30,329,22,-48,74,-66,55,-42,29,-106,44,-161,8,127,-46,-185,-173,59,-49,-200,-67,127,-119
,-220,-140,-107,25,90,-145,109,-59,12,145,-18,130,-173,-137,-93,-217,110,-96,-109,3,40,-95,12,323,-140,142,146,-253,71,53,-149
,-120,66,50,-106,-124,-72,-55,43,53,56,-70,-138,29,-104,-103,98,-161,42,-22,-67,36,-65,-63,-106,122,-150,-85,116,15,-73,-27
,301,-50,50,-62,184,-36,-134,268,-7,-30,-208,-155,-428,-111,18,-74,-76,39,126,-185,-88,-67,34,218,-113,41,29,23,113,-153,-62
,-166,-53,-149,-29,148,-50,1,-16,32,164,45,-135,232,-121,-33,-212,-31,99,-143,117,-135,113,75,-259,-134,79,205,194,-156,-9,-132
,127,-74,-70,136,104,190,68,16,116,-627,27,78,120,-191,-101,-335,-27,-110,-125,-448,-118,153,-271,151,118,-158,-143,256,-140,16,95
,-18,18,125,-232,-167,24,-239,-12,74,136,79,-63,-62,25,-70,-83,-2,-119,129,-45,21,68,-89,158,115,-55,-178,-298,-47,40,-22
,-99,52,-318,-156,40,-42,367,115,-22,154,-131,-81,-288,162,-237,-229,-108,-173,19,-79,-211,-128,9,337,94,146,142,277,179,29,-105
,255,138,-35,305,-206,-159,78,16,114,199,49,81,311,-89,-32,268,-47,-154,132,76,-156,-140,-10,113,11,-265,157,135,128,-26,-95
,159,56,-105,143,-151,-22,98,-188,4,148,-64,58,11,139,-72,-435,163,-113,-89,9,15,57,-118,-9,148,82,-101,79,5,130,-49
,192,-89,111,-251,-117,73,293,-46,77,-245,-109,-127,-147,193,-10,391,-92,-2,-111,364,139,-75,-69,-59,180,-183,-8,-246,141,-154,-64
,-244,-96,-192,205,-263,61,-153,-56,16,44,-200,-119,97,-47,22,173,-102,-117,-130,115,115,93,136,103,12,-24,50,8,-10,-39,147
,11,122,20,-87,110,-88,-22,47,-136,120,-7,74,101,17,-120,-40,109,71,22,4,111,96,134,100,-67,129,-128,-127,-20,-93,-21
,-37,5,-17,108,96,113,-90,-5,-38,-66,-152,-102,-76,-8,-92,12,91,24,117,203,-65,39,-33,-38,0,10,15,63,18,-17,50
,-177,-176,123,72,164,160,46,-139,4,-21,-23,134,129,137,102,-61,12,-108,16,-16,-92,76,-109,80,60,23,-40,77,108,-67,-60
,-16,61,-97,56,-81,-28,43,-19,116,18,56,4,-65,53,159,-102,105,-156,-77,-70,38,74,104,-102,-85,-63,61,13,145,-101,46
,181,92,85,2,45,-55,-19,-105,54,305,-81,-38,-38,-244,-66,173,118,137,-24,-59,-74,121,97,163,-33,24,16,156,-116,-123,8
,101,-142,-104,-119,73,-10,-178,-81,55,332,-202,-133,-11,164,-42,18,79,-92,-158,337,139,-109,-36,-11,156,121,-136,-58,-60,82,72
,42,235,133,299,41,41,-280,-9,-80,-128,93,38,93,-157,-100,-225,-28,141,-131,-238,-71,-56,-25,-224,149,-61,-137,-107,26,-27,-41
,-62,64,57,-41,32,15,-145,-29,-93,-82,113,52,-37,-95,1,19,2,128,52,-127,100,-119,42,67,-49,-33,-6,-23,17,65,102
,-296,108,-152,-12,-41,77,-80,-11,-65,420,-122,135,198,21,-196,366,140,-24,-205,-162,-24,21,21,-222,186,-171,64,126,33,33,6
,164,125,-52,232,107,-234,-34,168,-40,40,-7,-130,-89,2,-190,-122,80,22,103,18,-93,-324,-14,90,-21,-131,-48,12,129,-17,13
,111,202,39,-80,-69,37,-428,-111,-251,-79,6,-157,-224,48,44,-65,15,-267,31,43,27,56,-66,-61,-27,179,11,-61,67,-19,100
,-252,13,64,78,59,-98,-117,108,-50,151,-9,-26,-160,-115,-5,9,90,-99,162,-346,-186,-334,44,25,-52,-20,98,-20,67,95,-107
,-51,118,-101,-80,136,11,61,-33,142,119,-54,131,-77,77,5,4,105,42,-99,-43,70,-79,-60,26,107,114,-3,94,118,119,14
,4,99,-11,154,175,-139,-84,-20,-30,80,17,65,-101,-108,-3,-29,-43,142,-58,-168,64,120,45,-160,-6,43,-93,145,-39,-1,50
,80,-33,51,-239,-167,31,-145,-129,-43,-152,-21,-85,-342,83,-121,-101,99,-4,58,-258,137,4,9,105,-108,-140,165,66,-64,-315,88
,-285,70,-43,-146,5,-92,-241,-143,86,120,193,66,-257,-252,-99,-176,-90,39,27,85,182,-2,-82,-262,-111,64,10,180,168,-105,-131
,-175,126,-118,-322,-24,127,152,-17,132,128,-95,-4,-76,69,146,-229,-158,-100,40,-130,-113,8,-23,-70,14,97,-32,7,74,-31,-64
,112,-144,-121,-9,1,-141,-86,7,-13,115,-125,107,102,-104,42,-99,-116,-95,61,-45,-87,-146,-38,129,-43,-132,-56,-68,-42,-61,-96
,-72,-57,-115,129,3,-45,35,71,-76,117,-80,-69,115,9,-146,31,-124,24,69,48,60,46,-54,157,-140,-16,55,-79,-91,-165,44
,1,193,46,187,32,83,-261,24,-45,434,-119,59,-127,89,-121,12,194,-10,78,-385,8,-202,-198,222,-116,-46,-65,-211,11,-33,-115
,11,-6,61,-1,-55,138,13,-126,42,-27,94,122,109,-100,-9,112,-34,61,50,50,-28,-64,77,108,-37,-96,-53,62,46,-8,59
,-184,-95,63,-152,-87,-84,-40,-182,-95,115,-194,51,-151,-19,-87,-136,-104,106,51,96,46,90,40,221,107,-14,10,-61,36,-55,133
,243,-17,-106,-424,-38,-35,105,32,-172,110,60,61,138,-14,-65,48,139,-44,-26,93,10,-86,160,-164,-91,140,-55,174,69,69,-86
,83,177,67,-366,-4,-59,154,-242,131,-226,-158,126,226,-27,-246,143,-103,141,-28,-342,-132,35,-70,101,-191,66,-117,-163,-4,39,-215
,-127,74,27,-96,26,107,-148,32,38,-34,-96,-44,-16,-42,-113,2,-128,82,54,-15,-43,-61,-84,31,-142,64,49,-28,84,89,14
,-75,101,-61,-309,68,-213,293,4,22,257,32,-10,287,191,-264,-347,59,59,222,-263,120,-91,-9,-427,-209,-68,-13,211,92,-75,-208
,-561,-73,-5,-12,32,15,227,-184,129,-322,190,-36,-119,-256,59,184,75,-150,44,-169,-112,-127,1,6,30,-113,145,271,47,-59,-32
,-516,27,-122,138,-142,-135,-73,9,-83,64,16,-43,-67,236,-110,194,69,88,92,-127,4,20,-55,173,72,30,-59,-109,-67,-168,-76
,-78,26,-87,181,52,80,-161,28,-17,-110,71,139,10,-132,87,-129,-1,-85,114,93,44,49,-199,147,-105,25,-192,-44,-97,124,-56
,145,135,80,-15,-73,104,-41,126,22,-113,33,12,175,73,138,110,-125,-36,-94,73,-42,21,53,65,-3,81,-96,161,-96,86,-17
,133,36,103,-66,-12,-63,45,-146,-63,78,-66,-57,-123,17,91,108,93,79,27,15,-12,-109,87,53,-151,-29,-21,-98,79,147,140
,140,186,-225,-197,-21,-151,-116,37,27,105,61,-94,-45,32,102,6,40,-3,31,-197,134,-86,-169,-315,93,-25,150,-287,38,-102,-95
,767,82,-41,259,-114,-34,42,-158,-225,29,60,-124,-27,-55,195,-161,169,63,-63,59,69,-19,28,-89,-33,-67,-100,131,156,-23,-139
};

long weight_1_T_nvme1n1[2*256] = {
245,-143,-103,167,417,134,336,260,258,-226,283,88,-101,-346,-21,-460,54,100,-189,347,71,-284,74,82,61,-237,48,-379,2,83,141,-327,47,-53,-270,-131,-48,-247,-96,48,98,-112,-279,-414,242,-37,-64,-23,152,-107,119,-297,26,97,127,11,-170,-134,111,50,-92,-86,-227,23,24,28,-343,-55,442,-100,76,52,169,-212,123,124,101,-18,202,-10,-96,85,-128,65,-192,98,79,169,141,-38,-429,155,343,-24,75,258,-448,-114,287,48,60,110,-348,71,67,189,-32,-250,577,120,263,-190,115,-355,-155,-34,376,518,-108,11,-147,258,107,-85,11,-104,-263,-111,135,136,-127,87,111,-177,-21,457,170,-330,-424,508,170,39,-107,69,41,40,441,55,59,88,-132,229,222,57,123,-248,32,-59,295,-482,46,68,155,-43,112,55,-109,175,-53,-65,60,91,278,-112,106,-120,14,-94,31,-354,-128,112,-98,173,-64,106,-80,-65,-15,-98,320,123,30,108,191,-223,-230,-62,-107,173,-91,-127,-82,-94,163,211,16,-99,-292,-39,-104,-24,262,-46,-76,74,-296,54,348,311,141,-345,-167,146,-20,-33,62,-16,113,83,95,-178,448,-106,228,136,3,308,37,93,-127,-45,214,104,130,-114,-199,-11,-349,219,-301,-168,104,48,77,206
,-413,140,38,-194,-408,-136,-462,-240,-183,279,-155,-16,183,307,-4,569,-63,87,130,-127,-44,215,-233,-140,-110,87,153,252,-64,-32,-173,284,159,-65,408,98,-41,15,325,-243,101,-34,215,352,-39,111,98,50,98,90,-254,230,70,2,51,-21,39,118,-92,50,-91,-35,195,76,-284,59,394,6,-524,253,31,103,-14,261,73,-129,-77,82,-170,-228,-59,-36,133,28,191,-74,108,-89,-114,-4,445,-377,-224,-186,-65,-129,195,-118,-269,-218,-62,64,153,-117,-85,-132,-139,328,-437,81,-282,252,-106,468,11,265,-340,-402,-95,-73,-9,-60,-84,-66,24,1,39,183,-97,-184,192,158,63,53,198,-298,-55,306,540,-368,-114,-113,111,-87,-30,64,-444,-268,-32,-91,174,-272,-101,-181,-8,124,-131,-3,-303,195,-142,-167,-75,94,58,12,-81,-110,-30,110,-83,21,-229,98,108,-49,-85,-109,94,253,133,-44,65,-46,56,-12,15,45,-114,46,-341,-58,124,-96,2,296,369,65,92,17,14,109,34,-53,-294,-362,105,84,297,-148,-20,-99,-178,92,259,-241,230,-161,-491,-342,-128,263,231,114,2,87,-65,-111,-322,-132,-17,173,-409,84,-319,73,145,-246,236,-85,84,-66,-298,117,151,145,213,-3,274,-309,307,73,131,-42,-181,-309
};

long bias_0_nvme1n1[1*256] = {
-22,-27,-46,-3,-37,19,49,1,-14,-95,6,46,-51,-24,0,21,53,8,-56,21,-25,8,-77,48,46,-21,-29,19,45,26,8,-6,-15,-16,-87,-26,0,-47,38,39,18,-39,24,-102,23,-46,-43,-52,28,-14,111,-17,-35,47,54,27,-31,-36,49,-57,-9,-43,-28,-45,72,-41,-4,-17,91,7,34,-22,46,-34,36,11,43,-33,2,12,-15,49,-21,34,-75,54,-45,43,12,-56,36,34,-24,24,50,15,-35,0,54,49,37,43,4,38,22,54,23,35,42,-19,-3,-10,56,52,-35,-9,13,-13,-72,23,-45,46,30,-68,-58,-45,-27,-71,21,-2,-6,-42,42,-34,-81,-30,63,2,15,-28,32,74,-31,41,37,-37,79,16,82,13,-24,72,59,-18,45,-58,23,-7,-15,-78,-12,-44,25,-30,49,47,-26,2,-18,-53,54,32,-53,-62,-19,-59,50,-11,-40,-6,-21,28,-31,7,-48,23,-36,-38,26,-67,18,40,-45,29,-12,-106,-37,-37,-55,14,-70,-40,-16,-52,7,-25,-43,-49,13,-18,-52,-16,10,-20,-71,-25,-59,34,-26,0,61,-47,-3,40,-73,-46,32,35,73,71,51,-61,25,-55,14,50,-45,-52,-11,17,-8,-14,10,-37,-37,-20,29,-64,-28,9,-47,9,-33,49,8,9
};

long bias_1_nvme1n1[1*2] = {
53781,-39858
};

#endif
