-1.137114688754081726e-02
-1.764023117721080780e-02
1.975874602794647217e-02
3.438171744346618652e-02
-3.062399104237556458e-02
-8.883881568908691406e-02
-5.211775377392768860e-02
5.647419765591621399e-02
-1.739593222737312317e-02
-5.498832464218139648e-02
-1.133076753467321396e-02
2.258258312940597534e-02
-1.887501962482929230e-02
-3.561327978968620300e-02
-1.675189845263957977e-02
2.000676235184073448e-03
3.013765066862106323e-02
-3.030724264681339264e-02
1.550972182303667068e-02
6.944863498210906982e-02
-9.696356020867824554e-03
-2.771147526800632477e-02
-6.897614803165197372e-03
3.704110393300652504e-03
1.316449418663978577e-02
-1.210734713822603226e-02
-2.097858581691980362e-03
-1.043601706624031067e-02
5.316571332514286041e-03
-2.392679639160633087e-02
2.337386459112167358e-02
-1.311926078051328659e-02
1.198560465127229691e-03
-3.871367871761322021e-02
-2.669036760926246643e-02
-2.876880951225757599e-02
-2.554081752896308899e-02
-4.168004728853702545e-03
-1.834993436932563782e-02
3.280980139970779419e-02
-1.861950196325778961e-02
-1.095824968069791794e-02
-1.931470260024070740e-02
-1.212445832788944244e-02
-1.385980937629938126e-02
3.820801898837089539e-02
-4.544588923454284668e-02
-3.020092472434043884e-02
-5.655552819371223450e-02
-1.377150975167751312e-02
-2.210544794797897339e-02
-4.748265258967876434e-03
6.150315050035715103e-03
2.807250246405601501e-02
3.144461661577224731e-02
-9.601503610610961914e-03
5.333347618579864502e-02
-1.122284960001707077e-02
-1.237005647271871567e-02
-3.819387033581733704e-02
-4.678802937269210815e-02
-4.829470813274383545e-02
-3.890231251716613770e-02
1.335418969392776489e-02
-1.521553471684455872e-02
1.226577814668416977e-02
6.704359780997037888e-03
-7.308225613087415695e-04
-4.084844142198562622e-02
-3.423262014985084534e-02
8.661848492920398712e-03
2.421604469418525696e-02
8.165748417377471924e-02
-1.021058335900306702e-01
-1.762465015053749084e-02
5.986706819385290146e-03
8.175038732588291168e-03
-3.069921024143695831e-02
-2.718581818044185638e-02
2.216695435345172882e-02
2.872542664408683777e-02
1.637617126107215881e-02
-5.195638630539178848e-03
3.870631568133831024e-03
1.386013254523277283e-02
-3.234679624438285828e-02
-4.420656338334083557e-02
3.533682227134704590e-02
-1.683967933058738708e-02
-9.277437813580036163e-03
-1.208247151225805283e-03
-8.001836016774177551e-03
-1.299916673451662064e-02
0.000000000000000000e+00
-3.699615132063627243e-03
3.450560942292213440e-02
-3.305595368146896362e-03
-9.661155752837657928e-03
2.826913073658943176e-02
9.648222476243972778e-02
-5.174849648028612137e-03
2.050625625997781754e-03
6.328948307782411575e-03
-2.668618410825729370e-02
2.243708819150924683e-03
-9.122769348323345184e-03
-2.117448486387729645e-02
-4.570933431386947632e-02
-1.377192698419094086e-02
-2.522124163806438446e-02
-5.173013359308242798e-02
-4.456401802599430084e-04
3.180152550339698792e-02
1.546638645231723785e-02
-1.581954397261142731e-02
-1.425476092845201492e-02
-1.234919857233762741e-02
5.478213354945182800e-02
-3.767269104719161987e-02
-1.189992297440767288e-02
-4.908243566751480103e-02
-2.785141393542289734e-02
-1.091555505990982056e-02
-4.882293869741261005e-04
0.000000000000000000e+00
7.933411747217178345e-02
-2.215973474085330963e-02
-2.341036871075630188e-02
-2.989566884934902191e-02
1.269441447220742702e-03
1.881137862801551819e-02
-4.063523188233375549e-02
2.420696429908275604e-02
4.884073277935385704e-04
4.011918324977159500e-03
-7.133866846561431885e-02
-3.255416452884674072e-02
1.044553518295288086e-01
-2.764509804546833038e-02
4.587884061038494110e-03
-7.732033729553222656e-03
-2.018338628113269806e-02
-1.384046021848917007e-02
8.096954785287380219e-03
-2.836466953158378601e-02
2.501573599874973297e-02
2.242434397339820862e-02
-2.168546430766582489e-03
-7.551296055316925049e-02
1.812553405761718750e-02
1.489552948623895645e-02
-4.356508702039718628e-02
1.304032374173402786e-02
2.020914852619171143e-02
-3.802098333835601807e-02
1.347514707595109940e-02
3.703162074089050293e-02
1.824583671987056732e-02
-5.036987364292144775e-02
2.988352254033088684e-02
-4.787544719874858856e-03
-1.059670653194189072e-02
-1.119806393980979919e-01
-4.373216629028320312e-02
-1.269213296473026276e-02
1.466009113937616348e-02
1.971430331468582153e-02
-3.103781677782535553e-02
6.564375758171081543e-02
-7.270083297044038773e-03
-1.688122004270553589e-02
1.138634048402309418e-02
-4.182787146419286728e-03
-2.908671088516712189e-02
-1.571746170520782471e-02
-2.965738810598850250e-02
-7.404755335301160812e-03
5.246470868587493896e-02
-2.677489817142486572e-02
4.287762194871902466e-02
3.645547106862068176e-02
8.770185522735118866e-03
-7.830295711755752563e-02
1.626093126833438873e-02
-9.418131783604621887e-03
-2.125681191682815552e-02
-7.784426677972078323e-03
1.050783321261405945e-02
-2.579645067453384399e-02
-2.262994460761547089e-02
1.922983862459659576e-02
-5.273117870092391968e-02
-1.149887032806873322e-02
-1.817870885133743286e-02
1.267930585891008377e-02
6.861095316708087921e-03
2.708669006824493408e-02
-8.310624398291110992e-03
-6.612145341932773590e-03
1.294072624295949936e-02
-1.190309599041938782e-02
4.230070114135742188e-02
-2.922030538320541382e-02
2.045539580285549164e-02
-5.814169417135417461e-04
-4.068471956998109818e-03
2.895554644055664539e-04
-5.590682476758956909e-02
-2.899941056966781616e-02
-4.888217896223068237e-02
1.951197348535060883e-02
1.816490292549133301e-02
3.512503206729888916e-02
-3.166805952787399292e-03
3.863545507192611694e-02
-7.646732777357101440e-02
-3.981473669409751892e-02
-3.050311282277107239e-02
8.758764714002609253e-03
7.894142717123031616e-02
-2.603933960199356079e-02
2.991869300603866577e-02
-3.378726541996002197e-02
-1.319837570190429688e-02
-2.399153821170330048e-02
8.890378288924694061e-03
3.050698433071374893e-04
-2.988960780203342438e-02
-1.997825875878334045e-02
5.923562496900558472e-02
-2.548143640160560608e-02
-2.963058650493621826e-02
6.321486085653305054e-03
2.364856563508510590e-02
-2.771278657019138336e-02
8.905223570764064789e-03
7.242217659950256348e-02
-2.158571034669876099e-02
8.089243620634078979e-02
-3.474469855427742004e-02
-5.519886314868927002e-02
7.406281307339668274e-03
3.096809238195419312e-02
7.149706780910491943e-02
3.808240219950675964e-02
-1.844202913343906403e-02
-4.649969190359115601e-02
3.759770421311259270e-03
1.810043305158615112e-02
-2.327046729624271393e-02
-1.776761934161186218e-02
-2.052374742925167084e-02
-1.744211837649345398e-02
-3.612045571208000183e-02
-3.486596420407295227e-02
-2.745980396866798401e-02
