-2.169414050877094269e-02
-2.651507593691349030e-02
-4.637901112437248230e-02
-3.427382092922925949e-03
-3.706042841076850891e-02
1.892466284334659576e-02
4.946096614003181458e-02
1.057931338436901569e-03
-1.403640769422054291e-02
-9.529824554920196533e-02
5.855176597833633423e-03
4.587940871715545654e-02
-5.103556439280509949e-02
-2.407683432102203369e-02
0.000000000000000000e+00
2.142054960131645203e-02
5.286817625164985657e-02
8.035003207623958588e-03
-5.551400408148765564e-02
2.108118496835231781e-02
-2.548099867999553680e-02
8.238312788307666779e-03
-7.726111263036727905e-02
4.766360670328140259e-02
4.565876349806785583e-02
-2.078769542276859283e-02
-2.902931906282901764e-02
1.865728572010993958e-02
4.507301747798919678e-02
2.573822811245918274e-02
7.577614858746528625e-03
-5.643013864755630493e-03
-1.546178665012121201e-02
-1.635440066456794739e-02
-8.742815256118774414e-02
-2.634477615356445312e-02
0.000000000000000000e+00
-4.651361703872680664e-02
3.811827301979064941e-02
3.924616053700447083e-02
1.844254136085510254e-02
-3.882980346679687500e-02
2.377436682581901550e-02
-1.024146601557731628e-01
2.263328060507774353e-02
-4.611523076891899109e-02
-4.284037277102470398e-02
-5.216667801141738892e-02
2.829946205019950867e-02
-1.387990545481443405e-02
1.109159663319587708e-01
-1.732987910509109497e-02
-3.478086367249488831e-02
4.668097198009490967e-02
5.417030677199363708e-02
2.680885791778564453e-02
-3.114154189825057983e-02
-3.571958839893341064e-02
4.858262091875076294e-02
-5.710993334650993347e-02
-8.904712274670600891e-03
-4.260026663541793823e-02
-2.847498469054698944e-02
-4.549275711178779602e-02
7.151513546705245972e-02
-4.064822569489479065e-02
-3.841482801362872124e-03
-1.672759838402271271e-02
9.123776853084564209e-02
6.979089230298995972e-03
3.407902270555496216e-02
-2.232003957033157349e-02
4.567271843552589417e-02
-3.416572883725166321e-02
3.610104322433471680e-02
1.105956546962261200e-02
4.303196072578430176e-02
-3.304675593972206116e-02
1.567600527778267860e-03
1.206246856600046158e-02
-1.472338475286960602e-02
4.851774126291275024e-02
-2.124586328864097595e-02
3.364445641636848450e-02
-7.471349835395812988e-02
5.363757163286209106e-02
-4.483078420162200928e-02
4.258717224001884460e-02
1.152205560356378555e-02
-5.571449920535087585e-02
3.550229966640472412e-02
3.378557413816452026e-02
-2.382885850965976715e-02
2.420315146446228027e-02
4.984122887253761292e-02
1.532643567770719528e-02
-3.504404798150062561e-02
0.000000000000000000e+00
5.415868759155273438e-02
4.868001118302345276e-02
3.733439370989799500e-02
4.286339506506919861e-02
4.250018857419490814e-03
3.842415660619735718e-02
2.234631776809692383e-02
5.443130433559417725e-02
2.281714603304862976e-02
3.467772156000137329e-02
4.241804778575897217e-02
-1.891168393194675446e-02
-3.135289065539836884e-03
-1.029983721673488617e-02
5.601682886481285095e-02
5.188428610563278198e-02
-3.487645089626312256e-02
-9.154058061540126801e-03
1.256624981760978699e-02
-1.276089437305927277e-02
-7.189993560314178467e-02
2.270472794771194458e-02
-4.535984992980957031e-02
4.570573195815086365e-02
3.000864572823047638e-02
-6.777219474315643311e-02
-5.847825109958648682e-02
-4.461382329463958740e-02
-2.717653289437294006e-02
-7.097449898719787598e-02
2.095960453152656555e-02
-1.981434645131230354e-03
-6.095212884247303009e-03
-4.223135113716125488e-02
4.206677526235580444e-02
-3.398533537983894348e-02
-8.074844628572463989e-02
-2.964227087795734406e-02
6.293371319770812988e-02
2.235709456726908684e-03
1.491179969161748886e-02
-2.786925248801708221e-02
3.216251730918884277e-02
7.448338717222213745e-02
-3.134802356362342834e-02
4.087438806891441345e-02
3.743540495634078979e-02
-3.738552331924438477e-02
7.870659977197647095e-02
1.565430685877799988e-02
8.215762674808502197e-02
1.256017573177814484e-02
-2.397229336202144623e-02
7.218259572982788086e-02
5.944537371397018433e-02
-1.808304525911808014e-02
4.517293348908424377e-02
-5.814846605062484741e-02
2.319179289042949677e-02
-6.867539603263139725e-03
-1.452400628477334976e-02
-7.816157490015029907e-02
-1.172679197043180466e-02
-4.356197640299797058e-02
2.494349144399166107e-02
-3.045718185603618622e-02
4.888311401009559631e-02
4.744242876768112183e-02
-2.630695141851902008e-02
2.139298943802714348e-03
-1.826496236026287079e-02
-5.319416522979736328e-02
5.404588580131530762e-02
3.182336315512657166e-02
-5.275106802582740784e-02
-6.243557110428810120e-02
-1.948150806128978729e-02
-5.942109972238540649e-02
5.039616674184799194e-02
-1.132980082184076309e-02
-3.957250714302062988e-02
-5.966244731098413467e-03
-2.065739594399929047e-02
2.787961065769195557e-02
-3.054746612906455994e-02
7.113253697752952576e-03
-4.846785590052604675e-02
2.275714837014675140e-02
-3.648239746689796448e-02
-3.797539323568344116e-02
2.646989375352859497e-02
-6.679859012365341187e-02
1.827547699213027954e-02
4.027974605560302734e-02
-4.507526010274887085e-02
2.903481200337409973e-02
-1.161728519946336746e-02
-1.057984605431556702e-01
-3.706201538443565369e-02
-3.689363598823547363e-02
-5.546958371996879578e-02
1.409128028899431229e-02
-6.977128982543945312e-02
-3.976604342460632324e-02
-1.553960330784320831e-02
-5.202209576964378357e-02
6.917548831552267075e-03
-2.506386116147041321e-02
-4.314638674259185791e-02
-4.892265424132347107e-02
1.343191135674715042e-02
-1.785837113857269287e-02
-5.160433426499366760e-02
-1.592374965548515320e-02
1.000093109905719757e-02
-2.026439644396305084e-02
-7.140865921974182129e-02
-2.532831765711307526e-02
-5.860441923141479492e-02
3.447650745511054993e-02
-2.619514428079128265e-02
-1.696209073998034000e-05
6.138461455702781677e-02
-4.654673114418983459e-02
-3.308567916974425316e-03
3.978147730231285095e-02
-7.289295643568038940e-02
-4.585799574851989746e-02
3.157407790422439575e-02
3.452376648783683777e-02
7.342013716697692871e-02
7.129893451929092407e-02
5.050447583198547363e-02
-6.132041662931442261e-02
2.474280633032321930e-02
-5.539292469620704651e-02
1.399102713912725449e-02
5.012129619717597961e-02
-4.479790851473808289e-02
-5.227622389793395996e-02
-1.133195497095584869e-02
1.686976477503776550e-02
-7.831863127648830414e-03
-1.378426142036914825e-02
9.642110206186771393e-03
-3.709621727466583252e-02
-3.688848018646240234e-02
-2.011519111692905426e-02
2.899622917175292969e-02
-6.365519016981124878e-02
-2.782524004578590393e-02
8.689258247613906860e-03
-4.717997834086418152e-02
9.143642149865627289e-03
-3.339430689811706543e-02
4.856162518262863159e-02
7.697011809796094894e-03
8.540516719222068787e-03
