6.191786378622055054e-02,-9.080856293439865112e-02,3.076213039457798004e-02,-4.736039787530899048e-02,6.868809461593627930e-02,9.433265775442123413e-02,-9.156822413206100464e-02,-5.348774790763854980e-02,8.727440983057022095e-02,-6.548556499183177948e-03,-1.128563880920410156e-01,-4.040738940238952637e-02,-7.771398127079010010e-02,-2.806932665407657623e-02,-8.119492977857589722e-02,-9.882841259241104126e-02,1.101316288113594055e-01,-9.078155457973480225e-02,1.239716708660125732e-01,-7.981166243553161621e-02,-6.704733241349458694e-03,6.898529082536697388e-02,-7.572253700345754623e-03,1.005712449550628662e-01,-3.189019113779067993e-02,4.237576504237949848e-04,-7.977318018674850464e-02,2.465426921844482422e-02,-1.452783942222595215e-01,-7.157552987337112427e-02,-7.485847175121307373e-02,7.394528388977050781e-02,1.107247769832611084e-01,-6.471595168113708496e-02,7.173006981611251831e-02,-9.860131889581680298e-02,-1.304885149002075195e-01,-1.082684695720672607e-01,8.740571141242980957e-02,-1.591267883777618408e-01,-1.258555054664611816e-01,-1.433333754539489746e-01,5.424812436103820801e-02,-6.838583201169967651e-02,-9.403704106807708740e-02,-2.584656514227390289e-02,5.719952285289764404e-02,-1.768843829631805420e-02,1.121541261672973633e-01,-5.285647511482238770e-02,-8.518964797258377075e-02,-8.315967768430709839e-02,1.211941707879304886e-02,1.298030614852905273e-01,6.989192962646484375e-02,-1.490871310234069824e-01,1.265426278114318848e-01,-1.184270903468132019e-01,1.290196925401687622e-01,1.088549476116895676e-02,6.512138247489929199e-02,-3.446717746555805206e-04,-3.193664178252220154e-02,1.487260032445192337e-02,-8.136770129203796387e-02,8.545871078968048096e-02,-1.436567008495330811e-01,2.608586475253105164e-02,3.308740211650729179e-03,-1.829754412174224854e-01,-5.153374373912811279e-02,-2.373729646205902100e-01,1.253785192966461182e-01,-1.218054220080375671e-01,-1.869211643934249878e-01,7.760509848594665527e-02,-1.051317900419235229e-01,6.450737267732620239e-02,6.168195232748985291e-02,8.749534934759140015e-02,2.520437724888324738e-02,1.137472391128540039e-01,1.605440117418766022e-02,1.098557859659194946e-01,5.759363621473312378e-02,1.198072433471679688e-01,-3.421669453382492065e-02,1.132091134786605835e-01,9.957693517208099365e-02,8.625942468643188477e-02,8.236093074083328247e-02,8.480636030435562134e-02,3.082289732992649078e-02,-1.856230944395065308e-01,-1.675082892179489136e-01,-1.069521754980087280e-01,-7.727652788162231445e-02,2.588563598692417145e-02,-6.703470647335052490e-02,8.028720319271087646e-02,-1.326437741518020630e-01,1.557637751102447510e-01,1.116541326045989990e-01,1.281513646245002747e-02,6.255180388689041138e-02,-6.293059885501861572e-02,-1.319431066513061523e-01,-3.381861373782157898e-02,-1.930632293224334717e-01,-1.600578613579273224e-02,6.036021560430526733e-02,-1.719558537006378174e-01,9.274567663669586182e-02,-4.362524300813674927e-02,-1.066906079649925232e-01,2.005781233310699463e-02,-9.882305562496185303e-02,-1.068945229053497314e-01,4.973168298602104187e-02,-4.416928067803382874e-02,7.827823050320148468e-03,2.438354492187500000e-02,-2.336311191320419312e-01,-1.213995069265365601e-01,1.448493301868438721e-01,1.105607226490974426e-01,-1.021381244063377380e-01,1.372955888509750366e-01,1.650134772062301636e-01,-1.884735561907291412e-02,4.610423743724822998e-02,8.539904654026031494e-02,-7.395421713590621948e-02,-1.894471496343612671e-01,2.148401737213134766e-02,-8.544027060270309448e-02,-8.558553643524646759e-03,-4.312197212129831314e-03,1.197000686079263687e-02,-6.327784806489944458e-02,-7.148864865303039551e-02,-1.995470188558101654e-02,6.705114990472793579e-02,9.613623470067977905e-02,-2.123568579554557800e-02,5.703669413924217224e-02,5.219437927007675171e-02,3.746524453163146973e-02,2.200522646307945251e-02,1.187164112925529480e-01,-2.046166360378265381e-02,-4.600131511688232422e-02,-7.892077416181564331e-02,6.676085758954286575e-03,1.250734552741050720e-02,-1.083946600556373596e-01,-7.905838638544082642e-02,-1.831158995628356934e-02,-1.697590760886669159e-02,-8.294410258531570435e-02,7.541145896539092064e-04,8.871082216501235962e-02,-1.639766842126846313e-01,-3.617618605494499207e-02,1.144185960292816162e-01,-1.063768416643142700e-01,-1.038578897714614868e-01,-3.023147769272327423e-02,1.012528836727142334e-01,-1.362668871879577637e-01,-1.010744571685791016e-01,-2.158884406089782715e-01,-2.230830639600753784e-01,5.557333305478096008e-02,8.871211856603622437e-02,3.891725465655326843e-02,-1.269652098417282104e-01,1.400257349014282227e-01,2.561486326158046722e-02,7.655714452266693115e-02,8.383642882108688354e-02,-6.595486402511596680e-02,-1.036545112729072571e-01,1.209912300109863281e-01,-1.574971154332160950e-02,-9.871622920036315918e-02,7.179217785596847534e-02,-1.622924953699111938e-01,6.130607053637504578e-02,-1.048982962965965271e-01,1.358460262417793274e-02,-6.101683154702186584e-02,-2.191230095922946930e-02,6.699244491755962372e-03,-6.551231443881988525e-02,-9.182200580835342407e-02,-1.153809949755668640e-01,7.143113762140274048e-02,-7.945475727319717407e-02,-8.700643479824066162e-02,8.489794284105300903e-02,4.989451915025711060e-02,9.549234062433242798e-02,7.468653470277786255e-02,5.448355525732040405e-02,-1.084602158516645432e-02,1.134164258837699890e-01,-3.402234613895416260e-02,4.196030274033546448e-02,-2.721276320517063141e-02,-4.686895012855529785e-02,3.850099816918373108e-02,6.825757771730422974e-02,-2.482163161039352417e-02,-1.147209182381629944e-01,9.239871054887771606e-02,6.695653498172760010e-02,-1.083838343620300293e-01,6.351772695779800415e-02,1.065754219889640808e-01,7.098416332155466080e-03,-5.766093730926513672e-02,8.326133340597152710e-02,-8.055904507637023926e-02,7.477322965860366821e-02,1.219416186213493347e-01,-4.008986055850982666e-02,1.941499300301074982e-02,-9.861040860414505005e-02,-9.588526934385299683e-02,1.162615604698657990e-02,2.364055626094341278e-02,1.437511593103408813e-01,1.405227631330490112e-01,6.399472057819366455e-02,-2.218680828809738159e-02,-2.384914644062519073e-02,-8.562312275171279907e-02,7.821698486804962158e-02,-1.372003704309463501e-01,4.926331341266632080e-02,1.648239605128765106e-02,-4.923720378428697586e-03,-7.118351012468338013e-02,-2.689792402088642120e-02,-3.546322137117385864e-02,1.462526321411132812e-01,-5.561359226703643799e-02,1.151754334568977356e-01,-8.578366041183471680e-02,2.267648465931415558e-02,4.845951870083808899e-02,4.482214897871017456e-02,-3.454109653830528259e-02,-5.123755335807800293e-02,-5.281793698668479919e-02
-1.344272196292877197e-01,3.373093530535697937e-02,4.920067638158798218e-02,-4.339280724525451660e-02,-1.011494919657707214e-01,-1.728772558271884918e-02,-8.882112801074981689e-02,-2.143580093979835510e-02,-1.205941140651702881e-01,1.712629795074462891e-01,-9.797596372663974762e-03,3.255268093198537827e-03,-1.556409299373626709e-01,1.045274958014488220e-01,1.242053136229515076e-01,-4.380784928798675537e-01,-2.107371389865875244e-01,2.333707176148891449e-02,1.439905613660812378e-01,1.961843669414520264e-02,-1.234150156378746033e-01,-2.109962515532970428e-02,1.125881895422935486e-01,-1.012054681777954102e-01,6.172542646527290344e-02,1.189253479242324829e-01,-7.286010310053825378e-03,1.006550937891006470e-01,1.592070609331130981e-02,-1.967541128396987915e-02,9.939415007829666138e-02,7.090476155281066895e-02,-4.790183156728744507e-02,1.133422553539276123e-01,7.801546901464462280e-02,6.627234071493148804e-02,-3.532002866268157959e-02,9.689647704362869263e-03,-3.277814015746116638e-02,1.966197788715362549e-02,-1.188349351286888123e-01,-5.996844172477722168e-02,-1.221367809921503067e-02,3.034805133938789368e-02,1.266910135746002197e-01,9.638772904872894287e-02,8.648584783077239990e-02,7.898817211389541626e-02,8.449212461709976196e-02,8.130211383104324341e-02,1.387461721897125244e-01,1.963698267936706543e-01,1.360116451978683472e-01,-3.461736068129539490e-02,-3.406370058655738831e-02,-6.374607980251312256e-02,1.629824377596378326e-02,-7.339451462030410767e-02,1.951901055872440338e-02,1.166464015841484070e-01,-1.225772425532341003e-01,-1.847377717494964600e-01,6.750020664185285568e-03,-1.083274260163307190e-01,-1.280254572629928589e-01,-8.307989686727523804e-02,1.692366749048233032e-01,-2.434378266334533691e-01,1.329783946275711060e-01,-1.265612542629241943e-01,1.033133715391159058e-01,1.661871224641799927e-01,4.795944318175315857e-02,-1.246516928076744080e-01,1.375700533390045166e-01,3.095532208681106567e-02,-1.354172229766845703e-01,2.089404314756393433e-02,-2.686015069484710693e-01,1.031630709767341614e-01,-2.002488672733306885e-01,-4.565370455384254456e-02,6.892634928226470947e-02,-2.750460617244243622e-02,3.365685790777206421e-02,-1.988387852907180786e-01,-8.122394979000091553e-02,-1.250843554735183716e-01,-5.042922496795654297e-02,3.181577473878860474e-02,8.879888802766799927e-02,7.122108340263366699e-02,-8.172570914030075073e-02,-2.238766103982925415e-01,5.100411549210548401e-02,-8.405502885580062866e-02,2.645015530288219452e-02,-1.019854098558425903e-01,-1.200366690754890442e-01,9.039847552776336670e-02,2.078212052583694458e-01,3.583511337637901306e-02,-1.587730944156646729e-01,-5.782699584960937500e-02,1.290022134780883789e-01,-7.469022274017333984e-02,1.005447059869766235e-01,1.294401586055755615e-01,1.950948238372802734e-01,-1.527388095855712891e-01,-7.513651251792907715e-02,7.037603855133056641e-02,-1.311730444431304932e-01,-4.602117836475372314e-02,-3.433550149202346802e-02,-1.043926626443862915e-01,-6.051584705710411072e-02,-2.267875336110591888e-02,9.289880841970443726e-02,1.084431037306785583e-01,-2.107117883861064911e-02,-3.210625797510147095e-02,-9.644247591495513916e-02,9.546815603971481323e-02,1.100563555955886841e-01,2.650608308613300323e-02,3.953826427459716797e-02,-1.439879685640335083e-01,-5.653094500303268433e-02,4.462826997041702271e-02,-2.344619780778884888e-01,-6.086944043636322021e-02,6.048437207937240601e-02,9.791745245456695557e-02,2.874875068664550781e-02,2.055680938065052032e-02,1.173353716731071472e-01,-9.777007251977920532e-02,-1.697987914085388184e-01,-9.917150437831878662e-02,3.248751908540725708e-02,-2.689876407384872437e-02,-8.147503435611724854e-02,1.158548519015312195e-01,1.709306985139846802e-02,-1.043276041746139526e-01,2.897401712834835052e-02,1.198151558637619019e-01,7.047520577907562256e-02,-1.028764694929122925e-01,-6.009159609675407410e-02,-1.016848608851432800e-01,-1.396654248237609863e-01,1.107311099767684937e-01,6.773065030574798584e-02,1.915150880813598633e-01,3.382232412695884705e-02,9.652333706617355347e-02,-2.798839472234249115e-02,-6.194014474749565125e-02,6.989696528762578964e-03,-1.643086969852447510e-02,1.213187631219625473e-02,-5.282292142510414124e-02,-2.912518568336963654e-02,5.991576239466667175e-02,6.215348467230796814e-02,8.302838541567325592e-03,1.221094466745853424e-02,-1.040543392300605774e-01,-1.271162480115890503e-01,-8.732545375823974609e-02,5.080856382846832275e-02,-1.254793703556060791e-01,4.410276561975479126e-02,-7.052882760763168335e-02,-3.003919869661331177e-02,-2.926312386989593506e-03,-1.143787726759910583e-01,-1.191441714763641357e-02,-3.739248961210250854e-02,-8.367088437080383301e-02,2.485931850969791412e-02,-9.209635108709335327e-02,-8.613119274377822876e-02,-1.139446794986724854e-01,-5.280402302742004395e-02,1.885646432638168335e-01,7.358975708484649658e-02,5.528264865279197693e-02,-6.596563756465911865e-02,1.672258973121643066e-01,-8.892615139484405518e-02,-1.761832386255264282e-01,1.450075358152389526e-01,-9.264310449361801147e-02,2.211199551820755005e-01,-2.710131369531154633e-02,-1.320010330528020859e-02,1.223912984132766724e-01,5.929054226726293564e-03,-1.340278387069702148e-01,-2.225450053811073303e-02,5.919568985700607300e-02,-5.619388073682785034e-02,6.901001185178756714e-02,-4.472743347287178040e-02,1.143897250294685364e-01,-3.111388534307479858e-02,-2.726715430617332458e-02,2.646891880431212485e-05,-2.126016467809677124e-01,-1.429312527179718018e-01,-9.973284602165222168e-02,1.116785332560539246e-01,2.756817340850830078e-01,1.620199345052242279e-02,9.456098079681396484e-02,1.322016614722087979e-04,-1.432636082172393799e-01,-4.274052008986473083e-02,-1.190186589956283569e-01,-1.649882271885871887e-02,-1.041017919778823853e-01,9.089194238185882568e-02,5.557690933346748352e-02,-1.227029263973236084e-01,8.580545336008071899e-02,-1.016432270407676697e-01,-3.995635733008384705e-02,-6.791591644287109375e-02,1.193814352154731750e-01,-1.103554815053939819e-01,1.509986221790313721e-01,-5.870043113827705383e-02,-4.604853689670562744e-02,-1.528626680374145508e-01,-1.138743013143539429e-01,1.097481418401002884e-02,-7.703516632318496704e-02,-2.685035951435565948e-02,-1.396895153447985649e-03,-1.119883880019187927e-01,1.277903169393539429e-01,8.172302693128585815e-02,6.797339301556348801e-03,1.029057800769805908e-02,1.634034812450408936e-01,-1.466491073369979858e-01,-1.326248347759246826e-01,2.939096093177795410e-02,-1.451676636934280396e-01,7.035898044705390930e-03,-1.472118347883224487e-01,1.182551980018615723e-01,-2.114351652562618256e-02
-4.979726672172546387e-02,-2.238485366106033325e-01,-1.442539542913436890e-01,-7.530514267273247242e-04,-1.246514618396759033e-01,-6.288306415081024170e-02,1.323819607496261597e-01,-6.012747064232826233e-02,-4.057913273572921753e-02,-9.725648909807205200e-02,4.549244046211242676e-02,1.290147751569747925e-01,-1.143989711999893188e-01,8.909589052200317383e-02,5.275996029376983643e-02,1.249486766755580902e-02,-9.139719605445861816e-02,1.122644767165184021e-01,3.250139206647872925e-02,9.308622777462005615e-02,-1.519841700792312622e-01,1.872938722372055054e-01,-1.416800171136856079e-01,1.097720116376876831e-01,-3.113540075719356537e-02,8.487062901258468628e-02,2.566454187035560608e-02,6.142252683639526367e-02,2.617167122662067413e-02,-1.008161529898643494e-01,5.433177947998046875e-02,9.431758522987365723e-02,9.076708927750587463e-03,5.502549186348915100e-02,1.485749240964651108e-02,-3.931373357772827148e-02,-7.421391457319259644e-02,-2.353374473750591278e-02,-6.379927974194288254e-03,-1.335975080728530884e-01,-1.007964834570884705e-01,1.454398930072784424e-01,6.614928692579269409e-02,-1.610625237226486206e-01,-8.369191200472414494e-04,2.431956306099891663e-02,-1.164206191897392273e-01,4.080123081803321838e-02,-1.354660689830780029e-01,7.376578450202941895e-02,8.152631670236587524e-02,4.372454062104225159e-02,6.252536177635192871e-02,-1.094331964850425720e-01,3.556758537888526917e-02,9.065470844507217407e-02,-2.939285933971405029e-01,-2.225320413708686829e-02,-6.852224469184875488e-02,-9.091585874557495117e-02,8.219604939222335815e-02,8.408036828041076660e-02,-8.724990487098693848e-02,-1.132174655795097351e-01,-9.191277623176574707e-02,-2.678881771862506866e-02,1.145030707120895386e-01,-4.514495283365249634e-02,5.736737512052059174e-03,-9.054344147443771362e-02,-2.943601831793785095e-02,-9.499661624431610107e-02,4.669338837265968323e-02,-1.231049448251724243e-01,-1.345658302307128906e-01,1.354556977748870850e-01,-2.319118976593017578e-01,-1.027210876345634460e-01,-5.510882660746574402e-02,8.012491464614868164e-02,-1.916487514972686768e-01,8.088080585002899170e-02,-4.458611458539962769e-02,1.182970181107521057e-01,-1.346170455217361450e-01,1.730426847934722900e-01,-7.071642577648162842e-02,-4.396166279911994934e-02,-3.829468041658401489e-02,-8.941865712404251099e-02,-1.430432684719562531e-02,-9.491631761193275452e-03,-2.589575760066509247e-02,-5.070099979639053345e-02,5.802240967750549316e-02,1.098162904381752014e-01,-8.402562886476516724e-02,9.767397493124008179e-02,-1.044168844819068909e-01,8.333861827850341797e-02,-1.856731027364730835e-01,3.911491110920906067e-02,1.188017353415489197e-01,1.395918726921081543e-01,-4.046557098627090454e-02,-1.189371943473815918e-01,2.239686809480190277e-02,3.904511407017707825e-02,-4.778786748647689819e-02,9.813687205314636230e-02,-1.305979583412408829e-02,-3.889412432909011841e-02,-1.130877584218978882e-01,-2.172343991696834564e-02,2.278258949518203735e-01,-1.149561330676078796e-01,1.134466156363487244e-01,6.627163290977478027e-02,7.351030409336090088e-02,-3.220298513770103455e-02,-5.806985124945640564e-02,2.020486295223236084e-01,1.710210293531417847e-01,-4.195129871368408203e-02,3.858441486954689026e-02,-1.881993561983108521e-01,-5.047782137989997864e-02,4.638273268938064575e-02,1.556539535522460938e-01,-9.432845562696456909e-02,-1.340628862380981445e-01,5.799169093370437622e-02,2.566505596041679382e-02,8.814100921154022217e-02,-1.202639415860176086e-01,-1.080133393406867981e-02,3.271673340350389481e-03,-9.693471342325210571e-02,-1.349625289440155029e-01,1.724169552326202393e-01,6.349059194326400757e-02,1.222599577158689499e-02,-9.385132789611816406e-02,5.841408669948577881e-02,-2.256902456283569336e-01,6.410205364227294922e-02,-8.251576870679855347e-02,-6.122506409883499146e-02,-1.767997741699218750e-01,-1.738583110272884369e-02,7.638300210237503052e-02,2.572767063975334167e-02,-1.808094531297683716e-01,4.316051490604877472e-03,1.618910580873489380e-01,-1.071513071656227112e-01,6.366399675607681274e-02,-8.341696113348007202e-02,3.015167638659477234e-02,7.651607692241668701e-02,9.180647134780883789e-02,1.069389656186103821e-01,-5.224692448973655701e-02,-2.608423829078674316e-01,-2.239586114883422852e-01,-3.040884248912334442e-02,-6.313762068748474121e-02,-9.581201709806919098e-03,-1.079475283622741699e-01,-8.678237348794937134e-02,-6.465549021959304810e-02,3.344844561070203781e-03,1.552703380584716797e-01,-2.849789895117282867e-02,-1.093944385647773743e-01,-1.733574569225311279e-01,1.982860453426837921e-02,1.001631319522857666e-01,1.404046267271041870e-02,-1.308985054492950439e-03,9.454955160617828369e-02,1.971243182197213173e-03,-5.038767307996749878e-02,-1.634534895420074463e-01,-1.545887440443038940e-02,3.979681059718132019e-02,-1.201850250363349915e-01,1.250393539667129517e-01,-1.372050195932388306e-01,7.942568510770797729e-02,-6.345803290605545044e-02,1.607702486217021942e-02,1.418342590332031250e-01,-1.598429381847381592e-01,2.015939056873321533e-01,2.727961540222167969e-02,-2.279996424913406372e-01,-1.082493960857391357e-01,4.670706111937761307e-03,1.193281449377536774e-02,9.343384951353073120e-02,-9.813173115253448486e-02,-6.394825875759124756e-02,1.213971972465515137e-01,-3.384000808000564575e-02,5.701074749231338501e-02,1.646973006427288055e-02,-1.742392629384994507e-01,2.276188135147094727e-02,-1.050987839698791504e-01,-7.971592992544174194e-02,7.262580841779708862e-02,-6.245563924312591553e-02,1.140791177749633789e-01,8.025310933589935303e-02,-1.160960458219051361e-02,1.317772865295410156e-01,-7.705029100179672241e-02,-8.825989067554473877e-02,4.002136737108230591e-02,-1.215307712554931641e-01,-1.690467745065689087e-01,6.168378517031669617e-02,-3.801341727375984192e-02,-1.449303328990936279e-01,6.542016565799713135e-02,-7.405857741832733154e-02,-6.518471240997314453e-02,1.966427117586135864e-01,-2.346611320972442627e-01,2.063673436641693115e-01,-2.316809743642807007e-01,2.499277330935001373e-02,-1.516263037919998169e-01,9.374100714921951294e-02,8.135681040585041046e-03,-2.107498049736022949e-02,1.038247942924499512e-01,2.880027890205383301e-02,-1.402167379856109619e-01,8.173301070928573608e-02,1.817584037780761719e-02,-6.111456081271171570e-02,1.320951618254184723e-02,-7.815431058406829834e-02,-1.157864779233932495e-01,1.020162105560302734e-01,1.363834887742996216e-01,9.819512069225311279e-02,-7.369938492774963379e-02,1.261020451784133911e-01,8.617769181728363037e-02,-3.082670085132122040e-02,2.917096950113773346e-02,-7.686346024274826050e-02,-1.483828946948051453e-02
-7.878618687391281128e-02,1.006288900971412659e-01,2.424484863877296448e-02,-1.556676924228668213e-01,-1.035426631569862366e-01,-3.235210850834846497e-02,-8.038793504238128662e-02,-1.464800983667373657e-01,1.250063627958297729e-01,1.355770677328109741e-01,-1.145633161067962646e-01,9.291858226060867310e-02,-5.750738456845283508e-02,-8.566499687731266022e-03,-1.296848654747009277e-01,-1.013708338141441345e-01,4.831125214695930481e-02,-1.735619455575942993e-01,1.316102296113967896e-01,5.792756751179695129e-02,-4.068922623991966248e-02,-3.051730431616306305e-02,-1.396894007921218872e-01,-4.040297493338584900e-02,6.394794583320617676e-02,-8.141525322571396828e-04,6.909817457199096680e-02,-6.226867437362670898e-02,-9.551037102937698364e-02,2.111094817519187927e-02,2.200943976640701294e-02,7.406847923994064331e-02,7.610820233821868896e-02,-8.030381053686141968e-02,7.155644148588180542e-02,-1.332780439406633377e-02,6.717169284820556641e-02,-1.512680649757385254e-01,-3.930455073714256287e-02,1.221023127436637878e-01,1.120294630527496338e-01,-7.076873444020748138e-03,-1.311079561710357666e-01,4.603232443332672119e-02,4.168276488780975342e-02,1.047115176916122437e-01,7.920562289655208588e-03,3.523168712854385376e-02,-8.162797987461090088e-02,1.055353954434394836e-01,6.045085936784744263e-02,-1.681389659643173218e-02,-1.272049993276596069e-01,7.442460954189300537e-02,5.828060582280158997e-02,1.131388545036315918e-01,-7.851079851388931274e-02,6.951299309730529785e-02,-6.583824008703231812e-02,-5.415533855557441711e-02,-2.056531840935349464e-03,-4.323132336139678955e-02,1.136495247483253479e-01,-4.355079308152198792e-02,-7.888088375329971313e-02,8.207612484693527222e-02,1.503797918558120728e-01,-1.108222752809524536e-01,-2.758216299116611481e-02,-1.805819272994995117e-01,-1.214603856205940247e-01,1.165961995720863342e-01,-7.709196209907531738e-02,-8.985555917024612427e-02,-1.208545919507741928e-02,1.361782401800155640e-01,-1.219160035252571106e-01,-4.637003317475318909e-02,-1.358475089073181152e-01,-5.808315053582191467e-02,-6.066228821873664856e-02,-1.014414131641387939e-01,1.426852345466613770e-01,-9.262349456548690796e-02,1.129141226410865784e-01,-1.014582291245460510e-01,1.242117360234260559e-01,5.432518571615219116e-02,-6.333210319280624390e-02,1.365664154291152954e-01,-1.016895845532417297e-01,6.964350491762161255e-02,-3.247412443161010742e-01,-8.564724773168563843e-02,-2.094392664730548859e-02,1.065058261156082153e-01,-1.201346591114997864e-01,4.607194662094116211e-02,7.740013301372528076e-02,-4.202783107757568359e-02,-1.075727343559265137e-01,-1.043578013777732849e-01,1.107832789421081543e-01,-6.294792890548706055e-02,-7.092365622520446777e-02,-1.405085623264312744e-01,9.233850985765457153e-02,-5.552243813872337341e-02,-5.886558070778846741e-02,-9.466332942247390747e-02,-5.024791508913040161e-02,6.095446646213531494e-02,-1.308069229125976562e-01,-3.939512372016906738e-02,5.272915586829185486e-02,-3.130898624658584595e-02,5.997128039598464966e-02,1.092737615108489990e-01,3.086379170417785645e-02,2.317033521831035614e-02,4.183719307184219360e-02,4.020283743739128113e-02,-9.006697684526443481e-02,-1.144018322229385376e-01,1.068972274661064148e-01,-2.564293891191482544e-02,-1.234651282429695129e-01,4.107332602143287659e-02,-5.340370163321495056e-02,-8.261118084192276001e-03,5.392980203032493591e-02,6.043580919504165649e-02,-4.392535611987113953e-02,-6.796742975711822510e-02,-1.093948185443878174e-01,8.131668716669082642e-02,1.029759347438812256e-01,-1.473401635885238647e-01,-8.763680607080459595e-02,1.291534304618835449e-01,-7.448695600032806396e-02,-1.387712359428405762e-01,-2.974954992532730103e-02,-1.052695978432893753e-02,-9.487912058830261230e-02,1.506156623363494873e-01,-7.754500210285186768e-02,1.170063540339469910e-01,-7.478406280279159546e-02,1.234678179025650024e-02,-1.262212544679641724e-01,-1.011899560689926147e-01,3.011118061840534210e-02,2.614364214241504669e-02,1.396101266145706177e-01,1.269557420164346695e-02,2.404128387570381165e-02,-1.950803250074386597e-01,4.059231840074062347e-03,8.846821635961532593e-02,9.031814406625926495e-04,6.105405837297439575e-02,-7.673342246562242508e-03,8.781484514474868774e-02,-8.306046575307846069e-02,-7.893065363168716431e-02,-1.328361630439758301e-01,1.966185867786407471e-01,9.796495735645294189e-02,2.684158971533179283e-03,3.595246374607086182e-02,2.029723953455686569e-03,9.418624639511108398e-02,-1.616310179233551025e-01,-1.171072479337453842e-02,1.941821724176406860e-02,-2.470468543469905853e-02,-3.872055932879447937e-02,5.549891293048858643e-02,5.544381961226463318e-02,1.394739653915166855e-02,-6.751348823308944702e-02,-1.442010998725891113e-01,-1.900750026106834412e-02,1.128482967615127563e-01,-8.204673230648040771e-02,1.946024782955646515e-02,-1.906139850616455078e-01,4.798688739538192749e-02,9.849015623331069946e-03,1.230706796050071716e-01,-9.376019239425659180e-02,-2.595636248588562012e-02,1.908367872238159180e-01,4.583108425140380859e-02,1.106250509619712830e-01,-2.841320335865020752e-01,1.064313128590583801e-01,-9.566863998770713806e-03,5.475942790508270264e-02,8.085605502128601074e-02,-1.019630134105682373e-01,1.224870607256889343e-01,-1.659792661666870117e-01,9.316652268171310425e-02,5.608147755265235901e-02,4.957373812794685364e-02,-1.469374448060989380e-01,7.489574700593948364e-02,7.997041940689086914e-02,-1.511161029338836670e-01,2.791403559967875481e-03,9.849897772073745728e-02,-7.686050236225128174e-02,1.820312812924385071e-02,-5.736650899052619934e-03,9.004355967044830322e-02,-8.002593368291854858e-02,-9.460416436195373535e-02,1.392827481031417847e-01,-7.602161262184381485e-03,-1.296034306287765503e-01,1.196501106023788452e-01,-8.323737978935241699e-02,6.265409290790557861e-02,-5.654311273247003555e-03,-8.686702698469161987e-02,6.503167003393173218e-02,4.733033478260040283e-02,5.973317846655845642e-02,-1.249095946550369263e-01,2.250665239989757538e-02,1.119384095072746277e-01,7.618403527885675430e-03,-7.128676772117614746e-02,-2.358699217438697815e-02,5.856434628367424011e-02,-1.254341155290603638e-01,4.085156694054603577e-02,8.688753098249435425e-02,2.524520456790924072e-02,-8.520723134279251099e-02,-4.759259056299924850e-03,1.249863952398300171e-01,9.773226827383041382e-02,1.092098876833915710e-01,8.694574236869812012e-02,9.609655477106571198e-03,5.168378353118896484e-02,3.453939687460660934e-03,-5.850538238883018494e-02,-8.224523812532424927e-02,1.083620730787515640e-02,6.422226876020431519e-02,-1.285826507955789566e-02,6.991672515869140625e-02
4.807270318269729614e-02,5.402227863669395447e-02,1.080039236694574356e-02,2.278457954525947571e-02,-1.534485667943954468e-01,1.357724964618682861e-01,1.025186404585838318e-01,3.806205093860626221e-02,-1.112709268927574158e-01,-3.635250031948089600e-02,-1.300873309373855591e-01,5.923821777105331421e-02,4.492741450667381287e-02,1.092375721782445908e-02,-1.460152864456176758e-01,4.398543760180473328e-02,-1.187898144125938416e-01,-2.096251845359802246e-01,-1.700728237628936768e-01,1.038285195827484131e-01,-7.715258747339248657e-02,3.878840431571006775e-02,-1.734185218811035156e-02,5.535341799259185791e-02,-7.812269032001495361e-02,-5.303888767957687378e-02,1.142080500721931458e-01,-3.392773494124412537e-02,7.563436776399612427e-02,-1.044896095991134644e-01,1.056588366627693176e-01,-1.610608398914337158e-01,-1.459690779447555542e-01,1.931315362453460693e-01,5.593576654791831970e-02,7.285636663436889648e-02,-1.849100440740585327e-01,3.340061008930206299e-02,1.252643465995788574e-01,-1.874590367078781128e-01,-1.036499217152595520e-01,-2.592422626912593842e-02,-1.390959918498992920e-01,-3.797587379813194275e-02,-1.969733089208602905e-02,6.258837878704071045e-02,1.241402104496955872e-01,-9.262159466743469238e-02,1.691731661558151245e-01,1.050949022173881531e-01,-7.853776216506958008e-02,1.850530691444873810e-02,1.108447685837745667e-01,6.122816354036331177e-02,-9.310582280158996582e-02,1.196290850639343262e-01,2.020802721381187439e-02,-1.908789761364459991e-02,-1.128747686743736267e-01,-1.596386283636093140e-01,-1.137614715844392776e-02,-2.045118510723114014e-01,3.450701246038079262e-03,9.658154100179672241e-02,-1.454800665378570557e-01,-4.194460436701774597e-02,-1.754462271928787231e-01,1.023695766925811768e-01,-2.074836753308773041e-02,-2.999486215412616730e-02,-9.048303216695785522e-02,-1.621809750795364380e-01,1.807535067200660706e-02,3.185019269585609436e-02,6.227309256792068481e-02,-2.642996013164520264e-01,-1.231361553072929382e-01,-1.820333451032638550e-01,-6.521352380514144897e-02,5.442918464541435242e-02,-2.266703546047210693e-02,-2.342810779809951782e-01,-1.500998139381408691e-01,-6.914442032575607300e-02,-1.289750337600708008e-01,-1.468391120433807373e-01,1.426925659179687500e-01,9.401214867830276489e-02,-1.366710662841796875e-01,9.175566583871841431e-02,-8.938726037740707397e-02,-8.107484132051467896e-02,5.925206840038299561e-02,7.914359122514724731e-02,2.882387675344944000e-02,-6.914207339286804199e-02,-5.100540071725845337e-02,8.028444647789001465e-02,-1.236357763409614563e-01,-1.303232647478580475e-02,6.869145482778549194e-02,-5.236630327999591827e-03,1.189846098423004150e-01,1.282689571380615234e-01,4.918023943901062012e-02,3.957977052778005600e-03,-1.271914690732955933e-01,1.628738343715667725e-01,-4.471935331821441650e-02,-2.739662528038024902e-01,4.789225012063980103e-02,1.216093823313713074e-01,7.505587302148342133e-03,2.280878089368343353e-02,-8.377785235643386841e-02,-3.708234429359436035e-02,-5.044688656926155090e-02,-2.188612893223762512e-02,-1.433058679103851318e-01,9.884215146303176880e-02,4.490139707922935486e-02,-1.534679997712373734e-02,-1.553007513284683228e-01,-1.293529421091079712e-01,-1.001067236065864563e-01,5.774481594562530518e-02,2.382508665323257446e-02,3.242941945791244507e-02,-9.376062452793121338e-02,6.441245228052139282e-02,-1.361814290285110474e-01,-1.079968586564064026e-01,1.894105076789855957e-01,-4.286409169435501099e-02,-6.536112725734710693e-02,1.065671630203723907e-02,2.602172084152698517e-02,-2.396162301301956177e-01,-6.470594555139541626e-02,-2.108750492334365845e-02,1.341995745897293091e-01,-6.284981966018676758e-02,-9.364254027605056763e-02,-1.042956933379173279e-01,-1.036067605018615723e-01,-5.969132855534553528e-02,1.432374864816665649e-01,1.137980893254280090e-01,-9.271733462810516357e-02,5.238753184676170349e-02,-8.589373528957366943e-02,6.481713801622390747e-02,-1.542722880840301514e-01,-5.823595449328422546e-02,5.559927667491137981e-04,2.297190763056278229e-02,1.166372597217559814e-01,-8.203485608100891113e-02,7.996960729360580444e-02,8.869497478008270264e-02,1.387386918067932129e-01,-8.453269302845001221e-02,3.889446705579757690e-02,4.158730059862136841e-02,-2.559694834053516388e-02,9.094277024269104004e-02,-1.825108006596565247e-02,4.678591713309288025e-02,-1.245351359248161316e-01,-5.655360221862792969e-02,-1.571292877197265625e-01,8.489086478948593140e-02,-7.817060500383377075e-02,-8.516863733530044556e-02,9.938330948352813721e-02,9.677112102508544922e-02,-3.339432179927825928e-02,-1.074879914522171021e-01,5.709967017173767090e-02,2.173819765448570251e-02,8.605640381574630737e-02,1.611282080411911011e-01,1.090628132224082947e-01,-2.297994941473007202e-01,7.838397473096847534e-02,4.953928664326667786e-02,3.207709267735481262e-02,-2.505100071430206299e-01,1.025142967700958252e-01,8.905797451734542847e-02,6.781806796789169312e-02,6.845424324274063110e-02,-1.115079671144485474e-01,-8.752130717039108276e-02,-5.541317537426948547e-02,-1.321896072477102280e-02,4.887090250849723816e-02,5.418939515948295593e-02,-1.443351805210113525e-01,-1.244929991662502289e-02,4.559119045734405518e-02,6.710592657327651978e-02,8.574999868869781494e-02,1.189067065715789795e-01,-8.880582451820373535e-02,2.011554688215255737e-02,-2.630578167736530304e-02,5.491682328283786774e-03,-1.264305412769317627e-01,-1.494364887475967407e-01,4.102352075278759003e-03,-2.208022475242614746e-01,-9.607851505279541016e-03,9.633235633373260498e-03,8.261302113533020020e-02,1.192860603332519531e-01,-1.323183327913284302e-01,-4.242543131113052368e-02,1.408682316541671753e-01,-1.902820765972137451e-01,-6.243930011987686157e-02,1.270738197490572929e-03,1.876049637794494629e-01,3.955788270104676485e-04,-9.973961859941482544e-02,4.697651416063308716e-02,3.798709437251091003e-02,-1.456337701529264450e-02,2.053761668503284454e-02,-4.854807257652282715e-02,-1.079567447304725647e-01,3.257689531892538071e-03,2.041805982589721680e-01,-1.314511597156524658e-01,-4.068118706345558167e-02,-1.344904117286205292e-02,-1.005266606807708740e-01,-3.593565488699823618e-04,-1.197828724980354309e-02,-1.140872314572334290e-01,-6.073565781116485596e-02,1.186174526810646057e-01,-1.285546272993087769e-01,-3.077563047409057617e-01,7.719833403825759888e-02,-1.459303591400384903e-02,1.468241065740585327e-01,3.401087597012519836e-02,-1.044966876506805420e-01,1.837607622146606445e-01,-1.038448363542556763e-01,-1.334622967988252640e-02,7.517462223768234253e-02,3.032222948968410492e-02,-1.507090032100677490e-01,-8.199414610862731934e-02
-4.572099074721336365e-02,6.035934388637542725e-02,8.486589789390563965e-02,-1.511214375495910645e-01,-1.490564346313476562e-01,-5.833955109119415283e-02,-1.163667738437652588e-01,-5.614349991083145142e-02,1.665315032005310059e-01,3.355350345373153687e-02,-4.015400633215904236e-02,1.302578300237655640e-01,3.013222292065620422e-02,-9.838058799505233765e-02,-5.180436652153730392e-03,-1.089495122432708740e-01,-1.218904033303260803e-01,1.244508922100067139e-01,-1.349690109491348267e-01,9.708287566900253296e-02,9.658848494291305542e-02,3.968039155006408691e-02,7.023542374372482300e-02,1.009207218885421753e-01,1.263271421194076538e-01,1.229161620140075684e-01,9.154515713453292847e-02,8.932493627071380615e-02,9.696720540523529053e-02,6.391640752553939819e-02,-4.815037548542022705e-01,-1.633154600858688354e-01,-6.243309378623962402e-02,1.324209123849868774e-01,1.407814305275678635e-02,1.716106198728084564e-02,-4.467567428946495056e-02,-3.350797668099403381e-02,-3.614929318428039551e-02,-2.372170686721801758e-01,9.263110905885696411e-02,-1.476880609989166260e-01,-1.169842258095741272e-01,-2.762127295136451721e-02,1.258584260940551758e-01,7.740546762943267822e-02,-1.898911781609058380e-03,4.248308390378952026e-02,-1.098170056939125061e-01,-1.414608210325241089e-01,8.688033558428287506e-03,1.590359210968017578e-01,5.490948259830474854e-02,9.894198179244995117e-02,-2.297252416610717773e-01,-7.338625192642211914e-02,8.872520178556442261e-02,-4.353844001889228821e-02,-3.301601409912109375e-01,-1.712218970060348511e-01,1.749569624662399292e-01,-1.574974209070205688e-01,1.612729579210281372e-02,-1.621382832527160645e-01,-7.551654428243637085e-02,-1.160987690091133118e-01,-1.901209652423858643e-01,-1.847482770681381226e-01,1.198835745453834534e-01,1.021095439791679382e-01,6.025709956884384155e-02,-1.176371648907661438e-01,-8.786314725875854492e-02,-2.610996365547180176e-03,2.649536356329917908e-02,1.485683396458625793e-02,-8.870682865381240845e-02,8.418483287096023560e-02,-1.605053544044494629e-01,1.327877789735794067e-01,-2.203793823719024658e-01,1.947312988340854645e-02,-1.464762240648269653e-01,5.530042201280593872e-02,1.662546098232269287e-01,-6.685585528612136841e-02,-3.618029179051518440e-03,7.350078225135803223e-02,-1.025599241256713867e-01,1.036811321973800659e-01,-1.395813673734664917e-01,7.588342577219009399e-02,9.212613850831985474e-02,5.006114393472671509e-02,4.763820394873619080e-02,-6.908433884382247925e-02,1.480321288108825684e-01,1.251767575740814209e-01,1.073687374591827393e-01,-9.138564765453338623e-02,-6.601979583501815796e-02,1.698482483625411987e-01,1.425090525299310684e-02,1.483799666166305542e-01,-7.645066827535629272e-02,-9.859516471624374390e-02,7.729417830705642700e-02,-1.648514121770858765e-01,-1.542413830757141113e-01,-2.259072363376617432e-01,-7.951590418815612793e-02,6.874109804630279541e-02,-9.694002568721771240e-02,-6.274423003196716309e-02,-2.102520912885665894e-01,-6.782963126897811890e-02,5.383251234889030457e-02,1.774831302464008331e-02,-6.016069650650024414e-02,-7.119677960872650146e-02,-2.271992862224578857e-01,-5.881734192371368408e-02,-4.409338906407356262e-02,1.322390437126159668e-01,1.132127642631530762e-01,7.374519016593694687e-03,4.897514358162879944e-02,2.937249094247817993e-02,-1.095039546489715576e-01,-1.184050440788269043e-01,-2.186202108860015869e-01,-1.252419799566268921e-01,-1.252535730600357056e-01,-1.062142103910446167e-01,3.696759045124053955e-02,1.175475195050239563e-01,1.710980534553527832e-01,-8.557281643152236938e-02,5.376995727419853210e-02,-1.414037942886352539e-01,-7.127783447504043579e-02,-8.411408215761184692e-02,1.726996898651123047e-01,1.332254856824874878e-01,2.108900621533393860e-02,2.839833311736583710e-02,1.247857138514518738e-01,4.365944489836692810e-02,1.308840978890657425e-02,-4.681843798607587814e-03,-9.740912914276123047e-02,-2.670629322528839111e-01,4.682963714003562927e-02,1.167833879590034485e-01,-5.733821913599967957e-02,3.603897243738174438e-02,8.451204001903533936e-02,5.446298792958259583e-02,-1.801124587655067444e-02,1.409661173820495605e-01,5.131342262029647827e-02,4.293865524232387543e-03,-1.813741773366928101e-01,5.581953749060630798e-02,-1.209467463195323944e-02,-6.553536280989646912e-03,1.341281235218048096e-01,-2.613073214888572693e-02,7.437181472778320312e-02,1.712768897414207458e-02,-1.426301747560501099e-01,-1.084761396050453186e-01,-2.711677551269531250e-02,4.201035946607589722e-02,-1.577306985855102539e-01,-1.129645854234695435e-01,-2.225861325860023499e-02,2.115308865904808044e-02,1.214828416705131531e-01,8.035250753164291382e-02,-1.831431537866592407e-01,-1.802151650190353394e-01,-1.460123714059591293e-02,9.931641072034835815e-02,9.105542302131652832e-02,5.623419210314750671e-02,2.802957221865653992e-02,-7.287877798080444336e-02,1.763012409210205078e-01,1.171768736094236374e-02,-1.024838760495185852e-01,8.482877165079116821e-02,-8.080468978732824326e-04,1.884967237710952759e-01,-1.621727347373962402e-01,-2.365579269826412201e-02,1.937097869813442230e-02,8.962530642747879028e-02,7.158812135457992554e-02,-9.302213788032531738e-03,-1.070086956024169922e-01,-1.551435738801956177e-01,-1.348139494657516479e-01,8.867649734020233154e-02,-7.651565968990325928e-02,-8.469006419181823730e-02,9.170592576265335083e-02,-1.168862804770469666e-01,-6.356947869062423706e-02,8.507467061281204224e-02,4.376926273107528687e-02,-4.144170880317687988e-02,-1.243791505694389343e-01,5.286754295229911804e-02,-1.093839108943939209e-01,-1.074618324637413025e-01,-6.328068673610687256e-03,-1.230674982070922852e-01,-9.954956918954849243e-02,1.033361032605171204e-01,1.420729327946901321e-02,-2.476285398006439209e-01,-5.242481082677841187e-02,2.312376797199249268e-01,1.263166517019271851e-01,-6.291830539703369141e-02,-1.560558844357728958e-02,1.502671390771865845e-01,-4.952472075819969177e-02,-9.896081686019897461e-02,-1.243596300482749939e-01,1.702656447887420654e-01,4.857259243726730347e-02,-9.504689276218414307e-02,-1.483235880732536316e-02,5.268302559852600098e-02,-6.459943950176239014e-03,2.197623997926712036e-02,-1.304883360862731934e-01,7.232078909873962402e-02,-1.371682733297348022e-01,-3.256946057081222534e-02,1.320916134864091873e-02,3.438593447208404541e-02,-1.146978214383125305e-01,1.766959130764007568e-01,8.368472754955291748e-02,-6.895925849676132202e-02,-6.717529892921447754e-02,-3.344677388668060303e-02,-7.156309485435485840e-02,1.318194866180419922e-01,1.092129498720169067e-01,1.142276376485824585e-01,-6.790142506361007690e-02,1.363325119018554688e-01
8.459180593490600586e-02,-7.197506725788116455e-02,4.391083121299743652e-02,-3.585849329829216003e-02,-1.867249980568885803e-02,2.979880943894386292e-02,8.232451230287551880e-02,1.164386644959449768e-01,-6.817577034235000610e-02,4.376079887151718140e-02,5.057893693447113037e-02,-6.445536017417907715e-02,-1.247833073139190674e-01,9.360677748918533325e-02,-2.973717451095581055e-01,7.045117765665054321e-02,5.446930974721908569e-02,-2.020908519625663757e-02,-9.947510808706283569e-02,-1.905777677893638611e-02,3.910850360989570618e-02,-1.538070738315582275e-01,1.169060468673706055e-01,-9.818550944328308105e-02,-1.352518945932388306e-01,-9.213189035654067993e-02,1.779275387525558472e-02,-1.008640006184577942e-01,3.302607685327529907e-02,-4.652554169297218323e-02,-9.643541648983955383e-03,7.183048129081726074e-02,3.565390408039093018e-02,5.522942170500755310e-03,-5.630240216851234436e-02,-9.843558818101882935e-02,8.091401308774948120e-02,2.340751141309738159e-02,6.340927630662918091e-02,-1.524308621883392334e-01,-1.197168156504631042e-01,-1.496021002531051636e-01,9.602398611605167389e-03,-3.133398294448852539e-02,5.201162770390510559e-02,-9.390292316675186157e-02,-2.964449115097522736e-03,-8.021656423807144165e-02,-1.342526525259017944e-01,2.557921782135963440e-02,-1.110551431775093079e-01,-1.287757009267807007e-01,-1.220869179815053940e-02,-6.814152747392654419e-02,-6.047503650188446045e-02,5.355336144566535950e-02,1.942552439868450165e-02,-7.140991091728210449e-02,1.163897141814231873e-01,1.018422171473503113e-01,-3.443767130374908447e-02,4.640033002942800522e-03,8.540436625480651855e-02,7.568028569221496582e-02,-3.645553439855575562e-02,-5.938791483640670776e-02,-1.161715388298034668e-01,8.956129103899002075e-02,-6.502421200275421143e-02,2.760054543614387512e-02,-2.723227255046367645e-02,-1.443678885698318481e-01,1.234646327793598175e-02,-7.845809310674667358e-02,2.504283748567104340e-02,-3.118920512497425079e-02,7.925495505332946777e-02,7.055170089006423950e-02,-1.044573411345481873e-01,1.092183068394660950e-01,1.328551676124334335e-02,1.012168526649475098e-01,1.389138549566268921e-01,-2.466456405818462372e-02,-2.209425158798694611e-02,6.765294075012207031e-02,-2.129108272492885590e-02,2.223544567823410034e-02,-4.398583620786666870e-02,-8.181222528219223022e-02,1.007716506719589233e-01,1.124672368168830872e-01,-1.923896223306655884e-01,-1.322882622480392456e-01,-4.011063277721405029e-02,3.150855377316474915e-02,9.540724009275436401e-02,4.790343344211578369e-02,8.136016875505447388e-02,5.370362102985382080e-02,1.147252414375543594e-02,4.628540948033332825e-02,9.243385866284370422e-03,-1.163098886609077454e-01,1.122510954737663269e-01,1.168826818466186523e-01,-1.204783003777265549e-02,-1.096383631229400635e-01,2.009658142924308777e-02,-6.922700256109237671e-02,6.439214199781417847e-02,7.438389584422111511e-03,1.595057174563407898e-02,7.067866623401641846e-02,-1.217549070715904236e-01,-9.508155286312103271e-02,-3.451144322752952576e-02,-5.392972752451896667e-02,-1.391859352588653564e-01,-8.193862438201904297e-02,-1.775468289852142334e-01,4.920235648751258850e-02,-1.350192427635192871e-01,1.355295330286026001e-01,-2.896894514560699463e-02,-7.125536352396011353e-02,1.128458902239799500e-01,-1.125035062432289124e-01,-6.059620156884193420e-02,-1.231046095490455627e-01,-9.788150340318679810e-02,1.691210642457008362e-02,-2.661412209272384644e-02,2.724590338766574860e-02,-1.406271159648895264e-01,5.310640111565589905e-02,-6.709346175193786621e-02,9.416355937719345093e-02,-9.576490521430969238e-02,9.602700173854827881e-02,6.691156327724456787e-02,-1.471050679683685303e-01,7.540585100650787354e-02,-6.010514125227928162e-02,-6.540547311305999756e-02,5.366173759102821350e-02,-4.772635549306869507e-02,3.402208164334297180e-02,6.881515681743621826e-02,-8.066149801015853882e-02,3.696295246481895447e-02,8.222156763076782227e-02,-2.845191210508346558e-02,-2.975990623235702515e-02,-6.319542974233627319e-02,-3.105816803872585297e-02,1.341612637042999268e-01,-9.012685716152191162e-02,-9.156199172139167786e-03,-1.141499206423759460e-01,1.266436874866485596e-01,-1.352457888424396515e-02,-5.007747560739517212e-02,8.742108196020126343e-02,4.458707198500633240e-02,-9.396415948867797852e-02,-2.075556963682174683e-01,3.846198320388793945e-02,8.948636800050735474e-02,3.585853055119514465e-02,4.695087298750877380e-02,-1.620892062783241272e-02,-7.397521287202835083e-02,3.475367324426770210e-03,-9.435792267322540283e-02,-5.644548684358596802e-02,9.537576138973236084e-02,1.850662939250469208e-02,8.561465889215469360e-02,1.600494980812072754e-02,-6.147842109203338623e-02,7.337152957916259766e-02,7.515636086463928223e-02,1.509299129247665405e-01,-1.158623024821281433e-01,-8.842410892248153687e-02,4.001845419406890869e-02,-1.106169223785400391e-01,-5.969642102718353271e-02,1.089435815811157227e-01,-3.357834182679653168e-03,-9.070686064660549164e-03,6.003699079155921936e-02,-1.580139994621276855e-02,-2.184859216213226318e-01,-1.200295016169548035e-01,6.640039384365081787e-02,1.498226542025804520e-02,-8.259795606136322021e-02,-7.228147983551025391e-02,1.399400979280471802e-01,-1.990514993667602539e-02,-4.023565724492073059e-02,-4.696619138121604919e-02,6.547737121582031250e-02,-7.976225577294826508e-03,6.832735985517501831e-02,1.400154363363981247e-02,-1.300431191921234131e-01,-1.282627582550048828e-01,-1.550485193729400635e-01,3.199125453829765320e-02,8.733690530061721802e-02,3.870629891753196716e-02,1.042813882231712341e-01,-1.450518518686294556e-01,1.161463037133216858e-01,-1.427905857563018799e-01,9.278474748134613037e-02,-9.904647618532180786e-02,4.372300952672958374e-02,1.016443297266960144e-01,-1.676321774721145630e-01,-2.202288061380386353e-01,6.467814557254314423e-03,1.612546443939208984e-01,-1.414754539728164673e-01,-1.868429332971572876e-01,1.391777247190475464e-01,-2.625831589102745056e-02,-3.585009649395942688e-02,-6.011599302291870117e-02,-1.289013028144836426e-01,-1.261263340711593628e-01,2.363139064982533455e-04,-1.446163803339004517e-01,-1.260915398597717285e-02,8.144842833280563354e-02,1.162154898047447205e-01,5.228369683027267456e-02,-1.562533378601074219e-01,1.648472156375646591e-03,2.696839161217212677e-02,9.833889454603195190e-02,4.747279733419418335e-02,-1.058726981282234192e-01,7.517240196466445923e-02,6.121538579463958740e-03,-5.899449810385704041e-02,1.949252560734748840e-02,8.390610665082931519e-02,-1.602664887905120850e-01,1.341898180544376373e-02,2.648211270570755005e-02,2.380288206040859222e-02,-1.436350196599960327e-01
7.605379074811935425e-02,-1.742859929800033569e-01,1.035867407917976379e-01,-7.438165694475173950e-02,7.773093134164810181e-02,-1.450580544769763947e-02,1.405880004167556763e-01,-2.471888363361358643e-01,-4.295292124152183533e-02,-1.279779523611068726e-01,3.427683934569358826e-02,-1.023157015442848206e-01,-1.384748965501785278e-01,9.673316031694412231e-02,1.100669652223587036e-01,1.900828927755355835e-01,3.334029391407966614e-02,2.356053516268730164e-02,8.500003069639205933e-02,-7.854230701923370361e-02,-2.425063401460647583e-01,1.130243856459856033e-02,-4.978314414620399475e-02,-5.077854543924331665e-02,1.405172497034072876e-01,8.340734988451004028e-02,8.007473498582839966e-02,1.028455868363380432e-01,-8.967404812574386597e-02,4.658019170165061951e-02,-9.514019638299942017e-02,7.740122079849243164e-02,3.751321695744991302e-03,9.728875942528247833e-03,9.844233840703964233e-02,1.062494218349456787e-01,-1.599254161119461060e-01,-7.298116572201251984e-03,-3.774896264076232910e-02,-4.867532476782798767e-02,1.239765714854001999e-02,1.670373231172561646e-02,-1.540107280015945435e-01,-1.215244531631469727e-01,1.245044842362403870e-01,-2.095295861363410950e-02,-8.584411442279815674e-02,-1.091516017913818359e-01,1.768680065870285034e-01,4.681331664323806763e-02,-1.063907966017723083e-01,-8.412878960371017456e-02,-7.517982274293899536e-02,1.008308678865432739e-01,-5.694892629981040955e-02,-1.054240092635154724e-01,-3.902144730091094971e-02,7.634659856557846069e-02,-7.369818538427352905e-02,6.731723248958587646e-02,1.697744429111480713e-01,-2.147916704416275024e-01,8.502848446369171143e-02,-1.420826762914657593e-01,-1.176477074623107910e-01,5.956795532256364822e-03,6.901504099369049072e-02,5.825867876410484314e-02,1.149413362145423889e-01,7.809231057763099670e-03,2.724892087280750275e-02,-5.514175817370414734e-02,-1.280610263347625732e-01,1.107638105750083923e-01,-3.227319121360778809e-01,-6.563825532793998718e-03,2.488611340522766113e-01,-1.331838369369506836e-01,1.039101406931877136e-01,-1.309128105640411377e-01,1.329582929611206055e-01,2.389661967754364014e-02,9.954355657100677490e-02,-1.555290520191192627e-01,1.036572456359863281e-01,2.345940470695495605e-02,1.415723711252212524e-01,9.001959115266799927e-02,-1.316620856523513794e-01,-8.734046667814254761e-02,-1.135292947292327881e-01,1.387019548565149307e-02,1.022632867097854614e-01,4.419777169823646545e-02,-1.908764429390430450e-02,5.001438781619071960e-02,-1.443372946232557297e-02,-4.531478881835937500e-02,-3.880084306001663208e-02,-4.200977459549903870e-02,2.177360504865646362e-01,-1.682393103837966919e-01,2.894698176532983780e-03,-1.429778486490249634e-01,-7.338242977857589722e-02,-1.160952970385551453e-01,-1.549423784017562866e-01,1.294535249471664429e-01,-1.349635422229766846e-01,-2.085230499505996704e-02,-3.474572906270623207e-03,-9.567036479711532593e-02,-4.257048666477203369e-02,5.353945121169090271e-02,1.254825592041015625e-01,9.782179445028305054e-02,5.837884917855262756e-02,1.095630228519439697e-01,-1.344515234231948853e-01,1.682057827711105347e-01,-6.933810561895370483e-02,1.234249304980039597e-02,7.597865909337997437e-02,6.020560488104820251e-02,5.673418939113616943e-02,-8.238380402326583862e-02,4.621205851435661316e-02,1.249701455235481262e-01,-1.026915907859802246e-01,-1.757462322711944580e-02,9.832252562046051025e-02,-1.979954987764358521e-01,-2.289074286818504333e-02,6.916935741901397705e-02,-3.451309353113174438e-02,5.133738275617361069e-03,-5.111700668931007385e-02,-5.369949713349342346e-02,-2.135556489229202271e-01,2.164054661989212036e-02,-1.283109486103057861e-01,-2.626398764550685883e-02,-7.827298343181610107e-02,1.776665635406970978e-02,-4.937013611197471619e-02,-2.430776320397853851e-02,-9.053039550781250000e-02,-1.193716097623109818e-02,-8.732940256595611572e-02,3.523635491728782654e-02,7.719960808753967285e-02,5.764854140579700470e-04,2.576385857537388802e-03,-1.117222905158996582e-01,-4.753972962498664856e-02,6.062849983572959900e-02,9.967140853404998779e-02,-7.313037663698196411e-02,-1.267137937247753143e-02,-7.832076400518417358e-02,-1.268061697483062744e-01,9.090284258127212524e-02,4.833273962140083313e-02,-8.348190039396286011e-02,-2.027720585465431213e-02,1.023917794227600098e-01,1.346164494752883911e-01,-8.337749540805816650e-02,2.781587466597557068e-02,-8.606600016355514526e-02,-8.330731093883514404e-02,3.727395832538604736e-02,-2.648764662444591522e-02,-6.349940598011016846e-02,8.351611346006393433e-02,8.024833351373672485e-02,9.899707138538360596e-02,-8.001199364662170410e-02,-1.215542927384376526e-01,-6.925000809133052826e-03,-3.493971005082130432e-02,1.049672737717628479e-01,1.072403043508529663e-01,-1.682910323143005371e-01,8.663349598646163940e-02,1.580463051795959473e-01,1.397525370121002197e-01,8.815723657608032227e-02,-1.048516761511564255e-02,3.561122342944145203e-02,-4.108064621686935425e-02,-1.178111508488655090e-01,8.189131319522857666e-02,-1.522861868143081665e-01,-4.869544133543968201e-02,-1.450568735599517822e-01,1.249131038784980774e-01,-9.180942922830581665e-02,8.154614269733428955e-02,-1.279009282588958740e-01,1.766218617558479309e-02,9.028914570808410645e-02,-1.594650372862815857e-02,-8.941655606031417847e-02,-1.492996662855148315e-01,2.724320255219936371e-02,1.247305199503898621e-01,-3.596652299165725708e-02,8.071165531873703003e-02,-3.346191346645355225e-02,-6.372485309839248657e-02,1.246050894260406494e-01,-6.571327894926071167e-02,-3.607660159468650818e-02,2.779590710997581482e-02,-1.109269857406616211e-01,-1.475635357201099396e-02,2.709899842739105225e-02,1.193007007241249084e-01,1.279862225055694580e-01,-5.315627530217170715e-02,-3.012569155544042587e-03,-2.388174980878829956e-01,-2.155011147260665894e-02,-1.307224482297897339e-01,-7.213395088911056519e-02,1.462720781564712524e-01,-1.365676522254943848e-01,6.470819562673568726e-02,1.121033281087875366e-01,2.445393800735473633e-01,1.555033959448337555e-02,-9.246248751878738403e-02,5.197705700993537903e-02,-1.474566608667373657e-01,7.780085504055023193e-02,-1.906128376722335815e-01,-1.246869564056396484e-01,1.399526000022888184e-01,-1.232166215777397156e-02,-8.482581377029418945e-02,1.342530101537704468e-01,7.323905825614929199e-02,-1.593496054410934448e-01,3.717024996876716614e-02,1.406571567058563232e-01,-1.299788504838943481e-01,-8.419274352490901947e-03,9.720290452241897583e-02,-4.340231046080589294e-02,-8.218526840209960938e-03,1.143584623932838440e-01,-2.996639162302017212e-02,-1.596605032682418823e-02,1.182343438267707825e-01,9.516942501068115234e-02
1.085526049137115479e-01,-1.893184892833232880e-02,1.107724979519844055e-01,-1.374041587114334106e-01,4.791200533509254456e-02,9.449673444032669067e-02,6.370815634727478027e-02,5.199404433369636536e-02,-5.455118417739868164e-02,-1.182042062282562256e-01,8.597333729267120361e-02,7.834260910749435425e-02,5.744050815701484680e-02,-3.157485648989677429e-02,-1.436218270100653172e-03,-1.064125970005989075e-01,1.361730694770812988e-01,-6.120984628796577454e-02,-1.560897845774888992e-02,-7.728342711925506592e-02,-1.086886152625083923e-01,9.674476832151412964e-02,-7.753919810056686401e-02,1.478260196745395660e-02,7.034672796726226807e-02,8.944699913263320923e-02,4.553892463445663452e-02,-5.688456073403358459e-02,1.062427312135696411e-01,-1.014294773340225220e-01,6.478353589773178101e-02,1.219609472900629044e-02,-5.238023772835731506e-02,-7.091554999351501465e-02,6.944876909255981445e-02,1.612814962863922119e-01,4.012780636548995972e-02,4.313804209232330322e-02,-1.578387022018432617e-01,5.860142037272453308e-02,5.377543275244534016e-04,5.584634467959403992e-02,-7.478162180632352829e-03,1.136712431907653809e-01,8.223924785852432251e-02,6.694393604993820190e-02,-1.016569789499044418e-02,-6.677028536796569824e-02,-1.544216722249984741e-01,-2.247186191380023956e-02,6.445581675507128239e-04,-3.282996118068695068e-01,-8.291164040565490723e-02,-6.279670447111129761e-02,-7.675894349813461304e-02,6.644844263792037964e-02,-7.953625172376632690e-02,-5.953216552734375000e-02,2.526491507887840271e-02,-1.819245889782905579e-02,-2.121301889419555664e-01,7.109318673610687256e-02,-1.233142688870429993e-01,1.042881235480308533e-01,1.194935441017150879e-01,-2.504446506500244141e-01,1.417586803436279297e-01,-1.883894354104995728e-01,-3.474740311503410339e-02,3.140319138765335083e-03,7.666383683681488037e-02,6.991150975227355957e-02,-4.998455196619033813e-02,1.627895631827414036e-03,-9.048528037965297699e-03,6.116449460387229919e-02,-1.279779523611068726e-01,-2.352935671806335449e-01,1.925515569746494293e-02,-1.851930166594684124e-03,-1.875973939895629883e-01,-1.276397407054901123e-01,-4.139713943004608154e-02,-8.220832049846649170e-02,-1.026115342974662781e-01,-8.419328927993774414e-02,8.543422073125839233e-02,-5.941461771726608276e-02,-1.266525685787200928e-02,1.011169925332069397e-01,-8.474133908748626709e-03,1.510912086814641953e-02,-5.801434442400932312e-02,5.351657047867774963e-02,-1.259583979845046997e-01,-6.470898166298866272e-03,-1.413392275571823120e-01,4.693914577364921570e-02,6.679536402225494385e-02,-2.969366870820522308e-02,-6.226215139031410217e-02,-8.201172202825546265e-02,5.061019584536552429e-02,-1.018984019756317139e-01,-1.243614777922630310e-01,-3.343525528907775879e-02,-1.322699040174484253e-01,1.121739074587821960e-01,-1.193761229515075684e-01,-1.558912396430969238e-01,-3.442544117569923401e-02,-1.448002010583877563e-01,-4.559803754091262817e-02,1.000537499785423279e-01,-1.141158863902091980e-01,-1.119823530316352844e-01,-1.935220696032047272e-02,-1.525618433952331543e-01,-1.020319666713476181e-02,-8.473253995180130005e-02,2.255291938781738281e-01,9.208123385906219482e-02,-7.261388748884201050e-02,-1.383467949926853180e-02,3.309422358870506287e-02,-8.306487649679183960e-02,1.028730720281600952e-02,-7.954848557710647583e-02,5.878891050815582275e-02,1.059325411915779114e-01,2.093601413071155548e-02,2.458343654870986938e-02,-8.480203151702880859e-02,5.390272289514541626e-02,-1.045045554637908936e-01,1.595722436904907227e-01,8.380752801895141602e-02,9.623995423316955566e-02,6.109914183616638184e-02,-8.990205079317092896e-02,5.478366836905479431e-02,-2.299754880368709564e-02,7.104170508682727814e-03,-6.055383384227752686e-02,-2.281211875379085541e-02,-2.941820584237575531e-02,-5.195488687604665756e-03,-8.403024822473526001e-02,1.377250105142593384e-01,4.912547022104263306e-02,1.655763089656829834e-01,5.341719835996627808e-02,1.886085718870162964e-01,-3.179868310689926147e-02,1.094548031687736511e-01,-7.182722538709640503e-02,-1.337016969919204712e-01,1.362874209880828857e-01,-5.110330879688262939e-02,1.870580464601516724e-01,9.611897915601730347e-02,6.974282115697860718e-02,-1.283926516771316528e-01,-2.434149235486984253e-01,1.199747715145349503e-02,-1.166811212897300720e-01,-7.417405396699905396e-02,-1.575547605752944946e-01,7.143975049257278442e-02,7.897211611270904541e-02,1.810867637395858765e-01,1.034584790468215942e-01,-7.135748397558927536e-03,-2.158481441438198090e-02,-7.129731774330139160e-02,4.161775112152099609e-02,-3.935363516211509705e-02,7.222176995128393173e-03,-5.003126710653305054e-02,9.537514299154281616e-02,-9.469408541917800903e-02,1.279462873935699463e-01,6.679040938615798950e-02,-1.024443954229354858e-01,-8.079319447278976440e-02,5.691307783126831055e-02,-1.981570869684219360e-01,1.284726411104202271e-01,-3.266124695073813200e-04,-2.619177401065826416e-01,1.226595267653465271e-01,-1.861322857439517975e-02,1.380171030759811401e-01,-6.893946230411529541e-02,1.477772295475006104e-01,2.278576418757438660e-02,-2.391227930784225464e-01,-7.174487411975860596e-02,1.080886423587799072e-01,4.076687991619110107e-02,3.326722979545593262e-02,2.530103921890258789e-02,-5.623109266161918640e-02,1.552356779575347900e-01,3.709824755787849426e-02,6.868344265967607498e-03,-4.992676153779029846e-02,-1.582863479852676392e-01,1.566796153783798218e-01,1.380332261323928833e-01,-7.662891596555709839e-02,-2.127217203378677368e-01,9.458318352699279785e-02,5.873967334628105164e-02,5.100776441395282745e-03,1.405238658189773560e-01,-2.844446711242198944e-02,-2.568016946315765381e-02,1.280239522457122803e-01,-3.113934397697448730e-01,-1.646871864795684814e-01,-2.126912474632263184e-01,-4.818474128842353821e-02,-1.386634409427642822e-01,8.580590784549713135e-02,-6.404335051774978638e-02,3.411610424518585205e-02,-1.885275244712829590e-01,5.875945463776588440e-02,-7.238849066197872162e-03,3.790282458066940308e-02,3.769567236304283142e-03,1.543344855308532715e-01,-1.255832463502883911e-01,-1.978002935647964478e-01,1.112970858812332153e-01,8.954684436321258545e-02,1.023679524660110474e-01,-9.797336161136627197e-02,1.440239399671554565e-01,-9.717516601085662842e-02,3.263723477721214294e-02,6.601927429437637329e-02,-8.969362825155258179e-02,-9.769384562969207764e-02,-2.016891166567802429e-02,2.058586850762367249e-02,-1.029483005404472351e-01,-1.039080321788787842e-01,4.911504220217466354e-04,4.023728892207145691e-02,-1.984420567750930786e-01,-2.556827664375305176e-02,5.919008702039718628e-02,-8.387102931737899780e-02,-1.416797190904617310e-02
2.065743505954742432e-02,-4.095623642206192017e-02,-8.307745307683944702e-02,-8.954605460166931152e-02,4.098876565694808960e-02,7.041189074516296387e-02,7.958894222974777222e-02,-1.647157222032546997e-01,-1.611743122339248657e-01,-1.448051929473876953e-01,-7.149072363972663879e-03,-4.869316145777702332e-02,6.186071783304214478e-02,1.958151906728744507e-02,1.925616115331649780e-01,-4.195030406117439270e-02,-5.375752225518226624e-02,2.686624601483345032e-02,-1.047303751111030579e-01,-1.527844816446304321e-01,3.099169768393039703e-02,-1.542844325304031372e-01,-1.358261145651340485e-02,-3.098402172327041626e-02,7.834657281637191772e-02,-3.061359561979770660e-02,-6.676399707794189453e-02,4.251394048333168030e-02,1.169075891375541687e-01,-1.187809044495224953e-03,4.795039538294076920e-03,1.253255754709243774e-01,5.289350077509880066e-02,-1.383710801601409912e-01,6.061369180679321289e-02,-9.704366326332092285e-02,7.090120017528533936e-02,-5.309258401393890381e-02,-1.619131304323673248e-02,-3.038327209651470184e-02,-1.578719005919992924e-03,5.387715250253677368e-02,3.378173336386680603e-02,8.874136209487915039e-02,6.991548836231231689e-02,1.113638952374458313e-01,-4.864827916026115417e-02,-7.750006765127182007e-02,6.982129532843828201e-03,-3.825133666396141052e-02,-2.611831128597259521e-01,1.347082853317260742e-01,1.076812520623207092e-01,-1.088982000946998596e-01,7.512926310300827026e-02,1.192502602934837341e-01,-1.394186448305845261e-02,9.232381731271743774e-02,7.474461197853088379e-02,-2.514463849365711212e-02,-4.664703831076622009e-02,-8.608376979827880859e-02,2.346709370613098145e-02,-5.914843454957008362e-02,-5.960573256015777588e-02,3.526563569903373718e-02,-3.816184401512145996e-02,-2.513277530670166016e-01,-1.219614818692207336e-01,-1.024698540568351746e-01,-1.288403570652008057e-01,8.266816288232803345e-02,-9.859458543360233307e-03,-4.566586390137672424e-02,-5.763059854507446289e-02,-1.397753227502107620e-02,-1.286815851926803589e-01,6.956792622804641724e-02,-2.979204244911670685e-02,-1.035191714763641357e-01,1.105894446372985840e-01,-3.677025437355041504e-02,3.270346298813819885e-02,-1.115109957754611969e-02,-6.775137782096862793e-02,4.120102897286415100e-02,7.962106913328170776e-02,9.213475883007049561e-02,1.006157994270324707e-01,-1.033859550952911377e-01,7.023761980235576630e-03,-4.539254680275917053e-02,-1.549665480852127075e-01,-3.451339527964591980e-02,-8.452666923403739929e-03,-3.233540058135986328e-02,9.288173913955688477e-02,3.119703195989131927e-02,-8.818815648555755615e-02,6.895369291305541992e-02,-1.603770554065704346e-01,-1.870492696762084961e-01,-1.153263002634048462e-01,2.067389898002147675e-02,-1.410793662071228027e-01,-1.251482814550399780e-01,6.085106730461120605e-02,6.377403158694505692e-03,2.767763799056410789e-03,1.074205785989761353e-01,1.246497407555580139e-02,3.950350359082221985e-02,-1.053329557180404663e-01,-1.043493226170539856e-01,1.249043121933937073e-01,-1.212960779666900635e-01,3.939741849899291992e-02,4.534061998128890991e-02,1.291373074054718018e-01,7.249514013528823853e-02,1.393323689699172974e-01,1.860544458031654358e-02,-7.705323398113250732e-02,3.407299285754561424e-03,1.437588632106781006e-01,-9.365453571081161499e-02,-4.356038570404052734e-02,-6.316821277141571045e-02,-1.470719650387763977e-02,-1.323601752519607544e-01,-5.545075237751007080e-02,8.309317380189895630e-02,-3.505334258079528809e-02,-3.549929335713386536e-02,-7.146461308002471924e-02,-1.389319002628326416e-01,1.900197751820087433e-02,5.536448210477828979e-02,1.483650803565979004e-01,1.105961296707391739e-02,-1.357495635747909546e-01,-1.272964924573898315e-01,-9.498135000467300415e-02,1.908168382942676544e-02,3.399944305419921875e-02,-1.038359776139259338e-01,-3.682406619191169739e-02,-2.841921057552099228e-03,-7.074063271284103394e-02,-9.781971573829650879e-02,6.894595175981521606e-02,-1.231290400028228760e-01,-1.536468714475631714e-01,1.210558712482452393e-01,-1.309606730937957764e-01,2.021575532853603363e-02,3.811188042163848877e-02,-9.982805699110031128e-02,9.124978631734848022e-02,-1.524434704333543777e-02,-6.653827428817749023e-02,-1.008892953395843506e-01,1.198047492653131485e-02,2.278487384319305420e-02,-1.417609602212905884e-01,-1.248371079564094543e-01,5.965925753116607666e-02,1.079955920577049255e-01,2.494974434375762939e-02,5.044119805097579956e-02,-2.138606086373329163e-02,-2.278256416320800781e-01,-3.921843692660331726e-02,1.038848683238029480e-01,5.308549478650093079e-02,6.551851332187652588e-02,-1.023552045226097107e-01,6.918493658304214478e-02,-4.430671106092631817e-04,4.324581101536750793e-02,3.187049925327301025e-02,-1.310952901840209961e-01,3.748961258679628372e-03,4.456486552953720093e-03,-1.118135675787925720e-01,1.169559136033058167e-01,1.363370269536972046e-01,-2.093818336725234985e-01,1.622389256954193115e-02,5.020112264901399612e-03,-1.495703756809234619e-01,9.332109242677688599e-02,1.428736560046672821e-02,2.032151967287063599e-01,1.163390129804611206e-01,-7.982838898897171021e-02,7.191965728998184204e-02,9.487397223711013794e-02,5.468218028545379639e-02,5.074669420719146729e-02,-4.602239280939102173e-02,-9.914667904376983643e-02,6.174965575337409973e-02,-7.890691608190536499e-02,1.599139533936977386e-02,3.160150721669197083e-02,1.279145777225494385e-01,-1.005334481596946716e-01,6.488706171512603760e-02,1.147102713584899902e-01,6.620878726243972778e-02,9.236596524715423584e-02,1.180901974439620972e-01,6.979606300592422485e-02,8.441796898841857910e-02,-3.659085556864738464e-02,1.266115754842758179e-01,1.030397415161132812e-01,9.088288992643356323e-02,-1.091608405113220215e-02,-3.729012235999107361e-02,6.399879604578018188e-02,-3.383797779679298401e-02,-1.696965470910072327e-02,5.223650368861854076e-04,-2.876819809898734093e-03,6.697406619787216187e-02,-1.066576093435287476e-01,-5.707731470465660095e-02,8.568859845399856567e-02,-1.232326850295066833e-01,-1.083865836262702942e-01,-1.470768302679061890e-01,-1.213852241635322571e-01,-1.560171693563461304e-01,-1.677132770419120789e-02,-1.340817064046859741e-01,6.864922493696212769e-02,1.181451678276062012e-01,-4.200824350118637085e-02,-3.929532691836357117e-02,3.162531554698944092e-02,7.003401964902877808e-02,-1.469001919031143188e-01,1.346532404422760010e-01,2.553356997668743134e-02,-8.154669404029846191e-02,1.033912301063537598e-01,1.284040212631225586e-01,-7.357648015022277832e-02,8.202765136957168579e-02,2.298032492399215698e-02,-3.434733254835009575e-03,-9.024059027433395386e-02,7.287751883268356323e-02,3.560058400034904480e-02
-3.033929970115423203e-03,-1.193423047661781311e-01,-1.190326735377311707e-01,9.615742415189743042e-02,-7.739963941276073456e-03,8.291938900947570801e-02,-1.328921914100646973e-01,-1.861146986484527588e-01,3.900633379817008972e-02,-1.534465402364730835e-01,1.129475329071283340e-02,-4.347677156329154968e-02,5.451169237494468689e-02,1.328263133764266968e-01,-6.372874137014150620e-03,-1.202074438333511353e-01,1.526896655559539795e-01,-8.778677135705947876e-02,1.604485325515270233e-02,-2.026827633380889893e-01,-2.181739211082458496e-01,-1.018332540988922119e-01,5.672992020845413208e-02,-8.998885750770568848e-02,-1.200279518961906433e-01,1.352107375860214233e-01,-7.055812329053878784e-02,8.785001933574676514e-03,7.295505609363317490e-03,8.682762831449508667e-02,-9.034275263547897339e-02,8.219992369413375854e-02,-8.960331976413726807e-02,5.756705999374389648e-02,1.841451227664947510e-02,9.953843057155609131e-02,-1.750677525997161865e-01,-9.854888170957565308e-02,1.116721257567405701e-01,1.343440860509872437e-01,1.013036072254180908e-01,-1.240951754152774811e-02,5.849901959300041199e-02,5.753714591264724731e-02,-1.102983951568603516e-02,2.151611959561705589e-03,8.604235947132110596e-02,-4.869122803211212158e-02,1.076670065522193909e-01,1.243597269058227539e-01,1.223812326788902283e-01,2.319828420877456665e-02,-9.880375117063522339e-03,1.440373510122299194e-01,-1.597724854946136475e-01,-9.153116843663156033e-04,8.541691303253173828e-02,8.563020080327987671e-02,-2.571530342102050781e-01,-1.038763225078582764e-01,1.245717704296112061e-02,6.213112920522689819e-02,2.158431895077228546e-02,5.235442891716957092e-02,2.962441556155681610e-02,6.627531349658966064e-02,-3.115255571901798248e-02,8.804019540548324585e-02,1.323971897363662720e-01,9.466128796339035034e-02,-4.554774239659309387e-02,4.735775664448738098e-02,-8.356443606317043304e-03,-2.415901049971580505e-02,-2.209562063217163086e-01,-3.735000640153884888e-02,4.739756137132644653e-02,3.113690018653869629e-02,2.158319354057312012e-01,7.352114468812942505e-02,9.849551320075988770e-02,1.112689077854156494e-01,1.250042170286178589e-01,1.614180654287338257e-01,9.560916572809219360e-02,-1.142735853791236877e-01,1.038713529706001282e-01,3.385260701179504395e-02,-2.987711131572723389e-02,-9.714991599321365356e-02,4.093925468623638153e-03,7.497246563434600830e-02,2.434675395488739014e-01,2.424585260450839996e-02,1.494781821966171265e-01,-6.329849362373352051e-03,-2.717611752450466156e-02,-1.483587771654129028e-01,-1.094676628708839417e-01,1.132536977529525757e-01,1.065033152699470520e-01,-7.803253829479217529e-02,1.166458129882812500e-01,-1.272540390491485596e-01,8.073266595602035522e-02,3.451588377356529236e-02,-4.460736736655235291e-02,-1.877720504999160767e-01,-5.391172133386135101e-03,9.882860630750656128e-02,5.664915964007377625e-02,-6.252302322536706924e-03,-9.177309274673461914e-02,-1.782542318105697632e-01,-1.188350617885589600e-01,-1.507913228124380112e-02,-1.229637935757637024e-01,-1.435355097055435181e-01,1.017834693193435669e-01,-4.152642190456390381e-02,-3.555482625961303711e-02,1.339007765054702759e-01,1.598361432552337646e-01,-3.850788250565528870e-02,-2.678630128502845764e-02,8.405478298664093018e-02,1.376684457063674927e-01,-2.676446747500449419e-04,1.717485040426254272e-01,-2.299425937235355377e-02,9.474560618400573730e-02,-1.300903968513011932e-02,-2.345496322959661484e-03,6.425680220127105713e-02,-2.845221757888793945e-02,-8.817594498395919800e-02,1.097311303019523621e-01,-2.465689368546009064e-02,1.604968011379241943e-01,-1.124013662338256836e-01,-1.618792675435543060e-02,4.625049978494644165e-02,-1.362974494695663452e-01,1.018181368708610535e-01,-1.184669584035873413e-01,9.001055359840393066e-02,1.647872328758239746e-01,3.431069850921630859e-02,6.590130180120468140e-02,7.592924684286117554e-02,-1.267532557249069214e-01,-5.701940506696701050e-03,1.221100166440010071e-01,-2.195679955184459686e-02,-3.407206013798713684e-02,-1.120285093784332275e-01,-1.158069297671318054e-01,-1.774958670139312744e-01,1.235219314694404602e-01,-2.031970943789929152e-04,5.633035209029912949e-03,1.132796183228492737e-01,1.608789861202239990e-01,2.602200396358966827e-02,4.129388183355331421e-02,8.343515545129776001e-02,-5.185496807098388672e-02,1.068094931542873383e-02,-1.515313237905502319e-01,5.761027708649635315e-02,3.741408884525299072e-02,-8.050617575645446777e-02,1.239682883024215698e-01,2.942947670817375183e-02,1.324230339378118515e-02,-2.908596210181713104e-02,1.742278188467025757e-01,-4.513837024569511414e-02,2.489887364208698273e-02,-1.288720965385437012e-01,1.204663217067718506e-01,-1.403764039278030396e-01,-1.763143986463546753e-01,-1.187453418970108032e-01,1.230755448341369629e-01,1.212941557168960571e-01,-1.122572571039199829e-01,-1.720731109380722046e-01,-1.136599332094192505e-01,-5.806036293506622314e-02,-1.225864142179489136e-01,7.270333170890808105e-02,-8.772943168878555298e-02,5.638265609741210938e-02,-1.785243153572082520e-01,9.870535135269165039e-02,1.066439598798751831e-01,-8.683054149150848389e-02,1.016624793410301208e-01,1.499160826206207275e-01,-5.383400246500968933e-02,-1.624394655227661133e-01,-6.395599246025085449e-02,-5.617009103298187256e-02,-8.813291043043136597e-02,4.144783318042755127e-02,-8.559183776378631592e-02,1.760398745536804199e-01,1.354424208402633667e-01,1.188855618238449097e-01,-2.701047807931900024e-02,-1.435789167881011963e-01,-1.173098310828208923e-01,-7.551030814647674561e-02,9.339659661054611206e-02,-1.201451495289802551e-01,4.875573143362998962e-02,-9.590993821620941162e-02,-2.867144299671053886e-03,1.611323207616806030e-01,4.167778417468070984e-02,1.201072782278060913e-01,-7.503097504377365112e-02,-1.197389885783195496e-01,-3.468266874551773071e-02,3.330304473638534546e-02,-6.786591559648513794e-02,-1.611671596765518188e-01,-1.502802371978759766e-01,3.102876245975494385e-02,9.903281182050704956e-02,-9.395882487297058105e-02,-1.218727156519889832e-01,-6.728962063789367676e-02,4.007893148809671402e-03,4.005398973822593689e-02,1.305050998926162720e-01,-8.352247998118400574e-03,3.299466520547866821e-02,1.157465279102325439e-01,2.880731225013732910e-02,-8.048906177282333374e-02,-2.022065408527851105e-02,2.790416590869426727e-02,-6.773673743009567261e-02,-3.520813211798667908e-02,-1.105988323688507080e-01,3.868836909532546997e-03,1.031121537089347839e-01,-1.289787292480468750e-01,8.198658376932144165e-02,-1.006657704710960388e-01,-4.188010841608047485e-02,1.254955530166625977e-01,-1.491849422454833984e-01,1.204717010259628296e-01
6.807395815849304199e-02,8.205904811620712280e-02,3.708430007100105286e-02,-1.103612110018730164e-01,-6.233032792806625366e-02,-4.879203438758850098e-02,-6.442944705486297607e-02,-1.127415299415588379e-01,-8.889307826757431030e-02,5.368781834840774536e-02,1.350238323211669922e-01,-1.410854980349540710e-02,1.172283366322517395e-01,-1.395363081246614456e-02,1.831792593002319336e-01,1.473860256373882294e-02,-1.270598769187927246e-01,1.000430248677730560e-02,-7.936432212591171265e-02,6.456185132265090942e-02,5.002178996801376343e-02,-1.166457831859588623e-01,1.165651530027389526e-01,1.392782945185899734e-02,1.399589776992797852e-01,-5.449797213077545166e-02,-1.350490599870681763e-01,7.333880662918090820e-02,4.385931417346000671e-03,4.375772085040807724e-03,-1.638686656951904297e-01,-2.661678381264209747e-02,-1.583818644285202026e-01,-9.154144674539566040e-02,2.565489709377288818e-02,-1.368561834096908569e-01,-1.406308859586715698e-01,-1.188680976629257202e-01,8.022272586822509766e-02,-1.059652790427207947e-01,9.578760713338851929e-02,1.650210320949554443e-01,-1.276213228702545166e-01,-9.460598230361938477e-02,-1.149286627769470215e-01,9.550243616104125977e-02,1.370241791009902954e-01,-4.910103604197502136e-02,9.763952344655990601e-03,1.014458015561103821e-01,-1.304557323455810547e-01,-3.367239534854888916e-01,4.434066358953714371e-03,-1.269427239894866943e-01,-2.329890578985214233e-01,2.178659476339817047e-02,1.100045815110206604e-01,7.457840256392955780e-03,9.454948455095291138e-02,-3.045006282627582550e-02,-1.956880390644073486e-01,1.503507047891616821e-01,1.021569296717643738e-01,-1.786358952522277832e-01,7.057249546051025391e-02,1.320098340511322021e-01,-7.263644784688949585e-02,-1.816126555204391479e-01,-1.808176189661026001e-02,-5.563877522945404053e-03,1.282591223716735840e-01,4.421579837799072266e-02,1.000717580318450928e-01,-1.135850846767425537e-01,6.599377095699310303e-02,-8.582085371017456055e-02,1.987694650888442993e-01,-1.977444142103195190e-01,-1.108663007616996765e-01,6.373944878578186035e-02,6.369537115097045898e-02,-9.770375676453113556e-03,9.287750720977783203e-02,-6.606032699346542358e-02,2.564344368875026703e-02,6.355330348014831543e-02,-5.775490775704383850e-02,-9.346488863229751587e-02,-1.436908990144729614e-01,7.817977666854858398e-02,-1.199303194880485535e-02,9.198699146509170532e-02,-1.814214587211608887e-01,2.350185811519622803e-02,1.578126698732376099e-01,9.385655075311660767e-02,3.008179925382137299e-02,-9.818311780691146851e-02,6.008587777614593506e-02,1.210301145911216736e-01,-2.886823844164609909e-03,1.627471894025802612e-01,-1.446382999420166016e-01,5.006024613976478577e-02,6.871172785758972168e-02,-9.086665697395801544e-03,7.038419693708419800e-02,5.844043940305709839e-02,7.998750545084476471e-03,7.685659080743789673e-02,1.013474240899085999e-01,7.243482023477554321e-02,8.487348444759845734e-03,-2.290553748607635498e-01,-2.089743763208389282e-01,-1.094624251127243042e-01,-6.101254001259803772e-02,5.933475494384765625e-02,1.026109755039215088e-01,-1.038528531789779663e-01,-5.447300896048545837e-02,-1.664813607931137085e-01,7.159333676099777222e-03,7.294820249080657959e-02,-1.370807439088821411e-01,6.415227055549621582e-02,-1.009103190153837204e-02,1.073240637779235840e-01,8.738802373409271240e-02,1.032882034778594971e-01,-9.491797536611557007e-03,-1.052506789565086365e-01,1.515863984823226929e-01,-1.985963135957717896e-01,-8.774818480014801025e-02,7.637128233909606934e-03,-9.800374507904052734e-02,-1.968397945165634155e-01,-2.014102339744567871e-01,-2.276654690504074097e-01,-4.663300886750221252e-02,1.482053250074386597e-01,-6.003165617585182190e-02,6.608809530735015869e-02,1.714087724685668945e-01,-9.333782643079757690e-02,-1.008560881018638611e-01,4.878846555948257446e-02,-9.149678051471710205e-02,-3.021836979314684868e-03,1.746544539928436279e-01,-2.529972605407238007e-02,1.499857604503631592e-01,-2.202535606920719147e-02,8.482716232538223267e-02,1.977240741252899170e-01,-1.231755316257476807e-01,1.197362244129180908e-01,7.380152586847543716e-03,-5.946090444922447205e-02,3.814549371600151062e-02,-1.199178025126457214e-01,-6.395289301872253418e-02,-3.433044999837875366e-02,-4.203098267316818237e-02,2.200334221124649048e-01,-3.612115979194641113e-01,-2.617231011390686035e-01,1.017110049724578857e-01,8.396206796169281006e-02,-3.444950282573699951e-02,-5.318241938948631287e-02,-5.365848541259765625e-02,1.043802574276924133e-01,-3.610763698816299438e-02,9.866405278444290161e-02,-4.565670788288116455e-01,-8.007477968931198120e-02,3.112883865833282471e-02,-5.803392082452774048e-02,-9.752908349037170410e-02,-1.389813572168350220e-01,8.183793723583221436e-02,-2.284416109323501587e-01,-4.633674770593643188e-02,-9.042783640325069427e-03,-6.361141055822372437e-02,4.331740736961364746e-02,1.130338609218597412e-01,3.159592300653457642e-02,-1.364835500717163086e-01,1.195742413401603699e-01,1.246283799409866333e-01,-5.527582019567489624e-03,-1.281576789915561676e-02,-2.242905832827091217e-02,-9.865778684616088867e-02,-9.611572325229644775e-02,-4.821967333555221558e-02,9.232231229543685913e-02,6.914582848548889160e-02,-1.170307546854019165e-01,8.987373858690261841e-02,-3.141050785779953003e-02,3.668253123760223389e-02,-1.299593448638916016e-01,1.308137923479080200e-01,-2.638610266149044037e-02,5.474059656262397766e-02,1.319517642259597778e-01,4.443322867155075073e-02,1.584386825561523438e-01,-6.083421409130096436e-02,4.079497978091239929e-02,1.222032904624938965e-01,-1.923377066850662231e-01,-1.251400858163833618e-01,5.465319752693176270e-02,-1.020523533225059509e-02,-2.086386531591415405e-01,2.211556434631347656e-01,-9.418543428182601929e-02,-1.371086239814758301e-01,-2.335808724164962769e-01,6.755351275205612183e-02,-5.824869126081466675e-02,-7.211250811815261841e-02,1.031786650419235229e-01,9.034649282693862915e-02,-1.744211912155151367e-01,8.929331600666046143e-02,-5.422848463058471680e-02,-1.741307228803634644e-01,-1.777345985174179077e-01,-1.103844270110130310e-01,9.750453382730484009e-02,-2.926830202341079712e-02,9.178172051906585693e-02,1.956755295395851135e-02,-1.292336285114288330e-01,1.016561761498451233e-01,3.188134357333183289e-02,8.563898503780364990e-02,-7.307832688093185425e-02,-4.961948376148939133e-03,-7.960321754217147827e-02,1.094454452395439148e-01,-7.261887192726135254e-02,-1.678626239299774170e-02,2.303654998540878296e-01,-1.169602200388908386e-02,5.914644151926040649e-02,-1.268884986639022827e-01,4.334525018930435181e-02,9.942946583032608032e-02,-8.446379750967025757e-02
1.087981238961219788e-01,-2.887459471821784973e-02,3.425437584519386292e-02,-1.695182174444198608e-02,1.688154637813568115e-01,-4.426607117056846619e-02,-5.152017995715141296e-02,-3.956742584705352783e-02,-1.403383561410009861e-03,3.876693174242973328e-02,9.878458827733993530e-02,1.130944192409515381e-01,2.640083897858858109e-03,-7.169967144727706909e-02,-1.216768771409988403e-01,1.175006404519081116e-01,-4.038582742214202881e-02,7.307202555239200592e-03,4.904600605368614197e-02,-8.694798499345779419e-02,1.799670308828353882e-01,-8.928573690354824066e-03,2.375940605998039246e-02,3.414278477430343628e-02,-3.870273008942604065e-02,5.617841705679893494e-02,-5.332102999091148376e-03,-1.747777499258518219e-02,-9.931904077529907227e-02,5.231525003910064697e-02,-9.102319180965423584e-02,-1.080301851034164429e-01,-4.905694350600242615e-02,1.236213073134422302e-01,1.017782315611839294e-01,-5.035280063748359680e-02,-7.612504530698060989e-03,6.614725291728973389e-02,-1.033504605293273926e-01,-1.139043048024177551e-01,-1.650225967168807983e-01,1.075886785984039307e-01,4.237047396600246429e-03,6.150797754526138306e-02,-5.189698189496994019e-03,-1.191011294722557068e-01,-8.784198760986328125e-02,-1.442102342844009399e-01,-1.023216471076011658e-01,-1.183451116085052490e-01,6.307183951139450073e-02,1.708220504224300385e-02,-5.417185649275779724e-02,7.389214634895324707e-02,4.940293356776237488e-02,2.062916941940784454e-02,-9.914388507604598999e-02,1.263288557529449463e-01,-4.949164018034934998e-02,2.630517259240150452e-02,-7.593374699354171753e-02,-1.384298969060182571e-02,5.961095541715621948e-02,-1.266645342111587524e-01,5.295258760452270508e-02,-3.677468374371528625e-02,1.042400151491165161e-01,-1.329017430543899536e-01,1.191142722964286804e-01,8.399386703968048096e-02,7.598806917667388916e-02,1.751762256026268005e-02,8.786317706108093262e-02,-9.230890125036239624e-02,-1.074238866567611694e-02,-1.220807582139968872e-01,-6.866672076284885406e-03,1.128264516592025757e-01,3.926820587366819382e-03,1.347751263529062271e-02,7.809509336948394775e-02,2.390860579907894135e-03,1.388562936335802078e-02,1.413675695657730103e-01,-1.552652418613433838e-01,-1.303200870752334595e-01,1.106190755963325500e-01,-1.594844274222850800e-02,-5.948143452405929565e-02,3.898916393518447876e-02,7.139444351196289062e-02,6.401005387306213379e-02,-7.359902560710906982e-02,-1.031751483678817749e-01,-2.384120225906372070e-02,1.254906058311462402e-01,6.676559895277023315e-02,7.501496374607086182e-02,-4.176246374845504761e-02,-9.883644431829452515e-02,-1.420145034790039062e-01,-3.094810619950294495e-02,-8.665186911821365356e-02,1.138926595449447632e-01,-1.175915915518999100e-02,-9.279607236385345459e-02,9.020015597343444824e-02,-9.314742684364318848e-02,-3.172997385263442993e-02,8.105438947677612305e-02,1.812852278817445040e-04,8.480576425790786743e-02,6.580660492181777954e-02,-1.443717032670974731e-01,-1.228264421224594116e-01,4.122088849544525146e-02,9.042505919933319092e-02,1.535497307777404785e-01,1.037526950240135193e-01,-5.313227698206901550e-02,1.531325094401836395e-02,-1.508784741163253784e-01,-9.366071969270706177e-02,-9.783943742513656616e-02,-2.159802243113517761e-02,-7.492030411958694458e-02,1.028639450669288635e-01,-7.389499247074127197e-02,5.737353116273880005e-02,5.032229796051979065e-02,6.682513654232025146e-02,9.888754040002822876e-02,7.845740020275115967e-02,-8.563998155295848846e-03,1.487709581851959229e-02,-3.316285833716392517e-02,-1.139791533350944519e-01,7.115928083658218384e-02,3.915241733193397522e-02,-9.506897628307342529e-02,8.615569770336151123e-02,-1.970475912094116211e-02,4.233481362462043762e-02,-1.016807556152343750e-01,-1.378489881753921509e-01,-5.757053196430206299e-02,7.419254630804061890e-02,-3.419190272688865662e-02,1.370178163051605225e-01,-6.008981540799140930e-02,1.277054101228713989e-01,5.620695278048515320e-02,-7.405397295951843262e-02,-1.448509935289621353e-02,-9.925511479377746582e-02,-1.131080016493797302e-01,-1.155806407332420349e-01,-7.040497660636901855e-02,-7.593993842601776123e-02,5.390208959579467773e-02,6.467598676681518555e-02,-2.727857325226068497e-03,-1.210630908608436584e-01,1.295559760183095932e-02,-5.114547535777091980e-02,-1.861456036567687988e-01,2.624120190739631653e-02,-5.962429568171501160e-02,1.119759976863861084e-01,-1.580609232187271118e-01,1.730821840465068817e-02,6.414464116096496582e-02,-1.584091186523437500e-01,5.593274533748626709e-02,1.581819728016853333e-02,7.135511934757232666e-02,8.851449191570281982e-02,-7.568712532520294189e-02,-1.312314569950103760e-01,-1.163973361253738403e-01,-1.483620703220367432e-01,1.336361914873123169e-01,-5.499646812677383423e-02,-6.509704887866973877e-02,-1.594341695308685303e-01,9.658986330032348633e-02,5.166945047676563263e-03,-1.010756716132164001e-01,-3.256690129637718201e-02,-1.667970865964889526e-01,-1.392730176448822021e-01,8.234666287899017334e-02,-1.416561007499694824e-01,-1.060378551483154297e-01,-2.405359596014022827e-01,-1.522786915302276611e-01,-1.143462881445884705e-01,8.161593228578567505e-02,-8.926182985305786133e-02,-2.125768177211284637e-02,-8.656752854585647583e-02,-4.076227173209190369e-02,2.828423678874969482e-02,4.457467421889305115e-02,1.208277419209480286e-01,1.143406108021736145e-01,-2.240921184420585632e-02,1.516247168183326721e-02,-2.465063892304897308e-02,-4.454893618822097778e-02,-6.871826201677322388e-02,-1.161494553089141846e-01,-2.248540520668029785e-02,8.095867931842803955e-02,4.016541317105293274e-02,-8.119297027587890625e-02,-1.177276521921157837e-01,-2.477377653121948242e-02,1.986550353467464447e-02,-1.451832950115203857e-01,-4.159382730722427368e-02,-5.354177579283714294e-02,-1.239450722932815552e-01,-6.549500674009323120e-02,-1.209749057888984680e-01,-1.074972674250602722e-01,-8.208973333239555359e-03,-9.658820182085037231e-02,-6.665837019681930542e-02,5.366579629480838776e-03,-4.598161205649375916e-02,3.406454250216484070e-02,-1.620007455348968506e-01,9.098432213068008423e-02,-1.639823615550994873e-01,1.048976778984069824e-01,8.402165025472640991e-02,-1.149360239505767822e-01,2.799390442669391632e-02,1.324053704738616943e-01,-6.595934927463531494e-02,-1.915333867073059082e-01,-1.228878796100616455e-01,-2.872284688055515289e-02,-5.646784324198961258e-03,-9.058014303445816040e-02,1.170767657458782196e-02,-9.960880875587463379e-02,6.045991554856300354e-02,1.351117156445980072e-02,2.367044612765312195e-02,-1.152585521340370178e-01,9.488827735185623169e-02,-4.432719945907592773e-02,-1.203557252883911133e-01,-1.355839613825082779e-02
6.005023047327995300e-02,1.003559231758117676e-01,-1.253841221332550049e-01,1.165827214717864990e-01,7.124243676662445068e-02,-1.342243514955043793e-02,-4.854675009846687317e-02,-2.063193619251251221e-01,-4.109271243214607239e-02,1.377946734428405762e-01,5.181422457098960876e-02,-9.398348629474639893e-02,6.527113914489746094e-02,-1.072398275136947632e-01,3.480241820216178894e-02,-2.781412005424499512e-01,6.677059084177017212e-02,-1.395937521010637283e-02,-3.497360041365027428e-03,1.523725986480712891e-01,-5.007197856903076172e-01,1.522281169891357422e-01,-1.319670025259256363e-02,-4.675935208797454834e-02,-2.221648395061492920e-02,1.053046584129333496e-01,1.057721376419067383e-01,5.686035379767417908e-03,4.257021099328994751e-02,-8.908065408468246460e-02,-1.872755736112594604e-01,-8.397309482097625732e-02,-6.766867358237504959e-03,-2.568851113319396973e-01,1.011121198534965515e-01,8.509532362222671509e-02,-1.794071197509765625e-01,1.885307431221008301e-01,1.036382168531417847e-01,4.453599080443382263e-02,1.212339922785758972e-01,-1.554194241762161255e-01,-5.711748078465461731e-02,1.574464701116085052e-02,1.028506457805633545e-01,-2.757874317467212677e-03,4.060028865933418274e-02,1.344547420740127563e-01,-6.990264356136322021e-02,-1.050586849451065063e-01,-2.862407080829143524e-02,-7.555679231882095337e-02,6.803070008754730225e-02,-1.254682838916778564e-01,-1.587545424699783325e-01,-1.218676418066024780e-01,-1.792104691267013550e-01,-1.052768453955650330e-01,-9.792182594537734985e-02,5.816872417926788330e-02,-2.506324648857116699e-01,9.150168299674987793e-02,-2.155931200832128525e-03,-4.733991622924804688e-02,-1.609915941953659058e-01,9.582593291997909546e-02,-2.165267169475555420e-01,1.805589944124221802e-01,1.011887043714523315e-01,1.310315579175949097e-01,5.492785200476646423e-02,-1.171040311455726624e-01,-1.958587393164634705e-02,-2.599050663411617279e-02,-1.117277294397354126e-01,-7.642916869372129440e-03,2.518592216074466705e-02,4.512092471122741699e-02,1.302206367254257202e-01,1.731347665190696716e-02,-7.813858240842819214e-02,1.772648096084594727e-01,-1.191881671547889709e-01,-2.377542704343795776e-01,1.024749726057052612e-01,1.452253460884094238e-01,-5.082142725586891174e-02,1.116212904453277588e-01,-3.839027136564254761e-02,6.984446197748184204e-02,-4.508836939930915833e-02,1.214184239506721497e-01,6.825669109821319580e-02,1.598624736070632935e-01,1.470486521720886230e-01,-4.270957782864570618e-02,6.979364901781082153e-02,1.092695444822311401e-01,-4.547295719385147095e-02,3.015732578933238983e-02,-1.726301908493041992e-01,-1.785533577203750610e-01,1.247856840491294861e-01,1.339392960071563721e-01,1.315446794033050537e-01,3.294453024864196777e-02,-1.684687733650207520e-01,-1.023346260190010071e-01,-1.057600080966949463e-01,2.967769838869571686e-02,7.821100763976573944e-03,3.590384125709533691e-02,-8.072339929640293121e-03,2.233409881591796875e-01,1.991575062274932861e-01,2.019975520670413971e-02,-9.591184556484222412e-02,-4.474128782749176025e-02,-3.465923713520169258e-03,8.530091494321823120e-02,4.486402496695518494e-02,-3.379823267459869385e-01,-2.007759467232972383e-04,3.324833139777183533e-02,5.113026872277259827e-02,-1.727903932332992554e-01,-5.019579082727432251e-02,6.116428226232528687e-02,-6.414686143398284912e-02,-1.531234383583068848e-01,-2.027865499258041382e-01,-1.200816631317138672e-01,-1.315908692777156830e-02,7.264276593923568726e-02,8.178624510765075684e-02,1.062038689851760864e-01,-8.321719616651535034e-02,-1.734186261892318726e-01,-1.428386121988296509e-01,9.466604888439178467e-02,6.253970414400100708e-02,-2.614893205463886261e-02,-2.289216220378875732e-01,7.008375972509384155e-02,1.617103219032287598e-01,-3.056975267827510834e-02,-7.536145392805337906e-03,1.960385777056217194e-02,1.674705557525157928e-02,9.554774314165115356e-02,-5.235141143202781677e-02,8.237520605325698853e-02,-7.256094831973314285e-03,9.218596387654542923e-04,7.241060584783554077e-02,-2.785803973674774170e-01,-4.898899793624877930e-02,1.528812646865844727e-01,-1.591098308563232422e-01,-1.046037450432777405e-01,9.407908655703067780e-03,2.205290598794817924e-03,6.679366528987884521e-02,-3.763487935066223145e-02,1.422038823366165161e-01,9.704629331827163696e-02,-2.260955721139907837e-01,-1.067350432276725769e-01,3.693366050720214844e-02,1.057736799120903015e-01,1.238429471850395203e-01,2.228324860334396362e-01,-1.269518584012985229e-01,6.862174719572067261e-02,-3.567064180970191956e-02,-3.100365400314331055e-02,4.604860022664070129e-02,1.039959490299224854e-01,6.197944656014442444e-02,8.650123327970504761e-02,1.618227213621139526e-01,-3.553553298115730286e-02,5.509324744343757629e-02,-2.302907966077327728e-02,5.577332526445388794e-02,-1.132034882903099060e-01,-7.064595818519592285e-02,1.879493296146392822e-01,-1.338805705308914185e-01,-6.698798388242721558e-02,-1.409880220890045166e-01,-8.494628220796585083e-02,-1.709346473217010498e-01,-4.563412070274353027e-02,1.093778014183044434e-01,-5.858300253748893738e-02,-1.334392931312322617e-02,1.635768823325634003e-02,-1.260629855096340179e-02,-5.490561574697494507e-02,1.225870847702026367e-01,-1.541497260332107544e-01,1.158989444375038147e-01,1.251626480370759964e-02,9.934343397617340088e-02,2.343114279210567474e-02,-8.405438810586929321e-02,-9.876657277345657349e-03,-7.262016832828521729e-02,7.391965389251708984e-02,-1.037714183330535889e-01,9.214239567518234253e-02,4.116258770227432251e-02,-3.457352146506309509e-02,-4.774373397231101990e-02,3.157588094472885132e-02,-6.420183926820755005e-02,-2.328955382108688354e-02,-8.782766759395599365e-02,-7.976577762747183442e-05,6.460893154144287109e-02,1.445720642805099487e-01,-1.681150794029235840e-01,-7.177167385816574097e-02,4.078056663274765015e-02,-6.424357742071151733e-02,1.254937499761581421e-01,8.119127154350280762e-02,-1.195757165551185608e-01,3.248356282711029053e-02,-2.046844689175486565e-03,-1.006164699792861938e-01,-4.012942314147949219e-02,1.206525340676307678e-01,1.313543170690536499e-01,2.527746604755520821e-03,-1.136259958148002625e-01,-1.178742125630378723e-01,-9.145871549844741821e-02,-1.055455207824707031e-01,-1.297757625579833984e-01,-1.168493330478668213e-01,-1.009574979543685913e-01,-1.049198582768440247e-01,-1.208802610635757446e-01,-2.108226716518402100e-02,-2.553628385066986084e-02,-2.323204465210437775e-02,7.359687704592943192e-03,-1.975416541099548340e-01,-3.425518423318862915e-02,7.025143504142761230e-02,-1.461589150130748749e-02,7.802464812994003296e-02,-1.566207110881805420e-01,2.359476871788501740e-02
-7.736427336931228638e-02,-2.884145081043243408e-01,5.718697607517242432e-02,-7.066938281059265137e-02,-3.944564610719680786e-02,1.184731721878051758e-02,-2.439930662512779236e-02,1.156682521104812622e-01,5.238345637917518616e-02,-5.027966201305389404e-02,8.458858728408813477e-02,6.962200999259948730e-02,-1.183438748121261597e-01,6.545574963092803955e-02,-4.591485485434532166e-02,-1.008265241980552673e-01,6.964054703712463379e-02,-1.433142572641372681e-01,-4.848650097846984863e-02,-1.551621854305267334e-01,9.223166108131408691e-02,-1.435261070728302002e-01,-3.660779818892478943e-02,1.211408227682113647e-01,-9.775009751319885254e-02,9.697104990482330322e-02,1.244434416294097900e-01,-2.830502204596996307e-02,-2.566589415073394775e-02,3.979916870594024658e-02,6.358783692121505737e-03,4.499885067343711853e-02,7.044868171215057373e-02,-1.660380959510803223e-01,5.356923863291740417e-02,-1.093540489673614502e-01,-5.874336697161197662e-03,-5.609955638647079468e-02,-7.839093357324600220e-02,-8.613901585340499878e-02,2.192414179444313049e-02,-2.468519210815429688e-01,7.241404801607131958e-02,-5.052591860294342041e-02,-4.085232317447662354e-02,9.260236471891403198e-02,6.030711159110069275e-02,-4.449809715151786804e-02,1.151041537523269653e-01,-8.546365797519683838e-02,4.835397750139236450e-02,-6.289577484130859375e-02,5.441241711378097534e-02,4.989133030176162720e-02,-1.166875511407852173e-01,1.178422570228576660e-01,5.761183053255081177e-02,9.726230800151824951e-02,-4.757701978087425232e-02,1.824818551540374756e-01,8.357216604053974152e-03,1.815384626388549805e-02,9.145941585302352905e-02,1.572620421648025513e-01,-1.141748428344726562e-01,-1.125240474939346313e-01,-3.905574977397918701e-02,5.719676986336708069e-02,-1.406914293766021729e-01,-2.654656767845153809e-02,3.251713141798973083e-02,1.577088385820388794e-01,-9.423571825027465820e-02,-1.395907551050186157e-01,9.525988250970840454e-02,1.963518559932708740e-02,-1.557339280843734741e-01,-1.141663566231727600e-01,-5.236491560935974121e-02,6.170588359236717224e-02,-7.670852541923522949e-02,-4.302329197525978088e-02,2.639184892177581787e-02,-1.591035723686218262e-01,6.848801672458648682e-02,-2.184371277689933777e-02,1.923023536801338196e-02,1.390583813190460205e-01,-3.414578735828399658e-02,4.442271962761878967e-02,7.470091432332992554e-02,-2.728427760303020477e-03,3.722870349884033203e-02,7.331184297800064087e-02,-6.584648974239826202e-03,-6.430751085281372070e-02,6.905174255371093750e-02,3.197384253144264221e-02,1.744386553764343262e-01,9.828414767980575562e-02,-5.179306119680404663e-02,-1.282647252082824707e-01,5.364191159605979919e-02,-3.148922696709632874e-02,4.540906473994255066e-02,-1.230403333902359009e-01,1.703221164643764496e-02,-1.134279593825340271e-01,1.369236260652542114e-01,9.586254507303237915e-02,8.424470573663711548e-02,1.475774943828582764e-01,-1.375886797904968262e-01,8.869932591915130615e-02,-1.682662665843963623e-01,3.907496109604835510e-02,2.127047441899776459e-02,2.150333859026432037e-02,-1.112556010484695435e-01,-6.397432833909988403e-02,-1.958797723054885864e-01,-1.440657228231430054e-01,1.881373487412929535e-02,5.786482244729995728e-02,6.011792272329330444e-02,-6.386256963014602661e-02,1.002283021807670593e-01,-6.670696288347244263e-02,-9.871679544448852539e-02,1.441088616847991943e-01,-9.312310069799423218e-02,-1.535664051771163940e-01,-2.028353810310363770e-01,-1.383866518735885620e-01,-1.301321238279342651e-01,-5.830774456262588501e-02,-9.171720594167709351e-02,3.337896242737770081e-02,1.931055784225463867e-01,-3.464394062757492065e-02,-4.530774429440498352e-02,-1.417839378118515015e-01,1.172026991844177246e-01,-1.509221792221069336e-01,9.301605820655822754e-02,4.599193483591079712e-02,1.391879022121429443e-01,-1.388740092515945435e-01,-6.448876857757568359e-02,-6.593703478574752808e-02,-2.997758090496063232e-01,6.819134950637817383e-02,-2.068920806050300598e-02,6.806213408708572388e-02,-2.921655029058456421e-02,2.969610132277011871e-02,3.309687972068786621e-02,-1.389996558427810669e-01,1.385707110166549683e-01,-1.521490812301635742e-01,-1.569897085428237915e-01,-2.169418148696422577e-02,1.261324137449264526e-01,3.773045260459184647e-03,6.659479439258575439e-02,-9.813658148050308228e-02,-2.494236379861831665e-01,-1.235021725296974182e-01,4.134764522314071655e-02,-8.586204610764980316e-03,-1.007215529680252075e-01,-8.805499970912933350e-02,-1.882761530578136444e-02,6.133570522069931030e-02,-2.972885593771934509e-02,-8.330436050891876221e-02,-1.022895276546478271e-01,-3.504314273595809937e-02,7.402600347995758057e-02,-1.421056240797042847e-01,5.057913810014724731e-02,-1.328991651535034180e-01,-6.067645177245140076e-02,-1.956048980355262756e-02,4.000025615096092224e-02,3.039630874991416931e-02,1.387344151735305786e-01,2.806871198117733002e-02,2.331583388149738312e-02,9.316421300172805786e-02,-1.518586724996566772e-01,-6.561774015426635742e-02,-5.072255805134773254e-02,-7.055761665105819702e-02,-5.781264975666999817e-02,-3.028147667646408081e-02,1.207508891820907593e-01,-1.464910358190536499e-01,-1.091096252202987671e-01,-1.020868197083473206e-01,-1.080508381128311157e-01,8.232537657022476196e-03,9.302675724029541016e-02,-1.794296205043792725e-01,-3.882696386426687241e-03,4.863920062780380249e-02,-9.245365858078002930e-02,1.500881016254425049e-01,-5.661024153232574463e-02,6.836514919996261597e-02,7.799620926380157471e-02,-5.804565921425819397e-02,-1.810623705387115479e-01,-1.424671709537506104e-01,-8.129672706127166748e-02,-3.262669220566749573e-02,-4.172791540622711182e-02,-1.245797798037528992e-01,-6.839396804571151733e-02,-2.172012329101562500e-01,-1.461876183748245239e-01,-8.300628513097763062e-03,-8.445999585092067719e-03,-7.982558757066726685e-02,-1.166171282529830933e-01,-2.568791806697845459e-01,2.100220024585723877e-01,8.571777492761611938e-02,-1.077775955200195312e-01,-6.869056075811386108e-02,-7.827702164649963379e-02,-1.359451860189437866e-01,9.830772131681442261e-02,-1.900338232517242432e-01,-1.564101278781890869e-01,3.897630050778388977e-02,1.776321046054363251e-02,1.465410739183425903e-01,1.126822754740715027e-01,1.091202255338430405e-02,-1.409927606582641602e-01,-2.149965316057205200e-01,-2.074062228202819824e-01,5.085768923163414001e-02,8.158606477081775665e-03,1.182097420096397400e-01,5.586914485320448875e-04,-6.364589929580688477e-02,1.020719185471534729e-01,-8.456107228994369507e-02,-1.001681685447692871e-01,-9.225254761986434460e-04,-3.320453921332955360e-03,-6.675180047750473022e-02,-3.056896030902862549e-01,1.049409806728363037e-01
